svm_type c_svc
kernel_type gkm_esttrunc
L 10
k 6
d 3
nr_class 2
total_sv 19249
rho 0.773244
label 1 -1
nr_sv 7837 11412
SV
1 TTTGTTTTCTTATGCCGTCTTGTATTTCCACTAACGAACT
0.3748557090333295 AAATGACGCAACAACCCAACCGCGACCGCAGGGACTAGAG
1 CCCACTCACAAGCTGGTGGGGTGATACCCCGACACCCAAC
0.03195511002026663 ACTGCCCAAGCGAACATGATGACTACACATTTAGAGCACC
0.1012822540185363 CGGTGCATCTGTGTGACGTTACATTTCCTTCATGGATGGC
1 TCATCACTACACCCTACTCCAAGTCGATTCCGCCGTCACG
1 CACTCAAGCGCGCACTCAGTGCAGGCCTTCACAGGTACAG
0.3542448614692112 GACGTAACCTCCCGGTCTGGGACAATGCGGTGTCGACAGA
0.801577393638401 GATGTCATGAGACTACGTTGACAGATCTGCCGTTGCAGCG
0.05526400393641544 CGGGATGACCTCACGCCCCCTGCATCGGAATGCTGAGGTT
1 GGGCCGTAACACTCATTAGGCTGGGCACCGCGGCTTATAG
1 GTCGAGTATGTTATGATAGTATCGAACAGCAGAGTGGCGT
1 TGTCACCCTGTTTGATTGATCGGCCATGCGCCGCTATCTT
0.7460216735397708 TCGATATGTGGCAGCTGGACTAGGCTAGTACTGATGACGC
1 GAGCCAACCGAAGTAGTCAGCATCCAGCATCCCCAACTGC
0.6477989443450901 AGAGGCATCTTGTTCGCTAAGATTATGTTGTAGATGACGT
1 GACTCATTATTGAAAGACATAAGACGGCCTTACACTTCTG
1 GATGCAACGTCGCCCCGTGCATCCTGCATATAACACGCAT
1 CAAGCGTTGCTGGCTGTCGATTTTGTACGACTAACACCGG
1 ACTTCCGGTGCTGCACATTGGTATTTACGCTAAAAAGACA
1 GACTTTCTGCCCGCTTATAAGCAGCCTAGATTCTGATGCT
1 GACGTCAAGACCTTGAAGCTGTGTACTCCACCAGCTCGCT
0.3697078004853236 CGTCACCACGGTCATGCCCGTGAACACCGTGACGTTCTCT
1 GCCCATTTTTGGGTGCTATCCTTTTACCCACCGCGTTGAC
0.07961393879839165 GTTGTCACTGTGTTAGCACTTACGCAATCTGCGTTTGGAG
0.56155701426865 TGAGGTGCATTGAGGTGAGACGTGGTGACGATGTGGGGAT
1 ACGCGACGCCCAGGGTGCCTCAAGGTGCCTGGGCTTACGT
0.9814671283125975 AGGTCCGCGACTCGTAGTATACTGCATATGTCATCGTGTA
1 GATGATGATGTTACCTGCATCCGACCGACAAATCTAGCCC
1 CGTCACCATTGTGTGTTCGGTATGATTTTCTCATTTTCGG
1 ACCGGTGCCTTTAGCGGAAGCGGAAGGGGATGGCTCACTA
1 ACGACCGATGCAGCTTGTAGGTCCATATTCTAATCGCCGC
0.2740007769886628 CGCAATGAAGCCCTACCATACCGCGATTTCCAGATGACGT
0.2471678730347601 GACGTAATTATGAGCCTAAGACATCCATCCTGCACACACG
0.4302184991393287 ACGGTATAAACCGCTGCCGTCAGCGTGATTGACGATGACT
0.04174770015459339 CCGCACTAAACCAATTCTAGTGCTCGATGACATCCACAGT
1 TCGTCGTGCATCGCTTGAACCGGACTCCAAGATTTGTCAC
1 GAGGGGACGCGGTCAGAGTGGAACAGTCCTAACAGATCGC
0.4017490537549787 GGACGTCATAGACCCCAGCCTCACCCACTAGTCACCTATC
1 CCGGATGTAAAGCGCTGAGCAATCGTTGCTGCTGTCCCGG
1 GAAGCCGTACGAGACACCTGCCCACGCGCAATCACATTTG
0.3790385264421093 TACGTCATAATACAGTACACTGGTGCCCATGTTGCTGTGA
0.1586890407537514 TTCAGCCAAAAGATAGCCGGCTTACTCCGCGATGACTCAC
0.2772538994475761 TAATACATAAGTCGTACACGTAATCTCCACATGGTCGCAT
0.4979047891752236 TCATTATGCTCGATAGCCGGAAGTGGGTGAGACATTCGCG
1 GCCACCAACGGTGATTCTAGCACTTAGGACACCGCAGCGC
1 GCGCCGCTTCTGACGATGGATTGAGACACTTCTCTATTGG
1 ACACATGAAGCCGCTCCACGCGCTTAGCGCGATATGACGT
0.09797994265672251 CGCATGCTTGATCAATAGCAGCACGTCACTCTCGTTCGTC
1 CAGTCAAAACCGATTTTTAAAAAATGACGGAAGCATCTCG
0.6411566609027737 ATCTCATGACCCCTCGCATCCCCAAACGTGCGTGTGACGT
1 GCAGACAGGTTCGAGTGAGAATGACACACCAGAATCTTGC
1 TATTTGGAACGCTGGAGATAGACCTGTCGATATGCGCCGG
0.3648891527246581 ATGACATCAGCCCCATACTGTCGTTCCTACCACATGCGCA
1 GACGTATGCAGCGGTACCTTTTTCACTGGACTAACACTGT
1 GCTTCCGGTCTTTTGCTGAAGCTGATCCACGTTAGGGTTG
1 TCCGTCCTTAGGCCTGACAATACCCCCTTATGATCTCATC
1 TCGTTCCGCTAGATTTCACAGCTTTTCTGGACATATCTGT
1 TCCAGGCAATGCTAAGGGTTCCCGAGTCGGCGTCCACCGC
1 AGGTCTTGTAAGACTACTCCCGCATCCACCTCCCAAGGTC
0.1291867513887413 AAGACTATGAATGAGTCACCAGAATGGGAGCCCCGATACT
1 GACACACCAACCTACCACGTAAACCTGAGGCCGCATTACT
0.07518911994884193 ATACGTCACCGGAGAACGATCTCCGTCCGCATTCTTCGCC
1 CAGCTGCGGTATTTGCCGAGGTTGGCAGGTAGACAGCAGC
1 GCTCCCTGCGGAGTAAGATTTACAGACCTTAAGACTCATT
0.8665576125551578 GCTAGCCCTCACTTGTCCCCCAAGACCTCGTGACATCATC
1 TCCCCATGACTGTTTAATTCTGTCATACTATTGAACCTGA
1 ATGACCACACCTACGTAGACGGCACGCCCAATAGACTCTC
0.3557843737249888 GCCCTATACATAGGCTGGACCTACCGACTGCCGATGACGT
1 TAAAGAACAATCACGGACGGTGATTGGAACAGGATTAGCA
1 TGGGAGGATGCAGGCGCGCCTGATTCAGATTAACTATGGC
0.5375478921136637 TTGTGCCCACGTCAGAGTGCTGTGCATTGGGATCGTGAAT
1 GATATCATTCTTGTCAGCACTTCGAGGTCCAACCGCACCC
1 CCGATGACCACATCAGTAACAAACTCAATCACATTGCCTT
0.06915343751336177 GAGATCATCCACACACCACGCCACCATATACGCGCGATGC
1 GTGACGAATCACCGAGCATTCACACCATAGCTCTACCCTC
1 GCGTCAGATGAAGACATTTACAGAGGCTATCGCTGCACTA
1 GTCGTCAAACGCGTAGCAAATTCATCGTTCGTACTCGTGC
1 CGTTTTATCGGATAATGTTTGATGGCGTACAGCCCGCGTG
1 CGGGTTGCTTGGCCTATCTAGGTCTCTCGCGCGGGAAGCT
1 GGAACACTATACTAAAATTGTCAACCCTTCTGACTCACAA
0.03936660342639936 CATCAGGAGGCGACCCGGACTGCCATCGAGGGAGTGACGT
0.8300776313865125 GACATCATAACGCTACGGGAGCGGCCAACCTTATGAGCTA
0.2225939392151162 TTAGCCTGGCCGACCTAACAGGCGCACATTATGACTCATA
1 CTGTACACATGAGCTATCAAGTAGGAATGCTACACCGACT
1 AAAACCAAGTAGCATCAGGCCCCTCGAAAATCGGGACGGT
0.007773339240038738 CTCACGTCACCTCCCGCGCTACTCTGAGGGCGCAATGGAG
0.4346574222175872 ATGGCGTCACCCGAATGCTACACTTTCGGGTACGCGGTGC
1 CCACCACCAGCCAAGTACACACTACTGCGCGATACCACCG
1 TACACCGGCATTGGGATCAGACAGTCTGGCACCTACGCCC
0.1533426379592306 GCTGCTTGCGTCAGTACTGCCCGTAGTGCCGATTCTATGC
1 GTACCCACCCTGCGTCGACACGCCTCACAAAGATGCAAGA
0.6849230152779254 AGTGCACTTGAAAGGGATTACGTGACTCCCCTCTTCATAG
1 GATGACGCATCCCTCCACCCCTTCATCGGGCCTCGTTGCC
0.4581707643670984 ATCCATGAGCACACCCTACGTCACGGCTCAGCAGCTCAGC
0.5171979247616293 CCACGTAACATTAAATGCACCCTAAGGCCGATAATGACGC
1 CGACGGAACTTCCGGCTCACAGTAGTATCGATCCTCGTGT
0.6116752153629906 TAGCAATCCCTATCACCGCACCTTCGACGTGACATATGCT
0.4174334042271581 GACGTCACCTAAGCCGGGCACGTTAAAAGGGTCCTGTGCC
1 CATCAGCGTCTCGAGCTTGACTGTTCACGCGGCATCATGT
0.643991451396062 TACGACTATTCGTGTCGTAATCAAAGTGCGCTCATGCGCC
1 GCCGATGAATGTTTCATTTAATGATGACAAGCCTTTTACT
1 TGGTGACGCGTACAGCATTACACTTCCCGCCCCCTTAACG
1 ACTAAGGAACACGAGTTCATGAGGTAATCACTCCCTCCAG
1 CACTCTTTTCACGTGGTTTGATAAGTTTGTGTGCGTCATC
0.3127142778786038 TGCGTTCCTAGAGTGTTACTCAGCTGTGTAACAATGACGT
1 TCGGGTAGGCAGGATTATGCCCTCGATGACTGAGAATCGT
1 GAGCTCACCACCGTGACTGGCATTAACCTGCAGCCATGCC
1 TATGCTGATTACAATCGTGATCTAGCAGCGCGCCCGGCGA
1 AAACAAACCTCGTATTAGGAATTCAGCAAACGTGTCCCCG
1 GCCGCCAGGCTCTCTGTGGACTGCCTGGATTCTAGGATTA
1 GTTGCTCAAGTCGCGTTCTGCGAGCGTGAGTCACTATTAC
1 GATGTCACATTGAGGTCAGAGGATCTTGCCTCGGTCCAGA
0.5205807782439806 TAGTGATGTAAGCGCATTACGGCCGTGATCGGCACGGCAT
0.6881464207089356 AGTCAGAATGAAATCACCCGCGTCCTAGCTCGCCACGGGG
0.7785095022447347 AATGATATCACCGGGATGAGATCGTTTAATCTAGCCGGTT
1 GAGTCATATGATCACACCGCAATCCAGATCTGCAGAAAAC
0.8780550357589918 GACGTAATGTTTCTGCTCCGCTATGCTCAATTAACGTAAC
1 AACCCCCCGTAGTCCCCACTCGTACCACCTACACCCAGCT
1 TTGCACCTCGAGCGCAGGCATGACGACGCCGGTTCGCTTG
1 CAACCGGAAACTCTACAGGAACACCGATCGGGGAGTCCGC
1 CGATACACCGCGCTTACCAAGCGTACCGCAATAGGCTGCC
1 TCATGACGCTAGCATGCGTCAGTGCGCAATAAATCTCAGA
1 ACATACACTTGGCAACACCGACTGACACTTTGCGCATGAT
1 GACCTAACGCATGCCATTCCAGTACGCGCGTGTGTAGACG
1 GCGCGTGTTCTCGTATCTTTTCCTGCTCTCCTCTCATGAT
1 GGACGGTGCGGTGCACCGTGGCTTAAGCTAACCCTTGCCC
1 ACATGGCTGCCGGTTGAGGAGATGCGTGTGATAGTAACTT
0.1405433469335592 GGGAGCTTATGTCACCCTCAAGCTGAGATATATCACTAGT
1 GCGTGGCGCTCGGCTGGCGTGCTTACGTTTGATAACTCCC
1 ATGGACCAACCGGGCAGTCCAAAGCGCATTGAGTCTACCG
1 GACACAATTGCCCACCAAGAGACCCCGCAACCGAGAGAGC
1 GATCGCAGTGATGGCTGACTGTAGGCAACAACTGGATACG
0.4296626962391009 TAAAAGCAGTTACATAGCTCCCATACATCATCGCGTGCTT
1 GTTCCCTAAGAGCAGCGACTAGGGGCGCGAAACATTACGT
0.8590400106877097 CCAACTTGTCAGCGCGCCGGCTATGGATGGAAAATGACGT
0.9233753462188629 CATTACGTAATACGACAAAGATGGCCTACAGAGGCAACCC
1 CAGTACTAGCGTCGCCGTGTATGCAGCGCAACAGGTCACG
0.9014580097558417 TAGAGGAACGTGATGTAAGTATGGCCGTTGGAGGACAGTA
1 TCATGCTATGGCTTCGCTGTTGCACGGTCACAACCCTCGA
0.7765353417813073 GATGTCATAGCTCCGGGTCACCGCGGTGTGCACGGCGTTC
0.7148632263548426 GCCGCGTTGCCCACTCTATACTGTAACACCGTTATGACGT
1 GTGTGTGAGCTAGTTCGCACGTTTGGATTGATTCGGTCAT
1 ACCTCCCTACGCTTCCTCACGTGGATCCTGAAGGTGACAT
1 CCAAGCTAGGATACATGTATGCACATGTGGTACATCGCGC
1 TGAAGAGCAAATGAAGTACTACTGCTTACGTACGCTGGCT
0.5343786546650738 TGCGTCCACCCTGAGCGCTAACAGGGCACACCGATGACGC
1 TCGCGCAGGTTCGCGCCTCCCAGTATAGCCGACGTAATGC
1 ATTCGGGAACATAGTAACACACATCGCTAATGCCGCTCCC
1 CCACTACCCCACAAGACTGGACATAGAAGGCAAGTGACGC
1 ATCTAAATTCAGGGAGTTACATAACTAAGCTTGCGCGGCG
1 TTCCGGGCGTGACATGGCGGTATGCGCGCAAGCTCCTGGC
0.932800035286085 TCAGCTCTACTTGTTACACCAGTTATGACTATGACCTAAT
1 AATCGCGCAGTGTGCAGACACATTAGATTCCGATTGACGC
1 ATTCACCACGATAATTCCAGATTTTCCCTAACTTGAGCTC
1 CTATATGTTCGTCACCCTCTTCCATAAGTGACATTGAATC
0.5002782655174726 TACGTCACGTTTTCTGCATCAGGCGCCCAAGACCTGTCTC
1 GTTATACAATGAATCACTTACCGAATGACAAGACACGCTA
0.1254631870207124 GTCAGGCCTCATTGCACTAATGAGTTCTGTTACGTCACCG
0.2821354535027707 GACGTCACATCGCGTGGGCAGCTCGATCAAGCTTCACGCC
1 GACCTGAGAAGTAAACAGGAGAACCTAAAGCATAGTGCGA
0.8578605271937242 GATGTCATGATTCAGGAAGGTCAGTACCCAATGCAAGAGG
1 CAAAAGGGCAGGTAGGGCCGTGTGTGCGAAGACAGTTAGC
1 GTCGGCGCAGCTCCCGCTCTCGCTATGTATGGTGTCACAC
0.551810724669728 TGGTCATCAAGCGAGACAAGTCAAGAACGTGACGCTGCGC
1 ACTGGGACACTCTAGTGATGATACGACGGGCTGGTACGCG
0.7144824119156817 CATTTCGTTTCTGGTGACGTTTTCACCCCGTAACTATGTG
0.7051339559363207 ATGATAAGCAAATCGCGATACGACATCGAAATTATGACGT
1 TAGTACTGATTATAAGGTTTATTTGTTCAATATAGCTCTC
1 TAAGCCTTACGTTGCGTAAATGATATGCGGAGCACTAGTG
1 CATCGTTACTGCCTATCCTTGCTCGCGCACACCTCATCTC
0.8185553509908491 GACACCATGACGGCGGCTGTATATCGAATGAGTGAATCGC
1 GGACCGTCGAATCCCACAATAGCCAAACGTGTAACGTTGG
1 CGAGATGTCAAGGCGTACTGCAAGTGGGGTGCGTTCTTTA
1 GGGGCCACGAACCAACCAGCACCGTACTGGTCGGTGACGA
0.40763670317642 GATTTAGTCATTGTGCTTCTCGTTTGTCACGTACCTTTAT
1 GATGCTGTTCTACTTCCCTTTGTGTAATCGATGTTATGGT
1 GAATAAGATCAGCCACGCATTTGGGAAACACGATGATCGC
1 GCAAACCTCACGTGAGTGCACCACGACGATATTGGCGGTC
0.2282705350174169 ACTGCGCTGCTCAGAGTTCCGTCACCGTCTCACCACTACC
1 CCGTAACCAATGACCTCCCCCCAACGTTCACCCACAAAAC
0.2473080237653351 ACGATGGTGGCCAGCGATGCAAAACAGAGTCAATGACGTC
1 TACCGCGCGCATAACACGAATAGCATCATCCTCCAGCAAC
0.08373032803624948 GTGATGTCATTCAAGTTGTATCTTACAGCCACTATACACC
0.4870984083604861 CGCACGCAGTAAAGGCAGCTACCCGCATGACGACAACAGT
1 GAGTGCTTCTTAACCGATGACCTGCTTCCCGTTTCGGCTG
1 GACGTCAACACCTATCCACCCCACTAATCTGACAGAACCC
1 AAAGAAGCTAAATACCGCACGCGACGACGCCATCGGACAG
1 CGCGCCACACTACCCTCCATGCAACCACACGCCAACAAAC
0.7518539276776176 GCCGCTCACACTTCGGGACTCTGGGTCGTTCCGGTGACGT
0.4195061088591359 ACGGCTCACGCCCAACAGAACATTCGTCACTGCCCACCCC
0.2653759239838318 CGCCAGTGCCCTCCTTACATCACTGCATGCATCTACCACC
0.9807801038631845 GGTAACCAGCCAAGAACGGAGTACGTCGAGATCATGACGT
1 ACTACAAAACCCAATCGATAGAAATCGATGTCCACTTGAA
0.4332863399532079 GATGACTCACCAGGAAACCCACGACCTGACTCGCTGCCCC
1 CGGTCCTTACTCTGTTCCCTACTCCTCTCCCGGGTACGCT
0.2725220700386964 GACGTCATTGCAGGACTCCAACAAGTCCAGAGGGGATCGG
1 TGAACTTTGTCCCTTGGGTCCGCTGTAAGATGACAGAATC
0.3070205635576673 CTCGGACAACACTTATTGACGTAAGCTTTCTCTGTTTTTA
1 GCAACGTACACGGTAAACGCTCACTAGAAGCGATACGGAG
1 TTCCGGTTCTGCGAAGTCACCGTACTCTAGGTTCCAGGTG
0.4497815917629266 ACTATGATGATGCGTGCGATGTAATCCCCCTATGTTTTGC
0.7260209822669831 CCTTTTTTTCCCATTATCGCGTGTTACGTGAGCACGACGC
0.4528257226849097 GATGACGTAAACCGCGCATCCCTGCTTAGTCTATACGTGT
1 CATCCCGACACCACGCCATGCGGTAAGTACTAAATGATGC
1 CACCAACACGTTGCTCTAAAATACACTCTCTTTTACCCGC
0.2368257956177142 GACACAATGCACTATACAGCCCTGATGAGCTCATCTATAC
1 GACATGCCAATCGGATCACGACCACATCGCGAACACATTC
1 AACATAAACACCTAGACGAACCACAATTACAATGTCGAGA
1 ACCACCCCTCTGCAACGCCCTGCGCTAACAATCAGCGCTA
1 GCCTATGCATGTGTTGCGCGACTAGAACTTCCGTTTGGTT
0.3891174828052104 CAGCTGCTTTGCGATGCTTCCTGTCGGGTACAGTGACGGC
1 GTTTCTGGTGCGTTGTGATTGGGCACAACATGTGTGACGT
1 TAGCCGTGAGAGTCTTTGAACGAGACCCAGGGCTCTAAGA
1 GTGCTCGGTGCGGGGATGCCACGTAATCGACCAACGCGAC
0.0211296126907716 CACCACGGCCACGCGTGGCGCGTCACCCTGATACTTATTT
1 CGGGCTTTGCTTTTTATGTACTTCCGGCCGCTAATTATCT
1 GCACGACATACCGCTAAGTTCCCAGCTGAGATGGGACTTG
0.9252619031904932 CCAAACGCAATGACGTTTTTGTATGGCCTAGCGAGAATTT
0.1339319543874553 GTGGTGATGTAAGCTAAATATAGCTAATATGGGACCAAAT
0.484447501049752 TGAGTCAATGATGTTGTCACTTCAGTTGCCCAGTTATGGT
1 GCGAGTGCAGACGTGACCACCAGTAGTGAAATTATGCGCG
0.8852972062307946 GACGCAATGACCCTTCGCGCCGACCGGTTCACGCACACCG
1 CACATCACCAATTTGAGACAGGCAAGCCTCTTAGCTATCA
1 GGGCAAGCAACATGCGCCTCGCCGTATGACCGCGTGCAAC
1 GATAGAATGGACCGAATGAATCAGGTTGTATGAGATGACC
0.901572619109747 GCTGTCGGAACGGTGACGCTTTCGCGAACCGCTGCGTCAC
1 GTACGCGGGCGCGTGGATGTCATGTCGTCGCTCCGTAGCA
1 TTAAAAAGTTTACGCCGGACTAAACTGTAGGGCTTGGCAT
1 GACTAAACTATTAAATAAACTATACCTGTAGTTCGGATTT
1 GACCGTGCTGACTCAATAGAGAATTTCACACTCTAACGTA
0.3815440116550022 TGACGGCGACAGAGAACAGCCCGTACACGTCACAAATAAG
0.8101247842552752 CCCTGTAGTTCCTCGAGTGATCTCATCTCTACTGCGCCGC
1 TGGGAGCGCGTCCCAAACCATCACCGGCAACGTAGTTGCG
1 TGTGTTGCTTCCCTAGGCCTGCAGCGGATGTCGCATCCGG
0.0927898325928285 CGCAACTAGCGACTTCTCTGAATACCACTAGTGACGTCAT
1 CACGTAGCTCGATTGAGGTTTCGCATACAGTAGCATGAGG
1 GAGCCAGCCTACACTAGCAGCGCTCTCCCATCGTTAGCCA
1 CGAACACAATCGCTCAACAAGAATGATTGATACCCAACAG
1 TTCATTTGTTAAGGTTTTAACTCAGCACGCGCACGTCGCG
1 CTCCAACAGTCATCCCTCTCAACCGTGTTGATCCTGACGT
1 TACGTCATTTACAATCACGATTGCTGTGGTCCCTGTTTTA
0.1127010498497052 GACGTCATTGCTATGTGTAGCCTGCTTATTATTGAGTCTG
0.9493636526175614 ACTCATGCCAGTGACATAACATCCCTTGAGCGGATCCGGG
0.7893681639078362 TGAAACGAGCAGATCGAGACGGCCAGACCGGTGATGACGG
1 GATGACGCAACATAGCCTTATGCAGCCTTTCCTACACAAT
1 GCGTTCTTCCAATCCGGCCAACCTGCGGCTCATCGGCGTG
1 TAACGCCTGGCGCCTTGAGCCGAACAAGGGTATCTGACGT
1 GGTACTCGATCGGCGACGTATTGCTATTCATCAGTGGCAT
1 GTACCAACTACACCTCTACTCGATTCCCTGAACTTCTTCA
1 AACCAGCAAGTTGTTGCGCATACGAAACGCTGTTGCGAAA
0.6973974079485123 CTGGAGCAAATCTTACATACCCGCTCCGATGAGTCATTCG
1 CGCCACTAACCGACACTTACGCATCACTTTCCTCGTGAGC
1 CCTCCAAACACTTATGCAACACGATAACGCAACCCCTATG
1 TGATGACGCGAGCGTTAAGGCTTCTTTGGCACATCGTGGT
0.3591404401028287 GACGCGACACCCCAAACCCAGTCATGACTAACATTGACAC
1 TGTCGCCCGGAATACGCTGTGCACGCTGATACGTGGGGGG
1 TGGCAAGTTTGTAGTCGCTGAAAAGTAGTTAACGCGATGC
1 GTATCATCATCCAACGCCCCCCCTGCGTTCACGGCGCCCC
1 TTCCACGAAATTAGCGCATGTGTGACTAAGGACAGACCCC
1 ATGTCTGAGAATCGGCGCCGTGCGTCTGCATGATTAATGC
0.9055726457092363 AGATGACGACACTCCCAGCTGCCGCCTATACCCGTACATT
0.7571708802553279 AGCTGACGAATATGTGACACATCACATGCTACTAGCAACT
1 TCCGGACCAACACTTCTTGTACTTCCAGCCTCTATCCTCT
1 CACACTGTAGCTACCTGGTTACATTAGTTTTTTTCAAAAC
1 GGGCCGGAGGTGGAGTTCGCGGAACTGCGGGTTTGGGTAC
0.4250913240593077 GACGACATCATGTCTCGTGAAGACACCCGGTCTTACGCGC
1 GACGTGATCTCCATGTCTCTGCTCGGCTGCTGGCTGAAGC
1 CACATTTTCCATGTTTACTCCCACCCATACGCCTACCTAC
1 CTATTACTCACATTTCCTCAACGCTTCGCTAACGATCGTA
1 GATGTCATCCTCAGGAAGCAGCCTCAATGCAAGCGTTCTA
1 ACTGCGTATTTACTTTCGAAAAGCCGCGTTGGTTGTTACC
1 GAACACATACTCCCCAGCCTACGCCGTCATCTGTCCACGT
1 AATTATCGTTTGTCACGTGACATTTGCCTGCACTGATCTC
0.2003094460125971 GACGTCACGGTAGCACCAATTCTTTTCCATCTCTCTCCCG
0.6932593126488139 ACTACGTAACCCTGCTCCACCGGTATTTCTAGATACTGCC
1 TGTGCTCAAATTGCTAATGATCATATAGGAAGTCAGCATA
0.1792823960001075 AGCGTGATTAGCTCATTACTACATCACACATACCTCGCGC
1 GAATAACGAAGTACATGGGAGTGCGTGGGCCGGCGTCTCC
1 GTGAGTGATGGTCAGATCACGGTGCCTGCCTAGATCGATA
0.1052701011164794 GACGCAATCATTGCCGTCAGCCGATCGTCCCCCTTGCGCG
1 CCACGTGTTCAAGAGCTATCCGTACACAACCTAATGACGT
0.2448814736543863 GATGACGTCAATATTAGCCTGTGGCGATCCCTGCCAAAAT
1 GACGCAATATATCGATATCGCTGACAAACGCCCACAAGAG
0.9355633583003081 ATGATGTAATGGCACCATACATTGACACTCCCCTGTCGAT
1 GAGCTCACGCATCAGTAACAGCCGTCAGCCAACCCCGTCC
1 AGACGTGTAAACGCTGTACCGCGCACCTCCTGACACGGCG
0.5783783097190811 GTGGTTATGACTCATTAGGAAGGCGTATACTAATGTAGAG
1 AAGTACAAGGCTACCTGACGGATCCTAGTCTTCGCAAAGG
0.6985039068357315 GACATCACGTGGCTATACGGTAGAGTAGTCATGCGGGAGG
0.8063231956325991 ATGACAACACACCACACGCGAAACACGTGAGTAACCCGCT
1 ACGCACCGTATGACGGGGAGGAAAGGAACGATACGTAATC
1 GATGTCAAAGGTGAGAAGCCTTGATGAGGTGAGGGTGCTG
0.439663180307672 GACGTAATACTGCGCGTGAACAAAACAGAAACGATCAAAT
1 CTCGTTTTCGAGGCGTTCGGTTGTTAAGTGTCTTCGCGGA
1 CCACTCTCAGGGCCCATCTAGTTGGTCTTATGGCAATGAC
1 TACGTAATCCGGACCCCCACGCGTCTCCTGGGGCTGGCAC
1 TTACCGCTTCCGGCCAATTTACAGGAGAAAGTTGGCACGA
1 AACAAAATATCACACCGTAACGCTCCGCACTTCTCGACTA
1 TCACCAACACTCAACTAAATGACATCCCCCTGGACCCGCA
1 TTCGCCTGTCTTAAATGCTATTCCGAAACGTTACATCACC
0.7499852463849309 GACGTCACAATGCCCATCCTTAAGGCTAAACCCCTTTTTG
1 TTAATGCTAATGTCCTAGGTGTTTTGTGGGTGGCTGACGT
1 GACGTCAGTATCCCGGTGACCACCAATGGCGCCTAGCAGG
1 AACGAATAAGAGCAGTACCAAGAAAGATGAGCCCACACAT
0.6962842453880179 GCTGACGTAAGACACAGTAAGCTACACACCCCTGCGTATC
1 AAGTACCCAAAATGTAAGATGACACTGGGGAGGTTATGTA
1 AAGTGCTAAATTTCCGCCCAATTATGCGGTCGAGCTCCGG
1 TGCGTGAAGCGCCATCCGTAACCTGCTGAATCGCCCGCCC
1 TGACTCTGCTTCCGGCACCTAGGAGATTAAGTGTTGGATC
1 CCTAAAACTCGCGTTCTACCGCTACGCGCGAAAGAATTTG
0.0306902745746849 AACGCTCTTCCGAATGTCATACCGACCCGGTAGATGACGC
1 TAGTGCGATAACATGTCCAGGCTTGCCCCCGCGTGATGGG
0.6188795740262378 GGGCCTATCCTCTACAAGCCGACCTATGACCTCACTTTAT
1 TGGGCGACGGACTCGAAATGCGAGACAGAATAGAAGTCAC
0.6217992959545823 GACGCCAACATCCGCCCCTGATTCATAGCGACCTCATACC
1 AGTCCACTCCACCCCCACCAGCCCATCCCCCAGACCCGCA
1 TGAACTGACGATGATGGGAGTCAGGGAATTACAGAAATCC
1 GGCACAATCTATAACGGCTCCCCAAGTTGATCACGTCATC
0.7023719944311483 CAACCAATCTGTTGAGTCACCACAATTTGATGTACGGCTA
1 CCCCTCCCCGCGTCTAGCTGATGCTCGGTACGCGTGACGT
0.003501088288814385 GGCAGTACATTCCAATCACCCCTACACGCGGAAATGACGT
1 TGTCATACACTTGCTTTGATGACAGTCATCTCTCTGTGCG
1 TTGTCTTTGTTTTGTTGTTGTGCAGTGCGATGAATTTCGG
0.9140916842702409 GACATCATCAGTCGCAACATAAAGCCGTTCACCTATATAC
1 GGGGCGAGCGAATGGACAAGGTAGGCATCGGAACAGCGCT
1 GTCCATCACGACACCCGTTGTCTCTTACCCCTTTATGACG
1 GATGCTAGGGCACAAAAGACTAGTGCATCCCCTACGTCTT
1 GGCGTTTTCAACTACTGTCCAACGGCGGTTGGGACGAGAG
0.8421381418301556 GATGTCATTGAGAGTGTGGTGATTATGGACCCAGCACTCT
1 CGTCATCACGGGGCGGGCCAATTTTAGTGGCGACCCCACA
1 ACTTCTCGCCCCCGTAGCGCCGAGGGGACACACACCAACG
0.3023707741959107 AGATAGCGTGACGCGACACGTGACTTGCCCTAATGCTCGC
1 ATGGTTGATGTCTCGGGGTTTTTCTCAGCTTTGATATTTC
1 CAAAAACCTTTGGTCTCCTGCGAGCACCTTCTCGCGAATG
1 CTTTCTATCCTGCAGCGGAAACACGGGTCTCGCGCGTTAC
1 GCTGTCATCAGCAAGGCTACGCTCTCTAACGTTGATTCAG
1 GACCAACGTCGCTAAAGGCTCGACTAGCCATGACCCAAGC
1 GCACGCGTGAGTGCTTTAGGCAGTAGATGCTGCTAAAATC
1 CCATACCTAGAAATAGCTTACGAACATGACACACGCCCAC
1 CAGCTCTGGCGCACCCACCACGAACTCGAACCCACACTGC
0.02561821346702176 CGTGCCGCACAGTTGTCAGTGGTCCGCTGTATGAGTCATC
0.9978678166063035 GGAACATATAGCCTACGTAACCACCCACCCATCTCCGTCG
0.7751524486872325 GTCAATGGCGAACTACGTAACCGAACACGGAGACTGAACC
0.5967582427730517 ACGCACCCCACTACCGATCAGCATATGACACGGCGGTGAT
1 GATACGATTATGGTATTGCACCTTTCACCATGTCGTTAAC
1 GCAAGTAACTCAGATGGAACAACGATATCCTTAATGCTTC
1 TGCATAGAGGTAAAGTGCGAAAATCTAGCCATTATCGAGA
1 CCAGTCTGGGCCGGTACAAGCTCCGGTGACCTATACACCC
0.9599256688502195 CACCCTAAGGCGGCCAATTGCATCATGCGCAGCATTTTAG
1 CATACAGACATTATATACCCTGTACAGCGGTACATGATGT
1 GTATACGGTGTTACCTCATCAAACCGAGTAAATGTGTCGG
0.4522232239111241 GAAGGTATGACAGCACACCGAGTCATGCGCGCTCCGAGGG
1 CCTGACACTCACTACCCGGTATCACTTCCGGCATCCGTCT
1 TGGATATGTCCGGCCCCACCCTCCACTCTGAGGAATGTCT
0.1259335782558344 TGCTCACCACTTTCGGTGAGTCACATACGACAACCCCGTT
1 GAGTCATGCCTGGGAGGTGGATACCGGGTAGTAACTGGAT
0.3300656549753518 TCAAAACGTATTGTGGAGAGATGCTATAGCCCAATGACGT
1 GAAATAACCCGAGCCACTTCGCTGGACCTCCAAGGCCATG
0.06418852509380718 CGGTGATGTCACTCGGACCTGCCCCTTACTTGGGTAGGAT
1 ATGTATTTAGAGCTTAAAAGGATACTGATTAACTTATCCG
1 ACACAGCACCAAACGGGGTCTGAAGGTACAAGTGAAACAA
0.2336001188067428 GATTACGCCATCCACTCACTAGTATCCCCGTCACATTCAG
1 ATGACTCATCCGATATACAGGTGTCCGATAATGGCAGCTG
1 TCGGAAGGGACGATCTTTCTCTGTCTTGTCGACCGTGATG
0.8870422593458315 ACCACGCACGGATTACTCATGCCGAGCTTAAGTCGCTCAC
1 GCACCACACCACGCGTCGAGAGGGTAAATCTCCGGCGAGC
1 GCTAAAACATACGCATGAAGGAAGATCCGGGACATACCGG
1 AAGTGTTCTGGGACTGTAGGTCGAGCGTAAGCATATCTCC
1 GATTCTGTTGTGAACATCCGGTGTCCCTGGGCTCGTTCCC
1 ACTAAGAGCCGCGAATAGAGCCCGACCACCATGACGAAAT
0.2919104146111626 GACGTAATCTTCACTATTCCCTTCCACCAAACTCTCCTAC
1 AGTGTTTTGGCAAACCGTTCGCCGGATTGGTCTGATCTCT
1 ACACCTACCTTAGTTATTGCCAATGAGCTTCGGCATGACA
1 GGCTCGTTACGTTATCCGTGCCTTTGATGCTTTTTAGACA
1 GGATAGGGTACCGCAGTGACCTAACCTTTGATGCAACGGA
0.5795446860719475 GTTTTATGACGCACGTTTCATACGACCAAGGAACGATGAG
0.8685090619252502 ATTGCCGCTGTGTATCATCATTCATGCCAGCACTCAGGAG
0.2081784528710127 CATCGATGACAAATATTGTAGATTATGGCGACAGCACAAC
1 GAAGTCATGGCGGTATAGCTGATAAAAACGCTATCGACCC
1 AGGTGGCTGATAGAACTCCCACTAGCGTCCTTTGTAGCTT
0.6845264288805726 ACTGCTCGTCGCTCTTAGCCTGCAACCCGCCCGATGACGT
1 CTGACGCGAGGACCTATGCATCACGCGCACCTTAACTAAT
0.7999654405385613 CAGCTGATAAGTCATGCTTCAATTCAAACGTTGGAGCAAC
1 TCTCCTTGCTCCTGTGATGAGACGCCACTAACGAAAAGTG
1 GAGATCATCGATGCCTAAGCTACGATACTTGTACTGGGCC
0.01621337815819312 GACGGTGGCCCGACGGCGCGCTTACGTAAATATGATAGCA
1 GCGCTGGGAGTAATTATCCCCTGTTGGACGCCTCGGACGC
0.284480152665157 GGCACACCCAGCAACGCGAATTTGGATGACGATATTCCCT
0.1787997667579476 CACCCGCGTCATACGGGGGGTTACTCACCCGTCACGGATG
1 GGCGTGAACAAGTTGTAACATGTTCTATGTGAGATTTAAA
0.1989076149643456 GGGGCGCGATGCTAGCGATTGATGGTTTGAATGATGTCAT
1 ATAGACCGCGACGAGAGCGCTGGCAAGTCTGGACAAGTAG
0.9621939310042373 GACGCACTACAGTAGACGTTATAAATCGTGGTGATTACGT
0.3651700749520078 GGCCCTGCTCGCTGCGCATCCCAGTTATATCATCATCACC
1 TCCGCACGGATGGGAATCCGGATAAATTTGCACGACTACT
0.6559399771677844 GTCCAGGGACGTCACAATATTGCTGTGCAATTTGCTGGTG
0.708291707447009 TTTGGTCAGTGGCTATTCTCAGTTGCACACGTCGTGACGT
1 CCGGACCACGGTTAACCTTACGATCACACTGTTTTTGCGT
1 CCCATCAGGCACAACGCCACAAGCTGGGTCGGTTCCCGCA
1 CCAAACGTCACTATCTGATAACCACCCTTTCTACCCTGGC
1 TTAAGCTTAGTTTGCTTACAGCGACAACGTTCGTGTGCGT
1 TGGAGAAAGTCGGCGTGCGTGCAGCATGGCGTATAGTAGT
1 TCACCACCCCACGATTTCGTTTTCTGCTCGTTGGGGCCGT
1 TGCGTTAAGTCGATAAACTAGTGATGTAGTTGATCAAGAA
1 CATATTCATTACTCACACCGTTACTTCGCTTAGCTATGGA
0.1708591206427762 TGTGACTCATACAGCGTTAAATTCCCGGTAGACGTGGCGC
1 AATTAGTTAATTACATACCACATGGCTCCACTAGCCGAGC
1 TGACACACGTCAGCTGCCCTATGTGTGGACAAAGCCATCC
0.8781273275829715 AGCGTGTGACTAGCGGTTGCTCTTAATGACGCCGTGTTGG
1 GCTCCCTATGATAATGGGCTCGATGTAGTGATTGCGTAGC
1 TAACGTTAAATCAGTAGTACCGGGTCATAATTACTACACG
1 AAAGGCAATACTCACCGTACATCGGAAACTAACATATCCA
1 GAAGACGATTGTATGAGGTAAGCTAATACTTTCTCCGTAG
0.08824163129515104 GTGCCTATGAGATCATCCATTTCGATTTGAGGCTCTTATC
1 ACTCATGTGCACCACGCCACAGATGATGCAGTCCATCCCC
1 TCATGTAGCGGTAGGTCAGTTAGATCATATCGAGGCGCGG
1 CACACCCACCCCCTTACATCCCTGCCTTCGCTAACGGCGA
1 ACATAAACAAAAGTCCCATCTAGACAAATCCCTGCTGTCC
1 TACATGTTCTAACATGTTTATCCGATCGTGTCACTTTTGC
1 GGCCTTGAGCCTCCCACCGCTTAGGGGCAGAAGTACACGA
1 GCGTACATTACTCTGTCTTTGCAACTGTACTCGTGCATGA
1 GCGCAATACTTCAACTATTCGCGAAACGTCATATACACCA
1 CCTTTGCGTTGAGCATCCGTTATTGATACGGCGTGCGGAT
1 TACGTCAGCTCCACAACACACATCTCAATTGGCCGCCAAG
1 GTGAAATCTAGCCATTGCTGGGCCAATGCCAGGTTGACGT
1 CTCGCTGTCTGGGCAGTGAGTCGTCTGAGCGAATACGTGT
1 TCCCTCATAGAAGCGTAAGGCGAAATGCGATTCAACGGCT
0.4242049581970176 GACGTAACGGCAAGGTCCATTGTGGCCGTACGTGACATAC
1 GAGTCAGATTCCGGAATATATGATGAGAGTGCAGTTGAAA
0.8810054575368249 GATCTACTGAGTGCATTGTCATCTATTCTAATGACTTCAA
1 TCTGTCAATGGTTCTTTTTCACATTCCCATAGTAGCGGGT
1 GGCTATCCACGTGTACTGGACACCGATCGCGTTATGCATC
1 CACCATCCGTTTCCGGCCACCGGCCCGCGCCGGTAATTCC
1 ACAAATTGAAGGTAATGCTTGGATCTCGATGCGATTACGT
0.9058786963613176 GACGTCATATTAACTCCTTTCCCACCCCGTACATTATCGT
1 GCTCATGTCTAATCATTTCGCGATCGATGTTACCATTCGA
1 GGGATACAGTTGGCAGCTTATATGGGCAGCATTAGTCATC
0.2171052707612313 GCTCCCGACACGTCACGCGCCGTTCAGGTCTACGAGTCCG
0.5271093534940244 TGGACATGCCTAAGCAGATGATTACACTAGCCTGGTGAGT
0.483263221608574 CCCGGCCGACCTCCAACTGTGCCCTCCAACACGATGACGC
1 TTTTTCGGCCTCTCCCTAGCGTAGTAACGTTTTGGTGACA
1 TGGGTGGCCCTAGAAGCTATGCTCACAACACCCATCGGAC
1 CACTCAAGAGGTGGTCGTGGGCATCCTGCACGGCGTGATA
1 TGGTGTCTGAGAGGCAAGGCTGCCGGCAGTATATCGTTGC
1 AACCATGTGTGGCCGGCGATCCTGCCAAGCAACGCCTACC
1 GACGTCAAACCTCCCATGCAGAGCAACGTTCCTCGGTCAC
0.8194719401351761 CATCGCCGCGTTGTATCTTTGGGACGACATGTCATCAGGG
1 GTCCAAAAGGATCACGGATAATGCGCGATAAATGAGGCAG
1 AACTTGCCGTTACCCCTCCGCTTCCGCCATTCGCCCACGT
0.1294287866380625 GAAGAAGTTGCTTCCGGTGTGGCCCGGACGTTAACCGATC
1 AAGGACAAACGCAGCCCTCCGATCCTAACACCCCCTTTTG
1 TCCGGCTTCCGTGACCGCGGGGAACCTGCACTCAGCGGGA
1 GCTTCCGGTGGCGAAACTAGCCAGTCGGCTGATCGCTGTC
1 ATAACCTGCTCAGAGTACACACCCAGACTTGCCTTTCGCC
1 TTGCGTAGCCCTGCGATGCGCTTGAATGTACCATTTGCCT
1 TGCACATACTGCCCTCTCATCGTACGGACCATCGCCGCAC
1 ATAATAAGTGCGGTCACTCTTTCCCATGCTGCAAGGGTCC
0.28728271754232 GACGTCACTCCCCGAATGGCTACTCTTTCCCATGATACGC
1 GACGTCACAAACCAGCACCCGATGCCCCGACGCTTAACCC
0.1701172396000578 ATGACGTAACGGGGCCTAATATCATCGAGTTAACCAGCTT
0.8944304908107293 CCACCAGGCGAAATATCGTACTCCAGATATTACATCATGC
1 CAAGGCCCTAGAGCTGGTAACTTGAGGCGTCTGATGACAT
1 GACTATCTACGATGACGCCCCCGCCACACTTATGCCCGGC
0.842762706701256 GACGTAAGATGTCTCGTTATGCAGGGGAACAGTCGATTCA
0.3295548386812726 GCGCACACGTGTGAGATCATAACCTCGTACATGAGCTTAC
1 GGCACTCCCGCCGTGACTGACCGCCCCAACAGCCTTCCCC
1 CGTCACCAAGATGGTACACCCTCTGGTGCGCGGGTCTGGT
0.8748863203315546 CACCCTCCGCGGCGTCACCCCCTACAACATTGCAAGCGGG
0.03196233710635982 GACGTAATCCGTGATCGTATACTCCCAAATCCTTCCGCTG
0.3847045301908921 TGGAAGGACAGCAAACATATGCGTCACTCTTAACTGCTGC
1 CGTCAGCGAACGCGACGGACTGCATCAAGCCCCAGCTGAT
1 GTGACATAACTCCCCATTCGCATCACATAACTGCTGCGCG
1 GAGTCAGCGTATACCTTTAGCACCCCTTCTAGGAAGGGGC
1 GTGTCCAAACGATGCCCCTCCAGGTATGACAACACGCAAC
1 GACGTAACTGCGGTTTGCCGCTGGTAAAAGGACATCGTGC
1 GACGTAGGCGTAACCATAAAATCAACGCCCCCTGCCCCCC
1 CATTAGAACCATTATCTGGAATGGCTTAGATTAATGACGC
1 TGGGCCGAGTGCGTTATCAGCCGCGGTTTGTGACCTCATC
1 GCAGGTGGCAATCTGGCCGTTTGTGGTTGAGAGGTGACGT
1 CGAGCGTTCCGTGCCGCGCGTATATCACTGCTTTAGGTCG
0.07979895125045534 CACGTCATCCGCCACTAACGCCACACCAACACCCGCCCAC
1 TTTATACTATTGTAGGGTCACCGGTTGTAGTAAAGTTCGA
1 GTGAGCCCATGTGCCCCTTTCGCTACGCCACTTTGGTGGG
1 ACATCCGGCTTACGACAACCAGCGCACCACGATGTCGATC
1 AGGAAGGATATGGATCCAATACCCTTCGGTGTATAGGGTC
0.3453688453693729 GACGTAATGTACCTTCCGTCAGTAAGACCGAGTTCCACCC
1 CGCACTTGCCGTGCAAGTCCATCAATGACACTAGCCATCC
1 ACCAACCGCTATCCCCTGATACTCACCCGCGCTAACTGTA
1 TCGCAGCCACACCATGCTAGGGCTCGTGTTCTGACGTAAT
1 CTAGGTGCGAGGTTTAGACTTGCATGTCTAGACCATTGGT
1 TCTTAATTATGCTCTCCTAATATGGTGTATTGGGTTCGTC
1 CGCGTTGATGGTGACAATTGCTTGCTCCAGCAGGTGGAGT
0.6314333541669042 CACTTTTTTTTCTTTGACCCACGTCACCACGGAATCTCTC
0.07418898692123281 AGGAACCATGACATCAAGGACAGGCACGACCGCTAGAGCG
1 AGGTGATGAAAGGCCTCTCCTCTGTACGCTGTTGCGTTGT
1 ATGCGAGACAACGTCCACTTCCCATGTGCTACACCGTTCG
1 GCGATGTCCATATGCCGCGCCACTATACTCTTCGTTACGT
0.07422909765583315 TGACGTCATAGACACTGGACGAAGATCGTTTTGTTACTGC
0.7941826836695256 ATCCTATATGGTTCGACTGGTAGTACCCATGAAGTCATCA
0.8701967350196116 CATGTATGTACCGCTCCAGCTATTACGACCGTGATGACGC
1 AATCATCCCCCGTTTCTTTGTAGTCACTCCGCTAGAACAT
0.3088957271054159 GACTTTCAACTGGTGCGTAAACTGCCTCAGGCGGTGACGG
1 TCACCCATCGCGGGAGCCAACACGCCCTACCAACGTCAGC
0.05209485951801909 GACGTAATCAATAACCAGTATGCGGTACAATACAACATTA
1 CACAAAAAAACGGGATTACGCACCTTAGACCGTCCGTTGC
0.9496332887889634 CATGACGTGATGGGGCTTTTACGGCGGCAATGTTAGGCCT
0.3691887670041011 GCCCGATATCGTACGTTACGACTGTATGAGGTTGATGACG
0.476844153865258 TTATTATGTCATTGGCAGTCTATTCGATTGCAATCAGACA
1 GACAACTGTGATTGATGCCTTCGCAAAGACGTTACGTGTC
0.3074601125365689 TTGCCAGTAGTTGACTCATCCGACTGCGTGGCCATGAACG
1 CTTTACCGAGGGGCCAGTTCGATTATTCGTTGACTCATGT
0.09882093217024911 ATTATCTGAGATGACGTACACCCCTCAGCTTTCCGTCCAC
1 AACGGCATCCTTATTGCGGGGGAGTGCCGGAGCGAGCCGC
0.8857020871925512 GGAAGAAGGAACATGCGTTATTGACTGTCTGGGATGACGT
1 CGTCCCATCACAACCACGCTCCCAGGCTAATTGCCGTGCA
0.7550979593983023 GACGCCGGCACTTACTCACGTATACGGTAATCACGCAGCG
1 TGCGCTAGGCACCACCACTCTACTATGGTAATGAATAGAC
0.9443914069527051 TTTGATGACGGGAGCGAGTAACCGGGAAAGATACGCGTGA
0.4932913244188324 ATGCGCGGAGCAGTATATGATCTCATGCAAATGGTTCTTC
1 ATGACGTGCAAGGATAGCTGAGTTATCGCATAAATACGTT
0.3657017765132085 GGATGAACTTTATCTTACATGTGGGTGAGTCATTTATCCG
1 CAGTGTTTGTGAGTGAGGTGCATGCATTACGAGCCTAGTG
1 TTTTACGCGATGGCTGGTTTAGTTGGAGTTGTGTTGACGT
1 ACAGATCCATGTACTCACCCCTGCGTACACCGCACTTGAC
1 TCACTAAGATCTCTTCCGACTCACCGCCCATCCCTCCCAA
1 TTATATCCACGCATTACCTCATAAACTCCAAGCCCCATCA
1 ATGTCATAGTGGCCGCTGATGTATAGCGAGCCCGTCATGC
1 AGCTGTTGCGCGATGATAGGTTCGGGCGAATTCGTCACCG
0.2590914009796818 GACGTCATGGCAGAGCATTCCACCCGTAGCGACGGGCGGT
0.7755876464203414 GTGCGTTAAGATCTACATCACGCCATACATGTGCACCCCA
1 AGGCATTGTACGGGACTTACGAAAGGTTGTCGTAAGAGAC
0.8604681158754973 GACATCACCCACGCGGCAATAGGTGCGGACGGGCCGTGGC
1 AGCCGGATGAGACATCAATTGTAGTAATCATCTATCTCTT
1 GACTCAAGGTTAAAACGTACAAAATCACTGGCGACAACGC
0.03568652918319758 GACATCATCCGTGAAAATAACTGATGCCGTCCTGCCCTGG
1 CGGCTTGGTTTAACGATGGTATGAAGGAAACATATTTGCG
1 TGCATCACTGAAAAATCACTAGTGTCACACTCCATGTTTA
0.3619513920269938 ATGGCAAATGTCTGCACTCGTCGTGCGCGTTTGATGACGT
0.961283879029591 ATACAAAGAGGGTACGCACGTGACCTGGATGACGGGCCCA
1 TCCCTCCAAGGATGACGCGAAGTATTCACCAGCCCTACAC
1 GTGATTAGGAGGCTGCGTTGCCGGATGTGGCGAGGCGGAA
0.3870935194099416 TGCCCTTTGAACCGGAAGTGTTAAACATCCGTGCTTCCAG
1 GACGAGTATAAGAGTCACACTAGCGGCCGCCCCCTTCCCA
1 CCCAACAACCATTGAGTGTCCCTCCCCGCATAACTTGCCC
0.7350629682323438 GAGGTAATGACCTACTAGGCGGTGTAATGTCTCATTATGC
0.7897947650429209 CTGCCCACTTCGCCTAATTACCCCAGCGGCGAAATGACGT
0.3129123001750332 TGTTGAACCCTGCTACATGCGTAGTCATCAATGCGTCAAT
1 GCTTACATTTGGAGTGATGCAAACTTCTTTACAGTTGATG
1 ACAAAGATTCACAGAGGCATGATGTTGAGGCGCGAATGTT
1 TCACTCAGTACACGCCTTCCGATGATGATCCAGCTCCATC
1 GTGAATTGATGCACGGAAAGTGACATTTATTCTATACCGC
0.148925844127182 AAACTTGATAGATAATGGTGACGTTAAAGCATCATTGTTC
1 GTCTTACCTAGGAATTGGAGGTATTCCCAGACGTGCACGG
0.4617238159309868 AGCTATGAATCATGCAACGAAGTACTTTACATTTTACGGT
1 CACCAGGCTCTGTCATACGGCGCCTGCGATCGTGGACGGG
1 ACGCACACATCCCGCGCATGCCCCACAGCCCAGCTCTTAC
1 CCCCCCACCCCAGGTGTCCTTGCTCATCCTACCGACTATT
1 TGCTCTATCACCACGCACCATTCGCTTGAGCAGCCTATTA
1 TGCTAGTTACAGATGATCTCAGACCTTCCTATACTAGATG
1 AGGAGCGATGACTTAGCCGGTCAAGATAACCTCTGCGTGC
1 TAGCCAGTAGATGCGATGTCCTGATTGGAGGATGTGTGTC
1 ACCCTGTTCCTACCTCCGCCTAAAGGCGAGCATTTGTCCC
1 ACCTCCCACACGACATTTCTGGTACTCAACTTAAGTGGCC
0.9793992260369487 GATGTCATGTACGGCTACGCGGAGGCAGGCCACCTGACTC
0.4145147048323018 TTCGGCTGACTCATCCTGCCATGGATATTTCAGCAGTATG
1 ATTACAAGATTTGTGTGTCACGGTATGGTGAGAATTAGAC
0.7602482531247734 ATTACGGCACTTCACCCGCTGCCGTGTATGAATGACGGAA
0.2543320917378055 CGGACATAGTAATCTCTGACTCATGGTAACGATGCAATCC
0.506206626542819 TGTTAGTGACTCCAACGTGCTGACATGTTGAGACAAGTTT
1 AACGTAAAAAGAGAATCTCGAATAAGGCTCACCTTCACCA
0.6239536897198242 ATATGGCGTAATACTTGGTTGACGCATGGCCCTCCCCTTA
1 TCTACCCGGAATGATACGTAGCCGAGCAGAAAAAGTCATG
1 GAGTCATGATTTGACTAGCTGTTACGGCCTCGATGGTTGC
1 CACCCCCGCCCACGCAGCACCGGACGGTTTCATGCTCCCC
1 TACGCGTGTATTACGCTTTCCTGTCTACATCACCAGGCCC
1 GTGAGCTTTGAATGTGGCTGTATCAGAGAGCGTAATGAGC
1 CACACAATCAATAAAGCAGGAAACCCCGGGTGCGCGTTTG
0.8701330836919997 TTGCAACTCTGATCTATCCTGGGCGTGAGGTCACTGCGAA
1 AATGCACTGTCACGTCTGACGGTCCTTCGGCTGTAAGACC
1 TATGAATTATGCTTGTGAGAAATGTGAATGTGCCTAGCTC
0.5683771772855739 CTGTCACTTACAGTACTATGTTGTCACACGACTGTGCCCT
1 GACGTCATATTCTACGCAGCTTGAAGTCCAGCATAAACCT
1 AAACGAGCCGCGTTCCGACCATCCGCCTCCGGAAGCCGAG
1 ATTACCGGCGCAATCGAATTGCCCGACATAGGCGGCACTC
1 CGGTGACTCGGGAAGAATAAATTTCTCGTTTTGGGAACGC
1 ACAAGCCATAAACCCAGTTCAGACGAATACAACCCGTAGC
1 GCGTGATTTCTACAGTTCACACGCGGAAATTAGCCTGCGT
1 GTTGACGTGTTCTTAGTTTGGGAGTATTACTTTGGATGGA
0.0111139296008171 GACAACATCCTGACGACAGGCAGGACTACACAATACGCCC
1 GCGGTAGGTATGTAGGATTATTAGCTGGCTAGGGCGCGCG
1 CTCCATTCCGAGGCGCGCGGTCACTACAGCTGCCCATGAC
0.01597233982906333 GTCATGAACACACCGGATGTTACGTAGTAAGATTGGCGAT
1 CGTTAGCTTCGAGCAAGTCCAGACTTGTTCTCGCACTCGA
1 GCACTTATGACTCAGCGCCCCCTTCTAAATGTTTGTGTTA
1 GCGAGATACTTCCTGCTTCTATTCCGTACCGAAGGTGGTA
1 AGCGTCCCGCCCCCCACTGCACGCGTCATGCACGCTATTC
1 ATAGGATGCTCCCCCCACACATTTAATACCACCGGCTTAC
1 CGTTAGTAATGGCCTTGGTGACGCGATTGTCTCCTTCTAC
1 GGTTGGATCACCGTTACCGATACGTACGTCCATGTTCCCA
0.8451216380813766 GATGCCGTGTACACAAGTTAGGCTGACTAGCGTATGACAT
1 CCGACTGTTTGGCACGTACCGAGCCACACAAGTCCACCGA
1 TCGTTTTGTTTGCTTCCCATTGTTGAGTTCCGTCCTAGAT
0.5709105784877871 GGATGTTATCATCGTGTTTACGCAACGGTTCTGTCTGCTT
1 CTCGCGACCCGGTACGATAGAAATTACAAAGTAGCGGCGG
1 ACCCGGTATTCCGCAGATGGGTGATGTGTGCAATACTCAC
1 CACACGAGGAAAAAGTATTGGTACTCCAACTGCGCGCACA
1 GACGTAACGCTAGGTTGGTTGAATCTATGCTGCGACCACT
1 ACATAATAAGATCCGTCAATGGAGGATAAACTAAAAAATC
1 TACGTCATTCGCAAGCCACTCCCGAACGTCGCGGCCGTCT
1 GGGATTCACTAAACGAGCGAGGCGTGTTTCCGTTACGCGG
0.9899147928434889 AAATCGTGCGCGATGAAATACGACGACGTAGGCGGGCTCG
1 TCCTGATGCATCCCAAACCCGCTGAGTACGTCGCGACTAC
0.7469202249227013 CGGACGGCGCGTCATCACAAATCGTGCGTTGCCATCTGTG
1 GACAAATCCGTGATCAGATGAGCACAGCAGCTTATCGCGA
0.1997556262790315 GATCACGTCATTAGAGCGTCCCTTAAATAGGTCTGCGTTT
0.5834716137978309 AGAGTGTCAGCGTACTAGAGACCAATTGCATCAGATCATC
1 AGAGAAGCCTTTAATTCGTAATCCGGTATCTTACCTGGGC
0.7509136347087119 GCTGCTATTGGACCTAATGATGATCTAAGCGCGTCCTCCC
1 GTTCATTTACCGCATGCGTCCCCACCGCGCCTTGATGTGC
0.3886030589311173 GACGTCATGTCCAACCAGGCCGACTCCCCACTCGAACCGC
1 CAACCCTACGTGATAGCATCTAAATCCCCTCCCCAAGCAC
1 AGCTGAGAGACGTCTGTGGAACTCTCGCTGAAACAACAGC
1 CAGCAATATTACCCCCAGCGTCACGTTGCAAACGTCACTC
1 ATAGGCCTTGAGGCAAAAAGGTCCGTTTCCGGACTAAAGT
1 ACCGCTCGTTTATGAGAATGCGTTATAAGAAGCGCTCCGG
1 CATCCAGCCCAACCCCGCGTGGGGCGGCGTTCACGCTTGG
1 ACCGTCATAGCCCCGCGAACCCCCCGCCCCCTCCACGCAC
1 CGCAGTAGAACCTCATAGTGAACACAGGGGCCACGCGCAA
1 AACTACCTTGGATGACAACGAAACCGCCAAGCGATTTTAA
0.003289333358057574 CTCAGGCTCACTTGTTGAGTCCTTACGTAAGCCTTCAACT
1 ACGCTGGATTACCGCACCAACCACACTCCCTCCTCGAGCC
1 GTGCTGCAAGAGTCGAGCGACTGTGGGCCTTGCAGGCACT
0.3673337500709752 ATCATTCCGGTCGCTATAATGACATAACAGGCGCGGGTTT
1 CTTGGAGCGTGGTCCTGGTCTTCTGCAACGGTACATACTC
0.9904884998030116 TACGTCACCACGCTACTGAGGAACGACTCGCCTGTATGTG
0.5150055974734481 CAGTCATACCGTGCTACTTCCGCTCCGGATATGTATACCC
0.6739542734775715 AACAGTGACATCAACTCAGAATATTAGTACCACCGTTCGC
0.5961883197905833 CAGCGCATGGACTTTACACGTAATATGATTTCCCCGCGAT
1 TACCGTCTTGCAAGCAATTCGGTGTACTCATACCCTCCGG
1 GAAGCACTGATTGTCCGGAGCTTGTCATTTTTACATTTAC
0.05387823304406694 GACTCAACCATTAGATGACGGATCAACTGGACGGAGCCGA
1 GATGAGATAATTTGTCTTTGCTGCGGGTGATTAAGTCTTG
1 GGCCTATGATACCCCCTCGTGCCCTGTGCGTGAAGTAGAC
0.9598835108946581 GGCCCGGACTTTACGTGAGATCACCGGAGGACCGTCCGTT
1 AACCGTGGAAGTTTAGTTCATTGTGGGCGCGGACTTAGCG
1 TAATCGCTTCGGCCTCACGTTGCCTTAGTGATTAAGTCAT
1 CTGAGACTTTGTTCTATCTGTATTGTATTCTTGCTGCGCT
1 TGCGAGTCAGTAGATTACGGGTGGAAGCATAAAAGACTAG
1 TGGCGGAAAGCCGAGCCCCCGCCGAACGGACTAATGACGT
0.168985669527588 GACACGTAAGTACCCTCTGATATCAGCACTAACTGGCACC
1 GACGTAATGAACTAAACTGATCAGATAGACGCGGCCGTGT
1 ATCTGCGAGCAACATACCTCTGTAGAGTTTGACATACGAC
0.75559483461247 CCGACACACATGACCAGTAGGAACACTGCGTCAACATGCT
1 GTTGCCACAGTGATTGTTCGACCTTGCGAGAAGGATTAAT
1 CGCCACTAGCTTACGAAGCATGACACTAAGATCCGTGCGC
1 CGAAATGAGTTCGGTCTTGCCCGTCAAGGTGTCCCATTCA
0.6061636740439275 GATGTCATGATGCAAGTCGCCGCGCGCTCGAGATGCCGCC
1 GACGTAACCCGGGATGCACCCAAAGCCGCGTGCAAGATCC
0.7702172561693527 ATGACGTCAGTTGCCTGTATAAGTTCGAGCCTGAAGGCCG
1 TATATGACGCGGCGGAGAGGGCGGACGACGACTCGCAGAT
0.6229483958391188 GTTTGCTGTCACCCAGTCTCAGGATCACCTCGTGTGATGT
1 GAGTCACGTCCCAATGACCCCCGTCGTTGCTCGAAGCGCT
0.3222528164542698 CAATTGAACCCGCGTGACGGAAGTGGCCATCATCCGTGAC
1 TAAGCAAACCTTGCTGACTGTACGGATTACCAGTTGATAT
0.7101871566703947 GGAACCCTCGAGCTTCGTTACCTATTACAGAGAATGACGC
1 TCTAGTATGCGTTTCGCCCTAGAGTAACACGCGATTTTGC
1 GCGCGTAGTCATTTATTATTTAGGGCTATAATGGGGTGCC
0.2527743404671686 TCCCCCTTGGCTGATGTCAACCCTACGTGAACGCGAGCGA
1 GCGCGTGACAAGGGGAACTTTTGGACCTATCGCGTCACCA
0.09053548524329975 CTTGCCTAGGATAAGAGCCCATTAATTGAGATGATGTAAT
0.3795476792594388 GAACGGGCCGGATAGGTGCGTAACCGGAACTAGCGTGGGG
1 GGCGTGGTTTTCAAAGAAGCTTAACGACCCCGAGTGACGT
1 GCGGAAAGCCCGAACAGCGAAACAACTGGGCATCTCGCTG
1 GACCTTTTAATTTGAATATACTCTTTCAGAAAGCCTCCCC
0.1873483129071649 CAGCTCCACTCGATTCGTCATCCCGTTGCTGTGAGAAACT
0.8369104576361345 GACGCAGTTATGATCACATATTGGCGCTTAGTAATAATAA
0.5565815361220837 CGTGCAACTTGCGAGTGTGTCTTGCTGGTAATGATGACGC
1 TGTGTGGAAGTTTGACTATAGCCACTTGCGTGGGTGACGT
1 GATCTCGGTTCCGTACCAGGGGTCCTCGGCGGGGTGACAT
1 ATGCACGCGTAGAGGTCAAGGAGACGTGCGCGTCGCTGCA
0.6113746188384694 ACTAGTCGCCTCAACTAGGACTGGTAATGATCTCATCCTC
1 GACGCAATGTATGGTTAAACCCCAACCTGCCCACGGGTAG
1 TAAGTCATGCTTTGTAACTCCAATTCTTTACCTGTCGACA
1 ATTCCTGCTATAAATGACGACCTCCATCTGATCCATTCCT
1 CTGGTTTATCCCGAATGCTGTATTTATCATGAGTGGTTCT
0.7149914603895821 GACGTCAGACCGCTGTAACTAAGATAGGTTAATGATCGCT
1 GTGCAGCGTCTGCACTGTCAGAGACGTTAAGCATTGAACA
1 ACACGTCTTCGGTCATGCGATTAAGTTGTCCTGCACAAAC
1 GACATCATTCCTAAAAAATTATTATCACCTCCTGTATTGG
0.6931775681381867 TTTGTCTTGTTCGTCCACTCCGTCATCAGCCCCCTCCGGT
1 GACATCACAAACCCTGGCTCCTCTAGCCCACGGTGCCACG
1 ATTACACCTCCCCCACCTGGCCCGTACAACTACAGCAAAA
1 CCGTCGTTCTTAATGATTTGCATCATGGTCTTGCGATTTA
1 AAGCGGTGGAACCGAGGTCAACAAGTGTGATGTATCCGCT
1 AGGTGCACGCGCGTCTACGCTACGTGTGGACGAGACGACC
0.7545427543806764 GTCCTAGCGTATGAGTCAACATAATTCACTACGGCTGAGC
1 GATATCACCACTCTTGTACACAGGTCTGCGGCGCCGAAAT
0.07554818774582041 GACCTCACCCTTACGTACAGCACCCTAATGGTTACACTGA
0.3498871283914116 CGATGAGTCATGGGGAGATAAGCGCATTAAAAAAAAGTCG
1 CGCCTTCATAGGAAACATGCGGTCGATCATCTTAGAGAGG
1 GACGCAATATTCGCTAAACGAACATGAAGATTTCACGTCA
0.8050138522613534 GCTTCGACCAGCCGTGACCTATCATCAATACGAAGATGAC
0.1809141379773994 CGCATGGATTAGCCTCCGGCCATGACGTTGCCCCTAGCAT
0.1477279315372386 CATACCCACGACGTCAGCCACGCGCAAAGCCCAAAAACAC
0.426816994309592 TACGTCATCCCTTTGTAGCCGGTCTCAGACGACGGATTAT
0.8514168843822258 GACGCAATAGTGATAGCGAGTGACGGACCGACCGAGTCGC
1 GACGTCACGTACATATTCTCTGGTTCATTTTGTAGTTACA
1 TTCCAGCGTAAGACCGCCTGGATGCTGGTCCCTGTCCGAA
1 GACTACTTCCTGTCGGAACCTGCGCCATAAACAATGAAAC
1 ACCATACCGGGCAGCCAGCCCGAAAGGTCCCTCCCCGACC
1 TCCGGCACGGACGCGATACAACTCGCTAATTTCCCTTGCA
1 GAATTGGCCAGGCCCGGAAGTGAACCGGCAGGCCAGACGG
1 TGCGTCATACATCTCACGATCGGCAGCGCGAGATCCAATG
1 GCGTGTGAACGAATTGCAGGTAATTCTTCCACGTCAGAGG
1 TACGCAACCATGCTTCAGTTTCATGGAAGTGCGGCCTCCC
1 CAGTACACAAGCTTAAAACAGCTATGATGAACGCTTACGT
0.4027497699379817 TTGAGCGATGTTCGTGTAGATCTCTTTCGGTGTATGACGT
1 GACGTCAGGGAGGATGCAAAAACGCCGTTTTGTGGCAATC
0.4015681322391463 GATTTAGGAGCAGGCTGGTCGGTAGTTTGTCCAGTGACGT
0.2771078224704997 TTTGGAGTCGGTGACGGAATTTAGAATGTGCATGTACTGG
1 AACCCTGCAGATATCCGGGAGGGCAACACCCGCCAGCAGC
1 GACGTAATTAAGACTCTTGATTCAGTGTGGTAAGGTCGTT
1 ACATCTTTAGCTCCCTTTTGCCATTGCTGTCTTAGGTTAT
0.1451437050983037 TACGTCACCATCCGACCGGGGCGGCCCGATCCACCGTGCG
1 CAGCCGTTAAATATGGCTCTGGAGCAGCATTGCCAATAAT
0.1573587180846487 ACCTTAACCGCCAAACTATGATCATCAATGACCGCACGTG
0.2765384027949872 TCCCTAGCACAACCTACACTGAACGCGCCCACGTCACCCC
1 GAAGTCATGGTAACATGGCCCACCAGTTCAATTGGCACGC
1 CAGATACTGTCAGTAATCTTAATCTCATAGGCTGTGCAGT
1 GCGCAGCTCCAGAGCCGACGATGCGAGCATGATTCAGCAC
0.9527352247219325 CATAATAGAATCATCATAAGTTACTGTTTTCCCAAGATGT
0.4726240513488844 GACGTAATGTGGTCGAGTTTCTGCTTCGTTACCGTTCCAA
1 TTCTAGATTATATCATTTATACTGAGGCTATCAATACCAC
1 AAAACAGTTTAACGTTTTCCGGCGTGCTGTGGCTCAGGTA
1 TACTGACACACGCTAGTACTGCGTGACAACCAATCATCAA
1 AATTTCGTACACCATTCGGTTGGTTCATTCCGGTCGATGT
1 TATCGCCGTGACTAATGGCAGCTTAAACGCTACTGTCATT
1 AAGCGTGGATTACTCCTTTGGAAACATAACGTTGACTTGT
0.3189938580036749 AATGAAGGTAGTCACTCATTTTATGCAATGAAGTAAGCCT
0.6493895171785314 CTTACGTCACTTCTGTCTGGGAAGCGATTTGGCAAGCTTG
0.1671134062902172 CACCGCCTTGATCATGGCAAGATGACATAGGTTTAGGCAA
1 GATAGTTTGCATTTCGAAGCTTGACGCTTGATGACACGAA
0.4284845280210565 AGACGAACAAGTGCTCCTATCACGGGTGGTTATGTCACCC
1 GACGTCAGGACTCGGCGGAGGGCTTCCTAGCTATCGCGCC
1 CGGGGGGCAAGGCTCATTAGTACACCGCTGGCCATGACGT
0.5697628291959338 TGCACGAGTGTGGGAAGAATCACACTTGTGTCGGTGACGT
1 ATGGGATGTTCAATAGCGCTTTCGAGTGTTTAATGATTCA
1 CATTACGTAGGGCCGCACGGATGCTCGGGCATTTGAGGCA
1 GCACCTGATTGCATCCCGATGACAACCTGAGTCGTTGCTT
0.02768631217802998 GCTTCCGAAGTAACACCCCGCGCCGCAGCGTGACGCAATT
1 CGACCCCGCTTGCAAAAGGATAACAACGTCCTACGTCATC
0.7488747712854272 TACGTAATCGCTCATTTGGCCTCGAACGCCAACCCTTGAT
1 GAGTCATGTTCTTGCACGTCCATCCACCAACGCCGGCATA
0.6778913916525759 GATGATAAAGACCCGCAAGTGATGATTAACATATCAATGC
1 GTGCGTCGCTGCTATCTGATTGTCGGGGTTACTTGCGAGC
1 TTGCGACCACAGAAATGACAGTGGTACACAAAGAATGCAC
1 GTCATTGAGGCGAATAACACCCTGCCAGGTCACATTTACT
0.2876874351873971 TGATGACCTCACAAGGCTTATGTGTAATTCGCTGTGTTAT
1 TGAACAGGAAGAAAGAAGAATATGCGAGAGAAGTTGAGTT
1 GACGACATGCACGCGTTGAGTTCTTTGCATCAATGCGAAC
0.1357130446762031 CAAAACCGCCATGATGACCGCTATATTCATAACGTCATCG
0.03703218079104259 GCCAACTAGAACAAATTGACATCACCGTGTTAACTGTTCA
1 GTGGCTGGACCGGCCGCGGAAGCGTTGTCTACATCCGGGC
0.5970681802369524 CGGTGACGCCATCTACCTTCTAGTTGCACATTAGCGATGC
0.1244553020692061 GTAATCCTAAGCGCAACAACGGATATCACGTGTGTGACGT
1 GACGTAAGACACTACCTGCGGAAGGCACGGAAAAGCACCC
1 CTATAGTGCATGCGGCCCGGGAGCTTTGCTGGTCACTGTT
1 ACGTAGGCCACTTGCGGGGAATAATACTAAGTGGTGGATA
1 GGAATATGAGTATATGAAGATGAAATACTTTATGCGGTCT
1 CCCGTCATCACTCCCCCTACCCAACAAGCCTTCCCGCCAA
1 CAGTATCTCCATTATGGCATGTCCAGGCATGCCCCTCAAC
1 GAGGGCACCTGTGGCACCCCGCTTGCTGGCGAGTAATATC
0.9585196950797433 GGTGACCGCATACCACGACACCAACCTCACCCGCCACCCC
0.09374140909883788 GACGTCAGCCTTTTTCGGTTAACCGACTTAGAGAGGGTGA
0.6777691551504006 GACGTAAGCGTACCTTACGCTGCAGAGCGCGCATCACCAC
1 CACCATAGAACTATACCTAGAGCTATGACAACGCGGACAT
0.5982244570003027 TGAAATGGCAGGATATGTGCACTTCCGGTGTGCTCTGTTG
0.8962036876392887 CATCGATGAGTAAGACGCCAGCTCCACGCCGCTGTAACGA
1 GTGTGGCCTGGTTAGAAAGACCATTAGTGTGGCGTGACGT
1 ACCTCGCACCTGAGCGCTCCCCACAAGTATGAACAGCGAC
1 CACCATACCTCACTGGACTTTGTAATTGCATAACTAGTTG
0.1578332681458835 CATAGAACACGCGACCAGTGTGCCACGACCACGTCATACT
0.5942964144065292 TCGATGCTCGCACCGGTCCACAAAGATGTGACGCATTTAT
1 TTTGCGATTGTTACAACAAGATGACAAGAAAACTAAGTAC
0.7018283640268308 GGTCCCTTTCGTGACTCATCCTCCCGTTTGGGCGCTCCGC
1 GGCCCACATTTATCTCGCATGACAGAAGCAGACCTTGTCA
1 TACACGTACGTGTGCTACACTTATTGGAATTGCATAATGT
1 GGAACTTCCGGCTATGTGTCGGCCGACAAGTCGTTCCCGC
0.1552485675133227 GTGCGGTGACACCATCGAGGATGAGTCGGCTGCGTCTGAA
1 GACGACACCCGCAAACCTACGGTGAAGCCATCCGTGTAGC
0.2289438956520378 ACGAACTTCCTCCGGGACGTGCATAGAGGATGGCGTAACG
1 GCCTCAGCACGCGAGAGCAACTCCAGACTACTGCAGCAGC
1 GACGTGTTACTTCCCTAAGTCTACGCGCCTCGAATGCGCG
0.4515424115586631 GCGTGACGTGAGTCCTCGCGGACCCGACAAGGTTGCATCA
1 GAGCTTCACAGCACAGGCGGACCCCACCTTACTTCACGCA
0.2317296708269706 AGGTTGCGCTGAATTGACTCGCCCAGCTAGTGACGTAACG
1 CTGAATGAAGCGTGAACTCTGCATGCCAAAGATATGGGCC
0.4956439670671596 TATGTCATACGCTGTGTGCCTCAAGTAACGTGTTACGGAT
1 CGTAACGCTGGCCGCTGAAGCGCGTTGGGTCCTCCTGCCC
1 CCACTCTCTTTACAAGATATTTGCCCTCCCTGCGTGATGT
1 CGTGTTAGGAGATACCGCCTAGGTTTTACTGGAGAGAGTG
0.6613396406116693 GACGCGTGACCAACTCGCGCACCAATTAGTATAACGTCAT
1 CACGGTCTAACATACCAGCGCCTGCCGTACGGGAATATTG
1 TAGTTGGGGAGAATAATTCTGTAATCATTATAACATCACC
1 TGTCCTGTATAACGTATATCCTTGTGTTCGTGGTTTGGGG
1 GCCGGCACGTCCCGGACAGGATGACTGAATCCAGTCCGGG
0.4584362622533839 CCAAGACAACAGCAGTGATGACTAAACCGTCTGGAACGTT
1 TCGTCACTGAACTCCTTACCATCCCCTTGAGTGTTATCTG
1 GGTACGTGGCGTGTCCTGCACTTCGCTCTGACTGGGTGTC
1 TCCTGTATTAGGCGGTTTACCCACCAAGCACCTCAGGCTG
1 GACGGCATCCAAGGCGCAATCCCTTCAAAAGGCGTCAAAC
0.6693423103096697 GATATCATCAAGGCACTACCGGCCGCGCTCGTGCACATTT
1 GAGGTCGGCATTAGTACATTAACTAGGTAGCTAAAGGGTC
1 GACATAATACGCGCAAATAGCGCGACCGCCGTGCACGTTG
0.1332517894996683 GTGCCGTGATGATTCAATCGCAGTGGGTGTAGTAAAAACT
1 CGTAGTGACGTTGGAACCTGCGCCTCCCGGCGTTGTCGCC
1 CCTTCACATGGCTGGCTTGTTCTTTTTCGTTAATTACATG
0.5211152630260428 GACGTCAGCTTTATACCGCGGGTACCTGACCACGAAGTTC
0.7541331418768127 CATCCGCTACCGTACGCGCGTCAGCCTGCGCTTACCGCAT
1 AGATCACTCGAGAGACCAAGTACATAATAAGTGCTGCCGT
0.1332700983791318 CAGATGCTCTGTCAGCTGACCGAGCTTGCCACGTCATGGT
0.5819299420724591 ACGTCACGCCCCCTTGAACGGACGCGTCAGTCCTCACATC
1 GAGAGAACCTTTCCCCACTTTACGTATAACAGCGTAGTTC
0.3774558063469939 GACGTCAGAGATTTTCGACTACGCGCAACGGTGCGCTGTC
1 TCAGCTGTCGGTCATTTTTTGTATGATAGCGCTGGTCTTT
1 GTCAAACGTCCCAGCGTTACAATTGGAGCTGCGTTTGCGT
0.6215711714266874 GACGAACCGGAAATACACCACCAGCGTTAACAGCACACTA
0.8847501537898462 CAGGATCCATGTCGCATAATGATGTCTTATGTATGTCATG
1 GAGTCATTCATGCCATAACTACGTGTAACGATGCGGCAAC
1 GGGTGATTACGATACTGATTACCATGGTAACCCTTATTCC
1 GTTATGCTGACGATTCGCGCGGGTTTACTGGCACAGTTAA
0.7551777209596587 CATTTCCGGCCAGAACACGCCAGCAGGCACATCATCGGCT
0.2750898126583867 GACGTCACGCCTGCGCGGCCCGGCACACTATACCAAAACA
0.8791218414409582 TGAGCTGAACCACGTAATTAAACTCGTCCGGTTTACCCTT
1 AAGGACGACGTCCTTTACAAGACGATAAGAACATGAGCAT
0.04649346669703533 GCGCATATATACATCGCCCGACAAGTCGCCTTACGTCACC
0.05297785437174409 CATGGTTGGATGACGTTTCACTTAGGACGATCCCGGCTCG
0.3818449260162789 GACGTAACCCTGCTGATTGCCCTGCACGCCCCCTACCAAC
1 AACGTAATTTGTGGCTAGAGGTTGTGGGCGGAAAGCACAC
1 CGGCAACGCTCAACCCTAAGCCGTTAGTCACCCGGCCACG
1 GGACGCCAGGTATGAACCTCCATCGTACGAGCGTAGTCTA
0.5911956443131419 GGATCGATGACGACGATTATAAGTCGAATCTGTTAGCAAT
1 CCACCCGGGTGCCTTGATTCACTTGGCTTAAGCCGTACGC
1 GAGATATTTATCCAAGTAAATACGTATTTTGCCACCTTAT
1 ATCTACACAACGCAGCTAACCTCATAGGTGATATCCGCAA
1 GACGACATGATCATCGTCGGACCTTAGGTTACATTACTGT
0.8531723545482904 ATGACGTGATGTTTCTACCGTGTCGTTGCCACTAGATGTT
1 CCTGGACTGGAGTCGGAATCTAGGCGAGACGTGGACCCAA
1 GACTTCACCAAGCGTCATATTGCATTTAAACCCCCATGTG
1 GCAAGTAACGAGCAACGAACTGATTATGGGCCAGAAAGAA
1 GAACCGGAAGCGACTCTTAATAGGTGCTGCGTGTCCTGCT
1 GACGAGCCCGCTGATACGGGGTCCATCATCTATTCATACC
0.7522037278918901 TGCCCCGTTGATGAATCACTGTCTGAGCGGTGGCAATAGG
0.6914659526701625 ATTCCCCGAGTTTAGGCACATCCGGTGTTACGTGTGTTCG
1 TCCTATAGAACAACCAATACGGAGGCTCGAGCGTTAGGGG
1 GACCTCATGCCGTCCTGTAAGAATGCATTTTGTTGGAGGT
1 TCTCATTTTATTTTGTTACATATTCTTGATTGCGTCAGAC
1 CGTGGAATCCGACCTCATCTTTTTGGCTTCGTGACGCCCC
1 TGCATCCTCCACCAGCGTTTCCGGTTGACAGGGCGGACTA
1 TACAAGACCAACGCACGCAGCAGCAACTATGATCTTCCGC
0.1314297050319057 TTATTTTGAAGGCGTCATGCATTAGAGCATCCTTGATTCG
1 GCGAACGGAAGCTAACGAAAACGAGACACCACCTGACCGG
1 TGAATCGTGTGAGGAAATGTGTCGCACCGTCATACGAAAG
1 TTCCGGTGCGCACCATGTGTGCAGCAGGTGTATCTGGCAT
1 ACGACTAGAGTATGAGCGTACACCCAGGAACATCATAACG
1 ACCGGCAGGACTACTGGGGGCGGTATACGTGGCGATGACG
1 GGCGTCACCTATCGGGGTTACGCTATCTCCAGCGCCGCTT
0.2578021186980811 GCGCTTGCGCGCTGTCAATTGCTTAGTCACTCCGTCCACG
1 GGAACTCCCACTCTTCAGCTGCAGGCAAGCCGGAGTAGAT
0.06400333126481574 TACGTCATCTAAAAGCGGGTGCCTGCCATGTCCGCGCGCC
1 CAGCATAGCATTAGGGTCCACCCACATTCAAGAGTGACGT
1 CTCGTCGTGTGGGTCGTTTGAGGATGGGTTTTAACTGGAC
1 TCTATGATCCTCACCACATCCCTCTCCTCGTGAATCATGG
1 AACGAAAAGATACAGGCCACACCGCATCGCTGCGGACCGT
1 GACAACTCTCATGTGCATTCACCTAGCGACGCCGACGTAC
0.9503935655073896 GACTCACCGGCTGAAGCCCAGCACCGAAATGACGGATACC
1 CATGACGTGTTCATTGACGCACGTACGTTGTCAGGACAAG
1 ATCAAGATATGAAATACTACCCGCTGACTCATATAAAGCA
1 TCACGCAGATATAACCGGTTCGGAGGACCACTGTTGACGA
1 TGAGCGTGCTGGACCGTCTGTCTTTTGCAATCGGGCCCAG
1 TAGCATATGACACGTACTTGTCTCATTGCGCCCCTGTACA
0.0110556546193328 TACGTCATCCATATGCCCGCTTGATCCTATTATATACTGT
0.5900821465852356 ACTTCCGTCCAATGTAAACGTCATTGGTTTTCGGCAAAGT
1 CATCGCCTGTCGACGATTATGCAAGGACATGAACCATTCA
1 AGGCCATAGCGGGTATACTCTGCTGTTGCGTCGTAGTTAC
0.85671821596842 GACGTAAGTCGATGCTCAGCATCGCCACAAATTTACCCAA
1 TCCCTTGCCCGCGGCCGGTATTACATAATTACTGTTTGTC
1 GGAACCGCGGGCAGGCACCGTTGTTGACTCACTCCCACGA
0.09379317518333628 GACGTCATTGAAAATGCATCGGCCCAGCTTCCTCGCACCG
1 AGGATCGCTGAAGGTTTTTTGCAGCCTGGTTTGGTGACGT
1 AGGAGTATTTAACCTAAGACAAAACGTCTTCACAGCCCGC
1 GCGGCGCCGGAAGTTAACCGGTCCAGCTTGACTTCTGCTG
0.1575500044163316 CACTGCCAGTAAGAGTGATTGCGCAATACGCATGTAAACG
1 CAGACTCTACAATGATTCACCCTTAAAGCTCACACCCAGG
0.4874118495126238 CTCTTCAGCGTCAGCTATGTTACGTAGGGCGCCGTGACGA
1 CACCCACGGGCGGTGACAGCACCCCGAGCAGAGATGTGCG
1 GCTGTCATCGCACTCCCAGTGAAAACATGCAAAAGGCTAG
0.3065522168010311 GACGGTGATTTTGGGGGATGAATCAGCGCGTCTAACGTTA
0.8407665231911654 GGTTGTTGTGTGCGTCGTATGACCCTAAATGCTTTCGTCA
0.72363640141448 CATCCAATGTTCGACGATGTGACGGATGAGGACGGATGAC
1 GGAGCAGGCATTCGCAGCTACTGTGTGTAAACTTGCCAAG
1 GAGTCACTACAATGCTTGCCCACACCCACAGTGATCGCGC
1 GGTAAGTGCCCCGCGGCTGCCTACGCTTCTGCGGTGACGT
0.2595946284599041 TCGCCTCAGCGCAATGTTTGCTTGTCAATGTGCTGATTCA
1 CGAGATACGTGTGACTGCATCGGTGGCAATGCGGCAAATG
1 AGTTATCCATCTATATAACAACTTACGTGTAATAATCTGC
1 GCTGACGTGTGCAGTTTGCAGTATCAACGAGCGTACCATC
1 GGTCTGGTTTGTTGATGTGCTTACGGTTAGTTGCATCATG
0.2890969480657717 GACGTAATGTACTAGGCCGACCTAAGAATGAACTCAAGTA
1 CATATTTCCTCGTGATCCCCACACGCTGCGATGAGACTCC
0.6842507538980286 GACGTAAGCGGCGCCCGCCGCCACGCAGGCTTATCGCATG
1 GATGCAAGAACTACTAAGCCTGCTTTTTCTACGAAATGCT
1 CCGCCACTCCCTTATCAAACTCATCAGCGCAGATTGACAA
1 GATGAGTCACACCCGAAAGTGTAGAGTAACCGACGCGTCA
1 CGTACGACTTAATATACACAACCATACGGTCACCGCTCAA
0.4736289529266648 ATCTGACAACAACTAGAATAACAGTGACGCACTTATGCGT
1 CAAAACGTGTTCTAGGCATGCTGAATGGATTCCCACCGGT
0.06750266666235714 GACTACGTGACGCTGCTTTTTAGTTACTCATACTCATTCG
1 ACCCCACGAAGCACGCGCGGCCGAAAGATAACTACTCGCC
0.6581575466064384 CTCTGACCGCGATTACTAACATGCATTGACATGTCCGTAC
1 GCAACGCTAAACATTCGCACGGTGGACGCCGCTTCCACCG
1 CACGCACAACCGGATGGGCCCCGAGATTGACAAACCGGAC
1 ATCATCCCATAGTCACATCGATCTAGAACCCGTCTAAAGG
1 CCCCCCGTTACGGGCAGCGCTACGCCCAGGCGCGTACGGC
0.1764284257897305 ATCCAAGCCTTCACGTGCGTATATAGTACTGACATCATAG
0.7261102130229435 GACGTCAGCCTACACAGACGTGCGGCCCACTCCGGGAACA
0.9747544451228586 CCATCCCCCCTCCCCTCACCGCTACGTAATGCCCGTGCTT
1 GAGACCGGAAGCTCTGATAATTGCCTGACTTACCACGCGC
1 GCAGCCACAAAATGCCAACGAAAAACTTAATGGGGACGAC
1 CTCGCTGGTGCGACCTCGCGACTATTACTTGTATTGACGT
0.5044776365732091 GACGTCATTCCCTCTCAGCCTGTTCAGGACCAACGCATGC
1 GATGTGATGCTTACAGAAGGTGATTTGTATGTTATGGCGC
1 ATGACGACACCAGGAATTACTCTTTGTTGCCTTTACGGGA
0.7053271542637418 GTGACGAGATGATCGGCCATGATGATCAAGCCCTGAAGTT
1 TGGACACGCCGTGTACGAATTATGGTTAAATGAGTATGAT
0.9840866407592123 CGTTACTTGGTACACACCGAACGTTCTACCGAGGTGACGT
1 TAGGTAGCCCGCAGAGTCTGGAGAGGACCAACCTGAGTAT
0.1585030542720761 AAAAGCGTGATATAACCCTCACAGAATCGACATAATCCCG
1 GCGCGTAGCGGCCCAGTCCGACCCTGCATGGCGTCTCCCG
1 AGGACAGGGACTAGCTCACCTACTGTACCCTCTCCCAAGT
1 GTACCCAAGAATAACGATTTCAGTATACAAACGTCACCTT
0.9220893893325127 GACGTATCACCTCCTTATTCCCTGACGTGCCACCGACACG
1 TCACACGCGTACGTAACCCCGTCGACGGCGTTACGAACCA
1 GTTCCGTCGCAGGACAAGCCGCGAAAACACATGTCATACA
0.3476671351548594 GTCAACGTGCGATGATGCATTCCCACATCCACAGCGACCG
1 GGGAACGCGAAGGCACCGTTTCTCCACCCGCTCATCCTCC
1 GTCGGCGATAGCATACCCAGCGCTTCTCTACCCCCACGCC
1 GGTGACCTGGCCGCCTTTCTGCCTTAGACCATAGTGCGAT
1 CCGACTTGACATAGCACCGCGAATTACCCACGCGTAAGGT
1 AAAGTGGCCCCACAGTCCCAACCTCGCTTAGCCAACCTGC
0.3209686133060194 AATTAACAAACGCCTCCATCGTGACGACACCTACAATTAA
1 GATGTAAGACCTCGGATTGGTAACATGAGTGCGGCGTTCC
0.41381614302729 CATCCTGATGTAACCCTAAGCACCTGGTCGTTGATTCCGC
1 CCTGTGTGATGGATGTGTTCGTGTCTGTTGAGACGGGCTT
1 CACATCCTGCTCGACAATCATCAAAGGGTCACGCACACCC
1 TTTCGGCGTTACAGAGTCGCGCGCGCGCGCTTCAGTAGCG
1 GAGCGTGCATAAGTTATCGCGGGTGACAAACACTTCAGTT
1 CAGTGACTCAAGCCATTATCACCAACTCGCCCGCGCACGC
1 ATTGGGCTAACAAGACTCTACGATGGTGTGCCAACCTCGC
0.7690777209779619 GCGGTCCTTGTTTCTCCTCTACGGCATGCTTGCGTCATGT
0.3301570700107284 GATGTCATAGTTGATGCGAAAGGGTTGAGATGGGAGACGT
0.8140145332408317 TGGCTGCTGAGTCAAAATCACCTTTTCTCTGGTCATCTAT
0.126626474374118 GTGCACGCTCTACATGCTTCGGCCGCTATCACGATGACGT
1 GACGCTTCCGTAATTTCCTCCGATTCAACCACTAGGTTAC
1 AGTACACACACTTACTCTGACCCACGAGGATCAGCTTTGA
1 AAGGTATTAACACTATGAGCTCATGCCTTCTTTCGCGTGC
1 GACGTAGTCTAGCTGGACGTATTCGAATGGTGCACAGGTG
1 GATACGCAGAGTAAGTATTTAAGGCGTGAAACCTCCCGAA
1 TCCGGTTTCTCGATTACTTGTGCTTAGCCGTTTCCTTGAG
1 GACGTGATCTAGTCATAATTTAACTGGTGCGTCGGGTATG
0.03507254810486716 ATCACGTCACCGAAGCGCGGACATGGGTGGCAGGCTGTTG
1 CTGAGGCATAAAATCATCCCGTCATCCGCACTCCTATACT
0.09359796846060672 ATAGATGATCAGCTGGCTACATGAAGTAGCAACATGACGT
1 CCGGGCTGGCGATATAAATAAAAAATATTTTTTTTTTATC
1 CGGGCCGATGCCCCCACATCACCCCGAGTAACCACGACGC
1 TGTACTACCTAAAATACCGGAAATGGTGGTGAGCGTATTG
0.5026155246066188 AATATGCTACCTTGGATCATGACAGTCACCGTCGACCCAC
1 CAACTTCCGGACCTAGAACCGGTCCAATCTTTACGTGGTC
0.1483949245939422 CAGACTACGTGCACGGTTATGGGTCAACCGAAGATGACGC
1 ATGATGATGCTTCCGTGAAAATTATGCCGTGTGATACGAT
0.28289273802076 GACGTCACTGGAGAGGGGTTCATACAGCAGCATAGATGGC
1 CATCGCCTAACATCGATGACAGGCCTTCGGCGCGCCGAAA
1 ATTAGGAAGTCCTGCCTGTGATTTCCTCTGCCTATGGAAG
1 ACCACCGGAAACGGTGGCACGGGGGCGTTTGTCCTCACCT
1 AAGGCTAGCCAATCTCATCGTTGACTGACATAGCGTAATC
1 CAGCACTGAACTACAGTTCCCGAATGTGATGCATATGTAT
1 GTTGAAGGTCGTTATCCCTCGCTTACTGTTTTGCCTTTCT
1 GATAGAGAGACGGATCAAACAACCCTGTGACACCAGGGGG
1 ACGCCTATCTTCCCACACGCCGTGTCGTCTGACGTTGAAC
0.1541168495216889 GGTATGACTCTGAAGTGAGTCACTCGAACCTCGATCGGGG
1 CCACCTAGTTCAATCGCATCCCTCCCAAGATCGCCCCCCC
1 CAGACAAACGATGCAGAGAGTGCTTATGCTATACATTAGC
0.5249453112298651 GACATCATACTGAAACTCTGATGGCTGGACGTATCCACTA
0.8319254336213215 AGTAAATGCAATGGTAATATCATTTATTCACGTCAGAGCT
1 GACATCACCGGCGAGAACATTAAGCGGTTCGCGTGTTTAC
1 ACTGGTTGATTTACTAATGTCTAAATCTAACGTTTGCCGT
0.537626826793573 GCCATGTCACTTGGTGACAAAGACAGCAGCGTCATACACG
1 TCGATCATATCTATTCCATTCCTTGCGCTTGAAGATGCAA
1 GAACAGAACGCCAGCGGTACTAGTCATTCTGAGGGATGAC
1 AATCGAACCCAGAAAGTTTTCCCGATTGACACACGCGGAA
0.9991194024892561 GCCACGTCATGTCCCCGCGATCCCGTTCCCTGGGCGGCGC
1 CGACAATACTAGACATTGTTACAGATTGTTTGAAGAGCTC
1 CGTCACGTAGCTGCTAACACTTTCGAACGAGCCAATGACT
0.5236818977915848 TAAGCACCATAGCGTACCATGACGATGCACCATCCGTCAT
1 CTGGGGTCATAAATGCTCCTGCGTGTAACACGAGATATGT
1 GACGTGGCGTTATAGTAAGACACTGCCGTGCTGCGACCGG
0.5710324958130811 CAGGACTGGATGATGTATGTTTGTCAGCCGTTTAGGCGAG
1 CTAACCTCGTTGAGGACTAGCAAGCATGGACGATTGCGGT
1 TATCGCCCACAAGGAACTTCAGCCCACACTTCGTAACCGC
1 GCGTCACGGACTCAAATGCCTAATCGTACCATCCGCGCTG
1 GACTCACCAACAAACGGTTTGTTTCATGTGACTAGACCGC
1 CATGCCGGCGATTTGAAGAATGAACCATCATACATGCTCG
1 GGGGTTGCTAAAGCAGTTTTTGCTAGGGTAGATAGCGCTA
1 TTCCCACCGAGCCCGCGTCTCCTAGCGCGATCGTAGGTTG
0.8176648759175073 GTTAAAGCTGTTCACGTTACCATCACTATATATTTTGTAA
1 GGCGGACTCTATCGTTCGATTCGCTATGGCTTAGTCATCC
0.9791564429775347 AGTGAAGTGTTTTCCGGTCGGTAATACCGTAACTTCCGCT
1 GACATCACCCGGCCCATACGCTGTGCGTACGGGCGTATCA
1 GCACTTGGCCTATTTTCTATGACACCATCAACCTCGACAC
1 AGCCTTTCGGTTTTATGGGCGTGTCCATTTAACTGAAGTT
1 GGCGATGATCGGACAGGTGTGAGTAATTGATGAGGGCGGT
0.3899873798058769 CCAGCACTGAAGTCATGATTACGGGTCGCATATGGGGTAG
1 AGTTCTGTCGGGGGAGGGTACAGGGTAACTTTAAGAGTCG
0.6624568296370564 ATGATTACGCAATGCGCCTATCCCATTCAGGTTTAACCAT
0.3925647371416603 TAGGAGAACGTCATCCCGCAAAATCCGCACACTGTTCCAC
1 ACGACTCATACGGTTGCCGTGGGGCTTTCCAGCTGGCCCG
1 ACCCACCGAATACGAGGTGGCTATGCTAATCACTCTTGTT
0.8199805349278615 ATCGAAGGACCTCTACCCGATGACATACACCTTACCTAGC
0.8247928307379759 GCTAAGCATTGTTTCGTTGTCATGCAGGTGGAGCATGACT
1 TGTGCGGAGATTCCCGATGTCTGGTTCGTTCATTGCGCTC
1 AAACTTCCCAAGTTACTCGCAGTTCGTCGCCTATACTCGC
0.6320659448220743 AGTCGCTAGGGTGATTAATGTTATACTTTGCATCACGATG
0.3166470228943762 ACTAGTCAGTTATGCCGTCACTTTAGACCTGACTTACATA
1 GACATAATCGCTTGACGTAGTTCCACAAGGGTGGTGCACA
1 GTAACAAGGGGGAAATCAAAATGCTCGTCACCAGCCACGC
1 AGTAACCTACAAACACCTGAAAGTTTTCTGCGGACATGTC
1 CCGAACCTGCGCGTGTGGCGATGACACCCGCTATACACGA
1 GTGCACAGGGCTCAGTTTTTGGCTGCACGCTTTGTGACGT
1 AACAATCGCCATATTGATGCTATAATACATCGTGTTTGGT
1 TTGTGGATTTGACGGCAGGGTTTTGTTCGATAATCTCTAC
1 GAGCGGTTCAAGGAGCCACAGCAATTACAACACGGTGGGA
1 GTCTGTAGCGTGATAACATCTTGTAGGGCAGAAGGCATGG
0.008703783346829055 CAACCACTTCCGTGAGCGTCTCACGCGTCACCATGGTCAT
1 GACTTCCGCTGTACTTATATGGAATCACCTATCCGCGCGC
0.7365390200017223 AGGTGCTTCAAGGGACAAACAACGACTTACATCACAGCTT
1 TCACTCCCTGTCTAACCCCCCTACAAAACCTGACATCACC
0.337753576103128 AGATGTCAAAGACCAAGACAACAACACAACTGATTACGTC
0.826779266309253 TCGTAGGATCGCGGAGTTTCTATGATTAAAGGTGATGACG
1 CCCACGACCACTTCCTGGGAAGTTTACGCCACTCCCGGCC
0.1226324434505646 GACGTCATGCGCTCGAGGTAAGACTAGCAAGGGAGCTGTT
0.8843279838405782 ACAGATAACGTAACCGTTACATAGACCTAATAGTCTCAAT
1 CATCATCAACAGCCCACGATTAGACCCCTACTACGTAACG
0.8173644611829017 GACGTAATGTACCTACAAAGCGAGCGAGGGAGCGAGTTTT
0.9653246099495268 TGCGTAATTGCTTTCGTAATTCAAGCGCGCGGAACGCGAG
1 TTACGGCGACGATCGGATGCAGTTCCGGTGTGGGGTGTTG
0.8489786386435165 GATGAGCTTGTAGACGCCGCGAAGGCTAACACGTCATCTG
0.6418354148356415 TGTCTGTGCCCTCCTACAATAACATTACGTATGCTGGTTG
0.9140737512183084 GTAACTTGCATGGCGGTGCTCACCGGCGTCATTGACATGG
1 GCCTCACAGCACCATCAGTAGCGCTAGATCCCTGCGACCA
1 CCTCACCCACACCCGGCGCCACCCTCCGCCACCCAACGCG
0.6560257038083428 AACGATTATTCCTAACGTCGTCACCGGAACGCTCCTTAAA
1 TCTCACGCAACTGGTATGACAGGCGACCGTCCCAAGCTCA
1 CACTGGCTTCACACATGCGCTTGTGATTCATCGTGCCGCC
1 AACCGCGTGTCGCTGACTAATCAAGAAATGGGTGTCACGC
1 AGTTCTTATGGTATAGTCCTTCGATGCCGATAGTCACGCT
0.07430644186511846 GAGTCACCTAACCAGATGACCTCCTCGGATGTAAACACGC
1 CCAGATGCATAATGAAGTTAAGGTTCATTGTTGCTGACGT
1 TCTCGTTGATGCGGTTATTCATTGCACCGAACCTCGTGTT
1 GACGTGAGCGTCCTACGTATGTCTTCTGGTTGGTGCGAAC
0.02325100279936278 CTGTGCACGTCACGCGAAACATTGTTTGCCGTCCATCGAT
1 AGGCCATGATTTATAGGCAGTCCATAGGTAACGCACCGGC
0.6066733797022758 AGTCGTTACCCTATGACGGATCCCCACTGATCATGCTTGA
0.8029269465210792 TCTCTTATCCTACCTCTGCGGGTGTCGATGATGTTGCGCT
1 TCGAAAGGGAAGAGGAGGCCAGTGCTCTGACATCCGCATG
1 GACATCAGAAGCTTTTTGGATACGTGTATACAATCTAGAA
1 GGGAAGATTTCAACCGTGAAACAGCGACTGTATCATGACG
1 CGTGTGATCAGCCGGGCACTGCACATCTATGACGATTAGG
1 GTAACCACCTGATCCGAACGGCACGACGACGGGCCGTCAC
0.3119903859412304 CGGAGATGATAATTTACTTCCGGCCATCAGGTCGTGGCGG
1 CCTGTGGTTGGACACCAGCTGATGATCTGCCTGTTAGTGT
0.1888725759730973 GCTGACGCCACAAGAATGTGTGATTCCGTCTACGATGTCT
0.1136250592074753 AAAGTGCTCCGGCAACGCACCGGAAGCGAATAGTGATATT
0.109045687949927 GACGTCAGCGACAGAATTAGAGAGTGAGCAACAATTCCAT
1 GCAAGGGGCCCAGCATATGACAACAAAACATTGCGTATAC
1 GCACGCCCCTCTCCGTAACCACTACTTCCAGGACGTGCGT
1 GTAATGTGCACTGTGACAATTGATTCCGAAGCCTTCGCAT
1 GACGTAATAACCTTAGTGTTTGTGTAGGTGGGCCGCCTGC
1 GACTCATCGTACTACCTGTGGGATATACGCCCACACAATC
1 GGCACTAAGCGGAAGTATACTGTTGGGCATACGGGACGCG
0.8735413605005364 CTGCTGATTCACCGGGCTTTGCTTTGACGTCCTTGAATGC
1 GGCCATATGTTTGGAACTATAGTGCCCCTATGCATGACGT
0.2130817180752477 AGCACTTCCGGTCTATCGATGGCTACTTCAAAACTACTCA
1 CGATGTTGAAATAAACCCCAACTAACACGGGGCGCCTTAT
1 CATCACTTACTAGGGGGCAAATGCTCATGTGTCAGGATCT
1 CCGATTGAAAAAACACGGCGATCCTAAGGTAGCTAACTTG
1 TCACCTTCCCGGAGATAGGCCTATGTTGTTATAGTGTCTA
0.04416269779299764 AGAGCGAAACCCCCTTAAAGTGCATACTACAGGATGACGT
0.1143744083402722 CGACCCCCTCGTCCGGTGACACAATGCCGATGAATATGAT
1 ACTAATGGACATATGCATGCCCACCCGCAGCGTTCCATGG
1 TAGAAACCTAAACTATTATACCGAACGTATTCGTACGCGT
1 ATGTTACCTCGCGTACGCGTATGTCATTTACTTAGCGTGC
0.7778767734854041 TGTCGTTGTCACCCGTTTTTCTTCAGCTAGCTTATGACGT
0.2032838355764734 TCATTTGACTCATCATTGAATAATTGGCACCGTAGCCTCA
0.028848994487514 ATTTCCATTTGCCTAGCTGACCATGTTATGTCATTCGAGA
1 TTGGTTCCCACGTTTGAGTACCAGATGCGTAAGCATAAGT
0.2499176218509997 GCCTCCGGCTTCCCCTGCTGAGTCACGCCCCCGCGCGACT
1 GACAACATTCCCCCCACCGGCAAAGAGACCAAAGAATACT
0.9068988335668955 ACCACCTGCATAGCAAGGCATCTTGGCCACTTATGACGTA
1 GACATCATGCCCAGCGGTCTGCCCAGGCACCCCTCACACG
0.4562089400866827 GTCGCGCCATGGGATGATGCCAGTGGATGATAGAGTGGCC
1 GGAGGAGCTGGGAAACAGTCTTTGACAGGAACGAGAAACC
0.8919276756638472 GAACCAGCCGCCACGCAGACCGGCGTGACGACTTTACGAA
1 ATTCTAATATGTCAGTTTATGTTGTTATATTTCTGAGCGT
1 CACCCCCCATACCCTTCACTCACGTGACGTTGAAGACGAC
1 ACTGAACCAGCTCAGAGACTGCGACACGCTGAAAGCGAAC
0.2705101448088338 TTCGTACGTTACGTGGCCGCTTTACTCATCCTTCGGTCAT
1 ACCGGTGAATGAGTCGATATGACGCTGTATAGGGGTACGC
0.07146141434684695 TTAGCGTGCGGTGTTCAGTGTATTACGCTCTGGATGACGT
1 GACGTAATTTAGGAACGTCGATTCCTGCATGATCGGACTG
1 ACAGCCTAAGAGAATACCCGTCGCTCGCTGGCTACTGACT
0.3031826249007972 GATTCAATGCAAATGCTGTGTCATAATGCCTTACGACCTC
0.2485885433540842 GCGGGGTGGCTGCTGTGACGGGCGACCTCATCGTGATGAG
1 GATGACGTATCCGAGAATGCACTGGTCTGCCCAACCGACG
1 TTATAGCGCGCTCAGTGTCATAGGAATGCCACGCTCACGT
0.7780094346053817 TCTCTGTGCTGACGCATGATACAAATCGTTTCCGCAGAGT
1 CGCCTCCCACTTCCCTCCCCCCCAAACCCGGAATTAAACC
0.1528776297745256 AACCACTCGTACCTTGCTATTATGTGTCATGGTATGACCT
0.2489125260548303 TGTGACGTGGCTGAGCGCTTATGCAACGACTGACTTCATC
1 GGTCTCGATCACAGTACGGCATAAGACATATGCTGTAATT
0.0739723145650874 ACGGACGAATTTCATACGCTATTACACCAATAGTGACGTC
1 TTTGATGTCTAATCACAGTTTATGCGAGACTGAGTGACGT
1 GAATCATTAGACCTAACCATCTCAATAAAAGCATGCTCAT
1 GACTCTTCATGACGGGTCACAGGGTAGTTTAGTTATTGTC
1 TTAGTGCTATTTGCCAACAAAGAACTGCCTGCGATCTGGT
0.02864152387280445 TGGCGATACGTCACATGAGCTGTGCCTTATCACGGACCGT
1 ATTACCATGTAGCCACATACACCCACGACCCTACACACCA
0.1386152852340273 GAGTCAATACATCACCCACAAGCGTCACTTCTCGAAGGGC
1 ACCACCACGAACCATGCCCGGGCCAAAAAACCCATGACGT
1 AGACGAGTTAACAGACCACCCACGCTGGACAACGGGCCAC
1 ACTGCGTGAATCACCGCGTGCTTCTGGCGGCGCAACCCTT
1 CACCGACCAGCCATCTTAGGTCACCTACCCGTTCGTCTAC
1 TCAAGCGGTATCACTCATTGAGACCCGGCTCAATGATACC
1 CTCAGGACCGCGCGTTTATAACCTACCACTCTGCCCTCTT
0.402074966441151 GGGTGCGTCCCGCTGATGACAAATATGTCGGTGATGCTTT
1 CATGACATGTGTACTACCTCAGCAATTACCAGAACGCCGT
1 GACGCAACGACTATACTGGCGTAGGGCAAGGAAGCTAGTT
1 GTACTGACCATCTCTGATACAGACACTACACCTCAGACAA
1 GGAGGGTTTCGGCCGTATTATTGCGGCTAGACGGGGGATA
1 GATGTCACCAAGCTCTCATGCCTTTGCGACCTCCTGCCGT
0.2293568458139191 GAGTCACTGACTAACGATGACCCGTTCAAAATGCTGTACA
1 ATTCGCTCTGTCCATCCGACCCGTTGCTGCTCCATGATAT
1 GATATCATAACGCCCTAGACGCGCGACACCGCATCTGTAC
0.7972904327299911 GACGTCACTAGGCGTAGACCTACCCCCCTTAGCCCCCTTA
1 TGCCACAATGATATACACTCGCGTCAGCTAAACGTCCGCT
0.9536666563546538 AACGCACGCGATCGGTTGTGCCGTGGTGCCCTAGTGACGT
1 CTGGACCAATTTCGTGACGGTTGGTTCGGTCATGACCTGG
1 CGAGTCACGCGAAGCCGATGCGCCTTCACCCGTAATATGC
1 CATGCATATACGTCTCGCATCTAACGCCGGTGCGTTGGCG
1 GACGGCATCAAAAATGCACTCCCTTATGCACTCCCTACGT
0.6136049186737041 AGTTGAACGGGTAATTGACACGTCATATTAAGCTACTCCT
1 GCATATCGCTCAACTTGGAATTAAGACAAGCTCATGACGC
1 GACGCCACGATGGCAAATACCCCTTATGTCGCGCGTGCGT
1 AGCTTTCGTGAGGTCATTTTTTACGGTTTTTCTGAACATA
0.08140943093852417 GATGCAAAGAGAAATACACTGGGCGGATCAGAGATGACGT
1 GAATCACCTATCTCTGCCCTCCATGCTGAAAGCTACCCCC
1 AGCGCGTGGTACTACGTCAGATCGTTGGAGGCGAACAATG
1 CCGTATAGGTGTATTTTCGGGTAACGGATGGGATGCGCGG
0.5138543372290928 GACGTCATTTCGCTGGCTGTCCTCTGTGCCTGCCGCTTCT
1 CACGATTCCTAGTGCTCTGACTGCACCGCTGAAGGGCATA
1 ATAGCAATGGGTTAGTGCTTCCGGCATACGGAATACTGAT
0.7208144089570084 CCCACGAATGCGATTATAATGTATGACCCCACCCGTTGTC
0.2587626325134616 TGATACGGGCGCGTACTTAGTCATACTGCAGCCATTACGT
1 GGCGGATTCGGGTGCTACGCTTTAGGGCCGTCATTCTTTG
0.646561086364307 TGCGTCACTGCAGCTTAAGGGTATGCGCGATACGTGCGTT
0.2571295600906931 GACGTCATTGATATGTTAGTGCGGACAGCTCACGGGATGT
0.3388721936923978 GGTGAGGTCTGTGATTGCCATTACCGACACGCGATGACGT
1 GACATAATCCCTTTTCTTAGAACTTCGTGTTCCTTATGTT
0.1071372687608119 ATGATGTCATATTAAAGCGCGTGTCCTAAACGCGATGTAC
1 CATGATGACTACAACGGCGGGGGTGAATGACAGTAAACCA
0.9484728518868385 GACGTAATCCCGACACCTAGACTGGTGAGCGGCACTTTGA
1 CAGCATGACGCTCCACCGAGGTGTATGCCTCCAGCGACGA
1 TAGATGTACGTAATCGAGTCTCTGGGAATCGTACCCTCAT
1 GTGGGGAGATAATTCCAAATTTCAACACTTGAAATTACGT
1 ACTTAAAGAAGATGAATCGGTGTTATTATAGATATCACGA
1 TAGAGTGTACACTTTCAATCAAGCACTTAGCCAATCACGT
1 GACGCCATCCTGCTAGCTCATTACTGCTTGCCCCCATCAT
1 GTTTACCTCACTGCTACTATGCAATCTGCAACCATAGAAT
1 TTTCACCCTGCTTGTCGTCCTACTACCTCCCTCTACGTTT
0.4029225299281396 CCGCCCATAACACTAGCATGACAGCAACGCAATTGACCTT
1 GCACATTCGCACGCGCTAGTTGTCGCGGGCCGCGTGATGT
0.6011028488896388 AATACAGAATGATTACAACATAGGTCACGAGCCCTGCTCG
0.1655565455154761 TACGTCACTGTACCTACTCGGCGAGCCGCTTAATAATTCT
0.2818258441380305 CGCGTTTTGGCTTTCGTGCTTCCGGTTTGCGACGAAGCAT
0.9713928924178439 GTGATGTAATCGCCTAGTAGACCTCCACAACTTTGACTAT
1 CACCTAGTCCACATGACACCACCTCACTGTACAGGCCCGT
1 GGGTCAGTTGCGTGACTCCTCATGATAAAGTAGTGGATTC
0.786301584951548 AACATCTGCCGGTCACATCCGGTGAGACTCGCTTTCCATC
0.5188243905526254 TGACCGCGTCATAGGGCTTCTGACTTTAGCTCAGCATCAT
0.7987043819948068 ATAGGGGTGTAGTAAGACTTACGTATTCGGGTGGCGCGTA
1 GAAATGCCCCTGCCCTGTACTCGTTATCGTCCGATGACAT
0.1888949464720255 CCGCGGGGCGACAATGCATCAGACCACGTCACGCGTCCCC
1 AGAGTGCGCGTCGCGTGGAGGACGCGTCAGCGCCAAGGAC
1 CTACTGATCATGCACCCCACAGCGGGCTCTCATCAAACCG
1 GATGTCATATGATTATTCTGTTGTGGCGGTGCGGCCAATA
1 AACTAACCGTGCTTTAACACAGCGCGTTGCAACATCGTTA
0.8111298513718581 ACACGATTATAACCCATGACCTGCCTACAACTTGATGACT
0.1648457043845283 GACGTAATATAGCTTCATTTCGCTATTAGCAATGTACGGG
1 GTTAAACCGGATGCCCCTGCCGGCCGAAAAACATGACGCA
1 ATTAACCCATTCGTCGACGTCGCCTGCCTGCTACCCAGGA
0.7748634624916285 CGTCCTTGGCTGTCTGTAAAACTCTCGCTGCGTGTGACGT
1 AAGGTCACGGCGCCAAAACGAACTCACGACTGCATGAGGT
0.4907324067401387 AAACTGACCGCGCGACAGTGACGCATACTTAAAGGCGTGT
1 GACGTACTCGAGTACATTCTTGTTGGACCTCTGTCCTTCG
1 AATTTCCTGTGAGCTCAACGCCTTCCGCTGCGCAGCTGCC
0.5585121670173361 GCGACCAATCCACCAAGCTGAGTCACCCACCCCAATGACT
0.1553139365293374 GCTCGCCAATACCCCCCAATTCAATTCAATGATGTCATAC
1 ACGGGCGCACAAGCACACGACACTTCATACAGCTAATGAC
1 CTGCGACCTTCCGGCTTATCGGCGATAATTATTTAGTCGA
1 CCAGCGAGCCACCCCCAACGCAAACCTGCAACCATGACAT
1 CGTCATATGAGGAACATCTTCTTAGAGTGATCCAATGGAC
0.5437370243890006 CATTTCGCGAATTAACTCCGTCATCCCGCCGTTATTACCT
1 GCCCTTTTGTAACAACATCGCAGCGTGAGCTCGTTTCCAG
0.730446888988905 AAAATATAACGCGTAACGGCGTGTGCGCTATTACTCATGC
0.4056248914179156 AACCCGCTGGCGTCACCCTCGAACAATACCTTCGGGTACC
0.3520540489417103 GGTTACGTCAGCTATGCATGGAGCTCCTGCCCGCCATGGG
0.24951242831806 TTTCCTGCTGACGTGTGCGCGGCGGTGCTTCTCCATGGCG
1 CTCGCACAACGTAGGTAAGTTTGCGGGAGAGGAAGTTGAT
1 TCGGAACTGTCACTATGATTAGTTGGACGGTATATTGAGC
1 CATCCCCACTCACATACCCGCCCCAAAATGCAGAGCGCGA
1 CACATTACACATCCCGGCACACCCCGATAGTCACGTTCGG
0.861721568222701 ACGTCAGCGTGTCTCTGGCACGATCTCCACCCATTGGGCC
1 GCAGGGTGCGTAGATTGCAGTGAACATCTTTCATCATCTA
0.9235699376020231 CGACACATCACCGCTACCTACATGTCGACTCCCCGGTTCG
1 GACTCACTACGACTGGTCACAAATTTCCTAGCACGACGCC
0.7437234976441116 AGTATTATTACGTGAGCGCGTACATCGCGATCTAATGTTA
0.8237945083213584 CCACCTTATTACTTCGGTGCAGACGTCAGCCCATGCCCAG
1 CTGTAGTTGGAGATGTAACATTCTGACCAGAAGCAAAGTG
1 TACAAACATCCACTATCCCCTGATACTTCATACAGCATAC
1 CACCTATCCAAAGATGCAGAAGTGGTAGTGACTACCTGTC
1 ACCCCTAGACTGAAACGCGTCGCTAGACCACCCCTCAAGC
0.4964040004163693 AATAAAAATCCCGTTACATCATATCCGAGTAGGAATCGCT
1 ATGAGTCATTCGTGAATTGATGCTCGTTCTATCAACCTAT
0.4458569573708329 ATACGAGTTGATAAATGACGCGCGGTAACGTGTATTCAGG
1 CGTGCGCACAGGACCACGACTCGTCAGCACAACCACCCCC
0.7916294783201719 TAATAATTACGCAAGGCCCGTTCCGCGGCTGACGAATCGT
1 CAGTATGGTGCCCCCGTTTCGACCATTCGCGTCCGAGTTC
1 GACAATAGGTGTAAAGTCTTACGCCACCATCTCATACCAG
1 CAATGACGTGAACATGTAAACTAGCTACGTACGCTTGTGC
1 ACGCCACTCAAAAGCTTAACACCACCCTGCATCTTGCTCC
0.2953516278027177 GAAAAGGGGGTGATGACCTGTAAATTACGAACGATAACCG
1 CTGTGACGTACTTACTTTTGCGTTATGAGGCCCCAACGTC
1 TTAGCACGATGCATATCTGTAGCTATTGCTTTTCTGACGT
1 CCAGACAAGTTGAGACATGTCAAATGGACACCACTTTCAC
0.7644721205941702 TGCCACGTCCTGGCAGCACGCACACCCATGGTGGCGTCAG
0.1956008990519274 GATGACGTGTACATCCATCATCGCACTGGTGCTGTGGTTT
1 GCTTTCCATTACTGGCAGAGCCAGATTTGACATAGATAAA
1 GACCAATAACTAGCGTCCCAACTACACTCCCACGGCTCCA
1 GACGACATGCACACGTAGATCAACCATTTTAACTTCAACG
1 AACGCCAGTGAAGCTACGCGGTCTTGCCGATTGACGTGGG
0.6813559738138592 CCACTAATGCATAGGTGAATCATCCACTCAACATCGGCAT
1 CTACACGCAACTCATCAGGCCGTGTGCGGTGTCCCGCGGC
1 ACCTGCGTAGATGGACTGCGGGATGATGAACGCATTAGAC
0.7908067865729818 CCGCAACGGCTCTCCCTCAGCGAAAGATTGCATCATCCGG
1 GACGCGATTATACCCAGGACTACCCCCGGGTGCACGACGT
1 GCAGTACGTGGCTAGATTGGAGATACCTATGCCATCTTTA
1 ACCGCGTGGTAGGATCAACATCCTGGCAGGTGTATGGACG
1 GCTGACGCAAGAATATAAGGGATTGATAAAGCATGAAGGA
1 CGATCGACAATTACGCTTTTGTAAGCGGACCCCACGCGTG
1 TGAACGACTTCCGTTTGACCGTACGGCGCTGCCTGCGGTA
1 GCCATCTGGACAAGCCTCAACTTGTCCATCAGGGAACATA
1 GAGACGTAGTTGGATAATCGGCACGTGGGATGTACCAGTA
1 ATACCGTCACCACACACTTGCTCCATCACGCCCTGCACCG
0.4049984731342212 CACCGTCATCGCATTACTTCCACGGAGGCGGGTGATTCGT
1 CGCGAAAAGCATTCCTGGTTCACGGTGGGAGGGATTTTGC
1 ATTACGCAATCTTCCTCCGTTGAGATTTTCGTCTTACGCT
1 AATCGCGTGCTATTGTACCTAACTTTACATCACTGTCGTT
1 TAGCTGTTTACTGTTGGCACTCTTGCTTAGTATGGAGCTA
0.03244824313618532 CGCCAAATACATTACATCACCATGTAGCACACACACACGG
1 TGAAATATCAGCGCAGTTTAGTCTGCGTTTGCTTATGTAT
1 AAGACCCAAAAGCACGCTGCGTCACCTTCAGAACACGCCA
1 TATATCCGGAAGCAAGTCCGCCCCTTGTGTATATGGTACT
0.05775942628207947 CACACGTCATCCTTTTACTTGAGCAGACCTTGGCCCTAAC
1 AGCTAACCTATAGCAATTAGTTGTCAATAAGCCGTATTGA
1 TACGTCAACCTAAACCCCACGACGACACAACCCGTTCTTC
1 ACAGTCATAGATGAGTAAAGCGTTATCGAAGCAGGATTTA
1 ACTTCCGGTTCGTGCTGGCCAGGTTACTGTGTTCTGTTCA
1 ACGCACGGGACCGGAAGAAAACATTAGCGAACAGCGCTAG
0.7802622694400799 GCCCAGCCACGATCCACGTCACTACGCCTCGCGTACCGCA
1 CGTGGTGCAATCTATCCTACGTTGTGATGCCGCAGCCATG
1 TTGTATCATTACTTTTGTCATGCATTTGTAGCTTTTTCCC
0.1317403729672068 GACGTCACTAAGTAACTTAGTAGCCACCCCATCCCGTCCT
1 ACGCCTCTGGCTCCATGATGCTACAGCATTCAAGATGACT
0.5473292683188186 CACCAGCTCGTCGTCATGGTAAATAAGAGATCGATGAAGA
0.633376822685785 CTCCGACCAATTAGTCACTTTCACACATCACTCTCTCTTT
0.7012299896435094 CGATCTTGGATGCTGTCATACTCCACAACACATGCCTATG
1 TTCTAGAACCGCGTCACCCCCTTTTTTCAGTGCCCCCGCC
1 GTGCGACTCCCGATAGGTTTCACAGCCGAGTTGCTGACGT
0.6450670424527918 GTGCTCTTAGCTCGCTACTTGACTATGTTATGAGGTCACA
1 GACGTAACCCCTTTCATCGGGACCTCTTACACACCGACCA
1 CGCCAGCACTCGTACGAGGGCAATTAGCTTGTAACTGCTT
1 GAGTCATAATTCGTACGTTAGCAATATTCAACAACCTGTC
1 ATGATAACTTGCCACGTAGCAACTTAAGCTAGCATTCGTC
0.2977605553563032 GGTGACGTAACAGCAGGCAGCTGTTGCTAACTCCGCAGAC
1 GTTGTACGTGGAAATTGTAGCAATAAGGCATCCCGCCCGC
0.1737639563051049 ATGCATATGACTTCAAAATTAGTCATCTGCCACTTTAGCA
1 ATGACGTAGCACTTGAGCCGGCTGGGCGCCTAGATCCTAC
1 CATAGCTTTGGCGTCATGAAAATCAGCGCCTCTGTTTTTT
1 GGCATGGGACCGAATCGTGTGATGTTTCGGAGATAGACGT
1 GACATCACCCTTACGCCCCCCCCTACCCTTCGCACAAGTC
1 TTGGCAGTGCAACTTTGTTGGTATCCCTACTTTTTTGGGA
1 ACTACCTGTCCCGAGACGCCCACATCCGGTCCGCTTTTCG
1 CTTAAAATGTAGTATAGCACGCATGAATTGCGAAGTCCAG
1 GAAGCCAACAAGCATGAAACAACGCCCGAACCACCCCCCG
1 CCGCGCGAACAAGGGCGTACTAAACCACAATGGCATCATC
1 ACATCCCATTACGCATCACCCAGCCCCATTACTACCGTAG
1 GGAGTTGGGTTAGAGTCCCCATACTGTGATTTCGTAATCA
1 ATCTGACTTCGCTTGTATTTATACTTATATACGAGATATG
1 AATAGTTTGTCATCGGAATCTTACACAGCGCCTGGCGCGG
1 GACGTAATCACTAGACTTTTTTACATATGCTGGTCTAGGA
0.8803168100494623 ACACATACAGTCATACGATGTCTTCATCCGGCCTCCATCG
0.2131410605661119 GTGCGCCAATCGCCATCAACCCCGTGCACCGCGATGACGC
1 CCTGATTGTGATTTCCGTGGAGTGCCGCTGAAGTACATCT
1 ACTCTATGACTTTCGCGTTAGCTCCCACGGGGTCCAAGAC
1 GCTATCATGCTTCACCTGGTGCGAGAGATATGGCTGACGT
0.2702956940537453 CCAGGGACGATGCAATCACTCGTTACGTATGTCCGCGTCA
0.6074580356291652 ATACAGGGCGAGTTGCCCTGATGGACAGTCTTGATGACGC
0.9366060990696471 TACTCGTGACGCAGCATACGCGTAATATAGGCTTTGCCTC
0.2919414454890288 GTATATTTTGTCGGTGACATAATTCTGTCGAATAGCGTGC
1 CACGACTACCTCATAAGTGTCTTGCGTGCCCTCTGTCGCG
0.02736984635808842 TATGACGTAACAGGGCCTTAATCGCATCTACCAGCATTAT
1 GAGTTGATTATGCGTAACTTAAGATTCGTAGGCCGACGAT
0.3753674112982978 AGCCTTGACTATAGGGCACTACTAACTAACGTTACGTCAC
0.5817588159013128 CATCCTTTGTACCCGTAATAGCCTTTTTGTACGGTGACGC
1 ATGCGATGATTCCATAGCTCTATCTCTCTTCCGGAGAGGT
0.7655948854121534 TCGTGTTATGATGCAATTATGTTCGACTGAGACACCGAAC
1 CACGAAAAGCGGAGGGCCGCGTCACGCCGCTCCATTTGAC
1 GACTCATGCAATCTACTAGCACGTGTCGTACCGTGTCGGA
1 ATGTGACTACCCTGTTTATGTGAAAGCTGTTGTGTAGTGT
1 AAGGCTTACTCATGGTGAGGCCATTGTGAGAGACGGGGTG
0.8821639168804509 GCTCGCTAGACTTAGTTAAAGATTACGTAGACCTGTTTAT
1 GGATGTCGTAATCCGTCCGCTTGACTAACACGTTTCTTTC
1 CTTGAAGTGATTTTGAATATACCTTCGTGACGAATGAGGG
0.8938341129405484 GACCACCACTCGGCGACGTGGAAGATGACCGCATAAGCGT
1 TCCACCTCGCTTTACGTTGTCCTCGCTTTGAGCATGACGT
1 ACCTAGTGCAGTATAGGATCCTCTAGCATTTAGATCGTAA
1 TACTAACATGCCTACCCGAAATGCACTGCCATCCGCGCCC
1 GACATCATTTATGTGACCTGACTGTAATACTTCAGTCCCA
0.5264770493352996 GATTACCATGTATTGACGTCTCCTTGTGTTGGCATGCGTC
0.8353596418788761 GACATCATCCCCTATCAGGACAATACAGCACCACCTCCCA
0.2918235876379714 GGCGCATGAATAAATTATGACATAAGGGTACGCATTGTAT
1 AAATGCCCGACTGGCGTCGGTGGCGGGGCGCTCGGTAGCG
0.2106482144177953 GGCGAGGTCCGACGTCAGCAATGCATCGCTAAGCTAAGAC
0.1534316455569055 CCACACACATGCACTAATTAGGCTGTGTCATCAGCTGAGT
0.8310434550711019 CCCGTTCAGATCGTCATTTGCCAGGTGATGCGTGAGCAGC
1 GACGTCAGCCCCTAAGGAAATGCCGAGCCCCCACGTACTC
1 GACGATATGTTGGCGTAACCACCAGCCAGGAAACACCCCA
1 TTTTAGCGAGCACACGTAGCCACCCAATGTTGTACCGATC
1 GACGTGCCCGGACATAGATTAGGACACTCCACGTGACAGC
0.8881134374606412 GATGTCACAATATGCATACATTGTGGTACAACGACATCCC
1 GACGTAACTGGGACTTCCTAGCCACCGCTGTGAACCACTA
0.8909464456370003 ATGACGTGTAAGCAGACGGTTCGATGAGCACTGCTCATCA
1 GCATTTAGATGTTAAGCCGGATTACATGGCGGGCGCCGCC
1 CATAGTGGAGGAATAGCATACCGCGCTCGGACGTCACAGC
1 CAGAATTTCTCACTGACCAGACAACTGCTAACATCCAGTC
1 TAGTAGCTTTAAAAACAGTACACACAGCGCCGTTGTTTAC
0.4553054088943659 CCACACGGCAGATGACCGTATCGCAGTGACCCTTACCCCC
1 CGTCATTAACAAGCGCAGTCCGATGGTCCAGGCGATTTAA
1 GGATAGTGTGTCGACAGTCGGACGTCGTTGTGCATGTTAC
0.3950234771011204 CGTGACATCAGTTAGCAGAGTAAGACTGAACTGCGCCCTC
1 CCATGGCACAAGCGTGAGTCGAGGCGGATCATTTGCAATT
1 GAACTGTCGGATATTTAGGTTTTTGTTTTTCTTATGACGT
1 AACAGGGATTGCCAGTGGTCACTAGAGCCTTGGAGTGGGT
0.3741204518231045 CACCACCACCCACACGCATTGCTCCGACTCGTCATCAATT
0.1511174373057916 GCACCCACGAGCCCTCAAAAGATCCGCCAACGTCACCCCA
1 ACGCACCACCGAAAATTGCTGAGAGATCGTCACCCCGTCC
0.9180840672546184 AGATCACCCGAGTGACGCAGCGCGAAATAGGCCACTTAAC
0.7424756503738827 AGTACTCACCTCTCGCGAGGCGTAGCTTGACCGATGACGC
1 TAGCTTCTTGAAGAAAAAAGGTTGACTAAATAAGTGGTTG
0.7352396066450884 GAATGACGGGCACACCGTGATGTGCTGACGAATGGGCCGT
1 TAGTTAATTGGACATCAATGTTAGCGTGGTTACGCTTCCC
1 CGCGACGTCCGCACGCAAATGGGACCCATAGGGCCCGATC
1 GACATAACCCCAACCACAAGCAAACAGATTCCGCAACACT
1 TCGCGGGCTAAAAGCACTTACTGTTTGTGCTTGAGCCCTG
0.8962320124726624 TCCTGACGTAAACATGAATTTGTATTCCCGTTCCCCGCCC
0.4706530444784179 ACAGAATGCCGTGAGTCATAAAACCGCCCCCATTTGTTGG
1 TTTGTCTTCTTCCCACTTTTTGTAAATGACGTTCACGCTC
0.6278780560891457 GACGACACCCTTCGCAGGCCACGTAAGCACAATGACCTAC
1 AATAAGAAGTGGTGCAGCCCCTAGTTAAGCGGCAAAAGCG
1 GTCGCTATGTTGCGCGTCCCCCGAGCGCATCTGGTACCTC
1 CCTGCTTACCGGGGATGAAAGCCACTCAGTGGACCTGCGG
1 ATATGAAAGCACTACGTGGGGATTTTTGATACGCAAGTGC
0.5380075852825628 TGTGGCTAGTGATGCCACGTCGCGCATGTGTTACTTTGAC
0.3458584136918417 AACAGCGCTAGCAGATGGTGAGTCACCCCGGTCGCCTGTT
1 GTCTACTTCATATGAAGCCTGTGTGATCACAAAAGCGCAA
1 GCTGCTATCAGCCACCACTACCAGATGAACAAGACATCAC
1 GCCGGTGATATAAACTTAGCGGTTATGTGATTATTAATCC
0.2272564313160814 TCCTCCGGATGCACAGCATGATCTGATGTGGCTGCAACGT
1 CAGCAGTATGCCCCAGCATTTAATGCCGTAACGGCCTCAA
1 GTGGTCATAGGTATCTAGATGTACCGGTGAGGTAGGAGCG
0.5236439623064327 CCATGTCAGTTCCAAAACAAATCATGCTCGCGTCATTGCC
0.7298720070533449 TGGTATATATACTTAGCTCGGTGCGGTCGGAGCGTGACGT
1 GCACACCTTCCACGCCCCCTCGCCTCCTCTGTAAATCCCA
1 AGGATTACGATCACTAGGGATCCTAAAAATGCCAACACTG
1 CACTAGTACATGAAGAGTCCCACATTGCTTTCGGTGCACG
1 GAGTGTAAGTGTTCGAGCTAGTATAAGTGAGGAGGAGGAC
0.5001966094951847 TATCGCGTTTGTAGCTCACGATACACTCGCGTTATGACGT
1 GCAAGATCGATCCACCATCAATATAAGGCTAGGCTCTGCA
1 GAAGTCATTCGACTCGTGTACCATCTCGTCCCGTTGCGTG
1 CCCTCCCTACCGTCATTCGATGAGCTGGGAAGGTTAAGAT
1 TGTCACCATCTGGCAAACTGTGCCCGCTCTCCGACGGCGC
1 CACAGGCTGAAAAGGATACCTATAGCAGACCACCCCACAG
0.1141982437905598 GTTACGTCAGCAAGCCAGAAGTCAGGATATAACACACATG
0.9544535357767502 GACGTCATTTCATTGAAGTACGAATCTATCGGGTTTAATC
1 GCCCGACTGGGACGATGCAAGACAGCCAAACGGTATAAAT
0.8561118706045678 ACCTGTGGGGCAGGGATAGTAGGCATGTCCGGACATGTAT
0.8821413821721305 GACCTCTGGGTATGACAGTAATGCTTGCTTACTACGTCTG
1 GTCCAGAACAGCCTAACGCTTCCGGTTGCCCTGCCCGTGC
0.4531558208271533 GACCTATGTGCCCTAATGCGCAAGTCCTGATGACGACACC
1 ATACACCCAGACAGTGTGATGAGATAACAATTAGTGTCCT
0.9377457330875331 TGCGTCATACGTTATCCAGCTAGCCGAGGTCGCGTTGGCC
1 GCAGTGTGAGGTTTCGTATACGGGTTCCATTAGTAGCGCC
1 GATAAGCGCGTACCGGAGCGCGGTCATCAATGGATGTCAT
1 CATGTTATATGAGTTATGATGTCGACAATAGCTATCTAGT
1 AAGTCCGTGTTCTAAGGATTCGTTCCGTAAATGAGGCCTG
1 AGGTGAATGCACATCTCCGGAAGGCGCCTCCGGAAGCCCT
1 TTCGCCGCACAACAGGACATCCGGCTCCCACTTCAGCTGC
0.8736004365147412 GATGTCATAACAGCCAGGACGTTTCGATTGAGGGGAGTAT
1 CGATAACATGCGGACCTGGCTGTGGAGCATGGCCCTCAGC
0.04012155422548667 GACGTCACATTACAACACCCGCCGCACTCCTAAACCCGAC
0.8649312348243789 TAGTCTTGCTTGTGATTTTAACATGACTTCATGCGTACGT
1 CAGTACTTCTCGACATAACAGCAACCCGGCGACCACTACG
1 AAGTATAACTACACATTATTGCTATCTCGATTCTTTAGGC
1 AGTTACGAATGTACTAATTTTTGTTCGTAACGCGGTGCAC
0.9290790194062076 TGCGCAGTACTTATATCGCGACGATGACCCACGATTCCGC
1 ACAACTCGTTTTCGAACACAGCTTGCCATCATGTGCTGAC
1 GCATGACGATCCCTCTCTTTTCGTAGGCTGTAATGCAAAG
1 GGCCACAAATGGCGGTCTACGGAAGAGGTTGGGATGACGT
0.9373195588415878 GACGTCAGCCAGATAGCGGCGATGCCTTTCCAGCGCGCAG
0.5498684921576351 ACTGTATTACGCAATCGCGGTGGCGCTCGCGTGTAATTGT
0.7501246764676477 CATCCCATTGCATCACAGCGATCATATTAAGGCCACCGTG
0.03576829481849702 CGTGAACGCAGAGGTGATCGGGGATGACGTTGTGGTTAAG
1 ACAAGTTGTAATGATGAATCGCCCAGCGGAAGATAACCGG
1 GCGACGCGCTGGCCCTTTACCCTAGGTGGCCCCATTCGGT
1 GCAAACGCCGAACGTGAGTCCCCCTGTGGCAGGGATACGT
1 GTATTATGACGAGGGCAACCAAGTCAAACTGTCCGCTTCG
0.5286647652810684 GGCTCAACGTCATCCGAATTCCGACCCCTAACAAATAACT
0.7923691457681575 TTGGGATTGCCGTTAAGCTATCAGCATGAGATCATAATGC
0.4951308159017854 CGCGGCCTACATGTTAGCGGTGATGAATAAGACCTGACGT
0.3714239518205799 GTGCGTCTTCTGCTGAGGAACGATGCGGTATTATGTCACC
1 AGTGAATCAGCACTTGAAACTATGCGCGCAACTGTCTAGT
1 AAGGTTCTACACGAACGACCGCACTAGCGTAAGCCGGTAC
1 GCCGTTATTATGCTCATCCGTGATTTCGTTATCAGACGTG
0.8961130144013818 GTCACTCTAAATTAATAGTGATGCGATGTAATCTGCTAGT
1 ACGTGTACGAAGTCTATGGTAGCACGTGGTACAAAACATT
1 GCGAGGCAGTGGGTGAACAGACCCTGTGAGTAGGTTTCCG
0.3029517233684055 ACCTGTGACATAATACCTTTATTCGTGTCATTGGCGCGAC
1 AATCGTAGATGGGAACTCACAAATAGTCTAGTATAGTATG
1 GGGTAGCGGGGAATCCAGCCGAATCATGGCGGAGGATGTC
1 CAGCCTGCGAACCCAGCGCACGCTCGTAAGCGGCCGCCCG
1 GACGTAAACCGCCCGTCTCCCTCCGCCGTGCCCTCGCACG
1 GGATAAGCTAGTATCAATCAGTGTGTGTCCAAGAGCTGTA
1 AGGAATGATGCTTAATTGTGTATCAGGCTTACCGATGATG
1 CCGACTCAGAGTACTAGTCTCGTTAAGCATTTGATGACAT
0.4320658819320591 AATTGTGTCATACACACTTGTTTGTTGCGCTGTATCGTCA
1 CGAAAGCCACATGTTGTGAGACGCTGTCACCCAACAACTC
0.3741288052821479 CAATGACCATGCAGATGGACGCTAGAGTGACGAAATGGAC
1 AAACCCTCCAACGCTCGGCGACGCACACATTACACGGCAG
1 CGGAGGGCCATGCACAGAACAGATGCGGCGACATAAGGTT
0.4731652692596125 CCGCACATTCCTCCGTCCTGAGATGGAATGATCATCACTC
1 CCTACGAGCATCACGACCCGCTGACGCGTCCTTGGCCGCA
1 TGACAACAAATGATAGAGAGCAAGACCGGGATAAGAGAAG
1 TATCGTTTGGGAGTAACTTATACGTAGCGTTGGGTTTCGT
0.9264045397678267 TAGCTTGTGATGTGTCAGTCCTATGGGGTGGCGCGGTTGA
0.03507737236520277 AATCATAACCACCTCACCGCGCCTTCGCGAGGAATGACGT
0.8587037792694676 AGGTTGATGACTCCAGTTGCTCGCGCCCCGCGACGACTCA
0.3994221026553066 GACGTCACAGGGCACAGCCCACCTCCCCGTCTAAGGTACC
1 GCAGTACGAGACTCACGCATGGCATACTCACAATGTTGTC
0.7962309117371271 TTTGAGTAATAATGCTTTGATGTCGTAAAGCCCCGGTCTA
1 TTACGTGAGATATGCTTAATTGATTTAGTAATGATCGCGT
1 CATCTGCGTGGGTAACTGTGACTCAGTCTCGCCCCAACCG
1 GACCAAACGACATCAGCCCATATACGCCTAGTCAAGAAGC
1 AAGTCCGACGAGGGCTACGTAAGCGTCGCTTATGTACTCC
1 TCCCTCAAGCACGTAAGATACGGCCAACGGCCCTCGGTCG
1 GATGGAAAAGAAGGATTGCATGCTTAACCACTATTTGGTC
1 TCGCAAATATACTTCGTGGAGGACATTTGCCTACGTCACC
1 GAGAGTGAGCGCACATCATCTCATTCAGTCGGTATCAGCC
1 GACATCATGGCCCAGGGGGATCTAACAAACGGCAAAACTT
0.8181405284733557 CAGAAGATGACCGCCATAACGTGATACAACAGCTAACCCG
1 GATTTTGCTACCGCGTGGATTCTGATATCATTACCTGGAC
1 GGTAACGGTGGCTATATCCCGCTTTGCAAGCCGGTGGCCT
1 GATGTCAATAGCTCGTAATGTCGCTCTCTTCCTCTCTAGC
0.4864573282849026 GTAGCAGTATAACTTGTGCTAGTTGCCGTATTGATGACGT
1 TACACATGGCGGTAGTCGATGTGTAGGCTATTAGTCATTC
1 ACAGAACCCGCTTACCAACCAGCATCACGCGCACGTAAGC
1 ATGTTTTAAACATCGCTCACGATTACCATGATAGGGCGAG
0.5726629392647103 ACGTCACCTCGTGCACTAGACGGTACTCAGGAATCATCTT
1 GCGGAAGTCTCTCTATTTGGCGTGCCCTCTCTGGGTCGCA
1 TAATGTATGAATCGCTTACTACACATGTACATCTTCGATG
0.5091525160292479 ACCTCTCTCAGCTGCTGCGAACAGTGCGTCACGCGTTAGT
0.5744521100969389 CCGACGTAATACTTCAGCGCGCACCATCCCCACGCTCGGC
1 TTATGTACGTCTGAGAATACACTTCTGCACTGCCCTTCTA
1 TGGGGCGAGATCGCGGATGCGTTCACGATAGGGTGGGCGT
1 ATTGGGGTCCTTCCTGGTGCCGCCTCTGGCGTCATCATTG
1 TCACGTCTTTGCTTTGACTTTGCAATGATTGCGACATGCC
0.07644864148482079 TCCCTGACAGTTTAGAATGTGCTAGCACTGTGACGTAACT
1 GATGACAGCATTTGAGGACGCACTGCTGCCTACGAGTACC
1 GTGTGGGGTAAGGGACGAGGGCTGAATTTCCCCGCTGAAC
1 GACGTAATAGCCTGATCCTTTTCATATGGATGGTGTGGGG
0.2195148365192035 CTACACGTGACTAATCCATGACTGGACCGTCCCTATCTGC
0.2505168617290919 GGCTGCTTTAAGGCTATGTTGTTAGTCGTACATGACGTGG
0.05201840528129898 GGCACCTATAAGCTTGCGTAATCGCAACGTCTCATACTAC
1 TCACGAGAAACCGGAACTTGCCCTTCGACTGAGGAAACTT
1 ACGTACAGCCTGTCCGTGAACAGTTGGCGTAAATCGGTCT
0.6411963896085585 CTCATCAGCGCACGTCAGCGAAGAACCAACGATCACCCCT
1 CTGCTATGTGGGTCACTTACATAAAGTAGCGCACGTCGAT
0.7948747097599562 CAACCGGCCTCAAACTCACATTAAACCATGAGTCATACGC
1 GATGCATGTCGAGCAGGCCCGTTCTTTTTTGTGACGTAAG
0.660263662101027 GCTGATTAAGTGAGTTATGCGACGCTGTCCCAAATTACGT
1 GCTGCCGTCATCACACCCGTACAGTACAAGGCCCCCCGCC
0.7618532190296512 AAAGATATACGCGTCATCCTGGCCGTCGCCATACTGCGAT
1 GGGTGATAAACGCTGGTTGACGCAAGTTGGTATGGGGTGT
1 CACTATTACGTTATCTCAATCTGTTAATTGCACTACCCGC
1 CAGCACAAAAGATTCTAGCAAGCCCGCCACACCGTGCCAA
1 CCGTCGCGACCAAATCATAACTTTTGATGATTATTATCAC
1 CCTACCCCACATTAGATTCCGCTTGGATCATACACGCTAG
0.7976945382206613 TGCAGCGTCACTAAGCGCAATAAGTAGCGAAATCATGCTG
1 CATCGTGTATTCCTTTGGTCATGTGATCGTTTTAGGACGA
0.4053364864305689 GACACATCCAACGCCAACAGTATCCACCACTTGGTGACGT
1 ACCTAGACCTGCTACCATCACTCCCGCCGTGCATATGGCG
1 AGTGAGCGGTCGGAGGACGGCTCGACGTTAGTATTCCGAT
0.3747734847146405 ATTCCGTGCCTCACGTCAATTACGTTATTCGCACCGGCAC
1 ATTTCCTCCATCCCACGGCCGCAGGCCCCGGTGACGCAAC
1 TTCGATTGGAAGCGAGACGCCTAAGATAGGTGTGGAGAAT
1 TTTTTACTGGCACTTGCTTCGGTCGATGATTATCACTCGG
1 GACGTAATGCACCTGTGCCGCTCCGTATTAATAATGATAC
0.5144320288036321 CAGTAGGTCACACGGTCTTTACGCGTGACTGATCTCACGG
0.4220000930401425 GATGACGTACGTGTCAAGATGCACATCACATCGACTGGGG
1 ACAGTTATATCGCGATTTAGAGAGCACCTGTTGCCGAGCG
0.04527675230343683 TCTGATCTAATCAGTGTGACATTGTCTGGCGTAACTTCGC
1 ACCGCACCACGCCTATGAGACATAACAAACATTAGTCACT
0.1473509315994715 CGATTCGGTGACGCCAGAGTCACCTCCTGCATCAACCTAT
1 TCCCCCGTGGTACTCGTGGACCTGTCACCAACTGCTGTAG
1 GACGTCGCACGGCCCAGGCCCAAAACCTTACCCCAATTCG
1 CTTTGACTCACCATTAGTACACCATTACCCGATCCCCAAT
0.4132936078993625 AATAGAGCCAGCCTAACCCCATGGAATGACGCCATTCCCT
1 ATTCAACTATATGTTCTGTTTGTTGACATGTCTGAACATG
1 GACGCCCTGGCTGACACACTATATCATCACACTCCATTCG
1 AGGCTCATCAATAAACCTGGATTAGTAGCCTTCCCCGCCC
1 AGGCCGAACCCCCCCACCTCTCGGTACACCGAACCTCCTG
0.334381219611538 GCGGCTGTGGGTTTAGCAGGGGCACGGCAACGATGACGCA
0.9854797835815338 GGTCGGAGGTGACGCGCAGACAACTAAGTCCTTGGTCAGT
1 TGGATTCCAGGCCTGAAACATGACTGGTCGCTAGTCGTAC
0.9404982326525814 GATGACGAAAGCACTACGTTGTAAAGGACTATCCCCGCGT
1 AAAAAAGCTGAGCGGTAGTTACGCCTGCACGTGCGGTCAT
0.5551501293197277 GATAAACTATGACAGCATGATGCTGCTAGCAGTTAATAAA
1 GATTACGTCAACAGCCGACCCCCTCACGCAAAAACCCGGA
1 CGCAAGCCAAATATCCAGACGCGCCAAGGACCGACACCAG
1 TGCGATGGGACGTATACCAACGTGATTCTGTAGTTCTTTT
0.8726824149873583 GCAAAGCAGGTGGACAAGCGTGATTGCCTGCATACGTCAC
0.4219866034492043 AGTGAGGGTGATTCTGGTTGATAGCTGAATGTGATTACGT
0.8931981861523994 CATCCGTTCCATAGCGCACGATTTATGAGATCAGCACTGT
1 CGTGTTGCATGTTGGAACATGTGTAATGCAGCCGCTGTGC
1 GGCCCCATGACCGAGAAAATGGCCTCCCTTCTCTACTTGG
1 AAGGGTTATGCTACTCTGACTAATCGCCGCTGGACCGCTA
1 CACCCGATGCATTGTTTACGAACGATATAAACCCATGAAT
1 GCGAGTGAACGTAATGCTGTTAAATAATTCTTGTCTGGGA
1 GTCGTTTGCTATAGGCGACCATCAAATTCACGAAACTGCG
1 TAGCAGATCCAAGAAAATTCCAATGTTAACACCGGCAATC
1 GCCATACCCCCCGCCTCCGTACCACGCCTTCCTCTCACGA
1 CCCCCATACCACCACAAGAAACATAATGGAACAGCGACAT
0.2787233403162316 TTGCACCCGTGGGCCGTCCGAGTGACGTATATAACTTATT
1 GGGGTCGTATACCTCTTTAGCTTCCACACTGTAACGACAC
1 GGATGACTCACCCCACCTTGAAAGAAGTCGCATAAAATTC
1 TTACGGCGCAAAAACATATTGCGTGCTCCATGTCCTGCAT
1 CTACCTGTCACCAGCTTCCCAGGTTCATAATGCTCCAACA
0.8569975988656764 GACCTCACCCTCCGGACGCACAGTGATGGTAATACTACCC
0.8804000177372311 GAATCGCCTTGTCTAACTCATTGCCGAGCTCTGGTGACGT
1 ACTTGTAATGGCGTTCTTTACCTATTCGGATTCTCAGAGC
1 TACTTAGGAACGGAAGAGTCGTGATTGTTTGTGGTTACGT
1 TGAGAATGACTTTCAAACTAGAGCCGACATACGAATGGCT
1 AAGGTGGTGCGCCCCATCGCAATTCCCTCTAACCCAGAGG
1 GCAGTATACACCGTGGAGGAGATTTGCGCGTGTGAACTGT
0.07522950176501207 GGAAGCCAGTCGCTTACGTAGCTAATTATAAGTGTGACGT
1 ATGGTCAGACGTTGTACCGGAAACGGAAAAGGACCCGCTT
1 CGCTCATCCCGTATTACAGTATACACTATCCCATCCTATA
1 GACGCAACTTACTGTTGCCCCGACCTACCAGCACACCCCC
0.1356752720791877 GGGATCAGCCGTAATGAATCTACACTCTGACGCAACGACC
1 TCTGCGCTTGAACCTGCCCGACTCCCGCCGACCGCAAGAT
1 ACCACCCGAGGACATCCCACGACCGGTTACGTGCGTCACC
1 TCCTACTTCTCCATTTTCAGCATGGAGCCAGCGCCTTTGA
1 CAGGGTGCGACGGACCGATAGAAGCACATGATATAGCTGT
0.553824610956332 GACATCATTATATAACGCGTACATGTCAAACAAATGTATT
0.2021246887361111 CGATGATCTCACCCGCCATCACCTTTCCTAGCCATGGTGA
1 GACGATGACTGAGCTATTCCTTATGCGTATGTGCGTTGGG
1 GATCCTAGCCAAACACAATGAACACACTAATCGCTATCGT
0.3935228905027759 GAGTTATGTCATATGCAACGGCACGCGACACAGTGATAAC
1 CCGGATATTGAAATTCTGATGGTTGATAAATCATATGTAT
1 CCTTGCCCGAGATTTGACCGCGAATGCACGTTAATGACGT
1 AGGTCTAGGGCCCTACGCGATACGCGGCGAGCTTACGCAC
1 GGCATCATGCTCTGGCAATACCACCTCGAGATTGGCACTC
1 ACACGAAGGACAACAACCTGCCTTAGACCATCGTCACGAC
0.484230017619774 TGCGGTCTCTAGTTCAATGCTGGCGCTCTCCCGGTGACGT
1 ATACCCTGATGCGCGCAGGAAACACGTCTCACACGTACTA
1 ATCACAGCCAGAGTACATGCGCGGAAGCTCTTCCGCTAGA
1 GCCCTAACATCATAACGGCAGAAAGATCTATAGCCGTCGT
0.9437772497615831 TGTCATCGCGAGATTCGGTGACGACTATGGCACTTAGCTA
0.8042825340129145 AGGCTATTTCTATTGTAATCGTCGTTTGACAGTGTGACGT
0.6540435469740966 GTGGCATAGACGTAGATACGGGCAACAGAAATCGTGACGT
0.1101262342627904 CGACACGTCATAAAATCCGGAGAAGTAGTACACACGCACC
1 ATGACGCGCTCTGAATCGGTCAGAACTGTTCCAGTCTGTC
1 ACGAATCCGCCTGAGGGCACCCCCTTGCCGACATGGCGTG
0.9622331935135986 ATGGTTTTCCCCGAGCGAAAACGACCATTGTCGGTGACGT
0.4260186567811262 TTACATCCGGCCGAGCGAGGTAGATGGTCCTGTGCATGCC
1 GATGGACGGTGTATAATGCGATCCTAGGAATGAGCCGTGA
0.2344073961866572 TACGCCACGCCCAACGCGTCATACAATGAGGCCCTACATT
1 CACACCTCCAACATCTCTACCCACGTCTAAACCTACTACC
1 CTTGCTCTGATCACTATTATGCGTAAGTTCCTGTTGATTA
1 ATCGTATACTTGGCCGTGTCGCTACAGCGGTTGTGTCACG
1 GTGTCAGTGTAACCTTGTCGTTCTGTGCTTTTTAGGCAGC
1 AAAGCAACCTTTTGACTACGGACACGAGCTAGCGTGACGT
1 GGTCATTTCCTGGATGAATAACTCATAGAGGGATACGGTA
1 ACCTATCAAAGCGTGTATCTAGCACGGCCATGACTCGCAC
0.8977231624273111 ACAACGGTAGTTGGTAACGCGATGACCCTTGTGTGGCTGG
1 CGTTACATAGGCTTATGACGCGCGGCTTGTAGCGGACATG
0.6662836597878183 TCCCCGCTTCAAGGCACGCCAACTGACGAAGTGATGATGT
0.8778488961474934 GCGCAATGTCATAGTCATATCACAATATGGAATTTGTTGC
0.3492088743199196 ACGGACACATCGGACCTATATCCTCATGACTCACCCTACT
1 GATGACGGAGGTACACCTGTCATTGCACATCACGCTGAAT
0.4985308701013534 AAAACGGTGATATCATATTCAAGAAATTTGCATTGTCCTG
0.4948286051359157 GACGTAATCTCCTTTTGTTTGGTACTGTGGTTGCGCTTGC
0.8001134587714586 TCGCGATCTGCCAACGTGCTAAAGCTGCGGCAGATGACGT
0.7827508468419433 TGGCTATCACTCCGTCGTGCTTGGATACGTGTGCCCTAAT
1 GGTAGTAAGCAAGCTACTTCATTTCACCAAGGGATTCCTC
1 AGAAAGCGTGCAGATCGAATTACCAACACTCTGACTCAGC
0.7210611672173426 TCTGCCTGTAGTTGCTCATCAGCGGGAAACGCGTGACGAG
0.207783088299386 GACGCTTAAATAACTGGATGACGTTCAGTGTCGGATGAGG
1 CCAAAATCGGAAATTGCCCTGGTACCACAAGACTATGCTG
1 GATGATTCATGAAGTCCTTTGGACTACGATGTTTTTAGCA
0.2827448865672147 GATGTCACCCAGTTACGGTCACCACGAACAGCCCTGTCAC
0.9150821126679267 TCGGAGCGAAATCCGCACTGGTGCTGAGTCAGCAATACGA
1 GACGTGTTCCTGTCACTCAAGAGGTCCCTGACCGTCAGGA
0.4329067870995856 AGAGCCATTATGCGATGACTATGATATCGAGTTTACGGGC
1 AGTTAAAGTATCCAATCATGGACCCACCTATAGGCATGAC
1 GCAATCATAACTAAGCCATAACAGAGATAGACTACGTCAC
1 AGCTACCGGCTTTCTACACGGACTATTTCTTATTGGATTA
1 TTAACGGAGAGCCAACATCCCCAGGCGCAGATGACTTACC
0.69377172980935 CGGGCCGGATGTAAAGTACTAAAGGCCGGGTGCGAGATGC
1 GGGGCGAGCGAATGGACAAGGTAGGCATCGGAACAGCGCT
0.4964751361390816 TCGACTATTCACCGCCTGCGATACCCTTTTACGCTGACGT
1 GACGTGTGCTCTCCCTTGGGCACGTACTGCCGAGAATCGC
0.745482313587882 GAGTGACGCCATCACTTGCTCCACGCCCAATATCAGCTTC
1 GACGTGTATCCCTATTGAACCATGCGTGCGTTTGTCGCTT
1 ATTGAGTCAACTGGTGTGGTCACACCATGCGCTATATGTT
0.1339429056196669 TATCTCATAGAGGGTGATAGTCACGTGGTATTGATGTCAG
1 GACTCATGACGGTCTTGTTACCAAGACGCCTTTCCGCTTG
1 GCAATACGGTAGTACTATGCATAATCGGTGAGCCGAGCAC
1 CGATGGCTGCTAAAGTGTCTGAGGTCACCACGTCAAAAAG
1 GGTTATGCTCGGGAGATGCTGGTGACGGAGGCGACGGTCA
1 GACGAGTGATTTACATGAACTCCACGGCCTTTCCGGGAGC
1 GACGTAATTAAACGAGCATCCCTTACTAATACTGAGTGCG
1 CTCACCATGTTACTTTTCGCTGCTTCTGTAGTTCGTCATC
1 AGGGCCATACATTCAGGTGAGATAAGCGAAACTCGAGACA
1 GACGCCACCGCACATACTGTCGCCAGCCGGCAACTCAAGC
1 CACGAGCTGCGCCTAGGTTGCTCCCGCACCCAACATCCAC
0.9334169934347945 GGACTACAGGACAGGCGGTAGGGCGGACGCTTACGCCATC
1 GTAGTAACCAACAGACTGCTATCCCTAATCGTACTCCTGA
0.6164733093842748 GACGTAAACCGCAATGATCAGATCGGGATACCAGTTGGCA
0.5011974332836465 CATGATATCACGATGGCCGCTCGCTAGACGCACGCCCCGA
1 AAAGCACGTGACAGCTTACGCAGTGTACGGGTGCCTCGCT
1 CCCCCCAAACTCGCAGTAACGCACCGGACCCTGTGACCTC
0.2493441161789369 GACGTAACCAGAAACCGTATGGCCCGACCGAAACTAACCG
1 GGACGTCCACTACCGAACCTCCGTTATCTTCAAACCGCCC
1 GCGTAACGAACAGCGTAGGGCAGCTGACCGATCGGAGAAT
0.801517785438401 GACGTCATATCTAACTAAGGATCGCCCAATCCTCCCCGGA
1 CGGGTTAAATACTGAATTACTGTGAAAATGAGCTAGGGCG
1 ACATGACGACACTAGCCCCCTTAACCCTCAGACTACTGGG
1 GACATCCGGTGTAAAAGGACGTAGGGGTGGTAGGTTTTCA
1 CAATACTTTGTGAACCCGCGTTAGCCTGTCCGTTTGTAAA
1 GACGTGAGAACGCAACCCCGCCAGCACACAACCCTAGCAC
1 CATGGGGTACACAATCAGTTAGAGGTTGATGTAATGTGTA
0.7910561301242399 GACTCATCCGTAGCGACATGACAGCGCGGTATATCACCGG
1 CACCACTTTGCCTATGCGCGTACCCCCGCGAGAGCCAAAT
1 GTGCCCCTCTTGGAACAGTAGAAACGATCGCGCCATAATG
1 CACCAGTGCCAAGGAGGAGTCGCGTCACCTTGGCGCGGTC
1 CGCAGCTAGATCTAGGTAACGAGTGCAACAAAACTGACGT
1 CGGTGGCGTAATGGGTGGTGGGCCCCTTTTGGAACGATAG
1 GACGTGAGTGCGGCGCATGTGTGCAGCGCATTGGCGCGTG
0.1485197503970692 ACCGCTGCAACGCTGATGGCCATGACATCAACCCCACCGA
1 ACCACCACGCATCACCCCCCCGCGCCACACCCCCCCCTTC
0.2781472664285807 GACATCACCGTCCTCGCTTTGTTGCTACCGCGCTGGCATC
1 TCCGTCCCCGCCCTCCCGTGTGTTCTTAGATTCTACCCCA
1 TACTCAATACTGTTCGGCATGCGATGGGCCGCAATGACGT
1 ACCCCTGACCGGAGAAGCGGTTACGCATCGCACCCAAGGC
0.8142100960422376 GCAGCCTGCCGTGCCCTATGACGAATACAGACAACCCGTG
0.4467964197580506 CCGGGTGGCATTCCCCCACCTGACCCCGCGCCGATGACGT
0.843902704623821 TATGATCGATGACAACCGGCACCGTTAGGCATACAGGTCC
1 AGAGTCTACCACTCTATTGCGGAGCTGCGTCATTCGTGGC
1 TGTTCATGGCCACCTAACCCATAGATGATGGATTTCCTGT
1 GCATTAGGCATCAAGCAGCTCCAAAGAGAACGTATGACAT
1 ATGACTCATTCCGCTCATATGGGCACCGTGAGAATTGAGT
1 GACGTAGGCTTCACGTGAAGGGTTCTGCAGATAGTATGAT
1 ACGACGACGCTCGGAAGCGAACACGTACGCCATGCTATAA
1 TACGTAATAACCCCATCACCTCAACCCCACCCTCCCATCA
1 AACCTTTCTGAGACATTAACAGATGGGGTCACGAGTTAAC
0.7868414994074853 TTATGCTGTGTCACGTCTTTACCGGTCAATGCACTTGGCG
1 GACGTCAGTTTCCGTCTCTGCCAGCATTAAATCGTAGTAC
0.6627967451383138 GCTTTCACCGATATTGTCATCCCTCAACATCACCTAACCC
0.3087358762325663 CTGAGGGGGGACTGGGCCGTTAAATGCTGACGTCTTTCCG
1 AGGTACATGGAGACTCAGATGACAACGGAGAGCAGCTAGG
1 TGTCGATGTCGCACTGTTTGCGAAGCTTCCGTGGTTAGCA
1 GACTCACCCTACGGATCGTGATGACCTCCTCCCGGGCAGC
1 CGATGTTGCACCCAACAACATCCGGACCGGCGTCCTTAAC
0.4028114278332675 TTCAATGCCAACGTCACACCTAACCTATCCGTCCCAACGT
1 CGGGGGGAACGAGACGGATCCGCGACGACGCTCATGGACG
1 GACGTAAATATAAGCATCACAACACGCCGCCTGGTCGGCT
1 ACATGGCTGGTCATTACGGTATACCTTACGGTTCCATTTA
0.01463501768110007 ACTCGTGGAACACTACAACGTCATCTACAGCGTTTGGCAT
0.4949880655732546 TACGTCACCCCCCGTCGCCGCCGACAACCACATGGAATAT
0.3955916871325249 GTAGCGAATGATGCCTGTTTTCGCGTACGCACCGTGACGT
1 GAGTCATTGCACGCAAGTAGACTACGACAGCGATGTCCCG
1 CCATTTGACAGCGATGCCAGAGCGGACCGCACCTACCACG
1 AAAAGCGCCGATCACCGCATTTGCAATGCGTGTTACCAGC
1 CGCACCGTCGCCTCAGTCCTCCTACGTTCATATGTTACGT
0.1267436054285943 CCACTACTAACTGCTATAGCACACCACGGATTAGTCATCT
1 GTAGGGTGTTGAAATACGGTTCGGTGCTATGTACAGTTGG
1 GACTCATACGAGCATTGCCTCCGACCGCCGCACAACGTAG
1 GTTTGCCCTATGACCACGGTATGATTGAGCGGGGCCTGCT
1 ACGTAAAGTACGAATGGAACGCTGTAGGGAGAGACTACCC
0.6239557457494194 GAGACGCAGCCAAATCTGATGGCCGCGTGCAGAGTGACGT
1 GAGGAAACCCGCACCCACCCGCCCACGCGCGATTTTACGG
1 CATGGATGCACAAGGCGTGACAACCAGAGTGCGTTTTTGC
0.2617561830176741 ACTGACAGTGAGTCATTGTAGTCCATACCCATAAGAAAGC
0.6675747011354271 CTTGGATATGGATGATTACGTTGTTGCGTTCTAGTGAGTG
0.08848410693929024 GACGTAATCACTAACCAAGTGCGAATAAAATTGCATTAAA
1 GAATTGGGGTGATGAAGCCTTCGTCAGGCGAAGAGCGTTG
1 TTTAGGTTACGTTAGGCCCGCTGTGTTGACTCGTTCGAAG
1 AATTGCGTAATGTTAGGTATAAAACTCTGATTCTATCTGA
0.01792645710042796 AAGCCCTCCCCCCTACTACACTTGAGTGACTCATCCAACT
1 TTGGGTACAGGAAGTTGTTGCTTCTTTTGCTGTCTACTAT
1 GGCGCAGTCCGACATCTGCCGCGCGCAAGAACAGTGACGC
1 GACATCATACCTGGACTCCCCCCCTGCCCCCTGGCCTGAC
1 GGACACGAACAGAACACACATAGACCCGTCCACGCCTCGC
1 TCACTCCTCCGATCGATTCACGGCATCAACCGTACTTGGG
1 GAGCAACCATGCCATAATACACGGGAGGCCCTGATACCTA
0.07613158096840485 GGCTTTTACGTGCACTTGGCTTTCCACGTCATTACGCTGA
1 GTCTTCCCTTACGTCGGCTGCGAGTGTTGTTCCGGCGCGC
0.7611314381432326 TGCTTCACGTCGCGGTCGAATGCGCTCGTCACTACATCAC
1 TATCAACCCCTGCACCAAACGAACAGTATTTTGTCTACAA
1 ATTACTTTGTCTTGCGCTTTTTATCGTTCTTGCTAAGCTT
1 ACACACCACGCCCACCGCGACCGAGTATATACAATGACGA
1 CACTGTGACGGGATATTATGGAGGTTATATCATGTTAGGT
1 ACAGGAAGTTCCCTCGACCATTTAGCGGAAGTCGATGGGC
0.7567132057666217 ACTGCGTGCTCCATCTCTGCATACTAACGCTAGATGACGT
0.00996925419162531 CCCGTTACATCATTTCGTTAACGGATCGCCTTGTCCTCAG
1 CGTTAAGAGGAACTCCGGAAGTACTGAGTGTAAGTTGATA
1 AGACAAAGTTTCACAAAACACAATATCACCCAACGGAAAC
1 GTTGGGCTGACCTCATGGGGCGCGCCCACTACAGTAAACC
0.6566136619350195 GACGTCACATGTGGTACTGGCTAAAGGACTTGACGCATGC
1 GACGTCAGCCCGGACCGTCCTAGAATCTCTTCGAGAACAG
0.9012977294499416 ACCGTGAAGGTGTCAAATGCCTGCTGACGTTTCTGCTCGG
0.7004126938059053 AATGAGTCACTATGATATGACCTGTTTTGTTGTGCCCGAC
1 CTTAGCCACTACTGTAAGCGCGATTACGCGTCCAAAATTG
0.6377472670711083 CGGCGAACGTGGCTCCTATGACTCACTTTGTACTATATGA
1 NGGTCTTGCACCTTAATGTGGACTATGTGTCACTCCCTAC
1 AGAGCCGGAAGCAACCGCGGCATCCGACGCCCGTCATGCA
0.283729982276741 CACAATCTCCGTAAAGGATGACGCACAACGCACACCCCTG
1 GACGTAACGACTCTTTTACTGTGCATGGAAGATCGGTGTC
1 TCGCAGTTTAATCTCGTTGCAGGTACACGCCGCATGTTCG
0.1605698298599313 CGAACCATTTCGACGGCTCGGTTTATGACGTAGACGTGGG
0.4305726227870231 TCGACGTGTTGAGACATGTCGTACGAATGTAACATTGCGC
0.404205071936673 GACGTCACACTCGTGAGAAACACTAAGGTCTTAGCGAGCC
1 ATGACGTATTACATGCCTTGCAGGCAATCGCGGAACCGCG
1 ATGACGTCGCCATCCCTATGCGTTCGTTCCGGAGAGCGGC
0.9149955600561913 CCGCGAGTCTGACTCATATCCACCTGTCGGGTCAAGGCTG
0.2198195603918547 GAAAGTCTTTTCAAGTAGGAGTGTGGCACACATGACGTCA
1 TGGTGAAGGGTATTCGTAATGTGGTAATGTTGATACTCAT
0.7167086049062226 AGGTGACGTATTCTGTACAAGCAGCAGTTGGCGCGTGTGT
0.3461499679062723 AAATTCTTCACATTCCTGTAAAATGACATAATCCCCCCCT
1 GACGTAATGCAACGCAGGTTCCGTGCGCCTTAGGCGGGCG
1 GACGTGTGCCTTGCCGTTACACCCTGTCCTGTCGGAGTTA
1 TGTCGTAAACTCCGTGTAGCGAGCGGGTGCGCCTACACAA
1 GACGTTGCGTGCCAGTCGTGTCACGGAGCCTATGCATATT
0.4939449025238368 ATGACTCATCATATAACCAACCATATAGACCTGCCACCTC
0.9020203824467705 ATCACGCGATGACTGCCGTTATGACTCTGACAGCAGATCG
1 GTGCGGAAAATTTGTAAAGAGACCAACTACGTTGCCTATC
1 GACGTCAAGACTAAGGGCTCCTAGCCACACGTAGTGTAAA
1 GATCGATGGAAAAAGCTAATGAGGCGTCCACCTATCAGGT
1 GACAGCTGCCTCTTACCCGCCTACTGATAGGTTACTGCCC
1 ATCGGGTGACGAGTCCAGATAACCTTGGTATAACGCCGTT
1 TAGATTTGATGCGCGGCGTCACTACTCAGAAAACGTCACC
1 TAAACCCACAAGCGTAACGCAAAACGTGCGGCACTCCTCA
1 ACAGAACCGCAATAAGCCACTCCCTACCATTAACGTCATC
1 GCTTATCTTCGTAGTATCCTGGAGCTGCCTCCAATGATGT
1 CATAACTACTCTTTATGGGGGGCATTTGTTCCCCCAGGCC
1 GGGCGAGTTTCATGCCTGTGGGGCGCTTTTCTTCGAGAGC
0.9186565916141922 AAATTGCGGCATTACCCCCGCGTCACCAACTACACGCCAT
1 GAACATGGTCAAAAAGCTTATCATTGGCTTCACCGTTGCG
1 ACGCCACCGGGTGACCTTGTAGTGACTAGCCCCTGCGTTT
0.6378497487556727 ATCTACGCCACAGATTATGAGTAACCAGTGATACTATGAA
0.08800676805918828 GACGTCATTCAACGCGCCAACCATGGTGGACTCGCCGCTA
1 CCCTATGCCCCTAGTAAGGTAGCGTCACCTCCGAGACACG
1 CGTCACTGTCCATGTACCCAAGCCGTGACTTCGCGCGCAC
1 GTCGTCAGGTCTTACATTACTTACAGACTGTACACGGTGT
1 GTTGACAAAAATTACCCGCGATAGATGAAGCAGCTGACGT
1 GACGTAATGAGCGAGCGGGCGTGCGCACGCTGGTCGGCTA
0.346211521859371 AAAGACATCAAGTGTGTAGTCACCGCGTTATGGGGCAGAC
1 GATGAGGCAAATTAAATCACCGCCCGATTTCGCTCGCGGC
1 GACGTCAACTTGGACGAGCACGGTAGGACAACCAAGTTAT
1 CGACGCGATACTGTGCCCCCTAACACTGGACAACGATGAC
0.4877984189545499 AATGATCACGATTGACTCGGCTTACACGGATCGGTGACGT
0.923131845342448 GACGTCACGGTCTCCTATACCAAACCCCGGAACCCCCCGT
1 GAAGGTTGTGCGAAACATGCATGTAGCCCGTAACAGGAGA
1 CGCCCCCTACGCTGTGACAACGCAATACCATGCAATCCAC
1 CGATGGACCGCCCTTAACCGTCCCGAAATTCGTCATCAGT
1 GAATCACGTTCATTTATCGTACCACCGGCAGTAGGCTAGA
0.2444281025407651 TGACGTCACGCGATCAGGTTCCCCCCCTTCTTAGAGGCAC
0.1792280800693047 GTGATGTCATTGAAATGTAGATGGAGTGCCGACAAATACC
1 ACACACTTCTCTCTCTTCGCCCCTACCAAACTGCTGACGT
0.1877599200199107 GTTGTACAGCCAGACCGCTAGGCTCCGTGACATCAGAGAA
1 TTGCATCAAGTCCGACAGGTTGCTTCCAGTACATTAGCTG
1 GACTGTCTTACGAACGAAACGGGCAAGATAATCGGAAGTC
0.7991100450235379 GTAATGACGTCGATGATTTGTTAAGCAACAAAAAATTTCG
0.3181852619412991 GACATCATCGTCGCGATTCAGGGAACGAACACTCTCACCT
1 CGCTTATCTGTTCGCTGAGCGTGTTCCTGTTATGGGCCGG
1 CACCACCCAGAGCTCGCACAATCGAAGCGTATACCGAACT
0.7274469577864261 TTGATTACGATGATCTCACTCTTCTGATAGCTTGTCCCTA
1 GTGCTGAACGTGCTGGCTCTGCGTGCGGAACTAGGAAAAC
0.8709705963796038 GATGTCACCGCTCTTCCTTGCGTTCGTTGCATCCGGCGCG
1 GTGCATTTACCGCATCGCGTCCTGGCCGTGTTCCGGTCTC
1 CATGAAATTAACGGCACGAAGGATATTGGACGACGTTGTC
1 GGTTATCTTTTTGTTAACTAGGTTGAATGTGTGCAACACA
0.8033004365565057 GCAGTCTGCGCTGTTGAGCTGGTCTCGATATGAGTGACGT
1 GAGTCATATGCGCGATCGGTATCCCATAGCCACTCGCGAA
1 CAATCGATTGCCACGTAATAGCCAGTCTTCGTAATCGCGC
1 TAGTTTGCGTGCCGAATACGTGCTCAATTTGTACTTCGTC
1 TTGAAAGCATAGGGGGTTTAGAATTTGACAGTTGTCATTT
1 CACCCTATGATGTGTATACATGCTACTAATGCTCTCAGCC
1 CACCCTTTGCCTCCTACACATCAGGCCGGATATCGTGCGC
0.6064681594831624 GCATGACTAGGGACATGAGTCATTCCCTGGCAAACGGTAC
1 TTTGTTGTACAGGCCAAAAAAGACATGACCCAAAAAATCG
0.5178915571543482 CAACCTGCATCGCTTAGGTCATATAGCCACTGTATTACTG
1 ACCTCTATTGCGCGTAGTTGCCAACCTCGCCCGGCTGCCT
1 ATTTCACCGATCACGAGACAAAGACTCGTGTGCTTGCGAG
0.5495345724603978 CCGTGATGGAACTCACCACGTAACCATCAAACATCGAACC
0.3067264536459036 GGCCGATGAGCGATAAGATGCGTGGGAATGACGTGCACTG
1 GACGTAAGGGGGCCTTCATCCGGAATGCGGACACGTTAGC
1 TGCCGCGGAACAACCGGCATCGAGCTACACACAATGGCGT
0.2545295618698854 GACGTCACCTTTCTTGTTTTCCGCAATGAGCAGCGCTTTC
1 TAATATCCGGAATGCGCGTCACTTCGAACTGGTCCTACGA
0.2801748403029692 ACCCCAACACATGACCATCATCACCTGAGCGAACTGTGAT
1 CCGAACAGCCGCGCCCACGTGGCCAGCCCCATGACTCATC
1 GGCGCACCAACCCAGCGAAGCGTGACCACAACGTATTCAG
1 TGTCTATCAGCCTCCACACACTACAACTTAGCGCTGACGT
1 GACGTAATTATTTATAGGTTCTAACATAAGGGACAAGCAT
1 GATGACGTGGACGCGACATAAGAGTACTTCGAGCCCTCAT
1 TATGATGATTAAGAGCCATGTACGAAGTAGATTCGGTGGT
0.7047305709907503 TCCGCTATCGCGAGGTGACGCCTAGTGGTACGATGGAGAG
0.2921120037971314 GTAACGGATTACATGATGCACAGTCATCAGAACCGGGCCC
0.4190924516580661 GACGTCACGTCCACCATTAAAGGCCGTCCGCCCTATCCCT
1 ACGAGTCACCTGAAGATCATCTGATCTTCTCCCTCGAGGC
0.8937105626465874 CTTGATTACGCAACTTCGTGATTCGGTGTTGATCAGGTGG
1 GGCATTGCTCATGGATACGGTCACGGATACCGCCTTTAGG
1 GACTTATGCAACATTCAGTCGACGTTTCAGTTCCGGTCAC
0.4547928679381815 TTGTACTGTGCTTGTGTCATCCGTTATATAACTTGCCCCC
1 AGGACCTTTCGTGCACGTCTCTCTAGTAGGAATGTGCGTT
1 GTAGCTTCAGCCGGTTCTGACTGCGTCTGAATACCGGAAG
1 CTCGTACCCGTTAGTCCCGCGCTTGATTCGCGAATGACGT
1 ATGGCGTATGTAACTGACCTAGGTAGCGCGGAAGTACTGT
0.02831057390744641 GGGTGACTTCATCGGTTATTCAGCCACCGCGACCTACCAA
0.3346227538728883 GTCGACCCCCGCCGCTAGCCTATGACATAACGTTAAGGTC
0.01401892493538405 ACCTCAACCCGCAGTTACATCACGTGGACAGTAGACCCGA
1 ATCCACTATACCAAATATAACGCCCAGACGGACAGAAACC
0.2216573628542286 GACGGGACGCTCCTAATGACGCGATCGATCATGTAAGTCA
1 GACATCAGCGCCGTAGCAAGTACCCCTCCTCTTCCTCAGC
1 GGTGACGTGGCTGTTGTAGGCGCACTACGTTTTGGGTGAA
1 TCTATACTGAACCACGCCCTGCGGGCATTACACCCACTGG
1 GACATCATGCGCGATTAAGAAAAGTCAAGCCTTGGCCAAA
1 GACGTAACACCCCGCACCTCGGCCTACTTACACCAACATC
0.8676194957120855 TCAGTAACAGGAACACTGACCCCTGGACTTATGGCGTCAT
1 GCTTGGCATGCCCGTTAGTTTCTTTCGCGTTAGATAGGCA
0.7489117791115802 GACATCATCGGATTAAGAGTCTTCGTGCTCGCGCGTTACC
1 GCTGGCGCCCCCCAAACATCATGTCCTCTTCTACTACGAA
0.07923763372558745 ACGTTCATCCCTACCGCATTCCACCAAGGCTGACATCACC
0.3485471048942257 GACCCGTGCCTAGGCCCGTGCGTCACCTCCACTTACGGGC
1 TTGGTACGTAGCACTAGCAAACGCTACCTTTGAATACTAT
0.924923108116145 GAAGGTGTCATCCGTAAATGCTTACTTAATCCAACTCCCC
1 CATAAAGCGTGATTTTTTTGGTTATTGGGGTGGATCATAG
1 TCTACATATTACGTGTCTGCGCGTATCCTTTTTTGGGGTT
1 ACTGGACGGATGTCCTACATCCGCCTAGCTGGGTAGCCCT
1 GGTTAGTCTCTGTGCTCTCTCTCCGTGTGAACCTAGAGCT
1 TCCGAATTGAGTAAGAATGATACGATAAAAGCTTTTCTGC
0.2420836772520826 TGTGAGAACGTGGGCCCTTTGCGTGCGCTGATTGCGTCAT
1 CGGTAAGCTGGTACAGTTACCCGCCCCGACGTATCCCTCC
1 CTGTATGATCCTCGCATGCCGTCTCGGGCTTACGTCGCTC
1 CCTCCCTCGCCGCGACCACCGCAGCCATCACTACCACGCA
1 GATGACGACTTAGCCCTCATAGCTAACCGCATCCTTACAG
0.8706750453795055 ATTTCAGTATGACAGTCCGACGCGTACGTTCGCCCGTAGT
0.8041804638131751 GATGTCACCTACTCATGGATACCAGACATGAGCCCCCTCT
0.6980076817461955 AACAGGCTAAGCCGACATTAACGTAGTGGGGAGGTGACGT
1 ATCACTAAAGCGTCCACGCGCCCACGTTGCCGAGTCGTCC
0.8244446042876952 GACGTAATCTTGCCATCTGGTTATATGCGCCTTAATTTAC
1 GAGCGACAACGTTCGGTCACCGCTCTATACGTCCAAGCCC
1 TACGCGTGGGATGATCTTCGTCTGTGGTGCATCGTGACAT
0.1197897543327272 GACAACATTAGCTCGTCATCCCGAGCCACTATGTCAATCC
0.9336803964396786 TCGCCGACACTAGGTAACTTGGAGTCGCGTATGATGACGC
1 GAGGACCATGGAACATGATTTACGTGCTTGCTGCCTGGAA
1 GACTCAGCATTGTGGCGAGAACTAATCTGATTGAATGGAC
0.831688145793419 ATTTTAGGGCTGCACATGTTTTCAACTCGGAGAGTGACGT
0.07973887879227165 ATGACGTAATAGGCTGGATAAGCTAGTACCTTAGTTGCCA
1 CCGGTCCCGTACGGTTATGATTCGTCTTAGAGTTTGCTGT
1 CTACAGCGAAGTTTCGCGTATGTCATTTACTGCGTAACTC
0.8617107808658647 GACACTACAACTCCGATCAACTTGACCTCACCGCCCGCGC
1 GATGATGATCTCACTTTTGTGTCTCTGTTATCTACGAGCT
1 TTCCAGTTCCCGACCCGGGAAGGTTTACCCGAGATGACGT
1 TACCCCTGGCGCGGCAGCCGGCCACGAAAGGCTGAACAAC
0.9297055209883683 TTGTGTATGACGCATAGCGTGGGCACTATCTGAGAGGATT
1 GCGCTGGTCGAGGCTCCTGGGGAAGCAACGTTTATGACAT
1 TACCGCGCCCCCCCCACTAACGGACATCCCCACCCTACCG
0.7902719346687418 GCCTCCGTACCCCCGCGCGAATGCACGCGTCACTATGCGT
1 CCAGTACGGGTTTATGCCCCACATCTTGCTGAGCGCACCA
1 CAATCCGCATGGTTGTCCACACGGCATCATGCGACGTCAG
1 ACCCTTGCGTGGCTGACATACATCCCGCTGGATGCCACGT
1 CATCCACTAGGGTGTCTATTGTTTCGCTTACAACGGTTTC
0.7593453723273461 ACCCAATCATTCAAAAGATTTACGCTGCCTAATTACGTCA
1 ATGCCGCCAACAAATGCAATTGTGAAACACTGGAACCATG
1 TTGTACGGACCAAATACGTCGACAACTGGCAACGTCACCA
0.2013518119264658 CGAGGTGGCTGGCTAGGGCGTCGATGACGCGGCCGGCGAT
1 TGCAACCCCAAAATCCACCAACACTGCAAGGCAATCAGAT
1 AAAAGGATGACTGTTTATTGTGTCCGTGAGCAAGGGTCAG
0.05135230515774061 ACCAGTGTATCACGGAAAAGATGTGACGTTACGATTAAAT
0.8421808784837096 GCGGCGCCGGTGAGACTCGCCGTATACTCGCCTACGTCAT
1 CGTAACTATCGTAGTGTGTAGCGATTACCTTGTTGAAGGC
0.4045093904782999 TACGTCATCACACCAGACGCCGCTCCCACCGCAACCGACG
1 GACGTCAGAAGCGCAACTCTCAGTGAAGCACCAGGCGGCT
1 GAGGAGTGGGCGAATCACTGGTTGAGCCTCAGCGAGGGGC
1 TCCCCCCGCCTTCCATGCCGCCACCGGCCCGAGGCAACGC
0.6975753531584858 ACCCATATCCCATTCCATGGTGTCACTCACCTCGACCCAC
1 ATGGCAATTACACTCTTGTGTTACTCCAGCTCACGTGGCT
1 GTTGACATATGGTGGCTTTTCACTCGTCATTCTATCTCGA
1 GACACGCGGAGTGCTTACTCATCGAGATTGGCCGAGGTGA
0.9374598699823236 CAGGACGCGGAACAAGGCGCGTCACGCCGGGTTGATGACT
0.1274051471222681 GCCACGTCACCAAATGCGTATCTGAGAAGGTCAGGTCAAT
1 GCGCTCATCCTCCGCAGTCTTGTGTACAGCTTAGGCCCTT
1 AAGATCCCCCCCCCCAAACCCCCCCCCCTACCCCCCCCCC
0.9339324421549742 TGTAAGACACCTAAGTTTCCTCGCCTTTTGGAGGTGACGT
1 CTGGTCACGTGCAAATACTCGGCCCTTGAAACAGACCACT
1 CATGGCCACGTTCCTGTGGCCGTCAGCCCACCCACCAATG
0.9737425535656135 ATAATCCTGCTGACTCGATCCGATAAAACGACGTTACGCC
1 CACTCACGCCCCCGGATACATTCCATCCGGTCCCATCTCC
0.09705948717643209 CCATTCACAACACACTCATAATGACTCACACCGATACAGC
1 CTGCTTTCCCGCGCGCCGGATACTGCGATGGCAAGTCCGG
0.6719270120087975 ATTACGTCACGACTTAAAACACACAGCGCGCGGACTATAC
1 CGTCATAATCTATGGCTTATAGAACCGCGGATCTCCTTAC
1 ACTATTAGGTAGACAGGATGCCTGCTTGTTCCGGTTTTTC
1 CAGCGACGATGCGCCAGATGCTAAGCTTCGTTTCGAAACC
1 ACGTGAGATGCATAGCGCCTACAGCATCGCTTCGAATATT
1 CGCAACTACTGCCCCTCGCGCACCTGAGATAACCCTCCCC
1 GCCTCGCATGATTCACGGCGACGGATTTTTCATACAGAGC
1 GACTCAGCGGTACCGCTAGTTTTCGAGACGCTAAGCTCCT
0.1868594148944767 AATGCCCTGGCAATCTGATGATATAATTGTACGTTACTCT
1 GTTATTCGAGCTCTTAGCTCGACTGGTTACTGGTGGGGAT
0.6906584089795414 GACATCATCCCGTTCGCTACCCATCCTGCCGTTACCCCCC
0.7205823106582382 GATCTAACATCATAAATCACGTACGGCCAACCGCGCTCAT
1 TCAGAGCTACGTAATTACAACCGCGCGTTTGCGATTACCA
1 GGCACGCACCCACCTCCGATCACGCGTCCCCCACACCGCC
0.8385104195052353 TTCAGCATGACGCGCACCACTGCATTAGCCATGTGTACCC
1 CGTCTTTGCGATGATTGAAGCGGAGGCCCTAGGCCAGTAT
1 GACGCTATTTCCACGTAGGCTTGATCGTCAGGTGTTAAGA
0.8138347359544522 GACGTAAGCTCGTTGTCTGACGATCGTTGATACTTTAAGC
0.8104763107998055 GACGTGGCCTATTACCGAGCTGACTCAATCGATGGACCCT
1 GCCCCGTTATCTCGTAGTGGAGCTCTGATGATACGCACTT
0.3443143627627551 GACGTAATACCCCCCAGCCAGAACGACGCAGCACCTCCAC
1 TAATTTCCATGTCCTCTTCCGCTTTTCCGCTACATGGGCT
1 CCGACATGTTCTTCAAAAAAGCTAACTTGAGGGAGGGTGA
1 GATTTCGTATTATGTTTTCCCTAGGCTATTGCGTAACCGT
0.6620940026482292 GTATGACCTCATGCCGGAAGATTAACGCCTGGGATGAAAG
0.2720116277444469 TGAATATCCCTGACGTGATCCTAGTTGCTCGTGCCGGCTA
1 GACGCAAACCTGATCAAACCTCGCTAGTGATGCGTGCGCA
0.7757065449133612 GATGACGTATACGCACTGTGGGATGAAGACAACTCCCAAA
0.04228685007815715 ACTGAATTCCGATATGGCTAGCGACCACCTATTACGTCAA
1 CTTAGGATATTCTATCTCTCAAGCACTCCGCAGGTGACGT
1 CTTGCCAGCAGAGACCATGCGAATCCACTTCGAGACAATC
1 GTTTCCGGAAGGCATATTCCGTTTCCCAGAAAAATATACG
1 CCCCCAGACTACGCCCCTACACGACCCTCGTATCTGCGAC
1 CACTCTCGAGTTTTGCCTGACAGTTCTACCCGTCTTCTAG
1 GTGTTCCGTGGATCTTGCTTCCTAGATCGTGTCATTGCAA
1 ATAGATCACGATGTGCCCGTCGTCCTGCCACTTGTCAACC
1 GATAACGATGCGCCTTATATTGTCCAGTAGCTCAGTCACC
0.3044295742597827 GGCCAAGAAGGAGTGTGCCCAACGCAGCAAATGACGCATT
1 ATGTAACTTCCGACTTACCATTTTTGTTATGACTGGATTT
0.06629838054966038 ACACGTCACCCTGCCAAGGTCGGATAGCAGATCTAGGCTC
1 GACGACACCGGCGTTTTGTTAAAACAGTCCAGGCACGCGT
1 CACCTGACCCGCTCCGCCCTCCCCCACCCACCTCCTAGCT
1 AGGGTGTCAATGTCATCTCTTTGATCGGATCTGTGGGCCG
0.312146021863375 AGGTCATCAGGTCCATTGACGTGATATTTTGGACCTAGAT
0.2480980250022645 GCCCCAGGGACACGTGGGATCGGAAGTGATACCGGATGAT
1 CTTAGGCTGGCCGGGTGGCCGCGCGCCGCGCTCGAGGGGT
1 TACCCCATCCAGCACCAATCCGGAAACGCGCTACACACCC
1 GCGTGAGTTGTGGCTGACTAGTGAGCTATGCCTACGTCAT
1 GCTTATGGATGGACGTAATTCCTCTCATGCTCTTATATGT
1 CGCCGACCCACCTCCCGCCCATACGCCCAACCAAACGCAC
1 AAAATATCGCGAGATCTGCACGGGATAGATACTATGTCAC
1 GTAGAATCTGCTATAGTAAACGCGCTCCACGCTCGTGTTG
1 ACTAGGGCGTCTCTGGTCACTCCTAAAAGTAAAATAATTC
1 GGGTGGCTAGTTCATTTCGCACCGCTATGAATATGCGCCG
0.07363446434421939 GACGTCACTTCCGTACATCTTCCCTTGCATTACCTTTTCC
0.6694489962363644 GACATCACATATCCCCAAGTACATCACGCCAAGAAGTCGC
1 TATTACGATTATGCGTGACGCTACTATTAAAGGACGCCAT
1 TATTTTACTTCCTGTTACCGCGCTGGAAGCGGAGTAACTC
1 GAACGGCCCGACGCAGTAACGGTCAAATGACGCGCGCTGA
1 CACACGCAAATCGCAGAATCCGCTTCTGTGGTACCTCATG
0.5844611749483934 GTTACCCAATGCTGAGTCACGCTACAAGAAAGCGACACCA
1 ACCCGTTACCCTCATCGTTTGGGTAGCGCATCCATGATTC
1 GACGTAATGGCTATTTTCCTGTAGGTAACGGGACCATCCG
1 TTCTTCTCGCACCTTTGGTCGCGTATCTTAACATCCGTTT
1 ATTACCTTCGCGCATACGTGATGACCTTCGTGTCTTTAAT
1 GATCTCAGGAAGCAAATAACTATTCCGCTGCCACTCTGTG
1 TAATACAACCTCGACGTACCCTATTATAAAACCGGAAAAG
0.6302966516930613 GACGCAATCCCTCAAGTGATTTATGCTAGTGGTACCATTC
1 TGATTAAGCCGTGACTTAACCAGTATGACTTGGGCGCAGC
1 CTTCTAGTGCTCTCCGGACGAATCAAATGTAGGGGCCGTG
0.09588510791435241 AGCGAGTCAGGTGTCGATGGTGACGACAACGTCGCATGCT
0.07544700501949991 AACTATGACTGCGTGAAGTCATTACCTGCCCGCTCATTGC
1 AGTTCATATGTCGGATTGCGTTGCGAGTTATAGCACTCCC
0.7651181536395847 CAGCGTCACCACGCAAATCGGCCCACATCATCCTACTGTC
1 CTGCCAACTCTTGTAATCTCGGTTTAACAATTGGTGTGTC
1 GTGTGAGTAATCTATTAGGCTCTTGCTGTGCCTCTAATAT
0.4946288202432752 AACTGATGAATCATTCTCGGTAGCCGACGGTAGAAGGCTT
1 GGAGTGATCTACACGACTGTGGGCACCAGCCGACTCATGC
1 ATCCGCTGTACCGAAATCGGAAGGACGTGCACTAAGCCGG
1 TCGGCCTTAAGGACTCGAACCTTTGTGCGTATACTTTTAG
1 ACTTGTGCGCAAGATGCGTCACGGTGAGTATGCGGTTGCA
1 TGCGTCATGTGCTTCTGCTAGTGCTTCGGGATATCTTCTC
0.5434813179467753 GACGTGGGCGAACTCATAGCAACGGTACACGTGGCGTCAT
0.3525868118938057 TCGCATGCGCAGTGGAGTTTTGACATGCTATGACGTTATG
0.5216914905943738 CTATCAGATGGAACACGTCAGAACCTTTGAATTAGCAATG
1 AGCGACCGCACATTCACCTGCCCACCGACACCCCCCTACG
1 TACGTAACCATAACTTCGCCATTACGAGCTGTACGACCAA
1 ATGACCCCCAGGTACCAAGAATGCCCCCCACCTCCACATA
1 GCGTCTAAAGTTATGAGTAGTTCCACGCGCTTACTACCGT
1 TGCTCCAACCACGGCCCAAGTCATCACTTTCACACAAACC
0.01098074971267222 GACGAAGTAGCTAACTGGTAGTCATGCTGTCATCTTTGCA
1 CACCCTACACACAACGCCTGGCTGACGCACCACCGTGACC
