svm_type c_svc
kernel_type gkm_esttrunc
L 10
k 6
d 3
nr_class 2
total_sv 16381
rho 0.851845
label 1 -1
nr_sv 6583 9798
SV
1 AATGCTGTTATTGATTACGCTTTTGATCAAAGACTTTCGT
0.3520551401866773 GTTACATAAACACGAATTCCACACAGTCCGGCCGGTTCAT
0.838971091519112 GCAGAGCTTATACGCGTAATGGAGCAATTACACTATCGAC
1 TATGAAACGCGAAAGTTTCATTGCGGCTCATGCAGCCTAG
0.7167446588813339 TACGCAATGCCCTCGGCTACCCGGTGCCGACTCAACATGG
0.8018798356845042 TGCGTAACATGCTCGCATTTCGATCGATTTTGACACCTTC
1 TACATAAACCTCCAAGCTAACCACTCAACGGCTGAGAAAC
1 TATGTCGCTTATCAGCATGAGGGTTAATGGGCATGCAGAA
1 AAGCCCCCACTTGCTCCATAAAACAGTAGCTAAGATCTTC
0.05960225296354065 TACGTAACCGCGGCATGTCCCCCACTTGCCCAGACAGATC
1 TACGCAATGGCCCGAAATCCCTGTCCGTTATTCCGATACC
0.003472446775133642 TAAACACCGTAATACCTAGTGCCCAAGAGAAATTACCTAA
1 TACACAACTAGCCCGACGAGAATTTCGTGCCCAACACATG
0.8908328718839014 AATGCACTGCTCGTCATATCGCCCTATGTAATACTATTAT
0.5368272770578113 TACATAATGTACTTTCCTGTCAGTACTAAGGGAGACACTT
1 TATGCAAGACACCAATTCTTAACACGACATATTGCTGACC
0.4411999516975522 TACGCATATAAACCGTGGTTACGTCGGTCGTGATCGTAAG
1 AATACTCTGTTACCTCACGTCCTCCCGCATTTCAGTGTCT
0.3053025051991597 ACGGCTAAATTATGAAATTCCATTAAACAAGTGTGCGCAT
0.9970315079034957 TTATGCAATCTAGGGGGCACGCATGCTATAATATCTACAG
1 TGCACTCCTCCCGAACAGCGGCCCCGTGACTACACATTTG
1 ATTACACAACCTCCACCATCATACACCACGAAATCGCGCC
1 TATTACAGAACAGTACCACCAAACTGCAAAAATTGTTATG
0.851502844497666 TACAAATATGCTTCAACGACCGTTACCCAACACCTACCCC
1 AATCCACGTACTCAACAAAGCAGGCTTACATCTCCCAGAA
0.8107179339593258 TACGCAACATTGCTCGGGCTCTAACCATTTAGCCAGGCGA
0.4092645903144775 GCACAAGTACAAATGTCCCCTATTACAAAACTCTGAAAGC
1 ACCACGCCCATAACACAAAGACGAACAGAGTACGTACCAT
1 AATACGACACTCCGCGTAAACACCGGTCGAAGCGCGCCGG
1 ATTACATGACGCAGGAGGACCGACTACATACCACCTAGGC
0.2409000726392022 TACATAACAAAGCTCCCGGGCAAAGATGAAAGCAATCCGC
1 TATGTAAATGCGGGTTCCCCCTTTGTAACTCGCTCGTAGT
1 TACATAAACGAACTCTGGCAGAACAATCGCATACGACCAG
0.6593340462181364 TATATAAGCTCTAGGCAGCGTAATCCAAAGTCCGCAGAGG
1 GACAAACGACTCTTTCATAAAACCGTTTGCTCCAACCCAC
1 TACGCATTATTGATCATAAGTGGGACCTACTGAGACTGTA
0.5395285100366793 TAGATTCAAACACCGATAGAAACGACACACGATGACGTAA
0.6254366582553188 AACTATGTTTAATCGCGTAACCCATACCCTATGCGTTATT
1 CGCCTAACCAGTTCGCTATGCGCGCCTGTAACCGACGTAA
1 TACCTAATGGTATGTGTTAACTCCCCCTAAAAGGGCGAGT
0.8119025477036373 TACGCAATGTTCTCGTAGTATATCCTACACCGCCCTACAT
0.8350281498971597 TACCTAACAATGTACTGACTAGGAAAGGAACGAATGTATC
1 AACCTCCGTGAAATAATCCTCAGACGTCGTTTTTCCCAAT
1 AACAGGACGGCGTCTCGCACTTCCATCTCCCCCCAGTCAT
0.1843482787286887 TACGCAACACACTTGCCCGCTCGTGCAATCATTATACCCA
1 AAGTCATAGGTAAACAACGTTCATTCTTGTAGGCTTCCAA
0.949512048050369 AACTCCGATTATAAAAGCATCACAAATAACTGAATACACA
1 GACGTAACGCTACCAGAGATTCCCCCGCCAAAAACACGAG
0.6060745896400621 TACACAACCGCGGGAACCATAAGCCACACAACACCAGTGA
1 ACCCGTCAACGGCTTCTTGTCGTAACCTACCACCGGCCAC
1 TATGTAATTTCAAAACAGTGAACCCAGCACATTCCACCTA
1 TACATCACTACAACCAATTCCTCCCCGCAGTCACCGCACA
1 CCTCCTCACTATTAATTACGCCAATGAGCAGCAAACGTTA
0.9812514554666133 TACGCAACAGTGGGCACCCTGCGCCATGGGATTTCGAACA
1 TACCTAATGGCACGAACGAATCGTACCCCCCCAAGTACTC
1 TATGACACAGCACTGCCCTCACGGCCCCACTATTATCCAA
1 AACGCGAGCCCTCAAAACCAATGCGTTACGCTTTCCTACA
0.2643842890630124 TTCTCGGAATTATATGGCAAGTACATAACTGCCCGCTTCG
0.8017573144829065 ATAAATTGCATCAGAGCGTAACTGCGCTTTGGCCGCGCGC
0.7849269938528927 CCGCTTGCAATCACCGCAATGCGAACGCGTAATCACGTCG
1 TACGTCACGAAAACGTGCACAGATCTTAATTGTAGGCCTG
1 TATGTAACGGTCAAGTCGGCAGCCCGCACCAACATCCCAA
0.2503968525824835 GATGTAACCATCCAACCTAGCGCGTGACACAATCCTCCGC
0.7356255245813482 TATGTAACACGCATCCTACATCGTTAGACACACCGATCCA
1 TACGTCACCAAGCATCCCCACCTACAGGTGCTCTCTAACC
1 CGAAACTGGACTTACCATTACAGCGTCCACAACATCGTAA
0.3073818757875631 TGCATAACCATAAGAATTACCACCCACCGAAAGTTTCATT
1 TAAATAACCTCGACCTAACGTAGAAAACCCCACCTAGCCA
1 AACATATACCCATTAGACAATACGAAGTAATAGAAAACAT
1 AATATTCCCTCAACGCCTCGCAGCCCCAGGTAAAATGTAA
1 TACGTAAAAGTTACCAGCAGCCCCGGACCACACGTGATGG
1 GCTGACTCAATCACATTATTTAAAGGAACGCTTCACTCCG
1 AACATCTCATGCCACTATATGAAACACGACACAATTCCCA
1 TATGCAACGCCCCCAGCCCTAAGCCATCCGTAAAGTACGC
0.8355989020064131 TATATAAGCTCAATTCTACCAAATGTAGTCACGCGAATTC
1 TGCCATGTCCCGCATAACCGCCCATAACCTCACGTCAGGG
1 TACATGACGCTCTGACCCACTGCTAGATAGAGTAATCACA
1 TATGTAATCCACAGAACAAGCAGAACAACACACTGAAACC
0.0726786442602516 CAGTCCGCACAACCACGTGTTCAACCAAGCTTATGCAACG
0.2101939708079132 TCCCACGAATAATTGATACAACTAACTTGTATAATATAAC
0.1999399713163869 CCTCTAATTATGAAATACCTTTCGCTCTCGGACGCATCGC
1 TAGGTCACCAAGTACGTCCTACCCTAGCACAATTGCAAAG
1 ACCAGACCATGCTAGTACAATGCACAATTGCGACACGTAA
1 CCGCTGAGGCAGATACGAAGACGCCATTACCTACCTCCCC
1 TACCCAATACATTGCGCAGACGCACAGCCCATGCCCCTAC
1 TACGTCACGCTGATAGTAGGAAAAAATTTCACCGCCGTGC
1 AAAGCTAATTTCATATAGCAAAACTTTACCCTTGAACCGC
1 AGCTCCGTAAAACGCGTTCGATAATGAGCGCATATAACAA
0.2153836518280682 AAGGCTATAACACATAACTAATGGTCAGTCCCCCTCCGTC
1 AACGGATCTACGAGGGTAAAACTTCTGTAGTGTTGTAACA
0.1910880770509298 CCCGTTATAAAACAGCCTTGCAACCGCGACACAGTGCTGT
1 AACATTTACCGAATCCACGCGATCTCCACGCAACGCCCGC
1 ACGCGCCTCAATGCTTACCGAACCTCCCGTAAATACGACT
0.0279984617498527 TACGCAATCCCATAAAGAGTGGCGGCACTTACATTTAAAT
0.6687159903104649 TACCTAACAAATCAAGTGAAAACGATCACCCCGGCGCCCC
0.3181032060474164 TCACAACATACCCTCCGAAAACCGCCGATTGCGCAAGCCC
1 AACTCCCCGCGTTACGCGAGGTCCCATACCCAAACGTTTG
1 CATGCCACGAGCCTTACTACGTCATACATTTTGGTATGCC
0.05929653154906904 ACCTCGCCCAGGGTTACGAAACGCTCTATAGACATGTAGT
0.05663693773332866 TCGAATACGCCTGTTAGTCAAATAATGTAGTTATCCAACC
0.4842121150777237 TACATAAACAATCATGATCTCAAAATATCGATAATCTGGA
0.7424469060786326 AACCCTATTCTTAAATCCAATGTGTTACACCACCTAATGA
0.04853433586401471 TACCGTTCGCGTCGCTGCCCACTAGGTTGTGACGCAACTA
0.8275707874819982 CATTACATCGACATTCCCTTGTTACGCTATCATGGACCGA
1 CTAGCGCTGAGCCTGAAGGGCGCTGACGGAACTGCTCAAG
1 TGCGAAACCACCTACCACAGACATAATACCACAGCCCGTT
1 AACGGGGAACGGTCGTACTAAGCCTGTCTTTCTAACTACT
1 TATTTAACAAGCTTAACCCACCCGTGTTCCAAGCGCTTGC
1 TACCTAATACAACGTGCACTCAATGCTAGCCCACCAGCCG
1 TACACAATGCTATCTTCGTTCCCTTACAGACAATACCGAG
0.01901031864443041 CCCTAAAACATCACCCGGGGNTTTTCGTAATCACAATGGA
0.550753883668244 TACGTCACAACCCCCACCTAGGCTCACGACGCGCATCCAC
0.9219497454845044 CCATTTCATAACTTCTACATCCACGCGTCAGGCACGGCGA
0.5620932736545867 AATGAGAACCACACCGATTTAACCAACGTTGCACAACATC
1 AACACCCACCTCACCGTAACGCTCCCACCATTGAGTGCCC
0.7762289632999706 ATTACATCACAGGAGATCCATGATTGCTTTCATCCGCATG
1 TACACAACCTAACTCATTACTTTGCGAGGTGAAGCTGCCC
0.6373724443065572 TACGCAACTCAATCTTACTCGATACTTCAACACTCGATCC
0.4484833066040474 GATAATAAGTGATACACGATGATTACTAAATAGGTGAGAC
1 TGCATAAGATCACCGTTCTCCTGTCGGATTGCTTAGCCAT
0.8011906072758208 TGCGTAACGAATGACGAGTTCCGAAATCGAGTCCGGTCGA
1 AATAGTTACCCTGAACACTGACGACCTAAGGCTACACTTA
1 TACACAATTAATCCAGACTTCGCCCTCGTTCCTAGTGTAG
0.4300556297358823 TATGTAACCGACAACCCATCGAGTGCTCTCACTGCCACGA
1 ACTTATGCAAGCCGCCGCGACAATAGCCGCTAAACTCACA
0.8085588951121326 GTTACGCAAAACGTCCAGCAGTCTCTGGCGTCAGCCTCGC
1 AATCGAACCGATCTCCTTCCCACTGTAGCGTAACGCACAT
0.225756927655474 TGACGAAGGCCTGATAAGCGTTATAAAACAGACGGCAACG
1 TATGCAATACCCCTTGACTAAAATGCCACACACACATGGT
0.2595834587812322 ACATTGCGCAACCACACAGCCTGTGGTCTGTATCATTGCT
0.2636423128292996 CATAGGCCGCCTATGCCAATCGGGCGAGATTACGTACCAT
1 AATCACTCATGGGTGCCTCTTGCTAGGCGGGATTCCATGA
0.4820517443675877 GCCGTTAAAACAGGTGTTAATATCATGTAACACTATTCCA
1 GGATGCAGGTACCACACCTTCTGCAACAATGACTGCTACC
0.2059633993207424 ACGCACGCACCAAGCCAACTCCCTCTGTTACTTAAGCTAC
1 TTAGACTGCACCAGATGCTGCAAGGGCTAGATAATACCTA
1 TACACAACACCTAGCGCTACCCACATCCTGGGGCCTGCAA
0.2129215008859183 TACGCAACCTTGTACACTCTCCCACGTAAAGTGCCACATA
0.5383371140056186 GTTTCGCTAATAAAACGTCCAATGACCTAATTTCAGCCGC
1 TATACAAGGTCTAAATTGATCTGATCAATTCCTCCGCTTG
0.2728007965374966 TACTTCACACACAACTCCCCACATTACCTCACGCCAGACG
1 ATCGGCCCTCCACGCGACCACCGTCACGCAATACACATAA
0.04619439779210252 GACATAACAATATGTGATATCAGATTTGACGCCCTAAGCC
1 TGCGCAAGCACGGCGTGCGCCTTTCTTAAGACCAGCCTGC
1 TACATAGCTCTCCCCCACCCTCCTACCGGCAATACGTAAC
1 AATAATGTACACTCCCCCGACAATTACGTACCAGCTAAGC
0.7271014294711781 TCATCAGTGATATAAGCGTTACCGTGACCTATTCATAGCA
0.5129962474498028 GTGACACAACGGCCACGCGCACATGCTGTGACTTGTCGTG
0.5387510931163441 CCACTGTAACCTTCCCTCTCCGAGAAATGATATAACGAAG
0.8982634566329857 TACATAATTCCCAACTGTGATAATCTACCCCACGAAACCC
0.6578952978387219 TTACGCAATGCAAGCGCACCCCACCATCCGAAAGTACTAC
1 TACACAACTCCACGACGCCCCAACTCACACCCATGCGCCA
1 TGTATAACACAAACCGGATCCTAAGACAAGTGAATTTTTA
0.3313866539516396 GCACGACCGAAGATTATGAAACTCGTTCTAACAACGAGCG
0.7753967417263574 TACGCAATCACAGTTCCATCTTCAACCCTCCAGAATAGCC
0.5185460902143413 AAGCAACGGTATGAGGCCGTTACATGTACATGTAACTTTT
1 GCAACCTCGCCTCCCACGACTCCGCCCATCGGTGCCCATT
1 AACACGCGAACCCTATCCAAATACTGGTTATGCCGGTGTA
1 TTCCAGTAACCCGGACGTAACCCGGACTAACACACTGCTG
0.1579386862639167 ACTTCACAACTGCGCTCGCTTCCCATACCCATTATGTAAC
0.292196519868094 GGTACAAACATGTTACGCAGGCAAAAACCTACTTTTCTTT
1 TGCGTAACGACACCCTACGAATTGTAACTAGAAGCCTCGA
0.2815829511401391 TGCATAACGTACCGAGCCAAGGCCTTTAGCAGAACTATAG
0.4974755343267729 AACTACCTCATTGTCCGACCGTGCGGGTCGATGACATAAT
0.9487035187068917 TACATAAAAGCAGTGCTATGCTATGCTTAATGGACCGAAC
1 TACGTGACCGTTGTTAACCATCTCACTGCACAACACGTAA
1 TACATAATTCACAGCAATCCNTGTTCATGACCCAGTACCA
1 TGCTTTTATAACGAGGTGTTAGCGTTAATTTGCACGTCTA
0.2005741915686975 TACGTAAGGTTGTAACTCCTAGTAGCAATCCAACGGCGTG
0.6702670374653711 CGTCCAAGCAACTACCAGCATAATATGTAAGCGACGAAAC
1 TACATCATAGGGCATCTGCATCTGCAACAGTAAGCGCGCT
1 CTACGCTTCGAACCACATATAATTACTCGTAATTCCATAC
1 AATCCTAGCACAGTTTCACTCCTCACCACCGAACAGGTTC
1 TGCATAACCCAAACACCAAAGCCAACAAGTGACTGCGCTT
1 TATATCAGCTCTAAAGTGGACCTTATGCCAACCTTCTTCT
1 CCTACGCTTGTGGCGCAAATACTACCTACAGTGCCGCTCA
1 TACGCAACCATATACCATACCTCAATGCCCTACGCGTCTC
1 CCGCCTGCCCTCTACCATGCCTCCCCACAGGCTTCCGCCA
1 ATGGCCGATCCGACCACGCAACTGCAGTCTCTCCATAACG
1 AACGCATTAACGCATTCCTAGGTGCCAATGTATCGCCCAG
0.5614039554625798 CACATGCCGGGCGCGCGCCACGGCTGGGCCTTACATAAGT
0.1189749095296562 ATTATCTAACCATCCTGTCGGCCGGCCCTGTGATGAGTAC
0.1849248465877546 GATGTAATCACATGTGAGCACAGCCACTAAATGACAGCCC
1 TGCGTAAGGCCCCATGCCAGCACAACATACGCGCTTGCGC
1 TATCACATCCAAGTCTCTCGCCTCCTACCACAACGCATCA
1 TATGCAATACCGCAGTACCGCCACCGGAACGCGATACGAA
0.5625227205350282 TACGTCACCACCATTTAAGAATACTGAGCCATAACCAGTA
1 AACAAGATACTCAAAGGTTCCGTAATTTTTTACCTGTGCC
1 ATTTACCCCGCCAGGCTCTAATCCTAGATTATAAAATAGC
1 TGCATCATCGAACAGGCGCCTGCATGCTAGTTATATCCTG
1 TGCGCAATCGGGTCCGTAACTTACCACTGCCTGTCGTATA
0.7631946666674636 TACCTGCTATTTTATAACGGAACCTCACGCGGTTAACCAC
0.5667400188136074 ATGATATAACACTGGCCATACCCAAAACACTTTAGACTTA
1 TATGAAACAGGGGTACTTACATTTGCTTGGCAGTGTGTGA
1 AATGGGCATGACGTGAACAGTTGTAGCTCATCCTAACCAC
0.4972145502156014 CATCAGCGTCCATTAAAGACATAACCCCTAACCTCATTAT
0.7506961405455388 ATTACATAAGTGCTACATTCGCTTACCCCCGCGGCTGCAC
1 TACACAACCAACGGCAGCACAGTAGCCGTCGCTGCCTTAT
0.8404053488215796 ATTACATCACAACTAGGCGACAGCCTCATCCGACCTCCCT
1 ACAACCCGTGATGAAGGCATGTAATCCCCGACGATAATAC
0.8567073928054675 TACATCACTTCCGACTAAGCTAATGATATATTCCGTTGCT
0.8625544408812246 CTTGCCGCCAATCGCCCAACATGAACAATTATCCAACGTC
1 TTCATAATGCTCTGCTCCTGGACCGTCATCGCGCTGGAAT
1 TATACAACTGGAAAGAGTTCACGCCCCAATCTAGCAAACT
1 TACGCAAAACCCACACGGAAACCGTGAATCATCCCTACTG
1 AACTCTAATGATCTTATAACAATTGAGCTAAATGCGGCCT
0.1152009445998714 TACGTAAGCCACCCAACATAGAGTACCTTGCGCCTTGACT
0.5868642927825745 AACGTCCACACCTTGACACTAAGACCCTTGCACAACACCC
0.2184482941924484 CTGCGGTTGTGCAACAAGCGATGCACGACGTAGCTTACCC
0.03726353307794352 GCACTCTTCGGAAACAAAGTAGGAAGCACGATTACGCAAC
0.3683192697648561 GCCCCTCGTCCACCGCTGTACAACCAGAGCTTACGCAACA
1 TACGTCAGCACTACTTAACTTAGTCTTGCCTTTGGGGCAC
1 TATATAATCCAACCCAAGGCACGGCTTTCACTGCGGCACG
0.8906029354440766 AACTATTCCTGTCGCGCTATGCAACACAACCTCTTACGGG
0.7692392004788544 TATGTAACACGTCGCAGTCCCAGCTATTGCCCTCTCCGAT
0.05365033508149464 TACACAAGCATGTGTTATGAATTAGTATTGAAGCAGTGCC
0.3331225593600864 TATATAATTTTGCCTGCTGCATCATCAGTACTTTCAACTA
1 TATGTCATCAGTCACTTTGTCATAAACCGAGCGCGGCGTT
1 TACGTCACCGCGCCTACAACACCCATGTGCTTCCATCAGA
1 TTCGTAATACACTCCACCCAACATCCATACTTCGACCCCA
0.5794543994921645 ATCCGAGACCGATTCGTAACACTCGTATAACTGCCTTACG
1 AACGCGCCAGTTTCTTCGCGAGATGACGCGTAATAATGTA
0.8534518441021589 ACCAGTTATTTAATAAAAGACCAATACACGATGGACTAAC
1 TACGTCATTCAGCACCTAGCTGTGCTTACCACAGCCAAAG
0.5767483187493999 TTCCCATTCTCCAGATATACTTATCTAATGAACGTGCATG
0.8509206179222601 AATACAACCTTACCCCTTACGCGAACCGTTTACGCTTCAC
1 GACGTAACTACCGCACCACTCTCACCCACCACCATCTACG
1 TACCGCATGCTGAGGCCTGTGCCCCTCGCGCGTCCTCATG
1 AATCAACCGTGGCACTATACAGAACCTGAGCGATTTTTGC
0.0077306940492114 ATCTAATATCTCCCAAGGCATGTACCTTACCTTTACGTAA
1 TACGTCACGACCATGAATGCGCGCTGGGCAGCGACTCCAT
0.1916580800096999 AACGGCCATGAATGATATAAGACGGAACGGACCTATAACC
1 CCAACGCGTTGCAGCTTCATTACGCGCGCAACTTGCTTAC
1 TGGTAAGCTTACATGAGGTATACAGCATCATGCCATGTAA
0.5722875155481664 GACACAACCACGAGGCAAACACATAACACCTGCCCCTAAC
1 TATAGCGTACACGCGACCCTACCCAGCGTGCATTACCTAA
0.8682154384161642 TGTATCCTAGTCGCCGTCGCTCATTCAAGATGATGTAATA
1 AACATGTGCTAGCGGCCTGTACCCGAAGCGAACAAAACGC
0.9889990119863282 TATGCAACTGACAGGTCCTGACCACAAAATACTCTGCCTA
0.08413389031283339 CACGTAATACATATAGGACACGAGTATCACATAAAATGCA
0.3704273823588535 TACATCATGATCATGCGACAACATTATGCATGGGCACGAC
0.7687269974922797 ACTACCATGTCTACCCTTAGATGGTCGCAAGTTGCATAAC
1 TACGCAATTGGCAATGCAACTGGAACTCGGGCTAACTCTG
0.4302030830183641 TACATCATAACCATATGGATTATGCGCAGCAAGCTTCCCC
0.9598155900905901 TATCTAACCACAAACGCCTACACTGTTGAAGTGCACACGT
1 TAACCCACGTTACACTTCACCGTTACACCACACTACATCA
0.8328616909731771 TACATAAGGTGCACACCTTACCGTCATCCACACCCACGCA
0.4310129870838315 CTTATATCATCAGCATGAACGGGTCTAACGTTCATGGACG
0.7016848821811771 GCTTGCATCACATCAACGGTGTACCATATCTAGTTATCTA
0.3361754388974743 TACCCTAATAGGAAGTTCAGGTTAACGATTAGCTAATAGC
1 GACGTAACTCACGCACCGGCGCACCCCTCAAGAACCGCCT
1 AATACCTTCCAATCCCCCACATCACCTCCCCAAACACACC
1 AACAACACGATGCCAATCCACGCAACAGATACACACTGAA
1 TGCATAATGCCCTCCAAATCGACCTCCCAGGCTAACCGTC
0.009518605409305568 AAGCTTACCTAATCCCGCACCCGCCTCCGTGTGCCCCTCT
1 TCAAGTCCACGCCATCCGCCCATTTAGAAGACACGTAATA
1 CTATGACGTGAAGGAAGTAACCATTGTGTATGCCTCGTTA
1 CATAATGAGAGCAGTTAATACCTACTATTCCTAGCCTACC
1 TGTACTATTCCTCACTTATACAACGACTTTTCCTCAGTAG
0.8084977883453258 GCCTTTACTTGAACACAGCCCGGCACCGTTACGACATGCT
0.8346626997670691 TACATAACGGCCGTATACACACATGGGTGCCCCCAGCCCG
0.0348961610346354 TGCTTTCGTAATAAGGCAACACACCTGGCACGATCATGCG
0.3858550400693236 AATAAGCCATAGCCAACACTTATCCAACACGCTGACTGAC
0.3168319529608362 TGAAACCGCTTATATCATCACCAAAAGGTACCACTTCCGC
0.1068565634616275 TACGCAACCCTTCGTCCCATCCACTAGCCATCGAGTGCAC
1 CGGTTCTACTCTCTCGCATAGCCTGTAGCCTATTACCTAA
0.4201203235579045 TAGGCAGCAACCCAAACCAATTAAGTAATGCACTGCCTCC
1 AAAAACAGCGGACCTACCACCCATAGCAAGTGACATAACA
0.06068998230005865 AACAGCTTGTGCTCGTTAGGCTCCGCTCACATAACACCTC
1 TACGTAATTTTGAGAGTGAGGTCTACCGAAATGGTTTAAA
1 CCAACTTCGGCCGCGCAACCCTGCATTCATGAAGCGGTTA
1 TAAGCTTGCAAGCATCCACCGTATTTCCACAATTACGTCA
1 AATACGAAGAAAGCCCGTGTCATAGGTGTTAAGCCCCTCA
0.7414130739093516 AATCACTTGTGCTATTTCGTCACGAGTGCAGCCAGGTTGT
0.9016628316483873 GGCAGGACAAGCGTGCGTGCAACGTTATGGAAATTTTACC
1 AACAGCGTCCTTTACCAATCCTCAACATCATGCAACAGCC
0.9264288456030492 TACGTCAGTCCAATGGGTTCTTGTCTTGACATCCCTTCCT
0.04928400216862125 CAAGGTGATACCCACTTACTGATATAAATGAGTGATGTAA
1 TCCCGATGCTCGATCCGCCCCCGGTGCTTATTATCTAAGC
0.8622518493869519 TATGACTCTATATGACATTATGCAGCACTGCGCCACGTAA
1 TATGTAATCTTGCAATTTCGGCTACGTTTTGCGCCCCTAC
0.3280726388335893 TACGCAACGCCCACTACCCACGGACTCATCTAACTACAAG
0.4457064485630951 TGCCAGCTGCGAAGCTAATTACGACACCCATCGATATAGA
1 CACGCCTCAAGCGCCGTTACAATACACGAAGGTACTTATA
0.12079970568134 CTTTATATAACGGAATCCCACGAACTAGTGGCGCGTACCA
1 TTCATAACAACCCATGATCCCCTACTCCCATAGCTTCTCG
0.4259124245405563 ACATCATATGTTACATGAGAAACACATGACAGCAATACGA
0.5627145742832159 TGCGTAACGTCTCAGAGCACGCCATCAAACTCTCCTTACC
1 TACATCATCCACGGCCGTGAACACTCACCTATTGAAGTGA
1 GCATGCCGAAGGCACTATCCTTGCACCCCCTATGACATAA
0.9576230429650621 TGTATAACGAGCTCTAGCTTCCTTTATCTGACCCCTCACC
1 AATCAGCGCTACCGTTCGGATCGCCGTAGCCATGCTTATC
1 TTCGTAACTCCTTGCGCTGTGGGCTTCCCAGTCGTGTCCG
1 TACACAACAGATTTCACGGCTAAGCCCCGGCACGATGCCA
0.5028271373189274 TACGTAATGTACGCGTGCCAAGCCCCTAGATCGAGACGCA
1 AATCTAGAGCTTACATGCTAATGGGCTGGTCTTATAACGT
1 GTGCCCCCACATAGTAATAAATTGCATCAGTTTACACTGA
1 TATGCAATACAAACCGTAGCCATGTACGCCGCAACCCCTT
0.5444429491112651 GCCCTTACTCGCAATACCCCTATTCTAGCTTTCATAACTA
1 GACGTAAGACAGAATCCCCCGAACCATACCAACACTTACT
1 AAGACAACGCTGCTGGCATCCGCACACCATTTACAACTCC
1 GTTATCCAAGCAGTGACCACCACCCCTACCCCTGCGGACT
1 CTAAGACCTCCGTCCAATGACCATAGAGCACGGAACGCGA
0.3839103487004366 ACACCGAGACGACTTATGTCCTGAACAGACGTAACAACAG
1 GACATAACGAGCACCACCAGCTCTACGCACCCGAAGGTAA
1 TGCATAACTGCCCCCTACAGTAGTAATCCACGATCAGACT
0.06417580756042271 CTGCATAATTACACAAGCAATTTACTAGTCGACGAGAACA
1 AATACAAAACACTCCAATACCCGCAAGCATGACGCCCACC
1 AATCAGGACGGCCAAAGCCAACCGCACTTATCCCTTGGTG
0.3630384042130104 TATGTAACGACACTTGCACCCTTCTTCGGGTGCTGCTGAA
1 TCCGAAGAAGGTCACTATACACCGAGGTACAATTAGGTAA
1 TACATAAAGAGCGCGCTCTATGGGTTTAGTCACGACCTGC
0.1356534615462883 TACGCAACCCAGCCCATACGAAATAGATCGAATTCCACAC
0.6102364155570444 AACCTTACACAATCAGACCAACAGACTCTCTTTGTCAGGT
1 TGTGTAACACACTCACAAGTTACCTCTCGCGATTGGCGTG
1 TATGCAACAGACCACAATCTTCCCTGGTAGCACCTGGTGC
0.3022794936662579 TGCGTCACACATGTTGTGACTTGCGTATCCAAACATGATG
1 TACATCAGGAACTAAAGTGCACATCTCTTAATTTCTTCCT
0.4363370443865738 TACGCAACGGGACCACCCGACACCTCTTGCTCAAAACCAA
1 TCCAGACACTGGATGATATAAAGCATTAACACAGTGGATA
1 TACATAAAGCGCGATACCAAGCAGTAGCAACTCGCACCGC
1 ACCAGACGGGAAGAGCGAGCATTTATTGAAATAACACTTA
0.07639881808943851 TACGTCATGCCAGAGCACGCACCCCGACACCCTGAGCTAT
0.8074822581912176 TATAACGATTGGCCTCTGAATCGATGCTGTAATCACTAGT
0.4542700422173272 TTCATAACACAGACGTAAACCGCCCCCCGAACAGACCAGC
1 ATTCCTCGCACGCGCGACTGCATAACAGGCCCCCAGCCGC
1 TACCTAACAGGGCCAATCCTACTTGACACACTCAGCAAAG
0.9268562280248102 GAGCACTTTTATGAAACAGACAGTTGCTAAGACCACTCCA
1 CCCTTGAGGGTCCTGCCTCCCAAAAAGATAATGACGAAAC
1 TATATAAATTCCGCACAGGATCCTTTACCCTTCGTGACGA
0.1636360161265989 GTCGTTTACGCAATTGAGTCCACCAGACAGCGCTTTGCAC
1 AATGTGACGTAGGTCGCGCAACAATGCTGCCAACAGGACA
1 TGCGTAAGTCTAACGGTATAGATCCGTCATGGTAATTCAG
0.8468722128947664 AACGAACCTTCAGCATGACATTACGCACTAGAAAACTCAA
1 TAACTGCGTACACTCGAGCCGGGTTTACCCTGTCATGCAA
1 ACAACCGCCGCACCGTATAACGATGACGCCACTCATGCGC
0.52706980169614 TAGCTTGCGTCATACTCCATCCATCCGATCTGCCCCCGGA
1 TAGCTAAGTCATATAACCGCTGTAAGCCCTCCCGCCTCAT
0.1111468666246788 CAGCACTTTACCCACAGTGCTTTCATAACATCAAAATCCG
0.6562456727220364 GCGGTAACCAAAGGCTTACCTCATCAAAATTGATGTAGTG
0.3335205609916004 TCTATATGCACAGATTACCCAACGCCTTTACACTGGCCGC
0.3309486743015553 TGCGTAATCACGACGCCCCTACCAACAGGGAAGATTAGCT
1 CCCACGCTCTAATTACAGTGACTACTCCTTCCTTACATAA
0.2019946839019837 AATACCAAACCCTCTTGCCTTCACTTAGGTAATCCTAGGC
0.5427128403177689 TGGTCTTACATATTGCGAACATCCCCTTGTTGATTGGTAA
1 AACCCGGCCCGACACTCTTGTCAATGGCCCCCTAATCAAG
0.1506783755537998 CGCCCTGGTAACGTAATATCCCCATTAACGAAATCCTCTT
1 GGCGTCACCCGCCGCCCCCGGCTGAGGTAATGGCGAGCAC
1 TGCGTAAGTTGGAAACGCCCTCGCATCGATTCATACGCAC
1 ACATAATCGTGAAGTTGTTACCCGGGCTCCCAGCACTGGT
1 TACCTCATAGACTGCGAACAACGAATTTAGGTCTTTTAAG
0.7243512553921048 TGCATAATAGCGACCATGCGTGTGGAAGGTAACAACTTAA
0.2582136404914363 TATGCAACCCGGTTCCATCACGATCACGACGCCCATCCAA
1 TACGTAAACAGAAGAAAATCGTGAGCATGCGAGAGCTAGC
1 TACGCAATCCACGTGCCACCCCGCGCAAGGGGGCCCCGCG
1 AACGAGCCCTAGATCCCACCTCTTCCACACGCCATTGCGT
0.4128629593443399 GGTCCCACCACCTAAAACTGCATTACCCAACCTAAGACTA
1 AAGTCCTATCTACATCAGTTGTTCTGTAATCCACTTTTGT
0.01662530337221762 CTGACCGTCTCCTGTGCTTGTTATCGGTTACTTACATAAT
1 TATGAAACAACATTCTTAGTACAGGCCACGTTCTCGCCGA
0.5228218336161461 TACATCACCTGCGTGCCATCACCAACACGGACGTTCCACA
1 AACATGACGTATCATTATAGCGCATGGTACGTCTTGTTCT
0.04296032070093596 ATTACGCAATCCCAAACGCCCGGTCCATCGATAATGTTTC
1 TGCATAATAGCTAAAACACATCAGGTAAAAGCGAATCCTA
0.7734491048201171 TACATCACAAAGGTGGTGGAGTAATCATAACTCAAGGTTT
1 TGCGTAACTTTCCCGGCCCCTCGACCTGCTGTCACAAGGC
0.6308970047958639 AATCCAGACATGTAACGAGCATTGGCAAAATGACGAAACG
1 TGCGTAACCCAGTACTCTACCGCAGAACAAAGCGTGGCTG
1 TATACAACAAATATGCCACCCATACCCCACCCAGGGTCAG
0.3107870284230046 TACGCAACTACCAGCTAGTGATCTATACTCACGCTCCTAG
0.64204013542144 ATTGCATAATTCCTGATTCGCATCGCATTTTACATTCACA
0.06157598002286638 TAACCGCGACCGATTATATCACAGGCCACCTACCGCCAAC
0.783220709755059 TGACGGTCGTTCGTCCCGCAAACGTAACTGTTTAAGTAAT
1 TACACAACGCAACATGGCTCTCGTGCTGGTCGTACCCACT
0.03485396563363688 AACGTCACCGCCGTTGGCATACGCAATCACATCGCTCCCT
1 GCACACAAACCAGAGACTTGCTCGATGTTATAATGACCAC
1 TTCAAGCTTGTACGCCACACGTACAAGGCCTTTGCGCAAT
0.2768800668349287 GTAAAAAATCAAGGCGGTAACTGTTACGCACCCTACTCTA
1 TATGTGACAAGGTAACGTACCTCCTATGCCCAATCCCTCG
1 ACAAAGCTCCCAGCAGGAGGGAAGAGTACGTTTTATAATA
0.5256494141449675 TCAAACGGCGCAAAGGCCAATGATGCAACAACGAGCCGGA
0.3161369366951839 AGGACCGTGGAGATGTATACATAACCGACATATGTCGCGT
0.9770703344206485 GTTTCGTCTTCCTCGAGAAGAAGCAGTTGTTTTATATAAG
0.6250353085674956 CAATTCTCTCCACTCCAGGCACACTAGATATTTACGTAAG
1 ATACATAATTATAACCGCGCAGCAATCAACCCTGCCTATG
0.09032744126188574 GACGTAATGAGGATCGTAATGACCAACAACATACTTCTCC
0.05746677483876166 TGCGTAACCAGCACGGGCTACGCGTTCTTCCGCCTGCTCT
1 TACGTCACCTTTGAAGCACGTTCTATCCCACAAAAAATAA
0.3747953555311431 AGGTGTGGAGGTCGAGAAGAGAGAATACATAATACTCAGT
1 AACACGCCCCCGCGTATGCCTACCATACAAATGTACATAA
1 AACACCCATAATCACAGCGGAGTCACCGCCTGCGACACTG
0.9293879963247743 TACGTAAACAGGCGGCATTCAGCCACTGCTGAGTTCGTAC
0.4004715299670473 TGCGTAATACACTTCGCAGAAACTCTTATTTCAAGCATGG
0.5565008119262362 GTTATCTAATTCAGTAACCCGCTTCACCACCAGCCCTATA
1 TACGTCACGCATGAGAACACTGCAGTGCTTCCCCAGCAAC
1 ATGACGTCATATCAACCTCCCCAGAATCCGGCTGAATTGT
1 GACTCCGTAATCGCCTAACCAAACTTACTAAACCGCCTTG
0.9307341434888141 TACCTAAGCCTTTAACGAACTCTACACAACAAGGCGGAGT
1 TACGTATACACCGGAATCACTTCGGCCCATGACCAAACAA
1 ATAACGCAACCATAAGCTTACCATCAATTTACGCCTGGGC
0.9746923769222126 TACACAACAAGCGGGCACGCCATCTACACAGAAGCCAATG
0.8601334158282956 TGCATAACCCTCTCCTACCAACGTATTATAGCCCCTTACT
1 TACGTCACGTTGCCTTGGGCTACGTGCTCTACGAGCAACC
1 TACGTCAAACCCCTGCGACCCACTCATACTACCGATTTAC
1 TACCTAACAGCCCCGTACTCAACACTTCGCTAAGGTGGTA
1 ACTACGCTGCCGCAATCTGATCCTTCATTAATTAACGACG
1 CTTAGATAACAACACACCAAACCTTCGCCAAAACATCCGT
1 AATGACTAGGTAGCACGGGGGGAAGAGGAGACATCGTAAC
1 TGCATAAGAAGCCCTAGCTGCCTATGCGGCGTGGCCTCTC
1 TATATAAACCATAGACTTGCCATGACCCACCTGGATCCGA
0.334861079294016 ACTTACACAACGCGGAGAAACGGCTTCACTAGCCGATATC
1 TACAAGAAACGTGCTAGGCATGGTGTAGTTACGCCCTCTT
0.9839373117099806 CCAAGCCCATGAGGCAAATCATTAGATTCTCATTACCTAA
1 AACTCCCTCAGGGCATGAGAGACGACTGGGCTACATAAGA
0.4336918758427101 AAGCAGATGATCCATCTCGATTACATACTGCTTTCACGTG
0.7517842786793935 TATCTTCAATAACTACACCACGTCTTACGCCCTTACCCAA
1 TTACCCAATTCCTGAAGACACCAACGAAATACCACGCGCA
1 TGCATAACTTTACTCGATGAATTATTACCTCCATCGAAAC
1 TTATATAAGCCACCTGCTAAACCACCCACAATGGTTCTAA
1 TACACAATGCAGCAGACTATTCCACCCTTGTATGCACCAT
1 TATATCATCATGGGTCCCGACGGCATGGCTTCCCCCTCCG
1 ATACATCGAACACTGCCCATGGCAAAAACATTTTATCTAA
1 TGCATAACACGGACGTGGCCTTCCGCGTGCCTGTGAAAGA
0.6728411957120047 AGACAGAATCAACTGCTCACCAAACAGATGTTTCATAACA
0.09060792170995079 CCCCATACATAACCCAATAACAGGTAACACACCTCGCCAC
1 TACATAATTTGCTGCCTTTTGTACAATGGGTCCGGTAGTT
1 AATCACAGCGCACCGTAAGAGATCCAGTTCGTAGGGGCGC
1 ACGTAAGACGCAAAACAACGTTGTAATACACCGCCCAGGT
0.1312344003242676 AATAGTGGCGCTGTTACCTCACGGGCACTTCGCCGAGAAG
0.3605055018017679 CTAGACGTAACACTCATAGCGCATCGACATCAAGATATTA
0.9909180883150838 TACCTAACTTCACAGTCCACACAATTGACAGTCTCTACAT
0.1645419400416827 TGCGTAACACGAGTTACAAGGCGGTGCCAACAGGATACAA
0.5528430799027525 TACATAAATCATTGCTGATGTTAACCTGTCGCCCTTGATT
1 TATACAACCCTAACTCCACACAAACATAAACCAGCTACGC
1 CACCAACTTGTGTAAACACGCGCTGTTCCGAGCCGAGTCT
1 TGCCGTTGAACGCTGGTAAGCACAATTATAGTACCTAATC
1 AACCTGCAACATCCCCCGTAGACCCTGATATGTTTCCACA
0.5839349338005521 TACATAAGAGGTCTCTGACGTGGTAGCACATCGGGGAGGG
1 TACACCACAACACGACCTCCGAGCCCCACAACGGCAAGAA
0.4292568064902023 ATAAGCGAAAAGACAAACCGACCATCGATCAATTACATAA
1 TACGAAAGCAACAGCACTCAATGCAACAGCGCCCGACCCA
1 CCAAGATGGAAAGCTAATGTCCCAGGGTTGTTACCCAACA
1 TACGTGGATCCGCGTTTACAACTTAACACATTGCGGGAAT
1 GACATAACTCATTGAGATGCTCAACTCTGGCTACATAACC
1 ATACATTACCGCACTATGAGCCAGCGAGCGACTTTACGGA
1 TATGTCACGCAAGGAGACGGCTCAACCCAACCTCTCCCTT
1 TAAGCTGCTTCGACCCCTTGAATAACAGACTACCGATAAC
0.4922210173838341 TACACAATCAAGTGGGTCTTACATCGTAGTGAACGACATT
1 TACGTCATTTCCTCGGCCCCACTAAAGGACCTTTCGTCCA
1 GACATGTTTGCGCAAATTCCCCATTGACTTAGCGTTACAT
0.6047596678269241 TACACTTCCACAAGTGCCGACCTTATGTATATTCACCACC
0.9243621142657403 TACATCACGTATCCAATTCCACCCAAACGCACCTGGACCA
1 AATCGTCCCAAAAATAACTTACGAAAGACGGCCTCATCGC
1 TCCCGCCCTACCAGAATTCTCTGATAACTGACTTATGCAA
0.3718996440644046 AAGTATGGATGATGTGATAACAACCTACTGATGCCACGGC
1 AATACGTTCCCGCTGTCCCTAAACCGCGTGCTTGCCTAAT
0.7429884529185727 TGCGTAACATCTCATGCCTATGGGAACACACGTCTGTTGA
0.944198647711604 CCCTGAGCCAAATCCACGATGCATGACTATTGAATAATAT
0.7374640608141255 TACGTCACAGGTGCACCCGGGCCTCGCGAAACGCGTTGAA
0.1810724587633272 GGTGAGCATGCTTATTTATGTAAAGAAAGCCCAGTTTAAG
1 ACGTAACCAATCCACCCGCCCCCACAACCCAACGATATAA
0.601959418576285 ATGACATAACCTGCCATCTGTCCGTCACGCCCTTCACCAC
0.4622773995516068 TATGCAACCACGACACGGGCCACGTACTTAGCTGAGCCTC
1 TATCGCATCCCAAAACTGCATCAGCCACAAGCGGTCGCGC
0.9855980656268416 TATGTAACGTTAGCATCTTGTTTAGAGGTATATCCACGCA
1 TATGTAACTATCTGTATGGCCTTGCGACTCAAAGCGGTGT
0.3472794086831651 CCACGCAGTAGTCAAACATCGGGTGCACATACTTACGTAA
0.4624074217230006 AACAAGCGCGTAGCCGAATGAGTTGCGTCAAAACCAGTTA
1 AACAACCTTTTGCCCAAACGGCTCCGATAACATAGTGCAC
0.5603772206061728 CGGCGCCAACGAACACGTTAAGTAAGCTACCAGCGTTTGC
1 TACGTCATTAGTCACACGGGCCACAGCCTGTTGACTGCCC
0.7518008741045088 AATTACGTCCCGATCCCTCTAAGCTGCATAACCCTGTAAA
1 AAGCACTCTGTTTTCAAATTGCACCACTCCATTCACGTAA
0.3257299295159199 TACGCAACAACAGCACTTCCGAATGCCCCTCAGGCGCGAC
1 AACACCTCGTAACCGGCATGCAGGACTAACCCGATTATCA
1 TATTACGTATTCCAACCAAGTATAACAGTTTAACGCTTCC
1 TACATCACGTCAACCATCATAGAGGGCATCGCACCACTAC
1 CCCCTGCATTTCATCATCCAGATGGTGATCGAACCATTTG
0.08960774118441628 GACATAACTATCTGCCCAACGCTGTACGTTACTGAACGCC
1 GACACACGCTATATACAGCGCGTACTATTACGACACCTCC
0.06579188392426036 TACGCAATCACCTTAACCGTTACCGACGCCGGTCACCGTC
1 TGGCCGTGGCAAATACCACAGTGTCGCCGACATTATGCAA
0.4484639905881392 GCTGCAACCTCAGGCCCCACCCACTTTGCCCGTTACGCAA
1 TTTGCGCATAATCACCGCCCTAGCTTCAAGGTCGCTCAAA
0.7393646685041678 CATTCACGTAATTATTCTTCGGCGCGCTACGCAGCCCTCC
0.273494149367163 TTATATAATGCTGAAATGTGCCAAGTAACCTGCATCCGGT
0.8664630126002197 TACGTCATTGCACACTCCCATTCCGCACGACACCACACAC
0.6576652263724465 TGGTGGGCCTATGCTATAAGGCGGTACGGTACTTGCATAA
1 TATGCTTATACCATCCCAAGAGAATCGAAGTAACCCCGTG
0.9462680626524268 AATTCCCCATTACCTAAAACACACCTTGCCACGCCAGAGT
1 TATGTAATTAATGGGCCGGAGGGAGCAGCACACTTCCTGA
0.8074177615087542 GCAACTAAATGGCGTTACGGCACCATAACCCAACCCATTA
0.4249276768374252 GTAACTACAAAAAAGGCCTACATAACTCGGCAGCTTACCG
1 TACGCAACTGGCGTACCCTCGAAGTGAACAACCGCGCGCA
0.3919122007203788 TATGTAACTTAACACACATCACCTTTCACCCACCGCCATA
1 TATGCAACGACAAGTACCAGAACGAATCGAACCGTGCTTC
1 TATCTAATGACTGCTGGTATGTTTGCACAGAAGGCATAAC
0.2473528688895492 TATCACCAGAGTTATCTAACACGCTTCCTCAGCCCACGCG
0.1266360444904922 TATATAAGCGCATATTAATGAACTAACACGTAAACCTTCG
1 AACGCTTACGCGCCCAGATGCTTCGTTATCGACGCCCATT
0.8119003100543557 AACACTACGCTTCGTAATACTAATGTTACAAGCATAACTC
1 TATGTCAGCCCCCACTAGCGCAATTACCGAATACAACCAC
1 TGCGCAATCTTCCCCAACCTCCCGTGGTTGTCCCTCCCCA
0.5969901122083602 GTTACGAAATACGCAGATCCGGCGCCGTCACACAGTGCAA
0.9742951852780228 TATACAACACCCCCACCTAGTAACCCAGAGCCTACCCCGC
0.06026832798474193 TACGCAATTCCACCATGGCAGTACTGAGATTCAAATACAC
1 CAAATGCAGATAGGCGGATGCTAGATTGCCCCTTACGTCA
1 AATAATAAGACCTTTTGCCTCGCTAACACCAGTCCGACTG
1 TGGAGGCCTCAATCCCCCTCTTCCGAGATTGTTTACGCAA
0.4895956620165255 GAAACCAGCTCCCTGCGCCAAACGAGCCAATCTTACATAA
1 TATATAACTACCGATAATCCGATCTTCTAACTCATGGCCA
0.952502326888013 ACGTAACAGGGTTGTTGCGACCACATTGAACGACTGCGCC
0.6713111746749164 TCACGATAGCTGTGAGAAGTCACATGTCGTCGTGACGTAC
0.6024848324997685 TGCGTAACCAACCCGCCTTCACCCCTGCGCCAACCCAATC
0.2484499108365886 TACATAAGCCATGCCATGGATACCATCAGGGACTAGTCGC
0.8819096738735399 TACATCACCAGCACGCAAATCCCATCAATGCTGCTTAGCA
0.6917279487713028 TATGCAACGCATGGGTCGAAGTTGACGTTATACTTCCTTA
0.7560661847623952 CCCCACTACCGCAAACTGACCTTACCCCGCTTGCGTAACC
0.9211460591338849 CTCCACTTACAAAACCAACAACACCATCCCTGGGTGCACA
0.1746040123055965 CCCGAGGGGCCCAGACCAAGATTAACGTATACGTAATACT
1 TACGAAACCGGACCAGCAACACCTTGTCCTGTTTCAGTAC
0.6636232580417375 GGGAAAACCAAGCTGCGTTGNGTAACAGTGGCAGCCTTAA
1 TACGCAACCTGACTCTCCTGCCTCCGCTCGCACGCCACTA
1 AGCACTGCAGCACCACCCTCGGCAAGCCTCGTTGCGCAAC
1 AATCACCGGCACCAAGGCCCACGATCAAGCATAACCACCT
0.5353436252862387 TACGTAACGTTCAGCGGCTGGGCATTGCCACCCGCAATAT
1 AGCCCAGCTGCTAGTATTACTGCTAGGCAATTGGATAATC
1 AACATCATAACGCTTACTCCCATATGTCACGACCCCACCA
1 TATATAATGGCTAAACTCAGGTAGAGGGCCACACTAAGGT
0.05928873756755836 TTACGCAACAACAGTCCGCCCGTTTGGTATATACTTTAAG
1 AACCCCCGGTATACGATAGCTCAACCGTAAGATACCTTCC
0.9689932967031374 AATCCCAAAGCGATACGTAAGTAGCCAGCGTTGCCTCGAA
1 TGCATAACATCGAACCCACCCCAAAACATCACATCCGCAG
1 CTTATATAAAACCCAATGTCATCTCCACACCCGACAGTGC
1 TACGTCAGCAACGGAATGGACTAAACCTAACGCACCCAGC
0.44219979261563 ATAGCCATAACTTACACGTAATCTAAATTGCGTCCGTGTC
1 CCGAGCTGACAACGAGTTACCTCAACAACACAGCCAGGAC
0.7383733893568625 GGCATGACATCAGATCCCTAATCTTACATACAACCTAATC
1 ATGACCAGTCCTGTTTATGAACTAACAGGACCAGCAGAAC
1 GACTCACGTCGCGCTCACCGGCTAACGTACCATACGTAAT
1 TGATCTATGGTATAATCCCTCCATTACCGCGATAAGCGTT
0.07494288174133595 AATGATGTAATACACCCCCACTTGGCCTCCTTAGCAGCAG
0.07419626884900794 GACGTAATGCACTGACCAGAACATTGCTCTGTGGCACCTG
1 GTTGCATAACCTCCCTACAAATCACCCCGTCCCTCCTCCG
1 TATATAATTGGCAGCCACCCTATCGCGTTGACGACACATA
1 AAGCCGTCCCCCTCCCATGAACCTGCATAAACCACACGAC
1 ACCCTCCCAAAATCGTAACGCCGCAGGAGGTTTGCATAAT
1 AATCACGGCTCCCCTCCGGAATCCGCTACGCCGAGCCATC
0.8193920970262591 ATATAACTACCGAACAACAATTACCGAATACCGTACCGTG
1 AATACGGAATTAGTTAGTCAACAGCGGAGCGCGGGACATC
1 TGCGTATGCGGCATACACTGGGCTTTTGCGTTATTCAACA
1 TACGTCACACCTCACTCCAGATTTACTGAATGTACACCGA
0.05241683756366299 GCCGTGATGGCGTAACCACGCAGGCGCATTGACGCCCAGC
1 AATGCCATCGATTTCACACGCAAGAGTAAAAAGTGCGAGT
1 TACGTCACCCCCTCCCCTTCAAGTCTCGCTCCCGACTCAA
0.8781318330192779 GCGCCACGTTCCACAGTTACTTAATGACCGGGCTCATACG
1 CATTAACCGAAAACAACTTGCCTAACCCCACGCCCCCAAG
1 GACATAACAGCCGCACCTCAAGCCCATTTTCCGCCCCCAT
1 TACATCACAAGCTGATGGCCAGCGTGTTCGCCCACGCGCC
1 AATGTGACATTCCTGTAATCCGGTCCCCAACGCCTTATTC
0.2064336898132712 GGTTAGGTAACGAGCGACAGCGCGTAGCAAACAGAGTTGG
0.1262837160151703 GGGGCGATTCGGAGGTAACCACAATTACGAGTGTTATGAC
0.439724602348516 CATCGATATTACTGCATCACGCAGGTCGTCACATGACCCA
1 ACGACCGCGACCGACCCACTTCCTGCCCCTATTACACAAT
0.1875104105507558 ACTACGCCACCACGCGGAATTTTTGAGGCCTTACGCAACC
0.1333998665708395 GACGTAATAGCGCGCTATAACATAAGAACGGCGCGCTTCC
0.7031041738665996 TACGTCATTCTCCGACTGGATGCCTCGCTAGTACACGACT
0.2225465442277753 TACGTCATGACATCACTCCTCACCAAGGTCGACGAGCCGA
1 TACCTAACGATGGGCTACCATGCCATTAACCACCTGCTGA
1 TGCGTAACCCGTCCCTGCCACCACCAAACGCCGCGACCCC
1 TATATAAATGGGCTCGGAGCTGGACTGTTGATAAACATAG
1 CGAGCGTTGGTTCCCAACGGTAACATCCACTACGTAAAAA
1 TACACTCCGAAGCTACGCACGCTAGACTGAGTACCGTCAC
1 AGAGCCACCACCTCCCCTTTAAAGGGGGCGTACCACATAA
0.5399010744336501 TTACAGCTTATCCGTGCATGTGATGCAATAAGGACAGCTG
0.3669152638605132 TGCGTAAAGTAAGACGTTATGTTCGGCCGTCCTCAACACG
1 AACAACAGCAGAAGCACTGCTAACTCGAACTACCCCTCCC
0.847232623583617 CAACATTACGTGGACGCTGTATGATTGAGCATGCGGAACC
1 ACCCACCTGAAACAGGATGCGGATGTACCGTTGACTCCCC
1 AATAACTCAACGGAATTCTGACAATTTTATAAGTATGCAC
0.9456609261799678 GACGTAACAGGAATACCCCTGCCGCGCAAAGCGCGCCAAG
1 TACGTAAAGATTGGGCGGGACGGTTCACTACTACTGCCAC
0.7581260048596117 AACTTGTAGGTAACACATTGCGTTAAACCAAGACCATTAC
1 AATCCGAATTGACTGCCACGCAATGATGCAGCCCCGGACG
1 AACTGCACGGAATCATGTAACCCGCGCACTCCGGGGTTAC
1 AACCGCGTATACCTAACGAGACACAGTACCATGACACCCA
0.9346015565082461 GGTTACGAAACATCCAAAGGACCAGCCTGCATTCGTGGAG
1 CACTGACATAACTTGTTCGTAGAGCTGGCTCCATGCTCAA
0.1153779569655989 CATGACGCAACAGCCACATACCACTTTAGTCGAGTAGCTT
0.3800321996167086 GAGTTATATCATACAACCTCGTATCGTACAGATGGATGGT
0.4739312377925059 ATGCTTCCCGCGTGCCCGCCAGTTAGATAACGCCGGACCT
0.06426513583249453 TTGAGAATGAAGCTGACATACCGTTGCGCAATTAAACTCC
0.06876049044889994 TGCGTAATGTCACTCTACACAGTAGCCGAGAGAGGCAGAA
1 CCTATGCCCCGTTCAATTTGCCATTCACCACTTACATCAT
0.7394638965825883 CGTCGCAATCCTGTTAGCAGTCCATTACGCACCACCTTGA
0.992405407999403 GACGCAATCCCCGGCCCACGAACGTTCTGTGCCACCCACA
0.1100096711446988 TGATTACACAAGCACCGATGCACCACCCCCTGACCTAGTC
1 TGCATAACCACCACACCCGTGCCGCCCGTGGCACGCTTGC
0.9159174357763 TATCAATTCGCAGATAATGCAGTTAACTAACATAAAAAAT
1 GACCGCAATAACGTGTCAAGCGCATAATGAAAAATGACCG
0.2903394153499557 GACATAACACGGTCCGCCTCATGCCGCAGTCGGTTACCTC
1 TACATCACCTCTTACCCTCCAGACGTCAACAGGCACCACC
1 GCTACGCGCGATCCACCTGGCACAGCTACTCTGACGTAAC
1 AACACCTGCATTCCTAATAATTTAGGCCAAGACTTACGGG
1 TATTATTCAACCTTTTGCAGTCCCCGGCGGCCGGTAGGAC
1 TACCTAATCCCCCACGCCTCCCACGTTGCACCTGCGCGAA
0.3221120737011537 TATATAACGGATTACCTGTGTTGATCATCTAAAGACATAG
0.8618366223144628 AATCATGTTGCCTAACCACGGGTTATAGCAACCCTAACCT
0.1952032425747346 TACATCATAAGGGATATGTCAGCTGCGCATATAATCAACA
1 CACATAATCACAAGGCCGCGCCCCCCAAACAACCATACTC
1 ATACAACTCACAGTACGAACGTAATTCCCCAGTGCACGGT
0.4464187254219964 TATGCAACAGGTAGCTAACAGAATCTGGGGAGACAATAAT
0.9886878505522265 TGCATAACGATCAACCCTTGCTCCCCTCTGCATCGTAACT
1 TACGTCAACAGGGGATCCAACATTAAAACGTTCCCACGTA
0.1022394591668237 TATACCAACAGGTGACCCTTGTTCCGTAACTATCATGACC
1 TACCCCTTTACATCGCTAATACGATTATATGCGATTGTGA
1 ATTATGACCTTATCTTTTGCGACGATCCCAACATAACCAT
0.5015052250757728 TATCTACATACCAATTACGCCATCAACTGTCCGCCCTGAT
0.3333317392323515 GTTTACGTAAAAAGTTACCAACTAGGCAAGTCCGAATGAA
1 AAGCCGACCACCGCTTTATGAGAGCGCATAACTGAGCAGC
1 TACTTAACATGAAGTAAGCTTTGTGGTGCGCTCAGGACCG
0.9853955346292596 TAGGCAAATACTACCTAATACCGAAGACAACCCTCAACTG
1 CGGTATGGCATGGATACGCTCACGACGGTATATTACCTAA
0.8172068080464786 TGCCTATCTACGATAGTTCACATCCGTGTATTTACATAAC
1 TACGTCATGACACAGATCTGTGTGAACCGCCCATGCCCCA
1 TACGTCACATGGCACTCAGCTGTGCACCCTATTCGATACA
0.5640893951412865 TGCGCAACAGCCTGTCTGTCACTTATTGAGGCACTTCAGC
1 TACTCAATGCCTTTACCCCCTAGCATTACGCTTGTTACTC
0.7294533517397269 AAGCGATGTTCTATAACTGTGATACCATCCTATGCAAGAC
0.245489697230998 AAGCAATCACCACCTAAGCCGACTTACGACACACAACGAC
1 TACTTAACTACCACTCCCACGCGAGGAAAAGACCATCCGG
1 TTCATAATGACACTCTCCACTGCCACGTACATGCCCGCGC
0.2129727648493599 TTACATAAGCATTCGTCCAAAGATCTAGCTTAACGCGTTT
0.526046610330419 TTACGTCATGAAAGACACGTAGCACAGCATCGCTACCTCG
1 TCCCATAACTAAACATACGCCCTCTCCGTCTTTTGTTACG
1 TTCAGTCAGCAATAACATTATGGTAACCAGCCTGCACCGC
0.04568152311960225 TGCATAACCGTCCACGATACATTCCACAGAATGGATTCTG
1 AACAAATACCAGTCTCGATATAACCGCTACAGGTATTCCT
0.5431502374799709 ATCTACGAACCTCCTGATGTTGATACAATGATATAATAGA
0.459945875113258 CCACCCACTACGTGTTTTGACACCCCCTGTACGTAATCCC
0.2300177323182223 TACGCAACCCCTGCCTGACCACGCTGTCATGCGCGGCCCC
0.5587460873032537 TACGAAACCGCGTTCCCCACGTAATAACCACTACGCATCT
1 AATACCCGGCACATCGTAAACATCGACAGCCAACTACGCT
1 AACTGACGCAGAACATAAGACTTATGATCATGTATTCTTG
0.7795966698235604 TGCGTAAGAAACCTCTTGCTTCATACCTACTAGACTTCTA
1 AATCAAAACACCCCAGCCTGCTTACCAAATGCCTACCCAC
0.9285742387379908 TACACAACGATCGAACGCTCACACATTCAACATCATAACA
1 CACCGGTCTGAAACTACCGTAGATATAAGCGACGCGACTT
1 AATCAACATAACAGCCGTACTCGCCAGCCCCTCTCCTTTC
1 AATGACGGCCACGAACCTGCCCTCTTACCAATCAACACCT
0.2967046496968967 GTCCAGGGGCACTCCTCATTACATGATAATATTACAAATC
0.004036447944423036 TACATAACGCTCCAACCTTTCCCGTTACCCTTCACAGGGC
0.05090975575984266 AAACCGCGTGTCATGACACACTGCGCGTCCTCTTGCATAA
1 TACATAAGGAGGCCTACCCCCCACCGCCCTACCCGTACTT
1 TACATCATGAATCCATCTCAGCTCCCCGCCTTCGAGCTAA
0.4456773601745485 GCAGATAGGAACAGACATACACCTAGATTATCTAAGAAGC
0.172776699633233 TGATGACCCTGCTCCCTGTAAGTTAATATTACGTGATCCC
1 TATGCAAACCACTGACTATTCCCGATTACCGTCGCACCCT
0.6628284679124774 GACATCACCTCGCTTATACACGAATTCCCACGTAATACAA
0.6231980946118756 TACGATGATAACAGTATTCTCCATAACACCCACTGTGGTT
0.8870359122803992 ACACCTGCGTAACTAATGCGTATTATTGGCAAACCTTCCC
0.004757632385224311 AGAGAACAATACATAACGAAACACCAGACACAGCATTATA
1 GACGTAATCTCTTGTGCACGGCACTTGAAGCGAGTCACCA
1 TCCACCCTAGGGACCCCGACCTACACTGACTCTTACGTCA
1 AAATTACAACATGACCACATCGATGTGACGACAAAGGTTG
1 AACACAAGGTGTTTTGCGACCTGCATCCTTGTATGCCATG
0.1038772570347055 GACTTAGTCCTAACGAGCGATGCGCGTAAGGGTTATATAA
1 CGCCCCCCGAGCACTGCACGCTCAAGGCGTACTTACCTAA
0.07398913869096259 ACCCGCCGTCAATGGGCCGCCATCGGGAGTGATGTAATCT
0.8684333398552647 CCAAATCCCGTGGTGTCGAAATTACATCGTGTTGCGTGCC
1 TACATAAACGCGCCAACGGTAATGAGCCCTCATTTAACTC
0.8287781845457356 TACCTAACGTCGATCCTTGGTCATCACCTCAGCGCCCGCC
1 TACGTAAGTGCTCGAGCTCTTAATGCTTGCTCTCCCAGCC
1 CATGCATAAAACTTACACAAAAGGTTCGACACTACTTCCA
0.4733587101602362 ACCCTTACACAATATTCCTATCCTCGCTGCGGACTTAACT
0.3878575077774676 TCGCGCCCGTAAAACGGGGGACCACAAGCGCGTTATGCAA
1 TACCACATAGACGTGTTGTTGATCATGAACCAGGGATTTG
1 TGCATAAGCTGGCAACCAAGCCTCTCGCAGCCCTCACTAC
0.06184914153923474 TGCGTAACGATGCACCTTGACGATGCCTCAGGCTCACTGA
0.6038228996382705 TACATCATGCATTTACGATTATGATACCGCCTACGTACTT
0.8202804945157518 GACGTAATAGTTAAAACAGCACGATGATCAATTGGCATTT
0.3848360320074991 ACCACGTTAGCCTGCCCGGCGTAACGCCGCTACATAACTT
0.8830553953823245 TACCGAGAGCAAGCTGTCCTCAGTCCAAGTCATTACGTAG
0.3736159296710715 AAATCTGCGGACCGCAGGCAGACGTAATGCACACCATCTA
1 GTTAAAAACTGATTCTATGCGTAACGTTGTCGGTGCATAA
0.8532333940695668 GACGCAACTAGGACTGCAACAACACACGTAGCGTTTGTGA
1 TACACAATGGGACGGCGGCAGAACATAGTCGACACTCGCA
1 ACCGCTCGATCCTCCGCTCGGTCGGGAGGACTTTGCGTAA
0.4227555625831971 CACTGCCCGCCCACGTAATCCGATCCAGAGCGGTTAGAAC
0.2714361059980405 GCGTCAATCACGGCCTTTGGCGACATTCTAGATTACGCAA
0.7242729199132458 CCAATGCCAAGTTTTATAACCTAACCCTGAAGCAGTGTTC
1 GACGTAAGTAACGCCCACAAACGCGTGGCATCTCACCCCA
1 CCACCTACTGGTTCAAAATAAGGACAAACCCCACCTTCAC
0.2927335267898387 AATACCTTCCTGAGTACGGTGCAAGGCCTGACGTCATGCT
1 TAAAGTTCCACCAATAAGAAAACCCCCTTCCGCAACTAGC
1 CACGTAACCTCTGACACAAACGCCCTGTGCCATGGCCTGA
0.227805601453043 ACGTAATTGCTCTACCTACACACAACACGTCATCACTCAT
1 ACCCGTAGACCCATCCGAGGCTACACCCAATCTTACATAA
0.4804681579650041 CTATTATACAAAAGAATGCTCCCATGCAATAAGACGTCCG
0.6689672609047144 AACGTGATCTTCTTTAGCTGAGCCTAACGATTACGTGCAA
0.009946014954936114 CTGATATTATGTCATCCCGGATGTCGACTGAAAGGAAATT
0.1663350281696649 GAGACGCGATGACGCAAGCCTCAAGCTCCTTGCCTCTTCT
1 TACATCACAGATACTCACCAGCGATCCGACCAGAGCCGAT
0.6125181767575911 AACAAGCGGTAATTGTTTACTTAAGCACGGACGAATCACG
1 CACACCGAACTACATAAATACCACCCCGCTCTCACGGGAT
1 GCTGGCGTCCATCCAACGGCGAGCTCCCCTTATCACCCAA
0.3812010471987787 CAGTCCCGGACCGCAATGTTCCTACCATCATTACGAAACA
0.2520637501679822 CAATGACGCAACCGCCCAAATCAGCACGGCGAACCCCTTC
1 TATGACGTGTCCACGAATGATTCGGTAATCCGAGCACGGG
1 TCGCACAGCCACACACTATGATGCAACGAGCAACCCATTT
0.0902004209133416 TCGCTTACACAATAGACCCAGCTGATAACTTCTGTATTCT
0.8697776773349337 ATCCAGACCGCAACAATCACCCAATGGGCACATTACCTAA
0.1048870870883407 TATGCAAACTTTGAAAAAGATGGATGACGTCATTGACATG
1 AGCCCGTTGCTGCTTAGCCAACATCCGCCCTGTTCCCGAA
1 TACATATTACCAGACAGCTGAGAGCATAAGCAACCGTCAT
0.5472551173744522 CTGCTCACCCCGCACCAGCCACTGTAGCTTATTACATAAA
1 ATGTTACGAAATTGACACCAGGCGAGCTACAGTACGCATT
0.7171445466557557 GATGCTATGAAACGCATAACACCCAAGCACCAACCCGTTA
1 TACCGCACATTATAATTTGGTAATAATGTCGGTGCATGTA
1 TGCGTAAACATCTTTAATAATGAATTAATCACTCGACTGC
0.7206927316641344 TACGCAACCAAGACGCGCCCTCTTCACATGAAACGGAACC
1 AACACCAGAGAGCTTTCCGCTGCTCCACCGGTTTCGTAAT
1 GACGCAATCCACCAAGCGATGCTTGACTGTTCCCCTCCTA
0.3172804063532545 AACTCGAGCCCCAATGACGTCATGTGTATGATGCTGTGTC
0.8679146919529073 AATGCCCAGACAGCAAGGTTAGACACGTAACGGATTTCTA
1 AATATGTATGCTTCGGCTGCATATTACATTGCGCCGTTGC
1 TACCCTATGCACACTTGCCCCCGTAATACAACAATGTATA
1 GCCAGCCCTGTTACATGGGACATCGTTAATCGTTCTGCAC
1 TATGTAAGAGGAACATCATTTAATATTGATCCCCCAACTC
1 TACACAACAAAGGAAGAAGCATGCACCCCGGCGCGTACCA
0.7436529857542369 ATCGGGCTTAAGCAGAGAACGAACACGTCGAATTACATAA
1 AAGCGAACATGACACCTCAACACGCAGTCCCCTCCTACCC
1 TATACAACAATCCAGCGCGATCGCAGGACACAGGCCATCC
0.8467895019664956 TGCGTAACCCCCGGCGGACCAATCCACGCACCACATCCCT
1 GTGTTACTTATAGGCCCTTACGACTAACACTCCACGGAAC
1 TTTACCGTCATGGCAACACCCACCAAGTAAATTGCGCAAC
0.5182004109507358 TGCATAACTACAGTCTCGAGCTAATGCATTGGCCAAATCA
1 CGGCGCGAATGCAGTATAAGAATAGCGCATGTTGTAATAA
0.5714056468063852 TATACAACACCTACTACCCATTTCACCCAACCTCCTGATA
0.5638682492362023 ACACCCGCAACATTATGCAAAGCATATAGCCCCTGCCTAA
1 TACAAGTGCCGCTGCCCCACCTGATTCACACCTAGTATCC
0.7533250934364223 TACATAACCTACCACACGACTTGGGCCGCGCGAGCGGTAC
1 ACCCGAAAGCAACACGCGGATTGATTACGGTAACACACCG
1 TACGCAAGCCCATCACGACCACAGACCATCTCACCACTCC
0.05315171146215669 ATCAATTACCAATGCTCGATCCACGGTAAATATTGCGTAA
0.7964371698560089 TATGTAAGACCGGCACGTTCTCCATCACTACGCTTTGCAT
0.1893800677942411 TACGCAATACCTAAGGCTTTTACGCTTAAGATGCTACCAT
0.08906687370506783 TACATAATCCGTGCCTACCCGCGTCGCAACCGACGAGGCC
1 TGCATCACACACTAAAGCATGTCATCGTGCAACACCCTAA
1 CACCACACCCAAGAATGTTTAACTACTCTCGTTATTAAAG
1 TCTTTCATAAACTTATTGCACGGGCTAAGGTATTCCGCCT
1 GACGACCCTACTTGCCGTAAACAGTATCGCGCGTAAGACT
0.1634925978293475 CCCCCCATGGTCGACCATATACGCAACCCGATTTATATAA
1 TTCGTAACAAAACGTATCACCCCCATTCACTGCTCGATTA
1 ACCCAGTCATAAAGAATAAGTTGAGCGGCTAGTTCCGTAA
1 ATGAACCACGCACACGGTTACAATAAACTGGTTAGATCAT
0.4242277822023147 GACGCAGTGAGGTTGTCCAGACGACAATAATACGTAATGA
1 TATGAAACAGGAGAGGTCAGCCTCACTCAATTCGCGTCCT
0.8694517280261437 AGGCCCCGATTACATTGTAACGCATTGCCCCTCGTGCCAA
0.3513529939076867 TTCACCATTGCGACAATTATAAAACCCACCTTCCTCGCAC
1 AATGACTATGCCAATTTCGCTTCACATGTATGACTTGTCA
0.7198532383233965 TGCGCGACCACGATGCGCGTTAATTGCGCTGCTTACGCAA
1 TACATAATGTGGGACGAACGCTGTCCCACCCGACCTCCCC
1 TATGCAACGGTCACCGTATGCTCCCCAGGTTACCGGTATA
0.666530396619768 TATGTAACCACAATCAATCCGCGGGATCGCACGCTTTGAC
1 ACTCCAGCATTCTGATTAAAAAACACGTTAGGGCTTAACA
1 CACAGCATTGTGCATATAACAAACATCAAGGATGACACTG
1 ACTGCAACCACACATTACAGCATGCCCAGACCATATAACT
0.01462984943536393 CACGTAACAAGCTATTACCCACCAATGCGCCTATGGGACC
1 TGCGTAACCGACGTCTTCCTAACACGCCCAGCGGACGACG
0.2635072874159161 GACGTAACCACGCATCATACTCCCTCAAACGCGACACCAC
0.1175632156796418 ATGACGTTTATATAAACGTTACAACCTCAGCCTGCCTGTG
1 TGCGTAAGACCAGCTTTATTGAAGCGCGACTATCGAAACG
1 TATGTAAGATCCGCCACTTTCCGGGTAAGAATAGCCCACA
0.5282251549498779 CACGCTAGAACATGGACAATTCTACACACGTCTTATGTAA
0.820952242806438 TCGCATAACCCACTTTCGCCCCCGCCTGTATTCCATAATT
0.907222380799352 GACCCAACATTTATATTACGCCAATGGTTCCTTATAATTA
0.5101322041160071 TATATCACCTAATTACGCAGGGAGATCGGCTGAACGACAC
1 CAAGGCGTTGATCTTGCATCACGCCTGCAACTTAATATAT
0.1242653916777506 TTCGCCGCCGTGACGCAACCATGAGAAAACGTTACAGCGC
1 AAACCTCCGTAATGCGATAACATAGAAACTATCGCCTCCC
1 ACTTACCAAGCGAACAATATAACTTATTTCACCCTTCCTT
0.1319652641900536 GCGTAACCACTTTTATAACGTGTTTAACCGAGATCGTCCT
1 GAGTAGAAGATGTGCGATAACTATTTGCACTCCTGTCCCC
0.8787496746575466 GTCAACGTACCTCCCCCGCATCCACCCGCTATTACACAAC
0.22296114028725 TGTAACCACAATTAGCGCTACACACAAACGCTTACGTCAC
1 TACGCAAGCACTCTTGTCCACGGGTCATCCAGTGCCACTC
0.5707798656126809 GACGTAAGATCGCCTCATCACGGACAATTGTGCCAATCGT
0.8883958083520707 GACGTAACGATCACGCTCCCTGCTCTGTCCGCCCGGGCTA
1 TGCACAACACCCTGCGCCCCCAGCCCCCTGAGCAATCCGA
1 TGCATAATAAGTGCAGCATGGCCCCCAGCACCCTCCCCCT
1 TACGAAATAGCCCCTCGTACATACGCCCCCTCCCCGTTTC
1 TGTATAACCAATACAATCGCAACTCTATCGCTATCGCTTA
1 AATCTACACCGCGGTTACATTTGAACATCGGCAACTCCTC
1 AACACGTCCGAGACCCTATAACCGCGTCATTACCCGTACT
1 TATCACAAACCAAACATAGCGTTGAATAAGACAATAAAAC
1 TACATAAAGCCAGCCAACGACGCCTACCAGTAGCGCAGTA
1 GACCTAACATCCTAACACTTNCTTACAGCAAATAAACCTG
0.01710599506946346 ACAGCACGCGACCGGAGATTACATAGTTGTGCTGTTATGG
1 AATACTACGGACGACCAAGCTCACTCACACATTACCCACA
1 TACATAAGACTATAGAGTGGGCCTGCGCGAACGGACCCGG
0.660221767231248 TACGCAACACTGGTAGCGCCTACCCCATTCTACCTCCGTT
0.6224199796670341 AAACGGGTGTGATGCAACGCGCCTTGGCGTTTGCCAGGCC
0.7842744162426819 AGCAAGCACCCCACAACAACCACCAGTAGCGATGACATAA
0.6782406972462277 TACATAACAGTGCACGACACACTCCTGAAAAGCCAGAAGC
1 TCCGATGCGTAATGTTTACCAACCATGCCCCTTACCCCGC
1 TACATAAAGAGTCAATTCCCTCAAGCATGAAAACAAAAAG
1 CCCAACCTTTTAGGGCCATATAACTCTGCTTACGCGGTCC
1 TTCCAACTCCCTCCTCCCCAAGCCAGTATTGGTTACACAA
0.4469314232691204 AACACTAGTTATTATGTCGATGACGTCGAAACAAGGGCTT
0.540954720427933 AACAGTGCCACTATACCTCGTAACACACCAGGCACGCCCA
1 TACGTCACTCACTCACCCTAGACCAGCAGCCTTTCAGCCT
1 TATGCAACTAAAACCCACTACTGCGACCTAGGAAAACCCC
1 ATTACATCACCCTACCCCCACGAGATACATGTACCTCACC
1 TACCTAACGGACTTCTGTCCCGTCTAGATACTCCTTTGAC
0.961518200712031 GTTACATCAGAACTTAAGGTACAAACGAAACTAATGTTAC
1 AATAAAGCGTGGGCGTGTGCACCATATTCTCCGGCTAGTC
1 AACTGCGACGAGAACCCCAGTGACCCTTAGCTGGATAGTA
1 TACGTAAAATATCGCCCTGCGATATAACATCGATAAACTA
0.7339937205765203 TATCACTCGCCAACGCAAGTCGAGTCGCGTAATGTCACCC
1 TACCAGGTTACCAAAGAAAGATCCGCGTGCCTCCACCCGC
0.09975622929483836 AACTCCGTTCACGAAACGGTAACGTTACTTCATACTCTGA
1 TTATATAAGCTGCCAAAGTGGCGGACGCATATCTACGGGA
0.7638722032630348 AGTAACAGCGAGAACAGAAAAAATGTTACCCAATGAGGGG
0.5336685290552892 TGTGTTACCTAAACAGTCCCTTCAAAGGGGTGGACGCCAT
1 TTCATAAGCGGGTTCAAAGCCGTGTCCGTAACGCTACAGA
1 TACGTCACGGATATAGCTCCATCTGCGTCAACACCGCTAA
0.2531788549010693 TACATAAGCAACAGGCGGACCCCCGTCATTGCCCACTTGA
0.6806258981094535 GACGCAACACCACATGCCTCAGGCATAACAACGACAGACT
1 AAGACCATATGGACACTTGGAGACCAATTAATAAAAAAAG
0.9980447376056257 GTCATAATACTCTTAATCAACCCTATCCTACCCATCCCCG
1 AACAGCCAGAAGTGAGACATCCATTATAACACGAAGTAAA
0.3900149779969143 CTCAAGACCCACTCAGCATCACGTAGCGAAGTTACATCAC
0.7015995413404872 GACGTAACTGACCCACTAGGACCATTCCCCAAGAATCTTC
1 GGAAACCGTAACAAAGTGGATGTGTCACACTAACAAAACA
1 TACGTCAATACCCCCCAAACCGCCGATGTCACCTTCTAAC
1 TATTCAATAGCACACACCTTCCCACACTGGCTCTGCACGC
0.9644242627643245 TGCGTAATACGCCCCCTACTTAGTCCCGTCCCCGCACACT
0.9820660075220692 GACGTAACCTTGAACTCCCATAACCAAATTTGCCATTCCG
1 AACCAGGCCAACCGTGCGCGAGAGCTATAACCGGGGGAAT
1 AATGCCTAGCCACTTGGGTAGCCTTCGGCAAGCTCACTGA
1 TATAAGGTATGTCGCAGACTTTAGCTTCCGGCAGCAAATG
1 ATAACTTCCAAGAACTGCGCGACGGTCCGAATACGTAACA
1 GCCACTGACCCGGCAGTTGTGCAATAGAATACGCCAATGT
1 CCAAAGGATGTTGAGGGATTGACGAACGCGTAGTTGGACA
0.07383191306452599 TGGAGCCATATGACCCGTTACACAAGCTCTCAGCCCCTCC
0.7626528440893355 TACATAAGACGTGCCGGGGGCCATCGACTACAGGACGACT
0.7137446007925213 TACGTAATGTAGGTGCTAACCTGGCCAGAACTTTAAGCCA
1 TACCTAAATTGTACGTTCCATGTGAAGCAGGGCGTAACCT
1 AATAGGCATCCCCCTGCCGGTGCATCCAAAGATACCGCGC
1 GACGCAATCTCGCAACGCGCGCCGATCCTTAACCGTTGTG
0.4345485716277229 ACTGTAGATCGTAGTCGCCGTCCCGCTTTCGTAATACACA
1 TACATAAGCACACACAGCAATGTCGACCGCCCCACAACTC
0.5806185398228649 AATCAATTCCCCCAACACTTACGAAACCCCTCCTATCGCC
1 TAAATAAGCGCAGGGTCTCGCACTGCGGCGGTTCACGCAA
1 TCTCGTCGCCCATTACGAAAATGACGACCATCTACCTTAC
1 AATATACCAACCGCCAAATTTAGAGACGCAACGCGATCTG
0.6470833889983263 ATTGCGCAACGATTATTTCTTTTATACGTGGCACTGAGGG
1 ACTCGGGTACAGGAAAGACTCTGACGCAACATCTAAACCC
0.7685104742506766 GACGTAATGGGCCACCTCATTCGATCACATTCCACCCGGC
0.1738275627091153 AACACGAATCTCCTGTAACTTGGACTACGTAACCATCGGA
1 TGCGAATCTGTTCGTGCTAGGTGTAATGCATGACACATAA
1 TATCTAACAACCACCATCCTACAAAGCCGAAGTCGGCGTC
0.9797708887217682 TATGTAATCAACCGCGGGCACCGCTATCCGATAGAGCCCA
1 TGCATGCATAACCCCGCGCGCACCCTTGTGGAAGCGCCAC
1 TACGCAACTGGCTTTCCTTTTTCCATGGGCATGACTCGTT
1 TATATAAGAGATCTGGACGCCTCGACTACCCTTAAAAGTA
0.680304629891514 ACACTTAGCTCCTTCTCTTCATAACATTTGATTACGTTTC
0.1761228505765332 AAGAAACGGTACCGGATGACCATCGATGTTATAAAAGGGA
1 ATGACTACACGGCTAACATTGTTATCAAACTGTCCGACCG
1 TACGTAAACTGATTCTACTTTCTGATCAACGCTGCCGCGA
1 CAGATGACACAACACCGAGCCCAAAGGGAGATCGTGCCGG
0.05061651257206193 AGCTGCAGGTCTCCTAGAAGTCTACTATGCTTACATAAGC
1 GCCCGCGACAGCGTTGCGTACTACTAGGGTAACTGTCGTG
0.700121192240278 ATGTTATGTACGTGCCAATAGAGATTAATGACGTGATCAA
1 TATATAAATCCCCCATGCAGAGAGGCACATCAGACCGCCA
0.2007037798134253 GTGACGTAATGCTACTCTTTCTTTACTCTAGTGCGGATTT
1 AACTACGCACACCAGCCCCTTCCTTGTGATGCAACAATCG
0.4092723855441072 ACTTGCATAAGAGCACTCCATACCTAGTTCGGCGTCTGCT
0.04891641557620113 CTTTGCATAACGTTCGCCTTACAAGGGCGCAGGGTATTAG
0.8886345444644002 TTCATAACACCTTGATGACCGCGTGTATCATTGCGTCAAT
1 TACGTCATACGTGGTCGTATATTCCCACGGGAAGCTCCCC
1 CCCAACCCTCGACTTACAAAAGTCTTACCGCACACCAAAC
1 TGCGTCACTAAATTAAAATTTAGCTTATGCGCTCTTAAGG
1 TACATCATACGTACACGGCTAGGTGATTGGCCGTCCGGTA
1 TCAGTTCTGCAGCACAGCGAACATCTAAGGACTGACGTAA
1 AACGGCCGTTGACTACTCCCCCGAATGCAACCATAATACC
1 TAGATAACCCCAGTCTACCGGCGACAGGCATCTAGCTAGG
1 TACGTAAGTTCACCGATCTCTATCCCTCGATGCGTGAGGT
0.422338245978892 AGTTACGTCACGGCCAAAATAAGCCAACACGTTCACGCTC
1 TATGAGGTGGCAGCAAGACTCCGTAAGCTAGTACCCGTCT
0.8114433646523985 GCCATGACAATGATTCGAATGGCAACAGCACGTTGCGTAA
1 TACGCAACGGACACCACCGCCGCCAAGCTCATGCGTTGAA
1 TGAATGTTGGATAAGCGCATACCTCGGCTTGGACAAGCAA
0.3642491515478474 AACCAAGAATTGGAACCAGAAGCGGACTGTATTATATAAA
0.09456804089141524 CTTACATAAGATAGTGATATTCTACTGGGATAGCGCTTTA
1 GGACATGTGCTCTTCGCAACCCGTCCATGGCGATGGAACT
1 GCACACCAGTAAGAACAACCATAGACGCACACGTTAACCT
0.7876907950581005 ATTATACCACACTGTGCAACGTCACCGATGCGATACGTAA
1 TTCGTAACCAGGGCAAGCGCAACTCTTTAACCACCCAGAT
0.5081315887558634 AAGAACACTGATGCAATTTCCGCATGCCATCGCTTAGTAA
1 TGCATAAGAGCTATTCCCTCAACCCCATACCGGGCTACAC
0.8596994508135206 TATATAACCCCGAACCGTGCAAACAGGAAGTCATTCCCAC
0.7207590871549087 CACATAACACTACGTAGCTCCTTCACCGACGTGCCCTCAT
1 AACTCTCGGGAGGATAGCATTTGCTAACCCATGAGCGGAT
0.7238439379329406 AATCTTTAGTCCGCAAAATGTCGGCAGATCTATTGCGTAA
1 TATCTAACGTACGGGACCCCAACGCCACAACTCGAGATTA
1 CCAACCTCGCCGTACGCAGTTTACGCGCACTACACGTGCC
0.7523662953229431 AGCGGACTGCTTAACAATAGCCCTCGCATAATAGTTCGAC
1 TACGTCAAACGCGCCCCCACATTTAGTAACGAAATATGCG
0.7426010705720847 TTCACACCATTCACTTCCAATAATCCTGTAGATTATATAA
0.2772785420246868 GAACTGCATTCACCATCCAAGCACTCCTCTTATCTAACCA
0.08948953636532007 CACTGTGTTACGTCCCCCAGACGCGCGCCGGCCCTAAACA
0.4987932213704898 TACGTCATAACCACACCCTCCGGAATATGGACTGGCTCCT
0.02280120053190985 AAAACATACGTAATGAACGAGGCCAATTGTCTTAGCACCC
1 TGCATAACGAGCGCCTCCATACCCCAAACTTACCACTCCC
0.8769381762499318 TACGTCAATGCAACGGTGACCAGAACTTGCATACTAGGGG
0.01243304071432838 TGAATCATCATTCAACAACCCCACTGAGATTACGCATTGC
0.1623714540566731 TCCCTCATTGACCGCATATCTAAGCACCAATGACATAACA
1 TGCCCGCACCGTTGCCCCTATGAAGAGAGAATGTCGTAAT
1 TAGCGAGGCAGGGCGCATAACTAGCGGTGTAACACCAACA
1 TGTGTAATAAGTCTTGAGCTCAAGTGAGCTTGTTTGACTT
0.1289776288362346 CTACATAACCGCCCCCCTCACCGTGCTCGCTAACCGGCTG
0.3845801224717768 TGCATAATCCGTACATCAGCCGGCCTAATACACTCCCACT
1 TCGTCCATGGTTGTATCCAGAGTCATAATGATACGACATC
0.9984619602801509 AGTCGGTACTGTAATGATTATCGAACACTATACTCGATTA
1 TATACAACACGAGCCTTTAGCCTTGACCGCTAGACCCATG
1 GACATAATACTCTACACACTACTCATCCACGGGCTACAGT
0.9447889797200547 TACGTCATCCTAAGCAGCCTGTCTACCTTTCCGGTTCAGA
1 TATGCAACAGGTCCCCCATCCCAGCCAGACCCGCGACGCC
1 TGCGTAACTCGCAGGACTACTATCCCGGACTCTCTGCTAC
0.7647016785346977 TACGTCACATAGCACTACCTACACGACACCGTCATAGCGC
0.05360207448332156 CCGATACAAACAGCCCCTCCCATCCAATGTGTTACATCAC
1 ATACCACGCGTTCGCCGATATCGCAGTACACATTAGATAA
0.3095597935648075 TACATAACGTTTCTCACGCGGCTCCGTCGCTCGCCCCTGG
1 TATGTCACGCAGGAAACCTCATGTCGCTGGGCACAAACTT
0.1626101483880778 ACCAGTACCCTTACCTAATTATTATCTGAATCGCTTACTA
0.8864308638835885 TATGCAACAACGTCGCCCTTTCACCGGTGGTTTAGCATGC
0.8595279550914545 TATATAATAGGTGAGTACGCCCCAGAATCCTCGGATAGAG
0.6430656369411367 TATGCAACCGTAGTACGCTATGGACGTGATGAAGTTATCA
1 AACCTAGTGCGTCAAGTAACCGCGAACCGACCCACAGCTT
1 TATACAACCCCCTACTCCTAAGCATTAAGATCCTTCGCGT
0.8895879773214 TCCACCGCAATCTGACGCTAACTCTAGGCCACTTATGTAA
0.8332751215829636 AGAACACGCCCCTGCATAACAAGCCATACGCGGCGCTTAT
1 TACATAAATGCTGCCACTAGTAAACATATATTGAGCAACC
1 CCAAGTGCCCGCGTAAAAATGAACCTCCCTTCATGCCATG
1 AAGGTTTTATTAGCTCATGTCTTAGACCCTTGCCCCCGTG
0.1758231639814111 CACCCGGCACTCACGTAACGATAAACACAACCATCTCATC
1 TACAGCTCGCGCTAAAAGCGTTTGGCTTGGATTACCTAAC
1 TACCTAATACGGGTTTATGAGCAGCTAAAATTTCAGTTCA
1 ATTACCCAATCTGACATTCCGTCCTTGCACCAGAGCAAAC
1 GACGTGTAACCATCATCCAGGTTGCCCACGACTTACCGAA
1 TACGTCAGGCAGATTGAGCAGGACTAGTGCACCTGGGGCA
1 TACATAATAAGGACCCGATCAATGGCTACCGATCAAGTGA
1 AGACCTAATGTGATTTTCGCGATATCCAATTATTGGATAA
1 TATGCAATTGTGACTACGGCCACCCAGACAAGCGACCTAT
1 GTCCCGCCGTAGCACCCCGCCTCTTATAAAACGAGCTACA
0.8842444635173227 AATAACGCAACCATCAAATTAAATCACCATGGCATAAACG
1 ACCCTGACAACTGCACAATGCATCCTGATTCTGTAACCTT
0.8719609872356109 TAAATAATCATAATTGCGATTAACTGCCGGCGTAAGCCAC
1 AGCGGGTAAACCCTTACCACACCCGCATACCATTATACAA
1 TATACCCGGCTACCCCCGATAACACGTAGGATTATACAAT
1 AAAGAATGTTAGATCGGATAAGGTAACAGTAGGCGTAATT
0.6264532799145855 TACACAACAAGCATATTATCACACGAACTGGGAGTTTAAC
0.5612222873052966 GGCAACGACAAGCACCAAGAGACCCTTGTATACGTAATCG
0.1538325687760966 CCCTGCACACGCAATTGAGATTGAGTTACGTCCCAATGCC
1 GTCCCTGCTTGTCTCCTCGCAATCACGGGACATTTCGTAA
1 TTAGCTAATCAAACGGGCAGTGGCTACTCCAAGCTTATTA
0.2455309353581615 CAAAGCCCTTATGTCACGTGAGCGCGGCGAACACGGTCGG
1 GCGCGCGAACGTCTTGTGACCTACCTACACCTTTTATAAT
1 AACGCCGTGTCCTCCGTCAGTCTACACCACGCCCACGTAA
1 AAAGGTTCATGGATGCGCGCCGGCCTGAGGTGCCGTTACG
0.9151472413880395 TGACATGAAAGCACGTTCAACACCAAGATAATTTACGTAA
0.1237162551689368 ATCGCACATGTAATCCCGTCAACCTTGCACAACTATATGG
0.2791310877704459 GCGGTACCTGTGGAATCAGGAGAAGTCATTAAGTAACTAG
0.6228151484539751 CTACAGCCTTAGTATGCTTGAGTCTAAGCTTACGAAACAA
0.8343731411907648 GGGCCGTTATCTCGCGCTGTCCCGCTCACATAACGTTCAC
0.1125932600925446 GACGCAATAACACAGCACGTTACGAGAGAGAACGCACCTA
0.7122647041588533 TGCCATATACCTTGCCCTGATTTTTCATAACAAGAACTCA
0.7539501292202931 GACAACCACCATACAGCAATACCAACACCATTATGCAACC
0.6321744890678492 TGGGCGCAGTTACCCAATACTAACGAGGCTCCCCACCACT
0.1981229139316916 GCCAAAATGCAGTGCTTATACAACAGCTCCATACACCAGG
1 AACACCCACACATCCCAATAATGCGATTAGCTACAGCCTC
1 TGGCCAAAACACTATAGGCACTTTGGGGGCTTGCATAACC
1 TAAGCGACGGAGAAGTTTACCTCATAATCCAACAAGTCCT
1 AGCTTATAATTGTGGCTCGCATTATCAAATTTACCCCTTT
0.8085302698532043 AATTCTCACTAAACACCTACTGCATCCTCTTAGATAACAG
0.8468114791933551 TACGTAATTCCCCAAGCATTCCCGACGCCATCAACCTCGG
0.8151454358199293 TACATAACGGAGCGTTACCAAGGTGCAGAATAGGCTTCCA
0.9254948494083871 TGCATAACGCCGCAGTACACACAGATACGATTTGCCTCTT
0.7183923612805916 TGCATAATCGCCACATCACCCCTACGTACCAAACTCCAAC
0.4097118606111101 ACTCCCGCAGAGTCGGGTAAGTTACATCAGACCCCAACGA
0.4157627935208013 CCATATTGAACCTGTTACACCACCCCCTATGACGCAGAGT
1 AACTCCAACCACCAGCTCGACTCCGAAACGCAGGCGATGC
1 TACACAATCTTGGTATTCTCCTGTTCCTCCGACGCTGGTG
0.9724547274722264 TCGACAGGAGTATGTAATGGGTGATGGCGATATATAAAGG
1 AACCCGAGTTCGCAAATGCGATAAACTTATGTGCGTAATC
0.02692356341638864 TACGTAACTACAATAGGAGGGTGCCACTAGGACCGTTCCA
1 TACGTAGTACAGCACTGTGTTGTTAGGGCATGTCCGACCT
0.9095039295335506 AGCCCGTGCACCGAAGCACGCGCCCGTTATAATTGCATAA
1 TACGCAGTGAAAACCAGAACTCGCGACACCTGCCGCTACT
1 CGATTTACATACGCGTTCACGCTTTGCGGTAACACGTAAG
1 GATGTAAGAATCCCATACATCGTCGAAACCAACTACCCTT
1 CATACTTGCGTCACCACCCCGGGTCGCATCCATACGCTGT
1 CACTGAGCGCAAAAAACTCAACACATTACGCTTCCTTACG
0.2505914416728313 GACGTAACTCCCGTGTAACGCCACGGTACACTAATAGCCA
1 TACGCAAGACGGCAATCTACCACAAATATGTCCGTTGCCC
1 ACTCATAACCCCCCTCTCTGCCACTGCACTTATTACCAAA
0.3947717957929461 GAATGCAAGGCGTAGATGGGCCGAGTGAAATACGTAACCA
0.7354141738895044 GCGCTTACGTACGAAAGCGCCACCCATTATATTTAGTCCC
0.1419608089716529 TACATAACTGGCAACGATGTTACCGCCACCCACGACCCAG
1 CTGCCGATGACCGAACCCAAACTGGCGAAGACATAATGCG
1 AACGCACAACACAACGCAACGAATCGTCTAACGTCCATAC
0.305980441351245 CACGCTCCGCATGTACGGCTCCCCTCCATATTATGCAACC
0.3124266269757459 AGTGCCTCCACGTAATAGTATGCATTCGCTGGGCCGCGTT
1 TGCGTAAGATCCATAAATCTAAAAGCATGGTAACTGTGAG
0.9911307143248165 GAATGCCGGCGCAGTTAGAGACTATGAGCGTCTTACGCAA
1 TAAGAAACACTCAATTCTAGCTGACGCTAGCGGGAGTCAC
0.8484734922978217 TAGTAAATTTCATGTTACCTCATCTAAGTTGACCGTTAGC
0.1304007709079305 GGCTTACACGAGTGCGTCATGCCAGGAAATATGATGTAAC
1 AACACCCGACTAGGTTTTGACCGCTGCTTGCGATGCTCCG
1 TATGCAATGGATCGACACACGGGATGAACCCTATCCTGCT
0.6814636828720785 TACCTACCGAGCCACGAGTTATAATGCACACGTTTCATAA
1 TATGTCACCCTACCACCTCCATGCTCGATCGTGCCATCCA
0.2718421813047603 TCGAGCCACAAAACATGTAAGCCTCCCATTACGTACACTA
1 TGCGCAACACCGACACCGGAGGGTGATCTCATCTTCCGCA
0.2021377536465235 AGGCCGCCGCATTACTACAACCGCCAGGATTGTATAACGA
1 TAAATAACCAACCGTCCGAGGTCACTCCGTACCGTGCATG
0.1358349725546812 TATGCAACGCAGAGGTGTAACAACCTTTCTGGAGTTACAG
0.703641731903461 GGCAATTTGCGAGACTTTTGTTTAATTTTTGATTACGCAA
0.2752256961024059 AACCTCGATACGAGCTAGCCTCCTTTATTGCGTAAACTAA
0.6656288837454032 TATGTAACTAACCTACCACTCTTCAAGACGCTACTCCCTA
0.5279168572207074 ACCAGCTCCCGTTACGAAATCAAGTGGATCAATAAGCGTA
1 GCATCCCGCGCCACCCGTCGCCGGCTATAACTCCCGCCTT
1 TTCGTAATGCTCGCACGTGCCTCTTCAACTGGAATGATGT
1 TGCGTAAACTATCCCCACACAGGGATCAGCATGACCGCTC
1 GATGCAATCTAGCCGCCTTTGCTTATCGAGAGTTCCCCAC
1 AACAGCCTCTCCTACACCTTTACCGGCGTTACGGACCCCA
0.03645346769187317 TACGCAACGCTGCCAATTTTCCAGTAACACCACAACTACT
1 GACGAGCGCGCTCTCCTAAACCACGCAAGCTATGACATAA
0.1689363196045204 TACACCCGTGGAAAGTGACGCAATCAGGCCTCCCTGTCAC
0.007481692363750305 AGACCTTACGCCACACGTTACACTGCACGAAAGGGGGTAA
1 TTGCCAGTAGCCACCTTAGTAGTACGCGCCACTTACGTCA
0.514747934656523 GGCGTGCCTTCTGTTACACCGTATTACAACTATTGCGACA
1 TACACAATCGTACACGGACGGCCGAGTAAACCGGGCAGGA
0.2385042925284865 GCCGGTTCGTGACTACAGGCCTGACAGTGTGACGCAACCA
0.233570203169149 TCCAGCCATACATGCCCTCGCATGCCTTATCTAACCAGCT
1 TGCATCACGACTGCATCTGCTAACTCCTTTAACGTTGCTG
0.5369878070113142 TGGATCTTGAACGTCGCAGCCGAAAGACCTCTTATGCAAT
0.8047030172407563 GACGTAACAATAGCAAATTAGGTTAATATCCATCTTCCCA
0.1891358209610458 ACCCGATAGGCCTCGACACGCTTACCTAACCTCTATGAGC
0.1561022434275356 GACATAATATTACCTAGTAGCCTACCTAATACATGCCCTA
1 AACGTCACGCCCGACAAAGCGAATCAAACCTCACCCCCTA
1 TAGGTAACTCCAGGTTCATGCTGCACCACGACACCAGAGC
0.1831871104602528 TTACGTCACCAGTACCTCAGCACCTTGCCCCAGAGGTCAG
1 ACCAAAAGTCTCATACTCAGAAGCGTCCATTCCGTAACGC
1 TTGATTTGGTAACTACCCCAACACTTCCCTTTACTCAGAA
0.8294271435943511 CACAGAGCTGCCCAATTGCATCATGGACCACAATTATCCC
1 GGTTGACACACCTATCCCCCGAGAAGCTTACGACACCTAC
1 TACGAAATCAGAAAGCAAGAACCTCATGCTATAATCGAAC
1 AACCCTCTCCATAACCGCGCCTCATGCTCATGGCGAACAT
1 TATGCAATGTCCTATACTTTCCCACCGTGACACACGATGC
1 AACATGTGCCAACGTAAGCACCGTCGCAATAGAGGACTGT
1 TACACAATCAGCTCCATCAAGGTGTCCAGACAAGGCCAAA
1 GACATAACACTTGTCAGGATAGAAGCATAGCTAATCTCCG
1 AACTCGTGCATCGAATAAAGCTCAGTATTATGCGTATTAA
1 AATCATGACTGAGTCGACGCGTTAGGTCTTGTACAACAAT
1 AATATCTGAAACCCGGCCGCATCGTCCTTAACCCCTCAGC
1 AATCCCCCGCTCGACTCAGCAACGTACTGATCCTCATGCT
1 GCACCAAGCCAACGCAACAGTGACGAGCAGCCCTGCGACT
0.1410700411130501 AATCAACCTCTTACACAGAGATCTTATTACAACACGACGT
1 TATGTAAGCTGTCTGAGTGTCCTCGCGACACTTTCATGAG
1 AACACCCTCCTATACAAGCGGCATACCCCCAACCTGTCAC
1 CCGACGGAATAAGATTGATAGGTAACTGCACACGAATAAC
0.7526879287908015 TACCTAACGTCTAACACGGAATGCGCTGTCGTCTCGTTGC
0.8039293309011349 TGCATAAGCAACACTTGCTCTAATGCTATCCCCGCCCGTC
1 TGTTAAATCAATAAGCATGTCCTGACTTGCTTGTGTAAGA
0.114319165619395 TACATAATACTTAGCGTTTCCCACGCTTATCTTTCGTCTC
0.6081022294770659 TACGTAACTTTGGTCGATCTTTGGCCCAACGGCCGACCGT
1 TGCATAACCGCCCCAATCCAGCCCACATACGAACCGCGGT
1 TACGTCACAGGACCCCCCACACTCACCTTACAAATCCAAA
0.7686885190796012 AATTCAGTTACATGACCCCAATGATAAACTAGCATTGATC
1 TGCGTAAGCGAGCAAACTCAAACGAAGAATCTCGAGTAAT
1 ACTCTCCCCTTTAAACCATTTCACCTGCCGGCTGATCCGA
1 TGCATAAGTGCACTATAACTAACCCAGGATACCACTTCGG
0.5619236472132739 CACTCCCCCATCCACCTAACACGATGAGGGTCACGTAATA
1 CTTACTTAACTCCCTGCCTTCCTAGGCGATAGTGATCGTT
1 TATGACACATCCCCCTCCCGCGCGATCGATCGCGCGAAAA
1 TTCGTAACGTAGTTGTATGGCCCTCAACTGCTCCGAGCTC
0.8352422186513543 GTGTATTATGAAAATTCCCAGTAATAAAACTTTGCAGCGC
1 AACACCGGCCTTAAGTCACAGTCCTCACGCTTCATCCAAC
0.6948520379006209 TATGTAACGGTTTATCTAGCCTACCAAATCCCGAGCACGC
1 GAGATTCCACATTAGGTGAGCTAATTTATACCACTTAAAT
1 AATCTGTCCCACACGACAAGTAGGGAAAGTGCAATACGGA
1 TACGCAACGGAGTCGACACCACAAGATACGCGCCGCTAAT
1 TGACGAACACTTATCCAACCATGGTAATTCTGCCCCCTCG
0.9444230298937136 TATAAGTGGAGAACAAAAGTTGCATATTAGAGGTCGTTAC
0.9252843718369254 ACATGTGACAGCTCCTTGGAGACAATATGAGGTTATACAA
1 CAGAAATACTCGTAATTGACCGACACGAATCATAAGCATC
0.5460633416123222 TACGCAATTCTCCCAGCCGTAGCCAGATGCAGTTGCACCC
1 AATAGGATATCAAGCATTGCACAAGGGAACGACAAGACAA
0.7196984799825847 GCATGCCAAACCTATCCGAATTCAATCAACCATTACGCAA
1 TACCCGCAGAATGTCATAATTGGCTACTACACGTATGCCG
1 TGCCGCGCAGAGGCGATTATCCAATTGTTAAGACGAAAGC
1 TACATCATCGACCTAGCAATACACGCCATCCAGGAAGAGG
0.330089748073045 TGCGTAACTACAGTTCTTAAGAGTCTATTCCACACACCAT
1 AATCTAGTTGCAAAACAAGAATATTCGGGTGTAACTCAGG
1 AATATGTTACACACATCCACGTCACAAGCATCCCTCCGCG
0.01161970841476338 GCGTAGCTCAGTTACCTAATTATCCTGGCAAACTCCACCA
1 TAGGTAAGCACCGGTCAATCGAGAGGCAGAAGTGGCCGTG
1 CCATTAAGCAAAAGAACACCAAGATCTGCCCATTGCGCAA
1 AACGCCGCGACATAACGCTGAGCGAATCGCAGCACAAGCA
1 ATTGCGGGTATTCGCTAATCGAGCCATTCGCCCCTGGTAA
0.4521618845419641 TACGTAATTACACCTGCCTCGTGAGTCCCGAAACACACTA
0.3291856145597715 TACGCAACAACCTACGTGGTGCGCCATCCCTCAAGTCACG
1 ATTACGCGAGTAAGAGGGTTACCCGAACTGATTACACGTT
1 ACAGCGTAGGTACGTGAAGATAACTTATACAAACACCGTC
1 AATAGAACCGTTGAACCAATGCACCCGCAACGAAGTTATA
1 GGAACGGCCATGATTGTGTTCCATTCATGGACTTACACAA
1 TACGCAAACAAATAGACCCAAGGAAGGGGCAATCCGCACA
1 CATCACTATACTTTCCTACTACGCAAGGGTAACTCTTACC
1 CGCATGCGCGCCACCTTATGCGTGGCATCCGCCACTAATC
1 TACATCATCCCCACTACTGCAGAGGGACGAAGAGACTCCC
0.5678258865208666 TACACAACAACCGTTCTGCGCGACGCTCAACCCCAGCGTG
0.04964476660617284 GCCAGGAACCTTTCCACATTATGTCACGATGCCAACAACG
0.3604596371779156 GACGTAATTCCGACGTCAAAAGCCCTTCTCGGCTTCATGA
1 AACCTCCTCGTAACCAGGACCGTGGCGGAAGGCCACACCA
0.5316250683692607 TACGTAAATCAGCTCCCCGCAACCCGTCACGCTGCCGCAT
1 TGCATAATCGAAGGGAAAGCAGATCCAAGGGCAGCCTTAA
1 TACGCAACCCAAACCCTACAGCGGCACCCACACGCAGCAC
0.6853782774988842 AAACCCCTGCTTGTGCGTGCCATCGCGTGGTGATGCAACT
1 CGAAACGGGCCGACAGAAGCCATATCGTATTTACGCAATC
0.8170631046485745 TATCTAAGCTTATGAATAACATCTTAATGACAACGTGTCG
1 TACGAAACGCCCCGCCATGAACCAAGCACAGCCTCGCTTA
1 TACATAAAAATATACTGAAGTGTTTTGGGAAATGAACAAT
0.7833264185650097 TACGCAACATACCCTACTGACCGCTAATGCCCACCCCAAC
0.2802745185260427 TACGTAATCCCACGGCCTGAATAGACTAGCCACGGCCATC
1 GCAGATCCTGCCATAACACCGGCACACCACGATGTTACAC
1 TGCGCAACCCACTGTTCATCCACACATAACGAACCCAATG
0.2984179001981321 TGCGTAATACATCAAGATGGTGTCTCCCATAGTGGATTGA
1 TATGAAAGCGCACTAACCATACAACCTAAGCCAGGACCAG
0.5435391760203124 GGCAGATGCGCAGAGCGCTCACGCCTACTGATGTAATATT
0.6945183605683353 TTCGTAACAACGACCTCCCTCTGCCCACGTCAGCACACCC
0.1498010090047577 ATTGCATAACACTCCTCCCAATCTCCTAGCGCGAGATCAA
0.161773098826595 TTAAGATAGAATACATAACCTGCTAATGAGCGCAAAACAG
0.4092287845473895 AATCGGTAGCATCTAGAACGCGATTGCCATGATTAGGTAA
1 AACACACTGCACCACTGCCAGATAGTTACGGCACCACGAA
1 AACCACCACAACTCACGGCCCAGACCACTACACGTGACCC
1 AAAGAACCAACCCTAATAGCAAGGCCTACGCTTATGTCAC
1 TATATAACTTACTATTGAAGCTATCAAACACTAACGCTGG
0.5501940390255378 AATCCATGTGCCCCGCCGAATTTCATAACTTGTCACAGGT
1 TCACCGTGATGCAATTGCCTCGGCAAACACTGAATTTTTA
0.3629169105139647 TACATAACCATACACTCTGCCCCTGGTAGGCCTAACAAAC
0.9604176707304937 GTGTATCCGCCATCTCGTTCCCTTAAAACGTGACATAATC
0.186688061518819 AACAAGATAAGATCTTTCATAACCGCTCACGAATCCGAGA
0.1253467052190179 TACGCAACTAACGCTGCTGAACAACGTGATACCTCGAGTG
1 AATCAAACTCCATGATTCATTACTGAATTCGCGTTAAAGA
1 TGCATAATGAGAAATCAGGGCACTAGGTGCTGGACGGCTT
1 TCCCATAAATGTTCACTTTAACACCGTAATATCCGAAGGG
1 TACACAACAAATGTGCGGATACTGTGCCGCAAACACACCA
0.8503445823854991 AATGCGCAATGCCTGACAGTGTCTTGCTGTTGCATGCCGT
1 AATCATTCGCTGTGACGAGACGGTGACAACCTACACTTCG
0.5883729481397383 TATGTAACCCCAGTCCTAACTCCCGGCGGACCACCCCGAC
0.4477454553123312 GCAATCACCCTCACGGCATCACCACTTAGGTAAGACCCGC
1 ACTATCGAGTTCCCCGGACCGAATTGCCCACCTTACACAA
0.5118184258602345 CCTGGCCTTATTATATCACACCCGACAACAATACTATTGA
1 TACATCATGCACCCACCGCCAATGTCCTTTACCACGCGGT
1 ATTGCATCATGCACGAAACGCGCAGAACCGATTTCGCATC
0.6611680794465329 AACCCTCTTCTCTGGGACGTAACCTCCAAATCCAATCGCC
0.8777059982664508 TAAATGTCAACCCAACGATTCCGTAAGACAAGCACACAAG
1 TGCGTAATCAGGATGAGACGCCAAGCCTGCACCCCCCGCG
1 TACATCACTTCACCGTGCCCTCCCAGGTGCGTACCATAAA
1 AAATTAACGCCCCCACTATGTAAGACCTCCTTGTGCGTGT
0.6018179021985078 GGTGTTACGAAAGCGATTTCGAAGTAGTACAAGTAACCCG
1 ACGAAGCATAATCGGGCACATAGATAACCTCTACGTGGAT
0.7675589226848527 TGCCAAGTACACATTTTCCAGACGTAACTCTATTACACCG
1 AATGCCAGCGTAACGCGGAATAAAGGGATAAATCATGCCC
1 TTAGAATGTAATGTGTTTATAGTCCCTGGTCCGTTATCGA
0.3739902466758532 TACGTAAGTGAGGCAAGACCACGTCCGCCACTATGCCACA
0.7699307178201459 AAACTAAAAGCGCGCAAAGCTAACGTCGCGTAACCCTCAT
0.1757592479811559 TACACGCGCCCCCCATTCTGTACGTAGATCTTACATAAAA
1 AATAGGCGCAACAATTATACCCGCCTCCTCCCAACACACG
0.6996652060292395 GATTGCTCTAAAGATCTTACGAAATGAAGGACGAAGCTAG
0.1944549632492429 AAGGGACAGTATGATCCATGACTCGGAAGACGTAATGCGA
1 GATGTAATCACATGCCTTCTCGCGAAGGAGATGCCTGCAC
1 TAGATAACAACACCTGTACCCGACCCACCCGACGTATCTC
1 TACGCAACCCCCACAATACCCACGCTCCTCATCGCCACTT
1 AACGAGCACCTTGGGCCATCGTAAGGCTTCCAGCCTTGCC
1 AACACTACGACTTGAATGCAAAATTGACATCATGTGGGTG
0.8761891510362658 AATATACCCCGAAACGCTACGCAACGCCTTGATAACCACG
1 GTTACGCAGCAACCACCCAGCGAGCTAAAGCCATGCAACA
0.8517734850699471 CCCGCCGCCACGGTTAAGTTAGACTCTGCTTTTACGTAAC
1 AATCAATTAGTCCCTGGCAGGTGTTACTGCCCCGGCAACT
0.2247590718529744 TTATGTAATGCACAAAGCCCAACGCTAACTACCGAGGTGC
1 TGCGTAATTTTACTATGTGACAAATCAATATCCTGGCGGC
1 AACCGTCCGTCACGTCCTCGTCAGCATAGGACAATCACAC
1 TACGCAAGTGGGAAAATGCCATGTTAATGTAGCATAGTGT
1 GTGTTATGCTAACCGCCAACCACATAATCTCAAACCAGAA
1 AACAGCATTCAGAACCCTACGGCGCCCACGACGTGCTGAA
0.4849759600902035 GGCCCGTTGTAAATATTACGTATATTAATTTTGTCACTGC
0.8726923435542477 TTTATGTAAAATAACAATCCAGACGAGGAAAACGACATAA
0.8785824924949844 TCGGGCACCTCAAGATCATTAACGTAACCGCCAATATCCC
1 GACGCAAGTGGCACGGCATTAACATCCCAAAGCCACACAC
1 GAGGTAATCGATACCTAGAATTAAGATAGAATGGGGCCAT
1 TACACAACTTATTTGAGGCTGTAAGGCGATTATGCTGCCT
1 AATCAGCTACAGCAGACAGCTACACCTGGAAGTCCCCAAC
1 AACATCATCCGCACAACACCCAACATGCGCCGGCGACCCT
0.6932228751273913 CACTTCCCTCACTATGTATGATGTCCACGATTTGCGTAAT
0.6218761860161072 CAGTTCCCGGTCCGGATGACGCGTATTATGTGAGTAAACC
0.03802024820914635 GGGAGTAGGTGACATGATGATGTATAAAGTTGGATCATGG
0.2434230380981449 TACGTAAACCTAGATAACGCCAGCTATACCGTGGAATCTC
1 TATATCATATGACCAACTCCCTGGCTAGCTAAGTCTGCTT
0.03518503292373769 GCCCCACCGACACCTCAGCTCTCTGTTATATCACGACCCA
1 AACCCACACAAAGCGGTTGAAGACATACACTCACGCTTGG
1 GCATCATTCCCACCCCTGCGGAACGAGTGAAATGACGCAA
0.789588352640551 AGCTAGGACGGTGCATAAGAGCCACTAGTCATCACGTAAT
0.04113407605619818 TACGCAACGAATTTACGCCCTCCCACGTAGGCTCCCATAC
0.3339510927409909 TACGTAATTTCCACCAAACTCATAAAAGCGTGATTCACTT
1 AACACCGCTGCTAAAGGAACGGTGCAGAGCTATCGTAAGA
0.2524018037747924 AAGACACCTGTCACGTACAGGTGCTTCGTAACTCCGGTAC
0.3176295447654212 ACACTCGCCCGGCCCGTGTGTCGTAACTGCTATCGTCATC
1 CCCCGACCCACGAACCCACCGAATGGCTCGCGTCGCCCAC
0.2428469550995667 TATGCAACGGTGCAACACGGCCCACCCTGTAGAGTGCCTT
0.6214005732078327 AACATCTCGAATGATTACGATGCGTTCCATTTGGCCTACC
0.2025315122450822 ATCCGCACTTTTGACCCTCATATCTTATACAACATAAAAA
1 CTCCCCATGCTTACATATTCCGAACCGTTAATACAGGACG
1 GCAGAAGTGGCTTATATAGTAAGGTATGCCGGTTACCAGT
1 TATATAAAAGTGAGTCGCATACAACGATACAATACTTATG
1 TACACAATCCACGATGGCGTGCTCGTAGAAACGCTGTTTC
1 CATTACATAGAACACCACCCGCTTCCTTACCAGCGCCGCT
0.3289926602830611 GGTAACGCCTCACGATGAGTTTTACTCGACCATTGCGTAA
0.2902811279780629 TATGTAACGCACCCCGTGGGGTCGTGTTACTCTCCTTGAC
1 TACCTAACTAGCACCCCCTCCTTCCTCGGCTGCCCGCCCA
0.5371961504131724 TGCGTAATCGTCGATGGAAGTGCCAGCAACCCCTCGCGGA
0.4763358596852802 TACTTCGATGCCGTAATATATGCGCGACGGATACCACGCA
0.5977119976007966 TCATCCTCTACTTATCTAATACATTAATGGCCCGCAATGA
1 GCATACTTCCGTCGTAACCGTGACCCAACCAGTCAACAGC
1 AAAACTGTTACACCCTCCTGGGCAAGTTAGAGCCGCAACC
1 TATGTAAAACAGCCTACGTGTAGCCAGCTCGAAAACTCCC
1 AATACTTATAATCCCCGTACACCCGACAATCTGACATCCA
0.1717464979522968 TATACAATATAACTCATTGATTTACCCAACTTTTAAGTAA
0.3492584251288656 TGCGTAGTCGCCTAGCCTGTTACAAAACCTCTGCCATCGA
0.5402616487586934 TACGCAACCCCCGTGTCACACTGACCCACAACTACTACTC
0.9114602988872244 GTTATGTAAATCCTATTGGCTCAAGTCGCACGGCCGGCCA
1 TACATCACTCCCCCTTCAAGCTGCCAAGCCTGGCCGCATA
1 TCGACCTCCGCGGCTTTTAATATGCCTTATGCTACTTAAC
1 TGCGCAATACCCTTAACTGCAGCTACTTTTCGGCGCGCAC
1 GATCCAATACCTCCAATTACTGCTTACAGCAGCAACCGCG
0.8611928665442614 TCCTCCTCTGCCGTAACCCCTCCCCATATACGCAATCCGT
1 TATATAATTGGGGGGGAACTCTTGTGCAGTCAACATGACC
1 AATGAAGTAGCACCACACCGGCATTACATCCATCCGCTCA
0.1875609553628845 AACAACCAATATGTCCGGACACTTTTACCTAACGTTGCTT
1 AACGTCTTTAAGGGACAAGCTGAGTGATAGTGCACACAAG
0.6834035932259164 TATGTAACTACCATCCTTTTAACCCAACCATCTTCGTCAG
1 TATGTCACGTTCACTACCGACTATCGCCCACGAGTAGGCT
1 AACCCATTCCCACGACTACGTCTTGCCATCACTCGTTATT
0.3921879995725291 TACGCAACCGTACGAATTTACCGAAACCCCAATTCCGGAC
0.2475209526201004 TGAATAACACGTAACGCACCGAAGCGACGACAACCACGCA
1 TGCGTAATGCTCTAACGCCTAGCGCAAGCCTCCGTCATAA
1 TATGTAAAAGGGAGGTCTTCACGGACATAGGCTCTATCAT
1 TATGCAACTTCGGCTCAGAGGTTCCTGCGCGTACCTGTAC
0.8070357902826015 TACATAATCTCTCAATCACCCGTCTTGGATGGGAATGCAG
1 GACATAACGGTCTCGATAAATAAACGTCCGCCCTGATAAT
0.7999284272903281 AACCGTAGCAGCCGCCAATATTAAATAAGACCCCCCTCCA
1 GTGAGCTACGATACGAACATAGCATTCGTGCGTAACGACC
1 GTACGCCCCAATGGATACCCTGCGGCAGCGTCATTCCCCA
1 AACGCCGATCCCAATGCCTCCCAGGCGATGACACAACGTG
1 TACGTCATTTAGGTGACATCAATCGTCATCTCCCAACCCT
0.9313695935674523 ACGCCTCAGCGAAACAGTGGCCACTGGTGATTGAATAATA
0.9109211230774035 GATGTAACACAACGTTTACAGACTGGGGTGAATTACTATT
0.5024071417495102 TATGCAATACACAAGTCACACGCTAACAGTGCGTGTTCAC
1 AACCCCCCACCCTAGCATCCCGCCCGGACCCACACCGCAA
0.1003370865808386 GAAGAGCTATCACCTTCACTTACTCGTTACATATTAACTC
1 TACACAAGATACTAGTATGCTGCGGAGACACCGAACACCC
0.1751227505206314 TGTTACCTAACCCCGAAGGGGGGTATACCACTCAGCAATC
1 TGCATAACATTTCCCGCTCGCGTTCCGTATGAGCGGACTA
0.8777433974135821 TTGCTTGCCGGTGCGAGAGGACGTAATACCGGTCACACTG
1 CAAATTACATAGGGATAGTGTAAACTTACCCTTATAATAC
1 TATGCAACTAGCTGAGATTCTCAAGCGATACTCTGCAGTG
1 ATGCCCCACTACTACGGACCGCTGAGGACCCCTTGCATAA
1 TATGCACTTCTGCACGTTAAGCCTTAGAACTTTCTGCCAT
1 AACACCCCTAAACGAAGCCTAGCCTCATTACATCGAACCA
1 CATAAACGGTAAAAGCTAGTTAGCTTTTAACAATACGTAA
0.458209809417804 ATAATACGGCTGAATTACGTAGACATTCACCCCCCTGTGC
1 TGTGCAATACCACGGGCGATCTGGAATAAGCCGGCTTCCA
1 TACATAACTGTCCTCCACCCATGCCAGAAACACGCTTCGG
0.2040521603694645 TACGTAATTACCTTGTCGATAGTCCCAGTGCCCACCCCGT
1 TATATAAACACTTCACCCTCCTTGCGCGTACACCCTACAC
1 GACATAACCAAACCTACTAACCTTCAGCGCGATACAGCTG
1 AAAATATACCTGTTATCTTAACAGTATCGTTACAATGACC
0.1559559857017183 AACATAACATTGTACAAGTATTGTGTTATCGTAGCCCGTG
1 TAAGTAACATTCGCTCAATGTGTCAGATTTAGAATCTCAC
0.6173352318291013 TACATAAGATTCGTGCACACCGTTAGCGTAACCACAATAA
1 TGCATAAGCATCCATGGTATTCCTCCTCGCCCCTAGCAAC
1 TACACAACGGCCGCCCCACGCGCTCACTTTCTCCGTATAA
1 ACACTATGTAAACACACTGATTTCGTAGCTGCAATGCGAA
1 AAAAGAAAAGTGTGCCATCCTGCAAGGAGCCGTAGCATAC
1 TACGACACTCCTGCACACTTACATGAATACGACGTCTCCA
0.9518970708121467 TACGTAATTAAAGCTGCTACTGAGACTGGGTTGGCACTCG
0.3594477983454413 AAACTACAATACGCAATTGACTAATAACCCCACCCATTTC
1 GTTAAGCTGCAAGGCACAATTCCTCCCTACTGCCTCCGGG
1 TACATAAAGCGCGCATGCTCCTCCGAACTACTACTGTGTG
0.2495570422758751 ATATTACTTAACAAATGCTAATGGGGTTCACAGTAGCGCT
1 AATTCGCGTTGCGTACATATCGATCACTTGTAATTTTTAG
0.3593696310613103 TACGCAATCCCAACGGTGACGCACGCCAGCCCAAGCGGGT
0.06320780757161439 TTTAACCCCACACTATGCCTCGCACCCTAATTGCATAACC
1 TATGTCACCCACCATGCAGTGTGCCCTACGCTCCAGGCAC
1 AATCGCTCTAATCTAAATACGCTTCTTTCCACCTTTGATT
1 CACTACCAACCCGCCTTGCATCATCAATTCATACGCAAAA
1 AACCAAGCGAGCAAATGCGCAATGCGCCAAGTACCGCTTG
1 AACGGAATTCTCCAGCTGCACCGTGACCATAATGTTATAA
0.6780354962350659 CGCAGCGCAGCATAAACTCGATAGTCCAGCGATTACGCAA
0.9763539433747312 TATCATGTAACCTGTATTATCGGACTCTACTTATGCGCAC
0.06872777737325386 GACGTAATCCACCCCCTCCCACTCATCACCGATCCCCACT
1 ACAACAGTCAGTCAGCACAACTCGGATCCTCATGTAATCG
1 TACGCAAGACGGAGGGGCCAGGGCGTCGAAGATAGGTGAA
1 AATGTTATGTACTCAAGACAGCACCCCCGACGTACTGCAG
1 GACGTAAGCTTCTTTGCTAGTACCGTTTGTTCCCATAAGC
1 TACGCAACGGGGCGATGGACCCATCGCCGTACCCTGTGCC
0.5596111080010004 CATACAGACGGATCATGGAGCGTAGCTGTTACATCGCTAA
1 ATATGCCCGGAATGACAACATAATGCCCCTCGCCCTATTA
1 CAAGCTGCATCAACCCCACACCAAGTAATTATTACGTCGT
0.9012911563583478 TTGAAAGGTACAAGGCCCCGATCTAGACCTGTTACTTAAC
1 TACCTAACATGCCCGGCTCTCCGATTGCCCAAATGCTGGG
0.4848968484248472 TACAGTTATACAAGAGCATGACACCGGCACCCCCAGGCCC
0.6864361018965245 TGCATAACCAGACAGTAGAAACTTGCAGAATTTTGAAGTA
1 GATTGCCTAACCGACCGGCTGGTCCCTCCGCGTATGCTCG
0.7378306321024206 TACGTAAGCGATCGTATTCATGACACGCCACACTACTACG
1 GACGCAATGACTCGGGCCGATGTGGTTAGGGGTCTCCATG
0.2017791475712375 CAGCACCACGGCGATCTCTTACTGAGCTTACGTGAGCAGA
0.5384991105427679 GACCTCGATGCCGTAACACTATCGCACGTTCACTATCATG
1 TACATAAGGTCGTGAAACCCTTCCCCAATGCCGCGCCCTG
1 TATATCATAACTAGACGCTCGCCGCGTCCTGTGAACGCGC
1 AACACGACGACGCACCGTTCATTACCTCCAGCCGTCACCC
1 TGGGTAACGTGGGTATGTGCACTCTCTGCGACCACTTTAC
0.8651522603755764 GCTAATGCACGTGAGATAACACCGCATTGCTATTCGACAA
1 TTTTATCCACTCACGCGTAGCATCCCACAGCACCTCATAC
1 TACGTACGAACCATCTCGTCCTTATATGACAAATCGACAA
1 TCTGGCCGACCGTAGCAACGCCGCGCAGACGTTTCATAAG
1 ACTATGCCCACATTACGGGTGAAGATCGTTAGTGATGCAA
1 TACACAACACACTACGAGAGCATTCCGCGAAACCACGCTT
1 TGAATCTGACCGCCAAGCTGATTAGTCAACCGCTTGCGAA
1 TACGCAAGATTCTCGCCGTCTACGCGTCCCCCCCTAGCCA
0.229921292985119 AGTGGTTGGCCAGCATAACTCCCCATTATGTATCTTCAAC
1 TACGTTAATATTTCCTTTTCCTCCCTTACGTATATGAAGC
1 AACTATCGACAGTATCACACTAATTAAGTCAGACTGCCCC
0.2202471595315097 ACGCCCCTTGTGTAACCCATCATTGACACTGCGCTGCGTA
0.2780863685449415 AACCTCCACTTAATGTGCACGTAACGAATGGCGTACGGTG
0.6028053534062296 TCCCAGAGACTCTTACACAAGCCAATGGCACACTATAAGG
0.4439314755560064 GACGCAACAACCTTCGATCAATGACGAGAATGTCCCACGC
1 AATCCGTCACAATTACAGGCAATCCATGCATTACAGGGTT
1 TAGATTAGGGGAACCCCACGGATTAGGTCATAACTCTCAC
0.1809960420215987 TACGCAATACCCACCCTGTATATTACTTTCCTGCCCTTAC
0.2929093359052862 TACATAACTCCCACCAACTATCGCGCCCTATTCCTGTTAA
1 GACGCAACAAGCAGTATGAATCTTGACTAATCAAAACCGG
0.9263905343725141 TGCATAACAAATGGAAAGATATACCCTGAGCCAGGCGTGA
0.8443740400970688 TTGGTTTACCCTCCTGCATGCGTTGCGTAGCACCGACCCG
1 GCAGCAGTTAAGCAATCCCTCTTCCTTCCACACCATAACA
1 TATGCAAGTACCAAGGTGTCCTTATTCGCGTACTAACAGT
0.3987446809385166 TACGTAACCTCCAACTACTCGCGCGCGCAGCCTACTTGAT
1 AGACAAATAGACAATTACCTTCTGCATAAATGAGGCAACA
1 ATATACCACCAAACGTGACCGGATCTGAACCCAACCCGGG
1 TAGATAACAGTTCGTCCCACTTAATGGGGTGGCCAATCGG
1 ACCTAACAGCTACTGTCATAGGACACCATTACCAATGTAT
0.2278849104187338 GTTGCATAACTCCCTTGGCCATCCGGCAGTTTCTCAAGAA
0.1832205218503934 TACGTAAGTTAAGCAAGGTCAAATCCGCATACCCACGATT
1 GCCTCCTTCCTGCCATCATCACATAATCCACAGCCCAACG
1 TATACAACCGCGTACCCGCGGATGCCCTAAATCCTCAGAT
1 TACGCAAGGTTTCGATATTAGCATGGTTAAGCTCGCTTCT
1 GATATAAGCTGGTGTTAGGTTGCACCGACATCACGCCTAA
0.3040356022718517 CACTCGTCAAGCCTATTACGTACGCACGGCGCTTACAATT
1 TATGAAACACCAACGATACACATGTCGTGGTGAACTCACC
1 TATGTAAGGCAATCTAGTCCCGCTCCACCCGACCGCCTGC
1 TATATAACAAACTCATCCTAAGGCCGAGGAATGCGATCAA
0.2530993221820661 ATTACCCTTACGCGCCCAACGTGTTATTTAATTGCCACGC
1 ATCACTTATGAGAGTTATACATGTAAACGCACGACGTGAG
1 TACCTAATACCGAACCCTCTCCGCTCTGCCCCCTGCATAC
0.7924278891362897 GTTACACAATACTTCCTACTACTAGACATATGCTAAGCTA
0.2495349762285007 TCTAACGCACATTATAAAACGCCCATACCCAACCCTGCAC
1 TACGTAAATACACTATCCAGGCCTGCTGACCTGGTAAGCA
1 AACATATTACCTCCAGGAAAACTACGGAACTCAGCAAGGA
0.8145188056303254 TACGTAACGGAGCTACACGAATTTATTGGCAACCCCAACG
0.9971359477964499 GCAACCACCCTGCATCATCGCCTCCGAAACATTCACGTAA
0.9656973758863273 TGCGTAACACCTGCACACCGAAGGTATAAAAGGTTTTCTG
1 ATATATAAGTGCATGGCAATGTACACGGTTTCACGCAAAA
1 GGCACAGTGGGCACTTTAAGCAGCATGAAACCTTGCTTAA
0.9424676428508691 CCCACGTAACCAGTGGAGCGCCCAAGCGCACTACGCTCAG
0.6479745760331082 GCTTACACAACCAGGTTTAACAGAACACAGAAATGCAGCC
0.03018211161154715 AGGATAAGCGATGATTATTTTATAACAGTCACTCTCTCCT
1 GTACCCACGCGCGCCCCTCTACAGTCCAATAATTGCGCAA
0.6071937710371949 GGTACGCTCTGCGATACACCCAGCAATTAACTTATGTAAT
1 TATGCATTTCAATTCAAGGCAAACGTGAACGAACGAACTG
1 TATGTCACTCTCCCTGGGTCGCGCGCCCTCACTGCCATCA
0.2877101344970845 CATTAGCAACCAACTATTAGGCAACACTTCTACCCTCAAA
1 ATTACGTATTGCACTCGCTTAACCGTGTGCCACTGTACCG
0.6943026571473097 CACCCCCTTTGCGAGCTACCTGTCTATATATTACGAAACC
0.5877866661647021 TACGCAACCACCTTGGCTTGACCTGATCGAGCGACAGTGC
0.02162536557348659 TACGTAACTTCTCCCCCCTTCACTTGCGGTAAGTTCCCAG
0.8033536910916415 TACGCAACCGATAAAGCCAAACGTGATACTCGGTCGCACC
1 CATTACCCCCAAGAAGACACAACGACCCCTGCCTCTCCCG
1 ATTAAGTAACGTCCCCCACGTGTCCCGGATCTACTATGTA
0.8900785162434358 TACGTCACGATCCAAACGCCGCCCACCCTTGCTGCCACCG
0.8119678586072571 AGTCCCAACCTACCGGTCACGACACATATCGCTTGCATAA
0.05879721609867253 TCTCGCCTAGTGTAGACTTCGTAGCCTGCGGATTACGCAA
1 TGTGTAACGAACCAGACTCTACCTACGCCTGTTAGTCTCA
1 TACATCATCGACAGCTTAGCCACCCCGCACATCTCCGAAA
1 AATCTGTTCCAATACACGTCACCGAGTCTAGTCCTCCTCA
0.6632229944915826 TACGGCACCAATGCTCGCCAACTTGCAAACCATTACCTAA
0.429730218760053 TATGTAACGTGCAGCTGCAAGTGTCAGTGGTTATCAGTTA
1 TACGCAATAAATAGCCTACGACGAAGCTGATCGCCAGAAG
1 AACAATAAACTCAATTCTCAGCCGATAAATATACAACTAC
0.03065592186246683 TATTGCGTAACGGAGATCGATCCGGAATCGACAACTAGCC
0.2115846391693888 GTTACTTAATGCTACCGCCACTCTTACGGTTGTGTCCGCT
0.4458321574052648 GTTATATAAGCCTCGGTCCCTTGCCATTATGAGGGCCCGA
0.9986750513086151 AATAATGCTTCCAATAATTCGCCTAAAAATCATTATATAA
1 TATGTACTGTCGTGTCGTCACAGGGAGAACAATTATGGCG
0.7733931430060342 CCTCTATGCTACCAAAAGCAAATGTTGCACAATATGTCGT
0.5827689309584833 TACGTAAGCCAAGTCCTCACATAGGTCGTGAAAAGACCTA
1 AACAGCTGCACACATCATGAGATATTTCGAACGTTCCTCA
1 TTGCATAATAATCCTCGGACTCAGGCATACAACCAAACGC
1 AACTGTGTGAGACCGACATCGCATAATACTCGTGCACTCT
0.09932393109565665 GCCCACTACCCTGCGGACGAACCACACATACTTACGTAAG
1 TTTACAGTACGATTATTGAACGGACCTCATCAGACTATTA
0.3839325023232451 GTGACCCAGGCGCCACAGACATGCTGCGTAATCCGATTTG
0.6376978458649744 GGGAATTATATCATCGATAGGCGTCCCTCTGAGCGCGAAC
0.98408459423747 ATCCAACATCCTCCATCGGCGCCGGGGACCGATTACATCA
0.7286057665623409 TACGTCATATCCAGCGCAATGCAGTCGCATCGGCAGCGCA
0.9300619106447104 TACGTCACAACTACGCGCCTACATCCAGTAGTGACCGGAG
0.3645064746468374 AGCAGCTATCTCCATTTAGCTATCCCCACGTTATGCAACC
1 AATCCGATTCCAATTCCCTATCTACCTAACTTAAGGTCAC
1 AATGCCTTTTCTTTACATCCTGCTTCGGCCATTAGCTTCC
1 TACATCACGACCCCGCTTAGAAACGTAAGCGACACTCGAG
1 TTAGAATCCTTACCTAAGCCGGCAGTGGTCTACCGACCCT
1 AACCGCTACTCGTAAACACCACGACGACGCTCAAAAACAA
0.5236593095725732 AATCGAGTGGCTACTCGGCGTGTGTTGTATACGTAGTGTA
0.6970347407072098 TACGCAACTACTTGCCCGTTTACCCTGCTGACAGCAGCCA
0.2615006799685533 GACCCTACCTAATATGTTACACCCCAAATTCCTTTCGTAA
1 AATGGCCACCCGTAACCGACCAACACATGGGCCCACCTCC
0.6084328365091635 CCGTTAAATAACTCCCGCCTGTTCTTTATACCAGCTGTGC
0.6104768164467139 TGCATAAACATCTTAGCTACTATCACACTTCTCTCCGCTT
1 TACACACAGTCGGTGGGTAGGCCAGCGGCCTTGCACAATA
1 TACATAAAGCGTGCGCAAATAACCGCCCCACGTTGGAAGC
1 TACCTAACCGCAAGCCAAGAGCCAAGCAGCCATCTCCCAC
1 AACCCGCTGTTTCCCTGGGATTACAAAACTCTCACCTCCT
0.04538551460288304 GTGCAACCTTGGGAGACCCTATGTTATACAAGCCTAAACA
0.5056762188561041 ATTTTATAACGTACGTGAGAAGACTTACGCATCTAACTCT
1 GATGTATTGCCTTCGGCACCGATTGACGGAGTACGTAACT
0.3756344093421095 CCTTAGAAACCATAAACGTCCGCTTCCCCGTTACATCACA
1 TGTGCAGAAAGGCTCGCAATCATCGCCCCGGTGTATAAGT
0.4023581864719866 TACATAACTCCAAGCAAGACCCATGACACATGTCGTGTTC
0.968536916887152 TATGTAATGCGGGCACAACAGTTTTAGCCATGTGACTTCA
0.868498511098042 CACGTAACATGGCTGCCCGAACGCGCCCAGAGCCATCGTC
1 TACGTATACATCTCTGCCGTTGATACAACTAACCGACACG
1 AACACCAATCCCCCAGCTTGGCGTACTGATTCCCATTCTG
1 TACGTAATAAATTCCATCGAGCTATCCCAACCCTCCCACA
1 AAGAGAAATACCCTTTACAGCAGTCGTATGAGAATCCACG
1 TACATAAATCGCGGCCTGTGTCTCACGCGCCGCGCCCTGA
1 GACATCACACAACCAGGTATCGCACACTGTATCGTACCGT
0.0230914774454481 GTTACCTCCACCTCAACTCCGAGCCTCACGTATTACGTCA
0.8725466680287954 TATATAACACCGCCACCTCCCATGCACCGCCTCCGATCAT
1 GACGCAACGTGTTGCCACCATGATCCCAGATTGGATCAAG
1 GATCCGCAGTCGCGTAACACACGTCCAACTGACGGACAAA
1 TGCATAAGACAGCCGACTACCACTCGGTGAATATCCGTCT
1 AACCCGACGTTTACGAAGGTATCACCTGACTTGCGTACAC
1 CACATCAACTGCTGAAGACATAAGTGCGTTCCGCAACACA
0.7077895734928014 TACGTCATCTAACGCCTGCCTTCATCCGATCACACTCTGG
0.1189678650775971 AAAGGAAGCGCAAGTAGTCGCATACAATTACTCAACGTCG
0.4649599089147743 TATAAAATCCCGAAGAACGTTGCCCGTGCCGTAACAATTC
0.9992203934731886 TACATAAAAGCGTAAAAAAGTGGTGTCCAATGTGGGCGTG
0.3701906998387477 TACGCAACAGTAACTACCCTAATTCCTTACTGGTCCCTCT
0.3845649279048832 GGCATGGAAGGGCGTGACAGTATTTATTCTGATTATGCAA
1 ATCCATACATAAAGACCACCAACACGAAACTCTCTCTCCA
1 AATCTGCCCATCATAATGTAGGGTAACCGTCCTCACCGGG
1 AACACATGAATTCTATGGCGTCGGATATTTATATGTTACG
1 AGACAGTGCCGCACACATAACGAACATCGTCCGCTCATGC
1 AACTGCTACCGCATGCGCCGAGCTCTAGCTCATACGTAAG
0.08519730449978645 AATATCACTGTCAGGAATAATTATGAAACGCCACATTACT
0.6503184860047299 TACGTGCACCGTCTAATTACGTACGCCGACCAATCTGTCC
1 AACGAATCTAGGGCTCAGAGATCGTCTCTAAGCTATGCTG
1 TACGCAATATTAGCAGAATTCTGAACAGCCCCAGAAACAT
1 TAATCCCAATGCACCCACAACACCCTCCCTCACTACCCAC
0.862448281128767 TACGCAATATGTGCGCCAACCCCTTAACGCATCCTAGTCT
0.2219188337190023 TACATAATACGCAGCCCGACTACGCCCAGGTGTTTGGCCA
1 TGCATAACGAGCGCACCCCCTGCGCCCTCGCGCGACTCAA
0.9621937812245966 ATCGCAACCCACTTATGGCGATTCCCGCCGTTATAAAAGA
1 TACATCACTCAACATGGGAACGTTGGAAATCAGGTCGTAA
1 AACTTCGACCACAATAAGTTACAAGACATATGCTCATCCC
1 TATCCAACAGTTACGCTGAACAGCGACGCGGCGACAACCA
0.6558895083078269 TGCATAACTGTTTTTGCCTGTTACAACTGCACGCTGAGCA
0.4877652243042852 AACACCGTACCGTTTCTTACATCAGCGAGTGTCCATCCGT
0.7049763548243507 TATGCAACACACCACACAGCCGTTCCGTCCCCGACTGAAC
0.6126997869838596 TACATAACATATTCAACATGTAGATCCGAACGTTTGGGGG
0.07866692232659035 TACGTAACTGTAGGAACATTCAAAGGCCCTCTGCTCCCGC
1 TACGTGATTTGCAATGCACCCCTTCCCTAAACCTGTTCCA
1 TACATAAGCACGCGTTCCATACGGATTCCTGGACACCCAA
1 TACATAATTGACACAGAACCTCACGCACGTTTGCACTCCC
0.2279229983337496 CACTGTGATGTAAGGACTCCCATGAGATGGTAGTCGGTTA
0.06753612331057603 ATTATCCGACGACTTACACACGTAATACCTACACTGCGAC
0.4660314794369882 TACGTCATACCCACGCAAACCCTACATTGAGTCCGCTACG
0.5487308177172765 TACGTAACATCCCCCTCTGCGTACGCACCCACACCTCTAC
1 TCACATAATCGCTAATCCTGCGATCCCCAGTCCAAGAGGT
1 CAATGCCCATAGGTAACTAGCGTTACCTCTCCTACCTAGG
1 TATCTAACAGCCTATGACCAAGCCACGCCATTATCCCTTC
0.002517025483115356 TGCCAGCCTCTACGTAATGCTCTACCGTGAGTCGTAATCT
1 TGCGCGATGAACCTCCTGTTAGCTACCATAACCCTTTACA
0.2204691900807517 TAACCCCCCAAACCCTATGATCCCTTAATGTTGTATAACA
0.2681465599915788 TGCGTAACTTGCGCTACTGCACCTGGCGCGTGCACTTTCA
1 CCCGTCTGCCCCCTACGCTGTAACAGGCCTTGTAATGTCT
1 TTTTTTCACAGATTCAGGGGTGTATAGTACGTAAGCGTAC
0.03266298605195376 ACCACCTCTGACGTAAACGGCGCGGGGGCGATCACACCCT
0.3039602980963705 TGCATAATGGTGCATACCTCCGTAACACCTCCGTTGAGGA
1 CTAGGTGCCCGCCTTCCATGCCGACCTCGCCATGACGTAA
1 TGCAGTCCCCTCCCGAACAGGGTCTTACGCCATATCCTCA
0.6679502841394498 TGCATAACACTACCAAGCGCCTCAAAGCAATGCTGCACCC
1 TGTATAATAACTGATGAGTAGCTGAAGGCTAGCATGGCCT
0.6614303356666548 TATGCAATACCCCGCCAGACAGACGAATTACACACACCGC
1 GCCAGAGGACCGCATCACTTCCAGCCCACTCACGTAACTG
1 AACGACTCCTGCACGTGCATCGTAACGTTTTTCTATACGC
1 CATCTTTCACGGCCCTTACAACACGCTCTAGCATTCACGG
1 CACAGTTAGAGCTCCTATGTATGACATAAATCTCCGCAAG
0.5551346400759956 TGCGTAACTGCACACACTATCACCGTTCCCTCGACCTTTT
1 ACTCTTGACTGTTCGACCTCACATGTAATAAGGGATCCAA
1 AACATCACCGGTTTAGATCAATGCGATGTCATAGGACCTC
0.2347723713428244 GAGGCGTAAATGCGTGACACGTGCGTAATATCTCCAAGAA
1 TATACAACAAGATACCCGTTCTGATAGGCGGTCGTTTCCC
1 TACATAAGGTCGGACAGCGTACCACGTAGACATACAGCCA
0.4726351658998109 AAAGCTCGCAGAGCCTCCTTATTACTTAATCATGGAGCCT
0.656360453737312 ACATCCACACTCATAGGTACCTACGCCTCCATTATATAAC
1 TATGCAACTTCCGTACTAATGGATCTATAAACAGCACGAG
0.694070304409718 CACCGACCCCGATTATCCAACACCGGACCTAGCCCGCTCG
1 TTCATAACGATGCAGCCCACAAGAATCCCGCCACCAACAG
1 TATCTAACGATTGGTGCTATATCTACTGCCCTACCTGCAA
0.1296692443659211 ACCCAACGCCAACACAGTGCTCGTACCCCTGTTATGCAAT
1 TACGAAAGCAGCCATCATGTTAGTGCTTAAAGGCTGCGCT
0.0607263549423018 TCCTCCCCGAGTACCCACTCCTTCTTAGGACATTGCGTAA
0.8043384969149666 TATGTAACGTAGCTGCCGAACTCATCTGCGAAGCGCTGAC
0.1447871090898906 TACGCAACACTCCTTTCCCGCCTTATCCATGTAAATTAGA
0.8286542097092322 AACACACGCGGCGATCCCTAACGATCTTATCTCACGGTAA
0.8578334654554242 GCGCCGTAACATGAGCGTGATTTCGCCGCTTCCGTAACTA
1 TACATAAAAACGTTAGTGTGGATTCTACGCCAGCTGAACA
1 TTCGTAACAGTTGAAACGGTTAGAAACGCAGTACAAACAC
1 GATGTAACAGCGGTGCACACGACCGAGGCGATCTACCCTC
0.05044616383116886 CACACGAATGTCGTAATCACACATGTTAGCCATATATGCT
0.1450859099746256 TGGTGCTGCCCGTTATACAACCGTCGCAGATGGTTCCGGC
1 TATGCAATCGCCACTAGCGCCGGAATAGTCGAGACATCCA
0.9021239716129787 TACATAAACGCTGCTCTGGAACAGCACTACCACGCTGCGC
1 AAACCCATCGCCCCACCGCTCGTTAGCTCTATTGCGTCAC
1 TATCTAACAATAGGTAAAGAGCTTAAGCATTTCGCCACTG
0.2686640487108236 CAAAAGCAAACACTTCGTATGCGGAGGCCTGGTTACGTCA
1 GCCAACCAGCCCAGCTGCACCCGGTACAACTTACGCAACA
0.06043798577219036 TACGTAACGTAGGGCTACAGCAGCGTACTCCAGCGCTGAC
1 GCTGATACGTATAATGTACTTCGGAACCACATAGATTACG
1 TACATCATAACCGACCCCCGAGACCGGCGACGGTAACGCG
1 ATGCCTCCCCTGAGGTAATAATATATCTTGCGTGGTAATA
0.8376331015230082 AGATTGCCCCTATGACGCAAGCCTACCGAACGATACTTAA
0.9791357833562473 GCTACCCAGGTCCCCCTTTATGAAATCCGAAGTTTCGCAA
1 AACCCCACCACACCCCACCCTATGTTAATTGCACGTAATC
1 AATTTCAATTACACCGCCCCCTAACCATATCGGGACTGCC
1 AAATGCGTTATCCAGACCTCCACTTCCTCTCCGCATCGAA
0.1740689781282379 CAAAGCTGCCACCGTCAGCCACGTAACACCAAGACAAAGC
1 AAGCACGCTGCTTATGGATAACAGCAGGATCATCCGATCT
1 AAGATTCTGGTTCCTCTCAACTATATCACATGAAACCTGC
1 CCCTCAGCGAGGAGGCTAAGCGTAACGTCGGCACAACACA
1 TATGAAACGAAATCACCTAGGCTCAATTTTCGTGCCCCGA
0.9875302927760053 ACGCGTTCAAGACTCCCTTGCCTGGTCGCGTGACATAACC
0.8522519035854834 TACATAAGCACGCTAGTCTCGAAACCACTCCTACACCCCA
0.3222899103020631 TACTGAGTGCAATGTCTCGACATTTCCACGATTAGGTAAC
1 TACATCAGCGTACTGCCCACAACAGAAAGCAACCCCTGCG
1 TACGTCAGGCATTGGATGTTATCGTTTAGATTTCATCTGG
0.973729817024676 CGAGCAACCCTTCTTGAGCATGTAATCGATTACAACGTCA
0.8649850832603978 TCACCAGCGAGATGAATTGTGTGCTTTTTGCTTACATAAC
0.2033081585422419 TACGCAACGTGACATATAGCCCTAGATCAAGTATGATAAG
1 TAGATAATCGCCTTATACCTTCCTCCATGGAAAAGCCGCC
0.52195594068151 CCACGTCGGCGCCCAAGCTGATAGCCTCCTTACACAAGAG
1 TATGACTCCATATGGCGAGAGCACCATAACGGATAATGAC
1 AACCGAACTAGACCTCGTTACATGGTCCATCCTCACACAG
1 TGGGTAACGATCCGGATCGTCCACCATTTGAACCCCCGGG
1 GGCTCCGCCTCGCTTAAGCCTCTAGACACCTGACGTAATG
0.9454287484163738 TACGCCGCGCGAAGTGCCGCGTTATTTTGTAAGACCTTTG
0.6247177008412946 AACTGACGGTGATCTTGCGATATTATAAAACGCTAGCTAA
0.03666905841249602 TCATGCGCAACCAAACGTAGGTTTTGTACCTGTTACATGA
0.1919306675658694 CTCCGTTGTCGCAAAGCCAACCCCCGTCCTGGTTACGCAA
1 CCTAGCTGCTCCGAACTCAAGGTGGGATGTGTTTACGTCA
0.8061552730977198 AATCACTACGACCCCCACGGTGTGCACTTACATGACACGA
0.4914891348227087 AACTGCGCGACCGATACCAGAGCTACGTTACTTCACCCAT
1 GTTACGCGCCCCGGGGCTTCATTATAATGACTAGATGTAA
0.9412281737100033 TACGTAATTTCTATCTCTACGGGACGTCCTCAATGCCTTC
0.6831801179129002 GACGTAACGTATGTCCCTTACTCTCTTTACGTTGTTAGCG
1 AACACACCCACGGCGAACCGAGACCGAGCTAACTCGCACG
0.00135333237767759 CTCCGAACTCATTCATCTGCGCTTACGTATACATACATAA
0.5921038804705634 TGGACCCAGGAACTAATGACTTAACATGCACTCTACGCCT
1 AATACGATTCAGTCGAATCTATGTGCTTGGGCTCGGTAAG
1 AAGAGTCATTGTAATGACAAATCCGCGATGCCCAGCGCGA
1 CCATCAAGAACATGGCACAATCCCACCCGAACTTGCATAA
0.9331765030263982 TGCATAATCCAGCCCTTACCCCACACTACAGGGACCGCCA
0.3884892318771524 TACGTAACCCGGCATGCCTCTCAAACAGCCAACTAACTTG
1 CCGCACCACCTATACCCACTAACTTCTCGGACTGACGTAA
1 AAGCACAACCAACCACCTCTGCACCCGTTACGGAAGCACA
0.9437404454678032 GACGTAACATGATTCAGCCACTAGACCGTACACCAAATAC
1 CCATAGACCGGACGGCCATTCCGCAACGTAGAGCCTACGA
1 TACGAAAGACTCCTATCGCAGTATTAGCGATGTGCACAGC
0.5430562764837046 TATATAACCTAGGTTCAGTGATACCCTCCCACTACGCGTA
1 AACACCACCGGTTACCAAACCAGTCAAACGACTAAGTTAT
1 TTTGCAACCAACCCCTAGCCACCCTCTGACATAAGCCCGC
0.5941265694936056 AACTACAAAACCTGGACACATTTTGTAATATATCCGGCGA
1 CTCCAGTCAGCTCGATCCGTACGCCAACGTCCGCGACACA
1 TACTGTAACCTGCGTCCCACTAAACGATTATCACATCCTC
1 TACACAATCACGCTCCGAGAAACACCGCGCCGAATCAGGT
1 TAGATGACAAAACCGGGCACCCTCTATCCGTTACAGCTCG
1 TACGAAATAATCCGGTGTAATACATATTGACGCTCGAGGA
0.4206933360442631 TACGTAAGCCGCTGCACCACCTCGAAGCATACCTTGATAA
1 TACATCATCATGGCCATAAGCTTTGTATCAGCATACAGCG
0.271180945475199 TACATAACACAGCAACCCAGACCGAGATCAGGTAGCTGTC
1 TGCGTAATCAGCAGGCTGCCATAGAACACCGCAAACATGC
1 AAGACCCAAGCCCAACTCCCGTATGACATTACACCACCCA
0.9199147288574328 TACGCAGCGGCGGACAAATTACGCGATAATGAATTGCCGC
1 AACCCCTAACACTTAAATACTTAATAAGCACACGTAAGCG
1 GTAGTCCTTACCGGATGTATGCCGTAAGACAAAACGTGAC
0.3018774960515725 GAATACACCGTATCAGGCCAAGATGGGTAATTACGAAACT
1 ACCAGTGATGATGTGTGAGCACACGATCGACAACTCGTAA
1 TGCCCTTCGCCACGCGACTGTTCCACCAACTTTACATAAC
0.2058669643768206 AAGACTCAAGTGTCATTACTGTGCAACATGATTGCGCAGT
1 TGCATAATCCCTGTATATCTGAGAAGACTCAATGCCAGGA
1 AATTCTAGACAATCTAACAGCATCAAATTAGCGTGGCGCC
1 ACCAACCCGTTGCAGCCACGCAACATCACTCATCACGTTA
1 TGTATAACTCCAGTCAGTCTCAATAGATCGAGGCTACGTT
0.5315573164067499 GACGTAATCTGTGAGCCCCATCACGCCTATCATTAACTGG
0.966669938226591 TACGTAAGATTGACCCTACACTCTGGACCATCCACCAAAT
1 TGCAACACGGCTCACATGCAGCGATGCACATTACATCGTC
1 AGAATGAGATCCACCCTAGATGTCAACCCCACCTGCTGAA
1 AACCATGGTGATTGCCACATGCACACCTAGGTTCCGTCCG
0.5836815789855724 TACATAAATATTTGCAGCATATTGCCCAACGATTGCCACA
1 CTTACTTAACACTTCCCACATCCCCACCCCGGTACTTCCA
1 CCAGCCAGCCCAGCTGATAGCTAGGTAACCCTTACCCTAA
1 ATGCCACGGAGCGACTGGAGCGCTACTCCTACGCGTCTGG
1 CAACAGAAAGCCAGCTTACGCGACGATCACGAAACTAAAC
0.2332855562477372 GTGCTTACGCCAGTGTGTGATAACCGAACCCTATATTGGG
1 AATCCATCAAACTACGCCCACCACTGAGATAACCTCACCT
1 AACACGTCCACCCGGTTGCAGAACCCTTTACGCACGCCAG
1 ACCCCCTCCACCCCAAGAAACCCCATCAACTTTTGATCAT
0.3413686238878822 AACCCCAGCACATACGCTACGATTGCACAACAACGCCAAT
0.8275841927828866 AGCTGACAGCCAAATGACATCACAACGGCACGTACATTCG
1 GCTACGTAACCTCTCCACGCTTCCCTTCCAAAGCCCGACA
0.563494951968927 AATGATGTAACCCTTGTCAAGTGTATCAATTCGATTGAGG
1 AACCAGTGAGTTATAACCACGCACGCACCTTGGAACGACA
1 AATTGCACCTACGTTACCGTGAGTATCCCCCTGCACACCG
0.5057918926170992 TACGCAACGCCCATACCCCACCTGATGTTGAGCGCAACAC
0.4640409565850626 TGCGTAATTTGTTATAAATTAAGAGTTAAAGTTGCACACC
1 AGATTATGGAATATCAGATCCGAAACCCCCAGACGTCACG
0.2547285028245553 TATGCAACCCCCAATGTGCCGCTACGAAACATCCCCCAGA
1 ATTATTGGATAAGAGGATTAAGTTAATTTTCTGCAAAGCT
1 TCTTCATTACCAACTAACGCATACATCACAAACGATACCG
1 TGCATAAACACCAGTGTCAGGGACATTCGACCACATAACA
1 TAGTACATGACGGTCCACGTTCTCAGGCTGACTTACGCAA
0.1943970102460331 AATACTGACGCAACATAGCGCATATTGAGCACATCCATTG
1 AAGATAGCAATATTATACATTCGCTTTACAAGACGCTGGG
0.9688981907227037 TTATACAATCAGTTAGTTGAGTATCGATACTTTCACACAG
1 AACATGCTGACGTCACCGATCAGGCCGGGATCACTTTTGC
1 TACACAACGCGATCGCTTTACCTATCGCTCTCCGTAAACC
1 TGTTCACGGTCTCCACCCATTACAGACAAGCTGCGCGGTC
1 AATCACCATACAAAGAATGGCGGTGCTCTCAGGCATCTGT
1 AATTCTCATGCAAATAGGACACGTGTTGACGAATTTTAGT
1 TGCACAAGCACACTACCCATTAGCCCAACGAGAATATACC
1 AACACCCGTTCCGCTCTAACCTTCGTACCCGACCGTACCC
1 TGGGCTTGTAAGGTACCATGCTTACAACACCTAACAATAA
0.8812485792914052 TGCGTAACACATCCGCCATAGTGCGCATCCACCTTGCCCC
0.6317989294953479 GTTGCATAACGGTCTTGTCTCGTAGCCCTCGGGTCCCATT
0.2778606562008247 ATACAATGCTGCCTTGCCCACCGGTGCGGTTTACATAATG
1 TACGCAACGGCCGACCTGAGAAACGACAAAGGCCACCCCG
1 GCCGCTGGATAATTACCAAACCACTGGTACATACGTCACG
0.581383732288088 TACATAAAACATCACTCACACTAGTTACACCTGTCTCCCC
1 CGACGCTCTGCCAAGATAGAAAACAAATTTGATTACCTAA
0.6115529880961944 CACTCACCACCCCCTGTTGCACAACCCGCGCACCTCAGAC
1 TGCGCAACAGGTAATATTCAGTCGTACATCAAATCACTAT
1 TACATAATATTGCGGATTCATTCAAAACGTTTCGAACGAA
1 TGACCAAGACGGGGTTGTTTGATAATGGGGCTACGCTGCC
1 CATCCAGAAAAGTATGAACGTAAGCAACGAGTCGAATGAC
1 ATGACTACGCATGACGAACGTCATCCTCTAAAATTATTCC
1 AACAGATAAGGTTCCGACTGGATGCCTTACACGAGTACCA
1 TGCGCAACGACTACCCGGTCTGTCCCACCGCCCCTGCACA
0.824429699201249 GACATAAACAACATCCCCTCACACACCGTGACGAGTTGCG
0.9791569925065475 TACGCAACAACAGCGCAGATGCCCAAGGTAGTCCTACCAC
1 CCGCCCATGCGACTCCGCTCGCCCTTCCATAACCACACTC
1 GACATAACTCGAGAAGTACACCGGCAAGTGCTCCCGTAAC
0.3426529953918147 GTTACACAATACACCCTTAAGCACACACGTGCCAACCTAG
0.1902975058430075 GGGCGCTCGATGCAACCGAATACCGCTGTTACACCATCAC
1 TACATGTGAAAGCGTAAGGCGCATCAGACCCGTATTGTAT
0.7009303689757606 TACGAAATCAAAATAACCTTTAAGACGTGTCGTAATGGCG
0.9846920392103479 CGTTACACGTACTACCATTACGCCTAACAACGCTAAGCTC
1 AACTTCGTTGACGCAACACACCAGCGAAGTGATGAGCCCC
1 TCAGTAATTGCAAGCAACAACCTCTCGTGCTTATAGAAGT
1 TATCTAATCCATGATACACGTCCAAGTAATGGACCCTGAG
1 TACACCAACCCCTTAAAACATAATGTGCCTCACTCACCGT
0.09475651893945676 TACATAACCTCCGGACACCCCTAGCCTCAGCGTCACACGC
1 TCAGAGAAGACCCTTGGCGTGACAGCTATCCCTTACGCAA
0.1192909098830745 TCTTGTGGCTATCATAAAACACTATTACGTCGACGCGGCC
1 ACCACCCACTGGCTATCCCGCTACTACGCGATGGCTATCA
1 AAACAGTACTGTTTTCCCCTGCAATCCAGGGCCTACGTAA
1 TTGCGTCCAGGCCCAAAGCCCCTTGCTCCCCTTACATAAA
0.6451361196560338 TACGAAACAGCCCCGCGTTCAGTTACAACACTCCGCACCA
0.1017251555268343 CAGATGAGAGGATAGCCGTTAAATAACGCGTCTCTAAATA
1 TATGCAACTGTTCCTAGATGAATCAACCAAGCACTAATTG
1 ACGGCCGCACAGAGTAACATACCCGCATGTTCTACGTAAG
1 TCTTATCAATAGGGCCAATTCCATGACTGATTTTTGCCTT
1 TACGTCATTTACACCACTGTTTCTGGAAGCTTGAATCCTT
1 TATATCATGCTGACTCACCACACAGCTTGCGCCGCTTAGC
1 AACACCAGCTATAACGAAGACTCCGCACCCTCGCAAAAGT
1 AACACCAACCACGCAGAGTGCTCCGCAGCGTAACTCTGCA
1 TAGATAACTCGGACCTGCATTGACCATCCCCCCGATAGAA
0.9202362067332359 TATATAATTCCCCATAGCACGTCCTCGCGACGCCAGCCTG
0.3918695389267646 GTATTTGCAGTGAGGCTGCTCTAGAACGGCTGTTACGCAA
0.5418866763152014 AACATCCGGCTCGTTATATCACTAGACAAACGCAGCCGAC
0.40495983651801 TACGCAATAGGCACAAGTACTTAAACTGTGCGTACATGCA
1 TCATTATGGAACCCACATACACGGAATCGCACCCGCATAA
0.2545733567010905 CCGCTACCGGATCTAAACGCAGTATTGCGCGCTTACGTCA
1 TGGCTGGCGCGCTTACATAGGATAGCGCGCAGTCTGCGTT
0.5689337040784004 TTGACGTAACCTCCATGGAGCTTCGCGCCCGCTCCCAATG
1 GACTCATACTCTGCAAGGTGATCCGTACTTACTTAACTAA
0.6543129067825729 AACCTCGACGACGAACACCCCGTAACTTACAACACCATTC
0.02625649734351461 GAGCCCTACCATGAGCCCTACAAAGATAGATTACGCAACC
1 TATGCAAGTGGCACCTGCACCGTACCTGCATTGCCCCAGC
0.2752522687608883 TGCATAACAGAATACGTGTACCGCTCAGTTCACGTACCTC
1 ACGTCTCTCACCATTTGGACTTGCCTAATATGCCTCAACG
0.4052496799670623 TACGCAACTGCGCTATATTCCGCAAACTCCGAAAGGTTGG
1 AACATACCGAGACCGCGCATGTAATGGCACGCCGACATTA
1 GATCCCGTGACTAGAATGAACACCATTACACGATAACTAA
1 TACGTGACTTTGCCACTAAGCACAACAAGCCTAATCATCG
0.4628221682626614 CACGATCCTCTACAATCCCGCAGCATTGTACGTTACGTCA
1 TACCTAACGAGCCTTTGCTCAGACGGTAACTTCCGCAGTC
0.3865432574042026 TACACCAACGTTATGTAGCGGGAGTAGTAAGCACAAGTTA
1 CATCGTCAAGCTTTTGTGGCAATTACGACACCCACCCCTG
1 TCTACACAGACCGTGTCCCACATTGGCGTCATTTATATAA
0.6859468903292822 ATTAACAACCCAGGCGCAAGTACCGCAGCATTACATCACA
1 TACGTCACGAGCAGCCCCTTGACCGCACGAGCCCGTGACG
1 AACGCATTATTCCGAGCTCAACATTATCTGAGCCAACATA
0.009511483462209347 AGTACTGTAAGGCAGCTCCTATTACATCAGACTTGGGTAG
1 ACGTTACAATGTGTTACTGAGGCGGTGGGTCTCACGGCAC
0.5774636080833697 GAACACATAACATGCCCTAGTCTCATGTAAACCTCACCGG
1 CCGCGCACCCACTGCGGATCATGGAAGTAGCCTCACGATG
1 CCGGCCCCCAACATCACACCCTACCGGTTGCGTCCTGAAA
1 TACGCAATTAAAGTCGCTTGCACCTGACATGGGGGTAAGC
1 ACGGTTTGGGCACCCAATCCAGCACTACAGTTAGATAAAC
1 TTCATAAGGCTGCGACTGTTCACACACGCGCACAGCCCCC
0.2222487398505207 TAACGATATTACGACACTCATCAAGACCACCCACCACCCC
0.4453851765683892 ATGACATAACAGCCCCTCCACCTCGACCCATGTCTTCCTA
1 TACGCAATCACCAGACGAAAGACTTGGAGCTACCTGCCTG
1 TATGCAATGTCACGGTTCCCGCTGCCCGCGGGACACCAAA
1 AAGAACGGTAACATTTTAACTAACGTCGCGCGGGTGGATC
0.2907945862300617 CGAGGACCGGCGCTTATCTAACGCAGCTACCATATACGGT
0.4679645922606191 AACCTGTCTGCCCACTCTATTGATTGTCGCCATTACGTCA
1 AGCATTATCCACACCACACGTAACGCCCTGCCCATAAGCC
0.6008867901417319 TGCCACACTTGCGTAGAACGCACCCGTCCCTCTTACACAA
1 GCATCGGGCACCTTTCGCCCAGATGATACAACAGCCAGCA
0.4360367710492399 TGCATAACGGATTATATTCGTGGCACACATACTATTCGCC
0.4199620119992142 CGCCCCCCCTCCAACTACACGTATCAAACACATGACGTAA
0.355047176673549 GTTATGTAAGAACATGTACGAACCTGCCAGATACGACAGG
0.3442534116408805 GTAAATAAATCCAATAGCAATAGGAGTTGTGTTATGCACA
1 AATTACAGGGATGACCACAGAGATTGCACCTCCACGCTTA
0.6303587598240861 GATATACGTAAGCCGGAGGGACACCTCCGACACTGCAGTT
1 CCCTTTGGCAGCGAAGACCCTAACAGAAGTTATCAAACAA
1 TGTATAAGCGTACAAATAAGGGCGCGGATCAATATTCGAA
1 AAGGTCAAAAGAAAGGATGCTTGCTCAGACGCCATCCTAG
0.317583096492948 CATTACTTTACAGTTCTGCCGTTACGAAAGCTGCCTCCAC
0.6898258076074953 TACGAAACGAGTCATCCTTTCAATGTACAGTGCCTTGCCC
0.2152799447585707 AACAAAGCGCATTACTCAGGCACGGTACATTACATAGCGC
1 TACGTAAATCTCACGGTAGCGTCAAGTCTGGGGTCGCACT
0.8543956403151738 GGATCACACGACGCGATACCATCATCCACACATTACCTAA
0.1878526054284621 TGCGTAACAACACCAAGCACTCCAAGTGGTTGCTCCATCC
0.9827179128525435 TACGCAATACCAAATCCTCAACAGCTTCACGTCCCCACAT
1 AATAAGCACACTAATGCCATCGTACAACGCCGGTATAATC
0.5127594630733938 TAAGCCATTTGTCCTTATGAACTGGCCTTGTTTATATAAG
1 TATTATTGGACACGTAATAGACTGGCGCCTCCAACCAAGG
1 TGTCATTAAGTACGGTAATCATTTACAGCACGAATCGCCT
1 AACCTCGCATAACCACGAAAGCTAAGTCCTTCTCAAGCGG
1 TACGTCACGCCCTACTCCCAATTCCGCCGCCACTATGTAC
0.08702691991313816 TCCTCTTAACACTAGATTTAGGTAATCACGGCGCGCGCCA
1 TACCTAACTGCTCGCAATAAACCCGACGCAGCCTGTCGGT
1 GTTACGTTCAGCAGCAGTCTCAACGTCGAAGTGCGTTACG
1 AGTTGGCAAACCCCAACGTAATCCTTGCCCGCGCCCCCAC
0.1651399765365405 AATTGAACCATCGCCTATCACGTAAGGCCTTACTGCAGAC
0.07520749182879807 TACGCAACAAAAGCACATTCTCGTGATATTGAGTACCCTC
0.3896263127130033 GACGTAACGCCCCACCCAGACACCATTACCCCCCCCAGAA
1 TACGTCAACGCATACCCCGCCCACCCAAGCCATAACGAAC
1 TATATCATATCAACTTACTTCAGACAGCTCTACGTGGGTT
1 GACGCAACAGCGCGCAAAAGGCTAAGTACCCCTTCCGACC
1 AATAGCAATCCGCTCCCAACATTTCCAAACCCGTAACGCT
0.1222087376690489 GCCGCCGAAAACTGATTAAGTAGGTGAATTAAATAACGAA
1 TGCATAATCTTACGCCCACCCCACGTAGTTCTCAACGCAC
1 AGACATGGTAGCCGACTCGCCCCCACTTCGCGGCCTAGTA
0.3407726371940697 ACCAATGGTCACATAACTAATGTGGGCTCACCGGGTGCGT
1 TACCTAACGACACCCGGATAGGATAGAGGAAAAGAGTGGC
0.7158519601943346 TCAGATGCTGTTACAATAGCGCAGTATCTATATTAAGTAA
0.150627219284032 TGCGTAACTAGCGTACCAACAAGATCCATCACCACATATA
1 AACGCCGCCCACCAATACGAGTTAGCCAATACTAGAACAC
0.8616560340564775 AGCGCGAACCTATTCGACATCACCGATGGCGGTTGCATAA
1 TGCATAACAATATTCAGACTTCTATGCCACAGCGATGGCT
0.1478383776774234 GGCATATAAACTGGTCTTACACAAGCGGGGCACCACCTGA
1 AACACCTGCATGCTTGCACGATCGTAAGACCTCTTGCCCT
0.4168448019949291 AATGACGTAAGTACTATCGCAAAGTCTATAGCGAGGACTA
0.9948227940998483 GACCCTTTGGCTATTACTCAACCGTAAATGAATAAGATGC
0.5171881134509004 GCCACGCATAATCGAACTTACGAAAGCTACATAGCTGCGC
1 AATGGCTAAATAACAGCAACTCTTATGTCTACACTGGTAT
0.406795563908051 AATCGAACACGGTCCACCCTCTACTTATATAAACCAAACA
1 ATCACCTCAAACTTAAATAACCCTAACCCAATCCGCCGCC
0.410201400042328 TACGCAACTACGTCTACAGAATGTTTCCCCCATCCCATTA
0.3783083816260404 TGTGATGATATCATATCTATACGACGTTACATCTAACCCT
1 AACAACCGAAACTTCAATGACTAAATTACGCCCGCCACCC
1 AACGATCCCACCACCACCTACAGCTGCGTAATTGGTGATC
0.6001666257821897 CACGTGCCTACACGCATCATTACTCAATGCCGATACCAAC
0.9839307561901468 AATCGATTCGACGACGCGGCCTACTGGCGTAACGAGCATG
1 TACGTCACCTGACCAGCCGCCTGGCCTGCCAACCCGCTGG
1 TACCTAACAGACGACGTTCTGACCCACCGAAACGAGGCGG
0.3128294471320853 TATGTAACACCATTTCAATGCGAATCACCCTTCTGTACTA
1 TACGAAACAACCTACACAAACGGCACGAACACAACCGTAA
1 GATGCGTTAGCGCCGCCACCGCTCCGTCCCTTACGCAATC
0.5936304456532616 TAGGTAATGCTGACCGCCTGATTATGTGTTTCGAATGTAC
1 TACGCAATTCCGCACGGGCGGTTGGCCAGGACAAATAGGT
0.8782585654647336 TACGTCATAACCCTTCCGCAGCTAACCTACGTGCCTATGG
1 TATGCAACGCGGAACCCTTTGCACCTTTCTGTTACCCGAT
1 TAGCTAACTATGCACGCACCGGAACGTGGGGTAAGATACC
0.7511916171844299 AACGCCCATGTAACACTTAGCATCGCAATCCACTACCGCT
1 TGTATAACCGGCGTACTCGATGCCGTCGCGATTCAACATC
1 TATACAACACGGAACTATACCCTCCAGTCCCGCTTCCTCC
0.04079084005290846 TACGTAATTTTTCATACCGTGTACCTCACTCTATCTTTCT
1 TCGTTGCCTCACACCGTGATAGCACACCAACCTGTCGTAC
0.290521175878117 GAATCCACTGCGGCACATGCGCTATTGTTACGCGAGCAGA
1 CGAAAAGGTCTACCTTCCGGGCAGTTCCTTAGTTGCATAA
0.6542652063599721 ATATCCTACGCATTTATCCAGAGCAATACAATTACCTAAT
1 AACAGCCGTGAGCTAATAGCGCTACTGTTTCCTGGCTAAA
1 GACGTAACCTACCCACGCATGGCGCCAGGTCAACCACCGG
0.5102906873926346 CCGTTACGAAATCAGACCGCCGCAGCACACACTGCTCACT
1 AACACCCGAGAACCCGTGAGAGCGTAAGGCAAACATATAA
1 GTATGTCCTAACATCAGGGTGGGGAGTCGTCCCATTATTA
1 CCCGCCGACGCCGCAGCACCTTCCAGGCCCTTGCGTAACT
0.7439256838684704 TATAAACCCCACTCCGCTCCAGTACCAAACATTATGCAAC
1 CATTACACCCAAAATTAGCTAATCACGCCCAAGCACCCCG
1 TGCATAATCGGCCATGCCCAACATGCTCCACCTCCCCTGC
1 TATGCAACAAGACTAGGTTTTCTCGAAAAGACATACAATG
1 TATAAAACACGTGCTGCCCAACAAACATGCTAGCTTACAG
1 GTTACATCACGATCGCACCCCATAAGAACGTATTCAGCGT
1 AACTCATCGACGAACGTAAGTCGCTGATTGGACTGGCCGC
0.4393057403523364 TATGCATACAATCTATCGCGCAATCATGATGACATTCCAG
1 GCTTGAAGACGCTCAAGACCCCCCGATTATGCCAGACACC
1 GTTGCCCAACTACTATCCCTTACACGCACCCCGCCTGCTG
0.05994266987299682 CCTGAGTTACATCAACACTTCAAAACATGCACCATAATAC
1 AACAATCTGAAATGATATGATAACAAGTGGAGCATAGGCC
1 AGTCTGCCGCACGCTACCCAAAGATACAAGGATGTCATAA
0.04886969303331106 CCCACCGTCACAGTGATATATCATATGCGAATGACATAAC
1 TATGTAACTGAGCAACTCCCACCCGCAACACGGCCACAGT
1 TATATCACAGACACCTACCCACACTGCGATTCAGTGTCCG
0.5937061315883634 CAAATCACTGCCTTGACGTGGACGACTAACTGTTGCGCAA
1 TATGCAACTGGGTTAAACGTCCCACCACTCGCTATGCCGC
0.2351613710219777 ATTGCGTAACGGCAGCTGAACTTTGTACAACTAAGTAACT
1 AAGGCCCCAGCGGTAGTGATTACACCCGTTAAGGTGACCC
1 AAAGGGCAGCGTTTCCCGTACAACACGTGTTCTCCGCGAC
1 TATGTAATTGACCTGTGATCACCTCTTGACCTCCAACGTC
0.3486531710714789 GTCAAGCCGTCACATGCCGGATTTCATAAGCTTAACCCTA
0.7042735977956098 ATTATGTAAAGTAACTAACTACGATTTTGTAGAGCGAATA
1 TGTGTTAGGTATTACTAAAGTGAAAGGCTAACCTAGGTAA
0.8478956293594262 ATTCCACAATCGCTCTACACATCAGTACTCACATAAGGAC
1 GAGGAATGGGCGTGACGACATCTCGATCGCTATACTTTTC
1 TGCGTAATGCCTCACAGAAAACAAGCTGAGCGGTTCGCAG
0.8210650181696283 GCCTCTCTGAGTCATCAGTAGATTAAAGTTATTCAACCAG
0.3867497665541491 TACGTAAACATAGTACAGTTTACTAGCACTGCTTGCGCTA
1 ATTTACTACGCAATACTCCGCGAAACATCCGCGAGCCCTC
0.2858043729385977 TACGCAACTTTGACACCATCTCGTGATTTATATCTTACCA
1 GACCCTTTGCCCCAACAGCAATACATCACCTAATCGAGTA
1 AATCAGCCACCACAGGTTAACACGACTCGGTACGGCCACA
1 TGCATAATTCGTGAGAACTGGGTGCACCCATTAGTTTCTC
1 GATGTAACGCAGTGCCGCATCACCTTCCTAACATCTCCAA
1 AATACCATCCACGAACGCCGGCCACGCCACCGCATAGGCG
1 AATCAAAGTCCTAGCCGCATAACACAACCTATCGCCGCTC
0.8862756154037066 TTCGTAACACGTAAAGTGTAGTAAAGCCTCCCATTCCTGA
1 TATATAAGTATTACTCACAAGTCACGCACGTGCATGTCCC
0.5643110895072778 GGCCCAAGTCGTGACGAGAAGCTGAAGCATTATGACACTT
1 AACCTCGAGGCACACCTGATTGTCCAACAAGGCAGCCAGC
0.6308321590076611 TATCTGGTGTCGAAGAAATTATATGCCATCTTTTATGTAA
1 CTAAAGGTCGTGATCCGGAACACATCCCGTCTTTACATAA
0.9761612781241858 CCAAGCAAACCCCCGAAAGCATCAGACGCATTACCTAACA
1 AACTCATCCCTTGAGATCTGCAACGTCACCGAAATCATTG
1 TATAAAACCAGCCCCCCAACCCGTGGCCCCACTAGCACAA
1 TACGTCATAGTGTGTCATCTGCCTTCTTACTCCCGCGAAA
0.4908402652264696 ACGAACCTAGTTACACAAGGCGTGAGTACCACGCTCTCTA
1 AGGAGAGCGCTATACTCCGCATACCGTTGCGTTACCCACC
1 TACGTCACAGGCCTTTCGCGTACCTTTCTTAGCCTTACGT
1 AGCCCAACCATAACCCCCGTTTCTTACGAGAATTAAAAGA
1 CCCAACCCGAAACCACCACGCTATACAGCTATTACGGCAC
0.07879635831970573 TATGTAACTCTACGAGATCACGGAAGGGGGTCAGCTAGCG
1 TATATAAGGCTGCAAGTAGCGGCGATCTACCTCGCACGCA
1 TCACGTCTCCAATCCTTACCTCATGACCCCATACAACGTG
0.5832458087449949 ATACCGAAGCAAGGAACGCGAAATGCACCCTTACGTCAGG
0.6802554647743804 TACGTAAGCCTAGAAGGAGCTTCAGGAAACGCACTGGCGG
0.8890273584591303 AGTATGCTCCCGAACGTATGACCTAACAGTAAATACCTCT
1 TGTTCTACCAAGAGCCTTTTTTCCCGGCTACGTTCCGCCA
0.8261915077072852 TAATGGTAAACTGCCTACGATGCTCTTACGTACTAAAATA
1 TAACATAATGTCCAAAGTGCAGCCAAGCCCAAACTCCTCA
1 CCGAAACACGAGGGGATTGTCTACCCATCGTTTTGTAACG
1 AATGCTACGATCCGGACTGAGAAGGACCGCCCATAAATTG
1 TATGAAACGATACTACATAGCGACTATATCCCTCCTATGA
1 GACATAACCAACAATCCTCAAGGCCTCAACACCTCCTACC
1 AACCATCCTATCCTTGGAAGCACGTAATAAGCTCACTCCC
1 TGCATAATGCTTTTCTGCCGAGTGACGGGGGCATCGATGG
1 TATGCAAGTATCTTCAACGGTAACCATCCACCCGGCTACA
0.5320348333481619 AGCACGTAACCACGACTTGCTCCCATAACTTCCCCGGTTT
1 ACCCTATTACGAATGTAGATGGTGTTTTCCTTCGACTTAA
1 CACGACCCGACTTGCACCTAGGCATCGGAACTTATGCAAC
0.1152731016468325 TCACTGACCCAACACCATTGTGTCATCATTGATATGCAGA
0.8423701326462124 TACACAACACCCACCCACTCCAGGCCCTCCTACGTCCCAT
1 AAGCTCAAAGCATTCTTATGCCACGGCGCGCTCCCCCAAC
1 TATCTAATGTAAAAATATCACATTCAGCATGCGGTGTAAG
0.1911513076409911 TATGCAACATCCCCAGGTAGGCGTATTGTACATAGCCAAA
1 CCAGAACGGGGTGGCTAGCTTATCTAAGTAGGGGAAGGTT
1 ATACGATCTTGCTCGTCGCTCGATGTAATCACCTCCAATC
1 AACTATATACGCCTTTTGAGTCGCGTTACGTTTAACGGCT
1 CAAGTCGACATAGCCATGTGTAACTCATGTATATCTCTTA
1 TATCTAACGGGAAGAGCCGAAATAAGTGGTACGACGTATA
1 TACATCGCAGGTCCTGACCGCACCGCGTAATGCGGGCTGC
1 TACATCACTATGGCCGTTCTGGCGATGGCGATGTCTCCGA
1 CCTAACTAATCCATCTGAGTTATTACCATAACACTAGCCC
0.788535563711527 CAACAAAACGCTCATTTTCGTTCCGTAACCGCCTCCAGGC
1 TATGCATAAACTGTAGAATTACTCAGCGTGCTATTTGATA
1 TAGCTAACAACACCTTCAAATTAACTAAGGTGCATTAGCC
0.4506436985320642 GCCTACTCGCCCCCAAAGTCACCTGGTGGTGTTACACAAC
1 TACATGATCAGTGTTACAGCCTAGATACCCGGACATCCCT
1 TTCAGTTTATAAAACTCCACATTAGCCCAATTCGTGATTA
1 CACCCACGTAACAGCACCCCAGCTCCCTTAGCCCCCCCCA
1 TACACAATCACCGCCTCATCAATAAGTCGATCACTCTCCA
1 AATTGATTACTCATGCAATTCGCCTGTGATTAACGGCCTA
1 ACCGTCGCGAACCGACCATAACCCAACCGGTTCCCCCGCG
1 AACGATAGGTACCGAAACTCGTGCTCTACTTATGAAGCTA
0.5580835209599987 AATGTAGCAACCCTTATTACATACCACGAAACCCCTCATG
1 TACGAAACTGCGGTAAATACCCAATCCCGAACTAGCTGCA
1 GACATAAAGTGACCTGCTCACGCTCCAACGTAAGATTACT
0.003410424453057846 AATAGTTCGGTGACGAAGTTTATCATGGAATGACATAATA
1 GACGTACACACAGAGTGAATTAGGAGACATGTTAACGTAA
1 TACGTGAGAACCGTAACCACACTGAAAAGCTGGCATTACG
1 ACTTATATAAACTGTTGGCAAAAGTCCTCCCACCGCTGTA
0.8581008967777864 GACATAACATATCTTTCGCACGCGGCGCAAGAGCGACCGA
1 TATGACACCATGAACATCCATTAACTCTGCATCTGCTGTT
1 TACGCCATACTGCAAACGCATCAATGACGACCTGCGGTTC
1 TCGCTCCGCAAGGACTGTGTTAGATCATCACCGGGGTAAC
1 AACGCGACGCAAGTGCCCTCTATGAAACCTGCTGTGGCAA
1 AACCGGTGTTTCAGCCTTACAGCAAACCTAATAGGACAAT
0.6077692595871298 ACTATTGAATAACATTAGACGGAGGCGCAAACCCTTTGAG
0.9944362011765313 GCGGCGTGGTACGAACCTGCGGCCCCGCACGTTATGTCAC
1 GTGCTCATATCACAAGTGACACTGCTTTATACAAGCCCGA
0.548870869116366 TGAAGCAGCATCACTAATTGAGTAACTCCCTCAGCACTAC
1 GAGATAACAACGCACAGTGACACTGAGAACGGAGCGCTGC
0.5184107880406751 TTATACTTACCTAACATCGCACGAACTCCGACCACCCCTC
0.9653761332463257 TACGTACCCAACTTCGCTTAAATCTTACATGAACATCGCT
0.05688135074504165 AGTTGCGTAATCGCGCGCTCGGCCCCCAACTCGAATATAA
0.1126913984754279 CACCACGTTGAACCCGAGCAGCGATGGGCGTATTACGCAA
0.185211750848805 TAGCATGATATAATTAGACTTGTTCAACATACGCGCCCCT
0.4437307594060604 CGACAGACCTACACCAACCTTATGCAACATCTACGCCATG
1 AATGCGTACGCGACCACCTTCCCCCTCTTACGTGGCGGCC
1 TACGTAAACTGAAAGCTGTGCACACCATCCATGGTCAAAC
0.8064813924961397 CACGTAACCATTCTGCGTCACACATCCCCTCTGCCGCTAG
1 AGTCTCGTAACGTACGATCTAATACCAATGAATAGCATAT
1 ATTGCTTATGCCCGGCCGCCGATACACCACATAACAGCCC
1 ATTGCATAAACAGATCATTTTGAAGAACTGGCACCGTTGC
0.8581496813779356 TACGTCACTAAGGAGCTAACACAGCTTACTGACGAGCAAA
0.3975784292533061 CCACTGGCGCAATCCGCATTCGATAACACCTGCCACGCTA
1 TGCGTAATACCCCATACTGACTCCAACATGAGCGCGACCA
1 TGCGTAACTCCCTTTTTCTAGCACAACCGGTACCATGGCG
0.6410740215177408 GCTACAACATCTCTTTGGAAATGTACATAATACTAGCCAA
0.4307157188268003 TGTCATCTACCGATTACCCAACCATTGTCAGTCACAGCGC
1 GCGAAGGTGCTTCCTTAAACACGTTCGCTATAACCTACTG
1 GACGCAACAGGCAGGCACATTCGTGCACGCTGGCAAATGC
0.2287580116623184 GCAATGACGCAAGGAGTACGATGAGCAACCACCTTTACAC
1 TGCATAATTGTTGCAAACAAGCAAAAATACATACGATGTA
1 GACGTAACGCGAACACCAAGACCCATCTCCTGCCCTGTAC
0.1835476035194274 TACGTAATTGATGCCTACGTGGTCAGTGTACGCACTAAGA
1 GACGCACCGCCCCTGCGCCTCATAACATCTGCAACGAACA
1 AATAAGGCACCGCATGAATGATGCACCGTAAATCATGCAC
0.3237451761215164 TATGTAACGTCCTTGCCCTGCACAGTTTCATTCTGATTGC
0.2804061045626567 AAGCTAGAAGCTTACGAAACTAAGCACTGCGTGCCAACAT
1 AACAATTACAAGCCGTCGCATCCGAATTACGCTAGTCCAC
0.9001652595766463 ACTTACATAAAGGACACAAGCTCCGCGACACCCACTCATC
