svm_type c_svc
kernel_type gkm_esttrunc
L 8
k 5
d 3
nr_class 2
total_sv 9423
rho 1.05575
label 1 -1
nr_sv 4450 4973
SV
1 TCAAAATTTTGCGTAGTAATAAAATTACGTTTAATACTGC
0.0451113776192404 CGCATCGCGTGCTCGCGAAGCATGATGAGCATGATTGCTC
0.3018107111769467 ATTAGTGATTAGCATGTGTGAACTCTAGTGCATAGGACAT
1 GACTCTCTTTCTTGTTGATGTGGGTAATAAGGGCGGCTAC
0.5671664557033441 ATTGCATGACTTGACTAATTCAATTCCGTTATAAATGTTT
1 ATGAAGCGCATTGTGTGTTCATTATGGCTGAGTTTAATGA
1 TTCCTCGTTGCTAATAGCATCCCAATCGTTTGTCCAATTC
1 ACGCTAGTGTGCGAATCAATATAATTATATCTCTGTGTTG
0.2869403210404941 TTTCCCCCCATGTCTATAATGATATTCGATCTGATTACGC
1 AGCAGTTGTGCTATATTCCGTTATAATTGACTCTTGTGAG
0.1284793370349076 TCGTGGACGCTGGTTGTTTAACTAGACCCAAATTAATCTA
1 ATTGATGTCATTTCTTATCGTTAGTTCGCTTGTTAGACAC
0.1399404549907296 TAATCAGCATACACTAACGTTAATCCGTTATCGATTACCG
1 ATTGGATCCTGTGTTACATCACCAAGATTCAAACTAATTA
0.9163356240113237 GTATGACGATGGTGTGGCATTGTTTAGTTCTTAATTACCA
1 CTGATTTAGTTACCGAACACCTTAATATGACCTGAATCAA
1 ATTTCTCATTTTCTTTTATGTCTGATTTGGAGTCCGTGCG
1 ATTACGTGTAATATGTAGTAATCCTTATGGAATAATACAC
0.9867366523389705 AGAGCTTGATTTTCTTTCTGATTCACGGTAATGAATTCCA
0.03083890958804388 GTGCGCTTCTCGCTGATACTGATCATGTAGGCAATCATGT
1 ATTGTTTTTTACGATCAACGCGAATTATGCAGTTATGGAT
0.9007459905368802 GATATCTCCATTATTCAATCTCAACAGCAGCTCTAATTAG
1 ATTACCCTCTGCATGGTACAGAAATCCCCCTTGATTGACA
1 AGGCTCAAACCGTCATCCAAACAATCACGCTAGATCCCCA
0.2998083009299485 TTAAAATTACCCTATCTGCATTATTAGGTCATAGTTAATG
1 GGGCCTATCTTATGTCATGCTAATTCTAATATCGTAATTG
1 TATTCCGTCTGCGGAATATTAATTTTGATGTAATGATCCC
1 ATTAATCAGTCCGACGTGTCAGGATGGTTGTTTTCGTTTT
1 ATTACGCTGGAGCACTCACTTACCAACTTCCTGATAAGCG
1 TTAGCAGGACGCTATTGCGGGCTGGGACGGCTAGATGGCT
0.8086177359376304 ATTGTAGTATTACGTTATTGTCGCCTAACTACCACTCTTC
1 ATTAACATTAATCCCATTGCTTAAGTAGGCCATACATTTA
0.7214310496914235 ATTTTTCTTCACTTAGTTTGTTCAAATTAGCCCCCGCCCA
1 ATATGCGGGTAAGCACTCTTTGATTAAGCTTCGCTGTTAT
0.6974504733686034 TAATAATGATCGTCACGATTGGCATTTCCCCAAAATTAGC
0.675181543923044 AGTGACCTTTACATGAGATGTTAGGACGCGTGATTAATGG
1 TAATTAGTAGAAGTTCATTTTAAGCGATATTCCCTAACTA
1 GCGCTGGTGTATACATCCCATCCCTCCAACGATCTCCTGC
1 ATTGAGTCTTGTTATCGTTCAATCCGCGGTACTCTGATCG
0.1931715911082281 ATTAGCGGACGTAACGAGAGGTTGATTTGCACATGATATG
1 CTATATCCACGGAGAACGCGATTATTATTGATTGAGTTAC
1 ACTCTCCTCTTTGACCAGAAACGCTACCACCCCTGCCGCC
1 GAGGGAGTCCGGACGAATGCAAGGAATGTTCCAGGCTGTA
1 TTACGATATCAATTTTGTCGACATTACGATATACTCGTTG
1 CCCGTTCGGATTACCCCCCACCCGCTGCTCCGCGCGCTCG
1 AAATGTGATTTTAATGTGCTCCTTGTGTATCTGGGCGCGG
1 GGCCAAACGGAGCGCGCCCCGAGATTGAACCACAAAAGAC
0.172114281082676 ACTAATTAAGCTACATACACCGTCAGTATTGCCCGAGCAC
0.8233352276760366 ATTGTCCAAAATAAGCGTTAATTTGACGTCATCCATAAGC
1 TTACGTCCCATGGCGCTGGCCGTGAATGATTCCGCGCTTG
1 ATGACCTTGTATACCCCGATTCGCACCTTGATTATCCATG
1 AACGATCAGTTCTTCCATCCCGGGACGTGCATGGGCGAGA
1 CTTATCCTTAACATTTCGTCTTGATTATTTCTGTCAGTTG
1 ATTAACACCTGGAAAGCCTGCTTATGCTAATACGTGCATC
1 CGTGATTCGGGCACTCGATTGCTAAGGAAGTAATGGCTTA
1 ACCATACGCATTATTGCTTATGACCCTCCCGACCCCTCCC
1 CTCGCCTTCTGTTGCACCACATTACCTCTGACCGTCATTA
1 ATTACCATATGTATTGTCCTCAAACAGCCACTTAATGGAC
1 CTGCCACGGCTAACTCCAACTCTCCTCCTCCTTCTGTCGA
0.984404965041644 TAATGACGGTCAGACCCAGACTTTGCTTTTGTTAATTACG
0.6365638908914425 TTGATGAACCGTATTAACTAACTAATGGGCGTATCCTGAC
1 GAAGTTATTTAGTTAAGTTAAGTAGTATAGCGAGTAAAGC
1 AATCACCTCGCGAACACGTCGCGTGGCCACACAAACACGC
1 TTGATTAGTGCACAGCGACAAGATAACGCCTCATCTCCGC
0.4047773743849944 GTTAATTGTTCTGTCTTAATGCTTTGTTTGAATAGATTAA
1 CGACTGATAGCCTTATTGCTCGACTCGTTACGTTGGTGCA
1 GGACCGACAATACCTTAATTTGATAGGGACGCTATCTAAT
0.02045950242458714 ATTGATCTGTTTTGATTGCGTATACTGTAACCTGATCCCC
0.4447635237186917 ATTACGTTATTGTTGCCAGCACTACGTGGGTTGATTGGTC
0.7221168198294027 ACGAGGTCCCTTAAATATGTAATTGTGTATTTGCAACAAA
1 ATTAGTATGCAGTATCATTAGGCCGCCTTTCGCCTAAAAC
1 GTATGTGGTAAGGGCAAGGGACGGAGTTCTCAATAATTAG
1 AATTAAGCGTAATATTTTCTGTTTCAATCCATTACGCTCC
1 CGAACCCTTCCTCTGCGTATCTACATTGCTTACCCACCAT
1 GGCCGTTCCTGACGGTGACGGGAAGGAATAGCGTCTGACA
1 TTGATCAAGCAATAAGCTGCTAATATACGTGCCGATTAGA
1 AGTGATCAAGGTCATACGATTAAGTAATAGTACTGATGTG
1 ACAAAGCGCTTTGTGCGCCCATCCCCCCCCACCCCGCGAG
0.1271764210242488 ATTACGGTCACGCACCACCTACACTAATTTGTGTTGAACC
1 GCTAATGCCATCTTCTACGTTATTAGCCCCTCAATCTCAT
0.4905895712793974 GAATCGCGAACATCTAACCCTGACTACTTTCCAATCAGTG
1 CAGGATATGCAGCTGCCCCCCCCATGCCCCGCCCCGCGAC
1 CTATTCCAAGTGTATTAGCCACTAATATACGGGCCCATCA
0.2717935711586409 GTCTCTGCTCGTCATGTTCTTGATTCCGGCAATTGATTAG
0.8698718584406585 AATCTCAGTCTCCATTTGATTGCAGACTAATAATCCACAT
1 GCAAGGAAGTAATCACTCTCACGAACAGACTTAAATTACG
1 ATTAACTCCCAATATTTAGCGAATGTTTTACAACCTGTAC
1 ATTGCTACCCCTCTCTGCTAACTCGTAATAAACTGCGTAG
1 ATTAAGAGACTGAGTGCACAATCTGGATTAACGAAGAATC
0.6904898416853145 TGAATTCTAATTGCAAATGCGAAACGTAGTGTGGGTGCGT
1 ACAAACGCGGCCATGCTTGATCGAGAAATTGACACGACGC
1 AGGTCCAGCGGGTACGGGCTAGATGTGTTTCGCAATGTGC
1 GACTGATTCCTCCTCATAATCGGCCAGATTGATCTGCAGC
1 CTATATGCGTACATTAGCTTTCATATCACTGGAATCTACG
0.3294818685781425 ACTAGGGCTTATTTAATTGCCGTACCTCCTTAGTATTTGC
1 ATTGGCCTCCGAGCCCCCAATTAGCCGTTCTATCACCGCT
0.5930195636183285 GGCATCCCTATCTATTGAGTTAATCAACCTGGTTCCTAAT
1 ACAATTAGCGCTAACCTTATCAGGCCGAGCCCTTTGGTCA
1 CCCCCTAGCATTTAGCCAATTTCATTCCCAATCCGCACCA
1 ATTAATCGTACCAGACCGCGACTGTATCTAAATTCTTGGT
1 TGACCTCGGGCAGAGCGCCCAGCGCGAGGGCACGGTTGTG
1 ATTACGTATAAGTAGCTGCCTATTGAACTCTCCTCCGTTA
1 GAGTTAATGAACTTATGTAGACTTAATCTACGCTTAGCCT
0.7602279063852579 ATTATCAACTATTGTCACTAAATTGGGTCTCGCAAGCACG
1 TTCGTGACACGTAGCAAAACTGGCGCGACGTTCAAAGGGG
0.1760310745555081 ATTACGAATTATGACTAGCTCTAGCAAATGGGAATGTAAT
0.9357292128091346 TCAATTAGGTTTAGTGACACAACCCGATCTCAGCTGATTG
1 TGTTTTGTTCAACACTCAACGGTCATTATCGAATAGACTC
1 TGGATTTCATAATAAGTGGGCCGCGTGGCATGTGTTTGCG
1 AATCGTACACCCTCTACGGGACATTCGAAGAGCTATTACA
0.3351796056941658 CGCCACGGGCCCCCTCGTCAGCAATCAGCGTTTTAGCAAA
1 TCACTTTACGTCAAATGGGTAATATCATATGGCATTAGTG
1 ACTATTGCATGATTAGCGCCAGAGAGCTACCGGTACTGTA
1 ATGACATGATGTTCCGATCCCGTCCCCACAGGTCCCCCCC
1 ATTTTCCCCCCTCCCATTACCCAACCCTACTTCCTAATTG
0.654245224934857 TCTAATCGGATATTTTCGCATGATGGGGCCACTGATTACT
1 ATTAGCCCATTAACCCGAGGATGAATTACCAGGGCACCGC
1 TAATATCGCCTAGATTGAGGATTGGCGCACATGTTATTAG
0.9726158529719099 CATCAACCTTAGGTACCACGCACCTATTACATAATGACCG
1 AGAAATGAGCGGCCGTTGTGTTGATAGTCATCATTCGAAG
1 ATCACTAGTTAATTTTGCAAGGTGTGCGCGATATTCCCGG
1 GCCCGCTGGCTTCACTCATTACATAAGTACTTTAGTGGCG
1 ATTAGATACCATAATTATCTGCCTAGACTTCTTCCTAAGC
1 GTCCCCCGTAACAGTAAGGAACTACAACCACCCCAATTCG
1 TTGGTAACGAATTCATTAAGACTCATGTGCTCAGAAACAG
1 CGAGACCACCCTAATGGGTGCATTTATGCAGACAATCATG
1 ATTGCTAGCCTAGCTTATCAGCTACCATCGCGCGATTCAA
1 GATGCGTTTCTGAGCTAGAGAATCACAGCCGTTCACGTGC
0.9351384271036981 TCACCTCTGTTGATTTCTAATCACGCATCTCTCCGGCCGA
1 GTTCGCTAGGCCTTGACCTCAGCGGAAGGCTCATTCTCAA
0.6604938877491324 CGGAAATAATTACTACCCGTCACTGGATTGAGCACGAAAG
1 GTACCGTTCACAATCAAACCCCCAATCCTAACGCACTTGC
1 ATTGTACAAACGTTGCCATTAACGAGCTGCCCTTTAACAC
0.0217104018875599 ATTGTACCATAATTAACCCACGCAGCGCACCTCATGCCCG
1 GCCACAACCCACCCCCCCAGCCCAGCGGATCCCCACGGAC
1 ATTACGCCGCAATCAGCGTCAACGACTCAGTCAGAACTAT
1 GGACGCTACCTTTTAACGCCAATCGGCTTTCATTACGATA
0.1099587507613444 AGCCCAAAGAGCAATAGCCCGGGTACTCAGCTAATTACAT
1 ATATCCCGCCCACGAGTCGTATGTGATGAGGGGTGATGCA
0.5032752636192583 AATCACCTCTAGCTCGAACACATACCGTGATTGCATCAGC
1 CGTCTACACATCCATGATTGAACGAGAACACTTAGGCAAG
1 CGTTAATTGTGCTATCATCTATTGCCGATTTTCCTCCTTT
0.2869989871718296 GTAGAGTTTGTTCTAATGATCAATTACTGGAGTTTTTCCA
1 ATTAGTTAAAATAACTATTAGTATCGCATGCTACTCTAGC
0.5009884838714076 ATTGGGACATTTAGTTGATTGTTTCAATGCACTAGTAGTG
0.9356311773368537 CTGCTGTAATTTACGGCATCGTTATAATGGGTTGTGTTCA
1 AATTGATTACCTAACTTCGCTTTTGCTGGTTAGTTACATT
1 GCTCATTAATGGCTTCGGCACCTCGTTGTCCGTGAGTTAT
1 GATTCTTTCCCCCCCCTCCGCGTGGCGCGTGATACAGCTT
1 CTTACTTTTCTCGTCAATGCGTAATTGCCGACCAACATGG
1 CAATTAGGTTCATGCTTTTGTTAGAACATACAGCACTTGG
1 ATGACGGTACCAACCGGCAGTATTTGGTGCATAATTGTAC
1 CTCAGGCAGGTACGTACGTTTAGTCAGCACGCTCCTTGCC
1 TGACGACCCTTGACAAATGTCTCAAAAGCGCGGAAGTTGA
1 AGTTAAAACCCGTCATTGACACTATCCAGCCACTATGTCG
0.9727243807654277 CGCTGCTATATGCATTATAAGATCAGTCCAGTCTAATTAC
1 ACTGACACGTCGTCACTTTGCTTGCGAATAGTGCATCAAT
1 CTAATGATCTAAATACAAACTCATTGCGACCAAGCGCATG
1 GCTTTTTTAAGTACCTAACAAATCTTAACGACGATCACCG
1 GCAATTTTAAACGTCTTCCGCAATATACCTAATCCGCGCA
1 GATCGAAAGCATCCCTCATCGCTTATCAAGAACAATTACG
0.7798943896936543 CGTGTTAAAATCGATAGTATAATTAGAATACGACGTTGCT
1 ATTAGAGTTATTTAATCACGCCTGCATGCTTCCCTCTCAA
1 CAAGCGAGTCATGTGACCCATTCCCACATTGCACCTTAAA
1 GCCACTAACCCCTCACTCACTCATGATGGTCGCCCCGATT
1 ATTAAACTGATTATTCCGCTGCATCTTTCTCCCTTCCTTG
1 TATTATCCCGATAAGCCTGGGCAAGGCTCTAGGTGTTGAA
0.3698085035649642 ATAACAGTAAACCATAATTGACTTGGACGCATTCATTATG
0.910598770853367 ATTACACTTTAAGCGAGCTGATCACTCGCTAAATTGTGTC
1 AGTCACTCCTGTTACCATCATGCTGAAAAGCCGTTGATGA
1 CAATGTTACTCGTTGCATTCTCACATCACGTTAAAAGCAC
0.558871627266079 TATTATTCCTTAAACTTTGCGATTTCGTCTTGATTGCCTC
1 GAAAAGACTTGAAACGTGATTGGATGTGTAACTATACTGA
1 TTAATTGGGTACACTAATACTTTATTGTATGCTCCTGGCC
1 CAATTACCATCAGCTAGGGAATTGATGTCTATAAATAGCA
0.02000789537956729 TGCCCCCACCAACACCTCCCAATTTAATCTTTAACGAACA
1 ATTAAATAGTAAATGGTCTAGTCGTTCCTAAGCAGCATTC
1 ATTAGGTAGTAGATTTGGTGTTATTTGCACGTAGACAGCG
1 TAATGGCGCAATAATCCCTCATCACAGATGTGCTCTGGCC
1 ATAACATAGTATGAATCTCCACCCTCTGTGTCTAGATAAT
0.4167265526243423 TCATTTTTGTGGCGTATATACCCTCGTCAACTTAATTAAG
1 GCTTCGGATACGTACACCTCTCTGATACATCACAATTAGT
0.3829508784847456 TTCAGTCCAGAACAAATTATCCGTCGACAAACTTGATTAC
0.0797788454590945 GTTGCCTATAATTGCCTCTACTTTGTTGTAATTTCGCATC
1 ATAATTGTTGGTTTCTTGTTTAATAACACATGTAGATATC
1 ATTGCGCTACCCAGACAACAAGAACACCAACGCCAACCTG
0.3091857587411772 ATTGTATTTTGTAGTTGCACGATTGTCCTCATCATGTGAT
0.4295864563718075 GTCGGTACGTCGATCATTATTCATTTGACTCAGTAAATTG
1 CCGTGGACTCGATGACGCAATGAAATCATGATGATACCAC
1 ATTGCCCCCTTGACGATTTGTGATCGCATGCTGATCTCGG
1 CCAGCCCTCCCTCCCCCTAATATTGTTATACTTACCCGTC
1 AGCGTCCCTCTCATAGACAATGATAGCACCAACGAATCGC
1 CAATCAAGGTCTATCATTAAGAAGTCCAAAGCGACGAAAG
1 ATTGAACTTTTTAGCGATGTGATTATGTTGCTAGATCTGT
1 GCGCACGGATCTATCGATTTGCGATACTTAAATTGCATTA
0.6387935983548397 ATTGCCGTCCTTTAATTGGTTCTGTTTAAATTCGCGTTGT
0.02763389629328606 CTGACTATTAACGACTACCTAAGCTTCGTTAATTTATGCC
1 ATCGTACCTTATTAGTATTCCTTTCCCTTTGTTAACCTTC
1 ATTATGAAGTGTCTTTGATCTTAACGAATGTTCTTGATTG
0.08834349156349229 GGACGAGTGTGCAATCATATAGGTTCATCAATGCGCGGAC
1 AAGCTGTTCCCTCAACACCGCATTTCGATACAATACACAA
1 ATGGAGCTCATTAAACCACGCCGCCTTATGAGACGCTGCT
0.4659912705379184 CAGCCGGTGCGACGGCCAATCATTAAATCTACATTGATGC
1 CATTTAGTCAGCTTAGCTTCCACTCAATTTCAACCGTTTC
0.2568292005965136 ACGCCAGGGCTCATTAACGCACCTTCGCATAATGTAAGCA
1 CACTTTAAATGTAATTGCCTGACTGCCGCCCGGCTAATAG
1 ATCTACCCTCGAATACAGTTCAGGGCGCCCCCTCCACCAC
0.1690558222883962 AAGCACATTACCAATCATGCTTGGACAATAGGAACACGGT
0.8281070027865177 CTCATAGGTAATTTTGTATGTTCTAAGTACGTGCAATCTA
1 TCCCCGACTTCAGTTCCGAGACTAGGAATTGCAATTCGCG
1 ATACAGAGAGCTCTGACCACGACCACGAAATTATCATCAA
0.4195404247098565 CTTGATTCATAACATCTTTGGCTACGCGCCCTAATTGCAC
0.7239372913480605 TAATTCAGGCTGCATTCCACTAATCACTCATTCCTTGAAG
1 GCGGCTCAGCCATTGCCACCTAATCCCTTGTAATCAAGCC
1 CACACCTATTTGAACTAATTGAAATGTATATATCGGGAGA
1 ATCATGCATGCACTCGCAACTCGCATGTCAATTAGCGCAA
1 GCTGATCTGAGACGTACTTCATAATCATCAGTAAAGACGT
1 ATGTCATGCATTTTCTCATTGATAGGGATTCGGGTAATTG
1 AAGGGTGTGGTCGATAGCTCTTTCACACATTTGAGTACGG
0.04369994124436035 ATTACAACTGCACCCTGGAAATCACACTTTACTCATTAGC
0.9328164763869634 GCTGTGTACCCGTCCTATCTGATTACCTCACATCAGTTCG
1 GAGTGCCCTTTTTATAAGTTCCATTTTCGCGTGAGGCCAG
1 ATACCATGCTCTAATTCGTGGAAGATTGCACCCCTTTTGC
0.6383266088878516 ATTGGCAATTGCACGGATCCATGATTTGCGCAAATAAGCT
1 ATGAGTGCATGGCCTGTCACTACTTGTTGGTCCATCTAAA
1 AATAGTGTGGCTTATTAGACTTAAGTACCGTAAATTCGTA
1 ATTACCTTTTAATTTATGATCTGTAATGTGTTCCATACTG
1 TTGACAAGATCCGCAAATATAACTAACCTGCGCAATCAGC
1 CACTTCCCTAACGGAGCCTGTGCATTAAGCTGATTTAACT
0.9299333744109879 ATTACAGTCCATGATACTAATAGCTGAAATGATAGTTAAC
1 GCGCTCGTCTTGCTGCAACTTGGCATTTACTCTATGTCCC
1 ATTACGTAGCTCTTTAACGTCGTTGATTCAGCCGATTGCA
0.4788153768167179 CGTGATTTGATATCCTACACTTCCATTAGGTTAATATCAT
1 GTGGAAAATCCGTTAACTGGCGACCAAATTATCATATTCA
1 GCGGTGAAGATTGGTAATATAGGAATCAAATACCTGTAGT
1 TGATAGGGCGTGAAGGGAGCGCGCCTACAGTTTTGTCATC
1 CGCTACACGGAGCGTACACCCCTCATGATTTCAAAAGCAC
1 CAATCAACCTATACGCACTCCCATACTCTATGCATTGCCG
1 CGATCCAATGGCGCTTAAGTTAAATAATTCCTACCTTAAT
1 ATTACATCCAATGAAAAGCTGTACACTACAGATTAGCTGG
1 TGCTCTACCGGCGAATGTACTCTGTAATCAGAACGATTAT
0.7211980400862323 TACTGAACGGCCACATCTGCTTGATTGTCGCCTTTATCAT
1 TAATCCGTGCCGCTGATCTTAATGATTAGGGTTTCTCCGT
1 TGGAGACTTCGTATAATGCCTACCTAAGTGCAGCAAAGCA
1 ACGTGATTATCGCTAAATACGCTCTTATCGCCTGCAGCCC
1 AGCTATTTATTGCCTATTATATATCATTAAAGGTATGCCC
0.5563899614976182 ATTGCCACTCGTCAGTCGCATTATTGATGAGCATCGTCTA
0.1577671349047927 GGGAACCGTCACGGATGCAATTAGGGCCATGAGTGTCCGG
0.1888513159944399 ATTAGTCTAATTGTGATCGGGCACAACCCACTGCGTTCAC
1 GTCAGTATCTCACGACATAAGCCCTACCGACACCGTGTAA
1 ACTACGCAGTGGCCAGTCGGCCAGTAATTACTGGTCTCCA
0.8287082423227121 AACAAGGAAGAATCGGCGTGATTAGCCCATACACTTCCAC
0.7549862503026397 GCATATCGTGCGAAACTAATCAACCATAAGATAGTCAACC
1 ATGTCATCATAAGAGTTGATCCTGATGAAACTCCCAGTCC
1 TCTTAATCCTCAAGCCGCACTTTTTGATGACACAGAGTGA
1 ATTGTGATTGGTACTCCTGCGGCTTTAACGACTCATGGAA
0.9379671970884503 TAGTTAGATTGTTTAATCGGGATTTGCAATCTTGCGGTAC
1 TTTAAGTATGTATAATCTGGTTTATGCTTCATTTTATCTG
1 ATCTGCTGAGCGCCATCACGGTAATCGCCAGGTCTCACAC
1 ATTGGGTACTAACGATACCACGTGCCCCCTGAGCGAGACA
0.9040897987239127 ATTGCTCATTAGTTGTTTTACTTTGTTGTATCGCGGCTTC
1 TAAGAGGAGCCTCTTGCAGCGCTACTAGCTTAATTATGCT
1 CAGAAGCCTCTTACACGCACGCGGACCTGGCCCGAGCACA
1 CGCCCCCTTCTTTTTTGCTGTTGTCCCGCGTTAATTACGA
1 ATTATGTGTTAATCTCAAATCATATTTGCATTTCCGATAG
1 TGCGCTTAAACGTGATCGAATCCGTACCCTGCCATAATGC
0.4002414732614581 GCTAATTGCATATCAAGTATGTCTTGTTCTGCAAGTTTGA
1 GATTAGCCCTCCATGCTAAATGCCGGGATTAAGCTAACCC
0.1122111443495896 GGCGATACTAATAATGACAGTAGTTAGTAGTGCCCTGTAT
0.1670189707247255 CATAGCCCTAATTTCAGAATGCTCTCCCACCCCTCCCTCC
0.7642929655690432 ATTGCCACCTCTCATGAGGCTGAACAATCAATCGCAGTGC
0.895458132778599 CATTACATTCCCTTGTTTAAGCTAATCGTCATCACCGTCT
0.1732943216050726 ACTCAACTAGGTTCTCCTTGCTAATTGCTAACGGCACACC
0.5638915536733986 CCTGCGATTAATTAATCCTTTTGACTTATAAGGGGGTGCC
1 TAATCTTGCCAATCGTTTTGCAATCACCTTCACTTCTGAC
0.3421934051978605 ACACAATTATAAATTGTTAATATCTCGAAGTAACGATATC
0.5184234557631412 CTCTCCGAATACTAATCACAAGGTACTTAACCGAATGAGG
0.4692730480283465 ATTGACAATTATCGCCCCCAATAATCCTGGCCTGACTTGC
1 CTCCGCCCATCAGTGCGCCTACGTCTCTCACATAATCGGC
1 CCCTCCCACACGCAATCATATAGGCACGCGCCGATGGGCC
1 CCGATAGATGAGGGTTGAGACCCACACAGCCCACTTGCCC
0.9855325801175845 CCGTATCTTCGTGTACTTAACTGCGGACGCGTTGATTTCG
0.03803228643349414 AGCACAGACTCTGTGTATATCCGTTAATTAGAGTTATTAG
1 CAATGGCTTCATTTTGACCATAATTTGTCATTCAATAGTT
0.06949459982134211 ATTTACCTACCTGCGCGGTAATAATTGTATCACTCGTGGC
1 ATAAATTTCAACTTGAGGCACTAATTTTCCGATTTTGGAC
1 ATTAGAGCATAGCCTTGATTTCTGAATATGTACAATTCTA
1 ATTACGCAAAATATCAACACTTAACCAGTAGATGAGTTTG
1 GAATTAGCCAAGACCCCGTGGTTAAAGCAATAATTAAACA
0.09805484821183313 TATTCTTCGTTCTTTAACGATCACTCTGTTGTGTAATTAT
0.8338259800391118 ACCTCCTGTCACGGTGGTAACACCTACGCTTGATTACTGG
0.5937360061062408 CGTCCCAGGCCAGCATCCAATTAAACAAATTGCCTCCCAT
0.2646960266581753 AAGCCTTAATCATCTTCCCCCACCTCACATGCCCTTGGCC
1 TAACCGAACTCATAACTACCACTACTATGTGCATAACATC
1 TTTCTCCACGGGAAATATGACGCCAATCACTCCAAACTCC
1 TAACAATAGTGTAACAACTACGAAGTTATAGCTGTACGCC
1 AGCACATAGAGGAACTCGTTCACTGCCTCTGATGTCCCCC
1 ATTAAACATATCAGTAAATAGCATTATCGGTTGTCAGTCC
1 GCGCGGATCGCTAGTCAAACCGTGCACATGCGCAATAGAG
0.4389685846868492 GCAAGTGATCGTCAGTTTCTCTAACGGATTTAATTGCTTG
1 AAATAAGACTTATTGATGGCTAAATGAGTTGAGAGATTAG
1 AGGAATGTCAGATCCCACTAAGTTGTCTGCCTTCTAATTG
1 TCAGTTCATCCTAGTTTCTTTAGCTGACATGAACGAGTAA
1 AGTCCCACCCCCCCCTTGCACCTGCAATTCACCGTAGCCC
1 ATTGGTAATCCTACTACCACATCCACCGCTTCCTGCGGCT
1 ATTCGAAAACATAAATTTCTAGCTGAAAGATATTCGCAGC
0.09697079507735265 CAGCAATTACAGTGCTATGAGGACCTCATTTAACGTTTCG
0.2422717037701312 ATTGAATTGCATGATTACGTATTTGCTTTCTGATACAGTC
0.7835674185594642 CCATAGTTCTGCTTCATCATTTAAGATTAATGTGAGCTAC
1 ATCTAACCTACGCCGGGTAGCGATAGCTAAGCGATTGGGG
1 AGACAGACGTTTATAAATTATCGAACGACGACTAGAAGTC
1 TTTCTTGGCCATTCCACTGTGCTTCCTGATACGACGACCA
1 ATTCAGTGAGCCTTTTAACCGTCTTTTTGCTTGAAGCTAC
1 CAGTAAAAGTAACGTGAATTAGCATATTGGTAATGGGGCG
1 TCTCGTTTCAATTACGGTGAATCGTTGCATGGACGCATAA
1 CCCCCGAAGTCGCAACGAGCTATCTCCTAATCATTATACA
0.5016031848660601 TATTCCGTTGATTGGTATTTTGCGCGTTTTGTCGGTTAAT
0.2913694935219452 ATTAAATGACGTAATATATTTAATTGGTACGCTGTAGGGA
0.1077150202431144 ATTACGGAAACTCAATTTTATGACTGATTGCACCGCTTAC
1 CAATTAAACACCTTGATTCGGTCGATATGGCTCTATTGCT
1 TAGAGAACTTTTTCCTGACGAAAAAGGATGTATTAATCCT
1 TAGTACATGGATGGCTCCAGCATTCAAATTATGAGTAACG
0.5549988613032973 AGCCACCCGCTAATGACCACTTTGCACTCACCCTTCTATC
1 TCGTGATTGGCTTTGAATGGGAGAATACGTATCCTAACGT
1 ATTACTGATCTAATTTTCATAGTTTGCCGTGCGATGGCCG
1 CAGATACCCCCTACCCTTGCATCGGTCCTTACTTCGGACG
1 GACGCATCAGGACACTAATCGAGGGCGAATCACATTATCG
1 ATTGCACACGGTGATTCCTACGTATGCTCCGTAATATGCA
1 ACCCATCCCCCAGGCCCAAAGAATCAAACAAGCAATTAGA
1 TACCATTTGCAGGACCTCTTGCGCCTTATATAACCTGATC
1 CATCCACACCATCGCCCTCACCGCCCCCTTCGTGCCTCTA
0.227833758938318 AGAGTGACGCCCAACTTATCTTAATTAAGAAACAAATGAG
1 ATTTGCTATTGTGTCATTACGAAATGTGCTCTTCGGTATG
1 CGTGAGTCACGTGTTTTACTAATTTATCTTCGTTAACCAG
1 GACCTCCGCCACCCCCGCCCTCCCCCAATCCCAACCTTCC
1 TAATTACGAAGAGCTTTCTTTTTACGCAATGTCTAATTGG
1 TCTACCGGTCGTAACCCGCCAGCATCCTGACGCGCTCAGT
0.4632041028237506 ATTGTGCCTCCATTTATCGTATACAATAATTGATATGCGA
0.06046045467121746 GCTAATTAATTTTGAAAATGAATCCGCGCAAGTATGCCGT
1 GCCATCCACTCTAATTGGCTTGAATTATAAACAGTGGGGA
1 CTTATATAATAACTCCACCGCCCCTTCCATTTGATTGTAA
1 ATTGTAAGTTACGCTTTTTTACCGCGAGAATAATATGTAA
1 AATAATTCCAATTAGTAGACCAAACCCAGGCGCAGTGGCG
1 GAAAATTAATTTACCTGCAACTGCAAGCTATAACGTCTCG
1 CTTTTACCCTTTTCCCGTATAGAATATTGATGACTGTGCC
1 TTGTTACATCAAGGTTGCCCGTGTATCGTCGGCTGATTGG
1 ATGTGCAACAGCTCACCCGTTGAGCTGCCGGTGATTGCTG
0.6904954282334331 ATTAAAGCCCCTTAATGACGACAAAATGGCGCCCCAATCA
0.8754112073405098 ATGCTCATTACCCGTTTAATACGATGTTTTCGTGTCACGG
1 TTAGTGACTTACACACCAGACGAAGTAGTCCTGATTTACA
1 ACCCCAATGACATAACAATGACGCACTCCCTACATTACGT
1 CTAATTTTTCCAATCTGTATTATATCCGTTATCATAAATC
1 GTGGAGCATTTTGCGCCGCTATTGAGTCTAATTGGTTCAG
1 ACCAGCTGTCACCGAGCAAACAACCTAATGCCCATACACC
0.1612721597320067 ATTAAGCTTTTTGAACACGGATAATTGCGATCAGCAACTG
0.2464579543488238 ACATACCCCAATCCCACACACCATCATTAATAAGTTAGCA
1 ATTGTGCGATCTTTGGTGATCGACAATCAGGAGTGTGATG
1 ATTCTTTAGTGTCATACTCGTGGTTTATTTGCTGACGTAC
1 ATTACTCTTCATTTACTGAATTACATTGAGTTTACATCAT
1 ATTCCTGGCCTCAACGGCTCGCCCAACCATCACCAAGCCG
1 CCCTTCCCATTCTATTGATCAATCCTCTGATAACACGCTA
0.2056938850308737 ACGGATTCCCTGCCAAATCAGTCATTACCTGAGCCATAAT
1 TCAGAATGTGATCAGGCCTGATCACCTAAACGGTGTATTC
1 AATAGCGGCACATCGCATTTTGCCCCTCTGGCCTCCCTCT
0.5575405618493542 CCCCAATCAAACTCACCGACTCATGTCTCACATTTGATTG
1 AGGGCGCTGAACACAGGGAACGCACCAACGGCGTAACAAT
1 AGCGTGTGCAGTTCGACCTCGCGGTCTGCATAATTAATGC
1 ATTCACGCTATTAAGCCTAATAACTGCGAGTTGAGCTGCC
1 AACTGCCAAATTACAGTACCACTTCCCTGCGTCCTGTACG
1 CGAAACGGTCGAATCACTTCATTATGGGTTTACACAATTA
1 ATTGGGTCACGTGCATTAGTTCGCCTAACACCGACTAGCG
1 CAATTTAAATCCCCAAATTATAACATGTAGTTCTCAAAAT
0.6299222697024059 GCGATACCTGCTCGTTAGCGTGTTCGATAATTTTTAATCA
1 CCTATGTCACACTAGAGGATCGGTAATTACCGGTCTAGCT
0.746082713207414 GCTAAGTTACTCTTCTTTAAAAATTGTAGATAATTACGCC
1 CACTCGTCAATTTGCTGATCTGAATCAGCTGTACCTCTGA
0.4393043446818308 TCTTTATCACTGTATATTGACTAACTACCGATTTGATTGA
1 ATTATTACTAACAACCACGGTTTTCTCAAGGTGAATTAAC
1 TGGCCACGTTTCCTGACAACCCTCCCCAACCACCCCTCCC
0.6741569139847647 GCACTCTGTATGAGCATAATTGCCTCGTCAATGCTGTGCT
1 CAAATGAAAGGTAACTAGTGGGCTTAGCGCTTTGCTGTCC
1 CCCGTCTTCTTACCGATTGCCATCAGCCCCTTAATCGCTC
0.3725811567739827 CATCCCTACAATTCCTATTATTTCCACTAATTGGCCCCGT
0.360211014579315 AGCGTAATTGTTGATGATACGCTGGACCGCCGCCGGATTA
0.2856624635275326 TTTTGATTGGTATTTTAGTGTTATCAGTGCTGCATTGGCC
1 AGGGAACTGCGCGATCTTAGCAACGTTCGGCTAGCCCATG
1 CAGACCCCACTCGGCATGCCGCAGATGAACACCGTTACGA
1 ATTGGATTCGTAATTTGGAGTGGGTAGAGCGCGTCAGCTG
1 ATAGCATAATCAATCTTGTAGTCGCGAGTATGCTCTCTAA
1 AAGTTCACTTAGCCATAAATTTGGGCTGATTTGCATAGAC
1 ATTTGTCTTATTAACCTTAGTAAGGGCTACGAAAATGGAA
1 ATTAATGTTGTAACGGGTAATTTATCTGATAAGCCGGTCC
1 ACGCGGCCACCTTAACAGAACCCGCCCTCAGAAACCCGTC
1 CTGATTAGGTAGTTACACACGAACCCGTCATTGTTCCTTT
1 AGACTAAAAAACGCTACTTACCCATCGTTATCACTGTCAT
1 CTGTGCATTTTCTCGANTGCAACATGTTTGCTAATGTTAT
1 CTTAAAATGTTTTCCGTTAATGATCCCGTAGCTATTAGCG
0.5370357968100722 ATTACGCATAAGCTTTGGAAATCGTAACATGATTATGTGC
1 ATTGGTTGCAACGGCTAAATTGGGCAATGTACATGACATA
1 ATTAGCGCAGCATTCTCCACTTCAGGCTCGTGATTAGACT
1 TAGGCACGGCACCTCATCGTGATTGCCCCAGTCACCTTAG
1 CTTCTGTTACAGTTACTCATATTGTCTAATCTCCACGCAT
0.4141745517336916 GAGTGCGACGATTAGAATCTCGTTTCTGATTAGAGTTGCG
0.5640811475606285 ATTGATCTAATTTGCATGCTCGGTCGATCTATTACTCGTA
0.6569125289018832 GAGTTGGATGAGGAACTTTAATGGAGTGTGCTCATTAGGC
1 ACCCATTTGGTACAAATACTTCCGCGTTACGCTCCCTGCA
1 TTATACGGATACTTTACCCCTAATTGCACTTGCATGACAC
0.9535266152580043 ATTGCGGAGTTAATCGGTCAATCGTGAATTTGATTTAGGG
1 TAGCCGGCCCTTGACCGGGACCGATGAATCGTCTCCCCAC
1 GGATTACCGGATTATTAGTTCGATCACTGACGAACGATGC
1 TCGTTATCTTCCAATCCCAGCTCATCTGCGGTTTGGTACA
1 TTGAGGCCGAAATGAGCCGTGATTGGCCTAAGAGTGACGC
1 TGTCAGCAGTCCACCCTGCTGCCTGTTGCGCAGGTCACAA
1 ATCTCGTCCACTCCGAGTACTGATTTCATTTCCTTCGCTA
1 CGAAGGCCATGCCGGCACGGCACGCGCTCGGTTCTCCTGC
0.9992266396047487 GACCATCGGATCCATCAACCAAGCCAATACTAATCATACG
1 TCACGCATGTATTGCCAGCCGACCCGCTCCCGTATTAGCC
0.7525457751336284 TACTTAATTCAAGGACGTTGATGACTTGGTTAGATGTGCC
1 TCATTATGCTGCGTGATTTAGTTTAATGTCTTGTGCGTAC
1 ATTGCAGTATAGGTTATGTAATGACAGGATAGCCTATTTT
0.6721881618923308 TCTTGAAGACACTTAACCACGTTCTCAGTGTAATGAGCGA
0.6298682459248928 ATAACACGTAATCGCGTGATAAGGGCGATTGTCTCGGTGA
1 TACTGACTACGCGATTCTGAAAATTACATCGTTAGGCTTT
0.1973399076245763 CTGATTGGGCCGTGATTCCATTGATGACCATACAACGTGC
1 TTTGAGTTGACGCGAGGCGGCATGGGCTGATGGCATTCCG
1 ACCACGCAATCGTTATTTAATGGGAATTTGCAGTGGCCGG
1 ATTGAGGCATATAATTGCGCCGGTTAACGTACTAGGAGCC
1 CAACCGTCCGCCCCTTCTCCCACGCCACTGACCCCTCCCT
1 ATTAGCAATTGTCGACATATTCGTGTTTGTTTGATTTAGG
1 ATTGCAGCCATTCGTTAGTATAACAGCGCTTGACGGTCTG
0.1588542273598746 ACGAGATTCATTGTAACCACGCCACACAATTAGTATAAGA
1 TTCGCCAGTGTGCCCGGCACGTCCCATTTGTGTTTAAAAG
1 CTACTCAATTCTTGCTCATGTGATGGTTGCATCTGGTCCT
1 ATTATAACCTATACTGATGGCTGATACATGATAGATTAGA
1 CGTACCCTCCGACACGTTCNACTACTCCTACTCTAGGCAA
0.7131814886623776 TTCTGTTATGATTCATGGTCAATTACTGCATTTGCAGCTG
1 TATCGACCCACCACTGGACCTATAGCACGACCGAATCTAC
1 AGGACGGTCCGCGTACCTGGTGCATACGTGATGGCACCAC
0.4246931819307105 CCCTGCCTTAGCCGCGATTGCCTATTATAATGCTGATTTA
1 GCTTAGATGCCTCAGCTATGCGACACCATTCCTATTCGCG
0.9034852392682651 CTTAATTCCTGTCATGCGTTGTTACGTTAATGTAACAGCT
1 ATGCCCACCTCCAACACCCCTTCCCCCCACCCGCCTCCGA
0.6668256751566809 ATTAGCTAATGGTGCTAATGGCTGGAGGACTTGAGACACG
1 AACCTCAATCCCCACCGCCGCCCCCAAACACCTCCCCAGG
0.764081929213917 GCATATCGGGGACCGTGATCTGCTAATCAGTGCATACTCT
0.3321242920419594 GGTGCCCATGGACAAATTCCCCTTTTACCCTTAATTAATA
1 GTGCAACGGATCAACGACCACTTGTTATTACCTGCCGGTA
1 ATCTGACCGCCCACGATCTCCCCCTGCCAAGGTGCTGCCA
1 ATTGGCAGCCGTACCTCCCGAATCGCATACCCCGTTGTGG
1 GCCGTACTGCGTGACACCGCTACGTTATTAGAGCAATCAT
0.6704626180427422 ATTTATTTTAGCCGAACTGCTTAATTACTGCTCCATCGTA
0.1659725441267524 ATTATCACTTAACCGGCGCAGTACTCGATAATGAGTCACA
1 CATTCGAACGGCGTGCGATCGCATTACTAGTTATTAAAAT
1 ATTTGCCCGTGTGTGCCTCAGATAATGAATCATATAAGTG
0.09431910482659012 ATTGGAGATATTTAAGTGTTACCTGTCTCCCTGATTGCTC
0.9999530692183874 CTAGCTTTTCGGCTTCATCTATATGCTAATTGCGTAGGGC
1 ATTATGTTATTATCGCTACTATCTGCGTCGATAAGATGTG
1 ATCCAATTAGCATTTCATCTCCACTCAGAGCAGGCACCCT
1 CCCCGAAAACCAGATTTTACATCCCGAAGGAGCATTCGCC
1 TGTAAGACCTACGTCGTTAAGGCACGGGCGGCACTCCATG
1 TCATCACGAGGACCGCTCATCGCCTTGTTATCGCAGCATT
1 CGTGTTTGGCATCGTCAAGGAATGTACTGGCTTTAATTCG
1 CACTAACGATAATAAGCTTAAGTTTCCTAAATAGCCAGAC
1 CCTTCATCCAATCTCACCGCAGCCTGCTACGTGGCTAATC
1 ATGACGTTACATTTTAATTATTCCGCCGTTAGTCTAGCTG
1 CACGATCCGCAACAGCCCACCCGCCCGAGACCCAACAGTG
1 ACCGTAATGGATTAGTTGACGCGTCGTTTAGATGTCTCAC
0.1378639301413664 ATTAGCATTCTGTAATTTATTACTGTCAATATTATGTCAT
1 TAGGGCTTGAATCGGTTACGTGCCTCCCTGCTGAGCTCTA
0.1046343647065072 ATGAGTAACCGACCTCGTCACCTCCGACCCGTAATCAAGG
1 CGCGTTGGCTGTAATTTAGTATGGTTTAATGAGACAAGGA
0.7823929137668867 GACCTCATGCTGCCAACCATTGATTAGACATGCCGCGCTG
1 ATTAATACATCTCGATCAAAATCATGGTTTATTACGCTGC
0.5110193970215023 ATTGCGATATCGTCAAAACCTACTAATTGCCACCGTTCAC
1 GTTAGCAGTGATAGGCACACACTCTGACCTCACAACGTAA
1 TTCCGTTTTGTTCATGCTTATATCATTAACATTTATCTAT
1 CCTCAAGTGACTGTTCCCCGGGCGCGTTAGCCCCTTGCCG
1 CATGTCCACTATCGAATATTCTAACATGTGCAATACCACG
1 ATTGTGATATGTCCAGATGTCAGCACCTTTAGTTACGTCC
0.2879823836377505 TGCGGGAAAGTTAATGACCATTAAAGGAGGCCACTTACGC
1 CCTTTCGTCCCCCAGAGGCAGCAATTCACCACCCCATAAC
1 CAGATCTCTTTTCCACCTCGAAATCAGATTAACCCAATTA
1 ATCCGAGCTGCTACGTGCATGACTTAATCCACCTAATCAT
1 CCAATCTCCCCTCTCAGCCCTTATGCAAAACTCACCCTTA
1 CTAATTATCTCTTACTATCGTGTAATGTTTTCCTGCCTCC
1 CTAATTGGTCTTAATTTAGATCCAGAAGGGATAGGGCCGG
1 ATTGCAATCTCCACTCTCCCACCTTACCCGGAAGTAACCA
1 ATTATACCGGACAATCGCACGCAGCAAGAACACTCATCAG
1 GTCTCCATGCTATCAACTGTCCGCCTCCACGCCAACAAAC
1 CCTCATGGACGCCCCCCCCGCCCCCTTGCGCGACCCACTT
1 AATCCCCACACCCATGATCCACCCCCACCCATCCACCCGC
1 CACCCACACGATTAACATCCATCCTAGCACCGAATTGAAG
1 TTCTAATCCACTGGAATGGCCGATGTGATTCCCGCCTGCA
0.286027904268679 AAATGCCTCCACGATTAGCTCAAATTAACTGTTCAGACCA
0.9926959095359614 CTAGTTCACCGCGAATTAACCCCACTGATACAATCTCCCC
1 GCCCTATAACGCGCCGCCCCCCACACACCCACCCCCTCCG
1 AACTAGTCACATCCCATCAGCCTAACCAGACAAGTTTATG
1 CAATTAGTCCCATGTTCATATTACTCATATTGAATTACCC
1 CCTTACGTGCCTTTTACCGTGAGTTGGCTTCGGCATAGAC
1 AGTGGCGCTCATCACGTACGAACCATTTGCCAAGCACGGA
1 CGTTTGCAGGCGCAATGCGTCGTCATTTTAGCTAATACAC
1 GACCTTTTCTCCTCGTTTAGAGCAAATTTCGCCCTAATTA
1 TACGATAGTTGGCCTTGGCTGCTGGCTATAATGCACGCAT
1 ATTGGTGCTATGAGTTACAATCAGGGTAACCTCTCTAATC
1 ATTAGACCGTTCGTTGACTACACAGCTCGTGTTAATGAAA
0.2012898580549937 CGGAAATTAACAGCTGAAGATCAATCAATTTTTGGTTATC
0.6033377670978307 ATGAAGTGGTGTAATAAATCGTCAAATTACCTACCTGTAA
0.06220937980161328 TACCCAGCTTATCGGTATGATTTAGGCTGATTGGTTTACA
1 TTAGCCCCTTGTTTCCCTTCCTCCTTTTCCGGTATCGCGC
1 CAATCAGAACATCATAAATAAATCGAGATTACACTCGATG
1 ATTAAGTGTAATGTTGCCGGGAAGGCTTTAGTTATCCATG
1 TAACTCAATTTGTGAACTCGCACTCGTGTCTCATAGCATA
0.004192669270906842 ATTGCGATAGCGCCTAAATGTATTAGGTTGCTTCAATTAG
1 ATTGGCAATTTGAATATTGGTGCGGGTTTAATGCCACGTC
0.9315433860359442 TTGCAACGTGCTCTGATTACCTTGTATCCGTTTCTAATTG
0.7768806915574938 GTCGCAAATTAGAGCCCCGCATCAATGTAACTGAGCCGTA
1 ACGTCCCAAATTGCATGATAAGTGGACGCCTGAGAACTAA
0.3464526418230158 ATTAATTGTTCATTTAATGCGTGGGCAGGTGCTGTGTCAC
1 CGATCACATTGACCACGTCACTCCGGGTCAACCTGGCAAG
1 ATCATCACCCTTGACCGATCGAACCCTACGCCTATACCAC
0.5604036934746762 ATACCGATCGAGCCTATACCATTAGCCCTTAATCGTCTCG
0.06189547760482307 ATTGATAATCAATCCCCCTACCCGCCTCCGATGCAGCTGA
1 ATTTTATGCGATAGCGGAATAGTTTAACGCACTTTGCTGC
1 CAAAGGTGCTATATCGGTAGATAAATTAGCTAAAAGTACG
0.1566375528276229 ATTCATTAACATCCAGCGATAACAGCCAGACTAGTAATTG
0.7619059433176973 ACCATCTTTAATTGCTTTTAGATTTGCGTTGTTCTTGTAG
0.2556030032619452 AGTAGCCCATTAATATTGCTCGTCTAGAGGCTCATTATCA
1 ATGAGTTATCCCTGTTTTGTTAATTGAACCCTGATACGCG
1 ATTGCCCCGTTGATGAGGCGTGTTTTTAATGTTTTACCTA
1 CGGAGCTCGGCCTAATTGGGCTTGAGCGTTGGCGTCCATT
0.8349609828296215 ATAGCTTAATATGATATTAAGTGGTACAATCCTTAGTCAA
1 TCTAATCTACAGCGACTGTCCCTCGACACCCTTGATTGCC
0.4142634305025513 TCACCTGATTAATTATTATGCACAGGGGACCTCCGAACTG
1 TACGCAAACTGCGCAACCACGAACTACTTAGCACTAACTA
1 TGATTATTCGTTGCCATAAATGTCCTGTTATGTACTTCGG
1 TGAGGCTGGTTTGAAGCCTGATGGTCGTTAGATTGCAGTC
0.618957421642055 CACAAGCGTAGTGCGAGAGACGCTGATTACGCAAGAACAC
1 AGTCGTCAAGCCTCGTTGAGCTAACGACCTAGTTGCTCGC
1 AGGACTGCACTTATTTTATGGAGTCTAAATTAAGTATGCG
0.2194113764657651 ATGAGGAAACCGAACAGTAATTTCTCTAATCGTAATCATA
1 TGAACTCATTTCAATTAACCGGATGACGTTTTTATCAGTC
1 CAAGGGAGCACCCCCCACCGATCGACACCACCGCCTACCC
0.8040516782671059 ATTAAACGCAATCATGTATCACCTCTAGAACTTAAGCTCG
0.3712493260324323 AAAACTGATTAGTTCCAGGCCCATATTAACTCCATCGCGA
1 GCTGATTGGCCGCGAAATGATTCAGTCGCCGATGAGGCGC
0.01832172074738362 TAATTAAATGCTAACTCAAATTAAGCCCCAGATGGATTGG
1 ATTGGTATTACTACCGCACTGGGCGGACCTACTCTATCCA
1 ATTACGTCCTTACTGTCCCTTTAACACTGGCCTTATTAGG
0.08336184630022009 ATCTACAGGGAATAGAGCTACTAATCAGCAACTACTTCGC
0.06711952810138694 ACGCGCCCGTCCCGCTGTTGATTAACGCGCGGTGTCCCAA
0.8120740980814676 ATGGCAAGAAGGCAATCAGCACTACACAGTAACAACACGA
1 TAAGGCAGCACTAATAGTAGCGTTTGTTTTGGAATCACAC
1 GTCTGACTCCCCTTCATAAAGTGACTTGTGATTGCATTAG
0.1042853615686566 ATTGATAATACTTCACTAATACACGCTACCCCGATTAGAC
1 CCCAAAATTGTTCATTACCTCGCTGGCATGAAGATGTGTA
1 ATACTATTCACTTTAGTGGTGGTTTAATTTCTGTATCCAC
0.9212868553094787 ATTTCTAAATCACAAAGACCTGTCACTACCCCAATTATCA
1 ATTAAATCATTGTTATATCAATTCATTCTCTCTTCACTTT
1 ATTGGTTGCTGCCATTTTATTAGTTAGCTAGTTTACTTGA
0.9189214311097158 GAATCCCAGCTCGTTGAGCTCTTGATGCCAATTAAAAGCG
0.927732769082099 ATTGTGCTAACTGCGACCAGTACGCGATTGATGATAAGTT
0.5368787182246473 GATCTTGTACTGATTCGGTCTGGTGCCGATAATCACTTCC
0.06414725520637811 GTCGCACCTTGTGACAGTACCATTATCTCTAATTGCCCCA
1 CTCTCCTGGGTGCTAATGCGAGCGTGATGACCATTAACCG
1 ATTGTGCAACATGAGTAAATCGATAACGTAATTCGCAGGA
1 GTCCGTAGTCTGCCCCAATGCCCCACTCAACCGCACATGC
1 GTGTGCCACCTGCTACATAACATCTCTCCCTTCCTAAGAC
0.7998309697226139 ATGACATGCAAATTAAGCCGCGTGATATCGTCTTAAGGTG
1 ACGAGTTTTAATCATTTGATATAGATTCAGACTATTAATT
1 CCACCGCCATCTTTACCTCAGCAATTCACCACCTACCCGC
1 CTGATTAAGAAGATGATGAGCTCGGTTACGATCCGCTCTT
1 ACTGAAATTACGAGTAATACAGGCTCTATCTCTACCTCGC
1 ATTACCTGAAATCTAAGATGAGATGACTTCTCGTGCTATC
0.1397115665158689 TTCATGCTATTAGTTCTATTGGATTAATGCTTGCTGTTGT
0.5679688350632102 TAATAATCTTGATACATATAATAATCTCCCGCCTCATTAA
1 ATTTTGCATGCTCGTTAGCTTAATAACTTTCAGCATAGTT
1 CCCATTAGACACGGTGTAGTGTCTAAGTATGCGTATAATA
1 ATGTACCATTAGCGATTAGTCTCTTATCCTTATGTGGTGT
1 ATTGGCTAATTTTATGATATTGCTCGACCTTATTCTTTGT
1 TTATTTCCTCGTTATACTCTTTACTTCTAATGTTTGTACA
1 AGTACATTGTCTACACTCATTTGTGACTGATAATTTCCTC
0.3575623686369497 CGAATCGAATCATGTAGCGAAATTATGATCGCGAAATCAG
1 CTCTTACTCTTCCGATCGTACCGCTTAATCATGGTGCAAA
1 GGAAGCAGGCGCACGATAAACAACCCGTTGACCTCCCCCG
1 GATTAATCTCCCTACCTTGTTAACCCTCTAATACTGCTAT
0.3883437661365237 ATGATAAATGATAATGGACTGGTATTTAACAATGTAATCA
1 TACACTTAGTATAAGTGCCGCACGCTTATGTAGAGCATGG
1 ATTAACCAAAAATTGGGAGATGATTCCCGAAAAATAGTCG
1 AACCTTCAAATTAAAGTCGTGCTCTCTGGCCGCTCGTCAC
1 ATTAGTACCGTTATCTTACGAACGGCACCGTCTATTAATT
0.9712976115872924 ATGAGATTACCGGGCCATGGTTAGAACCAATAATTACTTG
1 ATCGAACACGCGTCTCTCCTCATGATCGCTCCTTCAACCG
1 ACTCGCTCCACCTACTGACAGCTTGCCTCGTCCCCCCCAC
0.4059896911308166 ATTGCCGGTATTAGGTCACAATCAGCCTTAACACCCAAAG
1 ATTAGCTTACTAATTCTGTCCATGCTAAATAAACGACTCC
1 CTCGGTATACTGCGTTTGTTAACATACTGTTGCCGTGCTG
0.7716448735615458 TGGCTTGATTAGGATGCTAGTAACAACTGGGCATTTTATG
1 CTGTTCTCTTTTAAAACTTTGCCTAATTGTCACAATGGAC
1 CTAACAGTAATTACTGAGATTCTGTTAGCTGCATGGTCCC
1 ATTGCTAGAGGACATTATATAAATCATTAGACTGTCAGGC
1 GAATGGCTCATGTTAGCTTAATTTTCTGTTAATGCCCCAA
1 ATTAAACTCGCATTTCCCTAATCACGTGAAGTTTTTACTG
0.9311376827633147 ATTAATTACATTTCTGCTGAATATGCATGGTTTGCATCGA
1 TTCATTAAGAGTGCTTTACTGCTGTTGACGTGGGCTCTAG
1 ATTTGCAATTACTGTTTCAAATATCAAGCAGCCAGTCGTG
1 TCTTTACGGCGTGTTGCACGGCCAGGACGCCTAATTTCAG
1 TTGTAGTTACCTATTTTATCCCACGCCTCTATTAATTGAA
1 CCTTATGACGCGATCGGCACTTATCTATGAAACCAATCAT
1 CGCATCCCCCCCTTTCCCGTGCCTATGTACCTGTTAATAC
1 ATTGGATAGTTAATGAATCATAGGTTACATACAGCCTGAA
1 ATAAACAAAAACCTATCGGATCACTAATTGCCACGGTTTT
0.8112831879898537 ACATTGTTTGCGTACGGTGAGGGACTGTCAATAATTGGTG
0.1831935096219505 CGGAAGGGAAATTGACGTGCGCTACTTATATAATGACGTA
1 CGCTCCAGGTGACGACAGGGGTCTCGCTGATTAAGCGCTG
1 CCCGTCTCTCATCAGCGCAATGGGTCAATACATTACCATC
1 ACACTACGGTACCCCACCCACCCCTCCGGCCCCGATCACC
1 GAGGGAACGCGTGATCGTGTAATTTATTAACATTGATAGG
1 AATTCCGAATAAATCCCTACCCTTGTCTAAAATCGCCTTA
1 CGAGGCCCCAGCTAAAGACTGACTTGGAACGCCAATCAAC
1 ATTATCTGATCGACGCGGCGCAAAACACTAATGGATTTTC
1 GCGTACCTTACCGGTACTGCCCCCCCCACCCCGTGAGCCC
1 AGTATTATCCCAGAATTCATCCCACGACGACCCCTCTGGT
1 ACAACACACCCGATGCGATTTGGCGGGGGAAATCACGGCC
0.9400360091286166 ACGAAAGTAGTTAACTGCTAATCAATAGGGAGCCGGCTCC
1 TGATATGGCTATTAGCTCGTATCATCTATTCGTAACTAGG
0.9771212134050339 TTATTTCACGCTGTAAAGCTTTGACACTCTTAATCAGGGC
1 ATTGGTTAATCACTTTTTTATCGTCTTTATCCCTATTAAG
1 CCCGTGACAGCGTACAGTGCGGCGCCCCGGACAATTATCA
0.07836004304071015 GTCGCACGCCGTCCACTCCCAATCACGGGTAATCCGACCG
1 CCTAGAAACCGCGACCACGCCTTTATCTTTACCAAAACGA
1 AATCTGGACATATGGAAAAGTCGGGCCATTACGACGCGGA
1 CTTGTTGATTTTATCTCATTTAGATTCGTTCTAAAATTTG
1 ATAATGAGGGCACCACCTTCGCTATTGTCCGTAACGTGCA
1 ATTGCGCGTTGACTGCGTTCCGGAGCTACAGTAATTACCA
0.2026377825289676 CCGCCATAACTATCAATCAACAGTAAACTCATCATATGGG
1 ATTACATAAGCTACGTAAGCTAAGTGCCTGCCATATCATG
1 ATTGAGCGCACTGTTATCCTTCGATACACACTTTTGCACG
0.3709003915986991 ATCTTCGTACCTTCATGATTGGTTAAGTCGACGATTACGC
0.4209507216022387 GGCTAGTGGGCCTACTATGGGTTAATCGCTAATGAGGTAG
1 TCACGTTTGTTAATTTGACCCGAATCAGAAAACTTGAATG
1 CCTGTAGGTTGTCCTTTTGCCATTTGGTTCGGTACTATTT
0.8529344601666998 ATCACACTGATTGGCGCTCCGCCCATGCGGGGTAGATTCT
1 ACGGGGTATCGTGAGGCTGTGTGAGCTAGTAGTAGCAACG
0.195755306886337 AACCCTTTCCTTGTAGCCTTAATGACGCTAATCCAATTCC
1 ATTACAGTTTAGTAATTGAAAACTGAATTGAACTATTCAT
1 AATGCTTGCTAATCGACAGCATCGATTATGGTCAGTGATG
1 ATGATAGAAACGTTATCTCGCTTGATTTTGGTCGTTAGTG
0.8890798564922798 ATTACGTGTTGTATACACCTACTAAATACTAATAAGCTTG
1 CAGTGGCAACATGATCAGATAACCTGTGATTACGTTTTTG
0.1488045840278391 TAGACAGTTTTTCCCTAATTGTGTAAATCAACCCTAACTT
1 TGGGTGACAGCCTCAGGACTACCACTATGGCATTTTCCCT
0.3108904076692284 ATAACGGTGAAAATACTCTATCAATCAACTAAATAATTGC
0.9705278663530956 CGCACTCTATATGGCTAATGGCAGAAGGTGCGCTGATTGC
1 CCCGAATAATGCCAGAAAATGCACGAAGTGTGAAATCAGA
0.7794419971454165 TTCCTGATTCACTCAGGAGCCTCGTGGCGCGTAATGACGC
0.2562881314726727 ATTACAATACGATTGACGTAATTGTCTATCATATATCTTG
1 CATCGCCTGTGTTCGTACTTCCATCCCTCCTATCTCACGG
0.04992229445249865 AAAGACCTACTTACGCGTAATCTGCTGCACCAATCAGTCA
1 AGTAGCTATCATGCTATTGATAATTTTTCCGAAATTGCGC
0.1493994161900283 CGCTGGAGCTAGCAATCAATCGACTATGGCATGCTAATGG
1 GTGTGTCCCACAGAATGGAATAATGCATTCAATGAAGCCG
0.06008273229724406 TATCGCACACAATCACCGTAATCCTACAATTTTGCACACC
0.01675587104902715 ATGCTAATAATCAGCTGTAACGATGCCCCCAACTCACGCT
0.3602952394919758 GCGATTGAAAGCACTGACTCTACGACTGATTTAATTGCGT
1 CGTTGCTCCTGTGTAATGCATATTGATATGTACACATTAA
1 CGATTAAGTTTTTTCCGTGATTCGCACGCTTCAATTAAAA
1 ATTGAGCGCTCAACCAGAACCTAATTGCGTTTAACTCCTG
1 CACCTCACCTTAAGCCACCCCGCCCCCCCCCACCGCGAAC
1 TACCTCCTAACACCTATACGCGACATTCCAACAACCTTCT
1 ACTTCTAATTCTCTTCCTATTATTTACAATTAGAATCCCA
1 ACAAACTCCTCGGTGAAGTGAGAGGTGACATTCGGTTTAC
1 CTCACCCTGGTGTGCAGGATCACTGATGATTACTATTGCA
1 ATAAGTTCAATGCTGATTCTATGCATCAATTCCTTAATAG
1 ATTGCCGATCTTTGAGGTTTATTTTACCCGCATAATTTCC
1 TTCTTGAATGTATCGCATGACCTCCTTAATTGTCGCATAA
1 GCGAAACAGTAGATTATGATGTCCTTCGATGCCTTGATTG
1 TTGCACGTTTGAGTACAGTACGGACTTGTCGTTCGTTATA
0.1888414942139489 GTCGCCGATCCGCCACAGAGTTAATTGGTAACCCATCCCG
1 GTTCATTATTCTAATCTATAAGCTCGATGCGGTCATGATT
1 TTAATCCGTCATCGCCTATCATTACTTTCGCTTTCATCTG
1 ACCTCCCAACAGTCTATTACTGCATTAACACGTTAACGTC
1 ACCTCCCTGCCTCGTCATGCCCACCTACCTCTCACACTCT
0.45122127440877 CAGCTACTTATACTTTAGCTAATGATCAAGTCGTAATGTC
0.6335318943676661 GGACACACCGGAATTTGCAAGGGTTAATTAAACCGAAACG
1 ATGCTAACGTCATCTCTTCAGAGGTACTATATAATCAGCC
0.07164333671861829 TTCATTACTGTTGATTACACTGCCTTGGAACCGGACCCCG
1 CCACGATATCCTGCGTGCGGTGTGAATTCCTACCCGTGTA
1 ATTAACTGTTACAAAGTTAGTCATCATGTTTTTTAATCTG
1 CCCTGGAACTATCCAACCCTGTTCTCGTTCATACTGAAGC
1 ACGCAACGGGTAGCATTTGCCTCCACTGGGAACCAATTGC
1 GAATATCCCGATACGAATAACGACGGGCGAGGCTCACATG
1 TAATGAGACCCTATTTAAGATAATGTGGGGAGTTAGAGAC
1 TGTCATATGCATTGTACCCTTGCCGTCCAGCTTTCCGCTT
1 TACGCTTAATGGTAATCTAGCTTAAGCTAACTTAACCCTC
1 TTGTGGTGATTAGACCGCCTGTTACGCGCATCGGCCGCTT
1 CTAATTTTATCTTCATTACTGTTTGGTGCCATCAATGGCT
0.6403174620549674 GCAGTGCCCGATAATCGGGGACGACTCACACGCTAATTAG
1 ATGGTAAGGCCCCCTATGGCATAGCTACTGCCTACTCTAC
0.6108998076809458 ATCCTATGACTAATTGTGACATTTTGTGTTAACAATTGTG
1 CAAGCGCCCCCTGCCTTGATCCCTCCCGGACTCATCACCG
0.3090807314506624 GAGAGGAAATTAAATCTGTGATTGCACTGTCCGGTAGTAC
1 CTGCCTACTTGCCACACAACCGCCAGGCCACCCCTACAAT
1 TTCCACCTCACCTAGCGACTAAGCGACAATGAATCCCGAC
0.857145759583386 ATTACTGAATTGCACATTGTCAATTGTCCTGAATCCGTAC
1 ACGTAACTTTTCGTCCCCTCCACATCCGTCCCTCCCAATT
1 GAACGTCCGTTGCACATCGCGAACTGTCTCGCACGCCCAG
1 ATGGCCACGCATACTTAGCGTTATAATTGCTCCGTCACGA
1 ATTATCTTTGAGTAAATCAAAATCAGCATCGAGGGCGTCC
0.5578322718439119 ATTTGATCGTTTGCAACGATTTGCTGATTGTTGTGTCTCA
0.5073124600698311 ACTCTCTCTAATTTCCTACTATAATTGCGATGCGTTTCCC
0.1222239698533316 ACCCTGCTAATCGGTTTCAGTAGATTGCCCGATTGATTAA
1 ATGCACATTCTCTTCCCGTTAACTTTCCTGTTGTCTCCAT
1 TCTGGCTACGTTTAGAGCGCGGTATAATTCTACATGATTG
1 AATGTGCTATCTTGCCATATCGCTTTGACAATAGTATCGC
1 TCCGCTCTTAGTTAGTATTTGCTCATGCTGCAATTGTGCA
1 GGTAATGTCTTAGTCTATCAATTTCGAGGTGACCGAATTG
1 TGACCGCACTTGTCCTAGCCCACCACGCCCACCCGCGCCA
0.3778749990825928 ATTGCGAGCAATTATGAGACCATTCCTTCGTCATGGCGTG
1 ATTGCAACTGATTGGCATCTAGGGTGAAGCTCGGGGTATG
1 GACTAATCTGTTCTTTAGTATTAATCATTCTCGTACTTTT
1 TATTATGTTTTGTTGATCTGGACAAATGAATTGGATGATG
1 GTAGTTGCGATGATCGTATCATCCTCCATCCGTAATCATT
1 ATCGCATACTCGATTACGCGACCTCAATCCGACCTGTGCA
1 GGTGGCGATATTAACGTCCAGTTAGCGGGCGCCAATTAGC
1 ATGATACTATAATCAGTATGTCCTGGTGGTTCGCTTAGGG
1 ATTGCGATACTGAAGAGTGTAAGAGATATGCTAATATCAG
1 ATGCATCGAACTCGATGTCCGGACTGCCCGACCCGTACAC
0.8067812959928857 ATTATTGTATTTTACAACCAATTACGCTTACGGAGCTTCG
1 GGCCGTCCTCGTTCCGTTATTAAGGTTTCTCTCTCTCTTC
1 ATGCTTGATTTCTCGCTTAACGAAATCAGAGTCCGTGTTC
0.3563751771146689 ATTACCGTACTACTCAATAGCGTTGATGAATAAGGTCTAG
0.5596506900506958 ATTGATCTCCCTAATGAGCAAAGCATCACTTTCCACGGCG
1 TGGTTTCACCTCCCATCACCTCAATTCCCCCAATAATCCC
1 CGACCCTAACCCTCTTTGCCGCACATCCTGGATACCAACG
1 ATAGTCATTACATGTCTAGCACATTTCACTTCATCTTCCA
0.03425378533724498 ATGATGCGGATTATTGTGTTTTACAGTGTGATTATGATAC
0.2581248699894609 ATACGCCGCTCCAAAAGACTCATAAATTAATGCTAATTGG
0.6557818052635132 ATTACTTTACAGTGATTTCATCGGTTAACTTAGTCATGTC
1 GACTCCAGTAGTGTCATATAGCAGGACACAACATCGCTCG
1 ATTACGAATCATCCTGGGAACACCTTTCAAACCCAAGAGT
0.4536549609302183 TACCCGGCCAGTCTGCGACCCGCTAATGAGCACTCAGACA
1 CTGATTATTCACACCTAACTTCATAATCTACGAACTATTG
1 ATCTGCTTAGTGAGTAATCTTCTCTAAATATGTTGCGTAC
1 CCAAATAGCACCCAAGACGCACCACCACCGCATGCCCCCA
1 CCAACTCTCCAATTACCCAATTTCCCCATCTTAGTTAGTT
1 TCCTCCATTTTGCTTTGATTGTTCAATCGGGCGCACAGTT
1 ATACGCCAATGCACCCGACCCAAACGCAGTACTACTCTCC
1 AATCATGTTTTTTAAGTGGCTTAACTTTCTTTCATTAGGT
1 ATTACCCCTACTGATTTAGACGCCTTGTCAGCTTCTACCT
1 CATCTACGCTATTAGCCCCCCCATTATCTTGCCCCTATCT
0.1056483798284397 ATTAGCAGCGGGAGGTGAGGCAATTATCTGGACACGCCTA
1 CACCAAAATAGCGATTTAACGCCCATATTAGCCTTAATTA
1 CGAGTTCAAACTGGCGTAATTGCGGTTATTGGATCGAATC
1 CCTACCACGACATCTTTATCGAAACGAGTGTAATTGGCTA
0.1850886788304862 GTAACAGTCCACTGGCTAACTAGCAATTAAAAAATGATTG
1 AGCCCAACCTGACACCGGGTTCAACCATCCCCCCGCCCTT
0.3556941974992516 CGTTCCACACCTAGTTTGCACACGACCAGCGTAATCAACA
1 ATTGGCTGTCCATACCTACCTAATATTGAGTGTTAACGAC
1 ATTGTTGTCCGACCTACTTCCGTTGATTGTCCGCATTAGG
1 AGTCCGCAACCCCTCATTAAGAGATGTATAACGCAGGGTA
0.08284001075457198 GCATTGTCCCATCGATTATCCTGCAATTATCGCCTACTCC
1 CCATAACGATGTAGAACCAAATTGAGATAATACACAATGG
1 ATTCGCCTTTTTGATTGCCATCCCCTCTTACCCTCGCCTT
1 CTCCCGCCGTATCCCTGGCCATCCCATACGTCATCTTGAA
1 ATTCACGCGTTACAATCATCTCGTTGGCTTAATAGTTACG
1 TGGGTATGGGGCACGCGCGGTAGTGTGGCGATGTACTAGC
0.02218490012569881 ATTTCCAATTGCTCGCCAATCACGTGATTCTGCCTCTCCA
1 ACGTGACCACCCTAATGGCATCGTAGCGCTTTCCTCTCCC
1 ATTAATTTGCTGTCCTACCTGTTGCCTAATACGCTATTTA
0.1803733693844487 TTTATATTACTTGTGCTAAAATGATCTTGATTTGTCCTTC
1 TCCACGTAGCGCCTGGTTTGACGTCACGACCACCGACTAT
1 ACGTCAAACTATCTCTTAATTCGTTACAGCCGCGAAAATG
0.110639526644123 ATTGGTCTATTAATTTGACATGTGGATTACACCATTGCAT
1 ATTGTTTCGATTTTGATGGAGAGTTGTGATTACGACCACT
1 ATTTCGCATAATTTCTTTCTGATTTGCTGCCTTCTTCATC
0.5210131961083189 CGACGCTAAATCACGCTCGTTCTACCTAGTAATCTAACCC
1 CTGCCTTACATGCTTCTACTGCTTTTTGCTAAAGTCGCAG
1 AAATCAATGCGGTGGCCTCTAATTATACTTGCACATGGAA
1 TGTAGCCCGCCAGGATTTAATTAGAGCCCATATTAAATTC
1 TAAACACCCTAATCTGCTTCATTTATTACTTCCGGCCGCC
0.2487934995069639 CTTGTACGCGCTGGATACAATTATTAATCGTTAGTGATAC
0.08729008539722494 TCAACATAATGGAGCTACCGGCTGTTGAGCTTGATTAGCG
1 GCGCATATAAAAATGATGACCCTAGTTAGAGAATGTGCAC
1 ATTAACTGGGACGTTTCTGATTGTGCATACCAGATTGAGC
1 ATTGCCTTGCTTCCCTTTTTACAATTCTCCCCTTGATGTC
1 CAATTATTGTTTTTATTCTGATTCTTGTTTGATGACTCGT
1 ATTGGACCTATTGGTCTGATGAAATGAACAAGCACTAAGG
1 CCTACGCACACGGTTGCCCCAACTAACCTGCCCTATTGCA
1 TCTGCCCCAATCAGCCTTCGTTCCCCGTGCATGCGTCAAG
1 ATTGCCCATCAACCGGAGTGACCTGTCTACTAGGTGAAAC
1 GGCATCCTTCAATACCAACGGGTGCCACCCACTAATTCCT
0.01632792489169016 ATGACTGACACATCATCCTTAATTGCGGATGGCCTTGACA
0.1242073166365418 ACTAATCATGCTTTTCCCTTGTAGTTACACTTTTAATTAG
0.3746644046925069 TGATTGCAAGTTAATTCTATTCTTTTCGCCAATCTGCGTG
1 AGGGGTCTAACGAAAAGGTGTTTAGGAACACGAACCAAGC
1 ATTGCGTTGCCCTGATTGCCTTACGGATGAGCACCCGGCA
1 TTTTTTCCCGCTCCACGCGCCGAATCAACGTACGCCATTA
1 GTTAGCCAGTACTGCCCTCCCTCAATTATGACATTTAAAG
1 CGTGATTGCGGCCGGCATCAGAAAATCAACGATGCACCTT
1 ATGACAAGTTTATCAATTAGAATCGAGTTGTTGGCCCTGA
1 ACTTTAATCAATGTTTCATCCTTAGTTTCACGGACGTATG
1 CCATTTACCCCCACCCAACCAAGTAGCCCTCCCCAATACA
1 ATCAGTCCCCGTCTTAGAGGCTAAGCCTCCCTTATAATAG
1 CGTGACTAGCTGGCTTATTACTACTAGCGATGACGCCCTC
0.1166844100376274 TGCATTCTGCATTAGATATTCTAATAAGTAAAATGATTAC
1 TGAGGCCCATGTCCTTCCTGCGGGACGCGTTTTGTTCTTC
1 ATTACAGCAGTCAGCGCTCCACCCTCCCGCAACTACCCGT
1 ATTACCTGATCTGTGTGACAGACAATTTACCTTGTTACTG
1 ATTTGCACGGGTCAGATTATTGATACTACCAACTAACTGC
1 CCAATCTGCATTAAGTGATTCTTCTAAGTGCTCTTTCTCT
1 CCCATCGCCTCTTAGTGCTCCTCCTCCACTGGCCTCCACC
1 ATTCTACCGTCAATATGCGAATCATTAAAGTTGATTCAGT
1 ACTAATGTCGTTTTTACCACAACGTTCCTGCCACTCTCGT
1 GTTACGCGTTCATCATCTGTAATTTCTGATGCACTATGCA
1 ACGCAAACCCGCCCCACCCAGCCCCTAGCCAACAGAGCAC
1 ACGAATATTTGCCAGTTTAATCGCGATCCGCGGTTGATTG
0.2365142953247125 CCTCTAGTTACTATTACTACGTGTTAACTGCCCCTAATTG
0.5246697461930212 GAGCAGTGAATCAGAACGTTACGCTACTAAGTCCAATTAG
0.9604775162582894 CACCAATTATACCATCGCGGTTTAATAGAGTCAGTTGCAC
1 CCGTCACTGCCTCATCATTTGTCACCAGGAAGTAATGCGA
1 GACATCAAAACGATGATTCACTACTCGTGATAGGCTGATT
0.5387706291651591 TTGGTTATTAAGGGTCGTTATCGAAAAATGACGAATCTAG
0.8498723066232322 ATCAGCACGTAATATGACCGTGATTATACAACGCATTGTG
1 TTAGCGCGCCGGATGCGGACACTTAAAACGTTAATTATTG
1 CCCTCCCAGCATGTCGCGGTTATAATGACTATGATTAACT
1 ATTACATATTCCATTAACTTCGTGATTTTTCAGCTTTGAA
1 GCAACGCAGTAATGCCCGCCACAACCCACCCAGTGGCACC
0.9852401153041433 GCACATCCAAGTATGACACTAACGAACCGGTAATTGCCAC
1 AGCATAACGTGGCTGTTGTGTCTTACCCTTTAACGACCTG
0.3155727154241248 CTGATTTAACAATCAGTACGCGTTAGCCGTGACGCTAAAG
1 TTCATCTTTATTTAATTAGTCTTGACGTGTTGTACCCGCT
1 GACGCTTCCCGAGCATTAATCCTCTTTCTGTAATTTGTAG
1 TAATCGCGGAAATTACGTCTTATCAAAGTGGGGTTCGGTG
1 ATGTTGTCCATCATATCCTAACGTAATACCCGTTGATAAG
0.2521347513865233 ACGACTACAATCATAACTCGCAAACGACTAATTTCCTCGC
0.09021980930130702 ATTGCGCCGTCTTGCCTGACCGCCAACCAATGATTGCTCG
1 CAAGGGTTCCCCCACCCCGACGATCCCCTAGCGCTCCCAC
1 ATTACCGATTACTATCGCATAATGGAAGCAGAATCACATA
1 ATTGTGTAGTGATTTACGCAAATCGCAAAATACACACTGT
1 ATTACTAGTGCTAACCTACATATGACGGTGTCTCTCTTAT
1 CAAGGTTCGTTTATCCTGTCGCAATAACAAGCCGTAATTA
0.03800518253833993 GATTGACATTAATTTCGGCAAGCTAACTACGTGAAAGGCT
1 CACGCTACGCAGCCTCCGCTTGATTGGTATGCGCTGCCTG
1 CCCCTAAGCCCCACTTACTCGATTACGACTCGTTAGACCC
0.3861777378690559 CAAATTGGGCACCTGATTGGTATGGTTTCAGTTGTTAACT
1 TTCCCGGAACGTAAGTTGATTGAGTATTCGCCACTTTGGC
1 TCCGTCATTATTGACCTCCTACGTAGATGAACCGGACGAC
1 ATTGCTTTAATTACTACAGAGTTCTTACCGAATGGTGGGC
0.6683525496073761 ATTGCCTTTCTAACAACCTCATTACGAAGCGTGGCTATGC
1 AGAAACTTTTCCGTTTTACTCATCTATTTGCTGATTATTC
0.3840802435712727 AACACATTCACATACAAATTAATTGCTTTCCCAGTGCACG
1 CCCCGTTTACCAAGCATTAGGGCACGCCTAATCCGATCCC
0.3812642656837132 CTGACAAGCCGTCAATTAACCCTCGTTAAAGTTGCGGCCA
0.752424510369084 CGCGCCGATTGCTGCATTAGAACTGACGATGTGATTAACA
0.3789311650461432 ACCATTAATTACGTTGCTTGGCTTCCCCGGAGCATGGTGA
1 AAGTAAATTAGATTTAGACGAGAGGCTTTGTGTACTAATT
1 CGATTTGTGTTTACGATTCCGGTCTCGACTGTATCGACAC
1 CGCTAAATCTTTATTTGTACGCTAATTGAAAGCAAATTCA
0.2406220593014971 TTGATATGGCCGCAATTAGCTAAACGAAAGAGGAACGCTA
1 CCCACCCAGCCACACCGCCCCCGCCTCCCGCCGACCCGAG
1 TTCATTGACATCCATCACATGATGACTTGTGCTTTTATTG
1 AGTACATAAATTACTGTTTAACGTACGTCCACTTAAAGCA
0.6004061436806076 ATTGACTCGCGCGTTTTGACAATTGCGACTCTGATTACGT
1 CATAAATAGCATCTCCTTTCGGTTTAACGGTTCAATTACG
0.3143386696651107 ACCTTAAACCTTCTGACGAATCTTGCTAATCATACGTAAT
0.7225020676124611 CAGATCGTACGAATTCCGCATTTAATGCTTTGATTATACA
1 ATTAGTGCTTGCACAGCGGCAATCAACTGGACATTCCATC
1 GGATCGCAACCTTAGGCTCACAGTGTGATGCGCTAATCAC
1 ACGGCTGGGCGCGTCTTCTAATTTGAAATAGAGTAATTAT
1 CATTCCCACCCTACCATGTGTCGAACCCACCCTTCCCCCC
1 TTTCGGATCCATTCCTCCGTACAATGAATGTTAATCAAAA
1 GGCAGACATCACACCTCTGTTAGTATTTCCTCATGATTAG
1 CGACCGAAGATGCCTTGCAGCACAATCACCACTCTAATTA
0.6620243210758541 TTGACATCACCTTATCGTGCGCTCATCAGTTAATATTCCT
1 GTGTTAATCATCTTTACCCTTTCGAGCTTGTCAAGTCTCC
1 ATTAAACTTGTACGTCCGAGCTCGTTCTGCCCTGGTAGAC
0.555348279465532 TAGTAATTGTGATAGCAAATGTATAGATTATAGAGCACTT
1 ACGAGGTAAGATACCGAATTTTATGTATTGATTGTGATGA
1 TACAATCCTCTGTCGCTTACTACTATCTGACTAATGATGC
1 CATAATTGCTAAACCCCCGAAAACGACAGGCCCAGAACAC
1 ATTGGCTAGCTTCATTATCTGCACACTGGTTGTCGTATTA
0.6523379700414211 AGTGAGCTACATAATCATAAGTATGCAATCGTGGATTTCC
1 GTCTTGGTATAATGTGGGCTGAAATATGCGTACGGTAAAG
0.9166450824844016 ATTATCTTTGATTAATGCCTGCTCATCCTGGTGTGAGATG
0.3256839075234442 TCTATGTACCGAGTTGACCGGCAATTATCTAGTTAATTCG
0.5154121964652425 ATTGGACTGCGTAATTGCTTACGTACGTACATATTTTTCC
1 GATCGCTGCTTGCGTGCCAATTGGCCATCCCTTCGCTCGG
1 ACAGCAACTGCCCAGTATGCCGCCTCATCATGATCACCCC
0.3462257114771325 CCCTCAGCGCACAACGCACTGAACTAATCAGTTATCTTCA
1 ACATGAGAAGATCCAACAATCATTACCACGGACATGATTA
1 ATTAGTTCATTTACGTTCTGTCCTCTACTCTTGTGATACG
0.3611908635641982 AATGCGTACCGAATTAGGTAACTCGTGACTTCGACTATCA
1 AGCACATCCTGTTATTACTTGCCATTTGGATCGTTAAACT
1 CACTTCACTTGTTTAATGAACACCTACTCACGTGACTACT
1 AGTAACATTTAACGATTTGAGCGTTATCTCTACGTTACTG
1 GCGCTACCATGGAATGACATACACCTGCCTCGCCATGCTC
0.721290900833521 ATTGTCTAACAGTAATGTGTTAGACTCACCCTGATTTATG
1 TGTTATCTTGTGTAATCGCTTGTTAGCATTCATATAACCG
1 ATTGAGAACGATCATGTTAATATCAAAACGCGCGTCCGCA
1 CCCCGCACTCTTGACACCTTCCCCGCCGTTGTCCCCTAAC
1 CATTAACTAATGTAGGGACATCATTGGAATGCCGGTAGGG
0.9481391718203785 ATAATCATTAGCTTTTAACGACTAACGCTAGGTTTGATTA
0.1989899740979261 TCGGCCTCGAACCATTACCATTGATGAGGTAATCTGCACC
0.3660904511394963 ATTGCTAGTACGTAATCATGGCGTGACAGCATCACTGCCG
1 TGAAAAGTAATTTCTGATCTAATTCAGTGTATGATTCTTG
0.2454122363718841 TCGTTTTGTCACTTTAATGAGGAGCTTTTCGAAATCAACT
1 CCCCCTCATCCGACCACATATTCTGTCCAGGCTCTACTGT
0.5338568796387925 CACTTGACCACCGAAAAATTATCTACCCATCGTAATTATG
1 AACGAGAGACACCCATGGCCACTGCGGCCATCCTTTGCGC
0.549976021427815 CAATTAAGGTTGCTCCGCCGTAACGAGAGCGAAGTATCGT
1 TTAATCACGTTGATATTTCCTCGATTACAGCCTTGGCTAG
1 CAGGCCTATGGCGCAGGACGCGTGAGGTTCTCGCGCGTAT
1 ATTGCGACTCTACTATAGCCGTTATGTATCTTCCCTTCTT
1 TACCTGCTTGGTCCTTGTTATTAAAGATCCATTATTCCTG
1 ATTAACTACACCTCATAATATCTCCTGAGTGCTTCACAGC
0.5035997473435152 ATTGAGTTTGATTTATAATGATAAATAAGCCCAATGACCC
1 TAAACTCGAGTAGTAATAACACAGTCATCCTTGTTAACGA
1 AGCAATCAGAGCCAATGATCCTGACGTTAAAGTCTTAGCA
0.7036163782339444 CTCCATCCTTTCGTAGACCTTGATTCCAAATCAATTATTG
1 AATGTGAGCTTTAATAGGTCATAATGAGTTACCAACGAGA
0.7643136404076738 CATTAGACTTGCCCATCAACGTATATTACTATACCTCCCG
0.9388906802790299 TTAGCCTAATCTGCAACCTGAGTAATGTGCTTCTGAGTTG
0.3582695262182329 ATGAGGCATAATTAGGCCTTTGTTGGTTTTCTGTATAGCG
1 CGTCTGACGGGCAACTACATGATTTGAGTCATATTACATG
1 ATTATTGGTAATTCCTCGTGCTCATCCTCACCCTTATGTG
0.4937493376342694 ATGCGCCATTATGATTGGACTCAACATGTCCATCATGGCA
1 ACCCCGTCCACCCTCTAGCTTCCCTCCTCCGCAATTAGCA
0.7117126023081833 ACTACCTCTCGTTACCGCTCCCCAATCAGGACTTTGCGTA
0.9029663106513084 ATTAACAAGTCATCCACGCTAAGTAGACCGTGTAATGATC
1 TAGTGATTTGGTAGTAATTTGATAAAAAGACGTATATTTA
1 ACCAACTGCCAATCAACGCCCCTGATCCTGCTGCACATCC
0.7784757263228441 CTATCACTTGTAACTAATTTACTTGATGGCTCTGAGATTG
1 CCCCCGCGTGTATGTTATCAGCTTTAGAAGCGAATGTACG
1 ATTGGCTCGGTCTTGTTCCTCATTGATCACCTAATGCACG
1 CACTCAAAGTACCAATGGATATGCAGTACAGATTGACAGG
0.3197584414030868 CTAACACGTTATAATTGACCCATCACGCCACCCTTTGACC
0.6840913073624607 ATTATCCAGCTAATGATGGTTGATACGCACGCGTTTTGGT
1 GTACGCTTCATTTTTAGGCTTGTTGGCCTTGGGTGCCTCA
1 ATTGTAAAGGTAATTTCGGAATTAGATAACTCTTTATGAT
1 TACCACCCGCACCGAAAGCCCTCCCACCCACTCCCCCGAG
0.5002065214309843 TTTATTCGCGTTAATGATGTTCAGCTGTAACTACTTAACC
1 AACCCTTCTAACTTGGTATACTCTCATTTAGGCCAATTAG
1 TACTTATCTACTACATGGTCTGACTAATATTGCCTGATTA
1 ACCATACCTTTGCCATATTCATAGTCCACCATAATCATCG
1 CGATAGTGAGTCACTCTATTATCGTCAATTTTTAATTTCC
0.131813191276109 CACGCCTCAATCACACTGCCTATCAAACATGCTCCTCCCT
1 CACGTCCTTGATAGCCTTTAGTTCGAAGTCGAGTAATTTC
1 TATTGACCACGTTAGTGTGGAACACAAGGATTAGATGACA
0.08785818210052705 GTATATCGTTAAGCAAAGTATGCAAATTCGTAGTAATTAC
1 GTTATATACGATAGAACAGAGCCAAGCTTGCTATAATTTC
1 AATTACTCACTCCATCACACAATTTACTACGCTGTCCCGC
1 GTCAGACTTGCCCACCCTCCGGCCCGCCCAACTGCGACAC
1 CTCGCATACGTTTGACTACTCTCGTTAGAGCGTGTACAGT
1 ACACAACGCTACTCACCAATAATCAATTGTTTCCTCTCCC
1 CTTTCCCGCCTTACTACCCAAGCCCTAGGACCAATAGGTG
1 TAGATCTATGATTTCACGTCTTTAGCACTAATCTTACGAG
0.896278766678796 TCTGACGATTGAGAACGATGAACACTCTGTGATTTAATTG
1 ACATCGTACCCCAGCCCACTATGTGCACTCATCCAATCAT
1 GACCACCATTCTCCGCATCCCTCCCACACCCTCCCCACTA
1 ATTTTGATTAAAGGAATTATCTGTCTCTGTGCGTATTTCT
1 GGGCATGGACAATAGACGTGCCTCGCGCTACACTTAGGCC
1 TATTACCGGAACTGATTATTTACAACTGCAAGCCGGGCCA
1 GTGATTGACAGGGAACGGATGGGCGACAAAATGGGGTCGG
1 GGGCAGCCACATTGACGAAGGACCGAGATTACATATACCA
1 CGTTATTAGATTTCAGCTAGGATTACTTACTCGGTTTACT
1 CTACAATTAGCGACCTTGCTGGGCAATTCATATTCTCTTA
0.1639700893176037 CATTTAGGCTGGTACCTCACGTCAATCACAGCTAACTAAG
1 ACTGGAATGTTGGAAGCATCGTCAATCCATCTGTAATTAG
0.7633911050814615 ATCGTTAATATTCCACTGGCTAGCTGATTATTTCCATTGC
0.5711818767149451 TCGTTGCCTTCCTGTCCCTTGTTGCTGTTAATTATAATTA
0.2302421409003884 ATTGTGTTCCCTAATTGTCCTTAAAGGCGTTCGGTGTAAC
0.7907547963580981 ATTAGCGACTTGATTATCTGGGATCGCCACTTGAGGATTC
1 ATTATCATCCGTAACCTAAATATAGGTGATTTGCCTAATC
1 CAGAGGAACGTATCAATTCTGGCACACTTATCCTCGTGCG
1 ACGCCCGCTACACCAAGACCTTCCCCAGCGCTTAGCAACC
1 GCAATGATGTCGGACTTACTACTTCACATCTTACCTCCGC
1 ATTTGCCTGAACGCTACATACCATATTCCGCAATCACGCG
1 ATTACGCTCTGTGATTGATACGTGAGGCTGAGAGTTTATA
0.2424177663641327 CGAGATTGCCAATTATACCGACTGTAGGGATAACTCAGGA
0.7313149861234451 ACTAAATTACACGCCAATCTAACTAAGCTTACCTTCGCAT
1 AAATCAACTCGTGTTTAACGTGCTATTGAATATCCGTAAT
1 TACCCAGCGTATAACTTGCCCCATCAGCTTAGAGGACTCG
0.3757149853908556 ATTGCGTTCCGCCTGTTGATTACCAGATCCTTGCGATATA
1 GATTAATCCGCTTTGCTCTTAGCTAAGTGGCGCTAATCAT
1 AATCCAACCACAGAAAGTGCGCGACGGGGACTGTATAGCG
1 TGCGCGCCTGCCGTACACCTCCCGCAACAACTCTCTCTGT
1 ATGCGCAGCTACTCGCTGCCTCCAATCAACTGCGCACGTG
1 ATGTTAACGATTTACCTTTGTGTTGCATCGTCTTAATGCT
0.4477545263672404 GCAACCCTAATTACTTCTACGTTCTTTTCCATCCCTCATT
0.2345831855375911 TCACGCTCTCCATAAGTATTACGACACCGGCTAATTGCAC
1 GTTCCTGTGATCGCGCCCGTTATCACCCTGATTTACTAGA
1 GGTGCCTACTGTCATTTATATCACAGGCAATTTATTGTGA
1 CGCCCCGTTTGCCCTTTGTTTTTAATTACTTTGTAAACGA
0.1300227137390204 ATGAGCACACACAATCGGTGTACATAGCATCCAATCACCA
1 ATTGCCTGCCGTGATTGGAGACCCGATCCTGGTCCTCAGG
1 AGTGATTGCGCCTTAACTATTGTTACTTTCGATCTACGGC
0.2606777843095943 TCTAATGCTGATGGTCTTAGATTGGACAATCAGCTCCGGT
1 ATTGTGCCTGCTAGGCAGTGATTGGCGTGTGTACTATAAA
1 ATCACAATGCGTAAGTGGCGCTTATTACAGCTGTAAATTA
1 ATGCTGGTTCCTCGAGCCGACTGATTGAAGGTAATGAATA
1 CGAATCTAGCAAGCCCACGCGTTACTGACCTCGTAGGTGG
1 AGCGAGGTACAATATGGCGGATCGCGACCTCATTGCGTGC
1 TACCCCTTCCCGCCCGACCCCCCCCCAGGGCCCTGCGCAA
1 ATGCCCTCTCCTGATTATCGCTCAACTCCATCTGTCCCCG
0.01157259016316669 TGCATTCCCGATACCCAAACCCTAACGAGCGAGCAATCAC
1 CTGAGTCAGCCCCTCCTCCCCTAGCCCTTGAGTAGCACGC
1 TGCCGTTCGAGTAGCGTGTTAACGAACAGAGGGCAATGAT
1 AAGTCATCCGGCAATTCTTCCCCCATTAATTAGAAGACTA
1 ATATGAAACTGTTAATTTCCCCTAAAGTTTGTATTGATTA
1 TTACGCGAACGCGGCGGAAAATATGCAAGGATGCCACGCC
1 ATTTTGACGAATTACTCGGCTGAATTGCACTGCTTCGAGA
1 GCATTATTTAAATACCCCCGCCCACCCACTCCATGTGACA
1 ATTATTTGCTTAATGTACGTATCAACGGTATACCTTTAGC
1 ACGTTGTCAGTCGACGGCACATTAGACAGTGACGTTCTCC
1 GCCCAACGTATCACAAATTTTCTCTCGGCGGAAACGGCAC
1 TTACCCAGGTTTACGCGGCCATTTTACATAATACCCTACA
0.8132917977159924 GCCTGCCTTTCTCCCTTATTCATCTGCTCTGATTATTAAT
1 ATTATTACTAATAGCTATTCCCTACCTTCGCGCCTGCTTA
1 TGCTGTTGCTCTTCCTATTGTTGATTGGCTCTTTAATGGC
1 TACAGCGTGAGTACAGGACCATCAGTAGTGAATTATCCAG
1 TGGATGGATTGGTGATGCACTTGAACCTCTAGCTATGATG
1 TGGCCTCGTTTAGGAAGCTTCGATTAGCGCGAGTAGTAGT
1 ACTAGAATTTGAGTTGTCCCAACTTGTCCCACCAACTGAG
1 CTCCCTAAAGCCTATTAATCTTGAGAATTATGTTTGCTGT
1 TCTAGGACTTCAACAGAGACACTAATGACCCCCGATCAGC
0.08727820746207386 ACCGCCAGTAATTTGCTACTAATCCCTTAACTTTGTATGC
1 GGCTCTGGCGGGACTGGCATAACTAGTTACAGATCGCTAG
1 CGATCAGGAGAATCAACGTAAACGTCGTGCAACCCACCAC
0.4910558282011834 ATTAAATTGATTTAGTAATTTATGGACTCCTTGCATTATT
1 CGGGTGGCACGGATACTACGTCGCTGTTAGGAGTTCACGC
0.952148474278223 GCAGGTAATAGACATCAATGCACAAATGAATGCCGTTTTA
1 TGGGGCGTCCCTAGTCCAATAAGCCAGTAGGTAGAAGTAT
1 CACGCAGGCCGTGCACTACATGGCACCCAGCGACCTCCGA
1 CAAGAAGCAAATTGATTCCCATGTGGCGGCTTAATTCACC
1 ATTTGTTCTGTATTCTGCCTTAATAGACCTGGGGCCTATC
1 CTTACCTTCGCTCATCCGAGTGATTGATGCGGATCATCCA
1 GAGCCTGCGTCATTTGGTAGCTTATTGCGCCTTATAATTG
0.6115100682202247 CCGTAATGCACGCCACAGCTATACTAATGAAGCCCTCAAA
1 CATTAACCGCCCAAATTGAAATCTAGGATCAAATGTTATA
1 GACCGCACCGCCACCCCCCCCGTCCGCCTGCCAAGAGTAA
1 ATTGCGATACTCATTACACTACCTGGAGACTCTCTTCTGT
1 AGCTACCAACCATTTAACGACAAATCTTCTATAAGCAGCA
1 CGCTACTTTGCCTCCCCTTGCCTTGAGCATTACGACCAAG
1 ATTCTGGAGCCTAGAATTGATGAGCGGCGTAAATTGAGGG
1 ATTACATCACTCCTGAGCTTAAATCACTTCAGTTATCCTG
1 ACTGATTGCGTATTACCTGACTTCTTTACCTCTGTCCTGT
1 GGCAAATTAGACGATTCAAGCGAACTAGACACAGATCACT
1 AATGTACCACAAACACACCAATCGTTCACTAATGGATTGA
0.8950672129886709 TAATCAAGGATTCGAAGTAGTAATTTGCAGTAGCTAGGTG
1 AGTGGCGCATTTGATGCAACATCACTAGTTCGAAATTAGG
1 ATTGGCGTTGTCAGCAATCCTATAACGAGGCTAGCACGTC
0.6601068453154441 TACCTTTAAATCAACCATAATCAATAACTCGCACCTTTGC
1 TCACAGATATCAGGATTTGATCAAATTGACAACCCGCGAC
1 CAGATATCCCGCGGCGACAACCACCGCAACCTCACCCAGG
1 CTAAAAAGGCAACGGAGAACGACCGTGAGCGTGGAGAAGG
0.2142904924511214 TTCGGCCCTCTAATTAAGCACAAAATTCGCCTTCAAATTA
1 ATTGCGTACTTTGACCATGCGAAGTGGGGACATGGCTTAT
0.9645957257857994 ATTACATTGATGGCGATTAATGACTTTCCTGCGACTTTTG
0.7245864785625408 ATTGAGGGATTTGCGTCCAATTATCGTAAATATCCTGAAT
1 TGTCATCTTAATGTAACCGCTGGTCGCATGTCTAGTTCAT
1 TAGATATCGCATGAGAATACGTAAGGGTTACTAATTTGAG
1 CTACATCGCCGCGTTACCCCCTGTGGCCTGGTTTCCTTCC
1 ATGAGATCGAATGCGAAACCAGCATAGTCTCAATATGCTT
0.7368864962261971 CATTAATGTCGTTAAACGTAAGCGGCTTAACTAATACAAG
1 ATTCGCGTAGAAAGTCAAACCTTAATTCGAAAGTTGAGGA
1 ATGACAACTAATCAGACCGACTTACGCTCCACGAACCACA
1 ATTGATTGCCTTGTGCTCATATAAACGTTGAGAACCGATG
1 TTGTCCTTGTTAGTGTAGATTGTTTTCCTTTTGATTAAAC
1 GTCTCCCACATACACGAATTAACCCTAACGAGCCATTGGC
0.6484683383150408 TGTCTGTAATTTGATCCTTATTAGCCAGTGTCTACCCAAT
1 ACCACGCCCCTCAAACCGTAGCAAACCGTCTTAATTATAA
1 CCCCAATGCCACACCTTTATCGCCTCATCACTCGGGATTT
1 CCTCTTGATTTCCTTAAAAATCATCCGACCCTATCAAGAT
1 CCCTTGCCAACCTCCGCCCCGACCGCCTCCCTATCTGCCC
1 CGCATCATCTGCGGACCAGGGCAGTACTCATAACGTGCGG
1 TTGATAAGCCCCTTATACTGATCGTTTCTGTTAAGTAACC
1 ATTGCAATCAAAGACCGCATTGTTGGGAAAACAGGACATG
1 CGATTTGTCTTTTAGCTTCTTTATTCCTTGTAATTAAAAC
1 ATGACCTATTATGTTTCTCTGCTTTTTGATACGCCTTCCC
1 CCACGCCCCGCCGCGAGCCGCGCACCCCCCGTCACCCGAC
1 ATGAACGCGAGGAAAGGACCGTCTGATGGAGACCATTATG
0.4378648107715091 TGATACGCGGGTAGCCATTAGCGAAATTATCTGCCACTCA
0.3448329514885171 CGTACTTCCGAGACGGGCGGTATGTTAATTATTTAATGAG
0.05059555602625086 GACACGAATTGATTGCAATGCTATACTCTCCTGATGGGAG
1 CGTTTAGCTCGTCGTGATAGCATGGCTGATGTGATCACGC
0.0491300687268351 ATAAGGCTACCGTGTTATCCATCATTTTATTAATCAGATA
1 CTTCCTGCTCAATGACCCCAGTATCCCCGCTGATTGTTCC
1 ATCTTGGCCCCTTATGCGTAATTATGTAGTCCTATTTCAC
1 TGCTCATCATTTCTGCAATCAATTTTTTGGCCCAAGCCTC
1 CGCATTCGGCATGATTATTTATTGAAGCAGGTTTATGATT
0.9293499558903314 ACAAGCAATTGCTGATTTTAATCGAGAGATTACTGCTGCG
1 TTTGTTCCAATTTAGTGAGGTTCGCCATTAATACCATTTC
1 GACATTTACGACCGCGTAGGAACTGATGAGATTGATATGC
1 ACTTAACTAAACCTATTTATAGCTGCATTACAACCAATTA
1 ATTGAAATTCCTAATCCTTAATGGACATAATGGCACGTCA
1 TATCACCCGCCCCAACCCAGCCCGCCCGCGCCTCCCGACG
1 ATTAGTACTCCGATTCATGTGGCGATTAAATGCCTCCGTA
1 CTAAAGTCACACATCCTCAATCTGTCTAATAACGGCCCCA
1 ATTGTGCCTCATTTGGCTAGAGTTATGCGCTCTAATGATC
0.09247292418440711 ATTATATTATCTGTCGATAATTGCGTAGGCCTTTAACTTT
1 ATTAGCTCGAAGAATTACTGTTGACAGATGGAGATAATGA
1 TGTGTTGCGCGCGAGCGCGTGGAGCAAATCAACTGACTAG
1 CCTAATTAGTTTATAATTCTACTCGTGACAGTCTTTCTAC
1 CCGTGCATCTTTCCTCAATTGATCCGCGGGTGATTGATCG
1 ACTAGACGCACATTCGCACGTTTGTGGAAGGCACTATTTA
1 TCCAGAATACTTAGTGACCTGTTATACATACCACTTTTCG
1 TGATCGCTGAATCAACAAACTAATAAGAGACAACAAGAGC
0.1010129952636992 GTACCTCGTTACAACGTACTGATTCTTAAATGCTAATCAC
0.7245499515774509 TGCTACACATACTAATGAGCATAAAACATCAACGGTGGCC
1 CATATGCCGAAGGACCGAACCAAGGTACCAGATGGCCACC
0.8281848369907097 ATTACAGCTGATAAATGGTCTTGAGGTGGAATTAACGAGA
1 CCCCTGAGAGTTTGCAGTAGTCAGGATGTTCAAAACGCAC
1 CCGAGCGAAATTGGACCGCAGGTCTGATTATGCGAAATTG
1 TGAGTGCATCGACACCAGCATGACCACCTGCCACCAACAT
1 ATTGTTTGCATTCTTGAGCCATCACTCCCGGGATCCTCAA
1 ATATTGGATAGTACCCGCGCCGTCGTGTAGCTTTGGCCAG
1 CCCGCGCCCTAATGAGGTCGCAACCTCTATGTACCAATGT
1 CAATAACCTTCCCCCGTTGAGTGCTCCATGACTATAAGAC
1 TGAGATTGTCTGTTAAGGTTAGCGACTCGGTCCGTTTTGC
1 CGTAGCGCGTAATCCTCCAATCTAGGTTACAACGTGATTA
0.6295952784818097 ATGACCAATCACATCAACCGGTGTGTGTGGTACACCCAGC
1 CAATTAATTCATTAGCCTGGTCTTGAGATATACACTCCCG
1 CCCTGAAGCAAACGCGACGTGGCGAGATAATAATGAACTG
1 ATATCCCTTCGCACCAACATGCATTACGCGCGGGTAGCGC
0.337936175759546 CAATAATACGTTTAGCAGAATAATTAACCTACGTTTACCG
1 GCCTCATTGGAGGTTATCGCGTGATTGAGGACTTACTGCA
1 ACATCCCATAATCTCGCTCCCATATGCTTCCATCCCACGC
0.8075171630721208 CATAACGAACCGGCCCGTAACTCAGTAAAAGCTAATTACG
1 AACCATCCTGTCTAGTGTCTTCTTTTGTTAATACTAATTA
1 CTGTTGGCCCGTATGTTGACAACCACCTATCACTCATTAT
0.4220124952023756 GGCACCGCTGTGCTAGGTGTTAATTGCGCACATGACGCCG
1 CAATTCCACTGATTTGGCCTAGTTTGCTATGTCACTTTCC
1 TTATCGGTTTAATTTGCTACTTGCGACTATCTATATTCAC
1 ACATAATCATGCGAACAAGCTCGTCACACCATTAACTTAG
1 CCATACTAGTCCCAAAAAACCCAATTCACTGCAATCACAC
0.187195472200383 ATCCTGAAACGAAGTATGCTCGCTTAATTGCATTTGAGTT
1 CTAATTAATTTTTGAATCGTCAAGTCGCGTGTGGGTGTGC
1 ATTGCACCTGCCGTCTCCATTATCGGCTAACTACAGCGTG
0.01003504404669349 TCCCAAATTACGTAAATTCTGTAAATTACGTGATGCCTGT
1 ATTTGTCATTTCACTACTGATTTTCGAGTATTCACTCAAA
0.06054838038497325 AATGTCATGCTTCTAGATTGCATTTATGCTAATAGCTTTG
1 CCCGTTCACTCTCATTACCGTACTTCGTTGTAACTTAACG
0.9553756524396158 ATTGAGCGGCGATTAACATTCTGCTCTTGGATGATTGCTT
1 CGGTATTGTGCATCAGTGTTTACAACATCCATTTCGACCA
0.8193368252199512 ACAACCATGTTACTTATTACTTCCGTAATGAACCCTAAGG
1 TTGATTCACTCTTATTTGAGACAATTTTACTTGCATTTCC
1 TTGTTAACTTCATTTCGTACGTCTCCTAGATATGATTACA
1 TGGATTAGTTGATTGAGTGAAATAGAAAGCTATATTCGTA
1 ATCGTGTATATTTATCTTAAATCAAAAACATTAGGCCGTG
1 GCAATTTGTTGATGGCACCTGTGTTGAGCGACAATTGTCT
1 TTATTTCACGGTGCTCACACATCAAGCGCCATTACCCCCA
1 ATAAAGAGCTGGTGAATCTTGGAACAAGGTTAAGGTAGTG
0.7122384992247055 TAATCAGGGTGTACGTTCTGAATTAGGGTTATTTATCTAA
1 ACAGCCTCCGTCCCCCGCGCGCCCCCTCCTCCCCGCAACA
1 CGGTAACGGCACTCTTATTCCCCTATATCCCATCCTGTGC
1 ATTGCACAAACTATTAATGCACTTAAACGTAGAGAATCCA
1 TGCCATGCGTCGGCTAGATGCCTCATTAATGTAAACTGTC
0.1687553644261139 ATCGCCCAATTGCGTGTTGATTAGCGCCTTGGAGATGGTT
1 ATTACGTGATAATAGGCGCCAGGCCGTTTACGTAGTGAGG
1 AGCGGCTCAGATAACTCGGCCGCACCTAAGTAATCATCCC
0.522242806185921 GATGAGAACTGTGCTATCTGTATTGATTAGGTACGTTCGA
0.5089109636072248 GGAGCAGCCTGCCTAATTATTGGCTTTTATTTCGTATACT
1 ATTGCAGACGCTAATCTGCCAATGTGAAATATAATCTTCT
1 AGACGGTGGTCGTATGATCAACTAATCTCCTATAATAACA
1 TGATTGCATATAATCGCAAAACCTGAATACTATCACGGTA
1 CCCATGTGCTTCTCCATCAAGTACTGTTTGTGCCTTCAAC
1 ATGAGAGGGTTAAACAGTCACTGGCTACAACGAATTACCC
1 GACTGCCTGCTCGTTAAGACGCTAACTACTTCAATCGCAA
1 TAACCACAACTGTTACTGGTCGATAAATCATGCATTACCC
1 CCGCAAGCCCTCCCCCCAATAGAGCAGTTGCAAATGCTGC
1 ATTGTCACGGCGACGAAAATTATGAGGGTGCGGCGTGATT
0.844600162184402 CACGAGCGGAGACGCAATCGATGCAATCAGCGGATGTGCC
1 GCAGCAAGCTGCCTGACCACGCGAGTAAAAAGCCCGGGAC
0.5978691105714805 CATTAATTGGCTCCTCATCTGTACTTGTTTTACTAACTGG
0.8671634550544682 TAATTTATTTGTATTATATCCTTCGGTGATTGCGACCCTG
1 ACTTGTCTAGATCTGTCGATTAGTTATGATACATGTGCCG
1 TATGCCCTTTTTAGTCCACCGCGTTAATTTGACCTGAAAA
1 ATTAGCACTCAGCTACTATAATCCATTCCACTGTTGTCCC
1 CAAGTATCCCTTGTCTTAACATCTTATCAGGTCCAATTAT
1 ATTTATTCGTTTGTCGAAACACTTAACTAATGGTGGACCG
0.8809193864578864 ATTACAAGGAGTATAAGTGATTGGATGATAGACATTACAA
1 ATTAGTCCGCATTTAGGCATGTAATCTATCGTTTGGGTCT
1 ATTATCCAGCTAATCTGCTTCGTAATACGGCCTTGTTTGG
1 AACCCGGATCACACTCAGCGACAAGTGCTCGATCGCCCTC
1 TTGCGCTTCGTGTGTCCGTCCCTATGAACTTTAATCTCGC
1 TGCTAATACTTATGACTAGTTATTTATCAATTTGGCCGAG
1 CAATTACTTCAAAATCACACTACCACACTGCTCTATCACG
1 ACAAATTGCCTGATGCTACCGCACTCACCACGGCTTCGCG
1 ATAATTGTGTGGCTGACATGTAATCCTTCGCTAATAAGTC
0.7871812679675111 ATTATTTTGATTCGCCTATAATCTACTTATGGTGAGCGCT
1 ATTGGCCACACAGTCAAACATGTAGAAGGTTAGGCATACG
1 TAATGTTATATTGTTATTAGGTGTTATTTGCTACTCTGTA
0.3864172832345339 ATTGAGAAATTCGCGCGTAATCAGCGTACCCTTACTTAGT
1 TATGCGTTCGATGAGTCTGTCCATCACTTGCAATTTTCTT
1 ACGAGCGGTATCGGTCAGAGAACGTCACGACCTGATTGGC
1 CACTTAAGTCATTGATTTACTGGTTTATTAAGTTCAGAGT
1 GCGGCATTTGCGCGACATCCCTGATCAGTTAACATCTGTG
1 ACCGCCTGAGGGTGGCAAAGGGCGCAAATTACCCTGATTA
0.08312717474527302 GTCTGCCTCTATTAATTAGGCGCACCTAAACCGATTTCTT
1 CCAACGTAATTATAATCCCGCCTGACTTATGATCTAGAGG
1 ATTACACGCAGATAGGGAATTGATTGTAGTACCGTTCTCG
1 ATACAATTAACGTGTCCGCTCGGGGGAATTAAGACGTGTA
0.8378101833091089 ATTGCGCCGTGATTGCCGCTGTAATAGCAGCACTGTATCC
0.8295281723257608 ATGCCATTATATCACTTTTCTGACCTATCATTAACTCTTC
1 ATTAAGTAATTTTTACTAATGCGTTGGAGTACAGGTGCGG
0.2955304538971301 ATTGCAATCTGTATGCTACCACATTACACAGTGGACCTTA
1 TCCCGCCGCGACCCGTACACGCCGAGTACGCTCCTGCCAG
1 TGGACGTATGCCTGAGAAAGATTGACAACGAGTGATTAAC
0.6427524004633216 CGCTAATCCGTCCCAACAATCGGAACCCTCGCTAATTACG
1 TCATTCTTATTTTAATTTTCTCCTGATTGGAAGTCCGATG
1 GTAACATGTGTGATATAACAGTATCATCCTGTGGACGATT
0.810478914958613 ATCACCACTAATCCTTTACAGTCACAGATTATAATCATTA
1 TGCGCGCCACATTTAAACCTGCAACCTCAGTGATTAGCCA
0.7893790274994197 ATTCCCTACATAATCAGCATGAAATCCAAACCCATTTGTG
1 CAGGTCATAGAGTCCGCTAAATGATCACCTTTGATTACGC
1 CAACACAGTTTCAAGACCCGTGCCGTCCACTAATCAAGCG
0.9509589715573107 ATTAATCGTTGTTACGTTTCTCTAATGATATGGTAGTTTC
1 CACGAGACTACGCGCATCCTCCTGTACGGGTTGCTAATCC
0.4364687259599144 ATGAGTAGTGATTAACATCAAAACTTGTATGTGTTAGTCA
0.7560614363097878 CTAGTGCTACTTATGTATCTACAATTAGAAGTTAACTCCG
0.4208222404394897 ATTTTGTTAATTGTGCAACCGAGCGCCTCAGCCAATGACA
1 CACACGCCCACTCTCTAACCCAGTCACGATCCTAGCAACC
1 AGCTCTGCTTGCTACTTAACAAGATTTGGACGTTTGAGTG
0.3958479134169567 ATTAATTAACACGTGTCTGCTCTTCATGACGCGGCATATA
0.0460734614836964 ATGTGCGTTCATTCGTTGATTGAGTCAGGGTGGGTTAGGC
1 GTTAGTATACTGTATTATGCTTTTGTGCGAGATTAATTGC
1 ATTAACAGCCCAATTTGCCTACAGTAGCATGCGGACTACC
1 GAATTTACCTTGTTATGCTGATTCAACCATAGCAAGGCGC
1 TTAGTCAAACCACCGCACAGCCTCCCATTACTGATCATGA
0.3199583476189023 CCGCCTCTGTTTTGCCAAATGAGTATGCCCTCTAATTAGC
0.3184898194598302 GTAGACTGTTACTAATCAACATCGGTGGTAAAGTGGGGGC
1 ATGCCCATCGCGCTATATATTTCTTATCAATTAACCATAG
0.4130222040525642 TAATTATGGCATGTTTATTGTAGAATGCAGCATAATTTGT
1 GACTAATGACCGCTATGTTCTGATTTCTGTACCTATCTGA
1 TTCATTAACCTAATACACCTCCGTTAGACCTGCCTTCCTG
1 TCATTATGCATTTTAAGAGAACTAGAAATCACTTTGAGTC
1 TCCATGCCTTTTGCGTCTAAATGGCTCCTGATCCCTGTTA
1 ATTGGAACAGTGGCCGTGCCATGACTAACGTATAAGGCAG
0.3653318345103882 CGCCCTTGATGGCGGAGAACACACAATTAACAGCTTGCCG
1 CCCCGCATCCCATTCAAACACACCCATCCCCTGACCAAGC
1 ACGTCCTATCTTGATACCGTATATCATTGCATGATTGCCG
1 GGCACACCACCGTAATGAGTATGAAGCGGAGCAAGACCGG
1 AGAATCAGCCTATAAGATTCCATTATGTGATTTTTCCTGC
1 CGGCAATATGCAGCTACGCGGGTACCCACCCACCCACCAC
1 TGCTCAGGACGCTTCACGCCATAACGCACGGAGGCCCGCG
1 TAATGATCGTCTGTCACGCAATCCCAGTGCTGATAAGTTG
1 ATTGATCCGTTTTTATCTAGCTTTAACGAGGTTCGTTACC
1 GCCTGCATCGAGAGATTAACATCACATCCGGTTAATCGTT
1 TTTTCTGCTTATTTGCGAGATTAATTTCGTTCGACTTTAC
1 CTGAAATAACCCCGCCACTACCACCCCTCACCCCCCGTCC
1 ATTGGCATATCAATAAGCCAATCGCAGCAAAACCGGGTGA
1 CTATAAAACGGTCTCTCCCGGTCGAGTCGACTGATTAGGC
1 CATAATGATGGGCTGGCCCGCATTGACACTGTTGTTTACG
0.8888519219126214 CTTTTTTGCATCTTCTTTGTTGATTAATCGTTTTTGATTA
1 TAATCAGCAATAACATGCCCCATCACAGTTACGTCCTACG
1 TAGTGTCGGCACGAAATGATTACCGCTTTATTCCTAATAG
1 AGCCACCCCAAGTCCCCACATAATGTTCTGGGCGCGCCGC
1 AGTGTGAGACCGTACGCGTATAATACGTTGTGTATGCTTG
1 ATGACCTTCATCAACTCCCCCTCATCGATCACCCGAATCG
1 GTTTTCTTTTATGAAGGATGACCGTACTGATTAGGGATTG
1 CGTTAAGCTTCATTAACGGCTATCAGCTATTTTGGTCGAG
0.9779397073510085 ATTGACGAGCCGTAATCGTTACGTCGCGGGCACTTGATTG
1 AAATACTAATACCTGAGGCAATAGGCATCTATCATAATTG
1 ATTGCTGTGTTAGTACTTTCCCACTTTAATTCTTATTTTG
0.4956288290661662 ATGAAAACGAAATCAGCACTAAGTGCATGGCGAAATTAGG
1 CAACGCTAACCTTACGCGTTGAACTTGGCGGTGATACTCG
1 TAGAGCCTCCTTACGTTACGCTAACTTCAATCTATGTTGA
1 TATACCGACTCCCTAATGACTTTCTTCCTCCCCAATTACC
0.4573316865245086 AAAGGGGCATGATAACCGCCAATCACACGTCCATCAGTAT
1 TGCCGATCTAGCCACCTAATCACCTCATGCGAGAGGTGCC
0.5358943924521214 ACTACTCACGCTCCTTTCGGGGTAATTAGGACGAGTGGCT
1 ATCACACTAAACTCACCCGAATCTAATGGCATCAACGGCT
1 CGCGTGAGCATCAAGCACCCAACACCTCAGCTTGTTACGG
0.09595611547339047 ACGTATCAAGAATAATTAAGTTATTTAGGAATGCACCTAT
1 ATGGCACTCACTCGTTAAGTTGAGCTCCACTCAACGCATC
1 CTAATTGCACGGAATGCACACATTTTTTAATTCAACCCAC
0.4313911622518266 ATTTAAGTGCTGATGACGCCATCCTCGACTTGCTGATTTG
1 CCGCAAACTGATTGGCAGCACAGCAGTTTACAGCGCGCGG
1 ATTACGTGCCTAATAAGTTTGGCGCGTGCGTTTGCGGAAC
1 ACCGCAGCATGGCCCCAGCGAAGTCACTGGTAATCCGCGA
1 CCCACCATGATACCCTCACGAAGGTGGGCGCGGGTCGGGG
0.08330226938514572 ATGAACCGTTCTGTAATCAACCGGGTCGCATTATACCTGG
1 ATTGAGATTACACCAATTTCATAAAAACTACCTTGTTGCG
1 CATCCCTTCGATTACCAAATGCTCGCCCGCACCTGAGGTG
1 TTAATGAGTCCTAACTACTTGCCGATTACAGAAGCAACCC
1 ATTATCACTTCACTGCAAACTAAAATTACCACTATTTCAC
0.4706912267372027 CTTATCCGCATTAATTGACGCCTAGTGCTGCTAATATATT
1 ATTTGACCCTCTTGCGTTGACCATTACGCGCCGCCACCAC
1 TGGCGTGCTTACTTTATTTGCTAATAATGCCTTTTGATTA
0.1122531994466972 ATTAATATTTCTCGAGTATGTGGCACATTGATTAACGACA
0.6871201809244344 CGCTGGTGTCCACCTAACGCTAATGAACCCAATCGATTGC
1 TGCGCTTGGCGGGCATGTTTAGTGAAGATGACACGGCAAC
0.9363331597798243 ATGGTCAGATCAATTAAACAAAGCATAATAAAGGGCTTAG
1 ATTAATCCACTCCACCCATATAACTACGCCTTTAATGGGC
1 TTTGTCTTGTTTCATACCTACCGGCCTTCCCTAATTGGCC
0.1644421030665862 ATTGCTTGTAGATCCCGACTGCTGATGACTCATTATGTGC
1 ATTTATGCCGAACGGTGGCAAATGGCCTTGGCTGATTAGC
1 ATGCCCGTTCCCCGATGTACTAATAATTCCGTCTGTCTGA
1 ATTGGCTCTAGATTATCTCATCTGATTGTATTGCTCCCTA
1 AACACACAACCGGTGCGCGCACAGTGGCCTATACACGTAC
1 CCCGCACCGCCTCGCGAGCCTGTGTTTCCACGGACCTCAT
1 ATTGAACAACCTATTATACGATCATTAGGTCGCCTAGTCG
0.002723396600311936 GCGTACTATTTTCATGGCCTTCGAGCTAATTACCTTGCAC
1 ATTTTGTTAAGCACTGATTCGAATAAAATTAACGGATTGG
1 ATTGCGGGCCACACTTCTTCCGCTGCTATAAAGGATTCAG
1 CCCCATCCCCCCAATACGCCCCACTTATGGCCCTCACGTG
1 GGTGTCAGCAACTCGATCGTCATGATGAACATGATTGCAC
1 ATTTCTCATAACGATCCTCTAATTTCATGGGAGCATGATA
1 CCAGATTGTGCGTCTGAGGTCCTTCACGCGCGAATTACGT
1 CCACAATTACGTGTATCGCGTTACCTCGATTTAGGTACTG
0.6895442719732711 ATTGCAATAAGACACTCGAATTAGTTTTAAGGGAAGTCTC
1 GCAGGACCCTAATTCTTCTTGTAAGTACGTAGATTAGCTT
0.08525869193228669 ATTTACGTTATGCAATCTCCCGCTGATGATCATAAGGCCG
0.06367209768030621 ATTGCTGCCTGATTACGCCTGCCCGTCCCATGGACTCTAG
0.7387685046736039 CCGCTTAATGCCTGGCGCATTCCTTCAATCTACTAATTGC
1 CTGATCTTTACCATGCAACTCTTAATCATCTCGTCCGTAT
0.2583046281348986 AAATCATCAAATCATTCAATTGTCTCTGATCAGGGAAGCG
1 CCACATCAATAGATTACTCGCATTATAAAGAGTTACATAA
1 CCATTCGACAGCTCGTCACTACAGCTCTTCCAATCAATAT
1 ATTGCACCATAATGATCCCCAAATGAGTTATTATACCGCG
1 ATTAGGTACCTCAATGAGTGCGTACTCAGGCGCCACGTGG
0.3029276859721758 ATTGTGGCATTCTAATTGAACTAACTAGCTCCGCTGACTC
0.3856813812075697 ATGATCCGTTTTGTAATTAAGCGTCCACTTGCATGCGTGT
1 CAGTAACATTCTGCTACCTTCAGCTCGTTATTGGGATAGG
0.3530943935144064 ACCCTGCCATTCCTCCCAACTAAGCCCCGTAATCACATCA
1 CACATATCCTCCTTTCTACTGCCTCCATTATGCACATGAC
1 TGATTTGTTTTTTATTTGCGTGATTAGAGTCGGATGTGCT
1 ATTGCAGGTGGCGCCACAATCATGAGTATATACTGTAAAT
0.2681047052172969 ATGATTCCCCTTTGGTCATTGATTGATCACTCGTCTTCCT
1 TGCCCAGTGAAGCAACAGAACGCTCGATCACTAATTATCA
1 ATCTACCGCCTCTCGATCCCTATAACACCCTAGCTTCTAG
1 GCTCACGATGTTACTTAATCGTGCTGATGCACGCCGACCA
1 ATTAATGCCGAGCAACTATACTTAGCCTACACGATTTCTG
1 AAACGGCAACAACACACGCGCCGTCCCGCCCCCCCTGCTC
0.004229659156702872 TAATTATCTCTGGCAGAGAATCTTATGCATAATTACATAG
0.5563730624829926 TAAAGTGCATTTCGATGAGGAACTGATTGCTCGACACAGT
1 AACTTAGACTGATGATTGTGGAATAAATGCTGCTCGCGTT
1 ATCAACCAACGTTTGACCAAACATGGTAAGAGCAGTTCCA
1 TCCGACAAACCCTCCAGCCCCCGCCCCGCCCCACCACCGT
1 GCACCACCTCTATAACGACCTACACTGTTACGTAATCACG
1 AGGACGACGACTAAGCACCCCAAATTTGTACCTGCTGGTT
0.8554872795516273 GCCAACAAACTCGAGAAGTACTCATTGATTGCTGCGCGCG
0.3819180645863473 ATTGCACTCCCCCGTGAGTTACTTAGTCTGGATGATTAGT
1 TGATTTAATGTGCGTATTATAAGGGGGACAAATGCCTGGT
1 CTAAGTGCTTAATTTCACTTCCATTGCCCCGCGCAGTTAA
1 ATTACGCTTTCTAACGTCAGTTATTGCTATTTAAATTTGA
1 ATGTACGGCGCATTATGCAAATTGGTGGCCTTCAATTAGT
1 GCTCCCTAGTACCCCACCTGAAGACCCCCTCCCAGACTAC
1 CAAGGCCGGCAAATTTGATATAATTTTCACTGATGACGTT
1 ATTAACGCACATCTCGTTCACTCAGTCTTGTACTCTTTAA
1 ATTAACTCTGATTGCTGTCCCGTTCAGCTAGCGATCCTTG
0.06904301409959603 CCATTAGCCCCTGCCACCACGCAATTTATTGATACCAACA
0.03260552832489054 TAATTGCCGTAACGACGTTCATCTACATGTGCAATTGCAT
1 GACTATCACTTCCACGCGCCTCACCCCCCTTGCGACATCA
1 AACTGTGCTGATGTCATTACCTATCCATGCCTATCTATGC
1 ACCCTCCGTCCAGTAGAATCTTACTGATATCCAATAAGCC
1 TAATTAGGATCGCCTTCTGGTGTACATTTGCACAATTTCT
1 CTTCTAACCCCTAATTTAACTACTACACACGAAGATTCAC
1 CCTTTCTGCTACTCCTATTACATTAATCGGCTTGACACGA
1 ATTAACGAGTCTAATGTGGCCATCTGATAAGACCAAGTCC
1 CGCTATCCCCCCTCCCCCCCCTCCCAAACCTAGGTAGCAC
1 CCTTCGTAGACTTAAAGCACTATATGACTTGCGCGTTCGC
1 CCGCTTTCACTCCCCCGAACGCACGGAGATAGCGTGTTAC
1 GTCACGTATTTAGCCACAATTGCCTGATATACGATTGGAC
0.04148973147054352 GTTCATAACCTTAATCACGATTGCAATAGGTCTCCTTTGC
0.08218268480568482 AGCAGTCAACTGATTACTAATGCGGAGCTGACCTGTGACG
1 ATTGCTGCTCGCAGAGGCACACGCAATCCTCGTTAATCAG
0.1035458637234773 ACAAAGGCGACTGCAATCCCGCTAAACACCGCAATTAAGC
0.3723006243982125 CATCTAACTAGCTTACTGATGACCTACTTACCTGCGTAAT
1 GTTTCTCCTCCCGCTAACACTTTAATGGTCCCGTAATTGC
1 TGTATTTACTGTAATAGCCGTTGGAAGTATCAACATAACG
1 ACTAGCGACGAGGAATCAACTTTAACTTAACTACCCCCCC
1 CGGACAACATCGCGCAAAGAGACATCAACCCCCAGCCTCC
0.7430521621684214 AAGAAGTTGCAAGCTGTAGCAATCAATCGGCCGATCAACG
0.8189345410834318 ATTATCGCAATCTCTTTATTGTGATGGAGCTAATATATTA
1 ATGACGTTAACGTATTCATCATAATAGTCGCGCTTAGTGA
1 TACTGATTGATTCTTAACTCTCACTCTGACTTAACTCACC
1 GCTAAAGACAATGTCAAAACTAATTCGATAAGCGATTGGC
1 ACTACCACCGATCATGACTTAGGCGCAACGGAAAATTACT
1 ATTTGGCGACAACGCGACGATTATCAACTATTTTTGCGAC
1 ATGATCAATCAGTGGTACTCTCAAGCTCCTTCCTGCCAAG
1 GTCATTATAGGGCTTTTTTGAATCACATTCCAAATACGAG
1 ATATCCGCTGCAATCTACGCCTAATCGTGCGTTGTTCACA
1 CTCAAACCGGCTAACACATCCCTGGATAATTGCTATCTGC
1 TGATTGCGTGGCAACTAGCCGCTTTAAAGCAGGATTAGGC
1 TGACGTAATGATCCCGTGTTGCTACTTGACGAGCCCCAAC
1 TCTTATGGCAGTAAGACCTTACTAGACAGCTCCATTCCAG
0.3674804673768268 TACCGCTTGGCGTATTTAGCCAGGTGCCGTTGATTGCAAC
1 TGTGGCATTATCTCCCCCGCCCTTGAAACCTAACCCGCCC
1 CATCACTCTATCACTTCGCAGTACAGCTCCCTGTCATTTG
1 CTGTGTGCGCGGGACGTTGCAGTGTAGTATATCGGGTATA
0.4465888753587268 TTAATCCATGATTGTTTAATGTGAAGCTAGTAGTGAACAA
0.5848837318975898 GGGTGATCGTATGATACGAGTCGAGCCATTAATTGGGGTA
0.781808082910912 CTAATTGTCCCTAATAAGCGGGCATTTAGTTCTGTGTCAT
0.02234544118094143 CAAGCCTCAGATACTTGTAAATTAATGATCAAAATCACAC
1 CGCGCTGAAATTCACGCTTTCATTTTACTTTAATCACCCA
1 ACACGTGCCCATCAGTGCAGTCTTATTCATCGTACTCGCA
1 ATCCTTCCTTATACTTAGCTCTTGATTAACCTTCATCTCC
1 CACAGTTATGACCATCACCCGTAACACAACCTAATTTAAC
1 ATGAGTTAATCTTTGGATTAATCTCGATGTCCCATAAGCA
1 CGGATGTTTGGCGATAATAGGATACTCCGCTTCAATTGAT
1 GCCAGAGAAGGACCTTAACATGATTGACGCGCACCGCGTC
0.9469091084705453 TATTAAATGAATTCATATCCGGCTTATTCTTAATTATACG
1 ATTACATAGATTGGTCCCTAATGCCCTTTGATATCAGATC
1 TAGTATGCCATTAGCTATAACTTCTCCTTAATTCGTTGTA
0.8149363994645719 AATGCGCCGCGAGGGGATCGCGTAATTGAAAATTTAATTG
1 ATTGCATGCTTTGATCCTGTTAAGCTTCCATTCCCACACC
1 TCTCTTGCACTAACCCCCCACTACCCGTCCGACAGAGCAA
1 ATTCTCAAGGCTAATTGTAACGGACTTATACGAAAGTGCG
1 CAAACTTTCTATCAGAAGAACTTGTTAAATCGATCCACTT
0.7305832258070712 TACCGGTCACTCTATGCCCTCATGCTGCTCATTAGTAACA
0.4921627851909446 TCGCCCGCAATCCGAGGTGGTTACCATAAACGTAATTAAA
1 TATTTATAATTTTGGACAGTTTAAGTGGTTAACAATTTCC
1 GCGTGATTACGTCGTCAAACTCCGCGCCTAAATATACCGC
1 TCCGAGGCTGGCACATACAATCAGCATCCACGTGTCCTTC
1 ATGAAGCCTCTTTGCCGTATAGCAATCCGAGACCTAATTG
0.1266421682884237 ACAAATACGGCAACACTTTGCTCCAATTATGTCTTATCAC
1 ATTACCCCTAAACACCCTTCCATTGCATTCCCAATTGACA
1 ATTCACTATCATACTAATGCCGATCATCATATACTACTAA
1 GGCCCACTCAACACGAAATAGCCCATAGTCCCACTGACAC
1 ATTACCTCAAGTTAATTCGGCACTTTGCCCTCGTGACCCG
1 GATCCGATAATTATAAGCGCAGAATCAACAGCCCCAGCTA
1 ATTGCAGCTCATTGATGCGTTCCGCTCCAGCGCTTCCCAT
0.2584675581681536 GACCGGCCTTGCACCTCCGGCCCTGATTCGCTTAATTATG
1 AGGGTGTATTAAAGGTAGGGAATTCAACGTATGTCCTAAC
1 CCAACGAACCCCCACCACCCCTCACCCACACAAACCAGCG
1 GTTAACTGTGCCACGTCCATTGTTATCCGCCAAATCAAGA
1 TTATATAACAACGCAATTTTCTTATGCATGAAAACGAACA
1 GATCTCATTTTAAAACATTGCCTGCGGTGCTTGATTACGT
1 GCGCCGTGTCCGCGACGCGCTTCAACACCAACGTCTAATG
1 CAAACGACAGTTGGCGATGACCCGATGATTCTAACGTCCC
1 ATTCCAGGGACACAAAGCAATTAGCGCATAGAGCTGAATG
1 ACCACTTGTTTCCCACACCCACTAGAATAGCCCGATTGCT
1 TAATTGGCCTGACCGCTGTGAGTAATCGGTCAATCTCGGG
1 AACGCGCCACCAATTACCGGCGCGAATAGCTAACGACGGG
0.7105095593071447 CAAGTCGCGCTCTCCATTTGGCACTTACCGCCAATTACGC
0.09487854162510639 TTGGCGTTGTTTTCAGACGGTGCTCATTAAGTGCGATGCA
0.8456706268822306 TTATGCAATGTGACTATGATTACATAAACGAAGTTGACAA
1 GCTGTGATCTCTGTTTCTGCCTAAGTCAGGTACTAGGCTC
1 AGTGAAGTCTGGACTTGTCGCATAATGAGATGGTCAATCG
1 ATTACTACTCATCAGATGGTTCCTTTTTCTCGCCTGATTG
0.08916025221613857 ATTCTCCATCACTAATATCCGGGCAATCAGAGCGGGGGGG
1 CACCTAACCAAGGCCCACGCGGAGCGCTTCCACGCGCTAC
1 ATTATTGGCTCAATAATTGTCAGAATACCTGTGACTCGAT
1 TAGACCGAAGTGATTTAACAGAATCAATCCTTCATCTTAC
1 TCGTAGGCATTTCAAGCTAATTAAACACGCGTCCTGGTAT
0.1836186877344723 ATTGAGACTGATTGGCTCGATCCACGCGGGATTGCGGCGG
1 GTTCTGTCCCATTATACCTATAGTGCCCTCTGATGACGCA
1 GACGAACAACATTACTCATCTATACCATCGAGGGTCCTGT
1 ATTATACCCTTACACTTTCTACCACTTATTGAATCAGTCG
0.2509411989399383 ACTGTCAGCCGGAAACATCTCAATCAACTGATGATGTGTC
1 GCTACTCTAGCGCACTCTTTACACTCAAGGTCGCACTTGG
1 GAGCCGAAGCATACCATTGACCAACGACCACCTTAATTGC
0.8341351922411416 AATAATGGATACATAAGTGCACCGATCCGTATCATTATGA
0.9035483862740975 TCCCCGTAGTTTCTAAGCGAATTAGGAACTGATTGATACG
1 ATGAGGCGACTAACGAGCCATAGGTATGGCACATAGTAAG
0.3029761689127695 TTGCTCCTTTGCCTAATTTTACCATGATCCCACTAATTGC
1 TTACGAGTATTAGCATCGGTGTCAATTGAAAGATAGTTGT
1 CGGTCTCCTATTAATATCAAAATTGACTTTGACGGGTATG
1 TGCTGGATAGAAATTGTTAATATCACAATTGAAATTATCT
0.1574166268463955 AAGTTGGTGCTGATTACACTTTGTAGTTATAACTGTAGCC
1 ATTGCGAGTTTTATTAGTCTTCGACGCTACGTCTCCAAAT
1 ATTTCTCACGCTCCCCCCGTGCCCTACCCGGTGTTCGTTT
0.06748400654493761 TCCCACTGGTGATTATTCTTAATGATGTACTATATGCGTG
1 AGAATGACATGGCTTCGAATCATGAGCCCTCCTCTTCTAC
0.006859608073622644 CCATTTTATCGCTAATGAGCAAGGATTACAGCGTCAGTAT
1 ATTTGACCGTTCATTATACTAAGTCAGCTTGTATTACTGC
0.2604415298131171 ACAATTATCGTAATCCCGCGAGTTAAACTAAATGGCATGC
1 CTTAGTAGTTATCTGCAATCGATGTTTTACCTTGATCGGC
1 ACCATGCTACAGCAATAACGAGCCTACAGCATTCAATACG
0.007247787733610295 ATGATTTACTATAAGTACCGATAATGACGCAGTGCACGCT
1 TCCTGACTTCCGCTAATGATCAACCTTGTCTCCTATTATA
1 CAATCGACACTTGCCGCAACGGTAATTGTGCTACTTCTGT
1 GCAATATGTAGATTGTGAGTTCGTTAGCCGCTAGCGCCCA
1 ATACGGCTTAGTCCCTCACTGGTCCTAATGAATAATCACA
1 ATCCTAAAGCACACAACGCGTAACTACAGGCACTACCTGG
1 TCAGACTTATCGCCACAACCTCAAAGTAGATTATTCGCAA
1 CAAACTATATACTGACCAAGAACCACACCCCACAGATCCC
1 CTCCGAAATTCAATCTAATCGAAAAGCTTGTAATGCCACT
1 ATGCATCTATGGCACTCGACACTCACTCACCGCGTAATTA
1 CCCAGTGGCGCACCCCCCACACCATCCCCACCCTGCCGCC
0.7914593857634911 TATCGATGCGGTTAACGATTGAAATACCTTCCAATCAATA
0.03006748956048368 ATTTGCGACTACTTGTTAATCTGTCACGATTAGCCACGGG
1 AAGCCTTCTTCGCCGTACTACAACGCATCATATTAAAACA
1 GGTCCTATCAAGACCCAACCAGCGCCCAAATTGACCCATG
1 TCTCCCGGCCCTAAGCATGGACACTAAGATTAATCTGAAC
1 TACTCAATGACTACAGGCGTGGCGTGATAAGTCACTACCG
0.4898777655481532 CCCGCACTATAATTCTTGTCGTTAGTCATTAGCAACCTCG
0.3735108722517363 TTCCGTCAAATTAAGCCTTAATCTTCTCTTTAGTCAAAAC
1 ATTTGCAAATGAGGTGGTTAATAGCCGCGCGGTTCCTGGG
0.8751419082585805 ATGACCAACTGTTCCTTCCCAATCACAGGTAATCTACATA
1 CACCTTGCCTTCTAATAGGTCTTTTTTTGGCTGATTACCC
0.271149857545547 TGCAATTCTCTTCCTATCATGATGCAATCAGATGTAACAG
1 ATCCGATCGTTCTTAGCTAGCCGTTAATTATAGGTCAAAG
1 CACCCACAATGCTACTAATTTTCCACCTTTTCCCCCGTTA
1 CTGGTAGAAATCAAAAATTATGCGTAATCTTAGCAACTCT
1 AACACCGCAGCTCGTTTGCGTGCTGTCTGCTTATTGCCTA
1 ATCGTTCCGATTGTATGCATTCTGATTAGACTTATATCGA
1 ATTAATCGTGATTTGTTTAAATTGTATTCAGACTAGTCGT
1 AGAGTTGCCCATTCCAATTAGGCGACAGACGCCCACACAT
1 TAACCCCGTTCTCGACAGACACGACTATCCATCAGACGCT
1 AAATTAACTGTTAGGATGAGAATTAAGCGTACGCCCTAGG
1 TGCAATCATACATCTATCAATGGTAGCACTCTCGTATCAA
0.2745876076115435 CTTTACTTATTCTATGATTACGTTGCAATTTTCACTCTGC
1 TCCAATACATGCACGCCCTATGATTGCCCATTCATTTGCG
1 CATGAGCAGTGTGCAGTGGCCGCTGGATTAAACGTACAGC
1 CGTTGGAAGTACACGTAACCCGCGGGGCCAAAGCAGTCTC
0.6819524063200223 CCACAGAATCAGATTGTCCTCACCAATCTAACTATGCTCG
1 ACGTCGTACCAAATTGCCTTTCTTTTACTTCGATACTGCA
1 CAGAAAACAAGACGAATACACCTCGACAACAGCAAGAAAA
0.9635139251271149 TCATTTTGCCGAACTTAATTAACCAACCCCAGCCGACGTA
1 CCACGTTTTCCGACGTTGAACATCCCACGACCCTGCACGG
0.9159415241322403 GCCTCCCGCCCCCAACCACCCTCATCATCACACCCAGGAT
1 CGATACACAGAAATAAGACATGACTCGCTAACCGCCATCA
0.6645032083370257 ATCTGCAGCGGGAGCAATCACCGTAATATCGGGCGATGCA
1 GTTCAATCATATTTCTATTGCTGCTTTATGTATGTGGTAC
1 ACGCCTGTCACATACCTCGCCCGTCAGAATCACCTACCCG
1 ATCCGATCCTATAACTATGGTAAAATTAAGCGATAACAGA
1 ATATCACATACGCAATGCTTCTGAATTCGAGACAATTAGT
1 CCCCCAGCTGCCCCACCACTCGCACGCACTAACGCCATAT
1 CTCATTAAAGTACATTAACCCACTCACGATCTGTTCTTAT
1 CCTCACGACTGCGGACCCGCCACCATTACAGTGTAATCAC
0.07121014986492162 GTGTTCTGAACTGCTCGAATGTCGCTTGATTACGCGCAAT
1 CCCCGTCTAATGTGGCAGCTCGAGGGCTAATTCCGTAGCG
1 TTGTTTACTGTTGGGACTCACTGATAGAGGCTATCAGCCC
1 TTGATTACTGTTAGCGCTAATGCAACGACATAACCCCGAG
1 ATTAGATAGTTATTACCAATATACTATTCTTCAGTGATAA
1 CGGATACGCTATTAACACTGTACATGTATATAAACTCTAC
1 GAAACCCTAAGGTACGCATTAATTGACTAGAGTATTAGCG
1 GAGTGCACCTTGCCATAGTAGAGCGCTGACGCACCTCCCC
1 ATTGCAATTTTCCACTCAACACAGGCTTACCCTTCATAAT
1 GTAGCAAACCTGTAGCATGACATTACCCCGGCTACCGACC
1 AAAATCACTCACAGGTGACAACCTACAGTCCCCAAATCAA
0.2546012335760541 CGACATTTCGCTTCGTGATCAGTTAGGTGCCACTGATTAA
1 ATTACCCTGATGTCATATCTTGCATCCCCACTTCGCAACG
1 GTGCTCCAAATTGATCCTATGTACCTAATGCACCTATCAA
0.5758360964300376 CTAATCAATTGATCTGAGAGATATGGCCTCAAATCACAGT
0.1774535090674342 ATGAACGTAATCATTTCTGATCATCGTGCCTGTAGCCGCT
0.9282626872898673 CGCTTCCCGTTGCCGCGTAAATTTCACAATCACGCGCAAT
0.4160735510982561 TAGGAACAGTCTCTTCAAGCGATAATTAACTGATAAGAGT
1 CTTGATTTGGATCACGATTCCGTGCCGGCAATCTCATCAA
1 ATTAGTAGATAATCAGCTCTGCACAAACTCGTGCGGAGAC
1 CTCTTGCACCCTACCCTCTGGAACAATTCCGAACTGGTAC
1 GGTCACAAGGCTAATTGTTGTACACTAGATCCCCGCGCAA
0.7116877033705855 GTTGACATTGACCTAGGTAAGTAGATAATCGAATGATTAT
0.8894981088341315 CATAAACAGCGACGATTAGCCCTTGATTTGGCGAACTTCG
1 TTCAAGTGAAGAATTACCTCGCTTATAGTGTCTTTTTTAT
0.9412165813290342 AACCACTCTCCACAATTAGCGCTTCGTCTATCCTCCTCAA
1 TCGGCAAAGGGAAGTGCCGAAAAAAGCTAGAAGGTAGATA
1 TCCGTGCCCTACCACCGTGACGGGTGGAGCCAATCATCCG
0.1091999015681262 ATTGTAATGAATTCTGATTATCCGTTGTACTGCTTACGCA
1 CGCATTACCCCCGCTCACACGCGGTACCCCCACCGCTGGT
0.4810229041135271 CTAATTACCTGTAGGCATTCTGCTCGCCCTATTACTCACC
1 GGGATCCATCCGGTGAACTATGGCGCATGGTGACGACTTT
1 TAATTACATCATCATACGCAATAGAGCAACCGGCTAGTCA
0.1853064893048396 CTTAATCGCCCGGGTATGTTAATCGTACCGTTTAATTATC
1 ATGGCGCTGTATTTATCGGTCACACATGTCACAATAATCT
1 CGGTCATACCCGCCCGACCCGTAGTCCCCCTTCAGTGCGC
1 TCATGGATTGTTATCGCCTAACGGAGCTAATTTAAGCCTG
1 TTAGCCATAGCGATTTCTCCAATCACTAATGTTTTTATTG
0.7159955520557171 CTAAAATTGGAGCTAATAGTAGGGTTATTTGCAAATTAGC
1 CATTCGAATTCGTTGGTTTATTACGATGTTAAGTAGCTTG
1 CTCTGAAGCGAACAGCTTCTTTATTGATCCTCTAATGAGA
1 GGTCCAGAAACTCTGCGGTGTCGAAATGGATACCACTGCC
0.7508203877619005 ACCTAATAACTAATCTACCTCGTTATCGTGCCCACGATTA
0.1692614518626962 CAGCTACTACTTACAAATGGCTTCACTTGATTGCATTAGG
1 CCTGTAGAGTGATTGAAACCTATCTTCCTTCTTGACTATA
1 CACGATTTGTCTTGTTCCCGTCTTGCCATAGTGCTACATT
0.5463338552814145 CAACGATTATCTTATGAACAGCTAATTGATGGCCCCCTGG
1 ATTGTTCAACCTTCTACGATGTAATTCCAATTTACGTATT
0.4212761429953045 CTGTTGCCTGCATGAAGCTTTGATTAGGGGAATGAGCTAT
1 CGACTAGTGATTGCAGAGGGATGTGGAAATGCATTGCTAG
1 TGCAGTTCGCGCGGAACTTAGCGCTCCTCCCGCAGTGACA
0.5002430107449218 AAGCGTACGACACATAATTAAAAGTTATTTCACTTAACAC
1 TGCCTATCCCCGCAATTTAACTACTTCATGGTTATTATCA
1 ACAGGCACCGTACCCCACCCGCGACTCTCCCCCCCTCAAC
1 CTGCTCCGACATGGGCTCCGCTCTTCCGGAAACTGCGTAC
1 ATCTGCGCTGCAACGTAACGACTTATGATTCTAACATCAT
0.8371940911510901 ATTATACCTCATCTAGTTACTGCACGGCTTAATTTTCTCG
1 AGCAAATGCCGCGTCCGCCCATTAGACCTGATGTTAACTG
1 TCCTGCATAGTATTCAACGATATTAGGTATCCTATTATGA
0.1129853221272307 ATTATGATAATCATAGCCATTCTGTGATAATACTCACTGC
1 CCTTAAGAGTGTGTGGCTACACAGCCACTTAAGTGTTAGC
1 CGGGTGGACCGTGTTTCAGTCGACCGAGTTTGGTAGCTTT
0.06487906003745041 ATATACAATCACTCCAAGTCCTGTACTCACAAATTATTAG
0.483990141817329 CTATAATTTGCAACACTAGATGATAGACTTGTCGTTAGCA
0.0512613230546472 CAAATGCAATTTAGACACATTCAGTAGATTGGCGTATGAA
1 CTCCTTCGTTACTATAATGGCTATTGCGTTTTTATAATTG
1 ACAGGCGGACAGTTATAGATCATCAAACCTGTTATTGTGC
0.1538756406257222 GGGAGCGCTATTAATTAGGGTAGCTGAGACTGAAAGTACG
1 ATTGCAGTGATTTAATCTAAAACCATTTTGGCGCTTCGTG
0.6283531927646714 ATTTCCCCTAAACGCACCAACTTAATTACTGCCGCCAGGC
1 ATTGCATTGTCGGCCATGCCTTATTAGAGAGGATACTAGC
1 ATTTTATCTCCTTATGACTTGGAGGGGCTCACGTTCTCAT
0.5585462594552819 ACTTAACGCTAATCTCGTCACAGATGATAGTGCATACAGG
1 AAGAACGAAGGAGTACCGTTAAACTGAGCGAATTAATCAG
1 GTATCGCGCAAAGTAGTGACTAATATAGTAACACTCTGGA
1 AATGAAATGTGCCTATGTACTAACGCTAACATAACTTGGC
1 ATTCGTCTGTTTCGTCCATTAAGCTGCATAACTCGCTGTC
0.7934761931182271 ATTGAGCCTATTACGGCAACACCGCTTGCAATCTTGTTTG
1 AACCTGCGATGATGCCGACCTTATTACCCACAGCGCTTAG
1 ATTACCATAAATTGATTGTATGTCTGGCCATGCCCCTAGC
1 ACAATCCTCACTTTAGCGTTATAAATTGCTGCGTTAATCG
1 TTCCTCCATCCTCCCCCTCCCGTCGCTACTGCATCCTCAC
1 ATTACGCTATGTGTCTCGCGCTTAATTTACGCCTTTACCA
1 CACTACGGTCCAATCATCGTGGCGGACTGAGAATTGTGCG
1 TTCTTGAATGTATCGCATGACCTCCTTAATTGTCGCATAA
1 CATGATAGCATGTTTATTAACGTTAATAGCTGTCCCCCGC
1 ACTTATGCGTCTCAGCCATAACTCACGTTCACAGCCCCAG
0.2093625270681844 ATAATTAATGTTCGTTAGAGATGATGACCTTTGGATCTTG
1 CCACGGTCAATCAGGCCCTCTCAATGATGGCCTAAGCTTA
1 CAATTTTACACAGTTAGGGCCAAATTACTCCACCTAATTT
1 GGTGGGCATGACGTGGTTATTGCTTGTTAATAAGCTTAAC
1 ATAATTGGATGGTGCAAAGAGTGAAGCTGCTGCCAATTAG
1 ATCAGCATAACATCCGCTTTACCACCTCATCATTCCTCAT
1 CAGGGTAAGCCGTTAACAACCTGCAATGAAGCAACGATAC
0.3167519178679289 AATTGACGTTATGATCATCATGACTGATGACAGCCAACAT
1 TGACCATCTGTTATCTGCTCGCACATATATTCTCGCTAAC
1 TTCCCTCCCCCGCCCCACCACGCCCGAACGAGTCTACCCA
1 TGATCACATGGGTATTTTGTGCTCAATGCCTACTTGATTA
1 AAGCGGGATCCCCCGTCCCACGCGCCCGTCCATCCAGTCG
0.4551432203787796 ATTTTGCCCTGTGAGGTCAGAATTAATGAACAGTAATATA
1 ACCAGCCAACCCTCCTACCCCCACCCCCACCACCTCTGGA
1 AGTGTAATCTATAATACCTATAATTTTGCGGTAATATCAT
0.06119227776807488 ATTAGTCTCTTTCCTCTTGGACCCTTATTAGTTGATTGGC
1 ATTGCGCCTACACGTACGCTGCTTTGTTTGATAAAATTAG
1 ATTGGAGGACATGATCACTTACAGCAGCTTAACGCATTAT
1 ATTGGCGTATAATCGAACGTTACTTACAGCAAACCATAAC
0.983981140021186 ATTATGTGGCCGTGATATAACTAATCCAATATAACTGTGC
1 CCCTCAGTGCGACCTATCATTTTCAGCTCATTACTTAAGG
1 TGGCTAACGACAACGCCGCGTTCGGTCCAGTGAGACTGAA
1 ATTGCGCGTTAGCGGTCGTATTGTGTAGTTGTGAGCCGGC
1 ATTCATCTCTTTTAACCTATGAGTGCTTTGCTTCATATTC
0.09288849408536871 ATCGTCGTGCGTATACCTTCATAATGTGGTCGTGATTGGG
0.1911664641277993 CACTCATTTGCCTGACCAATTGATCAACTACGTTGAATCC
0.8438544831764563 GGTTCTTAACCATTTGTTAGAACATGTACTCATGATTATT
1 CGCCCCATTTTGGATAAGTAATTCGCACCGAGAGTCCTTA
0.2012442097189362 GTTGAATCACTCAGTATTAGTCGTCATCAATTCGCGTACA
1 ATCTAAGACAATCCTACAGATACCCTTGTCAATTAGCTAG
1 TAACTCCAGCGGATAGTCCCCGTTCTAGCGGTTATCCACA
0.7613530913335174 CATAACAACGCTAATGACTCCTGCTCCGCCTCGTTCATCA
1 ATTAGCGTTGCTTTTTCGTAATTGATCAAAATGCCGAGAT
0.007533892364969937 CTGCACTTAGCCAGACTACATTCATTAACCTCGTCAATTC
1 GCAGGGCCCCCTCGTCAACTCGAATGGTACTATGTGATGT
1 ATTTTGGTACCATGGCTTATTAGCTATTCTTGTGAAATTA
1 TCCAAGCCCACGTATCGTAGTTACTCATTGATCATTTGTA
1 ACGTTACCTTTTCACTGATCTAACCATTTAAATTCGATGT
0.1155492072666812 ATCATTTATACTTTCCAGGCTACTAATGAGGTTGCCCCTT
0.8310158141167883 ATTGAATCAACGTGAGAGCATAGTCTATAATTTGCTCGCA
1 GACAAATTGTCTAAAATCATCTGTACTCACCATCTACTTG
1 CTTATTAGGTCAAATAATCCCCGTAATTCGGTCTAAGTAA
0.4338784537364388 TTTCACTGTCCTTGAGGGAAGTTAATTGCTCCGCTTTACA
1 ATTGGCACTCATGTCCCGTTATTTAACGGTTCTAACGCCC
1 GTCCTTAGGCTTGCCACTACTTTTACTGATTGCCACTTTA
1 ATTGCACGGGCTGATCCCATTAATTTCCTTTTGTACCCTC
1 GTCTATTTACTTGATGTGTGATATAAACAGTAAATTAAGG
1 TTAAATGTACATTAACCGTGTAGTTACGGCTTACTTCGCG
1 ATTAAATTGCATTTGTTCTTGTGTGGTCGAAGAATTACGC
1 ATTAAACGTCTCATTTGAACTAAACGAGTAACAAGGACGC
0.7837903971919609 ACGCACTTCCTGCTGTTTACGTATGATCCGCCTAATTATA
1 ATTAGCCCAGCGTCCCTTATTTAACACCCTATTAGCATCC
0.6526276462173403 ATTACGATTACGAATGTAGTCAACAGACGAAATGATGAAC
0.182421333055004 CCCGGCCTAAATACTGCCCTCATTAGCCTAACGCTACAGA
1 TCCGCCCAATCCCCTCGCCCCCTTCCCTGCCACCCCCACG
1 ATTAATGACCACGCGATGGGTAGGGAGCGTCAAAGCAAGC
1 GCACCATCTCTTAGTGGGCCTAATTTAGCTAACGAAGGCA
1 AGGGGACATTCACTGAGACCCTTCCCGCCCTCCCCTCCCA
1 ATTGAGTAAAAGGCGTTCTTGATTGGGTTTTGAGTTGTAA
1 ATAATCAGTGCTGCAGCTAAAGTCCACCCGTTAATTCTGA
0.527695814750755 ATTGATGTACGCTATTCAATCACGCGCCGACCAACTGCCT
1 ATAATTTTGCTGATGGAACAACGAGTTGACTAGATTGACC
0.5780109916843783 GGGTGTGCTCGGCTTAACGTCATGTAACATGATTGTTACA
1 CACATACAAGCGCGCAATCACGACGGATCACGCGTGCATG
0.4689730949485275 AGACAATTACATGTATGTTAGAGCTGCCTTCCCAAATTGC
0.6676979089070176 AGAAGTTAGGGCCACTGAACCGCAATTAATTTAAGACCCA
1 ATTATGCACATGATGGTGTTACCACGCCCCCACGCTACGT
1 CCTACTTAGTCTTAGTAATGACGCATTAGTCCGAGTTGAA
1 ATTAATTATTCTTGACTGTAGCATTTACAATAAAGCCGAG
1 CGAAACCCGGATCTATAACAACGTCACTTTAGTCGATGTT
0.6945594767539957 ATTTAGTAGGGGGTCTAAATACTGATTTGTTAAGTAGATA
1 GCCAAACCCCCACTTCCCGCGCTTCCAACCCCATTTACTC
1 CGCTTCCGCCTTCTTGGCGAAAATATCTGATCGTTAGTGC
0.7669538226499677 CCTAGAGATTAAAATAATCATTTACTAATCTAGTATGAAC
1 ACCCCGCCCAACAGCACGCACGCCCCCTTACCGCACCTCC
0.5346340394075042 ATTACGTATAATGGCGTACTGCGATTATTACGGTATGAGA
1 CCGTCCAGATACGCACAGACTCACGAAGAACATATCCACC
1 ATGATTACTAATGGTGTCCCCGATAAGTCACCTTTATCAC
0.3186827941796374 GTCCATGCCATGCTCGTACAATTTCAACCAATTACCCCAA
1 ATTAGGTTTTTCATTGTAGCTCATAACAAACACTGACCCG
1 CCATAAAGCTCACACACAAGAAGTCTTATATACTAATTGC
1 TACACTGTTTCCTTGCGTGATAGCTAAGTGCCTAGTTATG
1 TCCCCCCTACAATCATCCAGGCTCCCCCTCACCCGATCGC
1 AAACTCTCCCACCCTCCACCCCAACACCACCCGACGGACA
0.5055664903504905 CGGTCGTCAGAGTAATGGCGGCGTAATTGTCACGCATCTC
1 CTTAATGAGTTTATTACTTGTATACCTTAATCCTCACTCT
1 GATGGAGGCGCGTAGGGCAAGATCATTAAATAATGTAGCT
1 ATCAACCTGCGTTAGATCAGATTCCCATTTACCCCCCAAG
1 GTTAAAACCTTGCATCCCATCACCCCACACCAAGCGGCCT
0.3261534715302297 ATTACAACTCACTACGCGTACCAATCATTGCTCCCATCGC
1 GCCGTATGGAAGTTATAACTTGCCTCTAGCGCGTGGCAAC
1 GGTGATAACGAGCGGTCCGGGTGCGTTTACGCTTTTGGCT
1 AACCCCAGGAACGGAAGATGATTAAGCGGCGCCATCAACA
1 ACAATGCATCTTAATCTCATCTCGTCACATTCCTCTGCGT
1 TTATTAACTGTCTTGGATCAGCGTTTGTATCTAATGACCC
0.3052151510384894 TGTGGATCTTATGACTACTAATTTAAGTACATGTCGTGTT
1 GGTGCAGCTGCGACGTATTGGTAAAGCTACCTTACCTAGA
1 ATGACCTGCTCTGAATAAACTGAGCAGCCAGTTAATCAGT
0.5906795331496996 AGCTAATTTTGAGCTCAATTATCGATATCACCGTAAAGTA
0.4293602657100791 GATTGACCAGCCTGATGTCGGTTGATTACCATAGTTGAAG
1 TGTATGCAACGCTAATCCTCCCTAAACGTTCTCTTACCGT
1 ATTGCGGGGAATTATAGACGGAGCACGGCATGTATCAAGC
0.3079456545901934 ATGGTCTAATTGCTGTATTTACGTTCTTGCGATATGATTG
1 CTGCGCGGCAATTTTGGATTCGTTAGAACCTCCATTAAGC
1 AGTGGCCATCGGCTAATGCCTTCTCCCGTTCTGTCGGCTT
1 CTCATCAACAACTTGTTAGTTTGGTTGAGTGAACTGTCGG
1 ATATTACTGTTCCCTAAATTAAGTTACCAGCATGGATTAC
0.1263412772743894 CTCATGCTCACTATACTGAGTAGACTCTGATAATTAGGTG
1 ATCAATCTGCAATGATGGAAACTTACGGAGCTGTTGATTG
1 GCACTGCCCTAATGTTATCTCTGTGCATTAGCATTCCTTA
0.2074304572891711 CGTAACGAATAACAAGTTCTAATTCGACGATTTAATCCAT
1 GGCCTCTGCCGTTTCGGTGTAATTGAGTTCTATTTAAGTG
0.7667919784612658 ATTGCTACTATTCCCCGGCATTAGAGACCAAGCAATCACG
1 TACGCCACCGCGTGCAAAATAGACCAAACTGATCCGCTAC
1 CTATTTAATTATACGACTTTGGGTGAAAGACTTCGAGTGT
1 AACATACAGGTCACCCCATTATCCCAAATTGATAAACGAG
1 GTGCTGCTTACTGTCTCCCACAAGGTCTGCCCCGTTTAGG
1 CAGTGTGCCCATTGATACGATTGCAGGCAGAAATTAGCGC
1 ATTGCGAGAAATCGAGCATCTCTAATTGACTCCTACTACC
1 TTGCAACGCACACGATGGTGATTGAAAACGATTGTTTCGC
1 ACGGTACTTTCTGACTTATTTCGTCTGCACCAATTAGCCT
0.8913996814034402 AGCCCTCCGTTTCCTGCAGTGGGTAATAAGCTTAATTCAT
1 ATTATCTGCTGTTTATTAGTTGGTTTGCAGTTCTTGATTA
1 GGGCGCGCTGACTCTCAACTTAACTCAAAGTTACTAACGA
1 ATGCAAATCATGCTATACCACGCGTTATCTGCCATCACAA
1 CCTTAGAATGTTCCTTATGATTCCTCGCTTCGATAGCCTC
1 CCACCGCCCACCCAACCACACCCCCACCACCGCGACGCGC
1 TGGCGCTATTTTTCGTGATTGCACGCCTCGCGTTCGCATC
1 CGCTGTGTGCGCGTAGATGGAGTGATCATCCTCTCATTAG
1 ACCTACTTAACTGTTTTTATGGCCTAATAAACTCCATCTC
0.5094880340006042 TGTAAGACGACAGTCCGTACTTCTAATTATGGATAATCCA
0.7032164064468637 ATTATGATTTGTTATTACCGTCTTATTGCATTTCTTTGCC
1 CCAGACACTATATGGTGAAACACGCGACCACCCACATCAC
1 GATACAGCTAAGACCCTCTTCCCTACGTGTTAAGAGATCA
1 CATGCCACCCTCCACCGCCTGACCCCGCCTTCACTTCGAA
0.4696243690917459 ATATACGACATTATTTCTCTGATTAAATCGCCGTCTAACC
1 AGCCAAATGACGCTTATGAATCGTACTCGCGGCCAATCAA
1 ATGATGAATACGATCGNCAATTACCATCTCGTACCATTAC
1 CTCATTCAGACGCTTTTTTCCGATTGTCGAACTAATAGTT
0.19460505490701 ATTGTTCTATCTGTTTAATTATCCATCTTACTCAGCGTGC
1 ATCCGTCCATTAATATAGTGGTTACTTATGTGTCCAATCA
1 TCCCTGTTTATTGTTTTTAACTGCTTTCTCTAATTGATTT
1 GCGTCGGCCCCCCCACTCCACATACTTCATCACGCCACAC
1 ACAATCCACCGCTCATCTTGCCTTCTCCTCCTTTGCCGTT
1 ATCGGCGTTCCATGATCCTCCCATTACCCAAATTGCGCTA
1 CCATATATAATTAGCAGATTCTCAATGTTCCCTCCAAAGT
1 CCCCACACCCCCCATCCCCTGGGCTGATCGCCCCTACCCG
1 ACCCATCGCCCTATTTACCGACCACCCGCGAACGTAATCG
1 TAACCATCCTACTCCCGTCTGATCCTACCATATCATTATA
1 CTGGCCACTATAGGACGGACAAGCAATTATCCACACTTAA
1 ATTACTTTTCATAATTGTAAATGTCGACAGTCTCCATAGC
0.6671038264851827 AGGGTTAACTGGTGATGTGATTGAACTGACATATCATAAC
1 TCCACCTCTTGGTGCTCTGGTCCTCCCATCCGCATTGCTC
1 ATAGACAAACCACTATCAACGTCCCGCGGCCCAAAGTGCC
1 GTCAATCGTTTAGACCCATTTTCCATCACACTTTATGAGC
1 ATTCACCGCTCTGATTCATCAGTCCCGCGTTCAATTGCTC
1 ATTCTACACCGAGGAAACAGGGCTTCATATATCTCAGACC
1 CCCACTCAGCTCCCGGATCCGCAAATTGACCTGCAATCAC
0.6013906452200576 ATCTGATTGCGTCCCTGCAACGCATTAGCCGTTAAATCGC
0.6895555231163063 ATACGCGCAAGGGTGCGCAATAATTGTACGCGATTTAACG
1 CCGTTATGAACATCCTAAACCCCATCAACGTCAATCCCCG
1 ATTCATTGTTCTAAAGTGTTAATCCTACTCAGCATTAGTA
1 CACTCACAGCGTGTGCGGACCAATTTAGAGCAGGAGAAAC
1 GCAAGAACTTCTAATTTCGTTGATCATTAGGCCTATTTTG
0.8896536389976464 ATTATTCTCTTGATTAAACGAATTATAAAGTCAGTGTCGC
1 TTCTAGCCCACGTGTCAACGAAACACTCTCTACATCTCCT
1 AATGACCACATCCCAGGCTTAGAGACAAGGTTATCGTACG
0.8602679506698288 TATGACAATCAACACAAGCGAATCAGGCGCGCATTTCCCC
1 TAATCACCACAATAAGGGCGCTGTCTTTCAAATTTGATTG
1 CGTTAGTGGCAAAATATTTCATCGTTGTTGTTTGAGGCCT
1 ATTAACATGATTTTTAATCTGACCTACCGTTTTCCCTAGC
1 ACTCTTTTCGCATGGTCTGTGGCTCGGTACGCTTTATTAG
1 AAACGCTTAGTTCCATCAATGGATTACTTCTGACTATCTC
1 ATCGCTTGAGACCCGGCGGTGTAATTAAGTTGTACGTGCG
1 GAGTGACTTGTCTTGGCCATATAATCTAGTTGCTAGCTGT
0.5282432560805187 ATGATTGATTGCTCTCCACTATCAATCGCAGGAATCGCAG
1 TGCTGGCTGCGTGTAGTTAGTTAGGACACTTTCCAGGCCG
1 ATGTATCAATCTAATCCCTGGTGATGTACACTTTTCGCTG
1 AATCTGCTTTAATGTGAATCTTGAAGGATCATAAGCAGTC
1 ATTATGCTTAATGAACTAGTGAAAAATGCTTCTTGCTATG
1 TAATTGTATCGCCCAAATTATCCACCCAACACTCACCGCG
0.324674021499831 CATCTATGTAATGAAATTAGTTCTGCGCACACTGACGAAC
1 AGTTCGCAAGCTAACTAGCCCATTTGCATTCGTCATCATC
0.7456307003194966 CTCACTACCTCTCATTTGCCTCGAATTGAACGCTAATTTT
1 ATTACCACCGAATTGAAGACTTAATCATCGAGCTTCGACC
1 ATTTGCCACGTTGATTATAGGCGACTTTCCGCGTCGAATA
1 ATAGCCGGCAAATCAGTTCAACCTGGATCCCGTCAACGTT
1 CTCATTACGGTTGGTGGCCTTTTTGATTCCCACTTAACAG
0.3135242727976496 ATTAGTTCTTTGATTACCCTTCACATGCATCAACTTACGC
0.0447483448189982 TACATTATCTATACTTCATTGGACAATACGATTAATTATC
0.2228519923581128 ATTAACCCGATGGCATTATTTACTTAATCGATATTAAGCT
1 ATTGCAAGATCTTGTTAGTACTCATCTCCTCCCTACTCAA
1 CCAATTGCATAAGGCTAGATATGTGTTGTTGACTGATTGA
1 AAAACTCCAGCGTTCTTCCAATGTACACTAACCAGTACTT
1 TCAGCTTTTTATCTGCCCTTACGTCCTGATTAGTCCTACA
0.6432645076403108 ATTGATTAATTTTCACGTATAAGTGTAAGATGCAGACAAT
0.164870717981017 ATTAACGCAATCCGATGAGCTCGTTTACAATGAGGACACT
1 TAAGATACTAAAATTGCACTGCCCCTTTGGGGATGATTAA
1 CTTCCCTGACCATCCAATCAATTCAAGATAATTCAATCCT
1 GGTGACATATGATTCAACTATTAGCCCTCGGACAGATTGC
0.462147898210681 ATTGGCATTGTAGTTAAGTAGCGCTAGATTGTATTACAAG
0.7629920082474309 ATGAGAGCCCCTTCATCAGGTCTACAGCTAATTTGCATAA
1 GCCAGAGGTTAGATACCAATTATTTGTTTGCAGTACGTCA
1 TTTTAAGTGAACTTAATGTTTCGTAATTCCCTTACTGTGT
0.3213355735702242 CTCTCGTACTCCATTGGATCCCCAATCAACAAATGAGCCC
1 ATGAACCACGCATGTCCTAATGTTTATATTGTGTATGTGC
1 CTAGTACTTCGATGAACCTTAGATGCATGTGAGTTTATTG
0.3802988627974354 ATTATCGTCATCGCGCTACTGATTAGAGGCAGCCGGAACC
1 ATTATGTCTTAACGATACTCCAACACCTCCATTGTCTCTT
1 GATACGCGGAGACTCTTAACGAACACTGTGGTGAATCCCC
0.7478880942864323 ATTGGTAGCACTGATATCTAGTGATTATTATAACCTCTTA
1 TTAACGTGATTCCTTCACCATGAAGGTTGGTAGGCATACG
1 ACACCATTAGTACGCACTCTCTCCTAAATCTGCCGTCAAT
1 CCCCTTACCTCCCACCCTTCGCCCCGCCCACGGATGCCAA
1 TAACCTCATCGCCCCAATCCCCCCACGCAACCTATGCAAC
0.2386801501018571 CTATATTGGCGTTTGCTTCGTAGATTGGGCAATCAAAACC
0.7010657366146439 GGCCAATATATTACGCCAATCACGCCAGTGCAGATTGTCC
0.3109095799926167 TTACAGAGGCAGTGCCTAATTATGAGCTATCTTCGTCCTA
1 TTAATTGCAACTAACTACTCTATATTGAACTCCGTGTTCG
1 CCGTCGGTCCCCCAAATTGTCGTTAGCTCACTCCCTGCCG
1 TCCTGCTACTTTCCTTATTAGTAGATTGGCTACGTAGATT
1 ATTGAGGTTAACTATTATGAAATATGATAAGCCTAGTATA
1 ATTAAAGGTCTGGTACATGCAGAAATTGCTTTCGGTAAAA
1 ATGATGTACATGCTTAAGTACCAATTTCGTCGTACACCAG
1 TATTAATTGGCCGTGCTATACCGACGCTGCCTTACCTCTG
0.9140579388556045 ATTGCGGTTTAATTGATGCGTACGGGACTGTGTAACCTGC
0.9564234184751094 TCACTGCAGAGCGGTTGATGACCCCAATTTACGTATGGTG
1 AGAGATGGTGTGATTAGTGCTAGAAAATGCCCGTGCTGTA
0.2770213925192033 TACGTACTCATGGCTTGATCGTCATAATTTAGAATTAGAG
0.2698483256456443 CCCCCCTAGAAGGCCTTGATTAGTGTTGCTAATGTTAAGG
1 TTGATTTCCTTGATCATTGCAGATAGCAGCCTTTAAGTAC
1 AGGCACCGATCGACACCCTCGAACATGCGCGGGCGACACG
1 ATTACCGATCTATTAAATCCCCTAATCTCGCTCGATTCAG
1 ATTGGTGTTAGTGTTTTTGTAATCTTGTTAAATTTGGCTG
0.8073054179593757 TTCTTAATTTGTGTGTCTATTGTTATTATTTGCTTCATCT
1 CGTTGACGTTGAGCCTGGGCTGGTAATCTATTTCTATTGG
1 ATACGTAGCTCGCGCTTTTTGATGAAGCTAGATTGGTGCT
1 AAAATTTGGTACGGCAGGCCTTGATTTAATGGTCGCGACT
1 TTGTTATGATTTGTGTTAACCCATACGAGGAATGAGCTTC
1 ATTACTGACCCCTTAGAATGATTAGTTTCCCTGCATGAGC
1 CCTGACCGCCATTAGTCGCATAAACAGGAGTGATTTACGC
1 CCTAATTTATCCCTAGTTGTCGATGCTCCTCGCAATTAAG
1 TTAGCGCGTTCCTGTGTGCTATGCAGTACGGTACACTGCT
0.2239356323299422 CCGACAATGATTTTAAATTAACTATCATGGAAAGGTAGTC
1 TTCTGGTAAGTATCACATCTTTAATCATCATTTCCTGACT
1 AAACCAACCGATTGTTTACCTTGAATTTAAATAATGAGGT
1 TGGAATACGTTCCGTACCAATCGACGACATTATTGTAAGC
1 AGCATCATCGTATTTAATACAGGATAATGACCCACCCGAA
1 ATTGTTTCTCATTACATCGTTTATCGTGTAAACACGCGCA
1 TTGATTACCTTCCCCCCTAACCCCCCAGCTACCACTTAAA
1 ATTAGTCATTTATCTGTCTTTAGACCACTTTCCTCTATGA
1 ATGAGGCCCTAATTTAAGAGAGCTAGACGGTTATAATACG
1 GCGTAGAACCATTCAAACGTATCTTGATGTTCCGCATATA
0.3396098865232557 ATTACCGGTAATCAGCGGTCCTACATGACCTACCACCCTC
1 AACCCAGGGACGCAGGACGACGTTGAGCAGATCTAATTAT
0.02679344399380404 ACAGTTCATTTGTGAGTGTGTGATTAGTGTAAAGGCACAT
1 TCCTTAGGTCTAGACAAGATTGCGCACGGAGAGCAATGAG
1 AGGGATAGCTTGATTCGATTGATCCGCCTGGAGCCACGTG
1 TCATACCTCATTCGCATGACACTTGGCGACACATTGCATT
1 AGAGCTAAGGGTCATTAGGTGAATGGAATGAACAGTAGCG
0.3779761991182137 TTGGATGATTACCATGATCTTACCTTGTTTGCTTTGTATT
0.8116702003673578 TGGCCCCTTAATCGCCGATAATTCCTGCTGATTCTAATTG
0.1540371661529835 TCCCACTAAGCCGCAATCCAATTATCATCACGACAGGCCC
0.08327023882064845 TATTAGTATCCTTAACTTAATTTTCATGCTTTATGATTAT
1 ATTCGCCACTTAATTCTACCCCATTACTAGGCTCGCCCAC
1 ATTAGTTTTGATTATCCCCTATTTGTCCAGTTAAACTTTT
1 TCGTTTCCCTCCTGCCTTTTTGTTCCCTTCCGCTGCAGGA
1 ATTGACGGGAATTGGACGATGTGGCCGCGCTCAAGCCCGC
0.4489814402858479 ATTTGCTCGTCCAGCTCACGCAATCAATCCCGGTGCCAAC
1 TACGACGCGACCCAACTAATGCCCATTTTCTCCCCTAATG
0.5490357825951472 GCGTACATGATGCAGCCTAATTATCGTTTTTTGCGGCCTG
0.04448264590997167 ATTATTAGTTTAACCCGCAAATGGTATGCTAATTTGAGCT
1 ATAACGAATAGATTACATGTACCATCGTGCCATTATTTGA
1 ATTGCACTCTAATATGTAACATGTTGGTAACACTATAGCC
1 ATTTTCCAATTTACCGCCGTGGCACTTTCTGAGTGCGTTC
1 TGCAACCTGTCTGGTCTAGCTGCTTCCCACGTGAGGCCAC
1 ACCTGATATGTGGCCCATCATGCCTAATACCTCCTAAGTT
1 CTCGCTTACGCACTCACTTCCTCCACATTGCGAAGCAACG
1 ATTGGTCCTTTGTTTAATGAACCAATCTCTTAGGAGCCAT
1 TCACCGATACCCAATCAATCCTCGCTGTTGTCTACGATGC
1 GCACTCTCCCCGTTGCCGCCCCCACCCCCCCGTCGCCCCG
0.9243713767093305 ATTGCTCTTAATCAGATTCAAATCTCATCTTGTTTGGCAT
1 ATAGACCGGAATCATCACCCGTTCGCCGGGTAATTTGCGC
1 CACTAACTCGCTCTCTTACGTGCGTTCTTTAATTACTCTC
1 GCACACTGCTTCTATGTACCATGCAAAGTGCTCTATTCCG
0.8393883539193222 GGTTTACAGCCATGAATGTCGTGGCATAATTGCGTACACT
1 TCTCCCCAGTGATGCTCACCCAATCGAGTTACTCAACATG
1 GACGAGTACTGGAAGAACAGGAATGTGAGCGGAATATACC
1 CGCTTCATTAGCAGCGCACCTCTAAAGAGCGTAATCTCGG
1 CCCAGTACCACTCAGCATTAAACGACCACGATGTCTATCA
0.8810823942653568 CTATCAATATTTCGTTCTGATTTACATCCTTGTGATTGAC
1 CCTTCCACAATTACCATCCCCCCCGGCACGCTGCCCACCC
1 CACTCCTACCCGACCCACCAGCCCCCCCCCTCCCCCCCCT
1 AAACGAAAACCCTACTTATATTTAATGAGCCCTCATGCCT
1 ATGGGGTCACTTAGATTGCCTACTTTATCGCTCACTTAAA
1 CAACTAATCAAGCTTACCTCAACCTAGACCGTGAAACTAC
0.3645743674835951 ATTAAATCGTTTAATGTTTCAATTATTGTAACGGGGATAC
1 CAAGACGCGTCAATTACTGCCGGATTCACCTTCTGTACTC
1 CGCATGTACGAGACTAATAGCCCACCCAAATCACCCCCCC
1 ATTACTTACGACTCGCTAGTGACTACGGATTTATGGTGTG
1 CAATTAGTGTCTCTGACTCCTAACAACATTTCTCATTGGT
1 ATTGATCCCATTGCCATGATCAATTGGGGACTATAATTGC
1 ATCGCCCAATGGCCACATTTCCCCTGCAAGCCAATAAGTT
1 ATTAGTTCGATTGCCGGATTAGGGGGGATTGAAGTTGCTT
1 CGACCCACGTAGACACGCCCCTCCCCGGGGTACACCCTAT
1 GACTCGAAGTGCCTTAATTCTCTGATTACGCTCGGCTGCT
1 ATTGCTTTTTTAATCGTTTTTTAGTCAATTGCCGTCTGAC
1 GACACTATTCACCCAGTGCTCCGACCCTGCCCACCCCGCA
1 CCGGTTGTAATCACAGTCCAGGGGTACTTCATCCATCCCA
1 CTTCACGCTGCCACAAACTTTACGACTTTACGCCATGACC
1 ATTACCTTAACTCCTGGCGTAAGGACGTCCTTTAATTACG
0.4649530611207206 ATTTAATCAACGTCATGGCGAGCCTATCCCCGCATTAGTT
0.6452656054043586 GTGATTACCACCAATCAAGCCTCGAGCATCTCCGATTTGC
1 CTAATCGCTATATAGCTACCCTCATTAGTCCCTGCTGTCA
1 GCTCGACATCGTCCGACCCAACCCCTCACTACCACATGGC
0.5310865220800327 GCTAACCTGAACATCAGTTTGCAAAAATTAACTGATTACA
1 AACAGCGCTTGATTAAGCCGATTCTCTGGTCACTTCTGGG
1 TCAAGACTCTTGAATCAGCGATTACAATAACCGCCATTAG
1 ATTTAGCTTCTTCGTCACATTGATTTTGGTCAAGCTGCTC
1 CACTCCCACCGCCCGTCCCCCGCTACCGCCCCAAGCCAAC
1 ATTAGAAGTTGATATCAAGCTCCAACCCAGCTAAACCGGT
1 GCCATAGAACGGGTACGTGATGCGCTCCAATCACTGACTG
0.5613914659371784 TCTATAATGAACCAATAATGACATCTTAGAACCCTTCCCC
0.9916863273692285 ATGATATAATTGAGCCAAATCGTTGATAGTATCATAGATA
1 ATGACGCGTATGTAAGGCGCGATGAAAATAATTACTTGTC
1 TAATGTGGCTATGATTTGCTAAAATAAATGCCTTTTACGA
0.173911724669675 ACAGAACACAACGCCTCCACTACAATTAACCCTCAATCAA
0.3275505839206814 ATTACACGACGGTACCCAACACACTGATGATAATAGTTTG
1 CGCTCACCGGTTGAGACGTTGCGATTGCTTCTATCATCGA
1 TAATCACAATAATTGGAAAAATATTGCCCCAATGTGTTCG
0.5984037692300149 ATCACAGTAGATGTCACTTTTATCAGGATGATGTTAATTG
1 TGCTACTCCTCATACGCCGGAACGTAACACCTGAAAGAGC
1 ATTGCAATGACCTTGTCCCCTGCATAATGGAAACATCCAG
0.04767896229244806 ATTGGCTTACAATTGCATTGATTAGACAAGCCCCTACCGC
1 CACAACCTATGCGTTTACCGACATGGTACAGCACTCCATG
1 TCTTGTTTAAGGCGAGTAGTGATTTTCTCAGATTTGAGTC
1 AGCAGAAGCTGTTAGCTGCGTCATTTGTTAAACCACATGC
1 ATCGCGGTGACTCGCGAGGGTCTGATGAACATTCATTAGC
1 CGGATAACGTACCCCAATCGATCATAACCCAGGCCGCCAC
1 TATCAACGTGCCATTTAGCGGCATGGCCTTCGTTAGCCGG
1 GCCGCCTTAATGTCCTACGACTAATATAAACCCTTACACG
1 ATTAGTAACTGTTCAAAGTCCTATCAATCAGTCTATCCTC
1 CACACACTACAACCTTTAGAAAGAAGTGACTACGTTCCCG
0.4408167482452839 ATTAGCTACTCTTTTACCTTTCCTGGCACGCCTTAATTAG
1 ATTGGGTTGATGTTGGTTGATTTATGGGACGTGCGTTCAC
0.7315509650882223 TAATTAGTGACTTCATTCAGACTTGCTTCATTTAATGCAG
1 CCGCCCCTCCAGACCTAGCCCCCGCCCTCCACCCAAGGAA
1 TGCGAGCTCCCGATAATCACCAGCGCGAAAAACCGAACCT
1 ATTGTGCTTAATAGAGTGCTGAGATAGGAGGCGACAGCCA
0.64388349791754 CGTACACTGAGCGTCATAATTAGTAGCCGTGGACGTGTTG
1 TCTTAGCGCCCATAACCGAGGTAATTTGCAGAATTAATGA
1 ATTATGATTAACGCAAGATCAGAACATCTATACGTGTGGT
1 ATTGAGACAGGTTATTGGCAGTTTGTTACAACGATTACAG
0.3587070616819339 CAAAATGCAGTTCATTACAAGGATACTGGCCCTGATTATG
0.1300588023027197 AGCGCATATAAACTAATCAAGCAGCAGTCAATAACTGACG
0.8442413282885123 ATTCATTGAACTCAATTAGACTTTATTGCAATGCTGTCGT
1 ATTACGCTCTGATTTATTACTTCCCCGTGGTTCAGACGTG
1 TGATGATTGTGTAGCTAAATCGCTAAGTTGCTCTGGCTAA
1 TTCGGAGTACGCCATCTCCTAAACTGCTAAAATAATTGCG
1 TCTTCATGCTCCGGTGAAAAGCACATACCGTTTTAGCAGA
1 ATTCATTCTTCCCGTTGGCCCGTTATTATTTCGATTATCG
1 ATTATTGATGGTTTCATTCAGTATAATAGCTGGCTGTATA
1 CAATCATCGCCAGAATACACAACGCACCAAACATGTCGAC
1 AACTCCCCAGAAACGCTCTCTCGCGCGCGCGCCCTGCAAC
0.4834572249374348 CAAGATCATTATTCAACCACTCTGATGCACGCAATTCCCT
1 AATTTTGCTTTTGATTGCTAATTTTTCGCTGCACGTCTGA
1 TACTTTTTGCTAATCACAATAATGTTTACCCGGTAAGCTA
1 CAATCAAGACTGCCCGTCCTACGTTCCTGCACGTGATAAG
0.5855615627079687 TTCTAATTCCCCATTTCCGTTTATAATTAGCCTCTACGGC
0.7946060464091119 ATTGCAACTTTTTAATCCATAATCAGCCTTCCCTTACTTG
0.6515040675144704 CCTCACCTTAACACGTATTGTTAATTGTTCTGCTTTTACA
1 TTCCCGCCGGGATGCACTCGAGTCGCCTAAATAAATTTAT
0.5942904349081648 ATTACTGTACCATTGGTCATTATATAACGGTAAGTGTTTG
1 ATTTACCTATCCCTCAGCGACATGTACAAGGCAATTAGAG
0.9326802955907407 TGATTGTGGCGTTGAATCGAAGCATGATTATACTCTCTGG
1 CCCTCCCAACGCAACCCCTCCCCCTACCGCCCGCCGCACC
1 CCCATGCTAATCTTGTAGGCCAATAGTTCCTTCCAATTAG
1 ATTGCAATAAATGATACGTAAATGCTCCTCTGCAGATTAA
1 TCCCCACGTCTGACTACTCGTCTATCCACCCTCCCCCGAC
0.7980475054121836 ATTACGTAGCCACGCGCCACAGCAATCAAACAGGCCAGGT
1 ATAAAGGAATAAAGCCTACTTAGTGTCCCAATCAATGCCA
1 TAATTACTTGCACTTGCGGTTTGCACCACTAACTATCTAC
1 CTTGTTTCGAGTATTCACTACAATCGAATCGCTAATTTGG
1 ATGGACGTCGATTACCGGGCTTATTATGGTTAGTGCACTG
0.2166032577168312 GCCCTCGCATCTTTCGAATTACGTCCTGATTGGAGTTGAC
1 ATTCTGAACTGATTATCCGCGCATTATAGTTCCCGTCTGC
1 AACCAACGGCTCGGTCATCCCCTACACTACGCTCAACGCC
1 CCATTTGGCCTTCCTCGTTGCCGCACACCCTTTGATGTGA
1 CCCATACCCTGCGCACCCCCCAACCCTGGCGTGATCCCTC
1 CACTAGGGAGAACAACTGACTACACTATTATCTTATTCGG
1 ATTAGTGCAACTTTCCCGCTCCTCCCGTTTAGTTCCTATG
0.9264022184172476 ACATGCCTAATCAAAGCCTTCTCACAGTCGCGCCTGCCCG
1 TTTCTGATTAATCTTTTCTTCTAAAATGGAACCTTTCCAC
0.39538333211041 ATTGCTGAATTATAGGCCATTAATAGGCGATCTAGGCGCT
0.3701889719815046 ATTCAGCTCATTATGGCGGACCGTTTTTCATACCTGATTA
1 AGTGTTAGTAACCCCTGCCTCTCCACACCCCACCCTCCCA
1 GTCAATCTCTAACGCGGTGTCTCATGTCGCACTCTTCACT
0.5229929644904893 CCTTTACTCCTTGACAAGGTAGGCATTGTCTTAATTACCG
1 ATGAAGCTAATCTCAGCATCCTACGCCAAACCAATTGCAG
1 TATCTTGAGTTCGTTCCCTTTTGCCAGCGTTTTCGCAGTT
1 CATCGCGCAACCCGTTAATGGTCAATGATTTATCTCTCCC
0.1525970564411643 CGTAATTTGAATAACTTGCGAATATCATCGACATAATTGG
0.5557372806578106 ATGTACTGATATGGGATGGCATTTATGATTACCTTTGTGC
1 TATGCACCGCAAATCAGTGTCAAAAATCAAGAAAGCATCC
1 CGCTGAACTAAGACCGAAGGCCGGTGTACGAGAACAACCA
1 AGGCAACACTATTAAAATAATTTGGATGTATTATTAGACC
1 ATAGTGCCTCTCTCTCATTCCCTGATGACATCAATATTTA
1 TTGCAGACCACTGAACTCTTCCGAGGGAAGTGGCGAGAGC
1 ATAGTACCCATGACAGCAAATCAACACCGTTCCTATCCAA
0.6184276072880506 ATTAGAGACTGTCTTTAGGCGCAAGTTACATCCTAATTAT
0.174246019777691 ATTGCCATTGTGATACCACCAATCCTGCATCTTAATTAGC
0.5508494018030581 ATTGCACTCACCAACGCTAAGTGACCACTCAACACTTCGA
1 TTGGCTAAAACGCGAAGCGGCTGATGGAAGCAGATTAGTC
0.8395024111053977 CTAATCACCCTTAATGTGGCGCCGATCACAACAGATCATC
1 AACGTGCTGTTGTACTATGTTCCTTTACTAGACGTACTCA
1 CCCTGCGCGCAAGCACGCGCACAGCACCAAACACTCCCGA
1 CCTCATTATCCGCTGACGAGGGCAGATAACGTTCTCTCCT
1 TAATAACGGTACCTAGCAACTGATGCGCCATTCATTAGAC
1 GTGGAGCTGACCATTACATCCTAACTCGGGATAGTTATGT
0.961065029356221 AACTGCGCACTAATGATGTTTGCGTAGCAGATGCTTATCA
1 CGTTGTTCTTTAATCTTAGCGTTTTATTTACTAATTGTAA
1 TGCATCGTGTAAACCTCTTGATTTCGCGTTTACTTATGAG
1 ATTATTCTATTAATACACATTTTGAAGTCCTTTTGAACTA
0.7452508598433213 CATTCTTGATTAATGGTATCCGTGAGTAGCGCGGAGTGTT
1 TCCTTACCATCCCTATGGTTCAATCTCTTCAGTTCGTCTG
1 CCTCACACATTACTAAGCACATGCTCACCCCTCATGCATC
1 ATTTCCCTTATAATTACTCTACGGTGGATGCTAGGTGCAA
1 CTCAATCACCAGCTAATGCATACGTTAGGCCTTACTGCCC
1 TTCTGATCCTTAATTGCTGTATCAAGGTGAAGAGATTCTT
0.8004134708113604 ACGTAGACATGCGACCCTAATCAACGAAACTCTACTTGCA
1 AACTACGACACGCAACGGGATTTCGGAAACATGCATATTT
0.926410322202026 TTCTACTTACCTTCATGCGCCACTTCAATTAAGCAGATAC
1 ACTGTCCCACACTTATCCCTACTTGATGAGGTAGATCATC
0.355429865960086 ATTGCGAGTGATCCTCAAAATTCATATGTCATTAGTGGCG
1 AAGTATCGTGCAATTATACAATGGGAGCCACGATTGCACA
1 TCCTTGTGCATTTACTTGACTATCACCATTACGACTTCCC
0.3197656971496763 ATTAACTCTGATCAACTACTGTTTCATTCGTGTACTCAAT
1 GATAATGCATAACGTCAAATCAAGCTTTTACACCTTTTCA
0.4135258177661212 ATTGCAAGGCGCTAATCGGTGATTGTTATTTAAACGCTTC
0.03972125508997607 TAGTATGCGCCAATTAACGAAAGGTCCAGCCCCTTAATGA
1 TTTAGTTAATAACGTTGACGGTTTACTCGTTTAATAATGG
1 ATTGGATGAGGTTCATTTAAACTACTCATCACGACCTTAG
1 ATTATTGAAGTAACGTCTTACATTTGCGTGCCCTAATAGT
1 AACAGCGATTTAAGCACCCGCGACCCCCGAACCCATCCAA
1 CCACAATAGCGTCCCCCTTCAATCCAAAATCTACTTCCCG
1 ATTTACCATAATGACTCAGCGCCCATTTCGGGTCTTCTCC
1 CAATCCGAATTAGTTTGAACTATGAATCACGGTGCGCTCA
1 GATGCACTTTGTTCGCAACACGTAAATTGCACCATTTATG
1 AACTGCGAAGATTGCACAGACACCATCGCAGCAACCTCTA
0.2594415398723292 CTCATTACATTCCGTTAAGCACACTGATCATCTGGTGGAT
0.6399180807760949 TTAGTATGAATCAACGCCATTCGCTACCCTTTGCAATCAG
1 CCTTGTCACCGGACCAACCCTTATCATTGTCGCTTGATGG
1 ATTGCGCCTGCTTAACGTGCTAGTTTGCGAATGATGTGTG
1 CTAATGATACTTAAACGGCATGCTTTAGCTTAACGTGCGC
1 ATGCTACTCTCCATGTGATTATACGTTGTTCGCGTTTGGC
1 TAACCCTGTCCGAACTACTTGAACAATCTTTTAATTGTGC
1 AGATACGTACGAATTAACTTAAAAAGATCAGCATGATTAC
1 ATCATCAGCAATCGCGAATAAGAGCACATCCACGACGTCC
1 AACCCAGGTTTCTAACAATGTCGTTACCGGATAATTAAGC
0.4610094434955589 ATTGTCCTCCTGATTAGCTTTTAAGTGTTTTTCCTACGAC
0.3025212882028805 TGCTATAAAAAAGCCACTCTTCCCGTCCTAATTATGATTA
1 TAATCAAGCTCTCGTTACTTGATTTTATAGCCCTGCACTC
1 ATATCAGTTGCTCACGTGTAATCAATGAAGATACTTACGG
1 CCATGCTAACTTGATGAAAACACCAATCGCATACTTCGTC
1 TCACAGCCCTTAACTGCGATTTGCCGGAGCCGTAACGGCC
0.1516512746704841 ATAACTGACTTTGATTACATGCGCGTAGTTATACCTAAAC
1 ATTAACTTAGATGGATAATTGGTGAGAAAAAACAATGCAC
1 GATTGATCGCTTAGTAGAAGTTGTTGATGGCAGAAGAAAC
0.2627014221939421 TGATTAACTTATTGACCATAACTCGGCCTAATTCCTAGCA
1 ATATCCGAACATGGATAACAAAATCGCCGCACAACATGCG
1 CTGGTACACTCAACGAAGGCATGTGCATCACCCTCAATTG
0.9091489679194532 ATTCCCTGACAGGGGTGATGGAATTCCTCTCTAATTACGC
1 TTCCGGTCTGACGATATGGGCAAAGTAATTGCTCTTAGAC
1 ATTTGCGTATTCATTTGCCACCGCAATTGCTTTCGTTGCA
0.8282394191495731 ATCGGACCGCGCCACGAAGAACTCACATTGCCAATTAACG
1 TCCCCGCTTGATTAATACCAGCCAGCTTCGAGATAACGAC
1 CCCGCGTACGTGTTAGCGCTTGCCTGTCAGTTTGCACGCC
1 GTTATGTTACCCCCAAGTATGTCCCACTCTCGTTATGGGA
0.2624247751591998 TCTTTCTCTCGATGAGGTGATTGCTGACCCGATTTTTTCC
1 TATTATGGCTTTCATGAATGACCTGCTTATCAACTTGTGT
0.8084302578303166 GAAGACGAGGATTCGCGTATTAATAGCCTTATGATTGCTG
