svm_type c_svc
kernel_type gkm_esttrunc
L 10
k 6
d 3
nr_class 2
total_sv 16579
rho 0.981743
label 1 -1
nr_sv 6889 9690
SV
0.8332112742684161 GACAGTCGCCTTCTTGACTCAAGCGCGGTCAGGTGAAGGT
1 GACACGCCTTCAGTATGGTCGTCTGTCCCCCGCCTCCCGA
1 CAACATACCCATCCACTCCAAACCGCCCCGCCCCACCCAC
0.9720048640741421 GTCCACTCTTTAGGGGTCACTGTGTTTCTTACGTGAATGA
1 GCCGCAAAGCACCTTGGAACCTGGCACGGTCACTACTCCC
1 CTAGAGCAGCCCCTCTTGAGTACGTACACCCCCAGTCACC
1 TAACTCCATGCAACCCGCCTTGCCCCTACAGCCATCCTCT
0.3945376690435127 GCTGTTCGCTTTCTCTGTGAGGGCATACGAAGGTTGTTAA
1 AGTCGTAATACCCGTCGTGCCCCGCCAGATGTGCGCACGG
0.3163143149915444 GACCTTGAACTGGAGTACATCGCCATAGCGAGTGCGTGCA
0.2671696364457816 AGTCCACCCGAGGGTGTAGCGCACTGACATTCCCCAAGGT
0.6325166419478694 GAGAATTCGAAGAGCATAAAATATGGTAGAGGTCAGTACC
0.1585152795980821 CACGCGAACTAACGATTTAAGGTCAACGTTGATAGCTAAC
1 GGGTGGTACCTGCATTGGCTGTTACGAACGTTAACCTTGC
1 CCTCATAAACACTCCCATTTCCGTGTTAAGCTCGCACCAC
1 GACCCCAAGGTTGCCGCTTGTCCGGCAATCCACTTGCACC
0.3539918461168651 ACGACCTCGGATCGACCTCTGTAGCGGACTGCCCGTGTCT
0.8000349419017346 GGTGTTACTCGCGCATATGACATTGTTATCAACTCTTCGC
0.2319490828623161 CATACGACCTGCTGTCCTTGCGATAAGTGCTCCTAGTTTG
0.5280803392117548 CACGCACGTGACCGCATCAACAGATCATCATTTACAAGGT
0.8291284093578372 TCACCTTCGAAGTCCGATGCACTTAGAGAGTGACCAAGGT
0.3699275840686897 ATAACCTCTACGTCGTCCGTGCTTTGAACTTACCATAATG
0.2948088028180839 GACACTTGACCTATGTCGTACTGAGGACTTGCGAGTCACA
1 CCCGGTCCCCTCCATCTCACGACCACCACACCACTCACGC
1 CGCCATTGCCTGTGATCCAACCGATTCGACTCGCGCCACC
0.9068422059862028 TGAACTACTACCGCCCTACACCGCGATTTTGACCCTCACG
1 GCGCATGTACCAAACAAAGGTGCTTATCGGTGCCTCGACA
1 CTAATGACATTCAAAAAGTCAGCACCACGCCTTGGGACAG
0.08768329867251769 TATTCAACGTTCAATAGTACTCGACCTCTACCTAGGTACC
0.3996032693229223 CCCGGTCCGTGAATGTCATTAAAAGACCCCCGTGACCTAG
1 TTCCCTACACTCATACAATTTAGCCTCCAAGGCGATGAGA
1 CCGTAATAAGGACTTTTTACAGTCACGGTCGTTATTGCTA
1 GACCTCCAGGTAACCCAACAACAACCTGAACCTCGCACAT
1 CACAGCCCTTTATGTTAGGTCTATTCCCAGCAGTCACCTT
1 GACACGCTCCCTAACGGCACGACGCCTGCGAAGGCGTCCG
1 TCGCGCTTCAGGGGCGAAACATCTGCCGACTAAGCCCACA
1 CCAAGGTCGTTGAGCTGCAGCGTTATGCCCTGCTACCCCC
1 CCTCGAGGTGCGCTCGTTCGCCCCACATTGCTGTCCACCC
1 CGCGACCTTTATAGCCTGACTGTTAACTCCGGGCGTCCTT
1 CATGCCCACGTGCGAGCCCACGACTTTCCCGACCCATCGG
1 ATTCCGCAAGAAGCGCGCTTCCTACCCGCTGTATTCCACG
0.1515811822691543 GACCTGACCTACCGCATTCCAACCACCGCAACGACGTGAT
1 GACCTTGGCCCACGCTATCGTCCGAGTCCCCCCACCTCGA
1 CGCTTCACGGTGAACCCGTGCGCGATCGCCGTATGTCCTT
0.8072316446218422 GAAACCACCTCTTCCCATCAATAGCATGCACGTTGCACCA
0.9405819680909528 GCCGCGCGAAGGTCGACCCGGCACCTACAACATCATAGGA
0.3950254461106792 GCGCACCTTAACCTGTAGAAGCCAAACTGAGGCCTCCCCC
1 AATCCCCGCTGCGAATCTAAGGGTGCTCTTATCCGCCGAA
1 ATGATGTTGGCGGAGTCCTATGCGCTGAGGAACTAGGGCA
1 CGAGTGCGGCCTGGGATCAACACGGGTCCAATTAATGCGT
1 CATCCCAGCTTAACTAGACCATGACCCTTCTTCACATTGA
1 GTATCCTTTCATCGCGCTGATGTGAAGAATGTTCCAAGTT
0.1062547281281695 GCTGTGCAAGGTTATTCATCCACTGCAATGGGGCTGACCT
0.2857305277977975 GGACACCAACATATTGACCTAGCACAACGAGCATACCAAA
1 TGCACCATCTCACCTCTGATGGCCCACCCCTTCCCTATAC
0.6062831262937639 CTATAGTACGTCGGGAGCTCTAGGTCATAATCGCTGACCT
1 CACCCACCCGCCACCTTGGCTCCCCCAAACGGCGTACCAT
1 GACCCCCCTCCTGTATGTCACGAGGCTAGTGATATGGCCA
1 AGCCAGACGCCCGTACCAGTCTCCAGGCGAACCTTGCCAC
0.3078092574303227 CGTTGCCAGCCGCCCGCCGCGTTTACCGCGACCTTCAAGG
0.05893614754802494 CACCTCTGCCAAGGACTATCAGCAAGGTGAATTCTTCTAC
0.28386611407277 GGACCATGCCGCATTACCGTGCCCCGACGCGACCTCGAAC
1 GACGGCGTTCACGCTACATCGATGGTCGGCTCTTACCTAA
0.09502302895476017 CGTCCTGTGCCGCTGTCTTGCCCTTGGTCCCACCCCCAAC
0.5558057782192831 GACCTTGATGTGATCCTCCTACCGGATACACACACACCTT
1 CCATGGCGATGTATGCCTTCCAAGCTATCGTGGCGTACCG
0.3153396654195611 GGCGCAATGTCCGTACTTTAAGGTGAACGAATGTGAAGGA
1 GACCGTCCTCGCGCTCGACGGCCTTGTCACGCCCCGACCG
0.7819188056033137 CCCACGCTCCCCAAACTACCGGTGACCACGACATGACCTA
1 ACACCCCCCTTAGACACCGGGAATATGCACGCCCTTGACT
0.5687715610248744 GAGAGGTCAAGAGATGCTATGCGTTCGATGTTTGCCCTTG
0.583715360752919 GGGCCTTAGCGATGACCTTACGCATTTTCTTGTACTAATC
0.4411655234364259 TGACCTTCCCGTGTCCTCGCGGCATGCACTTTTTGATTTA
0.8558627825338311 GCCGTAACCTCTAGCCCTTATACATGAAAGATTCAATGAA
1 GCATAAATCGTGCTTTTTATATGATGCCAACACCCACGAT
0.2322010708829677 GTGTGTGAGGTCGACGAAGGGCGCGAAACCCATGCTCACC
1 CACCCGTGCGACACGCCCTAACCGGCCTGCAACTGACCTT
1 GACCTTTATCAGGTGCACCGCGGTTCGCGCGCCCTACCCC
0.2128984296420082 ATGCTGACCTTACTTTGCTTATTGATATCGTGACCGGGGG
1 GTGCCATGGGCGACATTCTCGCAGCTCTCCTTACATAACA
0.5698920013105736 CCCCTTGAGACGACCTTACAATAGCCTCCTGTTCTGGATA
0.5896450926983715 GAATGTCGTTAACCTTGTGAAGACTGCGCTGCTATCACTA
1 GACCCGTTCTGGCCCTACACCCCTCGAACAAACACCGCAA
0.1423083432325504 TCACCTTCACCTCCCCTACGCCCGCCCGAATGCTCTAACG
1 CCCCACCCTGACTCCACCCAACCCAACAACCGTTCCCCCA
1 TGTGAGCCCACTAACCCCTTCTACTTCCGAACACTCAACA
1 CCCCAATCGGGACACTAACACTCGGTGTACCCCACTTAGG
1 GTTGGGAAGGAAGCGTGTGTCGCGCGGAGACCACTGAAAG
1 GAATCGCACTTGCTATAAAGGGCATGTTACTTTATTGCAT
0.9622227778386706 GACCTTGTGTGATACTAGTATGTACGACAGGCCATGATAG
1 GACACCATATCTATGCCACACTCCATCCTCCCAACGGACA
1 CTCCACACGCGAGCCAGGGCAAGCTGCACCTGCCCATTGT
1 ATCTTCCTGCGTCAACACAAGCCTTTTCCCCTTGCGCAGC
1 GTCCTGACATTGCTCACTAATAGGACGTGCAGCCCTGTAT
1 GCATCCCCCTCCCTTCCCCACCCCCGAATGCATACCCCGA
1 GTTGAAATTACATGCTGTGGTCGCTGCCCTATATGTATGA
0.09804876838112035 CGCCGTCCCACCCCTTCCCCACCCCTCCACCCTCCAAGCA
1 CATACGTATGTGCCCTGTCCCGGCTGCGTCCGTCCGCACG
1 CGCACAGCCAACGCGTCACGTCGGACCACCGTAATGCCCT
0.3146295024591219 GCCCTTCAAGCTAACACGGATGTGTACTGTCGTCCTACAG
0.05275889087155027 GCCCTTCCGCTGTCCTCTGGTACTGTCCTTGTGAGTTGAC
0.3160145050286897 GACTCGTGTCATGACCTTCCATTATGCCGCGAATCCGGCG
1 GATTCTGCACCTCGTGCAATAACGATCCGCAGTTTAACAC
0.127262059197842 GGACTGACCTTGCTGTAACGTTTATAGTTCCAAAATACCA
1 AGAAAGCCTATCCGACGGCATCCCCAGGTTGTCCCCTACA
0.3768195209508059 TTGGCCTTCAGATGTCCGACCTTTCATCAGAGATCGTCTT
1 CACCTGTACCCGCTACGCCAAAAACATGCCCACCGTCCTC
1 GACCGACACGCTCAAGCACTGTACCGCCTCTCGACCTTGG
0.7661567274003397 GAAACGACCGTCTTTGACCTAGGAACAATATGCCATCTGC
1 GAGTGCGCCGCCCGTGGATATGTATCCATAACCCGCGGAA
1 GTGACCTCCCGAGGAGAAGGTAGAGGTATCACTTGGGTTG
1 CTGACGTGACCACTTGTATTCATCTTACCATCCCACCCCA
0.8147608564206309 GGGTAGCGGAACCTTGAACTCGGTGACAACTTGTGTTGAG
0.2411257794274559 GACCTTATCCACGACTTTCAATCGTCCTTTAGCATGCCGT
1 GACCCCTACGATCGTCCAAGGCACATCCCCGTCTGATACA
0.2231837265002114 CGCTTGGCCTCCTTTGACCCTCACTCACGTTCTCCCCTTG
1 CCTCAAGGAGGAATGCTTCCATATTTCTCCTTCTCTAGGT
0.9216977186276527 TCGCCCCTCATAAGACCTAGCGACCTTGCGGCCCGCCCCC
1 CCCCTTCACGCCGTCCGGCGTTGCCCTCCAAAACCAATAT
1 ACGCGGCACGTTCCTCTCTCCGCCTCAGCTGACACCCACA
1 GAATCTCAAGCCTACACCCGCGGCGCGTCACCCAGACAAT
1 TCTCCTCTACCCGCAATTACATCCTTATCGGACTGCAGCT
1 TACCACTATGCTTGTCTGCTGGAACGACAAATGCCGCACC
0.5143476773365554 TCATCACCACTTGGCGCGCAGTTGCCCTTGCGAAGCCCTT
0.3019716685478804 CCATCGACGCCGTTTAATACCAAAGCGGTCCGTTGGAATC
0.3350595409699574 TCCGCGCCCTTCGTCCATCGACCCTTTCTGCCCTCTGAGG
1 CGTCACGACCAGTCCTAAATGATACGTCTCACCAACATCC
1 TGACGAGGACATAGCATCCCGTACCTTGCAGCGGTCCCGT
0.2891837391904983 GGCTGCTCGAGCGATTACCTGCCCCATGCCCTTGTACCAA
1 GAGAGCACATGCGGGTACGTGTTCATCAAACAATAAGCAG
1 GACGTGTCATTCATCTGCACTCAGCTAGCGATCGTTGCGC
1 GGCCATGTGATATCACATTACGTAACAATAGAATTGCTCA
1 AGATGATTGAACCCCATTGTGTCTGTGGAAGTAGAATGCC
0.003386589356868596 GCCCACCGTGCTTAACCTTACCATTCAGGGACGTCTCCCG
1 CCCAGCACACCACATTCACACGACCGAATTTACCCCCCCT
1 TACCGTATAGCCGCATTGTCCCGTGTTATTAGCTGTCGTT
0.05210671393498924 GACCTAGTTCGGATGTTAAGAAGGTGTTACGTGACCTTGT
1 GTTTCTCGCCTTACAACTCCATCCTCGCTACTACGTCCAC
0.9456538833960852 GAACGAAGGGCATACCCCGAATAGCCAACAATGCCCTCCG
1 GAGGGCACAGAGCTTGACCAGTATACCGTCCTTTTGCCCT
1 CATTTGCCTCTTATCCGACCTTTCTTATCATCAATTCCAT
1 GTCGTTTACGGGAGACGACGTGCATCTCCGTGGGAAGTGT
0.2053947955182239 AACGTCCTTATCATGCCAAGGTCTCCCTGGAGTGTGTTGA
1 ACCACCGGCCAGAACCACCGAAGCCACCTGCATCGGTTAC
1 GTCTGGAGTCACTACCACAAGGTGGCCGTGGGACACGCTG
0.3024530856361238 CAGTGCACTCTGACCCCTAGCCCAACGCAACGAACAAGGA
0.08393815702410064 CTAGCACTTGTCGTGCCCTTTTGACCCCCAGGCGAAGGAA
1 TCACCTCCGGTTGGCCCCTATGCGTTATTGTACGTGTCCT
0.08087342652313532 GGGATTATCTACCTTCTAGTACGACGAACCATGACCTTGG
0.5333633592854353 GTATGGCCTAAGGGTAATGAAGGTTGCACAACTACGCCAC
0.6253923054660148 ACCGACGTAGCCGCGGTTTCTATTAACCTTGTCGCACTGT
1 GACCTTCGCCGGACCCTCCTCCACGTTCAGCGGCAGGCCT
1 ATGTTTAGCTCAATCGACCTAGGTTGGTCCTTCAACCGAT
1 CCAGTAGCAACGGCTCAAATCGGACGGCTGAATGTCAAAT
0.8757661047678535 GAGGATCCCTCCGCGAAGCCCGTGTCCTTCGGCTAACCTT
1 TGACTATACCCATTGTTTTGACCGCTACTGCCCCCTTTCT
1 CTCCCCACTTGGACCACGTAGAGTAGAGTCACCTCTCACC
0.4677009537042386 CAGACGAACAGGCGAGGGACACGGACAATGTGTGCGGAGC
0.6735682608387853 TGCAACCAAGGCCACACCCTTCAGTCTCAGGGTCGCACTA
0.2136142902240214 TGGCGTGGGGACACTGACCTCTTGTACAGCGATCACGAAT
1 ACACTGTCGGCGCGTCCCTACCCCCGCCCGCCCACTGTAT
1 GCCGTGCCACAGCCATGCACCGCATGCGAGTGCCCAAGGA
1 GGCGGGCACCGTGAAAAAGAGTCAATTACACAGAATGACA
1 AACCTTAAACGCCTTTGGTGCGCGTTTGCAGGGTGACCTA
0.9410048995910851 GTTGATTGCGTTGCATCTGACCCTCTACGCGATGTCGTGA
1 GGAACACGTACGCGTGCACGTTACGCAGAACTCGACAGCA
1 CCTAACCGCGTTCCACGCTGCAAGAGAGAGGTACTAGACG
1 CACTAACCACAAGCTCGTGAACTACTTGCTAACTCAAGGG
1 ACAGCGTACGTGACGCCAGTAGCGCGTTCGCGCACAAGGT
1 TACGCTCCACGGCCCTCACGGCCTACAACGAACACGCTCC
0.6933940777337475 ACCACCTGACCGCAGAGTCACGCTTAACCCTTACCTACCG
0.5439737174451357 GACCGTGACATCCCATCGCGTCAAGTATCACCGCGTGACC
0.3891221655457721 TACCCTTCACGTGACCCACGCGTCCCTCCTGGAGTGTTCT
1 CACCTTGCGTCGAATAGCTTTCCTTACGACACGTACCTTG
1 AGTGGCCCGTCCTAATCCGTAGTACCCCTAGCTTCAAGGT
1 ACGGCTTAACTCCGTTACGTGTTTGGAAACACGGTCACCG
0.08881875225796251 GTCGCTGCATTAACCTCTAAGACTGACCCTTACCAAATTG
0.810702096335332 CCGCCACCCCCGTACGCTCGGACAAGGCAGGTCACCTACC
1 TCTAGTCATGCCCACACCCTTGCTCCCAAGCCACCAGCGT
1 GCAGAAAGACGGCTCGCAGCCCCAGAAGGTGTGATACAGG
0.5192129633693671 CTCTGTCCGCTCGGTTAACCTCTTGTCCTCCCACACGTCC
1 CACTGCGCACATTGGCATAATTGCACGCGCGCGTGAGTAT
1 GGCCTTCCCCATCCCTCCGGCTAGCCCGCCCTGTCCACGT
1 CGACTCACCGTGATCACGCGACACCACTTTCCGAATGCAA
0.6891961427179163 TCCACATGCCAGCGTGAGGTCACGCAGCCTGCGCAGTTGA
0.06905893238041394 GACGGAGGGCCCCTCTCCCCTTGAAGGTTAAACACAGTGT
1 GGCCGCCCCAAGATCTCTCCTAAAGACCACTCCGCTTACC
0.005132626381629291 GCTGACCTTTACGCAGCCACTGATCCCACCACGACAAGGA
0.1131474804596733 GCGTGACCGCCACTTCACCTTCTCTCGGCCTCATCGCCCA
1 GGCGTACCTGATCACGTTCTCCCATGCCCCACCCAAATTG
1 GTACTTTCTCTCATCGTCCAGTCAGGTGCGTCGGTCCCCC
1 GCCTCCCGATCCCAACCATCCCGATCCGCTGACCTTCGTT
1 GATAGCAAAGTCATGTGGCACATACTTGTGAGGGTTTGTC
0.6942178718896712 GACACGTGCAATCATAAAGGTTACTGCATCAGTTCATTGT
1 CCGTGAACCCTCGTTCACCTTCCCCACCACCCGCGTTCGG
1 CACCCACACTTTACTCCCTGGTTCACACATAAGCATCCCG
0.8441503167370225 CGATTGACCTCTGGGACTACAGCAGAGCCAAATTCGCGCC
1 ATCGCTCCCCTGCCGTCCATTTCACGCCAGTCCAGGGAAC
0.1259556973683432 AACCTTGTCACGTCCCACCTTCCTTCCGTCCCCCAAGCCG
0.02456322969752054 GTAGAACCTTGACTTCTGGCCCAATGACCGTGAGCCAAGC
1 TGCAGTAGTTACGCGCTGACCTGCTGGCTACATCCGATTA
1 GCGTATGACGGTGCTGACCCTTTGCCCCATCCGCATAGCG
1 GGCTACGCGAAATGCCAGTCGACCCCTCGACAGATCGCCA
1 GTGCTCGAGGTGAAGAGGGTACTTGAGTCGCTAGGTCGAA
1 CAAAGGTTGTGACAGGCGTGGAGGGTGGCATTAACAATGT
1 CGTCCTTGAAGTGCCCTAGACCCGCTCGCTGCTATTACGG
0.08241184426033504 CACCATAACTCCACCAAGGTCGCCGCAAGTACATCTAGTA
0.09528760219885117 GACATTGAGCTATGCACTCTCCGTCCTTGAGCCCACGCGT
1 CGTCCTCCGATGCAGCAACACGCGCGTCCCTCCCGCACCC
1 GACCCCCAGTATGATACAACACGGTATTCATATAACCTTG
1 CGTACGTCAGTACGTACGAGAATGAGGCGACGGATCAACG
0.1871236213076012 AACCATGCCCCCTACGCGCGACACCCAAACGCCCTTCAGT
0.4333099373562803 GACCTCTAAATCCAAGGTTCAGTTCCGTGGAGGCCACGCG
0.786378366574938 GCGACCTCGTGTGCGATATGTTGACTCCCTGAGACAAGGT
1 CAAACTAATGCCAGTGCTTTAGCCGTCATGACTAACTCAC
1 GACCTTGAGCGGGGAACACAGTATAGTGGCGAGGGCGTTA
0.9390335042432835 CGTCCCCCTCAACCTTAGCCCCTCTGTACATTGACCTAGT
1 GCAGTAATTTCCGGCAGTCATCGGACGCCCCCCCCAGGCG
1 GAGTTGGATAGGGATTGCGAAAGGTCGAGTGTGGACTAGT
1 TGGGTGCGTGGCGCAGTAAACGGCAGGTCGCGACGCGTGA
1 GATACGACCTCCAACCAACGACCCTGCGGCGATCGGGCCT
1 GACGGACCAACTCCGTGTAAACGCTAGGGAATGTGCTGAA
1 TCCTAAGTCCTTTAACTTTGTTTGCCCAAGGATTACTGCC
1 GCGACAGAGGGCACCACCCTGTTAGGTGCGCTATGGTGAC
0.1443042370332185 TAGTCTGACCTAGTTCGGCTCGAGACGCGATAACCTTGTA
1 GCCCCCTATCGCACTGTCCCGCACACACTCTAAACGCACT
1 CCTCGCGATCATCGTTATTGGTAACACGAAGTGTTAAGGT
1 GATCGACCAGCATTTTGTCCACGACATCAAGTAAAGATCA
1 CATGCAGACACGCTTGACCCATCATAACACTGAGTGTCCT
0.2121617967625286 GCCCACCTCGATGCCCTTCCGCCATATCCGGGTGATCCTT
1 GGTCAACTCTCGTGCCATAGAGTCCCTAGCAGGAATGACC
0.2009877924117557 CCTCGTCCTATAAACTCAACTGCCTCCTGGACATGACCTT
1 GTATCAGTCCGTGCCCCTCCATATGTACCGTCCACCCTCA
1 CACCCATCCTAACTTACTGCGGTGCCCGTGACACCAATAA
1 CATACCCACACCAACCTTCCCGCATCACTGAGCGGGAGGG
0.6016943265956028 AACCGCTACGCAATTCCTCATGACACTCGACCTAAGTACG
1 TACATCCCACAGTAACACCTCTCCTTACACTATCACTACG
0.2180999882159501 CCCTATGTACGACCTTAGTGACTACTGAACACGGCAGTGG
1 TAACCTCGCGCTCCCCATGACCTGTGCCACACGCTCCGTA
0.4696685942132423 GCCATGACCCCTATGGCGACTTCCTCCTTCGCTGCATGCC
0.3968081341131033 GAATGTCCTAGTCTCACACCGTCCTATGACCCATTACGTA
0.3404783539660182 GTTCCTAGGCCCCGCGCCCTTGACAGCTCGCCGTCAAGGA
1 GTAACACGGTGTTGCCACAACCTGTCATTATACCACTCTA
1 GGGCTGACCTTTTAAACGCAGGGGGCAGCTTGGCGTGCTA
1 AACCCTGCTGCCCCACGACCCGCCCACCCGGTTAACCTTA
1 TGACCTCGCCCGTCACATTGATGGCGTGTAGCAACCTCCT
1 GATTTATGACTGCTGCTGCATGTTATTACCCAACCTATGT
0.2257276493980654 GCTAAAGGTCAACCCCCTCAAAGACAGCTTCACCGGCTCC
1 GCACTGCACATCCTTCGCTAGATCCTAGCAAAGGCGAGAT
1 AACCTTCAAACTGCATCTACCAGCTGCTCCCAACGACGGT
1 GACAGCTTCGCATCCAAAGGGCGCCACCGACAACTGACCT
1 CATCGCCCTCTACCCTTAGCAGTTGCCCACCTTGTTACCC
1 TCTGTCTCCGGAACTGTCTACAATCACCTTGTGATAAAAA
0.09614521738460584 GACCCTCTCCAGCCCGTCGTGACCTGAGCATGATCAAGGT
1 GAAAATGATAGGTATACACGGGGGCCACATTAAGGTCAAA
1 CACCGATTCGTGCCATTCAGCCGGGTGAGCCATTACCCTG
1 TGTCCTTCAGCGAGCCACGCCCTTTCGTTCGCCGCGACTC
0.3201837551855232 CCGACGCGCACCGCGACTCCACGTCCCTTCGCGCCAAGGT
0.5699701128444997 CGCAATGAACCTCACGCTACTACATGCCCTCGCGTGACCT
1 GAAAAGAGACTCAATCACGTCCTGACCCTCGTGCCCTACC
0.291672905100117 CGTGACCTTTATAATCTCATTGCTGCTTGCCGATAACTTG
1 ACACGTCCCCACCAGTAACCCCGCGCCCCGTACGCCCCTT
0.3544225029554733 CCCACGACCTGCGCTACGAGACGACAACCTTGAAGCCGGA
0.1673009223709865 GACCGTGGACATGACCGATGACACCTTTGCGCCTGGTTCC
0.04793057138899465 CGCAGATAGCGCGACCTTCGCCTCGCCCGCCACGCAGCAG
1 TGACGCACACGCCGCCACCATCCAAGGAGTCCCCTTCCGA
0.3701254699105197 GTCCTCTAACCGACACGTACACGCTAGGTACGGCCAGTGT
1 TCACCTTGTCCCGCGGCTGCCACCACGTGATCGCCTTTGC
0.8367582496470034 CCAAGGACGGAACGGTCATCGGAAGTATACACGTACCCAT
1 CGCCGTAACGCGATGCAGCATGCACTCACCGTATCCTGCT
0.4410580757876102 GCATCCCGCAGGATCAGCTACTGGAAACACTTGACCTTGA
1 TGCCTTCGCCCATTAAGTTGCGTGTCCTCCGAGTCACCTC
0.4678496360684709 GTAATGACCTTTTTTAAGGTACATAGTAGCGAGCAACGGA
1 AATGACCTGCTCACGACGTACACCGCCCACCCTCCATGCC
1 TAGATGTCATCGTAGTCCGTTCTAGGCATTGATTGATCAC
0.07171689712835497 GTTGAACTGTGCGACCATGAGGTGACCGCTCGTGACCGAT
1 GCCTGCGCGCGTGTGTCTTCTCGCTGAACTACCCTCCTCT
1 GCGGATTCCCATCTGAGACGCGCCAGCCATAGCCAGCCGC
1 CACCGCTTCCCGCCTCATATCCTCAAAACACGGTCCGCAT
1 AATAGAATGATAAATCCACGGCGAAAGGCACAGTCAAGGT
1 GAACTTCTGCTCCAACTGAACGTACTCAAAGTATGGCCAG
1 CTGTGTCCCTCAGCAACCTATTTACGAACACGCTCAAGGA
0.7669429679064159 CACTTGGACGACGTGTCCCTACGTGCCCCCATTTCGCACC
1 TGACCGTCAGCGAAGGGTTATAGCGATTCCGTTTGCCAAC
1 CCAGATATACTCACTGACGACGCGTGAGGCGCGCTACCAC
1 CCACGACGACATCGCACAAATCGAACGCCTACACCCCCAC
1 CCCACCCACACACGCAACTACCAGATACCGCGCGTGCTAA
0.3567456907608831 GAGTTGACCTTAAGTCCCCTTTACAGTGTGCATTTACAAT
0.3641232341742561 GTATCGCCCTCCACGTTTCCTCCTGGCCCGACGACCTTCG
1 CACCCCGATCTCCGGAGTATCATTGCTCACCGACACGACG
1 CAATGCAGAAGAATTGTCATTGGTTAACACACAAACACCG
1 TATCGCAAACCCGGCACACTTAGGTATTGCGGGATTGGCC
1 TCGTCCCTCGACACCGCCCGATTGCGTAAACGACCAACCA
0.2045839849548972 CCGACCTTGCCACCGCAATGCGGCTGCAGCCGTCAACCTT
0.4800440398282833 GTCCCCTAGCCTTGCCACATGTGCACCCGACACTCAAGGT
1 CCTAGAGCTGGGTTGATAAGTACGCTGGTTGAGGACCGTT
1 GACCGATAGGCCAGTGGACCAGGTCACACATTCGCTCACT
1 GCTCAACAGAAATCAGAACGAGACCTTCCACTCCCACACA
1 GATCCGACACCGTGTTCATGTAGTTAAGCCACGGCCGCTG
1 GACCTGTCGTCGCAACGTACGTGGATGCCGTACCGCCCTA
0.8160290656434741 CCACCTCTAACTCTTCAATGTCGCCCCTTCCCATCGGCGG
1 GGCATTGAATGACGTTCATTTAACCTCAGAGGTATGCGTA
1 GTTACCTCCTCGTCGACGGGTAAGGCACGTTCACTCCACG
1 TGAATGTCCCTGAAAGCTACGCAGCTTGTGCAAATGTCAC
0.1741526301095663 GTGATGACTGCCTTCCGTCTCTACTGCCCTTGCCCGACCA
1 GTGGCGAGCGCGCGTCCGCATGGTCCTTGTCTGGTGTCGG
1 CACCATATTGACATGCTCGTGTGTTTTCACGTAAGATGAA
1 CCGAACCACTTGCCCACGCAGCACAACCGTACTTCCACCT
1 GACCGACCTCAGCAGTCTCGAAGTCGCAATGAGGTAAGGA
0.1471702334154124 CGCGCCCTCGACCTGCCCTCCGCCACGGCAGGAATGCCCC
0.9078027140690567 TGCTCCATACGCAATGACCGTGGACACCCTTTAGTGCCCA
0.4496430881030807 GTCGATACCGCGTACACCACATCACGTCACGCCCTTACTT
1 GTCGTTAAGAGTTGCAATAAACACTTTTTTCCCTGTAGCA
0.04399693540050883 GGCCTTGCCACGCCCTTGATCTTCCGAGCTCGCTCTAGGA
1 TGCCTCTCCCCTACCCGATTGATCGCATAGTCTTACCCAG
1 AGTAGTTGCATTAGGCTGATCTATAGGGCACATCGCAACT
1 ACATTAGGATGCACCCCCCACCCCTCCCGCCAGTGCACTC
1 TGACGCGGTACGGTACCGTGCACTCTGATCCTTCGCTCGT
0.1803167426762175 AGCGAAATGCGGTGGGGAAGGACGAACGCGACCACTGGTA
1 GAACCTAACCCCACGCCCCACCCTGCGTCCCCGACCTTGG
1 TCAGGGGCACACATGAAGATTAACCCCAGACACACACATA
1 GTCCGTACAGCCCAACATCCACGATTATCGCCCTGTCACC
0.1131949196076028 GCTGACCCATGCAGTTCACCTTCTTGCTGTCACCTTGTAT
1 GATAGCGCCTCCCACACGGCCCGACACCACCAGTCTACTC
1 CGCGCTCATCACACGCCGGCCCAAGTGACCCATCGCGTGC
1 CACCAGAGTACGCCCCGTTCTACAACTGCCGCACCAAGGG
1 GACCCGAACGTCCCTCATTACCTCGCAGGGCCGAAGCGAG
1 CCGTGCCTCCCCCAGCACAGCTAGAGCCAGGGGTCGCCCA
1 CAGCACTTTGCACGGTGGCGATCTGCATTCTCTACAACCC
0.9429396292691051 GCAACGACCTCTCGCGCCACACCCCATGTTCCCCCAAGGT
1 CCCCCGCGCCGATGTCGTGTTTGTCCGCCCAAATGACCTT
0.3734865600760703 CTGACGTAAAATGAGCAGTACCCTTTATTCGACCTTGTAA
1 CACGGACACAGAAGTTACAGCACGCTTGACAATGTACGCG
0.7402715859319329 CCACCTTACAGGTCCGCCGCGCCCCTAATGACCGCTATTC
0.456680172647329 TGCCATCGTGTCGCAAAAACACGCGGGTCGTGTCATTGCG
0.621518986499854 AGACCATGACCGCGCGAAACGTTGCGAGAACACGTTGACA
1 GGGAGAGTCGTGTTAGCTGATTCGTCACGCGTGCATTTCA
1 GACTTACTTTGGTACACGGAATGCACCCTTCCACCTGCCC
0.7076398475521259 GGTCACCTTGAACCGCGCCTCCCTTCCCACTGTGAGCTAG
0.953716703223399 GACGGAAGGTCGTTAGCGCGTCTGCGCGACATTATCACCA
1 CGCGCGTCTCCCACCGTGCGTAGCGTCTAGCCACTATTCG
1 AGTACACCACGTTGAGGCACTGGGTGGGCGAACCTCTACT
1 GCAACCCCCCCATGGTACCCCCATTGACCCCACGCCAAGT
0.8084074247685566 CACACCTGCGTCCAACTACGGTGACCTGTTCACTAGCGGA
1 TCCTTGCCATTCACAGCATCCGTAACATAGATGTCGAAAG
0.3779306375447663 GCTTCTACTCGTGACCGCCACCCCTGACCCTATGCACCTT
0.2393318841672133 CGGCCGACATATCTTAACCCTGACGCCCCTGTGCCAAGGT
0.4064731199086708 ACGCACGCCCCCCTTCACAGCGTAGACGCCCTTGCAGGTA
1 ACCTTGGTCTTTGCCTAGTTTGAAGGCGAGTCGCACCGTT
0.1454084146066726 GGCTTGTTCATATAACCTTCATTGCGATCGCAGGCGTCCT
0.3479847834405473 GTAGCCGCTGATGACCTACGTCCAATTGGATCAACTTGCG
1 GTCGCGTATCTTCGCAGCAGATACTGTGTCATTGTTCTAA
1 ACTCAAAAGTAGTTAATGTGCCACTTTGGATGACACTTGG
1 CAATGCGGACCTGGAAACAATGGCACGATAGGCCTCGACA
1 CATAACGTACGTTCAAAATTCAGCTGAAGTGTGCCTCGAC
1 TGCGGACACTATGTCTTTGTGCACCTTCGTTCCGTATACG
0.05049158756252974 CGTGTAAGTGACACCTGAAAGGTGATCCCTGCGTCACGAT
1 TGCGACCTAGCCTCACCATCCTGACCCTCAAGCTACACCA
1 GATTAACACTGATGTGACGTTAAGTGAATACATGCACAAG
0.03583643677565165 GAACCGACCTTCTCCCGCGATGCCTCTCCCCACAACACCT
1 CGTCACAGGGAGTGAAACGTCATGCCATACGGCATCCCAC
0.8857687216373794 GTACGCTACGCCAACCTTCGACCGTAACGCCAACCAAGGT
1 CCTTTCTTGCCCCTAATCTGTTCCACATTCGCTGTCCCCG
0.5247474782784654 CCCATCCTCCTCTAACCAAATGCCCCCTATTTAACCTTGC
1 CAAGATCCTCCCGGATCATGGAATCTACACCCCGCCCACA
1 CCCAGCCCGTGGAAGTCACGGCAGCATGCGTTGTTGCGCT
1 ATGTAGCCATGACAATCGCCTTACCGGACCACAAGACGTG
1 GCGAGGTCACCCTCTTAATTTGCCAAAAAATATTCTCTTC
0.8310879888218518 AAGGGTAAGAGAACCAACTGTAGGTCATATAAAACCCTGA
1 GAAATATCCGTGAAATGACCGCCTCCAGTCTATGTGCGCG
0.172775715860509 CACAGCACAATGGTCACGCACTGCTCAAGAGCACGACCTT
1 AACCACTCGCTGACCACGCCGCTAACCCAACCCACCCAGG
1 CATGCTTATTAGGCTAGTTACCCGTTCCGTTGAAAAGATT
1 CCGTCCACCCATAACCGCGTGGATGATATCGAGCTCACGG
0.5469938904114668 GCGAGCTGTGTCGCTAATAGTAACGACCTACATGTAGGGT
0.28466006187651 CGCCCTTGCCCATTTGCAGCGATATCCGCACTTGACCGCT
1 CCTTTTGCCACGCCGTCCCGAAGCGCATTAGTGACAATGG
1 ATAACCGTGCAGCCAGATCGATGCAGCGGTATCGCGTCGT
1 CCACCCACTCACGGCACTCCTTTGCAACATGCCGCCACCG
0.6317131617558992 GACTTGTCCTTACTCTGTCATTGCTAACCGTGTGCTGGGA
0.6323895067706653 ACTCAAGGACGTCTAGTGAGACACACTCGAAGATGTCACA
1 GAACTAATACTCGAGGCACCGTTGCGGTCGCTGCCCGCGC
1 GAGACAATAGGGAATGCGTCGTGTGTACGACGCAACTACA
0.5291149206241957 GTCCACCTAGGTCATGTCTACACTAGAGCCTTAATGACCT
1 GCATATGGGATGCACGATTGTTGTGCACCAACATACAGCA
1 ACCTTATACGGGCGTCAGCCGCGACCTCCCACGTGAATGT
1 AAGATTAACCTAACCGCACAACGCCCTACTACCAATTGAC
0.4168584890856362 CACGGGATGGTCGACCATGTAAGGACGGCAGGGTTAGCGG
1 GGCGCCCTCGCCATCCGAAATCCCCACCGCGCCCACACCA
1 CCCTCAGCCGCTCTCCCACAGGCTGCAACCCACCACCGTC
1 GACTAATTGCAGGGATTGAGTCAAGTGAAAGTTACTGTGA
1 AAGGTTAAACTGAATGCTGAATGTGTGACAACCGATAATG
1 GGCGGACGGACGCTAACTGACAACAGAGCGCACAATTCCA
1 CTGAGGACATTCCACAAAGTCATTTTATGACAGCTGCGAG
1 AGCAATCAACCTCTACTCTTAGTGTGACGCAGCCAGCTAA
1 GACGGCGGTGCTACACGAGCCGAGCTGCCTTGATCAAGAT
1 CGTGCTTGTAAAGCATGCTGTTTAATCACCTTGTTGCATA
0.9759721151787869 GGGTTCGAAACTACGTCACACACAACGGACGTATGGAGGT
1 AGTTAACTCGGTGACACATGCAACCATCCTACCTGGGTTG
0.7740072111216262 CCAATGACCTAGCCCGACGAAAGTCAAATTCACGGAAACA
1 GATAAAGGAGAATACACTCCTACACTATACGAAGCCTAAG
1 GCATACGAACCTCGCTCCCGGATGCACTGAACGCCAGGCA
1 TAAATGTTTTTCGAGGCAACGCACGACCCTTTGCATGATT
1 CGTCCTTGCCGCCACTCACGCGCACCTCGGTCGACCCGTA
1 CTCCGAACAACTCCACAGTCATGGACACTCCAATGACGTT
1 GAAAAGAAAGCGTGTAGCCGGGTAGAAGGCTAGCGGTACA
1 GGATCGCGAAGGAATCTACGTACGCGCCCATTTCCAAGGA
0.4276109048211414 TGACCTTTAGTGGAATCTTCCCTATGATGTCGGTCACCCT
0.3534669794080832 GACCTGTGAACTTGAGCTGACCCTGATGCTACCTCACACC
0.2282033645413706 TCTGACCTTCATGATTCCGCGGTGTACAAAGAGGCTGAGC
0.6034938536947131 GAACTTAAAGGGCAATTACGAAAGATGCAGTATGCTCAAA
1 CTCCTATGTGTCTGATCGACCGCAGTGCACCCTTTCAGCG
0.187822647243568 GCCATCAAGCACGCCTAGCACATCATTGAGGTCGTGGGGT
1 ACCAGTTGCGGGAATCGTGGTTCCCCGTTCCTGGACGCAG
0.9221281938028703 GAACCATTGTACACGAAAGTCAAAACAACGATCTGACCGC
1 GGACGACCTCTACTGTAATTGGCACTCTTAGCCCAAATAA
0.6824430175275402 CAATAATGACCTTATAATATATGATCCACTATATGCGTTC
0.8784035879593358 TGCGCCGACCCCTGAGGTCAATTCGCCCAACACGCGCGTG
1 CACGGCGTGCACCGTGTACTCCCGTATGGTGCCACACGAC
1 GACAACAAAGTGAGCTCAGCGTCCTCTGGAGAATGACAAC
1 TGTCACCAGCACAAGCCGACTCCGCGACTCCCTCGACAGC
1 CGACCTTGGTAGCCCAATGTTACTGACTCAAGACGTCAAC
0.2943156532372433 CATTTGACCCTGAACCGGGTAAACCCTTGCCATTGTAATA
0.3955236245191249 ACCCCACCTCATTGCTGACCCCGGACAAGGTTAAACTAGC
0.051697834501102 CCTCGTCCTTTTGATCAAGGTTGACACTGCCTGTGGTAAC
1 GCGTGCACGTGACTCCAGACACACCTTAACTGCGCAGCAG
0.1060923045119721 CATAGGGACCTATCTACCAAGGGCAACCTTAAGCTCTTGC
1 GGCCAACCACTACCTTAAGATGGGCTTTTCCCTAGCAACA
1 GCCAACACGGGTGAGAACGTATCGTTTATAGCTAGCTCAA
1 CAGAGGACTGTATGACACCAGCTGACTCCATGAACATGGT
1 GGCCTGAGGACGAACTCGTACTACAATATGAGCCGTAGAG
1 TGACCACCTCCCCGACCAGGATAACCATCACTCAGCGGCA
1 CACGTGGGGCCGCAACCACCGCATACCGCTAAGCCCGAAA
0.7036300406343292 AATGACTTTGGAGTCACCTCTGACTCATCTATATGGTTCT
1 CTGGAGTGATGCTCTCCAGAGGACTACATATGTCCTGACC
0.2866842939572213 GCGATCCCCTGCCTACCACTACCTTACCCTTGAACGACCT
1 GGTAGCGGTGAGTATATTCAGTGCGTGACACCAGTTATTC
1 GACACTTGCGTACGTACGTACATGCTCTACCAGTCCGCGT
0.3377257221886252 TCCACAACCTCCCTTAACCTTGGTGAGTCCTATTGATGTA
1 TACCGCCCCCGTCCCGATATCCTAGTAACCGCCCCACCCC
1 CATGCGCGGTGTTGGACTAAACATAATGAGGTCAGATGGT
1 CCGCATGGTTAATGCAGCTGCCTCACACGAGTGACGGTGC
0.5371134054999784 CAAGGTCATGAACCCTGGAGTAAGAAGCCCACACGGTCAC
0.8222685621115043 GTACCTCCGAACAGTCCTCACCTCCCCGCTGAGGCAAGGG
1 GCCTCCAACTCCACGTGCCTGAAAGAGTGTACTAGTATCA
1 GACCTATTGACTGATGCAGGGCGCCGAGCACAAACAAGGA
1 TGCGCTAAGCGGACGTCTCCCATGACACTCTCCCTCGCGG
0.2793496071683528 CATGTTGCCCTACGCGGTATAGCCTTGACCGATTTGTCCT
1 CGATCTCAAAACATCGCTAGTGTGTGTTCAAGCTGATCGT
1 GCTGCATGGACTTCTTGGGCATTGGCTAGATGGTGACCAC
0.6205748695407592 CGCAGTTCCAATGGCAACTTCATCTGTAGGTAAAGGTCAC
0.05473052043202403 GCACGTTACCTTCACGGACGTGCGACCGCAACCACCCTTG
1 CCGCCGCTAGAACACTAATTGTTGCCAGATGAGATGTGAG
1 GACCCGTCGCCGTTATGTACTCGCGCGACTCGACGCGCGA
1 GACAACTGCCCACAAGCTGCTGTTGTCGCAGCAACCTTCA
1 GCCCCCCGTCGAATGATTTCTGTGTCATCGACCCCTCACC
0.4042629119449583 TCCGTAACCTTCAATTGTCTCACCTATTGTACCTGCGGTC
1 CGGACCGTACCCCCGCGCGCTAAGCCGTCCCCCAGGCCTG
1 TTACCTCTACCGTATGTCGTGGCCTTGGTGCACCTTCTAT
0.3345591616316543 GACGTTGGCCTTCTGTCAAGGTTGCCCGACGCCGATGCCA
0.4382229207830859 GAACAGAGGACATACCTCCACGCGTACTGCCTAGATAGGA
0.9128087389527062 CAATTTCCCTAATGAAGGCCAATAAGATGGCGTTGACCCA
1 GGTAGTCGTGACTACGTTCTCCCCCCTGCGTCATTGTGTC
1 CAACCACAGCACGCCGCGTTGGGACGACCCTGCTCCCTAT
0.4548340526778764 GAAGGTCAACACGACCCGTTCTGACCCGTGCTCGCCCTAG
1 CCCCCCTGTTCCCTGCTGCGTCGCACTTGGGAGCGTAAGG
1 GCGCCTATTGGCCCCCACCACTTCCGACCCTCCATCTGCC
0.3809937773979147 CTCAAGGACGCCCAGAGGACGACGTCTGAACTTTACTCCG
1 GACGTCCCGTTACGTCAACTCAGGCCCGCCCTCTGCATAA
0.5165894038779496 GAGTGTCAATGGCAACGCACCACTGTCTCCTTCTCTGGGG
1 GACTCCCACACTCCTACGGCCCCCCTTGCCCAAAGTACCA
1 CCAACCCCACCCTGCGATGACGCGTTCCCCATCACATCCC
1 CGCAAGGGGCACCCACACCTCCGCCCACCTGCCAGTGCAC
1 CTATCGGTGCTGGGCCTAGTCGCTCTTCGTCACCATCACT
1 AATGTTCTTTCGCCACTTGACACGCGTCCCCGTTACGCAC
1 TGACTCTGGGTTAGACAAGCCCCACGTTCAGTTGTCCTAA
0.16815558134262 ATGTCCCGCTACGCTACCTTACCCTTGCCGTAAAGGTAGT
1 GAACACTCGTTGATACCCTGGAGCAAGCCTTACCCAAGGA
1 AACCTGACCCGTAGCTCGCCCTTCCTCTTGTTCCCGACCC
1 CATACGCACCAGGGCGTCACATCGCTCCCCCCAGGCCGTA
0.8324104376603707 GGTGTTAAGGTGCCTTACGAGCCGTCCCCTCACCCAAGGA
0.9100023459002262 GGCTTTCGAACTTTTGCCAAGCTCTGTTTCAAGGACGAAG
1 CACCTGTCCCGTGCGATGACTCTTAGATGCTACCTAACCC
1 TCGTCCCGCCCCCCCCTGCCCCACTCACCCCTATCACCGC
1 TTGACCCCTGGCCGAATCGGCCCATGACCGCACGCAAGGG
0.6249444514379758 TTGACCCACCAGCCCTTCGCCCTTGCGCTGATCGTACACT
0.3889828834642599 GGGGTGATATGTGTCCTCAAGGTAAGGCCGCTTCGGCGAC
1 TGACCTTGCGCGTCAGTACCCAATAAGCGTACCAACATCA
1 AGCGCAAAGCAGATCGTGCGCGTAAGACCTCTGTTCGCGG
0.3221636681889932 GACCACCCTAGCTCGCAATGTCATCTACATACTTCAAAGA
0.5669732932905247 CCATGACCCCGCCGACCTTCGACGCATCAAGCGATCCTAG
0.3038387525105406 CACGGTCACCTTCACGTTCTCCTCGTCCGGACCACTCCCA
1 GCTTGTTCCCCTTTCGCCATGTGCGCAACTCTTCTCCTTT
1 CGGAATGAAAGGCACCTACTGAACGCCTTAACCATTGTGT
1 GTGCAATAATTCACTTTCGCATGAACGCGAAATGACCCAA
1 GACTTGGTCTCCCTAACACCAGCATTGCATATCAAGGTCA
0.0073565521581364 TATCCCCTAACCCATTCGATGTATGACCTCTGAGCAATGT
1 GTGGCAAGGGCCAATTATGTGCCGCACGGACGGCGTGCGC
1 CACCTGTCACGTTCGGTACGTGGACGTATTCCAGCACTCC
0.2142790992766502 GTCCCATAGCACCTTGGAGGACCTGGCGGTACGTCAAGGG
1 GGATGTAAGGCCAACCGATGGACGGGTTAGGTAGCCATTG
1 TGGACCGCAAGGCAGGGTTCAAGGATGTGGCGATACAGCT
1 AGCTGCAAGAGCACCTACGGGGCCCCACAGCCCCAGCCCG
1 GGCAAACATCCCTACGCACTACCGGGACACCAAAGTCACA
1 GCCACATACAATGTCAGATACCTGATGACAGCCTTGAATG
0.5189806703530044 GACTCACTGTACCAATGACACGACCAACCCCAACGTCCTT
1 GTGGATCTTGCCACCGATGGCCAAGGAGCGTGGCAACCAG
1 GACCGCCCCGCAGCCCGCTGCACTACCTTCAGTGGCCCTT
0.1881603374429441 CGCGAAGGTCATTCCTGAAAACCTGAACCTAATCCTGCCG
1 CTCCCCGCGTGAAACCAGGTGTGCTCCTTTCACATATTAG
1 ACCGAGAAATGCCACCACCCCTCCCCGCCACCTGACCACC
1 AACAACTGGGACAGGATCCCCACCGCAGCCTTCTACTATG
0.2189452027852121 GACGTTGCCCTCCTCGACCTTCCTATCTCAGCACACCGCC
0.9179582359319071 CATCGTTGCCATTGGCGCGGCAACACAAGAAGGTCTTTGT
1 GAGGTACGATCTAAGCTGAGGGATGCGTATGACGACAGAA
0.6967286114337509 CCCGTCGATAAATAACGCCCCCATCCTCAAGGGCATGATG
1 GATCCGTCCGTTGAAGAGAGCAGAGCAAAACACCTATAAA
1 GACCAGTTCCGCGCCAACCTCGCGCTCCGTCCAGTGGTAA
1 GCCATGCCATCAACGCCCTGCGCTACAACGTAACCTCCGA
1 ACGCCAATACAGCCCCAAGAGCATAATATCTCACAGACCT
1 TGAACCAGACCCTAACGCACCGCTACGTGTACAACCGCGC
1 GAGGGGGGCGCGTAACCTTAGCTATGGTACATTCATCCAT
1 CACCCCCAGGTTACCCGTTCCCTACTCGGGCGTCATGTGC
1 CACATGACCCTACGTTCCACAACCCCAGGAAAGGTATCCC
0.9957553298533426 CCAAGGACGCTGTGCCCTCACTACTACGCACCATACTGCG
0.1040743886382594 GACCTTCTCTCATGGTGTACGTATCCTTGTACTGACCAAC
1 GAACTCCGGACGGTTATCGCCCAGTGACCTCCATCACGGA
0.2380576074962439 GACCTTGGAGTTGACGTCGCATAAGTCGTGACGAACGAAA
1 GTGATACTTCCTTAGGCATAGTGTAGTACACTTCACTTGA
1 TGAATAGCGTTGACCACCTCACGTGTGGCCACAAGATGTT
1 GACCCCCAACACACATTCATCTTCCCTGCTCAGTAACAAC
1 GACCTCTAGGTGTGAAAGTGCAGTCTGCCGCCCAACAAAC
1 GCCCTTGAAAGACCAACGGCCACGCCTCACACGGTGTGAT
1 CCTACTTTGCCAAGTACGTCCCATGTCCCACACTATCTGG
1 GTCGCGTGATCTCAACCTTCACAGGACTAGACCCAATACA
0.9338903952041474 CATGACACGACGTCCTCTACCCGAGGATCCAAACATTCTA
0.2263353201292432 TCGCGCGCGACCTACCGCCCTTCCTAACACACCCAGCCTG
0.05087117821797774 ATTTGCCCTTCCCACTGACCCACTTATCATGATGACTCCG
0.7088292751863992 GACCTTCACGTTCGTGCGCGTTCTAGAATGCCCCTTAATC
1 GACCTTGCGTTGTCGCTGAATTCGAACAGCGTCAGTAGGA
1 CAAACCGTCAGTCTGCCCTACCAATCACCCGTTCATCCTA
0.1326494059526359 CGACCTTGCGTGCAAAGACATACAGCCACTTTGTCTTTGC
0.1118391436549565 CACCCTACTGTGACATGACCTCCAGACCGGCAGCTTCGCG
0.2124141503985104 GAGGGACCGCCACCCGCAAAGGTCACCGAATAAGAAAGGT
0.7333528845478605 GCTCTAACCCTGGCCACACCAAGGACGGCTTAATCTGTTA
1 GTACCCGCCAAAGTCCCGATACAGTCCCCCACCTAGCCTA
0.2582265344905195 GTGAGGCAACATCCCCGCCCCCCAAAACGCACCAAGGTCA
1 TCACCTCTAAGCGTCCTCACTAACGCCACCCTCACAATGC
1 GTGCAAGATGCACAAAACAAATTCTGACCCACACGGTATG
0.9789552597218967 GACCTTGGCCCGTTACCGCACCCAGCGTACGGAATGACCG
1 ACAACTCTTTCCCCTGCTTGGCAAAGGATCATATAAACGC
1 CGAATGGGAGCCTTTACCTCCCGCCGCGACGCCCCTAAAC
0.08162450100468141 TGACATAGACCTGCACGAGCGACATAGTGTCACCTTGAAA
0.5436838430277461 GACCCTCAAACGAAGGACACTTGCCACCGCTTGTTGCGTA
1 CGCCCTTCAGCCACTAATATATTCACACAGAACGCACGCC
0.6131908640045727 GTCCTTGCATGTAGGACACTCCCTGACTACGTCTTAACTG
0.2034438688475009 GACCTTGGTCCGACCCGACGTATGACTCGACATTTCCATT
1 GACCTCCAATAGATGTCCTACAACGCAACGGTATCGTACC
1 CCGCGACCTATCACCTACACGGCACTAATGGTTTCCACTA
0.8704865153931146 GGCCCAACCTCGCTCCCCAATGTCGTTCCCTGCATCGCTG
1 CATCGAGCCGCCGGACGACCTTCCTGATTCCAGGGGTCGC
0.3057439010749403 CACGCATGCGAGTAAGTCCTATTGTGACCTCTTTCCCCCT
1 GCCACACACTAAGTCATTGGTCGTTCTGTAGCATGACCTT
0.5348295582508933 TCTTGCCTCAATGCCCCCCAACGAATAGAGGACGCGTGCC
0.2695625478969258 CATGCCATTTCCCGCTCTAATGACCTCTTCCTTCCCCTCA
0.2663575195388527 GCCTGTCAATTCACGACCTTCGACGATACACTCCCTCTTC
0.8646054493946788 AATTGTGTCCCCGTTGACCCTGTTCAGGGCGCGAAATCTA
1 ATCGTGTTACTCCTAACACTCCGCCCTCTCCCTGACCTTG
1 GACAGTTTTGCGGGCATGTAGGCTCTCACCACCTTGATAC
0.2628707388346299 GAATTCAAAGGTCAGTCTTTGTCCATTACCAGCGAAGAAC
0.7900868584174376 GAGTCGACCTCCACTTCACACCTACACGAGCGACGACCAT
1 TCACCACGCGTCAACTCGTCAACAACCTCCGCGCCAAGGT
0.3596760694315846 GACCGATCGAGTCTAGATCCGAGTTATCAAGGGCATTGCT
0.7505526387579694 CGATGCCCCATTTCCCGAAGGTCGTTTATGCAGCCCGCTA
1 GAAGGTCGCCACACTATGTAGGCAAGTACGGCCCAACTCG
0.8454906478056763 GGCCCTGACCTCCTAATGGGACTAGGGCAAAGACGTTACG
0.834204617840851 TGTGCTAGGACGCTGTCAAGGCCGGATGATGGTACATACA
1 GCCCTTCAACACGTCGGTCTCCTTCCCACGCGCCACCCCA
0.7320021962858299 GTACCGGCCCTAATGCCCTTGCTCGCCCAGTTATAACGGG
0.06778402269725271 CCCAAACTCAACCTGAACCCTTCCGAAGTGACCTTCCCCA
1 CACATAAAGGACGCATATTGTTCTTCCAACTACATGCTTA
1 GAACGACCTACCCAACGTCCTACGGCTCCCGCGGCCGGTC
0.1597908401930157 TGCCACCTCCCGACCTTTCCTATCCTTCGCACACCTTGAC
1 GACGATAAGATGTGCCGAGCCAGCGTGTGCGTCACATTAC
1 TGCGTTACGCCCACGGAACCCCAACCCTTCCTCGTATAGG
0.639430055911953 GATGCGTCCTCACTCGTCATTGCATAACTTTTGACCCCAT
1 GACTGACTCTTATGCCCTCTACAGACTGTAAAGCCTAAAC
1 GATCGGGCACCGACCCTGAAATTCGACAGCTCTGACGAAC
0.03628744246952492 GTTGAAAGTGAGTAAATGTCATGCCCTTCTCAGCGCGGCT
1 CCTATCTGTTCTCCAACATTATACGATCCTAGTTGAAGGT
1 GTCCGTCCACCCTGACCGTTGCCGAACAGCCTCTCCTTGA
1 CGACTACATGGAGCACGGGGAAGGCATAAGCTGAAGGTCA
0.7792407128358961 ATACTAAGGTGTCATTGGTGCAATAATTGTAGAAGGTTAT
1 CCCCGCCACCACCTGTATCTCATGCAGCGACACTCCGCAG
1 TACCTTCAGACCGACTAGGGCAACGATACCGGTGGTAGGT
1 CCTTAAATCGACAAGAAATGATAACGCGTCTGACCCGAGA
1 GCATGATGTACCCTTTCTTATCGCCTCTGGCCCCCGCGAT
1 GACGCCCTACCCCAGGGCAAGTGCCCCACGAACCTGAATG
1 CCGTGAAAAGATGATACGGCGATGAGTAAGTCCGGTTGGT
0.3913432572996001 GAGGTACGCGTCAACCCTGAACAGTCAGGGTCATCAAGCC
1 ACATCGCCGACACTACTTAACATCCCCAACACCGACCATT
1 TGCCCTTTGCTGTTTACACCCCTTCAAGTCCCAAGTACAT
1 GACAGCTGTACGCCCCCATCATTCACACGCCCTTTGGCCG
1 GGTGCAACTCATAGTTCCTCAATGTCAGGTCTTTGCTTGC
1 GACATGATGGCGATGCTGCGTCACGACTGGATCTTCACAC
1 GATATTGTGTCCCGCTGACCCCTCTACCTATCCTCGCGGC
0.4410226603144623 GCCTAGCGTATTGGAGGTCAACTAATGCCTGCGTGGGTGA
0.23606811003741 GTATTTAACCTCTGCGAGCCACTTTGACCTAATGGGATTT
0.4836347324330545 GTGTCGCGCGAACGCGACATTGTGGGGAACAATGGGTGGC
1 CCGGTCTGTTATCAACGAGTCTAGCTACTTTGCTCCTTGT
1 GCGACCTTGGACCGACGAACTATTGCTAAAAGCACCTTGC
1 GACACGTACCTGGGCTCACCTTACGCTCTAGACGTGCCCT
1 GAGTTCGCCAACTTCATCCCAACCACTTCACCCCGACTCG
1 GCACTTTTTGACGAATAACGGCGCATTTTTGCGGATGGTC
1 GACCTGCTCACCCACCGTTAATGCGTGCCGTAATTGACCT
1 GAACAGTGCCATACAGATATGAAGAAACGAACCCCGCTCA
0.1780662944246902 TGACCTTGAATTAGAAGACGTTAGGACGCGCAAGACTCCG
0.2639565710092979 CGCCCTTGAAACAGCATTGTTCTAACGCATGACTTACGGT
1 CCCATTACCACGCCGACCCCCGGTCATCGCACATCGCGCC
1 GAGCCCACGGTTCCCGGCGCGCACGTGGATGTTCTCCTCG
1 GCCGTCCCCCCGCGCCCTGTACACACATGGTAGCCTTTCG
0.2891928856997795 CACGCCGCAACTGCGCTGACCTCTAGTGGGAAAGCTTCCC
0.2040047969364145 GACCTTGATTGACTTTCTCTTCTCCTCTCTTTGGCCATAC
0.4902223165464428 CACCACCGCAGCGTATACAGGATACGACCTTTCACGACCT
0.4367891398961674 GAGCTTAACCCTGCCCTCGCCGGGACGATTCTGTCAAGGT
1 CCGTATTACCGCCACCACTTGAACCAACTCGTGTTCCTGT
1 CAAGTCAACCACGAACACGCGAAGACTAACGACGCTAGCA
1 GAATGTACGCATACTGCCTCCCTACCACGCGTTAACCTTC
0.9813727371491119 ACGTCTTCCGCGCCCTTGTTCTGAATGCCGCCTTAGCGGA
0.8311303933497454 GGCGCTAAGCGACGAATGGCTTACAGCGCCAGAGGTCAGA
1 TCCGACGCGCATTGCATGCTCGAAAACAACGCACGTCTTT
1 GCTAACGCAAAACCAGCCTAGCCTTCCTGTATTGCAGTAA
1 GTGCCACTTCCTAACCCTCATTCACACTTCTGCACGACCT
1 GATCCCAAGGGTAAACCACGCATGAGCACCACCACTCTGG
0.3006555810456866 CAACGCGCTGCCGTCCTTCATTACGCTCTGTCCCCTTGAT
0.6021573489879345 TCGATAAATGTGACTTTATTCTCAAGGGTATCCAGTTAGA
1 GCCCTCGATTCCCCGAATGAGAGCGCGTCCCCCATGACGA
0.960966781417731 AGTGCCCCCACCCCACCATACCCTCCCCGTGATGTGCTTC
1 ACCAGACAATCTCACCCCTCCCTCCCTACCCACGTGCACC
1 GAAACTCGTACACACCAATGCCATGGCAATTGCGGAGATG
0.3637795775439011 GTCATTGTACCGCGGTCAAGGACTTTCGCTTAGTCGAACA
1 GACACGTCCTACATACCCAGGAACGCACGCCGCGCTGCCT
0.3435735295905754 CCCTAAAAGTTATGTCCCCCCTTGACGTCAGTGTCACCAA
1 CTCTACACCACCCTGCCCTGATTGACTGCAATCACCGGAT
1 GCGCAACCTCCACCAGCGCGCAATCACCCTCCCACCCTGA
1 CACAGTTACCTTGCCTACGGAGCCGTTAACGCTCTCGTCC
1 GCCCTACCAAATGACTTACGAACATGCTGGACTTCAACCT
0.1714829683604299 AGCTACCCGTAACACTTGTGAGGTCAAATGTATGACATCC
1 AGCGGGCGCATGTCAGATGACCCCACAGGTCGGCGGGAGT
0.801218543194208 CGCGCGTCCGCGAGACCGACCCCCAATTACCCTTGAACAA
0.08456718378937282 CAGCGCCCTTGACACCGTTTTTGATATTCATTCGCCCGGT
0.5910046349224088 GACCTCCGATTCCCCTACCGCGCCCCCTCGCCCTCTACGT
0.5618799799888562 ACAAGGTCAACCAAGTATGGTTCGTCCCACAACCCTTGTA
0.7895508002025022 CACCTAGGCTGGTGTAGACGTACCCGCGCCCTTCAAAACT
0.4938152646162789 TCGACCTTCCACAACATGATCACAGCCAATATGTCAAGGA
1 AGTCGCGTTTCCCCACATTCTAGTGCACGACGATCACCAC
0.421752880566419 CCAAGGACGGTCATTACCATTGGTCTTGACCCTATATGGA
1 GACCTTCCCTCCCCCAAGCCTCCGACATACGACGAGGTTG
1 GACATGACGTTGATATTGGCCGATGCAAACCGTTAAACCC
1 AAGAAGCGGAACGAAACGCGAGGCGACCCTAACAACGTAT
0.9915012384563386 GGACCGCACAATGCCAGCCGCGCGACCTCACGATGAAGGT
0.04364616156297753 GCCCCTCCCGTTACCTCAACCGACCGTGACTGACCTTAAC
1 GCAACGACCCGACACGATCAGGGAGGTACCGATTCAAGGA
0.7384419831515183 GCCTAACTAACATACATGACAACACGTCCTCCGCCAAGGT
1 ACAGTGTCCACCGTTCGCGACCACACGCTACGCGCCGCAC
0.8675913920803673 CACAATGCCCTCTGACAGACCTCCCCATCCAACCTCCGCT
1 CCGACCCGCCGCGCAGTTGACGCTCTGTACGCCTCAAGGA
1 CACTCCCCCTACCTCTGGACTCCCCCACCACTCCGCGCCG
0.1369527992975849 CGCCCTGATCAACACCAATGTCATAGCTTGCAAGGATGCG
1 ACCCGCAGGTAATTACCCGCCGTGAACTCATGTTTGACCT
0.4704342541520368 CCATCAACGCCCCTCAAACGCCCTTAGCCTACAGGGTGCA
1 TTGTCCGTTTCGCCCTTGTAGACCTGGGAGTACTACTGGA
0.4251134548133901 CAGCCCTCGCGCGTCCTAGTCCTACCCTTAAACTCAAGGG
1 GGCGACCTCGCGAGTACGCGTGAGACAGAACGAGGGAACG
1 GCTAATCCGAGGGTCATGCACCCATCGTCCGACGTGTGAC
1 GAGCACATTCGTTACTCATTCCACCTCTCCGTGTCGAGGT
1 CCGGCTTTTCAGCGCTCACTCTGTTGTCCGACTCCACCGG
0.4358541486518486 GCTTGACAGCGCCTAAGGTCACCGCCCGACATATACAGGT
1 GGACACAGAACGCACCCATGGTATCGGCACGGATGGCTGC
1 CCCCCACACCCTCGCAGGTCAAGACGCCCGCTTGCCCTGC
1 GCCGCATCCGCTAATGTACGTCTCTAAACGCTATTACCAC
1 GTCGTCGCTTCACACGCCACGTCCCCGCCCTTTTCAAGGT
1 AGACCGCACCACACGAACACTTGCTGAAGCGAACGCTTGC
1 TAGACACCCGCTCTCGACAACAAGGTTATCACAAATCACC
1 CCCACGTGTCCTCTCCCTATTTCCTTTTTTGTGCTGAGTC
1 GACATGAGCCAGACACACGATCCCGGTATAGTCCCGTAGT
0.03719466472699866 GAAGGGCGCGCCACTTTTCCGCAACCTTGCCACGGATCGT
1 GTCGATGACCCCTAGTTCACCGTGGTTCATGTTAATGCTT
0.03820401710926725 AACCTCCGATGACCCCTGCCGTCCCTGCACCCACCAACGA
1 GAACCATCAGACCCGCCGAACCCGACGTGTGCCCGTCCTT
0.3786444950557963 TGCAACACGAACTCAACGCTGCCCTTGAGGCACTCAATGT
0.8717646625906236 CCTCTAGCCGCTATCCCGATTTTGTTAGAGGTCGTCCATG
1 ATAGGTGCACACGATTCCCCCTTCTACCGGGCGGACAATG
1 GTTAGTCGAACCACGGTAATGCCTTGCCCCGCGGCTGGCT
1 CCCACTCGTGTAGACCGACGGTGTCCTAGGCCGCCCTTCA
0.5352897117138253 TGACCTTGCGCTGTCCTGCCAATCTACCGCTCGAACGTTG
1 GACCCCCTCAAGGCTGATTCACAACACACCCGCACTTCAC
1 CAAAATGACCGCTACATTACAGCAGCGTCCGCACTGACCT
1 GCATATGGAGGGCCTCATTCCGCACCGTCGCGTATGCCAA
1 GTAAGCGTTGTTGAATACAGCTCTTGCCTCGACGCGTAGC
1 GTCATGCGGCATCCGGACCACTAATGCCACGCACCATGCA
0.6772674543463248 TGACCTTGTTCCTCCGAACGCCATCTGTCCACGCTACCCG
1 CTACTGACGACCACAGAAATGACCAAGTACAAGTCATCAC
0.207938036693316 CGCTAGCTTGACCTCCGTTACTCTTGAAGAAGGCACGACC
0.516204882900814 GACCACTCAAGATCGTCCATACAACCTTTTTTGTCCTTCC
1 GTCGTAGCGGACACCGTAGCTAAGTATAGCCGCTGCAGCA
1 GACCTTGCCACCGCTTACTCGCCTCCCCCCCTGACCCCTA
1 CACACTTTGCTCTCCGTCCTGTGTCCACGACCGGTTCCGC
1 GACCCCTAAAACCTTATGAGATCACTCTCGTCCACGTTAT
1 GGACTCAAACATTTGCGCGTCATCTGCTAGCACGGATGGA
1 CGCGTTCCCGCCATGGCCCAGCCGCGCTCCAGAGGTCAAC
0.3641426722552175 GCCGTTCACCAATATGACCTACGGCGAAGGAGCTTTACTG
0.7098594969847948 TCCCACGAGAGACGAAAAGCATTTAGCGGTCACGAAAGGT
0.3957826882217351 CAAATTAGAGGACATACTATGTATGTCCTTATACCGCAAA
1 GCCCCAATCCGCTCCGTCGCAACTTTCAGATGCGTTAACC
0.1509926728742677 CCCCTCATAGTGTTACAAGGTTATCGCCATCCATCAATGA
1 GGCTAGAGCACTGGGATACACTCCCACCCACCCTTATCCC
1 GAAAGGCAATCACTAGTTGTGATTATGAGCAAGGGCAGTA
1 CATTCTCAAACAACCTCATACCGCAATACATTGACCTTTA
0.5559863958494453 CACGTGTCACGCTTGACCCTCGCGTCAGGTACAAACTAAC
1 GCATACCCTCGTCGCCCAACTGGGGTCCCCACCCTCTCCC
1 GCAGTTGGCCATGTGATATGCTGCTACAGACACCCATAAA
1 GATTTACTGACTAGGACCCCCGTTCCTGTCTGACCCCTAT
1 CGACAACGCTACCACTCATCGACCCTCCAAGTGAGCCGCA
1 GATATCGGCAGGAGCGCACTCCCCCGACCTTCCAAAAGGG
1 GAGATCGCGATTCCCCACGAATTTACGCCTCCCAACATCA
1 ATCTACGCTGCTTACTAAAGTGTTAGCATAACCTCGACTT
1 CCTCCCTTTCCCCAGATACTTTCGCGCGACTTGCCCACCA
1 AACTGCAACCCCATGCCTATCGCCCTTTTTATGCCCATAC
1 GATAAAGAATGTAACTGGTCTACCAAGTTAATTTATAACC
0.3612205227663891 GCTATGTCCTTTCCTGAAAGTCATCTTCATAGCAGTAGCA
1 TCGCGATAACGCTCACCTCCCGCTCCTACGCGCGGTCGTG
0.8867384967882612 GACCTTCCGTGCCCTCGAGCCCTGAGGGCTTATCAAGTCC
1 GAGAAATCTTTGAATCGTGAGCCATGAGTTGGAGCAAGGT
1 TCCATCCCCCTTCCTCTCCCCGTAACACTCACGTCCATGA
0.301049343428648 GCCGAAGGTCGTTCCTGTCTTCCGCTGTTTGCCTTTCCCA
1 CTATAACACACTGTCGTCCGCACTTCACGTCTCAAGCCAC
1 CCCCCCGGTGACCCCGAACTCCGACGCACACTGTCCGCCG
1 GACCAGCCAGGTTTACAGGTCAGACACGGCGATAAGTGAC
1 GAAAAACCAACTTATTAGCGCGTTAACCTTTCGCCAAGAT
0.8703545498982375 GAATGCGCTGTGCGGCTAACCGTGTTACCCTTCACCGCAA
0.7739086597658901 GACCTTACTCGTGTTTTGCACTGCGTATCAATGCCCTCTA
0.9883292859519395 GATGTATGTCCTACTGTCTAAGGGCGACCTGCTCGAACAC
1 ACTCACTACTGCTGCTGGTTACGCCGTAACAGGCCAACCG
1 CCCTCCCGTCGGCGACCTCAGCTATGGCCCCGCTCCCGGT
0.957994864276325 CAAATGCCCTAGGTGAACATGAGTACCAATGACAGCCACC
0.02448146905251189 CGCTAAGACCACTGTGACCCCGAAGAAGGTCGAGTTCCAC
1 GGGCATAGTTACACACATCCCCGAGATACGTGAATTCAGC
1 CAGACGCCTGCCACCATACGACGGTCTTCCGATCGTGCAA
1 CGGGGTCAACCGCAATGGTTGACACGCGGTTATGAGTCGT
0.6549888274948362 ACTGTCCTTGCGTAGGCTCCCTCCCACCATCTCCCCCCAT
0.1814971561285358 GCCCTTGCGGGAAGGGCGTCCAAGGTACTGCAAGTCGGCA
1 GCCTGGCACTCCGTATTACTTAAAGCTGACGACGACGAAA
1 GTGCCGAACCAACCGTATAAAGGGGCGATTCCACTACAGG
0.08162306145454315 CGTGTACCAATGCCGATGGTCACGTACAACCAATGACCTT
1 GACCAACTCCCTCATTCACGTAGACATCTTGCCGCTCACG
0.587585451869949 TGACCTCCGACTGCCCCTGACCTACAACCCATGGACCTTA
0.5031798225748442 CACGTTTGTCCTCAGGATGCCCTACGCGATCATCCACGGC
1 CACATGACCCCCAAACTGCCGGCCCGCCCCTAAGGGTACA
1 GAGGTGAGGTGAGGCTGTACAGCACGAAGAAAGGTCCTAC
1 TGCTTGCGTGAATGATATCTATTACACGTAGCTCCTTTGT
1 TTCTCAATCTCGAAAAAGTCCCATGAGCGTTCGTTAAACT
1 GAACAAAACGAGCCCCGATAACCTCTACCTGTAACGTGCT
1 GAGTGATCGGCCTGCCAGGCGTGGGCGCTACCGCGTGGCT
0.04496425265931642 GGCGCGACCTTCAGTACATGCGCTAACGTGCTAACGCCGC
1 CCGAGCATTATTGCATCACTCTGCGACTTTTCCTCCACCT
1 CACAACACCGTGATGTTCTTGGAACGCCAATTGCCCTTGT
1 GTTAACGCGAATTGACCCGACGCACTGATCGGTAGCTGTG
0.607693516799515 CAACCGTAGCCGACCTTGAGCCCTAAGAACCACGGAGTGT
0.7844894243587308 TGACATTCAGTTTGTCCCTCAGTCGTGTTCGATAGTCCGT
0.0375815650161876 GACCTTGACCATGGCGCTCTGGGACGACGATAGTGATATG
1 CGCGTGCGTTAGTGTGACTTTGACCCGGGAACCGTGACCT
0.2063762688177641 GGCATATCCCCCCAACCTACACTCACCTCCCACCCAAGGG
0.5099824355582997 CACGGTTGCCGATCGTCCTTGCCACATAGACCCACGAGGA
1 TACCCTTCGCCCACCTCCCCTACGTGGATATCGCCTTTGT
1 ATCCCCCCCCGTTCCTGCGCGACAGACCTTGGACTCGGAA
0.5228206748812532 CCGCCTCAATGATATTATTTCGCCCTCTGGCGCGCAAGGC
1 CAGCGCGTTTGCCGTAGGTGACTGAGACAATGTGTAGATG
1 CGTCTATCTGCCCTATTGCGCCCTCCCCCTGCCAGACGTA
1 GCGTCTACAGCGACCGCGCGATAACCGACAACCTTGTAGC
1 GACCTTGCCTGTTCATTACCAGAGGTATGACTCATCTGCC
0.04851769155300199 GACCTTGAAGTGCCGTATTACACGGGGTCAGCATCCGCAG
1 CTTATGCTAACTTTCATGCCTTTATATCATAGCGTACCAC
1 AAAAAGGCACACCTTTCCACTGAACCACAGGAAACAACGG
1 GGAGGTCGAAACTGCGTCTTTCCCCACCCCCAGTACCTGG
0.7652398690171546 TAGTCATATCCCATCCCCCCCCCGCCCTACAATTCAAGGT
1 CACGATGCGTCGCGTTGTACCTGTGACCCGGACGAGAGGT
1 GGACCACAGTGCCAAACCCGCTCTTATCACCGGTCAAGGT
1 GCGTGTTATGGTGGTATCAGGGTTTCGATCCATTTGAGGA
0.7700823496408952 GGAATAACCTGTTTATCATTGACACTGTGAACACTGACCG
1 GACCTCTACACCCACCTCCACGTCACCCCCAGGCACCATT
1 CATCTGACGTATCAACCATTCTTACGAAAGCCACATGCGA
0.7210290682087406 AGTTTCACCTTCGGTTACAGCGCGCAACCTTAGGAGTGGA
1 GACCTGAACTATCGAGTAGTAGGTTATCAGTGACCCTACG
1 ACTCACCCTTGTACGATGCCCTCCTAACGCCCCCCTGCTA
1 GTCTACTCCAGGCCTCCGGCCATGACGAAATGAGCACTGC
1 GCGCCTATACCACCTTTCAAGAGGCCCCTTGAGACAAGGT
1 CCTGCCACACTCCACTGATTGCCCTATAAGCAAGTGGCCT
1 ATCACCCGGTCGTGAGGGTCAGAAGAAAAGTGAGGCAACG
1 CACGTGACCATTATTTGACTTTAACCGCCGCTAGCCGGTT
1 GCGCAAATAGCGTGCATCTTGCGTCCACGGGTCACACCAA
1 ACCCCGACCCGTCTCGCTACATATCCCGCGATACCCCCTC
0.02669725506207029 GCCCGTACGGTCCAGCACGCCATGACCTTAACAGCGCCCT
0.2168461721905031 GTATAACCTTGCCGAGACTGCCATGTAACACCGATAAAGG
0.369914037238435 CAAAATGTTACGAACACAGACAGAATTCGACATTCAAGGT
0.6938138419237252 ATGACCGTGAGGTAACCTACAAGCGAAGTCATACCCTGTC
0.4241274470649021 CAAGGCGAGTAACGATATTCGCATCTTCAAGGTGCAAGGT
1 GCAAGCTAGATTTACCAAAACTTTGAACTTGTCACAAGGT
1 CGCGCTAGTCAGACCCCCTGACAGTCACTACGACTTATGA
1 TCCCATCGACCGTTACCCATGGCCTGAGTTTGACCGGACA
1 TGACCTACACGACATGTAGTGCACGCTTCGTTATGAGAGT
1 GCCGGCGATACGTTCCGCTACAAGTGAGTGGCGACAAGGT
1 GAGGCTGCGTCATCCCTACAAGCAAGCAGCGGATCAGTGT
1 CCTGGCGTCCCCTACTCCCTCCCCTTGTACCGTTCTCCCA
0.7357481792482631 ACGAGCGTGGATTATGGTTCGGTGACCCCTGCAGCAAGGA
1 ACAGCCCCGCTTGCTTTTACAAGCCATACTACCTCCCTAC
1 CCACGCCCCCAACACCCCCACCCCCCCCTACTGGGGCCAC
0.3779260741403169 GACCTTGCGACAACCTTTCTGTGCATAAATCGGAAGGTCT
1 CCACATCCGACCACAGTACGCCTATGAGGACTTTGACCCG
0.6351326283813087 TCCTCAAGGAGAGCACCTTCCTGACTCACCTTTTGCTGAC
1 CAAATTGCAAACTCTTTCCAGCGTCACGTCATCACGTCCT
1 GACCTTGTAACTCACATTCGACTGCTCCTGGATTCAGCCT
0.2522623961543166 TGATCCCGAAACGAATGTCACTACACCCTTCCCACATCCA
1 GCCACGCCCGCTGTTGTGCGACACCATTGTGAGAGTGACC
1 TAATCGACTTTCGCGCGTGACGCCTACCTGAGATCAAGGT
1 GCCCGATACGATGGCCTCTAGTTTGTGCCGGAGCCAAGGA
1 TCCTGCCGCTGGTACCGAGGCAACATATGGGCGCTACTGA
0.3619193771395036 GACTGACCTTTTTGACATCGATCCCCGCCAAAGTGTACCA
1 GTCACACTAGTGCGAAAATACGACCTGAGCCTGCCGCGTA
1 ATACCTTACTGCCTGGGCTTACCACCGCTTAAACCAACAC
1 TATCACTCTGGCGATGGTCTTGAACTACGTGCATCTTAGA
0.2928421279068876 CACGCAAGGTGATGTGCCTGTTTAACCTCTTTACTGGTCA
0.09129494363684923 GGTGAAATGTCCAAGGGCGCTACGCCTTCGCGCGAAAGGA
0.3977173037590567 GACCCTTTAACCTTCCCTCTGTCCGCGATTCCTGTAACTG
0.4936526056982767 GCCAAGGTCGCACACGGAAACAGATCTTGTGGTGTAACCA
1 TCCACTAGCACCCAGCGAACCTCACCACCTCCTGGCGTAG
0.8816390579083166 GACCTTAGCACAGATGCTTTTGACCGACGAACATCGATCC
1 CTCTCCTCTGCCTGACTGCTGAGAATGCAACACGAACACT
1 GACAGGTAGTCTTAAGACATTTAGGGAACCCTGGGACCAC
0.3183732938368936 TGCCAATGACACTCTCAACGTGTGCTATTGTGCCTGAATC
0.4418101724808899 GAATACCCTTCACCCAATGACGTTGCAACCGAAACGGGTC
1 GACAACCACTGACGGCGCGCCCGAGACGATAGGAAGTCGA
0.3327062498952198 GAGCGTGCTCCCACTGTAACCTTGGCAGTAGTACCTCCGA
0.03574771921059754 TGCGCGACCCCTCGGTAACCTTTACCTACTACGGATGCAG
1 CAGCTTGACGAACCCATCGCGACACTCACACATTCCGCAG
1 TAGGGCCAAAGCCACAAGGGACCACACTGACCCTTCCGTA
1 CAAACAGAACGCTGTGACCCCGTGGTTGCACCCACTATCT
1 CGCTGTAGCACACGAATTCTACTCGCCCTTCATCCACCTT
0.7360289791468095 CGCAGTAAGGGCGAATGGCCAATCACCTTTCTATACTCCT
1 GAGCAAGGTGACAGCCCAGTCAGCCTCTGACATGCGAGGT
0.6728811651684899 ACTAACCTCGCCACTCCCTTGGCACGTCCCTTCCCTTTTC
0.8907408737407954 AATGCACGACCTCAACCGTGTTCTTGCTACCTCACCTGTT
1 TATATCTATACCGTGTCGTTAGGTACCTCGCACTATCTCA
1 CCCAACAGCAGGCCCTCCGTAGATTGAGCACTTTGAAGGT
1 GCCAACACGACTATTTCATTGCACTGCGTTCTCCCCTCAG
1 GACCTTCGGTGTTGAATTTACCATAATGTGGCGTAATCCA
1 TGCCTAGTGCGTTGGCGCACCCTTATATTGCTCTCCCCCC
1 CAACAACCACCTTTATACCCATGCCTTTTAGCGTTTCGCT
0.6144706599754136 GGTCAACGCGAACTCCCTAACTGTATAACCTTTGATCCAA
1 GTCACTAGGGCCCCCCACGGTTGACTCGTACTCGTACGAC
1 CACCTTACTCCCCCCTAACCCACGACCCGTCGACCATGAA
0.4961993958400175 GACATCTCACCTTGTCGCGACTCTTCGAGACCGATGAGCT
1 GAATTACCCGTGGATCCTGGCCAAGCTTAGAATGCCCACC
1 GTCGACCAGATACGCCCCCCATTGCCCTTATTTCCCCTCA
1 GGGCAAACTGAACCACAATCCAATAACCTTAGCATTATCC
0.3807768506083576 GGCAGAACGATATGAAACGACGCGTGTCCCGCATGACCTC
0.573471032916309 GAAATGGGCAAGGACGGTTTGAGGACCGATCAGATCAACC
1 GACCTTGGATCTTTAGCCAATGATAACTGACGTATACGGA
1 GACCAGCCCTTGTCCCACGCGCTGCTTGACGTAGTTAGGC
1 GGGTCATCCTACCAGCACTATCCTGCACGTCGCGGCGTGA
0.6740660784819997 GACCTACCCCTTCCCAGGGTCACTCTCACTTCCCAACCTG
0.6450917321522647 TGTATCCTTCAGCCTGCACTCGCGAAGGACAGCGCGACCC
1 TGTTAACATCCCCTACAACAGCATTGCGGAGGACGTAGAA
0.2532307993893214 GAAATCCGCTCACTCCCTACTTTGTCCTCAACCTGACCTT
0.4026385485419033 GACCAGGTACAGTCCAAGGGCGAGGCCCGCGAACAAAGTA
0.1158840103886205 TCGCCCTTCACGTACCCGCGTACCACCGTCCGCCCTCAGG
1 CAGAATAGCGCTACGGTTATAACCACCTTCACCGTAAAGG
1 GCCCAAATTAATCTCCGAGCGCCGCCCCATCCGAAGGTTA
1 ACACCCGCAGGACACACTGCCCACACATGCAAGGTTGTGA
1 ATGTCCTACCCCATCTGGTGAGCCTGCTCCATCCATCGTC
1 GCCCACCAGCCGCTTATAACAGACCAATATACGACCACAC
1 GACTGCCCTTCGTGAATTCGGCCAAGATCCTGTACGACCT
0.1178563217848195 ACCCCACTCCGGTTCATTACTCGTGACCTCCAATGAAGGC
0.312122594745613 TGCCATGCCCTTCCCTAACCTACAATACAATCTGCAAAAT
1 TGACCTTCCTCTCACTTCCGTTACGGTGTTATGTGACGGG
1 GGCCATTATGACCAGTCACCCCGATGGTTGGGCGAACGGC
0.2905041300128064 CACGCGCACCATCCTCCACTCACCCGACCTCGAACCCACG
1 CTGCTGCCTCCCACCATCTCCCTGGCCCAGGGGCAACTGC
1 GGTGAGTCTGGCGCCCCTATTCACCTTCGTATCATGTCCT
0.2985028558626444 AACCTTAAGGCGAGTACGGCTCTTGGACTCGATGACCTTC
1 TGACGGTACCGGCTGACCCCGCCACACCCCGAGAATCCAC
1 CAGAAGGTTCGGCCAGTAACCTCTATCCGACCTCCCCGCC
0.8106051334352444 GACCTTGGAACGGCCTTGCGACAGACCGCGAGTAAAGACT
1 ACCCCGACCCGTCTCGCTACATATCCCGCGATACCCCCTC
1 CCGCGCCTGGCGCGATCAACGAATCCCTGTCCCGACGCAC
0.1052632131278931 GACGTGTGTCCTTCAGCTTTTCCGACTGTCCTCGCACTGA
1 GGGGCCAATCTACAGTCCCTCCCCACCAGGTGTGACATTA
0.8814071166013545 GCACACATGTGTAAAACACAAGGACACCCCGCGCGTCGAA
0.3488726850958702 AACCGAAGGACGCGTCACCCGATAACCCCTATCGCAAAGA
0.4331412499899917 TGACCTCTAAAGGCAGGCATCGACTTTGCGATTGTGCAAC
0.2796146871567561 GCCGTGACCCAGACCTGCCCTTGGTCACACGAATCCCGAG
0.5471109140793642 TGACCTCACACGCTGCCAATGGTAGGACCCTGCCCAAGGT
0.5440341186056302 AGTGCAAACTGACTGCAGAATCTGCCCTTCAATATGACCT
0.8851879384149022 TCTTGACCTACAACAAGAACGCATATAATTGTAGTCGGTA
1 CCAAGGAGTTCAAAAGCTGAACGACATTGGGGAGATGCCC
0.3944289470358957 CCTCGACCTTCATTCTGAACTTAATTTCGGAATCGTCGGG
0.9675747525627479 GACCTGACATACCTAAATGAAGAGTCCTCTATGACCGACA
1 ATGGCCGTTACCACGCATATGCCGTCGTAAGTCGCAAAGT
0.1412908305411638 CGACCTCGAGTTATCCTCCCACCTCGTGCCACACGCCCTT
1 GAGGTGACCGACCGCGCGAACGCACTTGAGAACCCCAACT
1 GTTGCTTTAAGTGTCCTTAGGCTACCATATGTACCCTACC
1 GACATGACCTCCTGCAAATCACTGCAGCCTCGTGTCTTCC
1 GTGACATTGCTAGGGCGTGCTGCTCGTAACGGCATCACTA
1 TGACATCTGACGCAGTGGAGGAAACGCATATTAACCTTGT
0.7276889049591946 GACTCCAAAGCACACAACCTTCCTCATTGGCACGCGACCT
0.9532540599136334 ACGGCTCCCTATGAACGGTGATCACCTTAACTGTCCTTCG
0.5649808801886906 GACTTCACCTCTGCGTGACCGCTCGGCTACCCAGGCGTAC
1 ATCACCATGATGAAACGGCCGGCCGCCGATGGGTAGCTCC
1 GCTACGCGTCCTTCGTGGTCCTGCTTCCAACCGCCGCCCG
1 CTGGCAGGTTAGAAAGCGCGAATCCCTGGGATTTACCTGT
0.6061590053213625 GTCAACTTTCGCATACAAGAGCACCTTGGACGGACAAGGT
1 TGACCTGCAAGTTGAGGCGCGTAACCTGCTGTCCCAGTTG
1 CCTGACTACCGTATCGTTAAAAGCGCCCTTGCCTAGAGTG
1 ACCCGGGGCGTAATTACTCGCGTGTCAAGGGAGGGTATGC
0.5470279348124252 GTAGGGCGCGCGCTACAATGTGACCCCAATTCGACCGTAA
0.2634339281679083 GAACTTGTTCCCCTTGCCATGTATTACGCACATAACCTTC
0.1358816415159257 TGCCATGTCCTTACAAATAAGGACAAGTCAAACTGAAGTT
1 CATCTCCGCGAGGCGTAACAATAATCGTCTCCCCCACCGT
1 CCTGTGTACCCACATGCTTCTGATGCGATTAATGCCGTCA
1 CAGGTGCGTGCCACTGCCCCTTGCCATAAACAAGCCACGG
1 GAACCATGACCTCGTCCGTCTTCGCCAGGGGTTTCGCCCT
1 ACGAGGCCGTGATACCGTTTACATAGCTGCTTGTGTAGTA
0.08014402766233772 TGACCTTCTGCGTTCAGGAACGCGGCGACCTTTCCAGGGT
1 GTAACCTACACCATTTTCTATCCCCTCGGGTGCCGAAGGT
1 CCTCCCGTCGCCCCCCGATGCCCGCTGCGCATATTTCGCA
0.240665791802385 GTGAAACATTATCGTAACCTTGATCTGTCCAGACTTGCGT
0.4895052013525694 GACACGCAAACCACCTAGCTTGCCCGTACCCTTTTGACCT
1 TAAGACCTTCCAAACTAGAACAGAGCTACTACACGCGTAA
0.07563955918340151 GAGTGTTAGTCAAGGACGGGTCGTTTGGGTGACATGACTG
1 CACCGTAAAAATCCTTACTACGACAGATGGAGCTGAAGGG
1 CAAGGTCACCAACATGAAGCGTCCATTTAGCACCTACCTG
1 GCCCTCGCGTGTAATGCTAGGGCGCGTGCCCATGGTTAGT
0.3207486968988153 GCAATGACCCTCACCTACGCGGTCATCGCGCAGACAATAA
0.5248795125143267 TACACAACGGTGCTAACCTTCAACGCGTTCCACTGTAGGT
1 CACACACCGATGCGCTGAACTGCCCTGACGCGTAGCTGAC
1 CACCCACTTATTTAGGAAGAGCAAGCTTTTGGGCATAGAT
0.1746577663935766 CCATCGTAAGGACATACGAGGTCCTTATGTAACGCACCAC
0.6434131993577077 GGCTTCACCTACGACCACGTTCAACTTGCCCCAAATCCAC
0.07182184775847533 GCCACTGGCCGTCCTGCACCCATGACCTCCCTGCGAAGAA
1 ACCCCGCTATCCCTTTGGTGTCGGAATGCTTATTTCAGCG
1 CGCCACAAGATACGATATTCGGGACATGGGACTTAGGGGA
1 CACGATAATCTTTGCACGGAGGTGGCATATACGACGAGGT
1 TCCAGCGAAGCCCCAAACACTCGTGGCTGTCGCGGCATGA
0.1828450104832133 GGATGGTATCGCGGACAGTGAACAGTCAGTATGCCCTTGT
1 TGCTGTAACCTGGATGCTATCAGAAGGTATTCATGCGTAA
1 GCAAGAACCTACAAAAAACGCACGCTCGGACACGAAAAGG
1 CGCACCCTCCAGGCAAGTCCAACTCCACAACCGCGATGCA
1 GTCCCCATCGAAGCACAGGGGTACTGAACAGTCTGTGTCC
1 TACTGAACTTGAATATGCTGCGCGCAGAGGTTATCACCCA
0.3600505050312502 GAAGCGGCAGATGCACAAGGGCGAGGATGATATTGACCAA
0.9678291652250134 GCGTCAAGTACGTGCTTGATTTGTCCTCTAAGCCCATTAA
0.5934620307105166 ACGAAGGGACAGAAGGGAATTCCCAATGTCGCATCAAGGA
1 GATCTATCTCACCCTGACCCCGAGCGCGGAATGTGACCAC
1 AGTGTTGGGAGTGTGCCTGTTGTGAGATGATAGGCTAACC
0.5478556363018126 GTCACTCGACCCCCGAAGGTCGAACCCCAACCTCTTGCGT
0.1564362833238193 TGACCTTGCATAACTTTCACCAAACCTACCTGCTCCGCCT
1 ACGACGCTTCGGAACGTGTTGGGTGTTCTGAGCGGAGGAA
0.3579342033562912 GACCTCCATTTGTCCCTGGCGTCACATCTTATCGTCTTAT
0.9288884811993214 TGACCACCTCCGACCTTTGTTTGCACCCTACGATCGCACC
1 ACGTACGCACTGCTCCCTTTCAGAGCCACGCTTTCATCCT
1 GACTCCTCCCCTGTTCATACTTTCATAGCGCCAATGTCCC
1 CCACACCCTTGACGGAAGCGTCCGGCGCATCCGTCAAGGT
0.7936725508064293 GTTAGCCCTAGCTTTAGTTGTGATTACCTTGCGATGACCT
1 CCAAGGTCGAAGTCAAAGCCTACAGTGCGACCTCTTCCTG
0.02875642267529227 GATCCGTCCTATGCCGAGATCGGAACAATGACATACGCCG
0.3351068331127488 GACGTCACCTTTGTTGACCTGATTACAGCACGCGGTGGGG
0.1742949448286812 TTAACCGTAGAAAACCCTTCACACATTCGCGTGACCTCTA
1 TGACCTTCCGCCCGTGCGCTGTTAAACCAAGTAATCATCC
1 GACCTTCGACTTGGGGAAGCGGAGCTGTGGAAGTATAAGG
1 GTCTTAAGCATGGACCTCCGATCCAACCCGAATAACCTTG
0.6176210819055853 ACCACGATATGTACTGCGATCTTTTTACAAGGACATATCA
0.5365038667942744 GTTATTGACGAGCCCCAAGGACTAGGCGCCATTGCAAGGT
0.1917967336380317 TACACGTCCCCTGCCGCCCTGCCCCTGCTGAGATCAAGGA
0.6455794590837735 GAAGTTCATGACCTAGTGCAGCAACGCCTACCCCCTGGAT
1 GACCCCGTACCCACCACCCTCCACCACACACGTGCCCACC
0.8242824995933619 CAAAGACGCGATCTTCCCCGGTCACTTAGAGGGCGTTGGA
0.6093721174755397 AGAGAGGTATGACCGACAACTAACCTCTATTACGAGTGCA
0.4518434331826776 TCTGAAAGTTACCACAAGGTTACAAGTTACATCACTGACA
1 AGTCCGTATCATTGCGCCGATCGAATCGCATAAATGCGTT
1 GACTAACCAGCCGCCCCACCCCCCCCCAACCCCGACACGC
0.884851032055685 TTGCTCCTGTCGACCTTCAATAGCTACGCTTCTCCCCACT
1 CACAGGCCAGCGCCTTAAGGGCGTAATCTAAGGACCTTCA
1 CCACCTCGCATCTACGCCATCGCCAAGCTGCCTACATGGT
1 GGCTTCACCCTCTCAACCTTTCCGCGCCCGAACACAGTGG
0.007739976191726323 TCCGTTGTCCTTACTTCGCCCCCTATGACCCCGTTGCCTT
1 ACGCAGCGCTGCCTTGAAACCCCGTTCACGGAGAGCCAGC
0.6885517865263184 GACCTCCATCTGTCCGCACTGCAACATGACCACGACCGGT
0.7826549673381695 GCCGCCAAGCCCTTCCGCCGACCTGCCCTTTGACAGCGGT
1 AAGAAAGACGAGGATGACACGATAACCTTTTAGTCAATGA
0.2918155224819537 CGCAATCACCCCGCATGTGTGCATAATGCCCTTCGCGCAT
0.3261052380585963 GTCCTTCGCGTGAGACATACGGTAACCTTAGTGGCCATGT
0.1853042323067969 CATGAGCTTATCAATGTTAAACCAACCATCCACAAGGTCA
1 GCTACTACCACCGCCTCCAGTATCACTGTCCCTGCCCACA
0.518965461559238 GTCGCCTCATCCTGCTTTGTCCTTGCGCTCCCGTTCCCAA
1 GCCCCGCCAAGGTTGATACCCCAACATGCCCTCGCCGTCG
1 GGAACCGTTGCGATTTTACATAGTCAAAGGGTTCGGGCGA
0.3909871935585791 GCCTCACGCGCCAAATTTCGCGTTATACCCTTGACCTCCC
1 TCCTCACGCCCCGCCCTCCACTCCCGTCCAACAACCCGCG
1 TAGCACAAGCGCGATGTGAGTGATGATAGACCGACCCGCT
1 TGACCTCAACGCAATCACGATTATCCCTCCACGACCATGA
1 GAGCACCGTTCCACGCAGAACGCACAAGACACGCAGAGGA
1 CAAGGTTACATGACGGACGTCTGGTGTTCCTCGCCACGGG
1 CACGTGTCCCTCGGCATCACGTGTGTCCCTCAACTGATGA
1 TATTTGACACAGTCGACCGCCTGTGTCGACGGTGAAGTTG
1 GACAGCCAGATGCTTGACGCATCGCGTACAACATTGGGTG
1 GAGGTTTTTAGGTGATGTTCGTCACGTCGTGACAGGTGAA
1 TCACCTGCGCTAATCAAGCATGCTTCGTGGCTATTCAACT
1 TTAGTGTTCTCCAGTTACGGTCCGTCCCGACCACTCTGCC
0.7108904760364013 CCCCGGTCAATACCACCCCTCACGGTCGGTATAACCTTTA
1 GCGCCACCTCCGTCCCGACACTTGCCACTACTCACCTCGC
0.731886086957635 GAAACGAATAATTAAACAAGGTTACACGCATGAATCAACA
0.4193084892238149 GACAGGCGGTGTCCTACAGCACGGACATTGCAGTGCGCGG
1 ACCGTTACTATTCTGTCCTTTTCAATATCCTTTCGCCATT
0.06714237318112502 CATCCCGAAGGTTGATCCACCTTCATGCAGGGCGATACCT
1 GCGTACCTCCAACCAGTGCAGATGCGTCGCTGCGAAACAT
1 CCAGCAGTACTCAAGCCACAAGCACATGTATCGATAGTTA
1 CAATGTTTTTGTTAGAGGTTCACGACGGTGGCAGGGAAGT
0.9163204175800637 TGCCCTTCCCCTGCAAGTTAAACAGACCTACCCATGACAC
1 ACAAGCATCCACCGTCACATTACATGTCGCGTACCGCCGC
0.02393623423986121 GATCAATGTCAGCCCTTGATGACAAGCTAACATTGCGACC
0.1823263731765898 CACTAATCACACGTTGTCTAACCTTCCTAGAGGGTCGCGT
1 CAGCTACCCCACCACGCCCTATTTGCCCCTCGAGCTGTAC
1 CCTGCCCTCTCGCAGTAGACTTGAAAGATGTTAACCCCCT
1 TCAAAACGTTGCCCAATCAAGAGGGTATGTTACATGGTCA
1 AACTAAGTGTGGATACGCAACAATGCTGCTCGCTAACTTA
1 GAATATGAACGAGACATTCGTCGAGAAGTTACGGAATGAT
1 GCGAGTGTACCCCGCCCTCCCACACCCTCCATGACCGTCA
1 CCTACCTAGCCGACCGCCCAATCAGCGCATGACCCCCTCA
1 GCCAGACAGCATCCAATACGAACGCGTCCGACCTGTCCCC
1 GCCATACGCGCGTTGTACTACTAGACCGATGCACCTAACC
0.9246934878469757 ACTTTGAGCACCTACGACCCAATCTACTTGCAATGACCTA
1 GACCTAGGCCACCCTGCGTTCCGACTCTGTCCCTCTACTC
1 GATGTGCATGTGCCTGGCAACTAGAGCACCTCGTCACCCC
1 CGGGGCGTGGTACATATAGCATTATGACGAACTTCGACCA
1 GAACGAAAGATCGTGTTGGAGAGGCATCCAACCGCGCCAC
1 CATACGCGGTGTCTATAACCTCTCCCTCGCACTTGCACAC
0.3798740357298886 GGTGCGCCCTTCGTCGCGTAAGCCCATGGCGTATGACCTT
1 GACCGCAGTTCTCCCTTCTGCCCTACAACGATTCCATTCC
0.8949790400504746 AGCGTGCCCTTTGTATGCCCTCTCCGCGCGCTTCTCCCCA
1 CTATGGCGCTGACCCCTTCATGCCACCGTACCTTTTGCCG
1 AACTTATCTGCTTACTGCGCGTGGTCAATTCACTTTTCGT
1 CCCTCGCCCCCCGCCCCTCCCCCATACCCCGAAGCGCCTG
0.8660350828323001 GTGCCCTCAATATGCTATTACCTAGCCAACGTGTCAAGGT
0.8536665117839101 GCCACCTACATGGTTACGCGGTCGCAATGGACCACCTTGA
1 ATTGTCACCATACTCGCTATAGACACGAGTGACGTCATTA
0.5469436869336363 GTTGAGCAGGCTTGACCCCTGCCGATACCTGTGCGCATCG
1 CACCGCACGAGTTCGCCTGTATCCCTAATCCCACCCGCGC
0.3292474698782743 TGCCCCTTCTGCCTGTGAAGGTCGCATAGCACAGTCCAAC
1 AACGACCCATCTTCTCCCCCCATGCAACTTCCCACACAAA
1 GACTACCGCACTTGTTAAAGGTAGGATTAGTCCTGACCTC
1 GCGCGTCACCCCACGTGAACTTGTACGGACACAGGAGGAT
0.9224819898134918 GTCTTGTCATCGTACCTCACCTTCCGATTTATTTCACCTT
0.8866482408029537 CCAGGCGTCCGCGGTCACCTTCACAGCCCAAGCCCGTGAC
1 CACGCGAAACACGCCAACCTAGCCTTACCAATGCGCGAAA
0.24757933102856 GATCAACCTTCAGCGCTCACACTCGTGTACCCCTAAAGGA
0.01011355515752724 GAACCCACCCTCTGATGCTACGACCCTAACCTTGCGTCCC
1 TAGTCCGAATGCAACTATTTCGTCCTCCGAGTGACGATCT
1 AGTCTTCCTTCAGGTAGTTGGTGTAAATCACATGAGTAGA
1 CGGCGACACTGGGGCCTTAGTAGGGCTCAACCGCGAAGGT
1 GCCTGATTCATACCGTCCGGATGTCAGGCATCGTTGCGGT
0.1933339365716656 GCCGATCCGGATTTCGAAAGGTCAACGCTATCAAGACACG
1 CATACATCACCCTCAGCCCCACCGATCCCTCTACACAATC
0.7800283946075056 GACCTACCCGCGTCCTTGCGGGCGAGTTGTTGAACGAACA
1 GGCACCCTTGCTATTGATTTCCGATGTTTCGTAAACTAGA
1 CGAATAACACGGCCACTCGCAACAGTACTCTACTGACACT
1 ATCGCCGAACATGTCTGAGTTACCGACAAACCTACTGGGC
1 CACAACCGTCGTGTTGACTTTGCTGTGCCATGCCGACCTC
0.7312531262020094 ACCCTTGGCTGACCCTGTAAATCACCGAATCAAAGACAAC
1 CAGTGACCTCAGATAAACCTTACTTGGCATATACATCAAA
0.6537515018710325 GACCTTAGTCTCAATGTCAGCACGCTCTCACTCTTCTTCC
1 GGTGCGAGCATGCCGTCATACCTCCGCGACCCTGTCCGCA
0.4662610021486064 GTCAGCGTGACGTGATGACGGTCAATGAATATCGTGAAAA
1 CGCCTGGGGGTCGTGTTGAATAGAAGGGCATTTTCAGGGT
0.3307329841646041 GACCCGCGCACTAGGTCATTCCTTTCCACACCAACTCTAG
0.178546290235527 ACCGCGATGGGCATGTCCTTCCGCAACCCTTAATCACCTC
1 CACACGAGCGGTACCCTTCACAAGCCCTACTGGAATGCAT
0.7384709318489667 TACTACAGTAAAAGTAGGCTCGATGACTTTGACATGACCC
0.2949537742956583 ACCTCTTTAACCCTCCTACCTTTACCCTTGACAGTAGTAC
1 CAAATGGTAGCGTCTATCTAAGGACGGATCCGCGGAAGGG
1 CCGTCACGACGGATGCACGGATACTACAATATCGCTCCAG
0.5828846946557865 GAATAGGTCACGGATCCCACACCACGGTGAGCGTCCCCGT
1 TCCCCGTACTGTCCACCCCCGAGACCACCCTCCGCAAGGT
0.2888588656179321 CCGTGACCCGTGCCCTGTGCAACGTCCTCTGCATCGTCCG
0.1470755935424265 AGGGAAGGTGGCATACGGTTGACCCTATGACCGCTGTCAA
1 GACCTTGATGCCGGGAGAAGCCCAAGTACGAACATTCCCC
1 ACACACCCCCACCCTGGCCCCAAATCACTGGTGACCCCCA
1 TGAAGTGATTCACCTCCTCCCCGATATCACGTTGTACGTC
1 AGCGGTGACAACCTTCCAATTACCAACTTTCCCTTGATTC
1 CCTCATCGCGTCCTCCCACCTCCAGCAGATCCCACGAGCA
0.5515298459781162 CGCCAAGGACAACCGTGCATGCACCCGACCATCCCATGCA
0.8244068365053416 GCCTAAACCAACGTCCACGCCAACCCTTCTTGTGACCTCT
1 CGACCCGTCACCCACCCTTGCCCCCTGCCGCCTAACATCT
1 CTGCCTTCCTCCTCCGCCTTCTGCCGGTACCTAATGACCG
1 GCGGCCCCGTCGCATATTAACCGACCCACGACCTACTTCA
1 CATGCCGATCTTCCCACTACGACATCCTTGGCGACCACAA
1 GAAGGTCACCACCCCCGCTTAGGCACGCAGGATCATGATA
1 CTCTTTGTCCTCGTATGCCAGGTCGGGTGTGCTGTCCCTT
1 CTAACAATGCGAACTATAGTCACGACCGCACCATGCATGG
1 CCTACAGGATTGCCTGTACCATCCGCCCATTTCACGCCTG
1 GCACCACAGTTTAGGACCGTGCTCCATGAACAGCCAAGGT
0.4050460203480694 GACCTTGACTCCCATCCCTCGTGCTAGCCAATGATGACCC
1 CTGCCCTTCAATCTCGCCCTCGCAGTAACCCGTTAGTCCT
1 ATGCCTCGTGTTGACGACTTTGGTACCTATCCAGATCACA
0.8479249349496155 CGCGAGGAGAGTCATGTAATAGCCTTGAGCGTATCATTAC
1 GCCCTACACACCTGGGCCACGTGTTATTCACCACTGCGGT
0.9209626049664679 GCATTGCACAGTTGAAAAAGAGCCATAAGGTCAATCTATG
1 GGTACACCGATACTGCAACAAACTCTGACTAAGTTCTACA
0.6095206161155898 CATAAATGACCTATAACATTGTGGTGACTAAGCGCAATGA
0.8047205677783987 AAACGGCCATATCATTCGCTCACTGCCTTATCGCGATTAG
0.7354404117031831 GCCTGCATGCCTCGACCGCCAAAATCGCTTTGCCCTTCAA
1 GGTGTCTCCGGTAACGCGGCCCCTGTCGATACCGCAGGCT
0.2848150543605038 TATGACCGCTGCGTGCAGTGTGCGCTTGAGACATGCCCTT
0.2406969234545683 ATCCTATCCCTTACTGCAATGTCATCGGAGCAGCGCTAAA
1 GAGGGAACTACTCATGCACAGCTCGGCGGACGCAACATAT
1 TGACCGTTCGAGTGGCCAGCATACCCTAATGACGCGACCA
1 TACCCGATACTTACACGCAGCGCAAACAAGCTAATTACCC
0.9236476263679176 GAACGTCCTTCCTGGCAGCCAGATCTTGATCGACCGGGAC
0.1317848691205998 GCCCTTGCCGATGACATTTCTCAACGGCAGGTTAATAGGG
0.4958826612789869 TCCTCGTGCCTTTGCACAATGGTTATGTACCATTTGACCT
1 GATGTACCTGAGTACGACAAAGGTAGTAGCAATCTCAGTA
0.8353358024611161 GTGTCGCTCACTATCGTCCTTTAGTGTACGACACCTATGT
1 ACCCCTCGCCCTCTACTAGCGCACACAACGCTAACAAGGT
1 GTCGTACCACCGCAAACACGTCTCCCATCTCCTTCCCGCC
0.7655895379343214 CAAGGTCACAGCTCAATACGATGGGGACCACAATGAATGA
1 ATACTTGCGCCCAGCTCGTTAAACCTCTTACGTGCAATGT
0.1957708514677375 CATTTGCCCTTCGCATGGAAGCGAACGTAAATTGTCCTTT
0.2741841320320756 ACCGAACACCGTTTACATCTTTAACCTTCATTGCACCTTT
1 TGCCCTGCGTCCCTCCGATGCGCGACCACCACAGCGAGCG
0.3116507005340745 CACAGTGACCGACCGCGTGACCCCGAACGGTTTGACTCGG
0.4171571012607895 ATGACCTTGCGCAACGTCCCCACTCCGACTACTCACCTGC
1 AGCCCTCCCACCCCGCCCCACTTGGCAGTGGACACAGAAC
1 GCAAAACTACGCAATGCCGCCGTTCTTACGTTGCCTTACG
1 GACCTCTGCAGTCGTAACACGTCCACGCCTGCCATCCGGA
1 TGCCTTCTCAACGGGGAGACAAGTGGCCGCTCATGCCTCC
0.04860556843584789 GACGTGACATTCACTGCTCACCGTCCGGTGACAACAGGCT
1 CCGTACCTCCGGTGTCGTCTTACCTGCACCCCGATCACCC
1 GCACGTCCCCATCCCTACTTGCATCCATATGCATTTAACC
0.4876631199561714 GACCCCATTGCAAGGTATGTGCCACGCCTTACCCAAGAAA
0.9337175518185498 CCTATGCGCCCGTCATGTCCCGGTGTGACCGCTGGTGCCC
1 GGACCATCCCATGTGAGCGCTACTGCCTGCCCTTTCCAAC
1 GACATACGTCAATATGAATCTGAGAAGCCTTTATCAGCTT
0.4988150672953958 CGCATCAAGGGCTAATGATACTGCCTCCCTCCATGTTACG
0.1849262171659797 GGGTCAGGCTCATCCTAAAATGACATTGATCCAATGCCGT
0.586944109102759 CATACGCACTTACGCTATTCACCTCGAGGGCGGTCGTAAT
0.7373929566679758 GAACGACCGAACCGTGACCTCGTTAGTTGCCCAGTAACAA
0.6168374910600188 ACACCGCACCTTTACGCCAACCCGCACGACATTGAACGTG
1 CCGATCCATGCTACGTGCTATTGCCACGCCTTGGCCGGAC
0.177152811933055 TGACCAGGCGAATTGCGCCACACGGACAAGGACAGACAGA
1 CACTACCAATGCCACGGCGATAGACGGCTAGCCCTTACCT
1 TAAATATATCATGTGTTTGATGTAGCTTACTGACCTTGAA
0.5901531254689618 TGACCTTCTTCGCAAGGCTATGCAGTACTACCGTGTCGCG
0.6958252347614983 CAACCTGCGCCGCTACCCTATCTCCGACCTTCAAGCTCGT
1 GCCACTCAAATCCCGTCACGCGCGCGGTGCGGGTCAAGGT
0.4566118446020558 GACCACAACGCGTAACGATATGTCATCGTGTTCGACTTTG
0.00866749486981115 GACCTACAACCTGGGTCAAGACCCCTGCATGACCCTTACG
1 ACTCCCACCAACAGCAGCGGCGTCGCGGCACACCATCCCA
1 CTGTACGTCATTGTGCACCTAAGTCGATTTCGCTTAACCC
1 ACCAGCTGACACCTCGTCGGTTTGACCTCCGGTTGCCTCT
0.5385703348882855 GACCTTTGCTTGACATTTGGCCTACTAACTGTCGGGGTCA
1 CTTCTTGTTCACGCTCGGATTGATTACGTAAGTGCAATCA
1 GACCTTGAATCCACGGGCCATAGTAGAGCTGACCGTCACG
1 GTTCGCCTTCTGGACGGCAATGAACCGTCCTTCGTGCGTA
1 CATAGTGATTGGCGATGAACAACTCTAATGCCGTAAGATA
0.7989705701059177 GCAGACTGCGCCACACAATATCATGGTCCTTGTAAGTGGG
1 CACGGCTTTGCACTTTACCGTTCCCATTGTCACGCGCCCC
1 CACACCGCTCCGTGCCCATTCCTTCTGCAACTCATGATAA
0.04007086064692122 TGACCCGTGCATGACCTCTTTGTGACTCACTCTAAAAAAT
1 AATAGGAATGTCCTGAAGGAACGAGGTACTCTAACTCCAC
0.5663692287348591 AAACTGCATTATATACCTGTGGACAAGGTCGCCTGTAGGA
1 ACTCGCCCGTGCCGCTTCCTTAGCAGGGGCAGATGACCTT
1 GATACTGTCTCTCGAGACTATCTAGGCGTAAACAGAGATG
0.1217401318990314 TGAGATATCAGTAAAGATCATACTGACATTCGAGGTCATC
1 GGCGCAAAGACACAACGCTCTTGCCAGGAAGAGCGCAGGT
1 ATACGTTTCTGAAACTGACCAAGGCTGGCAACGCGTTTGC
1 TGACTTGAGATCCTCTTACCTTCGTACTTCGTCCCCCATG
1 CTCGGGTACCACTTATCCCCTGGCACAACCTCTACCTCAC
1 GGCCCTGCCTAGCATCTCTAACCTTCACCAACAACTCAGA
0.4174530255030605 CACCGTTCGTTACACGAGTTCATGGCACATGTGTGACCTT
1 GAGCGGAGTCGTGACATGAAGGTTGATATAGAGCGCGGGA
0.9803307989433379 CACAGTCACAGTACGCAATTAGACATTGAATTGCCAAGGT
1 TGCTTCCACCCTCCATCCCTCACGCAAAGTGGGCTTGCCA
0.9479284500605719 GCCTGTCCTGCCGTAACTGCCCTTTCCTATCCCACCCACT
1 CCTAGAAGCGGTACGCACCGCGAGCCCTAGACCAGTACTA
0.4979095085164955 CGAGATCATGATGACCTTAAACCTCGTCTCCACATTAATA
0.3447180237523559 CGCACTTCTTCAAGGTGCCCAGAGGTTATCGTACCAAGGA
1 ACCCTCCTCACGACCTTTGAGTAACTCCACCAATTTTGTA
0.4102228902121817 CCCTGACGTACGCCTGCTACGACATTCACCTAAATGACAG
0.5311062443982107 GTTTGAAAAGATTGACTTCTCGCTATCACCTTCATATGAC
1 GACCTAGCTCTTTATGTCTAATCCGCTTAACCGGTGACGA
1 GAGTGTCGTGTGATCGGCGGAGCCCGTCTGTACGCCCGGA
1 CACCGACAGAGAACAACCCCCTTCTTTGATCCGCTAGCCT
0.8316688030374944 CAAACAACCCATTGCCCCCAACACCTTGCTCCGCGAAATC
1 CATGCGCACGGGGTCGTTCCTCAGCCTTCTGTCAACCCAG
0.08535209199989056 GCTCGAGCACCGTGCCCTCCTAACCCTGACTGACCAAGGA
0.8227414687991683 GATATGAAGGACGAAACATTAGTACATCACGCCGGTGAGC
1 CTCACTGCTTTCAGTACGGCCTCTGCACGCAAATCCGTCC
1 CTGACCTTAACCAATTCCACCCACACCCCTGCGCTACCGA
1 CAAACCGGAGAGCATACCACTTTACCCTTAACGTGAAGGA
1 GATGCACTGCCGCTACCACTATTCCTATACTGCTATCTCC
1 ACTGGGTGCAACTGCATCCCGTCCGAATACCGCACTCATT
1 GGGTTTGTTCCTTGTGGGCTAGGAAACGTACGGGCGTCCG
0.09345932451458527 GAGGATGACCTCTTCTACATATCATGTCGCCCCAACCACC
1 GACCGCACAACTACGCTCCATTGACCGACAAGTTCAATGT
0.908417805135919 TGACCTTGCCAAGTCCTCCTTCAGAATGCTCCAACACCTT
1 CACACAACATTGCAACGGTGTACCCAGCCCTGCGCACTCT
0.05579443062861058 GTTACGGCCCGTTGTCACCTTAACACTCAGATGTGACCTT
1 GGCAGTCACCTCTTCACATCCACGGGATTACTTACCCACG
1 GGTCCTCCTCCCCCAACCTTGCGCAATGTCGGACCAATGA
1 CTCCACCCCAGACCTGCCACACTGCGCACGCCGAACGCAC
1 CCGACTACGGCCGACACGCCCCAAACACCGCCCTCACTAA
0.05485544611503945 TGACACGATATGTCCTACAGACAGTCCTTCACATCAATGG
0.1003829297241908 GCGTAAGCCCTTGTCGACTGAGAGAAGGGCGTAACATTGC
1 ATGTGCCCAGTCCTTGTAACGCGTCGCGTATGGTGACGTA
1 CCTGGGATGAAACATTACGCTTGTAGGGTATAGTAACGCA
1 ATATACCAATGAGGACAGACCACGTTGTGGCGACGTCATT
0.8144671883665011 GACCTTGAGTGTACTACTAATACGATGTTGGCCATACAAG
0.1474429051377515 CAAATGCGCCGCCCACAACCTTCGCCAGACCTTGACGAAG
0.9380941746344962 CAAGGTCGTGCTAAACCCACGCACGGTGCCTACACAACAC
1 ATGCCCTCGTCTAACCCACGCGCCCCGGACAGAAAGGTCA
1 GCCCAACTACAACTTTCACGATCCATCGCAGCCGACTGCC
1 AAGCCTTCCCTACGCCTACCACCGTAACCATACGCCACCT
1 GACCTTGGGCCGCGTGGCGGCTTAGGTTATCCACCCGTGA
1 GACCTTCATCCGCCCCCCACATGTACCTACGGTAGCCCGA
0.5399980292017297 CCCTGCCCTAATAATGCCCTTGGCGGCGACATTTGAAAAG
1 GACCCACTCAATGATGTTTTCGCCTTCATGGTTTAGGATA
1 GTGACCTCGAGAGAGCAGGGTTGCCCTCGTGTGAGGGCGA
0.6297911145202679 GGCTTAACCAACTATAGGCAGAGGACACGAAGAAGGTCCT
0.2701829569084664 TCGCCGTGCCCTTTGTTTATGTCCTTAAGTGCCAACAAAC
0.413120514178266 TATTACCGTGATTCCATGCTCTCCAACCCTGACCTTGCGT
1 GCCGTATTCGCTAACGACCTCCAGAGCGCCCCCGACCTTA
0.7479777841139608 ACTTAACCTCGCTTTGGTTAAAGCACAATGTCGTAGAGGA
1 TGAGACTCCAAAGATCACGCATTCCACCCTTGCGTGACCT
1 TGAACGTAGGAGGGGTGAGAACTCGTATTCGTTTGAAGGT
0.2262769068669675 TCATAACCTATTTCAGCAAAATTGCACTTTGAAGGTCAAG
1 TAGGGTGCAGCTTTATCACCGCCGGACACGTTCCGGAACC
1 CTGTGCGACCCCTCCCCGACAACGTACCGATGGCCACCTC
1 CACACCCACGTACAAACATTTTGTATAACCTATCCATCGA
1 CCAAGCCATATCAGGTGCGTGGTATGCCCCCCATGTAGAT
1 GACCTTATATCCTCCTTGACAGTAAAGGCACCGTGAATAA
0.480427738484636 GACCTTACCGACCCAACAAGGGCACAAGTACCTATCATAG
0.7662816625979074 GACCTTGGTGGCAACATAATGGCGTCACTGCCCGTAAGGT
1 GCACGCCCTGGCGGGAACGGTCAATAGTGACGTTAACCTT
0.2465388673489137 TCCAAGGTTAAGTTCGAGATGATGACATCGAACGCGATCC
1 TCGTGCAATGATCTTCCAATGTTCTTGCATGACGCAAGGG
0.1975573432732996 TGACCTGTTCTCCTTGACCACTACCGACCGTAGAGATGCA
0.3854595464017169 ATCATCACATTGACCGCTGTCTCCGCTTAGCGCGACCCCT
0.723009752062551 GTAATGACCCTGAAACCTACCAGGACGTGGCGTACCTTGG
1 TGCCCTCTGCACGCACTCATACCAGCAACATCTGCCATGA
0.4183329777606744 CCCACTCGCACGTTTAATTGTCATTGTTACGACCGTGAGC
0.1462498424151115 TGACCTCAAAACATCGAATGATATCTCACCTCTACCGTAC
1 GCCGCCCTGGTGTGCGGTTACCGTTACCTTAGCTGCACCA
1 GACGAACCCGTTACGTACGTGTACACGTAGACGAAAATGG
1 ATCCCACGTTACCCGGCGACCACCCATGCTACAACAACAC
1 CGACCACGACACTATCCGCATTCGACGTTATCCGATCCGC
0.6341564212234346 CATCTCCACCGACCTTAATATGTCCTCCAGAGCGCATGGC
0.157396960841071 GCAGTTGTCGGGCGTGCCCTTCACGCGCCTACCCGGGCCA
0.8134022892001885 TCTCATCGCCACAATGTACCACACCGGTCAGGGTTAACGC
1 GCCTATCTTTCCTAATAGGTCACGCCGGCATCGAGAAGGG
1 GCTCCAACGGAAGTGCGCTGAAACGACGAACCCCCGTTCC
0.8371874895536021 GACACCGTCGTTCCTAGGGGTCGCTACCCCTAATGGTCAA
0.9323603651429767 TGACCTTGTTGCGCACACGCATGCCACTAACAGTGCGGGC
1 AGCCGACGGTCTACGAAGCCTTTATAATTACGCGTCGATT
0.3422861035450532 GCCCCTACATCCTGACCCCGATACCCCACTGGCAAGGTCA
1 AGCACAGTTGGCCAATGTACCCGATCCCCCGCGAACACCA
1 TGACCTCCTATGCGGACGACCAAAACGTCACTGACCCCCA
1 GATCCACGTATGTCCGCCAATGCCCCCCGCTTAAGGACAT
1 GCGCACCTTAACCTGTAGAAGCCAAACTGAGGCCTCCCCC
0.4826367367366072 CTCTAAGGGCGGCTTACTTCCTGTCCCCTTGTATGACCTA
1 TGAAGGACGTCACTGCCCGCGTGCGAGCATAGTGTAACGG
0.06348527403722015 TAATGACAAGGTTGTCGCGTAGATTCTCGTCCTCTGCAAC
0.1339586297741262 GGCTCTCTACCCTTGCGCGTACATCCCCTCGACCTTAAAT
0.6000208665184688 TACGTCCTAAACCCACGCCACTATCATTGACGTGACATTG
1 AGAGCCAACCAGACACCTTGGTGGTTAAGGTGTGCGGTGT
1 TTGGGAGCCCCACTCGCTCGGCTGAGGTCTCGTCCCCTTC
0.2734359768507409 AACGCTTGCCGGCAACCTCTAACCTCTAATATGACCTCCA
0.513387073500384 TTAACCTTGATCAGAAGGGTCAGCGTTCCATACTCACGCA
1 GTCCGTCGTGCCGATCTCATATACCCCTGATCACGTCTGA
1 ATCTGCCTCCTACCTAGGGGCGCCGCCTTCCGATAGATGA
1 CTTCCCACATGTGGCCATCGTGGTTGCAGACTTGACCACG
0.1157754004523461 ATTCACAAAGACGCGTAGAGTGCGCGTTCCCCCAAGGTCA
1 CGCAACTTTAGGCAGGTTAACGCTGTCATTTGGCGGTTAC
1 TACGTCCACCCGGGTGCCCTCTATATATCCATTATGACCT
0.001405303097718059 GACTTGCCCTTACAATGTTGTACAACCCCGCCGCGTGACG
1 CATTAAAAGCCTCTGACCTTAGAACGCTAGTCGTGGGTAA
0.1813334705105455 GTGACCTTGCCAATTCGCCTCGCGAACCCCTAGTCGCCAA
0.4710154194464856 GACTAGCACGGCGTTCATGATTGACCTCATCGTGTAGGTT
0.8733723983011544 CCAAACCGCGAGATAGCCTTGAGGATGTCCCCTCCCCTTA
1 TCTGATCCCTTCCCCTACTGGCTACTCCGTGACTCTTTTG
1 GCCCCATGCCTTGATAAAGCGGATAACGTGCCCGTTTACT
1 GAAGCTGATGCCACCGAGATTAACAAGGCAATCACTGATG
1 TCCAAGCGTACCTCCCCCCCCCTTATCACGGGGTACATCA
1 CAATGAATAATGCGCTTGACCCAGAGCACGGGCGAAAGAT
0.6725675558356996 TCAAACCACCCCCAGCGAGGACACCGCGACTTTGGAGTCA
0.9417371065209715 TGTACCAATTCCATGATATTGCCCCTGCTACGTCACGACC
0.3776871166834842 GACGGTAACGACTTCGTTGACATTGGTGCTGTTCTCAGGA
0.5065896884616994 GGGCCACCCTCTACCTAACCTTTCGCCTCGACGAACCCCA
1 ACAAACCGTTGTACGAGTAGCCACGATCTCATGGGCAAAT
1 GTCACCTGTTAGGACGCACGAACTGGCAATGCCCCAACGT
0.1118562707459845 GCCCGATGGTGTCACCTTCCTTCTAGCCGTCTGACATTGA
0.06128348891212509 GGCGCACCCACTTACCTACAATGCACACAAAGTCATGCCC
0.4566645653125366 GAATTTCGCACTGGAAGGTGAGTTGAAGTACGTTTGAGTA
1 CACGTGCCCTTTTCGTACATTGCCCCAACACGGGCATACA
0.7466248468523231 CCAAGTTTGCAACTTAGCCAGGGTTATAACCTTCAGCGTG
1 GCGCTATTACCGTTTAACATGCCCGTAAACGCTAACCGTT
1 GCGTCCCGGCTCACCCCAAACCCTCGTCGCGCCCAAAGGT
0.2133709969949373 CGCCCTTCAAGTGTTACGCTGCCTCGCTCGTGATGTGTAC
1 CGCCAGCGAACTACAGTTAATTCGGAACCGAGGTCAAGGG
0.1036048221804415 GACCCTTCGAAGGATGACCCCCATTTGAATGACCCCACTG
0.6272956083775638 GACGGGACAAAGTCACGCAAGTCAACATGCAGTTATCACC
1 CCCGGACAGTGCGCCCGACTCTTCGTACAAGCGTTGGACG
0.9711338191389226 CTCCTTGGGTTATATGCTATACTCACCTACGTGTCAAGGG
1 TCCCACCCACAGACTACCCAAATGACGTCCTACGTACCGC
1 GGGGTTACAACTGTCGAAAGTTGTCCGAACGACACGTTTA
1 GAATAGAGGGCGTTTCTCGCGCTAGTGCAACGCTATGCCA
0.673328372551074 GCCCTTCTCGCGACCTCGCGAACTATCCGACGGACCACCT
1 CGGGTGCGCGCTACGAATCGCGCGTTCCATAGATCGACTT
1 GCCTGTGGCGTGAGAGATCTGTCCATTGCGCACAAAAGTA
0.08747797824019533 GAGGCTCAAGGCGTTTCCGAACGTCCTTGGTACTGAATGA
0.240252424659024 GGGAAGGTCAAACGGGTATTTCACTCAAAACAGACGCTGG
0.6333571995204722 GGATGTCACGCTCTCACGCCCCGACGCGCGGTCACAAGGA
1 GTCCCCTATCCTGTCCGCAACAACAAGTTTCGCCCAATTC
1 CCGTCAGCGCCTATGACCGCGTACACACAACGCCGAAGGT
1 GACCACTTCGTTTAAGTGACTACCCCCACCACCCCTGATG
0.1711423883694471 GATCGCCCTTGGTTACCACAGGGCCTCCGACATTCACGAC
0.3163078665388646 GTGGACCGTTTCTAAGGACGTTGCACTGCCACGACCTTGT
0.4628729482240823 CACGGCGCAAGGACACATCAGGATACAAATACTTACGACA
0.975152546560233 GTCCTTGAGCGCGCATCAATAACATACCCGTGTCCTGATG
1 GAACAGAGCTTCCCACACAACTTTCATGGACAACTCCGCA
1 GAGAGTTAGAGAAGGTAATGCACCCACCTTGCCCCCGACA
0.3553055195081686 GACTGCCCCCGGACGCCCTCGACCGGCAAACGACCTACCT
0.6122594376493697 GACGTCCTTCCGGTAACCTCGCGCCGACCTCGTCGTAGTG
0.7959961319551053 TGCTTGACATTCGTTAGTCTTTTTGGCACGCATAACGTGT
1 GTGTAAGACATATACGTCTTCTCCGACAATCGTGTACTGT
1 GCGCCGTTGCGCGCTCCACTACGGCTCCCTACCCCTACAC
1 AAGGCCCCACCTCCCACACCTGACATCGCGCGCTACCCCC
0.5396500520460659 TGCTAGGTTCAGAGGACGTTCGTACCAGCGACCTCAAGTA
1 GCCGCCTCAGTGTCCTACATAAGTCCTCCTGTTCCTATGA
1 TGCATTTCCCCTCGCACCCCGAAGAACCATGTCGGAGTCT
0.9121788087327541 GCCATGCCCTCTGCACAACCCGTGGATAACCCTCCCCGAT
0.3172700886175833 GGCAGGTAGGACAAGTTGTCTTTGCGCGAACGCCCAAGGA
1 AACGATGCGCATTCACTAGCACACTGCTTTCCTGGCCTCA
1 GCATTCATGCGTTCATCATCCCGGTAACGCACCCCCATCA
1 CGCAGGCTCGGTCCTCACAAGCTTTACCGTACCTCCACCA
1 CATAACCCAACGACCCTCAAACTCACGGATGCCTTTGTCA
1 CGTGCTTTACCCCGTCGGTCAGGTCCGCCCTACTTTAACA
0.9165913840868199 CAGCACTGTGACCGCCGAGGCAAGGACCGACGCTCCTGCC
1 GACACAACCCCACCTTTGCGCTCGACTGTAATTACGTACC
1 GTACATGGAGGCCCTTTATTGATAGAAAGTTAACCAAGGT
1 CTTGCTCCGTTCATCCATATGTCGCCGAGCGCGACAATGT
0.1915314616777528 GCCGGTACGTCTGGAGGTTGGCAGAGGTCGTCACCTGCAA
1 ACCACGGCTCCCGTCGGACACGCCCTCCATCTGACTACAC
0.7662755778454865 TCAACACCGCGGACCTTGATATCGTACCTACCCACAAGGT
1 CGGGTTGAACGTCTAACGGGCACACGATTATGCGCTCCAC
1 GCATCCCTTTGTGACGAGACACATCGGGCATGTCAAGGTA
1 GCACTTTTCAGCCTCCACGCCCATCGTGCCGCTAGTGTGT
1 ATTACCACCAGAGCATAACTACCGCCCCGTACTATCGAGA
1 CTATGTTTTAGGTACGCACACACTAGACATGGTCTACACA
1 GTCCTTTGCACAAGGGTCAGAACTATATCGCACATCCCAC
1 CCACTTCGTGTAGCGGAATTGAATAGCGTGCCTTGTTCGC
0.3995268133690498 GACCTTGCTGCACGTCAAAGTTACATACGGAGAAGTAGGA
1 TGGTGCAAGTGTCACCTATCTTCCATTGGATCAGCATGAC
1 GACCTCTAGATGTCCTTCCTCAAATCACAGACTGCTATCC
1 AACGCAAGTGTGCTAGTTTAAGGACGAACCGGAGAACCAC
0.4495881193903047 GGTTCTCACCTTGGCGTAACCCTCCGCCCGCCTCGCCAAT
1 GCCCCTGTTTCCATCACCTCCGAAGGAATACGCATATTTT
0.3627620989818974 GCCATCCTTCCCTCACTTGACTTACCGTGACCTAACGGCG
1 TCGCACGAACCGGCGGTCCTGCCCCGACGATACCGAACTC
0.4481500517417146 GATTCTTGACCATGGGAACCTTCCGCTCGCCCTTGCAATA
0.5537683108299823 TAACCTTGCGTCCCGACCTTACGAGTTCTCTTAACCTTAC
1 CGCGGCTTGATGGGGCGCAAGGTAAAATGAATAAATATGC
1 GCCTTCCACCCCACACCACCCCTGTCCACACCCCTAGCCA
1 GAAAGAGCGTGCCTACGTAGTGAACATTGGGGAACGGCCC
1 TGACCCCCTGATACCTACCCGTTGCTGCCGTCCACAAGGT
0.2647383631493882 TGGATGGTACGTGACCTCTCCCGCTTCTCTGCGTCGAGGA
0.9542930433240689 TGTCTCGCCCTGGTTATCATTGCATCCATACCCTTCATCC
1 GGTACATTCACCCTCCCTCTAAGGCCCTATAACGCCCTTG
1 GACCATGATATGACAGTGCGTGCTCAATACGTTCCAGGAA
1 GACCTTGATACACCTTCCCGTGGCCAGCTCCAGCTCCTTG
0.1603907158623936 GCCGACCGTCGCGATTGTCCTTGCTAGGAATGCACCGGTA
1 ACCGTGGCGGACCCCACCTATGCATACTCGGAGTGACCTC
1 GGGGACCAGACGGAAAAGGTTAGACACAGCGGTGCAATAA
0.3395133963837663 TACAAGGTGATAGCGTTTCACGATCACTGCCTAAGTAGGT
0.4297709567727355 GTAAAGTCAGTTCTTGTGCCTGTAACCTTGATGGGTTAAC
1 GTGAATGAGAGTGCGGCGACAAAAGCACCGTCCCCGTGAA
1 CAACGCGAGCGCACCGTACTTTGCCCTGCTCCAAAACGCA
1 GAGACCGCGATTACCTCACGCTAACAGCCATAACACACCC
1 GGCGCAATTTCGGTGATACGCACCGTGACCCCTCTGTGGC
1 GACCTCGCATGACATTTCCCAGGCCCAATTCGCCCAGCTG
1 CTCCCTGCTTGCGACCGACCTCCCCTCCTGTTCCGCCCCT
1 CACGCTCACACCGTAGCATGCAGGCGAACCGAGCCCCTAC
1 GATGCAAGTTTCGTCAACCGGGTCATGCCGTTGTAGGCCT
0.5094773187594293 GAGGACAATGACAATCGCACCGCACCCGACGCGGTCACAT
0.3531476995999633 ATCAAGGTCACCTCCTCCTCCCCCCCAGTCGGCCTCCGTG
0.6916271742398756 ATGATTGCGACCTCTAATCGTCCCGCTTTTAACCTTATCG
1 TTATGTCTACGGCCCACCAAGTACCCCCTGATATACGGAT
1 CGCCCGTCCCCTAACCTGCCGCACCAATCCTCTCCCCCCT
1 GTCCCGGAGCACGGAACCTGACCCGCTTCGCAGGCTCACG
0.316965125458949 GAACCTACACGGTGCACATAACAGTTCCCACCTTGACCTT
1 GCCCTACGTACAGACACGCACACCGCCCTCCCGAACAACA
0.05607778202423773 TGACCTTGGCCCTGCGAGTCCGAGGTATGAATCGACCTTA
0.0604732151983686 CTGCATCACACAGAGGTCAAAGAAGACATACGCTGCTTAA
1 ACACGAGAGCGTTGACAAGTCAGTTGCAAGAAGGTAAGGC
1 CCGACGCAATATCAGCCTTATACACTACGGAACATCGCGC
1 TGGCAGGTCATCCATTCGGAAACAGGACCAACATGTGTTG
0.6967093572892931 TGTAGGGTGACCCCGTAACAGGGCTCGGTCACCTTATACC
1 GGGCGTAAGCACAGGGAAAAGGGAAAGTATGCCATAGAGT
1 CCAGTGACTATCCGCTCTATATGACATTCTGGTCAAAGGA
1 CCAAATGCGCTATACAACCCCGTTAAGCGGCAACCACACA
1 GAGGCAGCACCCACCATTTAGCGTGTGTTCGTTGCACCCC
0.3428224124644664 CCCAAGGTCCTAGGCTCGTTACTGAGGTCACGCATGCACA
0.2977768545501538 GACCCTCGCTGATTCTGTGCGCGTGCCCTACAAGTGCCCT
0.379422529487424 AGCTGCAAGGACGTCGTTTAACCACCGAGGCCCTACCAGT
0.1179243701111539 GTACAAGGTCGGGAGAAGGAGAGCTGTAATGACACCGAGC
1 GCTCTTTTGATCTCTACGGCAAGGCCACAGTACCCTACCA
0.9844065794894493 CACCTGCGAAAGACGTACCCTACGCCCCTCCCCGCAAGGG
1 AGTTGCTTTATGGACCCAGATACCCTGTACGCGCCACATC
0.7845452359539669 GACACTCGCCGTTTACCCCCGCTGCCCTTGCGGGTCAGAC
1 GCAGCCCTTTCCGCCTCACGGACTCAATGACACCACCGGA
1 ATCCATTGCGCGACCCGTTCCTCCCTTCGCCTCGAGTTAT
0.1118098692229638 GCAAGGTGCATATACTCGGTGACATTGTCCCCGACGTAAC
0.7488075176846382 CACAATGTGGCCTGTAGCAGATAACGCATTGTCATTGCAA
0.9043104441954485 ACATTGCAACTTGCAACGTTGAGCGACCTTTTCTGCCCTC
1 GCCGTTATGTCTACATCTAACTCAGCGCACAAAGTCCACA
0.7512043803187384 CATCCTCACGTGTCACCTATCAAGCGTGACCCTACCCCCA
0.6579319079352624 GAACTCTGACCGTGCTATCCCTAACCTACCGTTCGACCTT
1 GTTTTCAACGTTCAATACATGCATACATGCTTGTAACCGC
1 GCCCCAGCACATCGCCTCGCCGCGTAACCGCCTCAGCACC
0.2504521181374144 GAATCCACCTTGACTGTGCTCTGTAAGGCCTTTAACGTAC
0.745919598099501 CACCCCTTCATGCCCCGGTCCAACCTACGAATGACCCTCC
0.4706822706820054 GAGAATCACATACCGACAGAGGGCAGTCAAGGTCCCCGCG
1 AGACGGACGCTGCACCTTTCGGCAAGGGCACTCCCAATGA
0.9040065769578789 GCTATAATATTGACCTGCACGAACACCTTCCTGCGAAAGG
0.6112208877909479 ATGACCTTCTTCCGTGTCCCCTATCACTTTTTAGCTTGGC
1 CCCTTCGCCATGTCCCCCACTACAACGACTCCCCACGCAC
1 TCGAGGTTACCGGCAAATTGCCTTTGACGTCACCCTCAAC
1 TTGATATTGACAAATGGCACCGCCAATGTTGATATGACAC
0.9757864298491011 GAACGGTAACCCTATGATGTTGAATGGCCTTCAGTGACCT
1 TCAGACGTGCAGTAGCGCGTTTTAGACCCCGCCCGCGGCC
1 CGCACACCTCACCCTACAAGACGGGACGATTATTGCCGCA
1 TCCCACACGCACAGGCCCCACCACCTTGCACGCCCGCTAG
1 GATCACCGATGACGCGATGCGCGCGGACACGCTTGACGAC
1 AACCACCCCATTCCCGCCCAGACTGCCCACCCATACCGTT
1 TCGAATAAGATGGGATGCAAAGGAGAGAACAGTTACGAGG
0.6794777973348333 TGACCTCAATTTACCCTATCCTTGAACGGCACCGCTCCGT
1 AGCACCATGGTTCCGCTGCGTTGGCCCGTCACGACTAGGT
0.6864197174680773 AATTAACCAGGGTCACGATGCGGGCACACGAGCGTGACCT
1 CGCCTACGACCCTGGCTTAAAGAGAGGACGTTCACCCTCG
1 GACTGTCCCACCACGTACTAATCACGCTTCCTCTACCGTA
0.2050007859847752 GTAACCTTGAATAGAGAGGGCGAAAAGACCGTCAACATTT
0.8347317523351967 CCGCCCCACCCCCACCGCCCTACCCACCGCGCATGCTCTA
0.1865776754697871 GAGAAGGACACGCAGGATGCAGGTAAATTCCATAACCGCG
1 ACTACGGCATCCTGCGCCCACGCGAACGTGATACCACTTA
1 CACCCAATGCATTATCGCATTTTGACAACTTGTCCTCAAT
1 GACCGCGAGTGTGACCGGCTCATTAAGCACTACGGCCGGT
0.8257079536676952 CAATCTTGCACACTGACAATAGCAGTGTCCTCTAGCGATA
1 ATTCTGATGTGATACGACGCTGCGTTGACCCATACTGCAA
1 ATGGCCGAAGGTTATCCTCCGCCGCAACCTCGCTCTGGGC
0.1465405523173128 GGGCGTACCGCCATACTTTCTGGGCATATCACCTTGACTT
0.1448489126308845 TGCTTGTCTTATATTAGTGCCCTTCAAATGAACTTACATG
1 TGTCCCCTAGTATCAAAAGTCTGATACGCTCGACCTTGCG
1 CCGTGCGTGCGTCTACCGTGCCCTATTCACAAGCCAAGGA
1 GCAGTCCGCCCCATGCGCCCTACCCACTATGCTACCCCTA
1 CGCCTATTCCCGCCCCCTTATCCCACGGTCAGCGAGACAA
1 GATACCACAGCAATGGCCGACGAGAACGCTCGCGCCCAGA
1 CAGTCCCCCCCTGCGCTAACATCCCACCCCGTATGTCCCA
1 CTCGCCCCCTTTAGCCTCCACCGCAACGTGCACGTTTGAC
0.02253828067056673 CCCTGAGTATACGTTAAGGTCACATCGTTTCCTAAAAGGT
0.9411558480664155 AGCGCCCAGTGGCGCTGAAGACAAGGGCGGTCACAGCCGG
1 GCATCTGGATCGCCCCAGTACGACATCCCATACCACCTTA
0.3111569763098502 TCCCTACAGCACCTTACCTCACGGCGCCCTTGATGGCGGT
1 CACATTCAATGACGCGCTCTTGTGATTTCTCTTCAACCAC
1 GGTTAAGCATGGACTTGTTAGGTTCTATCACTAGCAACCT
0.8538484043739285 CAATGTCACGGCATCTTGTTGAGTGACATTACCGCTATGA
1 CGAGTTATCAGGCCCTCACAGACCGTCGTGGTGCAGCGAC
0.1165848856405348 TCGCGACGTCTCCCCCACGCTCTATCCGACCTTGTGGACC
0.1424786643778455 CGCTTTGAAGGGCACACCTATGTTCCTACGACCCTTCGAC
1 CTGATCCCGCAGCTGACATATACAAGCAATCCGTGACCTT
0.4980636987563651 GGAGTATGCCTAATTGACACACAAAGGGACATCTGAAGGA
1 GGACGAATCTTGTGCATAACTTGACTTTGGCTGTCAACGT
0.9058015737049621 CGCTTAAGACATCTTTCCTTCCGTCGATATGCCCTTTAGC
1 ACATGACGTGGTGAGTGACGGCGCAGCTAGTGCGCAGTAG
1 CAATTGACATTGTGATCACCGGGACTCAAACCAGTGCTAC
1 CCGCCTACGCACCTTACCCGATACGAGGTGGGTTAAGCGC
1 CCAGTGTGCTATCCATGACAACAGGACTATCGCGACGTAC
0.5636850131905535 GACGCGCGTGATGTCCCTTCACGGATTATCGTTTGACCTT
1 CGTCCCTCGCTGCACACCCCCCGCCCCCTCCCACCCCTCA
0.6155494935843064 GTAGTGAGCCACGACTTGATGCTGACAATGTCATCCGCGC
1 GGTGATTCCGGTTCTACGCCCTCGTACCCCCGAGGTCACC
1 GACCCGCCACCGTCACTCGTGCCCCAGAACCAAGGGCGCC
0.3918726529802277 GACCTGTTTTTCCCCTTGGCGTTCGTGAAGGACATTAGTA
0.6834875357344877 GACAACTCCCAAGCACAAGGACAACCAAAGAGACTGCGCA
0.6444813146390784 TTGCCGCTGACATTAACGACCTCAATATGCCTTTCTACCA
1 GACCTCTCCCTACCGGTACGGGCGGCTAAACCCCTTCACG
1 GTCACAGCGCACGCACGGCCTTGATCCAACAGTACCCTCC
1 GCTACTTGACATTACAAAGTGGACCTAGCTTCGCCCTCCA
1 CACTTGGCCTTAGTGACTCTCCCGCTCAGAGGACAGTTGC
1 GTCAGACAAGTCATCTCTCCCGTTGTCCTCAACGCAAGGT
0.4772282643812099 CCACCACGAGCGCGCGCCCTTGAATACCCTTTATGTGCTT
1 GACTGCGTCCCACTACGCGGAGATAGCTAACATGATTGCG
1 GACCTTGGCTGCAAGATCATCCCGGCGATCCGCCTGTAAC
1 TCTGTTATGAGTCGTACGCGCCGGAAACACCGTACCCCCG
0.5670185288001175 AGGCTCTCGCAGCCGTCCCACCCTGAACTTAACCTTGACC
1 CCGGGCCGGTCCCCTATCTTACATCTCAAGGGTGACGCCA
1 GTCTCAGTCAATGGTCGTCCGTCGGACCGACATTGTGACA
1 GCTGTATCCCCCTTGCTCCCCTCTTCCAGTGTCGAGCTGC
1 GACCTGGAACCGTAACAATGGATACCCTATAAGGCAATGA
1 GTAAGTCTCAAGCAGTAACGTCTACCAGGTTGAACAAGGT
1 CTTGCCCACGCTTACCGAACTCGCATCTCCTACTAGAACA
1 ACCCTGCTTCTTGCATCTTTATCACTATATGGCCCGCCTC
0.6163729284903576 GTGCTTATGCGGTACGAAGGACACCGTGTTACGCGTGCCA
0.6705673620921435 TAACCCTTACACGCCCTCCATTCACCCTTCACCAGCCTCC
1 ACGTTACAGGTATATCACCTTTGCTCCCGATATCACCCCA
0.3566387904353503 GTAAAGACATTGTCTATGCTGCAACAACGGTCACGCAAAT
1 ACGCGGCCAGGCATGGGCAACAAAAGAACAAATGGGAGTA
1 GCGCTGAAGGGATCTCTGACCGACGTACATTGGGTGGGAG
1 GAAATGTATGGATTATTTCATCGAGTCATTGACAGAGGTG
1 GAATTGACCTGCGAACAAGCCACTCCCCGTGAGCCACGCG
0.5833458765009019 TTCGCTAAGGTTAAGTATCGACCCTCAGCGTTGACATTGA
0.757845350200041 ACGACCTTCATTGAATGCATAACCCTCCACCAGCTGGGGT
0.2012136923166625 GCAATCCAGTGTGACCCATTCGACATGGACGTCTCAAGGG
1 CGTCCAGCCCGCCGCATGCACTCCATCCTCGGACACAGCG
0.1760573021035171 GGGATCACCTTGAACTCGCTGGCCAGACCTGCTAGCCCCC
0.2578136768066756 CGCCTCGTAACCTTCGGGGCCAGTCGCCGTTCCACAAGGT
1 CACCCGCCGTAGCAACATCAACTTCGACTGTTAGACATGC
1 GTCTGATACCCACCATACATAGACGCGACATAGCACCACA
1 GTCACCTTGCACTCAACCACAGCACATATACCCTACTCCC
1 CACCTCCGTCATGCGAACGACTACGCTGACCCCCCATCCC
0.4805422846854704 GATGCTCACCACACACCTTCGTATCTACCCATGCCCTCAA
1 GTGATGTGTTACCGACAACGGGTTGGCATCGCTCGGATAG
1 CCCGAACGGCCATAACCTTTTCCAAGCAGACCGACAAGGA
1 CCTCATTACACCGAAACATGCCCGCTGTCGCTATCATACA
0.2732419101061791 CCTTTGTAGTGACTTACCAGCTGACATTCCGTGTCAGGAA
1 GCAAACCACCGGACCACCAACAAGGGAGTCACCTCGCTAC
1 CCCATCCGGCCTGAGTCTAACCACCTTGTCCAGACAAGGT
1 GGCAACGACTTTACAAACCACCCTTACCCTTGCACTCGTC
1 GACCTTGCCAAACCCCCACCAATGCATTTGCCGCCCTCCC
0.3729301036615364 GACGTGTCCTCATCTTCGTCTATGACCGTGGCGCGACAGT
1 GTGCTCAAGCAGAGGCGCGTACGAGTATTGTCAGCAGTGA
1 CGCCCATGAATATACTCCATGCCATAGATGGTTTGACCTT
1 GTCTACCTACTCCGCACCGCCCACCTACTGTACGAACCCG
1 CCTGCTTGTCCCATTAGACGGGACGCGTTTCGGTTGGACC
1 CTCTGTCACCTGACCACTCCGCCATCGCAACGTAAACCCC
0.9325673702159192 CGTCCCAACTTGACCAATGACATTATTGGAATCGACATCT
1 GACCATATATCCATTCCCTGCACATCCTCCTTTCCAATAA
0.675925557391036 GCAGTCCACCGATGCGTGTCCCTTGCGCCCCCTCACCTCA
1 TGCACCGCCTAAGGGCAACAGGGCACCAGTACTACATATT
1 GACCTTCATTAGACCCCAAACGAATGCACCAGCGACTCCT
1 CCCAGAGGCCGACCCAAAGCGTGACCTGCACTCTCCTCTA
0.8326848181154859 GGCCTGGCCTTGAGGGATCGACCCCGCCTTGAGGACAACA
1 AATCATCGCCTAGATCCCATGGCTCGTAACGACGCGCCCC
0.9603068465697046 GACGAGCCGGGCGATGTGACCTCGCCTGGATGTGCCGTTT
1 CACATGACCATGCGGTCACCGTTAGACTCGCGGGACACGG
0.4771642408807495 CGGAGCGGTCACTTCAAGGACCCGACACCGCCCTGAAGGA
0.936402950492466 GCGATCCGAACGAGCAGCCCTTGCTGCAAGTTCATGACCT
0.3736935958095223 ACCCACCTTCCCCTGACCTCAGTCGCCCAAGGCAAAGTGT
0.3949490796816855 GACCTTCACGCCTTGCAATCGAGTACACCATGGTGCTACG
1 GCGTCAATGTACATCGCACCTCACCCCCTGGCAGGCCGGT
1 ATCACCTTCACTCAACCGAGACCAACCGACACACCGAGGT
0.0643014375116108 CATTGTCCATTCAAGGGCGACCCGTCGAAGCGCCCTCTGC
1 GGACGGCGCGTACGCCATATCGCTGACTGCCTTGTCACCG
1 GCAACTAGCCATTACATAACATGCTAACCTTCTCGTCCAT
0.0644142403767284 CACCGCGCCCCCTAACTCACCTCTTGCCAAATGGCAAGGT
1 CCCCTAAAGCTCCCCGCACCCTCTCCTAGGCACTCCACAC
0.3176331325572755 TGTCACTCGTACCTTGCTGTAACCCTCACCCTCCCAAGGT
0.2048841366690817 GAGTTCACATGCCACGCACACTTGTAGGGCGTCATTATCT
1 ATATTCGTCGTTTTGGTTACGCCGCCCTTCCCGATGTAGC
1 AATCCACTCCCGCCGAGGACAGGGCCCATAGCAACAACCA
1 GAACCAACGCCGCGACCTCTGTACCTCCCCCGCTTTTCAG
0.2648928989484072 GACATTGGTTGACCTACATTGCACACGCCTAGCACCTTCC
1 GACGCACTATAAGGATACGTGCCCTTATGGCAAGTTACAT
1 AAACCTTTAAGCTCACCACCGATCACACCATGACCACCGC
0.1793898980668963 GTGTCCCGACTGACCTCCAAATCCTAACATCGGCTACACT
1 CACGCAAGCGTATAATGTCCCTCACACGCGACTTTCTCCT
1 CGCGTTGTACGCCTCTGGTTGGTAATGCAACACTGCACGT
1 GTCCCTGGAGCGCGTGGTGACTCTCATAGGTTATAGCTTG
1 GTGACCTTTGCCACCTAGCTAGCACGGGATGAAAGGTCTA
1 CACGACATCCTCCGTAATACGGAAACATCTATTGACCACT
1 GTCAAGGTTAGACGGCCCTGTAGTTCGGGCGTGTACCCTA
1 CACGCTCACCTCTATGAATGACAGCCGAATCTACAACGCG
1 GCATCCCCCCCGATAACTTGCACCGGTCTGTCGTTAGGCC
0.3241262235454141 GAGCCTCGCAAGGTCGTGCTGATCGATTCCGCAAAAACTC
1 AGGACAATGCTTTTGACTCTAACCAACCATCGTTGGAGGT
1 GCCCTTTCACCCAAAGACGTCGCCATCCTATTCCCACGGT
1 ACGAGCTTGCGTCTCGTGATCCGGTACCCTTGTGGCTAAC
1 CCTCATGAAGAAGCTCCTTGTGTGCCCGCTATATAACCTT
1 GGGCTGACATATACCCTTTGACGACATCGATACATTGCCG
1 CGCTTAGACGGACCGTGCAAACAGCAATAACACCTACGTA
1 CAAGGTCGCTTGTTCCACACAATAGGTTAACTGCATAGTA
1 GACCGTGATGCACAACATGATACAACTACGCGCCCTGCTC
1 TGTTAAGGGCAATACTCGGGTATTCAGCAACAATAAAGGT
1 CGGTTACACTGGCTCTTTGCGAAGCCCACGCGGCACAATG
1 CCGTATCACTCCCTATTCCCAGTTCCTCCCCACAGGTTAC
1 CGCACAAGCAATACGCTATCTAACCTACTAGTTTGAAGGT
0.3237676384752884 GCCTTTTTCTGCGAAGCGTGTCTCGAAATGCATGACCTTG
1 GAGCCTCAACTCCGCATTGTATGGTGCTAGGACACAGGAC
1 GTTCTGTCAGCAGGTAGACTTTGTGTCTTTTGGCAAAGGT
0.4207684457979055 ACCCGCATCAGCCTACGCCCTTGACTTACGCCGCCGTGAT
0.0363033008121634 GACGGGCGACAAGCGAAAAGGGGCGTTTACAAGGTCAGAT
1 GCCCTACGGACCGCCGTCAATGTGTCCACAGTCTGAAGGA
1 GACCTACGGAATCTCAAGGAAACACACACAATAACGACAT
1 AATTGTATACTCCCACCCGTATCCCACTCGCCATTGAAAC
0.1414239805197905 TTTCACACATGACAATGAACGGTTAAAGTAATGACCTTTC
1 CGGCGTAACTGCATGGAGCGTCCTATAGCGCGATAACCCC
0.6114849972477089 AGCAAGGTCTGCTAACCTTGGTCCAGCCACCTTTGTTGGA
0.1030978651128545 GACCCAGAGTGATTTTTCACGCGAGTCACCTTGAGAACAC
1 CGACACCTTGACGAGAAAATGAGAGAGTGGACATATTGCG
0.02197251086573269 GTGCCTGCTCATTCATTCAGGTCGTGACATCTAATGGACC
0.05704260543594322 GACTGACCTTGTCTCCGTATAACTGCTCACCCTAAACCCC
0.5591947200669423 ATGACCTTGGCCTGTAAAATACGCGACACCCAACCGCGCC
0.7064358305545023 CGAGTCTTCGTGCTTTTAACCCTGACCCTGTAAACTCTAT
1 CGTACATGGGGGCAATAGGCTGGGCGTGCATCCACGACCC
1 GACCTTCGGGTTTCACCTACCTCTCTGTGAATCTACCCGC
1 CTACCGTCATCGGTGGGCCAGCCGCGTTCAAACCACATCA
1 GGGACGCCCTTTGACCGATTCCCTCTTTCCCCCTAGTATT
0.5785622775398027 TGCAAGATCCCCCTGTCCTTGCTGACCGCTAATGATCATC
1 GAATCTTTCCCACTCCTTAGAACAAAAGGGAACCATCGCA
0.7546527616058257 CTGACCTCTGGGGCATACGAATTGCAGAGAGGCCCAAGGT
1 CATCTGGCAGGTGTCCCACAGCTGACTTTCGACGCGCATC
0.1647828032895804 GACGATCTTAGTTAACCTTCCACTCGCCCTGATAACTTCA
0.8459678625604143 GACGTGACCTGCGCGTAGTACGTGCACTGATTTTATGAGC
1 GCAATACTCTTGACTGCATTAACACGCTACCTAGGTGACG
1 CAACCGCCACCGAAAATATGACACGTTACTCGCCGATACC
1 CACGGAGGGGTCACCTCTGTTAACGCATTAAATCTCCACA
0.8649957835861578 GTTGTGACACCTATTTGCCCTTCGGGCCTGACATGCTGTG
0.2081871513411201 CACCTTGGTTTCACCCCAACGCGCAAAGTCACCTGCTGGT
0.8608894253331623 GACCCATGCAACACCTTCGATGTAACTTCTAACCTTCAAG
1 CAGAACGATGTCGCGACCGGGTCGCGCGCGTGTACATCCT
0.2238006997233041 TGGGTCCGCAGTAACACAACACCTCGCTGGCAAGGGCATC
0.05762865670518095 GACCTAACGCGACGTCATTGAAGTGCAACCCCTACCCTTG
1 CGTCCTCTTCCAATGACGGCCAGTTTCCTTTCCCCCGAGA
1 TCGTACCACTCTGCGCCACCACCTCGGATAACCCGATAAT
0.03605858532228373 GGTCCCACATTGACAAAACCTTGTATGACACAGCATATAG
1 ACCACGTGCAAGCGTTGCAATACAAAACCGGAGGTACTTG
0.6236266135340404 CCCCTGCCGCTCGCAATTCCGACCTTCAGCTAAGGGCTGT
0.5471846345733428 GGGACAAAGTCGCAGAACGACACTGTAAATGACATACCCT
0.03304630587624911 TAACACCATCCCAGGCAGCACTGACCTCCAACCTAAAGGG
1 ACTAGATGGCGTGGTTTGCTTGCAGTTCAGAGGGGACGCT
0.410651808287105 AACCTTGCCTGCGGAGAGGTTGCCACCCCACACTGACCTT
0.948816570697286 TTTGCTCCCATGACATCCCGCGACACCTTGTCCCTTTCGC
1 CTGCAGCGGACGTCACCATGCCAAGATCTGAGGTTCGGTA
0.8286007562780677 GACCTCCCCGACCTCTACTGATGCATTGCGCCCACCTTAG
0.5676758617389983 GACGGTAAGGGCAACTGTACGTCGCGCAAAGGCAGGCTTA
1 GACTGCAGATGTTAGCCCGTGTGAACAACGCATTTTAAAG
1 GTCGTTACCGCACGTGGTCGCCGCGGCGTACCCACCCCGT
0.2188685596021593 TGACCTTGGCGCGTCGACGGGAGCTTTAGTCCCCGAACGA
1 CCCACCTCCCCCTCCTGCGTCCACCCCGCAGTTCGCCCAC
1 GTCGCAGCCCAGTACCATGCTGCACCAAACTATTGGGAGC
0.7708733808324971 CGATCTTGCCATATTCTACGCAAAGTACCACTTCAAGGTC
0.3889588828197317 CCCACAGGGAACGTCCTTGATTCACATGCGGCTGGTGTTT
0.8971525070502416 AGCTGACCTATTTAACGATCTTCACCGCGTCCTACGTCAG
1 AACGCAGCCCGCCCGTGGGTTACCAAACGAACAGAATACT
1 GCCGCCGTTCCCTCGCGTCCGCGTCCAACGTACGGATGGC
0.3262227682416618 CATCACGCACTACCGTAAGGCCATGACCTGCCCGTGTCCC
1 GGCTCATTCGCGCGCCCACCACCTGAGCCCTACGTGCCAA
0.7060074633094492 CCACTCTCCTTGACACACCCCCATGTCTCCTCCACAAGGT
0.4890190758145968 GGCACTCGACTTTCGAAATAACCGTTCTCAGACTGCGAAA
0.03026129459849786 GAAGTTTGTCTGAAGTTGATGTCCTTCAATGACCGTTCCG
1 CCGGAGAGTTGAGCTTCCTAACAGCAGACTAGCTATGTCC
0.5520958867849345 CGAACGACCTACAAAGCACAGTGCAACTTCATCAAGGGCA
1 TGAAGGTCAGAATGTCCCCGGTGGCCACAACTGATTGGAG
0.9952980615131936 GGTTCCTAGCTTCAATGCGTCCGCATACACCGTGACCTTG
1 GACTCCGGTTTGCATTCGACACTCGTGACGAATCGTCCTT
1 GCCTACCATCCAGCCCTTCACCTCCACTCTCCATACACAG
0.4455152757598776 CAAGGGCACCTCTACTCAAGGATTACATTCGCGCACCGTA
1 GCGCCTACGAGTGAACCCTACTGAGCATGGCGTGACCTGT
0.7509393092419611 GACCCCCCACGATCATAGACAAACGCTCAAGGGTCAAGGA
1 GAAACCCTCCCACCTCGACTGACGCCGGCGCACCCACGGA
0.001722859394009318 AACCTCGAACATCGCCATGAACTTGACCCCTCACAAAGGG
1 ACCCTCCGCCCGAACACTACCTTGAACCTTGCACCGCTCC
1 CACACATGCAACTCGTTTCTCTATGCCCGCGACCTGACCT
1 TGACCTTTCGTTACCTGGATACGTGGGGACTCACGCCCTT
0.3826683476641797 ACGAGGACCTGCCTCCTTTATTCGATCTTCCTTGACCTTG
0.8100754315730924 GCGCGATTCGATCCCAAGGTGATGGCACGTGCACCGCGCA
1 CCCATCACCAGCACGTACTGAAACACCCTCCACTGAAGGA
1 CGCGCTTACCACGCCGCCACACCCCTGCTGCAAGCCACCC
1 GACGCTCACTTGGCTGACTAACCTCAATTACCACCTTCAC
1 GCTGGACGCGTTAAGCGTCCTAAGTGAGTACACCGGTGGA
1 GACCCCTAACTGCAACGCCTGCGCCCTTCGCCGTGACTTT
1 TAACACCGCAATTCCCCGGTATGACCGGGACGACAGGTTA
1 TGACCTCTAAACAACGATCCAACAACCAGCTTGTCAGATA
1 AACCTTCGACGACCCCACTTCCGATGCATCGCAACTGCTA
1 AGCACCTCCGCTCACTCCCCCTACACGACTTTTACTGGTG
1 TGACCTTACCAAGCTTATGTCACCCCCCCACGGACCGTGT
0.2171158871060383 ATCACGTCCACCTTGGCTCAGACAACCTACCTGTGACCTC
1 CAACCCCACATCCGTTCGACCCCCCACGAACAGGTCCCCC
0.7927523192423793 TGTGACAATGCCTCGTTACCTCGTTAGAGGGTACCGCGGT
1 GAACGCTCGCTTTCACTTGCCCCCCCCTTCTTTCCATCTT
1 GTAACTAAACGGCGGACGGCGTGACATTAGGCCCGCCAGA
1 CCACCAGTTAATTTAGCCGAGAACGCCCTGTATGCAAGGT
1 TCAGGCGAGGCATTATTCATTTCCCTTGGTTAGGCAGGTT
1 ACCAACGTTACAGCTAGGATGGTGGAACAACCGCACCGTC
1 CGGCGCTACACTCGGCGCCACTGCCTCTGTAGAACGAATG
1 GCCAATCATGCGCGTCAACCCTCAAAGCGTGACGATACAC
1 CTAGCATTTTGCCTCTACCGCACGAGCCCAATTAGGTACG
1 ACCATGACACCCCTTGCACCCGAGTGTACGCCCACGCACG
1 GTGGAACTATGAACCACCCTGAAGACCTAGTGGGCGCGCG
0.5908912560472148 TAAGCGGAGCCTCGTCAAGGGTAACGGTACGCATAGCGGC
1 ACACAACCCCAATGCGTACAGGAATCCTTCGTGTGCACCG
0.3078995099044357 CACATGACCCCCGCGCCCCTTCGCCGCACGACATGCACTC
0.06987688515692538 GAAAATAACCTCCACATGAGGTATCGCAGTGTTGACCCCG
1 ATGCCCTTGTAGTACGCACAATTCGTCCCTAAGAATGCAT
1 CGCACCGGCCATCCTGTCTTACTACCGACACTCCCACTTA
1 TATGTTCTCAACTCGTCCTCCCTACACCCTGGCCCCCTCC
0.3776329090182588 CAAGTGTATTCTGACCTCTACTTGGGGGCGCAATGTATGG
1 CACCAGTAACCAAGAACAATAGCGTGATACGGCGCCACGT
1 CCAACACAGCCACCAATACCAAGTCGCGATCACACTCCGA
1 CCTCCACTAACCATATCACAGTGGGATGTTTACCCATCAC
1 CCATTCATCTGACATCCACTAGGTACCTGCCGTGTATACG
0.7105538997208118 GCTTCACCCATCACCACCTTCCCACATCCTGACCCCCAAA
0.7307535863144069 CGAATGGCTCCACGTCCTTGAATAGCAGAGGCTACCGAGA
1 TGAATAAAGGACACACACTGTCTCTGCTTAAACGCAGATT
1 GGCAACGGGCGTGCCCAACTGTTGCCCTCGCTTTCGGCGA
1 CCTTGGTACGGTCGCCGAACGACCCTTTGTGCCCTCCATG
1 GGGCAACTCGCCAATGACCCCTGTCTCCTCGCGAATAGAA
1 CAAATGACACGCAAGTAGACAAGGAACTAAAGATCGTACA
0.4994938348890746 GACTGTACCTACCGACCCCTTCACATTGGGACGTCCTCCA
1 CCCCACCGTACGCGCTCGTGATCCCTGACCCGTCGAGGGA
0.0556711952573257 TCCGTCACTCCAAAGATGGAACAGAAGGGCATGGCAAGGA
1 TTGAGACACTCCCGGTCAAGTTTACCCAACTGCTGAAGGT
0.2384163481895541 GCCACGCACACGCCCGGGCAAACTCCAATGTGACCTCTAG
1 GGAAACGTTCCTCCCTGCTTTGACCTCCCCAGCTATCACC
0.3615265213962936 GACAGACAGGGGACACCTGAGGGATCACCTTCATGTGCTC
1 GCCCTTTATACGTTAGTCTGCGCGATAACGCCGCGTCCTT
1 GATGCGCATCACGTAGTCCGAACTCCAACCCCTCCGAACA
1 GAATACCCTTGTGGTGTTTCGCACGCCATGCGTCCTGCAT
1 TAGTAAGAACACGACCGACGGGGGCTAACACGGTCAAGGT
1 GCCCCCCCCGCCCTAGGCACACCCTCCCATCTAACACCCA
0.7062753690977919 ACGTTGACCTCAGACGTAAGACTGCATGCCTCGCCAAGGT
1 TCCAGTCACTCACCGGGGTCAGACCCCCTATCCTCCGCCA
0.1765080884557709 GCTCGCGTAGCGGCGCGTCACATGACCCTGCCCGCACGGA
1 GGCGTTACGTGCTGACGTTTAAGTGTTCCTGATTTGACCT
1 CACAACCACCCGGGCCGAGCGCGCGATTCGTCCATGCCGC
1 GACGGGTTACCGGCGAGCCCGTTACGCACTTACACCGAAT
1 GCCAGCAGGTGAGACTGACTATTTCGGATCGCCTACCATA
1 CCCACCCCACTACCCCTCAACCCCGTCACTGACGCGTTCT
0.1635523531779353 TAACCTTGATCACACGGTCTGCCTTTCCCCTACAAATCAA
1 ACACCTCGCTGGTGTTGTCAATCCACGACTATCTTTATCG
1 GTCGTGACAGGTGAGTGCGTCGAGCTGCTAGCTGCGCACC
1 GTGGCGCGCAATACCCTTGAAACACCGAATCGGACTCGCA
0.4316295039933615 TGACCTACCAGTGCCGCGACCCATACGACCAGGTCACCCT
1 CAGCCATACGCCCCGTTCGCGCCTTGCCCGCAAGCACTGA
1 CCGCTGTGGGTCATCACGATTTCACCCCCTGCTACCGGCG
1 AACAACGAAACCCTTCATTGCAGCATAATGCGTACACCAG
1 CACCTCAACGACACTTTATTCGCCCCCTAACTACCCCGCT
0.2111856132191771 TCACCCCACGCGCCCTTACCCTGTGCTCCGCCTTGACCTT
1 GAAAGGCATGGAGCTGCTGCACAGAGCTTATCGACCTTCA
1 TGTCATCATTCCCCACAACAGCGCGTAGTCAAAGCGAGTG
0.8697980400220438 CGACCGTCAAATCGGTTAACTGCGACACGATGCTCTTGAC
1 CGCGTGACGCGGGTTCCACCCACCCCGTGAGCATGCACCG
1 GACACTGCAAACGAAGCATGACCTATGCGTAACCCCTGAG
1 GATCATCCCGCGTTTATCGGTGTGCAGCCCGTCCCCGCCA
1 CCCCCACTCGGGCTGTCCACCCGCCGAGCACACCCACCCC
0.3791907082233887 AAGGTCAAATACGACTGACTGTAGGACGGCAGGGCATCCG
1 CTCGACGCTCTTGCTTCACTCTGATTTCTGTACGATGTGT
0.3353123037495869 GTCGATAACGCTATGCCCTCTAAACGCGGCCGCTGCGGGT
1 GCTCGCGGCCGTGCATAGCCGTGTGAGATGAGAGTGACCT
1 GACCCAATGGCCTCTGAAGGTGATAAGGCCCGGTGAATTG
1 TAGAAGCTTCCCGCGAAGGTTTCCGGGGTTAGTACGGGGT
1 GGTTTGCATTGCAATGTATGCCAGCCCGCGGTCAAAGCAT
1 GCCGGACGTGCGCGCGCGAGTTGGCTTGCCTAAGATCTCG
1 ACTACGCTTGTACACCCACCGATACAATCAGCCCCACCCC
1 TTTTTGTGTCCTAGTTCCACAACAACCTAGCGTCCTGCCC
1 GAATGACCCCGGACCTCAATTACGAACAATTTACGGGGCA
1 CATCCGTCCTTCCTCAGACTTGCTTGTAACTGGTTAAGGT
1 GCAGGGGTACACCATACTGCTTTAACCCCGCTTAGTGTAA
1 GTCGCAATTAGGTTCAGAATTGCGAGGCACATTGCCCTTC
1 CATGTGCCCTTGAGGCTTGCGCGCTCTCTAGAGCCGGACT
1 CATGCCTCCCCACCGATCTTCCCCCACGAATCCGTAACCC
1 CCAGCATAACACCATAATAGACGAACGCACCAGCCACGTG
1 ACTACACACCGCCCATGTACAACCACGCCCCAACCAGCCA
1 GCCTATGCGCAGGCACACTCGTTTGCGATACTAGCCCTGA
1 CGATGCACCCGCACACCGCTTAAAAACCCATCTGTACCAA
0.1671040376438545 GTCGCTTGAAGAACGCGACGACCTTGGCGTTTCGGACCTA
1 TGCCGGGCGTGAACGATGCTCTATTTGACACTGGCGACCT
1 GATATCATTCCACCCCTAAGCGTACCACAACTACACTCCC
0.03956981516715173 CCACGTTAAAGGACGATTAAATGTCCCTGATGGACCTTGA
1 GAATTCCACGTGAGTCGGGAAAAGGTGATTCTGAGGTCGA
1 GACCCTGACCGCACCACACTACCCCGTCCTCACTACGGGA
0.8088923785179077 CAAGGGCATGGGAGGGTCAACTATACCAGCATGTGGTGTG
1 GCACGTGGAGATCGAACTTCGCGCCGTCGGGTAGATGTGC
0.0340096188728878 GACATATCTAGGTGACATTGGCATCCCGTTGAGTGGTGTA
1 CCCGCGAGGCCTTCCGAGGGCATCCTCGCCCTCGGCCCCA
0.2463672527927848 TGCCAGGCGGACACATTGGCCCTTTACAGGTCAAATACGC
1 TACGCATTAGACTATTGCGGCGTGTTCTCTCTGACCTTGA
1 CAAGTCTGCGTGCTCGCCTATACTACGCGCGACCAACACC
0.3084169443269613 GCGCGCATGAGGCTCCGGCGACCTTCACCCCTACCTCCAC
1 ACCCGCAGCGCCTTTAATGCCTCGTCCAATGCCACGACCC
1 GTTGCCATTGTCGTCTATAAACTACGCCCCCGACGGAGCG
1 GAGTCTCGATTTCGCCTGGCATGACAACGGCTTGACCTTC
1 CCATTTGACCCCAACACACGCTACCACTTCGATACTATAG
0.8288771233629951 GCGCGTGTTCGTACCATGACCGGGTCATACACGCACTCGA
0.9563372544981554 TGTGACCACTGTCATACTCTCCCCACACCTTGCCTCGACG
1 TCCCGGCCCCGTCCGTTCCGCACATCCCCACAACCCCGCA
0.7810034841338003 GAGTTTCAGAACATAAGGTTGCATGCAGCTAACCTTGAAC
1 CCCACGACGCGATGTTCGACCATGCGAAGTCTATTTAGGT
1 TACGCCGCACCGCCGTAAAGTGCGTACCCCTCAACAAGGT
0.8089837036239764 CACATCTTTGAACATAACCTTAGCAAGCACGCACATTAGT
1 GATATCACCAGAGGGCAAGTTCGGACTCCACGCGTCATAG
0.3552283578628391 TTTGTGAAGGTCTAAACCTACGATCCTATGTGCGCAAGGT
1 TCTCAAGGTAACACATCACCCCTGCCAATTCGTCGACCCC
1 ACTGCGATCTAACTTCGACCCCAAACCCAGGGGTGATACG
1 GGGCAAGGTCTTGGTCCCCTTGCTAACAGTGGCGCATCAA
0.5380053868095728 GACCTTGACTTGTACCTGATGTCAGCGGCAATGGTCAAGA
1 CACCCACTACGCGCATACGCTACTTACAGGACGTTGATTT
0.4604366099456438 GCTTTACGTGTTGCGGATAGGTTATGACCGTTGCGCGGGC
1 GTATCGAGGCTGACCCCAACGCTGAGCGCGTTACCAAGGG
0.9402220025371979 GCCCCGCCATCCTCCCCGTTAGACGCACGACCTCTCGTGG
1 ACGCTATCGACTGTCTGAGTGCCCAGGCGCATCGCGTGCG
1 AACCCCGCCACCACCCCGCCCCTACGACTAAGACGAGCCG
1 GCCCGGTCCGCGTACGTCCACCATAAACATCAAACCCTCC
0.5839949791607435 GATTTGACCTTTTACCACGTGGATAGCATTGCAGACCTTG
1 TCGCACAAGGCTCAGCTGCGACCGTTACGCTAGAGGAGAA
0.1211442598573843 GGCAGAGGACAAACTGCGCAAAGATCGTGCAACGCCCTAG
1 ATCGGTGAAGCTAGAGCTTGCAGTATGACGTGGACGGTCT
0.7232448050786582 GGCTGTTGCGCCCAAAAGGTCTTGACCCCTACCGCTCCTG
0.6361334831445985 TCACTCGCCACGAGGAGTCATTCGCCGTCCTTGAGCCTGA
1 GACACGACAGCCAGCCTCCCGCCGTCCTTCCACCCGCCCT
0.6747128017418563 CCACCCCCGCACAACACCCGTCGTCAACGTGCCCTACCCA
1 CTCAAACCACCCCAATGCACCCCCACACCTCCGCCTCCGT
1 CCCCCCAACGCGCGCGACGCCGCACCTCCTTCCACCATCT
1 TCCCAATCCGCACGTAATGATCGGACTGGTTCCCTTACCC
0.2111108945447292 TCGCTCCGGCGGTCGACCCATGTTCGACGACCTTCCCTAC
1 CGCGCCACGTAGCTCACGGTCCTTACCTCCCCCGACCTGG
1 GAAACAAAGTCAGACCGCCCCTGTAAGACAAAGTTGCCTT
1 TGCCGGCCTGCGGGTAGGACGTTGCCCGCGTAGCACACGG
0.178642909514913 GACTGACCTACCCTCCCATCCGTACTACACTCCTGACCCA
1 CCAGACACCGACACCGAACTGAGCGCCCCGCATCCATCGA
1 TTCGGTAGTAAATGCCGATACCCTGCGGACCGGGCGCATC
1 CCAGATTACCCGCACCCCATACGGGGGTTACCGGCGTGGA
1 CCTGCAGCGTGCACGTCGCCTGCACTAAGCTTGTTTGCTA
1 GACGTATTCAAATCCCGTCATTATATGACCCTCAAGCCAA
0.1248702877095568 TCCCCCTGCAATTACACATTTAGTGACCTGGATGACCTTT
1 GACCTCGTCGTTCCACACGTTAACCCCTGCCGTACTTCTC
0.05524236201640535 TGCCCTTGCTACACGACCATGTTTCCCATCCGTATCAATG
1 ACCGCCGTTCTGATCCCCGCATTATCCACACTCCTATAAA
1 GTGAAGACTTATCCCGTTATTGCGCCCCCCGCGCGTCGCC
0.1350266482794738 CGCCCTTGACCCCTCTGCACATAACCCATAACCATGCCCA
0.8102668218102265 CTCACGCAAATGACCCTTCCTGGCATTTGTACGCCAAGGG
1 GGTCTACCACAGCCCACGCTTTTCCTTGCACGCAGTAACA
1 GGACTGACATACCCCGTTTTTCCTCTATATGCCCTCCTTG
0.4207965345657587 CACCGCTTTTCCGTGCCCTTGGCAAAACTCACGCTTATCG
0.5170535820227619 GGCATACCATCACCTTCGAAAGGGTTGTATACACGAAGGT
1 GTAGCGGATCCGCCGCACCATAAGACATGCACAGTCTGTA
1 TGACCCTGCGCTGTACACCCTGGCAGGCAACTCTCAAAGT
1 GAACCCCATGACCCTCGCGCGCATCCGGCTTACCCCAGAA
1 GATACACCTTACCGTACCCTCACACATCCACTTGCCGCCG
0.6935439495468533 TGGCATCTTTTCCCTGCATTGCCCTTGGCCCTGTGGAGGA
1 GGCTGCACATTGACAGACCACCCTTGTAATACCTTATAGT
0.9563025080302306 GACTCCCGGGTTACACCTCGACTCGTCAGGCAGTGACCTT
1 GAGCGTAAGAGCGCTAGGGGGTGCTGGTTGCCGCGTGTTG
0.2635718123766132 ATGTATGGTGGTCCGAGCCGTATCGAGGTCACACGAATGC
1 CATGTCCTTTGCCGTTCGCATGTAGGCATCGTTCCCATAA
1 GCACGCCACCCGCACGTCCACAACTACACACGATACCGCA
1 GCGCTATAACTTTGATGCTAAAGACACAACGCCCTTAACA
0.6141548668105391 CTGTTAACCTCTACACTACCACATTCTTCTCCCGACTGCG
1 TTCGCGGCAGACGTAATTCCCTGGCGACAGCGCGACCTTC
1 CGAAGTGGCGGTACTGGTCGAACTAAGGGGGCGTATTCAC
0.5077792896294324 TTTGTGCCGCATAGGGATCTATGACCTACAAGATGCCCTT
0.7930276195535911 CTTAGTTAGCACCACGTGCCAAGTACGCCGCCCTTCTCGC
1 ACTGCCCTCCCCAACGAGCACGCACCGACACTCTCTTGAC
1 TGAAGGGCGGTTGAACGCCAACAACCGGCGTGGTAAAGGA
1 GCTGAGCCAAGTTCTCGAAACTGGTGCACGAAACACCCCG
1 TCACGATCAAGCCCTTATCCTCCACACCTCCTCACCTTGC
0.10264870081265 CCTGCCAAGGTTATCTCCCTGCTCTAGTACTTCCGTTACA
1 GGTTTGGTGGGCGAGACCAGCTGTACCCCACCGTCTACGC
1 GACCTCCAGCCTTACTGCCATGCTATCCGCGATCCCAATG
0.2847516117671139 GTCAGTGGACGCCGGCTCCTCAGCGGTCATCTTGCCCTCA
0.03684189650486803 TACGCTCACCCGATCCTTACGTCTATCGCAAGGTCGACCA
1 TGACTTTGAGTCATTGCTTCGGAATGCGCTTGACGAAAGG
1 GTCTTCCATAACACAAACCGCGACCTGCGTCTAACACTCC
1 GACCACTGCAGTGACTCCCCGACCACCCTCCGACCTCTAC
1 GTGCTGGGATGACCCCGCGGTGCAAGCGCATCGAAGGACG
1 TACCCTTCGATTGTCCTCCCAATTTGCGAAAAGCCATTTC
1 ACACCTCAACCCATTACCGCAGTTGAATCCTATGCTACGG
1 TTGAAGAATAGGACACAAAATACGTCAGGCCGTATACCCT
1 CGACCCTGCGCCGCCCCCCTGCGTAGGACGTAACGTCCTT
1 GTACGCCACTCCCTCCGATCTCGTAAACGTATCTCCCCCA
1 TGTGCGCCACGGAGTGCAGTGCATAGCACGACGTGCTAGT
0.8156201157891327 TCCCCCTAAGCGTCGAGGTCGCGCGAGTGATTATCGATAT
1 GCGATTCACACCTCGACGCGTTGTCGCCTCCCGCTCCGCC
1 CGCTTTTGCCATGCGCGTCGTGCATGGTGCCGTCCGGGGC
1 CATGTAGCTCCGTTAAATCGAGTTTATACGCATAGGCCGA
1 TGGGTTCCAAGACGATTTGCGCAACTGCGTGATGCAACTG
1 GAGGAAATCTTCGATTATAACTAACATGTCCTTCCGAAGC
0.7103958567729604 TGACCTCAGCCCAAGGTATAACCGCAACACGCCCCCGCAC
1 AGCATCACTCCCCCACGCGGTCACTGCACACCTTACACTG
0.8571153809605422 GATGCAAGAATATTGGTACAGTGACATTCCGTTCCAAGGA
1 GACCTCCTTATGACCTAAGTTTAAATTCGCGTGACTGCAC
1 TCAGGGCAAGGCACACCCACGAAGTGGCACGTGGCTCCAC
1 ATTGCTTTGTTTCGACTGCAAATACAATGTATCAGAGTGC
0.1686892598727288 CGACTGCCCGTCACCGCCCTGCCCTTTCATCTGAAGGTGA
0.2691878789100913 GCGATCGCGGTCATAACCCTTATCCTTGCAAAGGCATAGA
0.764862196128745 TCACCTCAACCACCAGGGTAAGAGGACACACCCACAAGGT
0.603471549417222 GTCCTCCAGTATCATGTGAATTACGTAACCTACGCAAGGA
0.2846037609718865 GACCTTGGGGGCGCAGGTCACGTTTACTAACGCACTGCTA
0.3761409019658867 CTTGGCGGTCACCCACCAGGGTCGTGAACTTGTAGACTTA
1 TGAGTAGTGCGGTCACCGCACACGCGTTACCGACGCCTGT
1 GCACGTGGGCCAAGCCCATGCACCTTGCGTCGTTGCTACA
1 GACCTTCAGCCACGGCCATTCGTACTTGAAAAGAGGCGAA
0.8417074867024144 GACACTGTACGCACTACACTCCCACTTTGCGTTGACCCAC
0.7193546885077584 GACCTTGTTGCAGTGCAATCGACACCGAATGATCACTGCT
1 GATATCACAAGTGCACGTCCCCAACTGACCGCCTGCCCCA
1 ACTGACATCAACGACCTCCCGCAAACCTCTAGGAACATGG
0.05521089692233577 TGACTCGTGACATTGAATAAGCTCATCCCCAATGTCTGCC
0.5569083333034818 GACGTGACCTCCAGGGCTCCCCCCCGCCACCCCTAAGAGG
0.09373024234343062 GCCGAATGCACACGTGCCCTTGGCTGCACCGAGCGTTACG
0.2084113322052218 GACCTTACCTTCAGGGCTCACTCTTGTGCCATTGGCCTCT
1 TGACCCCGAGCGGCAACTTCACCCTACCCCGAATCAAGGA
1 CTATCAAGCGCGTCCTATCTTTGTGTGCTCGCGATTACGT
1 GGAGCGAAACCTCAATGTGACTTGCGCTGCAGCAACAGGA
0.6865455805185976 ACCCTGCACGACGAACCGCTACACACCACCTCCAAATCCA
1 GATGTTCCGAAACCGCGTGTCCATCTAACGATGTCCCCTA
1 CGCAATGACGTATGCGTGATAAACACCCTGCGTGTGACCT
0.02319621807783398 GCCCTTGAACGCTAGTGCCCCCTCATTGCGACGGTAAGGT
0.6574706424826267 CCCAAAGTCGTGCCCAGTAACTATAATCAGTGACCTCCAG
0.08009687479955986 GACCTCTTCACAAGCCGTGACTACTAAGGTCAAAATAACG
1 GTCGTGACCCCGCCCCCGACACGCCGCCGTCTTGCCCGCA
0.05376808121912571 TTGACCTTGTCTTGTCACAGCGCATGTTACGAGCTCCGGG
1 GTCCTCTATTCGTTCTGCCCCGTTGACCGCGGCAGCCATG
1 ACCTTGCGTAATGCAATAGTCCGAGACTTAGCGACCAGGA
0.7948617578085468 CAGCTGCCCTTCAGTAACCTCAGCATTTGTACTCCACGCG
1 CGGGTTTCGCCTTATTCATCCCCGGTGGTTGGAAGCTTAT
1 GCATAAATCTGCCACCCTATACCGGACCCCGGCGGCGTGA
0.3356831908650688 GCCCAAGGACACTGTATACCGTGAAGCTGGATGTCGGTCG
1 TCGACAAGATCGAGTGACCGAGTACACGGTGGCGTGCCTA
1 ACCAGGTACGCACACCAAATCCCTACCCGATGCCACACCA
1 GACCTCAGCTGTCCGAGAAAGACAGTCGCCGGCTGACCTT
0.6116964775002894 TGTAACCTCCCTTGCGACCCCCCGCCCTTGCCCACCTCGT
0.8682886069862819 CCAACACCCACGCCCAACATTCCGGTAGAAAAGCACGTTA
0.9621715385990919 AACCCCCAGTTCACCTTGATTAACAATAAACGTTGTATGA
0.4422411338384242 GACAATGTCACCAGAAGTGCGATTAAGCTTGCACCTCAAA
1 CACCACGTTAGCGCCCTTCAAGCATAAAGATGACTCCTCA
1 ATGAGTGCGGATGGCAGGCAAAACCAGTCGTATCCACCTG
1 GCATTTGCACGACTACGGGTAACCAGAGTCAACCTAGGAC
1 TGACCTTAGGCCAAAGATCGTGGCCCATGCATTCCGACAC
1 CCCGACGGGGCGGGGATGCAGTACAAACGGCCTACGCTAC
1 GTCCTTGATACTCCACATCTGACCGTCGGCGCTCAAAGGT
1 TCGGCTAATGCAGGCCCAAGTACCTTCACTTATCGAAGGG
1 GTACCATCGAGGTCAATGCCCAGCATCATGTATCTTACCG
1 GGGTGCATATGCCCATAGGTTGGCCGCCATAGGTGTGGAT
0.06594121715445168 CAAGGTTAACCTCACAAAGCGCGCCTGTGCCACAAGGTCA
1 GACCCCTGGACGTCATGCGTCCAGCCTATATAACTACGGT
1 AACCTTAGCTGCGCGCAAAGGGCGCACCACAAGTCAGGGT
0.3922420598974015 GCGTCGTCCTACCTCGGGGTCATGATAACGAAGTTTGATG
1 GAGAAGTGTGTTAGTGAGTAATAGTAACAGCACCTTCAAA
1 GTACTCCAATGTTACTGACGTTTGTCATGCACGTAATAGT
1 TCCCTACTAACACACTACGATAGCGTCGTGTTACTAAGCA
0.8069315232182274 CCGTCCTTCACCGTGATATGTTATGAGAACATTACCCACG
1 ACCCGGAACCTGCGCCCTTTCCCTGCCCACCTCGCAAGGT
0.6892842395883158 CGTCCTTGCATACCATACGGACGCAATGGCACCAAGGAGA
1 CGTACGACTCATAAACATCGACTATAGTCCCGCACAACGT
0.6935353786840105 GACCTTCCCATAGAGGACAGATGATAATTGCCTCGCTTGC
1 GCGCACCTTAACCTGTAGAAGCCAAACTGAGGCCTCCCCC
1 GAAACGATCAAGGACTAGCAAGCCACCATCCTCTCAAGGA
1 GTCCATTCGTATCCAAGGGTGTACGATGTGACAGGGGCTA
1 TGTCAACGCAGCATCTCCGTTGCGTCCCGGCCTGTTGTGA
1 GACCGCTTCGTTCTCCACACGATCCCCACACTCTTGGTCT
1 CAGGGGCCCTTTCCTCCTACCGGTGCGCGCTCAGCCCAGA
1 CCTGACCCCATGAGCTACGAACAGCACTACTTATCCTTGA
1 CGCACGCCCGACTTAGCTCGAATCTTCCCCCTTTGACCTT
1 TATCCTGACCTACCGCCTAGACCCCGCGGTCCTAACAGTA
1 CCGAGCTGAACACAAAAAGTGAGTACATACGACGTAACGG
0.965419476774699 GCCATCACACGCGTGCTACTCCACGCCCATCCCAACCCAG
0.1665334352634146 TCAGTCCAAGGTTAATGTACCCACCGATTTCCAAGAGGGG
0.4300853509446547 GAATGACCTTATACGCCGCTCAGCTTGCCCCATTGGAAGG
1 GGTAATGTTTAGCGGGACAGTCATAGAACAGACCCTTCAC
1 AACACCCACCGCACGTGACACCACCCCCGACCACCGCATG
1 GCTATCATTACCGGCCGCGTGTCGTTGACTTGTATTTGCT
0.01779798844990239 GCCCTTCATTGACCTCAAACCGACCTAGTGGCCCCTCAAC
1 CGACTCTCAGCAGAAGCAATGTGAAATACCACTCCTCCCC
1 ACTACCCCACCCGCCCTAAAGCTTAACCACCTATCCCCCC
1 GACCGACACACCCTTCCCGTCAACCTAGCAGCGTTCTTGA
0.1669453921308432 CCACCACCTTGGGCGAAGCAGTACGTTTAACCTTACATTA
1 TGAACCATTTATTTAGTGCACGATCTTCTCCCACGACTGC
0.936567914071918 ACTCACGGGCCCCCAAGGGCATGGCAAACCTCCCTCCACC
0.8044225006581259 CAGTATATCATTGACATAACGTACTGGGCGAGCTCAAGGA
0.4151265015292451 GACCTTTTGCATCTGCCTGAGATGGCAAGGACGATGCGGA
0.2376108083492004 AAGCGAAATCGAATCGCCAGATCATCCTTGACACCAAGGA
0.8541281381309872 GACACGAGGGCGACTCACATTCACCTCTTACGCCACCTTC
0.3021507569555684 CTCCTTGCTCTGGAACGATTACCTCACCCCTTGACATTGA
1 CACAGCACCGCAGAACAAGTTGCCCCCGAATACATATTGT
1 CCCACCCACACTACACAACCTGTCCGACCCCACCCCCTCC
0.782658804606069 TGATCCCTAATTGGCCCTCACAAGGATGGACACGTGACCT
0.9247356895850853 GACCTTGGGCACGCGGCACCCCCAGAGAGTAACACACGCA
0.7790031706865462 GAAGTTTACCCTTGACTCACCCTTCCAACCCGTACACTAA
0.7958048033706722 GATGAGTATCGTTTATCCTTCTTCCCACCTTGACTCCGTA
1 AACAACGCAACCCCCGACCAATCTTAACGCCAACTGGTCG
0.966330560310752 GAACAGCGCTAGTAGCCACCTTCACCGACCTCTGAGACTG
0.7157040520756031 GACCTGCCCTGCCCTAAATATAAGACCGCTTGCCCTTCAC
1 TACCTACTGACACGATCCTGCCAGCACCGTACCATGACCG
1 GGGCCGTTAAACCCGCTTGCGATACGTGTCATTCAGGGGA
0.05681686375123017 GATGTCACCAAGGTGACTGTGCGCCAGGAGGGCCCTGTGA
1 ATTCGTAAGTTAATTTGATGCGGACGCGCACCCTCTATGA
1 TACGTTTGGTTCCGGAACAAATGCCCTCGTTGCTGAAGGT
0.1947179815860622 GAATGACATATCGTCATTGCGACACGTCCGGTTACGTATG
1 GGAAACACGCCTGGAACACCGTGAACTGGCAGACGACCAC
0.7100774469880867 GTCCTATTAGCCCCCTCTACGTGCCCACGGGCGTAGAGGT
1 GCTGATACCCTCACGGTCTTCCCTTCCCACCGTCACCTGA
0.7193678490000591 TAGCACCTAGTGGCATAAGTACTGAAGGACAAATGAAAGT
1 GTCGAGTAGTGGAACCGAAAAGTTGGTCCGCAACCAAGGG
1 GATCGCCTGCCCCCGTACAGATGTCACCGCAAGTCCCATC
1 GAAGGTCACGGATCTAGACTGTAGCCATTGTAATGTCGTC
0.02007870348310779 GACCTCGTTCAAGGACGGCAGGCTGGCAATTACTTTCGGT
1 TATGATACGACGACCCGCAGTAAGCCCCACTTGTGCCAAG
1 CAAATGGCTTGAAGGTTACCCAGGAGCGAGTTATTGAAGT
0.4672956705322347 GCATTAACCTAGTCGCGCCCTTCAAGCCACTTTCGCGTAC
1 GACTTGCGAGTCCCCCGCACGGGAACCCTATTTAAGGGCG
