svm_type c_svc
kernel_type gkm_esttrunc
L 10
k 6
d 3
nr_class 2
total_sv 23055
rho 0.656977
label 1 -1
nr_sv 10010 13045
SV
1 CACAGACTCTGTTCACAAACTCCCGAGAGCGATTCACCAG
0.08970673705355682 CCAACTTCCGTGGTAGCAAGACACGCAACCACGATCATGC
1 GGTATTAAGGCCCTTAGGAAGCAGCTGCGAATCGCCTGTA
1 ACGTTAACGAACGCACAATTCCTATAACGTAGGACGAGGT
1 GAACACGCGCAACTCACGTCGGACCAGCACATAATCGGCC
0.4793612654335063 CCCTTCCCACCCCGCCCCACGCGTACTAGGACCCAAGGAC
0.7359434868957921 CTGCATCCGCTGTTGACCAGTTATATCCTGGGCAAAGGTC
0.4064736648491954 AAAAGCGTTCGCCACACGGCGTAAATCCCGACAATTTCCG
1 GGCGCCCCCCCACAGCAAGCGCCTACTTCTACTCGCATGG
0.1898749586006598 TGGTTCCGGAAAGCCCTGAACAGTATGCCCTAGCGCGGTG
1 ACCATCCGATCTTGGCTTTGGGACCCCATAGTTATGGCAC
1 AGGGACGATGAGGAAGTACGTTCTCGAGCAACAGTCAGTT
1 CAATTTTGAGATACTATACGCAATCCTACTGCTGTATCCG
1 CTTATTATTACACCGATGCCCATCCCGTGCCTATCCCTTC
1 AAATAAGACTATGTGAGCTAGGGGGCTCGTAAATGCAGAC
0.9347159640978462 CGTGTTAAGTGCAAAGCTATGCGCGGGCATCCCTTTGTGT
1 CACTAATGCGCCTGCCGTACAGTGGCCGGACCGTCCGGCG
1 CGGAAGTACTAATCCCTGGGATTACCGCGACCGCGACCCC
1 CCTATTCCCACCCACTCACCCCACCCCAATGGACCCCAGC
0.9866251300592297 CAACCGTTTCGTGGTTTTATGGCGACACGTGTCCCATCCG
0.7148999404494518 TTCCGTCCCGCGCAATACGGCCGCCCCCCCCACCCCGCGC
1 AGCTAAGCTACCGCGTGGAGTTATTCTGCATCAGCACACG
0.4801713719480705 GTGGCAGGATAGCTAATCGTATGTGCTATTGCAACATCCG
1 AGGCCTGCTGCCACTAAGCACGTCGCAGGCCGTGCTTCCG
1 GAGGCGCAAGGCCCCCTCGGCCACGGTCCGGCCGCTTTAC
0.03447448622508685 CTACTTCCGGAGTGTCGATCTCGCTGACACTCCGCTGTCC
0.144300550787317 GTACGTTCAGCTTCTACAGCGTAAGTCAAGGGGACTTCCG
1 TATCCGCCTGCAGACCGCTTAAGGCTCGTTGGGCCTTCCG
1 CGTAACCTTGCGCTCGCCCACGCATCGCTCCAGGGTTCCG
1 GGATCGATGCCAAAGCTTCGGAGCCGGATTGTGCGACGAC
0.4694579958282074 CTGCTTTACGCTAATTAGTCTAAACCAAGGTTCGTTTCCG
0.1399190076364484 CCGGATGCGCGTTAGTGCTCGGCACGATAATTATACGACC
1 CTGTTCGAGCAGTATGCACTGACTATACTACGAGTATCCG
0.8842174930401672 CCCACACTCAGCAACAACCGTAAGCTCTGCTGCCGGTCCT
1 AGTGTGTACCCAACCGGTTGCTGTCTTACATACCGGTTCC
0.4340676839692738 CTGTTAAAAAATACGTTATGACCTAACGGTATCACGTCCG
1 CACCGCGTTTCCCTCATCCATGCGATAAGCTAAATGCGCT
0.9924313289365286 GTAGGCCACCACACAAGCTGACAAAGCTTCCGCCATACGG
1 CGTTATTCCGGCGCCTGGGTATTGACCATCGTCATGTTAC
1 AAATCCTGTAGCATCACGCTGGACAACAAACAACCGAGGC
1 CGACATCCCGCACTGTGCTCGCGCAAGTGCGCTATGTGCT
0.680655858055221 CTCACAGGACTCAACCCGTGTCCGTTGTGATCCGGTGACC
0.4691666059259954 CGGACATCCCCCACCGAGCGACACGTCACCACGTACTCCG
1 CCGTATGGAGCCCAGTTGTAAGTTTTTGAGTGAACTTCCG
1 AGCTAAGCTGCTCATTGTCCCGCTATTGAGGCAGCATCCG
1 TGTCCCCCCAGGCGCGAAAAAGGTGTGGTTTTCCGGCCTA
1 GTGGCCCGCAGCCAGTGTCCGCGCACAGTATCCGCATGGA
1 ATCGTTTGCTTGCGCACCGTATGAGGGTCGCTCATCCGGC
1 CGACACCAAGAGCTAACCGAATGCGTACCACGGACCTGCT
1 TGGCCGACGGTCCCATACACAGCCTCCCCAAGCGCGCGCC
0.827134901986159 GCACTTCCGCTTGTCTGGGGCCATAGTTCATGACACGTGT
0.8196474547915367 GCGCATCTGCCTCACCGCCCCCTCAGCCCCACCCACCCCT
0.1822314391973074 CACTTCCGCACGTGTTAGGGCCGAAGTACCTTGTACGAAC
1 ACGCTCGTAGTCCACACGGCCAAAAAGGTACCTCCACGGC
0.9369248766204707 GAATTATAAACGTAGCCTGACGCCGGTTAGATCGCTTCCG
1 TCACCTCCGGTCAATCGCCCGTAAGTGTGGATAAGCTGGC
0.9764180360930902 TACATACGAACATTTACGCGTTCATCCTTTTCGCAGAGGC
1 CTCTGACTAACGTCTTAAATCTAAGAGCGCACCTCTTCCG
0.5964601503202683 AGGGCCGTAAGCCTGAAACCACCCTGCCTCCGGCCGTACT
1 TACGCACATTCTTGCTTGCAAGCGCTGCACCCACGCCTCC
0.8907395517626573 TCGATAAACAGGGTCGCTAACCTATGCTTTTGCGTTTCCG
1 GCAATCCGCGCAGGCATCCGAACGCGTTGCAGTGTGTGCC
1 AGCAGGACACTTTGGACGTGAACATGTAGGAGCGTGCTAC
1 GGGCTCGCTGCCTCTGAAGATCTAACTCGGTACAGTTCCG
0.392916185443491 GAGTACTACTACGTGACAGGAAACCGTGGTCGCGACGAAC
1 GTGCGTAAACTTAAACATAACACGGGGATTATGCTTCCAG
0.3402648857301384 GAAACTACGGTATCGTAAGCCCGTAGGCCTTCCGTTCCCC
0.9429292920769436 ATATACACCTGACAAACGTTAAAGTCGAGGCAACCTTCCG
0.7047172761977752 CGAATTCATCCGGCGTAGCGCGTTATCGTTCACAACGCAG
1 GTTTGACCGATGATCTCCGCAAGCGCGAAACCTTCGAAAC
1 CAGGCCGACCCCGCCCCATCTGCACTCCCCACCCGTGTAC
0.7564650956518653 GCGGCTTCCGGATCACTCCGTTCCCCTCCTGCTGCTTGCC
1 GTACGGTTTCCCTATACTGCATGGCCTGTCAGCAAGAAAC
1 TACCGCCTCAAACGACTAAGTGCGGACGCTACAACTGGCT
1 CCTCGAGCCGACGCGTCCGTTGAGGCTCCCGGAGCGCGAG
1 TCAGCCCTGGCGAGCGCCCGAACACCTCCCCACCAACAGC
1 CGGGGCGGTGGCGACTGAAGCGCAGGTTTCGACGCTTCCG
1 TCAGGGCCCGCCCCCGCGCCCTCACCGGGCAACCTGAACC
0.764095308329202 TACTTCCGACAAAGTGCGTAAGAAACAACGGATAGCAAAA
0.04151027727211837 AGCGAGCCGAAAAGCTCACTACGACCTTCCGGCCCAATGA
1 CCGTACGAGGCGGGCAGGGTGAAGTTTAAACATGAACGCG
1 TATGGGACAATACATAAGGTTAGCACCGATGGCCCATCCG
1 CATCCGCTCTCGCCACCGCCCCGCCGGTCTTCGGTACCGT
0.2754526058943583 ACACGAGCCCGTACGTGACGCAACGCATCGACGTCCGGCG
1 CAGGCACTCCCAACCGACTAGCTAAGAAGAGAAACTTGCC
0.7312125946337558 AACAACAACACCATATCAAACACTATACGTAACACGTCCG
1 TGACCCCCCTCCCGCCCTGACCACGTGTAAACAGCCCACG
1 ATCACCAACGAGCACGGCCCGATTGCTTTACCCACATCCG
1 CCAGTAGTACAGGGTTACGAACGGGAAGTCGACCACGGCC
0.7951758433948978 GGATCGCTCCGGTGCTTACTTAACGTGATCATTAAGTCCG
1 CAGCGAGTATCACGTATGACCGTCCATCAACTACCCTAAC
0.7505735229724618 CAACTTCCTGCCTCGCTCTAGTAGGCATCAAGTATCAACA
0.2582273690666676 CACACCCTCGGACCACAGTAAACAGTAGCACTAGTTTCCG
0.2732290676420534 CTCCACCCTGACCACCCCCCCCCACCCTCCAAGGGGAATA
1 TGCGAACACTCCCACTATACCTTACATAGCAAGCTATCCG
1 AAGTCTCGAGACTTGCCCGACAGACTTGTCGCTAAAGAAC
0.569353472606369 CTAAATTTCTTTGATGCCCCCGCCTCGCGTAACGCATCCG
1 TGACTCTCGGCCAGCTAACTGCCACTGAGTTACAGTTCCG
0.06848885631826922 AACTACCGGATACGTAGGCTGCAAGAATGCTAAACGTCCG
0.2625629458320909 TCATACAACGTCACACGGACCTTTGATATGTACTTCCGGT
1 TGAACTAACATAGTTGTTGCTAATCGCGGCATATGTTCCG
0.11796547060381 CGATCGACTATCCCACCTCCCCCCTCACCACGTAGCACCG
1 GGCCATCCGGTTCGAACAAATTCACTAACCCAATTAGACC
1 TACACAATGTACAAACCACTATCCACCGTAATTGTGTCCG
1 TGATCAACAAGCTTCGTCCTAGTACTCAGGGGATAACCCT
0.5583357633447122 AGCACAGCTGTTGCGCTATTATGATGTAAGCCCGCTTCCG
0.5870283917709637 GTTTGCTATGCGCCCCCCTCTCCTTATGCCCGAGCATCCG
1 TACGCGCGTTATCGCGGGATCCGCAACGCTCTCCTGCCGT
0.4762342489052077 TTTGCCACACGGGAAATAGGCATAATGCGTGCCGGTGCAG
1 AACTGCTTTATCACCTCGTCAAACCTCCCTCATACCATGA
0.4471632353310588 TCGCGATGACTACCGCACAGCTTTTTAAGTGATACTTCCG
0.428704788879052 TTCGAAGTGATAATGCATTCAGGAAGTGGTTAGAGATGCC
1 TGCCACTCCGAACAGACACATTGAGTATGTCCGGACTGTG
0.537578401184987 CGTTAAACTGACTTTCCGTTCCTTGTACGATAAATTCTTT
1 AGAGTGGGAAATACTACTGCTCCCGGTACAAATTGCTCGC
1 ATCCGGCCCTCGCCTGCCCTATCTCGCGTGACGAGATCCG
0.7015344216849916 AAGAGAAATATTTCTGTCTTGATAGGTAAGCGAGCTTCCG
0.9329088461936561 ACAGCCCCTCCATACAGCGTGGTCGTTCCCACCGGAAACG
1 TTAAGATAGCAAGACACATACTGCTTGCAGCTCGCGCGGC
1 CGACGTCCACAGGCCGCAGCCAAAATGGTGCGACATTTCC
0.7493298993716185 TGAGACCGGGTGCCTTGCTAAGCATTCGCAGGTGCTTCCG
1 ACAGTATGCGTTACTCATTTTGATATGTAGGTCGCATCCG
1 CCCCACATTACCCCGCCCACGCACCCCACCCGCATGCGCA
1 CACGCTCCCTCCCCTCCCGAACCCCAGACCTCCCCCCTAC
1 ACCAGCTTCCTTCCAACACCGCCGCTGTCGGAACGTTCCC
1 CATAGAGTAGTAAAATGACAAACCGACAATGACCCTCCCG
1 TTACCTCACCCCATCGCAACGCAACGTAACACCACCCCCC
0.5892439529088127 CAAAATGTTCCCGACGCCCCTCCCAACCCCAACCCTCCCG
0.4749882392188108 CGTCCGTTCGAACCGTATGCTTACGTTTGTGCACACGCCA
1 CTCATGACCGGTCTGCAAGCACGCCAATTCTTAGTGAGGC
1 CATCCGTTTCTCTACAACGCTCACGTTACTGCTTATTTGA
1 CTGTCCTGGCTACAACAGCAACTTCACTGGGCGGCGCTCG
1 CGGCGGATCAATGCACGTATAGCGATATTATCGCCATCCG
1 CGGCCTGGACCCTCGTTCACCTCCCCCCTATAATACCGCA
1 GGCTCAGGGCGATCGGACCGTAAGCAGTGCTGCTGCCGGT
1 ATTTCCGCCCACCAAGACCCGATTGGGACGACAAATAGGA
1 GATGCACCACGACCGCTACCATAGCTGCTCCCTACACTTC
0.5629001487247312 TCTGTTTCGTTGCCATCGGTAAGTGATAATACACGTTCCG
1 GGTACCACGCTATCCCTGCCCGTCATACCCACACGTCCGG
1 GCGTTATAACATGGGAGGAGGCAGTGAGAATTAAGGAGAA
0.670739375115261 CATACCGCTCCAACCCCCCTCGCACCCCCGCCACCCATAC
0.3530431459193429 CACTACACCAGCCCCCCACCACCCTGCCCGCCACCCCATT
1 GAGGCAAGAGCATTAGTTGTTCATAACTCGCGGTGTTCCG
1 CGCATCCGCTCAGAGCACCAGAGCCGCTGAACGTAAGCGC
0.9484440032807072 AGTGACGTCCGGTGATCAACGACCTCACCCGACGTAGCCA
1 CAATGGACTGGCTGACCGCTACCTACCCTCTCCATCCGCG
1 CGGCTAAACGTGCATAACCGCCCCCCGTGGAGCGGTTCCG
0.1409220233213907 CCGACCGCACTTCCGCCCCCCGACTAGTTCCAAAGTCAGG
1 TGGCCTACACCCCGCACGCACCATATATAGAACATATCCG
1 ATCGTTACTCCATTAAACACATCCTCTCACACAGCTTTAG
1 CTTAAGAACTATTCAGGACTGTAACCGCGATCTGCACACC
0.4463785392998485 AAACACACTGGATCAAAGTGGACTCATGTCCGGCCGGAAG
1 CATCCATACTTCACCCGGAACCACGTTAGGCCTCAAGGCC
1 CATGCTGAGCAAACTACAAGTGTACGATAGGAGTGTCTGA
0.7127140008469921 TAACCAGGCGTTGCGCAGTACCTCCACTGCCATATCCGGT
0.4383447568163851 TGCCCTATTCCGTTTTCGAAAAGCAGAACGCGTAAGCGAC
1 TTTGGTTTTGCTTAAACTAGGTTAGGCAACCTGATTTCCG
0.6981765056328724 ACTACTCGAGAGGTATGCTGAAGTAGTGCCACAACTTCCG
1 ATCTCCTTTGAGCATATATCCTATTCTTAACTGCACAGCG
0.8305415965294937 CGTAAGGGCCTTCCTGGACCAGCCGTATGAGTCCCTTCCG
0.7474191267967765 TAGTAACAGTGAATAACGCATCCGGGCCTACTGCCACCAT
1 TCTCGCCCACCTCTCGTCGCTCCCTTTTGCTTATCGATAA
1 TTAGCCTACTAATTTAAGTCTTGGGGCACTACAACTTCCG
0.5811892649972873 GATATCGATATGTTCGACACCCGCGTGTTGTCGACATCCG
0.5975322351710632 TAACACAGGTGATTATCGCTACAGGACTGCACGCAATCCG
0.4474005997489773 AAACGGCTCTTACCTCCCTGGCCGTAAACGTGTTGCCGGC
1 TTTCATAAACGCTAAAGCACTTCGTACGGTCCGTTTCCAG
1 CGAACGTATGCCGAACCTCCTAACCTCGGCTGAACATCCG
1 TGGGGACCACAAAGTGCGACTATAACCGCTCCGTTATCCG
1 TGACATACAACGTCTCTTATATCCGCCAACTCGCTCAACT
1 TCCCTGACCATCGACTAAACGGAGCAGGCTCGAGTTCATC
1 TGCATATCCGGGCTGCCACACGACCCCCGGCGCCAGACTA
1 CGGGCAGCTAAGACATCCAAAGTCTTCCCTGCCCCCCGGC
1 AGCGGCCCGCTAGGATGCTTTCATATGTGTAACACATCCG
1 TAACGCATGACAACCCCCTTCTTGTCGTACCGACCGCGCA
1 GCTAGTAATTTAGTCCTTGGTTCAGTTACCCCATTGTAGC
1 TCAGCGGCTTCCCCGGATTGGGTAGCGCTGACTTGCCCAG
1 CTTTACTGTGAACCGAACGGTTCCTCCGAACATGCGACAA
1 GCCGTCACCTCCTGGGACAACTGGCTCAAAGCCTACCCGC
0.02555456066740765 AAACCAAGACACGCGAAATGTACACGCTACGGCGTTTCCG
1 AGCGGTTACACTAATGCCCCCCCCTTGAGGGCGACTACCC
1 AAACCCCAACGCGCGGGAAGCCCTGCACCGCCCTCCACGC
1 CAACCCGACACACTGTCCCACGCGACCCTGCTCACTACTA
1 CTGCAATCCGAGGTATGGTGCAAATCGCTGCCGATTTCGA
1 GCATCCGACGCGTCCATGCAGACCCGTGAGCCAGACTACC
0.4964322816512724 GAACTATGTCAACATCTACGACCCGTTGAGTGCACATCCG
1 GCAACGAAAGGCAATGCTTGTAAGTCTCGATGCGCTTTCG
1 CCAGAGTAGACCCCCCATCCCCCCCGTGCACCACCCGTCC
0.6593000066337752 CTCGCCTTGCTGTAGGTTTACGTGTAAATATACGCGTCCG
1 CATCTCCTACATGCCGCTCGCTACCGCCAAGCCGTCTCAT
1 GGTTGGTCCTAACCTCCGTGTCGGATAGGGCGGAAAAATA
1 CCATGCCCTGCAACGTGCCCCCCCCATAGCACGTACTGGA
0.9393306410583084 ACGCTCCTAGAGTGTACACCATGTTCCAAAATGGCATCCG
1 CGCAGCAGATAAGCGTCAACATGGACAGCTGCCCCTTCCG
0.5438633344032731 GCGATGGCCGCAGGCAGTATAGCGTGTTTCCACTCACACG
1 TTACAGCCTAACCCCCATCCCGCCTTCGGTATCCAGACCT
0.9831958997033189 GACCGGATGCAACTCCCCACGCGAGTCAGATTGTTGTGAG
0.8939397052988628 ATTTCCGCTGTCCATCCCTGTGTAAGCACAGTCCAAGGCG
1 TAAGATTTCCGCAATCCCCTCGCTAATCGTAAATCACCGG
1 AAAACAGCGGATGGGGCGACGTTTGTAGTCCCGTGAACGA
0.9378540107105121 CGGAAGTGACTGCTGCAGCGAGTCGTACCTGGTATAAACC
0.06164982362293993 CGTTATCCCCATGCCGCCGTAAATCCCCAGATGTCCGGCC
1 AATGTAGTTAAAACTGACGGATCAATATCGCAGCCTTCCG
1 ATGTCCCGCATAGGTACCCATCGTAAGAGCAGCATTACGA
1 AGCACGGCCCACCCCTTCTCGCCATCCCCGATATAAACGC
0.8407270289508583 CGTCGAACGCCGCACTCTTTGGTGACTAAACGTGTTTCCG
1 ATGATTCCCCGGCGATAGTAAGTATCCATACGACCGCTAC
1 ACCGTTTAGAGTGTATAACCGCGACCGTAATCCCTCCCAT
0.3887968236616876 CCCCCCCTCCAGCCGTAAACTCGAAGCCCTCGCGTCCGGC
0.9673909536739289 ACCCCCCCACCCCGGCACCGTTCGGCCGCCACCCTGACGA
1 CCACACTCCTCCGCCCCCCCGTTGCCCCGCACCCCACACC
0.6638316376333286 GCGTGCTGCCCTACCGATTGCGGCTTCCTGTGTTCACCTT
1 ACGGAGTTGATGACTATGTGTGCCTTCGCGCAAACATCCG
1 GCGGGATTGCCCGAAAATAGAAAGGACAACCCATATTTCC
1 AAACGCTACTTGGATTATCCTTTCAAGCGATACGGATCCG
1 CTGGCGTACGCACCTTACACTGTATGACCTCACGTGTCCG
1 CATCAATGCAAATGGACAACCAAACTCATGAAAACCGGAA
1 TAACCATTTGATCAATAAGCGCGACTGTCATCGCCTTCCG
1 TGACACCACCCCGACCCCATGACAACCACCCACCCGATGC
1 GGAAGACAAGCTGGAATGTAGGTTACCTACGTCACCTCCG
1 TCAGCCACCCTCCCTCGCAGCGTTCCGCAAATAGTGCCAG
1 ATGGATTTCCCCGGGGCCTCACGCAGCCCAGCTAAAGCCC
1 GCTCACTCCTGCAGAAGGCCACCACCTCCCCCTGCGCCTC
1 TGAACCCAGACTTTCCCCCGGTTACAGCACAACCGAGGGA
1 AACGCCTACAATACACACGNCCGTGCCCCGCTCACTTCGA
1 TCAATCCACACCGAGCTATGCCACCAGATTCTTCCGAACC
0.4866069205567047 CAAGAGGCGTAACTGTATGTGATGTAGTTCCGCTCTCTGA
0.9183989462574047 CCAAGCTATGTGATCGAATGCACATCCCTTGCTACTGTGG
1 CAACACGCGACCTCCCACTATTTCAAGACCCTGCCTACCC
1 TATCTCTGCTGTTGGCTATTGTAAATGCGCTGTATTTCCG
0.2518954401036738 ACCCCGTACCAGTAGGCGACCGACACGAGTCGTGCTTCCG
1 CAACGCCAGGAAAAGGACCGTCAGGCTGTAGCATCAACCC
1 CCCGCGCGGAAACCGACGCTCCACCTGCCACAAGCTGCCG
1 ACGTGAAAAACGGGCTCCCCTCCGACCACCCACCCCGCTC
1 AACCTTATGCCTTTAAGCATCTAACTAAGTATCTGGGGCT
1 AGGACGGCCCCCTATGTGACCCCCCTTTGCGTCCGCCCGC
0.9010880685858436 GCGCGTCCCGAATACGCCGGATCCGCCGTTCTCTCATACC
1 TTGATCTCTTTCCTGTAAAGCATGGTCGAGCGAGTCTCTG
1 ACACGCTTCCACCTACCTCAACTACGGTCCCCCCACCACC
1 ACATCCTGTAACTGTCCTCATGTGGGAGCTTCTTATGTTA
1 ACACGCCCAGGCACATCCTGGGCTTCACCACCCCCCGGAT
1 GCATCCGCTCGTAGGCAGCCTCGCGCTCTCGAGGCCTCGC
1 CCTACTGATTACATTAAGGGCGAGGCTCCCTGCCCTTCCG
1 CCGCCAAAGTACTCACGCCCCCACAGCTCAACCATATCCG
0.4977770170681067 TTGCACTTCCCGACTTTCCTTGTCGCTAAGTTCACCATAC
1 CAACCGGACCCCGTCGATCATTAACTGGCGAGTCAAGTTA
0.3035562407344289 TTAAAGTACGCGAAAAGAGCTTTCCGGTACCTTGGCTGCG
1 GAACCCCCCCACCCCAGGCTGACTCCCGTGCGCCCCCATA
0.3330439991864452 ATGGCTGTGTATACGTCCGGTTCTATAGGCGTGACAGCGC
0.7747476684957316 ACACGGCTGCCCCTACCGCGGTGCTGCAGACACCGGAAAC
1 CATCGCCCACCCCAAACGCGCACACCTACACCCACCCCGC
0.5635578310825496 CCAATAATCCGCCCCGCCACCCCGCCCGACACCTCACCAT
0.3340676365680669 CCCTACCCCTTCTTAAGCACCGCTCACCCGGTAGCTTCCG
1 AACCACCATTTAGCGCCCCCCCCTCCCAATGCCCCTTAGC
1 TGGCTAGTTAACTTTCTCTCCCGCATATTGGTTACCAAAA
0.9259341787664032 ACGAACATGCACCGTAACAGGACCTTAGATGTGCCGGTGC
1 CTCGCGCTGCTCTTTTCGAGTAACTTCCCCTACCTACTGT
1 ACACCCATGCAGCGGACGCGGCCCTGGAAGGCTCCGGCTC
0.0296953797418974 TGATTGAGCTGCTTCCTGTGCAGCGCTCGTATCATCTGCC
1 TCAGTAGGCCACTACGCGCATCCCGTTGCATTGGCATGGG
1 CAATCCCTGCGTACTATGAACAACTATCGTGGCTCATCCG
1 CAACCCCCGACGCGCTACATAGCGCCACGACCCTCTCCAA
1 TCCCCTAGTGTCCGCCTAGATCGTATGATTCAGCACGCTT
1 ACACCACCGCTACCCCCGACCCCCTTTCGCCACACCCGCG
1 ACTTCCCTGCCACTGTCTGTGGCGGCTAAGTAATCGTCAA
1 CAAAGCGTTTGATATATTATGGCTACCCTTACACGCGATA
1 ACCCCTCTCCCGACTCACACTAGCTCCAGGCCACAATCCT
1 ATAGAGAAAGCGTAAAAAACCTTATTCCGCTCCTGGGTGC
1 CGCTACAACCACCCACCCACACCCCCCTCCTAAGGATACC
1 TCATCTATACACCAATTAATTCGTGAAACTGAAGTTTCCG
1 ACGCATCGGTATCCGCCCCAGCCCAAGGGTGGCACCACAA
1 CCACCACCAACAAGTAAGTCCCACTCCGTCGCCCCCCCGC
1 GCCGGAAAGCGCCGCTGATTCCAACCTCCGGATCCTGAGT
0.3405075443438361 ATGGCGACAACAAACCAACTAGCTAGCCAGTTCCGGCTAC
1 TGGCAGGGGTTTGGCGGAGAAGCGTTTATCACAAAAACAT
1 CAGGCCCCAGCTTCCCTCGCTTTGTGTCCGCGAGCTAAGC
0.405774101956269 ACCGGATACGTTTACAGCAGAAAAGATACCTCTTGCTCTC
1 CCTACATCCGCGATGGACTGGCGAAAGTATACAAACCGAC
1 CCCCGGTCGCCCCGGCCTGCGGAACCCTTCATATTGGAGA
1 TCCGAGACCATCACCGTTTTGCCAGACAAGGCATCGGCTG
1 AGAGCTATAGACGAAAAGTAGATTCTGAGACTATTACCGA
1 TCCAAATTACATCTAGTGGCCACATGAAGGCGGAGCACTT
0.4867482512193231 GCAACGTATGCGGCGTCTCGCGGCGCGCATCCGTTCCCAA
0.01402924142720605 GATTATTGTTTTCCGAGTAACTAACTGAATGTTACTTCCG
1 AGAAACCCTCTCCACTCGCACCTTCTTCTGCTTTTAGCCA
0.05195743867967437 CCCCCCAGACGTACATTAAGGCATCCGTAGGTACCATCCG
1 ACCCTAGCGACCACAAATATCAGTAAGAGACAACCTCGCA
1 ACGAATCCACCCGAGTATCGCCCCCTCACCTTCCTGCGTG
1 CAACGGTGGCCCACCCAAATCCACAGCCCGCCCCAAATCG
0.2922527285174935 CACACCAGATACACAGATTTCCTGCCCTCAACGAAATCCG
1 CAAAATCATCTCAGCACGCCACTCCGCCTCCCTTCCAACC
1 AACGTCCCCCGGATAACCCCATCGCCGTAACCACCGCTCC
1 CGAAACTTAGCGAGCATTGAGCAAATGGCAAGGCATTTCC
1 TTGTTGGCTGATCAACTCGAGGGCATTTCCTGCGGGATGT
1 ATGAATACCGAATACGTGGTTAGAAGAACCCTCGACGCGC
1 TATAAGGGGGGTGTATGCCAACTACCACCCAAGGCATCCG
0.4837749468055444 TAATCTCACATGACTCCGTAAACTAATATGCCTGTTTCCG
0.7707259888617425 ACTTAACATTATCAGCCGATAAGCGGTATTAGCTTCCGGC
1 AGCTGCAAGATCTCCCCGTAACTGCGCCCCCAGTTCCGGC
0.06135678842760581 ATAGTGTCCCACACTCAAACTGGGGAAAAAACCGGAAATG
1 TTCCTCGACGGAGCCAGTTTCCCCAGCCATAGCCACATCC
1 TCATCAAAAGCATGAAAGTGGGTGGTTACTATCCACTTCC
1 CGGGAGGTTGCCCGCGTACCCCGCGCTAAACGTACGCACC
1 CCAGTAACAAGCGATTCACGTTCTTGTTCCGGGGGGAAGA
0.944244126138003 TTACATCCGGTAGGAGCCCAAGGTCGGTGTGTCCAATCTA
1 AGGGCTTCCAGTAATCGATCGGAAAGATAATTCTACCCTT
1 CCTCACCTATCGTGCGCTCGCACGTGCACTGACAGATTAG
0.5198301783849547 AAAGTTGGTAGAAGCAACGAAATGATAGCTCGCACTTCCG
1 TACTGCCCTCCAACGATCACAAACCTAACCGGAACACATA
0.5596619068617994 ACTTCGTTCCGCGTGTGAATGGACCGGACAAACCGGGGCC
1 TCATAGCCGTAGTAGCATTGGTAAGGCGCTCACCCTTCCG
1 GGTGAGTGGTATAGTACTAATGTTCCAACGGTACATTCCG
0.5802025751263697 GAAGCTGGTTGACTAAGTCCCCGTGTCTAGCGAACTTCCG
1 CCCACCGGCGCACCGCCCACACCCACTCGCTCCTCCCTCC
1 AAGTAACGACTCGCTTAGTCATTCCGGAGAATCGAGGGTC
1 CGGCCGAGGCGGACTTACATTTCAGGTATGTCAATGTCCG
1 GTGCTATTCAATGGGCTCTAAAGCTTTATGGCGCTTTCCG
1 ACATAGCAGTACTACCACACGGCATGCCCCAAGTACCCCC
0.2806831313498312 CATTTCCGCTCAGGTAATGGCTTGTTTCCTCAACGTCCCT
1 CGGTCAGGCGCGCATCGACATAAGCGCGTTGAGGACCGAA
0.1588496165331909 CCACTGAGGTGAGAAGATTTCCGTTTCGTAACCTTAGATG
1 ACCAGCCGTCAATGACCGCCCTCTTACTCGACGACACCCC
1 AGTCGAAGGATCGTTAACGTGCTCTCCTAGCCCAATCCAA
1 ATTAATGAAGAAATACTTCTGCCCCGTGAGGATCGAAAGG
1 CAGAGTCAAAGAGGCACACGCAGTGCGATACAAATACCGG
1 AAGGCTAAATGGTACATGTTCCCCTCCTTGGTTTTGCTAT
0.6026272430386458 TACTTCCGCAAACACACTGTCCGGAGCTTCATGACGCAAG
1 ACAACTGATGGGTCAGTTCCGGCAACCCCCACCCTGAGAC
1 CTCGTCCTCCCGGCCTCCGCGTACCCACTATTCCGGCCAC
0.7782669648869717 CTTTTAACGAAAGCAAAAACATCCGCCGCGAGGCCCAAAG
0.5490397319170359 TCGAACCACCGTTAAGTAATGTAAAGCAGCATTCCTTCCG
1 AGGTGCATAGCGCACTGTTATAAGTCCGGAGTGCCTTCCG
1 GCATGATATCGAAAGTGCCTTGTAGTCCAGAGGGCGACCG
0.9479410857212818 GTCGCCTCTGTTGCTTGCTAATATGCTTCTACAGCATCCG
1 CCCACCTCAGAACCTACAAATTCCACACTTCTACGACCAA
0.2129522097061793 GTAAGTGCGATACACACCTTGTCTGCTCTCGCAACATCCG
1 TGTGGTCCACCCCCCCCTTCTACCCCCGTCCCGTCCCATA
0.854701575896737 TCACCTCGTAGGGCTAAGTTAGTAAACTTCCCCCTGGAAT
1 GTGGATGGTCCCTAGTGTTCCGCCAGTTGCATCGTAACAC
0.7920295379796178 CTCGTCACGGACGCAAGACAGGATAGACACCACGGTGACT
1 AAGCACTCTAGCGCGTGCCCTTCACTCCACCCCCGACGAA
0.8092457641134526 TGGCGAAGGGTCGATAATAGTAAGTCGCGTGGTACTTCCG
1 GAGTGCAATTCCTGGTTATGATTGTTTGAAAACCGTAACT
1 TTAGTTTCCGGGATACCACGATAAACTTTTGCGCATCTAG
1 CGCACCCGCCCGCACCCGCCCCCAAGCCACACCCACCACT
0.9177293827525652 GTACGCCTAGACAACCCTATAAACGCTGCTCACGTTTCCG
1 GAGCTTGCGAATCGTTGCGCGTAATATGCTCTTGCATCCG
1 ACCCACCCCAATCATGATGCTGAGAACGTTAAGCCTCAAC
1 GTCCACACGAACATAAAATAAACAACCACCACCGGCCGTG
1 CGCCACCGGATTCGAAGCCGGGCGCACCCCGTCAGGTCAC
0.9031399173038982 ATACTTCCGGCGACGGCCCATCGAGACCTTACCTTAAGTA
1 ATGCCCCTGGCTTTCTCTCTTACATCCCCCCCGATGTCCG
1 AAAGCCGTCGGCCGAACCGTAAAATTAGCTATTCCGGTTT
1 ACACCCCACCCGCCCCGCAACCCACAGCCATCCCCCACGA
1 ACACGGTGAGTCAGAGCGCAAGGCCGACCCTAGCACGGCC
1 GTTGCTCTACTCAACATGCCGACCGACTATAACAACACGA
1 CGCCAATCACCGCTACAACGCCAAGTGTGCGCCAATCCCC
1 ATGGCTTCCCTGACTTCAATCTGGCGTCAGCTAAGCTATA
1 ATGATGCTGCGTTTCCTGCAGAGGTTCTACACGAAACGCG
0.5239431915671824 CCCCCCAACATCCGCAGTACCCAAGATCGACAAAGCCATA
0.6343857357471684 TGAGGCTGCGACAAACCACCCCCCGCCCGCCCGCCGAGGC
1 AGGAACGCGTTGGGCAGGAAGCCCGCTCTCCTTAATCGAC
1 CCAGTGGATGCACGGTGTTTCCACCTCTCTCATGCCGCCC
1 CCACAGAATGAATTGCCCAACCTCCGGCACAGCCCCGTCC
1 AACCAAGTCGTGGACCGAGTACCTATTCGATGCGACTTCC
1 CATAGCGGTTAGGCGAATAGCCCCTAAGGCGCATTAACCT
1 CACGCACCCTACATCCCCTGTTCCGATACACCATAGGCAG
1 TGATATCCTAATCTGAGAAACGTATAGATTCCGAACCGCG
0.7664769599022008 TACTACCCACATCACAGCCTTCCGCTACATGTTGATACAC
1 ACAAAGCGCCCTGTTACAGTCTTTTACGCACTCCCCTTGT
1 GAACAGCCCAGTGTCGCAACTCCTTACGCGATCACGACAG
1 CACCACCCCTCGCACCCCCCGACACCCCCAAGACCCCACC
1 TAGAAGTGTCGCCACCAATTATAAAGTAACTGTGGTGGCG
1 TGTCCGCCTTGACGCCGGCGTTACTTTGGGGGCGTGCTTT
1 CATGTAAGCTGGCGTGCTGTAAGCTGACAAGCCTCTTCCG
1 GTAGAAACGACGCGCGCTATGCCACTACCCGCTATCACAC
1 TCGCTGGCCCCGAGCTGTCTCGGCTATATGCTCGCATCCG
1 CCACTCCACAACACTTCACGCATGCCCTCCGGCCGCTGCC
0.8519735955820437 TCCGCAGGGCTATTGCAGTGTACCCGCTTCCACCCCGCGC
1 AACCCAGCCCGCCGCGAAACCACCGCGCCCTCGTTCCGCT
0.8969534038886102 TCAGTTGGCCAGACGTAAATGAATGCTAATTATCCGCCTG
1 CATATGCGCTACCACTCGACCATATCCGATCCGGGCAGAA
1 TGATCGGGACCGCTTAAGCATTCTTGGAACAATGCATCCG
0.6829813470057203 TCTGTGGACTCGTGGTAACGTTGGCTAACCTGCTGTTCCG
1 AAACCAGATGTAGAAAGGGGACGCAAGTGTGAGGAAGCGC
1 TCTGCGGTCCGCCAAAACAGAGTGGGAGTTCCGTAGCGCT
1 TTAAGCCATGTAATTCCGTGCTAGGTTGCATCCACCTCCG
1 GGGGCAACGGCCGGTCCGGTTCAAATCCCCTTGCCATACC
1 ATAAGGACGCACCGTGACCCTAGGAAACCCTAGACCGGAA
1 CTCGTACCACTTACCTGTTCCTCCTTGGCCTCAGCATATG
1 AGCCGTAACTGCCTGCGAGCAGAGCCGGCTGTCCACAAGC
0.1808137877323854 CCACACCCACCGGTCATCCGCCCTTCCTCTCCCGGCCGAC
1 AAGTTGCCGAATCTTCACACACTGCGCAAGCAGACTTCCG
1 CGACATAGGATCGATAAGAGTCGAACCGCAGGGGCTGTCG
0.9578568599622241 CTCATCCGTGCCCATGCAGTTCTGTACTACGCGACTTCCG
1 GTGAGGATGATCGTGCCGCCCATGATCTGCACCGCCCGCC
1 GCTATTGGCGCCAGTCTGGTAAGTAGTACTGATACTTCCG
1 TAACACGTAAGGAAGACTTGAAATCCTCCTGCCGGTTTTC
1 CCGGACGACCCCCTACATAGAGCGCAGAGCACTGACCTTC
1 GCGTATGGCAGCTCGCCCCCGAAACAGAGATAGGGCGTAA
1 CAACAGCTTTTGCTCTGACTCGCTATGCCATGGGCATCCC
1 CAGCCCCCGACTCGAAGGGGTACAACAATGAGCAACGGAG
1 ATGCTGAGTAAGCTCTTCCCCTCCCCTCAACCGTCAGTAC
1 GACACGAACATAACGCACTTGTCGCCGCCTCTCGGGCCTG
0.3399721075620325 TGACCAATTATCCTAAATCTCCATTTTCAGGATATTTCCG
1 CACCGAGCTCACTAAGTTTTACAGTACTTTCCAACTTCCC
0.3721990936980883 TTAAGACGTCCGGCCCTATAAACAGCCTCCGTACGTCCGC
1 CGAGCAGGCCTGCTTCCTCTAACTCGTGTCTAAACCTAGA
1 AACCCCTAACCCACCTTCCACTGACGTGCGCACCCATAAC
1 TTACCTCCTTGTGACGTACGTGGCGAGGCCCACCCATTCC
0.07997026772742746 GGCAACGCACCCGCCCCGCATCCGCGAAGACACGAAAGTC
1 CGGCTGCAATGTAAACTCCGAGAGTGTTTAGGAGTTTCCG
0.4619758244850131 CATATCCGGTAGCCCATAACCGAATATTCACATTTTAAGT
1 GCAGCCGATATTATCTCTATACCTCCGCTTCCGAGATCCC
1 TAAATGTAGACCGACCACCCAGGGGTCTTGATCGCCCCTC
1 CAAGGCCCCTTACACTGTACCACCCGTACTGTCGTGTCCG
0.9565074617882363 CAGTCCACAAATCGCCCTCCCGTCCCGCCCACCGAAGAGT
1 CACAAGTGACTGATCCGGCGTGCGTACCCTCGGAGAAATC
0.7406718174338139 GTTATGCACTAGGGCTTTCACGCATAAGTTGCCGCTTCCG
0.2116134587117845 TTCACGCGCCTCAACAGCCCCCACCTCGCTCCCGCTTCCG
1 CCTGCAGGCTATGCTATTATCTTCCTATACCATCCCCTGA
1 CCTCGGAGACACGCCGGGAGTGCATTGCTGTTAAAATGCG
0.01790865067808096 CTTCATCCGAGGCGCACCCCAAGCTTCCGCCCCCGCTATA
1 CTCGTTGCCGGTCGCACAGGTGCGCAGTAACGCGTACAAC
0.7322956142634234 CCCGACCCGTAACATCATCCCTAGTGCATGTTCCGGTCAT
0.8435405625655681 CGCGAGAAGGCCGACAGTCATAAGGAAAGCTTTCCTTCCG
0.2326938922450151 TACCGACAACCCACGCATCCGATGCGCTCGTGGCTAACGT
0.469845946462921 TTTCCGGTTCTAGAACGCCCCCTTCCGCGTGCACCGTGTG
1 CCAGATATAAAATAACGCCTAAAGGACATAGACCGTCCCG
0.8453412836234702 AAAGTGGTAAAAGAGCATTTTCCGCTTAGCACCGTGATTC
1 CCATATACACTTCACGGCCGACGGAGTCGATCGCGGAAGT
1 GTCAGATGTTCGTAAGGACCGCAGCTGAGAGCTCCTTCCG
1 GATATTTGATTTTTACGCGTAATTTCAAGGTGATCTTCCG
0.5488801822700715 TTACGCGCTACGCCCAAGCTGCTAATACACAGCGCGTCCG
1 ACTGTGTGAGTCATAACCCGAGGTGTCAAAGGCCATTTCC
1 AGCATAGATATTAGGAGTCTAACAAGAACGAAGTGAGGTC
1 GACCGCGTGTCGATAACCCGTTGTCCTCAACCTCTAACCC
1 TGAGATTACGTACCCAAACGTGACTTGCGCGGTTTCGATC
0.7040657455786814 TACGCTTCCCTATGTCCCCTCCAAGAGGCCTGCACTTCCG
1 ACCATAACAGACGAAGCTAAGTACACATCCCTTCGCAAAA
0.1901576870950721 ACCCATCCGGTTAAGTATAAATCCCCGTACGGGCATGCCA
1 GAGTAAGCCATAGCAGCATAAAGGCCAGTGGTCCTTTCCG
1 CATACGATGACTTGCCGTGCGTTGCTTGCAGATTATATTA
1 GTTTGACTTACGATTATAGGTTCTTCCCTCAGAACCCCAC
1 CCCAGACCGGTGCCCCCTCGACATATGTCGGCGACATCCG
0.2172087487389021 CATGGTCGTCCCGGAAACTGCCACCTGCCGAAATTGCACG
1 TGCTTCCTGAATTCCTCGGGGCCAAATGCTCTGTCAGCCA
1 GGTGCGGCCAAACCTTTGCNGGTCGCTTGACACGTAAAAG
1 AAAGTTATCCTTACGATGGAGGACTATAGTAACATGACCG
0.8113551805952831 GTGCCCTGTTGTATTGTATGTTCATTAGCTCGACCATCCG
0.07086020869518482 ACCACGTCCGGTTATCGTCCTTGCGTAGAAGAAAGTACAT
0.2869256187184708 CGAGGTGCTATAGAACTTCCTGTTCGCTGGAAATCTGGCA
1 TGAAGATGGACAGACATACACGAATAAAGAGCCAGGGCAC
1 AAGCGACGCCGTCCTCTTCACCGCCTGCCGCTTCCCGAAC
1 AGCTAACCTAAAGGTACCCGGTATCGTGGCTTGTCCCACC
1 TCCAATTCAAGCTGCGACTCGGAAGGATCCCGCCGTGCCG
1 CCCCCATTCCAACAGCCCCTCACCCTCCCCACCCCCGAGA
1 ATGGAACTTAACCACAAGTGCCCCAGGCATCGAGGTTCCG
0.0523204925943737 GCGAGAGCGTGCACCCCCTGGCGTAGTGTACCAGCATCCG
1 CACTCTCCCTCCGGCCCCCCTAAAAACCGTATCCTACGCA
1 CACGCAGTAGCTCCGTCCACCCCGCATCGGCCAGCTGCTC
1 GTCGATCGAAAAACCGTAACCATGGATTCCGGTCGAGGGT
1 TACATCAACCCGACGCTAGTCCAACATGGAGCGTCCGGTT
1 CGCCAGACCCTACCTTACGAGTGGTTACTCAGTAGGTCCG
1 TCCGTACCGATATGTTGTGGCACCCCAGTCTCAACGCGTT
0.7063380123616478 GATCACCTAATACGGACCCCTAACAGGACGTCCCCGCAAC
1 GGCCCCTCCCCAACCCTCCCTCCGCGTTCAATCCATGCGT
1 ACAAGCCCGGATACGATAGCGTGGAATCAGCATCCAACGC
0.8831970233966374 ACCACGGTGACCTATGTCGTCACCTTGCAGGGGACATCCG
1 ACGATATCCGCCGATGCAGAGTCCCCCCGCCTTCATCCCC
0.9728102036377873 CATCGATATGTTCCCGGACACTCAGGTCCGAGACGCCACA
1 CACACCCTCGCCCATAAGCAACAGCTACTCCTCCCCCTCT
1 CCCGGTCTGGCTAAATTGGCGATTTCCCCGTACATCTTAC
1 TGTACTTCCGGGCGAGTAGGAGCCGTCCTAAAGTAGCGCC
1 TCACACCGTACAGCGACCGGACACCCCCAGAAGGCGCATC
0.1640413723204376 CTCCGCACCCGCACGCTTCCGTCACTCTGATGGCCGGACC
1 CGGATATGCATCCCCATCTCAGCTCTCTCCCCTTAATTCC
1 TGCCTACCGCGCCGACGCGGGTTTCCGTACACACGACAAC
1 AACCGATCGCTGGGTATGGGAGAACAATTCGAACCATCCG
1 TTAATGCCACCTTGGGCATGCCGCTCTACCATCTACACGT
1 ACCAGGCGTATGCTCGACAATAAGCAGCCGCTGAGTCGAC
0.3914745838407966 ATAATTGCTAACACCACTGTCCAGTGATACACGTGTTCCG
1 CGTCACAAAGAGCCTAAAGTGATTGTAAGCCAACACTTCC
1 TCCCCGTATAATCGGATCGTATAGCGTAGATCCGATTCCG
1 CAACGGACCCATCCATAAAGCCATACGTACGCAACGTCCG
0.7920453135833244 TGCCCATATGTACCACCGCTAGACAGTTGAGGCACATCCG
1 TATTACCAAGTTTACTATGTAGATCCAAGTGCCAACTTCC
1 TGGGCATCCGCCTGGCCAGCAATGAGTTCTCAATGCTATT
0.78963037092739 ACTTCCGGCACTGACACTGATAGCCGCTAAGTCTCCCGTC
1 GAGTGCCCGTCTTATACTCTTCCTGTAATCTGAGTATCCG
0.4613629522415746 CCCCGTGACCTCAGCAACTACCTGACCTGACTTCCGCCAC
1 GTCATGCAACGTGCTGCCCGTTGCAACCATCACCGACAAG
1 AGTAGACCCGTATGCAATCCATCCGGGTACATGACCTGCT
1 ACTTCCCTGCACGAATGCAGCTAAGTGAGTGTCAGATTCA
0.8432750621532975 CCCGTTCTCACTGACAGGGTGGGCTAACTTGACCGGATAT
1 GGGCAAACATACTTTGCGCTGTGCCCGTTGCAAAAGTCCG
1 GGTGATGGGAGAGGACTTATTTAAATCGATACTCCGGGCT
1 CTAGCTATGGTGCTGACCTCACGAACGCACTCCCCCGAAC
1 GTCAAGCCAGCAACCACGTCATGCACCACATCCTGGCCTC
1 CTAGCACCTGTACATATCCCCATTAGCATTCGTTTGGGGC
0.3134605246654931 CTCGCTTTTTCCGGAAACCCATAATCGGGATTGGGCGCGC
0.8838478807724784 CACCCACGCTTTCCGCCCCGACGCCAAAAGGAGTCCCCGC
1 ACTTAAGTTAAAGTGTAAAGAGACTCACGTACACTTTCCG
0.7655318638406723 CTAGCAGGGCCCACCCTTCGGGCACACGTACATCCAGGGG
0.07088939538089596 TCCCCTCTGCGGGACGCCCAGCCGGAAACCGCAAGACCGG
0.992778262959135 TTAGCGGCAACGAATACGAGATTTCGTATCCGTGTCGCGT
1 GCCCTGACAACGCATCCGCGCCCACCTGACCGACGTACCT
1 GCCCGCTCCCCCCTCCCCCACCTATAACGCCACGCGTTAG
1 TAAAGACTACCACTACTAAGTTAGCTACTGCACACCTCCG
1 ATCCTAGTCACTATTGGGTAGCGTTAACCTGACACGGACC
1 GCACCCGCACGACACGTAGCTCTCCGAGCTAGACGCGGGG
1 AGCCACGACCGATCCCCACCCTGGAACCCCCCCAAAGTAC
1 ATGTTCAATATAGTCGTCTAAGTCATACTACTGACTTCCG
1 GGAGCGAAAATTTACGCGCAACGGTGCTGGTCAATAGACG
1 CTGTCCGATTCGACGCGCAACCAAGAGATATGGATCGTAA
0.558576887281985 TTGACGCTAAACTTACCCGCTGCCAGCTTCCCGTCCACTT
0.5671271006878463 CTCCCCCCACAACCCGCCGGATACCTGGGTACTGCGAACC
0.7331581258697979 TGTGCCAAGCAAGAGTATTATGCACGAGTGGACCGGATAC
1 ATCCGTGTCCTCCCATTGCAGTGGCCCCCAGACCGCTGAC
1 CTGCTGCCGTGACCTACACAAATGGAGCATCGCATACGTA
1 CTTATGCCAGTTCATTGTAGGGCCTTGTGCTCTCAACCAT
1 GGCAGGCTCGTTAATAATGCTCTCCCTGATAGACATTCCG
1 TAACGATCCTGTGCTATCACTCACGTCGCGTCGCAGCCTA
1 GCGAACTAGCGTCGCCGGACACACTATGGTAGGGCCGGCC
1 ATGTTCTGACGTACGCATGCGAGAGCTTTCATCGCGTCCG
1 ACTATTGCGGCTATGTAACCTCCTCGATACATCCCTGCCG
1 TCTCCCCAGCCACGTCCCCGACCTCCCTCCCCTACTAGCC
1 GTATGAACCACTCCCAATTGCTCACGTGTTAGTGACATCC
0.9257751548816848 GACGGAATGCGCAAGGGAACTAATATGCGTTACCACGAAT
1 CACTACTTGCGAAATGCACCAACAGTATACTGACCAAGTT
1 CCTTCTGACGGTGTTAAACTGCAACTACGGTGAGCTTCCG
1 CCCACGCGTATAGGGTACCCGCAGCACAACGCGTGAAAGA
1 CAACATCGACCCACCCACACAGTCCCCCCACCCAACACGG
1 GTTTGTCGAGCATAGCTAAACTAGCAGTTTCCCTTGTCGA
0.5041336255449476 GTAAGAAAATGAATAGAAGCGTAAGCCAAACAAGCTTCCG
1 CCCCGTAAGCAGACTGCTGCCGGCGCCAGCGTGAGGTCAC
1 TGGGCCGATAAGTATGAGTGCTTGCGAAAACTGCCGGCGG
0.4951306019834958 TTGACCCGTACGCGACTCCGCGTCCGGTCATCTCCATCCT
1 TGTGTAGTTGAGTACGACGCCCCGGTGTGAACGTAAAGGT
1 ATGGATGTTACCTACATGCCCGTTCCTCGACCACTCGCTC
1 ATCAAGCTATGCAGAAACATCCCTTGATGTCCTATTCACC
1 CATTTCCGCAAAGGTGCCATGGTATAACAATGACTAGGCC
1 GGAACTGGAACACACTCCACCCCTCCTCAATAGTAAGCAT
0.2383645825158431 TAACTAAAATACTACATCGTACATCGATAGACCGGATGTC
0.3658410493544654 AGCGGAAATGGAGCACGTACGCAGCAACTAACAGGTGGCG
0.9243529775513406 ACGCCTGTCCACCCGCAACGCACCCCGCCACCCTCCCCAT
0.7233670014163557 CTTTCCGGTTCCTACTCACAGAAACCGCTAAACAATGAGC
1 ACTACTTCGGCTTGACCGACTCCTGCGGCGGCCCTCCCGA
0.4382766598761614 AAACCCCCAGCATCGCTTCCTGTGGTAATAGCGCGCGGCA
1 GCCTTATTGTGCTATGCCGATCGAGTCACGCTCCGGATGC
1 CATCCGTCTCAAGAATCCGCTTCCTCGTCAACACCTACTT
1 CTGCTTCCCCCCTTATCCGATCACCTTCGAGACACACGTC
1 ATTGGCCCGCTACCAGACTACACCTTACCCAAACAGCGGC
1 CAATGCAATACAATAACCCCAGACAGCCAAATTATCGCGA
1 ACCAACCCCGCTTCCAACTNCAGTTGTTCAGGACCAATTG
1 CCGAAACCGACGCGCTTTCAAGGTTGCAGAGGAGTAGCGG
1 AGCAAACCACACCCCCTGCCAACACATCTACCCGACTGCC
1 AACACACTCCTCCCGCTAAATTATATGACGCGATCATCCG
1 AACTCAAACCGCAGTGCGTACGAAACGTCAACCGCGCGAA
1 GCATCACACATTTCGCACAGACGCGCGTAAACGCGAACCG
1 CTTACTCGATCACTAAGCTAGGCTTTGGACTCCCCATCGA
1 CAACGTGGATCGCCGGCCACCAAGCCGACAACGACGATCC
1 TATACGACTGATACCCGGGGGCTTTTCTAGGGATACCCAT
1 GCAAAAGCTATGGAACCTTTGCCCTACTCTTTGGTCCATT
0.5695037071316017 TCCGACCTAGTTCCGCCTTGCATGTACTAACGTCCCCGCT
1 CAAGACCTTCGTCATCCTTGAATTTCCTGTTTTTTAGTTT
1 CTCGCACAACCGTGCCACACCCACATGCGAAAACTCTGTC
1 GCAGTTCCTCGCGCCATACAACTTCCTAACCATCTCAGTG
1 GGCGACACGGTAACTCTGTGATAAATTGGACCCATTTCCG
1 GCAACACTGCGCTGCTCATGCGCTTCCACCAACGGGCCGT
0.09769117518258957 GAATGAAATATACTGAAGTGCGAACTTTGCTGCGTATCCG
1 GCTGTCCACGCCACGCCTAATCCCTAGCACGGGGAGCACC
1 CTGCTCGGCCACCTTCTCAACCCGCTCCCCCCGCGCAAAG
1 ACCAGCCGTAGACAGGGTGCTACCGAAGCACTTGAAAAGG
0.8690953978888134 GAACTTAAAGCATCGACGGCACCGCGGATGCGTTCACGAG
1 AGACGTTATATGGGAAACGAAACAGAACGAGAAACCATTC
0.4791868574643802 GTTCCAATCTAATGCGGTATACTGAGCGTATCCGCATCGG
1 CCCCTTTCCTGTACTTAATTCCGCATTATTGCTACAAAGA
1 ATGCAAACCCCCCTCCCCACACCAACAGAAAACCCTCCCA
0.0315140233535117 TAAGTCCCTCCTACCCCCACCACTCCCGACACCCCCCTTC
1 CATGCTACCCGCCCAAGTGGCACCTATGATTACCTTGACC
0.1393790668920615 CACCCTTGTTGTACCGTATGCGGTAATATGCATCAGGAAA
1 AATAAGTTAAGCGCACTCCACCGTTCAACCGACGCTTCCG
1 CTCTGACCGCGGCAAGCGTGAATGAGTTATCCCGCTTCCG
1 TGCCCGATCTGTATACGCGCTGCGCTGCGGCACGCGTCCG
1 CAATATCCGGCACAGCTCACCCAACCGCGAGCGCATGTAG
1 TTGACCATTAATAATACCACTCGGTCGTAGCGCCCTCCCC
0.6043120569494568 CGCACACTCAAGACAGTCTACATCCGCTCGTGACTCTTAC
1 ACGAATTATACAACTCACTATATTGATGAACCGATATCCG
0.1784564176793059 ACAACACTAACGGACTTCCGGGGTGTGCGCACACGATGAT
1 ACCATGACGCTTTCTCACCGCTTGGCATCTACATTGTTGC
0.3183450624262134 CCCTAACAGTTAAGTTATGCTGTTCTGATTACAGCATCCG
0.3383798091218447 TAATGTTTCTATATGCTTATGCTGCGTTTTGGCATATCCG
0.7721588170803583 CCCCAAGACAGAAGCATCCGTTCTGCGTCGTTCCAGGCCC
1 GTCATTTCATCATTAAACGTCTGCACGGACGCTTCCTGCG
1 GCAGCTAGTAATAAAGTGAACGAAACCACGATACTTTCCG
1 AACCGGAATAAACTTGCCTCAGCTAGATTCAAGGAGGAAG
1 CTGTAGCGGCCGGTTTTCCAACAATCGATGAATAGCCAAG
1 AATCCGGGTGTACTGGCCGCCTACCCGCCCGGGCGACACT
1 GTGTCAGACCATTAGTTCCGTAATATGTCTAAGACATCCG
1 AACCACACAAACTTGACTAACCCCTCCCGCCCCACAACCC
1 CAATAACTCGACTACCGTGAACGTATTACCAACAAACTAA
1 CATGACAACAGAAAGTGGCCCTCACTTCCTATTGATAGAG
1 TGAAGGCCACACCCACACGTAACTGATAGAGCAAGTTCCG
1 TCGTTCCCCTCGGGCGCACCCCCGTGGACAGAAGTGCGGT
1 ATGTCCAGAACTACTGTCCCGGGAAGCCTCGCCAACGCTC
1 AACGCACCAGCTAAGTAGCTCTAGTACTTCCCTGCCTCAC
1 CCTCTACACCAAGGCCGTTACGTAGGCCTCACCACGTCCG
1 CATCTTGTGCTGTTGAGTCGGATGAGCAGCTCGATCCCCT
0.9250690603882586 GACCTCTTACGTGTCGCATTCGTACGACCCTCCACGTCCG
0.2312742448569794 CCGCACCGGATATGCACGCTCACTGATTCGCGATCAAACC
0.5437465131244633 CACACGGTCTCATGCATCATGCTTTTCTACAGTCTTCCGT
1 ACATGCGTAATAGACCACTATAAGCACGACACACTGCACC
1 GTAGCCCGTATCCTTACACGAATATTGTTATCTGTGTCCG
0.9592809804443352 AATAAGAGCCAGTGCCGGTGGTGAAAAACCGTAACTTTGC
1 CGTTAAATTCGCTAACCGGTTAAACAATAAACGCGGAAAT
1 TGAGGGAGAAACGATACAGCGGAACCCGAGGACCTTTTCA
1 TACCCGGTGCCGACCGACGCGTGCTCCCAAGTGTCTCCCC
1 ACGCCCCACCTCGCTCTCTCTGCTTTGCGTAACCCGCACC
1 CGTCTACTAGGTCTCTGCTTAAAGTTCACTGCGCCCTACC
1 GTAACTCTGAATGCAAGAATGCATTGCATGGCGAGCTCCG
1 AGTACCGGTACTCTTTTGCCGACTGTGAACTACCGTTTAC
0.01890730368985752 ATTCCCAAATTCCGTAAGTTAATGCAAACTGCCGGAATTA
1 ATCCGCTTGCGTGGGGTCAAGTGTCCTCGTATACACTTCC
0.5267229545454258 CAAACCGTGAAACTGAGCTTAATATCCGTCAAGCCCGTCC
0.1978866288750401 CTGCAACACCGGGTATCCCTGCCTGGTCCCGGAAGTAAGC
0.1127000667048001 AACGGAAATGCCACGCTCTATCGCAGAATCTACACTAAGT
1 CGAACCCCTGCTGCCCACCGCGTGGCCGGGTACACACGCC
1 CAGAGAGATCTCTAGAGTAAGGCTCTGAGCTAGCCATCCG
1 ACCTTCACTGCCGTAACATAGAATGTGCCGGCGGCCCGTG
1 GCATGAAGAACAGTGCACACGCACACGAAGGCCGGCACCC
0.4147306951927746 ACGGCCTCGCAACACACCCACTGTTGTCTGACCGGATGTC
0.01632936951975403 CGGGCGGACTCAGCTATATAACATCACTTCCACCCCGCGT
1 CCACCTGCCCCGAAATAGATCCCCCCGTTGCCTGTCCCTG
1 GTGGACTGCGCACTCTACGCTGCACCCGCCCTATGTCAGG
0.7365617893029065 GCGAACCCTGCCGGTTGAACGCGCCTAACACACAACCGGC
1 AGTTCAACCCCTCCCACTGTATAAACTATGTGCAACGTGA
1 ACACATCCATCCGCGCCGATACACGCACTAAACCAACTAC
1 TGAACTACCAGACAGTCGCGCCTTCTTAACCCAGGTTCCG
1 ACCGCACGCAATGATCATCGTACGTCGCTGTGAGCAGCCG
1 TGTCCCCTCCACCGCGTCCCCCACCTTCCCTCCCCAGCAA
1 AATGGGACCCTCCCACCGAAAAGAACGATTGCAGGCTGTC
1 CCACTTCCTTAAATTACACTTTCTTGCCGGCGCATTTTCA
0.5142412078540843 TTTGGCATGCTTCGTTAAGTTTGACGTTGAACAACTTCCG
1 AGCAGCACTGCTGCTGGCGCGCGTGACGAATGCGCAATGA
1 CGAACTACACTTTCGATGACGATGGGGCGTCAAGTGTCCG
1 GGGCTCTCACGAACGGGAACGCTCCCCGATCACCGGATGC
0.6101385404465861 GTCTAGTCGCATTAAAGCCGTATATCGAGGCATATCCGGC
1 TCCACTTTAGATAGACGCACAAGTTGATTTCCCGAAACGT
1 GTCTAGACGCTAAATCCCTAAGTGATCTTATTGATTTCCG
1 GACCTCCTACTTCTGGCCCGGCGACTGAAGAACCGGATAC
1 TAGCTCTGTTGATAAGCACTCACAGTTTGCTCGACTTCCG
1 CAGCTTACCCGCTTACCCTATCTTACCCGCTGACCGGAAG
1 GCGATACCCAATCCATTCGAACTACGCTACTGCGCGTCCG
1 ACAGCCCGCCCGCCCGTAAGCCCCCACTCATCCCCCGGAC
0.7621231422676682 CAACGGAGCGCCCTAAGGCCGGAAGCCACATGACGCGGGC
1 CATCCCGCGGCACCCGTCAGTCTCAAATCCAGAAGGTCCA
1 CATGCGCTGGCGTCAACGCGCGCGGATCGAGTACTGACGG
0.1506758918580408 ACCCATTCCCCCCCAACCCTCCCGCCACAACCTGGGAGAC
0.3038456978009277 GGCATAACGCTGCCGGCGGTGAACGCAACGTAAGCGACCA
0.3505869585041939 AACCGGACGACGGCTCAAAGGTGTACGTATGTCACGTCCG
0.4915196263768989 CGTTTGACTTTTGGCTGTACGTAAACAATTCTTGCTTCCG
1 GCAAAGGACCGTGGACCTGCCGCGTCTCCGCGACCCCCCC
1 ACAGATATATCAATTAAATGAATGCCGCTCTCATTTCCAG
1 ACAGGCTCCCACCCACGCTACTGCCCTCCCGCGTCAAACC
1 CCTCCCTCCCCATACTCCCTGCCACATGCTACCTGAACAC
1 ACAGCGAAACGGCGAACCGATGGGTGAAGCCAGCCCCAAG
1 AAGCCAAATCGTTCGACGGGTGACACACGCCGCTCTTCCG
0.7408170240736232 CTACTTACCGAAGTGACTGCCTCCTTCCGTAAGGGCTATA
1 AAAACCGTTACATAGAAGGAGCAGGTCTCGGGGAATCCGT
1 ATTAGTGTTTATTAGAACGTATCCAATTGCGTTGGATCCG
0.3940160384168029 CTACGTCCGCGCTCTAGCCAGTTCCGGCTGCATTCCACCT
1 TTATAAGTCAACCGAATTCGCAGGGGCGATATGGAGGGTA
1 ACAAGCCCAAGGCTGCCACGCATAGCACTCCGGGTGCCTT
1 CCACGAGGGCCCTAGCGCCACCGTGGGCAGGAACATTCCC
0.6874550634676044 CCCCGCTCCACCTTCCGTCGCACCTGACCGGCGTCAGCCT
1 CGGACTCGTGGGGCGGAGTTCTTACGGGGCGTGGACTGGT
1 ACAATTACACCTCAAAGCAGCTATGGCGTGTCGACCGGAA
1 AGTCTCATAGCAGATCGTGGCAGTAATGTTACACTCCTTA
1 CGGACACAATGGCTGACAGCTATGGCGAGAGGCGTTGGGT
1 AAACACCTAACCTTCACACGCACCTCGGCACAACCTTACG
1 AATAGAAATGGCAACATGCGTGATGTGATAGCACGAGGGG
1 CACACCCCCCTCCTCCCTCCCGTCCCCGCCCCCCGATACC
1 CTCATTCTTCGTATATATGTTCCCAGCAGGGTCATATCCG
1 CCACGACCCGACACTCTATTACATTGTGAAGTGTCCGGTC
0.1036393175876036 TCCCGATCCTGTCCTCAATTCATACGTAAGCTTGCTTCCG
1 ATGTATAAGTGCCTACCAGGTGCGCTGACCTACACTTCCG
1 CACACGTTGTCAAATGTAAAAAAGCGCTGTGACCTTTGTC
1 GCACCTTAAACACTGACCACTTGATGAAAGACATTGCAAT
0.5105618369840943 CAAACCCGATATGTATCTANATCCGGTTTAATACGGGCCC
1 TCCCGCCGCCCCTTCCCACCTTCTGCCACCCCACGCCCCC
1 CGCAATCTAGCCCCCAGCTTCCTGTCTACGCGAACGCTCA
0.772097558521125 AGATCGGTAGCGTTAATAGCGTCTATGTTGTACACATCCG
1 AATGACAACCCGAGATGCACGAAATGTACGTCACCAATTT
1 ACTTCCGTTGCTGCAGGGTAACCTGCTTTAGCAGATTCCG
0.9689116332684691 TTAGTCCGTACCGTATGTCGCACATCCAGGTAGCGGGCTG
1 AGATGAGAATAATAGATTAGGTCAACCTGGAATGAATGTA
1 TCGTTATCAGCGACGACACCGCCATCCGCTCCTGTAGATC
1 GTAGCCTGTGTTAGATCATCACGGCATCCTTTGGTCGAGG
0.3904710120393839 CAGCCGGATACGCCAAAACCCTGGCGCAAAGCAACCACGA
0.8478613923786968 CCCCACACCCCTTCGCGCCCTTAGCTCCATCCGTCTCGCC
0.7651506976794555 CCAGTCTGAAACCGCACAGTCGTAAATGCCACCCGCCCTC
0.2037955622721864 GGACGCTAAATACTTCCAGATTTCCCGTCGCTGTTAACGT
0.9550258654440625 TCATTGAGATCGTACTCAGTAAGTCACGTGCAGCCTTCCG
0.9491684863781773 CCTAGGACACCACGTAATTTCCTCTGCTCACATAGCCAAT
1 GCTGGAGCGTGTACGCTCTCTTATATCACGAGATCGTCCG
1 CACGCTCCCTCGCGCACTTCCTGACCACGTATGTCGACTA
0.2176257790696552 CATCCGGTCCGACGTATTCTCCCAAGCTATGCAGCTTTGC
1 GGTGAAACCGCTCCGTAGGTATGCCTAGGGTGCGCACCCA
1 CTTGGTGCTACCACTTGTTGGTCGCTATACCACGGGGGCC
1 GCTAGACTTATCCCGGCCCCCCGCTCACTTCCCTCTTCTC
1 AATGCATTTTACCTGTGCTTGTAACTTTCACTTGGCGTAG
1 ACTACAAATAAGGGCTTTACGGGAGACCGCGTCCCGTCCG
1 CACCGGGCAATTGTGGTCCTACCCATGCCACGAATATACA
1 GAACCTCCCGGCGTAGCACGAAAGGAAGAGTCAGCGCCCT
1 CACCCATCAACCAAGGCACACTCAAAGAGAGCCCCGACAC
1 GAAACAGAGCAACCTTACGACTTGTTGACCATTTCTACAT
0.691501663693617 ATGACCTGCGATAAGCTTGATTGGACGACCAAAGCTTCCG
0.6993693340438484 GGCATCCGTCCCGTTACGCTGCGCAGTGCGTCCATCTTAC
1 TCGAATAGGGTCAACGTAACAGCCCGCGTGTTCCGGACAC
1 CAACAAGGTTATGCGTGTGCTAGCTTAGCAAACCCATCCG
0.3342783028649457 GCAACAGTTGTCCAGTTTAACGCGCGCTGACGTCGTTCCG
1 GTAGCTACTGCACAACTGTTCGTCCTACTGGGTAGCTCCG
1 TGCATCCGACTGCGCGATTTCTCGTTCCGCTCCCAATCGA
0.9936630117604102 TGTCGCAGCCGGCCCCACTTACGATTGACCCGCCACCACC
1 ACCCCACAAACCACCCCATCAACCCGATTCCGGATCAAGC
1 ATATCGCGTTAACTTTTCTCCGACCGTCCTAGACCACGGC
1 CTAGCCTTGCCCCGTCTACCCTTACCTTCCGCTCATGTTT
1 CGACCTTACCTCTACGCGCGAAATTTGGCATCACTGCCTA
0.2641250245398917 AAAGAGATCGCCTGCCGTATGTAAGGGCACGCCACATCCG
1 CACGAATACCCTCCCTACCCAACCCCTAGTCCACTCGTCG
0.4204374089320642 GGAGGACATACGCTATGCCAAGCATACGCTTTGGCATCCG
0.2482145296009875 GGCGATAAACTACCGACGTCACACCGCGACAGCGTTTCCG
0.3820007100321187 GGATGACAAACAGGGATATTTCCATCCGACAGGATGACGA
1 AAGTAGCCTCGAATAGACCGCGCAATCGAGCTAAACTTCC
0.8364339242307416 AAGTACAGTGTAACGTGAAATAGCTAAAGATTTCCGTTAC
1 GCAACAACCACAAACGGTCGAGCATGAAACTCACCACCCC
1 TCGCTTTTCACTTCTGACGCACGGTACCGAACACACCGAC
0.5512201182106997 AGCCACCCCCGTCCCCTGGTGATACCCCACCCACCCCAGC
0.750611725994265 GCAAACTGACAATTCGTCCTCCGGATACCCGTGTCATCCT
1 TACACGCCACCACTAAAACTTTAAAAGAATACCCGGAAAC
1 TGGCGTCCGTTTCGCGCCCTCGCGCCAGCCCGCGAACACC
0.1202218585010621 CCGTTACCCTGACACGCGGAAGTATGGTTCGTAATAGCGG
1 ACCCACCCGGTCTGCCAAGGGACAACCGAGCGGCTTGCGA
1 GCCGAGGATGACCGTAAAACATCTCATATTTGCCGGTTCG
1 TATACCGTAAACCAATGCGTTTCATCGGTCTCCCGCGCGC
1 CCAGGGGCAGCCCGACGCCCGAATACTGCTCATCCCTCCG
1 CCGCACACCCACCCCACTCACAACATATGATCCCTCGAAG
0.8804998562552345 TTAGTGATGCTAAGTCTTGCTCAAAGTACTTCCCTTCACG
1 CCGCTTTTACCACCGGCCGCTCACCCGAAAGCACGCGCAT
1 AAAATTACCCCTCGGTGCTCCACTTCCAGCCACAGCGCCG
0.6891471603068139 GCAAGTAAGCTGTTTGTCTTCTAAGTTGGTACGACTTCCG
1 CCCCCCACCACCCCACCAGGCCCCATAACAGGACGACAAA
1 TACGGCAGGACTGTGACTAGCGTTCAGAGTCCTCCTCCGT
1 TGCAATTAAGCACATGCGGCGTGAGTTCCGATTTCTTCCG
1 CGCCCGCTCAACAATGTTATTCCCATATCCGACACCGGAT
1 AGCGTCTGAATACGCACCCTAAATGGCCGGCTCATTTCCG
1 ACCGTACCCTACTGTATAGACCCTCCCATCTCCCCTAGGC
0.9737058330864189 CGCCACGCTAAGAGCCAATCCGGCGCAGACCGTATTCGCG
1 CCAACGGACACTCCCGCACCCAGGAACAACGACAAAACCA
1 ACGCGACCCTACCAACCACTACCGTAACTACGCAGGATGT
1 GCACGACTCACGTCTATCCCAAAAAGTCAGTGCATCACCG
1 GCACATCCGCTTCTACCCACATCCCAACTCCCCGAAGTCG
1 GCTATTAACCCCACGATAACCTTCTCCCGCGAAGATTCCG
0.9550723820143019 CGGACGTTACTGGCTATCTGTTCCGCATCATGTAGAACCC
1 TGGGCTCATCCTGCATCCAGGTAGAGCAAAAGTTCGGAAC
0.08535676810560094 CCTGATGCCCCGTTCACGCCGTCCCCCGCTCAGTTCCGGT
1 GAAAATGCCGCTGCGTATGCTTAGGGACACTCAGCATCCG
1 GAAAGAAAGCGGACTAAGAGGGCGGGGCGCGCCTCAAATA
1 CAAAACCCGGACCTCCCGCCCCCCCATCCCCACGACCATT
1 TCATCGCGATTACGTGGCTGGCAACTTCTTTCCACGTCCG
1 CCCAACCGTCAGAGGGGACGCAACCGGTTGGTACTTTCTG
0.243211685142102 TCATTTAAACATGCCTCATTATCAGTTGTGCGCGTTTCCG
0.2727418762521301 CAATTAAGCGGAAACCCCTCCCGGGCACTGGCGAGCCCTT
0.9222106562503983 TGAGCGAAGCAAACCGAACTTCTCCGGTAGATTGCTTCCG
1 GAACAATAACGTCGCCCAGCTTACGACACGGGATGCTCCA
1 AGCGTGATAACGTGCTGACTGCCGCTTAGTCCGGCCTCCC
0.3791829915145746 TAACTCTGACACGCGGCATCCGCTCGACCACGGTCAGCTC
1 GGTCGATCACTGTCAAGCTGCTATGATGAGCTACCGACCC
1 TCTTACCCATATAAACGTCACGAGAGGCCAAGCGTTTCCG
1 CCACTCCGGCTGGATCCCACCCCCCACAAGAACACCCGAC
1 TACCGAACGCAAAGCTCATCCCCCTATGGCTCACCATCCG
0.1764661031697337 TTAACTTCCGGAATACCCTTGGCCTACCCAGCAGCTAGGT
0.5662655674007913 CAAACGTGTGAAAGGCTAATCGGATGTCCGACACCCGTTA
0.9405821711724539 AATACGTTATGTTTTCCGTTTGAAATCATGCCTCCGGGCT
1 CCACAGCAACGAAAAGCTAACTGACTTCCTGAATCAAACG
1 CGGCTTACGCCGTGTGCGTAAACTAGAAGTACCTTCCGCC
1 CGAGTGATGGCGGGCACAATAAGTCCTACGTGGCCTTCCG
0.7822703131211338 CACGCCATGCCAACGAGGCCCACATCCGCAGGACACACTG
1 ATCAAACATCAGCATCGTGCTCTGCTAGTCTAGGACTCCA
1 GCCAGGGCGTCGCTGCCCTGCACGAACCGCACGGGCGCGC
1 CACATGCCTTACCCCATGTAACGACCATCTTAGTTTCCGG
1 AAATCAGCGGTGTGTCTAAGCAACCGTATTTCACGAAGGC
0.6610435008650496 CGTAAACGTTGAGTGCGGATCCCCCCGTCTTCCGCTCCCT
1 CTATTTACATCCTTTTGCCTACGGCTGCGTCTACCCTAGC
0.4042481461059902 CGCCAATTCGTAAATCGTGACTCTGGTCACCCAATTTCCG
0.2647576765691035 CGCACATCCGCGAGCCCGTAACAGCCGTCTAGCCACTACC
1 CGTATAACGGTATCTTTCATAAGCATGACATCGGACCCCC
1 CTCGGGGCCTCCCTCTCCCGCTGCCCACATTCGCTGGGTT
1 TCCCCAAAGCTTCCGCACGCGCGAGTTGACGTAAGCTGCT
1 CCTTCCGGCAATTGACTCCGCCTTTGATGAGAACCTACCC
1 CCATACTCTAAGCCCGCCGTTCAGATCCGATCAGTAGCCT
1 TTCACCCGCTACACAATTCGGCTTGTGATATGCTCCGCAG
0.7594643618674987 CAGCCCACACCACCTCCCTTCACAACGAAAGCACTACCGG
0.06514826760343861 AATTGCGCATTGTCCGGAGCTTTGTATTCGCGTAAATGCA
0.6192085253853472 CGTCCTACAGCACCCGGCTCCCCCACCGGATATATAATGT
1 TTTGACAAGAAATACGCTACGGTACACGCGCGTGCGTCCG
1 ACCCCGGTCAGGGAGAAGCTAAATTTTATACTTCCCTTCT
0.166727916754982 CCCGATGTGAGTAAAACCCAAGCACCGAGCCACGCTTCCG
0.1286912612693968 CAGTATGCATTAATTACGTGTCACCCGGCCTACACATCCG
1 CATACCGTATCCACATCGCCACCTGGGATAGGAGTTCACG
1 TTCGTAAGTCGTTAAATGGACACTGCGAGAACCCTTTCCG
0.6472961488040302 CTATAACGTTAGCTATACACGATTCGAGTTACCGCGTCCG
1 TACCAGCGGCGAGTCCCAACCATAGAGGATATTTTTGACA
1 AAATGCCTTTCACGGTTATGAACTACTCTAACACGGAAAT
1 CCACGTACAGATCCCACCCAGGACTTACCCGCCCACATAC
1 GCCAGCGTTCAGTGTACGATAATAATCAAGTCGGGCTGAC
1 ATCACCGCCCACGCGTAGATACTGCCCGACCACCAACGCG
1 TAGGCGGATATAAACCAACAGCTTGCCCACGTTGGTGCTA
1 CCCCACGAAAAACAACCGATTACGTTGCCGGCAACGTCCG
0.8855048924801816 CCACCCCGCCGCCACCCCCCCCCATTGCACACGGCCCCGA
1 CCCCGCAGGTAAGTAAGGGCAGGAGGATAGACTACTCGGC
0.8626368445095298 AGCTATAACTGTACCATACGTAATCGTACGGTCAATTCCG
0.9544292310003419 ATAATACGTATGCCCATGCCGATGGTAGCGCTACGGTCCG
1 CATACTTCCTTTCCCCCTCCCCGTCCTCCACCCGCCGACC
1 GATCACCGTTGCGTGCCATTTGGGGATGATCTGCCCACTG
1 AAGCCGGGATATCCCCCCACGTCGAGCGATGGAAATATAT
1 AAACTCATTCACGCCCTCCACAGCGTGCCCTACCCTATCG
1 AGCGGAAACAGCTCCATCACGAGGGGTCGTAACCGTTGGC
0.863087841260242 ATGATCCGGCGCCACGTAGCACTGATCAGTGAGTGACCGG
1 GACCTAATGCGCCGTAAGTTCCTCTCCACAACTCTCCGGC
1 TTGGCTGTGCTCGACGCAATGCATGTATTTCCAATTGCGA
1 CGGTACACTCCGCTCCAATCTCCCTACGCTCCCCTGCCGT
1 ATGACAATGTTGCACCACGCGATCCGCGAACGAGTGTATG
1 CCCCCCACACCATACTGACCCGAAGGATCCAGATAAGCGG
1 CGACCAAGCCCCACCGCGCCCGCGCGCCCACGCGAAGGGC
1 CCGCGCCACCTTTATGGTCCAGCTACCGAATCTTACCCCG
1 GGTAGCCACACACCACTCTGTCCGGTCGACGGTGCAACTA
0.0707054030041564 GGCCCATTTCCGCACGAGCCATCTTCCTCCTCCATCCCTC
1 CGGAAAAGTTACGCTACTCTGTGGATTAAGGTTAGTACCC
1 GACACGTTATCATTGTTGGTCGTCAGCGATGGCGACATTT
0.9289610017745792 CCCGTCTGCCACCAACATCCCGTCCGCTCAAACAATCCGC
1 TCCCTCTACCTGGAAATAACCGCGTCACGTCACTACAGTC
1 GCACGATGCACATGTCAAGTAAGCTGAGTTCGACAATGCG
1 CATCCGTCTCGACAACGGCACAACACTAGCATGCCGCTAC
0.5141209866854617 GCGCCGAACATCCGTTGACCCGCGCAACCAACGTATGTAC
1 CCTGAGCCGGGTGGTCCTTCCCCCCAACTGAGTACTTCCC
0.8423745854522188 GAACGCTTACGTGATACTGAATCCAAGTGGCACCACTTCC
0.2313410972321191 GGAACGCAATCTCGCTACATCCGCACACAACGCCCGCCTT
1 CTACGAGGTTAATGTAACAAACTTGCCAGCACTTGTTCCG
1 CGCGATTTGAGTCTCGTTGACAAACCTGCGCTTGGCCAAT
1 AGACCGTATACCTCGCTATTTATCCGGTCGTGAAGTACCC
1 TTATACACCGAATAAACAACAACTAGTACGTGAGCGGAGG
0.2312597163442916 CTAGTATCAGCCAGGTAAGTGCCACTGCCTTGTACTTCCG
1 ATTCGTTTGCCGCCCACCGTAAAGTCCGCGACTTGCCGGT
1 GTGATGACTAACCTAAGATAGCTACGGTACTACGGTTCCG
0.7322649205686973 ACGAACGGCTTATCCGTTCAATCCCGGTGACTTCCTGCCC
1 AGTTTCCGCCCGCACTCGCTCCCGCTGCAGACTAAAACTA
1 GCTTCCGGCAAAGGCGCGCGTAAGCTAAGACAAAGTGTAA
1 CCAAGCCTAAGCCATGCTATCGTATGACCGCTCTGCTAAA
1 CCGCACACCAATAGCGCAGCCGGCGGCAAACGGAAAGCCC
0.567142440413277 CTGATACACCTGCGTTGTGCGATCGTTAAACTCGTTTCCG
0.5669247157108166 AGTTAAAACAACTCCCGGTAAAACAATGTACCGTAAGTTC
1 CCGAGCGGCGGCGAAACCGGAGTAAGCTCACGAGCCCACC
1 ATGAATTGAATTGCTCGTCCCACCGGGCCATACCGCCCCC
1 CGCCGGTCCCGCCACGTCGCTACGCGTAGAGGCGAAACCG
1 CGGATTTTGTAACAGCTGTGACTGCGTCAAGGCGGTTCCG
0.7619876339335372 CAAGTTGATCGAAAATAATATGTGGCTGGCGTCACATCCG
0.5724777730268426 ATGGGTATACAGTCGATTTCCCTTCCCATACACCATTCTT
0.7878499151823829 ACAAAACGGATATCACCCGACAACAGACACTAATCAGTGC
1 TCTACCGTTTACACGCATCGTAGCGTCGAGACTACGCCCG
1 TTCCGGGTAGAAACGCGGCCAATTACGGCGATGCGCTCTC
1 CATAAAAGAGGCAATCCGACCATGACTCGCTGCATACACC
1 CAGTCACGACTGCACCCCACGAATCCCTGGAAACGCGATA
0.8211544469400688 CGACAACATCCGGGTCAATGAACGACCTATCCTTGTCTTA
0.3045576080283688 CTGATCCGGCGTACACCGCCACACGCCACGGCGTATCTTG
0.001612457520126178 GTCCGTACACTAAGCGGACAGGCGACCTGTCCCGCTTCCG
0.5590382950862103 CACTGTGCCATTCGTTACGCGTACACTTTCCGACATATGT
1 GGGCAACCAGTATCGAAAGAGCAACGAGAATCGCCCACTT
1 GATGTTTTCATACTGATATATATGTAACAGGAGAGTTCCG
0.2324776956870775 AAGAACTTCCGCCGCGCAATGGCCTGCCCGACATCACGAT
1 CCTCAGTCGGAAATATCCTACAGCCTTCGCCTACTGCTTA
1 TTTCTCGGTTGCGAGCTTGTTGTACGTGGAGTCACGTCCG
0.04821977699209402 ACCTGCCGCCACGTTTCCCGTCCACCTTCCCCTCCGAACC
1 ACCCAGCCTGGAAGCTACCTACACTAATGAATAGTGTCCG
1 AACCCAGCCCTCACCCCCTCTCCTGTCACCTTATAGTCTT
1 CCCACTAGCCGCGTATGTAACTACCAGTAGCTTACATCCG
1 ACCGGAAACCACACCGGCTCCGCCGTTGACCGCCGATCTT
1 CACATCCGCCATCCATGGGCTGACCCAGTACCTTGAATAG
0.06751640565381538 ACGCGACCGCATCTATTTCCTGTCATGCTGCGCTCAGTAA
0.9999900361596064 CACTCCAACGCCTAAATGACCTCTATATTTGCGATATCCG
1 AACTTCTCGTGTGCACGGACTCGCGCATCTCGCACGTACG
0.6213528732066068 GAAAATGGTGAACTTGTTAAACTCCTCTTCCGCCTGTTGT
0.03669768021360161 CCACCCCCGCCCGCAACCAAACCAGCGTAATCCACATCCG
1 TTTACGTTGCTGACATACTACTGGCCACCGCGTACTGTTA
1 CGCTGCTACTTTCAGCAAAACCGAGCCTATCACGTCTACG
1 AGTAAACCGTGCCGGGTCCCGCCCTTCAATCCGATTTCCG
0.5930821236311933 CAAATGTCCGGTCGCTATACCGTACAAGAAGGGATCGACT
1 AAGTCAAATTACTTCGACCGGATCTAGATACTTCTATCTC
0.2880446489251333 AGAGCAGAAGGAATGGACATCCATGCATCCGATCGTACAG
0.1718265893906232 AGTTTCCGCAATTTCGCTCCTTGCGGAAGGTATTGCTTTG
0.3499840850866322 TCGTGCATAACTTCCTCGCCTGCTCAGCCGAGGAGTTCCG
1 AACCACCTCGCACTCTATATGGTCTTACTAAGTCCATCCG
1 CGCAGAAAGCTAACCGAGCTTCGACATCCTGCGGCGTGCA
0.1742611518420327 TGTGATGACAACAAACTAGACTTCCTGTCCGATCAACCGC
0.5762033180933938 GAACATCACGGATACAGGAAACAAGACCCAAACAAAGCCA
1 TCCGTGCTCGTGACCGGCTACCACACAGATGAGCCCCCAG
0.6683097068243645 CCCGCACGAGTGGCCGTCACTTCCACGGCACATACCGGGA
1 CATTGCACTCCCCCCACACCTTAATAAACACCTGTTTCCG
1 ACCTCGCCTTTGTCCTCCGATGTGTTTGTAGCGTCAATTG
0.004964141400216623 AGCAGAACGGTGCTGGCGCAACAATCACTTCCTGCTGCCG
1 ACTTCCGTGACGCGCCACCACGCCGCGGATCCGCCTTACA
0.5341501452599791 ACGCCCGCCAAAGATCGTCGATCCGCACCGACAACCGGAA
1 CCAATGTACCTACGCAAAGGGGAAACGATTCTACGCTTGC
1 GCAACGCAGCGCGAAACACTGCTATAGGCCCTACACGTTC
1 AATGCACGCCCAAGCGGTACACTGGACAGCTCCCGCATCC
0.4420900961455895 ACCAGCGCTCGTATTGCTGGCTTTGTAACAGGAAGTACTC
1 TTAAACGCGGCCTTTATGTTCACGAAATGATCCATTTCCC
1 ACGCGTCCGGCCCATTCCCCTGTTGCACCGAAGTTGCCCT
0.9573249450004344 GCGATCGTCCAGTGCAAGTACGTTTCTCACATAACGTCCG
1 CCCGCCCCACCCCTGCACACAGAAAGGACGGTGATGAGGT
1 TTTGTAGCCCGTATTCGACATGCTGGATACAGGCGTCCAC
1 CGGATGCTTCCCAGATCCCTCTACTCCCTCCTTATGGAAG
0.8190478066316376 TCTGCTAACCGCCCGCCACCGCCCACAGCGCGCGCTTCCG
0.5767258968211127 CACTTGCCCTGCCGTCGTTGCGCGTCTCATGTTTCCTGTA
1 CTCACTCGCGACGAATCCTACCCCGTTACGCAGCACCGGG
1 CGAACACATACTCATGGCACGGCCCCTACACCAACTGTCA
1 ACTCGACTGTCCCGGTTGCAGGCCCGCTAACACGAAACAT
0.02860779277249181 GGTGGCAAGGCCGTGTAGCTGCCGTATAAGTTAACTTCCG
1 CTTTTGTCATCAATAAGTACTTTCTTAGACGGTTCTTCCG
1 CCTTCGTTTTTACTAGGTAACTGAACATTAGTGAGTTCCG
1 GGCCTATCGGAACTTATGATGTCATGGGCCGAGACATCCG
1 GTATTGATCCTCACTCTAAACAGCTTTTTACTCGTTTCCG
0.4819512247966038 TCGAGGTATGTGCCATGTAATCGTAAAGGAACCCTTTCCG
1 CCATCCCCCAGCGCACAACGGACGAACATGCCACTCCGAC
1 CATCGAACTATTAAAGGTTGATGAATATGAAGCCTTTCCG
1 TCCATACACCCTCCCCACCCCTTGTCCCCCCTCAGCCACG
0.09685410896675418 GGTAGGTAGCGCGGTCTTTCGTAAATGAGAGGCATTTCCG
1 CTGACGGGCGGATCGTCCCGAATAACATACCACTACACCG
1 TATGCCACACTCACCACTAAGCCATCCCACTGTACGTACC
1 ATTCCCGGAAGCCCCAGCGTTCTCGGCCTATTACACACGC
1 CCACACGCGTCGCTCCAGACCACTTTCCCTCTCACGATCT
1 AATGACCCCACGTACGGTAACCAAAACATGTAGCCGTCCG
1 ACCGGAAACTAAAGATGGGGCTCCCTGTTTGCCTGAGCAG
0.1608427550255217 GGGGTCCATGAAGCGATTGCTTATATGTACATAACATCCG
1 TGGCACATATGACACCAAGGGTGGCAACGCCCGTCCCGAG
1 GCCCCCCCGCACCCATCCCCCACCGGCATGCCGCCCCACC
1 CGGCTTAAGAGACACCCCTGACGCACGATAGACATGCCCA
0.8699949515841462 GCCCACCAACCGCGTCTGATACGTAACCATGCCGGTTCCG
0.0149598007551592 TTGCTGTTGATGAACCGGATACCTCCGTTGGTGGACCCCC
0.8141219204029274 AAAGGTTCAAATTTAAACATTCCATGCAGGTACGTTTCCG
1 TCGAGTCGAGCGCGCGCCACTCCCTACCGCATCGCAGCCC
1 TGTAGAAGGTACCCTCAAACGCTGGTTCCGCTTTAGCCGC
1 TAAGGAAGTGCCTTAAATTACACACGTGACGCAACAATCC
1 GATACTTTACCTAGTCAAGTCTCACTCAGGTTCGACTTCC
0.07364790068574413 CAAACTTCCTGTAGCAGGCATTGACCGTCTACCGTCCTTC
1 CAGCAAACGGAAGACTGGCAAAAAACCCAGCCAGCGTGCC
0.1735069015785192 TGCGGAAGTGAACTGCTCGCTTGGCTTCAACCTCGAGCGA
0.577987232648374 CTGCGCGCAATCCGGATACGCTAGAATTGGCCGCTAACAT
1 CCCCCGCCGCCTCGGTACCCCCCCGCCCTTACCCATCTAT
1 GGTGTGCCGCCCTGCATCACTCGCGCTTAACTGCGCGCAG
0.405649467848492 ACAGCAACGCTATAATTTCCGCATATCTGGCGATGGGCAG
0.4330941140651748 TCTGCATTCGATATAGTTAACTATCCGGAAGGTGGAGCAT
1 AGCACGTTGTAACCGTAATTAATAAGCTCATTGTGTACCT
1 GGTAGCCGCATAACGTGAGGGCCGGCACCGGAGCAATCGA
1 GATGTAAGCTGCTGGTCCGCTTGCCCCGGGATTGCTTCCG
1 CCACGTCTTTCCGGGCCGTGCATCGAACCTCTACCAACAA
1 CGCATTCGCTCAGCAAGCGGGCCGTCCGTCTCCCGAGTCA
1 CCACGCACCCCCACAACACGCACCCCACCCGCCGCCCACT
1 CTCTGAATGATAACACCTGTACATATCTCATTGTGTTCCG
0.5687226682198447 ACGCTCCGCCGCGTGCTTCACGCCTAACACGTACATTCTC
1 TACCGTAAGACACACAGCGGGACGTGTCGTCGTCCGTTGG
1 CCAACAACCCCCCTCCCACGCGGCCCCGCCCCGGTCACTT
0.4731348935777019 GGAGTACCATGCAGTCAAGGCCATGCAGGAAATCCACGGC
1 CTCCGTTCCAGTCAGAGCGGATCTAATCCGCAAACAACGC
0.9092121865142412 TGTTGTCAAAAAAGTAAACTAACTTATAAGCCTGCTTCCG
1 TTTCCGGTAATGGCGTATAAACGATTAAGGTAAACACGCG
1 GCAGCCACTCCTGTCGCGCAAGCCCTACCGCTCTTCCGGT
0.2479610099138188 GACAGCATCCGGGGCAGGCTCTGCTCCTTATTCCGTATGC
1 CGACGTTCACCGACCAAGATGCGACCTGGTGACCCCGAGT
1 CCTCGTCTCCACACCCCAGGGTCCCTCCTGAACCGGATAT
1 AACGTGATTCCAAGGCCTAAGCACCCCGGGGTTACTTCCG
1 TCAGTCAGTCCCCTGGCCATATCCGCTGCAGCGCTACATC
0.2108417345302325 CAGCGACTGGCGCATCCGTCTCATCCCAAGACACCCACCA
0.4133680258389024 CGCAACCCCACCCCCCCACCTCCTACCATACCGAATCTGC
0.9755821663193011 CCCACCGCAAGCGAGCAGCGAGTAAAGTTAGCGATTCGCT
1 CAAACCCCCGCTCCCCCTCCACCGCCCTCATGCCGACGCG
0.7332796512812757 CATGTACTATCGTATCGCTTCCTCCCACATATCCCTATTC
0.7910864476373797 CCCGGGACTAAACCCAGGTAAACCGAAAAATCGGTTTCCG
1 CACCGTGTATGATGAATAGCGTGATGTGGAAGGCCAACTT
1 TCATGTCCCCGTAAATAGTCGCAGACTTATGTTCCGGGTG
0.4499794004989739 ACAACATCCGTTACCCCAACGCCAGCATGGCCACCCAGGT
1 CCTCCCGTCGGCTCCCGTAGCGGAAGAAGAATACTCACTC
0.3891495609241882 CAGACTTCCGGATCACCTCTGCCCCCGCGACCCACGGCGC
1 CGCCCACTCAGGCGTAACATAACAAACATGATGGGTCCGA
0.2864022957528337 CACTTGCGGAAGTAGCGAGCCGCACCGCTTAGCACCCCTC
1 CTCCCGCCCCAAGCTACATTCTCTACTAAGACCTACTTTT
0.5148167544347257 GCGTCACTCTACTGTGTGCTCTGGGCGTGGCCTTCCGGTC
1 CCGGGATGTACATAACTCGTAGGATCGGCTACAAATGACC
1 AGTAACGCGCTAACACCGAACCACCTGAACGCAAGCAAAT
1 TCCGCGTTAACAGACAAAACTGTTCCGGGACGCCACCATG
1 CTCTCCGTCAGGCTAAGCTGCTCGTGGCTTCCCCTGACAC
1 GACTTAGCTAAACTAATCTAAAGTTTCCCTCTGCCACACC
1 AGTCTTAAACGCCCCCAGTTGTATGTTCATTCGACATCCG
0.7086679179929998 ATAAACGTTGATTTCTACTGCCGTTGCAACAACGTTTCCG
1 AAGGTAGTCATCCGTCGGCTTGTACCTGCAGGTCCACACC
0.3365375837021127 AGAGTAGCCGTAAATTTCGTGCGTGACTCATTGCCGGCTG
1 GTAAAGTACCACCGTAGGCGTGGGCATGTAGCCTCCGGTT
0.9265881880617245 TTTTGCGCATTAGCCATCTAAGTACTAAAAACCACTTCCG
1 GAATGTACACTGTTGCTGAACGTCGTACGCACAGTATCCG
1 GCACGCTTCGCCCCCGACTCCCCCCTACTTGCCCTGACAG
1 AACCAGTATCTAGTGAGTTAAAGCCTGAGATGCTGTTCCG
0.7174443496666701 AGAGACATGGCGACAAAAGTAAGCTACTGAGGCGTATCCG
1 GCTGCGCGCCACCGAAAAAATACAACACCCGTGACCCGTC
1 CTTTCCGGTGCACCACAGGTAAAGCCTGGCCACGGCCAGC
0.1756040191230565 CATTTCTGAAACGGTCTTACTTAAGTAGTATATACATCCG
0.3773731511893623 AGTTCTTCGCTACTTTGACGTAAATCATGGCTGATTTCCG
1 AGAGAGACATGGAGAGCCAACACGAGCCGCGGGCTGAGGT
1 CACCGTAATCCCGATCAATCGTGTTGCCGGTGAGCAGACT
1 AAATAAAGACCAAACGGTTCCTTTGGGGGCGTCCTTTCCG
0.9705599522135105 CTGCTCAACTCCGGCTATGCATTCTAAGTCAGGACTTCCG
0.6343497101995741 ACGCTCCCGAATGGCAGTATGTCCGAGTGGGACATCCGGC
1 ACGACACGACGAGAATTATAACCTCACTAGTACTGTTCCG
1 CGGTCGAATCTGCGTTAGGCACGCCCAGTGACCATGAAGT
1 CCGTCCGTACACCGCAGTCAAACCCCCCCAAAATGCGGCT
1 TCCTCACTATGCAGGACCCGTACTTTTCGCAACGCTGCTC
1 ACCACAATCGGTATTTACCTAAGCCGTTGGACTGGGAGCA
1 ACTCAGTCCTAGAACATTCTCCGCCCCGTGCGCATATCCG
0.4371314386117525 TCGCAACTCCCGGACGACGGATGTACCAGGTCACGCTCCG
1 ATACTTCCACCGGCCACTCGTTAGGCCGAGAGGATTGGAC
1 ATAGATCCCGTTTGCGACCAACTAACCCATCAGGAAAAAC
1 TACCCCGCATCCTCCCCCCCTCCGTACCCCACCCAGACAT
1 GTGTAACACCTAAGTAAACCCTTCCGGCCTCTGCAAAATT
0.1808440335063252 CAAGCACGAACGGGAAGCCACTTACCACTTCGCATTACCC
0.1217004327591956 GAAACTTCCGGGCCAGATACCCGCGTAAGTAGCAGGTCTA
0.8499358332622988 AACCCGTAACACTACCGTATTCCGGCCTGCTCCAGGCGGC
0.4684194604062465 CACATACGAACGTGAAGGACAATTCCAACTGTTTCCGCTT
0.5068796544570773 ACTTTCCGGTGGACCAAGCCCAAATACCGTAAAGTGGCGC
1 CCGGTTGTAGTCAAGGACGTGGGCAGGTAAGGGCGGACGC
1 AATTATCCCGCGTGATACCGCGCTATAAAGAGTACACGGT
1 AAACACAGCAAGTTGCGCCATCTGCTTTGGATTAACTTCC
1 TCCGCCGTTAGCACGAACCATCAGCCTCCCTAACATGACC
0.9701912966996387 CGATGTTAAATGTGTGTCTAAGACTATAGTCCCATTTCCG
0.2285522759677005 ACAGGAAGCGGATTCTGCGATATCGCTGACTCACACCATG
1 GGAACCTAAATGTGTGTCCACCATTTGCCATAGCTCAAGC
0.02946116604054736 CAGCCCCTCGCCTCTGACCTCCCAGCGCCCGGAAGTGCCA
0.07672461866809799 CACGTCGACCGTCTTCCCCCCGTCACCTTATCCGGCCTAA
0.529805534816462 CGTGAAATCCGAGGAGCTACCTCGGGATTTCCTGCCCCCA
1 TGAACTTCAGACGCGAAAGACAAAATCGGATTTACACACT
1 CCATTGTACGCTGTCGTTGCACACGTCACAAGAGCGTCCG
1 TTTAATAAACTGGGTCTCTAAGGTAGAAATCCAGTTTCCG
1 TCGCATTGTAGTGTGTAGATATTATGCGAAAACGCTTCCG
0.4725490311816448 CAGGAAGCTATTGGGTGAACCAGGATGTCGACAGACGATT
1 GAGCGAATTCAACATAACTTCCCCTCGTCCCTCGCCGCTC
0.3163983755037734 CGTACCATCCCGATGATAAGCGCCATTATATGCGCTTCCG
1 ACCCTCCACCCCGGGCACACGAAGCACCACAGGGTTCCCG
1 AAATGCTCCCCAGTGATGTGCCAAGCCCTGAAGTCCTAAG
1 GGACAATAACAGACCAGAAAGTAACAAGTGCAACACTTCC
1 CCACCACACCCATTTCCACCCACCGCAAAACGCAGGTGAT
1 CAAGAGTACCTAGCCTCCCGCTAATACTAGCGACCTATGC
1 ACCGAATGCACGCGGCACCCCTGACCCAAGCGGAACCCAG
0.3969651965897895 GTTACCGTTTCCGCTCTAATCGCGCGCAGCCTCGGGTCGC
1 TGCACTCCTATACCTCGGCCTATACGCACAGCGTAGGACG
1 AATCAGCGCGGACTCGGCCAGGAGATATGCGCGTGCATTG
1 CTACATCCGTGGCGAGACCTTGCACCCTCGTACCGCCTTT
1 GAGTGCCGTTTCCTGATCCGTGCGTTCATGACCCTGTAGC
1 CCCGAAGCATCCTTCTCTCACTAGCGTCCCACCTGACCAC
0.2091780688032729 CGCATGAACAACCTAGGGCGGCATCCGCCTGTACTGCAGG
1 ACTAGTAGGACCTCCGCCTTAATAGATAAGGCCGAAGTGA
1 ATCGCCTCCGCGATCGCTATTTGAGTTAGAAAGGTTGCGA
1 AAAACTACAACTCCAGTGACCTTGCGTCAAAGCGGCGCCG
0.9169140930679428 CAGATAGAACCGCCAAGCCGTAAGGCATGGGTCTTCCGGC
1 GATGCCGAGCTTGTGCTGCCCCCCCGACTGCAAGGCCAGT
1 TGAGATGGTTCTCAAGCAATACCAAGTGGACACCACTTCC
1 GTATTCTCTCAGCGTAATATGCCTTCATCTGTGTCATCCG
1 GAAATCCTACTGCATCACGAAACTTAAACTTTCCTGTTGC
1 CCTCCTTGCCAACACGCGTCCTATCTCCTCTACACCGGTA
1 GCAGGTAGCTTTAGCGTATGAAGCATAGTGTATTCATCCG
0.2716833797707596 AATAGCACGGCGCCATCCACGTGCATCCTCCCCCTTCCCG
1 ATTCTAACTTCCGCGTCAAAGAGACGCTTAAGTTCTTGGC
1 ATAAGTCCTCCGTGCGAGTTGCATCGCCCAGGCACCTCCG
1 GCGATGGTTCTTCGCTCGTTCCACTGATCCTTACAGGCCT
0.2282810550471021 GCTGCCTCCCTATACATCCGGCCCGTTATTCCCTAGGACG
1 AACGAGCACGTCGAGCGTGCCCAACCTACACTTTCCCCAA
1 ACCGACGTGCACGACGCCCTCTCATTTCTAGCCATCTGCG
1 CAGTACTTGATCCACTCCACCCCGATGATGCACAGTCCAG
0.1540850220752202 GTGCCGTAAAGAGAGCCGAGGACTTTCCGGCAATCGTATG
1 GTCCCGAGCACCCGCTACCGCTTACCAATCCCAGCCGATC
1 CGTATGCCGTTGGGCTAGCACACAAAAACCAGTGGTTTCC
0.5171533550849295 ATGGGGGCTAAGTAGTACTTCCCCCCCGTTACACGAGCTT
1 CTTTCACCTCATTCATCAAGGGGGCATATCACTGCACCCG
0.8537539343724175 CGTATTCCGGCTCGTGGCACGGGCCGAAAACGCACCTGTT
1 CGCATCCCACGGGCCCGGCAAAGCCTCCCCCTAACTATAC
1 GGCAACCCGCTACGGTCGCGCACGGCCCACCACCCTCCCC
1 CGCCACTTTCACGCGCTGCTCCATACATGACCCATGTCCG
0.8257352066436977 CCCGAGTATGTTTGGTAACGCGCCGCAGCACCAACATCCG
1 CGTGTATCTACAGCGTTCCCCACCACTCCAAACCAACCCC
0.310730957526317 CAATCGTAAGCGAAGATAGATAGGTTACTAGACGCTTCCG
1 GAGACATCGTCTCGTACATAATGCTGTCACAAGATGTCCG
1 ATACCTCGTGACCGAAACCCCACAGGAAAATACGATAGAA
1 TACACCTACACCCTATCACTCTCTTTGGCTCTACCCTGTC
0.4382828783536464 GACACGTAGTTGACATTGTCAAATACGCACCACATCCGCC
1 CGGATATACCCCCGCTCCAAATGCAGCGAAGGAAAGCGCG
0.2685477611402839 GCCCTCCCCTCGCTATTTCCGCCTGTGCAAACACTAGCAG
1 TCAAAGCTAAATCCGCAGCCATGTTCCCTTTGACTCCCTG
1 CTTCCGGAAGACAGAAGTGGGCAAGGCCTGACTCTAGATC
0.9127805454358539 ACCGACACGATGTCTACAAACCCTACAGTACCAACATCCG
0.1595147386956528 ATAAGTTAAATCGGACTGTTGCCGCTTCTCTGCACTTCCG
1 AACCACCAGCACGTGATTGCCTTACGCTGAGCCTAAACCA
0.9573377169162868 AATGACGGTGATATGTGAGGCCGAGCCCGATTCACATCCG
1 GAAAATGTCGCGTACCAGTTTCCCCTTTCTATGCAGGTGA
1 CCCTCGAGTGGCGTTAAGCGATGGAACACGCACGCTTCCG
1 ACAGGGGGCGAAATATTGTTATAGAACACCTCCGCCCTAA
0.1596256967527738 CTGTCTTGCGTGGACGGTCCGATACGTAACGATACGTCCG
0.9110244874851148 CCGGCTAAGTTCCTGATCCACTCCCACCAACGGTGCCCCC
1 GTTATACTCAAAACACTTCCGAATCAGCTATCTCTTTCGC
0.5955649823779998 CACCCTAAGATCCAACTGCCACATTGACACGACTTCCGGA
1 GAAGAACACCAGCACGCAGAGATAAGCGAGTAAGCTTCCG
1 AAGAAAGCAACGCTAAATGAAGTCATTTCCCGTCTGTAAT
1 CACACAAGGATCGACCCTGCCATAAAGGCACGTATCGCGC
1 TGCCCAAGATTATCCCGAACTAGGAACTAGCGCTCAACAA
0.2180835124932524 CCGGTATTTCCGCGAACCTGCGAGCTCCCGTCCGCCAGAC
1 ACCACCACACCGCAACCCCACCCACCACACCCCCCGCTGT
1 TTATTGTTGTCATTAATCATAAATGCGATAAAGCATTTCC
1 CACTTCCTGTCTAACCTGGTGGTGATTTCGTTTCGATCCC
1 ATCGCGTAAACGCACTAACTTGGAATTGCGTTGCCGGATT
1 CACCATATACCCACCCGTCCCCCCCCGGATCCCAAGTGTT
1 GTCACTGAACGGCCGCGTTCCCCTACCTCCGCCGATGGCT
0.7925652285272641 TTATCGATACATGATCATCCCGCGTTTGCCATCATGTCCG
1 CTACAATGCACCTCACCCAACCTGCACCACGCCCTGCGCA
0.8278800979936791 TAGTTCCGGCGTGCGGAACGCCAAACCGTAACTGACGCCG
1 CCTACCGGTTTTGCGTCTGGATGTGGAAACAGATGCTTCG
1 TGGATGTACCCTCGTCTCCCGTGCACGCAGGCAACATCCG
0.9587517221668416 GTGCGCAATCCGAACACACGAGTTGTGTCCGGTCCTCTGA
1 TAAGCATCCCCCGCTCATCCCCGTCACCCACCCCATGTCC
1 GTCATCTAATATCCTGCCACCAGGTGACCAGTAAATGGGT
1 CATAACTTTCACCGCCCGCGAACCGTGCAGAAGTTCGCGC
1 ACTCATCAAATTGCGTCCCATCCACAGTCACCTCCCCACT
0.5398328185274667 TGGCGCTCCATAAGTACCAGTCTGAAACGTGGAACTTCCG
0.923166653520242 GGCACGTAGCTTCTAGTTCCTGCCTTGCCAGTTATCTCGC
1 GATCACTCTCTATCAAAACACGTAACCCAAGTGCCGGTTT
1 GATCACAACGCGATGGTAGTCTTGCCTCCCATACCTCGTC
1 CATAGCCCCGCTCCCCCCATTCGCCGAAACAGAGCCAGAG
0.9577138355113857 CCAGACGCATTGACTAGCACGACGACCCTCCAGACCGGAT
0.5306744588004907 CCCCACAGGCGCCTCGCGCAGTATAGTAAATCCATTTCCG
1 ATCCTCGCTGGCACCCATTGGTAAGTTACCTAGACTTCCG
0.07218132526729891 GATTAACAGGTTGAGTGACATATATCCCTAGCGACATCCG
1 CACTTCCGCCGTTCAGCCCCCGATACGGACCTAGCCATTT
1 CAGACCGATGCGATGTCGCTCACGGACCGTCTCGCAGTCC
1 CCTGCCTATTAGACCACGCAGGAGCGCTGCTAGCTTTGCC
1 TCCCTCTGAATGCACCGACATCACATCCCCCTTCACGAGA
0.02920412471488474 CATACGGTTTCCCGGCGGAAAACGTCGATTTAACACCATA
1 TTACGAGCTGCATCTCTCTCCCCATCAAGCAACACCACAA
1 AACGCACGTAGCCTCAGACTAACCGGTTATTTTGCATCGA
0.02487176728544643 ACCCCACCAACTCCAAGTATCTACCCCCTGACCGGAAATA
1 GCAACCTAAGCCGAGGTAGATGCTGGCCAATCGGCTTCCG
1 TAGCCACCAGATCAAGTACAGTAAGTCCTAAGACATTCCG
1 CATCCAGGGCGTCCTCACGTTCAGGTTTTGCCCGGATGCT
1 ATGTGAGGTACGCACAGGTACTGTCATCGCAGCCCTGAGT
1 CTTATATGCTTGTTAACGTGTGAGTTCGTTCAACCATCCG
1 AGTCCGCGCAGCACAGTCGCGAACCCTGCACAAGCCAGCG
0.003060824877352368 CCGGAAGTGTTCTATAGCGACACTTCTGCTGCCAGTCCAC
1 CCTGGCTCCCGCACTCCGGTCGGCGCACCAGCAGTCACAT
0.8346446553414525 ACTTCCGGAGAGCGGGATGCACACCCCCACTCTCCTTCCT
1 AAAGGCAATAAGCACTGCCCTGAACCCATCCCGCCCCGTC
1 GCAGCTCTCTCTCCCCCCTACGGTCCAGCGCGCACACCGG
1 TTCCTGCTCTAGTGTTGTCTACCTTCTTGCTCTCGAATCC
0.4844072286505546 CACAGTGCCCCCACTCCATCCCACTTCCTGTTAACTGAGT
1 CGTCGTTGCTTATGCCAACTGCTACTGCGAACAGCATCCG
1 TCCGCTTGAGTCTTACTTAATATGCTTTCTGGTGCATCCG
1 ACTCCCTCTACCAGCCCCTCCATCTGAATATCCGCCAAGC
0.5521684477997243 GCCAGCTGCCTCGAGTTCCGGTAGCCGAGTACAGTAACGC
1 GTTGCCGGCGAATCCGACGACTTTAATTGAATAACGTCCG
0.0894784618081908 TTCATTTAAGTTATCGTGCTCTGAAGCAGAGATACTTCCG
1 CAATAAAATGTGCGTAATGAAACGCTAGTGCGTCATTCCG
1 ACTTGCTTGGACTTAACACTGATCACGCCGGTCACGCGAT
1 CACCCTTAAGACGCTCGCTTACCGTTGCACGTCCACACGT
1 CACGCGTGGGGTTCGTAACTGGAAAGTACCTTGCCCGACC
1 AGGACGTAACCAGCTGATCTAACCCAAAACCGCCGCCCTT
1 CTAAGCTGCGCTGACCCGAACCGCTAAACAGGATTCGAAA
1 TTATACCGTAAGGCATTCCCGTCCCTGCNGNNNNTTAAAC
1 ACTTCCGGCGGGCCCAAGGCACGATGCTTCTCCGTAAGTA
1 CTACCGTGGTAGATAAGCTACCGATACACAACATATAAAC
1 CACTATCCCCGCCCGCCCCCGCACCTCGTAACACCGCCCA
0.5348548969507638 ACGCGCATGAAACCAACGGGTGAATAGCTTTCCGGTAAAT
0.03886662139935031 TGACTGTACGCCCGTAACGCGAGTAAGTTTGCCACTTCCG
1 CCCGCGTCCGCAACGGACCCCCCACCGCCTACCTGCCCGC
1 CCTGCGTACGTCAACAAGGCAGTCCCGGGAGAGAAATATA
1 CGATGATGTTTGACATAGAAGGATGTAACAAGCTACTTCT
0.09312404828369272 ACATGCTCCCTACCCACGCGAACCGGTATAACTGTACCGC
1 GCATCATCACACACAGAGGCCAAAGCATGTCCTCACAACC
1 TGAAAGTGCCTAGTAGTATGTAGTAGAGGCGAACGTCCAC
1 TGTGAACTACGTTACATGCCTAATACATCCACCACGAGCT
1 TTTGGCGGTTGAACATGTGACACACTGGTTGCTGTTTCCG
1 TATGCGCTAAGCGGGGTCATTATCCCGCATCCGCATACCA
0.6591570311229703 TACTCCGTAAACTTCCTAGACACGCCAGGATGTTTGACCG
1 CGGTATATGCGCGAACTGGTAATTAGCGACGTGAGTGTCA
1 ACCCAAGGCACGAACAACACAGGCCGCGATGTCAGCAACC
1 CTCCACCCATGTCCGGGAACTCCGATTCCCCGAAATGGAC
1 AAGCAATGTAACGTGCAGTCAACGGTGGATCTTGATGCAC
1 TCAACCCAAACCCTCCCAACCCTAACTGCACACGCCCGGC
1 CATCGCCTCACTGACTCTCATCATTCACCCCACGTCCCCG
1 ACCTAAACTTCCTTTAAGTACGCCTCTACTTAAATTAAGT
1 TCTGGACGTTCCTAACGACTTCCCACAAAGGAATCCCACC
0.3943113189107935 GTGACAGTCGCCCGTACCGTAAATAACGCTATTGCCGGTG
0.8625395392696703 AGGCGACGCACCGCTCACGGTAATGCGCGGTTATCACTTT
1 ACCGGTGCGTGGCCCGCCCGTAACAACCCTTCACCCATGG
0.2280368706445182 GGCTAGTATAGCTGTGCCATGCTTGAGACGACCGGAAACT
1 CACTCCCCGCTCATAATTTCCCTGAACACCGATGGCGACC
0.9629429365501734 GGCGCAACGTCGGGGACTTCCGCGCGGCGCATGATTTCAC
1 GTGCTGTTAGAAGTTAACATGGGTTGGTTGACGAGATAGC
1 GATCTTACGATCCTACCGCAACGCCCTTCATCATGGATCT
0.9524043872762868 CCGCCCGTAAACACCCGAGGGTTACCCCACTTTGTTTCCG
1 CATCCGCCCCGTACAGCGTCAACCCCCCCTTTGACTCTAC
1 AAGCAGTTAAAGATCCATTCCTGCTTTCCTTCCTTCCACG
1 ACCTCCGAACCTGGTTACGCGACTTTCCCCCCAAGCGACG
1 CTCGGCTCCACCACGCGCAAGCCTAAGCATAATGCTGCCG
1 ATGCGCTATTCCCTGCTAAACCCCGAGGAGTGAGTTTCCG
1 TATAGTGCCACGACGAAAAGTGCGAGTCGTGAAATCTGGT
1 CACCACGCAACCCACTCACCACACCGGTCTTACCCCCTCC
1 ATATGCCCGCCCGCTGCAATCTGCCGCGTTACGGCATCCG
0.03014497027311841 CGAATTCCTATGCGTGTTTCCGCAAGATTGCGTAAACTCT
1 ACCCTTCCCGCATGGATAGCACCCCCGCGTGCATCCGACA
1 CCCGATGGTTGAGCGACCAGCTTGATCAAGCAAACAGGAA
1 TTCCCTGCCCGCACCTCCATGCCCAAGCTCCTACCGGACC
1 TTGCAAAACCCGACACTTCCTTCCTGCGCTGCCCGTGGTC
1 TCCCCCACAACCGACGATATACCCCGACAGAAAACCAAGG
1 TTAAGGTTAGGGTACTAGATACCGAGGGTATGAAGTGGTC
0.691265937325945 CATAATGTCCATCACATCGAACACCCCCCCTCCCCACCCC
1 ACATCCGCATGCACTCGCTGCCCACATAACCACTTGTCGC
1 CCCCACCTGCGGCCACGTAAAAGCTGCTACCACCCGAGCA
1 GGGCAACACCGTTCATGGTCCAAACGATAACCGGTAAGCC
1 GAACTCTGGCCCACAGAACCCGTTCCCGAGACAAGCCAGT
1 CCGCACATTAAGTGGAGCGAACTTCCAGTGACGGACTAAG
0.7041570703689961 GGATCACTACCAGGACGAGCTGACGCGAATGCGGAAGTGC
0.7242281882409314 CAAAGCCGATATAGTAAACCAGCCTGGGCATCTATTTCCG
1 AGCGCGAGGGAGTAAATAAGACACCTCATGGTCCGGCGAG
0.4027200477163689 AATTTCCGGTGAACTGCGCTTCACAGCGAAATTGTAGCTG
1 TTGGATAAGCAAACACCAGACCCGCACCTGCTCCAATGGC
1 TACCGCCGCGTCACCATGGTAAAATCATACCTCTTTTCCG
0.3615075708610849 GTGACTTCCGTCGCCACGGCCTGTCAACGGGTGGATACGA
0.1269640506649607 CTAACCCTTGCCCGCGTGTTGCAAAGTAAGCATGCTTCCG
0.2528590498345868 CACTTGACCTAGCACATGTTCCGGTTCACTAGCCCGGACG
1 AACGTGAAAGCGTTCGCCCATCTATTAGCACACTTCCTGT
1 ATCACTTCTACCACACCACAGCCACCCCTCCGCCCCACCT
1 GCTGCGTGTCGTTTCCACTTACATGGTGGGATCCCCGCGA
1 CTTGCGAGCGTGCCCCGTCCGCCCCCATAGATGTCCGGCT
1 GTTAAGTAGTCAACAAGTAACCTCAGGGAACGAGGTGCCG
1 GCTCGTTCATTACGTGAGATACGATTTCCCGTCCGAGCTG
1 ACAACCCGCACCACCACACCCCACCCAGCCCACCTCCAGA
0.9930497201982872 CCAGGAGCGAGACCCGTTAAGCACCCGAAAGGTGCTTCCG
1 CCCGGAAGAACAGTATGGGAACGACCCCGCGCACGGAAGC
0.9176083095358955 TGGGGCTGTCCGGCGCAGCGCGTAAGTCCCCCTGTGCTCC
0.4386911918460704 AGTTCCGGCTCGGAATGCCTCGACCGTAACTCGAGGTTAA
0.5163073831172177 TCACAAGACGCGAGGAACGTATGCGCAATGCACGCATCCG
1 CAAGGAATGTGCGTTCAATTCCTTGCTTTCTTAACAGCGC
1 CACCGAAGCGAGACAGACCCGCACCCCGCGCACGCCCTGC
1 CAACCCGGTTTCACGCGAGATCAGACCGGCTCCAGTATCG
1 GTCAGCAACTATTGCACCATAAAATGCATTAATCCTCCGA
0.7816149573214166 TATCGAAGTTGATAACTATTCGCCCTTCCCACTTTCCGGT
1 TGTGACGAAATGGCACTCCGCTCAGCGCTGAGCTACCAGC
1 CTACCTTCCCGTCGACGCCTACACACGCAAACCCCACAGC
0.5792322482050886 CAGGTAGCCCCCAAGACCCTTAAGTGATTGCCCACTTCCG
0.5141036752345253 GCCGTAAGTCACAATTTAATAGTAAAGACACTGACTTCCG
1 TAAGCAAAAGGTGCAAGGTACGCGGCTATGTCCGCGTCCG
1 TGGTTGCATATATCTAAACGTGGCACGCGTTATACATCCG
0.2682939856683546 GGCGGCAGTTCCTGGGTCCGCACTATATCAACGATATCCG
1 ACTCCAGAGCACAACCTGCCGACACGGGAGCTGACCACCC
0.9501785175794181 CTTAACACCGGCGCACCCCTAACACCCGCATAACGTTTAT
1 CATCCAGCGCTATGTCCCCGACATCCCGCCCCTCGTCACG
0.1924906988405291 TGTGACTAAGTCCTCGTTTACTTTAGCGAGTTAACTTCCG
0.3240269614436314 CCGTCCGACGCTGCGGACGCACCGTACTTAGGGTCGCGAG
0.0258622829515164 GCCCATTGACACTACCCTAAACCCCATATAGACGTTTCCG
1 TGGCGAGAAATTTTACACTCAGCAGACGCATGAGTATCCG
0.3585634542172454 GTGGCCCTTTGCCTCTCCTACTGCGCTGACCGGACATAAC
1 AGCCGACCTCACGTTGCTGTTACAACCGCCGCAGGGTGGA
0.8939957571994658 GGTCTGTGACCGAAAGAGGGGTAGGGGGCAATATCGCTGC
0.5295683704243546 CAGATTTCCGAATGAAGCAGCTGTTACATCATGATGTCCG
1 CAACACACGCACACCGGTACCACCATTCCAAATTACGGAA
0.6337882568690707 CTGCCCCACGTCTTCCGCTAGTCCACAAAGATATTCCGAA
1 GCACCCCTTACGACACTGTTCATGACGACATCCACCCACC
1 TCAATGTATCTAGCAGGGCGGACTAAAGATCGGAAATGAC
0.6344597754102943 AATAAAATCAGAATGGGATTCCTTTATGTTTCCTGCTTCC
1 TTCATCCGTAGATGGCGTCTCAGATCAAGACATCTCCGGA
0.1694512304388612 GAGTGCTTAAATTGGCAGCGTATGCTCTATTTCCGCACTT
1 GCATTTCCGCTGTCTTCTGCTTGGATGCAGTGGATCCGTT
0.007733176031893966 CGTTGCCTTAAATGTTGGTAGTGTCCAAACCACATTTCCG
0.4583126247838964 ACGTACACCCGCATCCCCCTACCCCCCCCCGCGCCCACTG
1 CACCAAATTCCGCAGACCCAACCCCCTACTTCGACCGAAA
1 TGTCATTGCGTTATGCATCATACCCTGTCACTTGCATCCC
0.3482807198100262 ATTGAGCGCGCTAACTAAGACGCACGGATCGCGACTTCCG
1 CATGCCCCGAAGAATCTACCCCTCGACTACTACGTCCCTC
0.698825353419109 GATTGACAGCCGAGCGGCCACGTTTATGTGAACACATCCG
0.6025477816584137 CCTCAATTAACCACGGTTCCGGAGACGCGGCCATGCAGAT
1 ATTTCGTACCTGCCAACGCTTGGCCTTCGGTAACCCGAAC
1 TTTGGCATCCTCAGAAGATTCTAATTATGCTTAAACGCAA
1 CGATACTTTCATTCCCTCTGCCCTACGCGAGTAACCGTCC
1 CGCGATGCCGCAACCGTGAGCCCCAATGCCGTCTGCGGTC
1 CGAACCTGGCCTGAGTAGATCGCGTGAAAGGCGATCTCCG
1 TCTACGAGCGCGAACGTACACCAAGATGTGGCGGTGTCCG
1 GGTGCATCCGTCCATGTATCAGGTTAAAGGCGCTACCATC
1 CAGCTCCATGCCCCACCACGCCCACCCTACACCGCGCCAG
0.8247706007141625 CACGATAACCACAACCCACCAGCCACACGGTTCCGCCCGC
0.4858773837522002 TACGTGTCTTAGTAGGGCGATATGTCCGAAGTGCCATCCG
1 AGCGCCTAAAAGCCTTACAACGAGCGCGCCCACACCCTCC
1 CTCAGGCGACGGAGGTGAACAAGAACCATGTATTAGGGCA
0.2901124814053789 GACCGAAGTAACTCTGCCATGAACACCTCACGTCCGTCCC
1 AGACTTAGCCGTTCGCTATAGATCTGACTAAGCCGGCCCG
0.991713160942882 GCACATGTATTGTATGCCCTACACGTTATAGACATGTCCG
0.3479418287796469 TAGTTGCTGAGACGAACATTTCCGTTGAAACCTAAACCGG
1 TGTCGAAGCACGTGTGAAGTGGAGATGCTTATTGAATAGG
1 TACCGCCTCCCCGAATGCGGCTATACGTGGACCACGTCCG
1 GGCACGGTATGACAATGAACACGAGACGACGAACCGAACC
0.08084978821874841 GTAAGTGCCAGGTGACAAAGCCGCCATGCCTGCACATCCG
1 GCGCAGGTGGGACATAATACACTGGCATCCGCCAGGGGAC
1 CCCGCCCGCCCGCGTGAACCTACACCAACTCGCATAGAGC
1 GGACACTGCTTTTCGTCTGTGACTGGACGCAGTTGTCTCA
1 CTTAAAGTCCCAGACCCCCTCACACTCACACATCGTAGCT
0.595152042996886 TGAGCAGCGTCCGGTCCCAAAAAACTCGAACCGTACGCAT
1 CACACCCCCACCCGCGGACCCCCACTCCCACGCATCACAC
1 GTGTGCGATTGTCACGGTGCTTTTTGTGTCTAACGTGCTG
0.8855348052864469 CATCCGAAAGGATTCGATCATATCCGCAGTACCAATAGAC
0.290160015351326 ACCCCACTCTGAGCCCGTAAAACCACTTTTCCGGCCTAGC
0.2875991114432399 CACTTCCGTTCGCGCGTCCGTACGGGAACATCACACCGAG
1 AAGTCAACATGGCAGTCTAACAGGAGGTAGCGCAATGCAA
0.3200374003889653 CATGCATCCGCCGCGTCGTGACATTCCGCAGTCTATCGAT
1 GTGAGCACTTTACATCCTCTCCGTTTTTGCCCTGCTGTAG
1 TGCAGGAGAGCACCCGTATATCTCATGATAATCCGGTTGC
0.2746396889304615 CAAAAGTCAAAAGTTGAGTCCCTTCCGGCGAACCAGACTT
1 CGACTCGGGGTTGCGTTCGCGATTAAGCCAGGGCCTTTCA
0.02250486403335931 CCTGCCCAGCTGACCGACACTTCCGCTCTACACTCCCAGA
1 GTGACAACCGAATAGCAAAGGCTACCACCATAGTCCCGGT
1 CACGGCGTACCTTAATGCATAGCTATGAGACTTCCTGCAT
1 CATAGAAGCAAAGCCAAGGCGACGTTGGTGTCAGTCGTTT
0.726266487985931 AGCCGGATGCGAGAGCGTATCAGCAGAATCGCTCTCCTAC
1 GACGCAACAGTGACGCGCCCGCACTACGCCAGAGAGTCCC
1 CCTTTACCTCCCCCATTTCCTATAGTACCCCCTCCTACCG
0.5503535635088547 CCATATCCGGCATACCTCAGCATGTTACTGGACACATTCG
1 GATATAGGGACCTTTTCCCACCAAGGTGTGGATTTCGCCG
0.04079381983721311 GGCCGGGACAACGCTGAAGTTATTTAATGTGACACTTCCG
1 AATTCAGCACGAGTCAACACATTGCCTGTGAGCCCTGTCG
1 CTGTGCCAGTCACCCATTAAGTATAAGAATATTACTTCCG
1 GGTGTAACACAAGGCTTTTGCCGACTGCACTTTGCCTTCC
1 ATTGCGTTTGGTGCCGTGCATTTGGCTTAAGGTAACCGCG
1 CACACAGCCCCCCAACCAACGCAGCCCACCCACCGCCAGA
1 AGTGCCTAATCATAGCACGGTAAAACATTTAAGTTTTCCG
1 CATCCGCTCGTTCTCCTATTCAACAGAGCACATAGTAAAC
0.263080987249117 GGGCCTCTTCTTCCGGTATTCAATCCCGTAAGATTGTGTG
0.6530423087673303 ACACTACATACACGTCCACTAAACGCTGCGTCTGTTTCCG
1 CATGACCGCTCAATACCGGTCGTATGATGTCGATCATCCG
1 CCCCGCTGCCTCCGGTAGCCGCAAACCGTCCCTCACACCT
0.2727110091664964 CTACAAGCGGATGTACGGGCCCCGGCAAATCAACGGAACT
1 TAAGGAGGGATAAGGTTTGCGTTTTAACACGTACCATCCG
0.1085060511118526 CGCGAAGACCAGAGTGCCACACATGCGCGGACCGGAAGCC
1 ATGACGTAAACGCGTATGCATATGGCACTAGGTGCCTTAC
1 GCGGAAATACACCTGTCTTGAGCGAGCGAAATTCGTGACG
0.1882633086049368 TTAGGCGCGGCATCCGTCTCCCGTAGGGGGCAGCCAGAAA
1 CCAAATTCCCTCGCGCACCCTCACCGTTCCTGACGGGACT
0.09975657671006632 TTCCGGATGTCTAACTACACACGCACTCCCATGCCCTCAC
1 TTACACTCTGTCCCCGCTTCCCGGTGAACTACCGCTAAGC
0.3359719505844898 CAATATTATATCCGGATCCCTATCAGTATATTGGTCAATT
1 ACACTTTTACCCCTCACCTTCTACAGGATACGCCGCTCCC
0.4870376960254799 CTGCTTCCGGTCCCACGTGATTCATGGCCCAAAGCTAGCC
1 GAAAGCCTCTTCACCGCGTATCCCAATCTACAGGGATCCG
1 ATGCAACTATGTATTCTACCCTACAGTTAATGACGCATAA
1 CCCCATCCATGCACTTCCACCACCACCACGCGACACCCCC
1 CACATTAAGCGAAATGTCCAGTCCGAGTCCTACGCTTCCG
0.2041630785917105 CGTGAGCTTCCGTTATCAAGCGTGCGTCAGCGGCGCGTTT
1 GCGAGTGGATGCAACCTCGATATGATACGACAAAGCAACG
1 ACAACCTAATCAATCCGTGTTGTTAGCCCTCTGACGAGTC
1 TGTGGAGATCAGCCAGTCGTTAGCTTCAAGTACCGAGGTG
1 CCACATCCGGTAACGACACACTCCAATCCAATGACCAGCG
1 GTGGCGGCACGTTTCTGACGTTCTCGTATGCATGCATCCG
0.5911612986465634 TATACTAGTGTATCCGGAGCTCTATGGCCAAGCATTGGAA
0.492650639483643 CCGGAAACGGTCTGCCCACGCGCGTTTACCTCAGCAGCTG
0.7583393080032037 CAGGGGCGTGATTTATGTTCTGCTCATGTATTAACATCCG
0.005044977282150365 AGCCACCCCATGCAGAAGCCCACATCCGCTTCTAGGAACG
1 ATCCTGCCCCGACCTGCCCACCCCCCAAGGGTACTAACCG
1 AGCAACACCCGGACCCGCCACCCCCCACTCGCCACTTGAC
0.6611871370249529 CGCGATAAGTTCCCAGTGACACCAACCTGGGATACTTCCG
1 CCCTACCCACCACGATGTATAGTTGCCGATGCTTCTGACT
1 CCGGATACCGGGACGGTGAGAGAACGATCCACGTGGAATT
0.3189986290610193 TGTCATGCCCGTCGCAGTTTAAGTGCCTTCAGCTCATCCG
1 CTTACATCCTGCAAACGCGTTGCGCCGCGGTGATAGGAAA
1 CACGGGAAGTCATTTGATATTACACGCGAACAGGGCTGCG
1 GATGCGAGGGAACCACCACCCTCCGCAAACGCTGCGCGCG
0.5193437663491151 GGCGCGAAATAATGCAGCCTATTTCCGCCAGGTCTGGTTG
1 GTCCCGGTCGTTACCCGCANCCCTTACCATCATAGTACCC
1 ATTTCCGGGCGCTGGGCCCAAGGGCGGCACAACGTAAATC
1 ACCCAACGCCATCCCCCCCCCACCCTTACCANNACACGCC
0.3464949681367108 CACGCGACATCTTCCCAGCCTCGCACATATCCGCAATCCA
1 GCTAGACCCAAGACGAGTAAGCCCCGCTCCGAAACGGAAA
1 CGCAAGCGACCCGCCGTTACGCTGCTACATCCAAACGGGG
1 CAGCAATTGTCCACCTAACCATGACTGAACAATGGTTCCG
0.9418957610221441 GCATCACCCAAGGTAAAGATGTTCGTTAGTATCACATCCG
0.768976484153911 CATCCGGGGACGCCCCGGCGCCACGCGTAAGCACAACCGC
1 ACATCCCACCGAAGACAAGTTGTGCTTGCTTGCAACTTCC
1 ATGCAAGCTTGGCCAGGTAACACTACCCGTGTATGTGTTG
1 ATGGTTCCGATCGAGCCATATAAACCTCCCAACGCAAAAA
0.05875086510803321 TGCCGGATATGTACCTGACCCTGTGTCATCCTCGTTACGC
1 CTTATGCGCGTCATTACCCTCAGCAAGTGACCCGCATCCG
1 GACCGTAACCCACCACACATCTGTACCTTGCCCCCAATGC
1 CACGCACTACGCGCGACTGCGTCCCCCAACCCCCGTCCTA
1 CATCCGTCTCTGTTAGGTGATAAGGTGAGTAACTCGTTCA
0.7860212614778961 AGCACAGGTCGCTGCCTACCCGTTTCCTGCAAGCCCGCCT
1 ACACCCCGACCCCCTCCATCCACGCTTCGCGCGCAGCCAT
0.46816027901204 ACTAACGTCGCCAAACTTCCGTCCTATGCACACGCGCTAA
1 AAACAACAACACTTGTATAAGGTTACCTACGTCCCTTCCG
1 AATGCACCTCCGTCGTTGGAACGCATACCAAGACGTAAGT
0.2769671900879346 AAGCAAATGCATTTCCTCCACATTCTTCCTGCACCTTATG
0.3767667130433538 ACCGACCACAGGAAACAACGCCACTGCCGCGTTGTTTGCG
1 GATGAATGACGGCTACTTGGCCGTACTCACTGCCCCTCTG
0.472921751684935 GTGCCGTATGCACGATGATAGCGCGTCGCAAGACCGTTCG
1 TTCCAGCGGTGCGCGCGCGAACCGAGATGCGTATATACAA
1 CGTAACGCCATCGAACACATGCTCCCTAACGCGCGATACC
1 CGCCAGGTAGTACCTCCGCTCCGCCGTGGCCTCATCAAGT
0.8442673223338788 CAGGGATTGACGGGAGTCCGAAGTATACTGCCTGTATCCG
1 AAGGGGCACTGCAAGTCCCAATAGCGGAAGCGTTGATCGG
0.5851990329530214 TTCACCGTTAACAGACTTGTTCCGGCGGACCTCAACTTCC
0.9571360590184473 ACCCGGTCCCCCTCTGATGATATGCTGTCCGACATATCCG
1 AACAATCACCACCGGTCGGTTACGCATGAGTGCGCCTCCA
1 ACGTGGTCTCCCAATCCAATCTTCGGTTCCAACTCGGCTG
1 CATCTTCCGGCTCTGTGTACTCACGATCCAATGCCGCCCA
0.2387573555413529 CCTGCCCTCGCGCTTCCTGTTACCTAACGATGCACACACC
1 ACTGACTTCCAGATGCTTGCTGATCTGAAAAGTATCAAAT
1 GGTAAACGTTCGTCGTCGCGACGAAGAACGCGTAGGGTCT
1 CTAACACTGCCCGCCACACCCACGGAGACAACATACCTAA
1 CTAAGCGTAATAAAACAGCGACTAACCACAGTCTATTCCG
1 CCAATTACCGTCCCGGGGCATGTGCCTTAGGTAACCCGTT
1 TAGCGAATAGATAGAATCGCGTTCCGCGGCGCCGGAAATA
0.9502740279334843 AACATCCGGTATTTAAGCACTGGCTCTCCGCTAATATACC
0.001497501367457534 AAGCCGGTGAACCTAACCGCTAATGTTTAGCTCATTTCCG
0.9970921642957644 ATTTTGAGTACCAGGCGGCGTATGTTGAACCCAACATCCG
1 TCTAGGTAGATATGCCACCCGTACACTACAGCTGCATCCG
1 CGAACAGCCCCCACATTCCGTAAGTTAAGTAACTGCCGGT
0.3908345533843821 GTTCGAGCTAATAATGGCATTAAGTGTCACGACACTTCCG
1 GCAAGTCCTCCCACGCAAGCACACTGGCCCTTCCTCCCCT
1 CCAATGGTGGGTGCGTCTACCTACTGTTTTAAACGGTGCG
1 TACACGTTAGAGTCGATTGCTCTACCGGTAACACATTCGT
0.748266815959571 CCGGACACCGCTAATTCCGTTCCATCCCTGACCATCCCCG
0.9635154920607223 TACAGTCTAAACGAATACGCTGCGTTATCCATCGTATCCG
1 ATCCTTCCTCTTGCGCCGTTAGGGAGTTAATGGAGATTAC
0.1299761014291156 TGCACCGCGCCGTGGCCCACATTCTTCCGGAACGCAAGAT
1 AAAAGGTTATGCACACTACCTCCAACAGATGCATCCCCTT
1 ACATGTGCAATTTAATTGCAATCGATACGAATGACACCCC
1 AGAATGAACCAACCCCATCCCCGCCCACGCCGCCCCCACA
1 GGGCGACCAAGCGGGTTGCGGTGGCGGGCTGAGGCTACGT
1 AAACCCACTCCTGCTCTGTCGCCCGCCAGGACCCATGCGG
0.4389397949790317 AAGCACCGGTGAAGACGGACATCCCCCACCGCAGCCGGCT
1 AAGCAGCGTCCCCCTCTGGCACATAGGGCTACACTGCAGG
0.5093841411754574 CCGCACCTCCAGTGTAACATCCGCTGTACCTTCACCTTAG
0.5291149277670988 CCCTCCCTGCCCCACACCCCCTCCACACGCAAACCGCAAG
1 GTTGCTTACATTCTATGTATCAATTCTCCACGGGTTTCCG
0.6981645247140392 CCCTTCCGGAAGGTCGTTGCCGTCGAGGAATGTCGAAGCC
1 CTACCGGCCCACACCTCCCCTACCCACCGCCATTCACCGC
1 GTACTCCTTCCACCCTGGTGTAGTGCTTCGCTGGTTTCCT
0.611655453945689 ATGATGATTGACGCAAATAAACAACGATACGTCGTTTCCG
0.3612199883236568 TGCACGCCAGCCTTCCGCCAGGTCCCGGCACGACGCAACG
1 CCACGCCGTATGACGGTAACCAGTATATAACCGACTATTA
1 CCTAGCCTTGAAAAGACAGCGGTAAGCGTGAAACGAGAAG
1 TGCATCCGACTACCTTAACCAGTGAGTAAACTCCCCCGGC
1 TAAATAGGATAAGCTGGCCGTACGTGCTGGATTACCCCCT
1 ACGAACCCCGGCCACCATTACCCGCCCCAAGTCCCCGCGC
1 CTTATTCAAGGAAGGTGAACACGGCACTGCAGTGGTGTGT
1 ACAACCCAACCATATCGAAAGTGGCGAGACTACGCGCAGT
1 CCCACCCGCGCACTACTCACACTAATTGCGCCCTTCACGC
1 TCGTCAACACAGAGCTAATCTCCCGCTAGGAGCGGAGTAA
0.03382799386802303 GCCCCCAAGAGACCATAAGCGCAACGTAACTACGCTTCCG
0.3435394648377562 AGCATCCGTTTCCCCATACGGACATACGAATGCCGTGGGG
0.3834099874979037 TGACATGAAGTCCGAGAGTCCGGTAACACTGCGTGTTCCG
1 CATCCGCTCTTTCACTCGTCTCGACCTTACCGCACGGAAA
1 CTCCCCTTACAAGGCACACCGCAGCGTAAAGCAGAAGTGA
1 CACCCGGCCCTCCATTTGCGAACGTAGCCACTTAACACCT
1 TCACCCAATCCACCCCGGACCACCCCCCAGTAACAAGCCC
1 TATTTCGCCCAGGTGAAGGGTAACGCGTAGGGGCATTCCG
0.221058652147465 TAACTTTCCCTAGCGAAAGGGTGATAACTACACAGTTCCG
1 CCGGGGAACTAATGGAATAACATTAGCCCAGCATGTTCCG
1 AGGCACCTAACCACCCTCCCCACATGCCCCCCAACAACCT
1 ATTGTTTGCAGTATGCGGAAATAAGGTCGTTTAATACGCG
1 GCTTCCGACTAAGCTCCTACAACCGCCAACGTAGAGCGAG
1 CACTGTATCTGCACGATGCTAGCACTAATTGGGAATTCCG
1 ATCCTCACAGGACTGTACCCAAAGCGCTAAATACGCTTCC
1 AAAGCCAATGTCCACCGCCCACGCGATACGCCCCCGCATC
1 AACGCGGTACCCCCAATTACGCGCCATAGTACAGCCGACA
0.6663672231131652 GCTCTGACCGCTGGAGTATCGTGAATCCCGGAAGCGTAAC
0.2293495692362207 ATGCGTGACACCGTGCGTAAATCAGATCCGATGTCCGCAC
1 CGTCATACACATTGCGTAACTTTGACTCCGTCCAGTTCCG
1 CTACCCCCAGACTGACAACCGCGATAACCCCATCCGCAAC
1 GACAGAGAATGATATGCGCGCTCCTGCTGGGTAGCATCCG
1 CTGATCGAACCCCACCGAGGACGCCTAACCCCCGCCTCGA
0.8328965745504227 CAGGACGAAGGTACGAAGGGCGAAACTTACCGCTTCCCCC
1 ACCCCGACAGCCCTGAGCCCACCCCCCCATAAATTCCCAC
1 CATCCGTTGCCTATGCTGCACGGCAACCGATGCGTGGTTC
1 TCATCTTCGACCGGGCAACACCCCTCGCACTAGCAAAAGA
1 CGCATCCGCTACGAGGCCGTAGTCCAATAGTCCTACGGTT
0.2447493942865526 TAGCAGTGGGACTGACCTTACGTGTAACCATACACATCCG
1 CGACACCCCGCGGTTAGCGTTAACCACCAAGTCCAGCGTA
0.8234509268590101 GACAAGAGTGCGTAAAGTAGCGATACCTTCCGCACGGAGG
1 CGAGAACCACAGTTTTCCTCTCTATTCCATACCACTAGGC
1 GCAGGCCGCGAAACCACCGCCGATTACACCACCGCGTGCA
0.6361318855055818 TAAGCTTGATAGTAAGTACGGTACATATCTGGTATGTCCG
1 ATTAGCAACTGGGCTCCCCTTAAACCGATGGCCGTTTCCG
1 AACGCGTAAACTGGGGTCTCCGGTGTGCTTACGTTGCGCG
0.2465474625894265 TACGGACATAGGTGTATATTCCAGATCTAGCGAATATCCG
0.2073452136720907 CACGGAGGTAACCTCTGAGCGATGGCGCTCCTCGCTTCCG
1 ACACCTGCTGGACTACACCCCCCCTCCCTACCCCACACCA
1 TATAGACTGGCATAGTCGAACAAAGAAATGCAGACCCGCC
1 ACTTTACCGCCACTCATTTGCTCCCTCCCAACCCGGCCCC
1 ATTCCAGGCATCCGCGACCCCCCCATCGTTGACCCAGTCA
1 CGCACCCGGATACACCTATGGCAATAGTGAACGTGTCATC
1 CCCGGCCGTATGTTTGACTCCTCCGGCGCGAAATACGTGC
1 GCACGCCTGGTTTCTGGCAGGCCAACGCCCTCAGCATGCC
1 CTCAAATACGTCCTGCCCTCCCGTGTGGGAGCTAAGGTAG
1 ACTACCCTCCCTAGCCACAAATTACAAATGCCTTTCCCTA
1 CGCGTCATGTACTGAGCGGAGTCATCCGTCTGCTCTGTGA
1 TCCGCCACCTTACCTCTCGCTTGACTCACATTGGGCAGCG
1 ACGACACGCGCCACTCTCGTAGACGCCGACTTAAGACGGG
1 AGTTCCGGTTAAAACTAATGATAACTCGATAACTACGCCG
0.4413966705042819 ACAACGTGCACCCACGCAACGCCCGCTACCCGGAAACAGG
1 GCCACCTCCTCCCTCAGAATGTATCTACGTTCCACGTCCG
1 CGACGCTGACGTACCGGCGAGGGACCAGACCCCGGATGAC
1 ATGGCTGCTCCTTGGAAGCACCTCAACTGGAAACAGTTCC
1 TGATTGGTAAGCCCCGTGCTACCGCGCGTGAGTACTTCCG
1 CTGAATCAATTTCCTCTAAGCGTACAGACCAACTAATGAC
1 CTTCCGGTATCGCAGCCCGCACCACCCAATCTCCCCGTGA
0.2511499563946734 GTAAAGCCTGAGAACCAGCAGGAAGTATAGTAGCGAAAGG
1 AAACATGCCGGACTATCAGTCCGTGAAGTGCTCCGACAGC
0.2082571899397024 CATCTACCCATATCCGCTAATCTGGCCTCCCGCCACTAGC
1 ACGGAAAAAGTGTGCCTCTGGACACCCCTCCCTGCGCCGT
1 TAAATGTAGAAGGAGTGTGTCAAGCGCGCTGCGTGCTGCC
1 ACCGCCATCATGCCCCTCCCAGACACCCACCCCGCTTCAC
1 CCACGTAACACCCTTTAATCGTAGTACCCCACCTCAAGCT
1 CCTGTCGCCCGTAAAGCGCTAACACCGCTAGCCAACTGCG
1 AAATTAGGCAATACCCCCAACACCAACCCTTAAACTTCTT
1 CCAGCTTCTATTCCAAGTTGCGAGCTATGCTACAACTTCC
1 GCGAGCCCATCGCGTATGCTGCAGGGGTACTTTGCATCCG
1 TGCAGGAAGGTTGTCGGGCTAGCCCATCCCCCTTCTAGAA
1 CCCCCCTCACTACCTCGGCCTTCAAACCTGCATCACGGCG
1 TCTAGTGGGTTGCTGTGTCGCCCACACACTCACTCCTTAG
1 TCTTTAACGAGCTAAATCCACGAGCTTGACTTCCCCCGCC
1 GCTAACCTAGCAAGGACCGCCATACGAGGAGTATCCGGAC
1 AGTTTTGTGGGAATTATCGNATCCGTATCGCTCAATGTGC
0.5369012036333328 GACTTCCGGCGTCCAACAGCACGCCAACACGACCATAACA
1 TGAATTAGGCGTTGCGATTACGTTACTTGAGTACCGTCCG
0.2790895446962274 CAACGAGGTTGCCTACCACCTCGAACACATCCTGTTTAAC
0.4902959838598763 CGCTCCCACGGCATCCGGGCGAATGCCGCGTTCCCCCGTA
1 TTTCGTTCCTGCCACGCATCCAGCGCGCCGCTACCTAATC
1 CTTCGACGCCCTTCCTACAACCATACGCCATCTGACGTTC
1 AAATAGCCCGCTCAATTCTGCCGTCATAAAATGCGACCCG
1 CGCATAGCAAGGATCCCCCCAGTCCCTCTTACCCACTGTG
0.7425966593385552 AAACCTGAGCATCCGTCCTGCCCTAAATGGTAATGGGACA
0.4184492826706356 CGGATATACTCCCCGACCTCGCTCACACTTAATGCGTGCA
1 CTCCACTTCGTACCGCGTGCTCGAAACGCGCGCCTACTGA
0.3620876373800309 CCATTCGACATCACTATTTCCGTTAATCCTTCGATTCTCC
0.9387995846232885 ACTAACGCGACAGTGTGGTGCCTAATATACGGGTATATCC
1 CCCCTCTAAGAACTGAACCCCAACCCCCCTGCCGTCCCCG
0.3402079928019815 ATGCCGTAAGTGTCGGGTTACAATCCTGCACTGCCGGGTC
0.5725103756064348 CCTACCGTAGCCATACTGCGGAAGCGTTCATAACACTTGC
1 ATTTCCGCTCGGCGCACCGCAAGAGTACTGTCTACCATCG
0.9799038310003102 CGCTCTAGATCACTCGTTATAAGTCCCTAACGGCCTTCCG
1 TGTGTTAATTGACCTTTAGTGTCGCTGATTGAGCGGATGT
0.9095676239627701 GAGCATCCGGACTGCATACCGTGGTGATACGTTATCTACT
0.1753439818252024 TAGAACGATTTCCTGAAACGGCACAGAGGGACACGAAGTC
0.5756262698544786 CCGCGTTCCGGTTTCAGCACCCCGTACCTGTCTCCCCCCC
1 CCTCGGACCGTCACTTTCCCTAGAATCAGGCCATCGGACA
0.3948458511162803 TCTCAGGACCGTAAAGACGCACATTTTCGCTCATTTACAC
1 TACAGGAAGTATCATGGCCTTTGGTGGCTTTCGATGCGCG
1 TCCGCACTGAAATATCGCTAAGAGGCTGTAGTCCCTTACG
1 GGCGATAATAGAACTCTCCGCTTAAGCAACGTGCGCTCCG
1 CTATACTCGAGACTGAATCACGCCGCCCTACGCTTTAGCA
1 AACCTCGAAACCCCACGTACACGCATTTACCGCGAACACT
0.8409483051299534 CATATCCTATCAACGAGTAACGAGCGTCCATACCGGATAC
1 TATCCATAGTCTCCCGTTTTATGTCGAACACTCCTCCGCC
1 CCCCATTTTGATCGCACGCCTCATATTAACCTCAGTTCCG
1 CTAAGCTTAATAGTGACGCAAAGACGGTGCATCTATTAGT
1 CTTGGCTTCCGCCTGACCTGCCCCCATCTTTGCGCTTAGC
1 ATACCTATGTCAAATACCAACCGCGCATGCACATCCCTCT
1 GATTCACAACGAACGCAGCAGGCGTCCGGTCCCCTTTTTA
1 CTCCTACTACTATCCTTTGCTTGCTAAGCTATTTCCCGCG
1 GTTAGGTATTTCCCTTGCCTACTGAAACGAAATACACGTT
1 GGATGCAAGTAGCGGGGATCTTGCCTGAACTCGCTACCAG
0.2923204332616271 TATAAATAAACACATCCACCTTAACGCCAGACTATTTCCG
1 CACCCTCTGTTTAAGCTCTTGCTGCTATGCCTTGCATCCG
1 CTTATGTAGGCTAAATTGAAGTATTTCCCCTGAGTATAAC
1 CGGCCCGCCGCGCATGTAGCACGCGCCTTCCACACCGGAA
0.1376887609181689 TTACCTTAGTTAACACTTTAAGCGTGCAGCGTAGCTTCCG
1 ACTCGGCGCCCTTGCAATATACACCCGACTAGGTTGTCCG
1 CACGGGCTACCAACGCAGCCCAGACAACACAACACAGACC
0.7509717811209728 CTGCCCCCACCGCAACACCAAGCCCGCCCTCCGATATCCG
1 GCACTGATATGGCGGATCAAGCGATTGACGCGACCCGCCT
1 AACGTACTGTCGCGACGGCACCTGCAGCATGCGACACAAT
1 ACAATGCCATATTTCTCCGGCAGACAGCCGCGATGTACAC
1 CCAGTTCGAAAACTATGATGCGTTTCCGAGCTTTCCTTCT
1 ATACCCACCCACCCCCGCTGCACCCAGAGCTGACCGTCAC
0.9719340670003022 AAGGAAGTAGCTGAATCCACTCACATCCACAACACCGACC
1 TCTAGACCTTCCCCAGGGAGACTCTGCTCTTGGCTAAAGT
0.1863403943732222 GCCACTTTGGAAGTGTATGCGCGCTACCCTACCGCATCCG
0.5705813903660852 TCCCCAGCGCGTCCTATCAATGTAAACCTGACGCCTTCCG
0.136936488574554 GACACGATTAGCACGAAGGTCCTAAAACGGATATACAAAT
1 CACTAGGTTCTCGGCTCTCATGGTCTGCGCCATGCATATT
1 AAACTATTACAGTACCTCACCCTGCTAAGTGGTGAGTCCT
0.1918043921701903 GCCGTTACTAACATCCGGACCATTTTAATACGATAACGCC
1 CACCTGCCCACAGACACCCCGCCCACCTTCCCCCCCGCCT
1 CAGCAAGGCCGCGCATTACCTGCCGGGAAGCCCAACTTTG
1 CGGCACACGCCCCCAACCATTTACGCTANCNNNNGCAAAG
0.9869473156942361 CGCAGTGCGACCTGCTTGATGACACCTATGCTAGCATCCG
1 TCCCAATGCTACCTTAGTATGTTCTTCTCCAGTACATCCG
1 TGTCCCGAGCTGACGATGTTTATACTGCTAGCAATATCCG
1 TTCCCCCCACACCGACTCCACGCTCGCCCCGGCTCACTTC
1 CCTCATAAGTCATCTCACTCTAACAGGTGCAACTGTTCCG
0.8148361579345906 AGCATCCGGTGACCCGCGAGTCACCCGATGCAATCAACTG
1 TGACGTGCTCCCCTACCGTCAAGGCGCGCCGTGACTTGCC
1 GCGCTTTTGTGTGAGGACCAAATAGTGGGAAATCTCCATT
1 CACCGTCCGGTGAGGAGGTGAATATACACTGCCTTGCTAA
1 GGTGTAGTTGTCCACGCGAAGCAGCGCGTGCTCCGGTGGC
1 CAGCCAGGCCCACATAACCTCGCATGCTTGCGCGATTCCG
1 CCCGGTGCGCGGTGGATAGGTTCGGGTAGCATCACCTCCG
1 TCCCTAACCCACCGCATTGACCCCTTTCCCGTACCGCGTC
0.7935897175152715 GGAACCCTAGATGCAACATCCGTACTGGCCCGACACCAGT
1 GAGCGTGCAGCCAGTTAGCGATATCGCTTGCCTCGTCTGC
1 CTTACATGCACCCTGCAGCGCCACCCGACAACCGTACCAT
0.1116952291145329 CACGGTGCCTCCATTTTCCGATAAATGTCACACATTTCCG
1 TTAAAAACTAGTGACACCTGATACATGCGTCGTTCTTCCG
1 GCAATAACGGTGAGAAGCTTTAACGTTACGTCACGTTCCG
1 GCTCCCACCAGCCTCGTTAACGTGTCAGCTCCCTTTCATC
0.9110996615322655 AGGCGGAAACGAAGGCTCCAGTACCTCGACACGCTTAACG
0.005989653402263114 AGGGCGAGAAATTCTCATTTCCGCCTCCACTGAGGAACCT
1 ATCTGATACTACATTTCCTTAACGTCCCACTCAGCCGTGA
1 GTAATGGTATTATCTCGCGTGGATCGACGCGGCCCATCCG
1 GCATGACGTTCCTGACCGTCGACCTATGAAATATCATCCG
1 GTTCCAAATTGACGCGTTTTCCTGTTCATACCGCGACATC
1 TCGAAAAAACTATCGTTACTCGCTCATGCTGCCGTTTGTA
1 GCCACCCGAGCACGCGCGACGAAGAAGTCTGCACCCGTTC
1 GATAGTATGATGGTGGTGAATGACTTTAATTGTGGATCCG
1 TCCTCACCCGACAATGCACTAGCGCTAACCGCTACACGGA
0.9914160629383554 TCCTACCTTGAACTATGCATCCCTGGACGGCCGACATCCG
1 GATTATCGTAAATCGTATTCGAATTGGGTTTTCCGATGTT
1 CACCGCGACCTCGCGTGCCCCCAGGGCCGTTCCGCCACAC
0.5704479458396481 TGGACCACCGGAACTCTGATCTCTCGTGTTTCGTAGAGGG
1 GACACTGGTTATGCCCTCAACCAGAATCTCCCAACCGAAC
1 CCATCCGTGTGACCAAACCATTAGCACTGACAGCCATCCA
1 AAACATCCTCAATCACATACACAACCTCACGACGAAATAT
1 CCTTCCCCCACTACGCGGACCAAGACTCATGAAGCACCCG
1 CCTCACCACATCCAATGAAGACACCGCCCGCCAGCAACTC
1 TCTAACTCTGTCAAAGGGCTAAAATAGGTACGAACCTCCG
1 GCGTGCAGGAACCTTGCAGGACTCCATGCACCCGGTCCCA
0.4759033567004204 CGGAAATGATGCGTGAAACCCTCGCCCTCACCCCTGGACC
1 AAATAAAAGTGCCCCGAGGCCATGAAACAGGAGAGCAAAT
1 ACTTGCTACCGAGTTACCACGGAAAATACAACTAGGTGGG
1 TGTTAGGCTCATATGCACCTGGAGGCGATCTTATCCTCCG
1 CACGGCCTAATCGCCACACACCGAACCCTTTAGCCGCATC
1 AGTACGTCCTGTGTATTGTTGTCGATCCCGTGACCCACGA
1 CGAATCATTATATACTGCCTATCAACGAGGCATTTATCCG
1 CGCGCGAATATGTCGCCCACTCGGCGCATAAGCAGGAAAC
1 GGTTCGCGCGTTAGTTGCCGGGGGTGACTACAGGAAATCT
1 AAGCTAGATACCCTGTCCTTTGGACCGCGCGGTATTCCTG
0.8086482395246346 TCAGGCTGCGGTAGCTAAATGGCGAGTGACATTTCCCTCT
0.1207187458582047 CGCAACCTCCCCCTCCCCCGGCTCCCACCCTCCCAGCAGT
0.2382013140076525 CGCTTCCGGTAATTCCATGTATGGTCCCCACCGTAAGCGT
1 CAAACCCGACCAATGCAACACCTAACCCGCGCGCCGCGAA
1 TCACAACCGGGACTGGCGGGCGTAAAGTAAAACTACTCCG
1 AGATTCCATCGCGGGCAAGAACCGCACCATCCCGTGTTTC
1 ACGATGTAAAAGGCTATGCACCTGAGGACTGCATCCCCTT
0.3474922947130192 TTGAACATCGCACTTCCCGTATGTGGACGGCAGCCACAGT
1 TCGCACTGGCTCTAAGCGGTATTGCCTGAGAACGCGTCCG
1 CTGCGTTCTGTCCATACCATCATTCCCCTCTCACTAACGC
1 TAGTACCAAGTGTGTTCTGTAACTCGCTGAATGAGTTCCG
1 CATCCGGCTGCCATGCCCCACACCTTCTGCGCGTCCCATG
0.5942875792958132 AGTACCCGTAAACCATGAGCTACTCAACGTTGTCCGGTTG
1 CCACGCATATACGTCTCAGCTTTCCCTCACACAAGTCAAC
0.41099336638373 CCAGGGCGCATCATGCCGGACGTTGGCTGTCCGGATGAAC
0.4854490977022718 TTGCTTCCGGTGCTTCTAATCCGAGGGTCGCCCCGTAAAC
1 GTAAAGTTGTCGCCAGAGGACATCACGGCTCTGCTTTCCG
1 GTCGACCCTGCCCCCGACAACCTTCGGCCACCCACGCCCC
1 AGTTAAGATGAGCCTAGCCTTTATATACTGGCCGTATCCG
1 CAACATCCGCCAGTTGCTTAAATAGCGCGCCTAGCCGTTA
1 GGGCGACGCAATCACATCAAACGCGCCGGAGGGTACCTTT
1 AACCAATAACCTCGGATGGGTAATGCCTCACAGTCTGGGG
1 CGGACCTGCACCGAGCCACTTCCTATAACGATTGCGTACC
0.435915582354974 CCGGAATCCCCCCGCCAGCCTTTGCCTCCCGGAAATATCC
0.5112299057926289 CGTAATTTCAGTTTTGAGTACGTACACTATGTAACGTCCG
1 AAATAATCAGCTATGTTTGCGCATTAGAGCAACCATTTCC
1 CCGTGCAATTCACCATAGTACTAACAACGGATCCCATGCT
1 TTGTACAAGACGGCACCATCAACCGCTACCCATGTACGGC
1 GGCAAATTCCGCCGATCCACCACGCCACCCTAACTGACCA
0.2962561293822186 CCAGCCGTCCGCACACACGTAAACATCTGTATTCCGGTGT
1 AATAAAGGTATGACGACGCTCGTCCCCTCCTACCTTTCCG
1 GGGTCCGACCCCACGCCCGATAGGAAGTGACATACAACGT
1 TTACCTGATGCGCCAGCTCTGCCATGACCCGGTCTCGCGT
1 CAGTGCCTACCGTACTGAAATCTAACTAGAGTTAGTTCCG
1 ATCTTAACGCTTATACATTCGGTCTCTCCCTGCCCGCAGC
1 AAGGCATCCGACTTTGGCCACGTAGCATGATCGGTCCAAT
0.4924000540010586 ACCGGCATCCTCCTTACACCATTTCCCCCCCACGCCACGA
1 CGGTGAGTTCACGGTAATACTCCTTACCAGCTACTCACCG
0.5438570906679002 TGCATGGCGTGATAGCTATGTTGTTAATGCGGCACATCCG
0.4716905667923404 GAGTCACCTGGCTAACATCAACTGACAGTTCCGGCCATCC
1 CCACTCTTTCTACCCTGCAACGGCGACCATGGGGTTCATC
0.7891557964545297 GACAGCCTAGGCCGAATGTTATCGGACGATCCGGCCATCG
1 ACCGGAAATCATTCCAGTGCTGTTACAAAAAACTACGCAG
0.5106602030873268 ATGCAAAAATCTATTCTAGCATCCGGGGTACCCGTATGCC
1 CCCTCCATGCTCTCGTCGGACTTCGACACTAAGGACAGTA
0.8648546691367719 CCGACCCATGAACCTCCTCTCTAGAAAACCCATTTCCGGT
0.2646859290849091 TTGCGCACGATACATCCGTTCCGCGGCAGCATAGAATCGT
0.05468783075496553 ACGCGACGTGGTGAAAGGAGCATCAGCGGAACCCCTTCCG
0.4333321498021172 GCCCACACATCCCCCCCTACATAAGCCGCTCGCCTAACCA
0.5439932353912504 AGCACGATTGTTAAACGGACGTTCACTAGTCCATTTCCAG
1 TCAGTTCACAATAGGCAATCCGACGTTCAATCGCAGATGT
1 CTCGAGCAAGGGGGTCGCCAGCTGATGCGCACACCGGATG
1 AACTTATTTCCAGGAAACTACCGAATCCGTAAAATGTCAT
1 AGTTATGCTATCCCGATCTTATACTCGTGGGGCACTGCCG
1 GCTGCCCTATCGCCCTACACCAAGACTTCTGTGGCTATGC
1 ACATTATTAGATCCAGAACACCCTAAAGCCTGGCTTTCCG
1 GATTCCCGGTAAAACTGCGAGAATTAGGATACGCGCTATG
0.01085234011478319 CAACTTCCGGTACCCCCCGTCTCATGAAGGAGTCCCGAGA
1 ATACAGCTTCGTACACGGTGAGCACACCTCTCCGCGTCCG
1 GACAGCTTGCTCGACCCGCCCCGCGCCCTGTAGTGGTCAG
1 TCTTGACTTAAGGCATATGAATACATGTTCGCCTTCCGGA
0.849116961647698 ACGATCAACGACTTATCCGGCAAACATGCAGAATATGTCC
1 GTTACACCCCCCGCCAAAAAGCACGCTCCCTCACGCATTA
1 CCTAGCCAATTTGATGGACCACACGCATCCTGTTATCATT
1 AACAACTGCATATTTGTCGCATTGCTGTGCCCGGAACCCC
1 TTAGACAACACCCTTCTTTCTACTATGTATGCCACATCCG
1 CCCCAACAATAACACATCCCTGCGCTCACTATCCGCCCCG
0.216022244624311 CGCGCATCCGATCTACCGGGGCATGCCTTGTCTCCACAAC
1 TGGCACCTCAGACCCGACCATAAGTATGCTACACGTAAGC
1 GCTAATGATTCACACCGCACCTTCGCTCCGACCCGAAGCG
0.9707139325463969 ACGAACATCCGAGCAGCAGACACTGCCTGCGAATGTTGCC
1 GCTCTTGGACGAAACAATCGAGAATCTATTTCCCCCAACC
1 AGTGTGCCCAGACTGATTACTGTCTGTTGAACTTCCTGTA
1 TTACCTCCGTACTCTCAGGCTCAACTTCCCCCCCGCCTGC
1 GGCTACATCCTCATATTCCCGCGCGTCCTCCCTACGTTCC
1 AATGTGCTATCCCTTTATGTAAAGCTAAGCAAGGTCCTAT
0.735575986714731 CAGCATGTTCCCGACCGGACCGGCACTTTCCCACATAGGC
1 TAGAATGTCCGCGATACGCGAAAATATAAACCCATCTAGG
0.9288658651121249 TCGAGGGGTTCCGGTTTTTTCATCGCCACTCTCGCTGATG
0.6784121319389741 ATTGCCGCCGATTCGCCAACAAGTGCAGCCACTTCCGACG
0.6374650283539141 CTTAGCCAGTTTTGGGCGGCATCCGCCTGCTCATTGACTT
1 AAGACAGTATGCAAGTGGGAGCGTGCACGCCTTCACTTCC
1 CACAACGCACGGTAATCCGAGCGCTCTCTCTACCCCGTCA
1 GATAATACTCAAAAAAAACAAACCTGGTCAAACCAAGATT
1 TATTACAGGTGTTTTCGCGTAGCAAGAACAGTCCCGTCCG
1 ATTGCCCCTATGACTGTTGTCGATTATGAAATATCATCCG
0.9699797349794712 AGCGCGAAGTCACAGCTGTACACAAGCCTGATGACTTCCG
1 AACGAACGACGATCGTACGCTAGTTTTAGCTCGCGGTTAC
1 AACCGGTAGGCAAAGCGTACAGATACCTCTGACCCTTACT
1 GGCACTGGTTTTACGTGATCGATTCTTATACACACGTCCG
1 CTCACGGATAACGTACGTTGGGGTATGGCGCCCGGACGTT
1 CGCCCGCAGGAGGAAACGGGCTCGCATATGTTGTTCAGGA
0.4212366857651441 CACGACGCCTGATGCTCAACCGGATAACCATCGCTGCACG
1 GGAGCCTCTATGACCGTCATTTCCCGGCACCCTTAAGAAC
0.5924571813630307 TATGCGTGCTCATTAAGCTTTCACAAGTGCCTTGCATCCG
0.7543657664750351 TTAATTAAAGCTAAGCCGGGATAGTGTGCTTCCCTTTCTC
1 CCGTTTTATGGGACGCATTTCAACACGCGTGACCCATCCG
0.6240450703208358 GCAACTTCCCGCCGTCCTAAAAACGGCGAAAGTCAATGCC
1 AGGCGCTATGACGTTAGTATGCAGCCTTGGATTTGTTGTA
1 CCCAACACCATACCCCCCCCCTATCCTCCCAGCCCCCTCA
0.3928485042467527 ACATTGCTATATCCGCCCTACTATCCGTTAATGTGGCCCG
1 CGACCGTTCGTTAAGCCCGATTTCTGCTAGTTCTCGCGCC
1 CACGCTGCAGAGACGGCACCGCGCCTCTAACACCCCTCTG
1 ACGGCATGGATCGAGAATGCGAACCTCACCGCAACGCAAC
0.7324742874325173 ATTGTTAAAGTTACTTTGTGTAAGGTGATCGCACTTTCCG
0.8582942699949818 TCCGCTTCCGATCATGATGTGTACTGGGCGAGCCAGTCAC
1 AATTATCCGGCGCGCTGCCCCCTCACCCTCTCCCGGCGCC
1 TCCCGAATGACCGCTGAATGCGGACTCCGGACCGGAGGTC
0.9352025426867689 CCATGACCACCTCAGCAACGACGATAAATTATCATTTCCG
0.1034959602585358 ACAGCGTAGGTATGGTCCTGTACATGCGTCGTACCATCCG
1 TCGCGCCCCATGAACCTGCACGGCGGTAACACCGCTGCGC
1 ACCGCTACTCAGAACTCAGTAGAACCTCCCCTCCCCCCTC
0.9057001803786016 TGATAGGCTATGTTTCAATGTGTGCATCCCCTGCACCGCG
0.5198195526073215 ACTTCCGGTATCCCTCCAACGACAGTCGGCCTTCACTTAC
1 AACCGCGTACCCACCCACTATGCCCGCCCTGTCACGCCGC
0.2913097934418589 CAGCACACCGGACATTACCACCTCGACACATTCAAGATGC
1 CATCTTCGTTTGATGGATATCCTAAGCTATAAACCTTCCG
0.2161500567853356 CACGTCCGGTATCTAATCACGAACACGTACGTGACGAGGA
1 TACGAATGATTAACACTCTTTGCCGTCAGATTATCCGGCG
0.5884592746673357 AAGAGGTATCCACAAGGGGATGTACTGAATGACACATCCG
0.2801993258605759 TTGCGCCACTTCCGATCCCGTGAATCCATTATAGGCACAT
1 CACATCCACGGAGCACAGTCCATCCCGCCAACCCCTCAAT
0.6057950244176097 CAATTTGACGTTCCGGATAGCGGTGCTAGGCCGCTATCGC
0.2961420970457083 CGCAAGTGCCGCCGCGGTTAACTGACAGGCGTAACTAAGC
0.08358675580412121 CACCAACGCCATACATCCGGCCCTGCCCTTCTTCATCGCT
1 TGATCCCGCTAGGTTCCGACCCGACTGCACCTGGACTGGG
1 GTTAGAACAGGATGGTACGGATCTGCAACGGTACTGCGAT
1 TGCTGGGGGTACGGCTGTAACAATACTCATACTTGTTCCG
1 CCCCCATGCCCCCCCACTTCCCCAACACGGCACCTTCCCA
1 CCCGCACACTGGCCAATCACCCGACACCCCCACCACCGCC
1 GCACTTCCGTTGCCTCTAATACTGGACGTGTACAGCTACC
1 CGGGCCTAAATAGCACATCGGAATTGAAGCCCAATTTCCG
0.1410562927598996 CGGACCACTACTATGTTAACGCTTTTCCTTTTAACATCCG
0.8139717366489717 ACACGCTTGGTGCCACCGATACCGACCCAGAACCGGAAGC
1 CAACCCTACAACTACGCCCCAGTTGCCCACGCGTAGTTCC
0.7989867849838135 CCTAAGCCCCCCCTCTCCGGAACCCCCACCCCACGGTCCT
1 TAACATATTTCAGTTGACACCCTGCCCTCCCATGTTCAGC
0.6705973168834889 CATGATTATGCCATGCATCCGCAACTCATCGTGTATTACT
1 CCAGGGTTGATGGCCAGGTCACTGGGCTGAGTTCCCTTAA
0.8282978905936408 CATTACGCGAATCTAGGATATGGTAGATAAATACCATCCG
1 ATAACTGCACCCGAAAATAGGTCAGCACCCTCCAGGCTCG
1 GACAACAATACCTCTTACTGCGGTACCCTCCCGCCCGAGG
1 CCAAACCATATGCCTTGCCATTTAAGGCCCCATTGACGAT
0.6259415577210532 TTCTCCTGTGTGTCCTCCATCCCCTGCCCCGCCACCCACA
1 TGCCACACACATACTGAGCAGGCCACTACCTTCCCGTATG
1 GACAACGTGACTAAGAGCGTAATACACCACCTGAATTGTG
1 TGATACCTCACGAACGTGATTGACCTATTGCCCCAACGGC
1 AGTCCCCGACCCCCCATCATCAAATCCGCCCACATGTGGA
1 TCACCGATACTTCCGCGCCCGGCGCGGTCATCGCGCCGCG
0.482968643471711 ATGCGGAAATTTCCTCGCGAGATGGCGATTGTCCGCAAAC
0.4936349896668905 GAAACACGAAATGGCAGGCTTTTCCTGTTACGCAAGGGAT
1 CACGGCGTAGTGGTCGTGCGTCCAAGTGCTACTAGTGACG
1 ATATATCCGTAATTGATCATCGCTGTAATTAGACTATGCG
1 CGTCATAAGTCGCAGGACGTTCGCCCACTGACGACCTCCG
1 CACCCCCATGTCCGTGCGCACCCGCGGCCTCGTACAGGAA
1 CAGCTTCCGGCCGTGTTGCGCACTACCGACCTGAACGCCG
0.5977988014919883 GGCCAGGAGCCCCATTTCCGCGGCACAACGGAGTCCCCAG
0.3660558135423275 TCACACAAGTTATTAAGGTAAGACGCCTTGCCACCTTCCG
1 ACTGTTATAGCACTTTATTGCACTGCACTTAACTGACCTT
1 AGGAACTGAATACCCTCCACCACGAAAGAATAGTAAGAGC
1 CCGCACCGCCACCCGAATTGTTTCAGGCTCTCCCTCGCGC
0.8030140891160894 GGACGGAATCGGATATAACGCCCGTGGTTAACATTATCCG
0.8515600384420671 TCCCGCCCACCGCACCCCAAAACAGGTGCACGAAATACAA
0.325009223097575 CTTGACTCCCAGTTGGTCGCGCCGGTAAAGGCCGGAAGTC
1 GCGCGCACCCCCCACCGCTACGCACCGTTATATCCTTACC
1 GGCGCCAGCGCGCGAATAATATCCTGACGCCTACTCTCAT
1 CCACTTCCGCCTTTATTTCGAAAGGGTCTGCTGCCACAGG
0.7220373073598521 CGGAAATACCAGGATCACGTACGGCGTATACTCCGTGAGC
0.6775274170452275 ACGCACGTTAAACAGCTTGCCTTTCATCGTTCTGTTTCCG
1 CGGAGTACAGCTACCGCCCATCCAAGTGGGGCGAAAGCAC
0.2491018185607334 CACAAACACCGTTTTTGCATACGATTTCCCTTTCTACCTC
1 GTGCCTTACCCCATCTCTTCCAGGCCCTCGCGGACCGGAA
0.3478458026134787 ACGATGTATGTTATCACATAGTGCCTCGAACTAACATCCG
1 ACTTTCCCTCTAAATTCATCTTGAACGATCAGAATTTCCG
0.612765497497843 GGATTACATCGCATGTCCGGCGTGCTCACATAAGGCCGTA
0.06726280585030207 GCGATCAAGCGCCCCCCCATGCGTCTAGCCTTCCGGTCGC
1 ATTCGCGTGTCAGATCTCTGCGCCATACGGGCGTAAGCAA
1 CGCTGCAGTCCGGCGCTGCTTGGACCGCGCCGTACGCGGC
1 TTTTTCCGCGATTCGCCACGTAAATATAATTCTCTTTCCC
1 GACTATATTATAATGACCGTGTTGGACCTCATGATATCCG
1 TAGCATGCACGAACCAGGCTAGTTCAGGTTCGAACCGCGA
1 CAGGAAGTGTTGCTGTGTAGGATATGGCCAGACACTGGGC
1 TCGGGCCTGACAATTCCCCGAACAGACACACGCACATCTC
0.4310351864019522 CCGTAAGGATTCCCATGGTCCCTTCCGGTCATCGGGAGGG
0.912197289049127 TGGTGCTGGCGTCCTACCCCCGCCCCCCCGGCCCTACGCT
1 ACGTATGATCAGCCTATGCAAGTACTATATACCGCATCCG
1 CGATGACTGCACCGATGTGTCCCAGCGGAGGCACAAGTAT
1 TCCGGCGTCTGACTTCCTGGTGTAGGGCGTGTCGATGTTT
1 CCAACCACTACCGCTCCAAGACCCGTGCCTCATCCGTATC
1 TGACCGTTGCGACCCGGAAGCCCTCCCTCAGAATCTCATT
1 CCGGCACGACCTAACGAACTCGCCCAACCTGCCTCGCACC
1 AGCTTACGGTCAAATAAGCCGAGTTTGCGTCGTAGCACAT
1 CCCGCACGGCCCCGAAACCAGCGATACCACCGACTTCCAA
1 GGAAGCGCCGCTCCGTCCTAAGAGGCATACGTAGGCGCGG
1 ATGTCGTGTCTGCTGCCCCAACCAGTGGGTACTCTTCACT
1 GAATGCAACGGCACCACCTTTGAGTCCTGCCCACTGAACT
1 CTTTATCTGAACCTACCTAAACCACTGCACGAGCAATTCC
1 ACACGTAAACGCCCTAAAACCCGAATGTGAGTCCGGTCAC
1 CCGCACGCCTGTGCGCGCTCACGCGTTCGTAGCACCACGT
1 CATCCGCCGCACTCCACTCGTACTTACCCAACACGTGTGC
1 ATATCCGCCTAACGCTCCAGCCAACTCGACCTTCCATACC
0.3285819916813111 TTTATCTCCAAGACATACCTATGCTACAGCGTCGCATCCG
0.5670636443496022 TATAACGGACCGCTCTGACCTAAGCCTGGGAGTACTTCCG
1 GATGCTGTAGAGCCGTTTGGTTGGAATCGTATCTTGACGT
1 AAGCCTTCCTCCACACACCATGATCCTACATCAGCGATCG
1 TGTCGGATGGTGTTTGACAGTAAAGACTACAGCCCTTCCG
1 GCATTTCCGCCACACTGGTCTCCTATGACTCGGATCAGTT
1 GCTCTGTGGACCTTGCCTTTTCCCACCGACTGCCGCACTC
0.8517539742992027 CTGCGGTTGCGCCCTTCTCTATGTAGTGCCGATACATCCG
0.3063242403907829 ACCGATAAGTGTGCACTCGCACACAGCCGGTCCGTCCGAC
1 CAAAAGGGTGCAATAACGCATAGCCTGACGACTCGTTCCG
1 ATCCCCCCTGCCCCCGCCCGAACCCCGCTCCAACCAACCC
0.1066247243861954 CCGGATACACCGCTTCCCCGCGCTTACCGAATGCCGCGCA
1 CGGGCATCCTGCTCCTCACCGCTGGGATCCTGGGGCTCAG
1 AGCAGGCGAGTGCGTGGGCTACATTGGTAATGTCCGGCCA
1 TCAAGACACCTGACTTCCCCTGACTATTGCAGGTTAAGTA
1 TAAGTTCCTCGTTAGGTAAGGCATCTTTCGTGTCCTTCCG
0.4457356227738815 CGCTACGCTCCGTGAGGGCCCTAAACGCGTTACGTTTCCG
1 AACCGTTTTCCTGAGCCCGATCTTGCTGTAGCCCGGCACC
1 CAGACCCCCCGCGCTACGTCCGACGGTTCGCCTAATACGC
1 GACGTCACTCCTTCCGCATAGAAACGGGTCCCTTGCGTGA
1 CAGCCAGTGAACTTACTTGGTGCAGCAAGTAGGAACGAAC
0.1534981462546692 TTCACGCTAAGTGGGAACTGCCCGTGCAGTCTGACCGACT
0.4765740236311539 CACTTCCGTTACGGCCGCCGGATAAGGCGCTTCTAGGAGT
1 AGCTACGGCGTCTCATAATACATGCTGTCCAGTGTGTCCG
1 GTAGTTTAAATGCTGTAAGGATTGCCCAGATGTCCTTCCG
1 ACCCTGCGTCCACCTCTACCTCCGGCCCAATAGGGAACCC
1 CTACGAAGACTCACACACGGAACCATCAGAGCCACACAAT
1 ACGTTACCACTGCGCCCATGCCTAACGCACACCCCGAAAC
1 CCGCATAACCCTCGTTACCCCGCTCCCAGCCCCTAACGTC
1 GAAAAGTATGGTAAGTGGCGACCCTACTGCAGCCACTTCC
1 CTATAGCTAAACGAACTGACACAGCCTCGTTTCCCCATGT
0.4593602876037738 CGGAAACATCTAAGCGCGATCTGTCCCGCTGCCTAGGCAT
0.5669188786158897 ACACCGTTGTCATAAAGTCCCACCCACCCACACCTGACCA
0.1719076450566405 ACCAACGGACGCTGCCGCGCTAAACTACGCTTCCCGCGCC
0.4749950632654211 ACAAACCACGCTTAAATTCCACCACACTGTCATTTCCGCT
1 CGCCAATTTCGCGCCAAGGAACTGAATGGCGAAAATCATC
1 TAGATAGCCCAAGCGCACCATACCCGATAGACCCCTCCAC
0.4696278830258572 AGAAAGTGACGACACTTCCTGCGTTTGGGTGCACCGACTA
0.2253568998616829 AATAAGATATAAGAAGCGCTATCCTGCTGTGACGCTTCCG
0.7534137701010363 GCTTACCGTACTCAGTATGCGCACTCGGTTTCCGCACCCG
0.9556122306609512 GGCGCCGACCCGGAGGATGAAAAACGGAAGCCTGGTACCC
0.8983461407384294 ACTAATACGAGTAGACATCCGTTCTGCGATTCCAGGTGCA
1 AGCACCCTATAACCCTTGCCCTGCATCCCCAGTCGCCTGC
1 CGCACCCGACTCTCCCCTGTGATAATTACGCGTAATTCCG
1 AGTTGATGTAGTCTATGGTGACCTGTTGGTGATACATCCG
1 ACACGAACTCTCGGACCAAGGTCCAATTCCGTGGTTCCAC
1 CATCCGCTCGCCAGGCCAAACAGCACGCGTAACCCCGGGC
1 TATTGGTGCTTCTGTTTCCTCCACACGTAAATTAAACAGA
1 ACGAGTTCCGGAGTTAGGCCTCGCGACTTCTTGCATGCCT
0.8159501500792765 GTCATGAGCTTACCAACGCGCGTAAGTCAAGGACTTCCGG
0.9948956000008471 TCAACAGAGGCATTTATGCCGCTTTCTCGTGCAGCATCCG
0.9652095626021123 CCAGACACGCATATACGTCTCGGATGACGTACCGCGCTCC
1 GAGCCGTAAATCATCGTTTCATAGACTTCGGCGGCTTAGG
1 TACCTGTTATTTCGCAATGAGGGTTTCTTAGCCAAATCCG
1 AGCGACTAGCAGACCATCGATAAACAACGGATATAGTGTT
0.9873681660700812 ACTCTAGCTAGGTGCTTTTTAGGGATATGCCTTGCATCCG
0.7627106173819931 CCCGGTCACGATCCGGTGTTAAAGACACCGTACGTTAACT
1 CGCGGGACGGCCACGATGTTTCTTCATACCCTCGATTACT
1 CACCTACGAAAAGATTAGAAGCATATATACTCGCTCGACG
1 AAGTATACGTGAGCTCCGCGTTCAACTCTCGACGTATCCG
1 AAACCTTCGTTCCTTATGGTGCTTTTTACGCTACTATGAG
0.6292579037850823 GCATCCGCTCTTCTCGCCTGGCGTTCCGAAATAGCGATTA
0.07661250454016022 AACGCGCAGGAGAACAGGAAACCAACCGCGATGATGCCGG
1 TACACCACTGCCGCTGTCCAGCTCATCCGAATGGCGGGAC
0.797162601197856 GATTTCCGCCTGCTAGCAGGGAGTGCCTCGCCTTCTCCCG
0.5145470192797612 CTTGATAGCCGCATGTACCCCCTAGCATCCCACCCACCCG
0.565398966133293 ACCGTCCGCGGGCCGACCCCCCACTTAAGCCACGCTTCCG
1 AACGCTCCATGACTTTCCTAACCGTATTAAGGCTGACTAA
0.7170829476930047 CAAACAATCGGAAGCTCGCGACGAATACACGGACAGCATA
0.2690782221756189 CCATTTGCATCCGACCGGCAGCACCTTGTGGAACCGCGTA
1 AACCCCACGTCCACGTTAGCGGCTTGACCCTCTCTCCTAT
1 GCCAACTTCCCCCTGGCAAACCGCCACGGGCTAAGTGCGT
1 GACCAAGATGCGAATGCGTACTGAGAGGCCCTGCACCCCT
1 CTTGGATCGCTATCTGTATATACTATTGAATAAGCATCCG
1 CACTGCGTAACAGCCAGGCCTTAATGGAAAGCAACCGCAC
1 AACTCGATAAACTACTCCTCCAAGCTTCCGACCCGCCTTA
0.393274188665339 GACACCCATGTGTCCAAACAGGAAAGTACACTTTCAGGTA
0.4806565349011752 CAGGAAGTGACCGCCAACACTACAGGAAAACGACGACCCC
0.1526296616153537 CCGGACATCACTTGCACCAGGAAGGACGGCTTAAGCATAC
0.1128141227919262 GACCAACCCTCCCACCCCAGCCCAGCATCATGTCGCCGGT
1 ATTGATGCGATGTGAATTGCACTTGCGCTTACGCTAAACA
0.7811164432633757 GGGAAATAAGTAGTATACTGGATGGCCAACATGCGTATTC
1 GAACTTGTGCCACATAGTGTACTCTTAAAGCATGCTACTT
0.4981541854127869 TTTAAACCTGAAATTCACATTAACGTGTCCAGCGTTTCCG
0.8471076848883221 CCGACCAAAGGCCATCCCTGCCCGCCCCATCACAGGAAAT
1 AGCACGCACCGCCTGCGAGCTAGGCTGGCTTTCAGGATGT
0.4720634262010464 ATGGTACTCACCACTAAGTTATCAGCGCAGATAACATCCG
1 CCACACACGTCCCTCAGGAAAACCACCCTCGTCCCACACC
0.3771888389994605 ACGACAGGAAACATGCATCGCACGCGTGCAATACGCCGCC
0.08511481455560871 TATTAGGACCGAAAGTGAATAACTTCCAGGTCACTTGTTT
1 GAGCGGATAAGGACGGACCCATCGATTCGATCGATGTGTC
1 ACACTCGCCCACTACCTAAAACTCCTAGCTTCGCCCGATC
1 TCTTAAGACCTCGCGGAAAGTACCAACGGTTTTACTTCCG
1 TACTTGCGACGGAGCGTCTAACGAGGCAGGGCCGTTTCCG
0.1557244601152733 AGTATTTCCTGTCTCATGTGCCAGTGCTCCCGTTTAGCCG
1 CTTTATTAAGCATAACGGGCTATGAGCGGTGATGCATCCG
1 ATCCCGACTCTGCGAACGGCTCTCCCTGTTCCTTGCCGTA
0.145805514218998 CATGCACCTCCGGGGCGCCCACGCACACCCGTAAGTGACT
1 CCACACATCGCCCGCGCCGCCCACAACACATTCCACCTTC
0.7746393969464158 AGCCAGATGACCACATTATGCGGCGGGGTGCTCGCATCCG
1 ACGACGAAATCCCGACACACCCAACCCTCCCGCCCACGTT
1 TAATGTTGCCGGCCTAACTTAGGGCCCGAAACCGAGAAAG
1 ATCGTAAGCTACTCCGTATCAATAACATGCCCCTTAAGGC
0.7142908391006114 AACGCAGTGTCCGATTAAAAGCAATAACTGACGAGTTCCG
1 TCCTTGCCATTTTCCTACAGACACTGGAAGCGATTGCCGG
0.4325683996138548 GGCCGTTGACGGGACACATNCGGTTTTATTTGCTATCTGC
0.6574883701316889 TACCAGCACTTAAGCCTGTACTCGATGCAACAAACTTCCG
1 CAGCCGCCCCAATTAACTCTAAGCCGCTAAACCCCTTCCG
1 CTGTTCTCGGCATCCGCCAACTGACTTGAGGCGAATGCAA
0.8338276645025458 GTTTCCTACCGAAGGCCGACGATATTTACGTTTCCATACC
1 ACTAAATCCCCTGACTAGGTCTGTATAAGCGGTATTTCCG
1 GACGTACCACCTCAACGAGTCCCAGCGAACAAGCTTGGCC
1 CATAACACTTAAGAGATCCAGTTGTTGAGTTTCTCATCCG
1 GCAGCCTCGCCGACATCCGTTCCCTGGAATACCCAAACGA
1 GTGGAACGACTTATCCTATGCTTGTGGATATACCTATGTG
1 CCAGACGCCACATCACACCCTTACCCTCCCCCCCTGTAGA
1 TCACCATCTTAAACACCGTCATTCGCTTGCAGCGGAAACG
0.3472448899006928 CCTCACGATCGCAACCACACTACCCGAGCTCACTTCCGGT
1 CACGTCCAGAACCACTGCCACCCCACGACGTACCCGGTGC
1 AACACGAATCCAGACCACCAAGCCAGCGCCTGAGCAGGGC
0.5233828928884469 CACCCGCTATCTGCCTTGCACTGAACCTCATATCCGGCCT
0.009808339498829111 GCCACGCGCCGCGACGAGGACGGTCCCGCATCCGTCCGAC
1 GCCTCGCTGTGGCCGATACCAGATCGCATGATTTCCCTCC
1 CAAAACTCTATTCCTCTTATTCTATCTAAGCGTAGATCCG
1 TGCGTGCGGCGACTACGACATTAGTAACTCCACAGTTCCG
1 GAGACCCCTAATGTTATGCCCCACCATTTTGCCGCACCAC
0.1870027369932311 TAGCGCGACCTACAAGCATGAAATAGCACCACCATTTCCG
1 CATTCACGCCTTCATCTTTTCCATTCCTAATTATGCTCTT
0.5989471974748315 TATAACGCCGTCAGCCAATAACCAGTGCCATGCGGTTCCG
1 AACGCAGGGGCGGAAAAATGACGTGACTAGCGCGCAACCG
1 CCGTCAAGTCCCCTCCTGGAAACTACACCACCCAAACCTC
0.360059515922559 GGGGAATCAGATGTGATGAGCGCGTGTCGCCACACATCCG
1 AAGTCCTGCCTCCGCCCCACTCCACCTCTTCCCATTAAAC
1 TTGCTCCGCACTCGCTGCGCTACCGAACTACCACGATGCC
1 CTGTAGCAAGCAAAATCGCCCGCTATGTTACGTTCAGTCA
0.6836070559423795 ACGCCCGACCATCCGCCCTGCCGTATTATCTCTACCCCCC
1 CCATCCGGTGCCTTCACCCAGTCTGTACACTCTGAGGCAC
0.7556990361874206 GGGCTCTCTACCTTGAACAGCGAAACTTAATAAGTTCCGC
0.818589422251649 GAATGTACCACGGTAGTATATGTCAGATCAATAACATCCG
0.1009121660096779 TTAGCACCACCCACCGAACGGATGCCAACTCAGACCTCCG
0.01211289398765385 ATTCACAGCGTAAAATGTGAAAGCGTTATTTTCCGGTAGC
1 CACAACGTAACACAATTTTGGAGGAGTACCACCGGTCCGC
0.2140444653097709 CCACAGACACCAGACACAGTTTCCGCCCTTCCCCTGTCGC
0.3866768011357435 TGTCTGGCGCGCCGTATGCAGATGGCTCCCCATCCGGCGT
0.5193141855492375 CACCGCTAAGTGCACGGCTTCGCACCGTCACGTCCCGGCG
0.6434168266017514 TGGCATAACTTAGCGAGCGACCAGCCGCACAGCAGTTCCG
0.6010120771208868 TCGGGGCCCACTTCCGTACAATCACCCTCAGTACTCAACG
1 ATCACTGAACATATTGTGTGCCTCCCTGGTGTAAAATCAC
1 CAATTTGCTAGCACACCATAGCACCTCCCAGCTACGCAGC
0.6769038639899618 CTAGCTACTACAGAGCAACNCGTCGCTAAAAACCGGACGT
1 TAGCCGATAACCAGAGAGAATGTGAGTGGGAACCGGTTTA
0.3866088721737251 TCAAATGAGGCGGAAATCAGAATCGCTCCTTCACAGGAAA
1 TTCCGTCACCCCCTCCACCACAGCGCGTCGCCCGATTCCC
1 CTGTATAGGTACGCTCCATGACTAAGCATCTCACACCTCC
1 ACACCACGAAATAAGCACCCTGTTCCCACATACCTCCCGC
1 CCACCCGCCGGTACGAACCCCGCGCAATCTCGACTCACCA
0.844159192151876 ATGTTCCGGTAACCAGACCGAAACATGCGAGAGATGTAGC
1 TCCAGCGCTCATCGGGTCAGGGACTAAGCAACTGCTTCCG
0.1836187863759398 TATGTATAAGAGGGAGGTACGAAAGGCACAACCGGAAATG
0.5808656118790596 AAAGCGTTAAGCCCAGCAAGGGCTTCCGGGTCATGCGTGC
1 CCAAATTGGGCAGTAAGTCGCTCACAATCGCGTACTTCCG
1 ATCAAGCATCCGAATCAACGAACCGGCTTCTAACGGAGGG
0.966771042686754 ATATAAGTAATAAGCGTGGTTCAAGACGAACTTGCTTCCG
1 CGAACCACCTCTGACCCCACGCGTGATCCGGAACCCGCAC
1 TCATGGCCATAACGACAGTCCTGTCCGCTTAGGTACCGCC
0.4972685639756349 CAATGCACCCATCGCTTCCGCACATCACTGACGGGCGCTT
0.8997259942093447 CTGCCAGGAAATCCTGCGCCTCTGCGTGCGTGCACGCAGT
1 CCGACCTGTTCGCATAAAAACGCGTAAATGTGCCCATGAC
0.9293839853695935 TCCAAATCCACCCGGACATAAAGGCCGTCCAGCCAAGATC
1 GATTGTATGCACTTGTTCTCCATGCTTTCTTGCGGTTCGA
0.6076652937262359 GGATTTCCGCTTTTTGAGTCTGTTGCTAAAGCGATAAATG
0.1484312084171346 GCCCCGCGAGAAACGCGTCACCAATGCATCCTGTCCATGC
0.37346505901942 CGCCAACCGATGCGAAAATAACTATTTCCGATCGTACGCG
1 CGACCACGAGTTTCCTACCAGCCCGCAACGCGCTTAGCAC
0.4057127065808472 TTACACTCATACAGCATCCGTCTGCACGACCAACGGCCTA
1 CCAACGGGCAACGGATGAGACAAATTAGGGCCTAGAGAAC
1 GCATTTCGCTTCGGCCCTGGATGCTAGACATGATGCGGAC
1 AACCAACCGTATGTGGGAATTCACGATCCGGGGGGCCATC
1 CGCAATATACCTCCCCTCCAATTTCCCACCAAAACAAGCC
1 ACACGATGCCAACCTTTTTAAGGCGCGCGGCTGCCTTCCG
1 TCGTTATATCCGGAGCCTTGCTGGTGTCCGAATATACTCA
1 GCTAACTCGTGTTGCATTCCTTCCTTGCGTACTCAAGCGC
0.01197068232980463 ATCACACGCGCCTGCCGCGCTTCCGCCCTCCGTCGCCCGC
1 GCACGGGGCTATGTGACCAGCCTCACATCCCCCCTAAGCT
1 TTGCCACAGCTACGCCTATACACCTAGCCACGCGTATCCG
1 CGGCGCAGCCTCTCCCCGCCGTTAACGCAATCGGCCCACG
0.3646462963816147 CCTGGACTTCGTAAGCACCACCAATGGAGGCATCCGCTCG
1 AACAGTACATAGGAAACGGATCCCGCGCCAGTCGCAGGCT
1 GACACGTAAACATGCAATGAGTCCGGTCCTACTGGGTTAC
1 GCGGATACGCGCTCAAGGCGTATGCTGGCGACAACTACTT
1 TGACCATCGATGAGGTCCGAAGTGACGATCAACACCGCTC
0.3692458628433896 CAATAAGCCCCTCCAATCCGCTCCTACCCGCACCGGAAAC
1 ACAATATGGATCTCCGCGCGATGCCCCGCGCCACCATCCG
0.4345569607081405 TGCTAGTCTTTCCGCTATATCCTTACGCTGGCTCAGTTGC
0.1005641733261703 TGTTCCCTACGTTACTCCACCGGAAGCCGCACGAGAACTA
1 TCGATGTTGACTGCAAATCGTATAACCGGCTGCGGTTCCG
0.8320033814782645 CTAAGTCCGGTGACAGTACCACTGTACAACCGCTTCCCTC
0.5652324907857442 ATACTATTCCCTGTCTGATAACTAACCTATGCTAGTTCCG
1 CAGTTAGGATGTCCCGCCAGAAGGGTGTGCCGTACATCCG
1 GATGGTCACGATAACAGCAACAAAAGCGAATGCTATTCCG
1 TCGCCTGACCAACCTTACCCCTCACCACCAGACCTGCCCA
1 TGCGTCGCTAGCGGCTTTACCAGCGCGTGATACGACTTTA
1 TGCATATTTATTACACGACTTAAATCCGCCCTGCTCCGCC
1 CTTAGGCGAGCCCACTGGTCCCAATATACCTATATTTCCG
