svm_type c_svc
kernel_type gkm_esttrunc
L 8
k 5
d 3
nr_class 2
total_sv 16414
rho 0.798658
label 1 -1
nr_sv 7222 9192
SV
0.7755636729003631 GCTACACAGACACGACGGAAGCGAATCCCACACATGCCAT
0.3669557856531404 GGAAATCCGGTTAGTCGCGTCGCAGCTAGCTGCGCGGGTG
1 TCTGGAGACTTGCGACTACAGGATACAATAGAACGATCAT
0.6182147809146339 CCGATATTTCTCAACCGAGCTTCCGGACAACTGCCTAGGC
1 TCCGGTCAACTTAATGTAGAGCTGGATATGAGGGGCCACA
1 GTACTCGGGGACGGCCGTCGTAAATCTATTGAGCCGTAAA
1 GTCTACTACGTTTCGCGATTGACCGCGCAGCGCGTTAAGC
1 AATCACCATACAGGCCGATGATAGTTTGACCAGATATAGG
0.1606959660462439 ACGTAGGCCCCGAGCCCGGAAACGTACGTCTATTTACACC
1 CCCTACTGCATCTGTCCTATGCCGGCTTCTTCCTGTCAAA
0.4794176002098264 CATAGGTTCCCGATGGATCGTAACTCCGCCACGCCGGAAA
1 TGAAAGGGCTGAAAGCACCAACGTGGGGCCCTGACGTACA
1 GCCGGCGAATCAACGCGGGACTCAACCAGCTAGACCACAG
1 TCCGCTATAGTATGCCAATGAATGATTTCCCGCAACCCTT
1 GGCAATGGGGCCATGGTTGATGATGCTGGTGTGGGTATTC
1 TACTATTCTAGTTGTTGCCGGAGAACGCGCCATGGAGAGA
0.8904995756491612 CCGGAAGTCTAGCGCTATCGTATTTTGCATGGATAGGTGT
1 CCGGCTTGATTCGCCCAGAGTACGAGCACGTTGGTGGGTG
1 GTCACTGTGCCGTCAAGACTACCTAGAACAAAAGGCAGTC
1 TAATAAGCTGTATTACGATATTGGCCTCGTGTGTTAGGGA
1 TGGGCGGATATTGCGCCCGGATTGCGCTACTTCTCCGTTC
1 CTATGCTTACATTACTGTATTTTCCCTCTCTTGTTGATTG
1 CAACCTACGCCGCAGATCAATCGCACCTTCTATTGTAAGG
0.4350676354468611 GACTAACTTCCGCATGAAGGCCATGGGCAAAGGACCGAGT
0.9802759189587702 CTGAAATCGTAAATGCTGATCAGAGTGAGTCGTAAATGCC
1 GAAGTCTTAGTACATATCGTCGTGATAACTGCTTGTAAAT
1 GCCTAGTCCGCGACGATTTAACGTTGCTACATTTCGGTTG
1 CTTCCGACGGCGCTAAGCAGTGACACCGATTCATACCTCC
1 CGTAGCCCCCGGGCAAACCAATGTGATGCGTTCCTGGGCC
1 GGCCGGAAACGGTCCCATTCTGGCGTTAGCCCTTGGGTGA
1 CGCTACTGCGGATTTATATTTCTCTAATTGATTAATGCGC
0.8995472596611256 GTCCCGGCGCGAAGCTTCACCTTCCGCCGTAACTAAGACT
1 TATTCCTTACCTTACAACCTTATATTCCATTTTTTTTCGG
1 TCCGGTTTAGCTCCAGTTCCAGACATCACTTTTTCCCCGA
1 CAATCATGTTAGTAGACACTCCGCGACCCACCCTGCCCCA
1 TCCGTTCCTCCTACCCCACGACAGTGCAAGAATCCGGCAC
1 TACTCTCTCCGTACCTTTCAAATGACTCTTACAGCAAACC
1 AGCCGGAGTCCGCACCGGACGCGCGAATACCCACAAGTCC
0.4086626108111918 GGTACACATCCGATATAGGCCTTACGAGGCGGTTGTATGA
1 ATGAGGTCCGGCTCCCGTAATACCCCACCCGCCCCCAGAC
1 TTAGTTACCGCGACTTGAGCTAGGTCAGGTCCCTGGCGTC
1 ACACTTCCCTCCCAGATGAGGCGCAAATAACCCCTTATCA
1 TTAAACCGATCATGTACAGACGTTGACTGTCTCGCCCGAC
1 TGACTCCGCAATCGTGGCCATGCGCCTCTAACCTGGTCGT
1 TGCCTTGACTGACTATTCCTCCCTTGGCTCGCTTGCCTCC
1 CGGGGCGGAAAGTACCTGGCCCTTTACAGGTATTCAATGG
1 CTTCCGTTTAGTGGAAGCATTGTTTATGTGGCGTTCTTTC
1 GTTTCCGGGATAGGTACTGATGCGATCTGCAGAGTCTTGG
1 CAAAAACTAAGCAGTGTTGTTAACCCGAATCCCACCGGTC
1 TCCGCTTATCTTGCTCTAACTCTTTTTTCCACTTAGCCAT
1 AAAACTAAACCCACTCTATCGTTAGTACCGATAGCATCCA
1 CGAACTGGCTCACCTCGCACCCGCCATATGCCCAGGGAGA
1 GTGTTCCTGACTCGCCGAACAACCGACAGTCTTCAGGTCG
1 CGTTCGCTTGTGCGTTGACAAACCTACGTTAGATGTGGGC
1 AGAGTGCAAAGAACCGCGTGGCCGCCGGTGACCGTTGCGA
1 TTTCCGGCGAGGGAGCAAACCCGGTAGTGGGGGCAATTGA
1 CTTTCCTAACTAACCGAACCGACGCGGTCCGCGACCCTCC
1 CGCCCCGATGAACACCCCGGATCTCCTCGGAGAACACTCC
1 TCCGGCCAGTTTAAAACTCTTGCTTTACACTACTGCGGAC
1 TCCGGTTATTAACGAACCCTCGTTTTTTCTTGCCTACGTA
1 CACCCGGAAGAAGCTTAAGATATGTGCAACCTGTACACTT
1 CTTGCGGCTTATGCTCTACACCCGCAGAATCCGATTCCTC
1 CTCTCTTCTGTTTTTTGCTGTTGGTGGCTTGTTTGACATT
1 GGCAGCCCCCTCCCTTTACTTCCTTTCCTTTTGTTTCCCG
1 AACACTCCGCCAACCCGGCACAACCGCCCTTTCCTATGCC
1 AGAGCTTCACTCGTTGCGTTGCTGTTTAATGCGTAAGGCC
0.703397746434034 ACTTACCCGGAAACAACCCCTGGGGAAGCGCTCCGGGCCC
1 CCCCCGAATTAATCCCGCGCGACTTCTTAGTGGAGCGACT
1 GTTGACAGGAACTATTACCACATGGCCCATTCGTGGTGGT
1 TTCATGTACCTCCGCCCGTCAAAGGCGTAAGTTTAAATCC
1 GCGGTGCGCTCCCACCGTGACTGCACGGTATGATAGTGAT
1 CAAAACAACCAGCTAGCACTGCCGCACTCGCCTAACCATG
1 TCCGCTTAGCCTCTCTGCTCGGCGTTTAGCTCCGGATTTA
1 TATTCTTTGGTCCTTCGTCCCTTGTGCCCTTTCCGCGTTA
1 CTTCATTCTCCAATATGCGGATTTAATATCTCACGCTGTG
1 TGAACGGGCGAAATCTGCGGACGACTACGCTCTCAATCCC
1 CCATTTTCAAAGAACGAGTATCTGCGCACATTCACCTATG
1 GCTTCCCCCCAGCAAATCCCTAAAGCCTATACAATTTCCC
1 CCTTAGTGCCTCATGATTGACTGTTAGTAATGGCGTACCT
1 TTAGGACCCAACTATTCCGACTTCCTCCCTACCCTCAAAT
1 AATCTCGTTTGGCCCACGAATTAAATGCACAATCGCAATA
1 TGTCCGCTAAGTCAGCCCAGAACAAGTGCAACGTGCGCAC
1 CTTCCGCTATCTCTTCCTTCCAACCCAGCAGCTCATTCCC
1 TAGCTATACGTTCCTCCTGCCATACGTAGTTGAGGTCTAT
1 TGACCTGTTAATTCTTTCGCCCACCCATATCTGGCCAGCA
1 TAACTACTTCCTTTCTATGAGACAAGATCTCTTCCCTCGC
1 TGACAGTTCCGCTCCTTCGAGTAACTGCCAGTAAGGACGA
1 ACAGGAAGTTATAACCCCAGTACGACGGGACTTCGTCTCC
1 CGCCCTTCAGTGCTTACATCCGGGCTCGTGCGTACGCATA
1 TCCCCGTAATGCATCACCGCTGATCTGCTACTCTACCTAT
1 CCTAAATAATGTGATGACTATGTCATCAAGAAACTAAAAT
1 CTTCCGGCTCTGAGATGCCCGGGTGCTTAGCCTGTCGCGC
1 ACGTAGCCAGCACTGGGGAAAGTCGGAATGGCCATAGCGA
1 GGGGCAGGAAGTTTGACATTTTATGGGTTTGAACACCATT
1 ATTGAACCAGAGGTGCGCGTCATACAGTATTAGTCCGGAT
1 CGATATAGCGTAGGGGCACACTACTGACAATGTGCTTATC
0.8512944177504634 CTTCCGGCTATCCCCCGCTACTGTACGTGTATCGGAGCGC
0.7782794242669043 TTGATTTCCTGTCATCCCTTCCCTCTAATACCTTTGAGTC
1 TCCCCGTCCTCTGAACGCATTTTTCCTAACCGTTCAAAAG
0.6923588848261617 AAGGCGGAAACCGCGGGTCACGTCTGATCACTATCAGTAC
0.3479253876374122 GCACGGCACGTAAGCGCTTATCCGCGAGTTCCGGCCATAG
1 CCACCCGCGTGACGTGGCGCTACCTACACATTACCCCCAG
1 AGTCGTCGTAGCAGTCCGTACGTTTGAGCTATGTGCGACT
1 GGAAATCGACTGGTTTTAAGTCAGGCTGGAACCGAAAAGT
1 GGGCTCTCCTCGTAAAGCGTAGTTGCTAACTCAAGGCCTA
1 TGGAGTTACTTCCTAAACCAGCTTACACATAGCGCGCTGT
1 TCTCGCCCAGTACTTTCCTCAACCCCACCCTCTTGACGCC
1 CCGGACGGTGACACAACGCATCCCGTTCTTCCCCACCACT
1 CCCCGTATTCCTCTTCCGTTGTCGCTAGGTTTAATATCAG
1 TTTGCTTGCTGAGTGGGTTTTTATTTTCCCTTGGCCTTTT
1 CGTCTTTTGAACGAGTGCAAATCTTAAAAGATATGCAGGT
1 GCGAGACAAGGACGTAGTCAGCGGATCGTAAATCACAAGG
1 ACACCCCTAAATCCGCCCCCCCACCGGAGCACACCCGGCA
1 TCCGGCCGTGTTTTGTATGACACATTCCCTTTCTGTATTG
1 TTCCAGAGCGACCAGCCACAGTTTCGCCCTGATGACCCGC
1 GGCACAGGATGTATACAATAGCACTGAATTAATACGTCGC
1 TTTTGTGTTTCAATTACTCCCCCTGCTTCTATATACATCT
1 CTAGGTTGGCGTGGGATTTTCCAATTACCGCTACGCGTTT
1 TTGGGCCCTTCTGTATTATTTATGTTTTAACTAGTTTAGA
1 ATTACTTAATCGGTTTCAATTCATTCTCGTTTCTTAATTA
1 CATCTCACCGGCGTGTAGATAACTNNCNNNNNNNTACAAG
1 GAGTCGCTTCATCCGGCGGAGCATGAGATATACCGTGTGA
1 GTGTGTCTCCGTAATCCCGATTCCGGAGATAAGCTGTGAT
1 GCTTTACCCCTGCTTACCCTTGACTGAGTGGTACTTCTCG
1 GTCCAACTGCCCACTACTAAAATGCCCTGCCATAACTGCG
1 TCCGGAGTTTCGCCCCCCGAACCAAAGACCCCATATCCCG
1 CCAAAGCCTCGTCCAATGCGACTGCACGGCTACATAACTG
0.1724610650576202 CCGGAAGCATTCGAAGACTTGTATGCTTACGCTACGAGTC
1 TCCGATTGTCTGATGATTTGCGTCATCCTTTCTTAAAGTC
1 TCCGGCTGCAATGACGCTCCGAGCAAGGGCCTACCTTCCC
0.3907553759625724 ACCCCCCGGAAACTCCCTATACGTTAACCAGTCTTCGTCA
1 CCGGAAGCACAACAATTCAAAATATGCCTGTATGAAAGAG
1 GCCGGATGCCGACGGTAAGGTCCAGGTAACGCAGTGCGAC
1 TCACGAACCTTACCTAACATCATTATTTCTATGGCTGCTA
1 TCCGTTCACCTTAGGTCCGACACCATGACCGCCAAAGAGT
1 CCACGCGCTGCTAGCCGCCCGTATGGTATGGAGACTTTGG
1 TACCCAACGCAAACCTTACACTTCGCAGTGATGAAAAGGT
1 CAAGACACCCCTACACCACTCCCGAGAGCACAACCTCCTC
1 ACCGCGAATCAGTGCACGAAGCAGCCGGGGTTGTCTGCTG
1 CGTCTGACGCGGAAGCAGACATAGCTGACCCGAGCCATAT
1 AGTAAAACCTAGCATGCGTAATCTACAGGGAGGCAGGCGG
0.3663089822843513 CCAAGCCCGTAAGCAACATAAACATTCCGGTCCGCCACTA
1 CCGGAAGTATTATCCGAGGCAGTATGTCGTTGTCATTTCT
0.6119102060828211 CATACTGCGGATGTCCAGCTGGCAACGGCCTTACCAGTAC
1 TCCGGTCCAAGTGTCGATGAAATTGTACCGTCCAGGCGTG
1 CGCCGGAAGCCCGTCATCTACAAGCTATCGTAGTCCTTAA
1 TTATGCGCCCTAGTCGATATCGCAACTGGCAAAGGCATAT
1 ACCTCACCAGGGGGTGACAGTCTCCCCCTAACATGGGTTT
1 AAAGGTCCCATCCCCATGCACCGTACGCAAACCCATTCCT
1 TCCGGCTTTTCTGCATCGATGATGCATTAGCTTTTCGAAA
1 GGACGACTAGCTTCCTCGTCCCCTCGCCATGCGCAGCCAG
1 CACATACGAGACCCGGCGGAACACCAATACACTCCGGACA
1 CTGGGTACTGATCATATGTACAAACGATGGCCTATTACCA
0.9387733845808157 CTGCAGCACTTCCTATTAGGCTTCCTCACTTCCCCTCCGA
1 CGTGGTTCCGCCTCCGCCATGGTCGTTCCCTAAACTCAAT
1 GGTACGGTGTACCCCGTTATTGCCCTATAATTGCCACGGG
0.7650329561665875 CTTCGTTGCTAGAGAGGTGCCCCGGCTTACGGAAGGATGC
1 ATCAGGAAGGGTGCCTCCCTTGCCCACGCTTTACTTCAAA
1 TCTTCTGACCGCAGGGCCACTCCGCGCGGCTCAGAAGACG
1 TCCGGTTGCAGCGCGAACCGAGGCCCTTTTAACGCTGCGT
1 TTTACGCCCCCCGCCGCTGCCGACTCTCACTCCTATACTC
1 CACCTTCCAACTCTCCCCATCGCCCACGGGACATCCGGCC
1 GCGTTTCCGTATCGGTCGTAAAGTGTATGCTACGCTGCCT
0.05873660347774447 GTAGTTATCTTTCAACAGGAAATGCTCTACCACCTTGCTG
1 GCCCCTCGCATGAACTGACGACAGCAGAAACCTGCACAAC
1 AAACGGGGACCACGCATATCCGAATCAAAATCGCCCTCTG
1 GAATACCTGCTCACGGGGTTGACAGTCGCGTAGCTACGCG
1 AGGCCTGTACGGAAACTCAATTGCTTTCGTTGTACGATGT
1 CGAGGCATACTGTTGTCCGTTTGGGAGAGGTGGCGACTCT
1 AAACCTGCCGTACCTTAGGTGACAGCCAACAGCCCCCCGC
0.1396408212023484 TCCGGTCTGTAACCCGATCTGTGCCCCTTATATCGCTCTG
1 AAGAGGCAGAATATGGTATCCATGGTACGAAAACTAAAAC
1 TGATACCTGGGCCAGACCTAACCCATAACCCCCGCCCACG
0.7704071674255454 TCCCGTTTCCTGCGTAGTGAGCATGTTATGCCACCCCCAT
0.4414075274226528 TCCGGTTCTGACGTGCGAGAGATAGTGTGGATCTCACTGT
1 TAAATCAGCCAGGCTGTACATCNGGTGGAAGCGATCCAAC
1 CCTTAGACAGCCCGGAGTAGAGACTCGCTACGATTGCACG
1 GTAAGTCGTCCATAGTGTATGGAAGGGAAGAAGTAACACT
1 TAGTCGTAAATGCAGAACGTGCATGGGCGCGGCTGCGATC
1 GTTATAAAGCGACCAGCTGACACAAGGTAAATTCAACAGT
1 CCGGAAGCTGCGTGTCATTAATGCTTGACAGTGCCACGAT
1 TAGCGTCTGGTGAGAGGATATCCCGTATGCGGGAGAATAG
1 TCTATAAGCCTGCTTGCTGGATGAGTACTTCCCTCTTATG
1 TTGCCTTGCCCCTACCACGCGTAGAGCGCGTCCCCCGGTC
1 CCTAGGAAATCACTTCGGAGCATACTAAATACCATGCAAT
1 TTTAGCTAAATAATCCCCTGACCCGTCATCCCTAACTATG
1 ACGCAGAAATTCATGAACCTCACATACCTCGTTACCGTCT
1 TCCGGTCACGTGCGTGTGCGGATTCATCGCCGAATGGCTC
1 TATCTCGACACACGCGCCGGCCTCAGCAAACGTGCACCCC
1 TCCGGAGACACTAATCGCACCGCCAGGGCGGGGCGCGACT
1 CAGGAAGTGGGAGATCCTTCAGGCCAGTGAATGGGCCTGC
1 CCCTTACCGACTGGACGGCACCGCTACTTTCTGTGCTAGG
1 GCCGGAAATTGACATCTCCAACTTTAGGGATCGCTTGCCC
1 CGCGTTTGGCTCACATTCTTGGATTATTGTATCGTAATTA
1 CATCCATTTCGCGGCTACCACTGACGATCTTAAACCACCC
1 CCCTGCAGTTCGCTCCAACCCAGCACCGATCTCGACCGTA
1 CCTTAAGATACCTCCCCACCCACGCTAACTATCAACAGCT
1 GAAACAAGCCATTGACGCATCCGACTCTGATAGTACTCCT
1 TTATAAAACCGTGAAAAAATTATATTCGCCCGATGCGGAC
1 CGGGCACGCGGCCCGGTGACTGGAGATCCCCTTGATGAGA
1 CCGGGCCAGCCTGCCCGAAGGATGAACGCCACACCCACAT
1 GCACTCGTCTCGTTGTCCTTCGCGCTATCTCTGCAAATTA
1 CCCGAGCGCCGTATCCACTNAATCCGCCGCCGGTTCAGTC
1 TCCTGTACTATAAGGCACTTGTAAACGTTTCACGCGAGCC
1 TTCTCGTGAGTGTTGACGCGTCGGACACATTTTAACGGCC
1 GATCTATACACTATTAGTGACATAATGATACGGTAATTGT
1 TCCGTTAATGACTTAGGCTTATCCGAAGGGGGCAGGCGGA
0.3294383199723051 AGAATACGCGTTGGATTTCCGTTACTGTTACATTTACTGA
1 TGTCGGGTAAGTTTACTACCGGTCAAATAGCAATCACGAG
1 CTTGTACTCCCCCTCGAAGAAGCGTATTCCAGGATATAAG
1 GTACTGGGCGGGGCGTGCCTGTTGGCCGAGTGCCTTGCAT
1 TTTGCAGGCCCGGCCTAGGTTGAGTGGTGGAGGATAGACC
1 CTTCCGCTTCATAGCTGTGATACTCGCCCGAGCTTCGAAC
1 TCCTGTGTCCCACGCTTTTAGTATAGCTCCTCTTATTTCC
1 AGGCCAAGTGGTGGTAAATTCTTCCGCAGTAACAGTTCCG
1 CGACTGTGGCGTAATGTACTACGCATTCTTGTTTAGAGTC
1 ATATAACATCCTGATTCTGGTAGCTTCTGTGCGCTAGTAA
1 AAATGATAGATCCTACGATGACGGAGACAAGATAGTGAGT
1 CTATAGTCAGCTTAGTCACCTCGAAAGACACTGCCGCGAA
1 TACTCCGAACTCGACCATTGCTAATTAAACAAGTAACCCT
1 TCCGGCATTGCTCGCGGTCCCGACAACCATCGCTATGATA
1 CCGGAATGATGCAGTCGCGGAGTGGAACGAGGGGACCGAA
1 AACCGGAAGAAACGTTCCACGCCGGCCCAAAAAGATACTT
1 CTTCCGGCTGCCCCTAAATCACAACCCCTGGTGAAGCCGT
1 ACTCTAATCACAACTGCCTTCGGGCACAGGCGGTCCCGCG
1 TTCGGTGCGAGTGATGTACGTTCACGACTCAAGCTCTTGC
1 TACCACATTTTTTCTGGTTAACCAATCTTATAGCCGGTTC
1 GCCGCCGGAACTTTGAATGTTAACAACAAATTCGAGCAAG
1 CCTTGAGGTCGGCTCCAATCATATCGAATCGATGATAGTG
1 TCCGGACTGCCATTGCGATAGCACACATACGAAGTAGACC
1 GTATAGGCAGACGTTATCACCGGGAATTACACGGTGTTCC
1 AGCCAGGCACTTGGCACAGTGACGAACCCCGGTCACTCCC
1 AGCATAACACAGCTCACAGTTTCCTTCCACGCCTGGCCTC
1 CCGCCACATACCCTTTTGCCTATATAGACCTCCATAGCGG
1 ACCAAGGACCGGTGCCAGTGATCCCTGTCTAGACATCCGG
1 GTATTTCCTGTCACGCAAAAGCCCGTTACGAACCGCGTTC
0.8727295375207024 TCCGTTCGGATGTTAGACACTTTTGGTCATGCCCTTCTTA
1 CTTCCGGACCCAACGTCGTCCCCTTGGAGATACTGCCCAC
1 TCCGGAGCCCTTCCCTCTCTGTTACCTGGTGCATCACCGA
0.9016081741170319 AACACTGCAGGCTATTTGAGTTCCGCTCGGACAACCGGAC
1 TTTTTCCCCCTTTAACCATGGGCTACCATTCTCTGCGACG
1 ATCACCCAAGGCAATTTGGGCAACCCGCGTCCACTACCGC
1 TCCGGACTTTGTCATGACCGACCGCTCATGAATTCACCCT
1 TATGCATTCTTTAGAAGATGTTCCGTCCTCAGTTTGTTGT
1 TTACCAGACAAGCAGACTTAGACGTTACTTCTACGCCGAC
1 CCACCGCCCCATGCACGTAAACCGAAAGCCTCAAAACGCG
1 TGCCTGCTTATTCTCATCCGCCATGTTACCCAGTTGCGCC
1 TCCGGCCCTGCAAAACGTAATAACACGAGACAACACATCC
1 ATATAAAGATCGAAAGTGCAATGTCATCCGTTTTGCACTG
0.3638298302148533 TGTAGATTCCGGTCCGCCCGTAAACACGCTGCGCGGCATG
1 GTACTATCACCACATACCGTCCAGCGTTCAAGAGCAAGCC
1 CAACCGGACGCAGTTGTTAGGGCCATTATCATGGTGGCCT
1 GTCATATGATTGCCGCGTTACTCTGGACTTCCTCTTCCTG
1 ATCCTGCTGACATCACGGCGTGGCATGGTTCCAAACTGTT
1 CCATGGGCTGCGTTCCCAGCACCCACCTGCTAAAGCGGAG
1 GACCGGTAGCGATCTTACACATACGGTTGACATTCTTGAG
1 GGGCGATCCGCGTACGGTGAGACCAATGCGAAAAGGGAGT
1 ACCACCCTGATGCCAGCATACCTTTGCAACTTGCGCCCTC
1 GTGCGTATTCATGACGAATGAGGAGCGCAATAGCGAGACA
1 GAACTTCAGTCTCGTAGGTTCTCTTTCCTTCCGTTGTTTT
0.4031986737176686 AAATACAACCTTCCGGGGCACAGCGAATCCCCGTAAGCGC
1 TCCGGCGTGGCTTGACGCTGCAGAGAAGGTGGCCTACTCA
1 TATCCTACAGGATGTTGATCGTGCGCGCTCGGCGTCGTGC
1 CGCGAGTAAAGTCCAGAGGTCCACATATTATGTCCTCGCG
1 TCCTGCCGCCCCCCACTCGCTCCTAGCCGATTTGCCCCCA
1 GTTGTACCCTACCTAGATAGGCAGCTAGCACAATACGAGT
1 CTTGTATTCACTCACCTTTCATTCATCTGGTTTTTCGGTA
1 TAGGGGAACCTCCGGCCCCCGCCACCCGACATCTTGTCCG
1 AAATAAGAATACCACATCAACTCCACCGCGCCCATGGCCA
1 ATGCCGGCGGAAGAGAGAGAGGTGGCGACAAGATGCGCGC
0.9698357956147897 AGCTGCCGATGGAACCCATATCCGCTAAGCTGTTACCTGC
1 CGACACATCAGTTGGGCTCACCCGCATACCCCACTTGCCA
1 CGCCCGCTACTTGCCTTTACCGTTACCTTAAGCACTAGTG
1 TCCGGATAGTGATTCTGCGGCATGATGAGGAACCAAAGCC
1 TGCACGTCATCCGGGAAATTAGTCTGGAGCACAGTTGCTA
1 CGGACGGAACTACGTACGTTCACTGCGGAGTCCGTCACAG
1 ACGGAAGCGATGACTAACCGGGGGGAAGCTGAAATAGGGC
0.3051012289989644 TGCTTTTACTTCCGCCCCCACGCTACGTAGAGTCATAGCC
1 GACCGGAAAACGACCTTCGCTTAGTGCCCCCTGCCATTAC
1 ATGGATACCAAAATGTGGTGATGATATATAACGGTGTACA
0.9466964189199589 TGCGGAAGCACGGGAGACTTCGGCGATCCGCCAATGCGTT
1 AATAGCTACGTAAATCACGGTAACACTGATATCTCGCTAA
0.1524226513106716 CCCAAGGGTCCACGTTCCCGGATGTGGGCCCACGGAGCAT
1 TTTTACCGCTCAATTAGTCTGGATAGTGGTGAAGCTTCGC
1 CTGAGTCCAGTTCCGACCTTGTAATAGGACAGCCTGCTAT
1 GACCACTTGTACAGACTCACTTCGAACCAAATCACGCCCT
1 TAGCACGGCACCTTGCTCTTCAATACTCCTTATGTTGGGA
1 CCGAACACCCACTTACCACCGTGATCCGGCGACAACGCGA
0.8218389372889114 TCCGTTAGTCGGTCTCGTTGGAATGCCGGAATCAGCGGTA
1 TCCGCTTTTCAGGGGTGGATTATCCCTGATTGTTCCCTTC
1 CATCCTGTTAAGTCTCTTTTACAATTTACCTCTTTTTCTA
1 CTCAGTCCCCTTGCATGCCTATTCCCACGTGCAGGGCCCC
1 TCCGGTCAGTTATGCGAGCAGATTGCCAATATATACAATG
1 TAACTTCCGCAATACAATTTAGACAAAGCCGACCATAGGA
1 TCTTGCTCTGGTAGGGGGGGGCTACTCGTCATGATTTCAC
0.3394306676691069 TCCGGTTTCGTGCAATTACAGTGTGTCTTGTATCAATGCA
1 ATCTTCGTAATCTGATAACAAGACAACGCACGCTGTAATA
1 GCATTGCGGGAGATATGTGTATATGGATACATATCCGTGG
1 CACAAATTCAACAACCCTTATCTCCCTCTAGCTTTTTTTA
1 TGTGACTGCTCCTATAGCCAGGAATGGGCACGTTATAAAA
1 GCCATATTTTTGTTAATCCGTGGTTTTGTGGTTGCTTGTT
1 GCAGCGCCTTTATTGCTCCGTATACTGGCGTAGTCCGGAA
1 CCCAACCGCTTTTGTTATCCGGTCGGGTCCATCTGTCTGC
1 TTGTCCTTAGGAAGAAGGCTGTATTAACAATTAAACTTCC
0.7505062268568969 AACTGTCCCAACCTCCATCCCCGCACCAGTTCCGGCGGCG
1 GCTAGATGCCGATGTTTCACTACAGCGCAAGTTAGCGAGA
1 CTTTACAAAGTTACACTACGCACCCCGTCACCCACTGTCT
1 CCCGTTTACCTTTTAACACTTGCAGCTAACGTCCGGCCGA
1 TTTCACGCCGTAAACTCATTGCCGGCGGGTCCTCGGGCCA
1 GTGAGACGGAACATGCTACATGAACACAGACCTTGCAGCC
0.9006528156900794 TCCGGTGAATGCGCGCAATGCATGACCTTCGATTACCAGG
0.2082573039178244 CTATCCGGATACGCGCATTACCTTCAATCGCTGGGCACTA
1 AGAGCTATAAAAAATCCGGCTCCAACTACCATCAGTCCTC
1 CCTAATTAAGTGACTGACAAGAGGCTGAGGTACGTAAGAC
1 GATGCAGAATTATTGTAAGTTTGTTGTGAGTAGCTTTTAC
1 TCCGCTGAATGCCTCGGAGACCATAATGTTTACCTAGAAA
1 CCTGGTCTCATGTTGATGTCCGGTTGGAAAAATATGCTAA
1 CTTCCTCTCCGCGCCGCGTACACAGGAAGCATTCCGCGAA
0.2100472713268047 CCTCGTAGAAACTGACCCGTATATCCGGGCAGGAATACGT
0.9779525271852976 CATTCTTCCGCCGAATCTTACACGATCATCGTACCCCCCA
1 TACGTTCGTCTTAGGCGGCGAGGTATAATCCTTGGCCGTT
1 CCGGAAGCTACATACGTGACTCGCGCCCACCGTCTCGCCC
1 GCACGCACTCACCAACGCACAGCAACCTGACCGCCGGAAG
1 TGACCATAACTCCATTTCCCTCGCGTTGTCACACACGTAA
1 TCCGGTGGGCAGTCCGTCTCTTCTGAGCTCCTGGGGCCCC
1 CGAATACTTCCTATCCACGAAGGTCCCTATGCATAATCGC
1 TTCCTTCTGCATCACGCGGTGATAACGCTTACGGCCGTGA
1 TCCTGTTTCTTCTCGTACACTAACATGCAAAACAACCATC
0.8743907630572587 GAAACACTATCCGGTCTTGCCCTACTTTTTGCCTTCTTGT
1 TCCAGCGCACAAGGGACGAGGAACTGCGATCCACGTAACG
1 CCAATGCTACGGGCTTCCAAAGGCCTATACGGCCAATGGG
1 CGTGTTGATTCTGGGTGACGACTGTGGTTCAACTCTTAGC
1 CTAGGTAACGGTAAGTCGTGCATCCTGATCCTGCGCCGTA
1 CCTAGCAATGGTACTTTATACTACTACCCATTATCGTTGC
1 CGTGAATTTCCGCAGATACTGCGACGTTGTCGCCTTCCTG
0.4072008054680627 CCGGAAGTACGCGACCCACCAATAAGCACCGACGCGATCG
1 TGTCGTAGGTTGCATCCACACACTGGGGCCTGGAAATTGC
1 GTGCGTGCGTTAATCAACACGAGACCAAAGCAGATCGCAG
1 TCCGGTACATGCAAACCAGTCGTTTGTATCATGGCTTTTA
1 TCCGGCCCTAGCGCAGATATGTATCGAGCCAAGGCTCCCC
1 AACCCGCGGAAGTAAATCTGATACTGATACTCGCCCATTC
0.01459980709348824 TTTTCAACATCCGGGTACGTGGACGCGTGAAGGACGCAGA
1 CATACTAAATGAGATCGCGCCCAACCCTTGCTCCTCACTT
1 TAGGTCTCGTAAGCAGAATAGAACCTTATACGTCACAACT
1 CCTCCTCCATTGACAGGCCAACGCGCTACAGCCTCCCGGC
1 CAACCCCTGTCGCGATCGATCATCCCTCCAGCCCACCCCC
1 ACGCGATTTCTGCTACAAATTAAGATTGGAACGATAACGC
1 TCACGACGAGGAAACTTAGCCGAGTCGCTCCGTTGAGCTG
1 CACGTACGGAAATATTACTTGCCCCTACGCATCGCGCCAC
1 ACCAGCGCGTGCCCCCGTGCAGCATCGACCGATCAATTGT
1 TCCGGAACCGCAGCTAGATAACCAGCGCTACCTACCTTCA
1 TTTCCTTTATGAACAAATCTACTTTATGGTCTTTCGGGGA
1 CCTCCCTTTCCGTGCGGCATTCACCGGGTATCTCACCCAT
1 ATTGCGCCTATTGGTAGAAGCTAATCCAGTTTAACTTTTG
1 TCGTCGCGATGGGCCCGCTGGCCGGTTCAGCCCGCTAATT
1 GCCGAACTACGTTCCCCCTGCCCCATGCTCGGCTCGGTAC
1 TCCGTTCGGTAAGTCGGAACGACACCTTAGGACATGACGT
1 TTGCTGTTAATGTGCTGGTAAGAAGATTATTACTAGCTCT
0.660578877312197 CTTTTCCATCGCCACAACGTCCGGCCTGACCACGAAACCG
1 AGCTAAACGTTTGACTAGTTACGTGTTGCCGCGGCCTCCG
1 CCACTATCCCGGATACGCTTCGGGATTTTCTCACAATGCA
0.07992204845080632 CGGGCCGCTCCACGACTATCAGCGTTTCCTGTATTCGAGC
1 ACGCCGCTCGGTAATCGTGCATCCATCCTATCTCGCCGAC
1 TCGATGGCGCGCTGAGAAACCTGTCGAACCCCACATCCAG
1 ATCAAGAATACTTTGGCATCGTGAAGACTGATTAGCGTGT
0.499429288148372 GAGCGGAAATGCGATTGGTTGGGATGAACGACCTGCTATG
1 CGTCCGATCAATAGGCAAAACACAACCTCTGCCGAGAGAG
0.4354268833063624 CCGGAAATGGGCTGAGGCCTGACCCCGCAACACGTGGCGA
1 TTATAGTCATGACGCTTAGCTATCATTCCGTCTTTCGTTT
1 AGGGCTGAGGGAATGAAGGGTGCCCGGGCGAGGAGGGTGG
1 CTCTATGTACCTTACAAGACGAGACCACGCCTAAAGATAC
1 TCCGGGGCAGCGTGCCCGCCCCGGGACTGCAGGAGCGCCA
1 CACCCTCGGAGCCCTGTCCGAATGCCGATCATGGACCAAA
1 CAGGGCCATACGAGCTGTGTAAGAGACTACACCCCACTCG
1 TCAATGACCCTGTGCGCAGTCCCCCCACCGTGCAATCCCC
1 TCCGGGGGGTACGCTCCTGTAGTTTCTTATTTGACCACCG
1 TCCTGTTTCACATTGCTACTGACGAAATGACAGCCCCTCT
1 GGTGATACGCCTTCCCGCGTATGCGCCTTCCTGAGTTGCA
1 TACAAATACTTCAACCGACACTAAACCTCAAAATGTTATC
1 AACCCACGGATATAGCACTGTTCTGTCTCATCTTTTGTCC
0.7296787663464915 CGTACTTCCGCAAGCTTTCTGCGCGCGGCACATTGGGATG
1 GGCTATCGACACACGTAGTTCGCTTCGTACCGTGTATAGG
1 TTGGAAGAGTCAACGCAGGAAATACCTTACGGATTGTAAC
1 CTCCAGGAAATTGTCATAGTGCTAGCTCTGGGCGTCTTGC
1 GAAAACGGAACCAGCCTCGATCTGGTTACTCGATGCGTCC
1 TCCGTTATGTTATGATCGACTCGGCAACCCCGCGACCACG
1 CGTGGACATCCGCTATCAGTGAGATGACAAATTTGTTGAA
1 ACAGCACGAAGAACTGACCCTCCTCAGCTGTACTGTCCAC
1 TCCGGTGTTGGTGTACCCCCCCTGTTGTAGCTGCACTAAT
1 ACAAATTAAGTTTCCACTTCCTCTATGGCATAATTGCATT
1 CCCTTTCCATCGCGGAAACCTTCCCCACCCTCCTACCTCC
0.9168254715822044 TCCGGTTCGACCACGCTGTCCCGATGTGAAGGTCAGGACA
0.5485367883716017 TCCGGTAGGCTTCTGCCAGTTTACCACCTCTTTTCCGTGT
1 TCGCATTAGAGCTACTCCCCATAACGCTCTTCCGCATAAT
1 GTTCGGTGCCACTACAGGTGCGCTGTTCAGTGGGATTTGT
1 AAACCACTTCTGGCCACTCTTGTACTCGTCCCCCATAACG
1 TCAACGATCCCTAAACCGCTTACCAGTCCCACACCCTGCC
1 TAGTAGCGTCTCGTTTTGGAAAATATGAGTGTTATTTATT
1 TGCGGCCTGGTGAGTACACCCCCCGACTATTCAGGCCATC
1 CCTTCGTGCCGGACAATGCTTACGAACCTTAGAGTACCGC
1 CGGCCCATGCTTCCTGTAAGGGCCGTTTAACTCATGCTAT
1 TCCGCCATGTGCCCACGATACGTACGATATCCTACCACTG
0.01753342801316755 TACGTTTTCCGGTGCCGTAGTGCTTTGTAGTCAGCGAGAG
0.9625920313429575 CGATACTTCCTGCTTTTGCTGACGACCTCGTTGTAATCGC
1 CTCAATCACAGTAACTATGACACGCTGAGGAGCCACGGTC
1 CTCAAACCCGTAAATCACCGTGAAATTCCCGTTACCCATC
1 AGCCCGTCTCATAGTTGATCTAAAGGTAGTACGTCCTGGG
1 TCCGGTATCCATTTGCCGAGCTTTCTCACCTACTGCCTCT
0.7919595473571202 TCCGGTGTAGCATTCTTATTGTATCCCCCTTTTTCGTTAC
1 CAAATTACCCTTGAGCGTGTTTCTTCAACCGAGGTGCAGG
1 GGATCTGAGCGTGGCGCTGCAGCGTTGTGTATCGACCACC
1 GTTTTTGTGCGCGTGATATTGTCTAAGTCAGTCATTTCCG
1 TCCGCCCTTAGTCGGAGTTGCTCACCTCCGTGCCATCACT
0.6299309036239902 TCCGGTACCAAGACCGTCCAGCCAGCGTAAACGATGACGA
1 ACGGTTCCGCATCTTGATAAATCCCCATTTTGACTGTAAG
1 TTGTCGTAAATTACGAGACGCCTTACCCGCGTTATTATCG
1 TCCGGCCTCTTCCTCAGGCTGCCCTTAGCCCTCTGTTATA
1 CAACTCTTGTATACCCATACTTGCCTTGCAGGAGTTATGG
1 CTGAAAAGCACGTCCTGCGCCACCTCGCACCGCTCCCGCT
0.9194681919873082 CAAATCGCCTTATGCCTGCCCCCAACCTTCCGCTTGCCGC
0.7617105515352781 CACATCCGTTCTAGATCCTCGATTGCCTAAGCTCGTCCGA
1 TACAGCTTCGGTTATCAAGCCTCGTGGAGTGCCTCGAGTG
0.4481514875543285 TCCGGTGTCCTAGCCGTCTCCACCAGGCGGGAAACACATC
1 TCCGGCGACGTATTCTTGCCGATGCCCTTACAGTGCACTG
1 CCTACCCGCGCCATGGGCCTCCCTCAATGGCCGGCCTCAC
0.01710458568419575 GACATATCCGGCCCCCAGACACCCGGCCCCAGGTCAGCAC
1 CTCATCGGCCTGTTGCAAGTTCGGAGTACTATCCTATTGA
1 CCCCACCTACGTTTACTTCCTTCACTCCGACACCCCAAGC
1 ACAGTTGCTTGTACTTCTAGCTAAACCCCCGTGTGAAGAT
1 AGAAAAGTGCCACCTGACTAACTGATACAACGCAGACCCC
1 TCCGGTTCCAACAATCTCTCTATTCCGCGGTCCCGTGCGC
1 CGTCCACCGGACGAAGCCACTCATATCTTGATCCGTCCAC
1 GGTTCCCCGGCCATCCCTCACCAGCTACCGACGTAGCCTG
1 CTTCCGGTGTGAAGTTCTTTTTCTAACTCCTCCGCGACGA
1 ATTAACGCGACAAAACCCTACATGCTATTAACGGTTTTTT
1 TCCTTCCGTTTTCTTCTTTGACAATTAGTCCTTGACTTGA
1 GTATGTGAAACCAGACAACAGCCTCTGAATTATATGCGTG
1 AGTACATAATTGTTCATCTACTCCTTCTCCTGATATAGTA
1 AGGTGAGGTGTACACCCCTCGCCTTCCTACCTCATAGATA
0.2727513682018391 GTGCGTTTCCGCCTTTCCTATACGTTGGCATCTAACCTTA
0.3949855330852781 CCGAAGCCGGACATGGCACTGCGTCTCGCCCTATTCTCGC
1 GTATTACCGATTGCAGACCTTCTATGATACGCTTTGTGTG
1 TCCTGTAATGTGCCCGTATAGTATAGACCCAACATGCGTC
1 AGATCGAGTATACCAGAGCCATTCTTAACTATACGCCTAT
1 AGAACTGGCTGGGCGTGAGGGCAGTGTCCCTCACGGTGAC
1 CGAGCCGTAAGTACATATCNAACTGTAGGCACTGGGGTTT
1 CTTCCCACAAACAGTAACTTCCGTATGACCCTTTTCTCTC
1 TTCTTCCAAAGGTCGTTACAGGTAACCGACGCCATGAACA
1 TCGTTGGCGTAAAGCCTATGGACCTTGAGCTCGACCCCTC
1 AGTATCTAATCCACGAATACCGCCTGTGTCATCATAGCCG
1 CATCCCCACTTCGTGAATCTCAGAATAACTAATCACAGAG
0.905629628617189 CATCGGAAATCGTTGCGGATTACTCCAGCAGGTGGAACGA
1 TAGGCCTTAGACAGACTCATCTCCCTCGGGCAGGGTCCCT
1 TCTTCTGAACCCCTGTATATTAGTCTTGCGACTCGTGAAA
1 CTTCCGGCAACTTTGCATTTTTAATCTCGTTCACCGCTGA
1 TATCCCTACTTAACAATCACTGGAGTACTTGTTACGCCCG
1 GTTGGATGCGACGCTTCAACCTCACTGTTCACAAGGCCCC
1 TCCGGCCGAGGGCGGCGTGTACCTGTGGCAGGCACTGCAC
1 AGGCATATCCAGGCCTCCACCGAGTTGCCGACATGCATTG
0.1475541996167292 AATGACTTCCGTCACAACGGTCGAGTATTCTAAGACATGA
1 CTTATTAGCACATTATCCGTAGCGATAAATGTTGGTCTCC
1 CGCTCGGCCACATGTAGCTTATCCTGCCCGCTGGCGGCGA
1 CTTTTCGATGTATGTTCCTATCTTATTTTTTTTATGATCG
1 TAGATCTTTGTACTTCGCTCACCCCGACCTTCGTGCCATG
1 CTTTCCGCCCGCCCTGGTAAGGGCCAAATTCTTCGCACCG
0.3467807584901445 CGGCATAGGTCTATTTCCTGTGCACTCTTACTAAGGCAGA
1 TGCTAAATCCGTTGTTACGTTTTAGGCTATATTTCTTATT
1 CAGTCAACGACACCTGAACGGAGAGGGGTCGCTTGCAGAC
1 GTAATCGATAGAACCCTGGAAGCAGACCCGCGAAGTGTGT
1 GGATTTGAGCGATTTTTCTGCCTCAGTTTACCTTTACCGG
1 TACGGACCGCGACTCCGAAAAGTCTAACATCCGCCCACCA
1 AACCGGCATTAGCGAAATAAGACCGTAACCGTGCTTCCGG
1 TAGCGTGCTGGCCTCGATGTGAGTAGTTCCGNNAGCTGGG
1 GCGCACCGCCGGCTGAGTGACTTCGCTCAAAGAATCACAA
1 TTCATCCCCAATATTAATTCCGCGTGATCCTATGTGACTA
1 TAGAGGTCACATGTTCAGCCTCAGCTCTCTCCACCTCCCA
1 TCCGGCGTCCCAGCGTGCAGGCATAAAGCCCGGTTGTCCT
0.2395214102687946 ACTTCCTGTCGTTGCCTTTTTGAACTGCCGGTTTTAGGGC
1 CCGACCCGTCTCAACCTGCCTTCCGCCCACCGTGTCCGTA
1 TCCGGACCATATTCCGCTCTTCTAGTGCCGTGCATGCACG
1 AAAGTTTTGAATGGATCGCTGCAGGGGAGGGCGGGTCTCA
1 ACCTTTCACCGCAAATCGGAAGGAACAAAAATACCGGGCT
1 AATAGCCCCGGAAGGCATCTTGCATGTTCCACACCTGTTG
1 GGCATTTATTCCTACGCGGGTCCGCGGTTTAGGCGCAGTG
1 TTGGGCGATATGAGCTTCCNGTACAAGTGAATCTGTAGGC
1 GGTGTACATGTTTAGTTATAAGAGGCGGTCTTTTTTATAT
1 TGTTAGCTGCATTTCACCATGTGTGAATTGCGGTTGGTGG
1 AATCAGGCATCCTAGTATGCAGCATTGTACTTTCCCCGTG
1 TCCGCTTTACATCCCAATTGGGGGTCTTGTAACGAGCAGC
1 TCCGGATGGGCAGACCTCGTTCGCTCTAGATCCTGAATGT
1 CAGGCCACATGACCAACCATCAGCGAAACCAATCCCGATA
1 AGTAGCAATACTACCACTGCAATGGTTCTTCACTATCGTT
1 TCCGGTGCGTAGGCCAGTCGCAAGCTAGCTCTGCGCGGGC
1 CGCTATTGTATAAGCATTTGGGCGCCTCGATCGGCACACC
1 TCATAGGCCCCGCTCAGTTAACCTCTCCCTTGTTTGGATT
1 CAAAATAGATCTGGAATCCGTGAAGTGCCATCAATTAGCG
1 GTGCAGCACAGGGTTCACTCGATGGGGAAGATTTTGCCGA
1 CATTCTCTGAATTCTCTAGCCATGTTTTGTTTCTCACAAC
1 CACTAACTTTCGGCCTTACCGCGCCGACACGCACTGCCCA
1 CTGCGTTTCCTGAATCCTTCCTTTATAACACAAGTCTAAC
1 TTCACCCCTTTTACGCGAACCGGTGTCTGAACGAGACCGA
1 CGAGAGGCAAACTGTGGCGTGAACGAACCTGAGCTATTCC
1 AAAGAGAAACGGATTCCTATATCACTGAGCAACGACTCTG
0.4625759548361592 TCCGGTTGACCTACCGCGGCAAAGCTAAACTACTAACCGA
1 CAGAATCCTCTCCCATGCGAGGTCCTGACTTTTGCGCTGA
1 CAAAGGAACTAAACAGCTCTTAAGAGCGAGCAGCACGCAG
1 TTCGGGCATCCGACGCATAGCCCACAACAGACCAGGCCAA
1 CATTCCTCTTCCGCGTACGCTACTTCAAAGATCATCTAAC
1 TCACATCTCCCGCTTCCATAGTGGAGCAGCGATCCTACCT
1 ACCGGAAGGCGTACTCCCGTTATGGCTTTGCGTGATTAGC
1 CCCAAGTGAACTAGGACTCTAATGGCTCACCGCTCCGACC
1 TGAACCTGTCACCCTCCACAGAACATTCGCTCTACCAATC
1 TCCGTTACGAGAAGAACACGAAAGTATTCTTGTCATCCTG
0.5688609026608326 CTTCCGGCGGAGGGGGTCTCAGCGGCCATCGCTTTATCGA
1 CGTGTACTGCTCTATAGGCGGTTTTCCCTTCCCTCTGACC
1 GTCCGACATTTTACCCTTCCGCTGCACCTGCACCCCCCCA
1 ATGTCCGGCTTAAGTACTGTCGTGCGCGAGCGCGGTAGGT
1 ATTTCTCCACGCACTTTTGCTCCCTATTGATTCCGGTATA
1 TCCCTAGGCATGGTCTACTTTAAACTTGTGTCCTTAGCAC
0.08727823957963694 ATTGCGGAAACGGGCCCCGCTGTATGGTTACCCTTCCGTG
0.8292771274273474 GGCAGGAAGTGGCTACAGATCTCGCCAAGTGCGGGTAAAG
1 TAAGTGTGAGGTCTGTTAGCGGTAACTAAGCTGCTATGTA
1 CCAGCTTTGTATGCACCCTGTTGTACTACCAATGAAATAT
1 CAAGTTTTATTAAGTGAACACGGCGATCTGCTATAGGAAT
1 TCCGTTGTGAGTAAGTGACTTGATCCACATAGGTGATATT
1 TGTATATCCGCTTCGCTGCTTGCCGTACCAAGAACGTGAA
1 TTTCATATCCGACCTAGCACCTTTGTTGCTCCTTATTCCA
0.3631532968038651 AACCGGAAGCCAAAACTGTCCATGTCTTTGTTCTTGGTCA
1 GCTGCTACTTGGTTCATAGCAATTGGCGCAATTGGCATCT
1 GCAGTAGCAACAACCTCTCCTAACACGCAAGGTATGTTAT
1 GTAACTGCCAGTTCCTCGTGCCCCGCTGCCAAACCTCGCG
1 ATAGTCGCGAATGGGGGCACGAGATTTCAGGTAGACAGAC
1 ACGTGGTTGGCGGTGCAACGGACGTTGCTGGAGTTCCTCC
1 CCGGTGGAAGTGCGACGGTCACTTAACTGCACTCTCGTAG
1 CTCAACCCATGAATGTTGTATCGTTCGCCTTTGCAAATTT
1 TCCGGCGTAGGTTGTTGCTGGGGCTCGTTGTCCTGCTAGC
1 CAGTGAAACTTCCTGATTGCAGCACATTGGCGTATTTCGT
1 CATAAACCCCGTTGCTTATTAATCCGACTCACCGCTTCGA
1 ATAATCCCGACCACTGGGCGATGCATTCGGCCCTCCCACC
1 TCCGGTCCCTCATACAATTAGACATGAGCTAAACGATAGC
1 TGGACTGATCCGGCGAATGTGTATCGTGCGTCCCTAATCC
1 CCGACCGCGGAAGCTTTGCTCACGGCTCCCACCAGCTACA
1 CTTCCGCTGCAGCCTCACCCGTCGACTGCACCCCCAGCCC
1 ACGATAGCTTGTGTGAATGCACCGTTGTTCTCCAAGGCGC
0.6119178686708844 CGGGGCCGTTATCCGGTTATCTGTGGTGCAACCATCGCTG
1 GACCCCATCTGTGAAGGTGCGGGCCAACGCAGGTATGGAA
1 GTAGCCATTCTCCCCTAAGTCGTCAGATACACATCAATGT
1 GACGCTCCCTCCACAGGAACAAGCGATGAGAGACGCGGAA
1 TTTCCACAACCCACCTCAATCGGAAGAACCCCAACCCTCC
1 CAGGGTCCGACAACGCCGATTGCGGGTGTCGTATAAGTAC
1 ACCATTACGGCGGACCGTTTTCGTCCTTGGGAGTTTGTTC
1 CTGCGGGCAATAGCATTTCCCCCTGGTAATAGTATTACAA
1 CATCCCGCCACACGTCTCAAAACAGTGAACCGTTCCTACA
1 CCCATTAGCGATCGTGACCTATCTGTAGTTAGAAGCCCTC
1 CAACCCACCTCTCGCCCCGTCACAGCAATCACCCCAGAGC
1 TGTAAAAGTCCGCGCCTGCACCGAACAGGAAATTAACATT
1 AACGCTTCCCACACTCTGCAAGTATCTCCGCCGCCCACAT
0.2741072210722748 GCTATTCCGTAAGCCATCCGCTTCCCGCTTGCAGCCCACG
1 CTTTACATCTGTCGTCTTTAGGCCAGCGTTATCTGAACGT
0.6201908924243321 CGTTGCAGTTCCGGCCCGGCCTGTGGCTTGGCTCTGACTA
1 TGGCTGGCCGTATAGAAATTATACTAGGGTTTTTTGCTGG
0.9702358251180554 CCGACATTTCCGCAGTACAAACGCATACCCTCTCTCAGGA
1 CGACGTCTGTTTTTTTGATNCGGGAACAGATAACACTATG
1 CCATAGTACGTCGTCCTGATGTTTAGCGTTTAATCCCTCT
1 TTACATTTAGGGGTTCCCAAATCAATTGTATATTCCTGCG
1 GAGGTTTTGGGATCTACTGCCCGAATCTATGTGCACCACA
1 CCGGAAATCACCTACGCAGACGCAAAGGTTAGCCTCCCCG
1 AGAGCACCAAGTACCACGTGTAAAAAATACCCACGAACCT
0.3189851219477738 GACCGGAAATAACCTCACACTCTAGCTGTGCAATAGGCAT
1 TCTCTCATCTTGTTGCTTCTGTCGCGTGTATGTTACGGTT
1 TATGGTGCCGCGTCGTGAATGATGATTACGTAACCGCGCC
1 CATCCGGCCCTTGCGATTACCCCGTTGCTAGCGGCAAGTC
1 TAAAGGCTTACTATTGCTACCCAGGTGCTTCCATAACCTC
0.9184967987298259 TCCGGTTTGTTCTACCTTGTCGTTTAGCAAGCTGCTACTT
0.7673258199396489 ACTTCCGTTCAGCCTCGTAGGCGATGCGGAATAACCAGGA
1 CCCTCACAAACCACTGGCTGCGCGACACCTTTAATAACTC
1 GACGACATCCGCACAACCCAGTCACGATTCTGCCAACGTC
1 CCCACCTCCCGCCTTGAGGCCTACCATTAAACAATGATCG
1 ATTCCTGTGTCCTGTCGTCACTCTCCGATGGATATGGAAT
1 ACCGGAACTTGATGGACACGACGTAACACGTGATTCAGCC
1 ATTCCCAGTGGCACAATACTACGTAAGTTCGAGCTCCGAA
1 TCCGGCCACCCTTTCCATCCACCAGTTACCAGATTGAATT
0.7875173189139244 TCCTGTTCTCGTTCCGCTTTACGGCTAACCGTAAAGCAGC
1 GGTAAAAGCACCAGGTTGCGAGAAAGCACCTCGTTCATCC
1 CTGCGACATCCGTAAGCCGCTGGTTGCCCTGCGGACTTGC
1 TCCGGCTCCGGTCAGAACCACATCTTTCAGTGCCGTTTAA
1 TTACCGTTTCCTGATATCTTTTATGCAACGTCCCGTACTC
1 CATAGTCCTATCCACGGCCACCGTGATAGGCTCTATACAG
1 TTTGCTACGATCACACTGTCTTCTGCTGGCACCTCTCGCA
1 GTTGCAGCTCCCTACGAGACTGCACGTTCGTGTACCGGCC
1 AGATACGCTGTTATGTCTGCGTGGGTGCTCGCGTTCGCTT
1 CCTTGGAGGCAGTGCTCCTTGTGCCAACAAGGGGACTATG
1 CAAAAGAAACATTTTCCTCATCATTTCGCTTTTAGAGTGG
1 CAGCCTCTTGCGCCTCAAGGCACACACCTCTTTTGAATGG
1 CCCCAATGATGTATGAACAGTGACCGGACCTGTCGCATTA
0.9701282938231841 CTCAGTTCGTGCGCGCATCAAGTACATCCGGGAAAACACC
1 AGCTACCGGACACAGCACTCCTATCACACCTGCTCGGACG
1 CACCTGCAGAAGGCTCACTCATCGATGCCAAGTACACACG
1 CGTGTACCACCTTCTTATTAGCTCGGCTTACGCTTCTGCA
1 GAGACGCATCCGCAAGGCGCTCCAATCGATACGAGAGTGA
1 CGATAGTATATGCTAGTTCTTCAGTTGTACGACGAAGCTC
1 ACGCGCTACATCCACTACTATGCTACATGCATTGTGAGAG
1 GCTACCGTCGTATAAACGCAGCGGAGCCTAACGCCAGAAA
1 TCCGGTTCACTAGCGTGTAGACATCATCATAAGGTTGGGG
1 TTCTTATTAGCGTTCGAGCTGTTGTCTTGACGCCAGTATT
1 TGGCAATGTCTGTATAGTTGTAGCTTTTAACCTCCCTTCA
1 CATTCTTAAAGTTCAAACGGGTAGATTCTGTACTTTTTTA
1 TAACGTTGTTTATCATGCACCTAACACTTCTTAGATCCTG
1 CACACGCCCCTCGGCGGTTGTATGCTCTAGCACCTACCCC
1 ATGGTGATGACTGAATGCTATAGGTTAGATTGGTCATTAG
1 CTTAACAGCTCGCGCAGTACATTACTCTTTTCCGAGCAAG
1 TCCGGCCGCCTCATAGTCCCTGATTCACACTAAATAGTAT
1 CCACCAACGCACCAGACATGATGCCCCCGCGCTTAGACGA
1 CGTATTTCATCTCATCCGTTTGAGATCACCACTCCGGTGC
1 CTTCCTTGCCGGACTTACCCACCGTGTAATACACTTAATT
1 GATCGATGTGAGGGTTGTAACTGGGTAAGGCATATCATCC
0.09721805724977212 TCCTGAGCGGCCGATTAACATCCGGCGAACCTGCTGCAAG
1 CCTGGGGGGGCCAGGACTATGAGACCACGTGCTTTCGCAC
1 TCCGGTATCTTAAGGGCGACACGGACAAGAATGTTGGGCA
1 CTGTGGATTTCATTACGGCAAACCTCTTCCTGTCCTAAGT
0.01800810275907248 CCATGCTTCCGTAATAGCGTTCGCTCCATTGTATATACTT
1 CGGCTAACCTCCGCATTTCAGGATTCCAACGTGCACACAC
0.4793101957411522 TAAGTGCATGCCCACTTTGACCACGCTTGCTGCCGGATGC
1 TCCGGAGCACCGGCACCTAGAGTCAGCAAAGCCCCCAGGC
1 ATCCGGGAGTGGCAACAAAACGAGAGGTAATCATATCTAT
1 GACCGGAAAGGATGGCCGCCCATCGCTACCACGATATGTC
1 TCCGCCCTTGTATCAACTTCCTCAAACAGCCACCACGCAA
1 GCGCCCTAGGGCCTCACCCCCCCCACCGCCTACTGAGCCC
1 TACAGCGTACGAACCCAATACGTAGAAAAGCGTATAGTTG
1 TACGCAATGCCCTCCTCTCTCCAGTAAACGAGGCCATGCG
1 TGGTCAAGGACACCATTGACTGCTATCCTTCAGTCGATCT
1 TCCGGATCATGGCTCAAGCCGCTAGTCGAGTTCACCATAA
1 AATAATATTCTTCCTGTGGCGTAATAACGCCCGACCAACC
1 CATCCAATGTCCCCTACCTTGATAGGACCAACCTCATCTC
1 TGTTGCGCTCCACGAGCCGGGAGTCAACGCTTGCTTATAG
1 TCCAAATGCTCGCGGTCCAAAATAGCTCTCCGACCCACTG
1 ATCAGCGGTAGCAACCCATCGACCTGGAAGTATGACACCT
1 TGTGTTCTGAAGCGGACTTCCCATTCCTTCGTCCATCCTG
1 TCCGCCCTGACGTAGCAGCCCCCACCCGCCTTGCCTAACG
1 TGTGCCGACCCCCGGTTACCATCTCCGGCTCTTCCTCGGA
1 CCCCTCGTATGCCCTTAACTGGTGTTTACCACGCCCAAGC
1 AAGATAGGACGTTCTGCAAAGGCCAAACAAAAAGGCAGTG
1 AAAGACCTATACCACCTGGCCGCATCCGACTGAACTGTCG
1 CTGTCCATGCCCCGCTATCCACCCCACGACCTTGCTGATC
1 TGCGCCCTGGCTCAAACGAAAAAGGGTATAAACTGCGGCG
1 TTTCCGCTGTCTGCCGCGTATTGCGTACTTCTTGAGCCCC
0.4456778695621026 TACAGGAAGTGCTTGCTGCTGAAATCTTATCAATACGGGT
0.817156069705909 GATCATACTGTGCTCGCGTCCGGTTTTGGCACAAAGTGGT
1 CCAGTTCGTCCGGTGGCCAACGCCGTGATGGATCGCGACG
1 AAAGCCGGACTGCAGGTACGGTGAAAACGCGTATGACTAC
1 TCCTGTCCTATTTCTACCTTCTTATATTGCAAAATCTTAA
1 ACGGAAATAGATGCATACGCTGGTGGCGGCCTATACGCTG
1 CCCGTACCGGTAATTCCTGCTCGTTCAACGTTGAGCCCGA
1 TCCGCCGGGACCTTCCAGCCTTCGTCCGCTATGCGGCCTT
1 ACGTGTGCGGACCCGGATAGCCAAAATCCGATAGAGTAGA
1 GGCTGGCATAGATATGACGAAGTACCCAGCCTCATCGCTC
1 TCCGGTATTCCCTCAGATCTACTGCACCGAACCAGAAGAT
1 TGGCGGAAATTAGCTTTACTAGTGCGTAAAGGCTGAACCC
1 TCCCGATCCTGCCGCTTCGCTAGTTCAGACAGCCACCCAT
1 CAAGCCTGTTTACGCGTCAACAGCATCACCACTGGACCCG
1 TTTCCGTTGATAATTCACGTTTGAAACTATGAATCGCCCT
1 CCAGTATGGCAGTACCGACCAGGTCGGCCTTCGGCACGGA
1 ACTTTTACTCCACTACATACCGCGGAATGTTGCATAAAGG
1 GAACCCGCGTTGTCCTAGAAAAGCAACGCTCATTCAAATG
0.7676499900615826 CTTCCGTTCCCAACTCACTCGGATATATCGAGGTCTATGA
1 TGGTAACTGTTTTTATTCTGACGTCTGTTGTATTGCATAG
1 CTCTTGGGGTATGATTAGGTTAAATTTTAACCACCACATG
1 TAGTATATGGTGTCACTTTGGCCAACCGCTGACCGGACGG
1 TTGTCCTGAATAGTCTTTTTGCTCCTTTTTAATTCGTCTA
1 CTAATCAAAGGAAATATGCGGATTTTCCGTTGACTCTGAA
0.9253129144111907 TTTCCGCCCGTACCTTACCCATATCCTCTACACTCATGTA
1 CGCAGCCGGATCCCTACTGAACCACCACCCGCCCGCGCAG
0.3501547869608867 CGCTGTTCCGGTTGCGAAAACGTCCAGTTAGGCTTTGTTT
1 ATTCCACCGCGACAACTGCACTATGCTGGGTTCTGCCCCT
1 TTAGGTCGGCGTACCAATTTCCGCCGCTCTACTTTTAACG
1 CCGCAGTTCCCCAGTTTTTTCGAAGCGTCCACCCCCCTAC
0.947080597759592 TATACGCTAAATCCGGTGACCACGACCACGGATTCCCTAG
0.4199575931627338 TCCGGTCACCTGCAACTGAAATCGACCTCCCTCGCCCAAC
1 CTTACTGCCTGAGTCGTAAATGCACAAAGACATCGCTACG
1 AAGGCTTCCATGCTACAGTCAACGGATACCAGCCCGAAGT
0.2241439105819455 TCCGCTAACCCGCGTACCACAATTGCGCCTAGCTTCCGTA
1 CTTCCGCTTTAACCATACTCCTAGTCTTCCTCGAGCCTGC
1 GAACATCCGTGTATGCTAAGAAGTCCCTTCCGTGCCATAG
1 ATGACCGGTGAACTCGGAAGTTAGCACACGCTAATATGCA
1 GCGTATGCCTTTGCTGACCTGAAACGTTGAGTGCCCTTAG
1 TCCGGCGTTGAAGATATAATGAAGCCCCTCCCGATAACCA
1 CCGGAACTATAGTGGTTCTTGCCAACGATCGACCTGAGCG
1 CCGTACCCAATGGTCTCCAGCCACTTCCTACCGACAGCAC
0.4142032572880627 TCCGGTCTACGTTAAATACCGTTGATTCCTCTCGCCTCCC
1 ACCCCTCCGTAAACTTTATNGCCGGACTGGGCCTACGAGC
0.2774012697705616 CCGAGCCAGGACATCTTCCGGCGTACCTTGCCTAAGATGA
1 TTATCGCCCCTCGGACACGATAGACATATATCGCTGGACG
1 TAATCTCCCCCATTCGTAAGTGCGGTCACAAATGGTGATC
1 TCCTACCTCTCCGCACCATGCACACCGTTTGCCGTGGTTA
1 ACGTAGCCTACGCCCCGCGGGGATGTATATGTCGTGCGCG
1 TCCGGCCCTTTTCGTGAGGCGACGCAGCTGCTGTCTCACA
1 CCATCATGCGCTGATTCATACCACAGTCCCGCTACTTCTA
1 CCTCCCGCGGCGACAAGTTAGAAGAAAAGACGAAAGGCAC
1 TACTGCTGTATCGCTCCCATACGCAACGCTTGCCAGCTTA
1 TCCGATCGCTACCATTAGGATCGTAATCCCCTGGTAGTTT
1 ACATCCCCGGCCGGAACCCCCGCCTCGCCGCCCCCGCCAT
1 GATGCCTGCACTTTGGGGAACTTTGGCAGGACATAAATGG
1 TCCGCTACGGCGCGCCGGCGAATTTAGGTGCCCTGTCCGC
1 CCCGTGCGTACGTAAGCTGGGGCTGCCGCCGGCTGGTGCT
1 TTGCTTATTGATGTATTACTTTTTCATATGCTCCCTTATG
1 TGCAAGATTATAAGTATGGGCCAGGTTGACCCAGAACCTG
1 GCCCTTAACGACTATAATGCTGGTGGTCTAGCATGGACTG
1 CCGCATAGAAATACAGTACTATCTGTGTCGGTGTCAGGGG
1 CTGCCCTCTATTTATAGTACTGCAAGTACCAGCTACCAGG
1 AAGCATCGGCATCCGTTAAGCCATAATGTAATCCCTGAGC
1 CACCTCTATGGCGAACGCATTAAGCGTCATCCGCAGCATA
1 TCCGGTTGACTCAAAGCTATCCGATACGAGATACAATTCC
1 CACGAATGCTTACATCGTCTCACTGACCGTACGTGAGGGT
0.4096434739759061 CTTCCGGCAAGATATAGTCCCCCTACCCCTACGTGCGCCT
1 CCCTCAGACGCTCATCTCTGGGATCTGATTAGGATTGACA
1 TGGTTCGTTTGCCTTGCCGGGTGCATTCCAAGAGGGATTA
0.8274531516122041 TCCACCGGAAAGCGAGCAACCCCCGCAGGGCTATTGTCAG
1 TCAGCCGTGTGTGCCCTTCAGCAATCGTAAATCACCGACG
1 TCCGCCTACGGCGGTTGTATATATACCACAACCTTCTCCA
1 CTTTTGGTGCTGATTGTGAGTGGGCTTGTCGTAACACGCG
1 TCCGAAGCCGATAAACAGATGTTGAGCTACCCCTAGTATT
0.8908035598748583 CGCTCGGCATCCGCTCCACAAGTGGGGTACAACTGATGAT
1 AACGATATATCCTAAGCAATGTCTACTACGTGCGTATACG
0.5486853471345263 GGGCCCGTCCCCCCCACACACTTCCTGTAAGGGACGGGCA
1 CGTTCGTTGTTTAGACAAGGGTAAACCTTATAACTAAAAC
1 TCAAGTGATGTCCACCTCTGATTAGTCTCACCACGTACGG
1 TGTGTGTGAACGCAGCACAGGCACTTGGCCTATAGAATGA
1 GCGTCACTTATCGCACAGGCTACGCATCCGTATGCCGTGG
1 CCAACGTAGTCGCGTACAACCTTGCCAGGCTGCGCGTGTG
1 TGTAGGATATGACTGTCGTATACGGTACAAGGGACCATGT
1 CTCCGCCACACACTTGCGGCGCGTGGACACGCCGCAGTCT
1 TCCGGTTCGTATCAAGAACTGCTGCCTCTCACACCTAAAT
1 CTCCTTATCATTTTACGTAGCTCGACGTCCGAGATGCTTT
1 ACCGAAGTTCCGCTACCATAGGCAGAGGCCTGGATTCTAT
1 AGCAACGATTGAAGAGGGCAGCCGCCAGCATGTAGGACAG
1 GGAGGGCAATCTGGTCATAGGTATAATAGATGACAAGTTG
1 TACGGGAAATATATTGCGGATGTATCCAAGTGCTGAAGCT
1 GCCGAGTTCCTAACTTTCACATGGCTAACCGTTTTATGTC
1 TTCTGATTATTTACGAATCCGAAGCTTGTTATACCTAGTG
0.04817713776054688 CTTCCGGCAACATGTCTTTCCTCTTCCCGCTTACTCTTCC
0.02668811843429988 TCCGGTTTTTCCAAGGGATGTTCAACAATCACACGCCATC
1 TCTTGATCTACGCTTTCAGACGCCTTAACTCTACCGTCCC
1 CAACCTTGTAGTAATTAAATGTCTGGGTCCGAGCATGTGC
1 AACCTTAAGTTGAGCGTTTGAGGAACTAACGCGTGCGTCC
1 CCCGCCCGACAGTGAATACATTGTCCATCGAATATCCGGC
1 TGACTACTTTTCGAGCAGTGCCTCTGTAGTTCGTGCCTAA
1 CATCCGGCGATTCCCCGCACGCCTAGCGATGAGATCGCCG
0.1142508704403265 TTAGTCCTCGTAGTTAACCGAGTGATATCCGTTTCGCGCG
1 TGACTTATTCCCTTGGTCTTTAGCTAAGTCGCCGAAACGC
1 GCCCCCGAGCGTGCCCAGGGGATGATGGCACGTGAATCCG
1 CCCGCAGCGTCCCCATTGACAGCAATGACTGATACATGTA
1 CCGATACAACTTCTGTTTGGATTGTTGATTGCACTTGCCT
1 GCTGTGTACATGATGATCTCTGATCACAACGACATGATTG
1 CCTAGCTGACCGATAGCCATAGTATGTGGTACATCCGAGG
1 TCCGGCCTTTACCTGCCGGCAGTACCTCAAATGAACCGTC
1 ACTTTTTTCTTAGTATTTGATGTCCCGGTTTGGTCTAGTA
0.1463688639110148 AGTGACGCATCCGCTGATACAAACGCAAAGTAGTGACGCA
1 TGGCCCGAGTGTGTGGCGAACGATATAGCTGCAACCAGGC
1 CTTCCGGCATGACCCGCGCTGTCTAGAGAAAGTATTTATC
1 GTCAGGGATTACCTAAGCGAGAAGGTGCCGTCAACAGTGT
0.9019745403663553 GCTCAGGAGGTAATACTTCCTTTCAACCCCATACGGAGGA
1 TGTCTCAACTTACGGGGTGCGTGGGGGACAAATAGAATGG
1 CAGACACAACGCCTACCTGCACTCCCCGAGCAGACTTTGA
1 ACAAGTATGCTATACAGCTCGTGACCGCTAGTAACTAGTT
1 AAGCTCAGTGGAGTGGTGGGCGGCAGGCGCGTTCCGCTTA
1 GTAGCAAGGGTCTAAGCTGACCGTCACGAGGAGCCATGTG
1 CTGTTATAATCCTCCAGCAATGCAGTGCCTGCGCCCAACT
1 TCCTTCCTGCCCATCCACTAGTCCTGTGGACGGTCACACC
1 TACGTATGCGGATAGTGTCGCGTGGATCGTTCTTTAGAAC
1 ATTCCTAACCCTCAGACCCAGCATCTAATGCCCTCTATGC
1 CACTTCGTATTGTAACTATCGGGTGACGACTCGCCGCTAG
1 ACAAAGCCCATGGCCTAGCAGCCCTAGTGTACATCCGTAG
0.4672654839597488 AGCTGTTGCGGAAGTACCTTTCAGTTTGCGCGATTGACGC
1 TACTCTCTGATGTACCTTCCATTCCACGGTACGCGAGCCC
1 TCCGGTGCCCTGTCCGTGCCCACCTTCCCCCTACGCCCTG
1 GACCTTTGCACGAGAACGTCNTCTAACTCATCNTTTAGCT
1 TCCTGTTCTGCCTTATATACCATACCTGTTTCTCCATATA
1 GTTTCCATGGCTGGGCAATTCTTAGAAGACTTTTTTGGAA
1 CCGCTACACAAACTTACCCTACCTGACTAGTCCCCTATGT
1 ACGCGAGTGCGCGCAGAATTCGATAGTATGATGACCACGT
1 CCCAATCACTTGTAACCAACTACGAATTATCGGCCTCGGA
1 CCACATACGCAACCCCAGGGCATGAAAAACACCCCACGGT
1 GCTACGGTACCCACTGATGGTTCGGAACGCGTGATCCCGC
1 GACCGGATGTCCCCATTAGCACCGAATGCGTTATGCGTTA
1 CTGCCTATATCTCTACATAACCTAGCCTTTTCACCTGGTC
1 AACAACATATGCGTTGGTCCAAGTCATCACCTCTTCTTTT
1 TTAAACTCACCGGCCCAGACTTAGTACAGCCCACATGCCC
1 CGTCAGTCCCGTCAGTGTAACTCCACCGCTCTGTATGTGT
1 TCCGGCACCAGCCACATGCCTGAACTCCCGCCCACTTAGG
1 CGGGTTGTACTTCCTTCCTTTCCCTTTCGATGTCCTACGT
1 GGGACAACGTGCGACCTTGGGATGTACCCTAGCTCCCGAA
0.3570213914993646 TCCGGTGCATCACCGAATACGTGGGTCCAGGGCAAGGCCG
1 TTTTCGCCGCGAAACAGTTTCCTTTCATCCCCCTAGCTCA
0.9050805369599193 ACCTGCATTCCCCGGCCCTCACCTCTTAGCCCTTCCGGAA
1 ATAAAGTAATGATGCCACTGCCAGTCAGCGAGCTACAACT
1 TGATGCAAGTTGTTTACTGATATGGCGCGTTGGTATTGAT
1 AGCCGGAAACGTCACTATCCCCTTATAGTCAAATCTACCT
1 ACCGTTCGCTTGTGCCACGCTACTCGAGACACCTACCGCT
1 TGAACGTACACATCCTCTATTTGCTACCTTTTTTACGACA
1 TCCGGGACAGCAGAATACGGACCTCCGATTCGAGCTAGGC
1 GACTTTTCCCGGCCGCGCACCGCCAGCAGGGGTTAAATTT
1 TTGGACTTCTAACAAACATGCTAATAAGGGATTAGATGGG
1 CCGGAAACCATGTCCGACGCTATATGTACGCTAGTACACG
1 CCTTCTGCTTCCGCGCCTAACTCACCACCTTTGCCCCGAC
1 TCATGGCTCGATTTGGAGCGTAGCTCAGTAAGACTGGGTA
1 TCCGGAGTAAAGGCAGAACGTGCGATGCAAGTGGGACGGG
1 ATATCAGGAAGGATACGCTTATTACAATCCTCCGCCAGAA
1 CCGGAACTTGACCCCATCCTGATTGTCTCCTGCGCCGATG
1 CGCTACATCAGTAACTAACAGTGTGCGAACGCGGTTAAGG
1 GGAAGTACATGAGATCCGTGAGGTATAAACAAAAGGGTTG
1 TACATCATGATATTGTGCATCGCGGCTGGGCACTAATCCA
1 CCTTCGATTTCCTTTCAATAATAGCCGTGTTCACTTATGG
1 CTGACCTACTTCGACTTCATTTCGACTTCCTGCAACATAC
1 ACTTTGAAACTACACTAACTTCCGTAATTCTCCGAGAGGC
1 ACTCCCCCCCTCCGCTTAACGGTTGCATTACATGCAGCAT
1 TCCGGTTCACCTCTAGCACCGTTGCATCTAATTGCGGCGT
1 AAGGAGGGGGAGTTAAGAATTACGACGAATAAGATTGGAG
1 CCGGGAGCACTAACCATCTAGACCATCACAGTTCCCTCGC
0.3099715245611028 GGATAAGCGCGCGGATTTCCGTCGCTCAATTAAGATCCGA
1 ACGTTGCCGTGACTTCCGCACCCAGCGCAGTCTAGAAAGC
1 ATAGCGTATCTGACGCAATACACTGTCGGTGTACACAAGC
1 TCCGATCGTATGTCCTTTTCGTACTACCTTCGCCCACCTT
1 CAACTTCCGACCCCATGCTACCTGGCATCGATCTTCTCCC
1 AACCGATGCAAACGTGCCCGTACAGGTGCGAGCCCCCAAA
1 AGGTCTGCCAATCATCCCTTCCGCCACCGAACAATGAACA
1 ACAACCGGATAAGTACGACCTTTCCTAGTGTGTCCAGCCC
1 CATATACGCTCACTCCTTTCTGCACTGTTTTCACTGCTGT
0.1968376719203158 TTCTCTTTTGGATGCCGATAAGCAGGGGGCTTGCTTCCGG
1 TGTAATGTGTAATTACGCCTTTCTTATGATCTATTCGATG
0.001041577623074828 TCCGGTAATATTGCTGATTTTTTTGCCTGTCCCATACGGA
1 CTGCGGATGCGTTCCCGCTTACGCACGCGCCTCCATATCT
1 TGCCGGTTCTATGGTAGTAAAAGAGCAGCTAACCGTAAAT
0.6491436081324112 TCCGGTGACAACGCCCGCACTCACTGTTGACTGACGCACT
1 CGTAGCCGCGTGGTCGGGGGGTAGAAGCTTACGGCCTTTA
0.05793214368429978 CACCGATACTTCCGCTCGCTAGCGAGCTAGGCAGAACTCC
0.7425153110846222 TCCGGTACGCGAACAAAAACCCCGCATTTACGATCCGACC
1 ACCCTATTTCGGTTCTATGCATAGCTGTTATTTCATATAT
1 CTTTCCGTCGCTCCGTACCCACACGTCAAACTGCGCCAGA
1 CCCCATCCGCCCTGTGCATNAAACCGCTATGTACTGTGAC
1 TAATCAAGTAGCACTCAATAGGAACTGGAACCAGTGTAAG
0.2575009335788028 TCCGGTTATCTTATCTTGTACACCACCGAACGCAATTGTT
1 GCATGTCCCGCATCTCAGTGTAGTGACTACTATGCAAATA
1 ATACGGCATGACGTGAGCGCGCCTACGATATCCGGACCAT
1 CTTCCGGCGCCCCACCGGGAAAACGTATTCACGTCTACAG
1 TGAACTGGCGTTAACTCCCATAACGTAACATGGCTGGGAT
1 TCCACGCGCGACACAGAACTCACCCACCAAATCGATCTAT
1 GGTGACCGCGCCTAATGCGGTAGCGGCTTCCTTCAAGCAT
1 AGAACAACCCATCCATATCGTAAACCCGAAGCGAAGACAC
1 CCGGCTTGCTGGAATTACTTGCTGACTTTTGGTTTCTCAA
1 TAGTGACACTGGGGTCCCGACAACCATGGACATGCATGAG
1 TCCGGTGAGCTTGACACTGCGCAAATAACTGCCGACACGG
1 CACAGTTTCCTCACGATGCAGTACTTCCTCTCTCTCGTGC
1 TTGATGCGAGACTTACCACATACACCTGCTGTTGACCACG
1 GGAAGTGATTTTGCTATTCAGCTTCGAACCCGATAGATGT
1 CTCTGACCGAGCATATCATTTTGTCTAGCCACACCTCAGT
1 GGTGTTCGACGGCCAGACCCACCCGTCCCCGCCCCCTAAC
1 CCGTAGATTAACCATCCCGCTGCGCCATACCGCGACCGCA
0.3447616766726762 GTACGCCGTTCCGGTGCTCTGGAGGTGGATCCCGTTGCAA
0.8688523693626745 GGCTCCCTCGCGGTCCGCCCCTTACGCTCGCATCCGCCCT
1 CACATGAGCACTACACGTGCGACGCAAATTGACACGTGCT
1 CGCCCGCGGGAGATGGAGGATAGGTACCTAAGCGATATGA
1 GTACCTGTTGGAGGATTTTCCGAGTCCTTGCGTCATGCCC
1 CATTCACGGATTCTCTGACTACCAGCCTCTTTAACTACGA
1 GTGAACGTATTCGGGGGAATGAAGGTCGGGAAAAGACCTC
1 CGGCCGGCCGTGAAATGCAACCCTCAGTGCATTTCCGTTC
1 CAGGTATGCGGTCTTTCTGATTCAACGTGATCAGCCAGCT
1 TGCGTGTGGTGGTTGCACGCAAAGCGAACTAGGTATAGCC
0.0266228536844412 CCGGAAGCAGTCCCCCACCGCATAGAGCCACTCGTGCCGT
0.7735343198740081 TCCGGCTCGCACATAACGTAATATCAAATTAACCGAGGGT
1 CACACCCCGACTGTGCTCTCTTCCGCACTTCTCCTTTGAA
1 ACTAGAAGTTACGCCCGGGGACGCTGGTGATGTTTCCGTT
1 GAGATCTGCCCCAGGGTTGTCAGGACTGCCTGAGCCGGGG
1 ACATTATTAAATTTATATGGCCGGCATATTTCCTGTGGCC
1 GCCACACATCCTGTAGTTACATTCCAGTATGCTAAATGAT
1 CGGTCAGCTCTCCCTTGGGATGGAACTGATGCAGACGCCA
1 TCCGGCACTGCGCCCTGGCCCAACACCCAGACCGGGACAA
1 CTTCTCTCCCGACCCGCCACCTACTCCTCCCTCCCAAAAC
1 CACGTTGTAAGTGGATCAACTCAACCACCAGCGTCCTCTG
1 TGTAGTTGAGTTATTCGTCCTGATGAAGCGCACTGGCCTT
1 ATCTCTAGCTGTGTCGCGTAGGACGCGTAAATGCTCCTAC
1 AGCCACGTTTCCTGCCGCATTCCCCTTGTGTTACCGTTTC
1 ATTTCCGTCTTGAAAACTTGGCATCAATGCGATACTATCA
1 AGTTGCGCATTTGATTCGGCAGCTTTGTTTTTCCGGCGGC
1 TGCGAAGAAGGACCCAGTGCAGCCGACGATATACCTACAA
1 TTAATTCGGCCTCGACTATCCGTAAGTTTCAAACTGCCGG
1 TTCGATAAGTTGCCCTTCCGAATGTACTATATTTCTGATG
0.416571549062172 TCCGGTAATCCTATTCTGTATCTACATTTTTCTTGTCGGT
1 ACCCCACATAGTGCCTCCCTTCACCCCTCCTGTTGACAGA
1 TTGGGGGTATCCGTTGTTTGTGCATTAAGTATCCAGTAAA
1 TTCTGCACCAGTAAATGGGTCATGTCCGGGTCAAGTTATG
1 ACAGGCCACACAAACTAAACCACATCCCCATAGCGGCCGC
1 TCCGGTCCCAGCCCGCTCGCCTTGCCCCCAAAACTGCAAA
0.3408997404426939 GCACGTACTTCCGCGCCTAGGGAAACGCGCATCGGTAGGT
1 CGCATTACCCGACCAAACCGCTGCAATCACCGATGTACTT
1 GCTACACGCCTCTTGCCACAAACGGAATTCCGACCGTCTC
1 ATCTGCGGTGTGTCGTAAGGGTTTGGTAGTCAATACGGTC
1 TCCGCCCTGCTTGCGGCGCAGCGCGGCCTCTTACCCGCTC
1 TTATATTCGCCCTTCCTTGGCGGCGGCCTCAAACTTAGCG
1 CCGACTCAACAATAGAACCCCGGGTCCTAGAGATCAAGAA
1 TCCGTTCAAGTGTTTACCCGCTCCGTCTCGCAATATCCTA
0.9680304817886327 TCCGGTACGTAAAGATGCATAGCGAGGCCCATTGTGTCGC
1 CATCCGGACGTGCCCACAACTCCTGACTCCCGCACAAAAC
1 TCCTGTTTTCTCGCGCAACCCGTTCAGAAGCCAAACAATT
1 TCCGGTGCTGGGATGCAGGGTGTGAGCGTGGTCCCAGATG
1 AAAGTGACACCGCATGTCACAGGGCCAAGGAAGATTGTAC
1 TCATGAGTACCGCCGTGAGATGAGAGGTGGAACGTGTAGG
0.4488891748222116 GACCCACCCCGGGTTACGATTAGAGGAACGGATGTTGCAC
1 TCCGTTTGCGGATAGGTCAGCGTTTGCGTTTGCCGTCAAT
1 GCAATGGCGTGAAGTTTGACCGAGCTTGTCAACTGTCCGC
0.8455136669963229 TCGCTGCACCGAGAAAAAACGTCTTGACAGGAAGCTGACA
1 TCATCAATCATCACGGCGGATGGCTTGCCGACACAAGTAC
1 CGTTGATCACGGAGTGGGGAGTTACGAAAATACAGCTGGA
1 CTGAAAAACGCGCAAGGACCGTAAGTTTTTACTATCCGGC
1 TACGCATTTTAGTTTCTTGAGTGCGCATCCCCATAACCCT
1 CAATCAATGCTGGAAGGGCATCGATAGACTTTATGATATG
0.02894554679285335 ACACCCGTAGGTCCATTAGTATACATCATATCCGTTCAAC
1 CGCAATGCTCTTGTTAAGCCCTATCTTATTTGCCATGCTT
1 CCCCGTAACAACCATAAACCTCCGAACTACGCCGTGCTCC
1 AACCCGCCCGCGAGCATCCCTTAGCAAGACTCAACTCGCC
1 TAACATATGGAAAAGCAGGGTTGTCGGAAGTAGAGGGGGC
1 AGACCTATTGTCAATGCCACTGCATGTATTTAAGCGTACC
1 GGCGTCCCTAGCAACTTGTGCGCCCCAAATACACTGTAGA
1 ACTGTTCCCGGTTGTGTATGCAGCTTTCAGCTAGTCCGCT
1 TCCGGACCGCCCCAACCTAGCCTCCGACGCGCTACCCCGA
1 TCAAAATCTCTACGAATTACGCGTATGGTCTGGGTAGTGA
1 CAGGGTGACTCTCAAACCGCCATCCGCCGTCATGAGTACG
1 TCAATTTATGCGACAGAACNATCTGTTGCGTGGTCCCACG
1 CACCTCCACGCCCAAGGCTGGAAACACGCGTTATGACCGA
1 TGTTTCGAGTCGCCGGGAACTTGTTAAGTAGCTCTCCTTC
1 ATGGCATACTGCCTCAATATCGGTTTCCGCACCTGCCACG
1 CCTCTTATTGCCTCTTTTTATGGTATTTTTATATCTGAGC
1 TCCGGAGTCGATAGAAGTGTGTCGTTCCGTGCCCCTGCGG
1 GACAGCGATACTGACCATCCTGCGTCTCAGTATCGCCACT
1 TCACTGCTTGGCACCATTTACTTACGTGCCCCTGTTCGCA
1 AAGTGGCATTCCGGTCCCCCCACGACAACACTCTCCCACC
1 TCCGGTCGGACGACCCCAACGACAGCTTGGCAAGCTCAGC
0.2595794799465697 TGGATTGGTGCCTCACGGGAAAGTTCTGCATCCGTTGTGA
1 CCTTAACACGTATCGCCCAACCGCCCTCAACTCGCGTGAC
1 AAACCGATCTTATTAGACTTCTACCTACTCGAGGAAACTG
1 AAGTCCGGAAAGCTGGACCTGTGTGCTCAAACTTTGTTTG
1 TCCGGTTCGACTTTTTTCAAACCACGCCACACCACTTCAA
1 TATATATTCTGTTGGTTGGACCTTGACAACATCCCAGTTT
1 ATCATCGCTGTGCTACACGATAGGCATAGAGCGCTCACAT
1 CACGTCGGAAAATCCCGTTTAGACATAGCACCCTCCCTGC
1 ATTTCCTGCGTTACTGGGTCGCTATGTTTCCTAATTTATT
1 GTGCGGTTTCCTGTCCATTCTTCTGAAGCGTTATGTTCTA
1 CTATAAGCTTACGATACTTCNGGAAACGATGACTCGTCAT
1 AGCTCGCGCTCTGCACAGCCCGCGAAACGGCCTATCCGAG
0.9642714318249469 AGTGCAACCCTGATCCTAGAGACGCATCCGCATGCCTGTG
1 AATGCTTACCCCGCACCCACCCCGAATGCACACAGCGACG
1 TCCCAATCTACTAATACTGCCACTACGTTACCTCTGCTGA
1 TACGGTCGGTGGAACCAAACCGAATAGTACGTAGAGAACG
1 GCTAAGCGTAATGCCCCAACACTAGCCATTTCCTGGCCAA
1 TTTCGGTAACGTGTGCCATCGTGAGACTCGTGCGATGTAC
1 GTAAACAGTAACGACTCTTCCTGTTTCTGGCTTAGCTGAG
0.3430857680019964 ACGCTGGCCGTAAGTAAACGCTGTCCGGCCATCCCTCTCC
1 CCCACTAATTCATTATGAGCCCTCGCTCTTAGGTGTTCCT
1 GCGCTTGCGAGGCTTTGATTTGCCGTACTATCCTCTGAAC
1 CCAAGCCGGAACAACCGCCTAGCGTCGCGTTATCGCACCT
1 GCGCCAGAGGGCGTTATGCCTTAGGGTGTGGAGCTGACGA
1 CTAAGGGATTCGCGTCGTCCGGATCTGGTCGCGTGAGCGT
1 ATCGGAACTGCCGGTTGTAACGGAGACAGGTCTCGCCAGC
0.734552750688393 CACAAATCCGGTAGTAGAGCAGCCGACAAATACGGATCTA
1 ACACCGGTGTTATCCAGCCGTAACAACTTCCGCACATCGA
1 CACCGGATATAGGATAACAGCCTACCAGACGTGTCATGCA
1 AAAGCTCTTCCCCAACAGGNCAATTCACGTCTAGGACTTG
1 CCGGATACGGGTGCACTCCTAACAAGGACGCTACACTTTT
1 GGACATGACATCCTAATAGAGCGCGTTTTGTGGTTACCCC
1 CCTTTCTCAGCCACGGTATAAGCAATATCCATGGTTTGGG
1 CGATACAGTTTTTTGATCCAAAGAAACTTGAACAAAACCG
0.1441153240693263 AGTCATTTCCTGATTGCTTACGCAATCGACATCGCTCTGA
1 GATATTGCGTACTTACTACTACAGTGTGTGATGGCCATCG
1 CCCGGTGTGGCTTTCCGTTAGCCCCACTAACGTACCAGTT
0.5835127655517222 TCCTGTCGATACGGTTGACCATAGGCCGGATTGTAGTCGC
1 CCTCCGGATTTCCCTTCATATAATCTTTGCTAACATCTTC
1 TCCGGTCTGACAAATCAATTGCCTATGCTTAGGCGCGAAC
1 AGGAAGCTCCTATGCGCTTCCGAATTGGCGCTGTAACATC
1 ATTCGTTTCCGTGTTGCTGCGGCTACAGGGCCGTACAACC
1 CAGAAAGTGCTCTCCATTCCGGATCCTTCTAGTACCCTCG
0.8774338270551238 AACACACGGCGTTTCCGACCGCACGCATGTCGTACTCAGC
1 CAACGTTAGCTCCCGTCTGCCATGGGTGCCACGGTCTGGT
1 CATTGGAAACATGTAAATGATCACAGTGCGAACCATACAG
1 TGAACGGATGCGACAACTAAGTATGATACCTTTGTGTAGT
1 TCCGGTCTCCCGTGGGGTACATTTATTCCCCTTGAAAGGC
0.1294879480102036 TATGCTTCCGTCGATGAGTGCTCTCGCTTCGTTCATAGCG
1 CTGGGCCACCTCAGCGCAGCACCACAGCACTCGCAACACC
0.06052358482805619 TGTGTGCCGACGCATCCGATTGGTCGCGGGCCAGACGGAC
1 ACGTTCTTAGGATTTGATTGCTACATGTGCCACTCGGACA
0.4585743747122632 TTCTGACGCCCGCCCGGAAGCTAGCTTCCCTGATTCCTCT
1 TCCGTTGGCTGGAAGACCGCGGTGTGGACCGATGCATAGA
1 CAAGACCTGACGTTATCTGATAAGTTTTCACAGGCCTGTG
0.9144498095878814 TCCGTTGTGCGTGTCACGGCTACTCCCCGGCTCGCCGGAA
1 CTGAAGTGGCTACTAGTGCGTGTCTGTGAATTTAGGTTGA
1 AACGAAGACAGTACTGGACCCTCGTACCTCATCGACAATG
1 GCCAGGCGCTAACTCTAAACAGGATATGACAAATCAGATA
1 TCCGATGGCCGAACTGACTGACCTTGCAGTACGGTGGCAA
1 TAAACCCTTGCGCCGAAACATCCTACTCATACATCAGCCG
0.1845092450975782 TCCGGTTAATGTCCTATCTGTAGATTTCAGGCTTTGACTG
0.05573747407219637 TCCGACTTCCGCGCGACAGTGCAGTGCGTAAGAACCGTCC
1 ACTGGGCTGGGCTAATATTGGGTCACGTTCTATGTCGCGG
0.7422770564640191 TCCGGTACTTATCAGATCCCCACATTGCGAGATTCTTCAT
1 TTTCCACCGCAAGCCACACCGCCCCCCCCATTCACACGTC
1 CACTGCTAACACTCCGTATATACCGAGTATAACGCACGAA
1 TATCGCTTCTACCCCCGTGCATATCAGACTAACTATGATC
1 CTTCGTGGCATATTCCGGGCATTATCGCCCCAGGTTCTGG
1 TGTGCCTAATGCCTAACACGCTGACGCCTCACATTAAAAC
1 TCCGTGCTGCTGCGGGCACTACCATCCGCGTTCCGCGAGT
1 CAATGACCTGTTACCTTTTCCGGTAAGGCCTTCTTCTGTA
0.1723217839537382 CTATGTTTACAGGAAGTTGCTTGTGTGGGTTTTAGTGAGT
1 AGTCAATGGCGTCAGCAGGCAACCTATACAACCTTTAGCC
1 GCACCATCCATCCCTCACCCCGGGACACCCGATATCCGGC
1 TATTGACTATTGCGTAATCGTCACTACATATCTTCTGAAC
1 ATGACTAGCGGAAATTCNCNGCNGCTATCTCCGCCNNGNA
1 ACCGGTGGCGGCATCGGAGGTAGGTTCATCCACGGCAGAC
1 CCGGAAGGAAGGATGATAACCACTGCCCAGTGTGTCGAGA
0.3089231600586411 TCCGGTGTTAATATTCTGGCAATGAGACAGGGGTTAAGTT
1 AAACGCCCGATCCTATTCACGCTAGCGCTTTCCGCTGAAA
1 CCTGACCTAATTGTCAGGTCTAGAGACTAGGTATGCCCAC
1 CTTCCGGGGGCTTGGTGTGCGGGGTGCGTAAAGCTTATAG
1 AACGCAATAGCCGCGAAGATGCACGTCCACGTAGCCCTCC
0.2189315494251055 TATCCGGCCCCGCTACAAGGCGGACGCGACACTGCCTCCG
1 CTTTATCGCATGGACGCTATTCTGAAAACGAAAATACAGT
1 CTTCGGAAGAACAGAATAATCGTAAATGCTGATCTCCTGG
0.86238977161135 GTATGTATCCGGAGTCTATCGCCGTTACGCGGCTGGGAAG
0.1464124076314342 ACCGGAAACCGTGAAGCGGTGGATCTCAGCGAGTGTCTCT
0.8176446390122513 TTTATTGTATGGCTAGCGGATGTGCCTAACTTTGCGTATC
1 ATGATGATTTCCTGTATAAAGCCTGCACGTTTACCTATGT
1 AGGGGTGGCACTGCGTATTCACATGCTTTGTGGCATGGCA
0.8559655253609094 TCCGGTCCTCTTGCAAACCTACCGCCTTACTCAGGGTTCA
0.05636104474062183 CATCCGGTGGCGCTGATCCCCGCTTTCCTACCCTCACACG
1 CATCCGCCCACGAAGTCATCGCGGAAACTACCCCACGCCT
1 TTTCGTACTAAGTTTCCATAGAGAAAGCCTTTAGACTCCG
1 TCCGGATTCATTAGCCTGTTCCCGGACTGCCACAAAAGAC
1 GTAAGCTTATGCTTTCTCCTTGATACATACCGACGGGTAA
1 CGATATGATATCATCTACTTGTTCTTCAGCGTTTACTAGC
1 CTACGTCGCCAGCCACATTCTAGTGAGCGACACTTGCCTT
1 AAACGACTGTCCGATACAGGTCATAAGTTTTTGATCGTGC
1 CTCGCTGAGGTCATGCTCGTCGCCGCAAGGGAAACCTAAG
1 CAGCGGATGTGAAGCATAGTCTGAGACGAGCGAAAGAACC
1 CTGCTCGCATCTCAAGGCAATCCGGTCTGAACCGTAGACG
1 GGACCCCTAGGTTAACATTACTCCCTTTGTTACCTCCCCT
1 ATTGTAACTCTTGTTTCTTTCATAGTTAAATGGTAGGGGA
1 TTTCACCTTTCCACACTAGCAAATACGCCCTCCCTTTTGC
1 CTCTGAATAGCCCCACGCCGTCAGACTCCCACACGTCCTG
1 TCCGGTGAAGAGCCACGAGCGTATCCCGCGGCACAGACAT
1 CTACGTAGATATCATTGGTGCCAACGCATCATAGATTGTC
1 GACCGGGCTCCTTGACACCTCTCCACTTGTCCTCCATATG
1 CGAAGGGGTTCTCCCCTTACGTTAACGGCATACATCCTCA
1 GTAAGGCACAGGATATCCTCCTTTGGTCACCATTGCAGAC
1 TCCGGGTGACGACCAATAAAGACGTCACCCCGCGCGCGAG
1 CATAATCGTGAAGGTTGGTCTCACGCTTTAGCAACGATAC
1 GGTAATGCTGTATTTCCTATACTGGCATAGCGGTTGCTTA
1 GTCAAGTCAAATCTCCACACTCATGACGAGCCCAATGTGC
1 ATCAGACCGCGACACTAACAGGATTCTGGCACACTTCCGC
1 CCCGAGACATCCTGCCGCCTAACAGCTACACGTTTATTCG
1 TCCTCCGGATCCGCGATATTTATACAGGTCTGTCCCAAAT
1 TAATACAACGTTGAATTATTCCCGTGATTTCCTGCCACTA
1 CAGCGCTGACCGCGCGATCCGATTACTAGGATCCCATTGT
1 CGGCAGCCACCCGATGTCACCTATTTTGGCCGCACCGGTC
1 CGTCAAGTAGTGAGTCGATGCATCGTCATATTTGAAATAG
0.8481479869932022 TCCGGCTCGAACGATACGGAATGTTGTACTGGCTCTATAG
0.3964040481173148 TCATCACACCAACCCAGTATCCGGCTACACCGTCACCTAG
1 GAACTGCGGACAAAGGTTACTATGGTGAACATCTGGGCAT
1 TCTATAGTGATTACTCGTGTGCGGTACGTGTTAAGATCTT
1 AGCTACAATGTGGATCCACTGAGAAAAGCCTCTTATCAGA
1 GGTGCATTCCTCCCCCGCCGATGGCAGGCGCGGTATAGAG
0.2429998398038572 CTTCCGGAATGCCCCCTTCTCGCCGCATCGCTCCCTTCCG
1 GTAGCGGTATCCTCCTTGATGTATTTCATTGGGCCGCTGC
1 CTTCCTGTGTCGTTAGGCACTTTGTGGGTTAGGTGAAGTA
0.04910965789497461 TCCGGCCCTTTTCCCTCCTTCCTAGACCGTAAATCACCAA
1 GCCTGTTCCTGCGCCGGAAAAAGGGTGGGAAGCTTTCAAA
1 TCCGGAACGCGGACCTAGTCGCTGCTTTGTAGTGCCGTGG
1 CAGTAACAAACAGTGGAGTTCCTGTGCAGTCTTTGCCGGA
1 CTGTGCCATTCGCGACAACATCGCGTTATGGTCGCCCGCC
1 CCACCGAATTTCCTGCACCACGCGCGTAGTAAGCGTCATG
1 GCCTTTGCCAATTGCATCTTCGTAGATATCGGGCGGTCAC
0.05656721461986382 TGAATGCGTCCATTACCGCTTCGCTTGGCGTCCGGTCCCC
1 TCCGCTCTTTCTTGTGTCCATCGAAGGTAGAGCACTGGCC
1 GCCAGCCACCGAAGACGGGTTGAACTCTTTCCCTGCCACC
1 CACTTTGATCCCGCTCCCCGACCGCTGCCACGCGCAATCA
1 CGAACATTTACCATTTCCCTTCCTTTCTAGATGCACATAA
0.6434086784901205 TAAGACACGCCCCTTTCTCGATATCGGGCCGGACTTCCGC
1 TAACTTCCGCCTTTCGAACCAACCTATGCCCAATTCGCTA
1 TCCGGTGTCCGAAAAGGTAAAACGACCCGGCATCTAAGGT
1 GTGCATTTCCTCTCCCCTCGTTTCGTGCACCCTCTTCGCT
1 CTATGCCGCATGCCTGAAGATTTTGGTGCGCTCAAAGGCT
1 TCCGGCGTGTCGGATTTGAATCTCCTAAGCTTGAGCTTGA
1 CAAAACATCTCCCCCAGTGGCCGCATGGCAGATGGACATA
1 GGATGTGAACTTATGGTACCGGGATCCCCTCCTGGTAACA
0.5985279608873904 GGGAGTTGCACTTCTTCCGGAGAAGCAAAGGTTATAAACG
0.5589317442918365 TCCGGTCCATGTTCTAATGCTGCGTATTGANNNCTGGCCC
1 CCGACACATCCGAGCCGCAAACCGCTGAAGCACAGACGGC
1 ATCTTACGAGCGCGTCACGTTCAATACCTACCGGAACATG
1 TCCGGCTCGATCTAAAATATTGTGCCGCAGTGACTTCATC
1 TGTTGGGCTGACTCTTTTGTGAAGGTTCATAAGGCATGAG
1 CGCGTCGGACCCGTACTAAAAAATATAGTTATACGCACCG
1 TCCGGTTCTGAGGACCAGCACGCGTCGATTCGGTTTCGAT
0.05370632363715498 TCCGGTGGTTTGCTCGCCCTCTTTCCTGTCCCGACCCACA
1 AGCACGTGCTTAAGCAGTGAACCACGGTTTGGAGGATATG
0.9445185598277958 TACGAGTCGGAAACACCCTTAGACGACCGGGGTCTCATTA
0.4072613167175242 CTTCCGGCCCCCCCGGCCGCCGGCAGTTGCCTTGTGCCAC
0.8239461426096788 CAATAGACCGGACCTAACGACGTGCCACTACCTCAAGCAA
1 CTTACCTAGCAGGCGTTCCACCTCCCGACGCACATGTTGC
0.8676833705123687 ACAAACGCTAGAATGCCTCATCAACAACACACATCCGGTA
1 CCTACGCCTTTGTCCATGTTGTGAGAGCGTCGCCGCACAC
1 ATCAATGCATGGTGGCCTCCTAATTAAGTGGTCCTCCTCT
0.783824882698914 TCTAGATGATGTGGGTGGGTCGTTCTCTGGCATCCGTTGA
1 AGCATTACTGCCGTCATAACGTGTCCACGCAACTGCGTCG
1 CATTACCACGCGCTATTTTTACCCATGCCACCGTTCCCTT
1 TCCTCAGTTTGACGGGATCTATGCCGGAATTTGACTACGG
1 CTTCCTCCTCCGATCACCGACGTACTCGCCGCCGCCCCAC
1 TCCGGTGGGTCATGCCCAAGCCGCCGTAGTCGATGGAATA
1 TGCCGGATAACGATCAACATTTCCCGGCCAATAATCCCGT
1 TCCGGCTATGAGGCAGTGCTTGACAACAGCGGACTGAGCA
1 CCCTGGCTAGATATAGGTGAGTGGAGACTCTATGGCTTTC
1 CCCAACCGGACGCGTCTCCCGCCCCAAGATGCTCGAGATC
0.545238782450831 GCGGATGCGTATGTTTCTTTGATGGTCTCGTAAAGCGCTG
0.9355506639246317 AACGACTTCCGTCACCCTTACCCCGCGGCCCACGTAGGCC
1 TTGTAATGCCTATACCGAGACACCGGTATCCGACTTCTTG
1 CTGTGATTGAGGGTGTAGGGGCCGCAACCCAATAGGTGGT
1 TAATACCTCGTACGTAAATGATAATTATCCGTTCGGTGTC
1 CGCATGTAACTACCCCGTGCATAACTCTATTGTAACTCGC
1 CGATTGAAAGGGTTGCTTTTCTTTCGCCCGGTAATATACA
0.8797479643651824 CATAACATCCGTCACGTAGGTATAGTGTCCTCGCTCTCAA
1 CTCACAGAATATACTACTCGTGAGTCATGTAATGCCCACA
1 TGGTACTTTCGTACGCGTGAGGCAGAGACAGAGCAGAGAC
0.2610907907804108 GACTCCCGCCACCTTACCCGCCCGGAAGCCACTCGCGCCA
1 GATTGCGTAACGTGGGTTCCGGGGCCTCCGTAAATCAACG
1 TTTTTATGTTTGGTTGTATCTTCCTAAAACCTATTGCATA
1 TAGGAAGCGTGATACAGGCAGGCAGTCTTGTATCATAGCG
1 ATGGCGCTTTTTACTGTGGAAACGTCAAGACTCGTAATCA
1 TGATCCTCCCCACGCGCAGGGCATACGCCCGACACCCATC
1 ATGCGATCACTACTACTCGTACTTCTCCTTGTTTCACTTG
1 TTGGTGATGGTTACCACACACTATTATCGGGACCTTGCGC
1 CCTGTCTGGCCACTAAGGTCAGCCTACGTTCTCGGTGCGA
1 AAGGGCCCCGACTGCGCGTGACGGATACTTTGGATCACCT
1 TCGCACATTGCTCGTCCCGGGTCACTTCAGGGCTGATGGA
1 TCCGTGTGTCATCATCTGGTATGGAAGTGAGGAAAGCAGC
1 CGCCCACCTATATGCCGCTGTCCTCGTCTGCCCCTCATAC
1 TTTCACGACTATTGGTGTGGGATGGCAGACTATTTTCCTA
1 TCCGCCCTCTAACTCCCCGTCCTCCCCACCATCCTGTTCC
1 GCCATATTGTCGGTCGCTGCCGTGAGCATTGCAGAAGTGC
1 ACACTACTAACCTGCTAGACCCCTGCCCCTCCCAACCCCT
1 ACAATTTGAACGTAAACTATGGCTATCCGGCACAACCTGG
1 GACCTTATGTGCGTAGCGCTGTGCCAACGCCCATGGCCGG
1 CAGTCGGATATTACTAACTAGTTACCTGGGCTTCCTCCTT
1 CCTACCCACTTCCGTGCATCGCTTCACACGAGCCCTCGAC
1 CATCCGACGTGCACGACGCCTTACGACCCATACTGACAAC
1 TCTACGGCGCGAAGAAAAATAACGTGTGTAATAGTCCCCT
1 TCCGGTACTGCGCAAGGACCGGGTTAGTACGCCCCGGCAG
1 CCCAAATTATTCCTTTACTGTTTCCACCGCCACAGTACGT
1 TCCGCAGTATGCTCAGGCTCAATGCCGTGTGGCGGCAACG
1 CACCCTACGCTACATTGTGCGTGTACGTACTCATCCGTGT
0.01497793132296904 GGATCGTTTAGAGAACGCTGACCATAAGCGGATTTCCGTG
1 ACCAGTGGCGATCCGGACGCGCCTGTACCCGGTGTAGCTT
1 GTTGCATTGCCCGTAACATCTAGTAATGTCGCATCCGGTC
1 GACCGGAAACCAGCGAAGGACCGCTAGAGGCTAGACAACA
1 TCCCGGGAGGAAACACCAGCTGTTCGCGTTGGGAGTGAGA
1 TCCGGTTGATTGTAACCCATTAATTCTTACTTACTTACTG
1 TCCAACCAACTTCTAGACCCCCTCGACAGTGTGTACTCGC
1 GTTTGTGATGACGTTGCACGCTAGATTCCGGTTAACCACG
1 AGAAGCATACCACTCAGCGCTACGTTCGGACTCGTTCCGT
1 ACCGCCTCCCCTCAGATTTATGACATCCTGTAGGCTGCAT
0.8342609346056175 GACCCCACTATAATGTTTTGCCATGCCGCCGGGCCGGAAG
1 GTCAAGTGGTTACGCCGAGGGTAATGACGATCTTGCCATG
1 TAGTGACTGATAACCGGTCGATGCTCCGTACCCTTCAACA
1 CTATAAGTGTGAAACTCATTAAGCCACTCACTTCACCCCT
0.3976466103817957 CTCCACATCCGCCACTCACAATCTTAGGCCAACACGCAGC
1 CTCACAACACGCATATTCATTACCTCTTCCATGCTTGCCC
1 ACTGTGCTAAAACACGACAGAAAGTTGACTACATGGAAAC
1 TCCGGTTAGACGTCGGTTGCACACTCACTAAAATGTCCTC
0.3961770141679897 AACCGGAAGACATATAATACCGGCGTAGCTACGTAAGCAC
1 CTCTTGTCTATGTACTTCTGCTTAATAGAAGGTGTATTCT
1 ATTCTTACACTTCCCTTACGCAACGGGCACCGGCCGTTGT
1 TGCTGTAAGCTCAAGACGGCAAGTTCACCACCCTGCACCA
1 AGCATCCCACCGCCCCGNCANCCCTCATCTTCAGTGGAAG
1 TCACATTCACCATGCGTCTATCCAGAGGTATTACCTTACC
0.4347267758118494 TGACGACACCACAACATCCGTCTGTTCGGCAACGTATTCC
1 AAAGATACCGTGCGCACGCGGCTTCTATACAACCTTGCTC
1 CACTCCACTTACCACGGCGTGAATTCTGGATCACTTAACC
1 TATCCGGTTCGGCGTTGAATATGTGCCGGTTACCTCCTTG
1 GTGATATTCATGGAAGCCTTCGTGCCTTCTTGGACGTTAT
1 GACCGGACGTACACACCGCAGTGCGTATAATACTTGAAAC
1 CGTTCGAATAGTGATTGTTATTGTAGTATACACACTGGAA
1 TCTACCACTTCCTTCTTGTTTTATCTTTTACGTGCTCCAG
1 GTCGCAGGCCGGCCAATAGAGCCCATAGCCAGGTGCACCA
1 TGCAGGAAATGGCTTTACCGTAACCCCAACAGAGGCCCGC
1 AACAATTATATTACGCGCTAACCAAACGTTGTAGCACTGC
1 AATCACGAGAATTACCGGTCACTTAACTCTAATTACTTTC
1 GCATATCTGTCGCACCACTAGCGCGCCCGCTGTCCGTTGC
1 CTAATCACACCACGCCTCCGTGGTCCCAAATGCACTGTCT
0.6552544775728242 ACCGGATGCTGTCTTGGCTGTAACGACTTATCGCGGCTCG
1 TCCGCACTTCCTCAAGCCAGGACCTACCAACCCCGCCGAC
1 AATCGCTTGTCCACCCGGATATCGCTAGCAGGCTGGCGTG
0.5102861977655581 TCCGCCTTCCGCTGCCTCTTTCCTTAAGCTGCGGCTGCCT
1 CACTTTACAAGTCCGAAAGCGCGTGTTATTCTGCCTTCTA
1 TTAGGGTTGCTACCCTTTAACTTGACCTACCGCGGACCTC
1 ACCCCCGCAACGGCTCACCAACGCCACAGCAGTCCGCCCC
1 CAGACCAGTCCCAAACTTTGTCGCCAAGATAAGTGACAAC
1 CCGGATATTGAATGTTTTCGATGCCCAGTTAGCTGACTTG
1 CGCTGTTGACGTTTGTCTATTCAATTAACAGTGGACTACC
1 TACCACACTGTTACGAAGTACGTAAATGCATTCAGACCTT
0.1892185285713496 TCCGGTTTTACGCAAAGCGTTAGACATGCTGTAAAACTCA
1 TGTCCTTCTAGAAGGTATATCATTCCTCTGCCGAAACTCA
1 TCCGGTTTTCTCCGCGCACGTATGGGAAGCGTACACGGTT
1 CCGGAAAGTACCCATGTGCGCCAAGTGAGGCCTCAATGTA
0.0311913389106793 TACGCAGCGGATGTATGCTAACTAGATGTGCTATCGGGTC
1 CCGCACTATAGTGACATGCCAATAGATGAAGTTTCGAATG
1 ACTACGAATCCTAATCAACTTTCCATGCACCTAGCACGCT
1 TTGATTTGGCTTCCCCAACCTTCGAGGCATTGAAGCTCAT
1 TACCCCACTAAGCCGCGCGCTGACCACCTCCCGTTCTTGA
1 GACCGTAAGGAGAGGGTCCTGCCGGTTATGGATCTGCACT
1 CCTAATGTTTGACTGTACAACGTCCTCTATCCTCCTGACG
1 CTTTTGCGCTGGCCTCTGGTTGTCGAACGCTCTCGGGTAA
1 CCGGAAGCCCACTGTTTCCAATAAAGCCGCCATACCAGCA
1 TTCTACTACTACCTGAATGCTTACACTGATTGTGGGAGAT
1 TCCGGTATCGAGACCTGTTGCCTAATGCTGAGTGAGTCCC
1 TTTCCTCACAGCCAACAAACGTCCGTTTCACCGCTACCCA
1 CTTCGGAAGGTAGTGGCTAATGAGTCATATTTGACAGTGA
1 CGCTCGAACCCCGCTTTTCCTCCGCACCATCACCCACTGT
0.9485787677359334 CAACGTGCTGACAGTAACAATGATGATTATTCCGGTGCGT
1 CACGAGCCGGTTCTCAAAACTAAGTTTTCACTTCCCTTTG
1 TCCGGCTTCGCCTTATATACCCCGTCCTCGTCGTAGCCAG
1 TAACAGTTAGCATACATACGGTGCCGTCCTGTATCCTGCC
0.6119511449906869 TCCGGTGACTGGTCAAATGTAAGTGTCCCGTAGTTAACTT
1 TAATCAGAGTGTCGATTAAGACCCCCTAATCCTTTCCGCG
1 TCCGCTCTAAGGCCTAAACCACGCTGTGTGTCGCAACATC
1 TCCGGATCGGTAAGCGCCAGTTTGGAGTCTGAGTACCCTC
0.7217535965474521 CACGATTTCCTGCTTACGACCGCGAGCAACAATTACCAAC
1 ACACTCCACCGCTACATTCGAGGGATCCGGTCGTCCCGAT
1 CCTACCCCCCCAACCTTATCGCTACAACGATCCTCGTAAG
1 ACAGATTTGCCACACGTAAGCTAGACACGCGCCTCCGGTG
1 CTTTGCTGGCTAACCTGGTTTCCGATGTGCACTTTTTCGG
1 ACACAGCCACCAAAGCCCGTTGAAATGCAACTCCGCCGAA
1 CTTCCGATTCCCCCGAGGACTACGCACGAACTTACAGCAG
1 CCGCGTTTCCGTAAATACCCTCCAGTGTGCCCCACGGAGC
1 CTGTATCCCGTGCTGAGGACATTTACAGCAGGCAGGCCTG
1 CATGTCCTATACCCCTCCACACAACTCTACATCATACACG
1 TAACGCCTGCATCCGTTTTTATTATAAACCGTGCTCGTCG
1 TCCGGTCTCGAACAAAAGGCGAGGTCGCATTCGTCTTCTT
1 GCCAAGCCCCCGTGGACGGAGAAGGTCATACATCCTTAGA
1 CTGGACGGGCCCGTACCATTGACGATGGGGTAGAAACACA
1 AGGTCAAGACTGTGAGTCATTTCCATCATCGCATCCGTCA
1 TCCGACTGGATGTTGTCCACTGTCTCACCTATCTGCCTCA
1 TTAGAATCTCAAGTGTGAATCTGTGATATACGCGTGTCGA
1 TTTCCGGCCATGGACGATGAAAGCCACAAACCGATGACCT
1 ACTTTCTAAACATCTATGCCTTGCAACGTCCTATAGGCCC
1 CACCCATCCGGGAGGAAACCAGGGTATGCAGAGATGAAGA
1 TCCGAAACACCACTGGACCCCACGACGCGTGCCAAAGCAA
1 AGCAAACCACACCGTGGATGTGCCGTGACACACGTTCCGC
1 GTCTTTACCTCCGCGCACCCTATTGAGAACCGCTAAAGTT
1 CAGTACAAGCGTTTGCCACGCTGTACTGGGGCCCCTCTGC
1 TCCGGCGTTACCTGCCAGCGAGACCAGCCACGACTCTGAT
1 GCCACACCCGACAAATTGAATTCGTGGGAGGCGTTTCCCC
1 CCCAAAGCCTGCCCTACACGAAACCCTGATCACATGCCCA
0.3292693504145951 TCCGGTTCCTTGATGAATCATAAGCGGGGTATCCTTACTT
1 ACACCTACTCACCGAACCGAACATAGACCGCCATCCTCAA
1 GAGGTGGTAGAGTGCCGGGCAGGATGTTCTTTGGGCCTTG
1 GGCGAAAGCATTCTAACACCACACAGATCCTCTCGCCCTC
1 TCCGGTAACGGTGTTTTCGCGCAGAAGATATACCTTTTTC
1 CTGTCATATGGCTCATGGACTTACACTTGTGTTTGATGCG
1 TCCGGTGACGTGGTTATTACCTTAGCGACACCGAGCTAGC
1 CCCTCCCCCGCGTTCGAATCCAGTTATCCCAAATCCGAAA
1 TGCTACTGTTTCTACGTTACTGACGATTGGCCAACTATCT
1 TCCGGAATGGTACCTGTAGCTTTCATAGTAAGGAAATAGC
0.7357250161598009 AGCGGAAGCACGCTATTAACACTCAATGAGGCCGTATAGT
0.7438244381900883 TAACGGAAGTCTGACGGATTATCGAGCATATGTTATATTA
1 CCCCGGAATTGGTCCGCACGGGTGAACTGTTGTTGTCACA
1 GTACGCGTAACAACAGTATTGTTCCGGTAGCCGCGATAAA
1 TTCGAGAGAATATTAGTCATATAACTGATGTCATGACGGA
1 TTTTCGTAAGTGGTGACCTAGCATCTATTATTCTCTGTCA
1 TCCGGTATGCTCCCATTGCGTGTGGACCGGGTCTACATGG
1 ATTGGGGCTTCCTTGTTCTCCCTTTCTTATTTTACTGTCG
1 CCGGAAACACTCCAGTCCGCGCGTCACGGGTAGGGATACC
1 CTTCCGGCCGCGGGCATGGTTATGCTACTGAGTACTTAGA
1 TGTAACGTGCCTTTACAACCACCCGCTTATCTTACCCACC
1 CCGCTAAGTCTAAATTGTTCCTCAACGTGTCGTCCCCCGC
1 CCGGAAACCGCCTCGCTAGCATCCTACATACGTGCCCAGC
1 CCTTGGGATCCGGAATAGCTGTGGTCGGACTGGACGAATC
1 CGTTAAATCGCCTGTTGCAGAAATAAACCATCAGAGAACG
1 TAGCTGTACTGCTCCGATAACCACGGGTTCCGGCCATTTG
1 TCCGGAAAGGGGTAACTGATAGTAAGTCGCCACAGTCGAG
1 CTTGTGAAGTGGCGATAATATAGAGGTGGAAGCGTCCTCA
1 ATATTTCCTACCCTCTTTTCCGTCTGCGATTGACTTTAAG
1 TCCGGCTCACAACACTAGCCCTGCCTCCTTAACACAGCCC
1 TTTCCGATCCCCGCCTTCCTCTTCCACGCTCCCATTCGTA
1 CCTCCGCGGCGCGACGTTTTAGCTGACTCTAAACGTGGAC
1 CTTCCGGGTTCACATAACACGAGAAGCAGTAAGGAAACTC
0.003655028562618698 CCTTCCGGTGAACTACGCTCCCAGCTTAATCTCTGCCTGC
1 TCCTGTCGTACATCTTGCCGTTGTTTATGTGCACCCCGAT
0.2807497906393041 TAGCCCCGGAAACCGTGCGACTAGGCCGCGAGAGCATGAC
1 CGTTGTTGCCCAGCTACTTATACAGATACCGGTAGTATGC
1 TTGATATCCTAGTGCTGAGTTTTGGCCTTTTCCTGCATTA
0.9127839200188415 TTTCCGGCAGTACACTAGCTATCCGGGTTTTGAGTCCCCG
0.1409111088237015 CTTCCGGCTTCCCTCTGCTGTTCCTCCTGCTGTCTCCATC
1 CACCGTACCCCGAAGCCAATCTAACATGCTGAAGAGACAG
1 CCAAGATAGTTTATATACCGCAGCATATTCTTGAAAGGAC
1 TTGGCGAGCGGAAAAGGAAGCAGCCGTACTCTTCGGCTAC
0.02666425499330417 GACGGAAATGGAAAGGGTAGGTGCGGTTTGGCTCATCGCA
1 GAGCGGAAGCTGTTCCACACTGCGGACATTACAGTGGAGT
1 TCCGCACGTAGCTTGGCCCGTCCGTTCTATGATGCCCCTG
1 TACTGTATGATACATGCTCCTTTGAACCGTTAACCCTCAC
0.1537210101772732 CCGGAAGCGAAGTTCCCTAACCCTACGACTCCCGATACCC
0.1041527707548389 TCCGGCATATCGTGTAGAACTGACCCCTACGCATGGACCA
1 CCCGGTGAGTCGGCTTCGATTCTCCCGGCCATCGACGATT
0.01345879031590156 ATTCGAATCTTACCGTTACACGCTCATCCGCTGCCGGATA
1 CACTTCCGATTTGTGAGCGGGGCGAGACGTGCCCTCTTCG
1 TCCTGACGTTCGTGACGAGAGCTGATAGCAACGTCTGTGT
1 CGCCATATTCGAAACACTAAGCCAAGTGTTACCCAGCCCG
1 GTTCTACGGATATCCTTTTGTTGCAGATAATTCCCTTCGC
1 TTCCGATAACGTAATCTGTCGATGCCGTTGGTCTTCGTTC
1 CACCCCTCCACCTATTCCGAGCAACATGTGCATACTCGAT
1 CCAAGATAGCATCCGTTTGTAAGCGCAGAGCGATCCGCGA
1 TGCGTTCGAGAACAGCTAATAATCATGTCTTCAAGCCCTC
1 TCCGACAATCCCTAGTTCATACCCTACCAGCCCAACCCAC
1 CCACACGGGAAGTCGCCAGGTGCGTCTCAACGACATAGCT
1 CTGCACTAGGGCCTTGTTGCTTAAATGTTTAAAGCATCTT
1 CCGATATGCCGATACCGCGCACATTCCACCAGCCCTGCTC
1 CCGGAAGAGATGATTGTTGCGCACGTCGCTGCGTCTGGCC
1 CCGGAAGTCATTCGCCGTCCAATCTGACCAAAACTGGACG
1 ACCGGAATCCCCCATTGAGAGCAGTCCGACTCCGCAATGC
1 GCGGACTTGCAGCCCTCCCGCATGCCACACTTTCCGAAAC
1 TAATCTGGACCTCACGCGTCCGGCACTTATCTCAACTCAC
1 TCCTTACGGGCCCAGCCCGGACGGATACGCAATCCTGCGC
1 TATCCGCCCTAGCCACCAACCACCAATCATGCCAGCATAG
1 CTCTCCACGGTGATTTACGCTCGTGTAACACCACTCATCG
1 AACGGCATGTTCTATTCCCTTCCCTCCAAAGCTTGCATCA
1 TGTTGAAACTGCTCCCATCACCTCCTTTCCCATTGATAAT
1 TTAGACACAGGGCGGATCTTGTTTATCCAGTGGCTGTCAC
1 AGGAGACCATCCACTACCACCCCCGTTACAACATCCGCTC
1 CACATGTGACTGTAGCTCTGTTGCTGATTTTTGCAGGCGC
1 AACGGAAGAGGGTTAAACTTATAAACCCTATACACGCGCC
1 AGGCCGTATAGCGCGTGCACGTCTAGCCCGTGAGCACCAT
1 AATAAGTCCAGCCACCACTCCCGACCAGATGTTGTGTCAA
1 AACTAACCATCCGGCGGGGCCTTTAGGCTTTTCCCCTATC
1 TAGTTTTAGTGCCTTCGCGTCTGTAATAGGCTAGTGGAGG
1 GTAGCTGCCAAACCATCTTTTCACTGTTTATGTTCGTTTA
1 GAGGCGTGTATAGTGGGAGCCACGCACCCCAAGCAAGAAA
1 CCGAGCCACTCCAGCGGAAACATAGCAATGCAAGGCGGCG
1 CTCCGGACATGCGCACGACGTAACGGGATTCCACCGCGTT
1 ACTCAGTCCCTCTCCGTAGCACGCGTCACCCACGCACACT
1 CTTCCGCTGTGCTTGGTCCACCTCTATAGAACTTTGTATC
1 CTTCACGAGACTATATTGGAAAGATCATACATAGTTGGCA
0.7867624013793384 TTCCAGTAGTAGTGATATTCACATCCGCATGATCTTAGCT
1 GTCATCAGGGTGATATGTTTCATTATAACATATAGCATGA
1 GAACCGGCCTATGAGCAGTCGCTTGATTGGGGTATTAAAC
0.8163435399672149 GCGCGGCGTGGAACCGTATACACTTTACCGGACGATGCTC
0.7092027656752313 CTTCCGGAGGAAGCCTCCAGTGCCCCTAGTTGTTCAGTCC
1 CTCAAGCTATCGCAATTCACGTTAAACGCCACATTCCATG
1 GGAAATGACCAATTTCCTCCCTATCTTAAGTGTGATCAGG
1 GTAAGAAGCCTCCTGAGTGCGCGACTGAGACTACAACCCT
1 TGAGGAGGAGGGCCTGACTCGGAGGCTCTCGATGCAGCCG
1 TCCGCTTTGTTCCCAGCTGCCCTCCGAACTACATGCGATT
1 GCGTCGGAAGGAAGCGCTTGTCTGCCGATTAAGTCGTGCA
1 TGATGACCGCCGCAACTGCGCACGGCCCAAGTTGTTAGCC
1 ATAGATCACCTGGACGTTCTACCCAGCTACCACCCACCCA
1 GACTACGTAACGGTTCCCCTTCCGTTCCCCTCGGAACTTC
1 CTTGATTCCTAGCCGACTGTGTAACCTGTACCCTGGAGGG
1 TCCGGATCACCGATCGTTGACGTGCTAGCGTGACCAGGTA
1 CCACCGGACCGTTTCCTACTGTGCGTTCAATAAGCCTTCA
1 CCTTCGTCTAACATAACATTAACTCGCGGTTTCGGCAATC
1 TCAGTACACGTGACCACTAGCCCTCGCGCTTCCGACACGA
1 TAACCGTTAAGCACTTTCTTATATAGCCCATATTGCCTGT
1 TGCAACAACTCGTATCGAGCTGTAACACTTTATTTCCTGG
1 TGGGTTAATACGACGTCCCAAGGCGCAAGCTCCATAATCG
1 GTCGACTGGCGCGCTTAATCTCCTCTCCTCTCTTTCGGCC
1 TGCTCAGCGTAAATCGTATGAGTCTATTGCCGCAGCGCAG
1 AGGCGTATTACGTCTCATCGCCGTTACATGCATGGCTGTC
1 CTCTGTCCCCTGCCGCAGACTCATCTACAGCCTCAGCTGC
1 AAGGAGGGGGGACGTGCGGCCACGATCAGCCTTTACCGAT
1 CACCGGATATGCTGCTATACCCTGCCCGACCGACCTCCAC
0.1442735716450189 CCGGAAGCAGAATTACCTAATTGTCGCCTCCGTTGTACGA
1 TCCTGGTGACCATCATTACTGGACGGGAAACAGTGCTCAG
0.1173844953247696 AATTGACGCACCGGATGGGTGTGAATGCGCCTGTGGTCGT
1 TTCGCATCACTTCCGTCTCGCATGAATAGGTCCCCGGTCG
1 GGAAGTGGGGGAGTGATACGCAAGTAATGCGAATCAGCGT
1 CCGGTGCTGACCAGCCTGCCGGTTTCAAGTTCCGACTGTA
1 CATCGGATTCCGACGAAACACCCTCGTAACTCGATAGCCA
0.7402455752766627 TACAGCTGTATGGTTGCGGAAATGAGAATTCGCGCAACGT
1 TCCGGTTTTTCGCGGCCTAACCAGGTATCTTTTTCTTCTT
0.4201658000055453 CCTCATCCGGCTTATAGTCACTTTACGAAGAAGTCATCCC
1 TGCGCGGGTCCTCAGATGCCCCCGGTAACGCAGGCGCATT
1 TTAGTGATGGTCTCGATTATCCTTGCGATGAGGTTTGCGA
0.7802345461560599 TCCGGTCATCATCGGACTGTGACGTTTCTGCTTGGAGTCT
1 GCTTAAGTTCCAACGCCGTAAGAGCCGCAGGGCTTAGGAC
1 GTGAGCCGATTCCGGTTAGCAGCGGCGCATGATACGTAAA
1 CGCGTGGGGGCGACTAGGGAAGTCCCCAATAGACTGACTC
1 TCCGGCTGACGTATGGTCTGGACGCGCGCGACGGCTACGG
1 CCGGAAATAAATCATGGAAAGCGTATGCCCCGGTAAGGTG
1 TCCGGGTAGAAGACATTTTGGAGGCGCTTTATCTCTTAGT
1 TTTCCGTTTTGCCCAAAGTACCGACATTTTGTAGGCCACG
1 TCCGCTCATGTGTGATATTGCGTCGCTAGAAACTCCTTAT
1 TCCGGTCCCGCCCTCTTATTGGGCGTACCGGCATTAGCAC
1 CTCACAAAACGGGCAAACACTTAACTGCCTCAGCAGCCGC
1 ACAGCCACTGACCTTACAACAAACGCCAAAAAACACACAG
1 TGACCTGCATCCGATAATCATCCCTTTTGCTACTCGATGT
1 CTACCCTGGCCGCCTCCCCGCACTGTGTATCCCCGACCTC
1 TATTGGCATCGTTTTTCCTCAGTTACAGCTTCCGATTGTT
1 AGCGGGATCCCGAGGGGGATGACGCGTACTCGGATCCAAG
1 GCCCGTCCCTATGACTACGTATCATTATCCAACGATACAC
1 GTCAAACCCCCTAGAAAGTTGGCCACCTGCCAACGACGCA
0.5407931005805389 CAATGCTGACCTCACTTCCGNCCGCGGNNNNNNNNGACGT
1 CATCCGCCGACCACCCATAACCGCCGGAGCAGCACTGCAC
1 TCGGAGAGGCTTGGTCCCCCGTACCGTTACGTGTTGTGCG
1 CAACTATCTTTGGTGTGTGCCGCAGTACAACGTGTCGTAC
1 ACCCCATTTCCGCACCAACGCAGAGTCCCCACTTACTCGA
0.9185916415293673 TCCGGTGTAGGACAGCGCAACGAAATGCATGCAGATAGAT
1 TATCATATGTCGCGTAAGAAACCACTGCCGGACAATATGG
1 TCCTGTTATCGCGTCGACTCCCGCGTCACTCTAGTAGCGT
1 TTCACCTTCTCTCCCTCAAGCTACTTAAGCGCCTTACCTG
1 CTTCCTGTCTTCCTCCCTGAGTCAATCTGTTATTTTATTC
1 TCCCTGCGCTCTGCCCCTTCTTCGTTTCACCTCCGTCCGC
0.8490853493006899 TCCGGTATGGAAATATATTCACCTTTGGTTCCCGTCGTAA
1 TTACCTGCTGGCAGGTTCCCCGGTCCGCTAACCACACCGC
1 AATCGGAAACCATCTCTTACTCGATCGATCCTGATAGGAC
1 TACCTATATTTAATTGCAAATCCACTCCCCACTTTCGCAG
1 GTGGCACAGAACAGCATCCGCATGCCATTGATGGCTTCGG
1 GGTCAGGCGGATATGCTTATGTAGATGCAGGTGATGCGTG
1 TTGCAGTTCCTGCCGGGAGGCAGGCGCGAGCACTCGCCCC
1 ATCTCAAGAGCATCCGATGATCACGATGCAGCCGTACAAT
1 CTAGGAAACTAACACGAATTGTACCCGGACAAGGTTCCGC
1 TCCGGCCTATCGTAAAAACCCGAAGGGCCATAATGGCAAC
1 CTTCCGTTCAGATTATCATCACGCATCAGCTCGCGTGTTT
1 TTGTGTTTATAATGACGACGGTGAATCGCTTTATGCTTGT
1 ATACCTCAATGTACCACCCTGCCCACCATAAAAAGACATC
0.6765138564478078 TCCGCCTCCGTAAGTTCGGATGGGTTTAACAACGAAACGC
1 GAGCTGTTTATCACTGACCAGGTGCTACTTATTTTTGCTC
1 ACGGAAGTCGTAGATCCCGGTGTCAGTGGTGAACGAGACG
0.1054947220912836 TCCGGTTTTCTGTGATGCTAGCGATTCTCACACTTGACGT
1 CTTCCGCTCGGAGAATCATGCACCGCGCTGCACGCGATGC
1 AGCATCTGGCGCCCATACGCATACTGAATAACATCCGGCG
1 TTGTTTGTTCCTTTTGTCGTGTTCGTAAAGTTCCTCTGTC
0.9495928447151523 CCGGAAACCACTACATCCACTGGATTATCAATCTCCCGCT
1 CCTTTCGACGGACTTTACATTACTAGGAACAGCTACCATC
0.9483733834286989 CCCCAGTCCCTTTGTTTCCGCTATGGGTCTTATGCGTAAA
1 CGTTCGTAGGATAATGCGTTAACTGAGATGCATTCATCAG
1 CGGCGGGAATTCCCCGTTGACGTTCCCGGCGTCATGGCTT
1 CGTTACGGAGTAAAGCACCGCAGTCATCCGCTTGACAACT
1 TTCCACTAACCGTTGCCCCTACTTCAATAAGCTAGTACCC
1 TCCGGTCTGTTCCCTGCGTAGCATCGAATGTAAAGCCTCC
1 ATCCCGGACGTATTTCGGTTCATCTGGCAAGTACCTGCGC
1 ACAAACTCACGCCCACTCTAAGTCCATTGGCTCCCATGCC
1 CATATATCCGTTTTATAATAGTCAACAGTAAGATATTTAA
1 TGGCTGCGTTACGACCAGGATACATTGCGTATACGGTGGA
1 TCCGGCGTAAGAACACTAAACTTACCTGCATCGTGTAGGT
1 CCGGAAGCCAGATATTCCAGGACAGGAGGGGGCGGCACCA
1 GATGGGTACTATAGACACCCTATACCTCACTTTACCAACC
1 GTGACGTTTAAGCCCGTACGATTCATCATCCGGCTCAGGG
1 TAACGTGCCGGTTGCTATGTCTACGGTTCGATGTTCACTC
0.8801799652336595 CGGACGACGCCTCCTAGGACTCTGACATCCTGCCCTCGAA
1 TGCTGACCGACCACACTCTGTGAAGCGTATAAAAATGTGA
1 TGGCTGTGAGAACCGTGAAGTGCGGCACGACCTGTTAGGA
0.828242762654122 CATGTCCCGGATGTTGCTTACAACGCTCAGAAAAGTCCTT
1 CCGGCCATTGTGAACCTCGCGAACGGTATGGGTCAGGTCG
1 TATTGTGGTCTTGGCATACTTGGGCACCGATGCCTAGATC
1 CGTCAGGCTTCTCGTATTCCATGCGTTGTTGTACCAATTC
1 TTGTCTACGTTACACAGCCTCAAATACATATTGTGCTAAT
1 CGCCAAGAATGCCTCACGCGCGAAAGCTCCTCCCAACGGC
1 CCAAGTAGGCATGAACCTTCCTACTTTAGGAGGATTGCAG
1 TCCGGTAAAGCTTTCTCCCCTTTCCCGTGTCGCAGATGAC
1 CTTCCGATTTCTTGCCTGAAATGCTCGAATGATCAAAAAC
0.03233115416323204 CCGGCAACATACTGTACCCCTACTCACCTGCATCCGCACG
1 ACTTGGAGGGCGGTAAGGGCGATGTCTTTGAATTAGCCAG
1 ATTCGTACCTGGTCCCCTTTATGCTGCGTTACGCTTACGT
1 GAACGTTACGCGCGACCCAATATTCGCGGGTGGTGTTTGC
1 ATATAGTCGGGTAGTACTAAACACCGCTCCACAATCGCCT
1 CACATAAACCCGTAAGTGACGTCGCAGCACTGCCGGGTGG
1 ATCTCAATAATGTTAACTGTGTTTTGAGTCTGTTCGACAG
0.7384757051967857 GGGTTATCCGGTTATTCAACACCGAATTCTAGTAGTGATG
1 CTCTTACAGGCTCTTTGTCGACCCCCTGTATTAGACTGGC
0.2028371347284438 TCCGGTGGCAGGGAGCTCTGAGACGACGTCACTCACGCAA
1 ACCAGAGGCAAGGGTAGAAACCGTTGCGTACATCATGGGG
1 TCCGGCACCCGCTGCCAGCACTGGCTTGGAAAGGCCAAGG
0.4417090166169213 CAGGAATTGCGGATGTTTGGTGGTGTTTTCCGACCCTTTA
0.3220521071549703 TGCGCTTCCGCCTGAGATTACAAAATTCATTGTGACAGGG
1 GGCCCAACGTCCGGAGAGGCATCTGAGCACTTGCGGCCGC
0.01024474588756441 ATGAGCATGTTCAGGAGCATCCGCCTGTCCATTACAGTGA
0.9080280542475889 TCCGGTGCCCTCGCCTCAAACTTTACCGTGATCCCGTCGA
0.7159597970920196 TCCGGTCTCTCTGGTTGCAGAACAACGCCTACACTTTGCT
1 TTTCCCCTTAATTGCAGTCATGCTGTTCAGCATCTTCCGT
1 CCAGCGCGCGCCCATCGACACTATTGCTAGAATTGATCCA
1 CGGCGCTTGGTAACGTAAGCGGGCATCCGTCACGTCCATG
1 TAATACAGCATCTCCGTCATTTCGTTTAATTCATGCTATT
1 GCAGGCGAGGGCACAAGCCGTATACCCGCGTATCCGGCGC
1 TTGCTATGTCCAGCAACCGAATCTATAAATTCCCTGCAAC
1 GTAGCACTTCTTGCCCCCCGCGGTATTCCTTACGCTACCA
1 ACCCTCGCGCACTGCTCGCGCCCGCGCGGAGCAGCCATCC
1 CTATGCCCTAAGCGTCCCCAATATGAATTCCCCCCCGGAA
1 TCCGGGCTGACGTAACCTTGCCCTGTTAAGGAGCGCTGGT
1 TCCACCGACGTACGCTTATGTCCTCCCTTGCACCCCACCC
1 CTGCCCTTGTCATGTTCACCAGACGTCGGCCAACAGCGCC
1 TCCTCTTTCATGTACCGCACGAACGTGCTTCGGAACCGCC
1 GTAGTGGCACTTGTTCTTTCCGGCTACGTACTAGGATTAG
1 AGGAACCAACGTTCGCCGTCCTATTCCGGGGCCCAGTAAG
1 CACCGTTTCCTCCCGTAAATGTTCCACCTTATCGGTAGGT
1 ATTACCGTGAGATAGGCCCAGGAGCGGGTAATGCGCACCT
1 CATAGTGCGTTTGATTCGAGTGCCTATGGCGTGCGAGCTT
1 TATGCAGATAATTGTACTTAATCCTACCAGACACAGTTGG
1 CGCCACTTCCTTCGTAAATGTCGGGGGGATAACCGCTTGA
0.2877461212268584 TCCGGTTTCTCGTACCTCGATAGCTTCTGCTAGTCATCTA
1 TCCGGAGTAAGGTTCAGCACTGCGCCGCATTAATGGTTAG
1 TTTTACGATGTCCGGGTCGGATGACGCTAGGCACGTGGGC
1 CATGACAACGGCGAACGGCTAAAACCCCCACATCCTCCTT
1 ACTGAATGAAAAACGACTCGATATGGAGATCATTCACCGT
1 AGGATCCGGAAAAAGCCCTAGCCAAGGGCGCAATGTGGCT
1 CGAATACGTATTTAATTTATCGCTGCTACCTCAACTTGGC
1 AACGCATGACAAAATGGCACCCCACATATCCCCCCGCATC
1 CACCACCCAAACGGTAAAGACGCCGCCCCACACTGTTAAC
1 TCCGGAACACCTGTTCCGCGTCCGAGTGAACTCACACAAA
1 CGATGGATTGCACAAGGCAGGCCCTTGAACAATTTAAGGC
1 GGAGGGTATATCCGCTGTTTGGCCGCACTCACTCTTATCG
1 ACACTTTTTTTGAGTATATCCTTTTCTGCAGGCCAGTCTG
1 AGCACCTCCGCGCCACCTTAGGTTATTTGGCTCAAAGTAG
1 CTTACCCTGAATAGTAACTACTCGCGAAATAGTGGATGGT
1 TCCCGACAAGGGCTCTGTTTATGGGGAATTGTTAAGAGTG
0.009169231272861263 TCCGGTCCTTAACCGTATCTCTGTCGCGGAGCAGTACGGG
1 AGGAAGCAATAACCACATTTCACCGGGTCTAATCGGACTG
0.608059389719272 TATTTGGAATATGACGTCCGGTTGTTATCGGTAGATGAGT
1 CGATCCCAGGAAGTTGATTCTGTTGTGCTGACATAGAGAG
1 TCCGCAGTGATACAACACGCTCTTTTGCGTACTGTTCGTA
1 ATCGAAGGCGACATGTGCGACGTGCCGCCTTGGACTGACT
1 ATATGCTCCGTCCGACATGGACTGAGAACGCGTCGTGTCG
1 CAATGCCAGAAGCAATTAGTATGGGGCTAGTCACATCCGG
1 CGCCGGATACTCTTATCGACATTTCCCGCTCCAACCTCCC
1 ATATTACTACTGTCTCGCACACGATGACGCATCCGATAGC
1 TCCGGTATGTGACAAGCCTCCGTGCCTGTAACTCTGCTAG
1 ATTTAGAAGGGCTTAAGCATCCGCCTGGCTGAGATGGCGC
1 TAGGTAGTGCCTTATTGCCCCACTCAATGAAGTTTGGAAA
1 GTCGCCCACCCTTAACATCCGATTAAGAGGCTACCCCGAC
1 TTCCTGCCCCCGGAGGTTCAGACCCACTACCGGCCCAGGT
0.412332637142505 TCCGGTAGCCACACTTCACGTCATTAACTTGCGCCTTAGT
1 CGTCATTGCCCCCACTGCGTCCTGATTACGAAACGCTGCG
1 GCCGACTGGATCCTTAATAGTCAATACTTTTTCGTTTTGA
0.4511094567604167 TCCGGTCTGTTCTCACCTTCGCCATGGGCACATTCAATGC
1 TAGTGAAGAAGAATCGAACGCATTAACTTAGCTACGGTCC
1 ATACCGTCTGTTCCGGCCCGGGGGACACCCCACGGGTTGA
1 TAAACCCAACCACGCCTCGCATCAAGGTACCCACAGCGAA
1 TCCGGAGTAGGCTCAGTCGGACTTACACACGTCTGCGATA
1 TTTCCGGAGCCCCGCGACCTGTATGAACATGATTAACACT
1 AGTCTACCTAGTACCCTGGTTACCTCCTCCTCGTAAAGTA
1 CCGGAAATCCTGGAGCGTCAACACCGGCGCCGAGTTCACA
1 TCGCCCATCAGGTAGCACCTGCGTCTGAGCGCTAACTGTT
1 TAGTGTGCGGAAGGCGTGCTGTTCTTCGGCCTTGCGATGC
0.9141901497297846 CATAATCCGAATACTGCATCCGTTCTAGTGCTAACGTCGA
1 CTTACACTCAATTCGTCTTGTACAAACTTTGTCGCGGCAA
1 CTGTTTTGAGGCTGAGGGCAACCTTAGTTTTTTACAGCAT
1 ATCCAGTGTTTGACGTAATGACTGGCGCAAAGGCCTGCCT
1 TCCGCCTCAACCGGTTCGCGCGAAGTATTACTGCGTTACT
1 TCTAAAGGAGTTTTCTACCTGCTCTCCCGTAGAGACTTGG
1 CCGGATGACATTATCTGTTCCTGACAATTGTTGGCAGAGT
1 CGCTCCTATGAACGTGGATTCGAAAACAGCTGTACAAACT
1 TCCGGACCGGCAGCACGCCTGTCGAAATTCAGGTGGGCAT
1 CCCACGCAACTATAACTTGACACATTCGGGCATTCCGATT
1 ACGCGACTCCCTACTCGCTGACCTCCACACCCGCGCCAAT
1 CTCGCTGTCAATGGGTGTTATAATGACTGGCTCGATATGA
1 AGATTGCGCGTAGAAGTAGCTTTGTATTACAGGTAGTAAC
1 TTTCCGGAGTAGATTGCTACCGGCCTGTGGTCGCGCGTAG
1 AAAATGTTGGCGTCTTTGCAATTACTCCACGTAATCCGAT
1 CTTCCGCCTACCCCCGCGTATACGCGAGCAACGGTTCATT
1 TTTCCGCTCCCCGCTACCCTGGACCCTTTCCCACACAGGA
1 TCCGGTGGACCGGTGTCTAAAGGAGGGTAACCACCCCTGG
1 TTAAACTGCCTCTTTACATTTTGTGTGGCTTGCTGGTTCT
0.08195288150831867 ACCGGAACTGGGTTTCCTAGCGGCCTGTCGCGCTGCTTCC
1 TTGCGGAACCCGCCCAATTCTTCGATTCTAAACCGCGTGT
1 ATCTGCGCAATATCTTACTGTATCTCAGTCCTACACCATG
1 TCCGGTCAGTCGCCTTCCCTTATTTTTGCCACGTCTGCCA
0.7849898739513258 ATGGTTAACATCCGTTTTTCCAACGCCAATCCTCATATCG
0.9274121751781889 TGGTTAGTTTCCTCACGACCCTATTCACTTCCTGCGGGGC
1 AACTGAGTAGACAATAAGCTCGGAACCCCCAATCTACCAT
0.2547116736931964 TCCGGTCCACACTTTATCGTCTTCGACTAGTATGGACATT
0.06797859833799183 TCCGGTCCGGGTCTCACTAACCTTCCATTCTGGTGCTCCC
1 CTGACCGAAAACTCGTGTTGTCCGGTCCCTTGGCCTGCTT
1 TACCAGACATCCCAGGTCCGCCTAGGATACCAATTGGCTC
0.2920306769881437 TCCGGTCAGCCCCCACACCCGCTCGTAGCCGACCGCAAAG
1 CTGCTCCCGTGATATCAGGCCCTAGTAGCATCTTTAGTTT
1 GTACTTCTAACAACCACCTCGCGACTTACTTCCTCACACG
1 TGTTATTGTTGTACGAAGACGGTGAAGTGAAGTGTAACGC
0.2548181490037498 ACGCCATAAGGCACTTTTCCGGTCCAGCCGCGCCAATCAG
1 TGAGTTAAGCAGCGCTTCCTCTTTACTGCATCGTTATTCG
1 TTAATAACAGAAGTAATCGAAGGCCAAGTCGCTGAAGGGC
1 TTTTGCTTAAGGTCATCGCCCCTTGATTGTAAGGTGCTCC
1 GCGTGCGCGCACTAAACTCGGATCGCACCTTACACCGCCG
1 TCCGGTCGTCTCGGGAGAATTAGATATCTGTGTACAACCG
1 AGCCAGTAACACAGTGCTGCCTCCCCTATGAACACCCCGT
1 CCAGCTCTGCTAAACTAAAGGCGTACCCTACTCAGGCTAT
1 CCCGATTATCGATAAGCCTGATTGCAAAAGATTCCATAAG
1 ACGTTTGAGCGATATTTCGCAGTGAGGCGTCGAGATGGTG
1 CCCCCCTGCACATGCTGCTCCCCTGTGTACCACGCACCGA
1 TCCCTCTTTCCTGGCAACATCCATCCTTTCACTCCCGAAC
1 CTTCCGTTTTCGTCCCGCTGACCCTGAGGGAATTGCAAAG
1 ACACGGATATCCGCCCCGGCGGCGATGCGGGATCCCCGTA
1 AGTTACGCTTTGAGCGCGATATAAATTGCAAGCCGACTCC
1 ATCCCACACATCTCCCGGAAGGCACTCCTGTTCTTTTCCC
1 CGACACAACCGTTCCGTTTCCCACTAGTTTGATAGCCCGC
0.7725873803247008 GTCCACCTTACAACAAACCGGACACAGCGGGGAAATACCG
1 ATCCGAGTCGTGTATGCAAGTGCCCGAGAGACACCAAGGC
1 CTCCAGTGGTGATCCTCCCTCGTAATCTCGGAAACCCGCG
1 CTACCGTCGATTGTGAAAGGCCCGTAAATAAATCGGCGCG
1 TATCCGCTCTCTCGCTCGGTCACTGCTCCGATACGTCCAA
1 CTTGCGCAGGGAAATGGCGGTGTATTACGTGGACTTAGTA
1 TTCGGATATCCTTTCCTTTTGGCTTGCCTCACGAGTAACT
1 TTCTGGGCACTACGTTAGGATGTAACTTTTCGAAATGGGT
1 TCCGTGTCTAAGGCGACGCTGCTTCCTTGCAGGTGCGATA
1 AAATTCCTGTTGAATCACATGATCTGCTTTCTTTGTGGAT
1 TTACATCTGGTAGCCCTACGTTTCTACGTGTTCTGCTATC
0.1020409837776967 ACCGGAAGCGACCCACCCTTTCCCAAAAATTGTTTTACCA
1 ACCTCAGCAACATCCCATGCGAACACACCGTCAAACCGGG
1 TCCGGAACGTGGGCTACCGACGTGGTCGCACGGCCTATGC
1 GAATACTCATCTGACTCCTGTCTCTCTACTGTTCCCCAAT
1 ACCGGAAAATGATAATACGCATTCAAAAGTCTCAGTCGCC
1 CGTACTATATACCCGTCTAGGAATAACACCAGCTGCAATC
1 ACGTACCCTGGGATACAGCCTTAGCCATAGCGGGATAATT
1 GTTCAACGCCACTCCGCGCCCCTCCTGTCCCTAGTTCTTT
1 ACGGAAGTGGTAGGTTTCTATGCTTTGCTGGGTTCCCATG
1 AGGGCTTTCTAAGCAGAGAAAAGAGTTATGGTATTTACTG
1 TACCATGAGGCGGATCTCACGTAAACGAGTGGCTCAGCTC
1 AACCGGAACTCGCATCCTACCGAATCGCAGATCGAGCCGC
1 CGATATCTGTAACTTGCGGGGCGACGAACATCGCCTTCTG
1 CATACATAATCCACGCCCACAACGTGACATGTGCGTCCCC
1 TCATTTTTGCTCATTATTTCCGCATTATCTCCTTTTGTTG
1 TCAACGTTCAACCTTGTAACCTCGACAGACAATATGTAGT
0.3268375994294602 TCACCTCTCAGGTTCCGGCGATGATCCAACATAGCTTAAA
1 GCCAGCACCGCCCGTCATACGCGCTATAAGCCTCGGAACG
1 CCCACCATCCCATCACGAGTTTCCACCGGACATACGCTTA
1 TTTCCGATCTACGGACTCCCAATTTCATTGCCCATCCGTC
1 CACGAGCATCCGTCCTACGGTTTTTGGACGCAATTTTCGC
1 AAAGGGCGGGCACGTTTTCCTTGTGATTACATACTTTTGA
1 CTGCCCTCCCACCAGAATACCACGACACAATTGCAAATGT
0.9381679761862219 ACCAACCGGTACGATTCTTAAGATCCCATTTCCGTACATA
1 ACGCGAGGGGCAAAGAGAGCCAAGGAACGTTCTTATTGCC
1 CGAACTAATTCTTACTCCTGCTTCCATTTTATATGCTGTT
1 CCCCTACGGCATACTATCAGTTCCCTCATGTCATTGTACC
1 CGCAATTCGCTTACGTCAATTTCGTTTTCCTTCCTCCGTT
1 CCCCGCCAGCTACGTACTAGCAAAGCTTAATCCCAAACGT
1 TCGGTGATCGATAATCTACACGTACGCACGTGTGGTGCTC
1 TTTCCGCTCCCGACTACCACTCATTCTGACTGCTTAAGTG
0.3867243696827384 TAACTAAGGCGGACTTCCGCGTTTAGCTCTACTTATACCA
1 CCCGGAACTTGAGGCTTATTTACCTGAGTCACGCGTCAGA
1 AGATGAGATGTTATTGAAGCAATGCCTCGAGCAGAGTGCC
1 TAAATGTATTGGCTGAAAGGAAGGTTCTATGTAGTTTTCG
1 TCCGGTGGCATAAAGCTAAGAAATATCGGACGCTCGTTCG
1 TCTGTTGGACCTCCTGCGTTGAACTGTTACGTATGTGTTT
1 CCACATCCAAACGAGACCGCCCCCCTACCGCACGAAGAGC
1 AGGTAGATGATAACCAGAGATTGCTCCCGCTTTAATCATG
0.2388342323329906 TTTCCGGTGTGCTAACCCGTTTATGGTTTCTGGCTTTATC
1 CAAGCGCATGCGAACGATAGTCGCGTGGACACGTCCGGCT
1 AACCCTGGCATGTTTTCACAACTAGTGATTTCTACGCCGA
1 GGCCAACTTCCCGCGAACCATACGCGAAGTTCGATCCGTA
1 GTGGCGGAGCATTGGGTGCTCTGAGAATGGCCTATGCATT
1 CGTCGCATCCGTCCCGCACTTGACATCAGCCAGCTTGACT
1 TGCCTCCGGAAAGGGGTTGGCATTAACGTGATTATCAGTG
1 CACTCCCACGCATCACCTCACGTTTCCACGCAACGCCACC
1 CTTCCGCCATTTGATATAGTAGTACCCCCCTGACTACCGC
1 ACCGGTTTGCACACTTGAACCACCCCACGCCAGGGCCCCA
1 CCGGGAACTGGTTGGTAGAAACACTACCGGTGTCTGGCCC
1 CCCGCTACTTATCGTAAAAATGTCGATATCGCCAACTGCG
0.6535556492054868 AGGCAAATGGGGCCCCACTTCCTGCTCACCGTCTCTCTAT
1 CCCACTTTCCGACATGACGTCACCCGCAGCCCCCCTCGCC
1 GCATAGCATAGCTATATCTTTGTGAATAGTCGAAATATTC
0.6977536848512663 TATTCATCCGGTTGTTGCACTCCGTAGCCCTGTTGGCTTT
1 CATGCTGTTCACACTGGCCTCTGAGGTAGGTTCTGTTAGC
1 CGCGCGTAAAAGTGGCGGAATTCCATTACAGCATACGTGA
1 CTCGATCCATCTAACTGCCGGTGTTACACGTAAGTCTATC
0.1846456184021974 CTTTGCCTCTTCCGCTCCCCGGCCCGGACAAATGCCTAAT
1 CTTCCGGCTAAAACCGCCCCGATTCCCGGTCACCAAGATG
1 GCAACCGGACACAACTAACTACCCACCGCACACGACTGTC
1 CACCGTCCATCATCCCTCAGCGGGAACCCTCCCATTGGCT
1 TGCTCGCAACTACAATGGAACGCACAAAACGCCCTGCACC
1 TCGCTACTGACACTGAGTGCGCCGAAAGAAGTATTGGTAC
1 TCCGGCGATGGCTCAGGATCTCAGTAGCCGGCATGCCCGC
1 CTCTACCAGCGCCAACGAGGGCGCCGCGAGGGACACTGGC
1 TAGATCACTCCCTCAATAAACCACCCACACCACCCGAACA
1 TCCGATGTACCTAATGCTTCTCGTTCCGCGGCACAACACT
1 GAGTCCCGGCGACCTTCTAGCAACGTCTTTTCGTTACTGT
1 ATTTAAGTACCTATCTCCAACGGTGCAATAGGTATTAGGT
1 TCCCACGCGTGGCGCGATGACGAATCCCCTAACACGCTGA
0.5983133511772907 ACTCTCGCACACCGGACATCAATGGTTGGTACTCTTGCCG
1 TGCGGCTGACCGTCGACGTGGGCCATCCGCTATACCGTCC
1 TCGGAACCATTCCCCCGTACACGCCGGGAAAAAGTGCTAT
1 ACCCTTCGAAGGTCCCGCCCCGCCACGCCAGCCAGCCAAG
0.4166429937527596 CGAGATTTGTTAGTGTTCGCATCCGCCTGCGTGACTGGCG
0.1164634625674046 CTTCCGCTTTGCCAACAGTGGCCCTTCATCCGCCCTTGCG
1 TACTGCTGTAATACTGCGTATCAACTATTATGTGTGGATC
0.08251810649444501 CGCCACAGCCACCCTACTTCCTCTTCCATCCGCCAATCTA
1 CTCCTGTTGGCAAGACGTAGCGGCAAATATAATTTCCGCC
1 CACGCCTAGAATATGACGGTAACTGGACGACTTTGATGGT
1 TTTGGTATTTGCATTGCATCTGATCTGCATCTGACATGCT
1 TCCGGCACGTGCCCGCTACGTGGTACGAGGGATACGCCAC
1 TCCGCCTGTACGACTTCGCTTTCTTCCCACCCGTGCTTTA
1 CGCAAAGCCTTTGAAAGATATCGTTCGTGATATCATCACA
1 ACTAATCTCTGAAAATTTGCTGCCCCGTCGTGTTGTCGTC
1 CCCAGCGAAACCGCTCAAGGGGAACTTGGCATGATTACAT
1 ACAGAGAGCCCTTGGCGGCACGTACATGTCCGTCATGACA
1 TAACCTCCGGGGTCACGCCGACACCGTAAGTATTATTGAG
1 TATTCGGGACCAGTTAGAACTACGCGTCGTCCCGCAGCAG
1 GCGGAAGTGTACGCGGTGGAAGTCCTAACATCCCTTGGGC
1 TAATAGAAGCGCTCGCAACCTGCGCTACAAGTAATTTAGG
1 CTTCCGTTGTGCTTACATTCCCTTCATCAACTTATTCACT
1 CGATAAGGCGATGTTAGGACTGAAAGCTATAATAGATTAG
1 CGTGGCACCAGCGAACCCTAGAACCCAGCTCCCACCGCCC
1 AACGGTCCAGACGTGTAACCCTTCTGAACAAAACACAACA
1 TGACACTCGCTGCTATTACCAGTCGACGGTCCTTATTCGT
1 GTCATGATGGACCGTAACCCATGGTGCCGGTTCAATGACA
1 ACAATCAATCTACAGCGTGTCGAAGCCGGTGGTGCTAGTA
1 TCGGGGCTTGGTCCCCGTGTGGAGCTCCAGCGGGTTAGAG
0.7880720380575095 TCCGTTGCCGTAAGTACGCAAAGTTCATCTAGCCCTACTG
1 TACCTAGCCGTGCACAACCGCGAAAGAAATAACAATCCGA
0.58344573777118 AGCTCATATCCGGCTAACCACTCGCACCATGGCTTCGGCT
1 CTTCCGGCATCCCTGGAACAGCAAGAGGAACACTCGTGTA
0.8533278184896208 TCCGGTTACGTGCAGATAGTGGAGAAAGGTCATGGTGCGG
1 TATAGGTTATCAACGTATCTGCCACGATGGAACGTAGAAA
1 GCCGACCTTAATGTCCTCTTTCAGTCTTCTCAACAGCTCG
1 CGCTTCGAGCGTCCACATATATCTCGCCTGCCATCCCAAT
1 TCCGTATAGATTAACCCGAATCCGATTTCACCAAACTTCT
0.4834620082146718 CGGAAATCGCCATTGGTAATTTACGCTTCCTTCCCAACAG
1 AGCGACGGTGCTGTGGCCGGATCGACGTCTGTTCAGTGGC
1 TCCAGCTGGGTTCTAAGCGGGATGCAGCTTTGTGGAAGGG
1 ATTTCCGTTGCCATGCAGAGACTACGCGCGTAGCCACGTT
1 TGGCGCTAATGCATGGCTAAGCCGGTTGAAGCCGCAACAT
1 CCGCCACTCTCTCAGATGAGACGTCGCTTTCCTGCGTAGC
1 CGAAGATGTTCCCTGAGGCAGTAACTTAGATACCTAGGTT
1 CGCGTGTCGCTGCTTACACTAGGCGAAAAGAAAGCAAAAC
1 CAGTACCCGAGTCTTTCCTTACAAGGCTAAACTGCGGCAC
1 TGCGACACTGAATTGTTGATGTAAACCCGGATCGTGGCTA
1 TCAGCACCTCTACCCTACCGCTGATAACGACAAAAATATG
1 CCTTTATATTGCTTTCTGCCGGGCCCTTGTACATGGCGCA
1 TCCGGCCCTATACATGCCCAGCTTCATACAAGCCGTTCGG
1 TTCGTCGCCTTGTTGTGCCTACACGGACCTCAATGCCGAG
1 AGCAGATAGTACGATATTTCGACCCTATACCAGGTCATAT
1 TCCGGAGTGTCGATGCATCTGCCCGCCATATGTCCGCCAA
1 TGTGCCGCGTACGAACCCGTTTTTTACAGGCACCACTTTT
1 GCTTCCTGTCTTGACCTGCATAACCGAACGGCGTCCGCTC
1 TCCCGGAAATATGATTTACCGGCTATACCTGGATAGTAGT
1 GGGTTTTTAATAGATGGTAGCGAAAACCCATAGAGTGTGT
0.062162231790225 CTTCCGGCCAGGCATGCGCCCCCCGTGACGCGTGTTTCTG
1 TAAAGTCCTTCCTGCCACTNCTCTTATGGCCTTATATACT
1 TAGTTCTGGCCATCGTGATTACTGCCGAGCCGGTGAGGAT
1 TTGTGCTCTAGACTAGATTTGCTACATTTCGTCAAGCCCA
1 CTTCCGGCCACCCTCCATTATCATTGCCCTTCTCACGTTC
1 TCCGGTCTCCGTACACGCCTTCACTTGTGCGTCGTTGCGG
1 CGGGGCGGAACCCCTCGCGTCCGAGGGGTAGAATAGTACA
1 TCCTAGAACTGTAATAACCGTCTATGCTATACAGCCACGC
1 CATACATGGCACTTGTGGAACCCACGACACCCCACCCCTC
1 ATCACACACCCACACATATACTTTCCTTGCACACAGACCT
1 ATCAAAATTACGAAGATATTCCATTCTATGAGCTTCATTA
1 AAATGTCACGACTTGACAGCCCCACGCCTACATGGTATTG
1 ATGCTATTTAGGTTCACTGACATAATATCCTTCGACGCCC
1 CTGATGGGTGTGTGGATAGTGGATGCAACTTTCGTTGGCC
1 GTTTACTTCCCTGAATCACCCCCACTCAGCCAACATACGA
1 CCCCTCCGCCAACGATGACATCCCGAATGCAATGACGGTT
1 GATCTTACACTATAGATCTTTACCCTTTTTAGTTTCCTTC
1 TCTCTAACTACCTGCCGAGTACCTCCTTCCCGTTTTGGCT
1 CTTGTGCATATGCATAACCACACGATTCACCTCTAGTACA
1 CACAAGTACTGATGATAAGAATGGGTCCGGAAGATACGGA
1 AAGTCATATATCTAATGCCTGTGTTAAGGTGGGTATACCA
1 TTTCCGTCCACGGCATATCACTCAGGGGCATTAACGCGCT
1 CGATGATACGCGCGTACAAGGCGAAGGGGTGCTCATGCGA
1 TTAATGTAGTTGTGTAACCGACTCACTAATTTATGGTATC
1 CAGGAAACTGTAAGCACGCTGCCGGTTACCATGATCCTGA
0.2074817222187038 TCCGGTCAGACATCGACAACAAAAGCCGAAAGCAGTGGGA
1 GATCCAACCTAGCCCTACCTCCCCACCAGCGCCGTGAGGC
1 CTTCCTATCCTTCAAATTGTCGCTCAGCTGCCTCTTTTCT
1 CTGAACCGTAGTCCCCCTTATTCGTTAGCGCCGAGTTTGA
0.723334803595661 CTTCCGTTAGAAGGAGTCCTACGGATACACGACGTTTCAT
1 GATGCAGACTCGACAAACTGAAACCCCGGTAACAAAAGAC
1 GCCGGAAACTTCTCGAGGATAGAGGTAACCTCCGACTCGG
1 TTGTCCTCTTTTACTTTTGAGCGTATCGTTGTTGTATCAA
1 TTGTAATAACCACCCAGCCCCACCGCTATCCCAGACCCTC
1 CAGCGTCCACCCCCACACAGAACCAGCAAAACAACTGCAT
1 TAGCACGTGCAATTCTGTTCACACAGCAAAACTTTCCGGT
1 TCCGGTCGGTGCGCTAAGCTCGTTAACAGGTCTTTACTGA
1 CCGGAAGCGTTTTTGACCCCGCTGTGTGCGTATGCCGTCA
1 ATTACTTCCCCATCAGCTAACTCTAGCGTGATACCAGCCG
1 TTTCCGGATTCAGTCTCACGCGACTTCGTAGCGTGCCAAC
0.6989324410674216 GCACAATAGATTGCCATCCGGTTGAGCAAGTGTGAGCGCC
1 TTCCTGTTTCACCGGCGGGCCGCGAACGTCGAGCTGTAGA
1 TCCGACTACACTTCGAAGCTGGGTGGCCTGTCCGGCTCCA
1 TCCTTGTACTAGAGACGCTTCCTGATTCGATGGGAACCGC
1 CCCGGATGTGATGCTAATGCCCAGTACGCCGTCCCCTAAC
1 AGCATCATTTCCTGACCGGGATTCCTAGAGTGTTGGATAC
1 TCCTGAAAGGCTATTTACCAGTACTTAACCCTACTATGGG
1 TCTCACGCGTGCCGTCTTTGCATATTAATTCAGCTTACCG
1 CGTATCAGCGTGAATGTACTGAGGACACCAGATCACAATG
1 TGTCCATAACATCTAAGCTCCCACCCCACGCGATCATCTC
1 GGAGACAGTCGATAGCACGATGGATCGAGAATCAATGTCA
1 TTAACAGCATGTCTGGGAGTTGCGACCCGTGACTAGTTGT
1 TCCGTTGGTCTTGCCCTTTTATGCTTGAATATCTGATCAC
0.5167797960874965 CACGTCCCCCGTCGGCCCCCGACCGGATGATACCCTTCCA
0.8387963619069754 TCCGGTGTCCACTCTGACCTCCTTTGCGGGAAAGTCAAGT
1 CCGGAACTGCCGAGTGAACTGGAGAGTTATTGCACGGAGC
1 GCGCAAAATACTGCCCGAAGTCGGACTCCTCGTGCCGTGG
1 CGCGGCGGAACTACTGACTTATAACATCACATTACCCTGG
1 TTTCCGTTCTGGTAAAGTACACCGACAACAGATAATAGTT
1 CATTCAGATCATACCATTATTGCGACGGTTCCCTTACGTT
1 GCTATGGCAGCACCTCAGTCGAATCCGGTTTGCTCGCATT
1 GGGAGAGATGTGGTTTCCTCGTAAATGCTGGTTAATACGC
1 GGGTCTTTTGCTCTAGACGCTTTGTTGATCATACTATTGC
1 TCCTGTCCAATGTGCGATACCACGGTCTACGTGCCGTACC
1 AATATTCCCACGCGTACCGCGAAGTCCGTCGACCGGGAAA
1 CTTCCGGGACAGTGTGCGTAACCACTCTACACAGTGGCCA
0.9748884932175665 TCCGGTCGGCGGGACACGTATCCTTTTCTCTGAATCGCAC
1 TCCGGTTTAGAACAGCACTCACGCGCCTTGCGTCTACCGC
1 TACTACACCCAGGATGTGCCACAAGGGTCAACGCCAAGCT
1 AGTGGCAAGGAGGAGGAGCAACCCCCACCATCCTCCAGAG
0.5334690785105024 TCGTAAGTAGACTTCCGAACTCAAAGAGGCAACACGAGGC
0.928917042106741 TCCGGCATGCCACCCGAAATAGACGACAACCACACCGTGC
1 GCCGATTCAGGCTAGCCAAATGCCTCGTCTAACTGTATAA
1 AGAAAGACACAGCGCTGAGCAGTGTTACCTAACAAACCGA
1 CATATCTCTTGTCGAGTGTTCTGGTAACTCGTTGGATCCC
1 CTTTTAATCCGGTTGCTCACCACCCGCCACCGACGCTCTC
1 CGCCGGAACTACCATAGCACACTAATCACCCTAAAACGAT
1 ACCGGGTTCATATCATCCCGTGACTGACCCTTCATGCAAC
0.2749081012795376 GCCAATCGACTTCCGCCAATGAATTGCAGATTAGTGACCT
1 CACACCTACACCGCTGCCGAATTTCCAATAATGCGCCAAA
1 AATCGGCTCCTGCACCGCTATAGCGGCGATGATGCGCGTG
1 CTTCCGGAGCTGGTTCGCCGTGTCGCCTGGCGCCGACACC
0.8742247537239858 CGCATATCCGCACCCACATTAGGCCGATGCCACACTCAGT
1 TGAGCCTACGTCTATTTAGACAAACTCCCAATTTTCGTTG
0.7635598667379188 AGCCGGAAACTCCCCTTTTGAAGGTTGAAGAGTGGCATTA
0.5604550913862634 TCCGGTCGCGCACACATCGACCTACGGCCACCACAACGCG
1 ACCCCCCTTACCCAGCATACACGTCAATGCGCCTCGCCCA
1 CCCCCGGCAGGTACGTTGGCCAACCGCACCGTCAACCACC
1 CCCAGCAACGGCCCGCGGACGGCACTACCCCCCGGGCGGA
0.1698307785129208 TTAGCGGATGTATGCAATTCTACGTACTACGCGGTACCGT
1 ACTTAATTAGGTAACGTAACAACCCTTATCCCAGGCTGAT
0.4737963099306224 AATACTGCATTTGTGACGTGAAGTATCCGGATGATGAGAG
1 ATACGATAGTGAAAGGATCATCCGAGACCTACTCACCCCG
1 TCGTTAACAATACCTCATCGAGCCAGCATCCGCCCGGTCT
0.7671091148892385 TCCATAACGAAAACAGGGTTTCCGTTACCCGCGACGCCCA
1 AAGGTCGGAGACTTGTGCTGGCCTTATCGTTTCCGTCCGA
1 TCCTGTCGCCCGTACGAACCGTAGATCCATATCCACGCCT
1 ATACTTCCCGGAAAGTCGACTCATGTTCTTACGTTGAGTC
1 TGTAACGATGTTGTGATTTTGTTGTTGACAAAAAGGCAGA
1 TCGTTCACCGCATTCAGGCTTGATGGGTGGCAAATCTGAA
1 CCGCCCCATCCGGAGGGCCCAATGCTTGCCTAATGCCCTA
1 ACTTCACGACTCCGGACGCATAACAGTCGGGGCAACATCT
1 TATCCCGGGCTGAATGTTGGGCAAACTTTGATCGGTACGG
1 AGGACTATCAGGCAATCTGCGTGTTTTTCGACTTTCCTCA
1 GCCGAGATGCAATCTGTCACCGATTGACGAGCTGACAACA
1 TTTCCGCTCTCCGTCTGTACGTGTGTCTCGTCCAGGAGAG
0.57079377768245 GGACAGGAAATTCAAAGATACCACGCCAAAACTCCACGAC
1 TCTAGTTCGTTTCGATACCACGGTATCACGTTCTTCTCTC
1 TCCGGTGTCGGGACTTCAGCACAGAAGCATGACCATAGCG
1 AGCCTGCCCACCGATCATCCAGTTCCCCACCTCTACCCTT
1 TACAACCAACTGACGCCCGTGTTACGCTCAGAGTACAGTA
0.2520895830060131 TACTTGTTTCCTGTGTCATCTCCTGTGATTCTCGCATATA
1 AACCAGCACCCCATCTAACCCTCACAAAAATAGATCCAGA
1 ACACACGTGTAGGCGACATCAGCGCATGGGTCAACTGGCA
1 GATTCGCAACCCCAGCAACGGAGCACACATCGCGCCAGAT
1 CTTTGATGGGTCTTGTCACTCTGGTCCTAAGGGGAGACTG
0.08721164009139923 GACCGGAAACGCTTGCGATAGCGAGAGATCCTCCCGATTG
1 CTTTCTACGGATTTTGTTAACGCATGTTCGTCCCCTAATT
1 ACGTATTTGCCTCACGTGCGCCGGGATATTTTGTTAAGAA
1 TCGGAAGGAAACTGATGCACCCATCCTAATTCTTCTACAA
0.8997245544200664 ACGACGGATGCGACGTTGCATTGATGCAACATGCCTCAGT
1 GCTAGAGACTACTGTGCCGCACCGCATTAGTGCAAGAAGC
1 CAACACTCAACACACTCAATACTCCTCCGTAGCTTATGGC
1 ACTGAGTTCCGTTTACGTTATTCATCGCACCAATCTAACT
1 CTGTATTACGAGTCAAGCGTCCTGTCTGGCAACAACCCTT
1 CAGACGTGTCCAATACTTGGCACGCTTTAGTCCTATGGTT
1 TCGGACTGATGGGTTCCATTCCCCCGGTATGCGCGATGCT
1 TCCTGTTTTAGTTTCCGAAGTTTGTTATTAACCTGTTCAT
1 AACGCTACAGTCTTCCACACGCTGGTGCCCCCATACGACT
1 AACAATGAGATATATGTTTATGTCTGGCTGTGGGCAGGGC
1 TCGCGCGTGGCTGTGATGGGAGATTACCAGAGGGCAGGGC
1 GTCGCGCTGGGAACAGCGAAATCCAGCACGAATGAGAGAC
1 ACCCGCGCTCTGGCTAGTCTGAATGAAGGAAACGAGTTAG
1 CGGATATACGTCTCACTCAAAAGGCGTTACATGACCGTGA
1 GACCGGATGCCTCATCGTCACATGGTTCCTAAGCATCCCT
1 TCCGGCCTAGCACGAACGGGGCCTACATGCTGCTGAGTCA
1 GCAACGGGTCAGCGGGACTACGTAATGCACTTAGCGATCC
1 GTTACTGCATCTTATCCCCCTGTAACTTACCTCTTTATTT
1 TACTATCTTCCGCTAGGGATAATGTGGGTCACGAGGATCG
1 TCCGGAGCTGCTAGTTTCAAAACTGGGTAATCGCGCATTC
1 ATTGATGTCTGTAGTATCACCCCGGTTACCATTTCTTGCA
1 CTTCCGCTCCTTTTTAAGCTTCTTGTAAAGCGTTAGAACC
1 GATCTGTGATGCAGTAGGAAAAGCTCCGCATAACGAACCG
1 TCAGCAACCATGGCCCCCTGTCGACACCAGCCGACGTCCC
0.3792219840396767 CTTCCTGTATGGAAGAGGTGCGTCCATTTCTAATGAGAGT
1 CAGCGCGAGGCCTAGACACCTAACAACATTGCATACACAT
1 TTGTCCTATTGTGAGTTTTAACGCTTGATTAAGGAAGCAG
1 GTACATCCTGTTTCACACTTACATCTTTTGTTCTGATGTC
1 CTTAAATCCGGTATAACCACCCACCGATAAATATAACACT
1 AATTGATCAGTTTTTTCACTCTTTGTATTCTCCTTTATGC
1 TTGAGGTCGTAGCGTGAAGCGTACGCTGCGATCCGAGCGC
1 TTCAGAATCGGACACGTCGTTGTCTTAACTTGGCCTTTCT
1 GTGACGTGACTTTCACGGTAACTCCCCTAAAAGAGGCTGC
1 CTCCCAACAAATTCGAGCAGGTTTCTATCGATAATGAAAG
1 CCGGAAACCGTGTCCCCATACACGATCCTACAGCCGTTAC
1 CTTGGCAACATGAACGCTCCGGTAGTCCGGCGCACCTCAA
1 TCCGGTAAACTGCGGAAAGCTCTGAAGCGACTTGATGCCG
0.7726281763408547 TCCGGTTAGCGGTCGTTCTTAGTGAAACTGATCTTAGACA
1 ACTTCCTCTTCCGTAATTGATGCGTTACCTACCTAGAAAA
1 CGTCCGGCCAAGAAACCATTCCCAAGATCCGCTTCGCGCA
1 TGCACACCCTCCTCTGTGATACAGAGAGAGTATATACTGT
1 TTTCCGGGATGACTAAAGTATCTTTCCGTGTTCCCGCCCG
1 TCCGCTTTCCGATTCTAACGGCCCATCCAAGTCACAGCAC
1 TGCATTCGCTTGACAAGTTCCGCCAAAACTCCAGACCGGC
1 TACAAGGACACTAGCGATGGCCATACCTAGGTCACCGGAC
1 ACCGCCTTACTCCCAATGCGCTAAAGTGGCGGACAGGCCT
1 CATCATGACCGCCCTATGGGCCCCGTCCTCCTGAACCACC
1 GTGCAAGTAACACTGACACAGTTACGAATCGGGGAAGCTA
1 GAATCAGCTCACATTATGGGAGAGGTCGCGGCTGGGATGA
1 TCTCGCAGGCCATCATGATCCTCTCACACCTCACTCTAAC
1 AGCACACGTTCGCGCAGTGGGATAAGCCATCGCACCAGCA
1 ATCGCAGCGGAACTCGTCGTTGACATTCACGTGAATACGA
1 TTTCCGGAGCGGCAGAGCATCGCATAAGATATAGTGTGAT
1 TCCGGAGCGTTGCCCTCGCGCGATATCATGAGACACCCTC
1 TGCCGGATGCTCCTCACGCTGTGCTTAAGCTATCCTATTC
1 CTGCATTAACCTTGCTCGGCCTTCGGACACCGATTATCAT
1 ACTGTTCCTTATCTTTAGATTGGTTTATATAATCTCCTGT
0.4975960466522756 TGAAGGTCCTACTCGCCGGAAAAGTAAAACGATAGGTGCA
1 TCATGGTATTACCATGAGCCTATATAATTCGTTGGGTGTA
1 ATGCGAGGTGTCTGTGATGGAGACACCCATGCACACATAG
1 TGTCCTGCCCTCAACCTCCCGGGCCCCCTGCATTCCCCCG
1 CTTTGTCGCGCTTGACTTACGTTGCATAGATATGAATATG
1 CGTAAAACACTTCCTAGGGGATCCCCAGACCAGGCCCCGA
1 GTGTTGGGCGTTCTGTTGGAGTGAATGCGATGTATTTTAG
1 TAATAGGTGTGGCTAGCTGAGGCGCCGTGCTGATCGGGAC
1 TTAGTTTAGATACCAATGCTTTCCGCCAGTTTCGTGCCTT
0.9096140778276907 CTGTTTCCGCCCTAGGGATCTTTCCCTTTCTCGACTTCAA
1 CCTTACCCATGACTCCCCGGCAACACCATAACACTCGCGA
1 GAACGGAACAGGCAGAAAACAAAGCAGATAACTATGGCAA
1 GGGCGCAACCGCACGCACGCTAAGGTATCGGATGGATTTT
1 GCCCGCTGTATGCAAGAGCACACGCGACTACGCAAGGTAA
1 GTGTTGAAGTTTCGGAGTCCTCTGCTGCATCCAACGTCAC
1 ACCGGAAGGAGCATTATAGGTGGACTTCAACCAATGCAAC
1 GGGGGCAGCCTATCCTGCCAAAGCACTACTGCGCTACTAC
1 GCACATTCATCCCTGGGTTAAGCGATATCTACTGCTAGCA
1 CATGTATATTCCTTACCGCCACTCTATCGTCAAAAAAACA
1 CTATCCCCAGGTCCCATCCTTGGTTAACCCCTCGACCCCT
1 CGGCTTCTTGTGCTATATGCGGTGTTGCCGCACCCTATGA
1 TCCGGCTTGCGTTTCGATTCCCAGAACTGGTCTAATCGTT
1 GCCACCTAATGGCTACGCCCTAGCCCCCAAGGGTACGCAA
1 GAATCATGTCAATAAGGGGCATCCGTCAATGTAGTGCAAG
1 CACGCACGAGTTAGTTAAGATGAACCGACAAGCACGCGTT
1 GCTCCCCCGACAACCGCTTATATCCCTGGCCTAATCGCTC
1 TTGTGTAGCAGATCGACGTTTATGTCAATCGACGTTGGAC
0.4768130332885579 GGCGTCCGCGGCGCACTGTCTCGGCAGTGCCTGCTTCCGG
1 TCCGGGCTATATTGCCGAGCTTACATTGTTCCCGCACGGA
1 TCCACTTACAACACCGAAGGTATTAGTCCATTACCAGGTT
1 GTTGAGCGTAAGTCAGTGTGCACTCCGCTCATGCTGACGT
0.1246612887845812 ATGCCAGGAAGAGTCGGAAGTTGGACTAGCCCGACCGAGA
1 TATGTATAGGGCCCGCGTCACCTAACGTTGAACTTCCAGT
1 TCCTGGGGAAGTACTCGAAGGAGAGATGACACAACGGTCA
1 CCTAGGCTTTCCGCTTTGCTCAACTTAGCGAATCCCCCAT
1 CCTAAGACGCAAAACGCCCCACCTTGCCAGCCAACAAAGC
1 ACCTTGCGGATATCCGTACGGCTACCCCCGTTCCCCCCTC
1 TGCTACTTCCTTTTCATTCTTTGGACACATATCCTTCTTA
1 ACCCTTAGCGGGCGCCGGCGGTATAGAGCATACCATTGAC
1 GTTACAGTCTTGGACCGCCGTGTCTATACGATCTCCGGCG
1 TCCGGCCGAGGCAATACGCCTATCCGCGCGAAATTGCATC
1 GCGTCAGACGTTGTCAAGGGATAGAGCGGGTACGTACTGC
1 TGTCTAACGTAGCTTGGGACACCGAACTGAATGGTCCCCC
1 TTTCTGGTGAGACGTAAGTCTTCGACATTCCGCCGTGCAG
1 CCATTGCATGCGAAAGCTACGGTAAGTTCACACTTGAAAC
1 TGGGTGGGTTCCGTATCTCCGATAGGCTTAATACTGGATT
1 AACTTCAAACTCCTTTTAGCACCTAGTTTAACCATGTTAC
0.0111658572331445 ATAGAGGCCTCACACCGGTGATACTTTATCCGGTTAGCGT
1 AACTTCACACTCCTAACGTTAATCCGTTCCTCGGATCTCT
1 AATTACGCTTTCTACATGTCGGATGCCAGTATTAATGCTT
0.1513125012394478 CTTCCGGGAGAGCAACACAGGCAACGTACGGAAGAGATGT
1 TCATAATTTCAGGCTTGTCCGTTTCTTTGGTCTAGTTTTG
0.7790942160797463 TCCGGTCGCGCGTGCTGCAAGCCCGCACCTATGCCTTGCA
1 TTCTGACCACTCTCGTCTGTCTTTATACTTTGTCCCAGCT
1 CACTTAGATAGCCCTCTCGATTACGCACCGTCATGCACCT
1 TGTAAGTTGGTGCCGTAAGTGTTTATAACCATGCCGGTAC
1 AGCGTGATTGAATGTGAGTATTGTACGAATTTCTATCCTA
1 GCTGTCCGTATCCGCCTGATAGAGCCACCCTGCATGCGGG
1 TCCGGCCCCCCCCGCCACACATCCCCTTGTCGGAACAACC
1 TCCGTCTTACACTAAAAGTTGTAGAGCGCATAGTACGCGC
1 TCCGGTAGCGCTGACGGCTCTGAGTTACTTTCTTCGCGAT
1 TACAAAGATAACACGCACGTTGTAATCACGCGGCGACCGA
1 ATACTTCCTTTTCCGCCCTTAATTTTCTTTTAGCTGCCGA
0.01220253702311334 GGTCATCCACACCGTTTCCTGTTGGGCTACATGGGTACAT
1 TACCCACACTCGCCCAGGCGCATTGAATCAACACAGGTGG
1 GAGTCTCCCACTCCAGAACAGGCCCCGCGCCCCACCGACC
1 GCGCATTTGCTCTTGACTCCCTGCTTTCGGGCGGACCCCC
1 CGCGGGGATCTCGGGTAACTAGGCGTTTGCCAGACCAGGG
1 ATATGATCCATGGTGGGTGAGCTCCACCAGACCTCTGAAT
1 TTATTTTTAATTGACCATCAATGCTGCCTCTATTATCTCA
1 TTTGATTTCCGTTTACTTTAAGTTGCCTTTTTCATACCCA
1 TAGCGTAACCACCGAGTTCCGCTAGCCCACCTCCAAATCT
1 TGCGCAATTGATGTGCCACTNCCGGCTTCCNNNAGCGTTC
1 GGGGGAGGGTAGCACAAGGCCAGGCACAGCTTCTCGCAGG
1 TCCGGCTTTAAGCATGTCTATCTAGGTTTGTTATAAAGGT
1 CCCGGCATCTCTAGCCTTACTGTAGAGTTGCCCACAGTGA
0.7034783723514314 CCGGAAACCTAACGCGTCCTGCGTCTGTTTCCATGTTTCT
1 ATTCCCCCTCCCTTGCACGTACTGTGTGTCTTTCCGCCGC
1 TCCGTTGTCAGAGCATCGGTTTCGCGATTTTGCCCCTGGC
1 TGATCGTAAATTGTTCCATATACCGACCAGCAAGTTAACT
1 TCCGTTATCTGTTTCCAGTGGGATGTTATGGGCTTGGTTC
1 AGCTATGCCCACCCACAAATCATCCGTCGGCGTGACAAGG
1 CAGCGATTGCGCCTCCGTAAGTGCCGCTAGCCACGCGCCT
0.6610370602574888 TTGCCTTGATTTCCGTTTAGCCTGTCTAGTTCTTTCCACG
1 CACCGGATGCCAAACATCATTCCACTCACGTCGACCAGTA
1 TAGGGTGGTGTTATGCTCGAATTGCATGGGTGCGAAAGTT
1 CGAGGCACCCTTTCTGCACGATTAATCTTGGTCTTGAAGT
1 GGCGTTCTCACCTTGCTCCGGGCACCTTCCTTATTACATT
1 TCTTTCACCAGCCCCCTCCTCCTCACTTCCGCGATGAAGC
0.7510584698368461 TCCGGTTTGCTTGTACGCGAGCCGCTCGCTGAATTGCACG
1 TAACACGTTCTTCACTGTAGGGAGGGGTAATGACTATGGA
1 CAGATTGGCTGCTATCAGTTTTCACCTCCCTGATCATGAA
0.4608473348194355 TGGAAGGACGTCCGCTCCCCCTCGGGCATGATATCCGCAT
1 CTTAACTCGCGACCGCGGTTAACGCTGGTGACTAACCCGA
0.04880930212356105 GCGCATCGCGAACCGCCGCACCGACCGGATCCACTGACGT
1 GATTGAGCGCGGCGTGTTGCCGACGTCTGAGGAACCCCAT
0.002339738590675606 CACGTGGCGGAAGCGGGTCTAGCGCACGGCCCTCACCGTC
1 ATACCACGATCTTACCCGCTAGGCTACCCGAGACCACCAG
1 CGCACAACGTCCGGCTGCGACGAAGAATAGTCGAGGCGAC
1 AATTCCGTGTAGCCTACCTCACAACAGAACACCTCGTGGT
1 TCCTTTTCTTGCTCCTCCCTTTGTTTGGTGAAGTGCCCGT
1 CCCACGATCGCTGCTGATCCCTAACCACTAAGGTCCATAA
1 GAAGATGCCTATCATGACTCGCAATATCATTGCCACTCTT
0.1459770247544028 CGCCAATGCGGAAACACGGCGCTATACGGCGTCCGACTAT
1 CAAACCCAACCTACCGAACGTACGGAATACAGCCACGGGC
1 TCCGCATTGGACCTGCTCTGATTAACCGTCGTGACGGGAC
0.4100379345766766 TCCGGTGATACTCCGTCATTGCACGACGTTTGTTCAAGCG
1 TTGATTAGTAACTTGTGAGGGCTCTAGGTCAGGGCACTAA
0.4717254474449069 CAGAGACAGTACTCTAACAGCAACCCCTGTCCGGAACCGA
0.6489597158255349 CCGGAAATGACCTGATTCTTCGCAAGCCGCTGGGTGCGTT
1 GTGACGGAACCTGGAGCTACGTCGTCGTAAATGGACGCCC
1 TTCTTCGACAAATTTGCAATCCCTTATTGGGTGGAATCGT
1 CAATCCATCTTGCCCAAGACAAGATCCGTGTGTTACTAGG
1 TCCGCCTATCTGTAACCTCGTAACTTTACTATGTTTTACG
1 CTTCCCCCCGGTAACCACGAGATATCCGCATGTCTGCCTT
1 TGCATACAGGCCGCTCAGGTGCGCCGTATAGGGCGTGACT
1 AAGCTGCGAGAACTACGCACTATTGTTAGGAGGCTGGGCC
1 ACCCCCCAGCTGCCCACCAATACTCCACACGACTCCCCTA
1 CTGGAGAGTGGCAACAGCGGAAGATAAGATGAACGTTCCC
1 TAAATTACCTCCGTCCTCTTCAGTCCAGTAAGCTCGTTAA
1 CACGTTTTCTTTACTTATACCTCTCTCATTTGCGAAGCCA
1 AGTATTGTATGTGATGGCATTGTGTAAACGATGCTCCACG
0.7152215072831589 GTAATACATCCGCCGGATCCTAAAGAAAGAACGCCTTCTC
1 TCCGGCATAGCTGCACCCCATGCCCAGGATTGTGGTAGGC
1 CGAACGCCCCGGGACCGAGGCTACGTCCTTATTCTTTCCT
1 CGACTAATGCGTACAGTTATCAACTCAGCTGCCTAACAAT
1 TCGAAATCGGAAACGGGCTAGCCTCCGCGAGAGCGTTGTC
0.3832391819914381 TTAGACATCCGTTTTATTAATCGCTGTATTCTCTCCCATC
1 TATCACGCCGGCAGTCCGTTTCCCGGCTGACCACGCCACG
0.2409384321192207 CCCCCTCGCGCTTCCTGCGCAAATTCCTCCTTTCCTGGAA
1 GAGCTATATCCGCTGTAACCGACAATGCGTCCCCCTCATG
1 TGCGAGTCACCATCGCCGTTGTTCTAATGCCTTGGCTCGA
1 GAATTCAACCTTGCTTATCGCGTGCAACTCTTATCTAGCC
1 CAAAGACGAACTACTTTCGGATGTCCCAATCTGAAAATCG
1 CACTCCTAACCTGTCACTACCCTTCCCTCCGCGCCATAGC
1 TGAGTTCTGCCGGGCTCTGACGCACCCGTAAGCCTTTGAT
1 GCGACAAACCCTTTACGTCCTGGTGCCGCTATTTAGGCCC
1 AACTATTATGCCCGCCCGTCAGTCGTAGTAGACGTGACCT
1 GCCTATGATTTTTTATGACTATGTCACCGGGACCTAGGGA
1 GACCGGATACGATCCCACCACGCCGCACACCCAGTCAGAT
1 AGCGCACGATACTATCAAACGACGACAACCGCGGCGCCCA
1 CCATCTATTTCCCCTTACCTTGTTGATAATGGGCTTCCGG
1 TGTTACAGGTTCGGACCGATATGGATTAGCATTTCTCGGG
1 AATTGGGCGCCACGCGCTCTTGCCTGTATAGCAGAACCCT
1 ACCGCGTTCACGCCCCCCAGTATTGAGAGCAAAGAAAGGA
1 TTTTTCCCGTCAAATCGCACCCATTTTCGCAAACTTTATC
0.9027014850168823 TCCGGTACCATACTGATTGGAGCGGCGTTGCGTCGATCAC
0.02313503593216232 TGTCCCACCTATCCGGTCGAATAAGGACTCTCGCTAGGAA
1 CATCCGCTGTTTATTGTATTCCATATGCGTCCACCTGGTA
1 TCCTGTAGCTAATGCGGAACCTCAGCCTATTTTTCACTTC
1 TGGTTTTCTTCACTATACATATCGAATGGTGCGTCTCATC
1 CAGCCCCCCACACCTTGAACCACGCTCGAACGCACCCAGT
1 TTTTCCTTCCTATGTTTCTNCCGGTTTGTAGCCCTTGAAC
1 CAATGCACTGGAGCACGCATGGACGTTGTAAACAGCTAGG
1 CCTGAGCCATAGGGACACCGACCGCTATTTAGCAAATCAC
1 CCATGCAGCGATGTGTATCACTACAAACAAGCACGGAAAC
1 CTCATTTGAATTCTAATTACCTCTTTCATATGCCTTACCG
1 CGCCCGCGATTTGCTGGCATCCCTTCTCTATTTTTACATG
1 TCCGGGGACGCAACCCCGCTACTGGCTAACCCCGTCAATC
1 TCCGGTTTGATAGAGGTAATAACGTAAAAATTCTCCCTTT
1 CCATAAGCGCAAATAGGGCCCGACCGTACTCGCGCTCCCC
1 ACTCGTGGCGATCACTACCGACGATATGAGACGCTCTAGC
1 TGTTATACCCCTGTTATCCTCAGCAATCGTAGGCAGCAAT
0.7784720515721664 CGGCCGGATACGTTATGTTCGGCCGGGGTTGCGCTAAACA
1 ACAGGAAGTCGGACTCTACAGCTAACGGGATAACTGTGAG
1 GCCGAAAACCGACCGGCCCGCCGGTCTGACGCACACGACC
1 TCCGGCTTCAGTGAAAACATCGGCTCCTGGACACCGTCAT
1 GGTGACGCCAACCCCCTGGAGGACGTAGGACTCCCTTACT
1 GCCTTTCTCGCTGATTGTTGCTCGACGCCGATCCTTGAAT
0.4615651444831578 ACCCTACATAGGACGGAAGTTAGTGGACCCATCCATCCCG
1 CATGCGCAACGTTTTCCGGCGGAGCTGACTAATAATCCGT
1 TACTTGTCCCAGGGTGCTACCACTTTAACGTGTGTGTTGG
1 TGGAAGGTGCTTTCCGACGGACGGCGGAGTTTGTCCTCTT
1 TCCGGAATCACTCGCCATAGTGGAATGTAGAACCATCACC
1 TCCTCCTACCAACGACCGTTCCAACCTAGTGCACGTTCTC
1 GTGCGGGCTCTGACCACCTACTAGCCAGTGTTTCCGTTGA
1 AGTATTTACGGATGTACTACATAGTCTGTAGTTTTGCGAA
1 TACAGGACTGTGTTGTTGGCGAGAAACCATTAGTCGATAG
1 ACACACCTGCCCGTTCATCTGAGCCGACGACTTACACGCC
0.4450363642431235 TGTAGCCACCTTGATGACTTCCTGCCTAACTCACTTCTGG
1 CCCTCGACCTTAAAGCAAGGTCAATATCCATAAGTATCGA
1 CTACCTCAAAAGATTTCTCCATCATCTCGCATAACCAATA
1 TTGGTAAGTGCGTGCTTGTCGCGTACGTAAGTGCCGATGC
1 GGCGGAAATCGCCTCATACTGATCTGCTTACCTTAGCCTC
1 CCCATACTGACATGGCTAGAAGACTTCACTGTACGTCAGG
1 GCCAATGTATTCATCAGTACCTGGCCATTGTGGCTAAGGC
1 CTTCCTGCATCACCTTCTTCAACGTCCCCAGAGACTCATC
1 ACGCTAATTACCGACATCAGAACCGCCGCATGCGATTGCG
0.3851477209594047 TCGCATTGGTACTTTAACGGAAATTGGGGTGTGGGGCACC
1 TTGCTGATGTGCGAACCAGCGTTGATTGGAGCCTATTGAA
1 TCTCGTCCCAAATGTGAAACATACCGCTACTTCCTAGAAT
1 TCCGCCCCAGTGTCCGGACAATCGGGTTCTGTACTCCGTG
1 CGGCGTTCGTGCTCCGTATACCTCATCACGTGGTATCCGG
1 CCCCCTCAGTTATTGGCCTGCTTAGCTTACGCAATCCTAG
1 ACATCGCGTGTGCTATCCTATTTTGATCCGTTTTTACGGT
1 TCCGGTGACCGTGCACGGAGTCAAGCTGGCTCACAGTAAC
1 TGATCCACCGGATAAAACGTCCTGACACGGCGCACGCGGT
0.1947733515978979 CGACACTTCCGTCCCCTCCAGGGATGCCCAGACAGTCCCC
1 AACCAATTCCGCCGGCTGTTCAAGCCCTGCGACCCCACCG
1 TCCGTTGAGTTCGGCTGATCACCTGACATCGCGCCATCGA
1 AAATGAACTCGTAAGCTAGCATCCGCACTGGCCAGAGTGC
1 TAGGCAGGCTATGCGATGCCGGCCTCCAAACACCGTATCG
1 CCGCAGCGGATACGCCAACTTATGGCTGCAAGCGGTGTAT
1 TCCTGACGCTTTTTCCGTCTGCCGTTCTCTTCTGGAATAT
1 CGCTGCTCAACTTTATAAGTGTTCGACGATCAGCCAACTG
1 TTCCGTGGGCGTTCGGGTATCGACGGATACGCCGTTTCCT
1 TCCGGTGGCTGTCCTGACCAGTCTCAAGTCTGACCTCCAG
1 TCCGGGCCAACAACGGACATAAGCCGTTACCCGCCATTAC
1 ACATCCAACTCTCGAAAGCTACGGGCAAATTCATACAAAG
1 TCCTGTTTTTGACACACATGTGATAAATTAACACCCGGCT
1 GTTTGCTTCCCGTCCTCCACTTCACTGTTGACTTACTTGG
0.02880206123850515 CTTCTTCACTCCTTGATTCATATTTCCTGTTTGATTGTTG
1 TCCGTAGGGAGGAACGATAGATAGCAAAGCATGACCCGTG
1 TGTGTCCGGCTGCTAAGTGACTTTTAGTACCATCGCCGTT
1 CCGGCAGGTCCCGGCCTGAACATCCAGAGATCCTTGTAGC
1 AGCATACATCAACCTGAATTTCAACGCGTTTAATATTCGC
1 AGCCGTACAACTGGCAGTGCAAGACAAACCGCCGGCTGGG
1 ACTTCCATGCTCGGGCACAAGAGAAGGTGGCTCTTAACTA
0.8033308048129074 CAATCCATATCGAAACGGATATACACGAACGAGTCACAGG
1 ACTAAGCCACATGCGTTTCTTGAGTCTGGTATCCTTGTCT
1 CCCCGTTCGACCCTAACACCCCACCGTCCCCGGTGCACCT
1 TCCCAATAACCAGACAGTAGAGATATAGCGCAAAGTCACC
0.8983525469161172 CCGGAAGCGATCACCAGTCACATCCCATAATGCGCACCGC
1 TCCAATAAACGCCATCTCAAAGCCCCACCCGGCCTATCCC
1 GATGCTCCCGCACCACGTTTAGATACGGCCGAAGGTGAAG
1 TCAGACTAATTCCGCCCCTGCACAATATCGTCCTTCCGCC
1 TCCTGCAGGCCGATAATGCTAACTGTCCTGCGCGTGTACG
1 TCCGTTCCTCACCCTTCTGGCCTGGCTCCCCTTCCCCGGA
1 TCCGGACATCTACTCGTGTCCGTCCGTGTAAAGCTTACAC
1 TGCACAGCGCTTCGCCCCTCAACCAGCCAGGCGAGTATCG
1 CTAACTTGCCCTACGCATCAATGTCGCCCCCCCCATAACG
1 CTTATTGTAGTTCGTCATAAGTATGACAGTAATACCATTG
1 GCCGGAAACTCTATCTTACCTTAATGGATCGCACTGTATA
1 CTTCCGCTTCTTACCACAATCGAGGAACTCACTCGCGAGC
1 TCCGGCATGGAGCTACACTACCAGGGTAACGACTCCACGA
1 GCGCCGTAGCATGATCATCCGTTGAAGGTCTACCCAGTCT
1 GCGCGCACCCCGAGAGTGAGGTCGGATTGACCCCTAGCGC
1 AATTGCGATTTGTCCGCTGGGAACAAGGTCGATTTTCTAT
1 GACCGTATCGTACCCCCCTGACTTACGGCGCTCCCTTTAC
1 CGACGGCCTAACCCTCTCCGCCCTGCCGCGGGAGAGCGCC
1 TCCGGTCCGCCTACATGTAAACGGTCGATTGTAGGATGTT
1 TTGCATAGAGCACTACCCCATCTCAGACACACGGTCCCCA
1 CTAGTATAATAACCCAAATCACAGTGCTATTGTGTATGAC
1 TCCGGCCCGGACCTCGTAGTGACCTCTAGTTACAATCCGC
1 GTAACTAGCTAGATGGCTTGGACGGCAATCGCGTCCCTAG
1 AGGTGCCATGCCGGTAGTGTTCACACCGTAACGTACTACA
1 CAGGAAATTATATATTTGCNGCCTTTCCTTTCTACCCCGT
1 CTCTTAAGCCAATGCTGTTCAACAGTTGTTCACTCCTTAG
1 CAACTTCCCCTTCATCGAAAGTAGCCAGTAACGTCCACAG
1 CGGCGTTATTTCCGACCGCCTGCTTCGACGACTAGAGCGT
1 CGCATCTGCGCTACGAACATCGAGTGCCTATGATCCAGCT
0.4202801145290981 CGTTCGGTAAGTGGTTCCATAGCCTTCGCACTTCCTGAAC
1 TCAGCCGTACCAATCCGTATCACTCGGTAACACGGAAGAA
0.377507116508736 TCCGGACCGTAATCTGAATGAATCCGGTCTTTGCAGTTAC
1 GCTTCGCTAGCTGTGCTACCGTCCGACACGCCAAGGCTTC
1 GTCACGACATGCATACCNGANATTGGTATGNCNCATGACT
1 GAACAGGTTGGGATGCAAAGTATAACAGTGATGATAACAC
1 GGAAACGAGGTAAATTCCTGTCGCCTGACGACCACACTGC
1 TAGTCCCTAACCCCACCCCGCCTCCCCCCAATATGCTTGA
1 GCCCATTGGCGTCGTGCCTCTACATACGTCGAGGGGACGG
1 TGTGCAAAGGTGCTAGCCCTCTTCACGATTAACTTCTCCA
1 ACTGCCACCCCCACAGCCGTCCACCCCCCACCTTAGGCGG
1 CCCAAACACTCGAAGCACCGACTAGACGCGGAGCAACAGG
0.02520004501019246 AAGGTTTCCGCCTGCCGCACTTGTACCACGGGAAGGGGCT
1 CCGGATTTCCGTAGGCCTACAACTGCAGTTCGTGCAGGCA
1 TTCTATTTACTCACTGTTGTGACTGCCACATTCCCTCCGG
0.6095213539943072 CCGGAAACTGCGGACACATTACTATCGGCGACCCACCATA
1 TATGCCGCGACATCCTGCAGGCTTCGCGCCCCCATCCGCC
1 CACACGATTACTGGGCTCTATGCACGAACTTTATTGCAGC
0.7701441816607018 CCGAGGGTACCAGTTTGCCTCGATGTCACGGAAGTAGTCT
0.3602359343408496 AAATACGACTACGGCATTTCCTGCCAAGGTAAGTTCCTGT
0.4679773071524063 TTAGACTACGTGCGTTCCGGTTTTACTCTGTACCGATACA
1 GTTTCCCTTTCGGGAAACATCAGCCACGCACCCGCCGAAC
1 TCCGGAGCAACCACTACTGGCGTAAGCCTGCGAACGCGAC
1 GATCAGGAAAGAACGAAGAGAGGAAGATTCATGTCCGCTA
1 TCCGCTATTTGAGCTCGAACCTTTTACCTGGGTCGTTGCC
1 GAGCCCGGTACCCTTCGGCCCTCCCATGGCGACCAAACAC
1 TTCTACAAGGCACGAGGGGCAGGCCCCACCTTACAACCGC
1 CTTCCGGGGATCGACGACCGGCCACCCGTATCCCCACCCG
1 CCTTCATGGCACTCGCCGCAGATAAGAACACCTTACACGG
1 GGAAAGCCAACCTCAATCATCGGAAATCCGAATAGATGAC
1 CACCGGAACACAACTAACACAGTCTTCACATACGGCCCGA
1 GAGCTTGAGTCTGTGGGTTTGCGTCGATTGCTATTTTCTT
1 CCGATTTGGCGTTTACACGCGTACCTCCATCGTAGGCCCT
1 CAGCCTTCCAGTATATCCCAACCGACCCACGCAACTTATC
1 AACCAGCTTGAGAAGGTGGATGTCTGCTTCTTTAGCTCCC
1 CCACCTGGCCCATCAAGTCCCCCATCCAACACTATGTGAA
1 CCCAAATTACCTTATGTCAACTTCACGACAAACATAACGT
0.4675053757727448 AAGGCATGCGTCCGGTTGGTTACGTAACCTTGGGCTAGCC
0.7070644921016933 TGCAATATCCGGCTAAGGCTCGCTCGTGATTTCGAAATTG
1 CTAACGTTTTCCGATATGTTTGAATGTACTCAACTCAGTA
