svm_type c_svc
kernel_type gkm_esttrunc
L 8
k 5
d 3
nr_class 2
total_sv 20988
rho 0.3258
label 1 -1
nr_sv 9867 11121
SV
1 TTAGTCTAGCTCCCCCTGATTCAAATGGAAGACCTAGCGC
1 CCGCTCCAGGCGTCCCTTGTGACGTCCCTGCGACGCTTAT
1 CGCTTGATCAAGACGGATGTAGCCACTATGGCTCTCATAT
1 TTATCTGAAATGCATTACAACACTAGTTGAAGCATTACCA
0.4656715244096768 CAAATTTCCCGCTCGTTAACGTAACACGTATTGCTCTTAT
1 TCCTTCACATTCGCATGAGATGCCTTACATTTGAAGAGCA
1 GTGGTACAGACTCCCCTACTAAATACCTTGATGATTAACC
1 TTGTAAAGGCCGATCATGTTATAAGTCCCCTTCCCACAGT
1 GAGAGTAAGTTGAAAACATGACAGTGGGGCCAATCCTTGG
0.7593005814426884 GCTCGCCTTTGTAGTCGGACGATGGCGATAACTACTGTTA
1 CAGACCCTGCCTTTTCAGAGCGGGCATGTAGGTTCCGCTT
1 TTAGCCATACATGCTACATTTTTAGGATTCTCGCTGTTAT
1 TCTTTACCCCGGCTCTTATGACGCCCTCCGCCCTTAACCC
1 CGAGTCTCTCGGGTACGTTTACTCTCCCTACTTGTATTAT
1 TAGTTAACCACCTCCAATAAGGTAATTACAAACCCCTTAT
1 TTGATAACGGCCGACCGTGTCTCCCGGAACCCGACACATC
1 GCCACAATCTCGCTACGGGATCTCTGAACGACACCTCCAG
1 GCGCGGACACCCACCGGATAAACGTATTCTGGTGCTGTCA
1 TTATGCACAACTGAGCTTCGAGTCTTAGAGCTCTAAGCAC
1 GAGACCCATCCGAACAACTGCCTTATACCGTGTCCCTCGC
1 TACCATGATACCAGTAAGTACACCACAAATCCCGACATCA
1 AGATACTGCTGTACAATATCCTGCACGTTAACGGGATAGT
1 CACGCCACGGAGAGAACTGTACATTAGCTATAACTCCCAT
1 CACGGTGAAAAGCTAGAATAAGCCCACCGCCAACAGCTAC
1 GCCGACCACAATTTAAAAAGCTATCCAACCTCTCCTCTAA
1 TGGTGCACAGCCTCGACTACCTCGGAATCATACCGGAAAT
1 TCAACCTACCGAACGGACCTTCAAATTGACTTGTGCCCGG
0.5073784853760575 ATATCGATACAAAGAAACAATCTGAGCCCTTGCTACGTTC
1 TCAATCGTCTGGCTGGAAATCGTCCCCAATTTCGGCTTAT
1 CAAGTACTACCAACGATATACCCTACTAGCCCTCGCATAT
1 CCCTGCAGGCGCCTTAGCGCGTCCTGCCTTCTCCTCTCTG
0.8425800712823546 CATTCACCACGCCTCGGACCCCGCTAATCTACACTTTAAT
0.7082820579368806 GATGCCCACCGCTCGGCTTTCATGCCACCTTCCTCGTTAT
1 TATCTAGTGTTCAACCCATTGCTACTGCTCCTAATGTGCG
1 GGCGCCCAGCAGTGTCCGTTCGCCGGAGACGGTGGACACT
1 CGTTTTGTCACAATCCCGCTAATGACCGGGAGAGCGACCG
1 CACAAGAACGCTTTCCGCCACCTAGCGACACCGCGGGACT
1 CCTTATCACAGGTCCCCTTCGATGTCAGCTTTTAGTAGTA
1 ATTGCACCCTACGCCACGAGCGCCCTTTCGAGTTCCATAT
1 CCCTCATGGCCAAGCACTCTGTATCGTGCTTCGTGATCTC
1 ACGATAACGGTAGTGCTTAGGTTTCAATCCCAGACCGACC
1 CAGGTTATTTCCGACATCGTTACCGGAAAAAGGCGTTGCG
1 GATCAGCCCTGCTACTGCGGCAACTCGACCCCTGATCTCC
1 CGTGTGCGAAGGACCTTCTCCCCACAAATCGCGTACATAT
1 GCGATAACATGAGTCACTTCGCCTTCCTAGTTTCCGATTT
1 CCGCCAGGTACTAAATTCAACCTTAGTTGATATGTAGGGC
1 CTCGATAACCTCATGTTACCTTTGTAGAGTTTGCTTAGCC
0.3236358502667675 ACCCTATCGCGCCCCGATCTGATATAGGCCGCGACCTCAT
1 CTACCCTCCTAACCTACAATTCGCGAAACGCGGTAACGAC
1 CGCCATAAAGATTGTAAAGCGATTTTGGCCCAGATAAGCT
0.2714711395284317 CCCCCATAACCGTCCTTGACCAGATAAAGAACCGATTGTA
1 TCTCCAGACCACACGGACTGCCGGCCGCTGTCAGTCGCAA
1 CACTCCAACACGGAAACTCTTCTATCTCCGCTACGGATAA
1 ATGCCAACCATGTGATGGCTGGACGCCGCCAGACGATCTT
1 GGTAAGATGGAGCCGGAGCCTTGCAATCTCTTTGTAATCT
1 AACAGATCCGGTCCTATCCACTGCTCCCCCAGGACACTAT
1 TCGCAAAAGCAGATCCCCCATCGGTGCGCCCCAACTTCAG
1 AATCCGCCCGCGGGGACGACAACTTACATTATCGCGAGGT
1 TTATACAGTCCACCGCGTAACGTTGCTGACTCACGCCCCC
1 ACCTATTAGTTGATCCCTATCAGGTACACGGCGCCCCCGC
1 AGTCCCCTTACCGCTCCTATGCTTCCCACATGCCTGTTAT
1 GGCCCAGCCGTTCACCAATTAAATTCTGTGACGTGCCAAA
1 TATCTTTATATGATCTAATGGACTTTTCCGTCCCGCTTGG
1 GCCACCTCCGCACCCTGTACCGACCCAGGGGGCGATCAAT
1 CAGGTCTCAGACGTCAATATAGCCTTGCACTCCTTGTTAT
1 ACCATGAGACGGACCACCGACTTGATGCCGGTAGTGATAA
0.5152710833733496 AAACGACGTTTTCCGTGATTACAGCTACACGGGCATTAAT
1 ACTCAATATACGTAATCAAACGGATCGATCGCCGTAAGCA
1 CGAACGTAACGAGCGCGCAAGACGCAACGCTTTTTGTAGT
1 GCACCCTTGGCGCGTCGCACTAACTCAAACACCACCCAAA
1 TACATTTTCGGATTGTCTGAAGGCATAGATGCCAACTAAT
0.5945044384101218 AACTGCACGAATACTCGATCTTGATGCGTGACGTCGTAAT
0.07892697732509719 AGACACAATCTATGTTTGACTTCGCGGGATAGATTAAGGT
1 TCTGTTTGCCCACGCCGGCTGAACCCATTTGAGGACTCGA
1 GCGGCTCTAACCAATATCAAGCGTACGAGGGATGTAGCTC
1 AAGATCTACTCAATCTCACGCGATACTTAGCAGTCGCGTG
1 CTCGTAAACTAATCAAAGTGGATACATCCACACGTTGATT
0.6716672858423077 GTTCGCGACACATACGCGGTAATCCTCTAACCGCTCTTAT
1 CCCACGGTGGTTTAGAGCAGACGTATCTCGCTCCGGAAAG
1 TCGCAGCACCCAGATATGCCGTCAGAAAACCCATCTTCTC
1 AGTTAACCGTAGTTTGCCTGACCCAGCTATTATCGGCGGC
1 GTACAGAACCGCCCGCCGCAAAGCGTCAGGCCCTTGCGCT
1 CATTCCCACGTGGTCGGTGATGGCCTCGCGAACGGTACAA
1 CAGCACGATAGCAACCCGTACCCAACCAGCCACCCCGATT
0.2713749954475331 AAGCTCATTCACCCAAGCTCACACTACCTCGTGCACTTAT
1 AGTTAATCACCCCAACAAGTAGACCCGATAGCTTACCAAT
1 ACATCGCCCAATGCTATCTTTTCCACGCCTACCCCGACAT
1 CCGGAACAGGGAGCGGTGCTGCCCAGAACAGCCATTGTGA
1 GCCTTATCTCCCATCTCCGTTGATTTCTGCAGCAACCGGA
0.9364562067094504 ACAGCAAGCAAACAGCCCTAATCTGCCTCATGATCTGCAC
1 ACAGATACCTCCAGGCGCACCGACCTCCCACACCGAACGT
1 CCCTGCAGACCAATAAGCAATTCTACATTCCTCCCGTTAT
1 GAGCCAAGAAATCAGATCAATCTCAAAATCCGATCAAAGG
1 AAGAAATCTGTGTAGGCCTACGGCACAAAAACGTTATCAA
1 GAGATACGAGGAGACTAAGACTACACCTTAGAGCAGACTC
1 CCACAGCTTTACAGCACACAACATCACTAACCCGTTGTAT
1 ACTTACGTGTGCGCGCGTAAGGTCACAAAACCGAAATAAC
1 CCGCTTACCGTAATGCGCACAGATCCCAGGTACCAGGAAA
0.4802831178333745 CCCACGGCTGCCGCCTGTCAAAGATGGAAGCACGGCTTAT
1 ACCCGTAAATGCCTAATCCTCGTACATAGCTACGTCCCCT
1 TCAATCGCGCGCAGGCTTGAGGGTGCGATTATCTCCCTCA
1 TACTGGAATATCGTCCGAAAGCTCTCAGTTTATCATACGA
1 CCTCCCTAGCGTACTGACCCCCTACAGCACACCTCCCTCA
1 ATCGTGCCTAGGACTCTATCACTAAACAACATCTTGGCCA
0.4928242555679738 TAACGCACCGCGCTGCACTCTCAGACCTCTAATCAGACAC
1 GTTTTCGATCGGTCTAACCCTATCTACACCTGCGCGCATA
1 CCGTCTCAAGTACAACAAAGCAACCCCCTTGCCTCAGCAC
0.3494543761792677 TTAGAGCCTTAATGTGTAGCGATAAACAAACGCGTACAAT
1 ATAAGCCGAAATCCAATCATAGCGAACAGCATGCTAACAC
1 GATGCATAGCATAGCCACACGTTTATAACTCATGTCATAT
1 CCGAACGATCCACCTTATAACCTCTCACCACCCGCGCCCA
1 ACCGACGCGTCCTCAGCCTACAGTGCGATTTCGGAACAGA
1 TTCGCGTTCGAATATGGCCCGACATACATCGTTGCCTTGC
1 AACATTGCAGCCCTTGTCCTTGCGCACCACGCAGCCTTAT
1 ATCCCCCTCCCGACCAGCAGTTCCATGCTACACCACCTTC
1 TCCTGGTCGGCACAGTCACACCATGGCCTACCTCCCCACG
1 ACGCTTCAGTACCTTACAAGACTAATGCATTGAGGAACTC
1 CGACCTCATCCTGCGGAGCTCACAAAGACAAAGATATAAT
1 CTCTTATCTCGTGTTAGATCGTTGCGGCACACCTAATCCC
1 TGGCGACGTCCCTCGTGTGCGTCGAAGACCACTGACTACG
1 CTCAGCCCCCCCGATCCCAACGCTCTTTCTTGCTAACCCT
1 CGTTATCTGCCTGCCCTACGATACCTGTGTTCGACTGTCA
1 CGGTCACACTGTTCCTAATCCCCCAACCCGTGAACGATTA
1 CCCTCGCACTAGCTTAATGGATATAGGCATATACTCAACG
1 CACCGCACCTGTTCCAGCCAGGTGCGACACGATACTTCAC
1 CCCCGCCCACTCCGCCTCACGCGCTAATGGCGATATTAAT
1 TTTGGACGATGGCATGCAAACTATAAATTAGTTATTCTCC
1 TGGGACGAACAGGACCCATCTGAGATCCCAGGTAAGATAA
1 CACGCCGGGAAAACCGCACCAAGGACATACACAACGTTAT
1 TTATCAAACCGCGTGGATTCCACGGTGCTACCTCCCTTGT
0.838862516777458 CGATAACGACCCTGCTCATCACAAGGCCTTGCGGTCACCT
0.1071962390286654 CCGACTGATGTCGCCCAGCATCCGTCCAACGTCCACTTAT
1 CGACCTCCAAACGGCGTCAGTTCTGTCACCCATGCCTTAT
1 CATGCCGCCACGCTAAACTAAAGCCTGGTGATTCTCTTAT
1 ATGTTATACTCTACTGACGTGTGGCAGTGTTGAAGTTAAG
1 AGTCACGAATAGCGCCCACTGCCCCTGGTTCTCCGCAGCT
1 TCCCGCCCTGAGCGTTCGATGAAGCGAGTGGGCCCCGGTT
0.7725337069694221 ATCACCACACGGCAGCGCCATGTCAGAGTTATCATTTAGA
1 TTACACGGTATGCGTCCTACTACCCGGATGCTAGGACGCA
1 CGTGTATATGTCAGACTCCAACTCGGTAACTACCCCTTAT
1 GATCGACATCTTCTACCGCCGCGTGTCTGTCTTCTTTTAT
1 ACTTCCTCAGGTCTCCAGCCAAAGCTCCTAGAGACGGAAT
1 CGTCAGTTTTCCAACCCCACTGGTACGCGTCGCCACCTCC
1 CGTGTACCCCCCATGCCAGTTACCAGACCAGCCGCACGGC
1 CACATGCTTTCGTGCGGGCTAGCATCCTCCATGGTAACCT
1 TATCTTCTATCATCAACGCCCGGCGCCCCATGTTTGCTTT
0.9334417595288989 CCTTTGGGTGCACAGTGCGACCAGATAGATTTACAGATAA
1 GCACGCACCAACATGCCATGTTGTGCATATAACAACCGCC
1 CCTTATCGCCTCCGGTCCACTCCCCCTGCTCTTGCAGATA
1 GCTCACCACTACACTTAACCAACTACCTTGCCACCTAGGT
1 TAGGGCTGAAGAGTACGTCCAGGCCTTCCAAGGTCAATGC
1 AAACGCCTGCCCGGAGTGGACTACTTCTGACGCACATTAT
0.3620916809977696 AAGTTGCCATCAGCCACTATCAAGCGAAACTATCACGTAT
1 CGAACACACCCACAGTCTACAGGTAGTGCGTCCATGTTAT
1 GCAGCCAAAATACATCGTATCATCCGTGCAACGTTGCAAT
0.5904264195040936 TCAACGCTGCTAATCACCATTCCATCTGCACCTCCATCTT
1 ATTGGCTCCCAACACACACTCGCACGGGCAGCGGAGCCGA
1 GCGATGTGTAAACCCCATACGTGCCTCACACCGAACCTCT
1 TGCTCCATGACAATCCAACTATATCCTTAATTGCACGATA
1 CCCGTACCCAGTGTCCCAGGACCGAAAGACGCTTTGCAGC
1 CTGCCTCACCCCTCTACCTGCTGGCTGGCCCAGCGGATCT
1 AAGCTAAAACCCCTCACACCCCATGTACCCCAGACCTTAT
0.5225679120489393 TCACGCGCGTGCACGAGTCCCGCCATCTCCCTTGACTTAT
1 GCCATGCATGCTCCACGCTAAATCAGACCCTTAGCTCAAG
1 ATTCGGTGTTCGATTTTGCGATGCTGCGTACACTTATTAT
0.7462554696257075 CGATAACGCGGCTTCTCGGTAAGAACTGCAGCGTGAGAGT
0.04013293872488444 ATCAGTGAGTTATCGTTAGGAAATTGCTACGTGGTACCGT
1 AGTATGACACCAATTTGGCATGCTAGCTGCTATCAGTCTA
1 CGAAAGTATTCGTGGTTGCCATATGCTTTTGGAAGATCAT
1 CGCCGGGATCCCTAGAGCGCCCGAGTATCTCGCCCACATA
1 TATGCTGAAACATCGGCACCGAAATTTACGCGTAACTTAT
1 TCCTTCTGACATTGAGAAATCCACTAATCTATGCTGCCAT
1 CCAACGACCGCACATAGGAGCAGGTCCGTTTAATCAACGT
1 CAAACACACCAACCGCCGTGCCCCGATTACCGCCCCTAAT
1 CCGAACACGCGTAACGCACACACCATCGGGGGGACGGCCT
1 TGGCAGTTACAATATCTCGAGTTCGATCTAGCAACTAACA
0.09645054303696728 ATAAAAGTCCCTTTAGCTCAGGTTGACGTTATCCTTTTAC
0.1058956499333821 TGCGCCATATCGCCCATATAAATGCCCCAAAAACACTTAT
1 TCACCCGGTTTGCTCCTCCATCCCATGCTCCCCAGGGCAC
1 CTGTCCAGCGCCACCAAGCGGCTCTATCCCCCTACCCTAT
1 TCACCCACTCGCCAGCCTTCCCCGGCAATCCTATCACGAT
0.5239530583534447 AGATACGGAGAAGGACATGAGTGGAAGATGAGTGATTTAT
0.9292956859179915 TTAGAGCCTCTGAGCTGGGTCAGGGCCGTTATCGAGCAGC
1 TACCAGGACAGCCCGCGCCGTCAATATCAACTAGCAGTAT
1 TCGAATGGTCCCCACCCCCGCAGTAAAAATCTACATCACT
0.7998103626872527 CGCGAGCGCTATCTATAATTATTGACAATAGATCTCAAAT
1 GCCATACTTGCCGGGCCTGTCGCCATAGATCGGTGGCCCT
1 GACCCTAATTCACATCAGCTATTGCCTCGCTAGTTCTCTT
1 CAACCCAGCGATTACCAACATCTCACACTACAACACTTCG
1 TTCAGTCCTATGTCTTTACTTCTCGGTGGTAATATTCACA
1 TTACGTGAGTGACCCACATTGCTAAACCCCGGCACGGGCA
1 GATGCGCGTACATAAACACGTGCCAACCAGTCATGCCGCA
1 GCCGCCACACGCAGGCATATACGCCCTCCTAAACTGTTAT
0.428494104344077 TTCTGGTTATCAAGAGCATCTAGGACCGAGTTTGTCCAAG
1 GCCCGTGCGGGACCGACACCCTGTCTCGTATCGTGGGTTT
0.1583378445330305 CTATTATCAGGTCCAAGAGCGTGCGATAAATNCTTTTGCT
1 TTGGTCGGTTACACGCTCGTCCGTTGACGGGCGCGGTTGT
0.6871457237114801 AACGATAACATGGGAGTCATATGCCCTCTCAGTCGTTCTG
1 TCCCGCTCACGTGGCTCGGCGCGACGCCGGGTGCCATGCG
1 CCGATATCTACTATGAACCGAGGTTCAATAGAAACGCAAT
1 CTACCGCACTCATGCTCCACACAATCACAGGCCATATCAC
1 GTCATCACCTAACCACCAAATCGAACCAACGCTAACCACT
0.8701419925152705 AAGGTATGAACCTGATTCCTTTATGTAGCACAGTCCTTAT
0.06283482994011876 TCTCGATAAAGTCGTTTAAGCCCAGCACTAGCTAGCGTAT
1 CTGCATTGAACGTGCTCTATATCTCGCCCGGCGCAGGCGG
1 TCATGATGCGAGCCAACATAATGTGCTTCCCCTCCATATC
1 TCACAGGCTAGCTGTCGTGCTCGTGCTCCGTCCCGACTCC
0.2439962673638519 AACAGGATGGAGGACGCTCACCATGTGCTTGACTGCTTAT
1 ACGTTCCCAATCGCTGTAGGATAATCTCAGGGGGGGTCCT
1 CGGATTAGATGGTTAGATAGGCTCCTATGGCCCTTTCGGA
1 CACTCGAGTGCCAATGAACCTTTCCTGCCCATTACTTTAT
0.1830392816581378 GCCTACTAACTTATCGCACTTAAACCTAACATTAAGAGGC
1 GTATGCCTTACCACCCATTGACTTTCGTTACTAACGCAAT
0.1831086593988366 CGCGATAAGGGATTTTAAGCGGATGCTCATTCAATGAACC
1 CGCCGGACGCGTTGATACCGAGGAGCTCCAACGGTCTATC
1 GCCCACCCCGCTTAATTTCACGATTCACACCCAAGTTTAT
1 ACCATACCCCTTTTACACTGCCGAACCCGCGTTCACTACG
1 TGCCTCACATACCCAGAGCCTCCTCAAGAAACACCGTTAT
1 CAGACCTCGTGCGGCCCTTTCGTTGGTGACTGCCGCGCAC
1 GGTAATAGTACATATATGTACCACTCCTGGAGATTAGCAG
1 CCTTGATGCTCCTTGCGGTTCGATCGCGGCCGTGTCTTAT
1 TTAATTATCCTTTTCGATTTCGAGCCCTGGGCGATCTACA
1 AGCCTAAACTCCCCGACAAGTGCACGAACTACCACTTTAT
1 CTCCAAATAGTTGCCACGAGTACTAACGCTACACTATTAT
1 AATAGCCTCTACTAACGGACTTGGGGGCGGAGTCTCTTAT
1 AGATAAAGGCTTACCGTCTTTCTGCCCCTACGGTAAGCCA
1 ACGTCATCCGCCTCCTATCTCCCTTTTCCATCTACGAGCT
1 TACTCACATATCGCTGCTCTAGGCACTGTTTGTTCACTAA
1 CAAATGATAACTCGAGCGACGTACCCGGCGACAATACTCT
1 AGAAGATACGGTACGATTCACGACTCCCTCACACATAATT
1 CCACGCGCTCCCACACTACCGACTTGTCGAGTACCCCGAG
1 CCTCTAGTCCCTTCCTAGGCTGGATATCTATGCATTTTAT
1 GCGTGTCGCCCCCGACCTACCACCCCTACTCAGCAGGCAA
0.5521346857751477 TTAGATAAACGGCGTACTCCTATGCACCATCAATTGCTCT
1 CCTACGACCACACAACTAACGGCATCGCAAATCAGACCGA
1 ATGATCCACACCCAGCCACGAACGTGTAAGAAAGCTTAAT
1 TCCTTCAGGACTTCCGGCGACGCACCGCGACCACCTCTCA
1 CACGCAGCTCGTACCAACCTTTGAAACTAGAACACCTTAT
1 GTGGAGCCCATCCGGGACAGCACAACCATCTTGATGCAAC
0.476211031480397 CCCACCAGCGTCACGGATTGAATTGCATGTACCTCGTTAT
1 AACCCTAATCAGTCTATTGATCACAATTCAGCGGCGAGCC
1 TTAATTGCTACTTAACTAACAAGGCCCCCCTGCTTGTTAT
1 GCCCCCGCATAATATACCTGGATTCCGTTGCCACGGTTAT
1 TAAGAACACGCCATAATGCGCCGTCTTCCGCGTCAAAAGT
1 TCCCCCCAGACACAACCACCTCCGCACCTCCAACCACACT
1 GCAAGCATACGGTCACACACCACAAGCATAACCTCGTTAT
1 TCACGCGCGTCCCTCACCTCCCAGCCGTGTTCCGTAATAC
1 CTGATACAACACCTGGTAGGACTACGCGCTTCTATCACGG
1 CCACTAGGTCACACCCCACGAGATTGAAAAGACAGATAGC
1 ACTTTTAACACCTCGCCGTGTCTTCGACGCTCCGGCACCA
1 TGATCTCGAGCAATTTGAACAAAATTTGTCGGGTTACCGC
1 ACAAAGCTTAGTTATGCCGGCACGCAAACTTAGATAACGC
1 CGCTCACACCCCTCATTCCCCCCTTACTCGACACCGCCCG
1 ATGTGACTTGTGGAATACGGGTAGTTTCTTTCATCGAACC
1 GCCGACCACATCTACCGAACGTTTCCACTCAGTAGGTCGC
1 CCACCCTCTGCTACGCAGGAGCTACTACAGGACTAGCGCC
1 CGGGGTGCTGACCTGTGCACATGATCTCTTCTCCCAGGGT
0.7798317050131188 GTGTGATGATCAGACGTCGATAACAAACCTGGGAGAAAGA
1 TACGTCTGACGCACTTGTTTGGTTACTGTATCATTCGAAT
1 TGGGCACATTAGTGGCTCCCGTCCACTCCCTCGCTTCCTA
1 CCCTACAGCCATAACGCAGATGCGCACCCCCTGACTGTAT
0.7140404860028334 CCCCTTATCCACCATCCGACTACTAAAAACCGATAACCTC
0.6436668123615709 CGATAATTCCGCCAAACCTTGGTCTAGGGCCCTTATCGCA
1 CCGCATGCAACAACCCCCACCTCTTTCCCTGCTCTCTTAT
0.5925458110352103 GATAGGATCAGCAATAATATGCTTTGATACCGTGCCGCCC
1 CGAGTCCCACCCGCTCCTTTTCAATCACGCGAATGACCCG
0.002948444926353904 CCGGAACACAGCACCTCCCCACAATACCTTGTAGCCTTAT
1 GTTCGTCGATTTACCACCTGATAGCCATGGCTTAAATTCA
1 GCACTGAAGACAAAACGGTCCTCCTGACATGACGTATCTG
1 TTATTCCCAAGCCCACACTCTGACCTGAGAGTGTTCTAAT
1 ATAGATCCGCCCGTATCGCCGTTCCGGATATCTTCCCGCA
1 CTTTCACCTCAACCCCACCCACAACCAGTGGGTGCCTAAT
1 CGTCCTTGCCCACCGTAGCCAGTGCGTAGCTCTGTTTGAA
1 GATTGGCGCGACTTGCGCGCACACCCTCCGAGCTTATCGC
1 CACCCCAATAGACCGGAGCAGGCTGCTCCCGTCACTGAGT
1 CAGCAATGATAACCAGCAGCCATGTGGAAACAGTTGAGCC
1 TGGTGACTTAGCTACCGCTTAAGAGATTGCCTGGCCCAGC
1 CGCCGATTACGTTCCCTTCCAGACCCCGCCCATTAATTAT
0.9486350065223516 ATTGCAAACGCAAAGATTGCTATTCCGATAGCCACAACCC
0.3291257599032282 ATCCTTATCGTCCCCGAATCTACACATAGTCGACAACAAT
0.3835564638475918 GAACCAATGCCACGCGCGTTGGCACCCAATAATGACTTAT
1 GCGTTCAGCGCCGGATAAGCCAATAGTCCAGTATACTGAG
1 CCCCACTTCCGTTACAGTACCATGCCCCGGCAGACTACAC
1 TCTTATATCCCAGGGGCAGGTATTCTTATCGCCTCAGCTC
1 AAATACCACGCATAACCCTGCCGCGCAGGAGGTGCATGCC
1 CTAAGCGCAGAAGAACACAAGCCGCATGACTAACTTACAA
1 CTACATCCGTATCTTCTCCATCCCCGGCAAGCATTGCTAT
0.7155051989225725 CGCAATCACAGAGATCTGTGCGATACAGTCTTAGCGCCAT
1 GAACTAGCTCCCGCTATCGTAAGTAGAGCCCCCATATTAT
0.8302418052156229 GCACACCTCGTATATCCGTAACAATCTCTAGGCGACGTAT
1 GCCTGCACCCAGCTCCGCAACGCCGCGCAAGCCCCCACGT
1 ACTTATGCTGTGCGTCTGCGAACACGGTCAATGCATCGTC
0.7476776419116754 CGAACCCCACACCACGTGATCCCCACTGACTCCGCGTTAT
1 TAGATAAGCCACCTAGTACACTAAACTCAACCTCTAAGCC
1 CATTGAACGTCAACTGCCCGGCAGCCTCGATGCCCACCCT
1 CCTACCCAACCCCCGCCCAAGTGAGCGATCATACTGATAA
0.4055147778358374 ATAAGCTACCCCGCACTAACACACTCCACACGATTCTGAT
1 GCACCCCCGCGTGCGTTCCCGCCACGTACGAACGCTCTAT
1 AGGTACCATGTGATCCCCCTTACCTGCCTCCACACCCCCG
0.850673097323007 GACTGCCAGCGATCCTGACGGACCTCCAAACCACCCTTAT
0.3541497949250577 CGATAACAAATCGGCACATTTGACTTTCTACCACCCCTCA
1 AGATAATGAGACAAACCCACCAGCCGCGCCGCCTGCCACT
1 ATAAAGCTCACACGCAGGCCATACATCTTCGGCATACCAG
1 CTTACACACGCGCGCAATACGTCCCCAAGGGCGAACGTGC
0.001370887436749111 TATTGCCGATGATACCTCACGCGCTTCAGATAGAGATGGG
1 CTGATAAACTGCTCCACCTTCGTTCCCTTCTCACACCCTA
1 CACACTGTCGTCCCTAGGCCGCCCGCCCCCCTACCTGCTC
1 GACACTATCTTACTCTGCCAGTATTTAGACTGTCTGAGAC
1 TTTGCTATTTTGCCCAGACGAATCGGCTAAAGGCCCTTAT
1 TGTGCCCCCCGAACGCCGTAAAAGCCACCGATCTACCACA
1 GTGCAACCACTAAATAACTGATCTCAGCACCAGATAACGG
1 TAAACTGCCCCTAGCGCATCACTTGATCCGGTATTCTGTG
1 GCACCCACAGTTACTGTTCACAGCCAATCGGGAATATATA
0.07558851224275059 CTCCCTTACGATGCGCGCAAATTCTCGAGCATCGGCTTAT
0.3518593679957476 AACGCGCGTTTCCATTATCAATGAATCTGACACGTCTACT
1 CGTTGGGGCGACATCCGACCCTCTTTATCGGAGAGTTAAT
1 ATACCCAACGAGCCCTACCCACCCGTAGTCCAGATTCCGC
1 GTACGACGTGTGTATCCATAGGGCAACTTGAATGCCGTTC
1 TCCATTCCACCACAACACCAGGTCGACACCCGTCCCTTAT
0.9904350574665646 AACGTTCTAACACCTGCCCAAATCATAGCGTGGATCTTAT
1 TAGAAACTACAATCAACACACGGAATCTCCAGGTGGCCAA
1 CGCACTCAACCCCTCTACAACGCGTCCTTCGCAGCGTTGA
1 CCTTCGCCCCCAGGGTTACTAACTAAATTTACTCCTTTAT
1 GTTCTAGAGCCATTGCAGCCGTGCCCTACCTCGAACTTAT
1 TATATCCCGCACATCCCTCCTTCCAGTGCTGCGTATCTAA
1 CACCTGAGTACAGGTACGCATATCGGTCTGTACGTCCGAT
1 CGCTCGCTTACACCAGGCCGCATGCTCGTTCTGCATAGGC
1 CCCTCCTCTGCCTAGTGTCCGTGTATCAGCACGACCTGAT
1 CATGGCGTACCACCCCCAGCGCTTTGCGTTAAACGCTTAT
0.352299916944754 CACTAGCGGAGCACGACGTCTAACCTTGGCACTCACTTAT
1 TGACTAACCTACTGACACTACTAGCCGCGCACATTCGTAT
1 TCGACCACAGTACTCACTAGGTAGATTTTACACCAGATAT
1 TGCCCCAGGTGATCTTGCCCTACCTGTTCCTTGCCATTAT
1 GCCAGTGACAGAAGTTTTCTATATCAGGCAGCACTCCTAT
1 CATCCCCTCCCTACCTGCCCCGCTCTTCCGACACTGGCTT
1 CTTCGCGGACCTAGGGCCGCGCTACGATACGCCCTCTCGG
0.257729774326211 AGACCCGACTGTCCGCATAACACCGCGGCCAACGGCTTAT
1 ATAACGCAGTGTGACTAGCCTGCCACAGGGCCACCCTCCG
1 ATAGTTGATATGAAGATGGCGGCGGTGACGCTGCGCACGA
1 TACATCCCGGCAGCCTCGCCCGGATGACGGCACTCTCCAC
1 TAGACCCCGGTTAGAGACCCGTGGGCACCCCCCCTCCCCT
1 CTTTACTGGTAATACATGTGTCGACAACTCAACCACTTCG
0.4292028310393824 CTCGTCCGAACTAACGTACATCCAAGTCTTCTGGCCTTAT
1 TCCAACCGCAGGGCCCATGTTGTGCCCGCGTGCTCGCTAT
1 GTGAGCCGCATTAATTTCAATATCATGACGATCTTAGACC
1 TGCCACCCGTTCCGTATGAATCCGACGTGTGATGTTGACC
1 CTTGGTCAGGTTTCGGTATCTCTGCTCAGTGATATGAGAA
1 AACACACCATACGATCCCGTCTGCCCGCACGCCAGCAACC
1 CTTCACGCTACCTTAGTCCCGGACGCCATGCTACAGGCTC
1 ACCACCCACACCCCGCCCCGACGGGCCAATCCCGCCCTAC
1 CACCCAGTAACACTTCCCCGGATTACGACTCCGCGCCCAT
0.03389735772016579 AAGCCTCCTGTGACGCTATCTTGCAAGTATTACGATAGCT
1 CGCTATCCGATGCCACCATGATACCGTGAACACACAGGTA
1 TATTATGACGCGATGCTCGGTCGCGAACTTACCCCGATAT
1 TCAGGCCTTTTCGAGCCTGAACCTGGCTTTGCCGAATGCT
1 TGTTGGTAGACACTGTGCTACTGATCTATTCGAAGATAAG
1 GCGATACCCTCGTTATACTCGGGACCCAACAACCCCCTAT
1 CACATACATGTCAACACCCCGACAATACCGACACAACATC
1 TGCGTCCCATGTGTCTGTCCAACCTACTGCGGCGCACTAT
1 GGCCCACGTATCGAGGCCCTCCGACGGTCCAAAGGCCATC
1 CCCACTCGACCTCCCCCACCTCTTCCGCCCGTTCGACCCA
1 CCCCGAGACTGACACCGTCCCGCTCCCACAACCCGGCCTC
1 CTATCACCCTACAATATCATATACCTTTTTTGTTTGTAAA
1 GCCTTGAGGTGCTATAGCTGTCCTGTATCTTGACCGCGCC
1 GGCATTCCATTGATTATAATTGCTCCCACACCCCCTCAGG
1 ACTTTAGCGCGACGACCGCCCCTGCCGACAACCCCCGACT
1 GGGAGCATAGATCTGATCTGGGATGAACCGCCATCGCGAT
1 CCAACTTTGGCCTGTGCCTTGCCTCCCGCTCCCTCCAGCA
1 GCAGGTACTCCCCAGGCCACCATTGCCAATCACCTGCAAT
1 CTAAACTAACGAAAACTGATTCCCAACATGAGGGAACCTT
1 TTAATCATATGATCAGCAGCCAGGGTGACAGATGATCACG
1 AACGCACCTTGCATTTTTCCACCAAGGCAGCCAGCACCAA
0.6324581561890321 CGACGACACTCCCCGGTCATATCAGGTGCCCTAATATTAT
0.03464199205284473 AAACCCTGAGCGATGCCCAAGCAAATCTTTATCTTTAGAT
1 CGCATTACCATTGCACCAACCCGCCCCATATTAACCCTAA
0.7174306713003208 TCCATAGATCGACGCGATTAGCCGATACCTTCGACAAGTG
0.8537387210308609 CAAAGCCAATGGCTAGGTAATCATCATCTCATCTTGGCTC
1 ACGATCTTCCCAATGCCTCGCCGTTGTGGCTAACAGAATA
1 AGAAAGCAATTACGCTGTCGCCCACCACCGCCTACCCCCC
1 TTACTTCCGACAGCTACACAGTCCCTCTCATGCTGAGTTA
1 CCAAGTTCAAAATAACTCCAAACTATCCATCAGCCCTAAT
0.7279478694553997 CAATCACGACATCAAACATAGATTAATACCTCTCGTGATT
0.9089011796966172 TGACTTAGTACCTAATCACCCGTCCTGGCACATCAATTAT
1 TCCCTAATCTCGCCCGGCCACACCCGCCCCGCTAAGTTGC
1 TGCCCCAAGCCCCTCGGACTACTACCAGACCACCCTCCGC
0.904145498249381 CCCCGATCACCTCTCTTGTCTACAATTACATTTCTGTTAT
0.5745090172607963 GGAGAATTTTCGCTCACGCCCAATTAAGGCTTATCAAATC
1 GCATGTCTACGCTTTCCTTCCGTGAGGTTGTGGACGTTAT
1 AGGCTACCGGCTCTGCAAAAGGCGTTGCTGTGGATGTTAT
1 CACGTCCAGCTCATACTATCCACCCACTTTACCCACCTAT
0.5391666787799869 TCAGCCGCGTCATATGTGAAGCACGGAGCATATCTAGATT
0.1273088040497638 TAACGGCTACAGCCGAGCGAGCCCTCCCGACCAAGCTTAT
1 ATAACCGGACTGACTGTCCCCACAGGAGCTTTCTCTCCTC
1 ATATCAGCCGTTGTCATTGCCTGCCTTCACGACCAATACG
1 TACCAAGGCTCGCTTGCTACACGTGGCTTCTCTGTAGTGC
1 ATAATGGATGTGCGAGCCCCCGCTCGCTTTAAGTCCCCCT
0.8377294397212525 CACAAAAACCCCCAGCGCTTAACGCGATGTTCCTTCTTAT
1 ATAGAATTAACTTATGATGGGCGGAGCATCTAAACCATAT
0.5208138925129097 ATGCCGTTATTTACCGCGCTGCCGCCTTGGAACATCTTAT
1 CGATAAACCGCCGCCACCCGTATTAACAGGACACCAATCA
1 TAATCAGAAGAGCAACAAATTGCACCTTCTTTGCGCCCCT
1 AGACCCCACACTGCCAAAAAGCGCGAATCACAGGCTATTC
1 ACTTCCAGGGAACCGGTAACCTATTCCGACCACTCCTTGC
1 ATCAGAAGATTACAACTTCCGAGCTCCGCTGGTTGACCCA
1 ACTCTTTCCGACATGTTGGGCCTCGCGAGTTCCGCGTACT
0.6952587665676988 GTGAGCTCGCCTGAAAAGCTATGGACCAGGTCGGTCTTAT
1 ATACCATCTGCGTCCCTCCGATCCTCGTCGCCCTGAACGT
1 CTACGTATCAAACACCTCGTATCTATATTTCACGAATAAC
1 TGCAGCGATGTCTTACGATACCAATCCGGCTGGCGCGCAT
1 CCTGATACGCGCAAACAAATCCTAAACGCGTGTTCTAGCT
1 TGACTAAGGAAGCCGATGTTTCAGAACACCTCGCAATCGT
1 AGTCCGGCCCATTTCGGGGATCGTAAGTACAAAGCCTCTC
1 GCTAATCGTACATCATAAATGTGACGCCCTGCTGAAGCAG
1 CGCAACAGCCGATTTTGCCTTTTTGTATGGTTTCTTACAT
1 ACCGTACCTAATCATGCCCCACATCTAGAAGGCGCAAGAC
1 CATTTTAACACCATACTTCATACGCTTGAGCTGCGAGTAC
1 GTGGCCAAGTAAATGCGGCGCGATAATGTCTCCGTTGTGC
0.4112437963942894 CACTCTTGTTCGTATCGGCCCGACGGTCTACATCAGATAA
1 ACGATAATGAGCCCCAAAACTCTGCAGAACAATCGTGGTG
1 TTCGATTCCATGACCCCGGGCTTTACCTCCGATACTAACC
0.1365878709554554 TCACCATCTGGAGATAATTACGACTAGAGCTATCACTTTT
1 CGCGTGGATGTTCGAAGATTTCGCTTCAATGGTGTATTAT
1 CTTGCCCGCCTGCCCACCGCGAGACATTCCTCAATGTCAT
1 CCCGCCCCGGCGTCACCGCTACTTCCTCCGGCCATCTAAT
1 TGAGTACCACTACACGTCTTCCTCTCTCTTATCCGCGTGT
1 CACCGCCCCGGGACATCGCGATCCGGCGGAAGCTGATGTA
1 TCACACTTCACAATCGCCGTACAATGCTCCAACGTACCCA
0.9941205339918643 TCGCGCCCGTCTTGACTCTGGATGGTGCACTTCGTCTTAT
1 CAACATCCCCACCCAAATCGTTCCCCCCAGCTCTACCTAT
1 GCACTATCTGGATTGCTAGGACTATTCTCCTGCGAATTAT
0.1506464275037341 TGATAACGGGAACAGCGCTCCGTGGTTTACTTAATGTTGA
1 TTGATAACAGAACCCCCCTGGCGCTAGAGCCTCAGCTTAC
1 TCCCTACTGACTTGGTGGGAAACTACCAGACAATCATAAT
1 CACTGGTTCCACACTCCGTGCCGTATACCCGCCAAGCCAA
1 GTGTGCGATCCGTTGTAAAATCAGATTGTAACGTTTTCCA
1 CACCGCCATTCCTGCACTAGGGCTGCCTTACTGCGCTTAT
1 CCATCAGCACCCCACGCCGCCCCGCCTACGCCACGTTTAT
1 CCTATCGCGCACTATTCTTGATAGCATGTCACTCATTCGC
1 GAAGCGTCCAGCACCCATTGATCAACCTCTAAGGGGCGTT
1 GCCCAAATTGAAACATCTCCTCCTCCGATCTCGGTTCTAT
0.6553358897228753 GATGTCGCTTCGAGCGCACTATCCTAGTCCATCTCATTAT
1 TCGTGACTCCAACTTGTCCAACTCGCCTTTGACAACCAAC
1 TGATAAGGTCAATACATCCATCCCACTTGCACTTACCTAT
1 CCCGCATTCCAACGCGAGTGTTGATCTAGATTATTTGCTA
1 TATAGATATTGCCACTGTGGCCCGCAACGCATTAAATAAT
1 CGGCATCATGATTGCCCCCCCGATACGTGCAGAACACTAT
1 GCGTACGCGTAATGTTCGCCCCGCGAACGATATCTACTAG
1 CCGTTGAGTCAGGAGCAAATGAATGAGTGTGCTCGCACTT
1 CCATCTTTACCCCTCAAATGCCACCCCACGGATGCCGTAT
1 CCACTAACCACGCCCATAGTACGATCCGCCGCGCTGCCTT
1 CCCCCACGTAGGATCCCCGTACCTAATACGGTTGCATGTC
1 CCGATAACCCGATCCCACGCCTCCGAGGCACACACGTCTT
1 CAGTATGAGATCATCCTAACCGATAGCGTGCACTCCCGCG
1 ACGCAGGCACACAATCATAGTTTCCTGACTCCACGCGCCA
0.1276781632239351 CCCGCTCTCAACCGCCGCAACCCCTGCCCCTTCCCGTTAT
0.4798559590665892 TATTCTGCGTTCGGTGGTTATCGCTGGGGCGCACGGTCCC
1 CTGACACCCCAGCATATGCACGGTATCCCGCCGCTCTCAT
1 CTAACATGCCCCAGGCCACTCCCCCACACGTACCAGCTCA
1 GCACCGGATTCTTCCTTCGCAAAGCACGATTGTGAACCTC
1 TCCGTCACCTTGTCAAAGCCTCTCGTCCTCTTACGGTTCC
1 CTTATCAGCCCTTTCCATCTCTAAGGTGAACAAACGGTGC
1 CTGATATCCCGATATTTACCACTGATCGTAGTCTGTGGTA
1 CACACTGCACAGAAACGGGCAGGTCCACTCCCCAACAGGA
1 CCCACCCGCTACCATCAGGAGGGCGGCGGAACGCACCCCA
1 CCCAATCAGCAGCACGCGATCAGCACTTACGACCCATGAT
1 TGGCATCAAAATTTCCACTCCTGATCTCTCATCTCGATAA
1 CTCTCCTAAAAACCCTCAGACAGATCCATAAAACCGATAA
1 AGTCAGTCCCCGATATACCGTCGCGATTACACATCCACCG
0.6146307326487248 CCCTAATGAGACATATCCCGACTCGCACGTGACCCCTTAT
0.8252791171289144 GATGCTCTCAGACCACACGCGAGCGGGCCCATCGGCTTAT
0.2019585455645224 CCACACTTTCGGCTTTGGTGTAACTCTTATCCTAGTCGAT
1 TGATAAGGAGCCCAAAGAGAAAGGACCCGCTTAAAGCCGA
1 CCTTCAGACACGTATCCGCCTTTGGCGGGCAGGTCGTTAT
1 TACCCATGGCCATCGCTCACCGACAACCTGAGAGCTAAAT
1 ATTGGTTCTCAGTGTGCAAAGAAATGCAGTTAACAGAGAT
0.3963974133865962 TAAAGCTCCCAGCCTATATTCACCGCTTTATAGTCCTTAT
1 CCCACGCAAGACGCCCTGCAGCCGTATGAAGACCTACGTT
1 CGATAAGCAACTACGCAACCGAAAGTTTCCTCCTCACTCA
1 CCCCGGATCATAAGGCTTGTGCACGTAGAACGAGACTCTC
1 ATTGCACGACGAACGAACACGTCTATTAGCCCAGGCGTCA
1 CCGCCATCTGATTTCATGTCAACCTGGCGTCATTTTGCAA
1 CGTATAAAACCCCGTAACATCCCTTATCCCGTACGCTATC
1 CCTCCCACGCTGCTCCTCGCTTTGCTTAGCCGTCAATGTA
1 CCTGACGATAACTTCTATTCATTCCCTACACAATTACTAT
1 CGATTAACTATGGTACGAAACCCAGCTTAAAGTAGAACAC
0.7720901051225622 CCTTACCTATCACCCTCTGCATCTGCCCTTGAGCCTTTAT
0.3670775563341179 CCGCATGATGAATTCTGATATCATCATTTCAGTAGAATAT
1 ATGCACTCCGCCGCAACCCGTCGAAGCTTAACCTCATCTG
0.3110819241118938 TGGACCGTATCGATCGACTCCTGATACCGGAATCATTGTC
1 TTTTCGAGTCTGGCCCTCTCTGAGCATCGCCATAAGCCTC
1 GTAGAATGTGCATTTGACTTTGTTACCAGCACGCCTAAGT
0.3171916622038473 TACCAAGTTTTTCCTACGCCAGCCAGTGGCAGCCCGTTAT
0.4704623878134079 CGGCGCACGCGGACAGCGACCTAGCATCTACAGGCGTTAT
1 CAAATGCACCCTTGTTTCCCTCTTCACCCGCACGTGTTGA
1 CGTAGACTCTCCCCAATAGCAACAGTGCAGAGCCCGTGCG
1 CCCGTTCGTCATGTACCGACGTCAACGTTTTGATCTCCCC
1 TGACGCTGTGCGGTATCCCCTCGTGCTCCACTGTTGTTAT
1 TAGTTTAAACCAACCTTCCTCGTGACCATCCTCCCGCATA
0.5782615141314712 ATCCTATACTGCAAGATAAGTCCATCGCAGTTACCCCGCC
0.9968893660298178 CCCGAGCGAGTGATCAGGACTCCTCGAGTACAAGACTTAT
1 GCCCCGCTTCCTATGCGATCCTTGGGGGTAAACCACAAAT
1 CCACCTACACTCACTGCTCCTGAGCGAGTGGGCTACATAT
0.120666352247311 GTCCGTTGTTGTCTTTATCTTTATTTCAATCATATACGTC
0.911924739256639 CTCCCTAATTCTCAAGAACTTATCACGAGTGCCAATGGGG
1 TACTACCCGACGTCGCCGGATGCCTCCTACCCCCGCTTAT
1 AACGTAGCAACTATCCCCTGGGGACCACATGTACGCTAGA
1 CCCTTATCCTGCGCACTATCGGCAATTTCAGACCACAATG
1 TAGATAAAGGCGAATTTCCCTGTGTATGCAATGAACAATG
1 CGCCCGGGGGCTCAGGTTTATCAATGAATCCGATCTTCCC
1 CTGCACTCCTCGGAGTCCCCAGAGGCGTGTCCGTTCTTAT
1 ATGCACCTTTGAACCTTGACTCTCTTGCTACGTGATTAAC
1 AAACCGAAGCGATGGTTCAGCACAATCAGCGGATTGACCA
1 TGATGAAGACCGCAGTTGAAACACTCCCCTCGAACCACTT
1 CCAGCTAATATGGGTATCTTCATAGAGACACAACCTAGGT
1 CCACCACCCCGCACCCCTCCCCCCCCAAGCGAACACCTAC
1 CGATCATTCCGACACAAGAATCATCGGCGCGGGCACGTCA
0.5991722834592986 CTGATTAGTCCCGAGCCCATCTGCCCCGCTAATCTGAACC
1 TCCACGCCTAGTTGCGGCACTGACACAAGTTGTGCAGATG
0.521495798281599 CACTTAGATACTTGGGCTATCTGTGAATACTCTCCCATAT
1 TTACCCAGCTCCGTATTCCATACCAGCTTCCTTAGACACG
0.6645904565808485 GGCCTGACTTTCTTCCATTCTCGATAACATCTGCACCATT
1 AATCCACTTAAGGCGCGCCGTCAATCTATCCACGCAATAT
1 ACAGATCCCCACGCGCATTACAAGACCCTGACGAAACGTG
1 TCCCTATTTAGGCCACACAGACAGCTTGCATGTGTCTTAT
1 TATCGCCCCACAGTGATCTTCTCTCGGGCAATGGACCTCC
0.9165990172940182 TTGTTCTATACTATTATCTGTTTATTTGGCCCTCTGCAAT
0.3164525919970545 GTCCTTTATCAAAAGCTCCCGAGCTCTATCTTGATGAGAG
1 GCCCCGACGGGAGCCATTCATTTACCCTCTCTATTCTTAT
1 CTTTATCATGGCAACAATCTGCGCTGCCTTTTGTGCATTG
1 TTAGTAACTGAAGGCAGTACGCGATCGTAATCCCCAATAT
1 TCACAGTCAATATCTAGTGTACCATCTGTATACCGATTAC
0.02019118130389624 ATAAGACGGGCTAGCCTCACTACAACGCGCGGATGCTAAA
1 AACAGACGAACGCCCCAACCCACCTCCTTGCACACGCATC
1 TTATCAGAGCCCTATCACCTTCCTCCCAACGCCAACATGG
0.9499307245053527 AAACAACATACCCATATCACTACAAATCTCAGCTCTGCTC
1 AAGCCTCACCCCACGCACCCATAACGGAATCAGATAAGCC
1 CCCGCTGATTGGGAACCCAGATTGTCTGCCACTAACCGTT
1 CAGCTTCGATCCATAGCGGTCGTCTATGTCACCGCATTAT
1 ACACTAGCCAATCATTCCATCGGCAGATAGTAACCTATGT
1 TGGTTCAGTCCATTCGCTGAAGACTTTATTCCTGATTAGA
1 CGAACATACGTACGTCCAGGTTACCACATAGACAGACCCT
1 CCCTACCGTCCACCAGAGGCCCTACCTTCAGCACAGCAAA
1 TGCCAGATCCCTCCCTTACGAGTAATACGCAGTAACCCAT
1 CTAGTCAACCGGTATGCGCAACTAGCCTATGCCCTGTCAC
1 CGTGCAACATACTGTTGGAATCCATCCCAAGGCAGGGCTT
1 GTGTCCCCATTGCACATCGCGCTGTTCCATCACCGGTTAT
1 CCAAACACTCGTTCGAATTCAGGCCGGAATGCCCCCTTAT
0.8789744823523059 TGGCCTCGAAGAAGTTCTTTACGATGTAGCTCGTTATCAC
1 TCCGGCGCACCCGAGAATATATCTATCCATGCCTTGTCAT
1 ACCCACTTGACGGCACCAACTCGTCAATGAAAACACCATC
1 ACGGCCAGTGCTCCGTTCCACGCACACAAGCGTCTTAGTC
1 TCATATACTGCTGACCACCCGTGCGACTAACAACGCTACT
1 GCGTAAAATGCCCGCCACATTGCAGCCCGTGCGGACCACC
0.6725883560088796 CGCCCGCCGCACATTTCCAACACCACCGGTAGCACGTTAT
1 TTATCAGAATACGATCAATCGCAATTTAGTCTACGCGACC
0.8472356883109166 CAAATCGCTCGCATTTATTCGGATCCCCTTCGCGCCTTAT
0.1955510353535327 TATCAGTATTCGGCATACCCTGATGCATTTGTTGATAAAA
1 CATTAGCGTCACTATAGTCTAGACGAACCATCTATCAGAT
1 CCAGTCCCTACACCACGCTGACCATCCCGTTATGGTCCCC
1 CGTGATGTTACAACCACCTTGCGCCGGCCTGTCTCACTAT
0.8026713942794954 TCTGCACCGCATCATTGCTAATAATCGGGAACCGCCTAAT
1 ATCACTATGCGTTGCTACACCTTAGTGCTCCCAAAATTAT
1 TCACCTCCATCGCTAGGGATCCATATAGCCATGTCATCTC
0.49608605889623 ATCGATACGACTGATACATATGCCGTTGGGGGCCCAGTAT
1 TGCCGTTCCCATCCTACCACGACCTGGATAATCATACTAC
1 CATGCCCACAAAACCGAGAATACGTCCCAGGTACTACTAG
0.2977245564309254 GCATTACGGTGTACCTCATGACGCCCCTCCGCACCGTTAT
1 TTGGTGATAGGTTAGAAACAGTGTGCCACTCCCATACAGT
1 CGCGACGTTGACGAGTGCACTGTAGCCCGGCCTCCATGCC
1 ATAAAGCTACGAACTGCGTAGGACCCACCGACAATCGGTT
1 AATCCCCCCAGCCACAAAAGGCCCAGCGCTCCCTAACCCC
0.4315384967862173 GCTACTCTGGCACAGACATGCCTTCTAACCATTCGCTTAT
1 AAATCGATTACACCTCCTGGTGGCTGGAAGGCACATAACA
1 AGGTTATCTAGCCAAATAATCTTACGCGGATGTTCCCCAT
1 ATACAAAACCACAACCTTCCTCATCCCAGGCCTTCCTCAG
1 AACGTGTCCATCGGCCTCGGTCCACCGGGGCATAAACCTG
1 CGTGCACTTCCTCTCCGTGTGCTTCCCTCTCACCGTTTGG
1 CACACATATGGATGGCAATCTAACAACTTAGATAGGCCGG
1 AGGAACTCAAAGCTTTCCAGGCTACCGCTCACCGACGCGC
0.02242235034007659 ACCGTCAGCAACGAAGATAAGCCCCCACATCATTACCACA
1 GACTCCACGCGTGGCATGCACTTTTCCTTGCGCCCGGTCT
1 TATACTTGTCTTACACCGCCAAATGCACCCCCCGTGGTTC
0.008816931184876149 CCTCACTGCTCTAGATTCACATCCCGATAAGTTGATCATA
1 ACTGTCTTAGGAAGACCCGTAAAAGACAACACAGTCTTAT
1 TATATTACCCTCGTAACCCGCACCGATTGAGTTGGAAATA
1 TGAACGGGTATTCTACTTGGAAGAGTACGCTTCGCAGTCC
1 CGCAAGTCAGTCCTAACAATCTACCCATTCAATCTGAAAT
1 CGCGCGAGCTTGAGGCGTCAGTGCGCAACGCGATCCCTCT
1 CAGGCCCGCGCCCCTGATCACTCTACCCACTGTCCACTAT
1 TTCCAACACCTACACAATCGTAATCACTCATGACACGCGC
1 CATCCCACTCCGCTGATACGCGACCCCGGCGTACACCCGT
1 ACAGACCGTACCCCGGTTAAGCAATCATCTGCCCCAACCT
1 ACGATAGCGAATTCAATTCCCTACCTTAACGAAACACTAA
0.5782952123553181 TACAGCTCACTGCCTGATCCTTATCGAGGGAACCATCTGA
1 GCATACCAAGGCGTTTTCGAATGCGCTTCGTACGCCTAAG
1 AAGCGCGACAAACTTCACACCCTGACAACGCGCCAGACGT
0.3554904608549725 GACATCCATTTCTATGAAAATCGACTATGTGACTGCTTAT
0.1664471560407766 CCCGGCTGATCCCGCAACCCTGATTTGCCGACCGTGTTAT
0.7502632629487469 CGCCGAGTGTGTGCCGTAGAGCAACAGAAACCTTATCGGT
1 CCTCGGTCACCAACACCACTCGGCCTCGCCGACCTAGCCC
1 ACAATGTGGACCCCTATCCAACGAGTCGCCCTCCGCGTAT
1 AGCTTATGTCATATCTAACCCCCCCTGAGTTAAGATAGCT
1 CAGATCTTTGGTTGTATCTGTTCAGGGACGGCTAGCCCCC
1 GGCACGCACGCCTGACCAGCATATTATCGTGAACACATCA
1 CGATAACCCCCAAACTCATAACCCTATACGACACCGACCT
1 CAAGGCGCCTGTCATGCGGCTATCCGCGAGATCTGCATAT
1 CCAGAGAGCCATCGCACAGACCGCCCCCACCTACTCCAGC
1 AACACTCGAATTGTATGCACGTAGCGATGGACTAAGTAAT
1 CAACGCCCTACCGGTAAGCGTGGCCCTAACGCATTTTGCA
0.2226793519135041 ATTGATAAACAAACTATGAGCAATGTCATAACAATATTAA
1 CAACAACGGGTGCACCAGTTTCTCATCTCGCAATACCGCC
1 TCAAAACACGCGGTGGATGTACTCAAGCCCGCATGGCAGT
0.04096429971664764 TATCACCTCCCATCACGACGATAACCTCGGCAGCCGTCTA
1 AATGCGGACTAATGCACGACCATCGCTGTGTGGCCCATAT
1 TTACCACCGTGACCCTGCTTCGCCGACGTCCTCTCTCCCC
1 ATTAGCTATAAGCTAACAGTGAGGATTTATACGCGTACCG
1 AAACAGTTAATAGCCCCCGCGGTACAATTCAGTGTCGGGC
1 TTGTTTTACAAGATTTACAAACGCTATGACCCTGACAACA
1 CTCCCATCAGTCAAAGAACCCTACGGCGCCCGTATCGCAC
1 TCCATGTGCGTTACCCCTACCGATGGAATATTTAAATTAT
1 TATCTGTCATAGCAATCTAAACAACAACTGCCTCACCAGC
1 CTTCCTGCGGCTACCTCCCCAGCTTACTCGCGATACCACA
1 CTACGTGAAGTAGTACTGCTCCCTTGCTTCGTGCCCAGCC
1 CCTATGGCTGCGTGATACGTCGGTACGAGGGATGTGCCTG
1 CGCAATCCCTACATTTACAATCCCCGCCACCATCCAAGGG
1 TTTCGGCACTCGTGGCGCTATCCGCCACAGATACACCCGT
1 ACTCTCCTTCCTAAACCTCTCGACTTTCCGGCCGAAATAT
1 TTCACCCCCAGCATCACGGTCACGTGAAGAGCGGGCAACT
1 CCTTTCCTAATCCGCGCCACTCACGCGTCCATATCCTTGG
1 CACCGCGGAAATACAATTAGCGGGTAGCAATCCACACAAA
1 ATTGTCATATCCATACTCTCTAATCAAGCTCCTACCCCTA
1 CCCCACGTAAATTTGATCATCCTTCCTTATCCTCTACCAT
1 ACGCACCCTCAGCACTTCAAGCCTTTTAGACCCTCACTTT
0.5522062939631883 GCTAATCTAGATACCACGCGCGAACCCTGGCCTGCATAAT
0.3911403189738448 GGTTATCAGCGAAGAATCATTTGTCATGATACCGCCATTT
0.03752164747276195 CGCAACACCACACACTTGGGTATCGTAATAGATGCGTTAT
1 CCTTATCTCCGGGTGGATCTTCCGATGCGCTGCACTGTAC
1 ATAACAGCCACATTGTTCCCCCTCCCCTCTCCCCCGTTCC
1 CTGCTCATACTTACATTCCCGCGGCTTAGCTAGCCGCAGA
1 TGGTGAATACTTTCCTAACTATCCGCATGCGGTAGATTAT
1 GCAACCCCTCTCCGATCTACATACGCGCGAAATACCCTCG
1 CCCTCACAGGAGGCGCTGACAATTCCTCAACTTTCATTAT
1 GCTTCACGTATAGTCTACTGTCTGAATGCAAACAAGGCTA
1 TTAGCGCTGAACCGCCCTCAAGCTTGGACAACATCGCGCA
0.8781517669456101 TGATTAACAGCCTCTCCGATAACTCCGTTACAGGATGCGA
1 ACTGATTCCAGCGCCACCGACGCTTCTACATGGTTCGCAC
1 AATTCTTCACAACAAATCACAACGTCAAATCGTCCGACGA
1 CGCACCGGCTGCAGCCGCGACTTTAGATACAGGTTATCTT
1 CAGGTGACTGGTCGCTTCCCCGGGCTTGAGCCTGATTAAT
1 ACTTCAGCTGTACCTTACGCTCCCCACTCAGATCCTCTAT
0.146896538306513 ATATCCCTTCGAAGTAGTGAACCACTATCTTTCGTTCGAT
1 TGCAGTAAACGAGATGTGCACTAAAATCGAAACTGATAAT
1 GCTGATTTGTCCTGTTGAATCTCCTAATCGTGTCATCTCT
1 AACCCGTAATGCGGTTACTTCATTGCCCCCTTTATCGGCA
1 ATAGCGCGGTTTCGTTCGTATAGGAATGACTGCCTAACAT
1 TTCTACCGTACGTGCAAAATTTCCATAGCCAACGACCATC
1 TCCATCCTAACCACGCTTCACACGCGCGCCAGGCCCTGAT
1 CTCACGCGCGCGTCGCCCCGACGCCTTGGCACTTGCTTAT
1 TTATCGCGCCCTCAAATCTACGGATGGCTAGGCATACCTC
1 TACGAGCTATACTCCCCTTGTACGTACCGGCGATGGACCT
1 CGCTCTCTCCAACCGCCCGAATACTTGCGCCTTCCAACCG
1 AAACGATAATGGTAAAGAACAGTTCAGAACCAGAAAATTT
1 GGTATCGATGCTAGTCAAATGTGCGGTAGCGGGAATGATA
1 CCAGACTACCTCGCATCGCGATCTCGCGTTTCAAATACCA
1 GAATATCGTCCAACACGCTCATGCGCGTCTAAAGCATAGC
1 CTTATGAAGCCTAAAGGAACCAGTAGTCTCCCGTTGTGCC
1 TGAAGCTCATCACTCTCCCCATCGCCAGAACCGCGGTCCA
1 GCCTACCTGCCCCGCCCCAACTCTGCTATCGTGGATTAAT
1 ATGTGCCGGGCTACCTACCCATTGACATGACCCGTGGATG
1 TCTCGCGTTGAACCGCTTGGCCTGCGTGCCCATACCCGGC
1 CTGACCGGAAGACTGCGACGGTGCGCCGGCAATGAGTCCG
1 ATAAAATCCAAGAGCCCTCACTTGAAAGGAGTTTAGATGG
1 CATTCCCGGCAAGGAACGCGCTCGCGCTACCGTCTGCGAG
0.3509607460305151 CGTTATCACTAGAATCGATCTAACACCCTCTCATTACCCG
1 AGGCCTCGTTCGATGCAATAGCCGTTTCCACAGGACCGAT
1 CTATGTTACAAGCGGCAGAACCCATCCCCCCCTTGGATCA
0.7594426577295211 AACGATTCGTAACGTTAGGACCTCCTCTTCTTATCCCAAT
0.1938185462186509 CGGACAAGTCAACTTTAGAGCCGATGACCGCGTCGCTTAT
0.5525337129704507 AGTGACCACATTATCAACACGTGTCATCTGGAAGAAAAGG
1 TGCAATGAAAACCGAAACACGACTAAAGCACCCGCTTAAC
0.4919643211663672 TATCGTTGAAGACCACAGTCGGGACGTGAGCTTTGCTTAT
0.9170042509297762 CGCAACGACGCGAACCCAACCCATATCATTACGCGATCAT
1 CTTTCGCATACGAGATTGTGAACACAGCATAGCAGGCATG
1 GCTTAGACCTGGCCCCGTCCAGGCTCACGATTCCGGTACG
1 GTTCCTGCCACAGAACCGTGCCCTTGCACCTTGAACTGTC
0.7805238616672328 TACAATGACCCGCTGTAATTGGACTGGACCTTGTTGTTAT
1 CGCCGATACCGGTTGAGCCCACCCGTTCACTTAGTACCTT
1 CTAGGTTCTGTGCCACCTCACCATATCTAATCCCACGTAC
1 GAGCTTCAAGATCGAATATGCTGATTACCCACGCCTTTTC
1 ATAATCCCTTACAAATAGCCTAAACCTGATCTCCCCCGAG
1 CGCAAATATCACTCTACGTAGCCCGACTAGTATTCCAACA
1 AGCTCTGCGCTAGCACCGTCCATTCCTCGGCATAAGCATA
1 CCCGCCCCACTGGAGCCCGATATTCTCGTAAGATTACTGA
1 AGTCGATAACCCCTCAGGGCTAAACGTCCATNTGTATTGC
1 CGGTCTCAGTAAAAGCCACGCCGAGGTTCAACGGCCTTAT
1 CTGCACCCAACGACGCAAGGCAGGTGCTACCCCCGAAGAC
1 CCTTCCCCCGTAATGTCAGACACCACACAACCAATAGATG
1 GACATAACCTACCGGTAAGTATCACCCCAAGGTATCTAAT
1 AATAGGGCGAACACTCACCTTATTCGAGGACCTATAAACC
0.9299852301563082 TCCGAGCACTCATGAGCGTACGTAACCGTGGATGGCTTAT
0.9698377084944144 TTGATCCAAGCACTGATAACGTTCCTCAAAAACTAAGACC
0.8600628935588002 GTACCATATTATCTCGTACTACATCGCTCCGCACTGGACT
1 GTAGGTTCCCCAACGTGCGCCGCCCCCGTGTTTCCTTTAT
1 TAATCTGTTTACCGCCCGATCGCCAGGGTAACATATTTAT
1 TGTCATTCCACTCGGAGAGTGATCGTCCACTTGATACCGC
1 ACCGCGTACACCACTCCGCACACCTTTAAGGTGACCCGCG
1 GTGTCTTGCGGCACCCGGTTCAAGTTTATCGAACCACTAT
1 ATCAATACGTCCCACACCGGTAATAAGCACCTTGACTTAT
1 CAGCCGCTGCGTTAACTTCAAATTAGTGCACGCTGAAATC
1 TCAAAATCACCGTGGCACACCCAAGGTGTGATTGAATTTA
1 TGCTGATTATATGCGCTTATGTCCACGCGGATGGGTGTAG
1 GGGGTAATAACGCCGCAGTTTCAATGCCATTACCCCTTAC
1 TGTGCACCCTACGGCACAATCACATAACACACTACTTACC
1 CCGCAGATCGAACCTTGTTGAGGAAAAGCCTTACCACAAT
1 ATTCCGCACCACCGGATCATTCGGGCCCGGTAATCATACT
1 GGCAATTAGCAGCTGATGTGCTCTCTTACAACGCACTTAT
1 TATGGGTGTGTCCACCGAGTAGTATAGCATCCTATGCTCA
1 TTACCTAATCACATCTTGGTTTATTGGAGGCGCCGCGCCT
1 ATGTTTGCCGACGTGTACGCGGTGCATGACCGACTAAACG
0.6749387158749053 ACTGCGCTCCGCACCCATTATCCAGCATCATCGCCACTAT
1 CCCCCTTGCGGCGATGGCTGCCCACGCTTTACAACGTTAT
1 GCACACGGGGACGCACCGATACCGTAAACCTGCTATACAA
1 GGCACAAGAGAATCCCCCCGCCTCTACCGATTAAACGCCG
1 GCCTACGAATTCCCCAGCCGCCACCCACCACCTAACCGTC
1 CCAACCGATGCACCCGACCCCAACGGGTTCAAGCCGCGCC
1 CACGATCGCTCGCCGATATGCTAACTCGTTGTCGCCTACC
1 AGACCTAAGGTACCGGCAGGACTTATGACAGATGGTAGGT
1 TACGATCAAGGAGCCATGATTTGCCAGGCTATAACCAGGA
0.1741880372958602 CCCGCGTAATTATAATGCGCTCACTCAATAAGCATCTTAT
0.1907242893863666 ACGCCTAAATAACTTGATACCTTCCAGCACCACCGATTAT
1 TTATCAGGCGAGCTTCGTTAACGCGAAACACCTCCGCTGT
1 TAACCCAAGACGAGGTTGTCCAAATCACAGTATTGGGGGC
1 GTCCCACACCAATACTACGCGCCTCGCCAGACACACGTAG
1 ATTAGATCCTGGAGTGGACAACAACATCTTCATCCCATCG
1 CAGCATTCCCATCCGTCATGCCAGGCATACATAACCTAAT
0.3461855363778145 ATACTTCTTATCCAGATGAAACATCGAAGATTTTGCCATG
1 CATGCCCCTAAATCATGCCTTACACCCAAATCAGGCTAAT
1 GCATGCCATTCCTACCTTTTTTGATCTTCTTCTATTGCTT
1 CAACAAGAAGCGCGTTACTCGCAGCCATCAAGCCGAACAT
1 TGACATACAGGCCCTACTCACTTCTGCCCCGCACCCTAAT
1 CTGCTCGCTCCCCCTGTATCGCCAGCGCGATCGGAACCAC
1 CCGATGAGCTACTCCAACGGGCCACTCCTTCCCACCTAAT
0.9784100376166175 CATGCGCGCGGTGCTACCCTGTACTACGCTGATCGTATCT
1 CAACGCTTATGCCTCTACAAACCCCGGAATCATAAGCTAT
1 ACTTATGAATATCTAAACCTTCAGGTTTAGTTGTCGGAAT
1 TCAACGTACCTACGGCATCCGTCACTCACCTGATGGTTAT
0.2702882679625921 CCGGTCTACGCATCGCATTTGCCATACGCTATCTTACCCT
0.3030759614289738 GACTTACTTATCATGAACACTTTGTACATCAGAATACTAT
0.3235659068685672 TTGCAATAAGCCTCGCTTCATAGAAAACAACACGCGTTAT
1 TACTATCCTAAAACCGCAGGGTTCAACCCAGTACACTGAT
1 CCCGATGTCGTAGTGCGTGCGGCTCGTTACAACACGATAT
1 TCAGCATGGACCCGCTGGGTTAGAGGCGCTTCGTTCTTAT
1 CCACAAAGCTATCGTGCAATCTTTCCGTGCCCCCATCACT
0.6617902239441339 ATCAGCGCAAATGATAAAACGAGTCGCATAGTCACATACT
1 CCGATATACTTATTTATCGGCCCGTCGGATCCCTGTACAA
1 GCCTAAGTCCAAGGCACCACCCGCCCAGCCCTGCCCCCGC
1 AGGGACCACCTGTGTGTTTACCGTCCATTTGAGCTATTAT
1 GCACTCGCGACACGCGCAACTTCCTCGAGCTCATCTCTGT
0.3795696175018234 TTACTAGCGTTTCTAGGAGTTAGATGTTATCTTCACCATC
1 ACCCGTCCGAATCTTTACGGGCGATCTCACCTTCTCGGTG
1 CGTTTTCGATGTTCGCTCAGCTCAGAGCGCGGCCTCTTAT
0.003767755989073803 CTAATCCATTACATCTCCCCCCGTCCCGGCTAAGCTTTAT
1 GACAGTAATCTAATGAATGCGTTGCATAGTGTCCGCGCTA
1 CATTTGCATACCAGCCCAGTTCACCGAGAGCACATTTCAT
1 GAGTACATACAGCTATCAGCATCCCACATCAATATACAAC
1 AGAGCTCCATGCGGCACACACCATGTAGTTGGCCTCATAT
1 CGTTCTCTCCCCATACAAAGTGCGTCCGAACATTCTCTAC
1 CCGTTTGCGGTACTGCTAAGGCTACGTGCCCCGCGCGCCA
1 TTGCAACTGCTGACAAGGCTCGCAGCGCCTTAAACCCCTA
1 CTATCTGGAGATCGCGGAACCGTGATAGTGAGCATCGCAT
0.544560010672788 GAACCAGGCGTTATGACCCTAGACAGGCCTAATCTTTACA
0.469022292511811 ATAACACAATCACCCCTTCCACCTACTTCCTCGGTTCCCG
1 CTCCCGTCAAGTCGATTTTATCATTGCATCTATACAGAAC
1 CTCTTATAATTGTTAAAGCTTTTACTCCTGATATCCGTAT
1 CGTCTTCCCAAGGGACTGGTACCGCTTCCGCTTTCCCTAT
1 CACGCTCCGCGCTCACGCCCTGTAGTACCTTCTCACAACT
1 CCTTGGGCTCTTCTTTCCATGACCAGGCCTTATCCGCGCA
1 CGCTGTGGTGCAACCCTTATGCGGATGGACATATCGCATG
1 TGATACCTTGCGTTGACCAGCTGCGTGATATGAGGCTAAA
1 CCACAACGCTTGCGGCGCAATTGCATGTGGGGTGAAACCT
1 TGCGATAACATCCTCCGATTCGCTAGTTCCACCGAACCGT
0.373343703563474 TCACTGAAAACACTTAATTATCTAATCCTTCTGCGTACGG
1 TCGCTCTTGCTTCCCACTGCCAGTAATGTACACGACTTAT
1 CCTCCCGCCAAGGCCAGCCCGTGCGGCATTGCGGCACGCA
1 ACCAGACTCTGCCGCTTATTATACCATTTCCTCCCTTTTT
1 CACTTCAAACAATGAGCCGCGCATACTGTAAGAGCACAAT
0.5658191668936928 CTATCGCAATTAATGACAACGATACCATCACCGATTGTTT
1 TTGTGGTTGCCTCCGCCACCGCACTCCATCCCAACCTTAT
0.6046584276091679 CTATCGTGGCAACACCTCCTATCGCAGCATGCACGTTACC
1 AAGCGCCTATCCTCTCTGCCACTTCCATAATATGCATTAT
1 GCTATCCGGACTCGCACCGCGTGGGCCATACGCAGAGTAC
1 AAGGCCGACGCGATATACATTTCACGTGGTAGACCCCAAA
1 CGATAGAACGGAGGTCGGTACGCTTTATGAGAACACACAT
0.3102589504613711 ACAACCGCGTCCATCAGCTCCGCCACAATGTTCAAGTTAT
1 TCCCACCAACTCCATATCTATGCAATCTCTATACTGTCCG
1 CCCTTATCCACATTGACATTCCCTATATCCGATCGGATCT
1 CTGATAATAGCGCTAACATATCTTAGAATTAGAAAGAGCC
1 CTGCGCAGAGCACCATACGGGACGTACCTTTTTTTTGCAG
1 TGGCCGGTACCAACCCCTCTCCTATTCCCAGAAGCCTACG
1 CCTGACGTCTCTGCCACGCATCCGATGCAGAAACCGTTAT
1 TCGAAGTTTTATCAATACAACGTCGAACCGATTTTGAAAA
0.21699935956612 AGACCTAGCGAAAACGACGCGCACAAAACCTTATCCAGCC
1 TGCCCGAATCCGAATGTTCCTCCTCGTTGACAGACCTAAT
1 CCAAACCCCTGGCCCAATTTGATATGCATCCCCACGATAT
0.5404609021662137 AACAACGTTCCGCCTTACGGGTTAATACCCTCACCGTTAT
1 TTATCTACCAATGCCTCTTGTCTTTGACGACATCCACTGT
1 CGTGCGTTGATTGTGTTTCGCTGCCACGGACCACACATAT
1 TTTTAACATGTCCACTGACGACAGGCTGCTCCTCCGTAAT
1 GCCTTCCAGCATCCCTGATCTGTCCACTTCACCCACGTAA
1 TATTATCGTGTTTTGCTCACTCGATAGACACGGCGCGTCG
1 CTTGCATATGACTACTCACCGCTCCATTGATGAGCTTAAT
0.4183538903036478 TCTAAGGCCTGCGCCTCCGAGACTCATGGCCTTGCCTTAT
1 CTGATAAGTGAGGAAGGCAACATAATTCGCAACTACGAGC
1 CACGATGCTTACGAGACAGGCGCGTATTCAACTTTGTTAT
1 TGACATAGACGTTAGTGCTTAAATCGAAACACCCACTTAT
1 ATACACATTCTCAACGATAGCCCAGGTGTAGTATTAAACT
1 CTCCACCATCTCACCCTGGCCCGGTTCGACGGTATCTCCC
1 GCATCCAGACATGACGAGTCCTGCCGACGCTCGCAACGGT
1 TACCCATAGGGCAGGGAGGACACCCAGCCCACCCTGCCAC
1 ACTTGCGACCTTGAGTTAACTACAATCATGATCAGCCATA
1 TCTTCTCCGCCGCTGCCCTAAAGCGCCGCTGATAAACCGC
0.6888269252969627 CTTGCCCATCCCAGTAGTGCATCCTACTGCCATTCGTTAT
1 TACGCCAAGCTCATCACAATCTTGGATTCCCATCTACAAT
1 TTTAATCGCGTGCCTCGATACTGACGTGGAAGCATTCCTA
0.91451456045493 CCCTGCCACGCCCCAAAGGCACGAATTTAAGTCTTATCTA
0.7239969183261076 CAGCGCGACCCAGCTCATATCTATACCTCGCGACACGCAA
1 CCGCGCTTCCGCTAAGAAGCAAATGCCGCGCCACCCCTCA
1 CGCACCCTCCGACTCGGCTATCGAAACTCCCAAGTTCGAT
1 AGCAGTCGGCGCTAGCCCCGACCATTGGACCCAGAGAGTA
1 TCAAATACCACCCTCTAACCATGAGAGCAACGCTTATCAT
1 TTATCGTCCCCTTCGCTAGAGTTATTATGTTAGCAATTAT
1 CTTGATCAATCCTCCTGACACCTGGCCCCAAGTGCTATAT
1 CTCCTCCCCACACAGTTAATCGCTACAAGCCCTATGTAAT
0.1424352890523777 TGGCCACCACGCGCACCACTTACGTAATCAGCGCACGTAT
1 CCGATAGGGGCATTAATTCAGCCACGTTCTCCTCTAACTA
1 CAGTGTTTTCCACTTCCTCGCCTCCCTACGCCACTGTTAT
1 GCCGCGCGGACCATTACCCGCACCGTCCAGCCCATCTTAT
1 CAATCTCGCAGTGCGCTCCCCCCCCGACCCCTCTCGTTAT
0.8993217432404632 GTAACTAACTTGTATCTGTTGATCTAACGATACTATTAGT
1 GAATCAATGCGACCCCCGCGAATTACACAGATCGTTCCGT
1 ACAACCCGGTCCCACTACCATGTCGTCCATTTGGCGTTAT
1 CCTTGTGGTCGCTGATACAGCGACCATTCCGATGTGCACA
1 AATGGCACTGACACCCCTACCAATACCCGTATCAGCCCAT
1 TCTAGTTATCTGGTGAAATCTGCGGCGTTGAACGCGGTAC
1 CGTGGTGACCTGAGGTAAGCTCGTTGTGCTGCCTAAGTTC
1 TTGACTGAGTGGACTCGGCAGAACGTGTAGTAAACAACGC
0.2866986072711534 GAAGCCGTCATGATTAATTCCTCTAATCCATAAAACTGAT
0.6555688756266131 GCATCGTCACGTTGAGATTTATACGATAGGAGCATACTAT
1 CCGATAGCAGGGAGAAAACTCAACTAGCTCGCGCGCAATG
1 TAACTTAAGTACGAGAGCGCAAGTCGTTCTTGCGTTTTGT
1 TGCAACCCTTTGAATCACAAACGCCCGATAAGGTAAACCA
1 AACACTCTACTCCCAGCAACAGAGCCATCCACGTACCGAG
1 TTATCTACTCACCGTATGACAACTCTTCAGCACGCTTGAG
1 CCCGCACCCCCTGCCGCGCACGCCGTCCCACCCCCGTAAT
1 GGGCTTACGTTCTCCCGTAAAACTGATAAACCGTAGCTTG
1 CGAGCCTGCCAATCTCTGCTCAGAATCTCAACGCGACATC
1 AAGGCCCGTAGCCGACGCGCCGCCGCCACAACATCATTAT
1 CACCATCTCCCCCCACGCACCTCGCAACAGGCACACACCC
1 CCACGCGCTCAGAGTGCGCGAAGATACACAGATCAAGTGT
1 CCTTCTTGCCCGCCCTCGTTCACACGTTTTGCACATCAAT
1 GACGACCTATTCTCTTTAAAGACACTACCCATTTCCCATT
1 GACCCCCCGCACCGCCACATGCCCACCGTCGACGCTTAGC
0.8894493628997586 GTTCTGATCCCTGGGACGGCCGCGTATCTCACCCTTTTAT
0.07802967515278228 ATAAGCGATCTACATACCCCCGCGCACTTCCACCACTCTT
0.5848313237721582 ACCGAAAAGGTCTTTGACTACCCGCCTCGGACATCCTTAT
0.6426816763686469 ACGTAAACAGAGCATACCAGGACCAGCCATTCGCTCTTAT
1 GCTATCCCATCTAGCAGACTGGCGAGTTGATAGCGTTAAT
0.6813518106893716 AAGCTCGCTTTACAACATGCGTTACCAATCCACGTCTTAT
1 TTGGCCTGCCAATCACATGCGAGAGGTTTGATTATGTAAC
1 GAGGCGCAACTTAAATCGTGAGCGTGGGTAGCGTGCCGTC
1 TCCTGAGGTAGCAGTCGCTACAGAGCGGAACATGGCTTAT
0.3127388711908444 CAGATAACGGTCAGTGACTGCACGGATACACTACCCAACC
1 ACCTCTCGCTAGGAATATTACTTCGCGCCCTCAGACTGGG
1 CAACCCTATTCCTCCCTGGACACACCGCTACACTGACACG
1 GACACCCTGCCCCTTAATCGATAGACACATCCGGAATACA
1 GGGCAGCTATCACAAACGCACATGGGACGTGCCCTCCTAT
1 AAGGCTCATCCACCGCGCCAGTATCGGACCGTGCCGCTAT
1 TCCCCCATCACAGCGCCCTACCTTCCCAACCCCTCATTAC
1 CGCCCCACGACAGTCACATTAAAAGATTGCAAGTCCTAAT
1 ACGTAGTGAGGGACGCGGGCGCGTGATTGAAGCATTTAAT
1 TCTGTGTTTACCCTGGCATGTACAAGTAGTAGTGGCCCTT
1 ATCACCAACACCAGGATCACCACGCCACCGTTGTCGTGAA
1 GGGAGGGAGTTACCCCACCTACGCCCTCGACGAACGTTAT
1 CTCATCTATCGTCCCTTGGCCACCCGCAGCAACTGGGGGT
1 CCCCCCTGGCTTAGCCGCCTTATTTACGCGCACACTCTCC
1 CCGTGATTGCCGATCTGCGGAACATACTCCTCAGACGACA
1 ATCACGTACCGTACGTATAGAATCCTCACGCGCGACTCTG
1 ACCTTACCCCGCTGAGTCCCGATATGACCCACACACAACT
1 GCCCATGGCTGAGACGTCTCACGATGAGCCACGTTGATAA
0.3975550234860876 CGATAACACACATTCACATGACAGAGCCATAGCCACACTA
1 TGTGCGCAACGCGATTCGGATCATTGATGAATGATAACCG
1 CCACTATCCAACCCTAGATTGTATATAACATTTAAGTGCT
0.9802752944253265 ATATTTTCAAACCAATAGACAGAGGCGTGACTGTGCTTAT
1 GGATTGTCCGAATCTATACCTTTGAAGGTCCCGGGCCCAT
0.8973773911318492 CTGATACGTGTATCTATTACTGCCGGTACCTTTCCCTGAT
1 CACATCAGATTATCCCCTGCCAAATATAAATATAAATACA
1 CATGATAGGACCACCCAGCCGCTTGTTACCATTCCTTCCT
1 AAGATCTTCCACCTCCATCCCCTGCGCACCAGTAAGTAAC
1 CCTCACGCATACATAATCACCACCACAATCTATGCAAAGA
1 ACGGCCTAGTATAGATAAACCGAGCACTAGTGTAGCCATG
1 CCCACCCAGGTTAAATACTTCATTTCAGACCCTAGCTTAT
1 TGGCCTAGTTTGTCTTTCCGTCGCCATCTGGGAACGTAAT
1 CCCGACCGTCATATGTGGCCCATGCTATCTCTTTGGCCAT
1 AACCACGCATATTCGGTCCAGCTTCCGGGCTGTGCCTTAT
1 CCATCCCTTCACCTGCAGGAGAATATCTACTCGTCGATAA
1 ACCGAGCAGGATGGCCCAATCGAAACCGATCTCGTGTTAA
1 CTGATAAACGGTTTTCCCAAGCATTCCCGCACTGCGAAAT
1 GGGCCGCCTCACAAAGACTTCGCACTGCTCAAGCCATTAT
1 CTTCCGAACGAGTATTCCACAAACGGTCCACCTCCATCAA
1 TTGCATACTGTAGCAGCTATTTATTCAAAATAACGCTTAT
1 GCAGCACGCCCTCGTCCCACGACTACGGCACCCGCTTTAT
1 CGACGGGTCTGCGCTATCCCAGTAGATTTCACTCTGATAA
0.9729626766207895 CGAATGGAAACGTGGGATTACCTACGATAAAACACTCCAT
0.6552017552271621 TCGATAAGCGGCCCTGGTACGTTGAATCCAAATAGCAAAT
1 GCCTAATCCATGTCACCCCCGCGGCTGTATTTTGTATTAG
1 CATGATAGGTACGTCGTGGCTAGTGGTCCCAATGCTCATG
0.6671315656997802 CGCTACGCACCGCTGCCCTCCCGGTTTTGGGCTTCGTTAT
1 GCCGAGTGTGAGGCATTCACGCCCCACCATAACGTGTAAT
1 TCGCATAATGATCGGTACAAACGTAACTCCCTTGTTTGAA
1 CATCAGGTTGCCTGTTTGACCAAACTCGATGCACCAACAC
1 ACCTTATCGCTTACATACCACCTGGCTAAGCCTCTTTTTG
1 CCGTTAGGCCTTTCTTGCTCTTCATGGCCGCCCAGGTTAT
1 TTATCAGTGCCAGATCTCCCTTCAGTTATACTCCCAGGAC
1 CTATCTCTCGGCTCCGTACCCCGCATCCCCCTACAACCAC
1 GTGCCCACACCTGACACGACGTTCCGTAGCGTAGGCTGGC
1 CAGATTTCGCTAGCTATCAAATGCTTTTTATCCCTTCCAT
1 GTAAACGGGAGCTACGCGCCACTCGTTCTCCGCGTAATAA
1 ATAACTCACTGTACGTTGGTACGGCCAACACGAGACAATC
1 CGATTAACGTACACCCAGTATACTCTCCAAGGTCCACCCT
1 CAGAGGTAGTGGGAGATTACGGTGAGGAGGTTGCTACTGT
1 GCAGATCTAAAGGGGCAGCCCTCCCTCGCCTGCTGCCCAG
1 CGCGATCTCCGCATGATCGCGCAGATTACCACAGCAGTTA
1 ACGAACAAAATCCCTGCTGATTGAATCCCCTGATTAGAAG
1 AATTCGTCATATAACTATCAACAACTCCCATCTTAGGTTA
1 AAGGTCGTAATCCGCCTCGATCAACTATCCTATCCCAATC
1 CCCGCGGGTCCGCGTTAATAGATGATGACGACACCCGGGC
1 TTTACCAACTCTCAGGTACGTCTATAGTAGAATTTACATC
1 GCAACCCGACCCACACGTACAGTTGGCCACAATCCGGTAT
1 TGTACATCAACACGTCGAGCCGGCTCGATAGACCCGATAA
0.9595997865417797 GGTTGATCACGCTTTAGATTGAATTGTTGATATTTACGGA
1 GCAAAGCGACTGGTACTTGATCCCTGACGAGGCACTTTAT
1 CCGCGTTTCTCCACCGGTCGCGTCCCACAGACAGTTTTAT
0.5191584930214077 CCCGCAACTTAATCGCACGTTAGAGACGACTTAAACATAT
0.3904835780317706 CCTCAACCAACAACATCTGTCCCGTTATCCATTAGCACAT
1 AACCGATCACCCTCCAACACCAACCCGAATTTATCCATAT
1 GCCTTATCGCCCGAAGCATCGCGCGTAAGTCACACCATGT
1 ATGAAACCCATAAAGTTCCGGCTTGACGAGAAAGTCTCTC
1 ACACCGACTACCTAGCTCGACACATTGCCTTCCCCAGGAA
1 TGGATGTCAGGCGTGCGATGATGGCGCTAGCCGCTCCGAT
1 ATATTATGTTCGGGCCCTCATCTTGATTGGTGCTTTTACT
1 CGCTCGCACGCCGGAACAAAACACACCACATGACTTCTCA
1 CTTAGATCTGTGCTCGCAAATCTGAACGGGGAACCAAATG
1 AGATACCGAAGTTAGTGACACCAGAACTCCCCAGAGTGTC
1 GTGATAAATGCCGACTATCCGCATTGCCTTGCAGTTCGGT
1 GATTTCGCGATCCCCGGTAATTGCAATCCTATCTCGGCGC
1 TTGATATCCCTAGAGCGTCCAGCGGAACCTGAGGAGTTAT
1 ATTGCGAAACCCCCTTCACTATAACACTATTTGGGAGGAC
0.7111026389163503 CTGCTCCCAGGAAGGAATGTTCTTTATCAACCCCAATCTT
0.62385960642232 AAGTGTAGTAGTCAAGTAGAGAAACGGCAGCACACCTTAT
1 TTGCTGAATTTACAACTGACGTAGCGGCAAACAGCCTTAT
1 TATCCGCGATTGTAGTATGATTAAGAGGTGTCACCTTTTG
1 GAGGAAAAGCATCAGCGGATCATTGGGCATCTATCCTACC
1 GCCGTATCTGCGCTACCATCTAACTGCATTCACGAGTCTC
1 TAGATATGGCATCCGTCTTGCCACTCGGCCGCCTCGCAAT
1 CCCACATACCCCTGCTCCCCGCCCACTCTTAGCCACTTTT
1 GGTTGTGCAGGTTGTCACTTTCACCTCTATCGTGTGCAAT
1 CCGCCCAGCGAAGTACAGCATGTGCAACGCTGCCACGCTC
1 GGCCCCTCTGCGACCTTGCTACCCAAACAAGCGCACTCCT
1 CCCCGACCTGCCGCCCACCTTATAGGGTAGCCGAGTTTAT
1 CCGTTAGTAGCTATATGGCAGCAAGGAGCAGACCACTTAT
1 CGCCATAGATGTGTATCACCGACAAATTACGAGGCTCTTA
1 CCTAGCAGCGTAAAGACATAGCTTTCCATGCGTACCCCTT
1 TGGAACTCTATATCCACGACCATATCTCTATTTGAGCGAT
1 AGTCCATCGAAGATCACCTTCCTTGATCTTCGATTAATAT
0.2230503074045888 ATTGCGCACCATTACGTGTGCCAGGCAGCTGCGCACTTAT
1 TTGTACCGAACGGCAACTCTCACCGCCGCCGGACCTTTAC
1 GTCTTATCACATTATATAATATCACAACCAATTAGGCGTT
1 CCCAGCAAACCTGAACCAAAAAAGCCCCCTATCTATATCC
1 TGCTTCACACAATGTCGCTCGTGATATACCTGCCTTCTCT
1 CGACGTGTCACAGTCTTCTTCCTGTCCCTAGCGCACAGGC
1 CCCCCGATACCCTTTCCTGACTCCCCGCTAATCACCCCCG
0.4300205805660501 CTCATCTTCGCGCGTATCTGGAGATCGTGTATGTTTGATA
1 GCCACCAGCAGTTTCGCTCACACGAGATTCAGATGTCATG
1 CCCCCACAGCCCACTATGCCTACGATACCAGCCTAGTTAT
1 GCACGATTTGACGCAGCCCAGGTAGGCCTGCCGACCTTAT
1 GCTACGCCAACTACGTGCACTCGCAGGTGTACGTGTCTAT
1 TGCCAAATGCATAGCCGAGCCAACACTGCAGTGTGTCACG
1 AGCCAATTCTTATCCTTCCCTCGATCTATAAATTTACCAA
0.05038367492840218 ACCCCTGCTGAGGAACATGCTATCATCTTATGCTAGACTG
0.1559878527660319 ACGGACTTGAGTCACTGCCATATACATCGCTTGTTCTTAT
1 CCGTGCAACCCTCAATCCTTATTTCCCACCCCCTTCCCTG
1 GCAGCGCACAACCTCACCATACCTTATCCTCCAAGCTTGT
1 CGATTGCGAGCCGTGACAATCGATGTCCACAGTCATGTCT
1 GTGATACACACACCGCAACGCACCTTCACACCTTGTACCC
0.7528648350963696 ATAGAAAGGCTGTTGTCTCCTATACTCAAATCTCCTTTAT
1 TGTCGCAAGGCACAGGCTCTTCACCCCCTTTCTGGTGTCT
0.1938063210324827 CTGATAACAATGGCCCCCCAAAAACACACGGTCCACGCTT
1 TAGCGTTCCGCCGCAAGCCATTTATCTGCGAAGTCACTAC
0.6696600907454846 AATAACTTGGCCGTGACGTACACCGTTTGTAATCAATACT
1 CTCGATTGTAAAGGGGGCGAGGGGCGCAGGGGTTCCAGAT
1 GGACCCCCCCAACCCCGCACTACGTGCTGTCGAGTTTTAT
0.176901427603917 GCCTAAGCCAGTGTAATATGATATTATTATCTAATAGTAT
1 CGCGCTTAAGGCACCACCTAGTCAATTGCTATTGAGTCCA
1 TTATATCACGTATAGATCGCTCAACCGATTGGCTAAGACA
0.2453511431128791 TGATAACGGTCCTGCCCCGCGACGTGGCCACACCGCCTGC
1 ACAGAAGTCACAGAGACGGCACAATGACCGGGTGTGCGTG
1 ATTTCGCGTTGTAATCGCGCGACAGCTATCCGGTCCGAAT
1 ATACATCTATGATATGCTAGCTCCAACGCCTTGAACCATA
1 GGTAGATTATTGTTTGAGCTGTTCTACCGTTACTCATCCC
1 AGCGGCGACAATCCGGATCTGACAAGTGACAACTATCCTA
1 CAGGATGCATTGGGATAAATCCGGGCCCTATTGGTTTATG
1 CTTGGCCTAACCCGCTCGATGTGGGAGCTCATCCTTTTAT
1 AAGCATACACCCGATTTGATAATATAATGTCGCTCGATTG
1 GTATCTACTAAGATATCCACAACATCGCCCCAGCAGACAT
1 GTCTAGACCTACTTCCAATGTCCCCTCTCAGTAGTGTGCG
1 AGCTCGCATTCCACCACGTCTCCGCCTCGTTCGCCCTTTC
1 CGGTGACATGGCCACGCAGCACATCATATCTGGTTTTCAT
1 AAAAACGGTAGGCAGTTAAGCGCGACAGCACTGACGGTGG
1 CCCACTGATCACGTGCAAGTGATCCCCGCACAGATAAGCA
1 CCTAAGTCTCAGCTTGCACCTGGTGCTTGACCAACGCCCC
1 GCCTAAAGATTATACTAGCCAAAACCGTCAGGCACACTCG
1 GCGTTACTTCAGTGGGCGCCCCGCTTATCACCCAGGGCAA
1 CTGCGATCTAATCCAATGCAACAGATGCACCTCGTCCATG
1 CCTATAGTTCACTCGAAACTCCGCCTGTTTTTCCGCCGAA
0.03521555479098164 GCCTTCACGTTCGGTGGAGATTGTGGACACTTACCGATAA
1 CTGAACACTAACCGGCCACGACCCCTTCGCCAGATGCCCG
1 CCGCCGTACCACATACGGCCGACGCTCCGTGTCCCCCTCC
1 CAAGATAGAGGCACTCCGCCACAAGCCGGCCCACTCCGCC
1 CAGTCGTGCTCTCGGACTAACAGTCACTCAGCATCATCCT
1 TCTTTCATACCGATGTCACTGCCAAAATTCGTACTCTCAA
1 ACGTGTTGGGCAGCTTTAGGTAGTCCGGGCAATAAACCCC
1 TTGCCCCGCTGCAGGTACGACATTTCAGTGTATGCCGCGC
1 ACAATCTGCCTCACATACCGGCGACCTTTACCAAGAAACC
1 CGACTCCCGCACCACAAGCGATGACGCAATAATTGAACTC
1 CGTTATCTGTAGCCCATCTTTGGCCGCAGTACGATTAGCC
1 CCCGTGGACGTCCCCCTAGTCTCGCCCCCTCTCTTCCCTC
1 GTCAACTGATCTTCACGAAGATTTAAATACTACACGCTAT
1 AGAACGATATGTCTCCCTATACACCCCTCTGTCACCCTCA
0.8976130588533351 TCAAGATAACATTGCCGCTAAGGACACATACCACCGGTAC
0.5968786413029828 CAAACGGTGGGCGGCGCCACAACCTAGCTTTGGTTCTTAT
1 TCTGATCTCTCCCGTATTACGGTGTAAGCGGCTGATAGTA
1 GAACGAGAAAACAAGACTACATGCGAAAGTTAAGATATAT
1 AAAGCCGAGATCACCAACCTGCATACCTAACTACCCTCAT
1 CTTATGACCGGCACTATATCCAGTAACGTCCAAAGCCTGT
1 ACGCTGACAACTTTTGGCAGTGACTATCCCAAAAACGTCA
1 GCCCCATGCACCCTGGATAAGATGATGGGACTGCAGATTA
1 CGAGATAATATTCCTGGCCCCACCACTTCCCCGGACTACC
1 GAGATTAGGCGTAAGATAGTTCAGGGTAAACCCCACCTGC
1 CTCTCAGAACGTAGGTACTGTGGCCTTAACGCTATGTTAT
0.3133488464595132 ACCTGGGCTAGAGATCGACCCACCAAATCCCTTATCGAGC
1 GCGTTATCACGCTACCATCTAGGAGCTACAAACATGGTGA
0.6530272944529708 GGACAAGCCCACTCTCCCAAGCCACGCATTATCTGAACGA
1 GTACTCGCTAAGGGGTCCCCATTGACTCACAACGGAACCG
0.6218118300028198 TAATCATGATCATCTCGGCTTTCAGATCTTCCTCGTAGAT
1 CCTTCAAGTGCTTCCCGCCATAGCAACGCGCTTAGAGTAC
1 TACATAGGGGGAGGCAGATGGCATGATATCCTGAAATTAT
1 AGCCCGCTGCCCTCGCACTGTGCTCACTGCGTTTCGGGCT
1 CACCCATTACACCGAATGGCTGCAGTACGCCGCACTGTTG
1 AGGCTGTAGATCTATCATGTGACAAGGCGCCCTCTAGCAG
1 ATGTACGGTGGTGTCCTATAGTCGTGAGGCCTGGTCCAGA
1 TTGGGTAACCTATATGCGCAACCGCAACGACACCCAATGC
1 CGAAACATAATTTCATTGAATGCATCCTTTAGAACCGTAT
0.7142474320030272 TTGTCAACTGACGCCATCGGTCTGATAAAGCGCTCTACCA
1 ACTCTCTTAGGGTGTCGGCGATGTGCACTTCTAATCATCA
1 CTGTATGCGTACCATTAACCTAAATCAAGTGTCACAATAT
0.9081734408568368 CCGATAACGAAAATACTGTCCAGTCCTGAAAATGAGCTAC
1 TGCTTTTGCTGCGTACCTTCACGGGAAAACACCCCCTTAT
1 CCGTGTCTCACGGTCGATTGAAACACTACTTACCTTGGCT
0.7012081885160365 GCGCCATCGTGTTCCCGTGAGATACGTCCTGCTCCGTAAC
1 TGTCCGAGCCCCGCGGTACGCCAGCATAGTACGAGGTTAT
1 ATCTCTGATTCGCGTTTCCCTTTAATCATGCTTCGCCACG
0.09182986263555665 CGTCTAACAATACCTATGGCTATACGTGCCACGACGTTAT
1 CCAAAGCTGAACACATGACTTCCGAAAAAGTTAGTCTTAT
1 GCCCAGCTGGCCGCAATAGCAGCGTCCCGTGGCCGCTCCT
0.1214024422742683 TGATAAGGCCACCATGTGTGCGCTCAACGCACCAGGATGC
0.2245498913650969 ATCGTACTGAGGCACTGAGAGGACTCGACTCCATCCTTAT
0.2171351197121659 CCCAGAGACGCCATTGCTCGCTAGCGTTATCCTCTGCTAT
1 TCCAAGATACTTAGCTCTGCCAATCAATCGGGCGCTTCGC
1 AAATTTACTGCTTCATTACAGGCTAGATTGGTGTACCACC
1 ACCACAGACAAGGTAGGTTGACGGCTCCCCCTTGATACCT
1 CCGTCTCTCCTCTGCTCTGCGGTTCCGTCGTTACCGAACA
1 TACTGCCGACATACGAACGACCCCCACGTAGAATTAACTA
1 GTACACACAGCGGTGGCAGCCACTACCGCTTTGCGCTAAT
1 CGACCCCGCCGTACAGCCTATTCCCCATCGCCGCCGTAAT
1 AGAAATGTGGCCCCATCTAACACAGCAGCACTTCCTACCA
1 CTGATCTGAACGATCCTGAATACACAACAGATCGCCATGT
1 CATGATCATATCATTTCTCCCATCTAGATGGCGCCATACC
1 GCGTCACGCCTCAAGGCATAAACTCGTTAAAAGCTAATCA
1 CATACGTAGATTCCGAGGATTCTACAGGCGTATCTCTAGT
1 CTACGTCGACCACATCCACCTCAACTACACCGCCGACGTA
1 TGGATCCGTCCCGAGAGTGAACGGCCGTCCCTTTCGTTAT
1 CGTACGACCTTGGCACACGCATCGTTGACCTTCCCCCTAT
1 TCTCCATGAATCCCGATGGACTGCTGGCGCCAACTATTAT
1 CACCCACCCGACATCCAATTCCACAAGCCTCTCAATTTAT
0.4684258955292717 CAACGGGCTGCCGGCCCGCACAACGGAGAATTCACCTTAT
1 TCACGATTCAGCCTTGTATCGTAGATCATAGATGCGATAT
1 ACGCTATTACCACGCGACTATCTCTCACTCCGGTACTAAC
1 AGCTTATCTTAAATACAAGCTTCCTATAGGGATCTACTAT
1 TCCTCAGGATAACAGCCTTGCATGATGCACGGTTCGTCGG
1 AAAATAGGTAATACCGCCAAGAAGAACCAAACGTGACCTG
1 TTATCCTGCCCCTGGATCTTGACACCGATTGGTGGCTAGC
1 TGCAAAGAATAATACTCTCTCGTCACATGGTCAAGGAACA
1 AGATAACCTATTCGTAGGGACCTCAGCCACATAATACCTA
1 CTACCCCTGATCGCACGAAGAGGCGCCTCCTGAATTTTCC
1 ATGCCCCACCAACGTTGCACCCGCCGTATCGCAATGCGAT
1 GGCCGCCATTGGTCGATGTCGACGAATTACTTATCAACCA
0.3297544146587098 GAGTACGGATCTTGGTGTACCCCCACGTGCTATCTACATC
1 ACACCCATACCTCCAACAACCAAGCCTATCTTGCACGACA
1 TACCTTTTGCACTTGGTTTCATCATGACTCGCGCGCCTAT
1 CCTATCCCCCCCGCTCACCACCCTTACCACTACGCGTTTT
1 TACCAACGGCACCCAATACCACCCCCAATTCCCCCCCCCC
1 GCCCCACAGCCACCTCTAAACATACGGCTCCTGGCTGGCG
1 ACATTAAGTAAAGCTCACCGAACGTAATCGGCTCCAATAT
1 CCATGAGCAAACCTCCCCTCCACTTGAGGTCTCCGCCATC
1 AATTTCCTACGTACCGCGCAGCCTATAGACCAGCTACGCG
1 ACGCATGCTGCTGTCTAGCGTTGGACCGCACGCGGTCACT
1 CCTCCCCTTCCCACATACGGACGCACATCCCAAACTTCGC
1 TCAGCCCCGCGGTCTACCGGTCGGGCCGACTCATTAAAAG
1 CATTTCAGTACGCTTTAAATCTCTCCCCTAATCTCCATAA
1 CCCGGAATCCCGGTGTCCGAGAAGCTCCCGAACCTCGGCG
1 CCCTGCCACTCTCAAGCCAAGTCATTACCGGACTCTACCG
1 CTCATACTGTATACCCGCTTTGTCCCGAGCAAATCTCGCC
1 CTGATAATGGACACGGATGGGCGTCAAGAACCGGCCACAA
1 AGTCGTCCTGGAGCGCCACACGTAACCGGCTGTACGTTAT
1 CAGTGCCGGATTATTACAGCTTTATCCGGAGATCCAGATA
1 CGTAACACTGGTGCTGACCACTACTGCTGTCCCCGCACCT
1 ACATTATCTTTCTCTTCATAGATTGCAATCTCTGGCTGCC
0.1876655590228548 CAAGTTTGTAGCTTATCCGACCGCCAAATCTATGCATCGT
1 CCAGCACGCTACGCCTGGCACGTGATTGCAGCCCCGATAA
1 TATTATCAACGGAACCCGCACCCCACGCATGCTCCGAAAG
1 CGGTCACGAACCACCCCTGACCCAAAAGAGGAAACGTTAT
1 ATAGCAGACCGAGCAGGCGCTGATCCTGGAATCCCGGTCT
1 ACTATCAATCCAATTTCCGGTGCGTACGACGCTAGAGCTG
1 CTGCTGTCCCGTTCTATTTCAATTCCACTTACTTTCTTAT
0.6412015628443326 ATTATCGGCCAAACTCGCTAGTTATTTGATAATTGGCTCT
1 CCCGGCAGAGCCAATCGCAAAGAGTGCGCAAAAACATCTT
1 TGATAGTAGCTTACCGTAAGTTTAGCACACTGCCATTGAC
1 TCCTCACCATTGTAGGTGGCCACAGTTGCACCAGCCCTGC
0.1144655201331289 CTCGTTATGCCTCGTTAAAGTGCAGTGGTATTACTGTTAT
0.774537577006248 CGATAATAGACACATATCGCGCAATTAAATAAGGTCCCAA
1 CACCACCGACACGTACCCTAGCATACTCCCTTGCCTTCCC
0.001374841248291961 CAGATGCTGGGAGATAACCCTCAAAGCCCCGCGTGTCAGG
1 AGCTTACCTCTACCGATCCCCCCCACCGCCTTACCCCCCG
0.2935020627639085 CTCTAGGAGATATCTACCTGATCTCAGGCCTTCTTTGCTC
1 CAGATAAGCGGTGAAGGGGACTTTATGAGCTTCAACCAAC
0.9247968120333905 CAACGAACTGATTATCCTGCTACACGCCCCCTCTCCGGCC
1 TCATGATATGCGCAACAATTTTACTTTTCCGTTTACCGCC
1 CAGCCCGCACCCAACCCCTCAGCGAAATATAGATCAATAT
1 CGAGACACTTTTCCACGAAATTTCGGATTGTCGATGTTAT
1 ATGCACCTTAGCACTTTTTTTGCCATCTACGCAAACAAAT
1 TGACACTGGCCACCTTCTGCGCCTGCAGGAACCCTGCTTC
1 ACACATGGATGTGATGCCCACCTTCTGCAATCTCAACCCA
1 GCCGTAACTACGCCCTAAGGATATATCGAATTAAATGAAT
0.220142369825188 GCGTTATCTACGATACGCGCAACGAAAAGTGCGCCTTTCG
1 CGGCCAGCGTGTCCACCACTATTACTCAGCCATCCACCAC
1 TGCCACATTGAAGCAGACCAACCACCACTTCGTTCAATCC
1 ATCGACAGTTAACAAGCACATTCCTACACACTACCAATTC
1 CTTCGAACCCTTGTATGCTCTCGCTGGGTGACTTCCAGAT
0.6773186590048225 GTGATAACAACAACTACTCCTCACCGACGGGAAATATCCT
1 CCACAGCGACACGCCCCCCACGACCGTGCCTAGCCCGGAA
1 AGCCTCGCGCCAGTATCTGGCCAAAAACAATTCGTGACAA
0.813693483490847 TCAGCCGGCGGCCGGCTCCCACGTCATTGGATTTCCTTAT
1 GCGTCCCATAACCCTAGGGACGTGCTGCCCAACCCACCAC
1 CGCTTCCCCTCTCCGACATCCGCGTTAGCGCCACTCTAAT
1 TACGGACTACCCGCTACCGAACTGACACCCATGCTACGTG
1 AAGATTACGTCTATGCCGCACATGTTGCTGCTCCCGTTTT
1 CCGCTGACATGCGGAGCCCCCTCCTGACGGCCCCGCACAC
1 TTATTTCACACCCGAGATAAGCTGACCTCAACGCCTGTGC
1 CAGGTGTTACAATACCTAAAACTCAGTTAGTAAAGCTTAT
1 GTGCCCCCGCTACTAGACCCCTCCACCCGCCGATTCTTAT
1 ACGCGCCCGCCCTCACACGCTGATTTTCCAATGTTGTTAT
1 CGTGGAGCACATGGCAATCGCATAGAAGAGGTACATTAAT
1 CCCCTACACCAAAGGTGACAAGGCATGTACTTGAGCTTAT
1 CCCCCCTCCCTAACATCCACTCGACGAACCCGGGTCCTGC
1 CCCCCCCCGTAGCTACCTCCGTCCCTCAAGGGAACATTAT
1 ACATGTCACGCGCGCATCTCGCTTAATATTTATCACCACA
1 AACCGACATCCGTCCCTCAGCCGGCATATCTTACCCCCAC
1 CGCAATCGCGCCAACTTCACAGTAGACGGCGTCCGCACCT
1 CAAACGTGCGTGGCCTTTAATCTTTACTTCCACCTCATAT
1 TGCGTGCGCAACGAAGCGAGCCACCATGCCGCCACGCTAT
1 ATGGCTGACACATTGGCGCGAAGTCTCATCGTTAATCACC
1 AGTCCGCTTCACAAGGAGCGTATGCTTCGCGGGGCTGCGG
1 CCGCGTTCCACCCGCGCCCGTGCCTCTCGCACTGGGATAA
1 GTTCTAGATACGCCGGCGTCCTGACTCCCTACAGTTACCA
1 ATCTCCAATCTGGCAATAATCGCCTGCTCTAGGTGCTGAA
1 CAATGTACTTTAGCCCGCCCTCCGCCTCCCCCTCCGCATA
1 ACACCGTATCCCAACCGTAAACCGAAGGAACTGTTATCCA
1 GGCAGCCCGAGTTCGTGGGTATTACGTCCTTATCGAATCG
1 GCGCCATTCCCTGCACAACCTTGGTAGAGCACATCCTTAT
1 ATTGACCGACTGATCAATGGCTAATTCGAGGTCAACTTAT
1 ACATCGAGCTTCGTATTGCTCACCCACCAGAGAGTTTTAT
1 CAAACTTGCGTTCACCTAAAAAGGCAGCTACGGCAACCGT
1 GCGCCCCTCTTCAGACCCAGAGATCTAAGCAGCGATAAAC
1 GTTTCCAGATTCGCCGTGCAACAGCCCCGAGGCTACTTAT
1 GGCTAAATCCCCCCACCTCCACACAACGCCATCGAATTAT
1 ACACATCGGCCCGACTTTTATATCACCTCACCAGTGGATG
1 CCGTCAACCCGCGCTCTTGTCCCCATCTCTATCCCTTTAT
1 CTGCCGCATTATACCGCGCCCCCATCTCTAGGCCGATAGC
1 TTGAAACATCTCAACCCGTGTGATTGTCAGTCCGAGGCGA
1 CACACGCTGCGATCACTATGTAGCCACGTAGCTCTGTAGC
1 CACACGCTTAACCCTGTTCCTCCGTTGCGTTCTATCATAT
1 TACGATAACATGGACCGTCACCGTTGGTGAAATACCAACC
1 TGTATGATGGAACGAGACATGCCGTCATCAGAAGCCTAAT
1 GTTACCTGTCAGCACTCGTCAACGGATCTAACGCCCTCCG
1 CAAATTATGCAACACAACCTACTGGGCCCGACGCCCTAAT
1 GGCCCACGCACCACAGTCCATACAGTTTTGAAAGCACTAT
1 AAAGTACCCGACCGTCCTTCCCCGCCCTCTCTGCCGTTAT
1 ACCGCGTTAGGAACCTTCGGTCATTCTCCGTACGCACAAG
1 CGTACCCCGCGTCCTCCCACATTACGTATAGAGCATAACG
1 CGATAACACACATGCAGGTTCTACCGCCCTCGAGTACCGC
1 GAGCCCATTCCCATAGGTCCCTATCTAATAGAATAGTACG
1 CGCGTTCGCCCCTCAGCAGACCAATACCGACGTGCTCCAC
1 CCAGACGCTCCACGCTAACCCATCCGGCCGCACCCCCCTA
1 AACGGGCCTCGGCATGTTATCCACGAAAAATCTCAAACAA
1 GCTCACTCTATTAACACATGTATAGGTTTTTGTACCAATA
1 TGAACTGGTGCTAACCCTTATGCATCGCTACCTCAGACGC
1 GCTGATACGCGCTCCCACTAGAACGGAAACCTGCCCGGGT
1 TAAAAGCAACTCCCGAACCATGAAACTAATCTGGCTCTGA
1 TGTTAAGACGAGGGGTCAGGTACAAGACCATAGCGCGCAC
1 GCGCGCTTCCCGTTTGTTACCTTTGGAAACGCGTTACGTA
1 ACAAGTCTGCCCTACGACTCCCTTCCTATGAACCCAAACT
1 ACGGCACTGTAATCGCTTTCGATCTGTTCTATATATCGAG
0.7341837248434192 GTCGACCAGATCGCACACGCTGATAACTCCCTCCGAGGGA
1 TCTATGCTGTATAAGGCCACAACGCAAGCGTTACCACACG
1 CTCCCTGCCCTAACTAAGTCCCATCCCCGGCCTTTACCCT
0.5590147707472802 CAGATAATCGTCCCCAATCGGTCCCAGCCTCCACTTGCAT
1 TTTAATCTCCGCATCATCTACAGATCCAGTTCGTAAGATA
1 CTTTCTCATTGCTGTCTTCACCCCTTAGTGAGATCACGCC
1 GCCGAACATAGCACGGCGCAGCGGGACTGGAACTAGGGAA
0.7078766445603891 TTGCCTTAAAGAATGATTTGATCGCTTGGCTATCACCTAT
0.2806839214030951 AAGCCACAGCAAGAGCACGCTCGAATAACAACCTTGTTAT
1 GTACCCCACCGGTTCGCTGTTAACTCACGTTTCCTGCCGT
1 CGTCCAACCACTCAACACCTGTAAGAACCTCAAACTGCAA
0.1470076926627501 CTTGCAATAGGGTTACGCGCACGCGTCTCTATCGCGTAAT
1 AAGTCTCAGGATAGACCGGATAAACCCCCCACGATAAGCC
1 CGAAGGCTTTAAGGTTAATCTCTATGAATGCCTTTACACG
1 ACCCTACATCGACGACGGTGAGCTTTAGACGGACCCTAAT
1 TGGCACTCGCGGTGGGGGCCTGACCAGATTTAGCCACCGT
1 ACCGCTGCACCCCTTCACCCTGTGAACCTAAGTGCCTTAT
1 TGTAAGCTCTCGCGAAACCTTACTACCTACACAATCAGGC
1 AAGGACACTCAGATGTCAGGTAAAGACCATCGCCAACACG
1 CACCCCAATCAAACACTAAGGCTATCATCACATAGAATCG
1 GATACGAATCTTGCACCGAACGTACAGCGCACTGGTGACC
1 ACGGGGCTACCTCCAACGACGGCGGAGCAATAGCGCCACT
0.9359624881618183 CACATATGAGTATGATGGTAGATAAAGTGCACGAAGTCGC
1 ACACACGGTGATATGCCATACCGTCCACACCTATTCCTAT
1 CCTGCGTCGCGCCACCAGCCCCTGCCATATCTCCTATGCA
1 TGGCCCGCCGAATCACGTGATTGACGCGCCTTAATACGAT
1 CCGCGACCTGATACGGTACCGCCACCGAATTGCACTTGCA
1 CTACCTCCTCCACGCCTCCTTGCTCCGACCTGAGGGTGAA
0.9463009833888113 TGCGGGTAGGTAGAATGGCCCGACGATACGATTAAGCCAA
1 GTGACGGAACGCCACTCTGTCGCCCCTGTAGCTACCATAT
1 GACCTCATCCTAACACCTTTCACGTAGTTCTCCGGGCTGC
1 CCACCCGTCTACCGCCCTATCTTCGTTGTTTGTGAGTAAT
1 GCTTGCCTGTAGCAATCTTCGCCCCTATCCCATTACCTAT
1 ACCACACGGGAAGTTCAAAGGCTGACCGTTATGCCACTGT
1 TATCAGCGCCAACCATCTACACCTTCCCACACAATGGTTC
1 GCCTACACCGTAACGCTCCACCTTTACCCTGCCACAGTAT
1 CGTTACTATCCACCCCGATCTCTTAATTCCCCTACCTATG
1 CACGCCCGGTGTAAATGATCGGCTCCCCAGCACACCGGAA
1 ACGTCTACGCGACTCAACTGACAGGCGCAACAGAACCCGC
1 CCCACCTCTAACACCACGCGCGCGAAGCTGATGGGCTTAT
1 AAGATAATACCATGGCGCGATCCGTCACCCCCCGCGGCCG
1 GCAGAGCCGCCCACTTGCCTTGTGCGAGTACCACCGTTAT
1 GTCAGGGCTGCCTATCGTCGGCGATTGCGCCCGATCTACC
1 CCCGCTAACCACAACTTATGCTCGCGAGGATGTTCCTAAT
1 AGCGTTTAACCAGGTCACGAAGCGAACGCATTCCGCTTAT
1 AAGTGCTCACAGGTGCTATACATTGATCTAACTGTGATAA
1 TCATATCTCCGCCACCATCAGTTAGCACAGCTAACCGCGG
0.6544206669492008 CCGACACGGCCAAGGAGAACGTAAAACGATGGTTACTTAT
1 CACGCATATCTTCTGCCCTTGAGTACGAACGAGTGCTCAA
1 ATCTTGCTGTGTTCCTGTCAAGCGTAATACCTAATGAGGA
1 GAACAACACCACACCCCACCCAGGCCCCAGGGCCCACTAT
1 ACCGGTACCGTTTGCTCTGCCTTCCACCGTTGCCTCCTAT
1 TACTCGGGCGACACGCACCCACCTGCCCGTCTGCCCCCAT
1 CGCGATCCACCCACGTTAACCTACGGTCGGTCCACCCCCA
1 TGCGTCACGTGACCTTACAGCGGCCACGTATCGCACCTAT
1 CTTAGCAGCTCATGTATGGGTGTTTAGCCCCGCACCTTAT
1 TGTAATACCTCTTGACCCCACTGGTGCGTTGGCCCCCTCC
1 CTACCTCGTCATCACAAACCATGCCCCTGGCAGCCTTTAT
1 GTCCTCTCATTACTTCAACTCCACCTCGCTCCACGCGCAT
0.1004486287971648 GCCAAGCGACTTAGAAGACCTCCCTATCAAGATTAAACAT
1 TGCTGATGCATTTCCGTGATTGCATTGTCTTCACGACAAT
1 GCGAAGAGACGAGAGGGTATTTGACAATTATTCTACTTAT
1 CTTCCTCCCTCTTTGGTCGCCTACCTCCTAACCCCATTAT
1 ACGTCTAATCACATGAGGATCCGTGTGAGCCTCGCGAGGC
0.3709498164290715 ACAGATAGCACTGCGTCAATGTAAGTGCACAAACATCTAT
1 CTATTATTTCAATAATCGTGCTTCCTACGCTGATGCTCGC
1 CGTGATAAAGCGCCGTAGAACCATGCAGGACTAAGGCAAA
1 CCTGGCCAAATTCGTGAAGATCCTGATCCCATACAGATAA
1 CTACCAACTACTCTAGATTTTCGTGCCGATAGCGTCTTTT
1 CCCTTAGAGATCCAGCTGGTCTATCCACCCCTTTCAGCGT
1 ATGTATCCGTCTGCCATGCGCCTCCTTCATGTAGCCCTGC
1 CTAACTTCCGCGCACCGATCATGCCCTCTTTTAGTCACCA
1 TCTACGTAGATCTTGCAAGCAATCCTACTCGTAGTTAAAT
1 CTAACTAAAGAAAACCATCCCCGATCTTCCCATCGTAGCT
1 TGAACGTTGTCACCCTGCCAACGGACACTCCCCTCCGTAT
1 ACCCTAACACCCAAATCACTCGCATCCTACTATCTGTCAT
1 AACCTGCGCCTGCCTCTTAGCCCATTTCCACCCATGCTAT
1 TGCGATAAAAGACAAAATGGATCTGCGCCACACTTTTCGA
1 TTGGCACATATCCCACCCCTGTGTACGTACACTGCGCTAT
1 AAGATACCGCGACCCACCGGGCGTACACTCCATCTCAGTC
1 CCCCGCTCACTTCACTCCCCGGCGCTCAAACGTCAACTGA
1 TGAAATAACGCCAACCTATAGGCTAGTGGTANCGACCCCC
1 GAAGCAACCGGTAATCTACCTTCGTCTACCGATGCGATTT
1 CCGATAAAAGAATCATCTACCGCTGTACGCTCGCGGGGAC
1 TGCTTCCGATCCCCCCCCGCGCCGTATCGCGACCTAGTCC
1 TGCCTATGCACATGGCGACCTCCAAACCGTTCTGTCTTAT
1 CCGATAAACTTCAATCCATCTACTCTGACACGTTGAAAAC
1 CAAGATTCGGAATCCGGCGCACCCCCACTGTACGATGTGA
1 CTGCCCCACCCAACTGCGTGCTAATCGTTCCGGCGTTCGT
1 ACACTATATAGATAAAACTGACCCCCTGCCGTCGCAGGGC
1 CAATCCTAGGTACCATGACCCGAGGCCTACCACCCACACG
1 TATCCGTAAGGCGCCGTGAAGCATTCAACACGGCCCTAAT
1 CCTGCTCCAACGTAACAAGCTGGACCTTGTATCTTCCACC
1 TCTCATATTTACCTATCCGCGAGAGACCACCGCGGCTGAC
1 CGTTATTTCGTTCACGCGGTGCTGGATATCGCGTGCGTAT
1 GTCGCTCCCGCCGCCCGCGCGTCAGCCCGCAATCCCTTAT
1 GTGTTTTAGCGTCAAAGTATGATGGCGGCATAGATAAGCA
0.7420154763910523 CCGCGAACTCTGAGGTGACCGTCATCGACGTGCCCTTTAT
1 CTCATGACGCTAATGGGGTCGATTTTAGCAATCACCATAA
1 CGATAGCAACACGTACGAAACAAGTACGCACCCAGCTCTT
1 ATAAGACCCTAATGTACGTAGTTGCTCCACCCGGAAGTAA
1 CAATTGTTGCAAATAAGCCACACCCCCCAACATTGCTTAT
1 ATCGCACGAGGTGCAGCACTTCCGCCTCACTGTACGATTC
1 CCGTTTTGAGTTCGTTCTTTCCATCGTTGACAGTTCTTAT
1 CACATAAGTAAATAAGCACTAGAGTCATCCTTCACCCAAT
1 TCTCCACCCACCCTACACACTCTTGCAGGCAGGGCTGCGA
1 CCAATCTTATTATACAAACCGACCAACACTATCACCTCCC
1 CCACCGCTGGAAGACATATAGACTCTAACCCTGCTTCTGC
1 GCTACCCGCTACAAGCCATTCCATACACCCTAGTTGTTAT
1 TCACACTGATTGCACTTCGGCACAAGTGCTAGCCAGAACC
1 TACGAGTAAGAGGCCTAATCGTCGTCACAAAGGCTCATAT
1 GTATATCCCTCTAGACCCCCAGATTCCACGCGCTCCGACG
1 ACTTGCCCTAATTCTCCGGTACCAAACCTACCCCCGTTAT
1 TGGTAACAACTGGTACAACTGGAGAGCGTTAATCTCTAAT
0.25674896515276 CACTGGCTCGTCACCCCCTAATCTCATGGTCCAATCTAAA
1 TCACCAAAGTGAACCATCATAAACACGCAACGCGCCCGGC
1 TCGATTAGTGCAATTTCTAACTGCCGGTACGCTATGAAAT
1 GCTGGTGTGAAGCGTATGCGCGAACGTCATGNCATTTCTC
1 AGATAAAATGTGCTCTCTCAGTCGTTGTGTCAGTCCTCTA
1 TACCCGGACAAGCCTTCGCTGGCGTTGGGCATCGCCTAAT
1 CACCGGATACGCTCCTGCCCTCACCACGATCCTCCCACTC
1 CGCGCTTCTGCCCTCCGTCCCGGGCCACTAGAACGAGACG
0.8593690729117821 CTACCAAAAAACTACGGTACGGCTGTTATCGTAGCAATCT
1 ATAAGCACCTTGCAGGGATCGACCACACGTAGGAGGACGC
0.3880789622049374 CCGAGAGTACACCCACCCGTTGCTATCTCTCAACGCCGAT
1 CCGTAATTCAGGGAAGGTTCGACGCCCCACGCCTCCTTAT
1 ACAATCCAAAGATCTCGTAGGACGCACCACCTATGCCAGA
1 GAGCGTGGCCTTGCGTTAGATTCCGAGCGTGGTCCACAGC
1 CCGACAGACCCATACCAATCCTTACACCACGCCCACCCCC
1 AGGAGAGGGCGCCTAGTAGCTATCCTCGACCGATCTGCAT
1 GGTACCGCGACTGTCTAGCCCTGGCCAACCTTTCTCTTAT
1 TTATCGCGACCCATCTCCGATACACACGCCTATAGCCAAA
1 ATACCAAGTCGACACGTAGCCCGAACACCGTCCCGGCGGT
1 TCAGATAACTACAACGGCCCAGCACAACTGACTAGTGCAC
1 ACCCCCCCTAAATCCCAAAGGATTTGAACGGATTGCTTAT
1 CAAGATAGGGAATACGACAAGTCGAGAAGCCCTCTCGTAT
0.180408250236177 CACACCGGTTATGCAGATGCATCAGACGCACGATAATAAT
0.8967359084786868 TAGGACCGTGTGCGATTGCAGCGCCCGGTATCACACATCC
1 GCTTATCAACCCCATGCGCGTACTGTCCAACCCATACAAT
1 CAGTGTCCAACGCTGCAAGCCTCCGATCTAGCATGGATGA
1 AACAAGACGCATACAGATGATCTTCCTAGTTCGCTTGTCC
1 TTATCCCCGTACCGATCTTCTCACCAAGAACGTGTACAGT
0.5883069130644069 GGTTGCCTTTCGCCCGCATTTCAACCGATACATTCGTTAT
0.3468618386753796 GATCACCTCTAAGCACTCACCTATCTATTTCCCTTAATCG
1 TATGGCGCGCCTGTTAACACTCCTGGGCAGTCTTTATCTA
1 CTACTTACCTGTGACGCTCGCGGTGCCCGTGAGGTCTTAT
1 GGTGGTCTACCTTACCCACCACCAATCAGTATGCCCATCA
1 ATGACCTACGCTCAGACATTTCTTCCCTTCGCCCCCTTCG
1 AGTTTAGGCCCTCCTAAATACCTCAATGCAATCAGCGTGG
1 TCGTAGTCGAGGGGCGCGGCCGCTCCTACATATCTCCAAT
1 AACTTACGGACATAGAATCACCTGACCATACGGGCTTTAT
1 CGGCGAACTCGACTGAATAGGCGCAGCTGCGAGTATGCTG
1 CCTGCCCTTAACCCGGACCCCGATCCAGCCATCTCCAGCA
1 CTGCAACGCGTGAGCGTCAGGAGTCATTCACGTCAATCAC
1 ATTACGGCATCCCCTAGCAGGCGTGGCCCGGAGAGACGCA
0.892779973478677 CGTTATCATTGCGTACATCTATCCATGTCACAATGCTGCT
1 CCTCGTCCAGCAGGCCGGAGTACGAATGCTCGCTCTTTAT
1 ACCCGCACTCCCGCACCGCCCGCTTCTTATCCCAGTTACA
1 TATGTCCGCTGGGCCGACATCGGCCTTTGTAAAGTGTTAT
0.6176985932416926 GACCGCCAACCCACTCTACACCTTCCCCTCACTTACTTAT
1 TACAATCACTTTCGTAATCTCCAGCGGACCATGCGTCCCT
1 ACACGCCAATTGCCATTGGATTCGCAGGCCGCACCGTTAT
1 TCAGATTATCCGCCAACATAGTCGCGCTTGATACCCCCTC
1 CCCGGCAAACACGAAAAGTATCTCCAACTCGCAACCGTAT
1 GTACCGCCGACTCGCATTAGCTCGCGAATGCCAGCGTTAT
1 CCTTATAGCCGCTACGATGTCCACGGCCGACCCTGGAAAT
1 TCCCCCGTAAGGATTCTCCAGCAATCAGCATGTCAAATCA
1 AGCAGTTGGAAGAACATCGCTCAACGCCTTCAATCGTTAT
1 CTGATAGAGGGCGCACGCCTAGGCACTACTACGCCCTAAT
1 CGCGCGCAGCTTGGGAATGAGTAAACGATATCTTCATTTG
1 GCGCGGAGATCCTTGACACTTTCCGTATTCGAGATCTAAT
1 TTTACCGTCCCTATCATTACTGACGAGCTGTTTACACTTC
1 CCTATCGTGACGAGCCAATAAGCGGACTCCCGTGAGAGAG
1 CTCGTTACATTGTTCAAGACGCTCCTAGCAGCTGAACAAC
1 ATAACAATCGGGACGGGGAAGGAACTACGGTGCATCTCGG
0.1246348847947414 CCCTACTCACCCCCATCCACTAATGCCACATCCCTGTTAT
1 GTGCGATCAATGCACCGACGAATACCGAACCGTGATCCGC
0.242132249031273 ATAATCGCTGTTAAAATCTGTGTACTCACCGTTCCCCTCC
1 TGCCGGAATCCCTGAAGCACGACACGTGCTATCGCACATC
1 CACGACACGCGCGCTCTTGCGCTCTATTTCTTTGCTTATC
1 GCCGATCTACCGCGGTTCGCGGGGCAGCCCTCATCGCCGG
1 GGCGATAGTGTGGCCCCTTTGGCTTCGTTACACCTTCCAT
0.02618003040834056 GATACGTAGACTTAGGTTTTTTTATATATTTTCGCCTTAT
1 CTATCTACCCGAACGGGTACGTACCATCCCTCCACATTAT
1 CTGTTATCCATCAACGTTTAATGCCTAAGTCCAACGTCCT
1 GTTACGGCTATCGCAAATACCGACCTTTCCTACTTGGGTA
1 TTGCATACCCCTCGCAATCTGGACCCAGCGATCTCGCTAT
1 TCGGACATTCGATTACACTAGCAATCCACCGTCCGATCTC
1 AGGTACACTCAGAAGGCACCCGTCTCATCAGAGAGACATC
0.8863029105366862 CACACAGCAGCGAATGATTGGACACGATAACGCCCGCGAA
1 AAACGCGCAGACCTAGTGATGCAATCGGCGATCCCCTAAT
0.8256445502686576 CGCCCTGCCTCCCCCCCAACCCCCGTCTAATCTCCCTGAT
1 CGCGCGCACCAGGCAAATCATGGACATCCTTGTCCAGAGC
1 GTTACCGATTCACCGTGTTCGGCCGAATAGTCTGCCTTAT
1 TTTAGCTAGGCACATGTTAAGATACGACACACGTTCAAAT
0.2114757606461399 CTTCTCACTCTAAACCGTGCCAAAGCAGTGATGCGCTTAT
1 ATCACAACCGGAGACGCCGCCGACGGTAGGCACCTGCTAT
1 CACCGTAACCCTACGGCTCGCCCCTCACCGTCCGGTATCT
1 GTTGGTCTCCTCAGCACGTCTCAGCCTTCCCGCGTTTGCT
1 CTTATCAGATAGCCCAGTTCGTTCTTTCCGCAACCCACAC
1 AAGCAGGCAGCCTCTCAAGTAATCGCAACTGAAATCTAAT
1 CGCCAGCTCACAGAAATCTAAATGGGGATCGCTGGTCGCC
0.1497735075334032 TTATCTTGGCTAAGACTGTCCTGATAGGAATCTGGGCGTC
1 GCCACTCCAGTACTACTCCTAATCGATGCTTAGACTCAAT
0.5642184857108239 CGATAATGGAACAGATACGTTGAAGGCCCAGACGCGTGCC
1 GTGCTACCTACCTGAGTATCTGTTGTCAGAATGTCTTTAT
1 CTTTTCCGACATTCCGCTGGCCCCTCGGAAGTCCGCTTAT
1 CGAGCATACCGAGCATCACTTTCAGCCGCGCGGATCTGGC
1 GTCACCCCTCGAGTGCTCTCCCCTTTGAGAATTAAATAAT
1 ACTACGTTTGCGCCAATCTCTGTTCGCCATCTGCTATGCA
1 CCGTGTGCGATATGCCTTGTCATAGACCATAGTCTAATAA
0.1419406552911953 ACACCAACATCCAACAAGTTTGCCTTATGGAACGTCTTAT
1 ACCCGCATTCTGAGACACACTACAAAACTCCCGTGCCCGT
1 CCGTTCCCCACACTTTTGCGTCTTTCCTGAAGCGTCATAT
1 TAGATATGATCCTTCTAGGCCCAGTGATAGCTTCTCTGAC
1 AAGCTAAGTGCTCCCTTTCCTTCGCGCGTTGATCCCGTGG
1 AATTATCGGGCGACAGAATCACGCACGCGTTAGCTGTTGT
1 ACTCGTCGCGCACGAAGGGGGCGCACCCCCTCTTAGCACA
1 CGCCACACCTAGTCCACCCTACTCACCCTCCCCATCTTAT
1 AACCTGCCAGCCACAGTAAAACTCCCGCGCACGCCCTAAT
1 TCGCTAAATTTAATCTGATTGATTTCACTCGGACGTGTGC
0.5688704772755115 CCTTATCTCGATACCCATCAGCATCTTTCGGTTCGCTGTA
1 CGATAAGGCAGGTGATCTCCGCGCACCCACCAACAGAGGC
1 CCTATCCCGCTGTAATCCCCAAACGCTTTCGTCACTTATG
1 GCCATCACGATAAGGACAAAGTGGTCGTCTCGCCATAACG
1 CGCGCGACGAAATAGGCATTACGCCACCTAGCCCCATAAT
0.5471697849388983 ACCGCACTACGCACAACGCTGGCATGCGTCCTGGCGTTAT
1 TCTAGTTGCTTACTGAATTGACTGGCAGCCAGCATTTAAT
1 CCGATAAAGAACACCACCGCAGAAGCACGGCTCTCCCGGC
1 CCCGCCTACCCGCACGTCCATTTGCGATAGACTCGCTGGG
0.9751822793902618 CTTCGCAACAATCATCCCCACTATCCTAGCTCGCTTATAT
1 CTGGCGCACACTTACCACGAGTCGCGAACTTTGCGTGATC
1 GATGGCACATCCCCCCCAACGGCTGCCCTTCGGGCAACGA
1 GTAATCTTATTAACATAAACTATGACAGACTATCAACGCC
1 ATGTAAGCGTGGCTAGGCGTGCCTCATGCCCACCTTACAC
1 CCTGATCCGTATCAATGCCAGTCATCTACTCGCCTCAAAG
1 TAGTAGCGAATCGTTGTATCGGTCACCCACCCCGTTTAAT
1 CGATCGACGTACCTTGCAGCGCGATAGTTGGCGATCACCG
1 GACACGTCGCGTCCGCCGTGTGGGACTAGCTCGGTATTAT
1 ATAAAGTAGGTAGTACGTATATATGTTCGTCGTTCTATCG
1 GAATCCAACACAGCGTTACCATGATGCGAACACATCTACG
1 ACAAGCCTAGGCGAGGGCATCCCCTCCAACGCGGCTTGTC
1 CTCCATAGTACGGAAGAACATAGGCCCGCGTTGCGTTAAT
1 CAGGCGCGAGACCACCCGCCGGACGCGGACGGAACGTAAT
1 TCTCAATGCGAGCAACTTTATCACGCACACAACGCCGATA
1 TACTATATGCTTTGAATGCCCGTTTCTGCCTAGTCGCGTC
1 GCCCCCACAGAATATGTGCCAGGATTTCGCCGTGCTCACC
1 TCTCGCGCGTGCCCAACTCCTAAAAGGACATGCAGCTTAT
1 TTGAACGAGCACCTGACTCCCCTGATATATACCCGTGCAT
1 ACCGGAAGGGGCAATTCTTGTCAAACCCATGGTTGTGGAA
1 GCGATAATGAACTCCACGTGCGCCAGGTAAGGTGTATAGG
1 CAGTCACGTCAAATCGAACCTAATCACACCAGCCCTCCTA
1 CACAGATTATAACCCGCCATGCCAAGCTACGCTCATCCGC
1 CGACTTAACGGAAACAGCCACCGCCGTTGACATCCTTGTC
1 TGATATGCGAACGTTTTGCGTCAGCTCGCTATCATTGGCA
0.09034643609653267 GGTGCATGCATTACGTGAGTTGCGGTATTTGCTTCCTTAT
0.5938271317706239 CACACTGTACCTCCAACAATAAGTGATCTACCATTGTAAT
1 TCTGATAGTGCCGAAGTAGGAAGTTACACGCCCTCACCCC
1 ACTATCGCGCTTCATCATCTCTTCACCCCCACGGCAGTAT
1 ATACCTGTAAGCGAGTTCAATAATATACAGGGGACCTTAT
1 ACAATCCGTTTGCGGCCCAGGCATTTGTACCCTTATCACC
1 CAAGCCAATGACCCTCCCGCGTAGCAAGATTTGTCATAAT
1 CTGCCACTAGTACTTAATCAAGGCTGATCAGGAGCAGTCG
1 TCCCCCTATTAGCCTGCAAGGCTGGCTGGGAAAACCTTAT
1 CGCCTACTGCGGATACCATTAGCTTCCCTGGGTACACAAT
1 GATGTGTTTGCGACATACGTACAACTATCTACTCTAGTAT
1 CCTCCTCAACTGGGCTCACTACGCCGTTCGCCACGTCTTC
1 CAGATATAATCCTTATTATGCTAACTTAACTACCTATAAT
1 CCCGTTCCAGACCTACATACGTGATCTGTAACTCCAACCC
1 CCTTATCAACATAAGGATCAAACGTCGCTTACCTGAAAGT
1 CAAGCGAATCTCCCCCCCCTCGTACCAAATATGCTACGGC
1 GCTCCACTACTACTAGCCTTCTATCGCTGATCGATCTCCT
1 CCACGCACTGCGATAGTATACTCCTATGCTANCTTGATGC
1 TAATATGAGCTGTATCGACTTTTGCTTTTTTATGAATAAT
1 CACGATCGTGTACACCTATCCCTGACTACGGGAATCACAC
1 TGCCGCGCTCATCCACTCCATCAATCACTCCACCAGTGTC
0.1066818150522401 ATCAGAGTGTACACTGATATGTTTACGGCAACTGACTAAT
1 TGCTCACAATCCCCCCTATAGTACGGGACCAACGGGCTAT
0.3094124733641392 CCTGATAATAATGCTCGCTACATAACAAACCTGGGGCCCT
1 CGACGCCTTCCTTCTCAATCGATACACGATTTGGTCCGAC
1 CGAGCAGGCTGGGCAGCAGATCGCTTGACCAACCGTACAC
1 TATATGCGATTCGTTTCCTAGTTAGAGACTAGTAGCCTAT
1 CACGCCTCTATTGCGAGCCAACCGACGAAGCACACCTTAT
1 ACCTACCCGGCGGAGATAAAGAGCCCCCCCAGACGCGTTT
0.04458092269481322 TCCCTGTAACCCAGTACTTTGACTCCTCACCCTTATCTGT
1 CTGGGCCGAGTTGCCTCACAAGCGCCCCGCAGCCTCTAAT
1 AGATAATACCCGCCGGACATAATGCGCCGCGGGCCTATAT
1 ATAAATGCAGCCCGTTCAACCTAACCGCAATACAGCAGTC
1 TTATGACCTCATACCTGCAATATTCACCATGTCCCTTGTT
1 CAATTTCTCGAATCATAAGCAAGCAACAGACCACGGTCAG
1 AAGATACCACCGGATTTTCCAATTCGTTGACGTCTCGAGG
1 CGAATGGGTGGTAAGGTATCCATGCTTAATCTCTAGATAC
1 CGCGCGCAATACCCGTACTCCCTCACACGACAGTCGATTC
1 TATGATTGCACATTCGACCCCCTTTCTTGCCGCGAGGTTC
1 TTAGTAGGTTTTAATGACACGTTTTGAGTATCTATTGTAT
1 CCTTTACAAGTAGTGGCCGGGCGCGATAAATGCTCGTAAT
1 ATGGTTAATCCAGCCTGCAACGTTCACAAGGATAGGTTAT
1 CGGCCCCTTACGACGGCTCTCCCAAGGACTACGTCCGTAT
1 CCATCCCTAGACCCAAGCATGGTTCAACCCCTTCAGTTAT
1 ACCCAATAGACCCAGCTAGTTATCCATATAACTAAGTTAT
1 CCGTAACCTGTATTCGCGTCTGCCATTACCCTTTAAGCGC
1 GCTTGCGGCACAACTATCGCCCCAACGTGCTCGCCGGCCG
0.9593942307336844 CAGCTTGCAGGCCTTCGTCCCACTCCCTTAGCTCTGTTAT
1 TCACGTTCCGCCCCCCGGCCCACAAGAACCACACCCCATT
1 TCTCAACCCCATAATATCGATATCTGCTACGCCCCCCCAC
1 TATTCCACGGACCCCCATCTGTCCCCCCTCTTCTTGCTCC
1 CCAGGATATATCACCGGAGCTTGTAGCTATACCCCTTAAT
0.1747398665857832 GCGAATATGTGCTAGATCTTTTATCTCAGAAGTCTCCTAT
1 CCTCTCGGCCCCACTCATCCTCACATTAACTGCCGGGCAG
1 TATGGCGAATCAACGTGGCCGGATCCTGTAGGCAAACCCT
0.6511659785980498 CGGATGTTATCTCAGTAAGGATCTGATCCATACGTCCACT
1 ACAGGTCCCCCCAGCGCCCCCGCACATGCCGCTATCATCA
1 CAGTATCAACCCAAGTTCTCATCCAATCTAGGAGAGCATA
1 CCGTCACTCCGCGCCTAAGGCCATCAATGCTTATGCTTAT
1 CCCCATGCACGGTCACGAGCTGCCCCCGGTAGTTCTTACT
1 CCCACACCGCAGCCGTATATCAACCACCTGCAAGCGCTAT
1 ACACACTCCTGCAGCATTAGTCACCCCCTACCACCGTAAT
1 CCGATTGGGCACGTTGACCGATAGCAACTGTACTATCCCT
1 CTGATACTGCCGGCGAGCATACTCCCCCTGCAATCGCGCC
1 CCGTCCTCCTTCTGCCACACTGCCTGCCTCCCCCTGCTGC
0.7205216190085147 CTTGGCGCCACTACACTCAGTTCATATCTACGCACGCGAT
1 TTGCTGGAAAACAAAAAAACACTCGCGATAGATCATTTAT
1 CAAGATTAGCACCCGTGTGAGATGTAAACGGCCATGCGGC
1 AGCATTCTTACCCCCTAACCCACCCAGCCCATCATTTTAT
1 CACCGACCCACTTAAAAGTGCGTGATTCCTAACCCACAAA
1 CCGTGTATAACCCGCGCGTGCTGCCAACACGCGTATCGCT
0.3365051794830013 CAGATAAGATGCTTCGTCGCGTGCATGTTCACAGGGAATA
1 CCGATAGTCGGTCGGATTAATAACGGTGCCCATCCCGAGA
1 GCAACGCACACCCGGCGCCTGCCCCCCAGGGTACCGTTAT
1 GTTTCAACGGACAGCACAGGCAGCCACCAGTTGTCATTAT
0.9568654360430984 AACGATAAGGTCCGCATGGCACATCGCAATTCAGGGTACA
0.6927773945637997 CATGACCATACGCGAGCCCCACCCGCACGTCGAACATTAT
1 AATTACGGCATCGTTAGCCCCTTCTTGTGGGGCATTCTGG
1 AATGTCGCAGATGAGGATCCTCTGCTTTTCAATATACAGC
1 CGACCATGCGCAGATATACTCCCCTGCGCAAGGTCTATAT
1 CTCGTTTAGGTTTAGGCGTTAGCCGTGAAGCGTCGCTTAT
0.9953369388810061 GTGATACGGAATTCCGTCTCTTGTGATACGCGAGTGGCCT
1 ACTCAGCACCGAAATGACTAGTATTATCCTTATGATTACG
1 ATAACAAGACAATCACGCGTGCCATTAGGCGCGGCTCCAA
0.4487522286380414 CGCCACAACTAACGATTCAAAGACGATACGAATCACATAT
1 CAATACACCCTTAATAAGAGCACGTTGCTCTCAGGTCGCA
1 AAGCTCCTACTGCCAGGCAGATCGATAGAATAACCCATAT
0.5304940116729274 CAGATTATGCTGCACCATGTCACCTTATACTACTATTACT
1 CTGTCAGCTGTGATCTGTTAGATCGGGCGGTCAACCCTGA
1 CTTCAAGTACGGACCACCGATCTTAACTAAGGCATGAAAT
1 CCCTTGACGGAAGCTGACCCGACCGACGGCGGCCCTCCAT
1 AGGAAATACTGATTGCGCGTAGCACGACCCTCGGCAAGGG
1 AATCTAACTCACCTGCAGTAGTACCGGGCTATCACGCCGG
1 TATCCATCACGCAAATCATCAGGCCATGCGGCTGCCAGAC
1 CAAGCCGGCTCTGCGCGCCGGGGCGCGACCTCCCTCCGGA
1 ATTCATGATGTTTTGATAGTAGCACCCTTAAGTAGCGTAT
1 ATAACGTCACAGGGTTAAACCCTCCTACCCAACGCCCAAA
1 TCACTCGGGGATGATACATGCGACAGAATCACGCTCCCCC
1 ATAGATTTGATACAGCCCTCAGATTGCCACCTACACTTAC
1 CACGCCACTCGTCTGACCGGTAGATCAAAACGCGATAAGA
1 TCGCACCCTAGCATGTACTTACCGAAATTATCAGCCACCC
1 GATTACCATAATTATGCTAATGTAGCCGCTTCATCACTAT
0.5765629165218155 CTAGCCCCACCAATAATTAAGGCCCACTACCGACGCTTAT
1 CTAGACCCTCTTTCGCCTCGTATGCCGCGGACAGTCTCTG
1 CCGGCTATCGTCTTCGGATCTCAATCTGACCCACACACGC
1 TATCGCGAGTTGAAGATGCACCGATAGCGACAATCCCTTC
1 TGCCTCCCCCCTGAAACGCCCTCCGGCTTACTGCACCTCT
1 TTCACATTGATACTGAATCCAGGGTCGCTGCCGTACTAAT
0.8333474444708193 AACCATATCCCACTACCCGGACCCGTTCTGCTCGCGTTAT
1 CCTATCATGATGAACCGCGCTACTTCCATTTACAACATTC
1 AGGTTGCGAGCCCGCGAGACAATTATCACCCCATCGATCT
1 CTCGATCACCATCGTAGTCCATGCCCCGAGAGACCCTTGT
1 ACTACCGCCACCAGATCGAAACGATACAAATGCCTGACTC
1 TCTCCAGCCGCTACCCCGCATACAGAGACAAAGCCTGTTG
1 AGATAACGTATTCCAAACGCACCCTCGCACCCCACCGCCG
1 ATTATTATCTCGTTCAAATACTTGTTTCCTGGATACCTCT
1 TTATGTTCCTAGCAGCCCACCCCTGATTCTTATACCACAG
1 TTCGCTCCCGGCCCCACCAACCTGTCGGCGGGGGTTGCCT
1 GCGCAAAACCGCCGTAACCACGCAATCACCCCTCTCATCT
1 ACCCCGTCCCCCCCCCCCCTGAGACCCCCCCTTCAAAATG
0.7036671304643889 AGACTACGAGCCCACGTCCTCATCATCACATATCTTCCAT
0.7558586638565584 CGGACAACCGCATTATCGCACCGACCCCACACGCTCCAAC
1 CTATGCCCGTGTGCCTGGCTACGCCCCCCACGCCGCCCTG
1 CCACGTCCCACCAGTGCACCCCAACTTATCATCCCAAGTA
1 CAGACCCTCACGCGGCGAGGCTAACCACGATCCACCCTCA
1 CGCTCTTGTTACCGGCCCCGAAGAGATGTAGCGATAACCG
0.2944354465359649 TTATCTATATATCCGATCGGATGGGAACGATTGGGACGAC
1 TATCAAAACCACACTCACATTAGTCCGTTGCGTCGAAACG
1 CGGGAAGATATCTGCAGCACAGCTCCCCCTGCTTCAGTCC
1 CGAAACATGACCGCAACCAGTACAACCCAACAACGATTAC
1 CTGGTCGCTAACCGATCCAAGCGCCCACCTTTTGCGGAGA
1 CCGAATAGCGGTGTCCGCTCGCTCAGCGCTATCTGTTGAT
0.6518116113328485 CATAGATTCAGCTATCACCTGATCTTCACATTACAATCTC
1 CTCCGAGCACCTAAGATCTGTCGCCATTTAGCCTTCGTGT
0.03772378356162895 AACTCAAGGGAGTCTCACGACTAGGGCAAGTTACGCTTAT
1 GCAACGCATGAACAATTTGATCTGGGTAAGAGTAAATACC
1 TTCCTATGCCATCGATCCGTAACAATCTACTTACAGACCA
1 GCTAAAGATCCTGATTCAATACGTATGCGAACCAGGAACG
1 TCTCCAGGCAATCAGGTCCTCGATCTTCCGTATCAACCCA
1 CCCGCCCTCACAACTGTCCACCACAAGTAGTTGTGCCTCT
1 ATTAGATACGAGCTACTCCGGACTGTTTTACTTTTAGTAG
1 ATCACCTAATGGAACACTACCTCAGACTAAACTTCCCAGC
1 AATCCCAACGCGCACCTCCTGTCCAATACTAAGCGCACTG
0.1841630045428602 CCCTAACTTAAGACTGATGATAAGTGAAGGACCCTGTCAT
1 TCTGATAGCGGATTTGTCCGACAAATCGCTGGCCCCTGCC
1 CAACAGCCCACCCAACGTATCCAGATGAGAAAAGATACTA
0.8516815196918442 CCCCCGCGCGCTATAAACCATCCCCAAAATAAACCCTTAT
0.5256652550626264 TGGCCTTTACGCGCGATTGATGTGTCCCCCCTTACCTTAT
0.3186720695153484 CCGTTATCTGTGCTTTTCGCTCGTATCCACAATCAAGCAC
1 CCATATAAATAACACCATGTCACCTTTATATCAGTAGGAT
1 TCTGATAGACCGTCGCTAACATCATACCTACTAATCCGTA
1 TGGGAAAAGCGCGATAACCATCACTCTTGGCATATGATAC
1 TATATGACCACCCCCCGTGTCGGTACATTCCGTCCCCAAT
1 GACACCTAGGGAGTTTAGACGGTACGGGCTTCGCTGCCAC
0.3511087612409533 AAAGCGTTCACGCGGGTAGCGAGTAGGTGCCAACTCTTAT
0.07057507343505558 ACCCCATACGCGTCTAGATCCTGATGTGATATGCACCGAC
1 GCCGCGTTTAAGTGAGCTACTGTCGGACTTGCCCTTCAGA
0.2808431309712238 CACTGATGTCGACAGCTGCACGGTTCACCCTCCATCTTAT
1 TCTCCCCCAATCGTGATATAAGCCCTTCTATTCCCCCCGC
0.07127730626444445 CCTCCCTAATAGCATTGCATATCACAACCCCGACCGCCAT
1 TCACTTCGCTTGCCGAAGCAAGACTTCGCGCGAAACTTAT
1 TCCCTGAGGGGAGTGTTTCTTCATGTCATATGCCACGAGG
1 ACTGTCCCCACCGACGTAAGCGCCTAGTTGCAGCCACTCT
1 CGTCTCTGGCAGGTGCCCCTCTACCCGACCACGGGCTTAT
1 AACAAACCTCTGCGACCCCTTTGCCCCAACCATACCTTAT
1 GACGAGTTCAACCCGTGCTTTCCGAGTCCACCCTACTTAT
1 CCGTCAACAACCAACACGTAAACACCATGGGGGGCCTTAT
0.3548209427955805 AAACTCTGCCGCTTCCTACCTTATACGCTCAACACGTTAT
1 ACCCAGGCGCGTCAAGACCATCATTCCTCGTGGCTCTTAT
1 ACTTTTGACCGGCTGAGACTGGGGCTAGATCACTTCGATA
1 CCCGCTTTCAGCCTTCCGGTCTCTGACCGCCAACTTAAGC
0.3111419500097833 CCATATCTAGCGTACGGACTTTGGTACACGATCGTTTAAT
1 CCCTTATCGTTGGCCTAAATCACCACGTGGCCTATCGAAC
1 ATACCCCTACCAATGGACGTACAACATGTTTACGGCTTAT
1 CCACCCGTCCCGCCCTCCACGAGAGACCGCCACTGACACC
1 TGCTAGATCAACGCCTGAGATTGTCTACCTGCAGCCGACC
1 CAAGTCGCAAGGTGTGTTGAATTTAGCGAGCAACACTTAT
1 GATACTTCCAACAAACACTTCCACGCCCTTGGACAGTCAA
1 CGCGATACAATGCGCCCACCGCGCATACGTTCCAGTCTAT
1 TCTCTGTATCCACCCGTATCAACCTAAGCGCTTCCCGTTC
0.9969314909895146 CTTTAGATGACTCCTACAGAAGCCATAGGAACATGCTTAT
1 AGTCACACACACATCAACGTACGTTCTTAGGTTCTAGACT
0.7177561667351788 GATACGTTTCGCACCCTTCACGGGCAGTATCTCAAGATAT
1 CCCAACGCGGATCACCGCCACCCTTCTCCCCTACCGCCAA
1 CGAGTCCCTGCGTACTCGGTCATCGCCATATGCTCCGTTA
0.5546284786880801 ATTTGATTGCACTACCACCGCTAATCACTGCCGGCGTACC
1 CAAACTCTGCTGTGCCACACCTTGGAGCATAGAGCGTTAT
1 CGAGTACTTCCGCCGAGTTTATGCAATCCCTCCTCTTCCA
1 TACGAACATACTCCTATTCGCTCTTCGCATGGTGCATCTT
1 CACTATTGCCCACTAACCGATTACATCACACATCTCCTAT
1 CCTTGTATCGTACTAGCGGTTGCTCTCGGACGCCTTGCAT
1 TGGCCGAATTTACGCGTTAATCCGCGCGCGCAAACACGTC
0.127857483918093 CTAGCGCATTGCCCCGCCATCGCTCTGAATAACTCCTTAT
0.577855053812946 CCACCGCTATCCACGGAGGATCTACGCATTACTTTATCTC
1 TTTGCCATCTGCTGAGACGGTCTTAGTGCCCAGCTCACCG
0.7383774173375089 ACCACGTCACACGATGGTAGTCTTCGAATTATCTGCCCAT
1 ACCTGTAACAGGCGAGGCGATCCCCCTGTCTCTTAATTAT
1 ACCCCCCAGCTGACATAATTCTCACATCTTTGAAAGATAT
0.8725841500754489 CGATAACATCCTAGCTGCATCCTGCGCTCCGTCGCCCCAC
1 ACCGTGAGTAGCCTAACCTGCCCTGTCTCAACATCCTGCA
0.8529367327900503 CCGCATAACGTCCTAACGCCTCCTCCCGTCGCTTGCTTAT
1 AAACCTGCTCTGTCTGCATTAGATCTAACCTCGTACCCTC
1 CTATCTCGCGTGGAAACAGATCCGATCGAGCTACGCATCA
1 AGGGCTCACAGTACCCCACGAACCTCATGATAACCCACAA
1 AACGTAACACCTTAGGCTATCCCTGTTCTACTCGTCTTAT
1 CCCCCGTGTAATCCCGCATGTAAATCTATACTTCTTCAAT
0.4647482253682093 CTCTGCCTCCGATAATAGACCTGGTGCTTTGCCTCCTAAT
1 CAGTACTCCAGCCAAAACTGCCTGATCCCTCCCTTCCCGT
0.9375019898493837 GATTCTTGTGCACCAGCGGGACGCCGGTCTAATCAACTAT
1 ACGCAACACAGTCAGTGTGCACCTTAGGTCTCACCACAAT
1 CCCTAATACCTCTATAATCAGTCAGTTTAATCTTGGCTAC
1 ACTTCCTCACACTCTTTCCGTCTATCGCCTGCGCATGCCC
1 CATTCCTCTTCAATCCCACCTATGTTCTTGAAACGGTGTT
1 TCCGTCTTAAAACCGCATCCTTTAGGTCGCATCAAGTTAT
1 GTCAATCTACTACCGTAGCGGCTCCGCGCAACCACACTGC
1 GCGACCAAGCCATCATATCCAATTAGGCACACCCACCCGC
1 CCAGCCCGATACTCCGCACTACAGGGAACCGACGACTAAT
1 CGACCCGTCCCTGACCCCAAACATGATACCAACGCGATAA
1 CCTATACATTCCCCCCGCCCAAGCTCTCCGCCCCCTGCCT
1 AAGTGCCATCACTCGGTAAACAAGCACCAAGCGTCGAATG
1 ACGTAGCGCACGGTAGTGACGTCCTCAGCAACGCCCACGG
1 CGACGCAACTTTGACCTGGAACGTCCACCTAGAACCTTAT
1 AGCCCGCTTATTTCCGGTCAAACCTTTCTCGCCTAGCTAT
1 GCCCCCTCCCTCCACAGAGCCCCGTGTACCGACACTCTCG
0.5213161558074892 CAGCCCCCAACCGCTGCGTCCCACCCCCCATATCTTGTAT
1 AGCGGCACCCTCCAGGTCCCTGACTGCTTTATCACCCTGG
1 CCATGCCATTAACAACCCCACCGCCAACCCTTCCCACCCA
0.138483664349344 CGATTAGCGATGAGTGTATCTTTGTAAGTATCTCTCCGCT
1 TTTGCGTCACCAACTAGCCACCGACCAACTAAGCCAACAC
1 TTACCTTAGCCTGCCTTGGGACAATTATCAGTTGTTGAAT
1 CAGATTAGACCGCTATTCCACGCCACCGCCCACTACCTAT
1 CTGTTGATTGCTACTCCAATCCAGCTATCACTACCTATAT
0.6055811438854927 ATAAATAATCACCGCAGTTAAAGCGCGGAGCATCGTGATG
1 ACGCACCGGCCTATCCGGCCGCTCCCCCCACAACTCATAT
1 CACACATTATAAGGTGAACGTACGAGCATGACCTTATTTG
1 TGGTATGGCAAGTCAGCGCCTCGCGAACCGTGGTTTTTAT
1 TATCCCCACCCATCACCCCACTCCCCACCCGATAACCTGT
1 CTGCGACACAGCAAGGCTGACATGCCGCCGGTAGCCTTAT
1 CTTATCACATGAGGAAGCGACCCACGTTCCGAATTTGAGA
1 CCTGACAAGCTGCGAAGAAATCAGGGTCAGTACCCTGCAT
1 GAGATTGGGGCTTTGTTAAACCGTTCCCTACCTCTCAAAT
1 TCCGACGCAAACTTTAAGATATAAAGCGCACCCCGGTAGG
1 ATTTATCATCCATCTTAATCTCTACACTATGAACTCCCCA
1 CGTAGAACAGAGACATACCTTTCACCCCGTTCCACGTTAT
1 CAGATAAGGCCCCTGTCCCACATCCCCGCCCTCCCCCACC
1 ACACGTCGCGACATCACGCCTAAACAGTCGTCACTATTAT
1 CGATTTCCTTCCCCACTGACCAATGATGGGCCTCAGCAGC
1 TCATACGCATATCGTTTTTCTGGATCTATAGGCAAGTTCT
1 CTGTTTCAGTGCATTTTACACAAATCGGGTGACGCGTTAT
1 CCACGCACACTCTCTCTGGAATAGAATTCCACATCGTTAT
1 TGTCCTGCTAGACCACACATCGGCAAGCGGAACCCTTAAT
1 ATCCGTAACGCTAGGAGTTGACCACGTCACACTGCGGCGG
1 ACGGATGCGCCGACTGTAAACGTACTATCGAAAGCATAAT
1 GTGCCTCACCACCCCACTGTCGTACTCCCACCCATGTGTA
1 CGACACATTTCTTCACGCTGCAAATTTCAGGAGTCATTAT
1 ACTTTCTCTGATACTGTATTCTCTGCTTCTGAGGACACAT
1 GACGCCTTCAATTGCATTGGTAGCCGGCCCTATCGATACT
0.005036216572691384 CAGAGCGGGGTCGGTACAATCTTACCCAATATCTAGCTAT
1 TTATCTCTCCAGTAATAATCTGTACTTCCGATTTAATAAT
0.1017441832960403 GAGCATATGTCGACACCGCGGTACCAGATATAGACCTAAT
1 AGATAAGAACTTCACTTACCCCCAGATTCTCCTGGTGCGT
1 GTGATAGCACTTCCAGTGGGGCAAAGCTGCCCATTTTCCG
1 TTGTGCTGGCAGCCACAATCGATTTACCTGTGGTGGATTG
0.5225195076442168 CGCGATATGAGTCCACCCTAGAAACAAACGATAAAGCTAG
1 CTGATATCGATGCTGGTCAAATTCGGCCAAAACTCCGCTC
1 TCCTCGAAACCAAGACGTATGCCCACTGCGCGAAGGAATG
1 GACGTTGGGAAACGGCTGTGCACAACAACGGGGCAAAACA
1 TAGTCTCGTCTCCGGGCCACTAATGCCTCCACGCACTATA
1 CTCGAGCGACCGTCACCTGTCGTGGTGTTCCCCTGCACGC
1 CGCCCCAAAACACGACCAAATCCCGTTTCTTCTAAGATAC
1 AGGGCACTTCCCGCCTCGAGGTATTCAGACGCCTTCTTAT
0.08892920348008761 TTGGCAGAAACGCACCTTGAACCCATCTACTCCCTCTTAT
1 ACCCTATCCTGCGCCTTATCCGATCGCCGCCCTCCTTCCA
1 GGCCCACTATAGTCGAAAAAATGCGATGACATTCCAATAT
1 CGATTAGCGCGGGTCAACCCGCGGCACGAACCGCGTGCAG
1 CCACCTCAAGCAAGCTGCATGGGTCGCGCCCAACCACGAC
1 TCGCAGGCTATTTGCTCATTAGCCAGTCCCCGAAGCTAAT
0.8188889841624807 ACTCCGTGTAGACGCCAACATGATGATACAGGTGCGTTAT
1 CCCTCCCTCACCGCCCGTCCTGGCTCCTCGCGTCCTCACC
1 ACCCTTCACTTCGTCACAACCTCTGCAACACCATTAGACA
1 CAGCACACCGCGGCTGGGTCCTAATGGCTCTTGCCCGTAT
0.387082126860094 TCAAGCACCCTTGCTTCCATGGCATCACCAGCGCGCTTAT
1 TGTAATCGCTCCCCGCGATCATTTTAGCTGACAGATTGAA
1 CACGAACCATTTGACAGAGCCGCATCTATCCGCGCGCAAT
1 ATCTAAACCCCCTGATCCATGCTGACGCGCAACGAACGTA
1 AGGTTTATGGCGCCCGCCTATCTATCATTACACACATCAC
0.9240610635271631 CGCCCCCCTAACGATAACCCTGGACGATCTTATTCCCCTC
1 CCCCCAGAAAAACCGACTCTTAGCATTCGACAATGTCTCA
1 CCCCCCTCGCCCTCCACGCCAACGTGGTCATGCGCTATCT
0.9370635362482054 CAGCTGTTTTTGCGTAAATGATAAGTATCTACGCCCGTAC
0.03582595057966999 AGGCCCACAATCAAGATCAAACCTGAAACAGGAACCGCTC
1 CAATCACACCCGCTAGATAGCGTCGCCCTTGACCTAATTA
1 GTGGGTGTGGCTCCTTCCCCTGGGTCTACGTCAGTCCTAT
1 CCTGTACAGCCCTTATCGACCCTCTCCGCCCGTTCACACA
1 CAAGATAAAGCCCCCGCCTGCCCCGAAGCCCGAGTGCACG
1 CGCCTATCACAGCTTTGTATTATCCTTTGCCCCCTGATTG
1 CTAACGATACGCTCCGTACGACCACCATTAGTCTACCACG
1 TGGCTGCATGGGTTAACCCGACAGAGCGATTTCCTCTAAT
1 TGCGACGCAACCCAGCATAATGGCTAAAGGCGCACATCTC
0.753829867427717 ATCGGCGCCCAAAACCCTTTATGTAAGTCACCGTGCTTAT
1 CTATCAGCGCTGGGCCGACCATGTAGTCTAGCCCTCATAT
0.2066000651930303 CCCGATAACAGTCGTCCCATCCTAGTCTCCCATTCATACG
1 GGCAGGTTTTACGTGAAGGCTATATGGAAGTAACCCGAAC
1 AGTACTATGCGACCCGATTACCGATTCCGCGACCCAATCC
1 CATCGCATCTCAGATACCCACGACAGACAACGACCTAGCA
1 CTACCGCGCCACTCCGCCACCCCTTACCCCCAGCGCCGCG
0.7105699945071593 GTCACAAGCACCTAAGTGCACGGAAGCACCGTTCGCTTAT
1 GATAATCGCATGAATGCATGACGCTTGCCCGGGACCACTA
1 TCTCACCTAGTTGGGCCCCATTGCTCTTTTAGTCTGCCTC
1 ATTCCTTCCGCCCCACGCATCGTAAACTGCCTACATGACT
1 GACCCGTGTCTACTATTGATCTGAAACGTTACTTAGATAA
1 CACTAGGACGCTACGTAGCACCCTTCACTGATGCCACCGA
1 TAGCCAGGACGCAAGCATATTCGCATCTTTCCCGTGCTAT
1 TAGATAGCTCTGTGCTGCTATGCGGGATAGANCAGTTCTC
1 CTCACGAAAACTTCGTCAAGCTCGTGACAAGCGTGATATT
1 ACCAGACCTAAGGAGACACACGTACTGCGACCCGACCGAT
1 CTGTCCTGCTGTCGCTCACTCGAAGTACCTCCCAACTAAT
1 CGACGCTGTGTACTCGGTCAGGATTTGAAATTGCGATCCA
1 GTGAGTAGGCTTGCCTGCAGAGCATGCCGAGAGCACCACA
1 CCACATGGAAACAAGCACCCCTCTTCAACCCAATCGACCT
1 GGATACCATGGTCCGTCGTTCGCAAACTCGTACGTAACAA
1 CCCGTCACCTGATATTTTCCCTTGCACTGCCATGTGATAT
1 AAGCGATTGCCCAAATTTCCACCAATGCGCTGCGGTTTAT
1 CGTGCCGAAACCGTACCCACCACGCCCGCCCAGATGGTAT
0.1636667266003801 CCCCGCATTACGGGCCATATGTGGCCTGAGATTCTCTTAT
1 GCCATCGTTCTACTGACACCCTCTTGCCAGCGCCCACTAA
0.4775217238596779 CCTCTCCAACCATCATGTGAACACCGTGCTGAGGGCTTAT
1 ATATGTAAGGTACCCCCGATGCGTACGCGCTTAATCAGAT
1 GCGGTCTCAAGGTAAAGCTCCTCGCCCATAACTAGCTTAT
1 GCACACACAACGAATCACCTAATGCGCGTCTATGGCGTAT
1 CCCCACGGCAGCGCCCAACGATCACCCGCCCCCGCAGCTT
1 ACTCTAGATCAAGTGCTGCCCAAACGTGCAGCTCAAACAC
1 CAACCGTCCTCCGTGCGGCAAAGAGATCGTCTATAGATTA
1 CTTCGTCCCAATCATACAACAGCGTTCGCCCACAGCACAT
1 ATCACCCAAAGGGTGGTGCGCATCAACGAACGTAAACGCA
1 GTTCATTAGTACATCAGGTGCGTCGAAGTTGCTTCGTTAT
1 CCCGCGACTCGGCGTTGCCACCAAACTATCTCTCCCATAT
1 TCGCCGGGCGCGTCTTAACAAATCATATCTGCATGCGACG
1 AGAACGTCAAAAATCTCGATATGAATCAGCGAATTTGATC
1 GGTGATATAGGGAGCTCGCAGTAACGCTAGCTGTATTTAT
1 CACCGACGGGATGTACCCTCTAACAAGGACATCAGACAAG
1 TATTGGACTCCACACTTACAGCCACTCGCCTGATCCTTAT
1 CACGCTCGCCGGTAACTTAACAGCCAAGATCAGGCCTAAT
1 AGCCTCCAGAAGTACAACATGCTGCCATTTTAGTTGCTTC
1 CAGATAACAAGCAATAAACGCCTCTTCCGGGTCCAGGATT
1 TCCACATGACACACTCGGCCACGCGCTCCGCCAAACGTAT
1 CCCGGGCCCAGCAGAACATCCACCCTTTCCGATGGTTAGG
1 TCACCAGAACAAGCTATAAGCGACATCATAACACTGTAAT
1 CAGGACATCCATTATCGTACCCAGCATCGCTTCCGTTCCC
0.5620311778436416 CGTTAACCCATTCTACCCCCTATCGCTACATCTCGCATTC
1 CCGTAGCTCCACTCGTACCCTGGCGTAGTAAAATCGTTGC
1 CTTGCCTTGTCGTGAAATTATAGATTTACCTGCTGGTGAC
1 CCTTCGAGCACAAAACAAGATCCAGGCGACTGATAGTGAA
0.7277040740014146 GAGCTTTTCCGCACTTGCTATCAACAGACGGCATCTCTAT
1 ACCTAAAATCAATCCCGCGGTGCGCGATAGCCAAGTTTGA
1 GCCGCTTCGATCTCCTGCGCAGTATCTCAGCGCTCATCTT
1 TCATTCTGCCGTCATACTTCCCGGAAGTTGGCCCGCTTAT
1 TTCGAGCACGCGAACCCGTTCCACCTGTTACCCTTGTACG
1 CCATTACCCATGAAGATTTCCAGTATCACGTCCACCTTCC
1 TCTTTGACTTGCCTCTAATCGCCCTAGATAGATCTCCTCG
1 ATTATCTTTGCATACATCTCAGTCCAGCTCCTCGCAACCG
0.224539988724469 CGATAAGCCACCTCTCACGACACCACCTTACAAGAACGGG
1 TCCTAACTGACTCCGACATTCTCGTATGTGACCGCGGAGG
1 CTAAAAGACTGCGTGGTGCAGTGTAGAATTATCTACATGA
0.3355215654966244 CTACTCGCTATCAACCACTGATCTCGCTGCGAATCCATCA
1 GTGCAAGTAATCTCGACTGCTTGAGCAATTTTAATCACTG
1 GGGCTTGCCCATAATCGGCGCGACATGATTTCCGCTTTCT
1 TGTTATTACCCATCCTAAACTGTATTTCAGTTCTGCTTAT
1 TACTGATTACCATCAGCTGTTTCCCGTCTGTCCGGTCATC
0.3420149273759518 GCTGTGTGCCGCTCACTTTCACCTTTGTTGCCAGCCTTAT
0.3767088438808754 GAGACTATCGCGTTAATCAGCGCCGATCGAGTCGTGATAC
1 GAGGGTCTGAGCGTTACGTTCTCATCGGCAACCCCCCCCT
1 TGTGATCACCCTCCGCCCACGTGCACCCTCATCTAACCTG
1 CTTTGACTTGTGGCACCCATAAACCTCCTATCCAGACGTA
1 TTAGCTTATGCTCGAATCTATTTCGCGGCCCTCGCGCTAT
1 TGATGGCAGGTACGATGAAATCCGTGAATATATGGCGTCG
1 GATAAGCTGCGTTGCGTGCCTTCTCGCTCGAGGATTTCGG
1 CACTTATCTTGCAATCGATCTGGCCTGCGACATCTCGGGT
1 CCACGCCACTTCACCCGACGTGTAGCGTAGCGCCGACAAG
1 CATAACCCTCCACGTACCGACCTAGCACCAATTTCGCCGA
1 GGAATCTTCCGCCGATCTGTAAGATAAACGGACCGAACAC
1 TCCGTTGTATCTTCGCTGCGTCGCGAAGAAGACCTGTGAT
0.4567936238570996 GTGATCTAGTCTTCTAGATCACGTTATTGATATGACTCTA
1 CCGCGCCCACGCCCCCCTTGCTACGCGCTGGTGCCACACT
1 ACATGATTAAGCCCGTCAGAACTGCGCGTTGTATGCTTAA
1 CCTTATCCGACCGATCTGCGGACTCCATCCTATCATGCTC
1 CTTCCTCACACAAGACGGAGGACACACGAACTACCTACCT
1 CGACCAACTGTTGAGCCGGTACGTTGCCGACCCCGCTGAG
1 CGCTCTTCGCTCACCTTGGCCCTTCTACCCACGCGCTAAT
0.3828508987654698 CCACCTCTTACCCGAGTTTGGAGGCGCAATCCCGCCTTAT
1 GGGCCACTTCCCTTGATACTCTGATCTCTCATCCATCTCG
1 CAATCCTAGGCCAATCTAAACCTCGTAGCCGTCGTGCTAT
1 TACACACGTTCCGGCACTTCTCAGACCACACGATGCGAGA
1 TACCCCCTCACTATCGGGGCTTGATCTGTAACCTCCCTCG
1 ATAGTTCGTAAATTGGGAAGCGACACCAAACTCGAGCCTA
1 GCATGTGGATCCACTGAAAGTGCCACCCTTATCCTACCAC
1 CCCCCTTGGCAGCGCCCTGCAGTATCACCAACCGATAAGC
1 CCGTATGCGGTCCGTCATGGCGCCCACTCGATTAACTAGG
0.141411536253 AGAACATAACGTCTTTACCCATCACCGTACCGCGCGTTAT
1 TCCACCCGTCGCACCCGGCACCTCACACCCCCTGCATGCA
1 GTTGTCCCTGCGTAACATACTTAATCCCTGCGTCCACGCT
1 AGCGACACGATGATTAATCCCTCACCTTAGGCAAACGACT
1 AAGCGTATCTCACTACGCATCTCTAAACTGCTTAATTTAG
1 CACTCACACACACCTTCGCCTACCCTGCCCAATATCGTCC
1 TCCGGGCTACCATCCCCCGGCCCATCACTGCTCGTATCCT
1 CAAATTTGTCTCTGCCGCGTGAGTTCTAAAGCCTGCTTAT
1 ATCAGTCGATAATAACATCCGTACCCTCGGCCTTCCACTA
0.6739137529674367 GTACTTAATCTAACTGATGCCGATCTCACTTTTGGCTCCA
1 CGATTATCTCAGCAAACTCGCAAATATCAGCTACAAAGAT
1 TTAACAGAGGAACAAGACCCCATGTCTACCCATGCTTGCA
0.3953275323426053 TATCTAGGGCTATCTAATCCTTTAGACCTAACTCAGCGCC
1 TCAAGGTCCAGTAATATGAGGTCTTATGCACCATTGTGAT
1 ATCTACTGCCCTGATACGCATCACGCCCCGGGCAATCGTT
0.09346195215623793 CCAGTCATGCGTCTCCAGTACCATCCAGCTTATCGCGTTC
1 AGCCCAAATATCCAAAGCGCCGACTGGCCGGCGCGTCCAT
1 ACGATAACGAAACAAACCCTCACCTCTCTTTTAGTGGGAC
1 CCTCTTAGGGGTACTCGAGACCTGCCATTGCGCACCTTAT
1 CGCCATAACAAGAGCTCGCTTACTATGACTTCAGACGTAT
1 AATTCAATCACGTAGGACGTGGTACCTGTGGCCACGCTAT
0.04779866486461615 CCTTATCTTGCATGATCTCGGTTGTGGACACCTGTTGGCA
1 CGACTTTCTCCGAGATAGCGGAACACGCCTTAACTATTAG
1 CACTTCCACAACACACGCCGTCACTATCAGCGTATGAGAT
1 GACGATTAGAAAAGAACCGCATGCACACATAAAGTGCGTC
0.08444000845033839 TCACCCCGCATAGCACATCTATCAGTATAACGCACACTAT
1 GCATCGCGCTGCTCCAAGTCACTTCTGCAATATGACCTCC
1 TATTATCGCCATCATCATGACTACAGGTTATACTCAACAC
1 GAGCTAACAGCACACCACCGAGGCAGCATCCGGTCTTTAT
1 TTGTTATCTGTCTTTCGATCTCACTATTTACTTGTACAAA
1 TTATCACCATAACTAGCTGGTATTGCACAGCTGCATTCGA
0.8322402420750442 TTGCCCCTTGCCTAGACTTCGCCACTAAAACTCAACTTAT
1 ATACGGGTGTAATCGACTACAAAAACTTCCCTCCGCCATC
1 CTACATGACGGAGTACCCGTTGTAAAGATACTATCCTTGC
1 TCACGCCACACCTTACGTCTACCCTATCACTTAGATGGCA
1 ACGCCGTGCCCTCTACGCCTTATACACGCCACGCTATTAT
1 ATACAACGCTACCCGAGACCCACCTGTGCATGACACTTAT
1 CGCCGAAACCACACTACACCCATACTCGCGACCGCCTTAT
1 TCGCAGGAGCGCAGTAGCTGCCTTAATACCGACACGCCAA
0.5975094793611813 AGCCCCACCTCTCGGGGCCAGGTGCCCGCCTTACCCTTAT
1 CCCCTCGGGAAGGGAGACTACCACTTGCCCGCCTCCTCCT
1 CTCTTTCTATTCCCTCCGATAGTCCCGCTTCCCTTGTTAT
0.8953844230082804 TAGTCCTCGCTTGACTTTTCGTGAACACTCCGAATCTTAT
1 CACCCCCCAGCGCTGCACTCACCCCAGCAAGAACCACAAT
1 CAGATAAGTACCCACCTGACTCGTCGCCCAACCCTGGAGC
1 ACGGGGTGAGTTTTCGGTAATATCTTTGCGTTCAATCGCT
1 GATGTACGCATCAATCTTGAATCGCGCCGATGCCTCCGGA
1 CGAGATCTTCTGTACCACGCAATCCAAGGGCGGTGCTAAT
1 CAGAAACGAACCTCGCGAGAGTTCGTCTCTACCCAGGTAT
1 CCTAGCGCTCCCCCTCACACCTTTTCACCTATTTGATGAG
0.4157831908756106 CCGCCCTCCTCTGGCGGACTGATGAACCCCTATCTCGAGC
1 ACCCAACCGATGCGCCACTGTCGTACGGAAAAGCGCTTAT
1 GCGCAATCTGCAAACCAAATGATTACCAACGGGTATCAAG
0.001930967031072638 GCGATAAGGCGTGATGTAGCACCTTCACATGCATCTACAC
0.009702508920126501 CGATCATATCGCTGAACCAACATTACATGCCACCTATCAT
1 TCTTCGTAAGGCTTGATCTATATATTACGATATTACCAGA
0.4503634409506372 TATGGAGTTTATTCGCTATTTTTATCTATTGATAGGTTTC
1 GGAGCGTGCAACTGCAAGCTTTGCCGCCCTGAGCACGTGG
0.8258729038374601 ACCCTGCAGACGTTATCCAACCTGGAACAGTCGATAACAC
1 TATCTGCACGGTAGCTCGAGACTTTCGAGATACCCACTGC
1 CGACCTCGTTAGTTGGCCGGAGAGGCCGATCCCCAACACC
1 CTTCCCCGCTTAAAAGAGCAGTACCCATAGTATCAGCACA
1 CTCCTGCCACCCTATGATCCTCAATCCGTCACTACTGCGA
1 CGTTATACCACTTACCCAACTTAGAGACCCCTCACGCCTA
1 CCTACGGAAAATTCCGCCCCTCTCCAGTCGACATGCCCCC
1 CAGTTGCCTCCGCGCCCACGCGTACGCACCTGGACGTTAT
1 GACCGAGCGACCAAGTTACTATCAGTTTGCCGGCAATCAC
1 ACCCTTGACTCACAAGCGGCTCCTAATCTCCCCTCCCGAT
1 CACCGGCTGGAAGGCGTTGGCTTCACTACTCCCCAAGGTC
1 TAACTCACATGACCGCTCTTGCAAGGCGTACATCTACAAT
1 CAGTCCACGCTCTCGGCGTAAATTAGCCCCGTCGACGTAT
1 CGCGTATCGCGATTTCTCAGTTGCGGCTCCCACACACTAT
1 CGGTTTTGAAGTTCTACCAGCCCGCCTGCTGTTATCGTGT
1 TAGAACAGGGTACGACCCATGGTTCGTGCCTCTTGAGCCT
1 CGATAATCTCACCTCCCATCACCTAGCCATAACCGCATAG
1 ATCCACACGAGACGCACTCCTACCCCCCTGTCTGCGAAGT
1 ATTGATAACTCACTCACCATAAATGAGCAAGAGGGTGAAC
1 CGCATCACTAGTTTAATCAACATTACCACATCTTGGCTAT
1 GTGGACGCAAAACCACCATAAAACTCTACGTCCTTTACTA
1 GCCCGATTACCCCTTCTGCCGTATTGACTAATCACAACAT
1 TGAAATGTTAATAACTCGAAGTTCGAGTAGGGTATGTCTG
0.9515494373728945 CGCAAAGCGTCAGTTCTACTCCTGCATAATCCTTACTTAT
1 CAGCACGATTGTTTAAAGCCCAATGCGCTCTACAGCTGCC
1 TCCAGCCCCCGCCACCGGTCAAATACAGGTAATCTTAAAT
1 AGCTCTCCCATCCTCAGCCTGCCGCCCATTGTGTACAGAT
1 GGTGGATGCATAGGTATCGGGCGGCTGTGCGTGTCATTAT
1 CGAAGTATACCGGCATCAAAGATTCGGCTAATCTACTACG
1 TGGGCCACACGCCAAGGTCCATACGAGAAACACCCAAAAC
1 TACTGATAGTTTACCGTCGGTCAAAAATTAAAGATATTAC
1 CAGGATCAATCATACCCATCACAAAGTCTTGCGTACTTAT
1 TGGCAGCTGTTTCAGACATATTCTTTGGCTAACCTAAATC
1 AACTTACGGAATAACACAGCTTTTGTGGGACACGGGTGTA
1 CCCTAAGCACGATTCGCCCGTCCAGCGATTATCCGTAGAT
1 GGGCATAATGCGGGCTCCGTTACAACCAATTCAACGTTAT
1 CGCACCGGGGCACTCGCGCATCCAAAGATACAAGCAAGCT
1 CAGATTGTAGCGGATAATAAAGAAAACATTCTTGATTACC
1 AATTTAGCACCCTGGCCGATGTCTGTGCGCGTGGACTTAT
0.1304518926422426 CTGAACCAGATATAGCGCTAAGATCGCTTCACAGATAGAC
0.02023849325795249 TATGCTGAGGTCAGGCTGAGCCCGTTTAGCCGACTCTTAT
1 TTATCACCGCGAATAATCGGACGATCTTAGACGCTTACCG
1 AGCACCTTCACGACCCAATCGGACCTATCTAAGCCGCCGT
1 CAACCGCACCTTCTGACTCGCCTCATCCCCGTGGAGCAGC
1 CGGCCGGCTCAATCGCGCCGCAATGTGACCACCGATAGTC
0.1316217127294993 CGACTAGTGCCTTAATCCATAGAGAACGCCCGTGTGTTAT
0.63242471708842 TTATCTCTTCCTTAATACGCGTCATTACGTATTGTGCCCT
1 CGCATAGCTCTACTCCTCTAGTCACGCAAGGGACCCGCAC
0.5139833731382922 ATAGTAGCAACGCCTCATAGACGCTAATCAGTTTCTACAT
1 CAGGCATAGGCCCTGTACACCTCGTGACCCAAATCGATGT
1 GTTAGAATATCGACTAGACCGTCTTAGCGCGCGTTAATAT
0.7819887907618317 CCTATCTTGATCGCGGACTGCTAACGCCATCGACTAACCT
0.6316020384980245 CTGTGATAAAGAATATACAGCTTATTGCACGGCTCAGCAC
1 TTCCCATATATCCAACCATTGGTATCCAAAGACCCCGCTC
0.8902370540595159 TAGGCTCCCATTCCACCAGGAGCCCTGCGTATCTCCTAAT
1 GAACGACCCCCGGGCCAGCACTCCCAGTAGTTATCGCCCT
1 GATGGCGATCTTTGTCGTTATCCGAAATGACTGAATAAAT
1 CCCCCTACTAGTGAATGGTGCAGACGGCCGCCGTCACTGC
1 TCTGGACTCTGTGAGAAACCGAGACGGCTCATCTAGATAA
1 CGGCCCCCACGGCTCTCATAGATCTCAACCTTGATTTAAT
1 AACCGGGCGTAACCCCGCCGGTCCGCACAAGCCGCACTAC
1 CACGTGCAACTTTCATTACAGTAACTAATCAAGAGATCAG
1 CCCACTTTCACTTTAGCGTGGGGAACGGAATCCAAATTCG
1 GACACCCCGCTCCCATTCCTCCCCGTCCAACACTTGATAC
1 GTGTTACTTAGTAGTCCCAGCGATTCCCTTTGTTCCTTAT
1 GACCGTCATCAATAAAGCACATGAAGCGTGCCTGGGTTAT
1 CGAACGTCGCCCTATATCCTGACCGATTCGCATTGCGATA
1 CATGTATGAGCCCACAGGGACGCGAACTATCAAACCCGGG
1 CTGATTACCACCCTAGACCGACCTCCCACAAGAATTTTGA
1 AGACGCATGATCTTGGTCTGGACACAGTTATACCGTATCG
1 GGCGCTCAGCCGTTCGCACAACCAACAGAGCACCCGTTAT
1 CTCCGGGGTGCGCTAGCGGGCGAACCAATACTAATCTAAT
1 CACTCCACACGCAAACATCGCTTTAATCGCTACCTTCAAT
1 TCCGCCCGGTGTGCACTAACATGTTACCGTCATTTGCGTC
1 AGGGCGTCCACACGGCCTCGTTCACGCAAGACTCGCCACA
0.8207093950487026 CTGAAAGGGAGGAAAATCCTTCCCTTGATTTAGTGCTTAT
1 CCCCCTACATCGCGTGCTCCTTACGGGCCTTCCCCCGGCA
1 GCTTCAGGGAACATCCCGCCGCCATTCAATGACCTAACCG
0.8488410182210966 AACACCGGATTCCATTATCCATCCTCCGTAATCATACCCC
1 CCGCCGCCCCGGCATGTCGCCCGGCTATCATTGCAGAAAT
0.5739414100224215 CCGCCGTCCAACACTTTTGATGCTTATCGTAGCCACACCA
0.5180574500721211 ATGTCGTTGCCACGCCGCTGGCGGTCGCGTGCGGTCTTAT
1 GTCACCGGTGCCCTTAATCTCCAGCCTTCGAAAGGCATTG
1 TATCTATCTATCTCGTTTGACTGTTCCAGGGTGCGAGCAC
0.9507151721170595 TCTGATAGTAACTAAAGAGGATTCTCGAATCAGAGATATC
1 CGACGCCCAGGACACCCCACTATCGTCGCGATCAGACACA
0.4753635839617316 ATTAGTTTGCGATCAACGCGTTGCGCATAAAATGCTGTAT
1 AACCTATCAACCCCCAGCCACCTTCCCATTCGGCAGATAA
1 GTGAACCCCTACCGACACGCGGCGCGCCACTGTACCTTAT
0.4352494941788891 CCCTGCAGCGCGAAATAGCCCGTCCAGGCCTACTCCTTAT
1 CGTTAGAGAACCGATCACGTTGACCTGACGCAAGTCCCGC
1 ACCGCCCCGGACACAACATTGCTACACCCCCACCGCCTAC
1 ACTAGTCCGGATGGCGCCCCGCTCGGGCTACCCAAGCAAC
1 CACCCTGCATCGCGTCATAGACCCTTGTGTGACCTAATCG
1 ACTTATCACACCGAACCCGTCTTTGCGAACTAACCGTACC
1 AGCCCATTACCGCCTATTAGCTGCGGTACATATTCCTTAT
0.06060802693504873 CTGATAACGCCGACCAGACTCCGCGTCGCTTTGCCCCTCA
1 ACCTACTCAACCCCGGTTTACAATACGTATCGATCTATCT
1 ACTTCAACCTGTCGGAATCAGTCACCGCGAGAAACCCACG
1 AAATTACTAGGGAGTGGCCGATCGCACGAGCATTTCCCGC
1 CGAGCTGCAGCAAGTATTCGCCGACTAGCCTGTCGGCGAA
1 TTCCGAGTCCACACTAATTATGACCTATCGTTCCGGCTAT
1 TTCTATCACAGCGAAGGCCGCATTAACAGCGATCGCACTC
1 CGGTGAAACATTAGGTTGCAGACCCACACTCCCACTACAT
1 GAACGGCCTACGTAATCTCTGTGCACCATCACTTCCAAAT
0.5264678435764298 TCTGACCCATATCGCCCCAACCCAAGCGTAAGAGCGCTAT
0.7544493201268271 CGCGATATTGTGACATACACTCCTACGTCTATCAGGAAAA
0.9100064023992228 TGCGGCTCAAAAAGTAACATCCTAGCCATTGTGTTCTTAT
1 CAACCGAACATCCATCAACATAGCTTACCCCAATGGTAAG
1 CCACCCTTGAGCGCCAAAGCTCGCGCTGACCATAACAGAG
0.291098679604641 TTGCGTATGTAAGATCCTGTATTGGACCATCTTGATACGA
1 ACTTACGACGACGGCGACAATTCGCGCTAGCAACCGTAAC
1 AGCCAATGTCACCTACGGTCTAAAATACGTGCCGTGTTAT
1 AATCTCTCGCCCCCGATAACTGCGAACACCTGACGAATCG
1 GCACCCATTTTAACGACATGCCCCCGGCTCTATCTCGAGT
1 CTGGGCGCTAGAGCCCCTTACACATGAACCACCCTTCAGA
1 TCCTTTGTCATAGACACAGCCTTACAAACGTATAAACCGC
0.5336324250442251 CCAAGTACGGCTGTGCGCCCCTCAGGATGGTACCCCTTAT
1 TGAGTCACATCCCATGTGACATAGTTGCTACTGCTGATAA
1 CAGAACCTGTCGATCCCGCTCACCAACAACTACCTAATAT
1 CAGCGAAGACACCACCTATACTCTACCCTGCCCACGTTAT
0.1321580003684665 CCCGGCCGTGTAGCCCCTGCGACAACGCAACGCGTCTTAT
1 CGATCAAGACGCGATGATTAGCACCCCTAGTACGAGGTAT
1 GCCCTAATCATTGCAACTTGCGACACAACTACTCCATCAC
1 ATTCGCGCGTAGACTGCCTCGCTACCACTCGTTTAGGATT
0.7853891627259468 CGATTGGTACTGCACTTTCTCAGATAACTTTATACCCCCG
1 CGACAATCGAGTGCCCTCCAGACGAGTACTACGACCCCTC
0.1191747930810761 CACAGCACATTGGATTAACTTGGCCCTCTTTATCTTTCAA
1 CCTTTGACTGGACCAAAAATTATGACATCGTGACACCTCA
1 CCGTGTTGCACGCAGACTCTTGCTCTAATACGTTGTCCGC
1 CGCCTCACGCAGACTGTCGCGGACAATTTTATAACCATAT
1 AGCATTACCAGAACGGGACTGCGCTCCCTCACACGATTAT
0.5669835539589712 CCTATCTCGCGATGCCATCTATACGATCTCCTCCGACGCT
1 ATAATGCAACCACTTCCTCGACGCGACGCCATTTCCACCT
1 CCCCGCATTCCGATAGGCGCCCTAACGCAGCACAGCAAAT
1 ATACCGCTATTACGAGCACCGTGGAAAACCGGATCGCATG
1 ATTCTTCCTCCCCTGTCGGTAAGGATGTGGCCTGGCTTAT
1 CACGGGCCCACACTACCTCCGGTTAGGCGCTATTGCTTAT
1 CACGCACACCAACTCCCCATCCTATCCGCATCTATCTCAC
1 CCGCCGTATACTGATACGGTATGGACACAACACCCCGACA
0.5475730705399645 CGGTTCCAACGTTTACGGGCAAGGAGACGGATTCGCTTAT
1 CTCGAGCCCATCATTCGCACGATCGACTCCAACTGCACAG
1 GATCTACTACTGAAATCCGGACTGGGGTCATTACCCTAAT
0.8653488325889983 CCCCGCAGCTGCACTACAAGCACTATCAATGCATCGATAT
1 TACCAACTCCTGACGCACAAACACCACAGCACTGTGTTAT
1 GCAACCGAGTCGTATAACTCTACGTTCGTTGTGCGTTTAT
1 TCCTACCCCTCGTCCGGGCTAATGTTCAATCCCTCGTTAT
0.738957639279339 CCATCCTTTAACGACTATTTCCTGGCATCCTAACCGTTAT
1 GCCTCATCTCTTGCTTGTACTCGCGAACGAACTAACATAT
1 AACGTTAGCCGTTAAATTTACGCTACCAGTGCGGGGAGCC
1 CACATGTATTCCCACTCCCCGTTAACCCGCCGTTGGATGT
1 ATCCGCAAGAACTCATTAATATCCTTTCGCCACGTGTTAT
1 ATCCACGAGATAGTTCGTGGCTCGCTTGGGCCCCCAGTGC
1 GCCATACACATCTGAGCACAGTCATACAGATGATACAGCC
0.4013049672818344 CCGATAACACGTCACCAATACCTCACACTCATAGCCCGCT
1 CAAACCGTGACATACCTTGCAGATTCCGATTAATGAGGGA
1 CAGGCCAACACCCGGTTATACCGGCCAGAGCGATCGTTAT
1 CCGACCATGCAGAACTTCAAGGTAGCTAGAACCAGTTCGC
1 AGCATCACACAGGAACGCCGGCGAGTCCACCGATAGATAT
1 GCCCGTGTCGCCGCCCCCAGCGTCCCAACCTTACCCGCTC
1 GCATACCTTTGTCAGTGTATGAACAAGTATGACCAGAGGT
1 CACTAGGGGCGTCCTACATTCCACAACCTCCCGACCTTAT
0.5866911597457792 TCCAGCCATAACTTGCCATACCGCAAAATATAGTCGTTAT
1 CGATAATAGAACCAGATAGCCCCGCCATCCCATACGCCCC
1 CACCCTGAGCCCCTCCTTCCCTTGCTCCTTTATCATGCCT
1 CTGATGTTGGTCGTTGATAAATAAACATTATTGAACCAAG
1 ACACAACAGAGGTCGCAAATGGTTTGCGTGCGATAACCAT
1 GTTGCATATTACCGAATCCGTCAATCCAGCAGCGGCTTAT
0.1095542586650483 TTACTTTCGCCTATGCCGGTCACATGGCTTACACTCTTAT
1 CGAACCGGGCTAGCAATTGAAAATTATCAAAACACGTAAT
1 CGCGTGTACGAGATTCAAACCGGGGGTTATATCTAACCTA
1 CGCTCGCGCTAGTCCATACGCATACAATCACGTACACCCT
1 TGCTTTAGGCCGCGCACTCCCCCACCGCCTTGTCCTAACT
1 CGAATCGGACTATCTAACACTCCTAACTTTCATCATTACC
1 CTGAAGTGCATGTAACCGCGATGTCGCAGTTAAAGTTAAG
1 TGCATTCCCCCCCATCCCACGAATCTTACCGCCCCTTTAT
1 TATCGGGCCTAGGCATCAATGTAAGGGTGATAGAACTATC
0.47976629282679 TGAACCACAGGGCGACACGCCCGTCGATAGGCAGATTACC
1 TTATCAAGATCAATCCATGACCGCTTCGTCCACGCACCTC
1 CTCAAGAGTAGAGCTGAATGGCATCCTCGCACCTGGGCGG
1 TCGTTGCCACAGTACCGCTGCTATAGTCCGTCTTACCCCT
1 CCCGCGCAAAGAAATCAACTCACATCTTCATCTTGATTGC
1 ATAATGCCATAGGTAGCTTCGTCATTACCCTGGTCTCAGA
1 CCAAAAGCGTGTGAAATGGGTGTGAAATCTTTAGCATTAT
0.8910933435182347 GTCGTACTGAGAGTTGCTCGGAACCCATTCTGCCTCTTAT
1 GTGCTCGAGCCCGAAGCATCTCTGGTTTCGGGTAACCAAT
1 AGCCCCGGAACCGCCTCGCGGATGGCATCAGCACGATCAG
1 ACGCGACACCGGGGCGCTCCACCAGACCGTCGCCAGCCGC
1 CCAATTGGACCTCCCACACTGTTTGCCCGAAACCCTTACC
1 CACATAGTCGGGCTCGGTGCCTTGGTGGCCTTGGCACTGA
1 TTCAACTCACCCCTAAGCCTCCCGGTACTCTCGTCCAGGG
1 GTGATAGGCTGATCCGATCCGTTTGCACTCGGTAACTTTC
1 GCGATGCTACATGTGACGCTATTCACTGTTGGGTCATGTA
1 ATAAGAGTCCCCTTCCTTTGCCGTCAGGCGACATGGTCCC
1 ACTCCCGCCCCGGCACCACCGTACCGAATCAGAGCGTTAT
1 ATTCCCACCGCACGTTTCATCTCAATCCAGGGTTTGTTAT
0.2438944261280076 GTATGCACGCTTCGCATTTTTCCGATACCTATTCTCTTAT
0.9150016118480419 CACTGTAGCCCACCATTTCGCCTACGTTAAAGTTCCTTAT
1 CTTCCGCGGTATCTTCGCGTACGGGGTCTAAACAGCATCT
1 TTGTCCTAATACTGCACTGGCTATCCTTTTCCTGAAAAGT
0.9567802695921249 CTAAGGGACTACCGGTGACATCGCCTATCATAGTTTACAT
1 AGTGACCTCATGTCCCAATCTTGCTGCATTGCTCTATCTG
1 CTGATATCGCCGAGAACCTCCACTCCTTCCACTCTACATG
1 CCCATATGCGCAACTCTGTTTAATCATATCAGTGAGACAT
1 ATATCCCGCCGTGGCGGAAAACTGACCCCCCGATACACCG
1 CGGTCCCTAGTACTTTCCCTTTCGCAATTGTTAGCGGTAT
0.2092213488995583 TGGCAGCGGCGCTTTGCTGTACGAAACACCGTACGCTTAT
1 CACGCGCTTGTGCGGCCAGATGAACATTCCCCCACGCATG
1 AGACTGCCCCGGCACGCGAGATATATTGACTACCAATTAT
1 TTATCGAAAATCTAACGTATCTCCGAGATCCCGTGCCGAG
1 CGTACGCATTGAACAAGTGCTGCACAGCCGTGCTGACCCT
1 AAACTATCCCACTCCTAAGATTGCTACGACGATATGAACA
1 TACACCCAACAAATCATGCCCATACCGATCCGTTGGCTGC
1 ACCAATCGAGGTAACCGCATACCGATGCTAATCAGCGCTT
1 CGGAATCACTCGAGGGGTGGTTACATTTGCATGTGCTTTA
1 TGAACCTTCCTGCTCCTTGCTCTGGACAATAAGTACTTAT
1 CTTTACTTCCCGGATGCCGGATACCGCCTGTATTAAAAGG
1 GTTATGGTTCCAACCCGACTCACGCTATCTGCCACCTTGT
1 CCCGAAGCTTGCGAGCGTGCCATATCGCACGAAGAATCTA
1 CACCCAACACGCGTACGAACCCCACACAAACTATTACACA
1 ATGCGCTATCAAGCAATGCATCAGAACTCCCCCTCCGTCC
1 CCAACCAGGCCAACGCATGACCGACCCTCCTTACTATCGC
1 CCCACCACACGGCCCAAGCCTTTGCTAGTACGATTATCTA
1 CTGATCTAGGCGATTACGAAGGTGATCAATGTCTCGACGT
1 CCGCGCACTCCACGTCCCCTCAACCGAACCCCCATGATAA
1 GATGCCCGGTCTGCCTTGCAAGCGTACCAGGAAATCAGCG
1 TGACTATTGATGCGTCTCCCCCACGGAGCTTGTTAACCTA
1 GCAATGCCCATGGAATTCCAAGACGCCACAAGATTAGCCA
1 TATACGCCCCCATCGGACCTGCCCCACCCTTAATGTATAT
1 CCTATCGGTTTTAGGCGCAATATCCGTTACGGATATACTC
1 CAGAACACGGTTTATCTGCCCAGCGAGACGATGACCAGCA
1 CTAGCAACTCACAACCGGGCACGCGCCTCGCCAGTTACGC
1 CATGACCGATCGGGTATCTAGTACTTGATCATTAGATTGC
0.8414187392081943 GCAAGATTAGAGAGGTGTTCTCTACGTTCTCACTTAACTT
0.1008169662662254 ATCGACGACCCGACGAGCGTCACCGACGCCCCGCCCTTAT
1 TCCAGATACACCCTCCGCCTTAACGCTACAATCAAGCCGC
1 CAACCATGTACATGGCCCAAGCCAAAACACGCCTTTTTAT
1 CGCCTGCCCCGCGCGCCCTCGGGGGCCGAACAGTGGTTAT
1 ATATTTTGCAGGGTGCGCACACACAGTTCACATGCTACCG
1 CCCCCCGTCGCCCTTGTGGAGTCAAGTCGCGCGCATAGCC
1 GCTTTGCCACAATGTGTACAATCACCAGCGAGCGTATAAT
1 CCACAAAGTGAGTTGCATCAGTCGAGTGAGGACAGCTGCC
1 TGTAACACCCTACTACTACTTGCGTGCTGTGAAGGAAGTT
0.5321283964469464 AGATAAGCAAATTGTGCCTCGAAGCACTCTCGGCGATCGA
1 GGCCGTTAACAAATGTGAATCTGCATGACGCAGCAATCAA
