svm_type c_svc
kernel_type gkm_esttrunc
L 10
k 6
d 3
nr_class 2
total_sv 10636
rho 1.11845
label 1 -1
nr_sv 4475 6161
SV
0.6725890522478606 CATGTAGCTGATCAACACCGGTCACTCTACACATAGACCA
0.713668625492482 ACGTTTGAAGTCCTCACCTTATCGGTATTTCCAGTTTCCA
1 ATACTCACATGGCCTCCTTCTGACAGGAATGTTGCCAAAC
0.8070764813281643 ATGACACAAAGACCGAGACACAGTGCAGGTCAGACCAGTT
1 TGTTCCTGTTTGGTAAGTACTCTCCCGCTGCTAACACATC
1 GACCAGCCAAACAACTCCCTTACGGTTATCGTGAAACAGC
1 TCAGCTAACGTGACGATAAGAACAAGTCCATCTCGGTCAA
1 CCACAATCAACTGGTTGATCAGCAATTTTATACATGACGC
0.2557023978147225 AAAAAGTCGCAAACAACGAAACTTAACAAACCTGATATAC
0.9944718392439901 AACAGGTAGAACAACAAACAGTACCTTATCGTCCCGACTA
0.7862920707875338 AACCGGTTAATAACCCCGTAGAGCATCCAAGACATCCCAC
1 AAGTGTCAGAACTTGCACACCAAGCCGAAGCCTGTTCAAC
0.1188775662583624 CGAGAAAAAATCCAGGGCTACGCACCGGAATAACTCGTTT
0.596557298395061 ATCCCGGCCCAGCCTCCCTGAGAAACCAGATCAACTCGAC
0.05720288542176323 GATGGGCCATCAATTCATGTGCAACCGGATACACAACACT
0.1251498257449119 GCAGCCCGATCCATCAGCTCGCCGGACCAGTCCCCCGGCG
0.07871770060379048 GCACATGCATACTGCAGCAAATTCCGGTAATACCACATGA
1 GTGACTAAGTCAAACCACACCAAAGATCGTATAAACCGGT
1 AAGAACCAAGCACGCAGAGAATACCAGTTACTTACCAAAC
1 CAAACCCACGCAACCAGGTTGTCCACTTACCCCGATCACA
1 GCGCCACAAATCATCATACGGTAAACGAAACCCGCCAAAC
0.1805169824057594 ACCTGAGTTGCTATACCTGTAAAGCGAGCCTCAACAGAGG
0.414086480456702 CCCAATGCCTCCAGCAGTGTAAACTAACCAGTCACACCAC
1 AAAAGTACATCCCCCCGACTGACATGGCACATTGCTAGTC
1 AGCCGGTATGTCAAGGTAAGAAAGGTAAAGCTTTACTAGT
0.4515718379376476 CATCCAGCCGGACCATGTCACTACTAGCAATAAAACAGGT
1 GAAGACGCTTGAATACCGATAAAACCAGATAAGCGCCTTC
0.8598781311866316 GATCAGATATACGAAACGAACAGGTAATACATTAACAAAT
1 CGAGAAGTGTTGAACATCGCACCGCGCCGACATAACCGGT
0.7176100383348026 ACCACGTTGTAGAATGTAGAAACAGGAAGTTCCAGTTCCA
1 ACAAAGCCGAAATACCGCTCCCTACGAGGATATAGCCCTT
0.4192495824385041 ATCCGGTCAGACTAGTTGCAACCTGGACACCCACCAGCCA
0.4339086984432954 GTACCCTGACTGCCAACAATATGTTGTTTTTCAGGTTGCC
0.3483137684475745 GGGCAAACAGATACCAGAACAGGCCCTACCGGTATCGGCC
0.4151386041859988 AACCACACCTACATAACGCAAATCAACCAGTTATATGAGT
1 ACCACAACATGTCCTCACAACGAGGTAGAAGGACCGGATC
1 CACCGGTCTGCGGAACGGGACACACTACTATACGCATCAA
0.2789048509281927 TCCTAAATACGCACAACCATAAACTGGATTGGCTTGTTTG
0.6299994586043169 CCGGGACACATTCTCACTCCGCCCACACAACTTGCCAAAC
1 GGTCATAAACCGGACACTCGACTATTTGGCATGGTGTCGT
1 AACAGGAAGTTCTACGATAAGCACAATGCGTCGTGTACCA
0.5691038642212556 TTGCAAAACCAGACATTCGGGTCCACCAATCCCAGACCGA
0.4188577888812766 TTTTTTTGAGGCCAACCTAAAAGTCATCCAACCAGTTAGT
1 ACCGGATCAGCCAGTATAGACTACCTTTCCCCCCTCCCAC
0.7071343119369241 ACCCATAGATACATCATCAAGCTCTACAAGAATAACGTGT
1 AACTTATAAGATGAAATACTGAATTATCCTAACAAACCAG
1 CACACGGCCCATAAGCCACAAAGCAGGAATTACCACTAAT
1 GCCATCTACAAACGTCACTCGACTAGTCAAGCAAGATCAA
0.5415203062518088 GTAACACCGCTGAGAATGTCGTATAACTAGCATTACCACA
0.08572298331813497 GGCAAGTAATGATGGATACCGGTTCCGATCCAAATGCCGA
1 GACAAGGGTAATCATACCCCACTCTCACCCTACCGGCTCA
0.3102267414468742 CACACGAACTACACGGACCAGTCTGCCTAGGTCAACGAGA
1 TAGGTACAGCAGTTCAAAACCAGGCCAACTTGAAGAGCAA
1 CACTTTCCCGTTCAATCGAGCTAAACCGAACCATCCAGTA
0.9661343778676118 GCGCCACGATAACTACCTAAAGACAGCCAAAACTAGTTCC
1 CAAGCCAGGCTCACGGTGCCTCATACAAGGCGAACAGGTT
0.108581486790299 CACCCCATAGTTAGCTAACCAGTCTTACGAGCAAGAATCA
1 GCGCACACACCCACACACGCCCACCCCCGATTCTCAGCAA
0.850785204262824 GTGCAGCGAGATACTGACAAACGAGAAAGAGTTGATAAAC
1 ACCAAGCGGCACAACAGGAAGCACAACTTAACGTCCTACT
1 GTCCTGTATATCAGCCTCCCTCGTCAGCTGCCATTGAGTA
1 CCCGGGAACCCATCCGCACAATCAGACAAGCCCGCAGAAC
1 CACCGCCGAGTGCCCCCGCAAACGCGCCCTACCACCCTCG
0.5780945216250646 CGCAGGCAACAAGGTGCACCATGTCACTGACCCGTTAAAC
1 GACGCGTCGTCAAGCAACCCATGCCACTCCGTGATCCTGT
0.5936771879488693 CCTGCCACCTCCACAATAACTTGATCTCCCACTAACCGGT
0.368965785222155 ACACAAACGTGTTGGGCAAGAAGAACGAAATTAAACGCGG
1 GCCCAGACTTGCCAGCTAGACTTCAGCCAATCCGTAATAC
0.06332620845901521 AGAACAACCAGTTTCATGCCCCCAAACTGACACTCTCCTT
0.04665785893730656 CAAACCCTCGTGCTACCGGCCCTTCCGGTACGCCCATCCA
0.006999827993718635 AACCAGTTTTGTCGGGACTGTAACGTGCGGCACATCAGCC
0.1427577755799386 GTCGGCAACACTTGCTCTACCCGTTAGGCCATACTCAACT
0.2508136692231066 CTAGGCATTATTGATACTGACCCAACCTGCCTAGCCACTA
1 TCACCAGACCTGAATAAGAGGTTCGCGTTTCGTCCCATGT
0.6885803598015086 ATAAAGCGCCAACCGAACACTATAGCCGGGCAAACCAGTT
1 GACCGCCACAACGAGTTATCGCTTCTGCACCACTCCCACT
0.8717202825417679 ATCCTACACATGGCGTTAAGTCGCCTACAACCCGTTAAAC
1 GAACCTGCAGTACTCGTTGCTCCACGCGCGCCCTTCCCGT
1 CAAAGCAGTTCTCAAGCATGTGCCGTGCGACTCACCAAAC
0.8744035217076576 AACGGCCACTCTACTGCACCAACCCATATTACCGGAAAGA
0.3928140431723842 CACCGGTCAATCCGGAACCCCCGCTCCGTACTCAGCCATC
0.9892612585013626 AACCCGTCCATCTGAATTTCGCGCATTTGCGGACCTGAAA
0.1665124506872906 GAGCACCACGGCCCACAAGAAAACCAGAATAACACAATGC
0.05889912740911082 CCTTCTCCGATCACGTACAGGAACCCGTTTCCCCACTTTA
1 ACATCCAGATCAATAACCTGTGTTTCAACAATAATACAGA
0.1462382402931164 ACCGGTCCATGTCAACCCGGTTTCAGCGAAAACTGACCTG
1 AGCCCTACCCCTAAGCAAAGCTGCATTTCCCGTTTACCAT
0.3169578663814974 GCAGGCCTAAGGTAGGCTGAAAACCAGATTAGCGTGGCAT
1 CACCGCCCTCCCACGTCATACAGCACCGAGCTGTCAATAC
1 CAACAATAACTACCTCCGCAACCAGGCGAACAAGGTTCGA
0.4811132939420555 TGGCCGCCAGGATTCGAAACTGGTACAACGGGGAACCTAA
0.5495543155697525 GACCTGTTAAGCAACCAATCCTACGCCATCCACAGTGATG
0.4447794823260902 AACCGGTTTCGGCCTACACCCCTATTAGTGAGGGCGAACA
0.1664781828935436 ACTGAAGTCTGTAACTGGTTAACCCGGCTAAACGTATAGG
0.152584721371547 ATCGATCCTTGCAGCCACTTGCCAAACCAGACCACCGCAC
0.2911501041041994 CCCATAACTCACAAAACCGGCATTGAACACATTCCAACTC
0.3749318288964156 CACCCTGCCCAACTCGTTATCCACTCATGTTCCTGTGACG
0.6415542335213379 CCAATCCTGTATTACCACTTCCACATAACATTTCGGTCCA
0.003992613721174118 TACTCACCGAGTCAATAAACCTACCTAACAAGTTACACCA
1 AGTCGGACTCGTTTCGATAGACTACGTTATGACTCCCTAC
1 AACAAGTAAAGCATGATACACAAGTATAAGCATCCTCCGT
1 TACCCAGCTATAACACACTATGAGAAACCTGTCACGCAAC
0.8818808267977596 GCATGACACCGTAATAGTCCAAACTCGTTCCGACACAAAC
1 GCAATACCCATGCACCGGAAGTTCCCGTTCTTAGCCATAC
0.1883980077480385 CTCCCCACCGGCTGCCTCCCCTCTCGTAAACAAACCGGTT
0.6449911604786986 AGCCGGCCCAACAACGAGCACTGATCCAACCGATGCAATA
0.9937676840790923 GACCGGTATCTCAACTTACGAAGGAATTTACGATAACCTT
0.5065039680900466 AAAACAAGATGAACAGGCTACCTTACGTAGCGAAACGACC
0.6163917527387185 AACCGGACAAACAAATAGCCCGCTGAACGAGGGAACCGTA
1 TACCACCGGCGATACCTCACGAACCGATCGAACCGCTTTG
0.01895310139672252 AAACCGGTTTCGGTCATTATAGACCCATCATGACGACGCG
1 GCGCTACTAGCGTGCCAAGGTAGAATAACTCGTAACGCAA
0.7444221550475758 CGCAAGGGCACACAGATCCAGTTCATCCGCTTTCGCCCTG
0.8502479082181562 GGGCCCAGCCACACCTCGCGGAACATGTTCCTTAGTTCAC
0.6882279670615238 GACACGTGACAAATGTAGTCAAACCCGATTAGCGCCTCAC
0.720868404099516 GCGACAGTGATGATAGCAACGACAGTGTCACAAAACCGGT
0.2088981951475809 AACCCCACCCAGCCAGCATAACAACTTGTCGAGCATCTCG
0.1004310831447476 CCCAACCGGATAAACACCTACCTCGGCAACGTAGCCATAA
0.1059635276626648 ACGGTCTAGCGATCCAGACAAACAAGAACATCAGGTAACT
0.6346909431065852 AACCCGTTATTCCAGACCATCGTCCCGAGACGCCTCACGA
0.3308058908397542 CAGCGCCCCACGCACGTTCAACTTGCTAGACCACTTCACT
0.09654406368261834 ACACACCCGCGCAACAAGTCTGACAACAAACACGACTATA
0.5490354073425532 TAACCCTACCCAACAGGAACGACGTGTTTCGATTGAGCTT
1 GACGTAATAGCAGCGTCCACCATAGCTAAAGCAGCAAAAC
0.2746705528153739 AAGACCCTACTATTCCCGCTTAACAAGTCATTCGTCAAAT
1 AACCTGTTACGCCGCTAGCCATGCAAGAGGGATTCGCACA
1 CAAACACTCAAGACCAACCTGCTCCCTATTGATATAAACA
1 AACCGGAAAGCCAGGTACAAAACCGCAAGCATGCCTAATA
0.4248398352476439 TTACACACAAACTGCAATTACCTATCAAACAAGTTTACCC
0.909890717772035 GTCCTCTGCTTCTCCCATCAGGAATACCCGGTTCCGGTGG
0.2622667016048935 ATAACGGCACTCATAAAGGCGCAAAACTCGTTCCTCAAAA
1 ACGCCCACCACGCAAACTGAACCCTCCATACCAGACTAAC
0.829539143143977 ACAATCCCGATCGACAATCACACGACTGGTTTCCACCAAC
1 TGTTCGGCAAACCAGCACCGGGCGTAAACGCTTCCGCCCA
0.8486805953132535 CCACGTAGGCATGGACGCTGTGCGGAAGTACCGGACAGAC
0.7704705271140038 GACCAGTCACACAAGCCGTTTCAACCAGGTACCGGCCGCA
0.6595838202673227 CCAAATCCTGAACTACCAGTAATTCAACAAATAATGTCTT
0.8835401962994823 CGATAGGTGACCAAACTAGCTCGACTGATACATATCGGAA
1 CCACGCACATTGCCACATCACCGCCACACTAAAACTCAGC
1 AGGAAACTAGCATAACCACTCTATCGTAGTAACCGACGCA
1 ACCTGTTCAGCAATCCTAGCACCCTATCTGAGGTCGATCC
1 AACGGGGCACCGTCACAAGGCTAGTAATAACTCGTCAAAC
1 TGCCAGATATCAGTGTACCTACGCAACCAGAGCACTGAAC
1 ATACAATCCAGCCAAAGCCGCATTACCTGCAAGACCAGAT
0.7297458559128418 TGAATGCCAACATACCTACATCTACCGAGAACCAGTTATA
0.2533989006067542 AACCAACGGGCCAACCGATAGACTTGACAAACTGGCCTGA
0.8874627635143755 TAGTTAAACCTGACCGTCAACCTTCAAGAAGACCTTGCCA
0.6498694870863205 ACCACATCATAAAAGATCTTGCCATACCTGTCAATCATGT
0.4920042398651012 AACCGGTATTGTAAAACTAGCACTAGGATCTATGGGGACA
0.7039168370795382 CTCGCCCCAGCCAAGGCCACACGAGGGTAACCAAACCGGT
1 AACCGGATAGCAGGGACTGCCACGCGGCGAACAAGGTATC
0.09002621202279187 CTAAATCATACCACTAGTCGTATAACGAGTTGGGCAATAG
1 ACCTACGCACCACGTCAGCGGCCAGCGAAACTAGTCTAAC
0.7863268744446492 AACTCATCTAACTTGACCAACACCATTTACCCGAATAACA
0.05694005242158857 GATCGGTAAGAAGAGCAACATGTTACAAGACAGGTAAGAC
0.6002998870296117 AAACCGGTTATTATCGTAATGTACAACTATCCCCCAGCCA
0.9538314076915013 ACACCGCAGAACAAGTTAAATTCCAACACGTCACCTTCGA
1 AACCAGCTCAGCCGTACGTCATCACGCTCATGCCTCTCAT
0.6204292173707059 CAGCTACTTAACTCACTAAAACCCACTGAACCTGCTGGCC
1 GCACGTAGCCCTAACGAACCGCACGGACCACAGCCGCGCA
0.1941392244710921 TAGACCAAGTCGTCATTAATGACATCTGATCGAACCGGTT
1 ACAACCCAACGTACCGCCAAACTGCATGACGCCTCCTACA
1 AGCCGGAAAGTCCGGTCTTTGCCCCTGATGATACCGGGCA
0.6841329873155483 AACCGGTCTACCCACAAAAACACCCGTACGTTCCAAAGTT
1 CACACCCTCCAGCCCTAAAAAACCAGGAGAACAGGGACAA
0.4435150113856411 AACCGGACGAACCGAGCATGTACTCGTACACTTGATAGCT
0.8017912145449035 GCGCCGCAAACAAGATTAACTGGCAGCTTTCACACCTATT
0.5908528574544699 CCTACCCACGCCAGTCCAGCCAGTAAGTCCACTACCTCAC
0.6223894389488496 CCTCCCAATAGACCCAAAATTCCATACAGACTGGTTAAAC
1 ACCCAGTTTTACAACGCAGTCACACGCAAATATGACACGC
1 AACCGGTCTCCCCGGCTACACTGTGTTGGAGACGTGCTAA
0.0267245381371654 AAAATCAAAACACATGAAGTACATGGCGCTCAAACCGGTT
1 GACCTGTTACACCACAACGCGCTGAGGCATACCACATATT
0.5872907745893968 AGGAAGTCAACCAACCAGTACAGACAGCTTTCTGCGGGTG
0.5121461763869977 ACGAAACAGGACTATCTACATAAGCAGGACCTGCCCCGCA
0.8402314142685888 AACCCGTTCTTCCTTACAAGAACCAATCGGAGAACATGCA
0.3310525243299203 GGAACCAGCCACCGCACACGTGACAACCGGCTCCACCGTA
1 CCCGACACAAACGTGATTTACAACAAAGACAGCTACCCCT
1 GTTGCCTACATTTTTAGGTCAGCAACCCGCACACCCGGTT
0.7661555816559225 TCGCTACACCAGAAATCCAGAACAGCCAGTTCCGCGCGAC
0.121207636875105 AACCGGTTTTTAACCCTGTCTCCTGTGGACACAGCATGAC
1 TTGTATCGCCAAGACAGAGCGGATGTTCAGGTTCCTCCCC
1 ACGACCCACGCCCCTTCCGTAAGGTGTCCAACCAGCCTAA
0.6094376260784259 CACTGATCTTGCGGACGGGAAGAATAAGAACTCGTATTTC
0.8196296812247367 ATCCGGTTAAACGTGTGTCCATGAACTCCTAACAATGTAT
0.5449870424431728 AACCGGACAAGCCAGTCAGCGCATCGCGGTGCAATTCGGA
0.4131437670945905 CACCGGTGATACCTGAACTGCAAGATAGCTCATATGACCA
0.3231224632413973 TGCGCCGATTGCCCAGAATATGGTTCCTGGTCCAACCGGC
1 ATTTCAACTTTCACCTCGTACTGCCGTCTTACATGACCGA
0.1474881538053848 ACCAGCGCACACGAAAACCTCTCAAACAAGCTTAACCAGT
1 ACCATGTTAAACCATGGACCAGACTTTCCAGCTTAGCTCA
0.6229403795991429 AAACAGGTTCGCCAATCTCGCACTAAGAACATGAGCTACA
0.2526872587039836 TAACCTCTAAACTATGGATTAGCCATAGTGCAAACCGGTT
1 AAGCCCAAGAAAAAGTTAATCAACTAGTCAATCAAGTCTG
1 CACAACCCCACCCCCAACACACCACACCCAAAACCTGATT
1 CAAGGACAAAAAGACCAAACAGGCCCCACCAGAAACGTGA
1 GACCGGTTCACCTAATCCATTTCCCTACGATCCCCTCCCC
0.7210852588432652 ATGAACCTGTTAGTTCTGTCCATAAACGGCCTGCACATCA
0.3053915281140068 CTAAAGCACTCTCAGAACAATCTCGCCTAACCGGGCGGAC
0.3406166174638868 TATAACGTACAACTAGATCTACCAGACCTGCCATTCCACA
0.06201489623020554 ACCTTCGAGGGAATCTAGAGGAACAGGCGTAACCGGCTAT
1 GGCGCGACCAGACACACCAGTCGGTTAGCATACCGTGCTT
0.005022979598462918 GGTGACTTTGGACAATGCATAAAACCGGATCATTGACAGG
0.1758533866107788 ACCATGGTTCTATGGATGCACAAACCCGTTCCTCAGCGCG
1 GACCCGTCCTACCATTCCTTCCCTCCTCGCCTGTCTGCAG
0.292524160696672 GTTATCGCGTAAATTATCGTTAGCCGTAATACCAGTTACA
0.1783016408390418 TTGTCTAACAGGAAATTCAGCAATACCGAATCCCCTTACA
0.4207820841639479 AAACCGGTTCATGTGCCTTAAACCCCATTATCCATACCGT
1 GCATCAACGGTTGCCACTTCGCGGAACTCCCATAACCGGT
1 ACCACCAGCTAGGCTGCCCATCGAGCATTCAACACATAAC
0.3511389374529266 GATTCGACACAACCCTTATGACTAAACCAGTGAAACGAGT
1 GCGTTACCGACCCCAACTCATATAACCAGTAACTTTAAAC
0.08023624053153181 ACCCTCTCGGCCACACCAAAGTGTTGTAAAACAGGTATCT
0.3829218184421643 CGCGGCGAACGCGTGCGACCAAGGACCATAAAACCTGTTT
0.2880235737987555 AATTCACCTAGACTAACAAGTTTACCGTGTCGTATCCAAC
0.1897645637701096 AAAACCGGATAGGGCGCTACCATCAACGCATCTCCGGACA
1 AACCGGATACTACCCGACTTATTCACTCGAAGGCTCCAGA
0.7523848758647077 AACCGGATCTACCACTAAACGCATAGTGCGCAGCACACAC
1 AGAAATGGCCAACTCCACACACCTGTCGTACCACCTGAAC
0.7390344905984173 GGACCAACTCGTTTAGCACCAGAACGCAGCAGCCCCCTTA
0.4320284275179489 TGGCGGCATGGCTACAAAACCCGCTCGACGATATACGTGA
1 GGCACGCTACCCACCACGCTACAAGACTAGTCTATCAGTC
0.588050924547545 AACCGGTTTACTACACACCATTGGACTAAGGTGCTTTCCA
0.02881090258637052 ACAAACCGATCTAGCCTGTTACACAGGGATAAATGCAGTG
1 ACACCACACTAGCAGGACCGGAAACAAATCATACTCGCCA
0.8312662215619412 ATAATACCTAACCTGATGAACAAGCTCCTAAACAAGCACT
1 CATCCGCCCGGAAACAAAAATCTATAACTGGAAGCGAAAC
1 CTTGGCACATTCCGACCTGACCCGATAGACCACCGCACTA
0.8639618565591766 GACGGGATAAACCTGCTCCTAACAACAGCGGGCCTCGACC
1 GAACGTAGAACACCAAAGAAAAGAGGACGGTCCACAAACA
0.7651686518294964 AACTTGTCGCACCGGTAAGATGTACATAAATCTACCGCGA
1 GACCTCTCCGAACCCGACCCACGAGAACAGCCGGCCTAAC
0.337650189925769 GGTTAAACCCGTTAGCCATTGGCACAAAACCGTAGTCTGG
1 TGGCTACAAGACAGCACCACGCCCAGTTAACAGCTTCAGC
0.8177839860178872 AACCTGAACACGCAATACAGGTTAACATCTGCCGCCCCAT
1 AATCCAAACCAACACGTCCTTCCTGCCCCTCAAGATAAGA
1 TCACCAGAGCGGAACCACCAGCGAACTAACAAGTCGGACA
1 GAACGTCAGATCCAGGCAGTCTAGCCGGATCCACCGCGTT
1 CATGCTCGGCGCTCCGCCAATCGAATCGTGCCGAACCGGT
0.8913709268898067 AACCAGTTTATGCCAAAATGATCCGTCAAGATAAGGCAGT
1 TTCCGGTTTTAGAAAGAGCCCTATCAAACTTGGTAACCTT
1 CAACGCCAAATTTACACCCTGCATACCCAACCGACCAGTC
1 AGCCACGCTTACCTAGCCTAGCAGGTTTCCACCCCTGCCA
0.3705941641386997 ATCCGGTTTGACAACCCAATGCCCTCCATCATCCACGAAA
1 TTACCGAGCAGACGAGTGCCGCAAACCCGCGTTACCACTA
1 AAGCCATACCAACTGGCGATAATACAATGCTAAAACCGGT
0.9221287828541856 CAAACACATAAAACCGGAACAGACAAAGTCCACCTCCCAC
1 ACCCCCACCCGATAGAACACTGGCTCAGCGTCGGGACCAT
0.1202562667472181 AGGTAACGAAACAGGAAAAACGAAAGCAACCCCCAACTGA
1 TGAAAACAAGTTCCAATTGAAGATGATACAGTCAACACGG
0.1287882077143564 TGCCAACGCGAGGTTACAAAGCTGGTATGGCAAGTTTACG
1 AACCGGAATCAGCCGAACACAATACGCACATTCCTTGCCA
0.4019088360144463 TAAGTAACATGCCAACACCTGTCCTACCAGACCGCCTAGA
0.3332402544334283 GTGTAGTTAAACAGGTAGTGCTGCCCCCTGACACGATACC
0.09358664351865562 CCATCCAGATCCAGCTTCATAAAAACAAGTTAAACTACAA
1 CTGGCACCACAACCGACATTTCCAGCTTGGCCGCGCCTGT
0.9492481564135029 AACCGGTAAGTCTTGCCCACTATGACCATACAACCCCCTG
0.1110532150280706 TCGGAAACTGGTATGACAACTAAATCTGAACCGCAGTATC
1 AGTCACTGTGCAGAATCTAACCAAACCACCCTACTGCGTC
1 AACCAGTTGATAGAAATAATAACAACCTAAAGTGCTTACT
1 ACACCTCGCGGATCAAGTCACACAACTAGGCAGCCACCAT
1 TGCCCATGAATCCCTATCCTGCAGTTCCGGAACTCAAGCC
0.3984660564116307 CTCCAGTTCAGCAACTAACCAGCCTCTCATTACCCGACAT
1 CACATCTTTAAGCCGTATATCCAGTAGCACTAGCTTTGCA
0.9627981034737061 CACCGGTTTACCTACACCTTACATACTTGAAAGCTCTGTG
0.1504754715814537 TCCACATCTTGAGACCGGTTCTTTGCCAACAAGCCATCCG
0.1386154491908216 ACCAAGAACCCGTTCTCCCATGACATCCGCTACAAGCCTA
1 TAACCCACCGAACTGCCCAAGCAAAGAGAGACAGATCATT
0.1936814132492796 ACACAAACTTGCTGAGCCTGATATGCCTGCTTCCCTCAAC
1 CACGAACTGACAAAACACGCCTAACCACCCAATAAGTCGT
1 AGAACTTAACCAAGACTTGATCCACCAGTCGAGGCGGAAA
0.1217267202776753 GAGCTGATCCCGTTCTACTCGCAATAACACCCTGTACAAC
0.2846147852883801 CCCTCATTAACTGCACTATCCGGATTAACACCTGCCTCCA
0.03241212179542858 ACAACTACTGTGCATAGTTTTTCGTGAAAAACCTGCTCGA
1 TACTAGAAAGTCAGCCCACCTTGCAATACAGCCCCTGCCC
0.2446631956785041 CTCCCAAGAAACCCGTTCCTCACGGCAGACTCATTGGTGC
1 AACCCGAATGGTCAGTTGCAACATGCCCTCAGTAGCAGCA
0.7775925353436396 ATTCCCGCCCCTTAACCGGAACTTCCAGTACCGCGCTCCC
1 AACTAGACAGGTGACTCATCTCTCACCTGACACCTATGAA
0.3593991909649144 ACAACACCAGTCCCATAGCTAGTTAGACAACACTCCGCCA
0.5481101572270181 TGACAATAGTAAGGACAACACCAACACTCGTTAAACCTGT
0.3372820521029111 TTTAAACGTGACAACCCTGACTAACAAGTTCACAACCACA
0.2605197336806991 CCGTCCATAACTTAACAAACTCGTTCCCTTGACGCGATCA
0.3518291766102243 CACCATAGTAATCTTCAGCAGCGAGCTGCCAGAACCGGTT
0.8842779203038305 ATAGCCCGACGCCAACTAACCAGCAGAACTCGTATACTAA
1 GACCAGTTAGCCTCGTCCATCGAGAAGCATCGAAACACAA
1 CAAGCATTATGCTCTGTCCCCTAACCCGTCTCACAACTTA
1 CAAGCCCGGCCAGATAACGAACTCGTCAGACAGCCTTAAC
0.7389678130434983 AACCAGTTGAACTGCTTCGTTACGCTCGACCCCACGGCCA
0.1190785585531512 AACCGGTTAGGGAACAGCACAACCGCTGGCTTCCTATCAG
1 AACAGGTTAGGGTGTCTACGAACACGAGTAAAAACACGAT
0.462665901736204 ACATAACAGGTAATACCTCCATAACGATATGTGACGTTTA
1 TCAGGGTTGCACACCGACTCGCACAACACGAGTCAACAAA
0.845930267824695 CTATGCGCAGAGCATGCCGGTAAATCCCGCATTTCCACTC
0.1611342821270732 AACCTGTTTGCCAGGCTTCGACACACCGAACCCAGCAGGT
0.6443669713919575 TCCAAACGAACCCGATTAACAAGTGGAGGTGCAGCCTTGC
1 ACAACTCACACTCAGTGCATCTAGGTTGAACCGTCCACTA
1 AGCCGGAAACACCAGTGCCAACCCCATATAGCAACAAGCT
0.1831144785605473 AACCGGTAAGACAACAACATAGGCAATGAGTAATAACAAC
0.3148349418375955 TACCCACCCAGCTGGAAAACCAGACTTTCAGCACCCTTAG
0.830118292726501 ACAAACCCGTCCCGCACGCCCAACAACCCGACCCTCACAC
0.1831817671941679 AACGACCGGTTTACGGGGAAGCCTTGATGACATCTCATAC
0.06134022476358443 ATAACCTGCAAAACATGCATTACAACTACAGCTAATGCTC
1 AGTCGGATTATGAAAACTGACAAATCCTGCTTTACCGTAA
1 CCTGGTCACATTGCCCCGGTTCCCCTAACAACGAGTCACA
0.2071709787068833 ATTAACTCGCGAAACCTGATTTCCCGAGCTATAACGCAAT
0.4325196816478902 AACCGGTTAAACGATAATCGATAGTTTACTAGTGGCATAC
0.8454472005262303 AACAGGGCAAACCGGCATCTACGCCTCACCCACAAACCTT
1 CTATCACTCCAACACCATACCCACTATACCAGTATTTCTG
1 TTATCCGTCCTAATGAATAGCTTCAACCTGGGAAACCGGT
0.09010993161381595 AACCGGTTAAACACCGTGCAGTGTGATTCACTCATCCGCT
1 AAGCCAACTCCTACCCGACAGTCTCGCCGAACCCGACATA
0.3528556656386402 CAGCCACGGCCCCACACCCATTCACACTAAACTGGTATGA
0.3754499538895359 GACCGGAACAACAAGTACTTGGACTGTCAGCCTTGTAACA
0.289711701131865 GATGCAACGAACCTACCGCGTCAAACAAGACGGACCGGAT
0.1530602424615121 TTACTACACGACAATACGCCCAAAGTGACCAAACAGGTTA
1 AACCGGTCGTCATTGAGGGCAATGCATGCTCCGGGTCAAC
0.6965425834117746 CTAGACACCCCCCCAACCCGTTTGCCCACCGCAACCCCAA
1 TGCCACTGCACCAACATAACGGGAAATGTAACATACACAC
1 AACCGGATTACAACCTTTAGATGCTGACCCACGCACTTTA
1 AATCCCACCCCACCGGTCTGATAGACATAAACTTTTCATG
0.4621236089700578 CACCATGGTCCAAATACAAACTGACAATACCGGTCGCACG
0.296557377503344 AGACGAAAAACAAACCCTTGATACCGAAAAAACCAGTTCC
1 AACCGGTTCTCTCCCCACCAACAACGACCACCACTTCCCA
0.9830768850700597 AACGAGTCCGACAACTACAGCAGACAATGCGCCCACTGGA
0.2582492715823522 GACCGGTTCCCTCCAGCTTGGCCGCGGCATCTCGATTGGA
0.306577447103864 ACCCAGTGATTTGCAGACGAACCGGCATAACTTCATGCAT
1 AACAGGTCACACCTGAACCGAATCCGCGAGGCTCACTGCT
1 CCCCCAAACTCACCAGACCACCCTGATACTCCATGCTTAA
0.2720428780045479 AACCGGTTGTACCTCTCACACTGCCCTTGGGCCGCCTACA
0.4419977481902206 ACACCATCCGCGCCCGAAACGGGAATAACAACTCTGCTCC
0.6345422354617113 CACACTAATTGTCACCCAACCTGTATTTTTAGCACGCACA
0.7023052289523 GTCGCAGGACAATCGTACCAACAACCGACAAAACCGGATC
0.03131181365172444 CAACACAATCGACAGTCAGGCGTGCAAGAACAGGAAAAAC
0.6226141579218788 ATTTACGAATACCAACCTTAACCTAGGCAAACCTGCCCGA
1 TACCCGAACTACCTGTCCTTACCCCGCATCGCGCCCACCA
0.1544796612792026 AAGAACGAGCGTCACAAGACTCGTTTGGTAGGCTGCCATT
0.7232987145976217 GGGGATACTCACTGACACGGCACCCACTCAACCGGCTCGT
0.2527971798089496 AGGCCCGACAACGACCACGCTGGACCGGCACAGCGACCCT
0.002485956890811431 GCCACAAACCCGTCCGGCGAGACGATACCGGGCACCTGCG
1 GTGTTTTAACAAGCTGAAGCCGCCAAAAGACCTACCTAAC
1 ATCCTGTTTGACAGGCATTATAGCAGACACCGATCAATAA
1 CGAGCACAGAACAGCTGACCAACAGGAAATATTACAACAA
0.8238486649919974 ACCGACTCTCCGTCTCACCTTTCCCGCCCGACTTGCCCTA
1 CCACAGCAAGGCACACGGACCCCAACCCTGCTTAACAGGT
0.05247199358332567 GAACTAGACCTACCCAACCGGGTGGACTACGTCGCCACGC
1 ACCACATCCTAACGACTCTAGTTAAGACCCTGACATGTTA
1 AACTGGTAAAGCAAGTGATTGCATAAAACCATTGTCCGCC
0.3617904826885667 GACAGGATAAACAGGGACAATACGGGACAAGACAGTCATG
0.7149447352786993 CTACCACACCGACGAGTTCCACCACAACTGATCACCGCGT
0.02013200150461096 CATACGCAAGTGCCCGAATACCTAAACAAAACCAGTCCAA
0.5579524869271667 AACGCACACCGCTTAACCCAAAAACAGGTAAGATCACTCA
0.6249362931840876 AACCGGTTCAGTTCACTCAAGAGCCACGCTGCAAGGAAGT
1 AACGCAAGCCATACGTTCCACCCAAGCGAGTCCATCCAGT
1 TCCAAAAGCCAGGGCAGGACAACTGGCGAAACAAGCTCAA
0.1219319599763541 GCCACTGGGACAGGTCTTACCAGCCCAGGCTAACAGCATA
0.1595494064736726 AACCTCGATTACCCAGCCCAACCAGTAAGGCAACTATTCT
0.6131138375584685 AACACATTAACCTACCTGACCTGCCCGTCCTGACACACTA
0.5122405794386435 AGCCAAATCCCGATAGGCAGGTTTGAACACGATACCCTCC
1 AAGCCAGTCCATCAGCAAGCATAAAAAATGTGCCGCATGT
0.8879958945939552 AGTGACTATGACCCAAAACGCCCCAGAGTCTAAACCGGTT
0.4619841918128981 AACTGGAATGACAAGTTAGCCAGTCAATACCATAACCCTG
0.2668237798344472 CTACCGCGAGATCTAGTACTACCGGTCTCCCCGGTCACCA
1 CTTCGGATGTAACCCGACTATATGAGGACCGAAACCAGTT
0.774940895715708 ATTTCCCCACAAACCGGACCGTTCACTTCCACACCCTCCT
0.1801793052705819 TAAGTCAAGCCGCCAAGAACCCACCACTCGCATAACCAGT
0.443499163871006 ATCCACCACACATCCAAAACTACCCAAACAAGTCTTTCAC
0.006246268136919294 CCAAAACTTGATGACACTACCTGAAAATCCCGTACCCTAC
1 AACCAGAGAAACGAGACCTAATATTTCTCGATAACCCGTA
0.2710551173657889 AACCGGTTTTAAATAAGCATAACCCGAGAGCTATCACCTA
0.772925004429412 AACCTGTTCTACAACAAACACCGAGACTGCTACACCCTTA
0.5108267867505393 AACCAGTTCTTATGACGAAGGAGAGCAAGTTCCCCTGATT
1 AACGGCTGGGTCGGGCCACAGGAAACCAGCCAATCCAGTA
1 ATATAAGGCATCTCGAACCTGGCAAACCCCACTGACCGGT
1 AGCGAACCCACTCAACTGGATTTAGCCACCAAACTTAGTA
0.08881250928079328 AACCAGACCAACGAGTTACTTAAACTACGTCGCCAGTATA
0.322354519979193 ACGAAACACAAGTCAGGCAGTGATGTCATACAACCGGTTC
1 CTCGCAGAAATCAACCGAGTCAGTTCACCCTGTTTTTCCA
1 CTCTCTGCACCCCAAACGATCATAAACACAAAGCTGTTCC
1 GACCGGCTGTGTGACCTTAGTTTGACCTTAGGGGACAAAC
1 GTACTAACAAAAAGTAACATAACACGCCCGTCCAGTCCTT
0.8221457353670606 ACGCCTGCCTGAAGTCCGACTAAACCCATCCAACCAGTTC
1 GAACCACCCAAACGAGAAATAGCACATAAAGACGCCAGTG
1 TAACTGCGCTAACGAGTCAGGCAACCTTGCGCTTTCCCCA
0.5740025834050627 AAAACCAGCAAATCACGTTTCAACACATTCAACACGTCAC
0.3238686108268061 CTATCAACCCGACTGGTCAAGCGGGATAACTCCATTCAGC
0.9690049838632295 GTGGCAGCAATACCGACGTAACCTGATCTTTGCATAGTAA
1 AACCAGTGTATCTACTCTCTACCCTGAACAAGAAACCTGT
1 GCCACGGAAGGATACCCTTATAAACTGGAGTAACGAGTTT
0.003064426259206156 ACGCATTCAAACAGGATTGACAACATATAGCGCGTGGCAA
1 GGAATCAACCCAAACAAACCATAAGACCCGCCCGCGATGA
1 GACAGGTCCAACCGCTTCCAACCCCTGTATGCAGAACGAT
1 AACCTGCTAGACGAAATAACACGGTACATCGGCATAGCCA
1 CAGGCAACGTTCAGCGTGGACCAAGATGATGAAACCAGTT
0.9125480876394449 GTATCGCGGAGAACTACCTCAGAAACACGTAAATCCCGTT
1 AGCCCCTGCACGAAAGCAGCATAACCAGACCCCCCACTAT
0.007431474322376447 GACCAGAACACATTAAACCGGCCATTCAAGTACGGCCCAC
0.1097369116714515 AAGCCCTAACTTGACACAACGCACTAACTGGTTCGCATTA
0.2579277158245655 GATTCGAATGGACAACAACTGGTAATGCCTGAATCCCCAG
0.2148601409541118 CTCCCGTCCATGAACTGGATAGACCGCATTTCATCGTCTG
0.1176557615499901 AATTCCGGTTTAGTGAAACGACATGAACCGAAACCTATGA
0.6576765540823224 AACCGGTATCACCTAATTATCCGGGAACGACGAACTGCGG
1 GAACCATGGAAAATGACACCCAGGACAAAAACCAGTTAAA
0.9272808438294435 AACCTGTTTCCCGTATACTACTTAACAATCCATGCATGGC
1 CACCATAACTAACCCGGCTGGATCCTGATACGCGTACAAC
0.9703506299970467 ATACGAAAACTCACTGAACTGGACGTATTAGATCGACATC
0.8210459429240622 AGAATGCGACCCTGAGCACACGCGCGCCGACAAACAGGTT
0.6625302917400452 AACCGGTCTGTACCACATTGACTCACGCGGCAAGCAATGG
1 AACCGGTGTAGCACGTTTACGTCAACCACACGTACGCGCC
0.04571665748282464 AACAGGCCTAACCAGACCGCGTAGTATCTATACCAGCTCC
0.6631695569957082 GAGAGCGTAAGAACCGCAGGACCCGTTGAGCTTGCTCGCC
0.9719763271616306 GGCCGGTGGCACAACAATCCGTCCACTACCAGCATACCGC
0.05176138821427578 GACAGAACGGTAAGCCGATTCGGAACCGGAGCAACCTGTT
0.7764821979371319 TAGACGCAAATAGACCAGCCAAACACGACCTACCAGTAGA
0.3007478990638076 CCCATGTCCCCGTAAACCGGCCGAGCAAGCTGGATCTGCA
0.3668579250018406 GAAACATTACGCCATCACCTAACCAGATATACAGGCCATA
0.2401929006405996 ATCACGGTCACTCACCTTCACATATGCCACCCAAACCGGT
0.4921454923387831 TTACGACCAATCCACACACAACCTGCTTGTACTACTTACA
1 CTGCCCGTATACTCGGAAGACACGTATCCCTAACCTTGCA
0.9899528922729376 GATAGCTTCACACTCATTCATAACACACCGGACCAGTTTA
0.1497768293274661 AACCTACGATCCCAGTGCACAAAAGGACCAGTCTAACCCG
0.1094193212653874 CCGAGAAAGTGTAACATAACTTGCGAAGCAGGTTAGGAAC
1 CAAACAGGATGATCAACAATTTACGGACGTAGACAGCAGA
0.1793607081958133 CACGCTAACAGGAAAAGCCTGTTAAAGGATGCACCTCAGT
1 GACTGCACCAACCCGTTCGAACATTCCGTAATCCCAAGTA
1 AACAAGACCCCGCCTACCCCACTAACATGTTAGATCAGTG
1 AACCAGTCGTAAAAGCGACCATTCCAGGTCGCGTCCCATT
1 AGCCTGATATACAGGAACGCTCGAGCTAGTTACCCCCCTA
1 ACCATACCCAACGAATACAGAAACACGTCGAACCCGCTAG
1 GAGAACGCGACAATCACGGAATAATACTTGTTCTGCCAAC
0.6999847376385571 AACCGGTTATCAAGCTACTCGGACTGTTCGTTGCAACGAG
0.3020794361963859 CTGACCGTTGCTGTCCGAAATACTCGCTATACCAGTCCCG
1 AACCGGCTCAACGCCACACGAAATGATTTTGTAAGACATA
0.4852725341220595 AAGCACATAGCATCTATACGTAGCCGATATACTGGTTTAA
0.1155961041734618 AGGCTCGGACCTCATACCTGCAATACCAGTTAACCATTTG
0.9168485557280173 AACCAGTCAAACACCTTTTTATCACTACATGACGTCTAAA
0.1989663447785401 CACAAGCCGCGATACTCACCAGGCCGGTTACGCAGGATCA
0.4184569645485353 CTTGCTAAACTAGCTGAGCAGCCTAATCAACTAACAGTAA
1 ACGACACGCAGACCCATCCTTAAGACACGTTATACTCGTT
0.6171473077575638 CTATTTCCTATAGCCAAACAAGGTAAGCCTGTTCCACAGA
0.8686715065853152 CACCTGCTGAACCGGCCCTATAGTCTATTTGATTCTCTGG
1 ATACGACAAACAACCGGCAAATTCACGTGAGTTGCAAAAC
1 CAGCAGTCACTTACCGAGGGATGCAGCTGGTCACGCCGGA
1 TGCCATTGCGGACTACATAATATGAAAGTAAATCCCCTGC
1 CACCACCTGCAGTTCCGGCCACTAGAGCAGCAACATCCAT
1 TTCACGTGATTCCTAGAAGAAAATAACTTCACAAACCGGT
0.5674182568951396 CACTGCACAACCTAAGACACAACTACACCGAAAACCGGTT
0.01264012441215746 ACTCAAACCAGTTGAACGGAGCAGCAACAAAAGGCACGTC
1 AACAGGAACAGCTGGATCTGACTTAACGCCACACCCCTTC
1 TGTCTGGCCTTACCCCCTCCGGCGACACACGCCGCGACAC
0.9875087611734484 GCAACCCTACCGCACCTGTTAGACCACAGACGATCCCAAC
0.6108693366478245 TCCAAACACCCGGAAATACTTGCTCCCGACGCCCAACCTG
0.5361320798350168 ATATCGACAAGCCTCCAGTGGAATACAGGTTTAGACGCGT
1 ACACAACGACCCAAGCGCCCCAAAACACGTAGAACAAGTA
1 ATCAATAAGGAGTCGACACAAGAATATGATCCGGGTTATT
1 AACAAGTTCTACCATAACCACACCACTGAAATCACAATGA
1 GACCTGATCTCCGACCCTGCACTTGTGACTATGCTCAAGC
0.5638082215626676 CGTCAACTTGTTCATCAACTTTCATCCTCAGCCTCCCGCC
0.009782201228465853 GCAATAGGCACCACACACAATCCGGCACAACCTGCATAAC
0.390163386419537 ATCGCTACTAAAGCTGCCTAACCAGAATATTCCGTGCATT
0.4981705486225863 GGGCAGGATGAACCAGCCTGCCAACCTCACCGGGGCTCCC
1 AACCGCAGCACACTGAACAAGGCCATCCGCATGTGACACG
0.6988400789467206 AAACCTGCAATACCGGCAATGCAATGCACCACGTAGCATT
0.5348232267486878 TACCTTTAACAAACAGGAAACACCAGCTGAATCAGTCTCA
1 GCATACGAATTCTGCGCATTACCAACCCCACCACACCCGC
1 TCACCAAGAGAAGGACATAGAATGGACGCACTGGTTAAAC
1 TTCGAGAAATCAAACACGTCAAACACGTACAACGCACACA
1 ACCCCGCTTCAACGCGATCAATCGTCACTGACCCTACCAC
0.8428709642804776 AACCGGTTTAAACTAATAACATCCGAAAAGAAATGTATCG
0.9908777826446398 CTCACGAATCTCGCCCCCAACTTTCCTGCCAAACTCGATC
0.6394825430533007 AAGCCAACGCTGTAAACCAATTAAACCAGCTTGGTCACTT
0.5311928896933095 GAACCTCACTTAACCCGTTATATTTCTACCTACACACAAC
0.1136140584946838 GCTGTCCTACAGCTTCAAACAAGAACAACCAGCTTCCCAG
0.6607977485178554 AACTCGTTTGACAAGCCTGCACCCCTGTGAACGGCACCTG
0.140902260718411 AACCCGTTCCACAAGCGAACAATCATACTTAACCAGTCAC
0.4897244940631061 AACGGCCTCGCTGCGTAGTTTACCTTGTATAACACGTTTT
0.3959551178374039 AACCTGTTCTACCAGATAATACCACAACCCTTACGTGCCA
0.01867107885318398 GACAAGACCGACCAGATTAGCCAGCCCGCTGCCCTCACGA
1 CAGTCCATAAAACGCACCCTCACCCATTATACCGGCTCCA
1 AACCAGAAATATGTGTTTCACAGACAAGGCACTCACATAA
1 AACAAGTTGGCCAACAAATCCAACATCACAAAAGGCCGTA
0.8102057277824353 CCGAACCCTGTGCGTCTTCAGATCCCGGTTAGACCACTCT
0.2960913786883707 CCGTATCCATAAACCAGGCAGTCCTCTTGCCCTACCGGTT
0.1524318844600497 CTTCATAGACTATACCTACAAAGCGGACGGACCAGTCCAA
0.9226237017943507 CGCATACGCAACCGACAAAACTTGAAAGACGACGGTAAAA
0.2315792903444975 ATGCCGATTGACTGGACTGACCAGTACTCCCACCCTATCG
0.3515364443393288 GACCGGTCCGACTACCCCTCTCCCTGGACGTATGCTTGCA
1 GTCCTAAATACTATTATTTGTGGTGCGACCCGTATTGCAA
1 AACCACCTTACGTTCCAGTAGTCACAACCGCACGACCGCA
0.7130497742027909 CGATGATCAAACCAAAATACACCATGGTTGCCTAACCGGT
1 GACCAGTCATACGAGCTCCGCCAATTCAGCTGGCGACACC
1 GGTTCCTCAAGAAAATCCACTCCCTCACCGATTACAACAA
0.0273912543515416 ACCGGATACCTCTACATAACACACATAACGAACCAGTTTA
1 ACAGGTTTGCCCCCTCTTACAACGCAGCCTAGGGATGTCA
0.4986277219491907 GCCTTTAACAGCCATGGGCATACTAACCTAACCGGACGGT
1 CGCCCTGCCATCAACGCACCGGATAATCACGCCCAACAAC
0.6701692741553761 ACCTAGCAGGCGGGTGGATACGCATACCCGTTAAACCCGT
1 GACAAGTACGTCCACTTCCTGGCCGGTATCGGCATCGATT
1 ATTTAACACTCGCATGGCCAGGCGCACAAGCCGGATAATC
1 GTCACAAGCGCGTAAAGCAACAAAACAGGCCCAGCCACTC
1 CCCACATCTGCACCGTCGTTTAGCACCCCCACGAGCCAAT
1 AACCGGTAATAATATGCAGCCACACAGTACAGTCGGCCCG
0.244882028171896 ATGACAAACTAGATAGACGGGCAACAAACTTAACCGTAAT
1 AAACTAAGAAGTGGATGATGAGGAGAAGTACGAGTTCTAC
1 ACATGAGCACACGAACCAGATAGACTGCTAACAATTAGTG
1 AACTTGAGTGACGAGTACAATACTACACCACTGACACATT
0.5970360815739627 TGCCGGTCCAACCACTATCGCATGCGAGCACATAATCTTG
0.4226774450288849 ACCGAGCACAATGCCACCCAACCCGATTGTCCGCCCAGAG
0.7618398910078528 AACCTGTCCGCCGACCCATCCGAGCAAGTCCGTACCCTCA
0.8082875135348517 AACCGGCCGAGCAGGATTCCCCATCGTAGCACCCCCACCC
0.1315404807833867 AAGCTACCCCAATACAATCGGGCAACGAGACTAACCTGTT
1 TTCTGCAATAACATAACACAAACCCACCAAACACGCTATA
1 GGTTTGGCAACTCGGCACCCTCTCACTTCGCCACGACCTG
1 ACATGGCAACACCCACCAAGCATCCGCCTCGTCCACAATT
1 GCAAATGCTCAACCGCACCGACAACTTTCGACGAGGTCGC
0.260958389425665 GACCGGTTAGGCGGTTTGCTTGCCGTACGGCAGACAGCCA
1 AACCGGTTACTGTTATGATACGACACCCACGGAATTGCGA
0.08561929788617122 GGAAAACCACCACGGCACAAAACTCCCCTAACGGGTTTAA
1 CCATTACTCAGCGGAGACACTGGAAAGACAACCTTCTGCT
0.2704122909724779 GACCGGATAATCCAGCTTGCACAGATACGCTCCCGAGCTA
0.3385488744336786 AACCGGCTAAACAACTCGCGTGGAGACCCAACGAAGCTTA
0.7322965871799777 TCTACCTGAATGCGGACGAAACAGCAGGTCTAACGACCAG
0.5447066118997183 TGCCTCAATGACAAAAGTTACCAAACCTGATACTGCCCCA
1 AACCGGTCTGGATATCCGCAATGGAAGACTGATCTATGAA
1 ACCTGAAACCACATCGCAAACTTACCACCGACCACACACG
0.8553936463417893 GACCGGTTCGCGCTTATTCCGGCAATAGGACCCTCCTATC
0.8459288581610334 AGAACCCGCCAGACAGCTCCAATGTAAACTTGTACGCCGA
0.3170815717064669 AAACCGGATAAACCACCTCTGTGTCCCTTCACTTTGTCAG
1 AGGCCACAAACTCTAAACTCACCCAGCCGGCCAAACAACC
0.3889015344485829 AACCGGTATTAGCTACGTCCGCCTACGAAGCGCGTCTGAA
1 TAGTTAACGCCCGAGCAGGAGTTCAGGTCCGCCCACTAAT
1 GACAAGTATAACCACTTCTAATCCAACGCATTCGGAGGCA
1 TGCTCAACGGGCTGAGCAGCTTTCACGTACGCCATCAACG
0.1847114039973166 GACCCGTTTGACGCGTTCTACGCATTTACCGTGACCAACA
1 TCCACAGGAATGCCCCCACAAATAACCTGAAATTCCGCTC
0.458412618602863 CCAGCACACCTGGATGACCGCAAAGTAGCCAAACTGGCTC
1 ATCCGGTCCGTTTACAACTTCAGCCTACCGCGCATATCCC
0.0461869363765889 ATCCACTTCAGCATAGCCCAAACCGGAAGAGTCCGTTCGC
0.9088944984332117 GCAACAACAACATAATACGTCCAAACAAGTACCAACCGGT
1 GAACCGCGCGACCGAGCCGTCGAACCAGCAACGTCCCATC
0.7512875560097729 AACCGGTCTTATCAGTCGAGTGCACCGTGCACCTCCTTCA
0.008645659067973308 ACTGCAGGCATCCCTGCCCAAAGTGCCCTAACCGGTGTTG
1 AAACACGACGTAGTGTCGCTCCGTGACCAACCCGGAAAAC
1 CTGCAAGTTGCAGCACCAAACCTCAACACACCTGCTCTAC
0.8807742358763492 GACCTTTGACCGTACATCGCCATTACTCATCAAACCTGTT
1 CGGCTATCGCTGACCCACTCTACACGTTCAACAGGACACC
1 CACAGATTGCGTTCCTGTCTTGCAACAATGCGAACACTAA
0.1845330805462599 ACCCTACACACCAAACTCGTTAATCACTACGTCTACTCTG
0.1504666780919994 AAATAACCAGTATTACTACTCTAAGGGCAATGTCCCGCAT
0.2453598195484262 GCCATCTAACTCGCGCAACCAGCTTCACGCCTAGAATAAC
0.02810481339982808 AGCACGAAACAGGTCGTGCGAGAATTGTAAGTTAACGCAT
0.2237764351499634 CTATCGCACCACACTAGATAAACGGGTATTATGTGGGTGC
0.6275909777448898 TACACGTTTTAACTAAGTCGCCAATCCGGTAAAGGAAGTC
1 GCAAATCGACCGCCACAACCGCTCCAACCACCCCTGGCAC
1 AACCGGCCCGACGACGTACAATGTCCATCACTTCACACGC
1 ATCGTCCAAAGTGCAACCAATAACGAGTATGACAACATCT
0.2645422130521172 TGCCCCTGCAGAGCGATAGCGCCACAACTAGAAAAACCGG
0.02442950530624979 AAACTCGGTGAGAAATGAAAATGCAGCTAAACCGGCTAAC
1 GGCCACCCACCACCACCCCCACACATACATTACCGGTTTC
0.3031537904957791 AGTCGACCGGCCAGACAGGACTGGCCAACTAAGCCAAGGC
0.8517721769272448 ATAGCGACATAACCTGATCCTAAGGCAGCATCTCACGTCC
0.5711916449135195 GTTGACGCGAGCTCACTAGAACCGGATTTCGATGCCCAGA
0.4097675001630696 ACCTGCGCGAGATGACCAGAGGAGCCAGTTATACCAGATA
0.03413511096338083 CCGCCTATAGGAAGCACAAAACCAATCCGGTACAACTCGT
0.4653041377909458 ACCAATAAATTAAAAAACAGGATTATCAAGGTTTACGAAC
1 AAACACGCGCATCCAAGACGCTACACGAAAGTGGACCAAC
1 AAACCGGTACTCGAGGACCACTCAACATAGGTGAACTTAA
0.1364308606913703 ACACTTAAACACACCCTAGAACCGGTGTACCAACATCGCA
1 AACCTGTTGCGCAAGGGGCTCATCACTGACTACCATTGGC
0.2661244404542749 CCCGCTAACACGAAAGCATACATTCCGGATTAACCAGTGG
0.9519628988076154 CCACACTCTACCTAGAACAGGATCTTCCACTTATCCACCA
1 AGCAATCGATAGTCAAAAAGCCGGTCGGATGAGCTGTGCA
0.728724124538927 AAACGAGAAAAACCACTCCGTTACGGATAGACACGCGTCG
1 CATATGCACAACCCAAACAACCAGCAGTACCACCACAAAG
0.3202196391197313 TTGGCCAACTGGTCAAGTGAGATACGATAGTTCGCTAGCC
1 AACCGGAACAACGACAAGCTACCCATCACCACCGTGCACA
0.175666638906278 CGACAAAACATGCCCCACCGGTCATGCACGTGAATCCCGA
0.2568889301028419 CAAACCCAACTTCACGACAAGCAGAACACGTTAAGCACGC
0.5168883532494951 TCATTTGGAGGTCCCAAAACGACATTGAAACCCGTTATAC
0.09636340882955713 ACATAAACTGCCTAAGCAATACCCACCAGTCCGGTCGTTC
0.8008858560974114 TCTCCGTAGCCGACACACCGGAAGGGCAAGTCGCAACACG
1 AACCGGTTGCATGTGTCATCCAATCAATCATACCCCACCC
0.6644684849377087 AGGTAAAAATCATTAAATCCCGAAACTCACCCAACCTGTC
0.06640503628207435 CACTCCACCTAAACGTGTTACGCCGGATAGCCAACACGAA
1 ATTAGAAAGGGATCGAATAAACAAGAATGACTAGACCAAC
0.3524409131628475 GACCAGTTAAACAGCATGCTAGGGACACACGACGAGCTGA
0.2646851112006746 AACCCTCGCCCTTGTCAAGCAAACATGTTTTTCTACTACC
0.4304389315821987 TTGGCTCCACGATAGACAGGTCGACCCAGCTACCCTTGCT
0.7877289301613609 CGAAAGTGCCAGGACAGGCTAAACGCGCTATTCCACTTCA
0.7264243732885113 ACGTCCGCCCCTAAACCAGAACGGCAACTCCACATCCTGA
1 AACAGGAAATACAACTAACACGGGACCTAACCATAATGTT
1 AGTTACCCACCTTTCCTGCGACACAAGGTTCGCCAACTTA
1 AACTGGATCGGAAAGCTGTTCGGTCAATAACAAATCCTTT
1 GCTGCTACCCTGCCACCTAATCCACCAACCGCTACACGTT
1 CTCTTCACTTCAGACACCAAATCCGGGAGAACAGGAAATA
0.2304803790352526 AACCGGTTTCCACCGCAAGGTGACTCTATCCACAACGTCA
1 AACCCGCTCTACCTGAAAGCAACGTTAATTACTACCCATC
0.3576809492889498 AACCTGCCCAGCAAGTACGTATCGTTAAGCAATAACGTCA
0.3405989160825096 CTGCGAACGTCAGCAAAGAAGAACCGGAAAACGCACAACG
1 CACATCTCTGCTATCCGGCATAGCAACATCGGAGACACTT
0.1896217393475564 GCCACCCAATAAAACCGGCTCTCATAACGACTGCAACCTA
0.8709088055961359 AAAATTGGACCAGCAAGACAGGCTCGTCAACAGTAGACCC
0.4669594832228338 CAGGCTAACATTCACAACATGCCTGACCGGAACAACCTAT
1 CAAACAGGATAGGCAACAATCGTGACGCCTTCCATCATCC
0.2032220564790783 GGAACAGGCTTGACCACCTCGTAGGACGATCCGCCTCACG
0.6432186397465948 TAGAACTAGCTGCAGAGCACACAGGTTCTACTCATAAGTC
1 TACACTGAACTATCCTCTCCACCCGTGGCAAACCATTTAC
1 AGGAGACCAAGCATGTAACAGTCACAAAATACCAGCTGGA
0.880654033831002 CACGCCATAAGGTGCACAAGTAAGAATGAAACTCGTTTGA
1 ACCCCTGCACCACCCCCGCTCTGTGTCTGCCGGAACCGGT
1 GACTGGTTGTACCACATCCAATGAACCGAACACTCTGACC
1 ATACACACGTGCATTACAAGTTACGCAAGACCTAGATTTA
0.09666430269549636 AACCGGTCCGCCATCCACTGCACCACACAAGATGCATAAC
0.7463547325535831 AACCGGTATAATCTGTCCAACTACAGCCACATCTGCATTA
1 CCCATGCTATTAAACGCAAGACCAACAAAACTAGTCATAC
0.3237190758535968 CGCCACAACTACTCGACCAGCCGGTTCTTTACACCATACA
0.5157463099903458 GTATCTTAACAAACCTGAATGGTAGGTGTTCATTCCATCA
1 CATTGGAACACAAAAACATAAACCATCCAGATAATCCAGT
0.02419041139031413 ACGATGCCTAGTACCTCACTGAACCAGCCTAACCAGCGCA
0.5411760732175995 CAAAGCCGTCTGCGCAAGCCGGTTATTATACTAAGTGCCG
0.477572462438735 GACCAGTTTGACGACAATGAGATGATAATATATCCCATCT
0.9848401439766928 CAAGTGCCCTCCGACGTAAGTCTTGCCCTTCCGGTACTAC
0.3530419753575583 TTGCACCAACCGAACCAGACGAACACTGGAACCCGTGGAA
1 GTACAAGCACCTCGCGACCGCCCTCATCAAGCTAGTCGAA
0.7699692651122899 CAGACCCGTTAGACTCGCTCCTCCGGCCACCATATCGCGA
0.1004565540743566 GTCGCGCGGTTAAACCGCATCGGCGGGTTTCGTCACCCAC
0.5120077732463659 AAACCGGTCAGGCTAGACCCACCACCAACGAAAGAGACCA
0.0337970058888192 GCCCACTAGACAAGTCGACCGGGTTACACCGGCACCCGCA
0.3092876805365111 GCGCAGAACCGGGTTAACCACATATGGTCCTCTACTCACA
0.520679159154895 ACACGGACTCGATGAATAACGTGATAATCAAGTCCTACCA
1 ATCGAACAAAAAAAACATGTTATATAGGCATGAAGCTAAG
1 ACCCGGTCATTAAAGCCTTAACCCGCACAACAACAATACG
0.6374600000387908 ACCAAAACAGGTCCCTCCAGATCCCACACCTATGCGCAAA
1 AGCCAGTCATACAACATACATCCCGGGAAATACTGTGCCT
0.9469414226540933 AATAAGTACAAACGCTAACGGTAACCAGTTCCTCAACCTA
1 AAAACCGGCCATTCCACAAAAGCACCCTCATCAACACGCA
1 AGGACAGTTGTTTTGTACAGAATGTCGGCGGACCAGATTC
1 CCTCTCCATGGATAACACGCCACGCAACAACTTGCGCAAC
0.1752310781259911 CGATGCGGACCACACAGAGAAACAAGACCAACCGGCACCA
0.6303529626894236 CCATTCGTACATCATGTTCCCGCCAAACCGCTTCTGCGCA
0.1524677308374703 GAACGCAAAAACCAAAAAAACACGTTTTGCACCACGCGAC
1 ACGCCCCTCTGACAATCAACCCGTTAGCCCACACGACTAC
1 AAAAGGCACATCCTACCAAACAAGTAAGACTGCAACGAAT
0.6520414628801799 AAACAAGTCAAACCACTACGTAAGCGCAACACGGTACATG
0.3482103395938547 AAAACGAGTACACCCCAAACCCGCAATTCCCGTTAGATGA
0.3933500676760954 CCACGCATACCTCACCAAACCCGATTTCTTAGCCACTAGC
1 AAACACACATAAAGAACACAAACACACATAACTCGTTCCG
1 CATACATGGCTTTCCCCCATCACCTCCTCTAACCTGTGGC
1 CGAAACCACGACCACTTGCACAACTCGAAAAAGAACCTGT
1 AACCGGTTTATAGGGCTCATTTCTGAAAAATACACCCCAA
0.2632463369308959 TGGTACCCACTTAACTTGCCCAACAACATATCTCGCGCTT
0.8066737970936733 CAGCATTCACCCCACCAGGTGCAATCTCATTAACCGGTTC
1 TAAACCGACCAGACCTGAATATACCCGATGAACGCACGCC
0.4420699609111341 GTCTTGGCATAGGCCCAAACCAGCATACCCTGTTCGCTTC
1 GCGCGCCCTGTCACACACTACCGATTCAAGTAAAACCTGA
1 AACTACAAAACGGACTAAATAAAACAGACCAGTAAAACCA
0.305545098407729 ACACACATCCGAACAAAAACCCACTAAACCCGTTACATTA
0.4400948662222964 CATCCGACCGGTACCCCTTCTAACCATCAGCCTAGCCAGC
0.4452593288984589 AAAACCTGCTTAACAACCAACAGTGTACCCGCAACTGCGT
1 TAACATGACCGAACACACGTTTCTTCGCTTGAACTATAGG
1 AACCGCAAACACCACTCACGCTACGCACGCTCCACCGGTT
1 ACGCCTGCACACTAGGGTAACCCTTCCATTCCCGATCATC
1 AACCGGCCGTGCCACAATGCTACAATGGCCGTGCTCCTAA
1 GACAAGTTTTTCAAGAACATCCAACGTTCGTCCTTAAGTT
1 CAGTCATTGTTAGTCCCATCCCTAACATCACAGAACCGGT
0.9864541218985264 AACCCCAAACGCCCTCTGATAAGCACTGGTCACACCGGTT
0.9643540247128244 AACCGGTAACACCGTCCCACCCCCACGCCCCTCCATAGTG
0.8778861190006492 GTAAATCAAAAGAGCACTTGTAACTGGTTGCACCACTCGA
1 GCTAGTTAAAAATGGCTTGCACGTAACAAGTCACACCGGT
0.3581741163464184 ACAACAAAGCCAAGAAACAGGACTTACCTGAAAAGCGCGT
1 AACTCGTTTCTGCTCCGTCCCTACCTGCCCCGCCAGTCCA
1 CACACGACAATTAACAGAAAAGTCGACGAGCGGGTATGTC
0.0601652895666366 GTACACAACACGGCTAACCAGTTTGTTAGCTTATACCGCC
0.006889529879103197 ACACAGTGACAACATGGTCAACCTGTGCGACGGGTTCCTC
0.8601941636165655 ACATCATGAAATTGAGGCATTACTCGCTCAACAAGTTGCT
0.09611260160891563 TAGCAACCATAACCTCTACCGACCAGTTTGCCCGGCGAAA
0.6490646739835987 TGGAGTACTTACCCCATCACATGCGTCAAACTTGCCAAAC
0.08917850429841716 GAATACGAGTTATACAGGAACTCCATGACGTTACGAACTT
1 GCATTGGCGTCCACTCGCCAAGCTTGTACTACCTGATACC
0.5729027640781568 AAGCCACTACTGGTCTAAACCGCACATACCGGACCACATG
0.3973720779841375 CTGCATCCATGTAACAACCAGATCAACTAGTTACAAAACA
1 CTACGAAGAAAACAAATTGCCGACAACCTACGTAACCGGT
0.109113635747963 GTGTAAACGACATATCCGGTAAAACACGACCTACAGGATA
0.3486094256467283 GCATCGCTACATGGGATGTACATCCCGTTATACAACATCG
1 CTTAAGTAGGCCGCCACCGCTCCAACCTGATTCACCCGTT
0.3619057881852856 AACCGGTCACACAATCGACTGGTCCCAGACACCGATTCAC
1 AACCTGTTTATACCAACTTACCGAAATGTACGAGCAAAAG
1 TGCAAGGTAGAGCTGAGAGAAATAACGAAACGTGTTAAAC
0.4102540371712771 TGCCCGAACTCGTTCTCACCACACGCCTACTAGATGGTGC
1 CGTCTTCTCTTCACCTATATCCCACCAAATTAACCGGTTT
0.9456275875679533 AACAAATACTAAAAGATGTCAAACAAGAAAATGCAGTCCA
1 AGCCCAGAGTCAAACCTCAATAAATACACGAATAACCGGA
1 AACCAGAAAAACGTCTATATGCCACTTACAGACACTCCTT
0.299039701194471 AACCGGTTTTCTGAACCACGGACGCGATCTTCGCACCCTG
0.4877816281436779 AACCAGTTCCGCTTACGCCTCATAACAGAGAACATCCTTT
0.4389791043067806 CAGAACCAGTCGCCCCACCTGCAAGCCAGTACGGGCCTAA
0.416984701191072 GACCGGTTAAACGATCCCATCCGCACAAAAGCGATACCGA
1 AACCAGCCCTTCCGCTACAACAACGAACGATACAACCCCA
0.1267537400021942 AACCGGTTCTGAACAACACCCTATGTGGGCCAATCTCTAT
0.5059668248881588 TACTCCCTGACACCATAGCAGGTATTACCACTTTGCACCT
1 GAATAGCAATACTGCACCCAGCAGAGCACGTAACTACAAG
0.2881343039704186 CGAAAAGATGCCAAACAGGATCCGCAACATAGTACGCGTA
1 GAATAGTAGTGATACTGGTTCTAGAGTAAGCAAAGTTAGA
0.9687704910850333 AGCTCAGACAAAAGTAACTAAACCAGCTCGTATACACGTG
0.7858298000157018 GACTGGTTTGACGAAGAATACAGACCGACTTACACAACCA
1 GTGGAAACGCATAATAACAATCAAAGCGGGTTAACAGGTT
0.7835034018485597 ACGGGCCAGGAACTAGCTCCCAAACCGACCTAACGACTCT
0.3668008520676438 ATCGCATTAAGGTCGACAAACGAGATAAACTGCCTACCAC
1 ATCAGGTCCATACCTTTGCTACACAACACCCACGCCGCCA
0.4666153951870972 ATCGACGGAGAAACCTGCGCAACTAGTTTAGAGCGCTTCT
1 AGACTTGCAAAAGCTGTAGAATCACGACTAGCTGACAAAC
0.2172776458247215 CCAAACCCCGATAAACACGTTTTGAAGCACCCACGCGTTA
1 AGACAGATGATATGGTGGCTATGGGGGACGCGTGTACGTG
0.1541330162845547 TCCAAATGAAAAACGGAGAACAGGTTTCATTACTCCGTAA
0.1222565560810932 TACCGGTTGAACCACTATAGACTGCCAATCATACATCGAT
0.3382150467526257 AACAGCAAACCTGTCTTCCCGCTGCATGCTGAGACATGTA
1 GACCGGTCCCCTCACCTGACCGTGGCAGTCTGTTCTCTCT
0.05409305125648928 CCGTAGTCGACCCTGAATTCCAGTTGGACAGCTTCATCCC
0.6654235903480199 AAAAAACCTGACAATCAACTTGTATAGCACAGTCTCGAAC
1 TCGACATATAAATAGGAGTACCAAACCCGGTTAGTATGAC
0.1926382413816374 AACAGGTTTGCCACCGCCTTACGAAGCAGCCCAGACCCAT
1 GACAGGTCGACCCACTCAGATCGGCACGAGCGATTATGTT
0.128915484342663 AAACCGGTTCTAGATTACCATCGACAGCAGCGCCGAGGAG
0.9605006326308625 AGCATCACGCACAAAGATACGATATCTCGCATAACCTGTT
1 ACTAGCAGCATACCCCACGTATCACTCTCTATCAGCCAAA
0.0779553950552738 CACCCTAAACGGCGAACTAAACCTGACTAACCAGACGCGC
0.5197648008217355 CGCACTAGAACCAGTCCTGAACAAGCAAGCCGTCAATTAG
0.1071811702260345 CACTGGATGGGATAACCGGAATATATCCATCCAACCGAGA
0.1003392741882635 AAACCGGTAAAACCACTACCAATAGAGCTACTATGACGTC
0.6073899791622061 TACCAATCCTACGAAGCATTAACGTTTAGACCAGTTAAAC
1 GACCCGAACAACTTGCCGCGTGAAGTCCACCTGTACTGCT
1 CCAGCGAGCAATTCGAAACCCCGAAACTCCCCCAACCAGT
1 GACGTTGCCTGCTGAACTTGACACACCACCAATACCGGCT
0.7104666164784387 CCCGCACAAAAGAGCAACCCAGACGACCTGTCCGACCAGT
1 GATTGACATCCCGCACAACCAGGACCTCAGCCCACCGACA
1 CGCCCTTACACTCACTCTACAGGCCCGAGTCACATCGAGA
1 TACGTCACACCAACGTAACCTGCGTACGAAGCAAACAAAC
1 TCCACCCGAAGTCGGTCACCTGCACGGACTGCAACCGCCA
1 AACAGGTCCGCCAACCCACGGATGACGCGAAAAAACGCAA
0.8506971755655282 AACCGGTCGGATCGCTTATGAAGTACAGCCAGCATTGAAC
1 ACGCCATATCGCCGTTAAAAACTCGCACAACTCGAACCGT
1 CGACAAGACCCATGCAGCTCCACCTACCTACCCAACCAAG
1 TGGAAAGCCCCTACCCACGTACATAAGGTTAAAGCAACAT
1 GACCTGTGTAGCTGGAATAGTGATGTACAAGCCCAGAAAA
0.2595267712451012 GCCTCTAGTCCACAAACGATACTGCACCAACCTGCTGGAC
1 CCCCACCACTAAACAATTGCACACAATGCAATAACCTGTT
0.5278365955091661 GTAATAACCCTAGAACGGGTTCGGTGAGTAATGGGATAGA
0.2985844295814221 GCCGCCAAACGTAACAGAACGAGTTTTCGACGCCACACCA
1 ACACTAACTAGCTTAACATGCACAATAAAGGCAGCCAAAC
0.8545003506666711 CGATACAACGAAACTCGGACAACAAGACAAGCCGGTACAA
0.001690154394761233 CCCCTACATGCCAGGGAAAAATATGGCTGCAGAACCGGTT
1 AACCTGAAAATCAAGTACGATACCCTTCAACCAACATCGT
1 AACCAGCTCCCCCACTCATGCCGTACAATCAGCCCACGCA
0.1163801977143408 AACCGGTTTACATGCGCTCGAGCACATATGTTAAATGCTC
0.3721620841095826 AAACCAGTTAATCAAGCCCCCTAACAGTCGAACACGATAC
0.3242428658513814 ATACCCACCCAGCCTGTTTAAATGTCGTCGAACTCCAATA
0.5326228319365772 CAAAGTTACCGAACCAGTAACGCAGCGTGCAACACCGCTT
0.9671813744999529 AACCTGTCGCACAACTACGTATGCACAGACATTCGCTCGT
1 GACAAGTTCGCCAAATACGGCTAGCCACCCGTTAGTACAA
0.09332409722537613 GGTCCAACAAGTTCCCCGACGACGAAATCAACCATTACTC
1 AACCGGTCCTCCCGCAACATGCGAGCTGCGGAATACAAAT
0.9577284870693125 AACCGGTAAATCCGCCATATAACGTGCACCGCGGCAACTA
0.6158977174272789 AACCGGAATGTCCGCTTACATGACGGCTTCCAGTATACTA
1 GACAACACTAACACCTAACATTGACACACATAGAGGCAAG
0.7097065323171462 ACATCCGGAACTACCCGTTCATCATGAAATAGATTCATGG
0.08920282906343262 CCCCTACCTCCCCACGGAACGGAACTCGTCATGCAAGTTC
1 CACCGAAACTCACTCATCTCGTTCCCTTTAACTCTCTGTT
0.4198468400203177 ACCAGCGTGCTTTACGTTCTAACTGCCGTAACCTGTTAAA
1 CGCCATGTTACCCAACCCGAAAGTCCACCCAATCACAACA
0.346659672822933 GTCTCACACGGGCCACCACCCACAGTCAAACCCGTCTGAC
0.9032415323201747 CAATACTTACCCCAACCGGATCCACCATAAATAGCGCGGA
0.07638894038610257 AACCGGTCCAACGAAACATAATTGTTATAATCATTGCGCA
0.3857470519037773 TGAAGAGCAGGACATCGAAAAACACGAAATTCAGGATATG
0.7641310777666864 ACTACCTGCATTATGAGGCGTCCCCAAAAACCAGACAAAC
0.6167905808723643 ACCCCAGGACAACACCACGAACCAGAAAGACTGGATCACA
1 ACCCCACTACTAATCGGACAAGTAGAACAGCTTCCCTACA
0.1921138749685593 TACCCAGTCACTACAACAGGAAAATCCACATTCATGTCTT
1 ACCCAGATAAAGCAAAACAAGTCACACACCAGGTAATGTC
0.4011649118634931 AAAACCCCTTATACCTGCCCAGCACACCTGCCCCACCGGT
1 AAGGCACCTCATATTACGAGTCAAACACCATCCTACAAAC
0.06256044692268158 GCAATACATAAAACCTACCATTCCAGTTCCACCGCACAGG
1 ATCCGGTTCCATGGAAGACCGATTGCGCCTCATGACCGTC
1 CTGACCATCCCCCTAAAAAATACCCGAAAAGCAGGACAAA
0.4293642372115866 AACGAGCTAATACAAACTCGATCAACCAGCCGAGCTGCAA
0.09954014079143322 AACCAATTAGCTCACTTTATTAAACATCCCAAACCGGTTC
1 AACCGGGATAACAAGTCAGTGCAGCAGCTATCAATATCCA
1 ATCACTCAATAAACAAGAACAACGGGAATGATGTATACAA
1 CACTCACGACGCACCAGAGCTACTGGAAAAACACCTGACA
1 GACTCGAAAAACGACCCCATCTGCTACATAGAAGTCAAAC
0.444673235447244 AAAGGCAAAAATGAAATAGTTACTGGTTTTTCGACTTCCC
0.4835776296935081 TAAAACTCGCCAAACGCGTACCGACATGACACAATAACGC
0.2413024959682774 AACCGGTCCTCCCGCATTGTACGAACTGCCACAACCGAAA
0.7117370508112213 AACGAGCTGGCAAGACAAGTTAGCACACCAATGACAACAG
0.5119179842123538 GTGCAAACTAGACAAACTTGATTTCGGCGACTAACACGCA
0.9355352578564756 TGTTCGAGCCAACCCACCTAACAGGATACCCCGGCCCGCT
0.1573507348083414 ACGAACGACACCACGTAGACTCAGTAGAACCTGCTATACT
0.9787709443452339 TACACGCGTAAGCCGTTCATCCTGTTATCTCACCCCGTCC
0.6014617688570744 AGGTCTAGCCCTCGCTTGTACGCACCGACCTGTTCCACGA
1 CTGCAAACGCCGACTAACACGCTTTGTAACTCCTCACTCA
0.2159401815468988 GACCAGGCGAACGGGTTAGGAGTAACTATAAGCTCCATAT
0.103663527627227 TCGCCAACCCCATCCGTGTGACCAGACAAACAGGCCGCAA
0.13939108755411 AACCGGTTCTCAACACAACACACGTGATGGTACATGCTGT
0.5742674784174344 ATACCTACGCACAATAATGTTCGGGTAATACCAGTAATAC
0.5389095809438949 TGCCGAATCTCGTTCTACAACTTCTCATGGTAAACTAACA
1 AACCGGCAATAGCTGTACTCACCATCCGGCTGCACTCGAT
0.5640678582525062 AACCGGACTACCCACATGGGCCAACCCGGATCGTGGCTCC
1 GACCGCCTCAGCAAAACAGTCAGCAAGCACTACGCGAATC
1 AACCTGTATGGCCGCTCTTCATAACCAAACGCCCAACCCC
0.07428688304785031 CTAAACACGAAAACCACTTCGATAACACAACCGGAAACAC
0.03441684944412498 ATCAAACAAGCGCAATCCAGACTAACCAGATTTAACCCCT
0.8412273873952407 TCTGCTACATAACTCGTTACACGGCAATTATACCCGCCCG
1 CCCAACTGTCCCCACACCCCCACAAAGAAAACCTGCTTAC
1 GACCGGTGTCTGACTCGCCTAAGCGCATGATTCCAAAGGC
0.1273911758922494 ACACTCTAAATTGCAGGCAAACCTGAAAAACTACCCGATG
0.0283301882612997 AACCGGTTCCCACCCGGACCATACACATTGTACTCGACTT
0.5027452580675263 CCCCTTGTATGGCGGCGTTACCCACACGCGAAAAACCGGT
1 GTCGGTAACGGGTACACAGACTAGATGAGCAACATTTATT
0.5861765537323181 GACCGGTACGACAACCTCGCATCCTATACTGAACTCACTC
0.2438914707696015 AACTACGCGAGCAGTGCAACCAGCCATTCGGAACCAGTTT
0.8535625161880008 TGCTCTACAAACCACAACAGGTAGCACAAGTTCACCACTT
1 AACGAGAGTTGCAACTCTAGCATAATCACGCTACGCCTGT
0.1464968479787797 GCACACAATCTGCTACAACCTGAACAACCAGTCCTCACGC
0.2679113080440428 AGCGAGTCTGACCGGATATTGACTCACCGATATCCTCCTA
1 AACCGGATTCGGACAAGATGGCCAGACTAATCATTCTGGC
0.8864502136466572 TAAAATGCGCCCTCAACAGTAATACACGTTCCACCACATC
0.04813204351129766 CGTAACCAGTAAAGCAACTTACACGCCCAGCGCAACCGCG
0.1992742939384952 ACCCGCCAACGAAAACAAGACAAACCAGATCCAATGCAAC
1 ACCTAAACATAGTCAATAACCACATTTACAAGATCAACAA
0.7313389173773974 ATCCCCTACAATACTCCCGTCCAACCAGCACAGCCAGCTA
1 TGCCACCACAACGACAAATCACAAAAACATGAGAACACAC
0.814381290586959 ACTCACAACCCACCCACGAAACACGTCCGCCCCGTCACGA
1 GAAGCGCACAAAACAGAGCGAGCCCACAAACCCGCCTAAC
0.7646272037381713 ATCCTGTCCGCCCAGTCCACCATGCCCCCTAGTAGTGCAA
1 AACTGGTTCCATGCGGTTAATCACACCCGCAATTGGCTCC
1 TCTTGCAACGTTCATATGAAATCAGGATAAACCACATTAC
0.04972170106581458 ACACCAGCAACCCCGCCCAACCTGTACGCCCCGTCCCTTC
1 CCGCCTACGCCAATCCCGCTTGCAAACCAACCGAGCAGGT
0.5787327951257323 TCAAAGCGAAAGCCAAAACCGGAAAGTCAAAGTCTTCCAC
0.6868269091987059 AACAGGTTCGCCCATTCCCGTACTTGAGCTTGGTTGGGTG
0.2930690119560594 TGGTATGCCTAGGCCCAAGGCGAGTGCCCCCAAACCTGTT
0.6130166390884039 TTCATGCACGCGAGTCCCGTCCCAAGCAGAATAACCTGTT
0.1162120009184365 AACCGGATAAACGGACCATTGCAGTAGGGGGGAAGAAACA
1 GACTCGATGGGGGTAAACCGCGTTGAACTGCTCATGCCAC
0.9991599732512594 GACCGGTTCAGCATAAAGCCGACGCTAGCACACACACGTT
0.06108934709435952 CACGCTGCAACATAACGAGTTCTCCAATAACCGCCTCATC
1 TAAGTAATGTAACTGTCGCAACTTAACACACCTGCTAGAC
1 CTTGCCCTGACCGTTACTCCTCCCAACCAACCTGAGATGA
1 CCAAATGCCCCGACGATGTTAACGCCAGAACTCGACAAAC
1 CAACACGCCAAGCTCACCCGCCCGCAAACTGGCCCACTAA
0.7013566044468083 CCTCCCGCAAATGAGCCTCTACGAGCTTAACCTGAAAATC
1 AACCGGTACGGCCATGTGAAGATGCAAAAAAGTATCGCTA
0.4469852087201287 AACCCGCTCGACCAGCACAGCACGACCTCCCCCCGCTCAC
1 GACCAACTTGTACAAATTTCGCACCCAGAACTTGCTAGAC
0.08611330364890114 ACAAAGCCTTGAGGAAACACGTTAACCCTGTCAAACCAAA
0.09536462832038625 AGCCCACCCCGCAAACCGGTACCAAACACCGCGGGGCAAC
1 AAGAGAAAACATTCTGGTTATGCGATTAATTGCCAAGACA
1 AACCAGTATTAGACGACACAATGTTCCGCGTTACGACCCT
0.5991738002617301 TAAGAACGGATGCTGTTGAACTCGTTAATCGGACTTTCTC
1 ACGTTCTCGCACCCACCTATCAAGTCAGGCAGCCCTTACA
0.9388428802529927 ATCACACGCAAACCAACTCTACCCGTTGGTCCACCTACGA
0.636562737754892 GAAGCTAAAGGCCACCGCCTGGTGACCCGACTAACCTGTT
1 CCAAAGCAACGATACACTCCAACAACAGGTTGTACAACGT
1 AACAACATATTACGACACCAAACAAAAGAAGAGAAGTTAC
0.8634173311004494 AGCCTGTCCTCCCGCCCTACCACACAACACTCAACCGCTC
0.2290604281278952 ACTAAGACACAGAAAATACCGGTGCAGCAAGTTCTGTTCA
0.05168354532443959 CCCCTGCAACACACACACTTGAGAAACAGGCTGAACGGTA
1 AAAGATCGCTTCATGTTCGAAGTAAACTTGCAGAACCCGT
0.134280423205453 AACCACTGTTCCGGGACTCGCCCGACCTGCCTCACCATAC
1 AACCGGAACAACTGCGTCACTCAGTACAACGAATAAAGGA
1 ACCGGTATAACGACATACCGTAACAGGGACAGCCCCATGG
1 CTCAACTACCCAAAATCGGGTCGTGCAAGACTACCAAAAC
1 GCTACATCATAACCCATACACGAATATCCCGTTTTCCCGT
0.3338494632643109 CGTGAGTCCGGTTCCGTACACCCTTCAGTACATTCCTCTC
1 AACCGGTTAGAACCTCCGAACCGAAGATGCACATTGCATA
1 GAACCACTCTCCATTGCGCCCCAACGCGCTCGCACACTTC
0.164769827866111 AAAAACCTGTCACGCAAGCAAACGCGGCTCGTCCACGTAG
1 AGCCCGTAAAGCCACTTGTCCACAACGACTTATCAGTACA
0.6072090769232309 TGCCACTGTACGAACACACTCAACTTGCTATACCACATTC
0.0561692920347338 AACAAGTCGAACTGGAATGCCATTATTTCTTGAAGCAGAT
0.04294030174781757 AAGGAACTGGACATACCAGCAATACACGAATCGCGATTAC
1 ACGGCAATGAATGCCTGAATCATTTAATAGGACCGGTTTC
0.02437881055426305 TTGACCCACAGAACAAGTTATGCAACCTATGTCAACGAGG
0.3851048295001774 GTACAAGGCGAACCCTACGCGACACCACATGAAACCGGTT
0.5440379741949766 TGCCCATTCCAGTTATACATGTTGGATCTACCAAATCAAG
1 CAGTACGAACTAACTCGACACGCCATTCAAGTTCCGTCCA
0.4149422528173643 CACCGGTTCCGCAGCTTATACTCAACACCAACCAACGCGC
0.443718474891508 GGAAAAACTTGCTCGCCAAGAGCGGTAATACCGACACGCC
1 ACCGCGTACACGTAAGAAAAGTGGATATCTGCCAACCGGT
1 AACCGGTCAGGGCACAAACAAAATCTACGCTAGGCAGCTT
0.5474389576905891 GTGAAAAACTGGTAGTACATATACCACCTCACACACACCT
1 CGGCCCAAGTCTCCCCCACCCGTCTAACCTCTCCGTCTAG
1 AACCATTCACCTTTCGACTCACACACATGTCCCACACCAA
0.2295733885471797 CAATACAGGTTTTACCCGCCCCCCCACACGGAACCGTAAG
0.06711589528589133 AACCGGTCCGCCAAGCAGCCATGCCACCCCAGCCACCGAT
0.2404313222419008 ATAACTTACGAAAACAGCAGAACTGTCCTAACCGGAAATG
0.5492836542725651 AGACCCTTTATCCTGTAATTCATGCCCAACAACTAGCGCA
0.180815140191819 GCGATAGTGAATCATAACTGTATAAACTGGATTGGCAAGT
0.2838387083387092 AAAGTCTGCAGTTGACAGACCAGTCGAGTAGCACGACAGA
1 ACAATTGGACCGATAAAAGTAGTCAAACCGCTATTGTTGA
0.4585307195576431 ATTACAAATGCGACCACAGCTCAGTAAAAACAAGTTTAAC
0.9437935062768992 CAGCAACGACCACGCGCTAACCTAAAACCAGAATTTCAAC
0.5491258807580807 GGGACCACCTTGCGGCCACAGCCACACTCGCAAAACCAGT
0.8035832769299533 CGTAAAACAAGACTAACCCGAACTATTAGTCGGCTAAGAC
0.5381783985261578 CATCAAGCTCCGATACAGCCCGCAAACTAGTAAAACGAGT
0.4974579856840808 GCGCACACATGCCCAACCAGGCCCTCCGGTTCTCGTTCCT
0.4420199708634766 AACCAGTTCACTCACACGATAACCAAGTTCGGTCGAGCCA
0.5962389257022953 TGATCACGAACCAGGCTCGAAACCCACCGGACCGGTAATG
0.3848577064516357 GTTGCGGAACAAAATGTGCTAAATACTTGCACAACCCGTT
1 ACGACCCTCACAGCACATACGTCAACCAAACTGACCGAAC
0.8844919404883685 ACCCACAAATCCCTGACTCACATATTGCTGCGGAACCGGT
1 TCACCCCACCGGGATGCCACCAAACCCGCTCCTACTAAAC
0.9489224360157158 TCAAGGAGCCGGGGGACCTGTTTACCGAGCACCACTCCCA
0.9689122452008132 AACCGGTTAACCCACATACCGCACACCCAAATCGCAAAGA
1 CCGACAGCTGAAAACCCACCAAGCCTGAATCCCGGCTTTA
0.4317358994833795 GCGAGGCCAAAAGCACCAGAAAAACAAGCATGTCCACACC
1 GGCCAGTTCGTCCTGTCGAAACCTCGCGGTAACGGCCTGC
0.38845397754724 CGCCCACCCGCACACGACTACCCTAACCGGAAAATTCACT
1 TGTCAGACGCCCACATGCGCCCCAGCCAAACCAACCAAAC
0.103010977356153 AGCACCTTCCGCACAAGGCAACAAATAACCGGTATCGAGG
1 AACCAGATGTACAACTGGGGCACAGCAATGCCCAGGCACA
0.2035823130872637 GTGCTACCAGTTCCACGAGTTCTATCGAACGCGCATGCAA
0.8276951118519389 CCGACAGGATATACCAGTAAGCCATTAACGCACGAACGCC
0.133333868820866 AACCGGTTTAGACGTACCATACTATGACAACAAAATACGA
1 ATACCAGTCCTACGACATCCCTGCAGGCGAGATAGCTTGA
0.2636304449440574 TAATCGAACCCCCCCAGTCGACGTGAAAAACCAGCCTGGA
0.5821562103713079 ACTGACCCTCAATCAGTGCCCGGTTACCAACCCGTTCAAC
1 AACCTGTTTACCGACCTCCGCGCCTCCAATCTGCACAAGA
0.06893580719258165 AACCGGTTTTAGCTATTAACTCTACATTGTCTAGACTACT
0.5025899233036064 CTATCCTGCCCTGCGGCCCAGGAAACTCGTTGATCCAAGC
1 AACCGGTCCTCGCACCGGCGTGCCCCCCAATCCACACAGA
1 AACCTGAACTACTACTAACTTAATACACGCACCATCACAT
1 TGCATCTCCCCACGGTACCAGTGGTCCGTCCTCCGCTGCC
1 AACCCGTCTTACAACTTCACAAGAAGAGGCTACCTACATA
0.08672497267000805 CGTCATCGCACAGACCCACTATACCTGTTCCTTCCGCACA
1 AACTTGACAAGCAAGAAAAATCCAAACCTACATAACGTCC
1 CACCGCAACTAAAAGCCTCCTTACCCGTTTCACCAATTGC
1 GACTGGTTTATCGGCAAAGACATGATCCAAATTGGGTGAA
1 AATTTATGCATGCGCATTCAACATAAGCCAGATCGCAATA
1 GTCCGGTCCCCAATCCCGTCCAGCGGCAACAAGACCCACT
1 GACAGGTTCCACATCACCAGGGCTCGTTGAGGCATTGTGA
0.04259067762440933 CCAGCAACTCGACGAACCGGCGGTACCGCCGTAAGCACAC
1 ACAACAGAGTCGCACAGCCTGCTCGCCCACTCTTTACATG
0.205688981184964 AACCGGACCGACCACACACGCTAATTGCGGATCGCTGTGA
0.4477975072594602 AAAACCGGAATTCATACAGGAAACACCACAACACCTTTAC
1 AAACCGGATTCTATACTACAATGCGACTCTAGTAACACAA
0.9415231322530099 TAACACTCCACCCACCAGACCAGACCGACCACGTTACGAA
1 CACAGGGCACGTTCGAACCAAAACATCTTGTTTGACTGAG
0.0244389964994387 ACAATACCCAAAACTCGACCCACCAGTTTAGCCAATAGCA
1 CCAACCTACAATACCAGATTCACCACATCTCCCCAACACA
1 GCTCAGCCCCTCCCTACCCATACCCCGACCTAGAACCGGT
0.4718115763619111 AATCATGCAACAACATACTCGCATATCCGGATTTGTCACT
1 CAGCGAACTGAACTAACCACCACCCACCCCTCCTGCCAGG
0.8546772414368653 TCTGTTCACTAACAGACAACCGGCTACACGAGTACTGACC
0.01383761165644635 CTGAACTCGCATGGTTATGTACAGAACTCGTTAGACAAGC
1 AACCTGAAACGCAGGACATCCACAACATCTCCCGCATAAC
0.1215364848839774 AACTCGTTTTTCCGGCCACGTGTATACGTGACATGGTTTT
0.51988090300805 ACCCAGCAAAAAACTGGCTAAACTCACCGCGCAAGTAGCA
0.3312929527351396 GAGAATCATAAGTAAACTAACCCAACGAGTTTCCGTACTA
1 ATCGAGCTCAACAACTAACCTCTGAACTAACCCTGCAACA
0.1944388646328888 AACCGGTATAGCCGATCGTAACGGGGCCGTGCGGCTCGTC
1 CAGCCCGATACACCAGTTTGAGCTATAAAGCAGCTGCCCC
0.811378589696236 CGTTATAGGTTACATAAACCAATACCTGCTGATCCTGTTT
0.5821341081701795 CCACGCCATGACTAGCAAAACGTGAAAAACCACTAACGAT
0.7923163208552971 AAGCGAAAGAACTGGTCCGTTTACTATGCCCGATGCTTAC
1 CGAGAAGTTGCATGCCAACCCACCCTACTGCCTTCCGGCG
1 AACAGGCATTTCCACGCTGCCTGTTAAAGTAGGGCACCGT
1 AACCAACTCTATACGCACACTTACTCCTACCAAGAAAAAC
0.1772988014735354 AAGTAGTCCTCATCATACACCACAAACAGGCAAGACCGGT
0.510040814407829 ACGGACCACTTAGGCCGCATCGCATCCAAACCCGCTAAAC
0.8798132441210132 AACCAGCGGAACACGTATGACTGCCCTGACCGAGGACGTA
0.7149846692979532 ATAAATACAGACTAACCAGACCAACCGCATCAATGGAAAG
0.873570296769706 GACCGGTAAATCAACTCCAAAACAGCACGTACATGCAGAA
0.2570258231534536 CCGCGCAGACCCGCCCTTAAAACACAACAAACCGGACGGG
1 CAAATCATTGACCGCGCACCTCGTCCAACCCGAACTTCAA
0.8779437775517827 AACCGGTCTTCCCACTTAACATCACACTGATGCCACAATA
0.6815017302455948 CAATAACAAAAACGAGATTTGCAACTTCCGTGGTCATACA
1 ATCCGGTCAAACGACGAAGCGTGATTCACATGGCGTTATA
0.7927744887135401 CCTCACGTCATAACCTACCCGCTTACCCAGTACAACCGGA
1 TGGCACGGAACGCGCAGCAAGATTAACTAGTTACCGCCCA
1 TAGCCGGTACATCACTCAAGACCGCAAGAACCGGGGAAAC
0.6080518763092602 ATGCCACGGCGGGAATATCCAGTAAGACCACTAAGCTTCA
1 CATAATACGACGTGATTCAATTCTAGATAAGCAGGTTATA
1 AACTTGAATTGTGTTTTTAAGCCACGCCAACACTCCCTCG
1 ATCCGGAACGTGTCTCACCACCCTAAAGTGAGTTGTCTAA
0.5411529649418702 CGGAATGCCTAAAAAAAAGACAAGTTAAACTAGTTCGCCA
0.6004118225556799 AACAGGTTCAACTAGTAGGTGGCATAGATTTAGTCGTCAG
1 ACACACGCATAAGCGCATTGCGCGCGAAAGCACACCAAAC
1 AACAGGTTAGCCATGTAGCCCATCCACAGACACCCTTACA
0.536666738232135 CCCTCAAAAAGCAGCTCAACTGGTACCGCAACTACAGTGT
0.5994466738110648 AGCAGAGCAATAACGCGTCTCGACAGACTGGTAAATACCT
0.2132889018633049 TCCTCACCTTTGCCACCCTAAACAAGTTGGGTCACCAAAC
0.375371588892064 CCCTACAAACACGCTCCTAACAACAAATAACTCGTCAAAC
0.2404136418979857 TCACGAAGCAAGATACCCATATAACCGGTGATTCTGTACG
0.3559683222712717 CAAGTCCCCTAGTGCACACTGCACACTAAAACCAGTCAAA
1 AACCGGTTTCAGTCTCCAACCAACGTCAATTCAGCAATCA
0.1014255238208391 CCGGCGATTAAATCCAGTACAACAGGTTGACGGCGCCGCC
0.461891397966874 GAGGTAACGCGTAACTAACTGACCTGACCGGCCTGCGAAG
1 GCCACAACAAAACACGAACAACAATTTCACGCTTACCCGC
0.6741557074251489 GATACCAACCAAACCAATCTCAACCTGCCAGTAAAACCGA
0.318206413935313 ACAGCCTTCAGCGCGACGTATACTCACTAAACTCGTTGCA
0.5690928198900127 AACCAGAAATACAAGCTTTCGCGGCAGCCATCGCAGCTCA
0.8169358641522333 AAAGACATACAAAACCGGGCCAGCTTGTAGACCCACCGCA
1 GTCCTCTGCCCCGCGACCACGTGCCTATGCCTCAACTAAC
0.2214965326087736 TAAACTCACCCAACCAGTACCGAATCATACATCGGATAAA
0.08460694240339883 ACCGTGTCAACCAAATAGAACCAGTTGCGCCAAGCACTTG
1 GACTCCACACCATTGAACACCAAATCACTTCGGACACGGA
0.2323724692532396 CTGTTAAACTAGATGAACGAGTCACAGTCACGCACCCGCT
1 TTAGGTCCCAATCCACCATCAAACCCACTGGACCTGTCCG
0.804519283778196 CCAACCACATTACCCGTCCATCCGCTTTAGTCAAGCCTAC
1 CCCCAAATTCCCGAAAATTAAACTGGCCTAGCCAGTTTTA
0.2471604962137036 ATCCCGTTAGCCTCACCAAACTAGAAATGCAACATTCCAT
0.1047055396162897 ACAAAGCTGTTACACTAGAATGAAACAGGTACTTGCACTT
0.1400967278192028 ATAACCAATGAAACAGGAAAAACATCGATGAACCACATTT
1 GATACAAACTCGTCGGGCGAGAATGAGGACAACTCATGCA
0.7792626675002313 ATGGCACAACTATAACTGGCTAAACAACAAACAACGGGAA
0.9911592411826291 TAACAACTGTACCCTGGATATACGGGTCTGTCAACATTAA
0.3156799992806255 GTGCAATGAGTGGTGAAACCTGACTAACACCATAGCAGTC
0.5252448845383224 ACACCTGCCCAACCGTCCTGAACCGACTCACTAGTAGAAC
0.780754194514675 CAGCCAAACGATAGGAACTAGAGCAGTTCGACGAGTCCCA
0.314942231401956 ATCCGGTTCAGCGGGATAACTTACGATAGGATCACAATTA
0.6555373548578823 AACTTGAGTTGCCTGTTCGACAGCATATGCGATAAACTCC
0.1346054463919884 GGCCGGTTTTACCGCTCAGGCAACTCCGTACGCGGACCCC
0.09752182068544984 ATCTCGCTCACATTCGTGGAGAATCAAGTTTTACCACTTC
0.4439402849134502 CGTCTAACGAGTTCTCCGACCAAAAACGACAGTGCCTGGC
0.0634616486695265 CGTACTGCCCCGACCGGTCGTGCAATGCTAACGTTGGAGA
1 AACCGGAAACCCCAAAAGATACACGACCAGAAAACAACAT
1 ACCCGAAACAAGTCAACCCGGCATTTCCCGAACCCCGAAA
0.5734390919722756 CATGAAGTCACCAATCCTGTTTGCACTCCCTACATTACGT
0.54044462326481 CAGGAGGGTGAGCTACCTTATCAGACCAGTCCTCCTGCCT
0.09561290115733607 CATTAGCTGCTGAACCAGATGATCAACAATCTCATATACA
0.5804327417207087 GCCAGACCACACATCACCGAAACCTGTCAGACAACCATAC
1 GCGGAAGCCATCAGTCCTTGACAGATCAAACTAGCTAAAC
1 AACCGGAAGATCCGCACCGAAGATATACACACGCACTCCA
0.9982014132413842 CGCAACATGTACATCTCGTTCTACGGCACGCTAAAGCCAG
1 CTACATTATGACAAGAAACTTGATGTATGGGCCTTCCTAC
1 AACCAGAAAACGGGATTCGCAACCTCTACAGAACCACCTC
0.3220129666168816 AAAACGAGTCCAACAAGATCCACTCTACCATGCGAAATAT
1 CAGATAATTCCGGTTATAAACATTCGTCCTTCGCAAAAAC
0.1191569576021789 AACCAGTTCAGCCAGCTTTTAAAGACATTGTAGCACCTGA
1 AACCAGCTCAGCAACACTACGAAGATTGCTGCTTCTAGCA
0.04148834704205689 AACGACGACCCGTGCCTACCCAAACGGGTTACCACCATAA
0.606864616486357 CAGTTAAACTAGTAAAACTGCCAGCAAATCAACAACACCA
0.07046776958745929 ACGACTCCTCAGAACGTGTTTTGCAACAAATGCTCCCCTA
1 ACCGGTTCAACAAGGCCGCCGCACTCACGTGCACGGGCAG
1 AACCCGTTGCACAAGTATGCCCTCACACCATTGACGCAAT
1 CTGCCCCAAGATAGTTCCCACCAAACCTGTAGGCCCGCGA
0.9423866305679577 TCAGCCTCGCCGACTCCCCTAGCACATTGCCCGACCGGAT
0.08923180180715967 ATCAAAACCAGTTATCTCAACGAAGCCCCCCGCATCTACG
1 CTCTCACTTGCGTTCGGGAAACACACAAGACTCGTATTTC
0.9379281844857491 AACCGGATACGCTTGTCCACCTTGCGCTCTATCACCACAG
0.2641655782140988 CGCCCCCCACCGGTCACACCGGTACACACCCACACGGATA
0.8590345072224109 GTCTTAATGAGAACGCTAATTAATACAGATATAACCGGTT
1 ACAGCAGTAGTACACCACCACTCCGACCCGCTAAACTTGT
1 ACGTCGCCCTCGATATACACAAAACTTGTCCCACACCAAC
1 ACGTTTTTCAGGTCGCGCTACTTTTCACTTTTGTCGCAAC
0.7654027671187263 ATATGTCGTTGCGCGTTTGACGAGTCAACGAGCTGACCTG
0.6640814526019624 AACCGGAACACCCAGCGGCACTGCATGGACAAACCACTAA
0.12292865095479 AATCCGGTATAACCACTCATACATGTACCATGTCCACGCA
0.8891681903522165 GTGACAAGCATAAGTGATATTACTAGTCCGGCAACATCGT
1 AACCGCATAGAAGTATGCAAACTGGACACACAACATGGAC
1 ATCCGGTCTAGCCAGCCTGTACGATAACCACAACCCGACA
0.01086049566315361 GACCGGTTACCCAACATGCTATGCGACTGCAGCCACAAAA
1 TCCCAGTAAGCTAAGATGAACCCACCATTCCTGCTTAGCC
0.2413919255343991 ATAATTGCCACGCAACCAGTATTATTACAAGTACCCGCCA
1 GACAGGCCCCACCGGATTCCATATGATCCGCCTTTCGGTA
1 TCAACTACGCCTCACACAAACTCACCTCATCCAACAAGTT
1 ATCTCGACCAGTATAGCGTTCCACCCGTACACTAATACCT
1 AACCAGTATCTATGGTACGCGACAGACACAGAACTGGATG
0.6589517286925952 CCCACGGCCAAGCACCCTAAAGCGGCCAAACCCGTATTGG
1 GAACTAGGAGACCTTCAGCGTCGACCGGCTATACAACTGA
0.2407380122496195 GAAGTCACGCTATACACCTATATACCAGTCCAACCACTAT
1 AACCTGCCACGCAACTCGCCATCCACTGCTCACGCGCGCC
0.06229457776217345 AACGAGAAAAGTAGACACAGGTAGTAAAACCTGCCCCCTG
0.6006762856292872 GAAGAAACCAGAATAACATATTACACCTCATCCTTGATTG
1 ATGATTTAACACAAAACAAGTAATACGACATTCACCCTAC
0.3989654635163617 GTTATCACCCTGGCGTCGCGACCGGAAAAACAACACTTCA
1 CTACCCACCATACCGGCCTTGCGACTAAGACTATTCAGCC
1 CACGTGCCATCAGAAACAACATTCTCATATAACCAGTACA
0.4494863301346083 TACCGGTAATGCAGCAACCCCGAGTTATTGCGACACCTGC
0.1918454243471218 ACAAAGTGACTCGAACACTGACAAGACAATCCAGTTTAGC
1 TACAACATTGCAGTCGACCTGAATGAGTCGACTGACCGGT
0.5869815609439727 ATCAAAACGGCTCCAATCCGCTAGAACTGGTAACGCCGGC
0.1122999094845879 CACCAGACCGAGCAACCCGCAACCAGCAAAACCTGACAAA
0.5165343476457155 AATGTTGAACAGTTCCCTTAACTAAACTGGACCGTCCTGT
1 TGACAAATCTCATCCTGCCGGTTAGTGCGTCGTATTACTC
0.154620447386316 AACCAGTCTTTCTAGAACTAGACAACACGCACCCAACGCG
1 ATCCGGTACACCCAGTCACCACACCGAACGGCACGCGGGC
0.7973830028203027 CAAGCTAAATACATCTGTAACGCAAAACCAGTAAGCCAGA
0.9849023520898176 AACACACCCAATCGAGTAAGACAAGGTTAACAACTTCCGC
1 CGACTAAAAACCCACTCCACCAGTTCTAGTCAGCACCATA
1 TGGATTCGCACGTACAGCTACACCGAGCTATCGTACCATA
1 CTGCTTTACAAAAGAGTGGTCATATGTTAACTGCCCCAAC
0.3790228087220596 ATCACAAACGCTAGTAATAGTAGTTAAACTTGCTTATCCA
1 TACCGGTTGGCACACCTGCATCAAAATCCATGCATTGCCG
0.6849047000254064 GACCGGAATGTCAAGCTTAGCAAGGGATCCATCCCTACCA
1 GCCAAGCACCCACTGAACCAGCTCTTCGACCTTTGGTGCA
0.2168682232911958 GAAAAACCTGCTGAGCAAGCCTAGCCCATCACCTTTAAGG
0.2261003882641644 GCCGCCAGGCCACCCGTACCCGTACGACTGGTCCCGCAGC
1 GACCCACACTCCACACCACCACCCCAATGATCACGCAACA
1 ACACAATCCGGCGTGCCCAGTGCCAACATACCAGACTAAC
0.4776183531643453 CACAAACACGAACTGGAGAAACACGTCCACGTACTTGGAC
1 GACCTGAACCGCATCGCCCGAACGTGCGCATCAAGACAAT
0.1147178967826823 AGCACCACAACTGCCAATGAACAAGCTGAACAGGTCGCAC
1 TAGACTACGCTGACCCAGATACTAGACGATGCAAACCGGA
1 AACCGGTTCACCCCCAAATTTTAAGCCTAGCATCTGGAGT
1 CACCAGTATGTCAGACCTGGGGACAACGAACGCTAGCATG
1 CCAACACTGTCACCATCGTCATCTGATAAACGGGTCAAAC
0.1646293958242902 CGTCCACCAACGCTAACGAACGTTGTTAAGCAGGAATAAC
1 CAACAAACCAGCCCTCCTACCCAACATTCAGCGTTCCAAC
0.3371572479316164 TGTTCCTCCGGTTCCGGCAGACACACAAGGCAGTTACTTT
1 GTATACAATCCTAACGCACCACACGCGATCAGAACAGGTT
0.7573413474476479 CCCAAACCCCAAGACGATGAAACCACCCAAACCGGCCCAA
0.3247644292261489 AACCTGTCTGACGAGTACCACCGCGCGAAAGGTCATTCGG
1 AATCTAACCTAACAAGATCTGCCACATTCTTTTGGACAAC
0.6720357039978411 CAAACTAACAGGTATTGCAACGATTTTGACCCAATACGAC
0.8039904003422003 CGGACCTTGCCTAACAGGCACGGCAACTCATATCGGTTAA
1 CCACCAACCGCCTATTCCACAATACACCGGTAAGGCAAGT
1 CTCAATGTAACTGCAATGGTACCCCACCCATCTGGCTCCG
0.732444790191803 CCGAAGTATACTGGAAGAACTGGATCTGGCGCCAGTCCTA
0.2683318777656962 AAGAAGCGAACCGACCAGACGGACCACTCTACTCCAGACT
0.9532589424729055 CTGCCGTAATCCATCGTGTGATCATTCCCGCTGAACCGGC
1 AGGCCTGATACAGGAGAACCCGAGTACAATGTCGTTAGAC
0.3571346052148527 AGCCCACCCAACAAGTCCAACAACCTATTTGCCGCTCCAA
1 GTCAAGTAATGTGAGTCTAACAAACCAGCACCCTCCCCCA
0.06022391469060697 AACTACCAACACGGATGACCCGTGCAACCAGAATTACCAC
0.5042151120723143 AACCGGTAATACACGATTGGCCTTTAACTTTGCACATACT
0.5053030967444565 CGTGCATGGGCATAACATCCGGCTAGACAAGAAAATCCAT
0.01143416315583002 ACAAGATCCAGTTCGACAACTCCTATCACGTGACTGCATG
1 AATAAATACGCAAAACGCGATTAACAAGACATGCACTGTA
0.3481539689356102 CTCCCAAACCATGACAGCAGAACCAACCAGATCGACGACA
0.7794889382846996 GCTTACTGAACTACCGGAAGCCGAGACCGCCCTAACAGGT
1 AACCAGACTAGTACGAGTTGCGCACCTCTGGATGACAACC
1 TAGCTCGACCGGCGGGACAACCCTCCAAACCCTGCCTCCA
1 ACTACCAGCACGGCGAACATACGCAACCAAGGGCACCTTA
1 AACCAGTTGTGCATGTCATAAGCTACTAGGGCGCGCTACG
0.8407770098619621 ATAGCTACACCACGGAGGCATGGTCCCTCGGAAAACCAGT
0.1163843102804071 GTGCTATACTAAGATTTACCGGTACAACCACTACGCCGAA
0.3664637884808135 ACCGGTATAACAACACATACTTGCCGAATCGGAGCACGTG
0.7506227833210638 CCCCATCTCATGCGCCCCAACACTACTGGTTCCCCCAGTT
1 GACCGGTCGTGCATCCGCACCACCAAGCACGCGCCGCCCG
0.5549341057015843 ACACCCACGACAACGCGGTCGAACACGTCTAAGGAACCGG
1 GGTGTTTAGACAATCGTTAATGAGGATAAGCCCGCTCGAC
0.07146226556656336 GGAACACTGTCTATATTATACCTGTTGAACCCGCTCGAAC
0.4537861759391019 CTGGTCAGCCTCCGAAAACAAGTTACGCTTCTAATACGTG
1 AGACCCCCGTGCTCACTTACGTCTTGGAGAACAGGCTCAA
1 GTTAAACGTAATAATCCCGTTCAACGACAAACTACCGCCC
1 GACCAGTCATGCAACATACAACGCATCTATCAGAGCAATT
1 AAGTGCAAGGATAACCAAAGAAACCCATAACCAGCATAAC
1 CGCTTATTGACATTCAGGACCGGGTAGATATGATACGTAT
0.03795812126918502 GACCACTCTTACAATAACCTGTTCACAACTCCAGTGGCGA
1 GACCAGTCTGACGGCCGTACATACACAATGACCACCCCAC
1 GCCGACACCCGGACGTCAGCATGCGTGCAGCCCGTCAAAC
0.5821874246814472 TGATCCAACCTAGCTGGTTTTCCACGCTACCAACATCCCA
1 CCCTCAAGCCCAATAAACATGCTAAACTGCTTTGAGGCCA
1 CCTACAATGCCCCCCCCTGGATCCTGTAAAGCGTGTTTAA
0.03659506242898451 ACAGCCGGAAACCACGTCGACCTGAAATACAGGGAACCTT
0.6814685421941225 TAACACATCCTATCACACCCGAATAACAAGAAAAACGTGA
0.2058959481055522 GTAACCGGTCCGTTCACTCCTAAAACATACCACCACACCA
1 AACCTGATTGACCACCCAAACCCAAAACCGAAATTTGCAA
1 ATACGTTATCCAACACCGTTATACTCGCTTTGCAGCTTAG
1 AATCCTGCATGCGTGGATCTGGCAGTACCTGTCTCCTAGC
0.9005494746817702 TACCGGTCTAACGAAAACATCCCCCCAGAACCTAGCAAGG
0.2154677156416483 CCCACGCGCAGAGGAAGAAACCGGCATAGCAACCTACCCG
0.04477613077207495 CCTTGAGGCAATAACATGAATAACAGGCTGCACCACTTGA
0.929892184373867 TACCACACAAAACTAGCCGCTCAACCTGCATGATACTCGA
1 ACAGGAAGGCAACCGTAACCCGAAGAACCGCAATATCAGG
0.2194274516893124 CACACCGGACAAACACGAAATACAATGGACGCAGAACACA
0.3084929633425453 TAGGGGTATAACCCGCTAAACAAGTCGCCCCAGGGTGCCT
0.4257382501126525 TCCACGGTGTAGAGGTTCATCCGGAAACACAACTATCTGC
1 AGCCGGTTAACCCTCGCAGGCATCCACGGACCACTACCGA
1 CCCGGCACACTGACCACTGGATCAAGTCCCGTCCGGTCGA
0.5795776218319264 AGCATGAAAACCTCGTCCAACCTGCGCGCTACTAGCCTCA
0.1879525877301921 AACCGGTTAGTCTCATCGCCCACGCAGACCCATAGAGAGA
0.1567058012146215 AGGTGACAAAAAATGGACAGCGGAACCTGCTTAACCACCC
0.1714720164463019 TCCGGAAAGTCACCGAACCAGGTGCACCGGCAGCACCTAG
0.1654168809980054 TCATAAACCCTGACCGCTCCAACCTGATATTCCTTTATTA
0.1894691776523645 AAGCAAGAACTCACCTGCGTGCACAACGGGTTAACCAACT
1 AAAAGCGACCTAACCCGCCCTGCAAGTAGAACGCCCCAGC
0.5993460981008426 TATTAGCGGGAAAAGCAGGCTCATCAAGATCATATTCCTG
0.7871053980929916 AGCATCATTAATACCAATTTAACGCGACCAACCGGAAATA
1 ACGCCACACCCTGTATAACAACTCTTGCAAGTTAATGTAT
0.1021003425722395 CTAGCCCGGTCCAACAACTTTGACTGCAACATCCCATCAA
1 GACCCGCCTATCAACTATATCATGCCCCCAGGCCTTGTCA
0.120999140582034 AAAGGACAATAAGTGACCGTCTCCGACCGGTGTAACCTGC
1 GCCCAAACCTAGATCCCACGAAACAAGCCGCACCGGTTCC
0.8874364884801803 GAAACAGGTCAGGTCACTCGTCAACACCTAGCCATCACTG
0.5986932932973331 AAACCGGTCTGCGCACTCCACCACACCAAGTCCAAGGATA
0.4768559270418815 GGCGAATAACCAGAACAACCAGAACAGTCCAAACGGTCAG
0.7590807848566899 GCCCGCGCACATGAACTCGTAATACAACAGCAAAATCCAC
0.6828421903790067 TCGAAGGTGCCGAGAAACGCCAAAGTTAACCAACCGGTTA
1 AACGACTTCCCTGATCGTGACTCGTCCTGCGCGCTGCCAA
0.8267271797257554 CAATACCTGATGATCTGGTCAGATCTCGACACATTCGTGT
0.6786394696608922 CCGTTCTGTGGGTTGCCCACAACCTAACACAACCTGTTAG
0.5310627506169979 GCCCCGTCCAACCGGCATACTACGCACCGAGCGTAGTGCC
1 CGGACTGTCGGAATTAATTCAAGCAGAACATGATTCATGG
1 CACTCAACAAACAAGTGGCGCGTGTTCTGATTACGCCACC
1 AAGCCGGAACCCCTACAATAAGATAACCAACCACCTAAAA
0.02241992784553743 GACAACATTAAGATACTGGTTTCCCGTAGAACTGCCTACA
1 AACAAGTTAAACCAAAAAGAAACTTACTTTGTTACCAAGA
0.6195984308466879 CGTGCACACCTGTCCAACTGGAACCTACGTTCACCTCGCT
1 ACCGATCGCAACGTACCCGCAATACCAGCCCAACCACACT
0.4334141221834218 AACCGGTCCACAAACGTGAATGCGTTGTTCCAAGTACGGA
1 GACGCACGTACCCGACAGGAACCCACCCCGATGAACTGGT
0.8944106277591338 AACCACTCTGCAGGAAGCCGGGCGAACCCGTCTACGCTTA
0.7099288965966698 TCCATTCGCGGCAAGGGCACCAGAACCAGACAGACCAGAT
1 GGCGCCTATACTCGCCTAACGAGCACTACCATACCCTCAA
0.2112872668609585 ACCCAATTATCAAACAACCCTGTCAAACCGGAGTCACCAC
1 AACCTGCCTGTCTAGCCCTCTGCGACCCCCTAATTTCCAT
1 GGGACACGTGAAACAACACGAAAATCCGGTAGCCAACCAG
0.4424533812201966 CGCTAACCAACGTGACCCGTATAACCACCGAGAGGCTCCC
0.7364719262051506 TAACCACACCTAGATGTGGAACCTGATTTGCGCGATACGC
0.05450131780848974 AACCAGTTTCCCACCGTTAAGCCCACACAACAGGTGCGGG
0.4134939987059386 CATCGCCAACCCGAAACAAGCATTACAGGTTCACGATCTT
1 CCCTCCCACTACACCTACCCACGACCACCCACTTATCATA
0.7193997918279305 CAAAGAAGAAACCAGACATACACGTAAGCCCACATTATAT
0.1651790580326114 AACAGGACTGCGCCAAAAAGAGGACCGACCAGTTATGGTA
0.9703860785686866 AACAAGTTGAGCCACTCAGCATACGTGCAGGACCACCGCG
1 AACTGGTCCTACGTACGTACCCCATGTGTGCACCGTAAGT
1 AAGCAGCAACAAGCTTCATAACAAACTTAACATGTTCCAC
0.4887591115056422 ACAGAACTCACTTAACCTGCTCGGCTAATGGTACCACGCA
0.0229428914419086 AACCGGTTTACCCCTACACTAAGGCTAACCTCTACCAGAT
1 AACCTGCTGGACAACTCAATGCCACACTCTGATCCTCCAG
0.6376391472153334 ATCCCTCAACACAAACCGCATTAACCGGACGTTTGACGCG
1 ACATAACGCTTATTACAAAAAGTAGAACAACAACAAATAC
0.4106151818264781 AGTGCGGCCAGGCTGTGCAGCATAATCCAGCTGAACAAGT
1 TGCAGCAAGATACGTAAAAACTCAACAAACCAGTGTGCCC
0.06825944159609099 GACCGGTTCCGCCCGCCCCGCACGCACCTCCACCCACCCG
1 GACCAGTTCAGCAGAACCGATATTCAGTGCTAGACACTTG
1 AACCAGTTCACCTACATTGGACAAGACGCGAGCCGCGGGA
0.7948630637019071 AACCAGTCCTGCACGTCCGAGGCTAACGTGACGCAGTCTC
0.5181223918937236 AACCACCTCACGTGCGTAATCCCCAACCCGTCAAGCAACC
1 ACAGATGAAACCCAGAACCACCGCAACCTGACGCACCGGT
0.6543179304364016 ACGACCACCTCACGCCTCGTTGCGAACAAGCCAGACCGGT
1 GCCATTATCGTCCCCCACCTTCGTACGAGTGATACCACCC
0.2844645683695783 CCCGACCACAGAACCGGCTTTGTCGTGATTGTGACGGCCA
0.3018775973751792 GCCTTAACTGACGCAACAGGTTCCAATCTACCGCTACTAC
1 GACTAGTTTAACAAGCCCACCAGACTTTACACACCAGAGT
0.5983045350323496 AACCGGATTGGCGGGTGCAAGCCATGTACGCAGATGACAG
1 TTATAACCGGCCGAGCAGCTCATTGATCCCCCCTATATCC
1 TCGTACCAGTAAGATCCATGCTGAATATTCATCCCGCGCA
0.2323302859454798 TAATGACATCAGCCCAAACTCACCCGACAAGAATAACCAC
0.4618417161211199 AAATACTCAAATCAACATGCCCAACCTGCCTGACCACTTC
0.6837661726058061 GCAATACCACAAAAGCAGCTTAGCAGGCTAGACTAGACTA
1 CCCCGATTTTTATCCGCCACCCGTCGACCGTTACATATAC
0.7102280275139568 GACCGGCCGCTCTTCCAATACGAACCGGCTCGTAGCAATG
0.4123900214448297 TCCACCACGTAAATCAGGTTTAAGCCAAACCCCAAAGTTG
0.2606918662689807 CAACCGGTTAACACCTACCGCATGTCCACACTCACGAAAC
0.6718691667793416 AACCCGTTCCGACCCTCACCCCACTAGCGAAGCAGTCCAC
1 AACCGGTCCATACAACAGCAAAAGGGGCCAGAAGATCACG
0.8250829112534493 CAAACAGGTTTAAACTAAAAATCCGAGACAGAACGCAACA
0.2961685379300176 CCTGCATAACGGGACCAACGTGTTACCCATTTATCCATAA
0.1362961969063423 AACCGGACAAACAACAACACCATTCCAACGCACCCCAACT
1 ATACCAGCACGACAAGTAATAGCACTAAGTAACGCGCGAC
0.9866105394820293 CCGCACTCCACGTACGATGTCCGAAACACGCTCAACCGGC
0.5665317022131263 AACCGGTTACGACACAGTAAGTAGCCGAGACGCATCACCG
0.09425606076847927 GAACCTGCGCAACAGGACAAACAACATCGTAATCCCCAGG
1 GGTATTCCGATCCCCGATAGACCGGCCTTTGTGCCCATGC
0.7503894520603168 AACCAGCCCGTCCACCAGTCTGCCAAGCACACCAGACACA
1 TGAAGTTCCGACTAACTAACCCACAGACATCGCAGTCTGA
0.007318212673803564 AACCAGTTCTACCGCCCAAAGCTGACGGCCACGACACCGT
1 TCGAAGACGTCTCTTCCCAAATGTTACCAAACTAGTTAGA
0.1264525949871605 AACCGGTCCACCCGCTGAGAACGCTGGTACCTCCGTGGCG
0.6138137818321262 TGTATTAGCACGTACATGATCATAAATTGCACAACCGGTC
1 ATGTTGAACAGCAATACTTCGAGCTATACACAGTCACACG
1 ACAACCTCCCCAGCCCAGAACAATGGCAAACTCCCCAAAC
1 AACCGGTTGATACAGCTCCGCTGATCCGCTCGCTGTTATC
1 ACGAACACGAAATACAGGCTTAAATTACGAAACACCAAAA
1 ACCCCGTATATCACGTTTGGCATCACAACACAAACCAATG
0.5691972323402353 CCCCACCTATCCCCACCTACAGTACCTGTAAAACCACTAC
1 CTTAAACTGTTCAACGCGCAAACCGCGTCATATAACAGGA
0.8212440813788749 ACACGTAGCTTCAAAACAAGCTAAGCAGGTCAAATAGTCT
1 TTTACAGTTCCCCTCCGAAGACCTGAAAAACGACCCACAC
1 GGGCAACTACAACATGACCATAAACCAGAAAGGTAGCTTA
1 AACCGCTCCGACAAGGTACAATACGGCTCGCCACTACACA
1 AACAAGACGGACCAGATATCACTAACCGATACCCAGCGGC
0.1286474417927071 AACCAAACACGACACACAACTTGACGCACAGGTCTGACAA
1 GACCGGATGCTTAACCGCTACCCCAACAAAAGCCGTTTCC
1 AACCGGACACCCCACTTTCAGTCCAACATAAAGGCAACAC
0.001168737774116984 GCACCCAACTAAACCAACCGGCATAACGTCTTTACTGACC
1 ATCCCCCACGCCACCCACCCCGACACCCCCCGCCGCAACG
1 AACCAGATCGCGTCACGACTTCTTCTACTCACTAATCCAC
0.2771456409927859 ACGAAGGAAATCAAAAACAGGATCTACCTGATCATTGGCA
1 TACGCGGTCAGGCCTGCTAGGTTGGATTCGTGAGTATATC
1 AACAACTTTTACATAAACAGTGGGGATTCCTGTCGAAATC
0.3563837218842235 TCGCCAAACTAGTCCGCCCACCTTTCCGAGCTGCGCTTGT
0.7166179543484711 CTCAACAACATAATCCATCAACAATAGTTGAACAACCGGT
0.7926572920794827 AACCAGCCAGACCGCTTCATCCGTAAAGCATGCACTCCTC
0.8998115335985046 TAGCAAACCTGTGCCACAACTGTACCAAACCATGACACCT
1 GCCTTCCGTGAGAAAAGTGGAAACAACATTTAAACCAGTT
0.1292349300149483 GAAAGCCACACTTCGACCACTCCAACCGGATATCCCGGCA
0.6369364968821913 GAAAACGCGTATATGGAAACCTGCCCAGACCCGTCACCTT
1 CAACTAACCTGCCTCCGATAACAACGCAGAGCAGTGAAAC
1 GACCTGTTAATCACCACCATGACACACACATAACTACCTA
0.2390996602415195 CGCGTAACCTAAGCCAAAACCCGTGGTACCAGTTCCTCCA
1 GATTGCGAGACCACCATAAGCACAACACAAGGAACCTGTT
0.8958448871955821 AACCGGTCCCGTAAGATAGCTGATCCGCGTGATGGCGCCC
1 AACAACTATAGGACAGGAAACACCAGACGTAACCCTCAAA
0.7560080604527042 TTGCTAAACTTGTATGGCCACATGTAGACTAAGATCAATC
1 AACACGTCACCCCGTATTATTCTACACAACAACAATTGAG
0.3434647372294887 TGCCCCAAGCCCACTATGGACTAACGAGGAAAACCTGTTC
1 TCCGTAACCACTGCAAACCGCTTCGACCTGTACCTATCCT
0.3237513592039314 GCCAAACGAAAAACCGGCACTACACGCTCCGCCCAAACTA
0.5562490834024216 CCCTTTACCTCACAACCATAATCCCGCTACACCGGTCTGC
1 AAGGCAAACCAAACCCGCAACCATGACAATGCACATACAT
1 AACAGGCCCGTCAAGTACGTCAGCCATGCCGCAATACGAC
0.6068417562169985 CCGCGCAACCTGATCCACCACATCTTACCCTGCCTCCACG
1 ACCCACACCGACATCATCCGACACAAGAAAACCAGCCTGT
0.3510357981241297 AACCGGCAGAACTAACAGCGTGATAAACAAGCACAAAAAC
0.349931927132052 TCCTAAAGCAATACCAACCAGTCTGGTGACGTTCCCCATT
1 AACCAGTTTAGACTCAAAGTACACTACTCCTTTAACTGAT
0.8348717237609423 CCTAAACGAAATGCTCACTATGCTTACTTGCAAAACCAGT
0.4759840614331354 ACACCAATTCTGGTTCGGCCAGAATGCGACGTGCTACACG
0.4614818771343947 ATCCTGTTCAACAACTATGGTATTGTGCAATGGCAATGTC
1 GTCCACGCGCATAACGCACCGAACTGGCCAGGCCAGTAAG
0.6280278358344678 CCAGCACACATCGACAATGCCGTTGTGCCGGTTGCACGTA
0.2648863247651406 AACAGGTCCAACAACACTGCCTAGCATATTGCCACACGGC
0.5336777591254294 ATCCGGACAGCGAGAAAACATGTTAATCCAGTGGCCCATT
0.1629680695176274 ACGACGCGAACCAACACTAGTCACTCCAATACCGGTCGAA
1 ACATAAAGCACACTCAACCCGTATTATGGCATAGGCTGGT
1 CATACACACACCCCACTCCTTGCCACACAGGTTCCCACTC
1 ACCACCTTACCCCAGCTGACAATCCACCCCGACTACCAGG
1 CAGCACACTGCGACGCCAGACTTCCCGAGCCCGTTTCCAC
0.5838497706084642 TCGCCAGACCAGATCTGGTAGTAGCTTTACCAGATCACAG
0.4505449582909943 CCGGCTACTCTCGCACGACCTGTCCCACTACTTCCCATAC
1 AGCTCGCTCATCGTCTCAACACCCGAAAAACCTCCCCAAC
1 ATATTGAGCAACAAGTACTTCTCGTTAAGTCGAACGCGCC
1 GTCCCAACTAGACCATCAAGTACGGCAAGCCGCGTTCCCG
1 ACCTAACAGGTGCACGAACCAGAACGCCGAGTATTCAAGG
0.1155465962320969 CCACCGGCGACAATTGCAAAACCGGGTCCTCCAGCCTAGT
1 ACATAAATGTGAAAAGCAAGAGAACGCAAACCGCTCCAAC
0.3631694499244729 ACAAGTACGGCATCAGCGAACAAACCGATATTACCGGATC
1 AAAGCAATCCCTTACAAATACTGATACAACCGGAAATCAC
1 GGGCGGATATGTATCGACAAAAGCGCACCGGAAAATCAAC
0.1539008359673606 CCAGAGCCCAACCACCCAAACCAGCATATCGTAGACCAAT
1 CACATCTCAACTTAAGCCAACCAAAGTTGTGAAGCCGGTT
1 AACCTGCAGAGCAAGTATCCATGGATTTCGTAAAAACGCC
0.757817622920344 AGCTGCCTAATCTCGACAAGGCGGTAAAACGAGCTCTCAT
1 CAACCTATGCTTGTACGGGAACGAGTCCCCCAAGTCTCAA
0.3542947169081845 TGCAGAACCAACTTAACCTGCGGTACCAGTTCCCGACCGA
0.4210939688472622 AACCGGTACACCGACTACGACTACACACGTTCCACGCATG
0.355459468048163 AGCTAAACGAAAACCAGTAATACTCGATTCCCCACATTAA
1 CGGAGATCTCAACTTCCCGCTCCGGGAAATGTCGCTTAAC
0.7134586162506336 GTTGCCCCACAATAAAAACTTGTTGCGCCGCTTCCGTGTA
0.03000040921075194 TCGACAAAGACCGCCCTTGTCAAACCAGCCCTAAAAAACA
0.2332846009501112 CATTCGAAGCCCCGCCCCGTACACTAAAAACCAGTTGCAC
1 AAACAACTAGCTGAATACGAAGAGTAGTATCTTGTGTAAC
1 AAAGTAATGACCCCAATCATCCAAACCAGCCAGACCACTC
1 AACTGGTTTATTACGTTCCCTTACACGACCCCCCGCGCGA
0.3046489685551776 ACTAACTTGTTTAATAACGGGCAAGTCAAGCGCGCCCGGA
0.02458380592779168 CGGCGCAGCAAACAGGAAATACAATAACTCGAGATAAATG
0.153374392859145 CCGCCGTCCGACATAGGTGCGCAACCTAAGGAACCGGTTC
1 TCCAACCCGCCCCCCCGATCCCCACCCCACCTGACCCGTT
0.8268758975074884 CAAAACCGAACAAACAAGCAATACAGGAATTATGCAAGTA
1 ACCAGTTATACAAGCCCTCCAAAACGATAGCACTTCTGGT
1 GGCACAAGAAAACCAAACTATCTGGTTTTAAAAACTAGCC
0.7958380670262097 AGCCGGAAAGACGAGCTAACGACCAAGCAACTAACCGCAA
1 CACACCGCCTGTGTTGACGTAAACCCGCTGGCCGACACAC
1 ACCCACAATGGACATGCTATTCTCGCGCATCCGGTCTATA
0.2214432897258248 GTTGTGAAACCGGCCTACCAACATTGAATCCTGGCGCTCA
1 GGTGACAGCCTTCCTCACCCATCCAGATATTCCACTTCGC
0.9206892267371922 ACGCACCAAACTCGCACCTCCAGTATAACAACCTTACCGA
0.6039674978198482 TACCTAACCAGTTACTACACATGCACTCCCATACTTTAGA
1 CGTCCCACACAAACGTAACAAACCCGAAACACAGGATTAC
0.3024309927557024 ATAGAGGCACCCTCTCGCGTCGAAAGCCGGCAGAACCGGT
0.860833826539949 CTACACTCGCCCGACCTGATTGCCGCCCATTACGCCAACA
0.5571271453384914 ATAGCAAATTGGACCCAAATAACCTGTAATACACCGTTAC
0.5038669968684213 AACCGGTCATGCAGGTGTACCCAGAACCCAGCACCGTCCA
1 AACTGAACGAACAGCTCATACCGACACGACGAGTCACCAC
0.2175567654326324 GAAAATACCGGCTTGACTGCATTGCGTGTCCAGGGCCCGT
0.5574209615278585 AGCTGCATTACCATAGACTGAACAAACCGGAGACGCAACT
1 ACGATGAACACAACCAGAAGGACGACATTCTCAGATTAGA
1 GGCTTAGCTCTGGTACCCCATGAAAGAGATAAAGCCGGTT
0.1435601346385532 CGGACAAGCTGGAAAAACGCGTATAAGCTTAGCAACAGAC
0.1015753627847613 CACCGGACGCGCAAGTACCAGCCCCCAACCCGTTATCTCC
0.6885311313805332 CATATTGTACCAAAACGAGTAAAACAACCTCAACAACTTA
1 AAAAAACAGCTCCCAATAGCCTCACATCACGCCATATAGA
0.7062042111698537 AACCAGTTCCGCAAACATGACCAATGCTCCCAGCACCATT
0.779152521134711 AACACGCAGCAAACGAGCAGAACCAGCAAAACTGTAACAA
0.5821345044078243 CGCACAGACGCGCACCCTCACGTCAAAACCAGTCTACCAA
0.5559630365836099 TAAAGGTTGCTCTCAACTTAACTAACAAGTTATTCATGAC
0.2130326479944806 AACAACACACCGAGCAGTCTTACCAGTCTTAAAGCTTGGC
1 AACGTGTTCCACCAGCTAATGGAATCTAGCGATAAACACT
1 AGCCATTGAGCCCTGAACACGTATTACTAGAATTTCAGCA
0.05951850105022906 TTCGCCATCAGAACCGGACGGCCCTTCCGCCCTTCCGGTA
0.7156630710216532 AGCAGGCGAACCAACCGGCCAAGCGACACAGCCCTTCCCA
1 ACCTGATTGACAAGATCAAACGAGTACACTAGCGCTAGCT
1 CTATACCCACTACCGGAGAAACAAGCTCAGTTACGAACAC
0.8863989839951485 ATACGTAAAGAGAACAGGAATGACGAACGTATCCGCAACC
0.5165929099960724 ACCAACCAACCCACAAAACGGGTCCCACAAGCTAGGAGAC
0.8845906532330691 CACAAACAAGATTGACCACTATCTTACGACCCCGTACCTA
1 GTACAAGTCTCCCCACACTATCGAAAGTACCGGAACAAGT
0.5268463907494862 ATACAAAACTGCCCTAACAAGTACGCCCATAATACGTATG
0.3170219429627281 GCTCTATGAGCCCTGCTCACATAACCTGATCTACATCCCA
0.8265570913535945 AGACGCCGATCCACCCAGTTTGACTGCTTTCTAGCGTACA
1 GTCACGAACTCATTTCTACCTTAACGGGTACAACAGGCTT
1 CGTTAACTTACACTATGGCGGCTCCGCCGGCAAGCCCAAC
0.09910132420835788 AGACGAACCAGAATAACAACACCACACCGCACACCGCATA
0.7797242807590266 ATAAGAACCAGTTGGATACATGGTAATGCTTTCATGAGCG
0.2838362346645289 ACAGGCAAGGCAGACTCGCTCTCCCGGTTTGCGATGTAAC
0.4968843460550872 ATCCGGTTAATCAACTGTCCTCGCAGGCCACGCACACACG
1 ATACCCCACCAGACCACACCAACACGAATCAGCTCCTGTG
0.03534739865288836 AAACCCGTTTCCACCTAATCGTAAACTCGCCAAATATCAC
0.5563124933990089 AACTGGTTACGCAACATTGCGCATCACTACAGACATGGAA
1 ATCAGAGACGCTGCAGCAACAAAGCTTTATAGCCCATATT
0.2329802611487623 CTACTTGCCCAACACGTTTCTTTAGCCTCTACCGACCCAA
0.01658322536226433 GGTGTCAAAAATCCATGCTTAAAAACCAGTCCGCCTAGTT
0.2409724767429174 GGCACAGAACAAGTTTGCCCACCCATTCCTACTCAAGCTG
0.8392463517747872 CGCGCGAGGCAGAAAAAACTAACCCATCCAGTTTAGTACC
0.1000011617543042 CGTTTAGTAAAGGCTATGTAGGCCGCAAAACGGGTCCGAC
0.961243236426632 GTACTTCACACAAAGCCAGCAAAGCGGTTGAGCAACTACC
0.1298713151814828 AGAACTGATACCGATACGAACTAATACAGGAACAACCGGT
1 GACAAGTCTCCATAAAACCTGCCTCGCAGCCTGCGCCATC
0.1038521876261496 AACCAGTTAAACCACTTCCATGCAACGAAGCAACATGCGC
1 CCAAACTGGGTTTTCAACTTATCGATGACGACTACTACTG
0.05288342820143379 AACCGGTCAAACCCGAGCACACCTCAGTGCCATACGGCCA
0.5091429376353993 CCCCGAAACCATCCCCTACACGACAAGTTAAACCGGCGCA
0.2157996437451803 AACCGGTCCAGCCATATTAGCTTATCACGCCCAACACTGA
0.474774843340064 ACCGGTTCGACTGACTTCGGCTGATCTTGACACCTTGCCA
1 AACCGGTGCGACGGCATGCACCTTGTCTTAGGGCAACCAA
1 GGACGAAGTAAAGCCTCGAACCCGCCTTTCCTGCTATCGA
1 ACCCGACGACGCCAACCGCTCTAGCAAAGACTGGTATAAC
1 AACCGGCTTGGTTACCTTTTCACGAATGTAAACGCGCTTT
1 ATAGAACGAGTCCGATAGCTTTGAACTGCAAATCCTTAAC
0.8084691366084331 CATAGCGCCCGAGAATGTCGCGTAACCGGAAGCTACGAGT
0.09673748499094845 ACACGAAAAGGTTACCAAACCAGATGGACAGAAATCCCGT
0.8444449690131394 TCCGCCCCATGCAACGCCCCACCTACCTGCAGAACCTGCT
1 GTGTATCACGAAGCCGGACCGACAACTCACTGTCTTTATA
0.5511423277784135 ACCACGCTTACGAAACACGTCCGTCAACTAGCCAGTCACG
0.8865017266988722 CATCGTAATTTAAAGACGTAAGACCTGATAATCAAGACTA
0.03751065582841959 GCGGAACAACACAAGTGGACCCGCGGAACCTGCTACATAA
0.06689222183155905 AAAACCGGTCAACCATGTATACCAACTTTTTAACCGCACC
0.07337926986758044 TGGACCGAAACAGGATTAGTGAGATTAAGGATCATCAATA
0.7854599875544149 AACCGGTCCGGGTCTTCGAGTTCGCAGCCCCAAACGTGAA
1 ACCTTTATACGCATCTGTCAAGGAACTTGTCCTAACCTGT
0.3773124455975829 ATTCGTTTGATGTTAGCTGAATAACTAGTTCCGTTAGTCA
1 ACTGGCGCAAGCACTTCAAAAGTCACTGCGCAGGAAAAAC
1 ACGAAAACTCAACTAGCAAGTCTGACTACAAGTACACCAA
0.1858333768630854 AAACCCACCGATCCCGCCAAACCGGCGTCGACCACAAACT
1 AACCGGAATCGCCAGAAGCCGAACCCACAAAAACACAGCA
1 GTGCTCCCCGTACCGCTCCGACCGTACATAGCGGAAAAAC
0.2019169883822765 TACTCGCTTAACAAGTCTACTAACCTCAGTAAATCTAGCA
0.5137499074329438 GACCTGTTATACAGGGAAGCAGCGCATGCCTCTCACGCAT
1 GTACCCATCCAACTGGCTTCCCGGGTGACACACGCCAGGC
0.02635520537197417 AAAACCAGTTAAGCGCGTTCACAACGTTTGATATGACATA
1 AACCGGTGCGGCAACGATATACGTTAGCCCGGAAGCGAAC
1 GACGGGAAATACTACCATCACACTATAGACCGACATGACG
0.4440638072416462 CCGAACCATACTCGGAGGGCACCATAAGCAGAACCTGTTC
1 CGCGTCTTGCCCTACAAGGTTGTTTCATAATAACCGGTGG
0.6297282207285471 GCCACGTCACCGTTGGGGTGCAAAGACCTGAAATTCCGGA
0.2201942637720979 AACCTGCCGAACGAGTCCTACTCCCGACGTCCCATTCGTA
0.5239621247361326 GGCAGGTCACACTCGCTCTTCTTGTTCCACATCCACCACA
0.9375854809993412 AAAGAACCAACACGAAGCAATCATTCCAGTTCCACCACAT
0.5638701609013129 ACCTGCAATAACAGCCTAGACAAACCCGTACCCCTTCTAA
0.2747042644635849 AACCGGCCCGACAGGGCTCACCGACGCGTGCCCCACCAGA
0.9565596233079997 CGAATAGTGCCAGCGTATTTCACGTTCCACCACTCCCCTG
1 TGAAAGAACAATACTACAACAATAAAGCAAAAGTACTGCG
1 CTCCCAAAAGTGGAGGAACGCGTTCTCAGTCAGCGCCAGT
0.003649061747653675 CAAACCGGTCTACCCTAGTGTGTCACAAACGAAATGGAGC
1 AAAAGCCAGCAAGCCGCCAAACAGCACTAACCACATCAGA
0.7792315038850778 CCCGCCACCTCGTACTGAGGCACCTCGAAACACGTTTAAC
0.7723559954639704 AACCAGACGAACAAGATACAGGCATCAGGCAAGCTATTGC
0.4083629441779085 AACCGGTTGGCCCAGGTCCATTCTGAGCACCAACGCTACT
1 GAGATGACCTGAAATAGCGGTTCCGGGAGTGTAATGGCAA
0.7540972739598063 ACAACTAGAAAGTCAGGATAAACCACACTGCGACATACGC
0.6479016055533632 ATAAACGGGAAATACCACTACACAAGCCTTACATGCGATT
1 AGCAAATTGCAGTACCACTGCTATCCGCCTGACAACCAAT
1 AACCCAAACAACCGGAGAGTACGCACTCAATGCCCCAAAC
1 CACAACCTCGAGTGGCCATACCGGATACAACAAGGTCCGG
1 CCCTGCTTCCTCACCCCACCCCCAACGTTCACCCCCGACG
1 TGACAATTCAGGAATATTACGTATGTGCTCGTAGCTCCGA
1 ACCCATGCATAGACTAAGGAGGGACACCGGAACGACCGGT
1 AACAAACGAAAACCTGACAAGCACGTTACGTAAATCACAA
0.3699101965125339 AACCAGACAGCCCTGCTTGACAGGTACAGTTATGCCCTGG
0.1181185323233627 AGAACGCCCCTCTCAACTGGGTCAACTGGTTGGATCATAG
1 CCCACACGTACCCGAACCTACTCATCAGGTTCTCAAACAA
0.7644950779763909 GACGACGTGATAAGAACCATGAAGTGGTTAGACCTGTATC
0.4738167931246781 TTGGACCAAACCGTGCACTGACGACAGGTTCCTCCACATC
0.471180500070434 AGTACGCCTATAATGCTGCTTGACCGGATTCCACGCGCGA
1 GTCTATGATACAGTGCATGCCTATAATACTATACGCATTA
1 TCCGGATACAATCAAAACCAGAGCAACTAGTTTCCGACAA
1 AACCGGTCCTGATCCTCGAACAGCAACCCAACTCACGAGC
1 ATCCAGTCACACGAGAAACACACTACACTGGCACCACGGC
0.9448606464711232 GAACAGCTGCACCAACCAGCTGTGCCACATTGATATCGAA
0.4502477005909336 GACCATCCCCAAAAAGCTAAACCAGACAGACAAGACTAAT
0.6820256766707297 GACCAGTTTGGTCGACTCTGCAAGTACACCCCTGAAAGTA
1 AGCTATGAACAGAGCGGAAATACAGGAACACCACCTTGAC
1 CCATGCCGTCACGACACCTACTGTGGTTCAATTTCACCAT
1 TCTCACCATACGGGTGTTACAACAAACCATTAATCAATCA
1 AACCGGTACGCTGTCAGCCACCCAGCATTGTCCACCCTTA
0.1561013389513782 ACATGCTCCCAGCACATACATATATCGTGACCAACCGGTT
1 CACGACAATAGATCGTACGCAATCCGGACGGACTACAATT
0.3106925992450408 TCACCCCCCCAATCAGGTTTTCCACACCAACAAGGTCAGT
0.5628186474602741 GACTAGTGAACAGCGAATACCGGACTAGCAAGTCTCGCAT
1 TAAAGGTACGAACATACAAGAAATACAAGACATACGTGTT
0.06143732539606693 CACGCCAACTAGCAATCCCAACCAACTTGTCCAACCAGCG
0.7729623303019536 ACCCAGCAAGAGAAAGGATGCTGAACAAGTTCGCTGATGC
0.4436382984840069 ACCGGTTCGCCGACCTGACCTCGACCACTCAGCCCTTGAG
0.5026503984173805 AGCACACAAGAAAAACTGGCTAGTACACAATCGACGTATA
1 ACAGGAATATCCTCTCAGTGTCCGACTGAGGCGCGCCCGT
1 AGGTGCATATCAATGCATCCTACAACCGCCTCAATCGGTA
1 GAGAACTTGTCACACTCGATTTGTTCAATTACGTACCCTG
1 TACCAGAACATCCAGTCAGACAGCAAAGGGTCACCGGAAA
0.3555185412802541 AACCGGTTTCACCAAATAAATACAATCCAGGAACACTGAT
0.5936203946421929 TACCGGTTTAGATGTAGCAAGACCATGACACCACCATTGA
0.8624765979987126 AACCGGACCGACAAGTCCCGGCTTGAGACCCACTCCAGCC
0.9211723158543804 CCACAATTCCCTAAAACAAGGGCAACCGGTAACACGCCTC
1 AACAGGTCAGACGTGAATTCTGCACACAAAGACGTTCACC
1 ATGCTGTACCAATCTAGCCATACTGGCTAATCATGAATCT
0.06873889748934596 ATGTCAAAACCGGATTGCGGATACCAAAACGCGCCTTGAT
0.2993149451497226 TAACTTACATTCTAGTTGTCACCATACTTGAAAAGCCGGT
0.1791168340728311 GACCGGTATTACCACTTACACACAGCAACAAAGACTCACC
0.4251146432605349 AAAACCGGCTAAACCACAACACTGACACGCGCGAGTCGGG
0.6838904190870757 TCGCATCAAATAGTGACCGGAAAGACGACTATTACGCAAA
0.4314834319958883 AAAACCAGATCCCCCAGTTCGCTCCTCAACAGACCGGCTC
0.6646307020610505 CAGCAATACTCACGCAACCCGGGAAACAGGATCCACAAAG
1 AAGCAGTAAGTCCAGTTGTTTCCACCAGTGTTCCAAAGGC
1 CGATGCAATGGTACAAGAAAACCTAGCGAACACGTTCAAC
0.3442179260089124 ACTTCACCTCTTTGTGTTGATCACCAATGGCCAAACCGGT
0.1342229592875885 TCTGACTGCCCCCAAGTCGAAACTCACCCAACCCGTCTTG
1 AAGCCCGACCATCCGGAAACGCAAGCTTAGGCCTCTTGCA
1 CTGATTCGATCCATAATAACAGGACAAGCGAGATTCCGTC
1 ATGGCATACCGCCCCAAAACTCAGCAAAACAGACCTGTTT
1 ACCCACCACGCGCAAACCCCCAGCCACTGACAGGAAATTC
0.04114272523128249 TTGCCATCCTCGTTTAGCCGGTTATTAGCCGGAGGAAAAG
0.2163463570601967 GCCAACCTGTGCCTTCTCTAAAACCAGTCGGCCCACTTAG
1 GGCACAATTACACGAGTACACGGCTGTAAACTCGCTCAAC
0.9695328682328035 CAAGCCGGTTACGCCGCTAATCACACATTGAAATGTGCCT
1 TCTGAACTGCAAATTCCTGTTATAGCAGTTGTCAGCGATA
1 AGCAAGCTTGACAACATCGGAGCCCAGTTCCCCAACGCGT
0.03855182789251623 ATCCGGTTTAACGACCAGCATAGAATGGCAACAAGGGCTA
0.2698056592027763 ATCGCGTACCTTAAGAACGTTAACCAACCAAACCTGTACA
0.1149009825152588 CACCCTCCTGCACAAACAGGCTCGCCCGGATCAAGGGCTA
1 AACCAGCGCCCCCCGCGACCCACCAAAAAACCCACACAAC
1 TTACCAGACAGGAGTATCCACTCCGTATCGTAAATTGCAT
0.5917861433434193 AGTATGACCATGATAAAGTAGACTACTTTCAAAACCGGTC
0.9667091793902964 ATCCGGTTTATAAACTGACTGGCCCACGCGACGAATGTAA
1 CACACTTCCTGCTCCCACTACCACTCAGACGAGTCCATAC
0.05334253570785132 AACGAGCAACTTCAAAGCCGGTCCGACGACAACAGCCCTT
0.4464524823036883 AACGAGTAAAACAGGTGTAAAACAATTGAGGACAGTGCCC
0.1113240889884076 AACACGCAAACCGGGCCTACTAGTTAAGCGCATCGCTCAT
0.2556338720914254 AGACGAGCCCACCAGTTGAGAAACCCGCTTCACCGCAACA
0.2432717009532257 CCCACGAGCACTAAACCAAACTGAACCAACGAGTTATCCA
0.2364290662348443 TGCAGCTCCCACAAAACGAGCCACACCTGTCTAGTAGCTA
0.6405019665905675 CCATTCCAAACGTACCCACCAAACAAGGTGGACAGGAATT
1 CGATAGCAGCACCTTGCCACATAGCTGATCCCATCCTAAG
0.724455081824154 AAACTGTACTAACAGGTAGTGTTGCCAATCTACGAACCGA
1 TCACGGGATACCCCGTCACCACCACCCCTACCCGCCAAAC
0.7983991779034934 GGGCACTCGTACAACGAGACAAGCGGGATGTCGCCGCGTA
1 AACCTGAAAGTTGAGTTACCAAACCACGAGCCTAACCATA
0.9825398856476826 ATACCGGCCGTACCGGATGGTACGGTAATTCTGAACCACT
0.6328373347781576 AAAACCTGTGCTACAACTCACATAACATGTGTAAGCTACA
1 AAACAGGTCAGACGACATACATTACATTAGAGAAGTACGA
1 AACCGGTCCTAATGCCAAGACTACCTTGTAACCCTGCTAT
1 GCTGCAGGGCGAGCCGAGTCCACCATCCCACCAAGCAAGT
1 AACGGGTCCATCGGCGCACCCCTACCACATAGCACCCCAC
0.4174982039930988 GTCACTCCTCACCCGACAAGTTAAGCAAGATCATTACCAA
1 GACCTGTTTAGGCACTTTAGCATCAGCAGCCTGGTACGGG
0.6572631522889965 CTAAAAACCAGAAGGACCCGTCGCCCCAGACGAACTCAGC
1 GTACGAGTGGCGAAACCTGAGGGACCAGTAAACTCCTAGC
0.3585410158894056 CCACACCCTATTAAGGACAAGCCAAACCGGACCCCGTAAC
1 AAGACCATAAAAAGCACAGTCGCAACACAGGTTTGGACAC
1 CCCACTCACCCAACTGGCTGTATCACTCCCAATCCGCAAC
0.3615671156719525 ACATCAGCACTTTCGCAACCCGGTCAAACACGACGCGAAC
0.1568268008184693 GATGTCACCCGAAACCTGTTACTATCATAACCACAGCCAC
0.2434627056793319 GAAATGTCGTTATACCTGTTCCCACCAATAAGGCCTGGTA
1 AACCGGTATGCTAATGCTGTAACAATAGGCTGAAAAGGAT
1 AACCAGCCCAACCACCATGACGCTACTAATGTGCGTGCGC
1 GACCACAACCTACGCAAAGCAGCTCCGTAAGACCGGACCC
0.8982623498051597 ATACTTTCCCACCGAACCGGTGCACGCTATTATCAACCTT
0.884545032589922 GAGCAAACTGACTCCACCGGCCCGACGAGTCGACCGCCCA
0.7192974470931357 CAACCCTCTGTCGACAACACAAGTTGCCAAGCCTGTTCCC
0.1492493877522819 GATCCCCGATCAAGTCTTACCGGCTCGATCCCAGCAGACA
0.5330300597193265 AACCGGTGTTACTAGTTGTCGACCGCAATTACTAGTACCG
1 AGTACTGTGCAATACCCCACCAAACAAGAAAGACCACTCT
1 TCCTGCTTCCACTCAACGGCTACCCGCCCTAACACCGTCC
1 AAATCTTGTAGCCCGAGTACCACATGGTAAGAACCGTAAC
0.1343627010311249 AACAAGTTGTACCAGCAGGAACGCAATCCTGCCCACTCCA
0.1994801773949623 CATTCCGGGTAACCCCCCGAACCAGTCGAGCTTCCCTCAG
0.2215519829230297 AACCGGTCTGTCAATCCACCACAACATCAAACATTCACGC
0.4341900488522784 CAAAAGTGCCACATAAAAACCAGAAATACACGCTTGTTAA
0.8521158288280134 CAAGGCAAACCAGCAAGATGAGATTGTGTAAGCCTAGGCA
0.4588952098151576 ATACGGATCCTTGTCATCCGGTCCGGCCACTTAAACCAGA
1 TCACAATATCCCTTGACCCGATATACTCGTTGACGCGCAG
1 GGTAAAACCGCCCAAACCAGGGCACGGACTGCTGTGTGAC
0.3239512461837395 AATACAGTGCAACAAGTCATTCAAGACACGCAGGAAAAAC
0.9214593303170246 TCACTCCATGACCCGGCCAAGAAAACTGGCCGAACAGGAT
1 TCAGTTAGAAACTCGCAGGACGTGTCAGACAAGCGCTGGG
1 TCGATGCGCGTCTTTTGAACCTTTACGCCCAAAAACCGGT
0.1498875148955718 CATAACCGGAAGGGCAACCTAGATTTGCTACGCGTAACCA
0.4431787283301317 CCGAACAACTCGACCAACTAGAAATTCCACTCGCCGATGC
1 TTATAAAACTCATATTTCCAGTTTAGCAAACTAATGGTTG
0.3839190781708848 CGTTGGACAACATATTCCGGTATTCCAAGAGAGCCGGAGA
0.2890826479571936 AACCTGTTTTCCCGCAAAATACTCGCAATGACGCTACGAA
0.4089037236389621 AGCCCCAAAGATACTACATACTGACCCAACAAGTTTCTTG
1 ACCTCGTCAAGCTGGCTCAGCAACATTCGTCCAGAGCCAT
1 TAAACCGGAAGAGCCACTAATTCACATAGAGATAGATTAT
0.625067572393596 CCTAACGAACCGGCTGCGCACGTTTCCAGCACCTGGACTA
1 AACCTGGGGCTAGCTTGTGTTCCATCCCGCCCGACGAGGT
0.1659822077806817 TCGCACATTTCACCGACGCAGACCAGAAAGACCGGCTTGC
0.6905533547677515 GCATACATACCAACTACAAAGCAGGTCAAACGTGATCCTG
0.5290300972207869 AAACCAGTGTAACCTGTACAAGGGCTGATACTTCAATGAA
1 AACAACAATACAACCACCCAAATAACTTGTGTTACACGTT
0.9298305639097513 AAGACAGGAAAACCCAGATTGACAACCGAAAAATCAACCA
0.4252498019505579 ACCATCAGACACTTCACCCTTGCAAACTCGACGAACCGGT
0.9015430078365229 GGAACCGTGAACAGAAGAACTAGTCCGCCCACTTTTACGA
1 GAAGGAAACAGCATGCGGATTCTCGAAATTCGAGTTCCCC
0.04007024598091433 GACCGGTCCTACAAACCGATCCTCACCACCTGTCGCCCCA
0.7171809777587379 AACTAGGCCCAACTCAAACACGCGAAGCCGGTTTTATCAG
0.2795575360458665 AAACTCATTTTCAATGCATAAACCCGTTTTTGACACATGT
0.4378787684940375 AACCGGTGTATAGCAAGTTTGTCTCCGCACAAACTCGGAT
0.09536102178000773 AAATACCATAGCCCGGGATCAGGAAGGTCCGGTTTATCAG
1 GCCAGGGCACCTCGGGCCCTCCAAGCCCGTCTGACTGCTT
0.719702427432664 AACCGGTTCGCTCTAGTAAATGCGTATCTCTGCCGCGTTG
0.9393715543950395 CCAAAACATGCAGAAGACCTGCTACACAGGTCTTAAGCAA
0.03978236830648387 AACCGGTTCTATCCCCGTTCATCGCTTTAAGCCGCCATCC
1 GACCCGACGATCAATTTATTCGCTACCACGAATCATGCAG
0.4986720682595212 ACCGGTTTTAGCAGCTCACCAACCAAGGCCTAACCTGGAC
1 AACCTGAACGGTGGTAGTTCCTTCGGTGAACCGCTACCTG
0.08685888574494911 GAACCAACCGGAAGTGCCAGTAGCCGAACCCCTGATTCCA
1 ACTAAGAAGTCGATCATCTAGTTTAGCTACAAACCCAATT
0.1064721045934267 CAGCCTGGGATATGCTGAGCACCCCACCCAACCGGCTGGA
0.121926144132256 CTCTGCAGGAAACGATCCTGTCTAACGTGCTAAACAGCCT
1 GATTGAGCCAATACCTGCTTCGAAAAGCTCGTTCGCGATC
1 CCGAGCACGCCCATGACGGTCTCCAAACCCGTCACTCTAC
1 GACCGGATCGCTGAGCCACTAGCTCACCGAGTAGATACAT
0.1266585162029146 TGCGGCTGCGAACCCCCCTACAGCTGCATAACCGGATGCA
1 AACCTGTCAAACGACTTTAAACAAAATCATCGACTCCACA
0.9057639059625838 CGACCGAGACTGTGAACGACAGCCACATAACCTGATACAC
1 AGTCTGGAGAACAAGTCATGCCCCCCAACGCGCCCCGAAG
1 GACTGGTTAGATAAGACGGACAACCAAGATCCGTGGTTAA
0.4179833091279416 TCCACACCCTGCCCCACATCAAGGAACCAACCCAACCGGT
0.07231603225919137 GCCTACTCCCGACCCGGCTAGACCGGCCGAGCCACCACGA
1 AAACATTAAACTAAACTGACTAGTAGTGCGAGATTGTAGA
0.2962098268317002 AACCGGCTTGACGTGGGTACACCATTGTTGACCGGTGCGT
0.1186739109814945 AGTGCACCCAAAACCACACGAACATGTTATGCAGGAAATA
1 GTTTCCGTCCCCGGCTATACCGCTCCGGGAACAAGTCCTA
0.3997039180723955 CCAGGAGCCCATCTAAGCACATCAAACCAGTCGACGCACA
1 AACAAGTTCCGTATAGTGCATATCGGCCCCGCTATTCCGA
0.9568199092385801 AGAAACTACAACCTGTATAACCACCCATAAGATAGACGAA
0.5782902981838538 ACCCGCACCCGGAATATCCGGCTTTGTGACACGCAACGCG
0.5201281167433024 CCGACCTCCTCACAGGTCCGCCAATGCGGTTCTGCAACTA
0.6910957946319086 AACCAGTTACCCCACACAACCACTATCAACTACACAATGA
0.7867685601277231 GCCACGCCACTGAACTCGCCATACCAGCTACCGACTCACA
0.9257084991863618 TAATAGCGCATACGCCTCGAACTGCAAAAACCAGTACCAC
0.8486716993155616 AACCAGTTATCGGACCACAGTTCACGTCTTGCACACAAGC
0.0205294534204566 GTTCAAAACCTAACAATCAGGATAAACTTGCTAATCACGT
0.01592483901910553 GGACAAACCTGTTCCATGTACCACGCCTTCTTATTTGCTA
0.9158241166578345 AACCGGTGGAACGACTCACGAGTACATCGGAAACAACGCA
0.1187504104584317 AACAAGTCCCTGGACAGGTTGTACCACCTCATGCCCGGTC
1 GCACGAATAAAAAACGGGCCTAACCCGTCGGCACGCCGAA
1 AACAGCCCCCACCGGATTCACAAGTACACACCCAAACCCA
0.2408589877115688 CCGCAACCACCAATACCACGACAACCGGTACGCCCACCTT
0.1043340435857702 CTGAGCATCAACCCGGCATGAAACCAGTCTTACTTAGTCG
0.2279481852423102 AACCGGTAATTCCACGTATACGAGAGCACAAGTAAACCTG
1 AACCCGCAACACCGGAATGCTGACAACACCTAACACAGAG
1 AGCGTACTTACAAAACCCACCCTCCTGGTCGAGCAACTAA
0.639824189262834 AACCTGCCCAGCCTGCCGGGCGTGCCCCTCGTATTCCCCA
1 ACCGCCTTAACAATTTAAACCCGTGTGACTCGATCATCAA
1 AATACCAACAACTAACATAACTCGAAAATCTAGTGATCGT
0.8701011841944464 TGCTGCCACAGTTGCATCGCGCCTCACCAATCCGGTCGAA
1 GGCGACCAGCATCGATATAATCCAGTTAAGCATACACAAC
0.1458938965433987 CCCCAAACCGGAAAGTCTAGATATCATGGGTCAATAGGGA
0.3240780406964517 ACGCACGCCCACCCCAAAGCCTGTTTGGTCACATCCAATG
0.7608848416620059 GCCTATTCCGGTCAGGCAGGACCTTATGCACGGCAGCAGG
1 AACCTGATATACCACTCTAACACACGCCAACCCGACACTT
0.2834105692489549 AACCGGTCCGCGATATCGTCAAGCCTCACCGTGCAGTTAA
1 GACCAGAATTACCACCCACACCAGGCACAGTCTTCCAACA
0.04432227329734155 CACCAACCACATAGAGTATACCGACTGGAAATACCTGAAA
0.02851255633088915 ATATACAGACCTGTTCCCCCTGCAAGACGGTAACGTTCGT
0.8245557487900532 CCATACGCGCGACGACGCGTACACACACAACCTGCCAAAC
0.475923194924234 GACAACTACCCACAGAACCTGCTGCCCCACCACCGTTAAG
1 GACCCGTTATGACTGTAACGCCGCGGGTCACTTAGCTTAC
0.3814757508979575 TACCCATCGCTACCCACCAGACTGGTGTTACAAGTCTGCA
0.5245597408177843 CAAGTGCTCAACCGAACCGCATTATCCCGTTCGACACCCG
0.01593380756022457 CACGCGCAGCGAACCACCCGAACGCGTTGAACCGGCCGAT
1 ACCGGTATCACCTCTCGACAACACGACATCACAAAACATC
0.572793843628428 TATCATCCTTTTTGAGCTTGTGACACCACGACAAACCGGT
0.07490505339111257 AATCCGCGTCCGATCCCGTGTCCAGCTACTACCGGTTTGA
0.1963639603461593 ACAACATCGCAACCATACCAGAAAGTCGTGTTATACTGGA
0.6297313683591866 CACCTCTCCCGACCGACCCAACCAGACCGCCCGCCTATCC
1 GACGCCCTAAACCCACAAGTCAGGCTAAGCAACAAAGACC
1 AACCGGACCAGCCACATTAGCTACGGGGTAATGTCTACCT
1 TGCACGACCCAAAACCCGCCCATTAACCCACGGGACCGGC
1 TAACCACCCGCTGTCCCTCGCCCTCCTCAGACCCAACCCG
1 CAAGAAGACAAGAGACACGCACCAATAACAGGAATGGTGA
0.9339014623867001 GAACCGACACGTAAAACACGCACGACCGGAGACACACAGA
1 ACGAGACCAGCAACCCACAATGCTGTCCAACACACCATTC
1 AGTAGAATATCACACCTAACCTGCCTCCAACGGATGCTAT
0.7920436587066841 AACCGAACCGAACATTCGAGCCAGACGAGTTCACTTGCCC
0.4067079954708164 ACCTACACGCATCTCCCACGAGTGACCGAACCTGTAACTC
1 GGCAACCTTGTAACCTTACCTGTCCCGTTTCATCCACGCC
0.4633247390685622 GGCCTGTTATTCAGGTTCCCCATAACATAGCTCTCCCTAG
0.3555122800011264 CTCACCGAACCAGCTAACCCAGCATTTGCCGGAACCTAAC
0.08724604726548958 CATGTACGATAAAACTAAGAAAACCGGATTACCCAGGACA
1 AACCGGATTTGGCTACAGTCGCGACTGTACCGATACTTAT
0.4811801638786202 ACAGGATCATGCCGGACCATCCAAAAGTCGTATAACGAGT
0.330893074663907 TAACCAGAAAAACAACTCTCAATCCTGCTGCCCACCCGTC
0.8806363820702452 TGACGAATTGTACCTACCAACCATCCCGCATAACCTGATT
0.1732110182165223 CGCCATAAACCAGTCCACGCACCTACCCCGGCCGCTTTCA
1 CAACACCGAACTCTCCCACGTTCACTTAAACTGCCCAGAC
0.5672691959079743 ATATTTAGGCACCTCGCCAGTGTGTAGGCAAACCTGTATT
0.6001069657911169 AGCGAACACTTACTCACCTTTCCAGTCAGACGACCTCATA
1 GACCGGTAACACCACCGAGAACTCTAGAACACACAACTAG
1 GACCACTAAGACGAAACATAGAACGACCCATATAACCGGA
0.4084504624160533 AACCGGTTCGAATGGGATCACTTCCGACGCTCCACACATA
0.5600006453722428 AGACGTGGTTGTGCATACAAGAGCAGTTACACCGGAAATA
0.07483346803406128 ACCGCACATATCCTGATGAACCTGCTTTCCAAGGTCGTCC
0.9476581715493069 ACAATGTTTTATACGAAACAAGTCTACCCTGTTTGCGGAA
0.01544428790575395 TCGCATACAAAATAACGAAACAGGTTATAAATACTAGGAC
0.9117109968096156 AACCGATGATCAAAACCAGACTAACGCGATGTCTTACCTT
0.5365515739943508 CCCGTAGCACCCTGCAAATCTTGTATAACCGCCCACTCAA
0.04149343507378988 CGACCTGTCAAACCCGAAACATCATGCAAGACACGCGACA
1 AACCTGCTTAACTGCATATGGTAAGCACTTGTCACTAAGG
1 ATATCTAAACCAACAAGATAGTTCAGGCTACTCATGCACA
1 CCGAGGCCAGTGAGCTGCAAGTCAAGAAAGTCAACTTCAT
1 GCACACCTACGCAATGAACCGCCTCTGAAACTTGTCAAAC
0.7830017352430914 CCTTCAAACCTGGGAAACAGGATCACCTAGATTGGCAAGC
0.2005572449398474 ATCAGCATCAACCCTCATCAATCCCGATCAATAACCGGTT
1 AACTTGTTTTGAACAACACACCATGCGTTAGCAACAACAT
0.03364458517392582 GAGACAGCAGCTAACCTGATCAGTGACCCAACAAACAGGT
0.5521507405458984 AAATACTGCACATCACGAGTGGACCGACCGGCAGGACAAC
1 AGCGAGTTAAACAACTGCCGCACAAGCTGCAAGCGACGCT
0.1040220142613932 TCCCATGACGCCCGTAATACTCACAAAACCAGCCCATCCA
1 ATTAAACCAAGGCTAGAAGACGGTCCATCCCGTCCAACGA
0.1985774905218668 AACCGGTTACCATGCAGTCCTTAAAACGTGAATAGTAATT
0.1210767582244906 CATCCAACCCGCTGAACAACAATTCGGAAAACAAGCCGCT
0.7757382941107437 CACACCACACAAAATACCAGCCCAACGTGTTTATTTACCA
1 ACGGGCAACACGACAATATCCCACCCTAAACTCACCAAAC
1 GAGAGCAACAGAAACGCGCTACACTGGTACTACTAGCTTG
0.8903547697698496 ACACAACACACAAAACCAGGAGAACAAGAAAACATAAGTA
0.1961388617207886 TTGGCTCGGTCCGTGTTGAATACTTACCTGTTACACCGGT
1 GACAAAACCCGAAGCACCTCACTTACGCCACCGAACCCAC
0.01242864253349798 CCCCTCAAACCGAACCAACCGGATCTATACTACGCCAACC
0.7208843120064512 AACCAGTCCAACCACACACCGTCGCCTGGAGCGGATGCTC
1 AGGCCGCACCCAAACTGCCCAGTCTAGTTGCACGCGCGGC
1 AACCGGTCAATCCTCTGCTGCGCGGAACACCACACCACGA
1 AACCGGTTGCGTAAATAACAGAACAACGGAATCAGATACC
1 TACCTGTTCCACCACACTGACTCTGCATAATATCGAACTA
0.1962068311685307 CAACACGCATACATACGGAACAGGATCTACCGGACCCAGC
1 CACGACGAAGCATAAGCTCGTCTGCCTTGTTACTAGCAAC
0.9220805351128493 AGCCGGCTAAACGAGATCGATGCGCTGACCATTACAATTC
1 ACCTCCTACCCCCAACATGCCTGATCCAAACCTGCGCAAC
0.129106207287059 AATTGTCTACAACCTTCTGGGCTAACCCGTTTGCTCTGGA
0.08913445892723122 AACCGGTTAGGATGGGCGAACAACTAAAGCAAAATAATGA
0.4442990286846058 AACACGTTGACCCAGCACAAAGGACAAACAGGAACAACCA
1 ACCCCGAACACCAGTCCCACGCGTTGAGGCCGCTGCTACC
0.2889014028447703 ACCCACAATAACTATTACGGGAATAACAAGAAAAGCAAAA
0.06457018871422257 CACCCAGGACACCAGCCCATTCCGGTCCACCCAGCTAGTC
1 TGCCTGGCGCCAACCAACCACACCTGCTTAGCGATAACCG
1 TTGACACCTACCAGACTCAGCCCACTTGTGTCAATGAAAC
1 AACGCGCAGAATTAGCCAAAAGAACAAGACAAACCGGCAC
1 TAGCAAAGCCCATCGCGCTCTGAAAACCCGCTCAACCGAC
0.5283134216458398 TAGAAATGTGCGACGCGTTGAGATAGCCGGTCCTACCAGT
1 AACCCCAGCGGTCTCCCAAACCATCCCTACTAATATCACC
0.8049074940825578 TGCACAGACCACAAAAACTAGAATTTCGAGTTAATATGAA
0.01721194542664777 ACGGACCCAAAAGGCATGCCGTCCCGAAAACCGGCTCTAC
0.02831358489883143 GCGATTTAAACAGAGACCTACATAACCTGTTAGATGACCG
1 ACAGCTAAACATACAGGTTCTCATAGTACTGACCTTCTCC
1 AACAGGTCTTTCCGTGCACAATATGCGTGAAGCGCCAACA
1 CCGTAAAGTAAACCAGCATACTCACCTTGTGCTGCCGAAC
0.5506341916600884 AACCTGACCGACCGGATCACACCAACGGCAAGGGTCCCGT
1 TGCGCGTAGGATGACAGCCAAGCTGCAGAACACGTCTACC
0.4350449277862369 CAAACACAACAAACACGTCGAACGACCCGTAACGACCTTC
0.3346613837798743 CAGTAGTTCAAGTTTACAACGACCTGCCTAGCGAGTATGT
0.7715332267695414 AACGCGTTAAACTACATTGACGACACGTTCTCCCACTTTG
0.1264452654279997 GACAGGTTTAGCAGCACATCCAGATAGCTAAACGAAATTA
0.07415877899696958 ACTCCCTGATTCGCTCTACCTCACGACCCAACAGGTCCAA
1 AGATACTACACGGACAACCAAACTAACTCGTTGCAGCGAC
0.9791130212914108 ATTCCGAACGCCAAATCGCATCTACGTCATAAACCTGTTT
1 ACCCGTTATTCTAGAATCGCGACCTATAAGGAAATGATAT
1 AGACCAGAAACAAGAACTACAAGTCCTGGCCGTAGATTGT
1 ATCGCGTCATCTTAGCCGGAAAAACCGTCATCCCAACCCC
1 GACAGGTTCCACGAGCCGCGACTGCTCGACTCCTGTGGTA
0.1311215918504607 AAGCTCCCAAAACCTATCAAACGAGTTAAGTTCCCTACCC
1 AACCAGTTCCAACATACAACGTAACTCGAGCCAAATAAAC
0.1745306089894638 ACCGCCCCACTCCCGCCAAACCTGTACAGTCACTTTCACA
1 GCCACAACAGCAAAGAAAAGCAAAACTGTACAAACCGGAA
0.45413074541955 AAAACCAGTTTCCTACCACCCGCGCTAACTCACGGCGGGC
1 AACAACCGCATACGATCGAACAACAGCACCGTAAAACATG
1 CGTACACTACATGCGTTAGAGCGAAGGCTGGCGATCCGGT
0.1515096999609372 AGAACTAGTTAATCAGGCTCCACTAACTGTGCCCCGTAAC
1 AACCACTTTGTCATAACGATACGAGCGCCGCTGATCTACA
1 TTGCAGACCCGCGACCTCACGAATGTACGTAAAACGGGTT
1 GACCGGTCTTCACACCAAGCAGGACAGCGTCAGACCATCA
0.9899760436573569 TGTGAGCCAGTTACATTCTACAGTTGAACTCGTAATCCCT
0.08033406944076324 AACGCTTGAGCCGGCGAATAAACTTCCCAAACCGGACCGA
1 TTTCCTATAGGAATCCGCTAAGGAAACGCGTATTTCAAGT
1 ATACACGCATCCTTCTAACTAACCGACATAGCAAACAGGT
1 AGCTCCTTATCATCGGAACAGGACAAACAGCTCTTCTCAA
1 AACTCGCTGCACAACAACAGTGCACACTCAATCATAACGT
0.8187773632934231 GGAACAACGCGTAGACAACGTCAACAGGAACAAGAATAAC
0.9446683505260042 AAGCAGCCACCAGCATAGGACAGGACAAGCAAGTTTAATA
1 ATCACTACTCGCTCATTTAAATGCGGACTTTCGAGAAAAA
1 AGCTTGTTCTACGACCACCGATGCGTCCACAAGATCATGC
1 CGCAAACTGCAAACAACACACTTTTCAGGTTCGACCGCAC
0.3571508965936398 CTGCCTACTGCGTGTAACCCACGACTGGTCGAGCCGGATA
0.2105293125387917 AACCGGTATTATCGCCTGTTGGCTTACTGACCTCGGCGCC
1 ACAACAACGACGCATCTGACTGAACCGGACGCCACGTAAG
0.2954427415808384 AACCGTCCACAACTTTGATACCAGACTAGCTCGTTCTACC
1 CAGCCTGTCGTGGAACCCGTACCAGCAAAGCAATCATGAA
1 ACCGGTAATAGTGCCATTCATCAATTACAGCACCTAAAAC
0.4634131795690791 CTCTAACTTCTCGAAGAGCAAGACCTGATCAACAGCTTAC
1 ACAAATGAAATCCAACTTGTTTAGGAAGTAACATCAACCC
1 GTAGACCATACCTCCCAAGCTACTCCCTCAAACCGGAATC
1 CCACCAGCACATAAACGACCAGCACAATAAGCAGCCAAAC
1 GTAAGCTAGTTCCGATTGTTGTCACTCTAGTTCTACGCTA
1 AACGAGTGCCACGCCGCCTAAGACAACAAACCTACCAAAC
1 AGACCGGATCAACCAACCTCCCAATACACCTACCCCACGG
1 AACTAGTCCAGCAGCTTGCAAGTACCCGTACGAATTGTGA
0.1108718178554795 GAGTCACCGCGTAAAACCAGAAATGCGAACCACTCCGTCG
1 CCCACCACGACCCCCGAATCTAAACAAACAAGAATAACCA
0.3636462270412697 ATCCCGCTCAAACACTGATCAGACCGGCCCGACCGCTAAA
1 CATTCTGCCGGAACTCGCCGAGCAACCCCGAGCCGCCGCG
1 ACGGCAACCGCCCAGACCTGTACCGCAACCAAACTACGCT
1 CGAAAAACATGTTATACTACAATATAAACGCCCTCGTGCC
0.1929454679299194 AACCGGTCGCGTAGCAAGGAAGCAGAGCAAGTAGCATAAA
0.9001416974241924 GCAAGAACTGCATCACCAGCCGGAAATTCCACCCCCCTCA
0.9822280051754939 CGCCCAGATACCCACTAAACCAGTGTACCCAGAGTTCCCA
1 AAAGCGTCAATTCCTATCCTGCACCACAAGTTTAACCACA
0.9946208438716838 ATGAAAACCAGATAGTTAACTGCCGATCGGTCTACAAATT
1 AAATGTACAGGTAGGACCAGCACAGCACACACTAATTCCC
1 ACAGGTAACCGGCACTCTTTGGCTCACTGTTCCTGTCTTA
0.8813012895373543 AACCGGTTATATGTAATACATAACCAAATTAGCTGTAGCA
1 AACAGTTACGAGGCAACAACACAACCCGAACTGACCTAAC
1 GGCAAACACCCAGTTCCCACCAGTTAACCCAGTATTACCT
1 GTCACTATGGATAGTAGACATCTCCCAGTACCGGCCCAAC
1 GCACCCCTCATACCCGCAACGCAGGCTTGACGGGTCTACG
1 TGAAACACAATTCCATACCTGCCATAACAACCCACAAAAC
0.715481774459871 GTTGCGAACTTGAAAAACAGGGTCTAACGCAAATTAAGAA
0.9752188958071745 GAATCTAAACCGGAAATAGAGAGCACAGCCGACCACCAAT
1 ACCCGCCAGGCACCGGCGCGTGCCTGCATTTCATGCCTGT
1 AACCAGCCCTACAACTATAGTACCGAATGAACAGACCCAA
1 AACCCGTTCCCCCGCCATCTCGACACCGCCGCAGCACATT
1 AGCAGGTCCTACGACTTATACGAAGGATAAGTACTCCACC
1 AAACATGACAAGCATGGTCGTGGAAGGATCCTGATCACTC
0.4678370747092341 ACCCGTCAGCAGCCAGGACTCGCTGGACCGGCCCCACCAA
1 CACGGCGGAAGCATCCCTGCCCCCGAACCACCCGGACCGG
1 TGGGCCAACCAGAATCTAGCACGATAGTGAACCAACCAGT
1 CTATAACCCCATGGTCGCCACGCAGGCTCAACAACTATCA
0.3378489727623533 TCACCCGTCCGGTCTAGCGTGTACATACCGCGCATGAAAT
0.03546677394450107 AATCACAACCTGAAAAACAACTACTACCCGATTCCTCGCG
1 ATGTGGGTAGAGACCCTGCAAACAAGCTAAACAAGTGGAA
1 ACAAACGCTAAGGCGAATTCCAACCCCCCAAACTAGTTCT
0.5745683685369668 AACGGGAAGGGCAGGTTTGGCGCTTCGAACATTCGTTACG
0.4810009838998424 AACACGATGGAACCGGTGTGTTGACATCAGTAAACAAATC
0.1711390845941139 GAGACAACGTCCAGGGGGGAACTTACACAACCTGTTACAC
0.9076669898111455 AACCGGATTGAATATTCCGAATTACCACGTAAACGTGTAC
1 ACACCACGTACGCTATACTCGGGTAGCCTGTATCAGACTA
0.3001738020666342 GAAAACCCGTTATGCAACCGATCCCGAGTCAAAAGCTTAG
0.5886613909405577 TGCGAAGCAAGCATCAACCGGATCAACATCATATTGCTTT
1 ACATCGCTCGATTGATTTTCTTATTCAAAACTTGTCAAAC
1 ATGTCACCCTTACCCACTACGCAACTTAAACACGCCGGAC
0.5977584787510746 GACCGGTCCCGCGACTTAGTTTACCAACTTGCCGAGTCTC
0.4029607198967675 CAAACCGAACCAGCCCGAATATCCACTACTCTTAAAGTAA
0.003271387588098874 GACCGGTCCAAACAAGATATGCAGAACGCGCAAGGCCAAT
1 GAGTACTAGGACCTGTTCGCCGCCCCTCACGACACCCGGT
0.5971086820700245 ACGCGGCAGACAAAGAGCATCAACCAGAAAATCAGGTAAA
1 AACCCGTTAGCCCGCTCTAAAACCGCATGCGCCCACGCGA
1 AGCCGGATTAACAACATGAAGCTGAACACTGTAGGCATGC
0.9633574518889978 AACTACAGGAAACACAACATGTGAACAATGTCGAACCAGT
0.4110697892386479 GACCTTTGCACAAACTCGTGTAACAAGCAGAACGACAATT
0.06878743923142021 AACTGGACAGACCACCACGCTTCCACCCGCCCTACCTGAC
0.3899108554349655 AAAATGGCCTGTAGAACAGGCTAGACGCAAATAGGCTAAA
0.8001676246959436 ACCCAACCAAACTTGCCAATCTGGACTCGCAACTCTGAGT
0.5413632321749617 AGGGTTACACTCAGCCTCGCACTAAACTAGATTTACCGGT
1 TCCTGGCCGAGCGTATCCAAAAACAGGTGTGTCGGCACGG
1 TCCAAGACATCCCCGTACAGATGCACTACCACGTCGACAA
1 CCTCGAGCATACCAGACACAAAACATGCGTTACTAGTATC
1 TACCAGAATAACCACCCACACGCTAGAACATACAGTAAAA
0.7604872470470846 ACGCACCCACGATGCGTAATCCAATACATCCGGTTCCATA
0.647646419915439 CGGTTTAACTGGTCCAAGCCAATAGGCAAAACAAACAGCC
0.1513447697072589 GAGCGAGACGGAACCCACCAAACAAGAATGGGGAGTTACA
0.4706888004108886 AAGCCACACTCCGTAAAACAAGTTATCGCATTTATTTGGC
0.05768366590924033 TATACGAGTCAACGCTAATTGAAGACTGGAATTACCTGTT
0.05277667825070521 ACCCAGTCTACCTGGTCCAGCCAGATCACCAAGTGATAAC
0.4617164604121636 GGCCACACACACAAAACGGGTATAGCCTGAATCCGATGAC
1 ACCCAATTTACCCACCATACTGGAAATGTTAGGTGCTAGG
0.7183623839814138 ATCAACAGCATTACACATGACAAACCTGCTTGCTCGCAGG
0.6501808743865334 AACCGGACCAACCACATCACCGACCCCTCCATACCACGAA
0.9272894952313854 GCAACCCTGAACTTGGCCCACTATGGCGCCAAACCGGCTC
0.6527020415661954 ACTGGCCAAAAACAGGCTTAGCCGGAATTAAGAACACATA
1 AGAAGCTCACTAAGTTCGTAACGCACCAGCAATCCACTAA
0.2261105697079277 CATCCCTATCGCAGCCAGCATGCCTGTCCAACGAGTCTTG
0.2375013833429123 CAAACAGGAAAAACAACCCCTACACGGCAGTGCAAAAACA
0.7562972177031911 TCCTATGTTGTACGAGTCGGCCCAACTTCCCCAACCAGTA
0.2411274164886329 AGCAGAGGGGAACCAGCCTAACAACTTGCAAACCATACCA
0.8978509388253494 AAATGTACAAAACACGTTTCACAATTGCGACAACGGCACA
1 TAAGCAAACCAAGCAAAATTCTGGAAATACAAGATCCCCA
0.9387402486981127 GGCCCGCACGATGTAAACCCCTCGAACTCGTCTTACCACC
0.5081849845204091 ATACGCAACGCATCCGATGCCCAGACCAGTTTTGGCAAAC
