svm_type c_svc
kernel_type gkm_esttrunc
L 8
k 5
d 3
nr_class 2
total_sv 16822
rho 0.569846
label 1 -1
nr_sv 7213 9609
SV
1 TACCAATCACCACATACAGAACGTTACGCGTTCCCACCAT
1 AACGCCTTCGAACCGGAAAGCGCCGCAGCGCCCTCAGCCA
1 CCCCCAACCCACCGATCAATGACAGTACATGTTCACCCGC
1 GCGCACCCGTCTGGCTGACCCATCACGCATTTTGTAACCT
1 ACCGTTAGACTGCGGTACTCTTATAGGCCCTCAGCGGCGC
1 ATGTACCCCTAGCCTGTCCTAGTTACAAATTTAACAATGT
1 CCTGTACTGAGTCATACCCTCGGGGACGCCATCCTCCTCG
1 CCCTGCGCATGTGAAGCCTGTTGAACAGTCTGCACTGCGG
1 TCCTGCTGATTCCCGCTGAGCTCAGGCTATACCCGTCACT
1 ACAACAACACCCGCTGGGCCTACCACATATCCAAATAACG
1 CCCACCGGCACACAGCATGTTGATATGACTTGTACCCGTC
1 ACTCCATGAGGCGATCGCGCTGAACTCCTTAACTGAAGAA
1 CCACCGAATCGCCCCCATCACCACTCCAACGACCACCCTG
1 CCCATCCCAAGAAGGAGAACTTGCCTAGGCGAACGTATAA
1 CCTACGCAGGCCTTTGCCCCTACTTGTTCACCGAGCAACG
1 CAAGTACCATGCCCCTATATGCCGATACACCCTCCGTGCT
1 GTCCCGAGCCGATCCCTCGCATGAAGGCTGCCCTCCGGTA
1 GATACGTAATCACCCCATGAGTACATACCTCGGATCACAC
1 TCACGTTAACTGCCGACTTGTATCAACAAATCAACGGACC
1 TTGAGCTACCGTGGATGCTCAGTTAACGGGTGGTAAGTCT
1 TCGCCCTGCACCGCCCCGCACACTCTCCATCTCCTTCTCT
1 CAACGACCGCCCCTGCCGGGTCGTCACCCCCCTGCCCCAT
1 TATAACGGCCTGAAGGCCCCAACCAGAGGACCCCACGCGC
1 CCATAGCCATTTCGCCGCGACACTTTCGTCACTGTATCAA
1 GCCTCTACCACGAATGTTGCGCTGGCCGCGCGTTCTAACG
1 TAATCTATTGTGCTTTCCTCCCAGTGTGAACCATTCGCCA
0.2330606788718443 TGAAGCGCAAAACAAGACACTACCCTGGCGCGTACCGTTA
1 ACCCCCCCAACCCTTCCCACACTACACGGAGAGGCACCCC
0.4470588386047669 AATTTTCCCGTTAGATCTCGATAGATTCGGCCCCTTCTTC
1 CCGCTACAATCCGCTAATGTAGCTATCTTGACGTACGCTA
1 CCCTCTAAAAAGCGAACAGCGTCGTGAGATACCGAACCCC
1 GCGCAAGGTCCCGACCCCCTCAGCCCCGGCGCCACAGCCT
1 GACACTCCCCCTCCCCCCGGCCGCCCCCGGCCCGCCCGAC
1 CCCTGTACCTCTAAATCACCCCCGTGCCCCAGTCTGACAT
1 CGAGGTACACGCGGGCAAAGGCAATCGCCGCCACTGTACT
1 CAGTACGTCCGTGAGTCCCTACTCCTGCTCGCAACCTCCC
0.05690851966497576 ACCGTTAAATTCAACAGTCGCGCTCCCGTCACTCCCCTTG
1 CCAGGAATCATGCGAAGCTGTAGCGCGCGAGATCATACCT
1 CCCTAACGGCGCGGCCCAACGCCCCTGGAGGCCGTCTTCA
1 ACGCAATTAACGTACGCATATTACACCTTTGTTGCAGTGT
1 AGCGCGCCTGCTGAGTAACAAACGCTACGCTCGCAATCCC
1 TACCTACCGACTAAATTCAGCCGCGACTATCCTACTGGCA
1 CAGCCAACCGCGCGTTACGGACGGCACCGCCGGCCAGCAG
1 CGTACACGTCGGCGGCACATGCATGGCCACACAACACGTA
1 AAGCGGCCGTAGACCAACGCGAAACGTCTTGAGAACTTGC
1 CATACTATCTCCAAGCGCGGTTCCCTCAGGAGAGGCAACG
1 GCCTAAAGCGAACCCACCCCCGCCACCCCCTCGCACCCCC
1 CTCACACACGGAGTCCTCCAGCCCATCCCCCGCCCTGCCC
1 ACCGGGCCTCCACCGGCGATCCATACCTGGCACCACGATT
1 ACATCCGCCCGCCAAGAAATTCATCGCCCCCCTCACCGGA
1 CTCCCACCCTGCCCCCATACCCCCGCCCCAGCTAACCCCA
1 CCTATCCCCCGCCCCGGCAAGCCCGAGATCTAGTACACAC
1 GGTTCCACTAGGAGCCCTCGTAATGAACAAGAGGACGCCT
1 ATTAAGAGATGTTCGTTCACACTAGTATCATTGGCCCAGC
1 ACAGGGCGTAGCCCTCTAACATGACTTCACGCGCATAGTC
1 GTGACTCACTCACAACGGACTATGTGGATTCTGCAAACAC
1 GCAACCGGCTAACGGGAAATCCGGCACTCCACTGCAGCGC
1 AGATGCCTAAAAAATAACCATATAGACAGTCAACCCTTAG
1 CCAAATGCCCACGCCACGACATAGCGACCCACGATCGCAT
1 GTATCCCTATATTCCGCTGCACACTGCCAGCCCGATCTCG
1 ACCCCGCATCCTGTCACTCTACCAGTAAAATCCGTAGCGC
1 CTAGGTATATTCACCCCCTATGGCCACAAAATATCGACAC
1 CCCAGCCCTCACGCCCTCCCCACCCAGCCCACTTAACAGC
1 GGAACCCATATCTGGACTGGGGTCATTCGAGACAATTGAA
1 GTAAGTATCCCTCTCATTCGTAAATACGGTCGCAGAATAA
1 CCTCGGACTCAATAATGTGTCCGGCTTTACTTCCGAATGA
1 TCCCTCAGCCCGCACGTGTCACTACCGTTTAATTCGTTAC
1 CCCTAGACCTAACGTACCCAACTAGTCAGTCCACTCTCAC
1 TTCGTTTCAACAGTATCCCTCAGCCCTGAGCAGGCCAGGT
1 TGTAGGACGATGCGTCGCAGTCAACCAGCGAAGCACTTGG
1 CGCCAGGAGATACATGGTCAGCAGAGCTGAAGACCCGCCG
1 AGGCCCACACCCCCCATAAAGCCAGCTCCCGGATCACAAC
1 CGGAGGACAACCGACCGTCCGTCCCAAATGGCAGCCCCAA
1 ACGCCACGGAGCAGAGAAAGCAGAGTCCACTGTATGAATT
1 GTACTACCGCACGGGCGCATAGTGACAGCCAATCCCCGAC
1 CGTGAGTGTAAGACCGCGGGCATACGGTAAGCAACACCTG
0.04816459825716915 GTAACGGTCTTCTGTAGGTTCCCGCAATGATATCCTACCC
1 GCTTCCCACAGGCAAATGCACACGCGTTCAGGCACAGGCT
1 TACTAACGGCGTGATCACCGCACCTATAGCGACTTGAAAA
0.4887206270309984 ACCGTTAGAGTTTCTTGCAGACCACGGCCACGCCTCCACC
1 ACCTAGCGGCCAAGAGTGCAACTGACCGTCTAGCGGACTC
1 CACGTCCCGCCCCCTCCACGGAGGCCCCCCCTCCACCTCA
1 ACCGTGGGAACCGATTCCAATTGGTTATAACGGCGTAATC
1 ACACCCGCGGGAGACCACGTTCAATGGCACACCTAACCTC
1 GAATCCCACACGTTAACGCGGGTGACTATTAGAGTAACGG
1 ATCTACAGTCCCCTACCTGCCACCCTGCCTGCCCACCACC
1 CATGTCGCGACAACCGAAAACATGCTATGCCTACCCCCCT
1 CCCTCACCCTCCCAGCCCTACCGCGCAGACGCTCCGCGCG
1 TAGGCCCAATCTTGGCTCGATCTTTACACCACATGTTCAC
1 CTTAGCATTTACTTAAAAGCATAAACTAGCGGAACCGGAT
1 TAGCCGTGATAGTAACTTCGACCGTGCCACTACACTTCAA
1 AGAGCCCACGACCCCGTTAACCCTCCGCAGCTAGTACGAT
1 AGTTGAGCTCGAGCACGCGTGTTGGCGCGGACGATGTGAA
1 ATAACGGTCCCCAAACAATGAGCTAAAAATGGGCTGTGTA
1 TTCCTCCGCGAACCCCCTCTACTAAGCATGCTCCTCATCC
1 TAGGCCGCAAACACTATTAACTACATACTGCCAAAGCCGA
1 CCCAGCACCTCCCCCCCAGCTTCCGCTATCTTCCAGCCCG
1 TGTGCCATCTACTATAAGCGGTTACCGCCTGGACATGAAA
1 ACTGGGCCGAAACCCACGTCTACTCACCTTCTTCGTTCAC
1 CAAACCCGCGGTGGCGGACGGACTTGCCGGATACGACGAA
1 GTCCTTTCGGAACCCCCGTTCAATGTCCCCGTGGTCCAGT
1 GCATCCACATAGCAGCGTTAGCACGCGCCCTCTGCTAACG
1 ACCACCCACCGCCCCGACCAGCCGCCCCGTAGCCCTGCAA
1 CCCTCTACACCACCCTCTGTCCTCACAACACCACTCTTTA
1 CACCGTCCCACCTTCCCCCGCCCCTCATTAGCCCTCCCAC
1 TGACTGAGAACACCCCGCTTACTATAACGTTAAACCCCCA
1 CCGTTCCTGCTTCAATTTAAGACAGACAGGATTTCCTGAA
1 CCAGGACTAACACAAAATCGCAGAAAACTGTTTTTTCAGT
1 ATACCCACGAGGTGCAAGAAGCTATGGAATACTTTTGACC
1 ACTGCATGTCCGCAGACTTTATCTCGTGTACGTAACCCGC
1 ACTCACCTCCTACGCTCCCTCCGACCCATGATGTTTACCG
1 GCCGTTATGGCACTCAACATGACCGTCTACTTCATGGACA
1 ACCGCTACTTATAGCCTTCCTATGTGCTTGATCCAGTTTA
1 GCTTTACCACACCCTTAAGAACACTCCCTGGCAAATAACG
1 GTGCCATTGGGCAATCGTTGCCAGACGACCCGGCTTCAGA
1 TCTCCACCCACGCCTCACACCCCCGGACACCCGCGCGATC
1 AGCAACACATCAAGAGGACATTACTTAGCCTGCACCACGA
1 TGCGCCCCTCGCTGCGCACCGAACCATAGACACAAAGCCC
1 CCGTCACTAACTTACCCGCACGCCTTCCCCGGCCTGGGTG
1 ACGTGTACACCACGCGGCAGCTACGCCATGCCACTTCTCT
1 AAGCGGGTAATTCCCTACTGTATCCGTGTACACGCTTCGC
1 CCCGTTGAATCCGTTGAAGAGACCACAGAAACCCGGCACC
1 CTATCGAGTGCGACATTGTGTCACCCGGGCGACCATCTTA
1 AGATGGTGTTTGGAACTTACCTGACGATTGATTTCAGAGT
1 GCCCACACCCCATACTCACAACCGTAACACAGGGACATAA
1 CACTTCACACCTGACGTTCAAATACGCACCGACCTGCAAC
1 TCTAGCTAATCAGGACAGCCTGCCACGACCGTGTGCTGGT
1 CGCGCCGTCTACCGACTCTTCGCCTTCAAACACCTGCAAC
1 AGGGTAGCAAACCCACCAATCCCTGTCATTGGACCGCCGC
1 CTCCGGTAAGCGAGCCGGGCAGATTACATCCCGTGCCAGA
1 GCAGGATCTACAACGGAACTGAAGACTGTACTCCGGCTTA
1 ACTCTGACAACCAGCGCAATCTCTTAATCACTGTCCCGTA
1 ATTCAACAGGGTCACGCTTAGGGAACATCCACCCAGCGAT
1 CGGTACCAGTTAAAAATCCAATGCAGACATGTTACGCGTC
0.4924348074017187 TATAACGGTGAGTCCAGGGCCCGCCGCCATCCCCGGCCCC
1 GTGCTATGGGCATTGACCCAATTTCACGACATTTTCATAG
1 GACCATGGTCTCCCATATAACCATTTGCCCATCCTTTTAG
1 AAGACATACGCATTCTGCCAGCGGAGGGTACGATCCTCAC
1 AACACAAGCGCAAACCGCGGTCCCGATATGAGCTTGGCAC
1 CATACCGTTTACTTTGCCGCTACAGGCCAGCCCCAGACTG
0.5514365605357456 GACACCGCTACTCGCGCACTGAACGGTATGAGACGTCACG
1 CCCACCTACTGAGGCTGCCAGACGCTCCCCTAACTCGTAG
1 ATCGCGCTTCTTGCCCCGAGGCTCCGCCCATAACATTGCC
1 CGTGACAATGCGCATGATACTAACGAAACCACACTTTCCC
1 AGTCTACCTGCCGATTAAACCCCCATCTATTATTCGTGCC
1 CGTTCACCTCTGGCAGCTTCATTCCGCCTCGAATGCGGAA
0.1573092114288389 GTAACGGTTTGATGGAATTCTGAAACGTATCTGGTCAACC
1 CCATACTACGCGTAACATATGTATCATGGCCAGGTGTGGA
1 CTCCCGTACGGCCCACTATCGCTACACAATTGCTGCCCAT
1 ACAGGGCGACATCGCCCTATACCACCCCGCCCACCCTCGA
1 TCAGGCCCTCTCAGCCAGCGAAGGTTGCCTGGATAGCCCA
1 ACTTTACGTCAAAACGCCAAAATCGCCAAACACCCCACAT
1 CTGGCCCAATAGCGAGAAAACCGAGACTGTCCAAGATCGC
1 GCGTCCTGAACTCGCCAAGGTGGTAAACCCGCGTTTAGCT
1 CTTTCTACCCTATTCTGCAGCGATTCGGTTTAGCCGCAGC
1 CCAACCTTTACCGCCAGCATTATCGACCCTCTTGCCTCCA
1 ATGTCGTCAACCATAGGCGCAACATACCAGTACATAACGG
1 AGAGAACCTTAGCAGCCTATGCGTATGCACTATGTACCGC
1 TACTGATGGTATGATTCGCGTGTCATAGTGAAGACTCTTC
0.6962086346051864 ACCGTTAGGCGCATACCTTGCATCCACGGCGTGCACAATC
1 TCCGCACCCACAGCGATCCGCTCGTGCCCAATCAAGAGAG
1 CCTCCTCTAGCTCAGCCTAGGCGTTCCCGCTATTTGGGCA
1 CGACGAACCGCGAATCCAGTAGTGACAACAATACATAACG
1 TTGACCAACCCCAAACGCCACCCCAAGACGTGCGTGCACT
0.2614707467427462 CGAAACAAGAAAAGCCACCCACGGTACGCCTAACGGCCTT
1 CATCCCCCAGAAGGCTCACGGCAACTCCCAACATCCCCAC
0.4732025539375125 TCCGTTATCATGGTCAGACCTCACCACCTAAAACATTTCT
1 ATCCCGCGAGCTTCTGAATCACCCAAGTTCCCCGCTACGC
1 CACTGATTATGTGCTTGGACAAACCCCAAAACGGATTGGC
1 CCAGTACGATGATTAGTGCACCCGACACTGCGATCCGTCT
1 CCGCCAGCACCGTTCGGCGAGAATCGCTAGGTTCTAGGAA
1 TCCAGCGCCACGGACCGTGCACGCGCTCCGCTGGGACGCC
0.2504540176105653 CTCCGTTATCTCTTCTGTCCGTCCGCTCGCACTTAATCTG
1 CCCCACCAAATTTTCGGCTACCCTAAGTAATGCTGAACCA
1 CCGACTACCCCCCACCTCACCGATTGGCACTAAACATTTT
1 GTCCCCGCTGCGATGGAACAGTGAAAACTGCTATTGCCCA
1 ACCCCTCGCTAACGCACGACACATCCATGCGGCTTGTAAA
1 CACTGTCGAAAGCCATGCCAGACATGACGCTGATTCACGC
1 CTATCAAGTATCTTTGCCTCAAAGCTGCAATACAATTAAA
1 TTACTAAGGTAGCGCGAAAACCAATTAGTATAACTGTACA
1 AGTGGTATGACCATGGCGGGCATACCCCATACAGCTATAC
1 TAACGGTAATTGCCCGACCGACGTAATTCGCGGTCACCGT
1 CCACGCAGGACAAGCGAGCGACTGGCCCCTCTCACCGTTA
1 AAAGACGTCAGACAAAATCATGGATCTTCCCTGTGCGCTC
1 CGCAGCACCCCCCGATAAGAAAGGCCACACGCGTCGTCGC
1 AAGCTTCTTAAGACCCCAGAACGACTAGATAACTGTCACA
1 TAGCCTCCCCTCTTTGCGTCGCACACACGAGACCTGCACT
0.3885078907983949 TAGAAACGATCCCGTACCATTGCTTCCCCTCAAACCGTTA
1 AGCCAATGTTCCATCTCCTTAACCCGCCATCCCCCTGTTG
1 CTAAGCGGCGCTCCGCTTATCTACCCGCCCGTTACTTTGC
1 TCCGCTCCCGCCAGTAACCCCAACCACCAATTTAGCTGGC
1 AAGCACCCTTCCCTTCTTGCTCATGCAAATGGCCAAGCGT
1 TCAGACTCTAGTTCGTCGTACGGTCTTGACCTGCAAGGAC
1 CCACCCCACGGCCCGCTACGTTGCGCCTACGACCCTGAGC
1 ATCCCCCCGGTGCCACGTCCACATATGCAACGGAGCCCCA
1 TACTGAGCTCACCACTACCTCTACCGGGCACGTGATGTCA
1 CGACATCACACCGAGTGTAGGCCCACCCTGCCCCCCCGTC
1 CAGCCTACAACGCCCTCTTCAACCTTTACCCCTCACGCCT
1 CCAGTGTCCTCCACCTCCCCCCCCCAGACCCCACCCTCGC
1 GCGCTGGTAGGGTCCGAACGCTGACCGTTCGCAAAAGCGA
1 CTCCGTACACCCTCACACCGATCAACAGCTAGGCGCTGCC
1 TGACTGTGTCACAGTTAGTAAATAACTGGATGAAACCATG
1 CCCATTGCCCCCCAACACGGGCACCCGATTACTCCCCCCA
1 GCTTAAAGTGGCCGCTCCCACCTCTGTTTGCTTTTAATAA
1 GGGCACCGCGCATGCGTGGCAGCCTAAGCTCCAATGACCA
1 CCCTGTGCTTCTAATCAACCATCAAGTGAAGCGTATAACG
1 TAGTTGTCAGCTTCTTGCAGCCACGCACCGTGAACACGCC
1 CCCCACACCTTCCTAACACTCATCACAAGACATCCCGCCA
1 GGACAGTCCCACCAGCACCCGTAGCGCGACAACACCCACA
1 CTCTCAACAATGTGAAAGCTCGCGGCAGTGAGGCACCACA
1 TCAGATAAATTACCGCTATTTCCTCGTCTAGCCCTTTCCC
0.7020637167950893 ACCGTTAGGATTCCCTTGCTTACCCCGTCACTAGTAAACA
1 CGGATCATCTATGTAATCTTGTGTCCATCCACCAGCCCCG
1 CAACAAGAGTTTGCCCTCTCCATCCCTTATGTTACCGACA
1 GAACGCTCAGATGCAACTCGCGAAAGTTACAAACACAACT
1 TTACACGCCCCGTGCCCACCAGGAGTACCCATAATATCAG
1 TGCCTCCGTTCCCGCCCCGCATAGCGACCCCACCCAGGAT
1 GCTAACTTGATGTATCTCCCCCCTGCCATTCACTGCTCAG
1 CTACAACGCTTGACTCTACGACCCTCGTCGGGTACTGCTC
1 AAGATTTCAACGAACCCACCCCAACCGGAATGCCCGCATG
1 ACACGAACCAGACCACAATAACAGCTCCAAACGCCCCCGT
1 CGGGCAAGGCTGTCCCCATATCCGTAGATTCCACCCCCTC
1 TCAGTTTCCGCAGTACCGAATTCAAAGCACTCACCCCCCT
1 AAGACCTCGCCTTCACATGCCCCTCTAGCTCCTAACGCCT
1 AATTAACAACACACCGCCCCTCGCCCTAAGCCCCCACCCC
1 TTGATCTGCCTATGTTTGGACTACTCCCCCTACGAGACGA
1 GCCTCCACCACATGTCTACACCCGCGGCGAACCCATGAGA
1 CCTTGCTCGACCGGTAGGCCAGACCCCCGAACCGTCCACC
1 TCCATCTAGTCAAACAGCCCGGTAGCCAGCCCCCCCTCCC
1 CTGGCAGTGGACGGGCACACTGACAAGATTTTTGTGTTAG
1 TCAACGAAGCCTTGGAACCTGTAATAGCGCTCTAGCTTCC
0.3595981121037226 AATAACGGACTCCTTTGCTACTAAAAGCTGACCCTGCCCC
1 CTGTCGCCGGAGAATGCAAGAGGAAAGGACCTACCCTGAC
1 ATAACGGCATTTTTCTTGCCCTCTGTAACGACCGCTCTTT
1 GAAAACAGCGAAACGCTGCGAACTAACGTAGATAACCGCC
1 TACACCGTCACAACCTAGCCACTATGCGTCCCCCAGCGAA
1 CCCCGTAACTTCTAAAGCTGTTGCTTTCGTTTGGGCTGCT
0.5074035486370618 ATGCGCCCAGCGAAGAAGTAATTGACCCACCTGTGTTTGC
1 CTAGCGTCACAAGATACGTCCCTGTGTGAACGGCTAACAT
1 CGATTATCTCGCAGACTCACGCCAATCCCCACACTCCCCC
1 AGACACATGAATCGTATGCTAGCGCTTAAGGGAATGCACA
1 CAACTGCACCGAGAGAATCGACCCGCACCCTCGTACTTGA
0.800494886668269 ACCGTTAGCTCGGTCCTCATTTACCATGAAACAAGCCATA
1 ATAGGAACTCAACATCGCACCGGGCCTGCCGACCCCGTTT
1 CAAGCGAGGAGTAGATACAGCTAGCGCAAAGCACCAGGAT
1 TGGTCACGCTATCAAATCGTCTACTGCTGCTAGGATGCTA
1 TTCGCGTTTACACGCATAATTCCGCTAGAAACCGTACCAG
1 CATCCCGTCTTGCCGTCTTTGCAATTTGCCATGTAACGGG
1 CAGCCAGGTCGGAGGCCATGTCCGTGTCCCTAGTAACATC
1 GCACCCTCATCCGACTCACGTGCCGCGCGTGGCTGCATTG
1 GTGGCTAAGTACGCAACGGAAGGAACGGGCCGCAAGAAAT
1 CTCTTTAATGACACGGCAGGGACTTCGGTTTCGGCTTCTT
1 CCAACGGGAGATGTCCTCGCTAACTGGGACCACGAAACTT
1 AGCGTCCTCGTTCCCCCCCGCCGTACTACCCACTACGGCC
1 GATAGCGTTCGTCAGATGGATACTCTGACCCGGCAGTACC
1 CGAGCCCGAAGCTGAGCGGCACGTATTTTATTGCAGGTCG
1 TGACGGAGTCTCCGATCCCACCCTCCCCTGCATTCCCCAG
1 CACCCCGCTTCCCCCCCGCCGCTGGATCCAAGATGCAGGA
1 GGGCGTGGTATCGTCGCTATGTGGCGAAGCGCTACTGCGT
1 TTCTTCCGTCTCCCCCCAACCGTGCGTATAACTGTCCACC
1 CCTAGAGAGTACCTCACCTTCCAATCATAAGATCAATGAC
1 CCGCTATCCAGACACCCCTAGCGAAGACGAAAGGGTTGGA
1 AGTACCGTAAGCTTCTATAACCACCGCTACTTTCACGACT
1 CGATAGTACGGATGTGGCTATGGTGTCAGTCAGACCGTTA
1 ACTACAGTAAGCGAAACTCCTACCGCCATGAACTGAGGCT
1 CCCTGCAAAATCGCCAGAGTTCAGCGGTAGCGCGTTCCCG
1 TACGCCCCCCCAAATAACAGTCATAACCCGCAGCTACCTA
1 TGGGGTGACTGAAAATAGTCCGTACGCAAATCCGCTGTAC
1 CCTCCCCGATCGCACGAACGCATCCCCGCGCTCGCATTAC
1 TCAACGCCCGGGATCCAATTGCTGCCATGACTATGATTCC
1 GTATCCGTTGTTTTCTCGTTGCTGGCGCGACGCTTTGGCT
1 GAATCGCCCGGCGTCCGCCGCACTACCACCTACGTTCGCG
1 CGCAAGTATACATGGACATATTTGTCCCCCACTCCGCATA
1 CCACAATATAGTGCCCACCCCAACTTGAACCGAGCTCACC
1 CCATGATAGACGTACAATCTCATGGCGCCGTAAGACATGC
1 CACTACCTCTCGTCAAATTGTGCTAGGGTGCATAGTGCTT
1 TGGCAAAGATTTGGATGACGTTCTTCAAACGCATACTAAA
1 CATCCCAACTGCCAGTGAGTCAGACATATTTTATTTCTCC
1 GCCACTAGCGAACCCCGTCTTACAACCCCGACCCCTTCGT
1 CCACTCTAACCATTGGGCCCAGATTTAACACACGTCCTTG
1 GAGTTAACGTCCTCGGTAAGGCCCACGACGCATACTCAAC
1 GCCCCGTCTCTCACACGCGGAGTAGTCAGGACGATAACGG
1 CCTTCGAACCCTAACGGCCCTATTCCCGCAGACATTGCCG
1 CTAGCGAAGCGGAATGGTTGGTCACAACCATTGTAAACGA
1 CTGCGGTGCATAAGGTCGTGAAAGCCGGAACCGTCTAACG
1 CGCCGCCTACCCCTCCCACCACGACGTTGCTTCATGATAC
1 GAGTAGACACCGTCCCTCAGTACACTGGCATGCCCCAACT
1 CTAATGCTAACACATGGGCCCTCGCCTCCACTCCATTGAC
1 ACACAGAAATGATGCATCGTAATCAACGGTACAGAAAATC
1 GTGCACGATTAACCTCATTTACCCTGTAGGTCAACGGCAC
1 ACCTAACCCCATTACGGCGAGCTAACACTCACAAAGCGAA
1 GCATGTGGTACGGTGGGCCATAGCAGATCATTACACTGCG
1 TCAAAAAAGCCGCATGCCTATAGCCTTGACGCCACATGCA
1 GCCACGTGTCCCGAACGCCCACAAAAACTGCGACCCACGC
1 ATGCCACGTAAGCTTTAAAGGCAACCCTCGAACCCCCACC
1 GCTCCGACTGTGAGTTCGCGGCGCCACCACTGCGCTGGGG
1 ACGCTCCACCACCCCAACGTCCCCACAATGCCGGCGCTGT
0.6847806009739779 CTCACCTCTATCTTAACACGAAATAACGTTAGTTTCATCT
1 CCCACTGCTACTTATCCAACACACTTCCACAAAACACCGC
1 GCGGAATCAGAGTAACATTACCAGTCCGTCTCGTTTGCCG
1 GTCTAGCCATACCATCAAGCCACGATAGTTACCCTAGCCT
1 AGTAGCGAAAGGACGACCCGCTGATGCACGCCTTATACAC
1 CGACAGCGGAAGACCGTCCGCTCGACGAGTTAAAACGGGC
1 TCACACAGCAACATAACACATCGAAAACCGGGGTCCACGA
1 CGGGCTAAGTTGAAGGCAGCACATAAGGTGGATATCAATG
1 GTACCCAAATCTGCTACGACTCTTTACGCTCTTTTGAGTC
1 TCGACCATGCGCACCGCAACGTAGTCCCCCACCCTCACGC
0.576960217890378 GTATCGGAGCAACGGTTTTCTGGCGGTACAGTCGTGTTAC
1 CAACCGCTCTGAAGCGCAACCCGCACACCGCCTAGGGCCC
1 ACCGAGGAATTATGGTTACCCTGCGATGCACAGGACCGGT
1 CACAGGCGAGATCTGCTTAACGTACAAATGGAAACTCTCC
1 TTAATTACTCATGATACTCCGACCCTGGCTCACGCACGAA
1 TTGCCACAATCTCAGACATAGTTACCTATCATTGCTGTGC
1 CAGTTCGGCAGTGTTGTTTAAGGTGATTCTGGAACCGTTA
1 CGTTTCGTTGTACCACGGCCCGTACCACTGAACCTTAAGG
1 AAACCCCCCCGTTCGCGACCACAATACACCGTAATCACCC
1 GTTCCTCAGCAGTATGTAGCCAGAGAAATAAGTGACCTGC
1 TGTAGCGGAATGAAATTACTGATTGTTTCGCGCTAACTGA
1 CGCCCCCGGCATGTGGACCCACAGCCAATACAGCACAGGG
1 AGAGTGACGCCGCTAGCAACCGCTGCAAAGCGAACCACAT
1 TGCTTCCCCTGCTCGCGCGCACTTATTAACGTGCACCTTG
0.5234758236739071 ATTTCACGTTATTATGGTTTTTTAACGGAATTGGCGCCCC
1 CGTCCGCGCCTTCCGTACGGTCTGCCAAACTCGAATCTAC
1 ACCATGTGTTTCTAGCACCCGTCAACAAGGTTCTACCTCA
1 TCACAGCCTTCCACCGCTAGCCAGCACACCATCTTGCAAC
1 TACGTGTAACATAATCAGATAACAAACAAGCCACCGCTTA
1 ACACCCACCATCCGTCACCAACGCCCTCGGTGACGAAAGT
0.9597653226404034 ACCGTTACACCACCAGCAACAGCACAACTCGTTCCGGCCT
1 CCTTACTATGGCAAGCACACCTCTCTAGCATAGCCTTGGC
1 ACCGCCACACAGGCCCACCGAGCCACGGGCGCACACCGCG
1 CAACAAGACCTGCTTGAGAGGCCTCGTGATCGAGTGGCAG
1 TAATAACAGGTAAATTATCGATGCCACACCAGTGTCGGTA
0.3852429404009284 TTAATGTAGCCCGTTACACCACACCGGCCACTGGCCACCC
1 CGCCCATCATTAGGCGGATCTTATGCGCCTCTTCGCTTAT
1 TCAGTCACTACCTCCCCCACCTGACGCCGAGCCCGCCGTG
1 CACTACCCGTTCCGATGCATCGCATGCCCTGAAAACGCAC
1 TAACGGACTCGATGGGCTAAATCTTGAATGTACCGTCCCA
1 CCCACCCACGCCACGAGCTCTACCGGGAATTGCAACCTGT
0.5185037849493723 TCTAACGGACCCGCTCGCAACCCACTCCCGAATATTCCTC
1 GCACGTAGTAATCTGGAAGAGCTACTATCGTAGTGACGAT
1 TGGCGCACCCCATTGATCTAACCGACCACCGCCACGTACC
1 AGTACCATCCCGAATGGGGGAAGACGTGGCGCAGACCAGT
0.2701167363185582 ACCGTTATTCAGTGCAGCCACGTAAGGCCCTGCCTCCAGA
1 CGCGCGTACTCAACCCGCAGAAAGACCCCCTGAGACTCAT
1 GTTTTCTCCCGTAGCGTGGTCGTATAAAAACAAACCAGCA
1 CCCAACCTGCACCCGTCCACGACACCACCGACAACACACC
1 CTGTCGTTGCACTATGACCGAAACGAACACTGTCATGCCC
1 TATGCCCAACCCAGCGTTGCCACCATGAAACCACCCACCC
1 TAAAGTACCACATTCCCTTAAACGTATTGGGCGTCGCGTG
1 CTCTACTATGGGTTCCGAGAGATGAGCGTACGTGAGTGTC
1 CCTCGCCATACATTACGAATTCATGAGCACCGCAATGAAT
1 CTGATGCGCGCGGCCAGCGAGACCCTCCCCCATTCACAAT
1 CCCTCAGTCCCCCCCGATCCCCAGATACGATAGCTTGCCG
1 CCAGCGAACCGCAACTCGTAGCTTTGATCAGCCTAGCTGT
1 CCCCCGCCAAACCCCGGCCCGCCCTTACTCACCACAAGAC
1 GCGCCCCGCCGACCCGAACCCCGTTTGCCATCCCACACAT
1 TTGTTGAAACATATTCACATGATACGGATGTGTGGTCTAA
1 TTCGACCTCGTCATACCGAAAACCTACGTAATGCTCCATC
1 TACCCTCTGCCCCCCAGATTAACTGAACAAGTAAGACATT
1 GACGCCCTCCCCGTACCGGATGTCCAGCCTGTTTTAAGAT
1 ATGGCCCCCGCGGCACATGTCATGTATCTAACACTCAGAA
1 CCTTGGCCCTCGTAGGGCAAAAAGATCCACTGTCTCTCAC
1 CCATCCCACTCTGTCCCCTTTTCGCCGGGCGATGCAAATA
1 CCCCACTCCGCGTACTACCACTGCTCACACGATCGCCCCT
1 GACCCGAGCGTCCCAGAACGCTTTAAGGCCGAGGCCAGCC
1 ACATGGAGAAAATTAAAGCCCGTCGCTGATAACTAGTTGA
1 GGGCCCTATATGCCTGGTCCACCCTTAAGGCCGATGGAGG
1 CCAAGCACCGGTCACTCCACCCAAGCTAATATGTGCATAG
1 GCCCTCACTGCATAATACGTGGCACTCCGCTGCGACTCAC
1 TAGCGCTTCCGTCACTCTCTATGGCTCCCAGCAATCCAAT
1 CCTGGCCCACACCAAGCCTACCTACCCAACAGGTATGCCT
1 CCCCATCAGTCATCCAAACACACAATAGCGGTCCACCCGT
1 TACCCACGACCCACCCCACCCTCCAACGCTGGCCCTTCCA
0.1737455249115537 CAAGCGAAGCGCCCCGTCGTTACTCACAACGTTGTTCCCC
1 GATAAGTTATTGAGGCTACCATTTTTTGCGCTGCCCGATG
1 ACGCCCGCCTCTGCCCCTACGGTACCCCCCCTCTACCATC
1 ACGACTAACTGGCTGGTTAACCCCCAAAATTTCTGTTGCT
0.7459430545110247 CTGCAAATAACGGCGACCGGTGACCTACCGACGCTCCACC
1 ATAACGGAATTTACTGGTGCCGCACATTCCCAGTAGCATG
1 CTAAAATCCTGCTTATTTGAGAATCCGTCCTAATACCTGA
1 CCGGTGAACCTCCCTTTGTCGATACTCATGGCATTACTGC
1 CCATACCCTCCGTACCGATGGCACACGTTCGTGTCATGCG
1 CTTTTTGCCCACCCAGTCCCGCCCCCCAGCGCTACTCTAC
1 GTTGGACCGTGTTGTACTATGTGGTGGTTAGTTACTTAAT
1 CCCTCAGGCCTACCTGTGAACGTGATACTTTCTGTTCGCC
1 GTCAGGCGCCTAGCGAACAATCGTTTACGACTGGCCTGCC
1 GACCACAAACTCAGTGCCCTAGGCAGAAGTACTCCCGGAG
1 GGCTCCATTCCGACGAATGCACCGCATACAGCCACAGACT
1 TCACACACCGCTATGTGGGCCCGTTGTGACGCTCCTCAAT
1 CGCGAAATCACCCTCTCCCTGTCCCCCCGCGGCCGCAATG
1 CAGCTTTTACGTCCTCCCCGAACATAACCATCCGTAGTCC
1 ACTGACGTAGTAACTCTACCCACATGTACCTAACTGCGGT
1 GCGGCCCCACAACGTGCAGCCTCAACCCTTCATCTAACGG
1 TGTTCCTCACGACGCCTTTTTCGTAACCTTTTACCCTGGT
1 CACAGGCAAAATCACGCCGACCCACCTCTGAATTAGCCCT
1 CCCCCTCCGCACAACCGCGACAGGGATCCCAAATCGCGCG
1 ACTGCTTTCATTCCATTTGGTCTGTGGCCACAGTCAACGC
1 TTACTACCTCTCGGTCCTCTGGTCAGCCAACAGAATAACG
1 TACAAAAGTGTTAATCCGCTTCACCAGGAGCGACGACTCG
1 ACCCGAAAATTTTACGACCCTACCCCCCCCACAGTCCCCG
1 CACATCCGGCGCTTACAAACCCAGATCACACCTCTAACGG
1 CACAACACCCACACCCCCCAAATACACATGCCCAGCGCCC
1 TTAAGCGCGCCTACAGGTTCTTGCAATCCAGGTCACTGGC
1 CCTGCACAACGGAATAGCCGCGACCCAACGGACCCGACTT
1 GCCCTCCCGCTCCAGGATGAACTACCCGCTCAGTTACACG
0.6328028450027721 TACGAACCCCGTTATCTCTTCAGTAGAAAAGAAACAGCCA
1 CCTGCACATCCCGTATTTTGATAACGCTAGATACAAGGCT
1 ACTCCGTCCGAAAGCGAACCCAGGGGAGGAAAACTGGCCG
1 CGACACCCGTGACGGATGCCCCTTACATTCCCCCTGTACC
1 GTCTTTAGCAGGCTATCAGACAATCTACAGGAATACGCTC
1 TCTCCCGAAACAATTCGAAACGTACATTCGGTCCTCACTC
1 ACAACACGATGCATCGAGCTATCACCTGAAGTGTCTGCAG
0.5478986088383214 ATAACGGTCACTGCGGGTCCCTTGCCCTTGTACTTCCGCC
1 ATAACGGATTTTGTCACATAGTCCCATACGCTAGTAGCGC
1 CCAGGCGGACGGTGTGCGTACGGGCCAGCCATGGCGTTGG
1 ACTTCGAACGGTACGGTAGTACCCCTAGCCCCCTAAGGCT
1 CCAAGCGAAACCACCCTTTCCCGCCGTTGGGGTAAACTAT
1 AAACTCCACGGGCATAAAGTCTGTACACGACTTCGTATCC
0.3320742966578205 ACTAACGGATCCTGCTTAAAAATACGAAATCTTTTGCACG
1 TTGAACGCTTAGGCTCTGGCCCGCGACAAATTAGGGCCAA
1 GTTCACTAGGGTCCAATACGACACGATGAACACACCCGGC
1 TGGTCCGTTAAAGATTCCGAGGTATCGAAAACAAATAAAC
1 GAGACCTTTAACTCTAGTTCTACCACACTCTCCACATAAA
1 TACGCTCTCGTAGAAAGTATTGAATCCACGAGAAGAAGTC
1 CCTTCTCATACCGACTCCGCCACCCACGCATGCGCGTGTA
1 CCTTACCCCTAAGATCGTGAATAACTGGGCTGGAGCAACA
1 TATACGGCTCTCCCCTTATTATCGCGTAATGGTATATGTT
1 TCCCCCCAGTTGTGCAGTGGATTTGCCCTCCACCCGACCA
1 CAGGTCGTGCATCCCAACCCTCCCTTGCTTCCCCGCTGTT
1 CTTCTCACCAAGTGCAACGCGCCTCCGTTAACTCACTCTG
1 AGCGACCAGCGATGCGAAACCCAGAACTCTTTTCGATAAC
1 ACGCGACTCAGTGGACCGAGACCGGAATGCACGCTCGCCA
1 ATGGCGTGCTTTCCGTCACCGATTCAATTAGCTACTGGAG
1 ACCCAAATGGAAGGCGTAGCCCACGCCAGCCCCGCAGCAC
1 CCACACTCATGCTCGCACGCATCACCCTAGGTAAGTGCCA
1 CGTAGCCCTTACATCAACCACGTAACTTAAACCGCCTTGA
1 GGCGTTATGCCAGCAGTGAGCGAGCGTCGACCAACGGCGA
1 TGGCCTATCTACTACTTGACCCGAATTCTCTTGAATCAGA
1 ACTACCCCCTAGCTTCGCCGAGCACCGTCCCCCCACCCAG
1 GTCGCAGCGACTGACCCCCCCAGTGAATCTATCTGTACCT
1 ACCACCACCCCCCACCCCAACCACCAGAAACCCACTGGCG
1 GCCTACGCCACCCCGTCCATCATGACTGGCCACATAACGG
1 GCACAGCGCTAAACTAAACGGTATCCTTGCCACTACCCTA
0.9636589795838657 CCAGCGAAGCGAGCGCGGATGCTCTCTGCGCCACCCTCCA
1 CTGAAAGTCACGCACCCTGCAACGCAGCCAACTAACGCGA
1 CCCCACGCGACAAGTACGCAGCAACGCTTCACGCGAACCG
1 ACAGCCCGCCTCCACGCACCCCCCCCGCGCCCACCAGCAC
1 CTGACCTCACCTCTCTAAGTCCCTACGCACTTACTGCACC
0.3144007343438217 CCAGCGAAACGGGAATGTAAAGAATTATTTATGTCGATAG
1 CCAGCGCCACTGGCATGCTATGATGTGGGAAGGCATACGA
1 CACTAACCGCAGAAGAACGGTACTTTGCCGTACCCGTCTC
0.4829297600146875 CAATAACGCGAGAAAGTGCCTCGCATAACCGCTACTCCCA
0.1765215578262228 CAGCGTGCTAAGTATGATGTGGTGAAATCCCGTTAATCAC
1 GAGCAAGCGGCTCGGAGCGGTTACTGGCCTTCGCACCATA
1 ACTACCAGAAATCAGTTCATGGTCTCTCACGAAGGCCTTA
1 CGCCAATGATCCCGCTACATGCGCACCTCCGCTAGCGCGT
1 GAGCCAATCCCCCTATGCTCTCAACGGCCTGTATCGCGAC
1 CATCTACGACTCTCAATTTACCCCGCACCTTAGTTCGGCC
0.2944138973735715 GATGTTGCACAAGTTGCGACCACAAGGAGGCAGTAACGGT
0.5136421428826076 TACACCGCGAGCATGCGGCCAGCGAACAAAAACCCACATC
1 AACCACCCGCGTACACATATAGCCCTCCACCCACACCACA
1 CTGTAGGTCCGACGTTCTTGTGCGCCAGTGATCCACCGCT
1 TAACTTAATACCTGTGTTCCGCAAGTGGGCATGCAGAATG
1 CCGCTGCCTACACACTCTACGACGGCCACGACCAAATACA
1 CATGCCAATCACATCACTGCCGGTCCCACCGCCCCAGACT
1 CAACGCCTCCCACCACCGCCCCCCCCCCACCCTCCCCGCG
1 TTCATTGGTGTCGCAATCACCCCGGTCAGTCTTGCACTCC
1 CTCACTACTGAGCTATTCCTCTCCGAAATTTGAGTAACGG
0.2799550261019637 TGTAATGCAAGGCCGTTATCCAAGCCTCGCTACTCTCGCT
1 ACACTGGTCGACCAGCACTTTTTTCCCCGCGTGCGTTCCT
1 ACTCCCAGATACGTCAATGCTATTCCCTGTATCTGGCGGT
1 ACGACGTCCGCTTTCTCGCACTCCCCCCCTATGCACAGTT
1 CCGATCCCAGTGTTCAGGGGGCCGAGGTGCGTCGCACTGA
1 TTAAAAACACTATAACTCGCGCCGAGGGAAGCGAGGGCAC
1 CTATGTGTGCAGTCGTTACTCAGCAGCGGATCCTCTAAAG
0.661534082132067 ATAGCCGTTAATATACCATTTGTTTCAGAGTACCATGCTA
1 GCAGCCCCCAACTAACTTGCCGTCGGTTTTTAACCACGTA
1 CCTTCGATTACCGTAAGAGAGCCGCGCTAGCTCCTTGAGT
1 AACTTTACACATCATCTCCGTTTAGGCTTTTCTCTAACGG
1 GGACAATGCCATAGCGGTCAAAAACTTGTCCTAACCAACC
1 CACTGGCTTGTTTAATGCACTGTGGCCATTGCAAAATTGT
1 CTCTGCCATGGACATGCATAAGATTAATAATGTACAACAG
1 GAATGCCCTAAGCCAAGCCTAGCAAACTGCTGTATAATAC
1 CTATCCTCAGGCCCGTCAACACTCGCTCTCTATCAATTAT
1 CTCCACATCGTTCTTCCACTCGATTGACGAAGTTACAAGC
1 AGGCGAATTATGCGCACAATATTGCGCCACCTCATGACGT
1 ACCCGCCCGACCTCCCCAATTGTATGTACCTCCCTGCTGC
1 AAGGGCTACGAAACATGCGAATACCACGTAGTCGGGCAGG
1 CCACCCCGACTACACTCGAGGAAGCGCTTTCGCCCAGCGA
1 CAGCAGTCCCGGTGACTACGTCAACGCCTGGAAGCTAACA
1 ATGTCTTTATTTCCGATTAATCACGATGACATAGGCGCCC
1 CCCGACGCAGGGCTGACCCCCGGATGCCCCGAATGCGCAT
1 TATCACCAACCGGATGAGATGCATCCACCAGCATACCCGT
1 CCGTTACCGAGCGAGTTGCTCGGTATACTAAATGGTCCAC
1 TCTGTAACACGCACAATGCACGCCTGCACGCAGCGAAGTG
0.8350899306294978 TCTGGCAAGCGAAGCCCTCGGTTGCATTGACCCGGTAACG
0.814019049399151 CACCCCGAGCATCACTCTTACGCATCTAAATCATAACGGT
1 CTGGCACCACACATCATACCAACTTGCTTCCTAAATTGCG
1 CCCCGCTCACCGAGCGGAACCTACAACAGAGAAAGGTAAG
1 CTGACTTGGAGCGTGCCTATTCCGTTTAACGATTCGGAAG
0.9562376632105685 CACCGGACGCGTGTGGCTGGTGCACCTGCTAAAACCGTTA
1 ATCGGTGATGTTCGCCGGACGCAAGCGAATAGCAAGCTCG
1 AAAGGGTAGAACCCAAAAGGGGGCCTTTGGACGACAGCTT
1 AACCAGTGCTTAACTGGTTTAGTCAATCTCCGGGATCGGC
1 ATTCTGTCACACTCCCCAAAGCCTACCAACTGAACCACTC
1 CTCCCGACGAGTAGCTCTAGCCATTCAAGTTATATAGGCT
1 ACCCACCGCGGTAACCCCTTGCTTGGCCACGCTCCGCCCT
1 ACGCGCAACCCGCATCTTACGATGTGTTCTAAAACGCCAG
0.2072740899875037 GCAAGAGATTTGAAACCTCAATCCGTTACAAGGATGAGAC
1 ATCCAGAACGACTGATACACCCATCGTTTCCGAGATCGTA
1 ACCTTTCGCAGACGCCCACAAACGTGTCGCGCCCCCTAAC
1 TCCCCACAAAGGACGCGTTGTCTTACGCTCTCAACGGTCC
1 TCTCGCCCCAATGCTGGTACCACTTGTTTCATTCGGGCTA
1 GTGCACTAGCGCCTACACCTGTCCCCCTGGTCACGCTACC
1 CGCGGTGTCTGAGACCGCTACCCGCCACAGCATCTCGCAC
1 CAAAGCGGAACACTCCGGCCCGTGGTTAAAACGGGGATCC
1 TCCCCACCGCCCCCTCCCTCAACGAACAATACTACCCCGT
1 ACGCGGCAACACACCCGAAGCCCGCCCAACCCACGATGTT
1 CACGGCACCACGAGCTCTTAGCGAACCGTCAGACTTCACT
1 ACCACCCGCACCCACCCGCCGACATCGGAGGGGATAACGC
1 TGAAAGCCCACCGAAACCGCCCACCGCCCCCCACAACGCT
1 TCCACGTGCGGGTCATCCTGTACTAGCGAACTGCAAACGC
1 GCCACACCAAGCCAACAACATGCTGGACGTCACTATATCC
1 AAAGATCAGCTGAGCCATGTGCTATACTCCAAGAAAGCGC
1 GATGTTTCCCTAAATAGCCCCACAAATAGACTTTCAGGTC
1 CAAGCGGAAGCATCTACTGTCGGTGACGACGGGTTTGCGA
1 TGCCTAAGTGAACCGTTCTTACCTTCCGTCAGCTATACCG
1 CGATAACCGCTACTCAACGTAGGGCGGAAGCCGCGCACAT
0.2000959429512755 ACCGTTATCCCCAATTACGAAGCACTCGCATTTTCACCAC
1 GCCCGAATGGAACAGCGACAAGCTATCGCCATACACCGTG
1 CTCATCCAGGCCGATTCACCCGTTCATACCTGGATTACTG
1 ACACACACCCGTCCGACAATTAACCTAACAAACGGACCCT
1 ATACCCACCGGCATCTACTACCTGCNNGGCCGAATAACGG
1 TCGCACGGTCTCAAACGTGCCGTCTCCATTTTAGAATACA
0.2499299678920694 TTAACGGTTTCTGTAGCCCTGATCATGGGACAAAGCGCGT
1 GGCAGCCCCCTTCCCACCCGTGCAGCTCCACGACACGAAC
1 ATTTCCCCCGACCCCGATGTGTGGTTTTGCGGGTCCACAA
1 ACAACCACCGTAACCACAGCCTCCTCGTTCGTACATGGCC
1 TAGGTGCACTCCCCGTTTCATTGCGTATTCTGCGCCTTTT
1 AAGATGCCGCCAAATCCGGTGCGCGCGTACAACGGAAGTG
1 ACCCTATGCCAACCAGCTCGTCCACTCATGCCACTCTCCA
1 ACTTCCCGCCGCCGTAGCACTACGTACCTCTTGCGAAACC
1 CTTAAGCCTGAAACCCCCCGTCTAACCGATAAGAAGCGAA
1 CGTGAAAACAGTCGCGCGTCACTACGAAGATCGTCAATTT
1 CCTCCCTACACCCGCACTCATCCAATGCCGCTCGTACCAG
1 CATGCTTGTTAATGCTAGAGTTCAAATCCGCTATTTAATC
1 GGCGCGGCCACCCCGCCTGCCACGCGCACCCCGCGCCAAC
1 GTTCACCGAAAACGTCGTGGCCGAATCCATAGGTACGGCT
1 CGGAACTTCACCACACCCAAAGCACGTATTTGCATAACGG
1 AATAGCTCGATCATTTACCTCACTCTCCCTCTAGCCGGTA
1 GCCTCCCAATATAGCCTTGTATGCCAACGGCAGAATAACG
1 AGCCCAGAGCTCCTCACGCTCGTGGCCGTAGCAATGAAAC
0.0419686259640664 CCCGTTACCTGCCCCTAACAAAACGTTAAACAACACCAGG
0.2637501685569427 GCACGGCGCATAGCTAACGGCACAACACCTTAACCATCGG
1 ATAGCGGGGACAAGCCAACCATGCTATCAATACGCTTGCC
1 ATGTCCTTGTTCCAATCTCAATCATCCGTCTGCTGTCAGC
1 CCACTAAGTAACCCGCACATGCCATGACGACCCAATCCAC
1 AATGGCCTGGACAAAGACGGGTTGACGACACATTACGACC
1 TCCTACGACGTCGGACCTCCGTTAGCTGGGTTTCTAGCGA
1 TCGCTAAGATATGGACCGCGCTGCAGCCAAATCGTTTGCC
1 ATTCGCCGCTAGACACCCTCACTGCCCTCATCCACCACCC
1 TACTCCACACACACTTCTTCGTGAAACGACATCTTCTCCG
1 CAGCCCGCACGCATTCCATGCCAACACTACCTTAGCTCCT
1 TACCCCCACTTCGTAACGCTAGATGAGCCGTTTCCTCTCA
1 GACGAGTAGGGACTTACGACGAGAGGAATGGTAGCAGTGC
1 GGTTGCCCATCCACTATAATTCTCCACCTGAGATCTCTCA
1 CCTCTACCGGTAGACACATAGCAAACGCTAACTACGAGAA
1 ATACAAAACCCACACCAAAGCAACAGAACCATCGTGTTAA
1 ACGCGTTATAGCATTTTACCTCGGAATTATTCCACCATTC
1 AATGCCACTCCCCTTCCACCGACCTTCTTACTCAGGACGC
1 CATACGCCAAGACTCGGTACTTTTTAGATGCTGACGTAGA
0.5208569138341526 ATAACGGTCGAAGAGACCTTCACACAGCATTCGGACTGGC
1 ACATCTTTTGACACGAACCCGCAAACAGTTGATCTCTCTC
1 CACAGTAGGTACCAACGGTAGATAGCGACGTGAACTCGCT
1 TTTTCGCGTTACCAATTTTACGTGAAGCTCCGTCTTTCAG
1 AATCTTCATGCCCACACCACTGGATCGCATACTCGTTTCT
1 GCTTGTCGGGCCTTCTCAACCGCGCAGCGTACGCCCTAGC
1 AAGACGACCACCGTGTCCCCTACTGATGCCTGGCGCCTTA
1 CACCCGGTGACCAATCACATCGTGCCCTTACCTCTCCATC
1 CTGATTACCTCAGAACATCGCCCGGACGCCTACTCGTTCG
1 ACGCTTGTTATCAGTGAATTTGCGATGTCCATCGTGTGCA
1 CCCCTAATACAGCACCGTCCGATCAAGACACCGGACTATT
1 AGGCGGCGTGAAACCGGGACTACATCTAAGCAGGCGCACT
1 GATGTAGGCAACCATACAATATTTGCGTCGACCCCCTGTC
1 ATTCATACGATTGTGACGTCGGGTCTCGTAGTTGCAGAGA
1 TAAGGGGTAGTGACGCTGGCCCCACACACTCTATAGACAC
1 GCCCCACCTGGACGCAGAGCCGCCTTACGTAGAACCGTTA
1 TACGGCGACGTACCACTGCCTTACCCTGTCGCCGCGACTG
1 AGTATAGGCCATGCACAAGGCCCCCTACCAAGGACCGTTA
1 CACGTCATAGAACCAAGATCGCACGTAACCGACAGCGGCC
1 ACCCACCCCCCACTTTACCATAAAGTGTCACCCGTGGAAG
1 AGCAATAGCAATTGACATGCGCTCAGATAGCGGGAAACAA
1 ACCCGGTCAGGTCTTCGTTCCTTGGCCACCCCTCTTTCGT
1 GTCGCCGCCATAGGCCTTAGTCCCCACACGGTATACGGCG
1 AAAGAGCCGACTTATAAGGTAACGGCGCGGGCGTTATTAC
1 AATCTCATAGAAACGGGTTATATTAAACGGACCACGAAAT
1 ATGATGGCGTTGCCTATGCGATTTCGAGCTCATTAACCAC
1 ATAACGGATTCTGAATCAGGGTACCGATGCATTTTAACGA
1 CCACGCCTGAGGCCATTTCCAAGCACCTCTGCGCCGTCCT
1 TCCCTGCAACCCCGACGCACGCGACCCCCACAAACACTGA
1 CTTGCCTTCACGTTCATTCAGACACGCTTAGTCAAGCACC
1 GCTTCCCTCACCCTAACGCTCCAGCTAGCGAATACTAAGG
1 ACACGGGATGCGCAATGAAGCGCAACAAAATAAAGACACT
1 CTCCCCTAGCCCGCTGAGCCCCGATCGCGCCTTTCACCCA
1 CCATATTTTATATCCGCCCTGCACCCCCTATAGCCCTAAG
1 CTCCTCCCCGCGGCCCCCCGCCCCCCCCCCTTTCCCCCGA
1 GAACACGACTGTGGCCAGATTCCCCGTCCACCACCGCGGT
1 CCCTACCCATATCTGTGTATCGTTCTATAACAATGACATC
1 CCGCACCAAAGGATCGCACTAAATCATAGCATTTAGTGGG
1 ACCGCCAGGCCCTTACCCACCCACCCCAGCATGGCACTTT
1 TGGCATGCTCGACTAACGAGGGAGTGGAAGCGTTGAGATA
1 CCGGCCTGGAGACGCATAGGGCCAATCACCCTATGTATAG
1 CACACAACATTTCTGGTTCCGTTCAATAACATTTTTCTGA
1 CGCGAGGCCCGTACCGCTCACCTCCTTCTAAGGAGGACGA
1 CCAACACTTATCAGGCAACCAACGAAACACCCCTCACACT
1 CCGCCAGCGAAACCCCACCGGTGACGACGTCGATGGGTTT
1 TCCCCCCCCGAACCGATAACGCAGCGCGACACAGCGGAAC
1 TACTTCGATTAAATGCCCTGTCCCCGTCCGTCGGTGTTGA
1 AGCCACTAGCCCCTCAACTGCGCGTACCCTCCGAATAACG
1 TACCGGGACGCGCTCACGTACCAGATCGCCTACACCAGCT
0.0496090094650777 CATGGGAATATGCTTATATCCGTTAATCCTCGACCTGTTT
0.4027612587236643 ATTTCTCAGACTACCACCCCCTGCCCCACCGGCTAACGGT
0.2599621243355292 CACAAAATTACACCGTTAAAGTGAAAGTGACCCACTCACG
1 TTTAGGCTTAACAGTTTGCACATTATGTAAGCGCCGTTAT
1 CAACCCCAAACCTCCCAACTGATACACCTTTTCCCGAAAC
1 CGATCCAGCCCAGCCCTCCACCGCTCTTTTGAGTACCCAC
1 CGGCTAGCGAAGCACTCTCCGCGTTTTACTAGCTCCCATG
1 ACATGCCAAAGGTGAGGGTCGGCCTACCTAGCTCGACGTA
1 CTCCTGGGTCCCGAGACCCGATGCTACCCGCATCTTAGCC
0.6515342900045796 CTAAGGCTATCGCTGCCGAGGTGCCCGTTAGTGCAGGTGC
1 CGCCACCCGCCCCTCCACCCCACCCCCCCGGGATCACTCG
0.2504967593707894 AAACGTGCTAACGGAAAACTTGGCTACCATTGATAGCTGG
1 GTGACCACCAGCCGTGAGCCACCTCGCGCATTGTCCCCTC
1 GAGCCTTCCTCACGGTTTCCGCCGTTTCGATAACTGTTTC
1 GCACCACGCCTTAGCATTCACACAATAACCGTGAGCATGC
1 GATCCAAAACTCTATACCCCATACACCGTCCCCACTTCCG
1 GACGTTCGATACGGACACCACTTCGCGCTTTACGTTCCCT
1 ATCCCCTAGCGAAAATCCTCTACTCTTAAACTGTATGAAG
1 ATGTTCAGCCAGACGTGCCGATAGCCTTAGTCTATCCACC
1 CGCCCCGCTACAGCTCCGCCTCGCTGCCACACATCCCCCC
1 CTACATGTTCTGCACCCCGTTCCCCATGCTCCACCCAGAC
1 ATCACAGAACATTTCCCCTGTCAAGTCAAAGCCGCGCGCA
1 CATTCCACGGCGCAAACGATGGTGTCAATCGGCCAATCTG
1 AGTCTTTACTATTTGCTCACCCTTCCACGACCATCCGCAC
0.956910135753143 CTAACGGTCCCATGCGCGGTGCTGCAAAACTTTTAACCCT
1 GGCTTAGGACTATGATCCACCCGGGTCTTCTCACCACTGC
1 TTCCTCCCCCTCACCACCCACCCAGCAAAAATGACTTGCC
1 CGTAAATTAAATGCCTACATAGTGCCTATGCGCCCAACTC
1 TAAACTGCTCGCATCTTACCGCACAAACAGCGGCATCTCC
1 CTGCCGACACCGAATGTTCTAGGCGCACGTCAACCGTTAT
1 TCCGGAGGCCCACCGCGATAGACGCGGGGCCGATAGCCGT
1 CATGGGAATGAAACTAACGGCTGCGTCGCTCTAAGATTAA
1 TTCGCCTAACCCGCCTACGATTGACAATAGCTATATGCCG
1 GAACTAACTTTGGGGCGCATTGTTACATATCACGTCTAAC
1 TAAGCCCTAGCATGATATCACCGCGCCATCGCACTACATT
1 TAGTACCTCTCTTATCGGTCGTTCGATTACACGTTTCCGG
1 GGCTAGAACTTGGCGAATACACAGCAGGCCCGACACTTGT
1 AAACTTCTAGGTGCCACGCCAAGCGAACCGGAACCAAGCT
1 TGCCTCCTCGAAAACAAGTAGCACAACCACCAAACACCAC
0.6714198870803509 ACCGTTAACCGTGGGACGCTCCCGCCCTTCGTCAACTAAG
1 ACACCACCCATCCCTAGTAACTGATCATGACGATCCCGAT
1 ACAAGGCCCTAACAAGCCTCACGCTTTCACCTCTCTCATG
1 AGGTTGCGGTCTCCCGCCTTTCCGGCTAGCGAAGTTTCAA
1 CCCCCCTCGCCACACAGCCGCTATTTAGCGGGCTCGCCTC
1 TCCACTGGCGATTAGATTTACCGCTACAATTTCCCACCTA
1 ATGGACTGGCCGATACTTGATGGTCTGCATTCGCACCCAT
1 ATTACGCAATTCATGGCATATGTGCCGTTGGCCGGGTCGC
1 ACCGTTAGGACCTAACCATGCACCCGTGGCCGTGCTCAAC
1 TTGACGCGTAACGTTTCCAACTCATTATCGGTCGCCGGCG
1 CCCACTCGACCTACCCCCTTAGTTCGCCGTGACTCGTCAC
1 CCTCACCCCCTTCCACCCCATCCCCTCCCGCCTTAACGTA
1 CTTCCCGTAAGTGCATGATCGTCGGCACAACGAGCGTTAA
0.5414681601637871 CCTACCTTGCAAATCTAACGGCATCTTCGCGGCTATAAAC
1 CTCGGCCAGTCAAACCTGGCCCCAGGGTGCTTCACCACTG
1 CACAACCAGCGTCGCCCAGCGAAGCTCATGACCGACACCG
1 CTATCGTATTGTCACTTACAAGAAACCGTAAGAAGGGCCA
1 AAAGCGAACATGACCCAACTCAAGCTTCCTGCGTCATTGC
1 TCCTTGAATCTACAACCATCATGCTTATTGGCTATAACGG
0.9581518203977313 AACCCGTTACGCCGCCAGGCCTCCAGCCACGGCCCGGCAC
1 ACGCTACCGAAAATCTAGCCACCCGCGACGTACACCGTTA
0.4741062909501092 ACCGTTATGCAATAAATCGACTGAACTACATGATAAATGG
0.1510109432226453 CGAGAAGACCGCTATTTCGCGTTAGCGCCCCTTCCCTCTA
1 AGCGCAACGGAAGCATAACAGATGTGGACGCGGTAAGCAG
1 GGTTGCGTGTTAGCGTGGGCCGCTATGTTACACCGACGCG
1 ATAACGGGACACAAACGTCACCACCGACCGTCTCCCAGGA
1 GCATGCTTCGGCGCGCCGCTTCCGAACCATACATCCCAAG
1 AGCCCTAGGCGTAAGAATCAGAATAACGCGTAATTCATCG
1 CCTTACTACAGAACCAACCCCTTGTCCTGTTACGGCCACC
1 TGCCACCCTGTCCACCTTCCCCTAATCGGAAATTCTGAGG
1 GACGCCCCCGCCATAATGCAGGCCGCCTCCTAGTGTGCCC
1 CCGCCTGTTACACAACTACTAACGCGTCCACCCTGCGAAT
1 TGGATCATGTTCTTCCGAACCTTGCGTGGAGACCATGATT
1 CAAGTCCTGTATCAGTCCGGCGTACGATTACGACCACTGT
1 CCGTTCAATCTCCTGCGCCCGCTCGCGAACTTCCTGAACA
1 GTAACCATCTGGGCCCACTTATTTCCGCCACGCGCGTCCC
1 CGTCCATATCCTCACCACTGCGCCTGAACCGCCCACCACC
1 CACACTGTAACCCGCCACCATATCCACCCTATCTGGCTTC
1 CACTAACGGATTTGCCAGCTGCCACGCGCGCAACTGCTCC
1 AACGCACATTACGCCCTCCACCACCCGCACGCTGTAATCG
1 GCCACTCTCGTTTCTTAACCTCTAATGGCTCGCAGCGAAA
1 TACCTCTTCCTACGTCCCAAGCGCTGCGATTACTTAACTG
1 CGCATCACGTCAAGCGTATACTTGGTTTTCCGTTGTCTTT
1 CGCAGCGCGAAACGTGATATACCATTACTTCTATGGGTTC
1 AGCGCACAGCGATTAGTCAGGGGTAATTTCAACAACAAGT
0.8915857274902751 CGACGCCTTGGGCCTGACCTCCCTTGCAGACCCGTTACCT
1 CCAGCGAAGGTACGTTAACAAATCTCTCCGCCATTCATTT
1 TAACTGCAGCCCCACCCAACTGCACCATTGTACTAACCAG
1 TACCTACACCGATGTCGTTGAGCACCGGAGTAACCTAACG
1 AGATCTGGCACCTGCACAGAGGACACCACCCTTAGGCAAG
1 CCATAAACTTCCGCCTTTGAACAAAAAGCAGGGACCGTTA
1 ATCTATTCGTTGGCCCACCTCCCACCCCCAACCAAACACC
1 TAGCCTAGCGACAACGACTGGCTTGAGCACTGTCATCCGA
1 TCTACCCCACTATCCGCCGTTACCTCCCATTCCGGGCCTC
1 ACACAACGAATTAACTCCGCGTAGAGTGCAGACCCAACAC
1 AATTCCCTGTGCGACGACAGGTTCCCGCTTCGGGCCTAGG
0.784143834926488 TAGCAACCACCCCCACCAAGTAACGTAACATGTACGTCTC
1 TCTGCAGGTCCAGTAAGCCGAATCCCGCGACCCTGTATCC
1 CTATGATCTACGCCTCCACCCCCTTCGTCACTTGCCCCTT
1 AAGCGAGAACGTGGCGCACAACCCACCCTCCCTTCCCCAC
1 CAAGACCCGGCCGGGTACCTGACCGCCTATAGCATCAGAA
1 CTCACCCGCCAACGTCGTGCGCCGTTACTTTCTCGTTTTA
1 ACAAAGACCCAATCCCCCGCCCCTCCTCCACCCAAACTCA
1 AATAAATCGCATCCACGTTAAAACGCCAGGCTAAACGGTT
1 ACACCAAACTACAGACCACCTAACGATCACGCCATTGCAC
1 CTAATTAGCGGTACGAGCGAAAGCTGCATCCCGCATTCTC
1 CAACGCTACTTGATCCCCTGCACCCCCAACGTGTGCGCCT
0.2902665610262575 ACCCGTTAATCTGCCCCCATGTCGTGCGCTGCGACGTATG
1 CACCCCACCAACACGCTGCCGCGACGGCCCCCGCTCACCC
1 CGCTCTAACTCCATTCATACTAAACAGACGCTATTTTCCT
1 ACCCTGGCCCTCCACTCCGCGCCAATCCCCCCCCGCCTTC
0.5739001491575895 ACCGTTACACCTGGAACACTAGCCATGCGTACTCCTGCAA
1 TGCAAGAGGAATGCGGTCTATCCAAATAAACCCCGTCGCG
1 TATGCAGGTACACACGGGTAGTGAAACGCTCAAAACAAAA
1 ATAACGATACCCGAACGAACCAAACCGTAATCTTTTAACA
1 ATCGTGAAAATTTGATAGTTCTCTTTAGCTGCATTAGCTC
1 ACCCATCCGCAACTTCAGAACCAAGAGCTCCGTTACGATC
1 TTACTGAGTAAGCCGTCTCCTCACCTGCCCCACCCCGAAT
1 ACACAGTTTACTGTTACTTCCAGTTAATCTATAAACTCCA
1 TGCGCTTAAGCGCAAGAACCGCTATAACTCCCAGCAGTGT
1 GATCCACCCCAAGCTCGTGTGATACCCTGAAACATCCGAC
1 TGCGACCCCTGATCCACCACCGATATAAAAACTTTACGCC
1 AGCTACCATAGTAAGCACATACCCTGGCTGAAAGCAGTGG
1 GAAGCGTAGCCCCTTAAACGGGTACGGTACGTGCTACGAT
1 CACCGCCTTCTCCCGATTTCAAGCCGCTACCCTGTGCGTC
1 CCATGGGAACATCCCGACTAGAACAGCGACCGTCGCGTGT
0.5613236944231216 CACGGTTCTCACCCCCGTTACCTACGCGGAGACGCGAATG
1 ATGAGTACACGACCGTGTACGCATCGGGTTATACCCGTTG
1 GTATTTTCCAACCCTTATCACATGCAGCGCCGCAGGTCTC
1 ATTCCAGAATTCACATTGGTCGACTGGACAGCTCCAGAGT
1 TGAACAGCGTGACGCATTCGATGTGCACCCGTTGATACTG
0.6829565322381065 CTATAACGGCATTCTGACTTAGGTTAACAACAATCAGGAG
1 CGTCCGATCCCCTACCTCCGACCGGGCAACTCGGACTGCC
1 GCAACCATTTAACAGCAACCTCCGTTGACTCGCTACCTAT
1 AGTTACATATTGCCTGTGTAGAATGCGCGTATGTGCCACT
1 CACTTTGCCATCACTCATACCCGCTCATGATAACCAACAC
1 TAGATCACTGCTAACCTTGAATTAATACCAACTAGCGTGT
1 ACGACGAGCCACGCTACCGACTACCGCGCGGGGCAAGCTA
1 CCGTACACCCCACCCTCGCAAAGACCACCCCCCTGACAAC
1 GCTAACCTGCAGAAGTGACGCCCTTCGAGTACGCGTACTG
1 AACCCGTTGATTTTGTACACCCCACTTCACGTGCCCCCCC
1 TCCCAGTTTCAGACTACATACATCATCACAAGCGCCCCAG
1 GCTCACTTTCCATTGCAAGACCCGCCCCTGCCCTCCCCCT
1 CTAACGGATCTTTCAGGAGTTACCCTCGCCTAGCCCCGCG
1 AATATCACAAAACCCCCCTCTATAACAACGAATCCTTGAA
1 GCACACAGCACTCCCCCCTACCCGCTGAACCACGCCGAAA
1 GACGGCCTCTCTGGAGCAGCTGCTGACCCTTCTACCGCGC
1 TCATAAGTTACCCGTGGGCCATCGTCTACGACCCCGCTCC
1 TCTACGCCGACACTTTTCCGATCGCCCTACCGCCCCCTTC
1 GACTTGCTATGAATTCAAATTTTAATGCCGCGATTACTGT
1 TGAGACTATAAGTTCATGGACGCTGTCCTTGCGCGGTGGT
1 CCTGTCACCTACCTCCGCTGGTAGAGCCCGTGAATCACCT
1 TTGTAGTGGTGCCTGAGCTGCGGGCCTCTGCCCGCACCAT
1 TCACGCCGAATAGCGTACGCTACCGCGTGACAATGCACTT
1 ACGGCCCACGTCCCGCCAAACCCCTAACACGCGAGGGCGC
1 TACACATGCACTACCTAGTCTCTGAACCCAACCCCCCGCC
1 CTTCCAGCATCCGAGTCGTGGCATATCACCAGGACCTTGC
1 TCGTTTAACCAAACGCGAACGAGTATACCCCCTATAACGG
1 ACTGCCTTGCGGTACACTAGGAAATGAGGCCTACACGGGC
1 CTGTGACGAAACCATGTCACCTCCTTCAGCCAAGTCCTTA
1 GACGTCCCACCCCTGACGGACCAATACCGACGAAGCACGA
1 GCCCATACCCCCTCGTGGCCAACCTCACGTCCTAACTACT
1 AACGGGATCGACCGACACCTCTACCCTCCACAGCGAATAC
1 TAACGGTCCCCGGGCTCTGGGCGCGCCTCGTCTGAAAGAC
1 ACTGCTAGCGAAGCACACTGCTGTTCGCCTGGTAACCCCT
1 TTTCGGAAAGAGTGAAGCTACAAATGGCGGCCAGCGAAAT
1 ACCACCCGCTGTGCCGCGCGCTACCTAGGCTCCGATATCC
1 TGGTATATTCGGAGGTTCACAACTTACAGCCCATGACGAC
1 CACGACCAGAAATACACGACGAGGTCAAACGAACGACCGT
1 CGAGTAAAACGGTAAACACGCGCGGCAACACTGCGCTTAA
1 CAACGGTCACACGCCCCAATAGCGCTATCACGCCTAACAG
1 CCGCCCCCACGCACGCGCTACGATCAATTTCCAGCCGAAC
1 AATCCCATCGTTACACGTAGCAATCGAGCCTCAGGACCAC
1 CGCTACTCGCCTCACAACATTGATAACGCGTCTCCCCCTG
1 CATCCAGCACACCACCCAAAAACAGCTACCTATCACTCGG
1 TTGAACGACATGTCCAATGGCCAGCCTGGAAAACGTAACG
0.2711419589694675 ACAACGGGACACCCGAGTGAATTGACCCGTTAGCCGGCAT
1 ACAAGCGCGCCAAAGGCCCTAACTATCGGACCCCCTGATT
1 CGAACACGTCCATTTCCCTCGAAGCAGAAACCCGTTATGA
1 AAACACGCCCGCCGCTGGCATCACCACGGTATGTCCTACT
1 AACAGCCCCCCAGAATAAAGAGAAAACAGATAACAGAATA
1 TTGCTTGTATTAGCTAGGATAACGCTCGCGGGACTAACTA
1 TCTGGAGCCCTTTTATGTGGATGACCTCTGTCCCTAAGAC
0.8361073449046147 GCCTGCCTGCAGCATCCCCCGGCGGCCGTCAAAACCGTTA
1 TCCGTTAACCTACAGGTCCTAATATAAATGGGAAATGGAT
1 GCTTAGGGATTTCCACACGCATTATTTCAATCCCCGCTAT
1 AGCGCAACCGGGCCTAGGCCCTCATTTTCGGTCCTTGCGA
1 CACATTCACACGCGCCTTGTCAGCCCCAGCCGCTACGTGC
1 CCGGCGCGCCGGTAACACCTTAGCATGAACACGTGTTTAT
1 GACCTTTGCCACCACAAGCGCATGCGGCCCTGACCGTTAC
1 CCACAGTGACGATTGGGTCAGCCCAAGCGAGATCTAACGG
1 CTTAATCCACCCTCCCCCCCCCTAGCGCCTACACCCGTCC
1 TTTGACTCCCGCGGCCGTAATTCACCCAACACTAGAAGTA
1 ACGCCGTCCTCGGCGCATTATCAGCCGCAAGAGCTAACGG
0.1348274085679885 GCTCACGGACCGTACTCCTCAAGCGAACATGCCCCTAGCG
1 ACCGACCTCTCGAAGTAAAACTACCAGAGTTTTACCGATC
1 CTCACCACAACGCAAGCGCGTGACCCTTACGCCCCGCATC
1 TATCAACAATCCTTCCGACCTGATGCAAATACTCCCAACT
0.5499714580184802 CGATTCCCCCGAAGTTGCGCGCAAACTCCCGTTACCCTCG
1 CTCCCTACCCACAGCCCGGTCCGATCTGGCCCCGAACCCC
1 AGTTATATATACCTTCTATAGATTCGTACCGAGCTGCTCT
0.4674898140217689 GTCGATCCTGATAAACTCCCCATACAACTCCGTTAGCTTT
1 CTAGCCACAACTATGAATTGCTGCACTCCACCCGCATGCT
0.305139650216965 GCGCAGGATCATATGCGCGTCCCCGTTACACGCAGTGCGC
1 CCTGCCCCCAACAGCAACCCCATTCGCGCTGCCCTTCACC
1 CAAGCGAAACCGAAGGATATCATCACCTCATCTGTTTGCC
1 GCATGTATGCCAATGACCGAACACTGACCAGCCCACGTGA
1 CTTGGGATAGAAACTGGTAGCTAGCGGTGTAACTCGACAA
1 GCGTAGATAAGCGAAGGCAACAGCAAGCTACGGTTGCACG
1 ATAACGGTGCAGTCTCGGTAAAGGTCAGACCGACGGCACA
1 CAAGCCCCGCTCTGGTCAAAAACACCCTCCTACGCAAACA
1 GATCGTGTGGAGTCCGAAAGCGAAGCATGTACTTGTCAAC
1 TCCACACGGGCCTAGCACGTGACGTGTAGAAGTACCGTTA
1 GTCATACTGCCCACACCCCGATCCGATAACCAGGCCTTCC
1 AACTCGACATGCCCCTATGTTCACACCGCCCCAATTCTGC
1 CACTTAACACCACCCTGCCCCCACCCGCCCTGCCAAAGCC
1 CATAACCGCGACCCCCACCCAAATCCCTCCCTGACTACAC
1 TTAGGTAGTATGATTGCCCATTGCTCGAATGGCGAGACGC
1 AGGACGCCAACCCACCGGGCCACCGGATACTAGCGCTGTG
1 ATACCCAATCACCCTTCCCCGAAACCACGCTATACCCTTA
1 CGCCCCTGCAACGCCCGTCTCCCCTTGAAACGTTATCTCT
1 TGACACACTCCGGCGATGGTGCTCTATGCACCCAGACTCT
1 CCTTACACACCCCCTCACGCCCACGACCACACGCTTTGAA
1 TCCCCGCCATGTACAAGCAACAGTCATTCAGTTCTAACGG
1 AAGAGTCCGATTGTCCAGAGGGACCTAAACGCCGTTATAT
1 AATACGAACCAACCCCTGAAACTAGGCGAACAACGAGCCC
1 TTGATCAACGAGTTTATTAACTCTGCCAGCGAGATGATGT
1 AAACCCAACCCCGCGCTATTCTTATGCGTCGCCCCATACG
1 TGCCAATCAGATATCTGTGACACCAAGTACAGACAACTGT
1 CCCATCTTCACACTGAATGACCACTTGCGGGCTGCCGATC
1 CTTTGCAGTCTCCCGCGTCCTCTCTGAGGCAGTGTCATGC
1 TCCCGATTTAACTCGCATACCACAACCGGGATTAACGGGC
1 CGCCACCCAGTATGAACCAATCCGACGGCCTAACGAAGGT
0.3746910942821043 CTAACGGAATTCAGCCCAAATCCTAAACACGCGCGACCTT
1 TTTAACTTTGCCCAGCTAAGCGCCTCCCCGCAATCATTCC
1 AACTCCCTGCCCAGCCGGTGTAGCGAGACGCAGCTGACGG
1 CACACGCCTACACTCTCAGCCCCAACGCAACCCCGATAGT
0.7436791043214301 GATGGCTTTGCGCCGCGTGACTTCTATCGTTTGTAACGGA
1 TTAACGGACACGCCGGATACAATACGCGGACTTACGTCCA
1 ACATAAAGGTGGCCAGTATCATAGCTCTGTAAGGCTATAC
1 CAACATCCTCCGACCACCGCGTACCCTACACATCAACATC
1 TCAATGTCCTGCACTTACCTCGTGCAGAACGACTCGTTAG
1 ACAATCTGTACACGTTCCACAAAATGCTACACACCTCTTC
1 CATCGGTTACGCATAACCTTCCATGAACCAGTACCTATTA
0.6841110814317215 CCCGTTAACCCATCGTTACTCGAGGCCATGGCATCAATAC
1 GAACTAACATCCGGGCTGGGCACGCGCCCTCCCCTCAATC
1 GATACGTCACCTTGAATTGCACAGTCCACAACGTATATTA
1 CTGTACGGTTAAATACGCACCTGACACGAAAGCACCCAAA
1 CGTGGCCCCGAGAACACGTGAACTACCTCGGCGCTAATCT
1 CACTTTCTAGTTCGACCCCGCGTTAAGGGAGTGCCCGCAC
1 GTCCAGAGAGTCCGTTTTAATTGAAGCCTATATCGGCGGC
1 CTTCCTCACCCCCCCTCGTTTGCTCCGCCGCTCATCCGCA
1 CCACACCCGCGCCATACCGCCCTATCATCCCAAGTAACGG
1 CCACACCAAACCACACAACCGCAAGCGAGCACACCAGCGT
1 CAAATTTCCGGCAATCTTGCCCACGGACAGACGCCTACGA
1 GCCCACGGAGCCCAGCGCGGGGGACAAGCCGCACAAACGT
1 ACTCGATTACGCCTGAGTTGTTGTCTAGCTGTTTGGGGCA
1 ACGAACCGAGCCCTCCACCCTTGGTACTGCAACGAGCCCA
1 ATCTGCCGACAACGATTCAAGCCTCAGACCGTGCCCATAG
1 AATGCATCACAACATATCCTCAAAAACAGTTAATCGGCTC
1 GTTACATCGTACGTCTCTAGAAGGACCTGTCCAGTACATA
1 TTCGCACCACGCCGCCAGCACTCCCGTAACAACACCGAGA
1 TTATCGCCGACCCTGCGACACCACGCTTATTCCCCCCCAT
1 GCCCGCCACATTCGAACTTGACACAAAACCGACTCCCAGG
1 TCCGTTAGTCAGGGTCACGTCTTCAGAGCCCTGTAAACTG
1 CACAATGTGGGCACACCAGGCTCTAGCCTAAAGGCAACCA
1 CCCCACCCCATCCGCCATCTGGCGATATTCTTGCCCGTTA
1 CGAAACAGCACATCTCCGCATGAGGACCGGTCCCGACAGC
1 TGTGTTTTGTAACCGATGCAGTCAGAGAATAATCCTTCCT
1 GGGACCCTACGATCGTTGTCTGCGTACCCACAAATTCACA
1 TCCTTGGAAATAGAATGGGAGTACGCCGTCTTAGTGGCAT
1 CCTGCCCTCAATACCCCTCCTGCCCGCAGTTGTTCGCAGG
1 CACCAGCCGTAACGTGCTGCCGCCCAGGCTCCGGTTGCCG
1 TCAAAGGGAACTGGCCACCTGGCCCGAGGTGCTCATCGCG
1 AGCTGATGATGAATGGAAAAATACTACCAACGGAAGCGAC
1 TCCTGGCACGCCAAGCTACACCCCAGCAGGGCCGACACTC
0.2453640528186554 CTAACGGTTCATCCATCTGTTGTAGTGTTGAGACTACGAC
1 CCCGTAGAGCACTAGCATACCACGGAACGCAGCTCCCGCT
1 CGGCTAAGAGAGTAAAAGCGTGACATCGTGCGAAAAGCGA
1 CCTATGCTGAACCCGAAATGGCTTAATCCCGCACCGAGCC
1 ACCACCCCCAACCTCTACGCCCTCCCGCCGACTACCCCAG
1 CGAATCCCCACAGGCCTGTAGAGACGAATGTTTCCCCGGC
1 CCGTGCACAGACCCGTCCACCACCCCCCTCTTCTGCAGCA
1 ATAACGGCCTAATAATTCCGCACTGTGGCCGTCGGCCCAA
1 CGCACCTCCTACACACGTCCCAATAAAACCGGTACCGATA
1 GAACGCATGTAAGTAGCTCCCACTGCCGTCCCGCTTCCAC
1 AGACATTTCTCTGATGTCTACAAAGTAATACATGACGAAC
1 TAACGCACTTACACCACTACCCGCGCCACGGTCACGTGAT
1 TAGCCCCTAAACACGCTTGATCCCGAACGGTCATCCCTAC
1 ACAAACTCCGAGCAGCCCGGCGCCGGCTTTAAAACGTTGC
1 CTGCTCTCACCCCCGGCAATAATCACCTCGACATAACTGT
0.2760903936360168 AACGAACATACCTCGTGCCCCCAGCGAAGAGATCTGTAGC
1 TTCGCCTCGCTTGCCTAAAGTTCAGGCCGCCGGGTGCGCA
1 TCCGTTAACTGATATGCCTTCTATTAGCTGTGGGTTTACT
1 CTAATAGGGGTGGCTTCGATGTTCTGCTACATCGCATCCT
1 ACGACACAAGCGTTACCACCTACGGTCCCTCTAGGAGCGT
1 CAGCCTACAGACACGGCGACTTGAGCGTCCGCTCTAACCT
0.6339009808813714 ACACGCGTTGGAGCAAAATGAATGGCTCGCTAGATAACGG
1 ACTCCCACCCAAACCCAGCCCCACTTAACAGGACTTCACG
1 GCTTTACCACTAACACCCGCTAGTAATTTTGCCTCCCCTA
1 AACACATCGTGCAAAGTGACCACCCCGAACACCAAAGGTG
1 CGCCACTCACGCACCAGCATGTCTGCATAACCGTAGAGCG
1 CAACGCGACCTAAACTAAAAACTCCACGTTAACGCCGGGC
1 TTCCCACGCGGTCTGGTCGCGGCACAATCTTATGCAAGGT
1 ACTCGAAAACCAGGCCCCGTACCGCCACCCACCGAGTTTG
0.5790756742295041 CACTCAGGGGAGTCAGCCAGCGAATAACTCTGCGCAACCA
1 GCATAAGAGGCAGTCCCCTCAAATTGACTACTTCCCCTCT
1 TAAGCGTCCCGCAACCCCTCCCCATAATCCTACGCCTCTC
1 TCGAGCATCTTCCAGCCCCTACCCTAAATTCTGCCGACCT
1 CCCGGCGGTTCGCCCGAGCCGAGCTGAACTCACCTTAACG
1 CATAACAGAGAACCGCCGAATGCGCTTTTTGGCGAGCGGT
1 GGATTCAATGACCATCCTCGCTGGCACGTAAGTATCGCGT
1 AGTCACGCTTTCGGGGTCGTGTTCGAATCTCCGTCTACGA
1 CCTGTGCACTCAGCAGCCATACACGGACCGCCAACAACAC
1 CTGCGGTTACATTCGAACCTTCCGCGCACACGACACTGCC
1 ACCCAACCGCTCCGTGCACTGACCCCCCCGCCTGTCGCCA
1 ACCCCCACGTCCACCTAACCTAGCCGCCAGTCCTCGCACC
1 CACACCCCGATAACTAACGACGCGCGCATAACCTGCCTCC
1 CCACCTCCACTCCCCCTCCGCACCCCGCTAACCACATAGC
1 TCCATATACGTTATACACCAACAATACCCAGATCACAGTG
1 CTCTCTGCAATGGACGCCACGCACGGGGCCCCTTATTCCA
1 AAGTACGCCCCGCCGACAGTTCGCCGTTACCTTCGAACCT
1 CACAGAGAAAGTGCGACCAAGCCGCGTTTAAGCGAGGCGG
1 CATACCACCTCCCAGAGAAAACAGGAAAGGCGCGCCTCGG
1 GTAGATGTCCGAGGCACCTTAGCTAATATCCTTTACCGTG
1 CGGCCCCCGAACCCCACGGAACGTACCCACAACCTCAAAT
1 CCGGCCCTCCCGCTACCTCTATGCTCCTGCCAGTCCGCCT
1 ACCTCTGCCCATCCGCTCTTATCCAACCCCCGCTACACCG
1 CCTGCAAGCGAATGTTGCGTACCACTCTGTGATCCCCTCA
1 GACGAATGACACTTCAAACGGTGAGATGGCACGCGCGATA
1 AGCTACGCCTAGCTCAGTCGCCTAACACAGAACTACCATT
1 TATAGCCGGTACCGCACAGACCCGTTAGCAGCGCCTCTGG
1 AGCCGGTAGTATGGGTGCGCCGCCCCAATGTAGATACGCA
1 GAGACCGCTCAAGCGAGACCTGGTCAATATCAAGCTACTT
0.2269266983668876 CCTAACGGTGCGAATCCCCACCCGTCGTAACACCCCTCCC
1 GCGCGTGCCGCAACATACTACTCCGAGTACTCTGGTGGCT
1 CCCAACCGCGTACTACTCTAACGCCCACCATGGGCTACGG
0.2716971075834548 ATGAGTAACTCCCTTGAAGGCCAGCGAAGACAAGACCAGA
1 GACGCCGGTGACAGTACTGAATGACCTCACTCCTGACATA
1 ACCCCCAATAACCTTCCCACACTTTAGCTCATATCCCGGC
1 ACAACTTTCCGCTACACCCACCACCATCTCAAAATCGAAA
1 TCAGCTGCCCCGCGTGCAGGTAACGGCACACCTGCCCGTC
1 CCCACCACCCCCCATCGCCCCTACGACCCAGCGGTCGTTG
1 CCCGCAATAACCACCGACCCGCCCACACAGGACCTCTCCC
1 GAAGCGGCCCTCCCGTCCCGTTCTCCCCTACTCCTACGTT
1 ATTCACAAATCCCCTACGCGTCACACGTACACCTCACGTC
1 CTCACGCTTAGATTCGCTGCGTGCTCGGTTGAAGATAACG
1 CCCTAACCCTATCAACCTACTTTTCTAACTGCATTTCCTC
1 GCGGTTAACGTGTCTAAACGACCCCTAAAGCACGTTAACT
1 TATTGGTGCCAGTTATACACATTAATCGAGACACTAACGG
1 TCCCGGACACCCGCCCCACCGCGCGAAGATGTAATACCAC
1 CGCACGATTCGATACGTTATATAATGGTTCTAATCTGTAC
1 AGACGGACTTGTGTGACGACCGTCCGCCTCTCCACAAGCA
1 CTCTGGGCCCGGTCACACATTGCTTCCAGCAAGCAATATT
1 AGCCGTAACTCGTACTGAATAGCGTTACTTACCTCATACT
1 GAATCGCGATTTGATGTCAACGCTTTTTATAGGACTGGAC
1 CGATCTTGACCTGGATGCAAGGTGTATTGCGACACTGACG
1 TCGCACGTCCTCCCCGGCACAACCGTGCGCCACACCCCCC
1 CCAATGCCCATGTCGACCAACGGACCATTCAATAAGCCGA
1 CAAACGCCATGTGAGCGCCCCGTGCTAGAATCCGCTACCT
1 CGGCTCGTAAGTCTGCCACGCGCCAGCCAAAGTTATAACT
1 ACCACCGTAACCGATCCCACACAAGATGACTTAAGCTGAC
1 AGTAGCCTTCTTACACTTCGTAACCCCATGCCAATACCAC
1 CCTGATGCCGAGCTTTGCGGAATACCCCCGCGGTCTAGCT
1 CATTGTTTTCCTAAACCACAACGGAGCGAAATGCAAAAAC
1 AAGCCCGCGGGACCACGCGACCTTGGAAACCACTACTCCA
1 ACGCCACCCATCCCCCTATCAGTGGCCTGGCCAAACCCTC
1 TCGTTAGCATTCTACATTATCTCTACTATCACATAACCGC
1 GCCCGCTATGTCAGGCCAAGAGAGCCGCTAATCTTCCGGG
1 ACGCCGCACACTCTTACGACCCCCCTCTCCCGCATCACAA
1 CGATATCTCCCCGCCCCGTCCCACCTCGTGCCGCCGAGCC
1 CATGGCAACGGGGCCATACCTTTATACCGCGGGCATGAGA
1 TTCAGCGCGGGCCACATGATCTGCTCATTAACTAGGGGGC
1 CCCTGCCACCCCGCGACACGTTCGCGACTATGCTCACACT
1 AGCTCCGCCCAGCGAACACGGTTGTCCAATCTGGTGACTT
1 ACACTACTGTTAGCCTCCCGCCAGGAATACGTACACGAAC
1 CCGGTTCCCCATCATGCGCCTACCCCCCCCTATGCAACTG
1 GACGCACATAGAACGCACTGAAGCTTAACGGGGTCAAAAA
1 CCCATATCCAATCACCCTTTGCCAAATGCGTATTTACACG
1 CGAACGACCCACCCTTTACGACAATGACGACAACCCGACT
1 CACCCTACTTAGCGGCCCTAACCCCCATTCCCCGTTGAAT
1 CCATCTCGACCGATTAGTTCGAACCCCCTCTTAAATAACG
1 CACGACAAGACCAAGCTCATCTCGAGAGTCCCCGTCCAGT
1 ACTAAAAGTAAAAATACACCTCCCGCACACGAGACCAAAG
1 CAGGCTGACCGTGAGAGAGCAAGGTCAGCTAACGCTGGCT
1 ACTTTCGGCATCCTTGGCATAACCGCCCACCCCCCCCCGC
1 ACCCCCTATATTGAACTTGCATCCGACGCTATCGGATTTC
1 GTTAGCGACAAATGCTTACATGCAACACTAGCGACGAATA
1 CCGCCGCGCCTACTCTACAACATCACTCCGCGGGACATGC
1 CTGACCGCCTACCTTAGCGTCGTTCCTGGTTTAAGCATTC
1 CAACTCCATGCAGGTGCGTTCTCTGTCACGCATTAATACT
1 TTTGGACTAGGCATTCATTACAATATGATCCTGGTTGGCC
0.2840887749906407 AAAGCCCATCCTCCGTTGCGCAACGATCCAACGTTATTCG
1 CCTCTATCCCACCTCGCTCTACCAACCCTACCTGCCCTTA
1 CCGTTACTTTTCAGACTTGAGCCATGTGGAGGTGTCATGA
1 ACGTTATTACGACGTTAATTATAGCCTGTGGCTTAACCCA
1 AAGGCCCAACCCTAAAGTGCGTCCTACTGACGCTAATAAC
0.06205542942592499 CCCGTTATACTGACTTTGCTCTCATATAGCCGTCAGAATG
0.02820969662484305 GCCCGTTATCCAGATCGCCGGATCAGCCTCGTGAATTTAA
1 CACTGCACACTCACATTGCTAAAGGTCCCCTTCCCACCAA
1 ACACGTCCTCGAGGCAGCCTCAACCTAAATTTCTCACGTT
1 CCCCATATAACGACTCTTCAACACCCTGCCCCCCCGATGC
1 CGCTTCTCTACCGGAGTTCGGGTGGTATATACCCGCTTGA
1 AGATTTGCGAATTAGCCCCGCTTGCTATTAACACCTGACG
1 ATGCTGGCATTCACTTCCGCTGGTCGTTCCGCAAGGATAC
1 CCTAACGATATACCCATTGACTTAGCCGGCTTGTCGTCAC
1 CTTTGCCGGAAGACATTCCGCAGGTCCGCAGCCTGCGCCG
1 TACGCAGCTTACGGTACTGACACCGCTTAGACTGACTATT
1 ACCCACCCCTTCACACCATGTCCTCCACGGCAGCAAGACA
1 ACCGTTAACCCAATGTCCCATGTATATTCCTGGTCCTAAT
1 CAAAGAGGAACGTAGAACACTTTCCCATCGAGCTAAAGCA
1 CCCCACGCTAAGCGAAGGAACATAACTTTCATACCCTCCC
1 TGCGTTAACGCTGAGGGCTGGGATCGCACACCACACTGTA
1 ACCCGGCACTAGCGGAACGCCCCCGCTAGGCGCCAACGTA
1 CGGAAATGCATCCATTCACTAAGCCGCCCAACGACCTGTG
1 ACAGCCCCCCGACACAAGCTACTCAATACAACCTCAGCGC
1 CGTGCGATTCCTTCTAATGAATACCACGTTCCCTTTGCGT
1 CATCCCATTCCCACCACAGACATACTCCAACTCCTCCTAA
1 CACTCACGTACGGCCCCACCGGCTCTCGCTATGCAACTGC
1 CAATCCGCCATTTCCAGCGGACAACGACCCCCGCTATGCT
1 CGACGAAATCGTCGCGTTTACCAAGCTTAGCATAGCTCAA
1 TTAATGCGCTATGCCAGGACCGTGCCACTGATCATTTCCC
1 CACCACGGCGCCCCGGTACGAAGCACGACCGTTCTCCCTC
1 AGAATACACCACCATGGAGGTCAGCTCCTGCGACGCGTGT
0.8326386993333665 CAGATGTAAGTACCCACTGGTTCCGATGTTACCTAACGGG
1 TACCCGGCCCATGGGATTGTAAGCTTTGACCTGAGTCACC
1 ACTTATTAGACACTATCTCCCACACCTACAACACTGGCAA
1 CTGGCTATGGCCAGTATGAACCGAACAACCTTCTTCGTAC
1 ATGGAATGGAGATCCCTCTTAGGTAGTGCCCCGGTTTTCG
0.5660494870716194 GTCCAAAGCGCGGCCGCCAGCAAGCGAAAAGCGATGCCAG
1 GATAACAACTTGTACCAGCCATTGACCTTCGATTGGTTCG
1 CAACGCGAAGACGTACTAAAGCCAACACACTAAGCTTACC
1 ACAAGCACGAGTTTTTATTACATTCACGACTAAACCGTTA
0.3693489712279622 CATCACTTAACGGTCTCTGTTACCATTTCCTCCCGTGCGC
1 ATGCTGTATTTTGCACCCACCGTCACCTATGAACTCACAT
1 TAGCCTAATCGAGATAGCGTTACCTTGCATCCCCTTCTAC
1 TCCCACCTCGCCTTGCAGGCAGCTTGCACGTCAATACCGC
1 CGGCACCTGGCCCGAGGCACCCCCCGGTACCCCTCACTAG
1 ACGCGCTCACTGATAACGAATATACCTCTGCTATCGAAGA
1 CCCATAGCCCCCCGCTCATACTAAACATGTCCCATGTCGG
1 TCGGGATTGATACCCTGCATCCTATCACCTGCACCTGATT
1 CTTGCGCAAATTATATCGTCCACCTGGGACAAACCGCTAC
1 ATAGCCCATCACGTGTTAAAGGGCCGGTTGCAAAGCAAAA
1 AAAAAGTTTATCAGTCGTCCGTAAAGCACACCCCTTAGGC
1 GTAACACTGCCTAAATCGCTGAAACCTGCTGTTAGACGGA
1 CAGCGCAATTAGCCCGCCACGCCTCCCTGCTCGTGGAACA
1 ATACGGTAGTGCCCAAAAAACAACTTACAGAACAATCGCA
0.279596768601261 GCCGACCCTCATAGCGGTATGCGACGCGGAGGCGTTAACG
1 TCGACCATCACGAGAAAGATACTCTGGCGAAGATGGATCA
1 TGTCGCCAACTAGTAATTTACAGCGTGATTAAGGGAGACA
1 ACCATCGAGCCCCGTACACGCTACCGGCCCCCGCTTATCC
1 CGGATCATGCCGCCGTTATGGCGTATTCATCATTCACCAG
1 CTTCCCCAGACGCTCTCAACACGTAGCTAAGGAACCGTTA
1 GCTGGCGTCGACGCTGCACGCTGTATATACGGTCTATATG
1 CCGAATCCCGAATCCTCATCCCCTTCCACTAAACAGCTCA
1 GCCGGCGGTACCCAATGCCCCCCATCTCACCGCTGCCATC
1 TCCCGTCGGAACGAAAACAGTTATCTTGGCGGCGTCACGG
1 GGGCGAAACCTCCGAATCTCTTGCTACGAACAGCTTATCC
1 CATTTGGCCTCCCTTTCTTCGGTTGTGGTTATTCGTTTTC
1 TCTAGCAGGTTACCGTACAACACCGTGCCCGCTTCCCGTT
1 CTTAGGCAACTCGCTCGCCCTGATACGGCTAAGGTCGCGA
1 GAGTTGGGTCACCCAGCGAAGGATATCTTTAAGCCAATGC
1 GTGTTCACTGCTCCCCCTAGAGTACTTGGAGCAGCGTGAG
1 ATGCGTCGAATGACGCGTCCATCCTTTCAACTCCCGTTAT
1 ATACATCGTCCCGATTGGTTTTCCCAAGTCATACAACAAT
1 ATCGCAAATACAACGATATGATACATATGGAAATGGAACA
1 AATAGCGGTCATATCCGAGACCTCAAGCCTTTACGCGTTG
1 CCTCAACTTACACGCCCCCACCAGCCCTTAGCCTACCCAC
1 CCAGAGCTGACGGGGCAGGCCTTGCCCCTGGCTCGAAGGG
1 CTTTCACCTCCCCCCGTTCCTACTACCGTAACGTTCCAAC
1 GGGCTGTTGCCTAGAGATTGAAACGCTATGACAGGTTGTT
0.8309258047368681 CATAACGGTGAACTTAAACAGAAAGGTTCTGGACGCGTTA
0.7885178502787573 CCCGTTATCCTGGCAACATACATGAACCCATACAATTGCT
1 GCATACAGCCCTTCGCGCCACCAACCTAGGTTTCCCTCTG
1 GTGGATTACAACAGGGCCATGGCAGGGAGGAGCTAAAGCG
1 CCTACCAGTGCGCAACTCAATAAGGGCTAAAATCGTGCGT
1 ATGCGGGTTGCACCTTTTTAGTCTTCGTGATACTTACCGT
1 TACGACGCCCTCCCCCCACCAAGACAATCGGTCCGAGGCA
1 AACTTGAGCCCGGACTACATCGAAAACAGCCCTCTCTAAC
1 CACTGGGTTAACGTCCACACCGCTTAGCAAGCGTCCTCCC
1 TATCAACTGCACCCTCCCTGCCGCCCGAATTTTACCGCCC
1 AGGAGTCAGCCAAGCCGCGGCCAGTCTTGGCACACAAGCG
1 CAGTGCGCGGATGATTCGAGAACGCGTTAAGTTATAACGG
0.9715474451418766 CCCGTTACATCACTCTATCAGACTCTAATAAAACTGCCGC
1 CTTCGAACATTAGATAGCGGAAACCCGCTCCGCCCAAATC
1 CCGCTGTCACCAAGGCGCATTGAAACGGGCGGCGCGGAGA
1 AGCCTGCCCGACAAGCTGAGAAACATACGAAGTATTCCGC
1 GTCCCTAGCTCAAACCCTGGTTGGCGACCTAGCGATACGA
1 GCCAGATATCACGCTCTTTGCCCCGACGCCGCTCCGACAC
1 CCGGCCTAACGTCCCACCCTCCCTACCCTACACCACTCCG
1 TTTCTCAAGGCATTCCGCGAGACCAGCCTGCCTCGGTTAC
1 CCACCCACACCTCTGCTGGAGAGCGCCTCTAAAAGGCCGC
1 GTTGTGCTGGACCCTCGCCACCCCTCCCCCTCCGCCCCTC
1 CGACACACGCCTGACGCCCCGACACTCCATAGTGACCAAG
1 CTAGCGCCCAAGGGACATCACGATATATGTAAGAGACACA
1 CCAGGGATTAAATGCCCTTCTTCCACCCCAATACCGCTAC
1 GCATTCGCGCGTCCAATAGATGCATCCGACGAGCCCCAGC
1 CCCGTTACACCCGACACTCGCGCACCCGATACGCCTATCC
1 GAACACCCCACACCGATCTACTGGCATCGATCCCTTTAAC
1 AGCGTGCAGAGATGAGGCCAATCCCCCGAAGCCACCAAGC
1 CTTTGCGCCACATTAACACATGGGCTGAACGGCGAGTGCC
1 TACGACCCAGAGACCCGCATATGCTCTCCTTCACGAACCC
1 CCGCCTTCGACCAGCATCGCACAGCACCTAAGCCTCTGTC
1 ACCCACCGATTCAACGCGGCCTACACACTGAAGCCACAGT
1 TGAGCCGGATTATCAAGCATCCCTGAGCGTGCGTAGAAAA
0.4005991873065922 ACACGTTACGGCTGTTCCACCCTCGGTAAGCGAACCGCCC
1 GAACCTAAGCAGGAACTTCCTAACTAGAGCAGGCACTACG
1 TACTATGGCCCACCGGTGCCACGCAACGGTCCGACTGGGG
1 GACAGCCGGAGGACGCCAGTCAGTCCACACCTACGCACGA
1 CTCTGACAGGTCAAGGCCCGAACTACTCCCACGTTGATAA
1 AGTTACACCCCCCCAGGCAAACGCATACAGCGGATAGCGG
1 ACCCCCCTTCTGTCGACACCAATCAGCTAGATCTTATGGC
1 CACTCCAAGACCCAAGCCGTTGCTCCATCCGCCCCCCAAA
1 CAGTGACGTAGGCGATCACCAACGAACACACATGCTACTC
1 CCAATGCTACGTCACTGATAGTCACTACCACTATAACCAC
1 CATCCGGACTACTGCCTTGTCTTTTCGCGAGAAGCTCTCG
1 CGTAGCCCGCCCCTGTCCATCGTCGGGCTGCCCCCAACTT
1 AACCCTGTATGTTACCGCCCTACATCCCTACCTCTTTTTT
1 GAACGAAAAGTCTCTGACTCCCTAACTGCAACTCCGGCTA
1 AGTCAATATACTCCAAGTCTGGAGCGCATGCCGCGAACGC
1 TACAATGGTAGTCAGCGCGCGTAACTTTTGCATACCGTTA
1 GATCAAATCAGCGAACCACAAACCCCCTAATCCCTCGCAC
1 ATACCCACATTTAGTACCAGACAAGGGGGTACTACTGGCA
1 GCTTAGGCGTGTAATCCGCGCCTAATTTGTGCACTCTCCG
1 AGGTGCCACTGACATTCTTGCACGCAATGGTGCCTGACCT
0.01050538741606629 ACGTCCTGCTGATCCAGTTTCCGCTACCCGAGCTACTACA
1 ACCATCCCTTTTCCCCTGTCCTTTAAGGTAAATGCATGCG
1 GGCGGGAGAGGCCACTCCCCCGACATGGATGCCCTCAAAC
1 CCCGCCGCCCCCCACCGCGTGATTGCCACACGCCCCTAGA
1 CCCGCATGCGACTTTCCTCTAGAAGGATTAGAGATAACGG
1 TTCGCCCCCTGTACGGAGCAGACCACGTCGCCAACTTAGC
1 ACTAAAGTTCCAAACGCCCCCACTACCCCGTATAGCGCTA
1 CCAAGCGAAAAGGTACTCCCTAAACTGTGTCCCCCTGACA
1 TCCGATCCATCGCTCTTTACCAGCTACCGACTAACACGTC
1 ACGTACTGAGTGCCTATGCCATGTTGCTCCAGCATTACAA
1 CGCGCAGAGGGACACACGGTACATCTCAAACAATCCGTTA
1 CGCGGATTTATCCTCTGGTCAGTTGTATAAGGGACGCGCG
1 CACGGTTCTGCGTAGAGACAAAGAGCCGTTACCTAACCCC
1 TAAGGGCCCAAAGCGGCGAGAGAACGCGCAAATGTAACGG
1 CATACAAGCCCCCTTTACAAACAACACCACCACATGGGGC
1 TTGCAGAATTATACACTAGCGGTGCCATTTATCCTTCTGT
1 ATAACGGCCATATCATGTGTAAACTGTTCTTCCCATGCTC
1 CCCGGACATCAACCACGCCCGGGCGTCAATGTCCCAACCT
1 ATCCACCGTCCTGAGCCAGCTTTCATGTCAGCGATGACTT
0.8003286327398114 CGCGACTATCACAACGATCCAACCCCACACCTAGCGAAGA
1 TTCCCGCCACCCCACGCAACCACAGACCCCATCCGCCCCG
1 AAGGTATAGCATTCCGCTATAAGCGCCCGCATGGCTTCGG
0.4570413218883729 ACTGCTAGCGAATCGGGTACCCACACGGGACGTGCACCTG
0.3300020080885618 GCTGCGTTCGACTGCGATAACGGACATCGGTCGGCAGGCT
1 GACTCCTTTACATAACAACTGCTCCCAAGTGCGCAGAGTA
0.002568434404613966 CCTATCGTGGCCCCAACCAAGAAACTAACGGCCCGATCAA
1 TTAACGGTCCGCACTCCCTCCGTGTACCCTCCTACAACGC
1 CTTAAACACTTGGACACCCTCTTACCACCCCCAACGATCC
1 TCTCATACCCCCCAGCGAAACCACTTAATAGGCCGGTGTG
1 GAAGACTTTACCTTCCTCACTGCATCCGCTTAACACATGA
1 TGGTCTGCTCATCCATACTGGAGCGACCGTACAGAGAAAA
1 ACAACACCCCCCGTAACCGGAGCACTTACGGTACGCTGTA
1 GCCCCCTTTAGCGTAAAGAATGCTTAGCTGCTATCGGCTG
1 GAAACCGCTACTTCCCCTGCCCAGTAATCTCATCTGATCA
1 ACGCGTTGATCTTTTACACCCGTAGGTTCTCGTTAACGTG
1 TGCACAGAATGCGACGATACCGTGCAAATTGAGCCACCAC
1 ACTCCCATACAATCTCAGTTTCCTTTTAGCTGCGTTTTGT
1 CGCCACCCCCACTCCCATTTCCCGTGTCTCGTACCGCTAT
1 GAACAATTAGTGGGCTAGCGACTATGCTCAGTGTATAACG
1 ACGTTCCTTACCGACGTCCGTATCGCGAAAGGACCGTTAT
1 TGCCTCAAAAACGCCAGCATGACTCAACACCAAACAACAG
1 CACCTACTATATTCGGTAGGGCTAACCTGTCGTCCATGTT
1 TGCGCACCCCGCCAATACCCTCGCCGCGCAACTCTAACGC
1 TGGGCGTGAGGTTCGCGTGCAAAAGTACCGCGAAGACGAT
1 ATACCCACACACTTTTAACCGCTAACCCGAAGATTACAGC
1 CGGGACCGCTAAGGCAACAGTTTACGTTCTCTAAATTTTT
0.3588302586528983 CCCGTTATAAGACGCATTAGCGCCCATACATATTGCTAAC
1 GCTGTTCGTGCCCGGGGCGATTACGGGTCCACCGAACTGG
1 CCTAACTTTAGTACCCCCGACCACCTGCAACACACGGGTA
1 ATCCAAGACAACCCGCGAAGGCAAACAATCTGCCTTCGTC
1 TTGAGCACGAGGTTCCCCAACCCCGGGGAGTGAGAACTCA
1 GCCATCCCATCCCGCACCGGTAGCCCACTTCCTGCACCGC
1 CCCTCACGACCGGCTGACGTAAGACTACTTCCTCTTTCAA
1 AGTATCGGGCCAGCGAATGCAAGAACACCTGCCTCGGGAT
1 CTGCTTCTAGTGCCGATTCTTGTTGTTGTAACTCGTAGCT
1 ACTTTGAACCAAGATCATCCCATAACCAGACTAGCCTTGC
1 CCCGTTAGGTCCGTACGCTGCGCCAGGCATCAAACAATCC
0.1343975705518826 CCCGTTACACACCATTCACGGCTAACTTCCTGTCTCTCTC
1 TGTCTGCTAGCGGAAGAGAGGAATTTCAGACTCAAATCCT
1 TCCATATGAAGCAATCCGCGCATCCACCGCCCACTACTAA
1 CGCAAACCCTTCTTTATGCCCCCGGCTTTCAATGTTGCCC
1 GTCTTGGGAGTGAATTACCGTACCATAAGCCCTTTGTCGA
0.3303941380244357 CAATCCGCTATATGGTGCTTGTCGATAGCTAGTATAGTCG
1 TGAATTCCGTGCCCGCCAGCGATGAGGGCTGAAATGCCCC
1 ACCGTCTCCGCCCATGCCCCGTGCCACAAATCAATGTGCA
1 TAAGCTCAGCTATGACCATAGCAACGGTACACGCAGTTCC
1 CGATTAAGGGCCAGAACTGCGCTGATGCCGAAGTATTTTA
1 CATGCACCGCCTGCCTATCCGAACAACCCCCTCACGCATC
1 CGGAACGCCGCCTAACCCTTGAAGCGCGCCATAGCTAACG
1 GATTCGCAATACAGCAGGTGTCATAGGGCATACAGATGAG
1 ATCCGAACGAGACCACCAACCGAGCCAAGCGCGGCGATCA
1 CAGCGCTACGCTATACACCCTTGCGATACTCTCGCAATGG
1 ATAACGGTGATATTCTCCCGCATGTTAGTAAGAGGTTCGA
1 GACAATGACGCCCATCCACTCTTGCCCCTCACACCGCACT
0.4454772585481986 TCACAACCACCTGCTCGTGTAGAAAATTATGAACCGTTAT
1 GGTCTCCCTGGACCTCACGCCACGATAACCGAAGGAAAGC
1 TCTTACGTTACCAAACGTTGGAACCGAGTTACCCCTAGTC
1 TATTTTTGTGCGCCTCCCCCCCTTACCCCCCACGCCCCTA
1 ACACCACATCCCTGTCGGAGGCCCCCCCCTGTCACATGCC
1 CGCCTAGCCGCGGCATGCCCTAAGGAGCAATCGTCTAGCC
1 CCACTGCCCAAATAATCCCGCCCAGTGTCTTCACACTGTC
1 CTGCGCACCATTACGATAGTCGAATTGACTCCCCACCCCC
1 ACCACCCCCCCCCCTAATGCAGAGGGTGCGTTCACCGCCA
1 CCTGACCGCGCCCCGACCACGTGCGAGAGAGTCCACACCC
0.5912408270953655 CCTTTCCAGAGTAACGGGCCCCCCTCAGCATAGGCCGGAA
1 GTGAATATAATCGACATAGATTAATAGGCTTGAAACTCAT
1 CCGAGCCATCTGCAAATACTGCCCTCCTATTCCCTAGTAC
1 TTCACAACACTACGTACACACGTGTTCACGATTACGACAA
1 TCCCGCCGCACGCACGATAACTGCACGACTTGCGCTTACC
1 CCTCTCTTAGTGGGCGCGCGCTAACGGGACTTACCGAACC
1 ATGGGAAGCCACCCACTAGGCTCCCAATGACCCAGGCCGC
0.1324110186709059 ACCACCTTTTTTGCGAGCGACCGTTAAGTGCGATTTGACC
1 AACGCCTCGCTGCAGCATACGTCCGCCCCTGACGCAAGTT
1 CAACCGTCCTTCCTGCCCCCCCGCCCTTCTCTTCAAACAT
1 AGAGCATCGCCAACGACAATCTGCCCAGAGTAGTTAAATG
1 ATAACGGAACAATGCTGACCCGAACATCCACTCCATGGGT
0.06900491471991929 AGAGTGTAATGACCTCGCTTCTGACGCCTCGCATAACGGT
1 AGCCGCACAATATCGGAGCACCTGCCGTTTGACTAATGAC
1 CCCTCTCATGAAATGGCATTAAGTACCCCCACCATGCGTG
1 TAAAGCTAGGCACCAACCGGAATGGCAGTCCATCCCGATG
1 ACAATACACCGACCTGTGCACGATCGGAACGCGCACAAGA
1 TCTCACATACCCACGCATGGTAAGACCCGCCCTAGGCCCC
0.8606705420032774 CCACAGCAAGCGAAGCAAAGCGGGAATAGACATGGTAACG
1 GCACGACCCCTACATGGGTCCACAAACATAGCGGCAATCA
1 ACCCCGCGGCTGGCCTCCGCTGTGAAGGCCGGGACGCGAT
1 CGAAAGCCGTCACCAGACCTGTCCCATTGAACCTATGCTA
1 CTGAACCCTTCATACGATCAAGATAGTTGACATAACTGTC
1 TACGGCAACCCCCCACTGAAAAAATATCCCGACGTTACCT
1 TCCTACCCCTCTTCCCCCTACATCGAGATGTTTCCAGTCA
1 CCAACGTTGCGCCACCCCCTACTATCTCACTACCGCACGG
1 TTACCCCAAGCGAAATCGCTGTGCATAGCACAGGGACGAT
1 GTTCCAGCACTCGGAGTTATCCCGGACACCTCTCCCAAGG
1 CTAAGCCACAGATATAGAGAAATTGCGCACCTCAGACCCT
1 GAGCCACGGTCCATCTACCTGCCCCGTCACGCAATCTGTA
1 GAAGAATCACCTACAAGTTCCACACCCCGCTTCGCACGTA
1 GCTATGTTACACATTCGCTGAACATCGCGCTTGCTCTGTG
1 CCTACAGGCAGCGGCCCAAGTTAGCGGTATAATTCCATAA
1 TTACCACAGCCTTAAACCGGTAATATGGCGAACCATGCGT
1 GACGCGCCTGCAGCACTGTGCCTCCCAATAGTCCTGGGTT
1 CCTGGTGCTTCACGCATATTAGGAGAACGACTATCAACCA
1 CTGCCTGATTTAGCTCCCCGGCCAGCACTCGTATATAACG
1 CAATTCACCCCCTCCAGATTTGCGCCTCCCCACTACTCAT
1 ACGTATCGGCAGCACGTTCCATTCCTGCCTGGCATAACGG
1 AGCCTCCGGACCCCGCAAGCGAAGAGACTGAGCGCGCGTC
1 CCGGCTAGACGGATGAACGCGATGACAATTTCCATGTGAC
1 GCCTCCCACCACCGAGCTTGGCCGACCCGCCCACTACCAC
1 TGCGAGTGGTGGCAGACATAAACGGGGTGCGGACGGTGTT
1 GCACGAGTCAACCCACCCTAGTGCCACCCTCCCGATTCAC
1 AGTGCAGTAAGCGCGCGGCACCACCCATGGCGTTAAATAG
1 CTCTTCGAACAGGCTTAAACCTACTCCTCAAGTTTTTCCG
1 AAAGCGGTAGCCAGCTAGGGATGATCTGTTAACGTTACGC
1 GAATGCGGCCGTCATCGGCCAGCGACACGCCTAACCTGCC
1 CTCCACCCACTCCCGTAGCGGAGCACCCCCGCTGGACAGC
1 CATAAACAACCGCGCGGCGCGAGCTACAAAAATTTAAATA
1 GCAAAAGATGCGATAATGCCACGCACAGGAACCGATCCAC
1 TCCCTAGCGTGGCAAACCTCAGAGCACTCCCGTCTAACGG
1 CTCTCTACCGTGTTACCATACCACAGACTCCAGACCGTTA
1 CAGTAGACGCCTGCCATAACATGCACCCACCGTGTTGGAC
1 GGGGGAGGCTAGCTCCACTAGATCCTCATTAGAAAATGCT
1 TGAGTGAAATTGTACGGGGTCTTTAGACGTGGCATTGAGG
1 GAGCGTTCCGCTAGAATAGCTGATCCTGTATTCACTCAAT
1 AGAGCTCATCGACAGCGGGGTCAACCCCTTAGGAACTATC
1 GCGAGCTCTAGGGATGTGGGTGCGCCCGCGGATTTACCGA
1 TTCCTCCATCACCTTGTTCCTTCACGAGCAGTGATCCCAG
1 GATAGAAAACGCACAAGCTGACTGATATCCTCCCCCCTTA
1 GTCTTATCACACAAATGTAGCCAGCTCTGCTCACATCTAG
1 TTTCAACTCGCACGACCCACACTCATCGGTCTCACTGAAA
1 CGACATTCCTCTCCATGTGTAATTCCGCGCATACAGCGGA
1 TCCTCTCGTCCCCCAGCGAAATCTCAAAGACTTGATGGCC
1 CCGAGTCACTATCACCTATCACCCGACTAAACCCAATGTC
1 TCAGAGCAACAGCGGGGCCGATAACCTTTGACGTTCAATT
1 AACTACCGGCCTTCACAGCGCGTGACCAGCTACCCACCTC
1 GGCCGTTAACCCCGCAGCCCCCAACTATCCACGCCTTTCT
1 ATCCCGCGCTTTATCCGTACACCCTCATCCTGTACCGCCA
1 CAACAGCACCACACCTGCACACTCTACCGTGTACAATGCA
1 AAAAGGCTCTGCTGCTAGATGCAATGGAGCAACAACGTCC
1 AGATCCACATCCCAATGCAGGGGTTCATCCGTGGTGACCC
1 GATACACACCGTGTACATCCTTTCCACATGCGTGCGCTGG
1 TCGAGAACAATCCGTCCAGGCAAAATGCTGCCCACTTGCC
1 CTCTACGCTCATAATGCGCCGCAAAATCCGCTATAAAATC
1 TCAAGGTGTCTACTCTATGGAATCCAGTCGCCGTACCCGA
1 CCATCAAGTCAGCCCGCGACAGTAACGATGCCAAGACGCT
1 GACCTGAGGGAACCGTCTTGGACTAGCGAAGAACCCGCCC
0.1479850926926398 CCCCCCCCCGTTACACTACGTCAAATCTGTCAGTCCGGCA
1 CCACGATGCCTGTCTCGACAGCGAGTACCAGCGTGTAGCA
1 CCAAAAGTATGTCGCGCTGTAAAGGAGGATGGAGCTACGC
1 CAGATGCCGTTCACTAATAAACTGTTGATTCACGCACCCA
1 GGTGAGGCACGCCCGTGGCTGATTAACGTTCTCAGTCAGT
1 CACTAGATCGCTTACCCGATTTCTCACAAGATGTACGCTG
1 CACGGCATCAATAACCGCGAATATCATCCAACATATGGGT
1 TGACCTCAAACCACGGACTATCTGGAACGCAAAACCGTTA
1 ATTTCGCCCCGACCTTAAGGGCGCTAACGTGATTCCCTTA
1 GCACATTACCGACCACGGCTGACACGGTTACTCAAGTACT
1 CCATACCCACTGCTATGTAGTGCCCATCATAGCGTAACTA
1 GTCTAACGGCGCGTCGCGTCCAAGTCTGCATACCGTATAG
1 CACCGCTTCACCCCGCTACACGCGCCGCTCCTCAGCGTTA
1 AATGGCGCGTAGTACCCGGTCCACGCTTTCCATTCGCCAC
1 CAAGCGCCACGCGTACCTCTACGTGTCCATCGAACTAACG
1 ACCCACCTCAATTACCCCGCCGCCATCCGTGGATCATGCG
1 ACAATCCCGGCTAATGCCCCCAGAGTATTGACAAAAAGCC
1 AGACCTTAGCGCTTTAACGCGTACAGATAAGTCCCATGTT
1 GCTGCCTAATCTATACTGCGGTTCTAAAACTGTATCATGT
1 GATCTAGTGACACCAATTCTGACGGGACCATTAAGTGTCA
1 TGCCTCCCTTTTTGCCTAGACCACCCAAACCGCTATCCGA
1 TTGGTCATCCCCGCCGCCACTCGTCGTGACCGCTACTTTA
1 TTTGCTTGCACCGCAAGTACATATACACTACCCGTGCCAC
1 CTACCACCTACCGACAACCAACTCCGGTTGCATGCTGGAC
1 TCTCCTGCGCCCACTTGTCTGTGAGCCCGAAGCTACCTTT
1 CACAACCGCTCAATCCTACCCGTTAAGCTATTTATGAACC
1 CCAGGCCGAGCGACGCCAGGGAGCGCGTGTAAACCCATAG
1 CCGCGCACTAGCCACGCGAACGCATGCTTATACCCGCCAA
0.4347623980323648 TGCTAGCGAAACAAAACAGTATCGTGATACTTTAACATTG
1 CCTAAGCCGGCAGCCGCGTGAACAACGGATTAGGTAGTAA
1 CGACCCCATGGCCCGCCTAGCATTCTCCTCCGTCCCAGCC
1 TCCGTTACATTTTAATCACTACTCCCTATATTGGCGTTCT
1 ATAACGGGCGATAAGCGTTTGCCGCCTCTTGCGAAGCCGC
1 ACAGCGAGCGAAACCTCACGTGCTCGGCCAAAGGCGCCAC
1 GGCCACGAAATCAAGGCTAAGCGAACATCCTCTGGGCTTG
1 GCCATCCTACACTCCTGATACGGTGCGTGCCCAAACAAAT
1 CCGCATTGCCGCGACTACCTCCCCAGCATGTGTATCGCGA
1 CAGGCGGCGAGAGCCAATCCCCCCATGTCTAATCTTGGAC
1 CCGCAGTCTCGCTCAAACCGCCCGTCCCCCGCGCCCCCTT
1 CCCCTTGCCTCGGCGGGAGGAGATAGCGGCGATGCAGCCC
1 TCCCGCCAGCCCCTCGTACGTAATCAACTAACCTACCACC
1 AAACATTTAATCCTTTTCGACCCCGAACTTATGAGGCTGT
1 GACCCAGATGCAGCATACCAAACTCCCACCGCCCAAGCTT
1 AGCGGGGCTCCTTGCGGCATCTTCCTTACAGCCCTGCCTG
1 CCTTGTGGGGTGATAAATTGCTTCATCACATCACTAACCT
1 GTCCGGCTCCCACGTCTCTAGTACACGACGCGACAGATAC
1 CCGCTATCGACTCCAACCACCACCCCACCATCTACGTGCA
1 CCTTTGCACCCAGTTCGACACGCCCCAAACCGCACCTCAG
1 CGAGGGGCATGAAATAGAGCATTGGCGGGAGGGTGCATAC
1 CCTCTACCCGACGACTCGACTGCACATTACACGTTCGCAT
1 CATACGCGGTTACTTACCCCACACACATCTCATTACCGGG
1 TTACCCCAGCTCTCCCTCCCAACCAACAACAAGCGACTCA
1 GAGGCCGTTAGACGCAGGGGCAGGTAAGGGTGCCTGCTAC
1 GCGACCCCTACGTATACATGAATGGCATCACGCCTAATAC
1 GATCGGACGGTGAGGCACTGAATGCTAGAAAATCCGTTAT
1 CTACGGGCCATGATTCATGCATTCTGTTACTTGGTCGATT
1 AAGTCCGATGCTTTTCGACTGACCGCGGTTCGACTGAAAC
1 AATTTCCTCACTCCTCATGAGACAAAGACCTTCCGTTGCC
1 CATTCCACGGGGATGTCAAAAATGCGTGTATTTGATGCTA
1 TTACGGTCCCAGCGCAGACAGAACGGGAACCGTAATTATT
1 TGTTCTCCACAAACACTGTTTAACCTCCAGCGCTGTGCTG
1 CCACTACCGTTCCTCAGTAGTCTCCATGACGGGACTAATA
1 TAACGCACGCCCTGATCCCTTTCGCCCTTTAACCTACCCC
1 CGACGACTTTGGTGATAAATGGGGAAAATCTGACCTCCGA
1 ACCTTCCATGTTTAAAAACTAACTGGTATGAGCCTTGTCT
1 GCCCAGCCCTAACACATGTCGCCCCCTCCGAATAAGGTTC
0.1286481026512269 AGATAACGGAAGTCGCAGCTGAAACCCGAGAAAACGCGTT
1 GCAATCAACAGTGCACCCTCGACCCTCCCTCCCTCCCCCA
1 GGCCATGCCACGTCCCTGGACACCCTTACAACCTCCGACT
1 ATCTACCTAACACGGACAGCCGTATCTGAAGTCCAACCAT
1 GCAAGCGAGATCGCAGCCGTCCCACCCTTTTTCCGAGCGA
1 ACTACCTAACATCGTCTCATGAACATATCGGTGATGCCAA
1 AGTCCACGCTGCCACTACGCTTCGGTACGATTCCCTTCCC
1 ATGCTCTAACGTGAAGTAGTCCGTATGGACAGGTTAAGTT
1 CATCCTTCACGCCCAGCGAACGCCTACTCCCTGCCCTTGC
1 TTGCACCCTACCCGCCACCTACGAGTGCCTGAAGATAACA
1 CCAGCATCCATCCTATGCAGCGCACCCCCCCATAACGTCA
1 CAGACAGAAATTCCCCTTGCCCCCAGTGTCTGGCTGTTGC
1 TCTTAACATGCCAGCGTAAACGGTCTAACACCGACGGAAC
1 ATGCGGAAGCCCTTTTCCCACGCGTCATTGCTAAATATTT
1 GCAACCACCACACGCAATATGCGACATGACTGAAACCACC
1 AAGCAAACGTTATTCCACAAATGAGGCTAAATCTCCCAGT
1 ACACTACAGCTCCGGCGACACAATGCAGCAAGATGGCTCA
1 CGTCCCCATGAGACGACTGTAACCCCCGAGGTTACATAGC
1 TCCGTTAACCAACGTACGCCCTTAGGTCTGTTAGCTTCTA
1 CTAATAACCTGAGATGAGTAGAGCATTTGTTATCACTGTA
1 ACGTTTCTATTGCACTAGGCACAATTCGCTAGTGTAAAGT
1 CATAACAACGCCTTGGCCTTCGCTGCACCCAAACGCTGCC
1 TCCGCCTTGCGATAATGGCCCATAGTCTCCGTTGTTCGCG
1 GATAACATTCCCTACCTCCGGTTCCCTCTACTTAACCGCT
0.03794345722230114 TCCGTTACAAACAGCAGCGTTCCCGTTGTACACACGGCTA
1 ATACGCCACTTATCAATCACGTAAACCTGACCCCGTTCAA
1 GCCGGATCGGTGATGGCCCCAATCCCCACCGGCGGATCGC
1 GTACAGCCGCCATCGGCGGTTAACGCGACGACTCACGCCT
1 CTATCCCCGTAGTCGTAAAAAGACAGTTATATGATCCCTT
1 TCCCTAACCCTCGCCATAAAGCGAACCTTCTATTGAATGA
1 CCGCCTACCTAATTACCCTCCGCTACGTTGAAGCTCCCAG
1 ATACTAATGCGCCCATTATAAGCGGAGCTTTTATGATGGT
1 GACAGGGCTAAACCTACCTTGTTGCCTTCTAGCGCGGCAT
1 CCAAGGTTACGGCTACTCTATGTTATGCCACTTGCCCCTC
1 TGCTGTTCACTGCATCATGCGGGTCCGGCCGCATTGGACG
1 ATCCAGAGCAGTTTAGCCCGGCCTTCATCAGAAACGTAAA
1 AGGGTGGCTTCCTTACTCTAATGATCCCTCCCTCAACTCA
1 CCCAGCGAGGATCAGCACGCATGGTCCGTGCCCACTCAAC
1 TCGCCTTCGCCAGCCCAGGCAGACCTATGCTCGCACCTCA
1 AACTTACACAGACCGCAAACCGCGTTCCACCATGAACGGG
1 GCCACGACGTCCGCCAGCGAACACCAGCCCATTTGACCGA
1 AACTGCCGAACACGTGGACAACGCATCCTGCTCCAGTGCG
1 TACTCGCAGATACCCGATGCCCCCGTCGAGAGCCCGCTAG
1 TCAGACCCGGGGCTTAGCACGACACTGCCTATTCGCATAC
1 TGCTAGCCGTGAGGCATGTATATAGAGTGCTAATGAGATA
1 TAACGCACCGTTCCCACACACTCTTGCAACCCACCTTATC
1 CACTAAACCGTACGATTAGACTACCCCAGACAGATCTCCT
1 CCCGTGTAGCACACGCTGACGTGTGATGTACGTAATCCTA
1 ATGCGCGGGTTATGGAAAGCGATACCGGGAACCACACGAA
1 CGGCCCCTATAGTGACTCCAAGGCACACATTTGTAACGGT
1 TCACCCTCTACTACGCAGCTAAGCGGATCCCATTGTACCT
0.9068688063328491 CTGGGGCAAAGATATTTACATCGTGGGGCGGTTCCGTTAT
1 GACCCGTCACTCCCCAATTGTTACTGTGTACAGGTATTAG
1 CGCGTCACGGGTCCACGCCCCCCCTCAAGTGCCACTCCCA
1 CCTAAAGCGTAAACTATACTTCTTACTGCCGTCCAACCAC
1 TCCTGTTGATCGCAATGTTCTTTTAGCTGGTGAAACCAAT
1 AGGTACGTGTGAGAACCACTAGGGACCATCACGACTATAG
1 TTTAATCTGCCCCGTTAGCACCATTCGCTCAGTCCTCCAA
1 CTGCACAACACCGTTAATTAAGAACTTCCCTACCAAAAAC
1 TCACCAGCCTGAGTACCCACCCCACCACGTGTCCTGATCC
1 CCTACTCTGCCTACTTACAACGCCCAATCCAGGACGCCGA
1 CATCTAAACTTCTCCTTTACACCTGTTCTCCATAGCATCC
1 GTAATGCCCCCGCCTTCGCGCTAAGTGCGCACAAAATACC
1 TGCTAACCGAGACAGCAATAAACCTTGCCTCGCGCCATTA
1 CATAACGCTGCCCATAGCCTGCCTTATGCCCCCACTGAAC
1 CCAGCAGAGCCAGACTTCGCCGTGGGGGTACTCCATAGGT
1 CTCTCGCCACTACGAATTATCTCTGCACGGTATCACTACG
1 AATACACGGGTCAAACCAGCGAAGGCTGCGCTTCTCGCCC
1 GGCTGCATATCTCATCACGCCTACCCTCCCGAAGTAACGG
1 CCCGACTAGACCCCTCCTCATACAAATCTGTGACATTATC
0.7860098248051255 TCCGTTATGCTGAGCGATGCTGGACGGTACTGAACCTGCC
1 ACCCCCTCTAACTCCGAAATAGTGGGACCGCCTAAAGAAT
0.04628690346192166 CAATAACGGCTCACCGCAATATGCCATCCAGGCCAGGCAC
1 CAATCAACACCCCCTACCCTACCCCAAATGACATCATACC
1 CCCTCCTCTGCTCCGTCACCCACTGATCAAAGGTAGCGGT
1 TACAAACCTCTCCGATAACCACGCGTAAAGAAACTCACCC
1 CTTACGCCTCTTACCGCTCGGTAACGCAGAGATCCGTTAC
1 TGGGTCTGGCGCCCTCCTAACACACGGACCTTCCGCCGAA
1 GCTCCGCATCGGTACCCTTCCTCCTCCACCCCACCCCCCC
1 TCTCCATTACGTAACTACACGTTACTGGCGACGACGTCGT
1 TTTCCCCCCCCTAACCTCGGAAGCGCGACCGATAAACTGC
1 CCGGACACTACCGCACAGTCCCTCCGGCGCCGCATTGCTT
1 TCTACCCTGGCCGGAATGTCCACCCACTGACGAACGCACA
1 TTATCCGTTTTTTCAACACGTTCCGTTGCATTTGTCAGTT
1 AAATAAACACCATTACCAAGTAATCCAATAACACTTCGCA
0.1758413481898907 TTCACCGCAACCGAAACCTGTCCATCATTCAGTTAACGGT
1 GCTCATTTCCACGATGATCATTACCATACACACCACCGCA
1 CGGCCCACCCCACCTCACGGCCCAATCACGTATCTGAGCC
1 ATTCAGTAATCGCCCCTTTTTTCCGCTACATCCCCGCGCC
0.2677987085374667 GCCCACAAACACAAGTTACACTGCTACAAAGTGTAACGGT
1 AGTGCGGATCCGCTTTCTCCAACCTTAATCCGTGACTTTC
1 CACAGATCAGTTTGCGTCACCTTGACTCTTTGGCACCGCG
1 TCCCTGCAGCAGGATCACCGGACCGACCAAACCCCCACGT
1 GCCTGAGACGTGATAACGAATCAGGTCTTGAGGACCGTTA
1 CCCGCACGTCTGCCTTCCGCCACACAGCCCGCGCGGGACA
1 AAGCGGACTACCTTACTCTTGAGCCTCCCCTGCTCCGTCG
1 ATAACTGTAACTGCCCAAGAACTCAGTTCTTGCGGCCGAA
1 CCCCCAAGGAAACCGCCGAAAACCCGTTGATCCTGCATCC
1 ACGCGCGCCCATGGTCCCTGCCTAAACCTAGCGGGACGTC
1 CGGTACTCTCCAACCTGGCAACTCGTCTGCTGACAAACGG
1 TACAGTTAGTTGCCAGCGCTCATCCACCAACCGTTGCCCC
1 AATCTACACCCACTACCCTCCGCTACCTACAACCGCTCAC
1 CATTAGTAACTCTCACTCAATCACACGCCTCTCACCTTTT
1 ACCGTGCATAACGCGATACTGGCACCCCATCACAAGTGTC
0.03129885573805304 CTCCAAGCGAAACGGTAAAGTCATTGTGGCCAATTTATTG
1 TATGGTATAGTCTACCCGTACATCACGACCGCTATCTCGT
1 CACGGACCCGGGAGCAACCAACCCCCCTTAGAAATCAAAC
1 GCACCTTTTTTATAAGTGTGGAAGCTCCTGGTTATACGAA
1 CCCTCCCAGCGAGGCCGCGCCGCTAGCTAGCAGGCTCGTT
1 ATTCCGTTGCCCCCACCTTCACGACTTGGAATGTCTTATC
1 GCCGGCCAAAACCGTGGCCCCCCCTGCTTCTTGTTCGCTC
1 CATATTTACCTTGCCACCGGGCGCACTACCGCCCCATCAT
1 CCCGCAAGCATAGCGTGCTCTCGCCTAGCACAAAACGCTC
1 AAACATTCACACAGCTGGGTTTATCCCTAAGCTTCAGTTT
1 CGTCGAATCAAATACTTCGCCGCTAATACGCTACATATCA
1 TTCCCGCGCCGCGCTCGACTCGACGCCACCCTCATTCCCG
1 ATAAGTCTTTCCTGAATGCGACCAAGGAATGCCTCGCTAG
1 ATGCCCCTCGGCAAAGCTGACGACTACGGACCCTTTTGAG
1 CTCGTCACCATGGCCTTAGACCGTTCCCGCACCCAAGATG
1 CACAACCCAGGGAGGTGCCAAAAATACCTGTTCCCCACCT
1 CCCGCGCAGAAATTGCTATCTCGCTACTAGGTCCCCCCGA
1 TACGCTTGGCGAGAGCTATGGCCGCCGCGCCATCGAAAAC
1 CACTCGCACTACTCAGCCAGCTCCCCGCACCCTACACGTG
1 CCGACGCAGGAGGGGATGCACGTTTCGAACAACTTTAATC
1 GCCCCCTCTCTCACGCTCCCTGTTCCGTTGATGCGAGTGA
1 CCGCACTCGCGGTAAACGCTCGCGCCTATACGCGTTACTT
0.5207953999794845 ATAACGGTTGACCTAGAATACCTAATCTCTGGCCGCAATC
1 CTTTGGCAATATCAATCTCACACCGTTTAGTAACGCACAG
1 CCGCCCCTGCGACCCCACCTCCCATACCAGCTACGCTACC
1 ACACCAGCCAATCGCCTACCACGTTCATACGTCAGGCCCA
1 GCACAGTCCATGCAACGACGAGAACTGCAATATGCCCAGC
1 ATAGTCCAATGTGTTAAGACTCAAGGACAACACCATACGC
1 GAAACGAGACCGGGTCACTCGAAAGGCGGCTTGCCAACGT
1 GCTCACGAATGAATATCTGCTATATCGCAAAAAATACGTC
1 TTATAAGCAACAATCGACTAGCGAAGTATACGCTGCTATC
1 ACGACTACCCCGTTACAATTTTATTTATAAAGGCTAGACT
1 CTTCACGTGCATTTTTGTCGCGTCCAAATTAACTAGCTGC
1 TATTCTATTGACATAGAGCGGCCCTATATCAATTACTTCC
1 CCTCTCCACTGCCACCCCCCAAGCCTAACCCAGCCTACCC
1 CTGCCACCCACAGAACAGCACCCAATCACCTGCGCACCCA
1 ACCACACCCCTGGCATCGGCCCCCCCCCGATCCCTCTGTG
1 CCACCATGCCCGCACACAGGCCCCCCGTCCCCATTCCTGC
1 TCATATCCCAGGCCCGTTTCAACACCCTCACCCCCCTTGA
1 AAGCACTACCCCGCGCGCCGAGCTTGAAACTACACGGTAC
1 AACGAATGTAACCTGTACCCGACCCAACTCAATATTACCG
1 ACTGCTTACCCCACACCAGCTTACACCATAGCCTGTACCC
1 CACGCGCCCCGTGCCCCTTCGATGCATGGACTACTAATTT
0.8064450699004544 TTGGCAAACCGCGATTGTACCCGGCGAAACAGTTATATGA
1 TATAGCGTTACCACCCAGCAGGGCTTCGACTAGATGCACC
1 ACGTTAGAATTAACTTACGCGACGAGAGCTTCCCACCTAT
1 TAGCTGATTGCCTCCTGCTGGCCTACTACACGTTCGATAT
1 CGACACTGCCCCCCCGATTCCCAATCGACAGTTCCGTTAC
1 GTGCGGCGCACGGATAAGAAATAGAGGATTATGTAGAGCG
1 CTATTAACGGCCACCTGCTACGCCGATCTGCTTAGCGCTG
1 CGCACGGCTCACACTACTGTGTAAGGTCGTACCTGAGTAA
1 GCAAGTGTACAAAACGACTCATCTGACCGCTATGGCTCTG
1 CACTTCGCGACGTGCATGCCTCCCTCCGCGTACGCATTGC
1 GCGACTGACCACGGACCGCTTATGGGCCTTGGTGGCCTAA
1 GAGTTAACCTTACCATCACAGCGGCATACGAGCTGGATCT
1 CCCACCCGCTCCCTTGCACCCGCCACCCCTACCTCCTAGC
1 CCCTTGCATCAACCACCGTAAAAGCTCTTCTACGCGCAGA
0.4934113171175991 AGAACATATGAAGCATCTCCCACCAAGTATAGCTAACGGT
0.09744885159115944 CCGTCTCCGTTAGACCCGGTGACCCAGTCCCACCATGCAG
0.3935119593316602 CAGGCCCGACAAGCCCGTTAAGTACACCCAAATAGCTATT
1 AACATAACATACCGCATTACGTTATACCACACAGCTGGAC
1 AGCCCACCACGTGAATCGTTGCTGTATACCGATTTGCACT
1 ACGGCCTTACTTTCCTGCCCGAGGCCGGTCCTTCCAACAA
1 CGTTCCTCATGTTCACACTCCCGCCTGCCGATCCAGGCAC
1 CCCGTGCTTCCCAGGTCGTAGTCGTCAAGTCTGACTTCAT
1 AGGCCCGACCCCCCACACTGTTTCCGCAACCCATCCGAAA
1 CCCACCCACATCCATGGCACTCCCACCAGGCATCACAGAC
1 CTCCCCACAGGTCCGTGTTTCGCTATCCCGAATTCGATCG
1 CCTACGCACAAGACGTTTACGGAAAACGGACCGAACACCG
1 GCGCGCACGCCGAACTGGAACACCTCCAACGGTCCCAGCG
1 CATTACTGTTTCCAAACATCCACCGATAACTCTCTACACG
1 CCAACTAGAAATAAACACGTCATTATAGGCAGGTCCGTTA
1 ACACAGCGCCTCGCCAACTTCTCGCCTTTGATCACCACGC
1 GGCGTAGGAGTCCTTCCCACTGAGGTTCTTTAGTAAATGG
1 CCCGATCCCATCACATCACCATGCAACACCTTGTGGGCTA
1 AGCTTCACACCAGATGTTAATGAAGTCCGTCTATACCATG
1 TCGGACTACGAGTCCAGAGGCATCGCTTAACCACCCTCCC
1 CGTATCCATCGCCCAGCGAACTCGAGAGACACACGAGGGC
1 GATTAATTAAGTCATCCCTCGCATTAAATTCCTAACATCC
1 GTTGAATCTAACCGTACTAAATACGAGACCGTTCCGCAGC
1 AGCGGACCTGCTCAAGACCCACGGTAACTCTAAAGTCCCC
1 CACATACGAGAAGCCGACCCTCAATGTGTGGAATGAGTAG
1 CCCCCCGGCCACGGGCTCCAAATCAGTTCCCACACCCTGC
1 GTTTACTCGCGCAGCGCGTGAACACCCTGGGCCCCAGCCT
1 GATTTTTTTGAAGCGGAACATAACACCAAAAATTCACTTT
1 CTCCCACCATCAACGAGGCAAGGCCACGCAACCCCCCACA
1 CCCCCACCTCCAATCGCACGGGCCACGCGCCACCCCCCAC
1 GCCCCTGTGTCCACCTGATGCCCATTTCCCTTCTGCCTTT
1 GTAATCCCGAGAGACGCCACCGACACCTGACGCGCGTAAA
1 TGTGTAAGCCATCTAACCTAGATAAGTCACGCTCAGCCAC
1 TGATTACTCACATATTGTGTCCCATCTAAGCCTCACAACT
1 CTTGCACATAAGCTGCGACCACAGCCCGCGCACCCTTAGC
1 TAAAAACGTTATCTACCATACCCCTGGACAGTAGGTCTGG
0.7203996799179302 TATAACGGAAGTAAGCATGACCAGTAGTCTGCAGCATAAT
1 CTGACAAGCACTCCCGTTGCAAAACGATACGTGGCGTTCC
1 GTCGTCCCCCGCAACTCCGTACTGAACCCGACGTATAACG
1 CGTATCACGCAATAACCCCATCAATAAGCAGTTCCCTGCC
1 ATCACGCCGGCCACTGTGATCTAAGCCATAGCCACTTTGG
1 AAACCGTCAAACACCTTGCGACTGACGCTTGTGCCGTTAA
1 AACAGGATGAACCATGCCTCCAACCCTCCTCCCGCCCGCC
1 CCGCCAGTTTATAGCCGATCCACGCACCCATCTGATGCTC
1 GTCCATAGCAATGAATTTAAGCCCTGTGTCCAACGATACT
1 TTCCCTCCCTACCCGCTTTGCCACCCCCCCCGCCTATGTT
1 ATTTTCTCTCCTAGCTATAGCCGACACCCCGACACCTCAA
1 ACATCTACCCACCAATGCCCCCCGAACCTCCGCACAGCGA
1 AGGCTGAGATCCGTTTCTTAATCTTAAGCCCGCTCGATTT
1 CGTGCGAGCGGCCGAACTAAGAGAGACCTAAACTGGGTGT
1 TTAATTGTACGAGATGACACTCGTTGGGGGTGGCTCCAAT
0.6020150082183217 CCCCTAAGGCAACCATTTGCCGTTACCGCCCACGCGAAAG
0.5144517476236569 ATAACGGGATATGTCTCGCTAAGTCTGCTACCGCACGCAC
1 CAACCTAGATCCACCGAAACAAACAGCCCTTACCCCCTCC
1 GCACATGGCACTTACAATGATACTGTTCGCCGAAGACAAG
1 AATGCCCCCGCCCCCCGACATAATTCCGTCACGAGGCCTG
1 AGATATACGCAGATGAGTAACGCAAATATTTGCAAACAGG
1 TTTACAGCCAGCGAACCGGTCCTAGGACCTGACAACCACA
0.2159885624114629 CTGGAAGCCGTTAGACGACGCTCTCCCATGCCCAGTCTCC
1 CTACCCCGAAGCGACCCACCCCATCGCACCAACACTCACA
1 GACGTGCTGCCCTTACTCCCCCCAAGCGAACCACGATATA
1 CAACAGGGACCGTTTGGAAACCCACCCCGGCACACCGATC
1 CGACGCCCAATTATAACCTGCACATCCAGAACACGCTGCC
1 CACGCGTTGCCTCGCAGTGCTCTTCTGGACGCCGCCATAA
1 CCAAACGGAGCCCCCCACCCCCCCCCCCCCTCCCCTCCCT
1 TGCCACACTTGTCGTCCGCTTCCACCTTAAACCCTCCGTT
1 TACACTCACAACCCCTCGAGATTCCTTCCCGCGCCAACTT
1 CTCCGTACGATGCGCTTCCCTAGTGCGCACAAGCCCGCAA
1 CACGTTTCACCCCCCCGCACCTACCCCGTACCAAGATGCT
1 TACGTGGACAGCGTGTACACGTTAATGTAAGGCCCCCCGA
1 CAAACCAATGCGTGGTTCCCATACGTGACCGTTGCATTAT
0.73155023120898 AATAACGGCACCTCTCATGCCCCGCAGGCTAAACATCACA
1 CAACGGGCCGTCCGGCAAATCCTCTACCCCCAGGAAAGCG
1 TACACACCCGCGTAACTGCAATCGTAACCCAGCATAACGG
1 TCAGGACAGCGTAAGTAACCCGCTGCGTATAACTGTTCAG
1 ATCCCGGCCACAACCTCTCCTCCCTAACCGCCCGTCCAGC
1 CCCCCCGTGCGGCGCAGGATTACGAAGGGAAACGTAACGG
1 ATAACGGTGCGAGCTATTTGATACCCCCGTAGCAATAACA
1 GGAAAGGCTCATACCATCTAGCGTTAGCGGAATTAGGGCC
1 TCAAACCTACGGTGGGCCCACCGTTACCAACCCTACCACC
1 TCCAGTGCTAATCTGCGTTCACCACTGTACGAAAGAACCC
1 CTACCCAGCGATTACGGCCTAGGAATACCCCCTGACATCC
1 GCCGCACTCTTACAGCAGCAAAACGACACACAATCAAACC
1 CCTCGTACACTAAAAGCGGAAAATATACGTTTTAATGGCT
1 TGACGAGCTGAAGCTTTAAAGGCGGAGCGTGTTTACGTGG
1 GGACGCAGTGAGATTGGCGGCTGAGCTGCCGCGTCACGCT
0.3735104068026696 GCGGGAGCAGTACCTCCGTTATACCAGATATACCTCCGCA
0.9920560085395534 AGACCCGAGCCGCCCAGCGAAACGAACAAAAACTTCTGCC
0.6511220135979003 TTCGAGCTCAACGCATAACAGTTAACGCCGGGCCATACCC
1 GACCCTCCTCCGCGCCACCATCGAGGCGACACTACAACAT
1 CTGAAATGCCAGCGTGGCGATGCTATCCTAAGCGAAGCCT
1 TCATAGCCCTTAGCACAGGACGATCTTACTTCAATCATTC
1 TACACTGGAAGCGTAAGTTGCCCGCCGCTACCCGCGAATA
1 AAAGTACACCCACCGCAATCACTATCCCTTGGCACTCCAC
1 ATCGATACCTTGAGATCCGCGAACGAGGGCTAACATAACG
1 TAGCACGTACTCCACATGCCTAACCATAAGAGCATTACGC
1 AACGTCCAGTTCAAAGATGGTACGCGAGAGAACGGTAAAT
1 AGGTCCACGGCCAATCTCGTTTGTGCGTATTATGTCCTAT
0.5803853070353111 TCCCGTTAGCACTTAGCACACTGCAGGCTCCCATGCCTCT
1 CAATCGACTTAACTGCCGTTGCGTCATTAAAGCGTGCCCG
1 AGCCGGTCATTGCGAGCCCGCCAGTCACCTGCCACGTCCC
1 ACCAGCCAAACTCCTCCCAACCAGTAATCCCACTGACCCG
1 CATGACACTTTTGCAGTTATCTGCCCGCCATCTAGTCCTG
1 GATGCACCTAGAACTAACCAATGGCGTGTGTGTGCGAGTA
1 TCCAATTGTCTCAAATGCTTCTCGTAACAAGCCGTTACAT
1 CATCCTTCATGAAAGCGATAATCTAACTACTTGTGTGCGA
1 ATTGGAAGACCAGCACCGTAACCCGGCCTGATACTCGGTG
1 CTGGCCGAACCGAGATCCGCTAGGGCGCGTAGAGCCACGT
1 AACCAAATGATAGCGATCGCGTTACCAGCTCGTGTGGGAT
1 GTCTACCCGGTGGGGCAATCCTGGCAGAAAACCGCTACTC
1 CTCACAATCTTGGTCTCCCCGACAAAGTCCCAACACCACT
1 AAGTCGGGATGCTAACTAACAGTTTTGTTTGAACCCCGGC
1 CACGACACCATAACTCCGCGAAGATTACCGCATAACACTC
1 TACCACAGTCCACCGTTGACAGTCAAAATGCATCTAAGAA
1 TTCATGGCTGTGGATAATCCAACCTATTCGGACTAGCACA
1 TGCACTTTGACGCCTCCTCGACGACATCCGCTACGAACAA
1 AGAGCGGCAGATGCACCTCACAAGTCAAAAATACTGCAAC
1 TGGATTCTTTCAGGAAGGGCTGCCCTCGTTACGCACGCCA
1 CTACCCAACCAAGAGCGCATGCCCATTTCCACGAGATCAG
1 TCTGCTGACATTAAAGACGCGCCCACACTATAGAACCCAA
1 CGACTTCAAATCCGTGATCCAGCCCCTTCCCCTCCCAAGT
1 GCACGTATCCCGCCTTAACCCATCCGGGCCGTCGCTTGCT
1 ATCGGCTACACGACCCCCCCCACCCTCTGGACGCTATCCC
1 GTGCGATTACTCATTACGAGGGTGGATCGCGCAGCCAGTC
1 GCCCCGTACTGAAGACTTGCCCCATCCTTGGACGAGCCAA
1 ACGCCCCTACCCGTACTCGAGATACCACGAAGCCGCATGC
1 GCGAACGCTCCATCAACAGGCAAATATAACAGTTTACTGA
1 CTTTGATCCCTATATTATGCGTGCCAACTGTGCGCTAGGC
1 CCCGTTAGCCGCGCCCAATGCATACCTCCGCCAATAACGC
0.4532670474570291 GTAGTGTTTAGCTTTAACCAATTTATTTTCCGTTAAGAGC
1 TTTCGACCAAGCTCCAGGACACTAGTGCGTAGATTACCTA
1 ACACCGACTCCCCATGATGCATACGGACCATCTGTGCTAC
1 AGACTCGCTAACTCCTACTTATCCCATCCTCAGCCAGCGA
1 ATAGATGTCACCCGACATACACTATCACGCACCTAGATCG
1 CGCAGGGCGTGTAACGGCGAACGCAACCTGCGCGCGTACA
1 ATTTGAACTTTATGACCTTCTGCCTTCCCAACAACCCACC
1 TGTCACCCCGGCGGCACACCTATGCCTGCCCTTATGGCGA
1 CTCCACTATCCTTTCCCGGACCCTAAATAAACTGTCCTTG
1 ATGCGACACATGGCAGTGGTACCGCAATTTGAATAAGGAC
1 GATTGTAGGGCACTGCGTGCGAAAACGACAAAAATAACGG
1 AAGGCTCCAGTGGCATTGCAGGCGATATCCGGTCGCGCAA
1 CCAGTCTCCCCAACATCCCGTCAGACGTTGAATACCGTTA
1 CCCCCAGAAATTCCCTATTTCAAGGCCCACCTTGGCCCTG
1 TATTATCGTCCTTATGCTCTGCCGCCCACGTTCGCGACAA
1 CGGATTGCCGGTGTTATGGCTCCTCCATGGCCCTTAGTCT
1 ACCGCAAGACAGACCGAATCCTATCGTACGCGCGCGATTT
1 CGGGTTGGTATAGAGTAAAGCCGGAAAGCGAACCACTCTT
1 CATCCCCCTGTCGTGCAGTGCGGGCGCCGTTGTCCACTGC
1 ACACTGTCGACCACGCATGTTAACCGCAATAAACCATTAT
1 TTGCCACTAAGTGCTAGCTGCTAACTAACGATTTACTCTC
1 CCCACAGCAGACAGAATTTTTTACCTACGTAACACTTATC
1 GTTACGCTGCCGCTGGCCACCTTCTTCGCCCAAATTGCTG
1 CCCACGAACTTTCCCCATCCATCAGGCGTGTCGACCACCC
1 TACGCCCATGAACCCGCTACTCAGCAACTTCCACGCCAAG
1 GACCGTTCGTCTCCGCTACTTTAGAATTGCCCAGAGCCAA
1 CACTGCCAGGAATGCCTCGACCATATAACACCTTTCTCTA
1 GGCCGACGACGAACCACCGACCAAGGTGTCCCCTGCATAT
1 CACCCCACGCACAATGAGACCTTAGAATGTCGGACCACAC
0.3122720028612255 AGCAGGGCGACCCAGTCCTTAACGGGAAAATCGCTGTTAA
1 CTGACGCCACAACACCCTACGCAGAGGGACACGTATAACG
1 TTCGCCCGCCAGGCCCCGAGGTCTGAAGTCACATTCCTTC
1 ACCGTTACCTGCTAGCCTTAATGACACGTCGCTTCTTATA
0.5681180422485678 CCTAAACTCCCGTTAAACCGGTTTTTGTAGCTCCTCATAC
1 AGGCGGGAGGCTCGATTCTCGATCAAGCGAAATACAGTCT
1 GACACGAAAGATACGTCAAAACATACCGCAGTCCGTCCCG
1 CTCTGCTGTCCCGAAATAGCGCTGCCCAAAGCAAAGCGAT
1 AGCCGTCCACGGACTACTCCCGTCTGTCCTCGTACCGGAT
1 TGCATAGAGTCTACTTATAGCTTCCGAAGCATTTCTAAGC
1 CACAACCAACACCACCGCTTAGTCCTTGACACAACACAAA
1 TTAGTCCATTACCGCGCCTCCCTACACCCTTTCCTTACCA
1 CTGGCGTCAGTGGTCAAAGAAGCCCAGAAGATATGTCCGA
0.2856354475825444 GACAAGCGAACCTGCTGCTGCCATACGGCTTGTCGTTGGT
1 GAGCATGTAACACCGCGCACCGGCTCGCACACTCTAAGCG
1 TTCGGCTCACCAAACATCGCCCACCTCACCCCCCCCGTAC
1 GCCGCACTCCCACCCCCCCGCCATTAAGGGTACTATTAAC
1 GGGCTTCCCCCCGAAACTAGATAATACCTGGACGGGTGTT
1 CGTAACCCCACCCGCAGCAGCGTATTCATGGGCCCCACTT
1 GCCTTCCACCTCCCCTCCCCCTCCCACCTCCTCCAGGTAG
0.6523642445327841 CATAACTGAACATCTGCTGCGAACCGCACGCGTACCGTTA
1 CTCTTTCAATCCCCCGTTATAAACGTTTTTTCTCGAATTG
1 TCTCCCGACACAGCCGTCCCCAACGAACAAGTAGAGTCGC
1 TCGCATCCGTGCAGCTCTTCACCCACTAACCCACTCACAC
1 TACCTTGGAACGCGATTCCTTCCTGTCTTATTTACCGCTA
1 CCGGCCTACGTAGAACAAGCGGATGCCTTGTCCACTCTGT
1 GTCCTAGGGATTCATATTGTAGGGTTCTGAGCATATATAA
1 CTGCGACCTCCAACTCAACGTTCAACGCTCGCCCCGTTCC
1 GATAGAATAACAACACGCTGTAGCTATAGATACATACTAA
1 TTTAAAATTTATGTCTAAGTGGCGCAAAGCTTATAAACGA
1 AACTGCCCAGCGCGGAATGCACGCGATGTCCCGCGTTTCC
1 AATGTACGAGCACTAAACTGTTAGATACAGCTGTATTATA
1 AAAACACATATGCTTGACCCCCCCCACATACCTCAGAAGG
1 CGTGCTGAACGGTATCTAGCACCAGTTAAAAAGGTACCTT
1 TTTTCACAAGAGGAGTTGCTCTTCTTGCCGTGAGGGGGGT
1 CACAAACTGCTTGTCGGCGTTTGAACACATTATGCACCTT
1 CCGCATGTTCCACCTAACTGTCCACCAACCCACGTCAGGG
1 GCCACAGCCGACTCTGCAAAGGAGTATGCTCTCCGTCATT
0.466035824040184 ACCGTTACTTTAACAAGCCAGGCTCCGCCTCCACAGTAGA
1 TACCCCCCACCGCTTTGTGCATGCCCATACAAACCGGACC
0.320477570051585 ACTGCCAGCGAAGCGACTGATGACATATCATGCAGGGTCA
0.8697074146556862 CCGACCTAACGGCAACCGCAACGACTCCCGAGACAAGCGG
1 CCAGCGAACCGCGATCCCAACGCTACAGGCAAAAATATAG
1 AGGTCGCTACCTAAATCACACACGAGCGCCATTAACTAGC
1 CGCCCAGCCCGCCCATGCCAACCCTGTTCGTGCTACTAGG
1 GCCGCCATATGCCACAAGCCCAGTGCCACTCGGTACCCGC
1 CAGCACCCCCGCCACACCCCTTCCCCACCAACCATCTAGC
1 CGCTCACTCCCCCCCGGCCAACTCCCACTCTGGCAAACCA
1 CTCCGTTAGCAACCAGGGGTGAACCTCATTTAAACCGAAA
1 CAGTACGGTTCTCACCTGTATAAATTTGAGCCTACGGGTG
1 CCATCAAGCTAACCGAACCCTATCTTTTCTTTCATTATTT
1 GTGGTCTCCCTCTACCCCGTCCCCGCCTCCCACAGCCAAT
1 CCTAGACTTTGAAAGCTTTGATGTTTTAAAGAATTGTACG
1 AAAGCTAGTTAGTATCACCACGCGATACAACTTATGAAAA
1 CATAGAAAAAACAGTTATACAGCGCGCACCGCCCTGAACG
1 GGCATAGCGGCACCACCATTCCGGAAACGCTCAATCCGAC
1 GTAGACGCCAACAACGCCCCGCCCTCTAATCGAGATGATC
1 CCACAAGACACGTCATAACCCCAGTCCCCGGTAGACGCCC
1 GCCCCTGATTACGCTTGGACCGCAAGAGCAGGCCCCGCAC
1 ATGGATTAGTGAAGGCGCGGCGAGACATCCAATATCACCT
1 GCCATTGCTAATTACTTGCAGGAGGCTCCCCGCCGGATCT
1 TACGCAACCGCCTAAGCGAAGAATAAACCACGCCTTTACC
0.007884681332954608 GAGATCGATTGCGCACTAGTCGCATAAATCCCGTTACAAT
1 ACGACCCCTGTCCGTTTGTAAAGTGCAGGGCTTCGCCTCT
1 CCATGTCCAACATCCCGGGTCCCGATAAGGTAACCTCTTC
1 TCGCTCTCCACTAGACCACTCACGACAGTACATATAACGG
1 CCATCTAAATGCCTACATATCCAAACCGCGTTCACCCTCG
1 ACTCTCTCCACTCTCCATCCACCCAATGCTGATCTCCATA
1 TGCACACACTGGAACAAAACTTTCACGACGCGCTCCCTAC
1 CCCCACCGCTGTCCGAAACAACGTACAACCCAACCCCCCT
1 GCTTGATCCTCGCCGACCCCGCCACGACCTCAACATTCCT
1 TCCCGCCATACTTGGCTAGCCTTCACCATGTGCATCCAGA
0.4339712704020858 ATTCAATATCGTAGACAGCTCCCTGTATGAACCGCTACCC
1 CATCCGTCCCTATGCCCCCGCTGGAGGATGGAACGCCATT
1 CCACAACCACCGCACGCAACAAGCGAGAACGACGCGAACA
1 CATATGGCAGCTCTAACTGACAACGGAAACTGAATAGTAT
1 TGGGATCACCAAAAGGTGCCCACACCACAAATCAATCATC
1 TAACGGTAGAAGAGATACGCAGTGAATATTGTCGTTACGC
1 CCTCCGACTCCACTCTAGTACTCTCCCGAACCGCGAGTAG
1 AGAGCACGATAGCCTGCCATCCCTGTACCGAGTGTATCTT
1 CAACAGCATTTGCCTCGGAATTTGCGCGTGCACTCACGAC
1 ACAAAGCTGCCACGCCCCGTTCGCGGTGTAACTGTATATG
1 CGCGCTACACACCGCTGTGCATATTGAATATATCCGCATA
1 CCACTCCCGGCCCTCTGATACCACGAGAATAACCCATGAG
1 CTACCGCACTGCGGCACATAGTCCACTCGCTTACAGTCGA
1 TCCCACGCCTCCACCAATCCCCCACCCACACCCCCCCTGC
1 GCGCAACGGGATCCCTCCTTATAAGTGGGAGTGTCCCGGT
1 CTATCGACCCCCTAACGTACCGACCTCTCATACTCTGTTA
1 TTATAATCTAGCCTCCGCGCTGTCCGCCGGTCTCTCTAGT
1 ACCGCTATCTTTGTACATTTCAGGGGTCAACAGTTTTGTG
1 TCCCCCCCATCCCCCCACCATCGCACCATAAACTTTCTTT
1 AACTTCGTCGTCCCCCTCACACTTCGCTAGGCCCGCCCCG
1 AAGCGATGTCGTGACAGCCGGTTACGCTGCACACTATACA
1 CTCGCCGTGCCAGATCCCACCACTCAAACATCAGGCCACT
1 GTCCGAAGACTCCAGAAGCTGTATTCCACACTACTAACGG
1 TAAGCTAATCTTCGTTCTCTGGGGAAGGACTCCTCTATAC
1 TGTGCGGTTAGCCCAGCCGATTGAGATCCAGACCCCCTGC
1 TGAGCCCAGAGGTCGAGCGCACCGTAAGTTACCACCGAAG
1 ACACCCCAAGGCCCCCCCACGCCCCTCCGCCCACCCTGCC
1 GCAGAATATGACATTTATCCGCTCAAACACTGGTTAACGG
1 TACTAGCGGTAGCCCCAATAAACCGACTCGGGACACCCTC
0.8149764892112378 ACCGTTATTCATATAAGACAAATCCCGGGCACTCGTCTTA
1 CACTCGGGGAACGAACGTACAGTGCCGCTACGTTCTAGAC
1 GGTGAGAGTAACAGGCCTTCCACCCATCACCCGAGGAGGC
1 TACAGTCGTGTAGTGAACGGGGCGTCACGGCCACAGCGAC
1 ATCATTCCTGTGTAATATATAGCGATCTTAGTACTCGGTT
1 CTGATGAGAAGGCGCGAGTATAACCACACCATCCCATCAT
1 CGGACCGATGTGTCAACAGACTACAATGCGTCACATAGCG
1 CCGCGCCCCCGAACCCCAGTACCGTGTCTAGCGTGGTGCT
1 ACCAGAGGCAAGCGGAACACCACCCTTTCACCACACGTTC
1 TACGTTGAGTGCGCGGCCTTGAATCCAGTGACGGTTACCG
1 AACTATGCCTTTTATGCGTTCATGGACAGAAGTGTCAAAT
0.9766666234949672 CCCGTTACGTCGACACGCGCCAGACCGCAGATCCTACAAG
1 CATGCCCCCGCCACCCCTCCCCCACCCGGCGCCCCAAACC
1 AACACCACGAAGTGTTCCGCCGCCTTGTACGAAACTATCG
1 ACCAAGCAGCCGCCCCATCAAATACACGAACCCGTTCGCG
1 AATCCCCTGATTCTTTGACGCCCCCCGTCCCATCTCCATG
1 ATTCGCCTTACGACGTTCCCCCCAACTCAAGCTCGGGCCT
1 TCACACTCCGAGCCTAAAGCCCACAATACTAACGCGCACT
1 CGACACACCCGTCGACCAGCGAGACCCACTCTCCACTGTC
1 CACTTCCCGCCTAACTCCCCGCCGACAACTGCTCTTGGAT
1 ACGTCGCCGCCCTCCCACCATCGCACGCTAGCGACCCGCC
1 GCTCGTCCGAACACTCTACACTTCTTATCTTTGCCAAACG
1 CAAAGTGCTAGATAGTACCTAACCCAGCCTTGCACGTTTA
1 TCCACACCAGCATAGCACCCCACTACGTATTCAAATGTTA
1 TATACTTGCCAGCGCAACGGTCGACGAATCGCATCCGTTA
0.5121913850022131 CAAAACAGATGACATAGCGGTAAAAGATAGGGTCTAGCTG
1 AGAGCCACCCAGTAAGCTCCCCCTACCGCTGGTTCCGGCC
0.3831181653859406 CAACCCTAGAGTACCCCACCGCGTAAGTGAAAAACCGTTA
1 GATAGCACACGGTAAGTGCGAACCTAACTTCGTAGAGCAT
1 CTTCTCACTGGCCGCGTTAATCCCCGTGCTCGGGTAACGG
1 AGTATGTATGGTCATAGCGCGGACATACCCCCTGTTGATT
1 CCGCTACGTCTGTATGCAATGCCGCCGGTCGTTCCCACGC
1 GCTCCCTTCTAACTGGTTACCGGTACACAGCTGCACAGCG
1 ACCGTGCCGCTATACCGCTGGATGACACCCACTTTAACGC
1 CTTACGGAAAATGATCGCTTTGGCCCTAGCAGCGACCACC
1 AGCAACCAGAAGCATTATCTTGTTATAGCCATATCCCAAT
1 AGCACAAGCCGACGCGAAATACAACTTGGCCACACGCCGC
1 AGAAACTAGTTTTAGTACCTACTAATACAGGTACTGAAGC
1 CGCACAAATCTGCTGGGCGAGCCCAACGACATCTATCAAA
1 ATTAGATATTGAACATTTTTGCTCCAAGCATCGCCATGCG
1 CTAAACGCTGACCACGACCTCCCACCTTTTCCCTTTACTT
1 CATCTGGATCTCACAAAGAACTATGGTAACCGTGTAGTTG
1 CACTCTGCCCAACCCGCATGATCCCCCCGCACCTGCACAC
1 GTTCCCCGCGCTTAATACTTTGCGCTTAGCGCCGTTCTCG
1 CCCCACTAACCTACCCCCACCAACCCCTCCCATCTGGGAA
1 ATCCAACCACCCTAATCCCCGCCCCAGGGCGAAATAACGG
1 CGGCAGACTCCCAGCCGAATAACAGTCCAACATATCTGCT
1 TTTACTGCAGCTCTCGGGGCACTTGTGGAGTATACGTGCT
0.120179090601938 ACCGTTACCCCTCGTCCCCTCGCACTGCGACCTTGTCTTT
1 CCTCCACTAACCCGCCACCCCCCCCACCTATGCCATGCCC
1 AAAGGCACACCGCTACATCTGCCTGTCACAAACGCCAGCC
1 CCCCAATCCCCATCAAACTGTATATGTAAACAATCCCGGA
0.6848212136342083 GGTCTGGTTTATATTCCGTTACCACTGGACGTGATCGCCA
1 CCCTCCTCCAATGACCAATGAAATCTTATAAATTTGCCAT
0.2381165998600769 TCGTTCGACGTATACTGTGCCCCGTTACAAGCAGTAGTCC
0.4922890134966875 TTACCGGTATGATATAACGCTAACCAGCCTACACCGTAAC
1 CAGGATTAACCCCGCTTTACATAACAGACTCCAACTACCC
1 ACCCTACGGCCCCTACGATTATCTGACGGGTATCTACCAA
1 TCGAGCCCAGACCGGATCGATTTAAACACACGCGTACTAA
1 ATGCGATGAATCAAGTCGCACGTCAGACGTCACGTAACGG
1 CAGCACCCGTCAACGGCGTCCACCCCACATAACAAGACGA
1 TCCCGTCACGACACCGCGAGAAGCTTGATGTTGCGTTCCA
1 AACGACACAAATCACTGCTTAAACCACACACCCTCCCTTG
0.4643983930588504 AAGTACGACCTGGCCAGCGAACATCAGGACCCAACTCCGC
1 CGCGGTGGGAGGCCACACCGCCATATCACCCCCGACGGAG
1 CCCGACCGTATGCCTTTGAGCAACACACCAACCCCTTACG
1 AGGCCGCACGCGTTTAACGCACACGCGTGATAGATGGACG
1 CCCACCGATATAAGTGCTAGTCAAAATACTCAGTTATTCG
0.6866217529188751 ACCGTTACTAAGGAATCCGTCTGCGCAAGACAGCCCGTAC
1 TGAACCGACTCGCAAGGCAGAAAATCCTCTATACCGAAGG
1 CTCCATTCTGTTAACGCGGGCAATTTGTCATTTTGGCACG
1 CATCAATACAGCACGTGATCCCCCCCTCCGATCCCAATCG
0.5361891052673123 AGCCGTTAACCGAAGATCGCCCACACCGACCCTGCGCGCT
1 TTAACGCATATCGTTCAAATCGCTACCTAACATAGCGGGT
1 TGCACCTCCCCACACGTTATCCCACAGGCCCGAACGGACG
1 CTACCCCCCCCCGTGCATCCTGGGCCAACTATGGCAGCTT
1 GAAGCACCTTACACCTACCCCGTTGCACAACTAACCTTTA
1 TGTAGGATGACCAAGATCGACTGTGGATAGGGGAGACGAG
1 CCACCTCCGATGCTAGAATCTTCCACTGTCCTGGCATGAC
1 TCCGACCCACCTTCTAACGCCTCTCCGTCGTCCCGCGTCT
1 ACGGCAGAACGCCCAGCGGTAACATTACATGAACCCAGAC
1 CATTCCTCTACCTCATGGCTGTTGGCAAACCGAACCGTTA
1 GTTGCCTAAGCAGTTGTCACGGCGCGGCGACCAAGGGTGA
1 CCGAATAGCTACTGTGCCGGACTACGGTCGAATGTCCGAC
0.3357366708138421 AGTTAACTGGCATACATACAGATCATTAACGGCATTAGAT
1 CTAATCTCAGGCCGATAACCCCCCGAAGCATTCAGGAACA
1 ATAACGGGCCCCTGCACATCCTGACGCGTGCCTGAAAAGA
0.9151261205495912 TACGCGATCAGTGAAGTAACTGTAACAGTATAGCATAATC
1 ACTCCGTACCATTGTCGCTAATATTCTAGTGCAATCCGCC
1 GATTCCCCCGGTACTCGACTACGCTGCGAATGATCCAACG
1 CCTGCCCATAGCACACACGAACAGAACCGTAAGCATTCCC
1 AGCACAGTACGACTCACCAACCCCCACCAGCTTCAGCCCG
1 GAGTGCCGTTCCCCTGGTCTGGCCGCACTGACGATTAGCG
1 CCCCTCGGCAGCTCCATCCCGATTACCAGTTGGAGTTCGA
1 GGGTAGTATCATCGTGAACCGCAACAACTAGAGCATGTGT
1 ATCACCCCAAAGCACAACAGCTAAAGCTTATCTTCTTCCG
1 GCAAGGTAGGGTGGTGACGCACCGTAAGAGTTTGCCAGGC
1 TTAACTCCCCTGTTCGCCTTCACCACCCAACATTCCCTTG
1 AGGCACTTACCGAGTGTTTCGGTATAACTACGTTATAACG
1 TATGCGAAACGCCGCCCCCCAATTAATACCTAACTGTTAC
1 GTAACGGTCTCTAGTCAATGACCTACAGCGACCGGCGACC
1 AAAGCCACTCGCGTAGATCATAATGTCCTTAGCTTCGAGG
1 AGTCTTAATAGGCATCCGTGGCCTTGACAACAAGCAAGGG
1 ACGCACCCGGGCCACCCCTAGGACCTTAAGACACATAACG
1 CTTACACCTACTGATCGCTACCCCCCAACAAACACCGAGA
1 ACGAGGCAGCCGCAGTTGGCCATTCATAAACGAGTAGCCA
1 GCGCGTAATATAACTGACTACTCACCGAGTAACTGCGCGA
1 GGACACATTTTCTGCCGGCCAGCGAAGCTTTGAATCTGCT
1 AGGACGTTCCTGCTATAGCAACACAACGGTCCCGCCGGCC
1 CGCAACGGCCCAGACCAAGGAACGTGCCTGGAGCGTGCCG
1 CCGCTCGATGCAACCTTACCGCCCTCGACTATTATCAAGG
1 ACGTTGGAGGCTAGACACCAATCCTGCTGGGCCCTCATAA
1 AACCGGCCTCAGTCTGGTACATGATCTCAGCGCCGAGCGT
1 CCGTTACACTGCTCACAACCGAACGTTACAACCGCTCACG
1 TTAGACCCCGCCAATCACCCTCCCGACTCAAGTTCCCCTG
1 ACAGTTACTCGTACGTGTGATCCGTTTGGCGCACTGGATC
1 AACAACCACCCTCTTAGCCTGGCGAACAAATGCCTAGTCA
1 TCCGGAGCACGCCAACCTAAACCGTCATACAGATCCAATA
1 AGGCTCACCGATAGTGAAGGCTCCGCACCGTTTGATAACG
1 GCCAAAAGACCTTAACTTCCTGTCATTCCGCACACCTAAT
1 TTCCCCTCGCCCCGCGACTTAAGCGACACACGTACCGGAC
1 TTACACCCCCCCCGCTATGCCCAACGTGTCTCCCACCCCC
1 TAGCCCTCCTAACGTTTTTAGAAGACCGTATGTACTTTAC
1 AAAGCCTGGACTGTCTTTTCATTCCACAACCTAAATACCA
1 CCTACAAGGGACCGGTCCCCAAGCGAAGTGCTACCGTAGC
1 CTACAACTCGCGCTAGTGATCAGCGGATGCCCCCTATCCA
1 ACTCTGCTTATGCAACGGCAACCGATCCGCTAGCCAACCC
0.5248736983918325 TTAACGGAAACGATGATGGCGGCGCAGCGGCGAACTGGCC
1 GAAAGACAACGGTACCTCTTAATAGCAAAACGCTTCGCGA
0.2134120394008794 GCAAACCAATACTTTCGCTCCGTTATCCTTACCGCGGTTG
1 CTTCGCCCCATCCATCTAACCTCTATGAGCTAACACTGCT
1 GGCCCCTAGTCCGCTTTATCACTACATCTCATGCTGGGCA
0.2149119883979577 ACGTACCCTGCCTACCACCTCCGTTATCTGTGCTGACAGG
1 CAACATCCTCGCAGACGTTACACTTCAGTGGCCTTAATCC
1 CATGTCTTACGCGAGCTAGCGATACCATCCCTGCGTTCCC
1 GCGAATGCAACAGTTTTAGATGGGGATGCAGAGCAAGCAC
1 GACCACACCCTCTCAAATCGAACCCACATCCCCATACCAC
1 CAAGCGAAGCCCTTAGAATAAGTAATTTACAAGCCTCCCA
0.9647229648829744 TGGAACATCACTCACAAGACGAGCCTTCGCGAAGTAACGG
1 TCCAAGCCCCACTCTACGCGCCCCAACGGATCGCATAACG
1 GCCGCCCAGCGAGGCTGCTAAATATTTCCCGCATAGAACT
1 CACCACGGAAGTACCACAAGGCCAACCCCTCCTCTCACCT
1 CACCACTTGATTTGCTAAAGAACGGGAACTCGCTACGCGC
1 CAGTGCATGTGATTCCTCTTTTACCCCTAATGGGACGGAA
1 AACTTAATCGTTCCTCCCGCAGTCCGCCCCCCTTGCCCCA
1 ATCAATCCCCAAACTCTTTGTAACTGCGACCAGCCTGTAA
1 ACCTGCCAATTGATACTTCACCGTTAAGGCTAAGGATGAT
1 GCCCCGGCACACCCAGACCGTGCCGTCCGTGCAGAACGTC
1 CCGCTATACTGCCCATCAGAAACTGGTGTGCCCAAGACGA
1 AGTCCCAATCATGCGAACTCACGGTGCGTAGGCAACGGAG
1 CGAGAACACTCTTCCCCAACAAATGCTCACCCATCGCACC
1 CCCGTACGCACGACGCCCACGCACATCCCACCAGCCCTTC
1 CCGGGGATTGTATTCAATACAAGTAGTAGTCTCTGTAACG
1 CAAAGGGCATCTACCGTGCGGGCCCGTTTCCACAAAGTTT
1 CCTACAACGCCCTCACCCTCTGACGACTGGCCCCTAATGC
1 AACCCTGGCCTTTCATGACCAAATGCACGGAACCCTACCC
1 AGGCCCAGATACACTCTCTCAAGTAAACGCCAACCAGATA
1 CAATATAACCGATAACTGTGCGTTCACTCTCGCGCATAAC
1 ATGCTACCCAAACCCAATCAAATGCTAATGTACAATTGTC
1 AAGCGATCACTTTTTCCCGCCACTCTCTCGGTCGTTTAAC
1 AGCTCACTCGCCGCTCCCCTTACGCAGCGCGTTCCGCTAA
1 ACCCGTCGCTTCCACGCCCTGCGCAGACTTACCGGCTAAT
1 TGGTTGAGGAATCCTGTCGCGTCCTACAGCCAGCGCGTTC
1 CGGCTGTCACATGTTGCCCCACCTGCCTTTAAACGTAGCC
1 CCCGCACACCAACCGTCATCCACAAACCCGCGAGTGGTGC
1 AGTTGCCATTACGGCAGACACCGTGCCAGCTCCAAGGGAA
1 CTGATACGCGTGTTTACTTTGGGCAGTTGAATGCCCCCGT
1 AACCCACCGCACCTAACCCTCCGACCTACAGCGCGAACCC
1 CCGTACACGCTAGAACGCTATATGACACCGGTCCTATAGC
1 GACCCCGAATCGACCCCAGAACACAACCCACCATCTGCGC
1 GTGCGCAGGAGTTAGACCAGATGCACTATTCGTAACAACG
1 TTCCCACCTGGGGTTCGCTGAGAATACCCGGGCATCCCTC
1 ACCTACATACCAGGTATGCCCAGTGCACCCGAACCCGTTA
1 GAGAACCACCATCTCTACCAATGAACCGAGCACGCAGACC
1 TCCCTGGCCAACCATATTTGCATATAATGCCCTAGAATTC
1 CTCACCCGTCTTTATAACGGCGCACGGTGTACCAAATTGA
1 TCACGCTGACATGCGACACCAGTAAAACGCACGGTACCCC
1 CATCCCGTCCCTCGCTATCGCAGCCCCAGGAAACAAGAAT
1 GGCCAATAACGATACCCTAGTGTGGAATGCACGTTTCACC
0.9655770318873385 GGCGAGACGAGAGCCTCGCACCACACTCCTCCCGTTAAAC
1 GGAACCCAAGTCGCCCCTCAGCGCTGCCGTAAGCCATCGA
1 CTGCCGCTGTCACGCCCTGTACCCCTTCCCTACCCCCACC
1 CAACGGTACCGACCACACCACCTCGGACGCAACCCGCTAC
1 CGACCCCCTTGGGCTACCTGCCCCTAACCCCGCACAGCTT
1 GTAATACACCTACCCCACCCACGCGCCCCGCCCCCACGGT
1 CAAGCCCTGACCATCCACAGTCCTCCTTCATTCCTCAATC
1 CAACCTCGGACCAATACCCCAATACCACCTAAAACCAAGC
1 TACTCATACCGGAACGACACCTCACCACTAACCCCGGTTT
1 ATGCCGGCAGCTTGCCCCCCCCTGCCTTAGACTCGTCGCG
1 GAGCGGGCACAGCACATCCTTGTACACTCCTATCCCTAGC
1 TACATATGTTATCCCACCGAGAGCTTGCCAGATTACTAGA
1 TCCGTAAGCGTCGGTAAACCCTCCTCCTGACAAGTAACGG
1 AGCGCCTTGCACACCTACACGCTCTTACGCCAAGACGTAG
1 CCCGTTAAACGTACGGTCGCGCCACCTAAGCATAGTTCAG
1 CAAGTGTAATAGCTGAACCGGATTACACACCTTCGTTACT
1 TGAGTAGTTCGTGGATACCTGTACCTTGATGCGTATGAGT
1 ACAACCACCATGCCGCGTAAAGATGAACACTTGTAAGCCG
0.1660401748611592 CTACACCTAACGGGCGTGCGCATCTGGCAAAGCTATCTGT
1 AGGTGCCCTTGCTTCCTAGCGTTCCGGAACCATATAACGG
1 AATTCCTGCGCCATCGTCACCACGTCTGCCGCAAGGACCA
1 CCCATCCAAGGGCGCCGCCTATACCCCAAATCACGCCGGC
1 CGGCGTACCCCATGCCGCACCCCCCCCCTCATACATGTGC
1 TCCTGGCAAAGCGCGCCATGTGCAACATTGGGCGAGTGTC
0.3319414778374966 CGAATCCCGTTATTAAATCCGGCATCCCGGCCTTAATTTC
1 TCCCCATGAGACTCTACTAACGTCCACGTTACCCGCCACC
1 TAACTGCCCCGATGATCATAAAGGGTGTCTGCCACAACGT
1 ACATCCGCGCTCAGAGTTAGTAAGACTTGTGCAGCGTAAC
1 CCATGGACGGACAGCCATAACAGATTGATTCAGCTATCCG
1 AACATTCATGATGCATTGATGGAAAAAGGGGCTGCCGTTG
1 GTTGGCGACCTACACTAGGGCTTGGCCCAAACCCAACCTG
1 GGGAGCGCTCGAGGAAGCGGAAAAGTATTCCAATACCACC
1 AAACAGGACCACCTGCGTACACTTCCGGCCCGAACGGTAT
1 CCCGACACCTCTCCTAGCAATTTGATCTAATGCGGCCTCG
1 CTTAATATTACACCTTGGTGCCGCTCCAAGCCCCCCGTCA
1 CTAGCTAGCAGCTGAACTCGCCAGGCCGGGGCGGTCGCTA
1 GCCATCTTACGAAGCACACATCGGCATCAATCACCCCGCA
1 TTCTAACTAGTCCCCTCGGCGTCTAGGCCCATGGGGGATA
1 CGTTCTCGTACACCCCTGTGAACCTAACCAGCGAAAACAT
0.2283676461057532 CCGTTATACCGGTGCGTGTGCCCCCGAGCAAACTGAACAG
1 AGTCTGATTCCCACACGTGTAACTGATGCTAACCGACCAC
1 GCGCTTCGCCTAACGCCGTAGACCCGACGATATGTCCGAC
1 GACCCCGCATCACACCAGGTACCGGCGCAAACAGGATCCC
1 CAATCATTATGTATGGACACGTACCACGCTCCCGTCCCTT
1 TGCCTCCACGGAACCCTGCCGCCGCTCTTGGCGATCTTTC
1 CCCGACCATACTATCGTGAACGAACCCAAGAGGCGTTAGG
1 GGAGACCTTTACCCCTCCCGCTGCGATAACCACACACGGT
1 AACACGCCCCGTCCGATCACTTCGACACGCGCGAGGATCT
1 GTCATGAGATTGATCACTTTTTTGCCAGTCTGAGAGGCTT
1 ACCGCACCTGCACCTTCGCGTGTGCCCAAACGCCTAACGG
1 TCCCTACGGCACGTCCCCCCATCCACCCGTGCGTGTGTCC
1 TAGCGGATTTAACGCATTCGGCAGATACTTGCGCCTGCTT
1 GCAGCGCACTTCAGTTCAGTCCAAATATTTGTTGTCATAC
1 GTTGCGCCCGGTAAGGTACTGCTAGCACGGACACAGAGGT
1 CCCACAACTGCCACCCCCTGCCTCCGACCAGCTGTCAGGC
1 CGTCATGCCTCCGCACATTAGCATGGCTGTGCCTTGCCGA
1 CTAATATTGACAACCACCACGACCTATATAGTCAAGGAGC
1 TCAGACGTATTATACGCCACTACTCATTGTATATAGTAAC
1 CCTAGACCCACTTGTCACTCGGCACGCTTGTCCCATAGGG
1 CGGCCCCCGCCCCCTCCGGTCACCACCTGCTGCCTCCCCT
1 TGCACAGTACACCCAGCGAACGTGCGCCCTCCATAGTGTA
1 TACCGCTATTTTCCACTGTTTGCTGCATCACAAACGCGCC
1 CCCACTTCCGTCACACGTAACCCAACCCCCGGTTACTGCC
0.8495388094947219 ACCGTTACCCGCCCCGTAATCCTTTGACAGGTACCTACTC
1 AAGCGCTATGTGTGCCAAGACGTATTCATGTAGATTCCCA
1 ACCGTACCTGAACAACACGCACGACCTACCGTCAGCAACC
1 GTAACGGCACAGAATCGCTACTAGTGTCGGACGACACATT
1 CCGACCAACCCTGATGTTCAACACAACCACTTCCCGCTCA
1 AAAACGGAGACCCAACTTCTATGCCACGTGACTTCACCGA
1 TCGCAGCCCTCCCCAAGACAGCGTTCATGTCGAAATGCCG
1 CGAAACCGCATGATTCACCATCGCCTCCAACGGTAACACG
1 ACGTCTTCTCGCGCCAGTCCAAAACCCACATACCTTCAAG
1 TCTAAGGCCACGAAATACCGTTGCTTCCCTGCGCCCTCTC
1 GTTAGCGCGATGCGTGATGACAAGACCGCCACTTTCGTAA
1 CATAAAGCGGAATAATGGGCAATTTCTACCGCTGAGGCTG
1 AAGCGCAAAGCTTCGCATACGGTCACCGCTCGCTACTAAG
1 CACTCCCTCTCTCTGAACCACGACGACCATCGCATGAGCC
1 CTTTATACGACGACCCCCCCTCCCCATCCCCTACATCCTA
1 CACCACCAAGTCCAGTCATGCACTCTGATCACCCTTGTTA
1 CAATGAGAATGCGTTATGTGAACCCCATCGCGCGGCCTCG
1 ACACGCAAGCCATCTGCGTCAATCCAACCGCCCTATAACG
1 AGCACGGTGAATAATCCCCCCAAACACGCCCACCCACAGC
1 CATACCGTACCGGCGTGCCCATGCTTCACCTCGTAGCCTT
1 ATATACCGGTAGCATGACCGTAGAGAGAGAATCAAGCAAG
0.771724058686577 TTAAAGAGGCCAGCGAAGAAATAGACGTTCCATCAACTTC
1 ACCTGAATTCTGCGATAAGGATAAGTGAACGGTGTACCCA
1 AGAGCACACCTACGCCAGCACACCTCCCCTTCCCGGCACT
1 TCATAGAATCACGCGTCCTAATCTTGCGCGCCGTCTAGCA
0.5590055066036372 CGTGCAATTAACGGATTCATGGCCATTATAATTATTGATC
1 ACATCTCGCCTCCCCGCCACCCTCCCGCGGCAGAATCCCA
1 CCATCTGAACAGTACCAACGGTGCCGAATACACCGGTGAT
1 GACATTAGTTTCCAAGCAATGCTGCGGGCCGCGTGCGTGA
1 CGCGTGACGTGGGCGTTGAAAGTGGCTTTCGGACTAACGG
1 AAATTCCCCCCCACCCCGTACCCCTCACAGCGTAATCTAT
1 AATTTATTTCGCCCACCCCACACCGGGATACGTAGAGGGC
1 CCGGATTGTTGCCTACCTGTACCAGTGATTAGATTGGTTC
1 TGAGCAAGGCTCCAACCCAGCTCATCCACACAATAACGCA
1 CGATTAGCTACAACGGGGGGCAGCCCCCTACACCCCGGTT
1 TCTGCACACTGTGACCGCCATGCTAAGCCTGTTCTGCGTT
1 TCACACCAACCATCACCCCTCGCTCATGTCCGAAAGGCAT
0.4373286900414394 ACGAACTGGACCGGTGTCATACCAACGGTCTTGATCCGTT
1 CCCACCGCTGGTCCCGCGACTCACACAACTAGCCCCACGC
1 CCATAGACACGACGTTATGTCGCTGTGCCTTATACCTTTG
1 CCGGTAACGTGGCTTCGCTCCCCTCTTAGATGCATTTCCT
1 TCCAACGGCTCATCGGACACCCGCTGTTCCGCAAGGCAAC
1 TCACATTGAGAGTCAAAATTGGGGGCTGCGCGACCGTTAT
1 AAACGGCTACCCCGCCCGACCGGCTCACCTCTCTAAGCGC
1 CGACGCGTTGGCAGCTAGTCGGGGCCCGCCCACACATGTC
1 TTTGCTACGATGAACGGTCCTGATTAGCACTATTCATCAT
1 CGCTGTCGAGCATATAACACAATAACTCTACGCAGCAAAA
1 ACGTGCCACGCACGCACCACGCCTAGATTAGTACGATGAC
1 TCGATTTCCATTTAGGCCGCTAATTATCATAGGAATGTTG
1 TCCGGTGCGCGCGACAGAAGTGCCAAATGTATAAGGCTCG
1 TTAATTAAGCGCAATGTACTTACAGGGTTTGAGTTGAAGC
1 TAACTTACCGGTGTGTACCGCGATTCGTTTAAATAAACAC
1 TTGATGGGTTATGCCGCATGCCCCCCGAAATAGGCTCATC
1 CAATATGTAGGGGTATCTGCGCGCTCAACTCCCATAACGG
1 CCGGCCTCCTACGCAGTGCGTACATCTAAGATACGTTTTG
1 CAGCGCGCACTATGACGAACCCTCGTGCTCCACATACCCG
0.123055218049918 CCTTAAATGAATGGTTAACGGGATTTTCCAACACAAAATT
0.6234107220741162 ATAACGGAACGTGGCCCCTCTCGTCGCACGACTGATCACG
1 AGCTGATATCAAGACACACGGTGTTATGGCTGACTGTATA
1 AATATGAAGCTTCTGCTAGCGAAGGTATACATTGTCCATT
1 CTGGTGCTCTGAGCAAGCATGACAGGCTTTCCCAACCAAC
1 GCACCATGTCGCTACAACAGCATCGCATAACGTTAGCCAT
1 CAGGCCCTGAGTGCGTTCCACGGGACCTCAGCACCATAAT
1 GCCCCGAGCCGCCTTCCTGCCTAACCGCCCCCCCCCACCC
1 CCGACGCCTAATACGCTACGCAGATTGCCACATGTTACCC
1 GTCTTCGTTAACCGTCACCGCCCCTAGATAGCATAATGAC
1 CATATCCGCTACCCCGCCCCAGACTGGCCCCAAACCCTCC
0.7821226571411434 ATTTGAAGGCCCATGATTCCCCCCACATGCTGCCAGCGAA
1 GCTGCCCCAAATCCCCCTCCTCATCCCATAGTAGTGATTC
1 TCCCTCGCGCCTGGTAGCTTATTGTTATTATGTCCCATCT
1 CGCAGGCCCGGTAGGGCTAACATACGCTCCCACCTTAGGA
1 TCAACGCACAACATTGCGCCTTATATTGGCCGGTCCCTGC
1 GGGGAAGGTGCAGAAAGCGAAGGACGATCCCAAGTAGAGT
1 CCATCAACGCGCCGATCGCGGTTAATTCCATGCTTCCGTT
1 ACTCGCTCCCTAAGATTTCGTGCTGTGAATGCGCCTTAAC
1 CCCTCCCATACCGCCCGTTCTAACACACATCCCGATGAAC
1 CACGGGTCCAAAATAGCGAAAGCCTACCATGATACTGGCC
1 CTGCTGCCCGTCTAACTGTCCCGCAACCTATAGAATGCAA
1 CTAGAACAGACCGTAGGGTACCAACCCCTCATGATGCCGG
1 AGTCGATGCGGCACCATGTCAACACCACCAAAAACCGTTA
1 TCCCTCTATCGGGAAACACTCATCCCTTCCCCCGATTACC
1 AGCAACGACATTCAACACGATGTTCTTATTATTCCGTTAT
1 GTGCCCGCGCGTCGTCTCCAAGCGAACATGAGTGCTTTTA
1 TGTTAGTTTCCATCCTTCTCTCCCGAAATAATTTCCTCGC
1 TTATGTTACCTGTTAGACGCGTCTTCCTTCTGTGCCCGTT
1 AACCTGCACCGAGCACACGTGTGCCCGAATTCCACTGCAC
1 TACGCGGTGTCACAGGAGCGCCCATCCGCAGCTCGAGTAC
1 AGTATTCCTTTGTGTGATAACAAACTGGAATAAATATTGT
1 TGCAACTCCCTACGTCCCCCCCGGTTCGCTAAGAGCTTCA
1 GAGTCCACTGAACTTCCCCTGCCCTGTCATTCGCGCCGGC
1 CTCAGCCTAAAAACACCGCGCGCACACGCACCGAACACTG
1 GCATTACCCGGTTGTCGTTGCCGTAGATTGACCCATATGT
1 ACAGTTTAATTCGACTCCCGCATACACGGAATCGTCCCGT
1 ACAAAGGGGGGGCATGTCCCCTACATGGCGCCACAACCGT
1 AATCAAATAGACGGCGAGTCCCACCATCAAACGCTGTGCG
1 ACGCCTACTACATACCACCGAGACCTAAGCGCCCTACCTC
1 TCTTTAACTGCGCTGTGCTTCAGTTTTGTTACCCGTTCTA
1 ATAACGGGACTCGTGCCCCGGCGACTTGAGCTCCATCCAC
1 AAATACTGGTCAAAGCGAAGATACGACTTTGAGCCTGGCT
1 GGAACAGCGGAAATCGTTACCGTTTCACGGGTCCTACCAA
1 ACGAAATAGTAACCCCCTTTTTTTACCAGCGCCTTCACAC
1 ATGGGGACCGCAGCGGGGCATGTGGGTCATGCCGTTAAAC
1 GGAAACTTCCGCTACGCCGCCCACACGTGTGGACCTACAC
1 TCGCCAATGCCATGTAACTGTCACACAGGCTGCTCTCGTT
1 ACCGTTACCGCGGAGAGGCGCGAGCCGGTGGTTCCCGTCA
1 GGGACCCAATGCTTAGCGAATACTGCTGGACATTCGGAGA
1 AACTCCCAACCGTAACTAACGCTACCCTAGCACCACGCTT
1 ACGTCTTGCCTGATCCACGAGATCCGCTACCACATTACCT
1 TCTACTCATTGCCGCTATACAACGGCGAAAGCAGCACACA
1 ACGCCTCAGCACGCCTTACAACGCTGATGTTACTAGACGA
1 GATCAGCTTGCATAACTGTCACATTCGAGATTGGTGTACC
1 TGTTGCAGGTTCACGCTTTAAACGTAAACGAGGGTTACCT
1 CCACACCTAAGACAAATGTGGAAAACTCAGTTAACAATGA
1 CCGGCCATACGTGTTACATCCACAATCAGAGCCCGATGAC
1 CACTCGGCCGACTTAGACGGCCTCATTAACGCATACCCCC
1 TCACAAAGCCACAGCCAAGCACATTTTCTTGCTTACAATA
1 AATCCGAAAGCGAATCGCGTAACGAATACCGCCCCCCGGC
1 GCCACACTCACGCTCGCCATGCATCGCAATCTGGGTACCT
1 ACCTCACCTCTTAGATCCCAGACCCCTCATCGCCACCAGG
1 ATATACGCCTTCACGATAACTCCACTACACATCGCGACCT
0.2154762768624597 ACCGTTACGTGGGACTACAATTCCCCATCCAGCTGCGCGC
1 TTCCCATTAGACAAGACCTAAGGTACTGGCTTCAAAGTAA
1 TCGAAGCCAACTTCTGCGCATGAACTGCTGGCGACTTGGG
0.3704900460327398 GTCCGTTAAGGGCTGAATTTCCCCGCCGCGGCGCAACCAC
1 GCCAAGAATGCAAAAAACACGATTCCAGCTCGCTGTCCTT
1 CGACAATTTTACAGTTGTAAGGACGCGCTTCGGTCGAGTT
1 TTGACCCAAAACCACCTCTCATTCTGCCCCATCCCACACT
1 TTATTAACACACAACTATATTAGCGTCGTTCGTAGTGGTT
1 CAGACGCTGTTACCATAACGCGTATAATGCGACAATCGCC
1 GACACGCTAGCCCACTGGAGCGCTGATCCGGCCCCGACAG
0.7005457203990124 CAAGCGAACATTACCTAGTACTGCACCCGCACGGACTAGC
1 CTAGTAGCGGCTATCGCACGGTTGCAGTCCATTCACTCAC
1 ACCGTTAAGCTTATCTTCGACTTACACGATTTACATTGAC
1 CATTCAGCAACTCAATTCCCGAGCACGACCCGTTCCGTTA
1 TTTTCGCAACCCTGAGAGACTTCTTGCCACTGTGCTTACG
1 CGAACCCACTGACTAGCGTTCCGTCGCAATGGTAGCGGAT
1 AGTTCCCGATTCACCGTAATAGAAAGCCCTAGACGAGCCG
1 CACGGCATGCCCCGACACCACTGAAATTACGGTTTCACCC
1 CACATGTGGTGTATCGAACAACGTCTTACTCCTGTTCTCG
1 CACAACTTTGACTACGCAACCGCAGGATCATGGCCGATAC
1 CCGAGTTGATATCCAAAGACCCATCTAACTACTGATCCCT
1 CCCTGAGTCGATGCGCGCGGTGCGAGCGTATACCCCATTC
1 TCGCCATCGGGCGCACACAGCCACAGCCAGTATAATCGCG
1 ATACAATGCATAAATGGGACACACATGTAGCGGATTTTGC
1 GAAGTCCTTTATCTTGAGTCGCACTGGGTTCGAACGAACT
1 CTCCCACGCAGTAAACGCAGCCCCAACGTACGCGACGAAC
1 ACCTCGTATTCTTGCATAGAGATAAGTTTCCACTCCCTGG
0.5610317444955679 GAAGCGCGTTTCTGGTTAACAGCTAACTGGCGTACCGTTA
1 CACAGTGTTCGACCTCTCACTCTATATACGGCTTGCCCAA
1 AGTGTCGAGAAAGCGAACAAAAACCGAGACACCCAGGGAG
1 CCTGCCGCCCTACGGTGCTATAACACCACCCATCTATCAA
1 AAAAAATGTACTTCATTCTACTACAAAAACGCTACATCAC
1 GGCAATGCGACGCGGAACACCCACGCACTCCCACTACCTT
1 AGCATCATCCACCCCAGCAAGCGTCCTCGTGGGCATGATG
1 CCATGAAGCACTAGGTTATCACGCAGAATATGTGTTGTAG
1 GCAACTCGTCCTACCCCGCACCCCCCGATAAGGCCGTAAT
1 CTCCGCCACCTGCTCAACCCCTCCCCTGACTTCCTAAAGT
1 GAGTCAGCCTCCCAACCGCGCGGGGAAAGCCCGCGCACGC
1 GCACCCTGCACCTTGTATGCGCTAATGCATTTAACCCCTC
1 CACCTCCGAATGCCACGACCTCGATCGCTGCCGCCACCCC
1 CTAAGGTAGTGCATCCGCGTCTACCTTTATAAATAGGTAC
1 GACCCGTTGCTTACAACAGCTACAGTGGCATTACTGTATT
1 AGCGTGGCGCACACTCCGATTAATCGCGTTTATTCTAACC
0.5096597402302216 CGCGGGAACCCGTTAGCTCACTTTTTAGCACTCCGCCTCT
1 CAAAATCAGCGCGTTGCGGCCGTTACTCCCATAAATCATG
1 CCCTCTTCCCAATCCCGCCTTAGCACGAACCCCACGCGCG
1 CCCCGCGACACCCGTGGAATCCGAGAAATACGACCAAGCA
0.9512272732689412 CGCAAAACCGATACTCCGCCGTTAATTGAATGGCCATCAC
1 CCGTCCTCATAACCAATAAAGCGGGCCGCGTACATCTCGC
1 GCGACAACATGAGAGTAACTCTCTTCTCCCATACCCGTAG
1 TACCAACCACGGCCACGCGCTATGACAGAAAACGGTAACG
1 CGGCGGTTACGGGACTCGCGCTCCACACAGTCGCATAACG
1 TGCAATCCCCGGCGCCACTTCACGCACTCAACACGGAAAT
1 GATAATCCGCACCGGGGTTACCACAGCCTAAACCCGACTT
1 TCCAAGAGCGTGCTTCTGCGGGACCAGTAACTCTTGGAAT
1 AGCTTATTGCGGACGGGCGAACCCCCTCACCTATTGAGTC
1 TCCCAGAACCAACGAACTACGCTCGCTACCGTGAAGTCTA
1 CGTTTGCCCCGGCAGTACGGTAAGAACATGACTTCTACAC
1 CTGGAGCACCATGATGTCCGATGATCACACGGCCCTTAGC
1 ATCTATCCACACAAGTCCCCTAACGAGGCCCTCTACTCCT
1 GCGCCCGCGTCAAAACATGATGCATTGAAGTGCACGGACA
0.5385286879341599 GCTGGCCTTGGCCACGCTGCCAAGCGAAGTGGGTGGGAGA
1 CCGACGATACACCTCCCACTCCACACACCCTACACTTCAG
1 TTGCGACGTTGTACGTTGTAGTTTGTTTAGTAAGGTGTAA
1 CATTCCACGTCGTGGTACGGACCAGTTTTGCACCCACGTA
1 CCGATAGAACCTCACCGCTTCCACAACTCACTTGGAATGA
1 GGTCCCTCGTAACGATCCCACCCGGCAGACCGTGGATCTC
1 CCCCGGTACTCAGCACGCGCCCAAAATACGCGTTCCGTTA
1 GACACCTATGCGCGATGGGGCCAGTACGCTGCCACATACC
1 TTTCACTGGCTCGCGGGAATCTGGGCAAGAGAGGAACGGA
1 CCCACCCGTCAGACCCTCTGCCGTCTCGGTAAGTCTCCGC
1 TTACGGCTAACTCAACTTAGCGGTACCCCTTACAAGTCAC
0.6350034421742946 AAGCTACTACTGACCAACGCTTCAAATAAATCCGCTATTT
1 CTTCTCCGACTCCTTCCCAAGATAACTGTCCTTGCCCTTG
1 GCAAAATGTCCCCGATCCTGGGATCATACCTACGCCCACT
0.3766510786857082 GTAACGGTCCCCCCTTATGCTCCCGAGACGGTCAGTTCAG
0.4367199036365434 TACTACATCACGGCCGTTAGTCTAAGGTTTCATACTTTGC
1 AGAGACCAGTCGGTAAGCGAACCGCGGGAATGACCCAATT
1 GAGGCCACAGGGGCTAGCGAAGTACCAATGCCCGGGTAAC
1 CGGTAACAATTGACTGACCGAATACCCTTCCGGCGTGGAC
1 CTGGCCAACCCTTGGGTAAAGTTGCAGTTAGTTTGCTTAC
1 TAGCACAGACGATGTTCCGCTAGTCAGAACCGTCATATGC
1 CCACCCCTTAGAACAACCCGTAGACCCTACCCCTACCACC
1 TGTAGATGGGCCAAACGCCAAATGGCGTAGATATGCTGTA
1 CACAGCCCCCCTATCCGCACTTTATCAAACGACCTCTGGC
0.4411395064262308 GCCTACCAACGGTTATTCCGCTCCTGCCGTTCAGTCCTTC
1 CACTAAACCCACTTCACCCCCAGCCTTTGCCCCGCTGTCT
1 CAACCCAACGGTCCGGGAGACGCGTAACTAACCTCACCTC
1 GACCATCCCTAAAATGAACGCGGACCGCTAAGTGTCTAAC
1 ACCGTTAAATCTGACGCTATCCGCTGCACCATCGCGATTA
1 CCAGCAGCCAGTAGCATCAAAGCACTCGACACTAGGCCCA
0.9806928936246672 CAAGGCCATCGTATTGGCCGTTATTGCTAAGCCACTGTAG
1 AAACATACCCTGCCCCTGCGACTTATCGCTTCACGAAAAA
0.2479474798824436 CGAATGCATAATCTACATAGGACCCGTTAACTCGCAAAAT
1 TAGGAGGACCCAAAGCGCGAGGATGTGTCTGTTGCCCTTT
1 CACGAACCTGCAATCTACGTTGTAACCGCTACAATCTTCC
1 CTGCAGTATAGTAGACCTACCCGTCATCGAGTACCGAGTG
