svm_type c_svc
kernel_type gkm_esttrunc
L 10
k 6
d 3
nr_class 2
total_sv 4174
rho 1.20979
label 1 -1
nr_sv 1244 2930
SV
1 AATCCCTGGACGATTGAGACCAACACCGCAACGCCCCATC
0.01934364560509002 CATGAACACACCCATGCAATTATCACCATGGAAACCGGCT
0.206215899859148 GCCCCATCCTGTCCATTGCCATGGTAATATCGTTGTCCCA
1 GGCCTAGCAACACCTATCTCCCCACTTCCTTAGACACGCA
0.08338371411654341 AATAGCAACCGTTGCCACCAATCACACGTATGAAAGCATC
1 AAACGACCACTTCCCGACCTCGCCCGTAACCCCAGGCAAC
0.6987114517216158 ACGTTGAATGCCCTGGCACGCCTCGTATCCAATGGCAACG
0.2823037889218076 TTCCAGCCTCTTAACGCCCGCTGTAACCATAGTGATGGCC
0.655126076594054 CGCTGCCGCCGCGCCGGTCCATCGATGTAACTATGGCAAC
1 TCATCATATTTGCGCGAGTAGGATGCATGCTACGCCCCTC
0.2691731873627513 CCCTCTGTATCCATAACAACGCAACCGTATCACGTGAACC
1 CTCGTAAACGGTTTCCATAGTAAAAGCGAACGAGGCAAGG
1 GGTTCCATGACGACCCCCAACAATCTGCGCGCCATGCCCC
0.6727515894673682 TCTGGCTTGCGCATGCTTTAATACATTTCGTTGTCATGAC
0.7579426907571243 CTTTCCGCTATCTGCTCACCGTCGTCGTGGCAACCAGCTA
1 ACTCGTATCCACATATGGAGCTAAGCAAGTCCCTAACGAC
0.8191371311637445 CAGATAGCCAGGACGAACAGTGGCCGTGACAACGCAACTA
0.1201215054155857 TACCACCTCGCCGGGAGGCCGTCACCCTGGCAACGGAGAT
1 TTCGCCCCCCAGGCGTCCGCGCGGACCTCCCCCCCGCGAA
0.3377714214966502 GAGCAACTTGCACGCGGTTGCTAATAGCAACCCCGCGGTC
0.5511229037498376 TACAAGCAGAAAGGTTGCCGTGGAAACGACGCATAACCGT
1 GCCTAAATCGCTACGTCCTACGGTGCTATTGACAACGGAA
0.245581200507806 TCTACATTCGCAATTTAACCCTGTTTCTATGACAACCACA
0.9361498808823376 CGATCGCCGTTCCCGACATCCGCTCATTACCAAGGTAACG
0.0433421341198331 CGTTTTCGTTGCCTTGACAACGTAAGACCCCAAACAGTCC
1 CGCGCGCTCTTCTCACCGACACCACCCAACGCCTGTCCGC
1 ATGCACTTACAACAAGTGCGGCCACCCCTACGCCGCACAA
0.7884276641389111 TAACGACAAGACCCGGAACCAATAGCAACCTGCCTTCTCC
0.9194796453629368 GTTGCTATGACACCCGGTAACTGCATGTACTTCATCATGT
0.4808785919749243 GCTGCGTTCCGCAATAGAAACGTAACGATGACAACGTCCT
0.8641404974450753 GTTGCTAAGCAACCACACCAGTATCAACCAAGGATGGTCC
0.4960056341617982 CACCGTTACGATGGCAACCCCACCCAGCTGCACCGCGCCG
0.2229135851373766 GTTGCTTAGCAACCACGCACAACCAAAGGATAAATACCAA
0.4123531011221205 AGCTACCCAAACGCACTGTAACCGTCTCCAATGGCAACCA
1 TCCATCCGGTATTGGCTACAGCCAAGTTGGTTTCCATGAC
0.06641451193954385 TACGCCGGCCCAAGGGAGTTCCCGCGTACGTTGCCATGAC
0.2719630816078742 ACCAGCCCCTTTGCGAATCCTTGCGCTGTTGCTAGGCAAC
0.5135855346612787 GCAGATGGTTGGGACGACCCGGACTTGGTGCCATGACAAC
0.8602075871965421 CCCGTTACCACGACAACATACGCCCAATCATACAATGCAC
0.5395246897780173 TGGCGCATCGCATGGTCCGATAAGCTGTTTCCATGACCAC
0.780969275682208 CGGCAATTACTTGTTGCCAGTAGCAACAAGCCTATCTGCG
0.3920603459056008 ACCAGCCTATACCAGCTGATCGAGTGTATGTTGCCATGAC
1 TAAGGTCCAGCCCGACCACTCTTAATCACGACTCCGTACG
1 GCTAAAACCGGACGTTGGTTGCCAACAGCAACGCAGTTCA
1 ATATTTGGACAGTATAGCGCGTTAACATGACTACTACAGC
0.8116950981908574 GTTGTCATAGAAACGCTTTCGATGCAAACACAGCGCAACT
0.1963654771705301 CTACAAAGGCATAGACCTGGTTACAATGACAACGTACCCC
0.1951961487949179 GACAATGACGTTTAAGTGCTCGTTGCTACGGGTTACCAGA
1 AGCAGCACGCGCACCCATGACCCACTTCCCCTCCACGATC
1 GCCCCGTCAAAAGAGAACACAGGTGGCCAGGGCAACACTC
0.5506402496940977 GTTGCCCGTAGCAACGCCGCCCCGCGGATGCTCACCGACA
1 GCACCGAGTTACGTTTACATGGGAACGCCCTCAATCAAAT
0.2583161672345431 CGTAACCAATAGCAACGTCATTCCGTCTCGGACGTACTCG
0.8898681042686895 ATTTGCGTTGGAGTCGCGGCTCCCGTTTCTATGGAAACTC
0.9314934085779536 ACTACCAACCCGATATTACCTTAACTACCGTTGCTAACCG
1 CTCCGCCTACCTCTCATCTGTGAACGTTACGATGACCACG
0.2753105323321005 CCCGTAACCAATGGTTACCGTTGATGGTACACGCCAACAC
1 AACTACCTCCCACGCGAAGAGGTCCCCCCCCACCCCATCC
1 AGCGTTAACATGGAAACATTCTTTACCTCACCGCACAGAA
0.2139260826726726 CACAACAATTGCCTAATGTAAACGGTGTTGTCATAGTAAC
0.1151557224088195 TCGCCCCTGCCCGGTTACTTAGCAACCGCTTCCATAGAGT
1 CAGGACACAGCTTTATTCATGCGCTTGTGCCGCCCCACGC
1 CATAGTCTCAACACCCCCCTAGCCCGTAACCCAGGGAAAC
0.03215927630873505 TACTCCTCTCAACAGCCATCGTTGAATGCGTTGTCATGGC
0.1001065405810441 TTCATAACTGGAACAACGTGAGCTTTGCGGTTACCATGAC
0.05094867971698443 CCATCCCGGCCTTCACGGCTCGCCGTTGCCTAGGGAACGT
1 AACACCGCCATCACCATGGATACCGCCAGCCCCCCGCGCG
0.1129603132905216 GTTGCCATGCCAACCACGTTTTTCTTAAAGTACGTATGCC
1 ACCAAGATGATAGTTCGGAACTGGCGTTTCCGTGACGACT
0.8244482692149445 ACAGTGTCCCCCGACGCCGACCTCCGTAACCATAGATACT
0.1749794244491001 CGGCTATCGCTCCCTCTGCGACCTAACGTGTTGCCATAGC
0.1356994056343223 GTTGCTAATGGCAACGCCCTGTGCTGGCGTCCCTCGATTG
1 ATGCATGCTGACCATCCAGTTACTAAGGCAAACATTTTCT
0.9875654237216996 ACAAGCTCACCGGGCTAGAGACCATCGTTACCGAGGTAAC
0.7432105110791223 GCCTCTGAGCTCAATACCTAATTATTGTTGTCATAGCACC
1 ACTAAGTGACCGTAACCCCGTAGGGCCGTTACGTTTCCAT
0.1651021747722289 CACGCAGGGGCCCGTCCCACAACCCGTCCGTTGTCATGGC
1 ACCCCGCCTTATCTCCGATCATTTTAGCCCTACCCCCCCG
0.04795695230118518 TCCGTAACCATAGCGACAGTGCTGAAAAGAATGCGCAACG
0.5439756587062042 GTCACAATGGCAACACACTTATGCAAGATGAGGAGTGTTC
1 TGCCTCCGCGCTTCGCAAAAATCTAGCGTATGATTTATTC
0.706043611050494 CGTGATGCTTCCATTGGAGATACACCGTTACAATGGCAAC
1 CTCGCCATGCCACGGTGTTTGCAGCGTAGACGGTTGCTAT
0.3968081922856895 GCTCGAAGGGCCAAGCGCTGTTTAGTGTTACCATAGAAAC
1 ACAACCGCGACTCTCGTTGCCCGTGGCAAGCTGACCTCGC
1 TTCAAAACGACACAAAGTCTTGCGTGTACGTCGTCATGGA
0.5149719196410644 ACGGGTTACCGAGGCAACCACTTGCGTCATGACGTTGCCG
1 AGAGGGATTAACCCTTAACTACCGTAACGTGGCAACGATC
0.5531089262607772 GGAGTAATGTCCACCCCAGTCGTTGCCAGTGGCAACCGAA
1 CAAAACGAATAATCGCTACCGCTGCTGCCGACGTTACCAT
1 CTAGATACCATCCCTACGCAACCGGCAAAAAATCGAATTA
1 ACACACGCCTCGTCCCGTGAAACCTTCTCGTTGCCCTAGC
1 ACCCAACGTTACGCGCCTTCCACCGCATCCGCAAACACCA
0.3163609468512313 AGCAATACACCGTAATTATCCGTTACCATAGAAAGGCTCA
1 CTCCCCATACGCTACTGACGTTATTGATTTGCTGGACCGT
0.8087734264708203 ACGTCGTCTAGCAGCACCCTCCACCGCCCGCCGTTGCCAT
1 CGTTGCCAATCCCCGTGAAAAAGTCAAGTTTACGACCCCA
0.6124895678062398 ATACTGCCTAAGGTTGGAGCCTGCCGCAACCATGGAAACA
1 ATAACGGCCCACATGCGTTGATATGGGCTGCCTGCGCCTT
1 GCGTGCCCCATCATTCGCTATCCGGTGGTGCTAGGGCAAC
0.003518481258660017 GTCGCCATGGCTACGCCCTGCGCCCTCGCGCTAGATGCTC
1 CCCAGCGACAGCGTAACCACGGACAACGTACTACGTAGCC
0.638132453508224 ATAGCAAGGCAACGGGTTGCTTTGCCAACCACTCCGCCTA
0.5423939761900323 GTTGTCATGACAAAGGCCGCGCCCCTACGATTACGCCCTG
0.3603488018096389 CTAACGCTATACAGGGTTGCCGTGACAACAGGAACAATCT
1 TCCATCGGTTTCCAGGGCAAATCATGCGAAACAAAAGGCA
1 CGCGCACGCCGAACCATCCATACGTTACCATCGCAAACGA
0.5834329933631369 CGTCGCCATGGGTACCAGCACCGTTTAGACGCGCATGGGC
1 AATGTTGTCGTTAGTAACAGCGCCTAACGAGAGGGATTAA
1 GACCATTCGATCCACGTACTAACCACACCTCATGCAGGCC
0.9263236450474233 CGTAGCCATGGCAGCGGTTAAGTGCAAACCACTTACACAA
0.9844984667614103 AGACCTTCCCATCCTTTACACTCTGCTGTTGCTTAGCAAC
1 CTTAGGCCACCTAGATACCTATATAATGTGAGGGCACATT
0.1320168295747676 ATCACCATGGTTACAAGCGTAACGCTTGTATTGCCGGCAG
0.7432256517911178 CAACTCACATCGCACCGTTGTCAGAGCAACCAGCCTCGAC
0.3024614920206652 ACTTCGGTTGTCAAGGTTACTGTCATAAAACCGATTCACT
1 GCACTGCCCCAATCGCAACCCCCGCTACCTCCATAGCAAC
0.1507726809121218 ATAGCAACGGTTGCTAACAACCTGCATCGCTGATAGATCT
0.5253655100771255 CGTTACCATAGTTACCACATGCCCCCCTCAACCTTACCCT
0.9817171530415136 ACTCCAGTTAGGGACAGACGTTCCCATGAAAACAATGCTA
0.628855797373558 ACCACGATTGCTATGGAAACACCGCTTCGCATACGAACCA
1 GCCCCACACTCGCATCACCAGGTTCGTGCCCCCGGCAACG
0.1411591619680985 CACCGATATCTCTCCCCCCCGCTCACACCGTAACCATGGC
0.1594901223433204 CGTTGTTATGACAACGTGGCACAGCCTCCGTCAATCCCGA
0.3425144938022579 GCCATGTCTAGGCGCTACCTCCGTTATCCGTAACCATGAC
0.04142831438306034 GTTCGTGCAAGTGAAATCCGATCCACGTTTCCATGGATAC
0.9770007476126642 GTTGCCCTGACAACCGGTACACTCCACGGCGTTAAGGGCT
1 CCGTGGTACAGACCGTTACACAGGGTTACAGAAGCGACAC
0.795356847009341 GCTATAGGGCCGCGCTAACGACTAGAACAACCGTTGCTAT
1 GTAACCTAGACAACCGTCACATCCCTCTACGTCCTGTCCC
1 ATAGAGCATTACCCCCTACGGAACCTTCACTTTAGAACAC
1 ATGTTGTTAAAGCAGCGGATGACGTGGGGTGCGTTGCCAT
0.4623138521915529 AGCGCCGACAGGGCGCCCCGCTAACAAAGGTTGCCATAGC
1 GCACCACGATGCCATGCCCCTACCGCAATACATCAGCACC
0.3057425146626604 GTTGCCACGGCAACCCAGACACACCGCGCAGATGCCTGAC
1 GAAAGAACCGCGCGCACCGGTGCTATGTTACCTACGAGCA
0.2199994878160902 ACGACTAGAGTCAGTTGCCACAGTCGCCATAGCACCGCCT
1 GCAGCACCCTCATCCCCTCTCGAGGCTCCGCGTATCCAAT
0.442665358740706 ACCGCGCTACAGCGTCCCTTCAGGGAACCATAGTAACCTG
1 CGCCCTCAGAAGCACGCGAAATAACGTCACCCATAGCAAC
1 ATCCTCCTCAGCCTTGCTCGACGCAAGGACACGGTGTCTA
1 GCGCCCCCCCTCCCATACTCCTTGGTAGATATGGCAACCC
0.8562837170215227 GCCCGCTCTACGATAGAGTTGCGATGACAACGCGGGGCTG
1 TCTTTGCATGACCACTGTAAACCCTAGCAACCCCCCCAAC
1 ACAACGCCCTAGTGGTGGCGGGGACAACGCATTCACTGCA
0.07589552280871553 CTGCATCGACAACGGCCGTGGAACCATGGAAACAAGAACG
0.1168987173549957 TATGTGCGGCTGTTTGGACACGTCAGAGCGTTACCATGAC
1 TCCGCAACTGGCACCGATCATGGACATGTGGTGTCATGAC
0.5056078836237878 GGTTGCCATAGGCAACGTCGACTGCCTCAGACATAACCCT
0.1344726343892233 CACTCCATCGTTGACATGACAACAAACGGCACGCGCATAT
0.1480290256796341 ATCGTCGTCCTGGCAACGATACAAGGTACCGGGTAAACCG
1 GTCGCTAGGCAACTCGGATATTTTATCTCATCGCCGTAGA
1 CCACCAACCCAGCCTGCCGTGGCATCCCCTCACTGTTGAC
0.1910509206397683 CCATACGACGTCACCTCCTATGTACGTTGCCTAGGTTACG
0.3724061990865155 TGCCTCCACGTCATTTTCCGCCCAGCGTTTCCATAGAAAC
0.08854778691906617 AGACAGCTGGACCACTCACTCTCCACCTGGTTACCATGAC
0.3560135434920812 GTTGCTATGGGAACCGTCTTGAACGTGCCTTACGCACGCC
0.2597116581499943 AGACACTAACCAGCCTGGCCCTCGATGTTACTATAGCAAC
0.7648978122008488 GATGCGCTGGGTCATGTTGCTAGGACAACGCACGATAGAA
0.5481451784244818 TCCGCCAATTGTCTCCATGGGAACGTAATCGGCCAGAGCC
0.3246189281699436 TCCCCACCATCGCGTTACCTAGGAAACCACCTCCGCGACG
0.09239504696949628 CGCTTCCTAACTCGTTCTGGTGTCACATCACCATGGTAAC
0.8043016669447041 GTTGCCATGCCAACTCATCCCCGGGGACTCGATTCCCTCA
0.07113935193172848 CCTTACGACACCCGGCAAATGTAATCGTCGCTATGGCAAC
0.3183033241742124 CTACCCGTTGCCGTGGAAACTGCGCCGCCGGACCGACCGA
0.9479594255453359 GCGCACCCGTAACCTTGGATACCGCTCCGTACTATGCGAT
0.1053986519454716 GCAAGGCCAATCTTCGGTTGCCGTGGAAACGCTAGAACAA
0.5257263639390892 GTTGCCTAGGCAACCCCCTCCCATCTCCGTCCCAGTGCAA
1 TCGTTACGTCCCTTCAACTAACCCCCATTCTACCATTGTG
1 AGCCGAAGGCCGACCCCGCACGTTGCCCCTAACAACGCGA
1 ATGGTGACGCGCAACGACCTGGTATCCACTTTGCCTTGCG
0.02364420350117325 CCAGACGCTAGGTTGCTTAGCAACAAATCTTCCGAGGGTC
0.6227423392009168 ACGTCCGCCGGCCGAGATGTCGCGTCACGGTTGTCATGGA
0.2659540449845173 TCAATCTCCTGTCGCGAGGCCTGTTTCTATAGCAACAGTG
1 AGGTACCCCCGACCCGGTAGTACGGCGTTACCAGGGAGAG
0.1999011233675625 GAAAGAATGTTACCATGACTATTACGTGCCGCTTTCTGCC
0.2151267685144187 ATAGAAATAGCACAAGTGCCGCTGCCGTAACTATGACAAC
1 GGCAAGCAACCCCTCCCGATAACCTGGTTGGCATAGTAAC
0.4107250804690905 CACTAACGTCCACAACCCCTAGCGTTCCGGTTACCATAGC
0.9095031920604402 CAGCCGCAAAAGATCTTCTCCCCTCGTTGCCACTGACAAC
0.6066263919561867 GCGGCATCTCCCCTCCAGCTAAGCGCGTAACTATGGTTAC
0.3326676812452213 CACCCCAACATGCAGACTACGAATGTTTCCATGGCCACCT
1 ATTTTGAGAGACTAATCAGGCTTAGCGACAGAGCACCAAT
0.01070887295294264 TCCTCGTAAGCATGGCAACGAAGTGGCTTACCCTCCCGGT
0.9057805676681986 CATGGTTACGACCGTCTTGGATACGCGCATTCCGACTGGG
0.1646842155100949 GTTGTGCCGTAACCGTGGTAACGAGCAGATTCCACGTATC
1 GCTAGAAAGTCGAATTATACAAAGGGCCCGGTGCCATTAC
1 CCCCTCTCCTGCCTCGCGATGATGACAACTACGTTGTCAT
1 TGACTGCATCTCCACCATCCGTCATAGACCTGCCTGAGGT
1 GTACCCAGCGCCACTTCCTCCAAGGGCACAAGGTAACCAT
1 GTCGCCATGGGGACGGCTCGCGATCCCAGATTTTTTCTTA
0.1335117039191203 GGCCAGAGCTGTCCACGAGCAATCAGGTAGTCATGACAAC
0.3433887967339381 AATTCCAGCGCCAGCGCGCGCACTACGTTACCATGGGGAT
0.05272335077074775 CGTAGTCATGACAACTGCCATTCACTAACACTAGTGTGAG
0.02766956843897156 GTTGCTATGACAACTCATACTACCATTGAATTTCAGCTAT
0.07088595546337079 GCCGTTGCTAATGACAACGCCCCAAACAACAAACTGAACA
0.3895298860511867 GTTTCCATGGTGACATGCGATAAACAACGCCATAATAGGC
0.1710790922784317 GCCTGGCTATGGGAGTACGCCCCGGTTCTATGACAACGGC
1 ACGTGGGAGAATGGTTGCCCCGGGTTACCTCCTGCGAGTT
1 AGTCTCCCATGACACCAAACCCACAAAGCTTACAGGGAAG
0.8313666369359375 CCCGACGACCGATCGAAGGCGCGGGTTTACCATGGCAAGG
0.6591590432790337 CATGGCCCTCGCAACAAGACACCACTACCGTCACCATGAC
0.2591316899903006 CTGCCGGTAACCTTGGTAACCCGTCTCACTGTAAGAACCC
0.7030703158539707 CAGGCGGGTCCCTAGCAACCAGACTACCACACAATAACTC
0.06763310626091751 CCTTTACGTGCCGCCAGGCTGCATACCCCGTTGCTATGAC
1 TTAATCTCAGTTCTACAGTTGTAATAGCAACGTAATCTGT
0.9243739166061155 CAGCTTCGGCTCAGTGGCAGGGATACGGGGTTGGCATGAC
0.05821593365334543 TATCACGGCCTGCGATTACCCAGTGCAGTGTTACCATGGC
0.5876047857519415 CCCGGTTTCCATAACAACCAAATGAACATCGTCTCCCCGT
1 CACACGGCGAGACACATCCCCCGGCCGAAGCCGTTACCAT
0.6417757773635804 ACCCGCATGTTGCCAAGCAACCAGGTCGTGTACTAGCTAC
1 CCTTCCGCCTAGTGGGCGGTTACCATACCGACCAAATCGT
1 CCATCCTACCCACGCAACAGCCCCAGAGAGGCTATCCCAC
1 CCCCCCCGCGTGTTGCCCCTGGCGACATCATCGGGGGGGG
0.4628561361830491 CGCTACCTAGCTGCCGGTTGCCCTAACAACGAGCCTACAC
0.1420640105448833 ACCCTGGACAATCAAAATGGTAGCCATGACTACCAGTTTT
0.06276260772000609 GTTCGGCTCTCGCCCGGTCTGCAGTGGTTGCTATGACGAC
1 ACAGTTGCCACACACTCACTCCCACATCACACCGTTGTTA
1 CCGTCATGCCTGATGAGCCGTTACCATATGAACTGTCGTA
1 GTGACGATTAAATGTTATGTCGTCAGGAGAACGCGCCCAA
0.2103532909900491 CTTGCCACACTACAGCTGTGCCTCCGGTTACTATGGAAAC
0.5786827877766552 TCCTCCTAGTTACTGATGGTCGCCTAGCAACTATACGAGG
0.6202998386967704 CCCTGGTACAACGTCCGGAACGTGAACCCGTTGCCAGGAC
0.2028405180737083 TACCCCGTTGCCACAGCGACGTCGACACCTGGTTGGTACA
1 AGCACGAAAAGCTATGTTTATCTAAGTTATGACATACCTT
0.574235566720481 GTTGCCAATAGCAACCCCCACCATTCAAACTCATGCGATG
1 AGCAGCCACCGTCGTTGCTATTACAAGCCCGGACCAGGCT
0.5192071789830127 CTCATCACCGGTCTCCATGGCAAGGGAGCAATGCGTGTCT
0.1772912688324323 GCCGAGATAGCCTTCAGCAATTCACCAGCGTTTCCATGGC
0.4322168524426898 GCCTCACACACTCCGTTGCCTGGCAACGCCACAAATTGAC
0.8669249918064391 CCCCCGGCGTACTACCATGGAAACCAAGCGTCCCAACGCC
0.08299416921033761 ACAAACGAACCGCACGAACCCTCGTTTCCCTGGCAACCAT
0.5947803019180754 TCAAGCTTAACATACTCCACAAACCGGCCGTTACTATGGC
0.9618155625056206 ACACACACAGCGTTGGCATGCCAACGAACACATGACATCA
0.1143003682787179 AAACGTCGCAGCCCAGCCATCGTCATGCCGTTACCATAGG
1 ATGACAACCGTCGTGCTGTGGCACATTGACGGTAGCCCTA
1 CCCGGCACCCGTCCCCCATCGTCACGTAACCCGGGCAACG
1 CCTATCCTAATCTCAACGAGCAAACCACACGGCCAATGCC
0.4939706899582378 ATAATTCACTACAGATACGAAAGGTTACTATAGGAACGGA
1 CCGTTCCCAAGGTAACATACGTACGGGTCACGTTCTGGTA
0.3981686138903318 AAGAATCTGCAGCTTGCAAAGGGCCAATTGTCATGGCAAC
1 TTTACTCCACTCTGAACTCCACAACACCGACAACGCACAC
0.08469475672145003 GGTAACCACGGCAACGCCATGACACTTTATCCCGCGTGGA
0.1674723835087269 GGGCATCACCATGGAAACCCAGTTAGTGGAGGAGCGTACA
1 GCGCACCATGCCAACCGACTACGCTGGGCCATTTCTTGGC
1 CCCCGCGCCCCCCCCCAGAGATCCCCCATTATACCCCTAC
0.4482331701466182 AGCATCCTCCCGTTGCCAGGCCAACCTCGAAGTTAGCCGG
0.5338057852761759 GTTGCCATAACAACGCAGCACCGGATTCAAGAGGCGCACA
1 GACCACCTCGCCAGGTGTCGCATAAAGGTTCTCTACGCGA
1 ATCACCATATCAACGTACCACAATTCTGAGTACCTTCGTC
0.3840746663074797 CCCACTTCGCGACAAAAACTCATGACGTTGTCATAGAAAC
0.05337166206726049 TTATGATACGTTACTATGACTACGGGCATACGCCATGGAC
1 CTAGCGACCTATACTATGCCATTGTCCCACCGTTACCATA
0.7332880870314493 CGGTCACCAGAGCAACGGTGACGTCTAGCAGCCGTCCCAT
0.2962154128714247 CGGCAGCTTCCCCGTTACTATAGAAACGCAGGAAATCTTG
0.7965637943087316 AAAGCTTGGAAGCAAGCCAGACGCTGTTACCGTGGTAACG
0.3362349610020354 CGCGCCCTGGACACGATAATCAGTTGTCGTGGCAACGTCA
0.9762991524479132 CGCCAAAAATACCTTCCGTAACCACGACAACCAACCCGCG
1 GCGAAAATGATCCACGGTTGACGAATTACAGGCCGTAAGC
0.4198588562331744 CGTTACCATAGCGACAATACCCATCGATCGCGATTCCCCT
0.2352643181493322 CACCACACCCTCCACACTTCGTGGCCATGCCAACGCGCCG
1 CCCCAGATATGTCCAATCACGATTAATTGACAGATGCGGA
0.1848719767067863 GTTCGTGTAACTATGAGAATGCACGTTACTATTGCAACCG
0.3202221565291289 GTTACCATGCCAACCAGCTGACACTGCACACCATACTACC
0.02050696522189327 TACGGCTTAATTCCGTTACCATTAGCAACGGCCTGCTTCC
0.9007507713160264 GTCTACCCTTTGACATTACCTCCACGGTGCTAGGCAACGC
0.3192499599564209 TCCCAGAAAACATGCGTAATGCATCGCTGGTTACCATGAC
0.4288519896292026 AGTGATGGCACTCCCCCCTTGGCAACGATAACGCGCACAC
1 TTGTCCAGCGTCAATACGAACGCACGAATGACCGTGTTAC
0.635414255455408 CTGCCCTTCCCTGACTACCACGTCGCCATTGGCGACGCCG
0.4709962454610925 GTTGCCATAGTGACACAAACAGATAGCGACCTGATTGAAC
1 TTTTGTACCCGACCAATGCCAGCCCCCAGCAACGCTCACT
1 CCTGAGCCCTAAGCCGTAACCAACGGCAACCTGCCCCGGC
0.5219656321610801 TATGTCCATCCAGAGCGATATCTCCTGCAGTTACCATGAC
0.2756065245278498 GTTGCCATAACAACCGGCATGTTCCCCTCCGCTCTTGCTC
0.8069877969688427 GTTGCCATTGACAACCACCTCCCCCGGTAGGGCTCAACTC
1 CATACCCCTAACACCGGCCGTTGGCTAGGGAACGCCTAGA
1 CCGTCCGCGTAACCAAGGGCGACCAACCACAAGGGCACCA
0.1533654354351991 GTTGCCTAGGCAACAGCAACTTTACCCCTCACTCCAATTT
0.8386920168990958 TTTGGTTGCCTTGGAAACAAGACGCGTACGCCACCCGAAA
1 TCATAGAGGGAAGGTCACGCTCAGCCGTTACCAGGAAACC
0.5768916503883049 GTTGCCATTGGCAACCCTACCCTTGCGTCACGCGTAGTGC
1 CCCGCGCGACACACAACCTGGATATGTTGCTAAGTAACGT
0.52183012311302 ATTAAATTGATCGAGCTGGCGCCCGGCTGGTTGTCATGAC
0.1138939904618499 CCACTCGTAAGAATTCACAATGTTTGTCGGTTGCCATAGC
0.4829796352521434 GTAACCAAGGGCAACCGTATCATTCGCCAAAGGCGTACCC
1 TCCATAGTTACGCCCTTAAAGCTATTCACGCACCCATTAG
0.1107096352929381 TGCGAGACTAGCATCCTCGAGATATATACGTTGTCATGGC
0.6297432969478313 AACGTTCAGTCCCCCGGCTGGACCGTTTCCAAGGAAACCC
1 TTGTTGCTTGTGGTTACGCTTAGCGACCCATGTTGCTAAG
1 GGCCCCCACCGCGATCGTTGCCCCCAGCAATATCCTCCCC
0.3914887824674164 AGACAGGTCACACACATACGGTCCACCCCGTCGCCATGGC
0.03597850552879191 CTGCCTCACTCCTTGCGTGGTCGTCATGGGAACCACATGG
1 AAAGGGAAATGCCAGAATCGTACCAATGTTCCCTGCACCT
0.0006123964226423531 GTAACCATAGCGACGCTTTGCCATCGAAAGGAGTGACAGA
0.5183852737687694 CCTCCAGCCAGGTCCGCGACTCAGCGGGTGCTATGACAAC
0.6686320341575018 TTTGACGTTGCCATAGGGACACTCGCCCCAGTTCGATGGA
0.4190651334039627 GGTAACCATAGTAACAAGCTCCCCACTACGCGACCGAAAT
0.01956696283161355 CGCTAGGACCCTTCATGGCTGTACGCGGGGTTGCCATGAC
0.239706986261549 GTTGCCTTGGCAACTGCTTAACCTATCCCCCCGAAAAGCA
1 ACGCCCCGACCACCGTCCGTAAGCGAAGGTCGGTTGCCAT
1 CGCTTAAAATACATGGCACAACCCTCCGTATCACTATGGC
0.8280082058779573 CCCGACGTATGTGACCTACGTCTCCGTATCCACGGCAACC
1 GACGAACCGCCAAACGTCCCCCAGGCCCGGGAACAAACAC
0.2359966586962006 TGGAGTGCATCGTCACCATGGATACTAATCAAAAGGTTGG
1 CTCCCGCACAGTCTATCAGCCTAACGCGGGTCCGCCTCAT
1 GTTGCCAGGCAACGGACTGAGAGCCACCGAGCCACGACGC
1 GTTGTCATATGAACCATGATCGTAGCAACCATCATACAAT
0.298089652555606 GTAACCACGGCAACCAACTGCCCGCCCGTCACCACGCAAC
1 TTAGCAGCCATCCGCCCCACGACCTAGCAACGTTTGCCAT
0.2011271814274773 CCTTCGGGTCGTGTATGTTGGTTACCTAGGTAACACCACC
0.2371591623263526 AACCCTTCGTTCCCCCGTCCGTAACAACCGTCTCCATGAC
1 GTTGCCTTGCCAACCAGCACTTCCCCGGGCTGGATCCGGA
0.2206213722734543 GTTGCCAATAGCAACAATGGTGCCCATCCTCAAAAACAAC
1 ACTTCTCTACTGGCGCGGTGTCATGACCACTGAAACAACG
0.3584212671219458 GTTACCATGGGAACTACCGCCCTATGTGGTCCTCCGATTG
0.4558111580509629 CTTCTCGGTAACAATGACAACGTAAAGGGTAGGCTATAGT
0.6413704273668077 ATTGACGAGTGTCGTACCTGGACCCGATAGTTGCCATGAC
0.879213766670657 ACTAGATCTCCATGGATACGCCCCCCGCGCATATCCTAGT
1 AGCCACAACCACATCCAGCTTGTTTCTAGGACAACCGATA
0.1966437838698724 GGTAGCGCAACACCGTTTCCATAGCACCTAACACACCCTG
0.3897524268077039 AAGCTGCACGGCAGGCTCACCTCACCGTTTCCAAGGCAAC
0.2612533881691397 GTAACCAAGGCAACGCACCAAGCCGCCTCACAAGCAATGC
0.5973089553635594 CCTCACCGTGCGTGAGCGTTGGCATGGACACCCCTTACCC
1 ATAGCAACAATCACCCTAGGAAACCCACACTCCCCTACTC
1 TACGCTTAAGCAACGCCCCAACTGCCTGAACCCTCCGCTT
0.7640897730634085 CTCGACATACCTGTCCACGAATAGCACGTGTTACCATGAC
0.2679167151064447 TAAGTAACTATAGCAACCCTAGCATCATTCATCACTGCAC
1 TGTATGCAGTTGCGGGTCGTATTAGAGCAGGTATCCTAGC
0.3522049201871478 ACCGCCCTCCAGCGGGGATTAGCGCGTCTCCATAGCAACC
0.7962955253749405 TCAATAGCAATGATCTCTTTGAGGAGACACGTTGCTAGGT
1 ACGTCCTCCCTGCCTACCCTCCTAGACACCAGCGCCGAGT
0.3287350135341515 CACACACCGCACCAGCTCTCTTTCTCGTATCCATAGCAAC
0.5314794243320656 GTTGCCATAACAACCAATACAGCGAGGCGAGCACTTACCT
0.604671700917561 GACACCCCGCGGGCCATGTTTCAAACACCATAGCAACCTT
0.7335547362704687 GTCACCATGACTACACAGATGCACACTTACAGTTCGGTCC
0.4259692312791279 TGTGTGGTTGCCTATGGTTACGTCCGCGGCCGTCCGGGTA
0.114225032917358 CATCCAGAATACGGGCGCCACCCCTAGCAACGTAACGATT
1 GGCGTCACCTTGACGTCCAGTCGCCTACATTGGTAACTAT
1 CATGTCCACCATCGTGCCGTAAGCATGGTTACTTGCCCAC
0.05281140261159775 ACGGGGCACAAGCATTCTTATCACCATAGCAACTACGCAC
0.2610416519593254 CCACACGTAACCTAGCAACGTACCCAACAAACGAATAGAC
0.4277872330256587 CGCCTCACACCGTTGCCCCTAGTAACGGGCATTGTCGCTG
0.1479527616119362 GTCACTGGCGGATATACGCGTCGTTTTGCGTTACCATGAC
0.5216002499279494 GTTGCCAATGACAACGAATATGTAACGTAGCATGCAGCAA
0.8449111141397604 GTCCCTAGGCTGTGCACTTAGTCTGTCTGGTTTCCATGGT
0.7184689007149985 CGCTTGAGCGCGGCGTCATAGCAACCCTCTGTCCTGCCAT
1 CTAACGGCTCGTTACCACGGCGCTAGTTCCTCCGTCGTCC
0.2833316284085835 GTTGCCATAGCTACCATACATAGTTGTTCACTGCTAACCA
0.2824455842299062 TTCACGATAAAGCGCGTGCTTGCCTAGCAACTGTTTCCAT
1 CTATTATCATCCATGCACCTTAAACACCTATTGTTGCCAT
1 CAACACTCAAAAACAATGACCCCCCTAGCGCCATAGCAAC
0.2071569299007222 GTCACCATGACGACGCAAGCAACGAACGCAATAACCTAAT
0.3473833027052434 CGCGGCACTTAGCCGCCTTAGCCCACGTTACTATGGCAAG
1 GCAGCTACATAGCTACATCACTCACGGATACACAGCAATT
1 GTTGCTATGACTACCCGACCTAACTGGCCGCCAGTACCCC
0.5138256897192405 GACATTTCGTACGCTTCCGTTGCTATAACAACCCGCCTTT
0.6428091068844566 CCGACCGATCGCGCCGCATGAACAACATCGTTGCCCTGGC
0.754573045652055 CCTCCGCCAAACGCCCGGTGGCCATGGGAACACCCGTACC
0.03694842359459347 CGACTGCGGTGGCACTATTCCGTGCCGTCGTAACCATGGC
1 GCACAGAACCACTCCTCACCCGTAACCCTCGTGTTGCCAT
0.8214307232853472 GTTGCCACGGTAACGCCCCCTACAACACGCCTTCTCCCAA
0.08432129831245916 CCTGTACCACCACACGCTCATAACCATCACCATGGTTACC
1 CCCTATCTTTACTGCAACGCTCTAAAATCACTATGACAAC
0.6582609663733122 ATCGTTCCCTTGACAACCACTCGCCTCTTACCCACGCGGC
0.2173557981134656 GTGACAAGGGCTCTGCTATACAGGCCGCGGTAACCATGGC
0.1468482480090419 ATCACCATAGTAACTCACATTGTCACAGCAACAACGCCGT
0.543189348751371 TGTTACCAAGGAAACGCGCGTGCCAGCTTAAACGTGAGAT
0.7498333424693071 CATACCCGTAAGCATGGTTACCCCGACACGCCTACACAAA
0.4024205132586849 GTGCAAGGACTTTCCAAAGTGTTACGCCGGTTACCATGAC
0.7098429480281409 GTTGCTATGACGACGCCTCTATACTCTATCACCCTTGCAC
1 AACGGCAACCACGATATGCCCGACGCAAGACCCACCGGAC
1 CTAGCCCTCCGCACCCCTCCCCCCCTCAAGACCCACCACA
0.5214912869222414 ATCACCATGGCGACGACACATCCCCAAGGCCGCGCCCCAA
0.6316072261217394 AGCTCATCTATTAGTCCGGTAACCACGGTAACCGTCCTGC
0.1572322308894138 CCAAAACAAGATCCGTGCTAAAGCATGGCGTTACCATGAC
1 CCACCTAACACTGGGTACTGCAGCACTAGGCAACCGTCGC
0.862734793641006 GCACCCGACCTTAGTTGACCCCCGTTGCCTGGACAACCGC
0.1307857166518546 GCCCCGATATTCGCACTCCAAGCCAGTAACCATGACTACG
0.4424029586344881 TTGATACGGGTAGCGCATCAGGCACTGTTGCCATGAGGAC
0.1694929917009136 CCAACTACCGTAACCCCTGGCAACCAATGTCGCCCGATGC
1 CGCCGCTAGGCAACCACCAGTGCATTCATTGGCGTACGCA
0.1442239293262672 CCACTAGCTACTATAGCAACATTCGTTACTAATCAGTAAC
0.06237137581228661 GTAACCATGGTGACGTCCGAACCCATTTAAGGCACCACGT
0.1360531535098657 CTAGAGATGATGCGTGCGCTGTCACCGTTACCTAGGCAAC
1 CCCCCAGCCACTGTCACGGTACCCCGTATCCCGTGGCAAC
1 GGTGCAGTCAACGTTCCCTGACACAGTTCAGCCTAGGATA
0.9988468540721749 TACGTTGCCTAGACAACGCATCGAGAACCCTATCACTTGT
0.7524413551838156 CCTAGCAACCGTAACTAAGGTACAAACGCGAGGAAGCCAG
0.06691823052747006 GATTCGCCCAACGTCCGTTGCTGTGGCAACACGGACGTCG
0.3919536220154642 ACTCTGCCCCTCCTCGGTTGCCCCTGGCAACTCACCTTTC
0.8091252307958671 CATCCTAAGAGATGTAAAAGACGCTGCTTAGCAACCGTGG
1 CCTCATCCTCACAGCAGGCAGCCCGCGCCGTTACCAGGAC
1 TTACCGACCGGCGTCACCATTGGCAACACCTTTTAGCAGG
0.225350784931366 AAAAAAGCCGACAACGCAGCTCCCGCCCTGTTACCATGAC
1 CCCTCTGATACACCCGTTACCCGGCAACCCCGCACCACGT
1 TACCTTCACCTCCCGTTCACGATCCGCTCCCACGAGCGTT
0.3863110268837129 GTTGCTAGGCAACCAAAGCACGACAGGAGTCTCCTGGGCA
1 ATGGTTACAGTGTTAGCAACGATGTGCCTACGCTTCGACA
0.449634132738175 AGCGGAATGCCAAGCGTTTCCATAGCGACAAGAATCCCCT
0.03929852847818321 CCTTTTACTCATGGAGCATTGCGCGCCTCGTTACCATGAC
1 CCGTTACTATAACGACAGCCTCCTAATTAGCTGAATTACG
0.4057024393718476 ATCGGTACAATACTGATTATGCACGCGTTGCCACAGCAAC
0.421661136307696 GCCGCACCCACAGAGACCGTCGCCTAGCAACTCGCGATAC
1 GACACCATCGCGCCCAGCACCAATCGCCCGTTACCTTGAC
1 TGTGGCGACAAGGGATTGCAGTGGTTACCAGAGGAACGCC
0.2723552922451907 TCAGCGCGCGCGCGACACTCCTCGCAGTTTCCATGGTGAC
1 TTGACCGCCATTATCTGTTGCCCTCGCAACGCGTCCAGTC
1 AGGCACTGGGCACACCACAGCACACTAATCCCGTTGCCAT
0.02685988826904359 CTGCCATATACGTCCGTTACCTTGACAACTAACTTAACCG
1 AATGGCCGAAGGTCTCCTTGGAAACGGGCGGTAAAAAGGA
0.6150002478388603 CGTTGCCACTGGCAACGCTTACCTCCATCCTCGCCATTTC
1 GTTGCCATTGACTACCAGGATCCAAATGCCTCAACCATTG
1 AAAATCAGAAGTAGGCACCTTATGGTTCTCCCAAAGCCTA
0.8564178492272475 CCCATTAGCGGACCCTCTAGTGCTTCTCGGTAACCATAGC
1 TTGACTACCGTTGTTAACCAACCGTCCTCCATTGTTGCTC
0.4634098899185137 GACTACTCGATAATTGTAATTACCATGGCAAACGCTATTC
0.2222722294012792 AGCGCCATTGCTTGCTTGTCTCCGTTCAGGTTGCCATGAC
0.2931187238907278 GCCCCTTGGGCACGTCTCCCCCTAGCAACGATCACCACCA
0.1097644927592007 ATAGCTTAACCCCTCTCGTGCCACGATCACCATGACAACG
0.3989554553958937 GATTGAGGCTGTGTTGTCATAGTGACCAGCAAACCTGCTC
1 ATGACAACCTACTCCCCTGGCGAACCCGTTACGACGTCTT
0.7085142283979499 GACTAGCGGTTATCGTCTCCTTAGCAACCAGCATGTCGTA
0.5745488672688646 TGATAGCCCCCTTCCCCAGCTGTTACCAAGGCACCACACT
0.150897351051072 TAGCCATGTCCACACTAGGGCACGGGTCGCTATGGTTACC
0.9726133602602076 TCACGAGACATCTAGTGTAACTACGTGACGTAACTATGGA
1 ACCGTCACTGCCGAGGCGAACACCGCAACGGTAACCACGC
0.856344189322547 TTAACCGCTCCCATGGGTCCGTAGCAACCGCGTATCCCAT
0.2262607954254115 CCAGCCCCCCACGCACCGCCGTTACCCAGGGTTACCAGAC
0.9755284214616696 AGGCCGCGTGACTCTTGCGTAACTAATGGCAACCACCCGG
1 AGACACGTTCTCCGGTTTCCAGGCCAACGATCTCCTACGA
0.3258332665533142 GGCACGACACTACTCGCACCCGCGCATCGTCATGACAACG
0.6096473878813504 CATCCAACATTGTGACATGGTTGCCAATGACTACGTGCCT
1 CGGGTTTACATACCCCTCGTAACCCTGGGTTACCATCCAA
0.356893586485084 CACCGTGCCTTATTGTTGCTACGGCAACGCCCTGATGTCC
1 ACGCCAAATCAGCAACCACGTTACCACTAGCGACCGTCGC
0.3249946290347354 AACACCCCTAAATAACACCCCCCCCGGTGCTATGACAACC
1 GTACAAGACGAGGCCTAACTTGGAGAGGAACCAGGACAAC
0.6867320837778369 CCTGCCCCGTCATGTCGCACGGTTGCCCCGGGCAACGATT
0.2173045394531337 CCGCTACGCCATCACCATAGTAACCGTACTCTTGTGACCC
0.9344081087396108 ACCACCCTGAGCCACGTGTCCCAACGTGGGTAACCATGAC
1 AGTAACAGTCCTGAGCTAGCGATACTGACGACGTAACCAT
0.03307277567524074 AACATCACCTCTCGCCTCGAGTTGCCAATAGCAACCTAGT
0.02511992162330324 GTAACCATAGCAACTCTGCCCGCGTACAACGTATAGGGGA
0.02586743618373627 GCCGCACAGCATAGCAACCGTTACTAGACATTACGCGCGG
0.9118185728223254 TAACTGTCGCCCCTCATCCGCTACCATGGGTACGCGGTTT
1 GCACCATGTTGCGATGACCAGCACACTGAGAGGGAAAACC
1 ACCTGGACAGTTATGCACCGTCTTCCATCCAAAGCAATCA
1 CTGAGCTCAACCAATGCCTAGTTACCCCGTAACCCATGAC
0.2938660058679366 ATTGGTACCGCCGTTGCCTTGGTGATAGGAATGCATTCCT
0.1343395117888496 TAGCAACGGTTGCTAAGCCCTAAAGTCTCCTCCTGTGAAG
1 AATGCACACACGCCTGCTACGATACTACCCCACCCCCATC
1 TCAGACCGTCGCCAACCGCCCACCCTCCCTTCAACTACAG
1 TGCAGAGCATAGCAACTCAATGCCGGCCACACCGCGCCGT
1 GTCAGACACCCATGTCCCTCGGTGCCATCACAACCGACCC
1 TACGATCTGCGACCCCAAACTCTGACTGAAACCTGAGGGC
1 AACACCTCATTTGCGTCGTCTGCGCCGTAGCCGTTGCCAT
1 CTAGAAACGTCGTTGATACGACGAAACCACGTACTTCATA
0.3283663459987604 CTGGCACGTTACCAGGACAACGCCTTCTGAGGGGGTCCGA
1 GTGACACCACCCCCAGACACGCGAAACCTAACAACGTAGC
0.4275298275513993 ATTTTACGAAAGGGTACTACCCCTTGTCGCCATGACTACA
0.1356367193063258 GTATGAGATATAGTTCAGGACTGCGGGCGGTTGCCATAGT
0.1646587310954772 GTTACCTTGGTAACAAGGAGTTCGATGACCGGTGCTCACG
0.4469867967767446 GTTGCTATGACGACGCGTCCACTTAACGCAGACGGAGACA
0.3943086689107446 CTCGCACGCCAGCCGACAGGTCCCGGTCTCCATGGAAACC
0.6155245437955504 GTAGCCTGGTAACCGTGCAGCAACGGTCGCTATATGCCAG
1 ACTAATAATGCTAATAGCAAAATCGCGCGACCGTAACCAT
0.3903222219714193 ACGACACTACGATTAACTAAGTTTACCCAGTTACCATGGT
1 GATGCTCGATTGCCAAGTTGTGGTAGTCATGGACACAAGC
1 AGGCTTCGCCCCACACCGTCCCCCCCCCTCCCTACCGACC
0.0149112870295236 GTTGCCATAGTAACTCCTGCACTGCAATGAAGGGTCAAGG
1 ACGCCCGGCCACCGTAACAACACAACATTTGCGCACCTGC
1 AGTTCCGGCTCGAGTCCTACGCGACGGTTGCCACCCATGG
1 CACGCCCTCTCACGCCCTTTGGCCCTCCAAACTACCGCGT
1 CAGGCCCAGCGCTAACCCACGGACCTAGAGCATGCCCCAC
0.216046258876726 ACGCACTCTTTCTTATTAGCTTCTGGTACGTTACCATGGC
1 TCGGTACAGGATTGAAGCTCAACGCCATGACTGGGGCAAG
0.634843876136356 TACTGCCGCGCGACTCAGCGGGTTGCTAGGCGACCGCGTT
0.05391705148882344 GTTGCCGTGGCAACACCGTAAGTCCTCAATATACCGATCC
0.2622275464845731 GAACGTGGGCGCATAGTAACCTAGCAACCCGCAACGCGCG
1 CAGGTTGAAATAGCGACGCCCACCTTTACGCACGCCTTTC
0.6501103929279795 ACGCCCCACACCTACGCCGTTGCCTCGGCAACCAAATACC
0.192369565351849 CCATCCACAATTGCGGGCACTTCCCTCGCGTTTCCATGGC
0.7796578886435993 AACCCATACCATGGTCCGGTATCACGACGGTTACCAGGGC
0.3358511624813388 ATCGCTCCACGGTGTCGCACTTGCTGTTGCCTTGACAACA
1 TCTATGGGATTCCGCCCATATAGTTCGGTATCCTAGCAAC
1 CCACTCCAGCCTCCCACCGAACAACGAACATACCATTCAA
0.4432535263899998 CGTTGCCATAACAACAAGAGATTTAATTTGGGCGCCAACT
1 GGCAGCTTCGCATGTGAGCCCATGGTGCTCTAGCAACGAC
0.5942136957426483 CCTAGTGATATATCGCTATGGTTACCAACTAGTAAGCTAA
0.148914242093269 CGTTGCCAATAGCAACCACAGCTGACTCGATGACCGCCAA
0.2084477853751325 GTTACCATGACTACCTACAACCTCCGCCTCGAGACACTAG
0.4352783491234562 AGAGTTCGGTGCCATGGACACGGCGTTAGGGAGCCTGCAC
0.02706877255009296 GTTTCCATGGAAACAGTAGTTCTACCCTAAGCACACACTA
0.1396291009367692 TCAAATTTGCTATAGCAACCACTAATAACAGCAATATGGA
1 TCGTATCCCCACGCAACGGTTGGCAACACATCTTTCGCGT
0.4183057914400233 CTCGAAGGGGGATTATAAGTCGGTACCATGGCAAAGGTCT
0.01019791859224149 ACCGAACCGCCCCCTGCACCTAGCAACGCCCTAACAACGC
1 GCACCCGCTGAGCAACCTTCGTCGCTCAGATGCTAATATG
0.4302157997739952 GAACCCGGCCTAACTGGACGCCATAGCAACCCATTGCCGA
1 ACGTAACTAGGGGCAACCACCCCCAACCCCACAGCTGGCT
0.2915728948720809 GATCCCTATAGCCGGGCCTACCGTTTCCCTGGCAACAGTT
0.2830872542501828 CGGCTCCATAGCAACGTCACATGACAGACGGGTTCACGGA
1 CCCCATCGAAACAATATCGCTGGGCAGGACACCACGTTCC
0.5578819043602884 AACTGTCTCACCGCCCTGCCACCCTCACTGTTGTCATGAC
0.6322575962906271 ACACTCGTTACTATAGCGACCAAGCCTAGCACAACTTGGT
0.06815250456867002 TTCCCCCACCCACCACTCCAACCGTTGGCATAGTAACCGC
1 ACAGACACACACGCAAACACCAACTCGTTTCTACAGCTCA
1 GTCACCGTGTCGGCCGCAGGCAATCAGGAAACATGACAAC
1 TACCCACCCCTTATGCTACGAGCGTCGCCAGAGCAACTGA
0.1091494129623379 CGTTACCATAACAACCACCCTTAGACCACCCTCGGCACTA
1 GACTGCCAGCTATCCACACTCTCTCTGCCCTGAATCGCAC
0.6425944222748675 GTAACCAAGGGCAACGCCGTATACGGCTTCCACAGCCGCC
1 CACGACACCCTCCCCACGCGGCTAAAAACCTAAGCGGACC
0.2420031380646444 CCGTTTCTATGGCAATCACCATCGTCCAACCACACGCCGC
0.8590318165159584 GTTGCCTAGGTTACCACAACGCCGGACTGTCCCACACGGG
1 ACAAAGCGACCCGCGGTAACCCAGGGAAACCAAAACCGTA
0.01855770634464491 CGCGCTCAGACACCCTCGCCCGCACGATTACCATGGTAAC
0.1612360017652453 GTTGCTATGACAACCCCAAAGACATGTTCTCACACCCCCA
1 TGCGCGCTGACAGTACATGTCGCCTTGGCACCCGACTGAA
1 CCTCCCCGTAGACCAGCAATAAGTCTGTTCTACCCATACA
0.2186177840724643 AGAGTACCATGTAAAATAATGGTAACCCGTGGCAACCACA
0.6014690005253948 CGCTGACACTCACAGTCGACCTGCGTTGCCACAGCAACCG
0.2528408311097758 AGGGGAGCCGCCTTACCATGCAGCCTGTTGGCATGGCAAC
1 AAATACGCAAGCACAACCACCCCACCTAGTCGCGGCCGAT
0.937693184124188 GAAAGTAACCAGGACAACGGCACCTTTGGCACGATCTCCT
0.08513578560285501 GTTACCGTGGTAACGGGGCCTCACTTGCTGATGGGCCAGC
1 GGCACACACGTCTAACCCAAGGGACGTCACTATGGCACCG
1 CCTCTCCACAAACGGTCACCCTGGTAACCTCACAACGCGA
0.02253972554478664 AATCTGTCCATCCCCTGCCCACCCCTTCCGTTACCATGAC
0.07247306889031428 TAGCTAAACCGTCCCTAGCCCTGCTGTTACCATAACAACG
0.9509243978680498 AGTCTGCTCGTTCAGCCCCACAGTCTAACGTCGCCATGGC
0.4908922023598898 TGCCTTCGCGCACGCCCCACGTAGTTGTCAAGGTAACAAG
1 CTAGGCGCCAATTCACGCCTTGCGTGCTCAGCGTTGCCAT
0.713907465521444 CCGCCTGTTACCAAGGCAAGCTCCTTCCAAGAAGTGAAAC
0.2641628622628849 GTCACGTTTGGTTCCGCCGTTCGGACCCCGTAACCATGAC
0.372556740229306 TGATGTGAATCCTCCTACACCGACCTGATGTTGCCATGGA
1 ATAGTCCCCTACCCACCCACGCCCCAGGAACTTGCGCCCT
0.05504839147283641 ACGACCTTTGAGTCGTTGGCATGACAACCCGACCGTGCCA
1 TCCGGCACCGCTCCGGCGACGTAGTCCTGGTCGTGATGGT
1 GACCCGCCCCGGATAAACCTCCCTTGCCTCCCGTCGCCAT
0.9834712985912089 GTTACCATAACAACAAGTTAGACAGGCACCACTGGTTTGG
0.523576857442879 GTTACCTTGGTAACCGGATCTGATAATGTTTGTTTACCTG
0.3034536091537813 CCACGTACCCGTCCGCCAACACGCCCGTATCCATGACGAC
1 GTAACCATAACAACCGCGCCAAAATCCAGACTCAGCTTTA
1 AGGTGGACGGCGGCAGCATGATGGGTGGTCAGTGTAACGA
0.1166838019636261 CTCGTTACCTTGACAACCGTACAATTTAACGCACGCTCAT
0.1121044030071762 CCGTTACCTAGGCAACACCGACGGCTTTCACCTTCATGGT
1 CGTGGACGCTGCCCCGATCGTGTCAGACTTATGATAATAG
0.5132184276920992 AGTAGCATGATGAACCGCGTATTGGTTGCCATAACAGCGT
0.4402941896507473 CAACACTAGTGAGCGGCCAGGAGTTTTTCGTTGTCATGGC
1 GGACGAGTCAGTCTGGCTGACACCAACGCGTTCGTTTCCC
0.1240387009591287 TATTCCGTCCCGCTTCTGCCATCCGCCCGGTTGTCATGAC
0.6941790713181339 TACCTGCCACGCCGGACGTAACCGTTGGCAGGGCAACGAA
1 ATGGCAACAACAACCCGTTCCAAACGAACAGGAAGCGAAC
0.3207844799931249 CATCTGAGCCGACGTACAACCTTCTCCCTGTTACCATGAC
1 CATATATGGTCCGATAGCACTCACGGAACCGCGCAGCTTC
0.9663684166150399 GTAACCCTGGGCAACGCACACGAATGCCCGACTATCGGCC
0.2883025316150702 TCGAGAACCTACCGCCACTGCATACGTCGCTATGACAACA
0.9239513658397045 CTCACACGGCCCACCATGGCGACGCGGTCTATGAGCACTC
0.3743594925594466 GATCGCGGTCGCTAGGGCAACCGTTACTCTCTCCCCCCTC
0.5699164823376421 AGGACGTTGAACCCTAACTGTGGGCGTTGCCCATGACAAC
0.8549490403202558 CAAATGACCTCGTGCAGAACTCAGCAGTTGCCACGACAAC
0.172159191401424 CCCCTTGGCCGTTACCGTGGTTACCTGAAAAACCTTCAGC
1 TAGCCGTCATCGCGCAACCGTGTTACCAAACCGTTACCAT
0.1300511158414377 TGTCTTACCGATCCAAGCCCTCTGAACACGTTGCCATAGC
0.2323346851594336 CACCGCACGATACTCCACACGCGTTGTCATTAGCAACGCC
0.3086268588364753 AACCCTGTAGGTACCCGCCGGTTACCACGGTAACACCAGG
1 GACTAGTTTCGCATCTAACCACAGTTAAAGCACTCACTAG
0.2432091177736729 GAGCTATCGCCAAGGCAACGCGCAGTACCTCGTCGTCAAG
1 ATGGCAACAGAGCTCATTACTATCGTGACCTGTCGATTCC
1 ATGGTTACTTCAACCGAACCCAAGGACCGCCCAGGACACT
1 ACTTGCCCTAGGACGGCGGTCGTGGCTACGGTGCCATAGG
1 GTTGCCTTGACGACACCGATTTAGTGGTCAACACGTGCAG
0.2519479089642181 AAGATACCGTCACCACACCATGGAAACCACCCACAATGAC
1 CACCTCCCTAGCGCCACCAGCCAGTTGCCCTGACGACCAG
1 GCCAACTCTCACCAAATCACGCCCCCGCAGCCGCAACCAG
0.1653309053904612 TCGTCGCTATGGAAACCAAACACGTAAGGCTACACAATGC
0.311573332031679 GATGCCTTTTCCGGGGCTTGGTGCAACACGTTACCATGGA
1 CGATCAAACGGGCTATGAAGAACACACGAAGCGTCGCCAT
0.3137935583609127 ATTGGTGACTGTCGTCATGGAAAAAATCGGGTTACCCCAT
0.4740686931575599 CGTTACCAATAGCAACGTTGTCCCGCGTGTATCTGGACAC
0.08487983092347098 CAACGCTCCTCCTCGACATCACTATGACAACAGTTGCCCA
1 ACTTTGGTAACCGATGCGCGTTGATATTCCCTATACGTAC
0.6034641333075856 CCACGTTGCCGTGGGAACACCCGATACAACCAAGCTACGA
1 CGTTACAAGCAGCGCGTCGTGCCCGGGGCACCCACGAGCC
0.01116207744969741 GTTGCTATAGTAACGAATCGACGGTCGACCTTACAACACC
1 GCGTAGAGAGCAACCCTATTCCCTCACTAACGGAACGCAG
0.0136257225880582 CACGGCAGTTTACCGCTCCGCACTCGTACGTTACCATGGC
1 ACGCACCACCGTTGCCCGGGCAACGCCAAGAGCGTACCGG
0.5267286234284757 ACGACGCCGTGCCGGCACCTAGCAACGCGTAACTAACAGC
1 AGACAGCACCATAGAGATACGGACCTCCCCTCTCTCAGAC
1 AGCCTAGAGCCGCTGGACGTGGTCATAGGAACGTTGTGGT
0.07243371653273402 CCCACGCCAGGGTTGCCGTAGCAACGAGGCACAGCCGTCC
1 AGCAACGACCTTTGACCAACGCGCTACCGCCACCCACCCA
0.722257283065136 AGATAGTAACCATGGACATGGCACGTACAGCCCCTACCCC
1 AGCTATAGAATGTACCGTTGCCCCTAACAACGTATCGATA
0.2707546186757835 GTAACCATGCCAACGTGACCTGGTACAGCCTACCCAAGCG
0.5045634178866076 ATCCTGCCTCCTTGCCCTCCGTCTGATCTGTAACCATGGC
1 CCTCCAACTGTTACCAGAGCGATCGTCCAGCCTTAACTCC
1 GACGCCTTAAGCGACGGTTGCCCGGAGCAACGCGCAGAGC
1 CATCCCCCACCAACGGCGCCTTGCTGGACGCTGTTACCAT
0.5681379534339147 GAGCCCCACCGCGTGTTGCCATTACAACCAAGCGCCTCGA
1 TGACAACCCAGGTATCTAAGTGAAGTAACGAACGAGGCCG
1 CATTCCGCCTCGCCTAAGCAATACAGTTACTATGCAACCA
0.8188764541021146 ACGATTCCATGGCAATGGTTGCGCTTCCTAGATCTGGCTG
0.7817656966466903 CGTTGTCTAGGCAACCTGACCCGCGGCGTTGCACCATATC
0.3884625434237203 CTGATGGGTCGTAAAGAGGTGCACTCGTTACCGTGGCAAC
1 ATGGTCCTCGCCGACGCGAGATTCGACCATCGACACCAAT
0.916920179078118 ACGCGCTGTTGCTAGGACACCAACGAGCGGACTGTGGGAC
1 CTACCGTACGCTGGTGCAGCCTTAGTACCTACATAGCAAC
1 TACCGCTAGACAACCGACGGTAAAAATAGAAACCTGCAAT
0.3290108909575953 CCTCGCAGCCCACCCCGCCCCATCCGTAACCATAACAACC
0.3729729498169721 CGAGCCTATCGTGCGTAACCCTGGCAACAGTCCCTCACCG
0.542028031968943 TACAACAGAGGCGCTCACCCGCCGGTAACCATTGGCAACG
0.2747013095600918 GCCCAGCGCGGAACAGGTACTGAAGCATCACCATGGTAAC
0.4001120514666162 ATACGTTTGGTAGCTTCGTTGCTAAGCGACGGGCAATTAC
0.2080218569840442 CTACATGCCAAGCTGACGACAACCTCGTTTCCATGCCGAC
0.5085507986715179 GTTGCCAGGGGCAACCATGTAACAACTGCATCCACGTTAA
0.8165867360706999 AGTTCGATTCATGGACCAGGTTGCCATGAGCAACACCATA
0.6319535285332458 GTATAACCCCGCTGCTATACGCCATCCCCGTATCCATGAC
1 CCCGCATGACCAACCAATGCTTTTACGTAAGCATGGTACC
0.3624043552158553 CTGAAATAGAACTATCCAGACCCACCATCACCATGGTAAC
1 CACATGATGCGCGTGCGAAAAGTACGGGACGTTGATACCG
0.5113154010889878 TGTGTGGCTGTCGTTGTTAGGTGATCACCATAACAACGCA
0.5823636340575444 CTGGCAGTAATCCCTCGACTCCAAGTGACGTTGTCATGAC
0.9874560798581149 TTGGATACTCTAACCTCTCATTAACCCATAGCAACTACTT
0.4036613549593497 CGTTGTTATGACAACCGGCGATCTTTCGTCCCCCTATCCC
1 CCGCACCGTGCCCGCACACCGATACCCGCGTCGTCATGAC
0.2257137131605671 ATGCGTCCCGACCGCTACCATGGCAAGGGCACAGGCCGCC
0.6197859396118115 CCCTGTTCCGTTCCCTAGGCAACCTAACGCACTCTCAAGC
1 GGACTCTACACGTGACGCATTGCCTTATCATCGTCGCCAT
1 CTCCAGTATGCTCCAATCAACACCAACAGACCGTTGTCAT
0.07301607763863475 ATCCCCGACGAAGCTACCTACGACTGGACGTTGCCATAGC
1 ACACAACCTCACTATTGACGTCGAGATACCCGGTCGCTAT
0.7724228449678556 CGTAGACGTAACCACTAGCAACGGCAGGCCTGGCCGATTA
1 AAGACCCGCAACGACCTCCACCGTAACCCAGGCAACCGCC
0.2100988586589894 GTTGCTAGGCAACGAGCTAGATTTCGCTCTCAGTGCATAC
0.7562571891833118 CGCAATATCACATGCACGACCACGTGGCTATAGCAACCGT
0.1476671456967968 TTTCGCTCTCCCCCCTCCGAATAGATACGGTTGTCATGAC
1 GGGCCCTGTTGCCAACACGTTATCGCCCTATTCGCGATCT
0.02396156471041738 CCACTGACTCCTGTGGCCATGCTGGTTGCTAGGCAGCAAC
1 CAACCAGGAGGCTGTTACTCCGTGACCAGAGCAACAGGAT
1 CGCATGGCCCGTCTCACCCGTAGTAACCACCCCCCACAAC
0.1972761235763277 GGTTGCCATGCCAACATGACAGTCAAACTGCAGCGCTAAC
0.1893212054588859 CCGAACAAAGCCCACGAACCCCTCGGTTGGCATGGAAACG
1 TTCCCTGCCATAGATACGACTGCGCTCCTGGGGACGTCAG
0.7307457465733211 TAGCAACCGGTTCCCCAGGCAACGAAACACTCACGGCAGC
0.2615436854176215 CGCGTTGCCAATAGTAACCAGACACGGAATAGACACTGGG
0.4802929430271226 AAACGCTAGGGGGTGTGTTACCGTAGCAACGCCCATACGC
1 AACTACATACAGGTGACCCATGTGCCATACCGCGGTGACA
0.1651507586517986 CAGGCATACCACACTACGGTTACCTAGCAACACCTCACAT
0.3169486136733173 GAACACCTGGCACTACGCTAGCGGCGCACGTTACCATGAC
1 CAAGATACCGCAGCACCAGCTGTGGCGAAGAAGCCGCCCT
0.1363180336877469 CGATGGGCGTTCCCGCCACGTTGTCAAGGTTACCTGCGCA
1 TGCACCCCAATCACGGTTCCTATGGGCAACCCCTCGTAAG
0.763233061446243 TACAGCAACCCCGAATAACAGTGCTCAACGTTACCATAGT
0.7647459959693221 CAACAATGCTGATTAAACACGGGATGACTGTAACCATGAC
0.6637827394838806 CTGACGGCCGCACGAACCGTTGTCACGACAACGAGCCACT
0.5384459343569439 CCGCCCGAAGGAACCCACGAGGTAACCATTGCAACCACCG
0.01160407703113813 GTTGCTATGACAACGCCAGGGCTCCCGAACCTCCGACAAA
1 TTGCAGATAGCACTTCGAATGCAGATACCGTTTCTATGGG
0.1378291168167236 ATAGCAACGGTTACCTGGTAACACGCCCGTTCACATCGCC
1 GCCACCACTGAAGACCCAACGTGAGTTAGTTGCCCATAGC
1 TACTCAGCTACCAAGCAATTCCACCCGCCGGTGCCATGAC
0.1688347577633807 ATCCACCCGCCTGAACCCAAGCTGCTCCGGTTGCCATAGC
1 CACGCGATATGCCTCTGTCTGACGAGATCGTTACGTATCC
1 TCAACGTGATCACCCATACCCATAATCCCCATCTTCGCTG
0.6463597514579854 AATACCGTTGCCTGGGTAACGCTAAGCCGTCACGAGGCGG
0.9517517560974859 ATCGCGTCCCCACCGAGGGCTGGGTGCCATGGCTACCCAC
0.5811482997345659 CTGTTGCCAGGGGCAACGTTAAAGCCAGAATGCGCTAACC
1 TGTCAAATTAACTCTTATTAACCTTCATTTATGTTGCCAT
0.4572869676317708 GTTACCATGCCAACGTGTCCTTCTCCTCCTCACGTGGGCA
0.03962337021526057 GTCTGTAACCATAGGCAACCGCGACCGCTCACCGCATGTG
1 ATGTAACAGCCGTATTCCACAGCCGTCGCGGAACCAGGGC
0.3987521781043941 TGGCTCCTCGGTTGTGACCGTACTACCACGTTTCCATGAC
0.3554916142707629 AAGCAAGTTCCCCCCCGTGTCGTTGCCCATGACAACCCTC
0.6144444395101051 AAGATGAGCACGACGCGCTTGCCGCACAGGTTACCATAGC
0.04842687240825767 CGATACACTACAGACGCTCCTGTCAGTTGCTATAGCAACG
1 CGACTTTCAATCTCAGTTAGTAACCAAGGCCGAGCAACAA
1 GCCAAGGCAACACCTTAACTGTGGACGCTATGACCCGCGT
0.4770884483315679 CCCTTCCACGACCAACCTGAAGGCATGTAGTCATGACAAC
1 AGATCCCAGCACCCAACCGCGATGGGCCACACCGTACACT
0.05030202429370664 TCAATGGCCGTTACCTAGGTTACCTGTCCCCGTTGGTACC
1 ACCACCCCGTGTCACATTTTACACGAGTCCGCGTTACCAT
0.5719713274382352 CAGTGACTGTTACCTAGGAAACGGGGGGTGCGCGTACCAA
1 CCAACACCTGGAAGACCAGTTGCCAATGGGAACGGCCTCA
0.2297730509873896 CTGGTAAAAGCTTAGTTTTGAACACGTAACCATAACAACC
1 CCGCGCGCCCCCACCGTCCTCAACGGATGCCGCTGAACTA
0.3721952889291684 CCCTTCACTGGACGGCACACGGCCTCGTCACCATAGCAAC
0.07347280121794338 ACGCAGTCCGTCAGAATCTTGCACCCGTTGCCTTGACAAC
1 GTTACCATCGCAACGCACACTATTTGTTCACTGCCCTGAG
1 ACCCCGACTGATGCACCCCCTAAAAACGGACCGTCGCCAT
0.130186222979417 CAAAGCTGCGACGACGCCTCACCCCGTAGCTATGGCAACC
0.3054573361308145 CACTCATACTAGTAACCTAGGCAACAGCACTATCAAGCTT
0.1412998047982945 GTTGCTATAGAAACCATAAGCGAGACCGTATAACCAAGGT
0.1275502296614146 ACACATGTACTCCCAATCAAAGCTCGTTACTATAGCAACG
1 CTCGGTGGAGGCAGGTCCGTATTCCCGATTCCCTTCCCTC
1 GCAGCGTTGACCACCCACATGCGCAACGGTTACCCATGAC
1 CATGTTATACACGCCACCCATTCCGAAAGAACCAGCCCAG
1 TCCCCCCGCCGGCCCCTCCCCCTCCCCCTGCCGCCGGCCT
0.7065508148476555 CGTCTCTAGGGCACGTAACCAATGGTGACCAAATGCCAAC
0.007774311163886638 GTTACCAAGGCAACCAGTTCTCCCACCCTACCTCACATGA
1 GAATTCCGACTATTCGATGGCCCCTCGCGTCCCACCCCCA
1 TGGCAGTTGCGTAGCGCCTTCACACCAGATGAGATACGGT
0.06617893899873366 GCGTTGCCAAGGTTACCGCCCGCTACGAATCGCCACTGCT
0.3670928987029346 CTCCCAACGATTATATCTTAACCAGGTTGGCATGGCAAAG
1 GCTGCATCGTCATTGACTACCACCTTACCAACCGCCAGCT
0.1688966258433936 TCCATACTCGTCGTCAATGGCAACGTAATGATGTTAGTGC
0.7415814005016107 ATCTGTTGGTTGCTAGGATACGCCCCACCAACGATTAGCC
0.367290285352933 CCTGCGTCGATAACCGGATAAAAAAGTGCGTTACCATGAC
1 TTTCAAGACTATGACACAACACTGGCTGTTAATCGAAGGG
1 TCGCCTTATAGACCCCTCCTTAGGCTCCACATAACTGGTG
0.6723737336928742 ACGTGATGTAGCCTACACCGCAACCGCTGCCTAGCAACCC
0.1076768597595698 TCCGCGGTCGTCATGACGACCACACAACACCTACAGGGCG
1 TGTATCGCCGTTTCACCGTAGGACTCCGACCGGTTGCTAT
0.6970742809526771 GTCTCCATGACGACCAATACGACAACTACTATCCAGCACA
1 ATGACAACTTCCAACTCTCATGCCGTCCCAGCATAGATAC
1 GGTATAAGGAACGCAGTTCCCATTGAAACCAGGAAAACAA
1 GTTGCTTAGTGACGGTATCTAAGGTTGTTCCGTGAAACAT
1 CTAGCAACGACACTCACAATGCCCTCCATACACAGTGCGC
1 CAAAGGCGGGCTATCGAGTAGTAGAGCGCGACATCGCCGA
1 GCGTTGACATGACTACCCACCGAGCGTCGTGAGCGGAGCG
1 CGACGGAACGACCCCCGCTGCCAAGGGACCGCATGTAACC
1 TACCTTATCCCCCCCTGGCTCCAACGTTGCCCTGGGAAAG
0.8075284767110418 CGCTGCTGTGGCAACGGACCCACATGCGTGTAGTGACTGG
1 ATATGTTGCCACGCTACACACCTAGCCTCCTGCTAGCAAC
1 CTACACCTTCCATCCTTACGGACCACACACGCGTTACCAT
0.1104172454673019 GTTGCCCCTAGCAACCACGAAGATGTCCCCCAGTACACGT
1 GTCCCCCGTATGCCGGGCTAGCCTTAGCAGCGGTTGCTAA
0.7255133116564332 TGCCCAGTAACCACGGCCGATTCATCATGCCAACGCCCCC
1 CCCGGGTGGATACGTTGACTAGACGCCACGCCGAAGCGAC
0.3652842171829166 GTTGCTTAGCAACAGGACGTGGGACAAATTACCACCCTAC
0.3425484764738594 CCAACGTCCTCTTGGCTAACTACACGTTGCCACAGCAACG
1 GTTGTCATGCCAACCGGACACGAAAACTGACTCTCTACAC
0.1042708933340752 AATCCAGCAGCGTGGACTCAACTGACGCTGCCATGGTAAC
0.5131585545738887 CCAGTAACTGGAATATCTCACAACCCCTCACCATGACAAC
1 CGTAGACCCGCGGGGGTACCGGGGAAATACGCGTTGCCAT
0.1307412586798154 GCTGCTATGGCAACACTCGATCGAGTCATATATTAATCGG
0.983214910449647 TGACGCACCGCTCCTCGCTTACTCCGCGTTACCTAGCAAC
1 GCCAGCCCCGCACGTGTGTTGCTAACTCCCCTGTTGCCAT
1 GAACACGTGGCCGCTACTGCCTATAAGGTGCCATGAAAAC
0.2483842922002901 ATCCGTCATATGCCCGTAGTCGCGTTAAACCATGGCAACT
0.07741667483328742 AATATGCGTCACTATGACAACCGCCAGTCAAGAACAGTTA
0.5421739972557978 ATGGCGACCATCGCGGGCCGTCGCCATTGACAACTCAACC
0.8119723149784932 AAGAACACCCGTTACCACGACGCGACGTGCCCTATCGACC
1 ATGGCAACGCGTGGGTGTCAGGGATTGAGCCACTGCTCAA
1 TCGAACAATCTCGCATATTACCTCAAGGATCTGTTGCCAT
0.1896843294674554 CCGCGTCGTCATGGGCAACGCTGCCCTACCCTCTCCCCAG
0.1942030227020773 GTTACCATGGTGATGGAGCGGCCTTCCACCCACGCCACCA
0.2491284362454863 CTGACAGATGGTAGTTGCCCTAAGCAACACGTTGCTAAGT
1 AATATTGTCATAGATAGCTAACTTATCTCCTAACGACCAC
1 ACATCTACTCAACATAGGGGCAACGGGCCTATACTTAACC
0.2342588146488622 GTTGCCTATAGCAACCGATTCACAGCTTCTTACAATCGTC
0.6437879318272137 CGGAGAGGGCGACAGGATAACGACTGGTTGTTATGACAAC
0.9826298996837254 CCTAACCCCCATAGATGGTCGCTATGGCACCGCACTCCCC
0.526174925397916 GCGGTCACCATAGTGACGCGTATCCTGACGACCTCCACTG
0.000525149248412194 CTATACACGGCGTAAATCAACTCCATTCCGTTACCATGAC
0.08993907035662971 CACCGTTGTCAATGGTAACGCTACTCTTTTTGCTCTCGGC
0.8201622615477449 ACGAGCTCAATCACGTTGCCGAGGCAACAGAGACAGAAAC
1 TGAACATATCCCCGCCGTCTCCAAGGGCAACCGGGGGCAC
1 CACCCGCACACGCAACGCAACGTTGCACCCTCCCTCATTC
1 CCCTCTACCCCAGATGCAGCAGCTTCCTCCTCGATCTCTG
1 TCCGCGTTTACGCAGAATGCCGTCGCCAGGGTAACCCCTC
0.2012827838255745 CTCGCCATCCGTGTTGTCATGGGTACACCACAGGCCTCAC
1 ACACTGAGCGGCACACCTTCCCCATATCCTACGTTGCCAT
0.43952169274828 CCGTTCTATCGTCCACACCCGCGGAACCATGGCTACGGCC
0.2748643600983754 CCGAAACCCGCCCTATCTATCACCCTAACGTTGCCATGAG
0.5940581149872592 GTTGCCTAGCAACCCCAGCGAACAGTTCTCCCGACATCCG
1 GGCCCATCCCTGGGGTTGTCGATAGGTACGGTGCTCTGGT
1 GAGGACGACCTAGGTGGACTATCCCATCAAGCTGCCACCC
0.3505660298886688 GTTGCCACGGTAACCCATGCACACTTGCAGGTATCTTGTA
0.7575128928773788 AGTCACATGCTAATCGACCCCTTCGGTAACTATAGCAACA
0.07866201677180007 CCGTTTTTGAACTCCCCTTCTACTTGTAACCATAGTAACC
1 ACGGTTTGGGCCGCGCCGCATGCACCTTGATACCGTCTGA
0.5563457896400262 CTCCACTAATACCGGTTCCCCTAGCGTAACCTTGACTACG
1 CGACCAAGTGAGCCCCTTCAAGGCCTCAGGCCTAAGCCGT
0.6640889008760633 ATGACCACCAAACTCGTTGCTACGCGACCGGGCAAATCAT
0.3941274262185956 AGACACACTGCGTGGCGCATACCCTGTAACCAATGGCAAC
0.4403335151816245 TATCATAGTGCCCTCCTGGTTGCCATACCGACCACCACCC
1 CTTGGCAACGCGTCTACCCAACGCAACACTTACGCACCCC
0.7673464117810602 GCACGACTCCCTAACTAGCAACCACGGGTGCCATAGTCAC
0.3037524645638908 ACCAAAGAGCGATACCTTGCAGTCCCTTCGTTGTCATGAC
0.5095274071549021 ACCGACACTCCTCACGCCCATAACTCGTCGTAACCATGAC
0.3721120560780926 GCCGAGTTGCGCCTTTACCCCGTTGCTATCGCAACGGAAC
0.3017005225488471 GGGAGACCGTATTTCAGAGCATAGCAACTAGCGTTACCAT
0.05861181581484401 GTTACCATGGCCACCGCGGCTCAATGATCAGTGCCAAGAT
1 AGGGACCTCACAAATTGAGGCTCACGCTTCGACCCTTGAC
1 CACCCACGCTATCGCCGCTGTTATAGCGACGTCCGTTGCC
0.7891347306610836 GTTACCATGCCAACCCCCATCACAGTAGCCAGACAAGCAA
0.170743108621104 GTTACCATGACTACCCTTACCTCCCGCCCCGCCTAACCCT
0.4151078956408015 AGACTCCTATCGTCTAGTTGGCGATGCTGGTTGTCATGAC
1 AGAGCGCACGAGAACTCACGTGCGTCGCGTTGCCCATGGT
1 CCGCCTACCCGTGATAGAAACCTGAGAACACGGTTACCAT
0.7854893301714014 CAGGTAACATTAGCGTTGCTAGGCACGCCGCCCTCCTGCC
0.7600111283336389 CTCGCCCACCCCGTTGTGCATAGCAACCGCCTACCTACAC
0.3737362187963698 ACCGCCCTTAAACCTGTTGGCATGACGACGTGATCTCCAT
0.1053392442717765 CCTCCCTGTTTCCATGGTTAAAGTGCTCGCGTGCACTTGA
1 AGTCGCCCGTAGCAACTACGCAATACACGCAAAGGCATGT
1 CACCAACCGACAGCCGCGTTGCCAACAGCGACGACTGCTG
0.5510229476795639 GTCATAACTACCATGGTGACGCCGGAACGGCCGTGCTGAC
1 GTTGCCGTGACAACCCACCCCGCCACAATGAGCAGCACGA
1 AATAGCAACCGCTCAGCGCAGCTTGTGGGACTGCTGCGTA
1 ATGGTGACAACACTCCCTAGAGACCATCTACCCCTAAACC
0.1470015111415833 TCTTGCGGGAGCCATAGCAACATGACGCGCGGTACCGCGT
0.002675463878898652 ACCATGACAACCACCCGCTATGACATTCCCTGAGTACCTG
0.09303455974859848 ACACGGAAACGCGTTCCCCGTCTCTAACGCGTTGCTATGC
1 CAATTGCCACCTCCGCCTTCCGCGTGCGCCTCGCACCCAT
1 GACACACACGAGAGGTGGTACTAACCGAACCATACGACCT
0.8180208872084035 TGATCTCCCGCCGCTGTAGTAACCACGGGCAACGAATATC
1 TTAGATTATATCGACTGGATTCAATGGCCCGCGTTGTCAT
0.5150105848557633 GTTGCGATGACAACCTTCCCCGTCACCACGCCAACTGCCC
0.5116137903968441 ATCACCCCTGCTTTGTAACGCACCGTCGTCCCGTTGCCAT
0.2026929193005437 CCACTTGCCAGGTGCTATAGCAACCGCATGAGCTAATTCC
1 AACTACGGTGGATCCAATCAGACAACGTTGGCAACCACCA
0.6172552585894461 CGTCCCCCTCTGCGTTGCGCGATGGTTGCCACAGCAACGT
0.6848200696510096 GGTGTCCTAGCAACCTTTTAACTGGCAACTACGTGAATTC
0.08746081608976063 AACCCGTTAGGCACCCACTCCCGTGAACCGTTGTCATGAC
1 GTAACCATGGCGAAGTGAGACCTTGTGCACATTGTCCACC
1 CGATAGCGGAGGGTCACGTTGCCCGGGCGACCGACTTGAC
0.4373994424131976 GCAAATCACCTTGGCAACCTGACTCTCTAAGGCCAATCAC
0.07764542870674992 CAGCATGTCGCCCAGTTACCACGGCAACTTGCCCCACGAC
0.2428282344262835 CGTGTTACGGAAGATGATAGCGGGCTTCAGTTGCCATGAC
0.02865548254230577 GTTGCCATAGCAATGGCCCAGGGCTGGGGCTGTTAAAATC
0.8131986682408006 TTGTCGACTTCCTTGTAACCATAACAACTTCTAATCGTCC
1 CCTTCCCGGTAGCAAGGTACCGACGGGAACAATGACAACC
0.0815853138947932 ACGTTGGCATGACAACCTCATATGCACGTTCCGCCGCTCT
1 CAACGCGCCACGCCTCCATATAATACCGCCGCAATCATTG
1 GCGATCACGTTTAATCTTACAGTCGAAACACGTGACCGCA
0.3712598987828254 TGACTAACAGCGCATCGCCTAGCAACGCACAACGTGACAA
1 GTCCGACTATAAGTCCATTACAGCAAAAATACAGAGCGCA
0.3634494062203723 CAAACCTCAGATCCTTACCCACCAGTATCCATAGCAACCC
1 TTATATGAATGCCTGCCCTACAAAGGGCGGGTAACATGAA
0.6258983225241361 GATAGTAATGGCCAGGCATCACTCCGGCAACGGTTGCTAT
1 AACCCTGATCATTCAGTATGGCAAATCCAAGGGTAACCAT
0.4375026693557303 CAGCATCCCGAACCCCGTTGGCATGGAACCGCACCCCCCA
1 TAGCAACGTAGCACGCCGTGACTACAAGCCGTCTCCACGT
1 GACATGACGACGCATCGCCCCGACCTCTCCTGGCCCGCAC
1 TCCTCCAAGCACGCCGAGATAAGTCTGTTACTATAGAAAC
1 GTTCGCTATACGCCCTTATTTCCCTACCTATTCCAAATCT
1 GCAGTGCATTCTACATTCACCACCTTCGTCAGGTCGTCAT
0.2515016188064108 CCATTGTAAGCTACCTAATGGGGGTACCATGGAAACCTGC
0.4220225270114599 CCGAACGTTATACGACCAACCCAGGTGTTGCTAAGCAACC
0.6110164935686069 TCGTTATCTGCATCCGTATGCCTCTGTATCCTAGCAACGG
0.007212690555255862 AGTCCGCGAATCACCGTAACCAATGGTTACGTAGTAGACG
0.8923548532688225 TGCCAATGCGTTCCCATTGCGAGCCCGCTCCCGTTGCTAT
0.3657458757161911 AGCGCGTGACGTTGGCATGGAGACCTACCGTGGCGTACCC
1 ATGGAAACGCATCTCACGCCCATTTTATGCACGCGACCAT
0.7919177348738347 TGGCAACCGTATCCATGAATTCGGGCAGGCCCTAACGAAC
0.583523563840896 GTTGCCATTAGCAACGTGCACGTACCAGACTATTCGATTC
1 TCTCGCATCCCTCGCCCAAAATTCGTTGCCAACGGCAACA
0.4613020878202596 GTAACCATGGGAACTCGTACGGTAGAGCACGCTACGAAGA
0.5297248562681169 ATCGTCGGTTTCTTCCCCCGCCGTTACCGTGACAACCGGC
0.5653603215871206 GGTTGTCAATAGCAACGACCAAAGTGGAACATACTGGGGG
0.9113559898382003 GTTGCCATGGACGCGAGCCCCGTACGCACCGACTCGACGT
0.2781637174786803 GGTGTCACGTCCCACCCGTAGACATGGCAACAGGTATTAT
0.07254623155350916 GTTGCCACGGCAACCACAGCGCCTTTAATGAGTTACTTTG
1 CAATCGCACTCACGCGAGCCGCCGCGTAACCCTAGGCAAC
0.04760092928650713 ATAGTTATGCTGGAGCAGTGTCGCTCGTTACCAAGGTTAC
1 GCGACTCCCGGCTACGTAACTTACCTAAATCCCGTAATGC
0.2238213309093111 GTTGCCATGCCAACCTTCATCTACCACCGGGCGATCCACC
0.9621376597840763 CCGTTACTATAACAACCACTCGGCATGCCCATCACCCCAC
0.5600629617009029 TCCCCGTCTCCGTGGCAACCGACCTCCACCGACCTGTATG
1 GTTCCCATGGAGACTGAAATAATCGTGGCCCCATAGTGAC
0.0009500382551126313 AGTGCTATTATACGTTAACTAAACCCGTTGCTATAGTTAC
0.3702478632413239 GCACCGCGGCTACCACGGCAACGCGCCGGTCCTGACCACT
0.3364331886792716 CGTTACTATAGCAACACATACACACACTCCCACCAAATAC
1 GCTGACGACACCTAGTTTCCCTGCCTACGCGTAGGTTACC
0.6583613428774381 ACCTCTATAGTTGCAATGGTAACACACTTTACCACGAATT
0.3407330691608833 AATAGGTCAAATCACCATAGCAACTAGAACGGCTGATACC
1 CGCGGAATCCCCCCGCACAACCGTAGCAACAGTAACCAAT
0.2637700439374251 CCTCCAGTCAAAAGAATGAATACGCGGTAGTCATGGCAAA
0.01594797639882332 CGTATTACGCGGTCCTACCCCGCCAGGTAACCATAGTAAC
1 CATGACACCTCTCGACCCCAAGTCAGGTAACCATAGCCAC
0.1763856544850625 TGTTGCCATCGCAACGCGCAGCTAACGCGTGTCTGGCGGT
0.349674890019333 ACACTTCGCTCCTTCATGCCGGCGCCGATGTTGCCATGAC
1 TCCCCTATCTCGGGGCAGCCTGGTATCGCTATGGTCACGC
1 AATTAGTTGTTCCCTTGGCGACCGTGTTGTACACCTACCG
0.2750017891927152 GGATCGCGAAATCGCCGATTCTGCCCGTTCCTATGGCAAC
0.3013452294723197 TCTGTGATAGCACTTTGTCCGTAGCCATAGGAACCATCCC
0.0924795667813232 GCCCAGACGGCCGGTGATCCGACCCTGTAACCATAGTAAC
0.4934963388391635 CACCCATCGTTAGCGCGCCATTTCCTATCGCTATGGCAAC
0.6050335518195823 CGGTTGGTAGCCATAACAACCACCCTTGTTCATGCGTCGG
0.1751895206745276 ATTCACCTACGCCGGTTGTCGCTTAGCAACCGCCCTCCTC
1 GGCTCATGCACCTGTATGTCCGTATCCTGGGAAACACCAT
0.4101541068043995 GAACTGCAATTTCTCACCCACAACTTTTGGTTGCCATGAC
1 CTCCTCTCCCTCCCACCGCCTATCGCGCGGGTACCATGAC
0.4264123553107981 CGTAGCGACGCTATCGCTACCCACATAGCAACCGCTACCG
1 CCAGATGCCGCAGTGCAGCATTCACCCTAGCGCGCAAAGC
0.2395565195160168 CCGTTGCTAAGCAACAAACTCCATCGTTCTCAAGCAATCA
0.0161480412263228 GACGCCCCGCCGTTGCCGTAGCAACCATCAAGCACCCTTG
1 TGGTAACGCGACCTCCCAACAACAGCACTCGCTGCCTATC
0.3196010644391598 GTCAGGCACGACGCTGTGTGTGTTAGACGACCGTTGCCAT
1 TGGCAACACTGTCACCAGGCAACCGATACGAGGCCCAATA
0.00178773322892685 ACTCCCTGTGTAACACTTTACACGCTTTCGTTACCATGAC
0.7132632388994478 GCAACCTAACTACCCCACGATAACGCGTGGTTTCCATGGC
0.0682694107826977 TCGCCCCTGACAGTGCGCGCGTAGGCATGGCAACCCAGAT
0.5570236909401046 GTAACCACGGCAACGACTTATCGGAAGCCACACTCCCATA
0.8039122924422942 CGGGGCGCGTTGCTATGCTTCCCCAACCTCGCACCCATGC
0.9883674266329475 GACCGGGCCGTACAACCCCGTTGCTTAGCGACGTCCGGAC
0.4014220829988722 CAAAGCCAGGCAAGGGCTGCACGCTGTAACCCATGGCAAC
0.05783035568008238 GTCGCCATGACTACCATGCTACGCTGGCCCTCGAGCCCGC
0.1019920759622608 TAGCGGCACTGCGTTACCATGCCACCGCGCGGGAAGCATT
1 GTTGCTATTGACAACAGCCGGTGATTCATTTGCGCCACGT
1 CCCATTACTAACATACGCAATGATGCCCACCTTCTTCTAC
0.3085513773751301 ACCGCCACTCACAGCACCGTTGACATGGCGACCTAACTCA
0.5921992353512292 TTGAATTGTCTCCCAGTAACCATGGGCACGCCAGCGTACC
0.471708295469516 AGCTAGCGTCAAATGGTCACCATGGCACCACGCTCCCGGA
1 CCCCCCATCACTATGCGAATACCCATGTTACCATTGCCTG
1 CCGTTGACTGTTGCTTCGATACAGCAAGCGAGAAAGCCGG
0.1561450653832702 TCCTTTGACACTCACGATGTAGTAGTTCGGTTGCCATAGC
0.1992922316903993 TCAGTGATGTGGGGCACTGATTCAGACTGGTAACCATGGC
0.4429846193347635 CCTGACGACGGGCGCAAGCTGTCGCTAAGCAACCGTGACG
0.2260379440845134 TCAGCAACGGTTGCTCAGCAACGCTCTAACCCACACGAAG
1 CCCATCCGACCCCCGCCTAACAATACAACTCCATGGAAAC
0.6136849212890075 CACCTACGTGCCGCATGTCACGGCCACACCGTTGCCTAGC
0.08156777653707593 GTTACCTAGCAACGGTCGATGTTGGTGGCGGCACTATCGC
1 TAACGTGCAATAACACACCGCATCCGTATACATGGCAACA
1 TTGGCCCTCCGCGTAACGACGCTTTCTACACCACAGCAAC
1 GGCCAAGCTTACTGGCCGTCGCTAAGTGAGCGTTGCCTCG
0.3155984097710727 CCCCTGTGCAGTCCGCATAAATGCTAGTCGCCATGACAAC
0.8049394718553023 GTCGCTTAGCAACGCACGCGCACATCTAACTATCCCCGCT
0.5501522224720086 CTGACTTGCGTTTCCTTGACAACCGCGGGATCGTCAAAAA
0.2724564460668085 ACTACACAGTACCGTTGCCACGGACGACGCAGTACAAACT
1 ATCACAACGGCCCTAGCAACAGACAACTACCATTACCGAC
0.1771187589736453 CACCTTCCCGAAGTCCCACTAACCCGTTACCATTGGCAAC
0.6401858278635448 CGCTACCATGACTACGAAGACGGTACCCGTAGAGACTGTC
0.8275121846561418 GTAGACATGGAAACGGACAAAAAGCACCAGTAGAGCTGTG
1 CGTAACTATGACTACCGTACCACACCCAAGTCCCTACCAC
0.8357826498337255 CCGGCGACCCTGTTTCCATAGCAGCCCCCCTTAACGACAC
0.4507353192043471 GTTGGCATAGCAACCTAATGGCCCACAGTCGACCGGACAA
1 GCACATTACAAACACGTTACGCAGCAACACACGTAACCAC
0.6169618393464998 GAGGTTGCTACCCCCCCGTCTGCCTAGCAACCAGCAATGC
0.9531670754692261 CGTTACCTTGACGACCGGACCGCTCCCTCCCTTCCCCAGC
0.9522376311564885 CCCCGTTGTCTTGACAACATAGGATTTGCATTCGCTCTTT
1 GCTCGGACCAACTGTTGTCAGGACAACAGGGCGCGGCGAC
0.4496017601803607 GCTATCCGCGCAATATTCCGCCGGGCGTTGCCTAGGTAAC
1 GTTGCCGAGCAACAGCCCTGCCCCCTGTTGCCGTGTCCAT
1 CCGCCAAACTGCCAGAGTAGATGGACACTTGCTGACCGAA
1 ATGGCAACCCACGCACCACGGGTGCCCCCCGACCCACACC
0.7856437142876904 ACCCTGTCCTAGGGACCCCAGAGGTTTCCATGGACACAGC
1 GAGACCTTGGGCGACCAATAAGCCTCACTGTTTCATCGTT
0.2795693532983872 GGGTACTATAGCAACCAGTACTTCTAATGGATGTGGCAAC
0.5360772629246844 TGTCCGACGTCACACGACGTAACCTAGCAACCAACGCGAC
1 AACCATCTATACCCTCCCAGGACACGCGTTCAACGCTCTC
0.05140075575995927 TGTAACCATAGTAACACGCCGTCTACGTACCCGCATCGCA
0.08263098695066344 GTTGCCATGACGACACACCCTGATTATAGTGCCACTGCGA
1 TATGACCAACGGCAACTACTGACCGCGCTACCTGCTGTGA
0.6306740051273317 TCACCACCTCGTTGCCACTAGCAACCTAAGCCACTACACC
0.2667325940736772 GAGAAAACCTCAGGTTACCATAGCAGCTGGCCTCCGCGTC
1 AGGGTGTACTGTAAACGGAGCAACGGTTGGTATGACAAGG
0.4421810109229641 TGGAACGTTGCCATGCGTAGCTACTATGCCGATCGACGCA
0.01464395498905893 CTCTCCGCAGTTTCCATAGTAACGCGTCCCTCCCGCACGC
0.2814283593707801 GCGATCGTCCCGTTACAATGACAACCGCCCGCCCGGCGAG
1 AACATATAGTTTATGTGCCCACCCAGACTCGCGTTGCCAT
1 AGCTGAGCACCCCTGGCTATAGGCCCGTGGGCATAGCAAC
1 GGCGAGGCCTGGGCCCTCCGTATTCCGACCCGCGTTGAGA
0.8803366868964224 ACTTGACAACCACCATATCACCCTGGCGACGTACAAGAGC
1 CGTACCCCAAACAAGCCTCAAGTAGTTGCGGCGTCATGGC
0.1118606371338851 GGTACACCCGGTATCCCATGGTTACCGGCTCCGAATTTTT
0.5786427925990983 GCGCCCTCGGGCAGGCCTTGCTAGGCAACCAGTCAATTTA
1 CCAAACACGGCTCAGTCGCTAGGCAACACCCCCCCACTAG
0.4825648918412047 ATAAAGTTAGCCCTAAACCATAGGCAACTGTCGCCATGAC
0.221751384143716 GACGGCGCAATAGACCACGTGACCATGCCAACGGACTGTT
1 TGGCAAGCGCGCTGGCGAACCTTCACGCCTTTTTTGGGCC
0.9329737195619107 ACCCCGTGTAAGTTGCTAGGGGAACTACATGATATCGCGG
1 AACTCCAGGCCATTCCCGTGGCGAGCGTTAGCATGGAAAT
0.5886630694374316 CTCATTCCACAAAGCCCATCACTCAGTAACCATGACTATG
1 CACGATGCATTACCTAGCAACGTATTTCGAACCTTAAAAT
1 AGCAATATTACGGGCCCCCTGGCACTCTAGTATCCATGAC
0.3556867997927535 AAAAGTCGCAAGTGTTACCAGGGTTACCAAGCCTTTGTAC
0.8076241731380565 CACGTTCTCCAACGTGTAACCTATAGCAACCAAGCCGTAC
0.4142249734171924 GACACCACCAGCCGTAACCACGTGGGTTACCAATAGTAAC
0.03422815488082632 GTTACCATAGAAACGCCCCACACGCACTCGAACACACCTA
0.03163808072684232 CCTACCAACGGTTGCTAAGGTGTTCACAGCCTCCGCCTGC
1 TGTTGCCACCAAGCGACGTGCGTTACTATAACGACAGATT
1 CCTACGTACCTTGTTGTCACACTGCGGTTGCTGTGGCAAC
0.1835063410487979 ATCCCACCACGCTCGTAACCTAGGCAACAGACACCAACCT
1 ACGGCCTGTCACCAATGACGACGGATGACCGAACACTACA
0.4342308216297306 GCTTCGTTGCCATCGTTACCACCTGGCTGACTAAATGGCC
0.05413382384739265 GTTGCCATAGCGACCCAACAGACGCGGCGAGCCTACTGCA
1 GCCGTTACTAAGCAACCTGCAAGCCCGACTTGTTGCACAA
1 CCCTTCAGCCAGGATAGCATCTCGGACACGTTACCTTGAC
0.8448195915305357 GTTGCCTATAGCAACACTGCACGTAGAACGAACGCCCTAT
0.01094937707686604 CTATTATAGTACCCCTGGTAACGCATAACTAATGGCAACT
0.2218820142325619 GCGCCAGTTGGTTGCCAATAGCAACTGCGACCCTCGGCGG
1 CAATCCGACGGCTAACGTGCCCAGCAACAATCGCTCCAGT
0.1469286121439901 CTGAAAGCCTATCCAATCGGTAACCATGAAAACGACTAGT
1 CACCGACATGACCTGTACCTATTATCAACACCGTTACTAT
1 TCGCTTACACCCACAGACCATTTACGCGGCACTGACTCGT
0.1149597995217278 ATCCGGCTATAGCACTCAATTCTCCCGTTGTTATGGCAAC
0.1127903238583877 GACTCCGCGCAGTGTCCGTCCCTATGGTAACGATAGTGCG
1 TGACCTGCTTGGTACACACGACTTCAGCTTGGCGCTCACG
1 AGTGCCACCGCCTGAACGAAAATTACGTAACAATGGTTAC
0.5373843565966484 CGTTGTCACGGCAACCAGGCATGATATCTCACAGCGTGGA
0.1993629470850561 CCACGGAAGACCCGCTTAGCAACCGGCCTTAGATACGAAC
0.4629659664091063 CCAACGCTTACTAACGCGACTGTCGGGTTGCCCTAGCAAC
0.4401787915709948 TAAAACGTTGCCTATAGCAACTGATGAGTAGACTATCACA
0.3955233628552325 CGACCTGTTCCCACATGCCTAGATACGTTGCTACGCAACC
1 CCTACGACCGTACTCACAGCGGCCGTGCCGTGGCCATGAC
0.004354864883984544 CACCTACCTAACGTCGCTATGACAACTGCATCAACGATGC
1 TAGGCATACACATTATAACCAAACTGGTCGCTATGACGAC
1 TGAAGCCCCGTCCAACGTCGCAAAAGCGCGGTGCCATGAC
1 CGCACATGCCCGCAACTGTGTCGCCGCCTTGCAATTCCCT
1 GCATGCGCGCTTTGTGCGACCATGGCAGCATGGTTGCCAT
0.3674182343624843 GTAACCAAGGCAACCACGACGCCGCTAATCCTGCATCCCC
1 CTTGACTACTACACGATCCACGAAGCTTAGAAACCGCTGT
0.218643940279083 CACCCAATAAGACGCAGCACGGTTGCCTGGGCAACGTGAT
0.4155208506858121 CCACAACTGTTCCCTAGCGACGCAACGGTACCTTAGCAAC
1 TAGCAACGATGAATGCTCTGGTTTAGACACTTTAAACGAT
0.5460692800935807 AACGCCATACTCCGTCTCTACTCAGTTGCCATACCAACGC
0.2359292911306261 CGCTAGTACGTTTCCCTCCATGCAACCTAGTTGCCATGAC
0.7601131939704667 TCACGCGCGAAACTAGTACGGTTGCTAAGCGCGTTACAAA
0.02843248637066965 CTAGACCCGTTGCTAATGGTTACCACCCATTTCCTCACTA
1 TAGACCTCCCTCGCCGCGTCACATCCGCCCTACTCCATTC
0.02287376622346649 TGGCTGATGTGACGACGTTGCCCAGGCAACGCGGTATCGC
0.9993129562858455 AACCCAAACCCTAGCATGCGCGCGCGATGGTTGTCATGAC
1 TCCAGGCAGTCAAATACTCCGTGTTACCAGGGCGCGAGGG
0.08174807260226226 GTTCCTATGGCAACTAAATGCACACACTACCGACGTATCA
1 AGGCCGCGCGTTCCACCACTGATCCATAGTCGTTTCCGCC
0.5285480038847646 CTCGTTTCCCCTGCTCGTTGACATAGCAACACCACAAGTA
1 ATGTTCGTCGTGCACCTACGCCCGTTGTCACGTACCCCCC
0.6619893828081438 CTAATCCGAGCATGACCAAGAGGCTCATCACCATGACAAC
1 ACTCCACCCTCCCACGATCCCACTACTTCCGCCCGGCCCC
0.1662586453345467 GATGCTCCTCTAGCCGTTGCCACAGCAACGAGGATCCTAT
1 GTCTTGACGACTCGCCGTGACAACAGTCATCCTCCGGATC
0.107979989347599 GCGGAACCCGTTCGTCACTATAGCAACCATGCTCATCCAC
1 TGCCCCAAATTGGCGCCGCGTATGCGTAGCAACATTTCGC
0.2785156562096734 CGCCCTAGCAACACGTTTCCAGGTTTACACACCGAGACAC
0.8368558258210729 TCCCAACTATGAGCCCGTTCCTGACAACGGGTTGCTAAGT
0.9778137539875764 CCACCACAGAAGCTCTCTAGCCCCTTGTAACCTTGACAAC
0.3000621497584534 CAATAATCGATACCATACCGACACGTTACTCATGGCAACC
1 ACTTCATGCCCTGCCCACCATCCCCCTCCACACCTCCCGC
0.3103075353069825 CATGCTCCCGTCGCTATGGCTACGCCGCACAGGGCATGGA
0.6563793809650142 TGTACACCCATTCCCCGTTGCCCAGAGCAACGAAAAGGCC
0.6143138339774201 GTTGCCTAGGAAACCATCAGACTATATATTGTGATGGAAC
0.527974985645803 CCCGCCAATCTCACCGTTGCCCCGGCAACCAGGCTGGCTG
1 AATGCATAAGCGAGCAGTGGCGTTGTCAATAACAACGGCC
0.9457502131781083 TAGAGCAGGGTAATCTGGGACAGCTCATCCGTTGCCTAGC
1 ACTGATACGACGCTTATGATACGAGCTAACCTACACTTAA
1 CCGAACCGCTAGCAAAGCACACGCGCAACCACGGAAACGC
1 GAACGCTACTAGATAGCCCCCCGACGTTGCTGCGCAACCC
1 ACCACTCAACCCATTACAGCACCCCGTAACGATGGCAACG
1 GGAGGCTCTTCATACGCCGAAACCACGGCAACTCCCTAGC
1 GAAGGCATTCCGACCACTGAGTAACCTTAGTAACACCAAG
1 CGCTCGACTCTCCACAGCTGCGGCTGCCATGCTCACCGCG
0.5831716942192924 TGCACTAGACCGTCAAAACCAGCGTGTCGTTGCCAAGGGA
1 AACTGTCCTCTAATACTTAGGCCTACTTTGCGTGACAACG
1 ACTTCAACCTTCGTCTTGACAACGCGGCTGGCCCCCGCTC
0.9812206902517621 AGTCACGCAGCATCCTCGGGTCGTCCTGGCAACTGGTCTT
1 CCCGCGCCCCCCACCGCCGCCGCACACCCCCTCCCCACCC
0.4438200184114497 GTTGCCCAGGGCAACCCCCCTGGCAATACGACAAAGCCAC
0.8462238037030833 TAACTCATTACGTCCTAAACGCGTTAGCAGCCGTTGCCAT
1 ATTCAAAGAGGTACTCCGCTGCTCGGTAACCAATAGTAAC
0.0946600917383135 GCGGTATTTAATCGCAGGTTTGAACTGTTGCTATAGTAAC
1 GCCGATCTCAGTCGTCTCTTCGTTACCTAGGCAATGCACG
0.2351242057964446 AAGCAAGAGTTCCTAAGTCATTATGGGTGCTATGGTAACC
0.07936114159895979 CTGTTACTATGACAACAAACCCTACGGTTTACACCAAGAT
1 GGCGCGACTAATCATCGCGACACACTGTACGCGTTGCCAT
0.7035593291377483 ACCCCGGTGTTATGACAACGGCAGGCACGGATTGAAGGCT
0.839619201104725 CCTAGATACCCGGTAACCAGGCAACGGGCATCATCACCCT
0.2389709009756315 CGTGACAACCTATGATTGTCGCAGATCCCCATGACAACGG
0.08559647472491454 CCCCGAATCCAGGCAACCTAACAACCCTTGTCGCCATGGC
0.993177050420143 TCGAACACTCTTGCCCTCGTTGCCTAGACAAACGCGGCCA
0.1076073107421261 GTTGCCTTAGCAACGCCACGTCATCCGATGCGATCTTTCA
1 AGTTCCGCAGTTCGTGCTCCAAGAGCAACTGCGTTCCCAT
1 CACACACGGCACTGAAAACACCATCCACCACAGTTACCAT
0.3319967426984421 GTCGCACGCACCTACCGTTTCCTAGGCAACAAACCCCCAC
0.6284265692202829 GTTCCAAGCGCACACAATTCGTTACCAAGACAACGACCAC
0.3460202755168291 CAAACTACCCTTGCGCAAGTTCCCATATCACCATGACAAC
0.5261447736841334 ACTCGGCTAGACATATCTAGCATCTCCAGGTAACCATGAC
0.2631667028278704 TTCCGCCCGCGGGTCCCCCGCCCCCAGTTACCATGACGCC
0.4796922198772998 GCAACAGCTTATGTAGCATTGACCCGTTTCCATAGCGACT
0.2301050891911519 CATCCTCAAGCTAGTTGCCACGGGCAACGCTCCCCTCCGC
0.3865567900015807 GTACCGGTTGCCCCTGGTTACCTTAAGTGAACAAGACGAA
1 CGAGACATGCACCTTGGCCCCCCGCGATCCTAGAGAGCTA
1 ACCCCCACCCACGCGTCCTCCCCCTTGTTGCCCTGCCAAC
0.9469614772973779 TAATCCGCTCGTGCGCATGAAGGGTAACCAGGGAAACCAT
0.2321985506917407 AATTAGTTACCACTCGTAACCAAGGGAACCGTTCTCCAAC
1 TCACACATACAAGAACCAACACCTCAGCCCAGGGCCAAAA
0.3113100828283336 GATTCCCACGCGCGCCCGCACGCCGCGTTGCCCTAGCAAC
0.03147560089555079 ACCCCCGCGGCCCGCCGTTGCTACGGTAACCGTCCAATTG
0.6643603452555438 GCGTTTCCACGGTAACCAACGACTCGTGACACCACCACTA
0.1826307266496876 GCTGCTATGACAACGCCAATGCGGTGTATCTACCTAGCAA
1 CCCGGTGACACGCAGAACCCTAGATTGGTACTATGGTTAC
0.8651006927314182 CAGTTAACAAATACAACCTTTCGCTGTCGTCATGACAAAG
0.1049621711559321 AGCCCGTCACCATAACAACGGCACTCGCGCCAAGGCTCAC
0.5809130527870814 CCCGATTAACGAAGAAAACTGTCACGTATCCATGCCAACC
0.3541653634155971 TCATGGAATGGGCACCCGATGCCTAGTCTGTTACCATGGT
0.9330600325351383 CCCCCAAGCTACAGCTGTCGACATGACAACCGCTAATATT
1 GCAGCCCAGATCATTCCAGTTCATGTTACCCTGACAACCA
0.6586345205171025 GTTGCCAAGCAACGGCCAGCGCGTCCTCCTTCCCATAGGG
0.4346495536241531 CCGCATACGATCAGGTACCATGGTGACCAACTGCAATTAA
0.383812530404957 AGTACCGTAACCAACCACCGTCACCCTTGACAACCAGCCG
0.1454321530584385 ACAACCTTCCCCGTAACCTTGACTACCAGATCACGAGTCA
0.1608060427254699 GTAGTGGCGCAAGCTGGCCTGCCCTAGCTGTTACCATGAC
0.4885761381364011 CCCCGTCCACGTCTCCCGTCACGTCCGTCGTCATGGGAAA
0.7001803587239898 CATCGGTTGCCAGGGGTAACGCGAACAAGCTTTCCGCAGG
0.2753191963540975 GGCGCATGCGTCGCCATGACAATCGAGCCGAACAGTCTCG
1 CTTCGGCTACAAAACACGGAAGCAGAGCTCAGCGCATTGA
0.396383858525831 CTCCAAAATACACTAGCGCGACTCCCGCTACCATGGTAAC
1 CACCCCGCTAACCACGCTAACATCCCCACGTTGCCCTGAC
0.2498707604382399 ACTGTCGTCAAGGTAACCACTCGTAACATATAACCCTAGC
0.8048395707765855 GCGGTTGCTAAGGAACGAAATTGTGCAGCACATCAACTAC
0.2610291748724927 CCCGCGTAACCATAGCCACCAAGGTGAATGGTCCCGCACA
0.2041246604338158 ACCACTACATTACCGGCTCAGGTGGCGTAACCATAGTAAC
0.1556347656728563 ACCAATGATTCCCCCGTTACCCCTAGCAACCGTGTCCTGA
1 CGGAAATACCGACCTGGGTACCATGGCTCCCCGCGCACTG
1 GCTTCCCTAACTACGGTAACGAAGCCGAAGAAACGGCTAT
0.4153693850655858 CCCTCGCGCTACAGCGCCGTAACCACTAGCAACGAAGGGC
0.2492667260716866 GCTCGCAGACTTGCCTGCTTCCACTACCCGTAACCATGGT
0.7763567359066321 CCGTGTCCATGGATACAAAGCAGTTTTACCAACAGCACGC
1 CACTCCGTTCCCCCCTCAGCTGCCGAACACCCTGTAGTCC
0.9930841642349597 AGCCCTTCTTGATCGAGGCCTGCGTCACCAGGGCAACTCG
1 CGCCATCGGACCACCGCTGTTACCACGGACACCGGCCTCC
0.4457952071728395 CGTTACCATGCCAACATAATGTCGATCGATGTGTAGCACA
1 ATCTGGCCAGACCAACGTCGCATGGCAACCCTGCCCCCGG
1 ATAGAAACCCTGCCCACCGTACCTATGCCTGCCTGTCCTC
0.0517576129906514 ACACGAAAAACGCATACGACACAGCGGTCACCATGGAAAC
1 GCCCCGCCTGGATCCTCGCGTATACAGCCCCCGTTGCCAT
0.2964288794689564 TCTACAAGAGCTGAGTCCACCGGAACTATGGCAACAACGC
0.332290437756791 CCTTACGCGCAAAAGCATGCCACTAAACCGTTGTCATGAC
1 CCAACGTGCCAGGCAACGGTTGTTGGTACTAAATACTTGT
0.5675247139486362 GCGTCGGTCTCTATGACAACCGCACCTTCCCCGCCTTCGC
1 TGCGCCCCGCCCGCCCACCACCCCCCCATCCGACGCCCAT
1 CACGATCCAACTCAGGTTGCTACTGGCAACCGCACCGCGA
0.2168359461698432 CCGTGTCCATGACTACCGGGTCAGCAACCACGTCCCGTAT
0.6298405253745138 ATCCAGCAACCGGCCCTGGCAACCCCTCACCAATGCCAAC
1 CCCAACGCTCTACCAGCCTGCCACGCGCGCAATGCTGCCC
0.7281493399077401 CCGCTTACTAGCAAGATCCATCGCGGTTCCATGACTACGA
0.4100606679453651 GTGACCGGTGAACATGATACCCACCGTTGCTAATAGCAAC
0.8316576049920089 ACGCAACCGATAAAGCCGCTTGTGATCCTGTAACCATGGC
0.2362499798160765 CGCATAGGTAGGAACTTAAAGCATAGGTTACCTAGGCAAC
1 CGTTTAGCAGTACCTGCTCGTCGTTATCTCGCGTTACCAT
1 AAGTCTCGACCAATCCATGCACCAGTTACTAGGCAACGCC
1 ATGGCAACGCTTGTAGTTAGGGCCACTTATCATCTCAATG
0.4669258995990446 TGCTCCAGAGAGACGGACTGGCGTGACCATGGGAACCCCT
0.05536601624386019 CGTTGTCATGGAGACCACATGCAGGTGTCAGGTCTCTTGA
0.3185025889321028 GTTCCCATGACAACCCCTGATATTATCGGACATGTAACAT
1 CGCGACCCCGCGTACCGATCCAATGCGTAACCTAGGCAAC
1 GCTCCTTGCTCACTCTGACTGGTAACCGCTCAGTTGCCAT
1 CTGGTTGCCAAGCCAACCGTGCGTCCCGAACCCAACGCTG
0.09898665651310964 ATTTATTAGGGATCTCCCGCGTCCCGGTTACTATGGTTAC
0.09272537574660522 GTTGGCATGACAACCGATGTGGGTGATAAGGCCATCAGAG
0.2827576045132761 TCACGTTGCTATTGGTTACATAGGGGTGTCTGGGTCCCGA
0.1784203727662419 ACCCTTCATTTACGAGCCGAGATGGCCCGGTTGCCATGCC
0.02942067600733002 GCAACCTAAGCCAGAAGGAGACGATGGGTACCATGACAAC
1 ACTGATCTCCTCGCACGTAACGCCCCGTAACCATCATTAC
1 TATTCATGTAGGTCATGTTATATCACGGTGATTGGAACTT
0.669523405457486 ATGGCAACGGTAACGCCGTATGCCGCGCCGATGAACGCCA
0.01413597445173719 CCCAGCGCCCTCTAGTCCAGCCAAATTACGTTACCATGGT
0.13255210877212 CATAGCTCACCTGCTTTGGTGCGAAAACGGTTGCCATAGC
0.1821350298717296 GTTGTTATAGCAACCGACAAGCGTGATACAGCAGCCGTAT
1 CACTAATGCATAAGCACCACCCATGAACGGTCGCCATGAC
0.9198895813459245 TAGCGCATTCTAGCGGTGCTATGGCAAGACAGGACACCCC
1 CGCAGGCGAATTCTGTTGCCTAGAAACGCGCGCGGTTGTA
0.2629069067598258 AAAACTCGCAACGTCATGTCCTTCGCGGTACCATGGTTAC
0.1127405503350427 CCGGCTGTGAACTTGCACGCCACCCGGTGGTTACCATGGC
1 ACGCCCACTCACGTTAAATGATGTCCCCAACCCAACGCGT
0.4344190115273634 AATCCATAATACGCCAATACCGCTGTTGTCATAACAACCG
0.1070746200844524 GTAACCATGACGACGCTCCTCATACGGCTGACCGCACGCA
0.09138114034517777 TGGAGTCTAGTTTCCCGTTGCTACTGGCAACCCTCCACCT
0.1944159554594439 CATTTCTGCCGCGTAACCTAGGCAACCTAACCGCGAACGC
0.3504675758090837 AAACCACCGGTGCGTTTCCCTAGCAACCACTTGCGGCAGT
1 CGGCCTAATCTTATGGACAGCCGCTTCCCTAGTACCCACG
0.04712189802715705 CCGGTGCCATGGCAAGGCCAACCACTTGACCTGCATTAAT
1 CAGCAGCAAAACTAGTAACTACCGCACCGCGACCCCCCAA
1 CGCCGCGGCACGTAGTAACACCTTAGTTACGAGACGAGTG
0.3123876534168537 GGTTGCCACGACAACCGTTACCGCACTACCCAGCCTCCGT
0.1902215634930995 GTAACCATAGTAACGAACTTGGCACATGTCCACTTAAAAA
1 GACAAAAAGCACATCACTACCCCTGAGCCATGCCATACAC
0.7403698629724875 CTAGGAACAACATTCTATCTGCCCGTTGCTACTAGCAACG
0.8248015982863124 ATCGATTACATGTAGCGCGAACTATGTTTCCGTGGCAACG
0.1714933491986397 CAGCCGACCTGTTCATCCAAACGACATTTCCATGACAACC
0.3954099615689826 TGCGCGCCGGCCCCGTGCCAGTAACTATAGCAACAGGTGG
1 CCTACATGGATACGGAACTTGCTACCTTAGACGCAGGCGC
0.1136643187128815 GTTACCCCTAGCAACGCGCCCAGCCTCCGCCGATAAGAGA
0.05642862761281916 CACGCCTCCCCAGCTGTGCAATCAACGCAGTTGCCATGAC
1 GGCGCCCGCCGCGACAACCCTCCCGTTCCCCCGGCAACTC
0.1119064543610438 CCCTAGTCGCGTTTCTATAGCAACCTAAAGCTCGGGATGT
1 TCACCCAGACGCGTTACACATGTATTCATCTGCGATGGCG
1 CAGGGTACCACTTCAATTCATACCCAACGGCAGTTGCCAT
0.02064560044283443 CACACCCCGGGATGCCTCACCTCCGTCACCATGACTACGC
1 ATGACAACCGGGCCTGACTCCTTCACGACCAGTTTCGCAC
0.8905145007290634 ACGCTGGCAGTTAGCATGGTGACGTGGGGCGGAGTGAGGT
0.1651158074531702 TACCGCTTATTCCGTCGCCAATAGCAACGCCACCCTCACC
0.1027174846003349 CAACCCGGCGCACAGGCACCTAAACCGTCGTTACCATGAC
1 TCATGTAACCACAACCACATGCTACAACGTGTAGCAACAC
1 CTCCCGTGGTTCGCAGACAATAACTGCCCGTGGTCATAGC
1 CCGTTGCCACGACTACAATGAGGCGCGATTACTCTTGAGC
0.591658324352589 GCACGAACCTACCGATGGCATTCCGGTACTATAGCAACCT
0.4630951889149493 CGTTGCTAAGCAACGCCTTTTGCAGCGACGCTCCCTCTTT
0.674386096550584 TATGTATCCAGCGTAGCCGTTTAGGATACTATGACAACGG
0.01937126083635483 CATTAAATAGGCGCCGTCATGGCAACAAACCACCTTCGGG
0.3487948601256989 TGCATTCTGATTAAGCGGATCAAATCACCATGACGACGGT
1 TCGCGGATGGTGCGATCTTTGTCGTAAGTATTGGGGGACG
0.2199375157875069 GCAGCAACATCTATCCGACCTATGCGTAACCAATGGCAAC
1 TACACGCGCGTAGCAACGCTAAGAGGGGAATGCGCGGGTT
0.5175176721249436 CTTGACAACAAGGTTACCTAGGAGTTACCCTGCACCGAAC
0.06473104884828793 GTTTCCATGACTACCAACACACCCCCTACCACTCACCTAA
0.237779455291908 GTCCCTAGTATGTCCGTTCCTATAGGAACACCGTTACCAT
0.4383770854776967 GCCCACCAACACAATCCGCTTTGTCGCCATGGGTACTGCA
0.8161621761104026 CGTTGCCAAGCAACGGTAATGTGAATAAAGAGAATAATCA
0.116949376989529 CGAGCTGATGCTGGCAGGGTACGCACTGGGTTGCCATGAC
0.2759255716546546 AGGATCCGTTACCAATGGTTACCAACTTATGACACACGGC
1 TGCGATATAAGCGTAACTTAATTCCGTTGTCAGTAGCAAC
0.2436428473803399 ACGTTGCTATAGGAACCGGATGGACCCATGTCTAAAGCAT
0.8869933604061365 GCGCCAAGGGGAGCAAATTACGTCACGTCACCTTGACAAC
0.3110186255130682 AAAGAGCACAGAGGACGTTGCTAAGGCAACGCCAGCCCAC
0.9486342684153652 TAAATGCAGTCGTATCAGCCACACAAGTTACAATGGCAAC
1 ACTAACACATCACCTTTGGACGCAGCCTCCGTTGCTAAGC
0.07952219636084727 TAGCAGCAAACTATTGTACACTCTCCATAGCAACGTCATT
0.7155715020354785 CATGTGGGCGATACGGTTTCTTGTACGTAACCAGGGTAAC
0.2428233684196742 CATCCTTATGCCACACGACCCAAGAACGCGTTGTCATGGT
1 CCCCTGCGCCCTTGCCTACGACGCAGACGCAGTCGGCCCT
1 GCCTGCCCCTCGCAGGTTCGCCCTGCCACCGCATGGCCTA
0.3730670878256698 ACCCCACCGGCTTTACCTCCTAGGACACCGTAGCCATGGC
1 CGAAAGACGACACTATCGCGTAGTCAGGGTTACACCTTTA
1 AATAAGAACTCCTCTTAGCGACCGCGTCGCTCGTTGCCAT
1 CGCCACCAATCTAAATGTCGACCCTACGAACACAACACGC
0.3064722862402783 CCGTCCCTCTATGCTTTCAGTAAACTGTTACTATGGTTAC
1 ACTGTTGCAGAGCGTAGACCTACCGTATCGTTACCACGAC
0.2794955688518487 CGCGACCCTATGACCGTAGCCATAGTTACCCCCAACGACG
1 GCCCCTGATGCAGCAGCATGACGTCTTACGCCCAGTGCGT
1 ATGGCAACGGCGGACGTCCGTTCGGGCACTGCGTCGTACG
1 ACCCCTGCCCTCGCGCGGTAATCCAACGCTCCGTCACCAT
0.06135176776676988 CAATACCACCAAGACACGTACCGACCGTTACCTAGCAACG
0.2697810164054056 TCGTGCTGCGTCAACCCCGGTCGGTTGTTATGGCAAGGCA
1 GCAACCAGCCTGCATTTCCACAGCAACCCACGGCACCTAG
0.9821315282411669 CCACACACCAGAGCGCGTGGGCATGACAACGCCCACCTAC
0.6405317645780779 AAGAAGTCCACCACACTAACCTAGTATTCGTAACCATGGC
0.01078830628332117 AGGTAACGTCCCCTGCCTATCATCACCTCGTTTCCATGGC
0.674586594132341 TGCCCAACACACTTAACTCCGAAGGGGCCGTTTCCATGAC
1 GCCCACGACAGCACACCCGCGTTGCTACTAACGACAGATT
1 CTGCAGCCACCACCTCGGCCGTTACCTAGACGACGGATCG
0.2699470651669302 TTAACTCCTGGTTGCCGTAGCAACCGAAACTACCCCGGCA
0.9487666487913115 AACCATCCGACTCGTTCCCCCTTCCCGTAACCAGGGCAAT
0.6949357356360921 TGCTACGTCAATTACGCGGAGGGTAGCATGGTAACCCATC
1 GATCTCGCCTTAACTACGCACGACACCTACAGTCACTACG
0.4853005107379106 GTCTCCATGACAACTTGTTGAATTCGTTCCCAGACCTTTT
0.4103197842156278 GTTTCCATGACGACTGTCACCTGAACGCGGCAGTTCCCCT
0.9448924629024431 CCCTATCACACCAAGACTAAAGTTCCCTCCCCGTTGCCAT
0.005095465452138923 CAACACGCTAAACGCTTAACGTTGGCATGACAACCATACT
1 GGCACTGCTAAGATCAACCGAACACATCAAGCTGCTGGAA
-0.02436623761855483 GCCCGGACACCGCGCGGGGCTGTCTACGCCTCCACTTTCC
-0.1521288647653489 ATTCTTGTACCGCGCCAAACATTGTCCCCTTGCTAAGCCC
-0.3535204650482832 CCATCAGTCACTATTACAACGTTCCACTCTAACGCAAGAG
-0.7397133447698309 TGCAGCGCCTAGAAACCACGGGCAGTGCGCTACCCCGCGT
-0.02012279860429254 TCCACCGCGCGCGGTGGGGTACCCTGGGACCGAACCTAAA
-0.007903417961855948 AAATTAGCTCCATGCCGGTAGCCCCTACCCACACCCATCC
-0.00613891475783399 CTTCAACGTTGCGCGACTTTGGGTCCGTTTGGTTCCCGCG
-0.2100402970075053 CCACAATTCTCCACTGCCGTGACACTAATGCGACGTTACC
-0.06546923247301314 CCCCATCCGCCCCGGGACACCGGCCATGCCATCCCAAGTT
-0.2874988834119738 ACGTGGCTACGCAAGTTGATAGCCCCTAGCGTGAGACGCC
-0.3550421074441611 TCCCTTGGAGACCGCCCGCGCCAGCGTGTCGCCACTATGT
-0.02653145798349451 CGCCAACCAATACAGCACCCCCCCAAGTTTGCATACTAGC
-0.4790489668188641 AAGGCCGACTCCCAACCTACCATAGTTACTTGCCCATAAA
-0.06244585727122106 CAGAAGCTTAAAGACGCGGGGCGTCATGCCGGCCGAGCTT
-0.00210916718802879 GGATTACGCGCCTTCTGACACCACGCCCCACACGAGCCTC
-0.0966764886956946 CTCGACTGCCCTGTTGACCTTGCACCTAATCGTCAAAACA
-0.2084553089303784 TTGAAGTTTAACAACTCGCGGATTGCTTGACAACAACCCG
-0.2265476357066467 CCTATCCAAGCACCTTCCACAGTGAGACGCGCAACCAGTT
-0.9265646763579917 CTCCGCGATAGTACCTTGCTATGACCTTAACTCGGTGACA
-1 ACAAAGTCATTTCGTGTTCACAGCGTTGCCACGCTTACGA
-0.1294462122737597 CCCGGCGTTTCTCTAGCCGGCACTACCAACCGTATGAGTC
-0.844470994584184 CAACGGCAGATTACATGACTACGGCGCTAATACTACTCGG
-0.7346566042701091 TACGTATAGGAGACCGCACTTGCTATGACACACAGCACAG
-0.5591423588993936 GCCACCACGATTACCAGATCACAGTCACTAAGGCACCATC
-0.002457307111554854 AACCCGCCGACCAGTTGACAAGAACCTAGCAAACCGTCCC
-0.249901397865035 GCGCTAAGCGACGCCCACTTACACGCAGCGGACCCATTTC
-0.3394666348103255 AAAACTCGGCGTCCCGATTGCGATGGAAACCGCAACGGCA
-0.3628244888266946 ATTGCCTTGCCCCAGGTAACCGCGTAATATCATTCCGCAC
-0.1648116280294236 AAACCGCACCGAGGCAACCCATCTTACTTGAGCCAAATCC
-0.1620608361517218 CTAGTCCTTAGCCCTCCCCTATTACAACGGAATGCGGACC
-0.4365378168665888 AATTCCAGTTCGACGACAGCCCAGCGCCAAGTTGCCCCGG
-0.1812173524391103 CCGACACATTGATATAACAACAAGCTCCGCCGTCCATATA
-0.02321476071405489 CGTTGAACACGCTGCGCATAAGCTGGAATGCTCTGTCCTT
-0.05737079093321416 TTTTACCTGACTAGTGATGCCAGGGAATTGAAGCGAAGTC
-0.08023758283482563 ACCTCCGGTTCCATGACATGTTAGAATTCCCCAATAGCCC
-0.1220305398206956 CCCCGTCCAACTATATGTTACCTTCTCCTCCCCACAATGT
-0.08208537460216425 ACTCCCGAACGAGCGCTGAGGCGAAGCACATCAAGGTAAC
-0.1339217591814542 CCGAGTCGCGCCCCTAACTATGACGTAATTTCTAAAACCC
-0.5845384601534164 GCTCATCCCCTTACTAAACTGCACCCAGAGCAACATGGCA
-0.03511705682958342 AGCCGACACCTCCCCCCACAAATCCAGAAAAACAAACACT
-0.1009462621728493 CCGCAGGCTGCTTCCGTCCCTATTGTTTTGATTAAAAAAG
-0.1030544639139602 ACAGACGCGTCCACTCACGACACCCACGTTAATTAGTATC
-0.07913560700244338 CCGACGCGCAAAGATCTCCTCCAAAATAACCAAGAGCCAC
-0.152041315501726 GACCTTCCAGTAATGAGCTTTTCTCTCCCTTCCGTAACAA
-0.7656862637406084 GGCACCTAACGGAACTCCGTTCCCAAGTCCCCCCGTTGCG
-0.8809905599445349 TCCATATCTTAACTCTGTTCGTTGTTATGCCGCGTTGGCG
-0.08399300946032179 TAAGTTACATCTGATCATTCCCACGACGTCCTGCCTGCTA
-0.2687629346777176 TTGTCATAACAATTTCCAGTTCTTTTTCATCAGGAATGTC
-0.3714481935264362 AGGAGACTAAAATACATAAGCAACGATCTGATAACCGAGC
-0.1693778172516144 TCCCACAGCGTGCTTCCAAGGTATCTCACCCAACGTCCCC
-0.3739526046629931 CCGTTGTGCTCAATTCCGTTTCCATTACCCATCAAAGACT
-0.849572177209729 TCTAAATGTCATCGCAACAGTTAGGCGCCGACTAACGTGG
-0.06531000021888331 TGGACTGCCGAACTTTGACTGTCGACGTACGCCGTTCCGG
-0.08062209829390149 TGGACCTGGTATCTTAACGACCGTGCACCTCCCACCCCCA
-0.1593915056249696 CCGCAAGCACGTCATCTCCCCTCGCCGTACAGAGCAGACT
-0.09303912196350583 TCCGCAGGGCCCCTGCAACCTGACAACTCCGTGGCCCTTC
-0.1484715948136771 TCGCGAAGACACGTCACTACTATGCCACCCTATAATGTTC
-0.3083326815079405 GCCGGACTTCCATGTAGATACCGTCAATCGCTATGCTCTT
-0.0223061380216673 TACCGAGCAGCAGCGTTTAGCGCCCATTATCGTCTGTTTG
-0.03840670605708227 GCGCCCCCGGCGGCATTTTAACCAGAACAATGGCCCCCCC
-0.03267053088366676 CGCGGTTGCCGCCCATCTATTGCACCAGTGTGTAGCGTAG
-0.04236121128877583 CCCACGGCAAGACAGCGGTATCCCGCTCACCTGCGGCCCC
-0.07178685683605948 ATGGCCGCGCCCGTAATCCAACCGTACACTGAGCGGGGAC
-0.1101720115916867 AAAATCCATAGCCAATCTAGATGTCTCGCCTCGCCGTTGC
-0.2203259813849733 AGCTCCGACCGTCCGCATTTTGCCCCGGCGTCCCCATAGA
-0.08880311635079467 TTCATTCGCCTTAACCCAGGCCGCTGCTATCCGGCCCGCG
-0.1144607649242769 CACTCTCTGAATGGCCCCCCGCGCCACCTAGTCATTACAT
-0.2676019122405028 CCCAACACGCGCGTTACCCATCTCCTACACAATAGTGACG
-0.1572694820856572 GCCCCGGCCATGTAAAAGGGCCACGTGACGCGCGCGATTA
-0.3937171346173781 AGCATACTAGAACCAGCACCTCAAACACGCAACCATGGCC
-0.3908926143617564 AAAGCTTGTTACCCTTCCTATGCGCCCTATAGTACCGGCC
-0.3186144211316496 CCTGACCACGGTCGCTTCGTCCGTGCAACAGAAAAAGGTT
-0.01965600964956884 GCGGCGCCGCAGTAGGCTGGTTGCCGAACCTCTCCCTTGA
-0.05507817345733888 ACAATTCCGAATGCTATAGCCGCCCAGCGCTCGCAACGCA
-0.6370695870746871 TAATCTCCCCACTCTTCAAGTGCCTGGGCAACCCCCCTGA
-0.2288774304806563 ATGCGCCCGGGTAACCCACCACCCTCCCCGACATGATTAT
-0.1894039344646115 AGCCCCAAGCTATTCAACGTTACAAGCACCGTTGACCCAA
-0.636712467741152 CATTCAGTTGGTGCTCTTAACCAAGCTGCCACGACAAGGT
-0.6516743023313811 CCTCCGAGCCAACGCACACTGTGTCCATGACGCGACTGCA
-0.04183683561136517 CGATATATCGTGAATTCTAAGCCACCGCAACACTCATGTC
-0.5229247990359601 GCGAGATGACGGGGCAGATACCTATTGCGTAGCGACCATT
-0.08964930248542773 CCACTCCCGTACTTAACAGATACTTTACAAGGTTACACAC
-1 CCTAGCACAACGCATCGCCACGGTAACCACGCATCGTCCT
-0.7667147783017139 CCAACCCAGGCAACGTCCGCCCCCGGCAGTCATCGATCAC
-0.08942833289938545 TGACCAAGGCGTTGCGTGCGCACTCAGACTCTGGATCCGA
-0.2591787308034781 GCCCCACGGCTACTATTAGGAACGCCGTTCTACAGCGGAA
-0.08446452503460736 ATCCTACACGTGAAGACCCGTTACACAGGAAGCCCCTGTC
-0.9830234500216658 GGACGTACCGGTGGTTACCAATCGATAGTCATGCTGCAAC
-0.06891664523621056 CTCGGGGATCACTCTAACCCTAGCCAACCCACGTGCCAAC
-0.0315310557007508 TCGCTGGACGATACGAACCATACTTCCGCCCCCCTAGCAC
-0.3571794132582497 GAAATTAGTTTGACCCTGGTAAACCAGTCTTCACTATGGT
-0.2055460655975403 CTCTCAACAGCAACGCCCACAAAGTCGCGACCGCAGCTAC
-0.5946793819845555 CGTGGAGACTCACTCTCTATCTGGAAACCGCCGTCACCAT
-0.4877773193237698 ACAAAGGTGATGGTCCAGTTACCAACCTGGAGCACGCAAA
-0.09549321240048682 CCGAAACCAAGGGACGACTACGAGGAAGCCATTCCTGGAG
-0.04290521266224528 TGGACACCCACGAAACTGTCGACCCACTCTGGTGACCCAT
-0.6305575706656331 CAACGCCCGGTACCAAGGATGGCACCCACCATACGCCTCC
-0.2755366527716882 CCGCGGCAACCTTAAATCAAACTCACGTTTAACACGGGCA
-0.05553883405165044 ACTATATGAATGAGTTCTGACCAAGAGAACCACGTACACC
-0.7780895100514525 GCTAACCCATGTTTGCCCTGCCCTTTGTTTGACAACCGGT
-0.002122405552596616 GTCAGCCCCGTAGCGATCCACCCTCTCTCACTCCCCACTA
-0.3360469659655972 CAAAACCCCATCGATACACCCCTAAGCCGTCCCCGGGCAA
-0.006899901920174195 CGTAATAACAGATATGCGCCGCGACTCGTAACTACTTCAT
-0.03872152097176192 ACACGTGACACGTGGGCATGCTAATGGTTTATAAAAATTT
-0.05672298427521703 ACCAGGTCGACAAGGGATACCCGTGCTGTGCGGGTCCCAA
-0.05670575907468764 TAAGAGAGGCTCAACCTATGCGTATCCACGCTCTCGCGTT
-0.1821143363845754 CCTCGATTTAACTAATGGACCGCCTAACCAAGTTAGGTAC
-0.2436360903450064 TCCGCGCAGGGCAACAACCCTACCCATCCAAGGCACACAT
-0.213054338276237 GAACCGAGCCCCGTAGCTAAGCCGCAGGTGACATTCGCCT
-0.1202709184498042 CCCTACAGACAGACTCATCGCGTACTATCGGAACATTTTG
-0.2408985293239796 AGGAACAACCGTTGTTCTCACAGGCTTCATTCCGCACAAA
-0.2651656057607014 CACCAGCCAACACCCCTGCCTGCCACAACGCTCCCTAGCG
-0.03129201656457947 AACGCCCAACTAAGATACCCATGATATCGGTGGAGGGTTA
-0.6143065964848266 AAGTGTTGCGAAGAGGGCATGACCTAGAGACCTTACTTCA
-0.04166329254955484 CTCAAACCCCATCGACCCTCCGCGTTGCACCTACGTCCGC
-0.1440178064192395 TCAGACAATCTTACTCCCTTTCCCGCGGCTACCATCACTG
-0.05192707757959048 CCAACCGCACTCACCTGTAGCCACGTTGCGCCACCCTACT
-0.07157074250166376 CTAATAAGATGTAGACCAACGTTGCGCCGGCGACCCACCA
-0.1191631547634983 CCCACAGCCCCATCCTTAACCGAGGCGGTTGTCTGTAACC
-1 ATGAGTGCGTTACTACTGAGCTACCTCGTATCCAATAGCC
-0.005140789930778756 CTCGCAGCCCGCTTGCCCTTAGCACGCTTCCTCCCCTCCC
-0.1053857634848056 AGGCACAGTACATTCTATGACCATGCGCAAGGATATAAAA
-0.1685504808072535 GGATAGCATTAGCTACCTTGGAGGCATTTTACCCGGGTTA
-0.0394036508781118 CCCAACGGGCCTACCCACATTCGCCCCGGCCCCCCCCTAA
-0.9471597704388048 CACCCACGACTCGGCCTGTTATGGCAACTTTTGCATTTTC
-0.3728502923101449 GACGGTTACCACGCACCAAAAGCCGCTACCGATATGAGAG
-0.1048233558353744 CAGCCCCGCGAGGACCCGACACGATCCCACAACAGCGTCC
-0.08701957153091415 ATCCGGTCGTTCATTACGTTGCAACCAGAGTTCATTGATC
-0.1577118815308223 CGATCCCACTATCCCCGCCTTAGCCACGCTCATTACACCC
-0.06307119619902796 CCGAGGAACGATCTTAACAAACGTTACCCACGCCGTAGCA
-0.1394712961305721 ACTGCCCCGAATGATGGCGACCTACCCAATGCAGTACCTG
-0.05284160958589984 ACTCCACCTAGCCTTATACTAGCCATACCCATGCCCACGC
-0.1442615865878545 AGTCCGTCTCCGTACATCTTCGCTCGTAACCGTTAACCAC
-0.08649223937267356 ATGCCCTTTTGTCCGACGCCATAATACCAACAGAAACCAC
-0.127820246560041 CCCGCTATGCTATCTGCATACCCTCCGAGGACACAACACA
-0.1150968446923589 CAAATCTTGCTAAACAAGGCGCGCGTACCACTTCCAAGCA
-0.1421231581603806 TCACCGCGGGTAACGTGACTCGATGGCAGGCGTACACCCA
-0.1100419093382977 TGCACCATGACCCCCGCCCGCCGCCTGACCGCCAACGCAG
-0.2397267096589811 TGGGGTCGTCCCCCCCGCCCACCACCAGACGCAGTCCGCA
-0.3907691138521363 CCAGTACCAACGTTGCACCGACAGCCCCTGGTACCCTCCT
-0.06428049141740012 TAAGGTAGCAACAACACCCGCTTGACCACTGTGAAGCGAC
-0.6664120425666358 GCTTCCACCGTAACAGCGCGTTTTCCACGGGCACCCACCC
-0.8463249932112233 ACACCGTCGCTAGGCAGGCAGTACGTCGAGGAGCGTCTCA
-0.08284838706593813 GGCATGACCACGTACTGCCCAGCCCCAGCCGGCTAAGAAC
-0.6485430121028762 AATCCCCTTTCGTTACCCTGCGTTACCCATTACGCGCTTA
-0.2052560812253231 TGACGTGGCGCGGAGGCCGACCCGCGTGTTCCCTCTCAGC
-0.1612625437351794 ACCCTCGTCCCCCAGCACAACGTGCTGCTCGCCCGAGCAA
-0.9252217065989461 ACTAAATTGTGGTAACGGATACTATGGAGATGACACACGC
-0.02372274060193465 TCCCACCACTAGTCGGAATCTCCCTCGTTACGAGCCCTCT
-0.01259964372634826 GTCCAGCCGTCGCAATCTGCCCGCCCCCTGTCTCCTACGT
-0.5628022064921642 CCCGCCCCACCGAGCAACAATGACAGTCACCTACCCCAGA
-0.1580586114327544 GCAACCGCACCTCGCATACTCGCCTGTATCGTTGACACCT
-0.1727917670625759 GACATACAGGCGCTATACACTGTCCGCGTTAACACAGCTA
-1 GCACAAGACACCCGTGGTTACTACGCTTGTTGGCTTAATT
-0.390817398629179 CGACGTTATCATGAAGCTATAAGTAACGACACGCCGGTGT
-0.2484848311834201 CTTTCCTAGTCACCAAGATACGCCATCGGGAGACATGCTC
-0.00764261735104284 CCCCGCACCCGGCAAGTGCAAACACCCACACGCAAGCCGA
-0.234850564130938 CACCGACGCGACCGTCCCCGCCAGCCCCCCGGCGACGGCG
-0.1115249925052426 CCATCTGCGCGTGTAGACGAATCATCTTTACGCGTTCCCC
-0.1749538105025513 AGCCATCGACAATTCATCACAACGGACATAGGCCCTCCCC
-0.1286237425075276 TCGCAAGTGTGCTGCGTCCCGTGCCCTAACTTCCCATTGC
-0.07895824684512555 GCAGCAGTGAGTGCTTCAGCCCGAACTAACTTGACGCTAT
-0.1802721637988166 TTCATGCCAAACGCGACGGCTTGCTAGCGCAATACATGCA
-0.3252272853852906 AAAGGCAGCCAGCGCAACAGCCTTACGACCCCTCAACGCC
-0.1067301893405184 CAACGACGATTGACCAAGGAGGCAGCGCGCTGGCCCCTCC
-0.4792758743383864 ATGCGATACGCCAGTTTCCACGATGCGTTACCTCCGTACT
-0.2585934484879059 CCCCTTCACCTACCTTGCCACAGTGCAACCTTCGACACCA
-0.2102519467937556 CACTAGCCGCCCCATCGCAACTGACTTGCATCCCCTACTG
-0.3373729318903924 TGTAGTACCAATCCGGGCTCCCGTTCGCGTCGTCATCCAA
-0.01114393199184814 CTGTATTATCGCCACGCCACCCCAGCGACGTCGACAAGGG
-0.07999478652587248 ACCGATACGTGACCCCCCGTGCCACCGCACACGTACTATA
-0.004656400753203476 ACGGGTGGGCATACTCTTATGATTACCCTCGTACTATGGA
-0.1983556347912048 CAACCTGCCACGGCCGCCGTTCTCCCCATGCTATCCCCGC
-0.6035125669068165 AGAGCCCCACTAAGCCATGACAGCAACGTGAACTCAATTC
-0.1634143322716577 CCCTCACCCATTTAAAGATTGCAACCCTATAGAAACAGTT
-0.140067448908175 ACCCGATACGTCCCGAACACTCTGGTTTCCGCATTCGTCC
-0.2409247106126882 TCGAGTTGCCCTGATCATAAAACAGTAGATCGGATAACGG
-0.1130710703024689 GCGGGGCGTCACGTATCCCTACAGCACGTACATACATCCT
-0.04578654786536471 ACACTACCAGGACCAATGACGATGCCCGAGGCCTCCCATC
-0.4050909470759878 ACTACTTGCCATATCGGGGACCGCTAGGGAACCCATGCAC
-0.1618470510010337 CCCAATGATCTCCCCATATGACCACGACCCCCTCCAACCG
-0.3893510792305787 CGCTGGTTTCCATCCACCTGCGAACGCGCGTAGGAAGACC
-0.2064658037997633 CCCTCGTTCATCGCCTTTACAACCGTAGACCAGACGCAAC
-0.1659267404269105 CATCAGACGTTAGCTACCACAACCGAGGCTACCCTCCGAT
-0.573778046927106 CCCCCGTGTCCCTGCCTTTGCAACGGTTTGCCTCAAGTCC
-0.1032950437661774 TTGCATGCTGACATGCCACGACGTAACTTCATGACCGCTT
-0.4239639185615023 GATTTTACTTACAGGTTTGCATGCTAACGTCACATGCTTA
-0.07896246989217394 TGCTTCTTTAGCAGCTAGACCAACCAACGCAGTTCGCTAA
-0.2544970947619437 GCGTAAAGTTCGTACGCTAATACACACCAATGCCGACCAT
-0.01669175791170483 CACCATCCGTAGTTCCGAAGTAGTGACTCGAGTCAGCCAG
-0.1107853744825387 AAGGTGAGCACGGTAATTCCTTCCCTACCACAAGTTCAGG
-1 AAGCAGTTCAATCGTTGCCCTTGACCATGGCGCGGAACTG
-0.01492196556894894 TATGCGAAACTGGCCCGCGAGCGTGCCAGCCTCACATTAC
-0.06553739231349628 CACCCGAGCAACTCCCGTTTGACCCTGCCCCAGCGCGGGA
-0.4268707124420895 TAAGGTCGCGCGCTATGGCGAACGAACGACAACGACCGCG
-0.3510970476174815 CCCGCAGCTGCCCACCATCAACCACCTGCAGGTTGCTCTA
-1 CGCGTCCACAAGACCTGGGACGGGTTGCTATTGATAGACC
-0.8985570883407143 AGGCATTGACAACGCGTAATCGCGAAGAGGCTCGTACTCG
-0.0921509462924299 CCCTACCACCCGTTCCTAAAGCGACTCCATTTACTAGTAT
-0.2568110508029827 GACCACGGACCAGCGCCAACTGTTACCTCGTAAGACACCC
-0.1847596158071328 AGCGGTACGCACGACACAAAGTAGCTCTGGACAGTACTGA
-0.2471576740366073 AACCTCGCAACGCTGGCTCCCGAACCGTCCAGGCAGCAGC
-0.1688362135084649 TAAGAATAAACCACGCTCCTGTTTCCATCTCTTGCCGAGC
-0.8256165436334727 ACCATAGCGAAGGTTGACATAACATGAATCCCCGCGGAGG
-0.05859258432092635 TCAAAACTAAATCACAGACGCAAATTACCTTACTTACTAC
-0.4403753813893838 ACCACGACCTCCGTTCCCTATGGGCACAAAACGGATTAAA
-0.1568661916972917 TAGCACTGTAACTAACGCGCATAGGAGGACAGCAAGCGCA
-0.1407222702955556 GACCCAATGCCAAGCAAGTCTCAAGACTCGACCATATATG
-0.5823067330719587 ACCTCCCTAAGAAATATCCATGGAAAGCCGCTACCGCAAG
-0.3180795496024882 CGCGAGACCCGCGGGATACGCATTAACGCCTGGAAACCAA
-0.8012863475027538 ACAGCAACCAAGTGCCCCTCCGTCTCCAAGGATCATATTA
-1 CGATCTCGGCACGCAGCAACGGTAACCCCCCCCCTCCGCC
-0.0444185853287648 AGTCGGACTCCACCCTCCTGGAAACCCAACCACCCCGCTA
-0.1548216148348716 CGCACACTAACCCACTGCTACGCGACCTTGTGGCCAGTAC
-0.1163165871319717 CGAGCTGAACATCCTGGACGGCACCATGGGAAATTTCTGG
-0.3080107682993324 AGTGCCGCCTCAATCGTAACTGGGGGGGGCGCGCCTCACC
-0.6732951672388781 TTCAACGTAGCAACCTCAATCGCACCACAGACCTCCCTCT
-0.6546995191625997 GGAAGGGGCTGACGGTTGCCTAACAAGCCCCGCAGGTCGA
-0.1681073396167712 GTTGTACGACAATTTCCACTGGCGCTACTGGCAAACGATT
-0.04963898194515104 AGCCCACCTTGACCTCCAAGCCGTATTCTATAGCACTACC
-0.1062174022623546 TTACCATGCATAACTTGCCGCTTCTATGCGTCGTCGGTAT
-0.1918201676767536 ACCCACCCCCTAACGCGCATGTGGGACCTTAGTTTAGCAT
-0.4838517507094713 CCATTTTGGCCTCAACTTCACTGCTCCACCGTCACCATTC
-0.1224066819059128 ACCACTACCCCTCACGCATGATACCGCCAACCAACACCCA
-0.0579566435936683 CCCCTCATCATAAAACAAATAATATAACCAACCGCTGCTC
-0.4036935844561537 CCTCCACCACGGTAGTGAATTCATAACACCATCGCAAGGC
-0.1236253424782549 CCCGCACTGCGCCAGTGCGCGTGAAACGTATTGCCAGGGC
-0.2289789629958442 TACCGCAGAGCAACCGAGGTTCTCAACCTACGGCACGACC
-0.1292245281309094 AGACCTAGCGAAGGACAGCGTTGGGAACAACACGATCGAC
-0.1265984934816322 GCACCGCGGACGGTGCCAGAGCATCCAGTCTTCTACCATC
-0.8431690725092887 CAGCAACTACCCCTCTCTCCCCGTAGCCCTCGTTACCTAC
-0.3035270976103758 GTTTGCGGCCATCACGTCTTACCATGATATCTGTGTCGCC
-0.004415627578095689 TGGGTCGCCGCACCATCCATCGAAACCTGCCCGCCACATC
-0.05967948128371672 TGTCGCATGCTTGACGCGCGACCGCCGCCAACATGGTTAC
-0.8976852203643491 ATCTAATAATCGCACACCTCCCCACTAGGCAACACGTTTA
-0.02424268574254443 GCTGATTTACCAACCAATGGCTGACCTCACATCTCTCGGC
-1 CCCCTCGCGCAACGGTAACACGTCGCTTAGCGACCTGGAC
-0.1868178780566486 CGCAGAAGGTACCAATTTCGCTGACGACACAACCGTGTTC
-0.5166422479255056 AGATCCAGACCCGATGCATCACCACCGTTGCCTGTTAACA
-0.1756378321775116 CTCGACCCACAAGCTGCACCAACGCGTTCATGGCGGACAC
-0.3113954691643745 AATCGGTCGCCCCTCCCCCCCGCCAGTAACCCTCGGCCGC
-0.04766260423127287 AACAGTATCCCCGGCCTAAGCGACCCCCTCGTCTCCCCAC
-0.2212315129924781 CAACGTGCACCAGGTTTCCACAAACCCAGCATTCACCATG
-0.2839968090584645 TATCCAACGCAACCATACTAGGGTAGATATGAAGCCTCTA
-0.05214781194995547 TTATCTGCACCAGATTCCGCTACTAGAGCATAACCTACTC
-0.06101950000970114 CATCGACTGTGTGGCCCCGGCGCCGCGCGGACGAACCACA
-0.7860215367870362 AGAAATAGCAACCGCCAAACATTTGCCAATTCGAAACACA
-0.1949165452168179 CACAGAGAAACGATGGACCCACCGCATCGTGAGCCGTCTG
-0.01232981039459312 GCCCGGGGGACGACATAGCGCGCTCTATTGGCTCCTGCCC
-0.2275610466195178 AGCTCGCGCCGTTTCCGTCGAGGCCATGCGGGTTTCTATC
-0.6883296871985698 TCACGTTATACTACACACGTAACCAGTATCAACCTACAAT
-0.1760558553207389 GGATTGGGTTACCTTACCCAGCCTCCCTACCACGTCCTCC
-0.03048453744856472 CCAAAACGACCCCGCCCATCCACGATAGGAAACCGGACTG
-0.1849702058981168 ACCCAACGTTGCTCCTCCCCTAGACGTCGGACCTGCCCTT
-0.7108814751940761 TACTCCCTCGACTACAGTGCTGCCTAGCACCAGCCGTGTT
-0.02938188825027589 GCCTTCCCGAGGAGACGACACGATATAGTAATCCATCTCC
-0.2617787807148773 GTTATACGCCAGACAACGGTACCTCGTGTCCCACAGACCC
-0.7751937429650334 TCTCCGGTTAACCCCCCTGGATGGCCACGTTGTTAGGGCC
-0.280308922998001 CGAACTCCGGGCCCTACATCGAACCCGGCAACGCGCCTAC
-0.01259503097526332 AGCAACCCTCCACTAAAAACGACCCACCACGCCCCCAACG
-0.3007105942150423 CTCACTCGCCCGCGCTAGGGTACACAGGTAACGACGCTTC
-0.6763156308576546 TCGGTCCCTCTGGTTGCCTTCACCACCACAACTTTCACCC
-1 CCTAATCCATGCAGCCTGGCAACCAACCCCAACGCGTCGC
-0.06476056707193754 GACATGTTACGACGCGGGTTCGCCAGTAACACGTGCGAAA
-0.2858711168011125 GAGCAGCACCCCGCCAGCTCGCGTTGCCCCCCCATCGCGC
-0.460214187083137 ACAACTAAAATATCGCTGTTGCCCTGCGAGACTCCCAGTA
-0.02986643922724741 GGCGGGCCAACCGCCCACCGGTCAAACGGCATAGCACTTC
-0.03203586259685164 TTCAAGGGCGCAACCTTGACTGTCCTCTACTATTAGTACC
-0.02275725564406687 ATCTCACATCCGGTATAGCTATAACACCCCGTAGCAGTGC
-1 CAACGAGAAGGCCATATCCCAACGTTCCTAGGACAACCTC
-0.02666276272574989 ATGCTTCTTAAGACCGTGATGCGATTGCTACGGTTTTGGC
-0.1230318868067165 ACACCCCGATCACCAGCACGCAACGCAGGCGTTACCTGAG
-1 ACACCTACGATCACCCGTAACCATACCTTCAATCCAACCA
-0.02135986748995573 AGCTCTTGCGATGGTATGTGCGACGGAATGCTATCGACCT
-0.7165126336649087 AGCGGACATGCCAATCGCAACCGTTCTGCCTACTACATGG
-0.7778840008557192 TCGAGGTTGGCGTGTACAATCGAAGTTGCCTTGGGCCCCT
-0.09988096463098009 TGGCATGCCCCTCGCCAGCTCGGTAGTGGCCCATCGTCCG
-0.2864811497180689 CAACGACAACAGGCCCTCTAACGCATGCTGACGCGATAAT
-0.3198049154255026 GTGCGACCTGCGTTAGCAGGCACGCAATGCCAAAAGAACG
-0.03814538577080412 ACGTGCGGTACCAATGACCGATACGCAAGCCCACGATACG
-0.16328971579084 CCATGGATCACTACAACAACTTGCGTGTGCGCGCATGGAT
-0.02472314325783865 GAGCAACACTAACTTAAAACAAAATACCTACGCGGGTCCC
-0.3319231549914453 GATCCGCTCAGCAATACTGAGCTTTGTATCGCCAGGGGGT
-0.08423325897744458 GTCACAATACCGCTTGGTCAAGAGAACGTAACCACTCCTA
-0.03243170435652248 ATAAGCAGCTGCCATCGATCTACACCAGGCACCACACTCG
-0.05451041413924877 AAAACCGTATCCCGAGGCACCCTTAGTACAGACCCGCTTT
-0.2850309480043633 ACCCTGCCGCGGCAAAGCACCAACTGACTACTATCGAACG
-0.2334090090045887 GCAGGCCCGGTGCTAATATACCCAACGATCTCCCTCACGT
-0.009666248756508098 CATCTCCGTCCATAGCGATGGATATCTCCACAATCTAAAA
-0.01530864687419046 CGATCAGACCCACAGCACCTTTCTTGCATACACCTACCCA
-0.205712920515588 TTACGACATTCGCTCATTACGGACCGTCAGCGACGTCCCT
-0.007645167022604397 ACTCTAGTTAATGTAAAAGCCCGTCTTCAAGGATGGCAAG
-0.005165982080613299 TGCCCCAACTACAACGGCCTACCGCCGTTTCCGTACCGAA
-0.06605038740589939 GCCGTCGGCCGAAGAGCACATCTTAGCACCGGCCGTCTGC
-0.1675984875079486 TTCCACACCCACTCAGAAACGCTCCGGGGTCGACATAGGC
-0.2268196091697499 GCACTCTCCTCTCAGGTTACTCTGTAGGCCTGGTACCCTC
-0.04107796943959368 TAGAAATCAGGCCACCGACCCCCACACTAACCACCACCGA
-0.03221990157422842 TGGGGCCATTTAGAAGTCAAATCATGAATACCAGCTTACG
-0.1505170082701768 CCGGCGGTCGTCCGGTTGCAGGGCGAACACGATCGCACCC
-0.2596017848800211 ATGTCGATGCTCATAGCACCCCGTCCCTCTCGGCGGTTAG
-0.8678055719688736 TTTCTTATTGGAAACCACGGTGCTGGGTAACGAACGGACA
-0.03968525032656315 CCCATGCACATCGCGTTGCTCTTACCTCTACCTTCTAACC
-0.1731603351864373 CCTTCTACTCCGACCACCCAACCTAGCACAGCAACCCACC
-0.5829135680552217 TAACTCACTCACCACCGCAACCACGGATTCGCTGTCTCCC
-0.6605623275175928 CGACTCAGCGCCCAACCATGCCTAGAACACGTTGTCAACG
-0.08761500049315959 CCGAGCGATGTCTAAACGCATCACTACGACACAGCGTGAT
-0.01336742509724645 ACTAACACCCAAAAACCATCCTACCTACTAGCATCGATAC
-0.1510742278094941 ACCTCACCTGAAGAAGAAAGATTTCCCTAGGACACCAAAA
-0.2901465887992721 CGCCCTGTGAAGGCGGGCAATTCGCTGCTTTGCCAACCGA
-0.2032868992090077 ACTGCGTAACTATTCTCTTCGCCCAACCTACGCGACATGT
-0.1434659215644986 CGCTAGAGCCAGTCTAAATCACCGGCGCTAGGGCTACTCA
-0.7638769910721682 AGACGTTGCAATACCGTTGCCTCTACCCGTAAACGATGTC
-1 ACCGACCCATCCCGGTCTCAGAAGCTGTGGCAACCGCGGG
-0.002906447009119005 GCCCTCCTACAAGATACAATGAGAGCATTCGCTGGCCGTT
-0.001808820937309794 ACGGGGCGGGACACTCTCTTGCAACAAGGATGAGGGAACT
-0.2563600269657833 CTGGTCCCCCATCGCGCGTGCCAAGCAAGACTTGCCGTAA
-0.7156127991726718 TTCATGAGCCATAGCTACCGAGACATAAACAAAGCTCGCA
-0.01324594216394876 CTATAGCAGCCTAGAATTCGTGAGCGACTGATATTGGCTG
-0.4822133715133226 GTCGAAATTCGTTACCACCGTTGAGTAGACCACGAACCAG
-0.1648753448693531 AAGGGGCCAACGTCCTGGTTCCCGCTAATCGATACCTAAA
-0.2487095096836342 CCGGTTGTAGACCATCGTTCACTAGGCACCCAGGACAAGG
-0.008275299927020606 AGCACCCTTTGCTTTGTAGGCGATCCAGGCGACCCGCGAG
-0.09706972908627226 TACAACAAACACATCTTTAGAGAAGTAACCTCGGACCATA
-0.5944797701397386 TTCCAGCCACATTCTACTCTCACCCAGCAACCGTGGCAAT
-0.5128995956984734 ACCGGCTTTTCGTTGCACGATCGCCACAGCAACCCCATGC
-0.1448512176501561 TGGCCTCCTATACGCTGCTATTAGAAACTTCGTTTATATG
-0.7629571595861762 TTACGTCTACCATTGTTATATGACACCATGCAAACATCAA
-0.1514881940098612 TTGCTTTTCGTGCCGGGACCCTCTACGCCTTTGGTTCTGA
-0.8860863444776713 GGCCTCCCGCTGTTACTATGCTGAAATAATTGAGATCCCT
-0.2047007711435112 CTCACGCAACCTCCCTAAGACCCGCCATTACAACCCTCAT
-0.3443383244383718 TCCCCTCGGCCCTCGTCGCGTCTCCCTGGACACATGAAAC
-0.01229215796965888 GAACTTTCAGGGGCAACATCACTCACTACTTGCCCCGATG
-0.08636446012182598 AGACGTTGTGGCGCACGTGCCCCGCGTATGCGTCGGCCAC
-0.2808811439705584 ACGCCGCGGTAAACACCGTCCCCCTGCCCCGTTTCACGTT
-0.5452073949883434 GGTACTATACACCAGCGATCTGACCCCTAGTAACGCTATT
-0.5146664017693074 ATTGACGTTACCTAGAGGGTTCCCTCTCGCAAGTTGGCGA
-0.08777791267495463 TCCCCCAACCATCGAGGCTCAACGCGACCGATACAAGCAG
-0.3683182787672674 ACCGCGTGCACGCGAGCTAAACCCGTTACCCAGAAACTCA
-0.05692484760806789 ACCCAGCACGTTCCCAGGTCCTGCGCGACACCTTACCACA
-0.03736455093486516 ACGCTGACAGAGCCAGTAGCCCTAGCCTCCAAAGAATCTC
-0.05818915275798618 CATGGAGCAGTGATGCCAAGCTCAGCCTACGTTCCCAGGT
-0.6841406497369007 TGCGGTTACTACGCCCCTACGCAAGCGCCTGACGACCACC
-0.002405560517865357 ATACATCGAAACGATCCAACACCCAACACTCCGCAGAACC
-0.04120453396080356 GTCCCACACCGCACCCCGAACAATATAGGAGCGACCCACA
-0.1785189437728649 CACCCGAGGACAGCGACCAAAGTTGACTACCAGCCTTGCA
-0.248874093117753 CCACGGTACCCAGACGGACTGAAATACGCACCCACATTCT
-0.329548555516454 CTTGACGCGCATCGTCACCACCTACGTCTCCACGACTCCC
-0.7403467276773114 TCACTTCCCTCCGTTACCACACAGACGACGGCACGCGCCG
-0.8381940106290729 ACGCCGACCTCTGTCCTAACTACTCAGCAACCGTGTTTAG
-0.2183697981979373 AGGGCAGCACATAAATTGACAGCCCCAGGGAAACTCAAGG
-0.04967942367073851 CACCCAATCACTATGCAAGGCGCATCGAGGACCAACTAGA
-0.02819235276686352 GATACGATCGCTACGGAACCAATAAGAGGCACCGTCCGAA
-0.09072689808905833 GACCCACACGTCAGACCACAGGGCCCGCGTAGCTACCCCC
-0.334583774193261 TGGCTGCAAAGACCCACAATTGACAACGGACAACTCAGCC
-0.05652368355773645 ACCGGCTGCTATTTAACACGAGCGTACACAGCCTCCTCGG
-0.2145240924145867 ATGAACTAGCGACCAAAGAACTACACGATAACTATGCCCA
-0.1363822794934832 ACCCCCAGGGCATCGATAACGTACAGTCACACCTTCCCCC
-0.2812021362278455 CCGACACGTTCACTATAGACGTCCGAACAACGAAACAACA
-0.148135236057746 TCGTGAGCCTAAGCACAATGTCAGGACGCTGTAACCAGCA
-1 CTATAGAGTGATGTGACAACGTACCACCGCGCCGTAACCC
-0.8817576307407471 TTCCTACGTAACGATCTGTCATAGAAATAACTCCGTTGTG
-0.2025535444600209 GAAATAACGAAGGAGCACGTCCCCTGGTCAACGGACTTGA
-0.148752769234347 TGGCCTACCCCTTGTTGTTATCTGTCCCACGTATTCCGCG
-0.4497711698609734 ATCGCTCCCTAGGCATCTATGCACCTAACTCCCATTAGCT
-0.04107589472382334 GACTTCGCCTGCGAACCCCGGACGTTACTAAACCACTCCC
-0.2511911095578539 GATAACTGTAAATCTCCTCAGAGCACAACCATGACATCGA
-0.0278011069497632 CAAAGTCTGGGGCAAACCGCTACAAGACGGTTGTCTAACC
-0.2273497543621866 CAGTATAGGGCGCGGAGGAATTGAACCCGTCGCCACGACT
-0.5567232413353569 CTATTCGCCTGAACTGGAGACGCCTTGTTTCCTTGGGTGC
-0.1273593572769969 ATGCAACGTACAATTAGAGCACGCCTTTTGGAAACGAATC
-0.3800361219354254 CTCACACCTTAACAAGACGCCCGGGTTACGCTCTAATCCC
-0.2527924580579619 AGACTGCCGTTTCTTCACACTATGCTACACCAACGCCGCT
-0.09256792444231272 TCAAACAAGGAACGCCACTTCAGGCTCCACCGTCGAGCAA
-0.2014120074250846 AAACCCTAGCTAACACACCGCAGCACATGCCGTAATCGAC
-0.3028701076380646 CACCGCATAGACACCACACACACGCAGGTGCGATAGCTGG
-0.241700203591453 AAGCATACCAACTGGACACCGCACCAGCAAATCAAAACCT
-0.6087797323006063 CTTACTCGGACGGTTCCCACGGCACTACCCACCGCGTGGA
-0.01648478305057638 ACGTCCTTGGTTATTAAGGATTAAAACACCCGCATCCTAC
-0.05225232935851397 CAGTAACGCCCTCTACCGGCAACCTTAATGACGCATAAAT
-0.1705867694970149 CACGTAACCAGCGCGCGACGACACCATATGATCCCGTATC
-0.06342086762414763 AATAAACAGTACTCACGCCAACGGAAGCATTCAGCACAGC
-0.3672319059811553 CCCGGGCCAGGAGAACACTACGTCGTCAACATTCCGCAAC
-1 GCCCTCCTCACGTTACCCTTAGCAACCCATGCCCACTCCT
-0.1783458214301971 CACTCCGTGCGGCCGTCACAGCATAGGCACCTCGCGACCG
-0.04528823877300148 CCCCACGCCTACACCAACGGCACACCAGCAACCCTTCAAC
-0.02392010571576477 TCACTTCGTGCTCGTCTGTAACCTCTAGTTTTTAGAGCGC
-0.1178712940017474 GGAACCGTGTAACTAGACCAGTAATGTTGTCGTGCCATCC
-0.5453482566767975 AGCGCCTGTCCCTGCCCGCAAAATGGCAACGTTAAATGAG
-0.004169902977372459 AAACCAGGTGAGTGTGTATCTCAATAACCCTGGCTAAATT
-0.01708871292843765 TGGCCAATAGCATTCACCCTACGACAATCACATATCGGCG
-0.3244783957864426 CCAACCGATCCGTTGCCCTCGACTCGACTGAATCCTGGCC
-0.04388742636759838 TGCCCAGCCGCAACCACTCAGCTCCCGTCGAGGCGCGCTG
-0.2341839137161271 CCCCTAACGCCAGACCAACGCGGCCATCCCGAAAAGGTCT
-0.1703564469893769 AACGGATGCTGCGATGGTGGCCACTTCGACGCCCAAATCA
-0.2715248521142158 CGCCCTCCTTGCTACTGTATGCATTTGATATATCAACCGG
-0.005206287949406541 CGCGTGTGCTCTATACTTACGGGATGTGCGCTTCCGTTTA
-0.1439845727874438 CTCCTACCCATGACCTTCCTGTTATCAACTCTTACGAGCG
-0.8639784543541857 TCTGTCCTACCCACCGTTTTCCGAGCAACGGTTTTGTAGT
-0.01229101746712602 CTTCGCTCTGCTCGTGTAAACCTGCCCAAATCGCGTCAAA
-0.1327922203923489 GCTCAGATCTACACAGCAACGTAAGCCCAAACAACGTCAG
-0.4597594075412314 ACACCACGCCGCACCATGTGTTCCCATACCGAACTCCAAT
-0.7973708661101601 ACCCATGGGCACAGCACAACCACTGTGATCGTTGCCGCTA
-0.3004308723635926 AGCCCTTTCCCCTCACCGCGCGCATTGCTAGTTGACCTGC
-0.1832121035157762 CTAAAATGTTATTCGACTTTGCTGTTTTCATAACCACACA
-0.2176828036003168 TATGTGCCCTTGTGCCCCCTCCCAGACAACCGGTAAGTTA
-0.1191846872767073 ACCCTGCTTCGCTCCACGCGCATATGCTCCCCTCCCCGCA
-0.7201600422455093 CGCACCGCCTGGCAACCGACTACAAGCCGCGAAGAACAGC
-1 CGGATGTTACAATAAATTTTGGTTGCCATGATTATTACAA
-0.006914554056939955 CCCTATGTATCCCTTAGATATTCCTTATCTCCGTGCCCGG
-0.1271428850425279 GACCAGCTTCCCTACGAACCCTCACGCGCTCTTGCACAGC
-0.0594192177791677 AACAACCACTCGCGAAAACCCTCCCCGCCGTTGGTCGCGT
-1 AGCAGTGCATAGTAACCGCGGCTTTATAGTAAATCAGTTC
-0.2164638622040483 CTCACCGGGCTGCGAACGCACAACCCGGTAGGCAACATGC
-0.4258542724386952 AGGCGACGCGACGGTGACATATCAACCACAGTGGGAACAC
-0.5395986130118702 ACGCAAAAGACTCCGACCCGCCCCCCCGTAGCAACTCTCA
-0.2577940458755857 CCCCTCAGCGAAGGCAACCAGCATGCCCGCACCAAATACT
-0.4507360655783272 CTGTATTTGCTATAACAGCGCTCCCGTCACCCGACCCCGG
-0.05659522265287613 GCACGGACCACCCCGGACGACCCCGCGACCATCCGGTCTT
-0.16402422271696 GGCCACCACCTTCCCCCTCCGCAACCAACCGTTCATTCCC
-0.01369536561676071 GCAACCTCACTCCCCGACCAAGGACCCCGTAATAGCACCC
-0.005777179519310968 CGCTGGCAATCTCGGACACCTACTCTCGTGAGCACCACCA
-0.1506235762273669 ACCGCAACTCAGCTTAGCTCATGGCGTTTATGGAAACACA
-0.4290171345038488 CATTACGATAGTGCGACCACCGAAACCTTGGCAATTGTAG
-0.05334764673616114 CATTTCGCTGCACTGGGAACACTGCATAAGCCCTTCGCGT
-0.03740359020282314 CCCGGCCTTCATCTAACCCCGGTATCCCCTGTTACGAACA
-0.1662404856801056 CCCCACAGCCGCCCTCTCACCATCCCGTCCCGGCAACCCC
-0.1079491950675535 ATCTGGCCTACGCCAACTGGTGGCTATCCCACGATCCTCC
-0.9719510557370298 CCCTGTGTCTATAGCCACACCCGAGGCATGCCAACCGGAC
-0.9418785527407442 GGAACTTGTAACCCGGTAACCACGCCTTCTGTTACCCGCT
-0.09793706397275631 TGGCAGCGGGCATGCGACGGGACCTGAGCCGTAGTTAATT
-0.7365065723301332 CTAACTGCCGTGACCACCCTTCCACCGGCTACTGACGACT
-0.02724555424372539 CCCTTCTACCTAACGTCACCCCAGCGCACTAGGGTCCACT
-0.2692855884152198 GCGGCGTGCCCGGCGGAGGCAACCGCTAGCCCGCATCCCA
-0.0792996176381994 CCCCGCAACTCCTCAAAGTACCTACTACCAACGACCGAAT
-0.5078235961046107 CCCCCAATCCTGCCCGATCATGGCACCCCACACTGAACAC
-0.4190138616266968 AACAGCGGGCCACCCCGTTTCCACCTCCCGCGTGTACCTT
-0.4664550211775642 CTATGGCACCCGGTGCGTTTGAATCAACCCGATGCCAACG
-0.2687666935714954 GCAATGGACGAGCTGACCATCCACACCTACCCCTCGTTAG
-0.2798193955810958 CTCATACGAAGGAGTCGACGTCGCCACGGGCCTCCGAGCC
-0.004239283193813727 CCCGGGGTAATACCTTAGTCGCCACAAGACGAAGCTTTCA
-1 TATACGGAACCATGGAACCGTATCTACCGGCGCGCAATAA
-0.2751471197609517 CCCAAATAGCAACGTCAAAGGCCACACCCGAAACATCCGC
-0.1075148902924588 AAGCTATCCCACCGACACGCGAGGGGCCACCTCACCTCGG
-0.03978398802468482 AGGGACGCGTCGAAACCACGGTTCGGAGTACGTCCCTTAA
-0.04538556835297205 CTATAGAGACCTCCCACGTTCTACAGCACACACTAAACTG
-0.6958125753325877 CCAGTTGCTAGCGACCTGTATACCGCTACGTCCAGTAACA
-0.5131743878140003 AGGGAGCTCTTTAAAACATAAACCCGCGGCAACCGTTGAC
-0.01682346875719492 TCAGACGGTCGGCATCTTCCATAGTATAACGAGTACGGAT
-0.06647807068735209 GGGCCTCGTTTAGCATGGCAGACCCATCTTCTCCCCCCAC
-0.3621542856056081 AGATCTTTAATCTGGTGAGCCCGTTCCCGTGGACCACGGT
-0.5249193277710419 CACTGACAATGCGCTGGTTTTCAAGGTCGCCAGTTGCTTT
-0.2093268193668997 TTCCACATTCACTACGCTACTAACGTTCTCCCGCCCCACC
-0.2209238656123385 AGACATACAACGGCAACAACACATAAACCGCCCTGGTACG
-0.8557122994361217 ATGTTTATGCCCCGGAAGCGTAGCGTGATGGTAACAGCGT
-0.3496589762406201 GCAACACACAGCAACGTCCATACTCGATGAAGGCGCCTCG
-0.05430025547346738 AAGTCCACTTACAATGCCCCCTTCCCTACATATACAGCAT
-0.4802058630525364 ATAGGGCTTGCGGCTGTATTCTATCCGTTACCAATAGACT
-0.09022155247544794 AACAATCGCGATGGGTATAGCGAGACGACAACCTGATAAC
-0.4713880536848455 CGGTAGAAGGAACAACGTTACGAACGCACCCGCGGTACCT
-0.1704005438231798 CCCCACGCCCTTAGACCTAGCTTCAAAGCAACCTTACTGA
-0.4194067819657422 GATCCTCTCCACGCCCTTAGAAACACAGTGATGCCCAGAC
-0.1116313789653196 ACGCTCCGCTCTGCTACCGACCCGCGTATTCCTTATCCCT
-0.01456822659740203 CCAACCCCTCTCACACCTCACACACGTTGCCTGACCGCTC
-0.3387633953223444 CCATGACCACCACACGCCTTACTCCTTTCTACTCGCACCC
-0.1010801956449212 CGCGACCCAACGCAGACGCCACGCTAGATCGGCGACGGCA
-0.1026529220686545 CCTATTCCCCCATCTGGTCCTGTTGCCCTCGATTATCACT
-0.251102831494858 ACGGCGCGCACGCGTCTGATGGGGGGTAGGTTGCGATGAC
-1 CCGCGTAACCACGGCGCAACTGCATCGGCGCGCACAGTAC
-0.0006384802711573805 CCGCAGGACGTTCCCGTACTCACACTTTGTTGTGAAGATC
-0.1694426684314107 CAGGCCTTACCCCAGCCCATAACGACCTTTACGTACCCTC
-0.3883211523046622 AACATGATGACGACCGGCCTGCCACCCCGTTCACGGTATC
-0.1020619105979591 AATCGCGCCTCACGACCCCCCCCCCCCCGGAGCTGTGGCC
-0.01074786792272859 ACCACACTTTCCCCACCGTTTGTGCGTACCAACGTGTATA
-0.1652971654490973 ACCTCTCTATGGCCCCCTCGGCTACGCACACTACCTATCT
-0.08863108043466647 CGCACTTATACAATGTACCCTGCATACGAGCAGCCCTAAG
-0.1458271954940225 ACCTCAAGCTAACTGCAGATACCAGAACGCTCACAGTCCG
-0.815519858439184 CTCCGTAGAAACGTAACCTTAGATCTCTGTTTAGCTTTAC
-0.661031599776681 AAGGAATTGTTCCCAGGGCAAAGTATTACCCCAGTCCGAC
-0.422760215789229 ACTTTCTAACCAAGGAGACCACCACTTGGGACGGCGCAGT
-0.3946362050452449 GTTACCGTAGACCAAAATGCGCTTCCTGGTTGCGTATGAC
-0.3263456280774945 TCTACCTGCCAACAGCACCCACCAACAATTACAACACATT
-0.1030339209385212 TCATCAACCCCCCAATAACTAACGCCCACGATGCCGTAGC
-0.6193425851431434 ATTCACCGCTGCTAACAACCCCCACCGCACCCCTTACAAC
-0.02427903586445381 GCCCCACCCGTTAGTACTCACCCGTTTCCGCGGACGCTAA
-0.01758077007433136 ACCACGAGGAGGCCTCTCCTCCCTCCGATACAATGACAGC
-0.827850842021295 CTTGCTAGGACACGTTTACCAGCGCCCTATCAAAGGAACA
-0.1475225530495884 GCCCCCTCTTGCAGCCAGTGCGCGCACCGGTAACTACCAA
-0.03955500399592809 TGCTAAAACTGACCCACGCGCAAAACTGTCGTCGTCTCAA
-0.3516870810002673 GCGTCATGCCACTGACACCTGAGCCTTCCATGCCCCCCGC
-0.2357071290838901 AATCGAGCTACCATCACTACCCCCCGCTAGCTCGAGTCCG
-0.04831164664658742 TCCTTTTTACGACAACGACGAGTTTTGAACTGCATCCCGG
-0.3282407756159094 TCTTCGAACCTGTACTCTTTCTTTGGAGGTCGCCAAGGTC
-0.2254172176496393 ACCCGTTTCAAACTTCGTCACGTCCAACGTCGAGACACCT
-1 GCGTGACCATGGCAGCTGTCTTATCCAAGTGGAATGCCGC
-0.2401484136807583 GCCCACCCTCAAGCAACAGCACTCCGAGGCATCGCAAGCC
-0.1237512693432039 CTATACACAGCGCGCGCGTGCCCCCATCGTCGTACTTACC
-0.3416810884389248 GATACGCGCGGTCACCCGCGTTTCTATCGATCATAACCAC
-0.1339509944384753 ACCAAAGCACCTTCCAATCACCCCTGGCATCCGCCGGCGC
-0.0593391390422397 CTGATCTTTAACGGAAGCTAAGGACAACGGGTTGACTCAC
-0.3815211532906068 CGCGCAACCGGTCCAACCAAGAGACTGTTACTACGCGAAA
-0.136446755131975 GCACGTCCACCCGCCCACCCACATGCATCTACACAATGAC
-0.005535285189175405 GCAACGCGTATATGTTGTACCGAACGCCAGGCCTCGATTT
-0.004255305310516318 AGGCCGTATACATACCATGTTCCCCTGCCCTGATGCGTTC
-0.1680896164008552 AAGTCCAAGGGTAAATGCTATGCCACGTTCTTTTACTTCC
-0.07599430688616399 AGGCAGCCGTTTCTGTGACAATCCTGCCTAAGCGCAGCGT
-0.162954037665074 TCTGGCGATTAATAGTTTGATCAGCCATCGCCATGCCTGT
-0.6099926351371051 CAGTGCACCAAACCATAGCCACGAAAATGCAGACGGTTCA
-0.3673874937398993 CCGGAACTCGCCAGCAGGTTGCTCTGCCCCGCTGCCTGAG
-0.007698544569951645 CCCGGTAGCACAACTCGGCAACAGCAGGCTGGATGTCTAC
-0.08444744166037171 CGCTGGAGACAGTCTGTGGTTGCTCTCTCGATAGTTGATC
-0.2969432161917132 ACGGCTGCCCCACGTCCACTCGCCACGGGGTTACCTGATA
-1 ATCCAACAAGCCGTTACCAGCCACACCTCATGGTTGCTTA
-0.6600588442964306 GTCCCCCGGAACCCCTGTTTGTGAACCACGACAACCATAA
-0.03174006730173518 CTCTTGAAAACCACGTGCAACCAACCCCTCAACGATCACA
-0.7743653468423179 CCCCCCACCCAGGCAACCTGAGCTTGATAGAAAGCGCTCA
-0.3115129868870533 CCTACACAGTTCAGCACAGTTACGTGCACGTCTCCCACGC
-0.3355002788302832 TCTCAACGTGATGACACCAATCTCCATGAGCTACAACACC
-0.03518769984606231 AACAACATAATCCTGTTGCATAGGGCCGAGGACCCACCGG
-0.1966689345078692 GCTATGCTAGGCAGCCCTCCCCCCCTAGGGCCCTGCGGTC
-0.2541485527774724 ACATCAGAAGCAACACGACACCTTCCCATTCGCAGTCGCT
-0.06927868870234526 TAACTAACTCTCATGATTTGATCGAAGTTACGCGCGTGGT
-0.2943415838833417 TGGGAGACAATTTCCTACCCCGGTGCCCCAACCACGGCAA
-0.4693586080584828 AGTTTCTTGAACTGAATGTTACAAATTCCATATCAACGCA
-0.2009702774937302 GTGTACTCGGCGCACAACCCCGCAACCCCAGGTAACCCGT
-0.364003485010543 ACTGATCGCACTATAACGGCAACCGCCAGTTGTCCCCCTG
-0.3008597577380449 CAGGGCGTACCTATCCACGACCTCTGCGCGTCAAGAAGCG
-0.08413164231182803 GATATGCTGTCCCCACCCATCCGCAACCGCGCCACTTCCA
-0.8440509874488162 TCATTCCACCTTCCCCCCGAACGAGCATGGTTACACCGGA
-0.03442616365283256 AACCACCAAACACTAACCATGCTTGGTAATTACAGCCGGC
-0.6615670167977226 TAAAGAGTCTCCTGGCAACCCATGCGAGTATTCAACTCTG
-0.6907652134063009 GGCCGTAAGTATCTGGCCGTGACAAGCCAGTGCCAACCAC
-0.05168469376255252 ATCTCCCCTGCCCCGCGCCATCTGCATGTCGTACACACAT
-0.008462225178167117 GCAGCATCCGCGCACAACCCACCGACGAATGTCGCTATAT
-0.1966684676414333 CCGCGTTCGTTCCCCTGCGTTAAAGGCCTGCCCCTCCTAC
-0.2643865964088502 TCAGGGAAACGCCTCCTGCAATAACACAGACCTACGGACC
-0.009355362695219397 CAGCACGGGAACCACGCCGTGCGAACATGGCAGACGCCTC
-0.5982067121044599 CCCACTCGTTCAGAAGGCCGTTGCCACTCCGGTGGGACCA
-0.2416455758646692 GACCCCGTATCTCATGCCAGCGCCTACAACACCCCCCTCC
-0.1196195346296384 ACCGAACTCATCTTGCCCATAGCAGACTGCACCCTGCGCA
-0.6345734083218587 ACGGAGTTTTGTACTGCAAGACGATTGTTATGGTTATCCA
-0.0007082685226768537 AGCTCATGAGCCGTGCATAACAGTCGTGAGCTCTACTTAT
-0.7222351748065544 AAATAAGCGCGGCGTTGCCACTCTCGCGGTGATAGGAACC
-0.2224474516785702 TTGACCACCTAGGCTCACGATACTGAGCAACGCCACGATT
-0.129300156745206 TGACACACTAGTCACTTAACTACGTCCACCTGCCTCGCTA
-0.4146336448720156 AGACTCTTGACAACCCCCAACCTACGCAGCCCTCCAGCTG
-0.02889164172735978 ATACTGATCCCTACCCTTCCGCAAGTGAACGTTCCCATCC
-0.5246237943724769 TGAATCACTATCACTGGAATGCATGACAACCCTGCCACTC
